0.079433,0.110336,0.046451,-0.003648,0.061142,-0.003459,-0.168028,-0.055929,-0.178968
-0.048275,-0.032451,-0.049067,-0.031135,-0.016108,-0.032235,-0.045178,-0.032655,-0.049599
0.019439,0.014870,0.022395,0.014536,0.009791,0.016174,0.021830,0.017251,0.024145
0.029131,0.019126,0.029736,0.022787,0.013270,0.023267,0.025031,0.017217,0.026364
0.024371,0.017855,0.024883,0.018793,0.012010,0.018441,0.024950,0.018346,0.025642
0.023548,0.016151,0.024083,0.017645,0.012000,0.018547,0.024247,0.017389,0.025162
0.034516,0.025523,0.034016,0.026554,0.017186,0.025416,0.032778,0.025214,0.031857
0.020212,0.014421,0.021878,0.016322,0.009117,0.015823,0.022869,0.015200,0.022793
0.024970,0.016149,0.025154,0.017572,0.010355,0.018103,0.023927,0.015939,0.024048
0.020494,0.016357,0.021678,0.017108,0.012403,0.018021,0.022795,0.018059,0.024134
-0.034851,-0.025418,-0.037519,-0.025478,-0.015606,-0.026111,-0.036966,-0.031235,-0.039991
-0.035960,-0.026172,-0.037876,-0.025927,-0.024103,-0.028300,-0.041911,-0.028701,-0.041593
0.023726,0.016307,0.023976,0.018220,0.011111,0.017940,0.023536,0.017796,0.024320
0.024606,0.017724,0.025633,0.018087,0.011644,0.018353,0.025754,0.018883,0.026956
0.021165,0.015794,0.023215,0.017446,0.011130,0.018059,0.025006,0.018076,0.025310
0.023254,0.016436,0.023132,0.017140,0.011159,0.016957,0.023531,0.016979,0.024056
0.026264,0.018500,0.027513,0.019569,0.011291,0.020239,0.026115,0.017664,0.027221
0.024585,0.018142,0.024530,0.017752,0.011066,0.017170,0.025765,0.018944,0.025459
0.022191,0.016512,0.021782,0.016940,0.011359,0.017390,0.024449,0.018080,0.025783
0.024822,0.017395,0.025238,0.016572,0.010055,0.016489,0.023566,0.016396,0.024127
0.023350,0.017201,0.024462,0.017535,0.010756,0.018503,0.023446,0.017165,0.026140
-0.031550,-0.022476,-0.033636,-0.022957,-0.016389,-0.024606,-0.028845,-0.023241,-0.031376
0.023222,0.014911,0.023674,0.015844,0.008717,0.016128,0.026054,0.016260,0.026695
-0.047928,-0.034372,-0.052339,-0.033348,-0.018418,-0.034535,-0.047803,-0.039488,-0.051805
-0.035825,-0.025002,-0.038741,-0.027742,-0.015916,-0.028140,-0.040041,-0.027880,-0.040067
0.022234,0.015641,0.023648,0.017413,0.009982,0.017614,0.025232,0.016625,0.025467
0.022304,0.016638,0.022970,0.016306,0.010216,0.016141,0.021232,0.015753,0.022242
0.025577,0.018011,0.025410,0.018769,0.011919,0.019296,0.024791,0.017631,0.024915
-0.027064,-0.018115,-0.028365,-0.019620,-0.011250,-0.019741,-0.027862,-0.019519,-0.029633
-0.039197,-0.022059,-0.039946,-0.025371,-0.009765,-0.025862,-0.038958,-0.024985,-0.039878
0.022909,0.016997,0.024359,0.017052,0.011267,0.017450,0.025223,0.018055,0.024684
0.020404,0.013901,0.021880,0.014154,0.008518,0.014923,0.021268,0.014978,0.022701
-0.046247,-0.033324,-0.051107,-0.035060,-0.024015,-0.038524,-0.056015,-0.040162,-0.057830
-0.007306,-0.001309,-0.003423,0.002225,0.004593,0.005880,0.005236,0.004929,0.004742
-0.032506,-0.018923,-0.032510,-0.022379,-0.009337,-0.020678,-0.031808,-0.019050,-0.032090
0.022753,0.017458,0.022945,0.018412,0.012892,0.019175,0.024000,0.017507,0.024267
0.020990,0.015238,0.020926,0.016776,0.010581,0.015657,0.022405,0.016187,0.022414
0.025023,0.016996,0.024752,0.017350,0.010880,0.017947,0.024638,0.019023,0.026242
-0.026337,-0.014387,-0.028471,-0.015959,-0.007478,-0.016239,-0.025960,-0.016329,-0.028296
-0.043197,-0.025725,-0.046072,-0.032753,-0.008538,-0.033472,-0.048055,-0.028673,-0.049673
0.021543,0.015036,0.022312,0.016296,0.010784,0.017061,0.023116,0.016952,0.023739
0.020937,0.014279,0.021494,0.014047,0.008498,0.015075,0.020411,0.013710,0.020870
-0.020896,-0.013798,-0.020833,-0.014002,-0.008582,-0.015146,-0.018951,-0.013185,-0.021372
0.022181,0.016286,0.023608,0.016568,0.010650,0.017652,0.020809,0.016093,0.023140
-0.022167,-0.014229,-0.022635,-0.015895,-0.010392,-0.016963,-0.022880,-0.016602,-0.024482
-0.037309,-0.025880,-0.035812,-0.029354,-0.009492,-0.026653,-0.036638,-0.026842,-0.038511
0.023177,0.013920,0.022116,0.016468,0.008569,0.015920,0.024531,0.015997,0.024459
-0.043739,-0.026068,-0.045430,-0.028633,-0.028213,-0.033017,-0.048768,-0.031582,-0.046161
-0.018701,-0.014958,-0.018994,-0.013826,-0.008344,-0.014616,-0.017065,-0.013307,-0.017920
0.023208,0.016760,0.023883,0.016974,0.011574,0.018310,0.022488,0.016404,0.023897
-0.023088,-0.015783,-0.025369,-0.014528,-0.007513,-0.016367,-0.024422,-0.016078,-0.025631
0.023707,0.015528,0.024091,0.017208,0.009525,0.017246,0.024424,0.016180,0.024781
0.024642,0.016170,0.025490,0.016990,0.008538,0.016891,0.023668,0.014377,0.024028
0.026124,0.018265,0.026763,0.020326,0.013564,0.020467,0.025891,0.018340,0.026019
-0.021565,-0.011555,-0.021885,-0.012235,-0.004403,-0.012781,-0.020824,-0.011366,-0.021988
0.023113,0.015335,0.023877,0.016266,0.008833,0.016634,0.024164,0.015636,0.024633
-0.031295,-0.018889,-0.032006,-0.023208,-0.012387,-0.022631,-0.034226,-0.020593,-0.034462
-0.039010,-0.021793,-0.040863,-0.023813,-0.011083,-0.024900,-0.040884,-0.023822,-0.041890
0.020000,0.014825,0.021083,0.012916,0.007571,0.013338,0.020490,0.013961,0.020760
0.021153,0.014889,0.022984,0.014033,0.008718,0.015803,0.019953,0.014174,0.022830
-0.021939,-0.012894,-0.023751,-0.013278,-0.004539,-0.014008,-0.024136,-0.014812,-0.025970
0.023276,0.016315,0.023687,0.018407,0.011765,0.018821,0.023279,0.016642,0.024288
-0.026813,-0.016183,-0.027463,-0.020178,-0.010205,-0.021473,-0.029224,-0.017342,-0.030548
0.024849,0.016777,0.026635,0.017792,0.010992,0.018732,0.026864,0.019249,0.027395
0.022919,0.015281,0.023576,0.015684,0.008134,0.016256,0.023938,0.016337,0.025634
0.023420,0.017663,0.024185,0.020422,0.014419,0.020973,0.025171,0.019339,0.026120
-0.023835,-0.017008,-0.023878,-0.018381,-0.011467,-0.018242,-0.026617,-0.019584,-0.027390
0.020153,0.013252,0.020583,0.014703,0.007724,0.013881,0.021677,0.013643,0.022234
-0.020925,-0.013803,-0.021219,-0.015101,-0.008671,-0.015979,-0.021576,-0.014133,-0.022596
-0.044724,-0.033917,-0.045212,-0.033294,-0.020042,-0.035093,-0.045405,-0.032355,-0.048312
-0.020781,-0.014732,-0.021768,-0.015942,-0.010636,-0.016065,-0.024155,-0.017766,-0.024764
0.024389,0.016199,0.024170,0.017508,0.010731,0.018367,0.025110,0.017666,0.025301
0.021497,0.017285,0.022017,0.017860,0.013217,0.017326,0.024133,0.017990,0.022491
0.024444,0.015621,0.023522,0.017280,0.010342,0.017456,0.024687,0.016275,0.024405
0.021901,0.019883,0.024697,0.020401,0.016546,0.020769,0.025131,0.021209,0.025176
0.022549,0.019751,0.023984,0.017719,0.014870,0.018890,0.020742,0.017709,0.022209
0.023068,0.016317,0.025025,0.016921,0.010807,0.019172,0.025458,0.019340,0.027343
-0.019756,-0.014622,-0.021035,-0.014158,-0.009327,-0.015606,-0.021313,-0.015915,-0.022998
0.026135,0.016379,0.027186,0.019538,0.011330,0.020196,0.026764,0.018901,0.027965
-0.057945,-0.034894,-0.059021,-0.037069,-0.018662,-0.037793,-0.054065,-0.041131,-0.055048
-0.064589,-0.040640,-0.064205,-0.042279,-0.029866,-0.043274,-0.061838,-0.047818,-0.064803
0.023908,0.017311,0.025848,0.017416,0.010719,0.018694,0.024650,0.017503,0.026403
0.023026,0.015917,0.023970,0.015867,0.009297,0.015670,0.023290,0.015615,0.023797
0.022509,0.015328,0.024375,0.016939,0.009870,0.017534,0.022352,0.015584,0.023994
0.021817,0.016316,0.022350,0.016254,0.010815,0.016064,0.021721,0.016973,0.022979
0.022517,0.016029,0.023734,0.017149,0.010363,0.016481,0.023213,0.015875,0.023918
0.023236,0.017090,0.023380,0.017077,0.011746,0.017529,0.023862,0.018108,0.024266
-0.041656,-0.025194,-0.044974,-0.027784,-0.010700,-0.028932,-0.047941,-0.027566,-0.050083
-0.022445,-0.014619,-0.024522,-0.018770,-0.006332,-0.018034,-0.026828,-0.017164,-0.026342
-0.026261,-0.018215,-0.027034,-0.018463,-0.011902,-0.019083,-0.024738,-0.017886,-0.025315
0.022580,0.017182,0.024637,0.016808,0.011749,0.018805,0.022386,0.017032,0.023684
-0.032621,-0.017839,-0.035000,-0.021559,-0.010183,-0.023360,-0.032946,-0.022253,-0.033624
-0.099140,-0.032855,-0.090928,-0.032329,-0.014809,-0.035016,-0.086471,-0.023643,-0.087381
0.020538,0.013752,0.022075,0.013583,0.008098,0.015256,0.022814,0.015012,0.024723
-0.043166,-0.027994,-0.042891,-0.026142,-0.013209,-0.028334,-0.043457,-0.026282,-0.044298
-0.044559,-0.031547,-0.047391,-0.033338,-0.018999,-0.036851,-0.047023,-0.036288,-0.049062
0.022376,0.016377,0.024175,0.016877,0.010460,0.017831,0.022834,0.016408,0.024608
0.024446,0.016963,0.025330,0.018244,0.010867,0.018512,0.025076,0.017351,0.026028
-0.018406,-0.012079,-0.019401,-0.014447,-0.007429,-0.015329,-0.020669,-0.014142,-0.021005
-0.018805,-0.012642,-0.020567,-0.013487,-0.007211,-0.014214,-0.020614,-0.014224,-0.023033
0.033091,0.027620,0.033030,0.030893,0.023541,0.030428,0.034361,0.027511,0.034043
0.022049,0.016291,0.023056,0.015799,0.009647,0.016022,0.024332,0.017554,0.024247
0.021031,0.014587,0.022012,0.018806,0.011926,0.019047,0.025153,0.017865,0.025028
0.020318,0.013614,0.019838,0.015777,0.009484,0.015235,0.020861,0.014255,0.021434
-0.036119,-0.026838,-0.038355,-0.026544,-0.017090,-0.027924,-0.034108,-0.028119,-0.037929
-0.025329,-0.018427,-0.025711,-0.017195,-0.010465,-0.017041,-0.025634,-0.018462,-0.026342
-0.034125,-0.020347,-0.034730,-0.023959,-0.012086,-0.025482,-0.035347,-0.022463,-0.038629
-0.027161,-0.015713,-0.029073,-0.017179,-0.005517,-0.017726,-0.026311,-0.014526,-0.027895
0.023967,0.015947,0.024609,0.018003,0.010705,0.018640,0.025802,0.019939,0.026635
-0.036730,-0.032776,-0.039324,-0.032249,-0.021194,-0.034076,-0.040609,-0.033342,-0.042265
0.023949,0.016249,0.025057,0.016164,0.010532,0.017717,0.024016,0.017771,0.025346
-0.044061,-0.023577,-0.044533,-0.024185,-0.020739,-0.028019,-0.046511,-0.027872,-0.047454
0.023841,0.017549,0.025016,0.018097,0.011995,0.018264,0.024187,0.017444,0.024069
-0.026946,-0.018645,-0.028525,-0.017984,-0.010208,-0.018730,-0.026391,-0.017925,-0.026759
0.023214,0.015663,0.023236,0.017267,0.009186,0.017545,0.025243,0.016356,0.025395
0.021114,0.015056,0.020747,0.017660,0.011527,0.017275,0.024248,0.017458,0.024435
0.024426,0.016195,0.024595,0.018607,0.010943,0.018404,0.024151,0.016374,0.024351
0.022296,0.015654,0.025011,0.017205,0.011001,0.019006,0.025212,0.017855,0.026971
0.020192,0.014790,0.021203,0.014249,0.009047,0.013974,0.020201,0.015350,0.021105
0.024300,0.017104,0.024423,0.017145,0.011504,0.018048,0.025029,0.017910,0.025419
-0.024755,-0.015077,-0.024204,-0.015175,-0.005577,-0.015049,-0.023991,-0.014887,-0.024495
-0.042398,-0.030095,-0.044407,-0.028454,-0.012818,-0.030222,-0.040313,-0.030928,-0.042662
-0.040632,-0.026380,-0.043536,-0.027790,-0.013216,-0.028833,-0.040650,-0.028107,-0.041892
-0.021510,-0.013894,-0.021726,-0.016517,-0.010053,-0.017505,-0.024126,-0.016444,-0.025506
0.020728,0.015209,0.021140,0.016080,0.010343,0.016528,0.021330,0.015192,0.022163
-0.029580,-0.020356,-0.031223,-0.020850,-0.013780,-0.022910,-0.029687,-0.021946,-0.030722
0.024777,0.017810,0.025907,0.018937,0.012397,0.019109,0.024219,0.017866,0.024590
-0.025767,-0.018212,-0.028067,-0.016309,-0.010600,-0.018266,-0.025027,-0.017349,-0.025847
0.024686,0.020083,0.026466,0.018952,0.013283,0.020011,0.024879,0.019607,0.026009
0.020586,0.014393,0.021127,0.014721,0.009244,0.015592,0.021818,0.015546,0.022796
0.021467,0.013435,0.021755,0.014540,0.007895,0.014142,0.022100,0.014364,0.022560
0.022999,0.014950,0.023640,0.016103,0.008517,0.016723,0.024943,0.016519,0.025253
0.021420,0.015689,0.022698,0.015172,0.008565,0.015001,0.022137,0.014459,0.022301
0.023586,0.017718,0.024431,0.018070,0.011551,0.018576,0.023974,0.017198,0.024598
-0.021025,-0.014778,-0.022754,-0.014087,-0.009582,-0.016385,-0.022553,-0.016241,-0.023768
0.025939,0.020627,0.026020,0.020280,0.014034,0.019802,0.024977,0.019849,0.025142
0.023377,0.015574,0.023402,0.017454,0.010570,0.017160,0.023574,0.016184,0.023917
-0.020248,-0.013183,-0.021086,-0.015169,-0.007458,-0.014288,-0.021551,-0.013216,-0.020515
0.034283,0.027546,0.034376,0.028589,0.021629,0.029328,0.033635,0.029079,0.036350
-0.023848,-0.011983,-0.025640,-0.013526,-0.003709,-0.014309,-0.023785,-0.013397,-0.024617
-0.032129,-0.019422,-0.033281,-0.017436,-0.006263,-0.018705,-0.032057,-0.017759,-0.031851
-0.039350,-0.024923,-0.040432,-0.024390,-0.014534,-0.025508,-0.039124,-0.022118,-0.037597
0.019831,0.014625,0.021703,0.016380,0.010923,0.017903,0.022319,0.015782,0.023648
0.021508,0.016074,0.023225,0.016381,0.010622,0.016985,0.022401,0.017211,0.024522
-0.022579,-0.014565,-0.022381,-0.014600,-0.008209,-0.014849,-0.023110,-0.016070,-0.024852
-0.027424,-0.019300,-0.028640,-0.019672,-0.011572,-0.020117,-0.029178,-0.019458,-0.028284
-0.029048,-0.020010,-0.030256,-0.021613,-0.008258,-0.020990,-0.029538,-0.018762,-0.029652
0.023428,0.018421,0.024389,0.019678,0.013739,0.019776,0.025053,0.019398,0.025740
-0.022438,-0.014063,-0.023745,-0.016307,-0.006085,-0.015168,-0.021866,-0.013309,-0.021368
0.023275,0.019360,0.024805,0.019829,0.014941,0.020383,0.024648,0.019665,0.025739
0.021685,0.015225,0.022445,0.015798,0.009568,0.016797,0.021943,0.015008,0.023348
0.022333,0.016836,0.023577,0.016674,0.010591,0.016590,0.022523,0.017237,0.023431
0.021383,0.014503,0.020205,0.016887,0.009803,0.016736,0.022356,0.016009,0.022450
0.023334,0.016004,0.023507,0.017097,0.010197,0.016634,0.022645,0.015036,0.021954
0.025706,0.021395,0.026415,0.020859,0.016416,0.021665,0.024625,0.021002,0.025491
-0.031894,-0.019835,-0.037072,-0.024241,-0.014217,-0.026293,-0.039681,-0.025501,-0.043983
-0.012854,-0.008350,-0.015209,-0.009028,-0.004323,-0.010724,-0.016426,-0.010396,-0.017215
0.023763,0.018011,0.024935,0.017161,0.010990,0.017958,0.025407,0.018789,0.026151
-0.021886,-0.016147,-0.022416,-0.015068,-0.009600,-0.015833,-0.020383,-0.014828,-0.022441
0.021173,0.015248,0.022953,0.015444,0.010414,0.017011,0.020753,0.015247,0.022956
-0.020152,-0.013454,-0.021361,-0.014073,-0.007739,-0.014284,-0.020827,-0.013644,-0.021652
-0.037385,-0.022254,-0.040632,-0.023629,-0.006025,-0.024607,-0.039627,-0.024433,-0.040693
0.025426,0.019523,0.026914,0.020111,0.014172,0.021938,0.027906,0.020916,0.028879
0.024137,0.015324,0.024443,0.015507,0.008262,0.016297,0.023823,0.014919,0.024844
0.021470,0.016546,0.022241,0.016415,0.010763,0.017001,0.022840,0.017003,0.023513
-0.022992,-0.015220,-0.022515,-0.015167,-0.008812,-0.015544,-0.021388,-0.015144,-0.021726
-0.020078,-0.013978,-0.020594,-0.011833,-0.007083,-0.013216,-0.019892,-0.012432,-0.019812
-0.019898,-0.012598,-0.018615,-0.012900,-0.006528,-0.011642,-0.018996,-0.012096,-0.019048
0.021195,0.015017,0.022490,0.015779,0.009702,0.016484,0.021897,0.015351,0.022775
0.026127,0.018986,0.027222,0.019803,0.012285,0.020153,0.028129,0.020468,0.028395
-0.036374,-0.022582,-0.040926,-0.024821,-0.007039,-0.025352,-0.038047,-0.025047,-0.040451
-0.024350,-0.016332,-0.025846,-0.016944,-0.009446,-0.017164,-0.024966,-0.016586,-0.025273
0.022501,0.018022,0.023468,0.018589,0.012387,0.018266,0.025851,0.019439,0.025731
-0.020108,-0.013821,-0.019339,-0.013073,-0.007236,-0.012416,-0.021453,-0.016120,-0.021477
-0.046768,-0.029972,-0.047178,-0.031231,-0.020852,-0.031701,-0.043291,-0.026171,-0.041739
-0.023538,-0.017629,-0.025794,-0.018149,-0.011600,-0.019520,-0.025282,-0.018279,-0.027810
-0.034759,-0.019166,-0.036808,-0.024526,-0.008481,-0.024759,-0.039990,-0.022757,-0.041798
-0.045958,-0.032542,-0.046386,-0.030444,-0.018764,-0.031935,-0.045544,-0.032058,-0.043529
0.021279,0.015757,0.021912,0.016521,0.010387,0.016882,0.023472,0.016641,0.023622
0.022778,0.015732,0.024130,0.016752,0.010123,0.016783,0.022453,0.015426,0.023077
-0.018199,-0.011958,-0.019562,-0.011565,-0.006160,-0.012849,-0.019351,-0.011656,-0.021447
0.024973,0.018163,0.025957,0.017711,0.012112,0.018228,0.025828,0.019275,0.026309
0.025407,0.016978,0.023926,0.017404,0.008911,0.016021,0.025360,0.014219,0.024341
0.023558,0.017645,0.024755,0.017166,0.011637,0.018095,0.025196,0.018626,0.026248
-0.014906,-0.010581,-0.016377,-0.010973,-0.005589,-0.009803,-0.017178,-0.011731,-0.016225
0.021793,0.015616,0.021921,0.016607,0.010807,0.016516,0.021583,0.015426,0.022072
-0.036722,-0.022050,-0.038942,-0.023501,-0.009689,-0.025090,-0.038580,-0.022128,-0.040543
0.023017,0.016052,0.022952,0.016364,0.010086,0.016096,0.023392,0.017170,0.023881
0.023906,0.017784,0.024597,0.018985,0.012653,0.019126,0.025671,0.019238,0.026909
-0.036052,-0.024838,-0.038553,-0.024138,-0.012842,-0.025780,-0.036618,-0.026031,-0.038925
0.022865,0.015406,0.022212,0.016201,0.010266,0.015646,0.023792,0.017629,0.023768
0.023632,0.017560,0.023880,0.018456,0.013308,0.019496,0.024610,0.018741,0.025089
-0.026328,-0.016362,-0.027309,-0.018450,-0.009617,-0.018549,-0.026880,-0.017676,-0.028735
0.021650,0.013785,0.022377,0.014038,0.007438,0.015180,0.023242,0.015522,0.023824
0.023765,0.014537,0.023271,0.015905,0.007954,0.015442,0.022503,0.015531,0.021955
0.022675,0.016403,0.023946,0.015385,0.009975,0.016014,0.021916,0.015746,0.022080
-0.023478,-0.018016,-0.024985,-0.018611,-0.012382,-0.018836,-0.026092,-0.018247,-0.026243
-0.024275,-0.015528,-0.025310,-0.017704,-0.009747,-0.018200,-0.024385,-0.019077,-0.026467
0.022298,0.016218,0.023686,0.017205,0.012491,0.018409,0.024131,0.019050,0.025389
0.021657,0.016639,0.024243,0.016157,0.011182,0.018246,0.021661,0.015600,0.023664
0.022684,0.017897,0.023491,0.016885,0.012103,0.017556,0.022821,0.017185,0.023015
0.023294,0.016440,0.023406,0.016765,0.010500,0.017333,0.023168,0.016137,0.023567
-0.165010,-0.060902,-0.171993,-0.003471,0.067336,-0.005458,0.071646,0.089281,0.057473
0.020275,0.015067,0.022297,0.016337,0.010417,0.018340,0.023847,0.016922,0.025053
0.020517,0.015731,0.022853,0.015994,0.009503,0.016880,0.022252,0.014895,0.022975
0.023758,0.018165,0.024945,0.019615,0.014879,0.020100,0.025443,0.020425,0.025806
0.021665,0.016484,0.023282,0.016051,0.010726,0.017032,0.022421,0.016219,0.024475
0.022478,0.017693,0.024192,0.016025,0.011861,0.018445,0.024100,0.019266,0.026961
0.022609,0.014173,0.022890,0.013888,0.007369,0.014602,0.021151,0.013390,0.022533
0.027497,0.019139,0.028700,0.018694,0.010326,0.019238,0.026749,0.018500,0.028392
-0.024287,-0.016773,-0.023889,-0.016949,-0.009480,-0.017158,-0.025404,-0.017092,-0.026225
0.022578,0.016665,0.022998,0.017581,0.011081,0.018281,0.024100,0.016447,0.024853
0.020956,0.014082,0.021152,0.014064,0.007831,0.014643,0.021507,0.014257,0.020711
0.023198,0.017208,0.024161,0.016219,0.010326,0.017421,0.023759,0.017494,0.025705
-0.023835,-0.017476,-0.023373,-0.015378,-0.009595,-0.015170,-0.022329,-0.015885,-0.022767
0.023437,0.017920,0.025296,0.018592,0.013219,0.018896,0.024120,0.019524,0.025162
-0.045144,-0.031624,-0.046838,-0.032135,-0.015691,-0.032745,-0.044583,-0.031719,-0.046209
0.026261,0.018575,0.026103,0.019199,0.011233,0.018387,0.026139,0.018380,0.026679
-0.018680,-0.013077,-0.020113,-0.012918,-0.007584,-0.014497,-0.020924,-0.013540,-0.022536
-0.029869,-0.019754,-0.031696,-0.020212,-0.011872,-0.020860,-0.033843,-0.020575,-0.034361
-0.044999,-0.030910,-0.047234,-0.038187,-0.021386,-0.038692,-0.055293,-0.041633,-0.058307
-0.024381,-0.017643,-0.025796,-0.017344,-0.010883,-0.018193,-0.024501,-0.017858,-0.025830
-0.037493,-0.023736,-0.039059,-0.020878,-0.008932,-0.021756,-0.036312,-0.022582,-0.037013
-0.015416,-0.008970,-0.014449,-0.010857,-0.004402,-0.010345,-0.016520,-0.010785,-0.015722
-0.039488,-0.024233,-0.042381,-0.024147,-0.010753,-0.024552,-0.039362,-0.025436,-0.041426
0.021015,0.015162,0.023341,0.015946,0.011171,0.017630,0.022935,0.016994,0.024297
-0.045928,-0.027441,-0.048646,-0.028322,-0.014083,-0.030929,-0.048543,-0.035014,-0.051213
-0.042657,-0.026498,-0.042783,-0.032482,-0.027006,-0.035955,-0.043936,-0.029052,-0.048236
-0.023340,-0.017189,-0.023398,-0.016966,-0.011616,-0.016748,-0.024481,-0.017578,-0.023370
0.024047,0.015602,0.025240,0.015087,0.008673,0.016182,0.025034,0.015710,0.025006
0.028732,0.022041,0.029496,0.026451,0.018919,0.026559,0.031757,0.024144,0.031755
-0.013407,-0.008931,-0.013243,-0.008515,-0.004609,-0.008587,-0.015358,-0.010126,-0.015390
-0.039615,-0.023545,-0.039486,-0.022871,-0.009977,-0.022158,-0.042951,-0.026119,-0.042132
-0.040603,-0.026403,-0.040278,-0.024075,-0.014114,-0.026014,-0.039200,-0.027768,-0.039685
0.024423,0.016357,0.025876,0.017863,0.010453,0.018811,0.024853,0.016979,0.026579
0.024391,0.019229,0.026226,0.018461,0.012954,0.018787,0.023534,0.017711,0.023745
0.023255,0.014889,0.024586,0.015430,0.009068,0.016666,0.023299,0.014938,0.025026
0.028279,0.024822,0.031255,0.024576,0.019546,0.025861,0.030469,0.026085,0.032120
0.029993,0.023702,0.029212,0.025150,0.018083,0.023570,0.028791,0.023112,0.028117
0.021036,0.014323,0.020984,0.017321,0.010347,0.016965,0.023886,0.016861,0.023920
0.023181,0.016809,0.023257,0.018012,0.011633,0.017904,0.024737,0.017846,0.024896
0.023531,0.017392,0.023711,0.017222,0.011316,0.017870,0.023574,0.016891,0.023904
0.022679,0.015819,0.023107,0.016537,0.010075,0.016886,0.023305,0.016381,0.023710
-0.033651,-0.022758,-0.034657,-0.022130,-0.011706,-0.022177,-0.031725,-0.022569,-0.032452
-0.046991,-0.034641,-0.049785,-0.029876,-0.014936,-0.032045,-0.044307,-0.031291,-0.047802
0.022642,0.015839,0.023436,0.015396,0.009485,0.015624,0.021741,0.015656,0.023332
0.024404,0.015938,0.025177,0.018144,0.009708,0.018211,0.028126,0.018904,0.029140
0.023134,0.014918,0.023045,0.017460,0.010201,0.017495,0.024833,0.016974,0.025088
0.021188,0.013414,0.022000,0.015051,0.008822,0.016185,0.022871,0.015869,0.023999
-0.042602,-0.029198,-0.044971,-0.029687,-0.014672,-0.031962,-0.042250,-0.028957,-0.045202
-0.034345,-0.018823,-0.035312,-0.019923,-0.006020,-0.021384,-0.035389,-0.018640,-0.040931
0.022540,0.014656,0.022607,0.017852,0.010838,0.017073,0.023485,0.015985,0.022893
0.023451,0.016114,0.024957,0.018891,0.011483,0.019554,0.025471,0.017815,0.026267
0.021953,0.015789,0.022595,0.017346,0.011222,0.017163,0.024796,0.018111,0.025277
0.022996,0.014923,0.022757,0.014430,0.008030,0.013980,0.021583,0.014610,0.022045
0.022516,0.016134,0.024923,0.016316,0.010344,0.019096,0.025367,0.018504,0.027128
0.024891,0.022227,0.025852,0.020507,0.015683,0.021625,0.026307,0.022171,0.028145
0.022381,0.016757,0.022597,0.016628,0.011183,0.017563,0.022895,0.017262,0.024530
0.024339,0.018044,0.025313,0.018508,0.012181,0.019478,0.024606,0.018286,0.025296
0.024314,0.017045,0.024607,0.022138,0.015638,0.022307,0.028433,0.022201,0.028776
-0.025447,-0.014699,-0.027249,-0.016346,-0.007215,-0.016549,-0.024855,-0.014298,-0.026168
-0.029403,-0.021505,-0.032421,-0.022192,-0.015924,-0.022894,-0.031144,-0.024061,-0.032912
-0.020817,-0.015762,-0.021726,-0.016796,-0.011653,-0.017905,-0.022008,-0.016190,-0.023511
-0.041785,-0.030282,-0.043278,-0.034225,-0.021230,-0.035703,-0.040382,-0.028123,-0.042190
-0.021497,-0.016287,-0.022662,-0.016808,-0.010022,-0.017041,-0.024224,-0.017053,-0.025158
0.023336,0.017216,0.024052,0.018079,0.011217,0.017886,0.025338,0.017824,0.024696
-0.042671,-0.027022,-0.046777,-0.028690,-0.019334,-0.031899,-0.041180,-0.026306,-0.043292
0.022715,0.015150,0.022897,0.017507,0.010388,0.017416,0.025390,0.016635,0.025315
-0.019780,-0.012420,-0.022327,-0.011699,-0.005232,-0.012943,-0.019151,-0.012105,-0.020636
0.025617,0.018459,0.027229,0.019285,0.012223,0.020317,0.025516,0.018407,0.027296
0.023560,0.015898,0.022846,0.016755,0.011010,0.016977,0.022798,0.016546,0.022841
0.022401,0.015079,0.023268,0.017345,0.010658,0.017820,0.023783,0.016854,0.024274
-0.022200,-0.013376,-0.024394,-0.012732,-0.005831,-0.014671,-0.025891,-0.015353,-0.027306
0.024572,0.016619,0.024658,0.017989,0.011516,0.017781,0.024151,0.018049,0.025149
0.026278,0.019818,0.026751,0.019808,0.013759,0.019395,0.027433,0.021160,0.027422
0.022299,0.015423,0.023525,0.015870,0.009963,0.016751,0.023663,0.017080,0.024716
0.023765,0.016188,0.025247,0.018183,0.010681,0.019551,0.023707,0.017681,0.026272
-0.024492,-0.016896,-0.026837,-0.015540,-0.009066,-0.017210,-0.025867,-0.016418,-0.026173
-0.015793,-0.011249,-0.016121,-0.011163,-0.006117,-0.011248,-0.015799,-0.010669,-0.016758
-0.039473,-0.020694,-0.041305,-0.022652,-0.005629,-0.023628,-0.042156,-0.024367,-0.042117
-0.029061,-0.021526,-0.032479,-0.025379,-0.015901,-0.026956,-0.041264,-0.026136,-0.042941
0.022288,0.017169,0.022426,0.019110,0.012590,0.017856,0.024043,0.018193,0.022851
0.022762,0.017576,0.023421,0.018092,0.012510,0.018419,0.022663,0.016910,0.023464
0.027121,0.019623,0.027528,0.020774,0.013289,0.020130,0.026766,0.018594,0.026962
0.023559,0.014051,0.024514,0.015398,0.006962,0.016298,0.023025,0.014008,0.024712
0.021211,0.016734,0.022123,0.017262,0.012203,0.018308,0.024629,0.018907,0.025028
0.022352,0.014075,0.022710,0.014839,0.008387,0.015758,0.023315,0.014812,0.023588
-0.023940,-0.015650,-0.025292,-0.016836,-0.009184,-0.016780,-0.025141,-0.016949,-0.026305
0.023053,0.015153,0.023180,0.017143,0.009663,0.016752,0.023525,0.015122,0.024020
-0.018336,-0.013493,-0.019531,-0.014595,-0.009173,-0.014641,-0.020950,-0.013054,-0.019949
0.022868,0.015938,0.026395,0.016169,0.008633,0.018613,0.023451,0.015275,0.026089
-0.025308,-0.018098,-0.025930,-0.018687,-0.013443,-0.018452,-0.028746,-0.021211,-0.029653
-0.041091,-0.024735,-0.041027,-0.022952,-0.014439,-0.024446,-0.036996,-0.024847,-0.038007
0.024865,0.015791,0.025237,0.017686,0.010164,0.017962,0.025191,0.017180,0.025704
-0.025149,-0.017047,-0.025566,-0.017899,-0.011483,-0.018187,-0.025262,-0.017255,-0.026315
-0.031615,-0.021847,-0.033449,-0.020074,-0.012256,-0.020835,-0.030082,-0.021837,-0.031176
-0.033215,-0.019308,-0.035861,-0.022561,-0.010231,-0.024253,-0.036661,-0.022921,-0.035737
0.024670,0.016823,0.025634,0.017856,0.010393,0.017882,0.025244,0.017761,0.026579
-0.040616,-0.027796,-0.043296,-0.028080,-0.013125,-0.030415,-0.044572,-0.031209,-0.045996
0.024273,0.016956,0.026164,0.016814,0.010033,0.017914,0.022854,0.015762,0.024763
-0.018992,-0.012602,-0.020830,-0.012921,-0.006748,-0.014514,-0.018620,-0.012085,-0.019997
-0.033725,-0.020081,-0.034399,-0.022471,-0.011269,-0.022124,-0.033554,-0.020408,-0.033989
0.025604,0.017617,0.025767,0.017416,0.009877,0.016498,0.025099,0.015089,0.023804
-0.026746,-0.015099,-0.029299,-0.016771,-0.006903,-0.019017,-0.024717,-0.015051,-0.028609
-0.030633,-0.016875,-0.029807,-0.017474,-0.005148,-0.016395,-0.027629,-0.016239,-0.028023
0.021798,0.018414,0.023169,0.017026,0.013345,0.018266,0.021901,0.018512,0.023334
-0.037071,-0.021109,-0.039520,-0.023428,-0.006908,-0.024073,-0.037088,-0.019912,-0.038553
0.026780,0.021355,0.027755,0.022317,0.015309,0.022329,0.028116,0.020894,0.029047
0.023957,0.015809,0.024904,0.017136,0.009480,0.017492,0.024906,0.016665,0.024914
0.023821,0.015494,0.023596,0.017221,0.010189,0.017439,0.024152,0.016635,0.025077
0.021319,0.016964,0.022967,0.016077,0.011818,0.017075,0.021196,0.016757,0.022891
0.021363,0.016120,0.022198,0.016127,0.011156,0.016593,0.021788,0.016128,0.022701
-0.036799,-0.022970,-0.037944,-0.029501,-0.015498,-0.030523,-0.045637,-0.028945,-0.045496
-0.021238,-0.016868,-0.022377,-0.017806,-0.012429,-0.018000,-0.023437,-0.018194,-0.024287
-0.039459,-0.023030,-0.044747,-0.024346,-0.010572,-0.027540,-0.036867,-0.022737,-0.040460
0.019901,0.014902,0.020043,0.018617,0.013866,0.018410,0.024906,0.019639,0.025515
0.024088,0.020307,0.025728,0.020383,0.015833,0.021681,0.023819,0.021686,0.026180
0.023324,0.015638,0.024218,0.016905,0.009080,0.017474,0.024374,0.015433,0.024658
0.022850,0.016824,0.024217,0.018474,0.012941,0.019643,0.024995,0.018927,0.025561
-0.022125,-0.016154,-0.023261,-0.015692,-0.010484,-0.016213,-0.018983,-0.013818,-0.019925
0.023923,0.018902,0.024888,0.018258,0.012350,0.018690,0.022682,0.017366,0.023396
-0.046074,-0.027812,-0.049695,-0.029133,-0.017255,-0.031395,-0.048482,-0.032986,-0.048155
0.023753,0.018443,0.023966,0.020348,0.014498,0.020269,0.025950,0.021662,0.027261
-0.040235,-0.018706,-0.041834,-0.027540,-0.009380,-0.028292,-0.045942,-0.024629,-0.048134
-0.026477,-0.015400,-0.026230,-0.019595,-0.011626,-0.019912,-0.027213,-0.018133,-0.027912
-0.035845,-0.028857,-0.038474,-0.025905,-0.018499,-0.027617,-0.033911,-0.028483,-0.034631
0.025105,0.019051,0.027045,0.019844,0.013641,0.020928,0.025720,0.019617,0.026940
-0.022283,-0.014519,-0.024046,-0.016018,-0.008606,-0.016424,-0.022741,-0.014575,-0.023511
-0.087158,-0.041919,-0.092594,-0.062398,-0.047884,-0.071117,0.089515,0.048438,0.091956
-0.021131,-0.013328,-0.021287,-0.014005,-0.007067,-0.014207,-0.020954,-0.013287,-0.021900
-0.028391,-0.020311,-0.030797,-0.017132,-0.009431,-0.018580,-0.032637,-0.023093,-0.033090
0.021822,0.015729,0.022937,0.017345,0.010876,0.017613,0.022093,0.016084,0.023546
0.021372,0.015248,0.022288,0.015163,0.009892,0.016040,0.022232,0.015787,0.022806
-0.050569,-0.033465,-0.048626,-0.027987,-0.016806,-0.030117,-0.045744,-0.032437,-0.046794
-0.035105,-0.020267,-0.033944,-0.025063,-0.011201,-0.026712,-0.035862,-0.025932,-0.037132
-0.021549,-0.011903,-0.021276,-0.013035,-0.004453,-0.013564,-0.021955,-0.012274,-0.022661
0.019915,0.013906,0.021980,0.015258,0.009877,0.017195,0.021631,0.015410,0.022960
0.018752,0.013810,0.020743,0.012731,0.007008,0.014086,0.019969,0.013355,0.021212
0.024772,0.017089,0.026147,0.018840,0.011380,0.018970,0.025667,0.017977,0.027124
-0.035486,-0.020659,-0.036629,-0.025668,-0.010673,-0.026522,-0.041232,-0.025904,-0.042733
0.023859,0.016456,0.024732,0.016661,0.010784,0.017851,0.024469,0.017806,0.025383
-0.045751,-0.028503,-0.047948,-0.029028,-0.017789,-0.031273,-0.044112,-0.030350,-0.046508
-0.021653,-0.014147,-0.023693,-0.012986,-0.005678,-0.013747,-0.020518,-0.014231,-0.022509
-0.022701,-0.014028,-0.022394,-0.013407,-0.006152,-0.014248,-0.020450,-0.014488,-0.022364
0.020169,0.016539,0.021268,0.017114,0.012365,0.017271,0.023323,0.018075,0.023873
-0.039311,-0.025419,-0.040327,-0.024783,-0.014399,-0.027380,-0.043021,-0.027758,-0.042154
0.023072,0.015909,0.023400,0.017085,0.010428,0.017438,0.022937,0.015434,0.023423
0.021745,0.015061,0.021891,0.015473,0.010696,0.016675,0.022472,0.016708,0.022339
-0.025286,-0.015871,-0.027699,-0.017127,-0.008205,-0.018075,-0.026032,-0.015950,-0.026998
0.023802,0.016970,0.025573,0.017689,0.011044,0.018816,0.024882,0.017805,0.026019
0.023431,0.017985,0.025255,0.018338,0.012366,0.018627,0.024313,0.018957,0.025471
-0.025134,-0.015748,-0.026074,-0.016498,-0.008261,-0.017035,-0.024607,-0.016782,-0.027066
-0.020589,-0.013287,-0.021345,-0.012407,-0.008080,-0.012774,-0.018941,-0.013426,-0.017932
0.022918,0.018226,0.024353,0.018882,0.014933,0.020793,0.025112,0.020193,0.026584
-0.044889,-0.021660,-0.046986,-0.027734,-0.010618,-0.029139,-0.043555,-0.028773,-0.043969
0.024053,0.018203,0.024915,0.018418,0.013241,0.019838,0.023327,0.017741,0.025181
0.022099,0.015256,0.023480,0.015869,0.009589,0.016787,0.023446,0.016455,0.024480
-0.019669,-0.013977,-0.020335,-0.015764,-0.009665,-0.016452,-0.020191,-0.014563,-0.021785
0.022109,0.017176,0.023835,0.015607,0.010957,0.017241,0.022684,0.017227,0.024055
0.023212,0.016883,0.023489,0.017216,0.011441,0.016749,0.025588,0.019290,0.025632
-0.020810,-0.012365,-0.021722,-0.014840,-0.006519,-0.015267,-0.023403,-0.013949,-0.024016
0.027097,0.019346,0.027332,0.021220,0.014109,0.020466,0.028418,0.021347,0.029216
-0.021271,-0.014896,-0.022539,-0.016103,-0.010148,-0.016684,-0.024385,-0.016279,-0.024143
-0.021069,-0.015499,-0.022176,-0.016467,-0.010862,-0.017002,-0.023231,-0.016819,-0.023756
0.027350,0.023687,0.029279,0.023231,0.018550,0.024819,0.028711,0.024740,0.030962
-0.021750,-0.016916,-0.022781,-0.015013,-0.010460,-0.015537,-0.023601,-0.017668,-0.023779
0.027186,0.021688,0.027256,0.023948,0.018088,0.023813,0.028978,0.023723,0.030161
-0.044711,-0.040982,-0.046106,-0.038111,-0.033075,-0.039448,-0.043130,-0.044991,-0.043452
0.022638,0.015932,0.023471,0.017093,0.010956,0.017381,0.023086,0.016678,0.023369
-0.030922,-0.017117,-0.029281,-0.018308,-0.012565,-0.020866,-0.033414,-0.022940,-0.033515
0.145539,-0.076247,0.162143,0.007893,-0.220108,-0.000075,0.146910,-0.084818,0.149743
0.023697,0.016995,0.024903,0.017456,0.012188,0.018784,0.023579,0.017599,0.025162
-0.064116,-0.041845,-0.065831,-0.042597,-0.027863,-0.045051,-0.059313,-0.042584,-0.062701
0.022302,0.015137,0.022947,0.015343,0.010024,0.016794,0.022495,0.015817,0.023613
0.020813,0.015036,0.022284,0.017663,0.012330,0.018317,0.023850,0.017697,0.023745
0.021662,0.015045,0.021912,0.016435,0.009593,0.017007,0.023072,0.016913,0.024329
0.023029,0.014691,0.023278,0.017844,0.010216,0.017681,0.024537,0.016540,0.025339
-0.040093,-0.022875,-0.042877,-0.027702,-0.013180,-0.030394,-0.044522,-0.027658,-0.046169
-0.035050,-0.021241,-0.035532,-0.021206,-0.011909,-0.023564,-0.038149,-0.023343,-0.039125
-0.030714,-0.020990,-0.032530,-0.022610,-0.013359,-0.024852,-0.030587,-0.022243,-0.031469
0.023201,0.018121,0.025167,0.017315,0.011579,0.019124,0.025255,0.018750,0.027039
-0.021566,-0.013926,-0.022208,-0.015528,-0.008859,-0.016084,-0.024451,-0.016746,-0.024752
0.022177,0.018875,0.024240,0.017671,0.013873,0.018812,0.021488,0.017363,0.022432
-0.046763,-0.031808,-0.049986,-0.033972,-0.022045,-0.035078,-0.047706,-0.038098,-0.052359
-0.031450,-0.020627,-0.033264,-0.021917,-0.012028,-0.022731,-0.035018,-0.021770,-0.035076
0.021250,0.016454,0.022499,0.016636,0.011611,0.017381,0.022754,0.017494,0.023624
0.024292,0.015837,0.024559,0.017521,0.010778,0.017834,0.024191,0.016729,0.024608
0.023765,0.014864,0.024366,0.018721,0.010125,0.018271,0.025213,0.016391,0.024353
0.024253,0.015350,0.023982,0.019257,0.011986,0.018901,0.024557,0.017396,0.025400
0.022909,0.016802,0.024566,0.017088,0.010877,0.017883,0.022737,0.015792,0.024179
0.023121,0.014446,0.023341,0.014735,0.006622,0.014130,0.023889,0.014410,0.023999
-0.037262,-0.025273,-0.039297,-0.027083,-0.013788,-0.029708,-0.041289,-0.027150,-0.043934
0.041115,0.028711,0.042533,0.039454,0.027257,0.040110,0.042614,0.030721,0.043092
-0.016647,-0.010471,-0.016708,-0.012316,-0.006859,-0.012626,-0.016786,-0.012683,-0.018755
0.025141,0.016350,0.025337,0.019189,0.011484,0.019825,0.024606,0.017571,0.024830
-0.020385,-0.013841,-0.021356,-0.014996,-0.007823,-0.013984,-0.023271,-0.014867,-0.022498
0.020982,0.015813,0.022760,0.016334,0.010333,0.017565,0.023470,0.017187,0.025000
-0.020004,-0.012201,-0.020679,-0.013437,-0.007015,-0.014169,-0.019919,-0.012556,-0.020483
0.023538,0.017289,0.024619,0.016863,0.010244,0.017216,0.024589,0.017449,0.024637
0.019154,0.015834,0.020935,0.015793,0.012831,0.016773,0.022247,0.017743,0.023323
-0.047643,-0.028566,-0.045994,-0.030694,-0.013168,-0.029626,-0.045658,-0.030542,-0.045552
-0.043341,-0.023983,-0.043721,-0.026935,-0.010864,-0.026407,-0.041872,-0.024684,-0.042528
0.021121,0.015239,0.022138,0.016507,0.011178,0.018504,0.021656,0.015587,0.023136
0.030902,0.028925,0.032921,0.031094,0.027122,0.032181,0.036607,0.035191,0.038697
-0.041869,-0.024362,-0.041989,-0.026585,-0.016483,-0.027863,-0.042035,-0.026585,-0.043826
0.024117,0.015612,0.024453,0.016933,0.010469,0.017614,0.024328,0.016396,0.024929
-0.040840,-0.028180,-0.043775,-0.030748,-0.014161,-0.030572,-0.049988,-0.031609,-0.050757
-0.041155,-0.027288,-0.042506,-0.027047,-0.015958,-0.028466,-0.037484,-0.025238,-0.037990
0.030124,0.026470,0.030346,0.025225,0.019775,0.024666,0.030582,0.024738,0.029948
0.021413,0.014502,0.021787,0.015667,0.008523,0.015777,0.021965,0.014863,0.022683
-0.045886,-0.033169,-0.048242,-0.037165,-0.020454,-0.040729,-0.048986,-0.035475,-0.050555
-0.023065,-0.015478,-0.022768,-0.015219,-0.007060,-0.015307,-0.023054,-0.014061,-0.023031
0.023800,0.017191,0.024871,0.017587,0.011063,0.017974,0.022738,0.016875,0.024065
0.023776,0.018327,0.023896,0.019215,0.012266,0.019500,0.025180,0.018680,0.025910
0.020789,0.015803,0.022571,0.017439,0.012048,0.018607,0.023919,0.017917,0.025298
-0.038973,-0.026218,-0.040002,-0.024949,-0.017052,-0.026440,-0.038474,-0.026712,-0.038837
-0.018624,-0.012110,-0.018131,-0.009069,-0.004684,-0.009718,-0.017106,-0.010938,-0.018009
-0.039480,-0.022645,-0.040621,-0.027641,-0.010280,-0.028029,-0.044719,-0.025539,-0.047620
0.019216,0.015141,0.021875,0.014957,0.010287,0.016592,0.019891,0.015490,0.020575
0.024518,0.016952,0.026190,0.016418,0.009295,0.016778,0.026020,0.018009,0.027076
-0.025627,-0.015400,-0.025388,-0.018773,-0.009768,-0.018251,-0.028209,-0.017441,-0.028946
-0.039702,-0.024691,-0.039641,-0.025018,-0.014404,-0.026306,-0.036573,-0.023230,-0.038647
0.033558,0.023744,0.033642,0.025715,0.016313,0.026034,0.028117,0.020651,0.028061
0.022997,0.016717,0.024890,0.016461,0.010001,0.017356,0.024507,0.018089,0.026200
-0.020076,-0.014140,-0.020823,-0.015137,-0.008060,-0.014801,-0.022611,-0.016016,-0.024187
-0.028085,-0.015543,-0.029181,-0.018441,-0.006394,-0.017567,-0.029891,-0.018242,-0.031605
0.023234,0.015016,0.023224,0.017688,0.009693,0.016979,0.023706,0.015746,0.023121
0.024837,0.016543,0.025594,0.018664,0.011269,0.019133,0.027125,0.018207,0.027515
0.027040,0.019037,0.026865,0.019803,0.012030,0.019969,0.026372,0.019158,0.027589
-0.040034,-0.025031,-0.043408,-0.023380,-0.010838,-0.024466,-0.043600,-0.024748,-0.044163
-0.024643,-0.015620,-0.025256,-0.016641,-0.008916,-0.017564,-0.025389,-0.017090,-0.026462
-0.020540,-0.012324,-0.022516,-0.014150,-0.006344,-0.014698,-0.022128,-0.013878,-0.022832
0.022091,0.016474,0.022253,0.014052,0.008119,0.014127,0.021563,0.015079,0.021317
0.026212,0.017584,0.026318,0.019009,0.011217,0.019531,0.025709,0.016540,0.026623
-0.019007,-0.013572,-0.019528,-0.013720,-0.008916,-0.014449,-0.019231,-0.013369,-0.020109
0.021904,0.014812,0.023316,0.015937,0.008660,0.016374,0.024102,0.015099,0.023922
-0.044548,-0.030917,-0.046052,-0.031645,-0.020066,-0.033097,-0.050042,-0.033361,-0.051661
0.022048,0.015179,0.023524,0.016239,0.010184,0.017133,0.023007,0.016663,0.024539
0.023663,0.017506,0.024967,0.016139,0.010679,0.017170,0.022452,0.016685,0.023554
-0.045299,-0.030178,-0.046081,-0.031969,-0.023446,-0.034811,-0.043914,-0.032072,-0.046128
-0.041406,-0.028462,-0.041350,-0.029150,-0.016443,-0.031465,-0.040024,-0.030931,-0.041495
0.028741,0.023047,0.030015,0.025224,0.021979,0.025163,0.029034,0.021037,0.028639
0.021544,0.014788,0.022589,0.015887,0.009406,0.016643,0.023943,0.016155,0.024418
0.021200,0.016018,0.022759,0.015767,0.009702,0.016536,0.023461,0.016807,0.024885
-0.045535,-0.029199,-0.047717,-0.032531,-0.016324,-0.033473,-0.052630,-0.032244,-0.053210
0.022558,0.015811,0.023940,0.016163,0.010392,0.017068,0.023962,0.017335,0.024225
-0.040255,-0.022957,-0.041416,-0.030706,-0.022180,-0.030977,-0.046558,-0.028476,-0.047921
0.024071,0.019062,0.025517,0.019027,0.013207,0.019502,0.024252,0.019531,0.026479
0.021010,0.015674,0.022924,0.017622,0.010410,0.017243,0.024102,0.016722,0.024253
-0.041803,-0.026190,-0.043129,-0.028344,-0.014226,-0.028723,-0.041322,-0.027496,-0.039544
0.022783,0.016812,0.022750,0.016830,0.011050,0.017210,0.022885,0.016399,0.023995
0.020884,0.014662,0.022005,0.016778,0.011879,0.017838,0.022510,0.017067,0.023227
-0.036854,-0.017606,-0.038694,-0.021481,-0.008029,-0.022950,-0.041500,-0.022115,-0.041862
0.024686,0.014912,0.024335,0.017911,0.009788,0.017478,0.025578,0.017082,0.025571
-0.020637,-0.015144,-0.021039,-0.015242,-0.009941,-0.015672,-0.022593,-0.016134,-0.022333
-0.027325,-0.015085,-0.029363,-0.018132,-0.008340,-0.018677,-0.024181,-0.012065,-0.025229
0.021101,0.016422,0.021896,0.017562,0.011783,0.017961,0.022765,0.016833,0.023279
-0.033122,-0.017470,-0.035040,-0.019255,-0.007241,-0.021405,-0.031032,-0.018729,-0.032771
0.021284,0.014785,0.022546,0.015576,0.009073,0.015456,0.023030,0.016221,0.023388
0.025458,0.019052,0.027411,0.017635,0.010761,0.018119,0.026486,0.020158,0.027788
0.023007,0.016879,0.024831,0.017639,0.010923,0.017972,0.024053,0.018401,0.025102
-0.043379,-0.026816,-0.045904,-0.027887,-0.011509,-0.028392,-0.042562,-0.031727,-0.043726
-0.036554,-0.029680,-0.038866,-0.028372,-0.019747,-0.029715,-0.037465,-0.032900,-0.039980
0.025340,0.016320,0.025610,0.018487,0.010195,0.018266,0.025341,0.015832,0.025677
-0.025331,-0.018361,-0.027423,-0.018211,-0.011418,-0.018868,-0.025414,-0.018031,-0.026980
-0.044110,-0.032567,-0.045420,-0.036012,-0.022443,-0.039551,-0.047288,-0.038632,-0.045520
0.022350,0.017303,0.023463,0.017240,0.011431,0.018043,0.021528,0.016456,0.023113
0.025827,0.018750,0.025306,0.018907,0.012040,0.018554,0.026115,0.019137,0.025896
0.023902,0.015867,0.023959,0.017465,0.010579,0.017178,0.025579,0.017247,0.025255
0.020582,0.014106,0.019868,0.016596,0.009982,0.015837,0.021672,0.015257,0.021048
0.022670,0.013813,0.023179,0.015778,0.008447,0.016461,0.023582,0.016104,0.023867
-0.023872,-0.017620,-0.025538,-0.017689,-0.012665,-0.019308,-0.024689,-0.019794,-0.027098
-0.019025,-0.013502,-0.020290,-0.013747,-0.009544,-0.014378,-0.019509,-0.014506,-0.021339
0.022635,0.016611,0.022806,0.016177,0.011270,0.016790,0.021520,0.016287,0.022487
0.020522,0.015124,0.021129,0.016245,0.011378,0.016997,0.022849,0.017623,0.024987
0.023660,0.017739,0.025891,0.016409,0.010570,0.018057,0.023732,0.019241,0.027198
-0.031358,-0.017218,-0.031938,-0.020356,-0.006288,-0.020796,-0.032853,-0.018620,-0.035571
-0.022476,-0.014104,-0.023649,-0.012726,-0.006059,-0.014234,-0.022313,-0.012343,-0.024358
0.024734,0.021240,0.026089,0.022234,0.017904,0.022874,0.026836,0.022274,0.028730
0.022697,0.018180,0.024408,0.020942,0.014433,0.022068,0.026176,0.019948,0.027798
0.021859,0.014615,0.023247,0.014694,0.008901,0.016419,0.020577,0.014860,0.022606
0.027842,0.021033,0.028358,0.021334,0.015026,0.022029,0.027211,0.020462,0.027945
-0.037595,-0.025948,-0.042566,-0.020897,-0.011325,-0.022866,-0.035958,-0.024276,-0.038624
0.023852,0.017072,0.025553,0.019728,0.012744,0.020196,0.025872,0.018797,0.026627
-0.022376,-0.014987,-0.021877,-0.014742,-0.009084,-0.014067,-0.020374,-0.013640,-0.020242
0.022288,0.017326,0.023200,0.015043,0.010652,0.015737,0.023312,0.017121,0.023585
0.022489,0.017643,0.024742,0.017471,0.011734,0.018177,0.024417,0.018152,0.024943
0.024571,0.018420,0.025158,0.018152,0.012497,0.018522,0.024909,0.019482,0.026343
0.021702,0.015382,0.022961,0.018356,0.009640,0.018442,0.025251,0.014715,0.026312
-0.032001,-0.021021,-0.033635,-0.025727,-0.017054,-0.026270,-0.039621,-0.023329,-0.039422
0.022407,0.014746,0.023599,0.015525,0.008632,0.016108,0.022628,0.015139,0.023939
-0.016392,-0.008361,-0.016298,-0.012167,-0.005801,-0.012401,-0.017084,-0.010879,-0.016431
-0.025331,-0.016779,-0.027170,-0.017440,-0.009776,-0.019087,-0.030306,-0.020572,-0.031700
-0.045261,-0.029956,-0.045426,-0.031119,-0.017801,-0.034234,-0.046798,-0.030969,-0.046636
-0.029064,-0.017570,-0.030197,-0.016716,-0.007371,-0.017848,-0.029362,-0.017037,-0.030078
-0.021132,-0.014083,-0.022704,-0.014486,-0.007508,-0.014980,-0.021114,-0.012914,-0.021719
-0.041018,-0.035402,-0.045116,-0.030382,-0.015836,-0.033703,-0.044709,-0.036606,-0.046607
-0.050527,-0.032739,-0.051765,-0.031791,-0.028337,-0.037705,-0.055105,-0.037818,-0.052032
-0.023370,-0.015169,-0.024129,-0.014461,-0.006926,-0.013509,-0.021781,-0.014478,-0.022862
-0.014508,-0.009479,-0.015985,-0.012123,-0.006704,-0.012853,-0.018544,-0.011416,-0.019035
0.022368,0.013878,0.024058,0.016327,0.008759,0.017572,0.024681,0.015685,0.026153
-0.051593,-0.039877,-0.053780,-0.036016,-0.025906,-0.038557,-0.049359,-0.047866,-0.052719
0.026512,0.021490,0.027643,0.020966,0.016686,0.022841,0.025784,0.022694,0.028134
-0.042646,-0.041375,-0.042967,-0.039392,-0.034465,-0.044323,-0.043756,-0.045217,-0.043007
-0.042989,-0.025805,-0.045406,-0.026530,-0.009957,-0.027615,-0.038654,-0.025476,-0.042829
0.022348,0.018478,0.023727,0.018659,0.014219,0.019551,0.023702,0.019401,0.024857
0.021719,0.016666,0.022415,0.016545,0.010807,0.017229,0.021662,0.016604,0.022735
-0.038113,-0.025303,-0.039474,-0.026520,-0.018819,-0.029029,-0.044534,-0.029471,-0.043008
-0.011365,-0.006641,-0.014224,-0.007037,-0.002362,-0.008196,-0.013511,-0.008249,-0.013584
-0.044118,-0.030291,-0.044101,-0.028181,-0.020337,-0.031131,-0.045159,-0.030425,-0.046227
0.022008,0.018246,0.023651,0.016794,0.013033,0.017650,0.022328,0.018471,0.023368
-0.017036,-0.012016,-0.017554,-0.012279,-0.007541,-0.013345,-0.018046,-0.012792,-0.019430
0.024636,0.017261,0.025092,0.018723,0.012151,0.019323,0.025639,0.019088,0.026663
0.022486,0.014724,0.023189,0.016331,0.008638,0.015780,0.023605,0.015604,0.023637
0.031315,0.023928,0.031110,0.025072,0.017386,0.024658,0.028540,0.021980,0.028549
-0.021256,-0.013958,-0.022137,-0.016296,-0.008670,-0.016238,-0.024233,-0.015050,-0.024511
0.024802,0.018830,0.025868,0.019091,0.014460,0.020586,0.023678,0.019261,0.025667
0.021549,0.014762,0.022137,0.016986,0.009443,0.016717,0.023492,0.016477,0.023735
-0.039259,-0.025128,-0.039901,-0.025748,-0.016449,-0.026014,-0.042327,-0.027500,-0.043574
-0.017791,-0.011444,-0.017906,-0.011402,-0.005626,-0.011555,-0.016526,-0.010814,-0.016379
-0.019412,-0.011899,-0.021454,-0.013456,-0.007505,-0.015326,-0.019793,-0.012981,-0.021356
0.026351,0.019851,0.027697,0.019291,0.012952,0.020424,0.026983,0.019950,0.027415
0.021394,0.014746,0.021555,0.016140,0.010543,0.016624,0.021120,0.015648,0.021572
-0.039645,-0.027434,-0.042724,-0.032223,-0.016746,-0.034482,-0.037956,-0.033381,-0.039351
-0.033674,-0.024399,-0.035493,-0.028377,-0.017132,-0.027564,-0.041378,-0.028759,-0.042292
0.021685,0.018400,0.022984,0.016887,0.012518,0.017056,0.019601,0.016304,0.020801
0.019795,0.013584,0.021524,0.014791,0.008771,0.015821,0.020268,0.014408,0.021755
-0.037188,-0.018470,-0.038635,-0.021486,-0.004928,-0.021360,-0.039529,-0.021689,-0.040442
-0.022225,-0.014696,-0.023685,-0.015278,-0.008139,-0.015274,-0.022594,-0.015195,-0.024169
-0.018879,-0.013143,-0.020177,-0.014247,-0.009714,-0.015476,-0.020896,-0.013944,-0.022393
-0.035001,-0.024659,-0.038432,-0.020527,-0.011321,-0.022567,-0.038753,-0.026909,-0.039613
0.020533,0.014447,0.020484,0.014847,0.009463,0.015096,0.019896,0.014831,0.020671
0.024932,0.019397,0.026576,0.022795,0.016973,0.025160,0.028084,0.022218,0.030289
-0.036737,-0.021014,-0.037734,-0.024111,-0.010292,-0.024881,-0.039114,-0.022767,-0.039161
0.022721,0.016254,0.022832,0.016526,0.010481,0.017565,0.023038,0.016236,0.023914
-0.021193,-0.013067,-0.020774,-0.016573,-0.009839,-0.015852,-0.023919,-0.015550,-0.024300
0.021331,0.016030,0.023341,0.014642,0.009279,0.015415,0.021252,0.015384,0.022154
0.023466,0.017377,0.024603,0.019755,0.012552,0.019817,0.025839,0.018584,0.026733
0.022898,0.014948,0.022056,0.016053,0.008833,0.015696,0.023765,0.016217,0.023517
-0.021130,-0.012456,-0.022456,-0.015939,-0.008270,-0.015843,-0.023861,-0.014650,-0.024523
0.023133,0.016072,0.024729,0.015714,0.009012,0.016662,0.022724,0.016101,0.024722
0.020301,0.014195,0.020986,0.015049,0.009570,0.016051,0.021486,0.014882,0.021610
-0.054981,-0.039549,-0.057085,-0.037424,-0.029727,-0.040887,-0.059941,-0.043334,-0.061113
0.021303,0.014449,0.022728,0.014839,0.008880,0.016290,0.022755,0.016037,0.024623
0.021199,0.016830,0.022874,0.015392,0.010704,0.016875,0.021039,0.015903,0.022155
-0.046455,-0.023336,-0.049727,-0.030338,-0.010969,-0.032362,-0.046712,-0.027749,-0.047558
-0.037593,-0.025645,-0.038370,-0.023424,-0.013193,-0.026831,-0.039420,-0.025963,-0.038308
-0.018335,-0.013048,-0.020352,-0.013043,-0.007792,-0.014738,-0.020561,-0.014858,-0.022665
-0.038870,-0.022656,-0.041032,-0.022365,-0.008563,-0.022900,-0.036883,-0.024539,-0.040071
0.022873,0.016698,0.023738,0.016927,0.010255,0.017663,0.022211,0.014691,0.023226
-0.046538,-0.025145,-0.046086,-0.026206,-0.012028,-0.027112,-0.042557,-0.025512,-0.040377
0.024727,0.017028,0.025358,0.018187,0.011291,0.018928,0.024715,0.016645,0.026002
-0.044051,-0.022319,-0.044172,-0.025332,-0.018059,-0.025830,-0.047148,-0.027148,-0.048844
0.024933,0.017499,0.025583,0.019044,0.012605,0.019073,0.026254,0.019211,0.027135
0.021856,0.016312,0.023240,0.015811,0.011161,0.016650,0.021096,0.016540,0.021813
0.022030,0.014795,0.022944,0.016529,0.009812,0.017191,0.022759,0.015240,0.023011
0.025612,0.017706,0.025617,0.018543,0.010835,0.018648,0.027364,0.018367,0.027193
0.024013,0.016870,0.024386,0.017587,0.010627,0.018337,0.024986,0.016766,0.025710
-0.043009,-0.029489,-0.044175,-0.027612,-0.016212,-0.028773,-0.037416,-0.031024,-0.039659
-0.044951,-0.028247,-0.044899,-0.031566,-0.015356,-0.032789,-0.046123,-0.026611,-0.047111
-0.032515,-0.024282,-0.033032,-0.023201,-0.014609,-0.022804,-0.033550,-0.025711,-0.035339
0.022656,0.015743,0.024455,0.015929,0.009649,0.016389,0.022371,0.016808,0.024039
-0.040564,-0.025966,-0.041693,-0.026527,-0.012172,-0.026593,-0.040511,-0.022811,-0.041690
0.025868,0.019176,0.026491,0.020011,0.013395,0.020317,0.027776,0.020510,0.028552
0.023367,0.018590,0.025515,0.017565,0.012628,0.019407,0.023339,0.018431,0.025256
-0.030099,-0.019572,-0.032694,-0.020703,-0.011979,-0.021906,-0.030326,-0.019984,-0.031211
0.025309,0.017111,0.027368,0.018653,0.011801,0.021271,0.025282,0.018299,0.028034
0.025152,0.016655,0.025908,0.018843,0.010872,0.019769,0.023101,0.015064,0.024473
-0.016638,-0.009782,-0.017867,-0.010937,-0.003073,-0.011176,-0.019304,-0.011309,-0.019874
0.021177,0.015261,0.022906,0.015118,0.009463,0.016176,0.021278,0.014923,0.023443
0.025976,0.019077,0.025931,0.020809,0.014091,0.021085,0.025489,0.019124,0.026413
0.020966,0.015830,0.022358,0.016466,0.010851,0.016049,0.022899,0.017513,0.023702
0.023042,0.017871,0.024557,0.018313,0.013513,0.018637,0.022660,0.017336,0.022876
0.024657,0.017559,0.024783,0.018183,0.012199,0.017664,0.025308,0.019022,0.025935
0.023814,0.019538,0.025390,0.018669,0.013961,0.019844,0.025192,0.021143,0.026573
0.022395,0.016341,0.023711,0.016506,0.010685,0.017087,0.023239,0.017131,0.024528
0.023749,0.016503,0.024475,0.017736,0.010703,0.017923,0.022878,0.015823,0.023358
-0.019640,-0.012434,-0.020140,-0.013049,-0.005574,-0.012592,-0.018658,-0.012972,-0.019194
-0.025749,-0.019085,-0.025970,-0.018754,-0.012843,-0.019454,-0.025657,-0.018775,-0.026584
0.019743,0.014400,0.020965,0.013733,0.009782,0.014683,0.019358,0.015111,0.020968
-0.022401,-0.017797,-0.024548,-0.017161,-0.012244,-0.019223,-0.023516,-0.017576,-0.024539
0.020488,0.016046,0.021952,0.016581,0.012392,0.018269,0.022693,0.017514,0.023842
0.021487,0.014788,0.022009,0.015613,0.008596,0.015850,0.023243,0.015438,0.023783
-0.022667,-0.014077,-0.023968,-0.015822,-0.007701,-0.016558,-0.025071,-0.015669,-0.025719
0.025440,0.017924,0.026472,0.018857,0.012636,0.020029,0.023943,0.017419,0.026086
-0.020560,-0.014878,-0.022393,-0.015817,-0.010279,-0.016419,-0.023390,-0.017214,-0.024915
-0.020591,-0.012993,-0.020770,-0.014083,-0.007255,-0.014440,-0.020527,-0.013221,-0.021236
0.023235,0.015558,0.023339,0.016347,0.009529,0.016341,0.024609,0.016669,0.025064
0.024042,0.018831,0.025094,0.017542,0.012435,0.018074,0.023600,0.018066,0.023856
0.020361,0.017423,0.022591,0.016438,0.012331,0.017039,0.021491,0.018513,0.022354
0.020840,0.014431,0.020080,0.016539,0.011005,0.017050,0.020570,0.015068,0.021509
0.023857,0.018019,0.025641,0.017451,0.011413,0.018637,0.023079,0.017116,0.024642
-0.040199,-0.027713,-0.042140,-0.029250,-0.012562,-0.031802,-0.037637,-0.029896,-0.043033
0.020924,0.014325,0.021893,0.015967,0.009758,0.016946,0.024453,0.017600,0.026379
0.022585,0.018759,0.024584,0.017760,0.014398,0.019564,0.024711,0.020330,0.026611
-0.021262,-0.014657,-0.022033,-0.015100,-0.010631,-0.015974,-0.022135,-0.017018,-0.023318
0.021985,0.015647,0.022906,0.015747,0.010396,0.016580,0.021818,0.016256,0.023097
0.023817,0.016059,0.023858,0.017464,0.010906,0.018033,0.024550,0.017513,0.025332
-0.042180,-0.027771,-0.043154,-0.028762,-0.013817,-0.031218,-0.044433,-0.028665,-0.046645
0.027821,0.021848,0.028500,0.019668,0.014071,0.019881,0.026898,0.020102,0.026575
0.022968,0.017127,0.024208,0.017911,0.011840,0.018308,0.024478,0.018530,0.025024
0.023720,0.018884,0.024919,0.019335,0.013235,0.019484,0.026819,0.020052,0.026913
0.021937,0.017963,0.022749,0.017531,0.012758,0.017895,0.023276,0.018162,0.024564
0.025129,0.017255,0.025815,0.018352,0.010958,0.018756,0.026027,0.017045,0.026410
0.021847,0.017288,0.023342,0.018293,0.012675,0.018579,0.025318,0.019611,0.025395
-0.033010,-0.026991,-0.035372,-0.023856,-0.017922,-0.025636,-0.033481,-0.029080,-0.035605
-0.021789,-0.017438,-0.022971,-0.017722,-0.012794,-0.018261,-0.024171,-0.018009,-0.024681
0.023420,0.017372,0.024536,0.017221,0.011081,0.018457,0.024377,0.017972,0.025983
-0.022441,-0.011644,-0.024231,-0.014245,-0.002842,-0.014683,-0.023240,-0.013040,-0.023573
0.024531,0.016318,0.024468,0.018761,0.009948,0.017659,0.025864,0.015799,0.025738
-0.037124,-0.024075,-0.037950,-0.022358,-0.010665,-0.023670,-0.033247,-0.023290,-0.033569
0.023481,0.017811,0.024858,0.018051,0.012459,0.019845,0.023863,0.017866,0.025610
-0.036550,-0.020532,-0.038085,-0.024268,-0.007414,-0.025101,-0.040087,-0.023549,-0.041195
0.026954,0.019119,0.028443,0.019874,0.012595,0.020642,0.025650,0.018959,0.026572
-0.024706,-0.016335,-0.025688,-0.015250,-0.009011,-0.015786,-0.022508,-0.014829,-0.023652
-0.042256,-0.031650,-0.043599,-0.030100,-0.017938,-0.031475,-0.039687,-0.033856,-0.043352
-0.030766,-0.020720,-0.034094,-0.021634,-0.011601,-0.023095,-0.031262,-0.020990,-0.034418
0.019830,0.013859,0.020548,0.015381,0.009320,0.014622,0.020453,0.013753,0.019711
0.023842,0.018182,0.025102,0.016532,0.010498,0.017002,0.022046,0.017253,0.023208
0.022598,0.015776,0.023525,0.016184,0.009569,0.016385,0.022376,0.015163,0.023450
0.022486,0.016117,0.024357,0.017081,0.010469,0.016684,0.023309,0.015813,0.023846
-0.024633,-0.016440,-0.024686,-0.016930,-0.010092,-0.016418,-0.024334,-0.017643,-0.025117
0.022916,0.016137,0.024853,0.015033,0.009332,0.016833,0.022669,0.016283,0.023952
0.022914,0.015139,0.024202,0.018259,0.010596,0.018540,0.024736,0.017090,0.024889
-0.037181,-0.026852,-0.039785,-0.025594,-0.015245,-0.025774,-0.038562,-0.027895,-0.038884
0.023423,0.017935,0.024218,0.018201,0.013299,0.018765,0.024686,0.020359,0.025714
0.021528,0.014492,0.023151,0.016402,0.009880,0.017885,0.022365,0.016528,0.023717
-0.071769,-0.058537,-0.074960,-0.060672,-0.044417,-0.063538,-0.073206,-0.068185,-0.077472
-0.054382,-0.042612,-0.062123,-0.043112,-0.030407,-0.047849,-0.064827,-0.053526,-0.065811
-0.041758,-0.030147,-0.044566,-0.029179,-0.018973,-0.032158,-0.045802,-0.033038,-0.048173
0.022228,0.018328,0.023360,0.017209,0.012358,0.017453,0.022577,0.017833,0.023138
-0.044079,-0.034983,-0.042889,-0.032564,-0.017924,-0.035149,-0.034914,-0.036768,-0.040017
0.024887,0.016805,0.025572,0.019102,0.011752,0.019903,0.024614,0.017682,0.025786
0.021069,0.014918,0.021471,0.015813,0.009756,0.015634,0.021049,0.015123,0.022089
0.020056,0.013663,0.021143,0.016264,0.010726,0.017244,0.022572,0.016489,0.024178
-0.020931,-0.016973,-0.021385,-0.013979,-0.009254,-0.015349,-0.021561,-0.015088,-0.020804
0.022540,0.014426,0.021974,0.015213,0.008492,0.014752,0.021284,0.014267,0.021252
-0.032460,-0.020657,-0.031003,-0.020382,-0.012907,-0.021248,-0.030814,-0.020867,-0.033089
0.019534,0.015334,0.021472,0.016781,0.011803,0.017474,0.022862,0.017075,0.023560
0.026425,0.018199,0.027100,0.019641,0.011849,0.019934,0.025875,0.017021,0.027236
-0.041444,-0.022728,-0.043000,-0.025995,-0.010451,-0.027421,-0.045907,-0.022837,-0.045738
-0.039658,-0.022714,-0.040660,-0.025194,-0.012174,-0.025806,-0.042194,-0.024907,-0.042843
0.031027,0.030816,0.032577,0.035154,0.030508,0.035549,0.037368,0.034690,0.038044
0.022591,0.015394,0.022451,0.015875,0.008872,0.015666,0.023169,0.015274,0.022435
0.023573,0.017724,0.023000,0.018802,0.012178,0.017890,0.025305,0.018974,0.024836
0.018593,0.012015,0.019577,0.012564,0.007225,0.013960,0.019379,0.013572,0.020844
0.022267,0.014422,0.023652,0.016784,0.009300,0.017437,0.023819,0.015849,0.025575
0.020005,0.013913,0.020489,0.014976,0.009581,0.015484,0.020161,0.015016,0.021643
0.023221,0.016299,0.024366,0.016566,0.010531,0.018333,0.023891,0.016294,0.024921
0.025759,0.017830,0.025805,0.018373,0.011253,0.018547,0.024177,0.016783,0.024190
0.023563,0.018481,0.024696,0.018677,0.013736,0.019615,0.023178,0.017859,0.023807
-0.022181,-0.013668,-0.022848,-0.014954,-0.008808,-0.015853,-0.021218,-0.014922,-0.023077
-0.047708,-0.020820,-0.044354,-0.024969,-0.015040,-0.025479,-0.046840,-0.029623,-0.046528
0.023514,0.018390,0.025142,0.018318,0.013092,0.019495,0.025512,0.020127,0.026320
0.019519,0.014942,0.020366,0.013851,0.008967,0.013512,0.019638,0.015233,0.020481
0.024404,0.016821,0.025071,0.019326,0.011772,0.019368,0.026055,0.018043,0.026732
0.020783,0.013930,0.023029,0.015820,0.008141,0.016800,0.022765,0.014387,0.024978
-0.036993,-0.025763,-0.040234,-0.028779,-0.013358,-0.028724,-0.042905,-0.028714,-0.043427
0.022289,0.015860,0.023420,0.016281,0.010128,0.016991,0.023118,0.016250,0.024044
0.021631,0.014669,0.023287,0.015051,0.008179,0.015003,0.022324,0.014914,0.023323
-0.031252,-0.020415,-0.032419,-0.021215,-0.006793,-0.021277,-0.035968,-0.024243,-0.036461
0.019876,0.014719,0.022786,0.017036,0.011247,0.018223,0.021000,0.016053,0.024419
0.023864,0.019709,0.025296,0.021221,0.015400,0.022428,0.026581,0.020610,0.028179
-0.033592,-0.022001,-0.036116,-0.025930,-0.013738,-0.026449,-0.037205,-0.025397,-0.040021
-0.032463,-0.019634,-0.032395,-0.020455,-0.008729,-0.021724,-0.031821,-0.018700,-0.032214
-0.029246,-0.017950,-0.030317,-0.019972,-0.009781,-0.020930,-0.030077,-0.017798,-0.031054
0.020449,0.012691,0.020651,0.015339,0.009608,0.016482,0.022551,0.015976,0.023544
0.024808,0.016304,0.023992,0.016761,0.009831,0.016659,0.022548,0.016040,0.023337
0.024490,0.018339,0.026295,0.018195,0.011161,0.018970,0.025006,0.017805,0.026471
-0.030461,-0.018551,-0.034695,-0.022333,-0.014707,-0.023151,-0.037493,-0.020475,-0.037097
-0.048303,-0.025047,-0.047271,-0.024538,-0.016071,-0.028174,-0.049185,-0.028255,-0.048924
0.026900,0.021407,0.027798,0.021947,0.016378,0.021720,0.026064,0.020817,0.027036
-0.024417,-0.016865,-0.025497,-0.017561,-0.010765,-0.018361,-0.026736,-0.017823,-0.027176
0.026410,0.017414,0.027520,0.018334,0.010255,0.018704,0.024496,0.016716,0.025866
0.021616,0.017558,0.023714,0.017276,0.011918,0.017964,0.022983,0.018050,0.024495
0.022165,0.015460,0.023954,0.016064,0.009849,0.016602,0.023067,0.015955,0.023963
0.055543,0.053972,0.059399,0.049648,0.045945,0.053253,0.048841,0.047608,0.052616
-0.038871,-0.033707,-0.041062,-0.029589,-0.031357,-0.032851,-0.043251,-0.034925,-0.044302
0.024157,0.016651,0.024224,0.018223,0.012051,0.018422,0.025104,0.017764,0.025942
-0.044345,-0.028989,-0.045941,-0.028002,-0.018015,-0.030675,-0.045698,-0.028849,-0.047898
-0.095759,-0.053968,-0.095533,-0.002403,-0.016061,-0.002096,0.058227,0.042629,0.060917
0.022584,0.016536,0.023991,0.013137,0.006965,0.013688,0.020683,0.014947,0.021601
0.029115,0.023955,0.029262,0.023597,0.018165,0.024685,0.029327,0.024657,0.030468
-0.024980,-0.017497,-0.025655,-0.018104,-0.010887,-0.018748,-0.026615,-0.018307,-0.026430
0.025511,0.015174,0.024188,0.020216,0.012532,0.020340,0.023812,0.016683,0.023865
-0.029132,-0.020272,-0.031930,-0.021979,-0.010142,-0.022865,-0.028484,-0.017961,-0.030151
-0.020878,-0.013862,-0.021191,-0.015298,-0.009993,-0.015956,-0.022643,-0.015401,-0.024118
-0.046638,-0.022841,-0.050639,-0.034095,0.001828,-0.032329,-0.055902,-0.031950,-0.057975
-0.020247,-0.012450,-0.020656,-0.012145,-0.006078,-0.012269,-0.020166,-0.012832,-0.020978
0.022657,0.014472,0.022406,0.016861,0.009546,0.015899,0.023330,0.015668,0.023629
-0.034752,-0.020348,-0.035220,-0.022222,-0.011204,-0.023241,-0.037167,-0.023726,-0.041934
-0.031563,-0.018808,-0.035454,-0.018675,-0.009759,-0.020678,-0.032049,-0.019666,-0.033380
0.022520,0.016525,0.023729,0.016671,0.009831,0.017182,0.025219,0.018327,0.026431
0.022458,0.018032,0.022986,0.018161,0.012839,0.017884,0.023374,0.018333,0.023332
0.028786,0.024488,0.028041,0.022447,0.018673,0.022076,0.027560,0.023877,0.027142
0.001062,-0.111011,-0.005059,-0.097938,-0.088207,-0.109220,-0.007799,-0.134678,-0.006865
0.025519,0.017482,0.026626,0.017055,0.010701,0.018233,0.024018,0.016916,0.024904
-0.026139,-0.015802,-0.027781,-0.017243,-0.007132,-0.018669,-0.025753,-0.015042,-0.027711
0.022002,0.016493,0.022063,0.017838,0.012682,0.017522,0.023431,0.017502,0.023542
0.027361,0.023964,0.028597,0.023068,0.018163,0.023517,0.028392,0.024597,0.029918
0.022849,0.017968,0.024127,0.017534,0.012253,0.018524,0.023555,0.018440,0.026116
0.022567,0.016435,0.023457,0.015614,0.009484,0.015593,0.022556,0.016064,0.023741
-0.023612,-0.018752,-0.025084,-0.018515,-0.012925,-0.018908,-0.024338,-0.019105,-0.025139
-0.036591,-0.021427,-0.037153,-0.024443,-0.010847,-0.025188,-0.032914,-0.021899,-0.035052
0.022299,0.014199,0.023203,0.016744,0.009049,0.017750,0.023459,0.014985,0.025600
0.024665,0.016671,0.026736,0.017354,0.010314,0.018948,0.024755,0.017169,0.027171
0.023898,0.017403,0.024469,0.016554,0.011135,0.016702,0.023275,0.017734,0.023970
0.026392,0.018798,0.026453,0.019717,0.012687,0.019388,0.027635,0.019490,0.027763
-0.043690,-0.035559,-0.045352,-0.028303,-0.019098,-0.031903,-0.045478,-0.036829,-0.046127
0.020042,0.015328,0.021621,0.017073,0.011966,0.017712,0.022795,0.017048,0.023780
0.021892,0.015712,0.022495,0.015904,0.009368,0.016516,0.024452,0.017243,0.024585
0.024650,0.015838,0.025394,0.019067,0.010581,0.019566,0.025030,0.016568,0.025493
-0.021692,-0.013605,-0.022046,-0.015536,-0.008003,-0.015682,-0.024212,-0.014932,-0.023762
-0.047110,-0.027756,-0.049096,-0.029247,-0.014538,-0.031225,-0.043260,-0.029636,-0.044573
0.022720,0.020363,0.025599,0.019347,0.015997,0.021467,0.025306,0.021005,0.026514
0.025337,0.018553,0.025944,0.019728,0.013204,0.021287,0.025442,0.018776,0.027790
0.022068,0.015363,0.021550,0.016764,0.011327,0.017488,0.022317,0.016369,0.022682
0.024153,0.017410,0.025505,0.016548,0.010737,0.017942,0.024576,0.019034,0.025731
0.024334,0.020644,0.025775,0.020536,0.015954,0.021461,0.026019,0.020713,0.027294
0.025013,0.017526,0.025193,0.019148,0.011767,0.018538,0.025721,0.018922,0.025973
-0.018341,-0.010865,-0.019712,-0.012564,-0.005186,-0.013100,-0.017948,-0.011536,-0.019924
-0.046090,-0.030007,-0.045764,-0.028434,-0.020180,-0.030168,-0.047913,-0.034644,-0.048974
-0.016538,-0.010481,-0.020789,-0.010019,-0.002902,-0.010552,-0.020257,-0.011567,-0.021833
0.023380,0.017584,0.025152,0.017693,0.011698,0.018423,0.026377,0.019524,0.026739
-0.046038,-0.033352,-0.048373,-0.029876,-0.018451,-0.029966,-0.045403,-0.034668,-0.048743
0.024809,0.018204,0.025455,0.018596,0.012025,0.019672,0.024618,0.018214,0.025588
-0.042881,-0.049253,-0.044728,-0.044754,-0.039556,-0.045203,-0.045656,-0.054869,-0.048183
-0.027516,-0.017907,-0.028370,-0.019980,-0.009347,-0.019804,-0.029495,-0.018624,-0.029977
0.025919,0.018206,0.026454,0.020921,0.013427,0.021296,0.027324,0.019947,0.028670
0.022737,0.016789,0.024519,0.017990,0.012269,0.019199,0.022800,0.017085,0.024275
-0.048329,-0.034273,-0.050403,-0.034598,-0.025265,-0.036365,-0.051502,-0.036968,-0.051470
-0.039542,-0.020617,-0.040237,-0.025042,-0.006908,-0.026660,-0.039688,-0.023092,-0.042396
0.024925,0.018331,0.024556,0.017174,0.011051,0.016915,0.026142,0.019736,0.027122
-0.045959,-0.026990,-0.047133,-0.028171,-0.012206,-0.029490,-0.047241,-0.029340,-0.044861
0.021497,0.017038,0.022637,0.016317,0.011151,0.017581,0.022756,0.016498,0.023592
-0.051369,-0.029482,-0.054772,-0.023089,-0.002758,-0.024758,-0.049875,-0.028079,-0.051987
0.024500,0.018536,0.025206,0.017372,0.011629,0.017827,0.025400,0.018484,0.025013
0.037459,0.032387,0.038732,0.029308,0.023449,0.030408,0.038974,0.033979,0.041144
-0.030485,-0.016097,-0.032974,-0.019823,-0.005992,-0.020655,-0.032142,-0.018620,-0.033964
0.021245,0.014734,0.021621,0.015408,0.008991,0.015487,0.021853,0.015240,0.022384
0.025095,0.018434,0.026045,0.018214,0.013115,0.019351,0.025402,0.019913,0.026881
-0.027141,-0.015102,-0.027992,-0.017332,-0.006115,-0.017047,-0.029352,-0.017752,-0.030140
0.023614,0.018397,0.024329,0.018652,0.013273,0.019075,0.024697,0.019337,0.025071
0.023645,0.016438,0.024748,0.016146,0.009495,0.017281,0.023388,0.017082,0.025222
-0.085349,-0.010032,-0.013456,-0.010733,-0.164795,-0.008606,-0.005788,-0.004342,-0.010101
0.023306,0.015410,0.023770,0.017300,0.010454,0.017680,0.023482,0.016118,0.025026
0.020560,0.015434,0.023055,0.018360,0.011077,0.018245,0.026194,0.017726,0.026352
0.025900,0.017166,0.027450,0.017178,0.010170,0.017479,0.025010,0.017235,0.024864
-0.049348,-0.028197,-0.051777,-0.027866,-0.014122,-0.029686,-0.050741,-0.029849,-0.053662
0.023566,0.016177,0.024215,0.016480,0.009537,0.016915,0.023130,0.015993,0.024727
0.020628,0.016406,0.022384,0.016866,0.012451,0.017910,0.022412,0.016802,0.024119
0.019839,0.015054,0.020400,0.015840,0.010478,0.016497,0.020515,0.015437,0.021834
-0.025027,-0.017030,-0.024582,-0.015989,-0.010008,-0.016012,-0.024598,-0.017633,-0.024947
0.026605,0.024952,0.027881,0.024917,0.020337,0.024137,0.026895,0.024811,0.028733
-0.037776,-0.023677,-0.038147,-0.023965,-0.013290,-0.026149,-0.036913,-0.025640,-0.039741
0.023922,0.016881,0.024096,0.019540,0.012518,0.019246,0.025821,0.018839,0.026715
0.026230,0.020214,0.027573,0.018950,0.012802,0.019809,0.026356,0.019865,0.026747
0.020885,0.014876,0.022017,0.015248,0.009506,0.016397,0.022405,0.016203,0.024154
0.024345,0.016586,0.026456,0.018485,0.011477,0.019922,0.025578,0.018405,0.027000
0.022884,0.016369,0.023260,0.018828,0.011288,0.018781,0.025106,0.017062,0.025586
-0.030542,-0.019149,-0.033205,-0.018688,-0.006893,-0.019189,-0.030128,-0.018335,-0.030013
0.023868,0.017207,0.024676,0.019266,0.012489,0.019107,0.023506,0.018223,0.024910
-0.021784,-0.015643,-0.022283,-0.016557,-0.009720,-0.016507,-0.022285,-0.015021,-0.023232
0.033779,0.029610,0.034646,0.029410,0.022741,0.028470,0.033033,0.027904,0.032130
0.023944,0.018243,0.025558,0.018155,0.013366,0.019536,0.023393,0.017947,0.025597
0.022885,0.017742,0.024366,0.016852,0.011804,0.017844,0.022772,0.017266,0.023870
0.024230,0.018420,0.026608,0.018913,0.012668,0.019503,0.025134,0.018969,0.026284
0.020808,0.016112,0.021676,0.016279,0.010729,0.016870,0.022055,0.016192,0.022805
0.023990,0.017039,0.024207,0.018533,0.011253,0.018393,0.024991,0.017816,0.025379
-0.044673,-0.033331,-0.046093,-0.034512,-0.027258,-0.037459,-0.045556,-0.037432,-0.047179
0.022234,0.014710,0.022407,0.015274,0.009393,0.015783,0.023563,0.015948,0.023501
0.026987,0.020289,0.027463,0.020792,0.014718,0.021842,0.025708,0.019863,0.026896
-0.024512,-0.016166,-0.023956,-0.017385,-0.009715,-0.016533,-0.023851,-0.016655,-0.024106
-0.039704,-0.026076,-0.042021,-0.027928,-0.017916,-0.029445,-0.042593,-0.029198,-0.044271
-0.019129,-0.011684,-0.020842,-0.012326,-0.004302,-0.012841,-0.020842,-0.011691,-0.022365
0.025028,0.019437,0.025830,0.020089,0.014888,0.020594,0.026006,0.020404,0.026424
0.021594,0.014981,0.022425,0.017240,0.009670,0.017240,0.025960,0.016936,0.026022
0.023198,0.017013,0.024621,0.016960,0.011288,0.018524,0.024314,0.018517,0.026108
0.025281,0.016519,0.024781,0.018024,0.010559,0.018480,0.023471,0.016048,0.024706
0.022890,0.017289,0.024196,0.017269,0.010970,0.017207,0.023793,0.017592,0.024303
-0.051328,-0.023127,-0.050604,-0.027651,-0.017034,-0.030716,-0.057619,-0.030185,-0.057699
-0.019133,-0.011361,-0.020204,-0.012447,-0.003082,-0.012448,-0.020674,-0.013190,-0.020365
0.023339,0.016196,0.023309,0.015946,0.009418,0.016698,0.021618,0.014500,0.022837
-0.042195,-0.017665,-0.042930,-0.023065,-0.005425,-0.023736,-0.041277,-0.023168,-0.042042
0.021242,0.013504,0.021865,0.015689,0.008241,0.015878,0.022455,0.015765,0.023371
-0.052443,-0.038857,-0.053075,-0.038949,-0.025631,-0.039931,-0.048070,-0.041440,-0.049748
0.023828,0.017212,0.023478,0.017322,0.011050,0.017651,0.023484,0.016445,0.023988
0.023704,0.016608,0.023769,0.019107,0.011859,0.019026,0.023980,0.017593,0.024328
-0.030688,-0.020789,-0.032980,-0.018839,-0.010591,-0.019998,-0.029572,-0.021095,-0.031163
0.020071,0.013568,0.020460,0.013157,0.008257,0.013442,0.021073,0.015641,0.020708
0.023704,0.016338,0.023806,0.016024,0.009445,0.015803,0.023229,0.016913,0.023996
0.022867,0.016231,0.022340,0.016327,0.010594,0.015876,0.021569,0.016578,0.021627
-0.022490,-0.016118,-0.024630,-0.015269,-0.009400,-0.016708,-0.023466,-0.016302,-0.025157
-0.019932,-0.013914,-0.022491,-0.013693,-0.007685,-0.014784,-0.021743,-0.014535,-0.022371
-0.019108,-0.014494,-0.019841,-0.015214,-0.010494,-0.015801,-0.021129,-0.015515,-0.021187
-0.043702,-0.023937,-0.046716,-0.028160,-0.006962,-0.029936,-0.045284,-0.028027,-0.046640
-0.023787,-0.017092,-0.024609,-0.015986,-0.010059,-0.016410,-0.022960,-0.015935,-0.023838
0.019262,0.015092,0.021291,0.014158,0.009696,0.015129,0.020992,0.015604,0.022270
0.022310,0.016058,0.023497,0.016993,0.010962,0.017692,0.021963,0.015925,0.023282
-0.031586,-0.020212,-0.030758,-0.023202,-0.015300,-0.024371,-0.031719,-0.021410,-0.031316
-0.037220,-0.022864,-0.039199,-0.023092,-0.009942,-0.023592,-0.038451,-0.024978,-0.040961
0.024170,0.015515,0.023613,0.014996,0.007740,0.014970,0.023372,0.014846,0.021805
-0.044232,-0.023256,-0.045373,-0.025929,-0.007497,-0.027006,-0.048568,-0.023461,-0.048687
-0.036534,-0.019169,-0.037831,-0.021060,-0.008307,-0.023249,-0.038117,-0.022667,-0.039039
0.022887,0.016216,0.022457,0.016988,0.011503,0.017537,0.022716,0.017565,0.023565
0.023664,0.016948,0.025096,0.017363,0.011112,0.018419,0.022704,0.016585,0.024232
-0.039531,-0.022891,-0.041798,-0.029402,-0.015091,-0.031181,-0.045454,-0.032397,-0.046982
-0.043038,-0.025093,-0.046031,-0.026434,-0.022025,-0.028229,-0.046764,-0.030248,-0.045758
-0.026207,-0.016936,-0.026640,-0.016498,-0.009164,-0.017735,-0.024508,-0.015926,-0.025492
-0.038810,-0.026148,-0.039575,-0.026451,-0.015583,-0.028352,-0.036914,-0.026554,-0.038553
0.019670,0.014496,0.023001,0.016972,0.010677,0.018702,0.022690,0.016964,0.024966
-0.051302,-0.029291,-0.050227,-0.030152,-0.016806,-0.030028,-0.042933,-0.029124,-0.046213
-0.044453,-0.027176,-0.046529,-0.029480,-0.014738,-0.030397,-0.041834,-0.025593,-0.041714
0.024873,0.018226,0.026877,0.020602,0.013560,0.021833,0.028588,0.020388,0.030073
0.025777,0.018604,0.025740,0.017242,0.010715,0.017496,0.025130,0.017703,0.025959
-0.031074,-0.020493,-0.032109,-0.024514,-0.013080,-0.026055,-0.034444,-0.021605,-0.035062
-0.040331,-0.023805,-0.043073,-0.027950,-0.013058,-0.027923,-0.046311,-0.025588,-0.047703
0.023116,0.018161,0.023674,0.018685,0.014031,0.019918,0.024900,0.020859,0.026328
0.026411,0.019786,0.027726,0.019350,0.013046,0.020617,0.028685,0.021724,0.030384
0.034134,0.027592,0.034892,0.029423,0.020929,0.029361,0.035570,0.028363,0.036115
0.021927,0.015055,0.022542,0.017921,0.010267,0.018305,0.023125,0.014397,0.023988
-0.039674,-0.024197,-0.041990,-0.028053,-0.015155,-0.029354,-0.046372,-0.029728,-0.048795
0.020541,0.015470,0.021418,0.017621,0.012207,0.017191,0.025047,0.018283,0.025334
-0.016841,-0.009516,-0.018282,-0.011758,-0.003932,-0.010953,-0.017334,-0.010618,-0.017598
-0.025057,-0.015781,-0.024695,-0.016673,-0.007384,-0.016440,-0.025756,-0.015192,-0.026225
0.027417,0.019414,0.028054,0.019984,0.011586,0.020557,0.027584,0.019697,0.027695
0.029149,0.022404,0.029889,0.023686,0.016919,0.024623,0.025798,0.021006,0.026837
0.024017,0.017472,0.024393,0.018540,0.011594,0.018195,0.024538,0.017647,0.024867
0.021872,0.014215,0.022483,0.015625,0.009220,0.015942,0.021046,0.014982,0.021682
0.022539,0.016679,0.022950,0.017594,0.012298,0.019258,0.024331,0.019146,0.025382
0.024821,0.020922,0.027014,0.020056,0.015369,0.021953,0.026270,0.022511,0.028148
-0.052474,-0.041592,-0.061491,-0.041659,-0.030564,-0.047080,-0.062796,-0.048437,-0.063422
0.023857,0.017955,0.025660,0.017577,0.010473,0.018134,0.023943,0.018084,0.025778
-0.038079,-0.026614,-0.038268,-0.024355,-0.014099,-0.025622,-0.037393,-0.023802,-0.039183
-0.036420,-0.022227,-0.037525,-0.021429,-0.009191,-0.022589,-0.039202,-0.024723,-0.041393
0.023513,0.017330,0.023417,0.017220,0.010208,0.016703,0.023802,0.016396,0.023064
0.022001,0.015681,0.023075,0.015680,0.008904,0.015533,0.021218,0.015002,0.021431
0.023716,0.019257,0.025617,0.018475,0.013497,0.019749,0.023128,0.018734,0.025197
0.020049,0.014700,0.021702,0.017420,0.011220,0.019033,0.024125,0.016493,0.025263
0.022980,0.015502,0.023928,0.015027,0.008610,0.015734,0.024298,0.016134,0.024815
0.024567,0.017621,0.025425,0.019112,0.012384,0.020346,0.024920,0.018055,0.026781
0.024173,0.018591,0.024557,0.021053,0.014618,0.021776,0.024514,0.018622,0.025897
-0.040452,-0.023848,-0.040491,-0.028599,-0.008699,-0.029574,-0.036411,-0.023932,-0.040080
0.021158,0.014906,0.021551,0.016144,0.009891,0.016368,0.021592,0.014718,0.021504
0.022605,0.015701,0.023688,0.017040,0.010319,0.018018,0.023950,0.016995,0.025914
0.024044,0.017302,0.024092,0.017942,0.011578,0.017496,0.025007,0.019058,0.025137
-0.021887,-0.015980,-0.022268,-0.015828,-0.010361,-0.016290,-0.022142,-0.017032,-0.023614
0.021744,0.016706,0.021511,0.016043,0.010489,0.015028,0.023033,0.016530,0.022320
-0.050506,-0.037345,-0.049954,-0.034242,-0.019902,-0.036675,-0.051155,-0.044113,-0.053848
0.021434,0.015303,0.024180,0.016677,0.011019,0.019348,0.023958,0.016826,0.026520
-0.041863,-0.026434,-0.040522,-0.028645,-0.017004,-0.031462,-0.040326,-0.029748,-0.041839
0.024901,0.016801,0.024306,0.018422,0.011578,0.018245,0.025076,0.018472,0.025110
0.023176,0.016268,0.023750,0.018210,0.010996,0.017853,0.025201,0.017991,0.026509
0.025813,0.019165,0.027092,0.018325,0.011725,0.018991,0.025096,0.017686,0.025777
0.021583,0.015138,0.022234,0.015742,0.009660,0.015918,0.021314,0.014968,0.023004
-0.023038,-0.014862,-0.023265,-0.013318,-0.006193,-0.013512,-0.023924,-0.015670,-0.024770
0.024293,0.016789,0.023779,0.015515,0.009691,0.015504,0.023753,0.017691,0.024893
0.024275,0.015153,0.024792,0.016809,0.008756,0.016551,0.023247,0.014024,0.023782
0.025461,0.018804,0.026141,0.019324,0.012933,0.019649,0.025578,0.018936,0.025875
-0.020809,-0.015644,-0.021512,-0.014624,-0.008707,-0.014690,-0.020775,-0.015270,-0.020567
0.019389,0.013685,0.020219,0.014732,0.008790,0.014987,0.021537,0.015048,0.021652
-0.047965,-0.028273,-0.050084,-0.025882,-0.010384,-0.027762,-0.043468,-0.025815,-0.043808
-0.030717,-0.022692,-0.033298,-0.024171,-0.015242,-0.025654,-0.034425,-0.022509,-0.034728
0.020068,0.014642,0.021714,0.014095,0.008642,0.015812,0.022463,0.015313,0.023759
0.025044,0.015814,0.025597,0.018231,0.009764,0.018561,0.025444,0.017725,0.026814
-0.030713,-0.022206,-0.033496,-0.022481,-0.014151,-0.023574,-0.032714,-0.023069,-0.033864
0.023230,0.017760,0.024115,0.016904,0.010735,0.017953,0.023371,0.017725,0.025145
-0.036201,-0.026463,-0.038279,-0.025907,-0.017104,-0.027783,-0.037218,-0.027430,-0.040744
0.023040,0.018380,0.024074,0.015844,0.010498,0.017225,0.021977,0.016485,0.023174
-0.019040,-0.013898,-0.020304,-0.015651,-0.010235,-0.015883,-0.021521,-0.015768,-0.022842
-0.052520,-0.044163,-0.053966,-0.042310,-0.035684,-0.045083,-0.054319,-0.047604,-0.052226
0.024592,0.017838,0.024252,0.020061,0.012847,0.018600,0.025792,0.017772,0.023864
0.023343,0.018406,0.024738,0.019372,0.013593,0.019895,0.024696,0.019066,0.025372
-0.034170,-0.026100,-0.036887,-0.024598,-0.018604,-0.026376,-0.045057,-0.027522,-0.044739
-0.030937,-0.024166,-0.034568,-0.026209,-0.020055,-0.025771,-0.034781,-0.022765,-0.036264
0.023225,0.015840,0.023184,0.016890,0.010783,0.016553,0.025032,0.017672,0.024920
0.024367,0.017498,0.024867,0.019075,0.011806,0.019078,0.026127,0.018804,0.026717
0.027085,0.019094,0.027454,0.020098,0.011947,0.020089,0.027488,0.019581,0.028300
-0.036661,-0.027366,-0.039494,-0.029702,-0.020041,-0.029799,-0.046748,-0.030294,-0.048529
0.021448,0.016871,0.021874,0.017339,0.012551,0.017565,0.024195,0.019723,0.025600
0.019743,0.014858,0.021602,0.015971,0.009938,0.016682,0.023140,0.015668,0.023216
-0.037491,-0.024638,-0.035921,-0.028590,-0.010620,-0.029206,-0.043111,-0.031522,-0.044880
-0.045996,-0.032191,-0.046381,-0.032185,-0.020041,-0.034230,-0.047287,-0.032538,-0.049119
-0.035089,-0.027669,-0.036463,-0.024799,-0.018121,-0.028337,-0.033902,-0.023975,-0.033504
0.021837,0.016018,0.023077,0.015621,0.009618,0.016344,0.021744,0.015636,0.023078
0.024867,0.015727,0.025892,0.018362,0.010017,0.019041,0.025164,0.016304,0.026544
-0.024059,-0.013862,-0.024118,-0.016043,-0.007772,-0.015311,-0.022704,-0.014069,-0.023291
-0.028021,-0.004859,-0.035653,-0.062295,-0.018303,-0.068867,0.117956,0.083454,0.122594
-0.021234,-0.016684,-0.023098,-0.014167,-0.010177,-0.015446,-0.021825,-0.016265,-0.023323
0.020789,0.015004,0.020406,0.016837,0.011131,0.016211,0.023712,0.016973,0.023080
0.023268,0.014529,0.024188,0.016795,0.009500,0.017899,0.023647,0.015486,0.024297
0.024308,0.017837,0.024598,0.017113,0.011627,0.017671,0.022486,0.016975,0.023965
-0.041637,-0.019787,-0.042711,-0.024082,-0.010136,-0.024739,-0.039860,-0.021042,-0.040186
0.025133,0.021328,0.026290,0.019893,0.015713,0.020932,0.024923,0.022052,0.026784
0.023075,0.015783,0.022961,0.018543,0.011142,0.017189,0.024303,0.016554,0.023664
-0.023441,-0.016552,-0.025121,-0.015784,-0.009861,-0.017880,-0.024364,-0.017433,-0.027528
-0.040373,-0.025774,-0.040319,-0.027931,-0.012631,-0.027818,-0.040609,-0.029680,-0.043830
-0.039361,-0.025300,-0.039513,-0.027083,-0.013729,-0.026479,-0.036745,-0.027232,-0.039113
0.023889,0.015147,0.023925,0.017590,0.009996,0.018149,0.026148,0.016408,0.026984
0.020936,0.015991,0.021956,0.015774,0.010727,0.015380,0.021735,0.016948,0.022579
0.022030,0.014277,0.023093,0.016488,0.009322,0.016781,0.023228,0.015706,0.024250
0.021234,0.014840,0.021483,0.014778,0.008806,0.015342,0.021311,0.015478,0.022374
0.021924,0.017822,0.022902,0.015903,0.012034,0.016917,0.020357,0.016828,0.021996
0.023073,0.015453,0.023986,0.016602,0.008794,0.016652,0.024264,0.016056,0.025473
-0.037294,-0.032084,-0.038518,-0.029840,-0.019790,-0.032621,-0.040589,-0.029929,-0.040308
0.025238,0.017372,0.025959,0.017482,0.010580,0.019079,0.025395,0.018009,0.026608
-0.054838,-0.045959,-0.057613,-0.045818,-0.037015,-0.047132,-0.058717,-0.050746,-0.063024
0.022699,0.017426,0.025293,0.016009,0.010785,0.018311,0.022879,0.017202,0.025305
0.023391,0.018254,0.023620,0.018949,0.013137,0.018861,0.023743,0.018133,0.023692
0.023577,0.017171,0.023486,0.016302,0.010673,0.016955,0.022299,0.016393,0.023425
-0.029510,-0.021721,-0.030832,-0.020993,-0.013811,-0.020371,-0.030786,-0.020566,-0.031581
-0.038472,-0.024796,-0.039149,-0.025019,-0.010760,-0.025438,-0.037792,-0.022772,-0.037571
0.021191,0.013605,0.021915,0.015423,0.008424,0.015603,0.022157,0.014233,0.023641
-0.042750,-0.024136,-0.042813,-0.028719,-0.013620,-0.030384,-0.040550,-0.026197,-0.043234
0.019732,0.014906,0.019678,0.014766,0.009159,0.014274,0.021611,0.015941,0.021685
-0.038268,-0.025513,-0.040174,-0.025199,-0.013501,-0.025626,-0.031920,-0.023857,-0.034528
0.020305,0.015204,0.021625,0.015015,0.008302,0.014174,0.022127,0.015588,0.022866
-0.019940,-0.013622,-0.022149,-0.014331,-0.008342,-0.016006,-0.022170,-0.015200,-0.023418
-0.038884,-0.023443,-0.040466,-0.024863,-0.017496,-0.029123,-0.045378,-0.025410,-0.048525
-0.023119,-0.016922,-0.024099,-0.016588,-0.010177,-0.016821,-0.023939,-0.016951,-0.024362
-0.036001,-0.018527,-0.036197,-0.021459,-0.014979,-0.023808,-0.038388,-0.022433,-0.040666
-0.038643,-0.024511,-0.038903,-0.026809,-0.012761,-0.026528,-0.046023,-0.027379,-0.047255
0.020900,0.015829,0.021755,0.016661,0.011367,0.016603,0.023993,0.017262,0.024389
0.010679,0.012546,0.012074,0.011458,0.009881,0.011503,0.014727,0.012575,0.015683
0.020859,0.015255,0.020528,0.015127,0.010242,0.015626,0.020724,0.015877,0.021354
0.024196,0.016803,0.025205,0.018681,0.011258,0.019149,0.024512,0.017228,0.025805
-0.018162,-0.010311,-0.015892,-0.011694,-0.003228,-0.011295,-0.017511,-0.011563,-0.018366
0.022730,0.015316,0.023500,0.017773,0.011019,0.018225,0.025168,0.017690,0.025392
0.021828,0.015534,0.023114,0.016647,0.011079,0.017708,0.022903,0.018251,0.024533
0.022333,0.014162,0.023126,0.016579,0.009822,0.017963,0.024492,0.016692,0.025595
-0.034169,-0.022860,-0.037114,-0.027881,-0.019638,-0.030453,-0.048018,-0.031964,-0.049528
-0.038723,-0.024732,-0.040727,-0.026063,-0.016787,-0.029673,-0.036945,-0.024745,-0.037016
-0.021497,-0.014030,-0.021727,-0.014505,-0.007357,-0.014083,-0.022078,-0.015636,-0.023056
0.022616,0.016818,0.022466,0.016922,0.011694,0.016843,0.021771,0.016876,0.022250
-0.017036,-0.011405,-0.017656,-0.012275,-0.006451,-0.012922,-0.017599,-0.012096,-0.018832
0.023110,0.014828,0.023581,0.017356,0.009856,0.018344,0.023998,0.016532,0.024980
-0.023651,-0.012230,-0.025061,-0.016782,-0.005430,-0.017698,-0.027898,-0.014842,-0.028838
-0.037585,-0.021547,-0.038351,-0.024025,-0.010356,-0.025393,-0.033212,-0.021086,-0.036147
-0.025118,-0.015370,-0.025979,-0.018031,-0.008462,-0.018399,-0.028707,-0.016696,-0.029065
0.021019,0.016000,0.022540,0.014921,0.010744,0.016179,0.020720,0.016125,0.022303
-0.022713,-0.015412,-0.024214,-0.014722,-0.008712,-0.016385,-0.023476,-0.016563,-0.026357
-0.042213,-0.022860,-0.043355,-0.028660,-0.018407,-0.030352,-0.041848,-0.028302,-0.044812
0.023193,0.016274,0.024266,0.015781,0.009673,0.016570,0.022804,0.014892,0.024555
0.023400,0.018132,0.025204,0.017962,0.011918,0.019064,0.024838,0.018918,0.025602
-0.043154,-0.024761,-0.045933,-0.028030,-0.013410,-0.028140,-0.049037,-0.030983,-0.050160
0.020340,0.013959,0.020053,0.014300,0.009640,0.014519,0.020029,0.013744,0.020290
0.022043,0.017000,0.022831,0.015813,0.011275,0.016555,0.023619,0.018370,0.023913
0.020989,0.015212,0.022873,0.016284,0.010463,0.016961,0.022245,0.015908,0.022925
0.024930,0.021765,0.025486,0.021216,0.018299,0.022321,0.027033,0.024951,0.028432
0.024032,0.017745,0.025356,0.017480,0.011967,0.018165,0.024397,0.019234,0.026149
0.023039,0.016294,0.024114,0.014945,0.009251,0.015776,0.023927,0.017009,0.025753
0.021872,0.014814,0.023158,0.016319,0.008984,0.016801,0.022692,0.014730,0.023502
-0.036873,-0.021493,-0.038795,-0.024111,-0.011289,-0.026257,-0.036228,-0.023788,-0.037781
0.024871,0.017092,0.025797,0.018293,0.011995,0.019456,0.024305,0.018460,0.025119
-0.034260,-0.022921,-0.036631,-0.022561,-0.013721,-0.025010,-0.035768,-0.022778,-0.038059
0.022987,0.016122,0.025223,0.017230,0.010566,0.018334,0.023922,0.016805,0.024494
0.019084,0.014529,0.020597,0.015061,0.010438,0.016521,0.020828,0.015597,0.021940
-0.036263,-0.020777,-0.038668,-0.023432,-0.008792,-0.025060,-0.038887,-0.021930,-0.039649
0.021674,0.014494,0.022096,0.015064,0.008242,0.015046,0.021971,0.014870,0.022607
0.022476,0.015972,0.023909,0.015553,0.009731,0.016358,0.023007,0.016599,0.023528
