-0.016964
-0.010545
-0.065502
-0.059180
-0.001985
0.015389
-0.118311
0.048103
0.131946
0.042479
-0.080840
-0.147153
-0.068686
0.062527
-0.070292
0.035986
-0.001912
-0.094017
-0.107892
-0.051502
-0.069556
0.062507
-0.033155
-0.193381
0.300524
0.055530
-0.022298
0.092117
-0.115395
-0.071285
0.181179
-0.097005
-0.051729
-0.129958
0.005106
0.040524
0.054008
0.085960
-0.013278
0.051805
0.098137
0.199055
0.031777
0.065411
-0.050817
-0.055510
0.249348
0.285071
0.011139
-0.035470
0.026808
-0.118253
-0.145761
0.130159
-0.026331
-0.082081
-0.028834
-0.088969
0.010013
0.012396
0.016169
0.032332
0.318399
0.080075
-0.072617
-0.043272
-0.013713
0.017472
-0.054446
0.019659
0.136074
-0.099279
0.085392
0.196607
0.120249
0.117745
0.045487
-0.103084
0.155103
-0.163596
0.167987
0.007429
-0.007757
0.236244
-0.127658
-0.144582
0.102422
0.127161
-0.044214
0.164087
-0.034257
-0.069275
-0.004631
0.373834
0.020887
-0.000400
-0.112123
-0.107474
-0.028873
0.023323
0.161997
0.109062
-0.016608
-0.044472
0.008795
-0.088841
0.034132
-0.181309
0.078860
-0.045697
0.094767
0.095465
0.158954
-0.027251
-0.094093
-0.057369
-0.031432
-0.071151
-0.007954
-0.093395
-0.062375
0.143894
-0.223953
-0.171071
0.214287
0.102873
-0.045238
0.151074
0.004346
0.071266
0.054587
0.065881
-0.023454
-0.053071
0.309715
0.011578
0.039662
-0.139338
-0.017898
-0.069081
0.053547
0.055446
-0.005004
-0.161743
0.001233
0.059486
-0.125060
0.045285
-0.090761
0.001452
-0.035516
-0.052722
-0.099017
-0.172655
-0.027281
-0.071462
-0.036276
0.009745
-0.085696
0.010146
-0.012083
-0.093382
-0.131331
0.067837
-0.003413
-0.099450
-0.062348
0.098151
-0.010760
0.243427
-0.082916
0.007238
-0.128720
-0.042778
0.010915
-0.045451
-0.058230
-0.033156
-0.137833
-0.075631
0.002699
-0.054878
-0.020192
-0.104506
-0.031627
0.029135
0.037336
0.025102
-0.089120
0.038600
0.043422
0.015531
0.024046
-0.048366
0.021940
-0.028003
-0.139346
0.023079
-0.013669
0.038862
-0.078762
-0.018477
0.010275
-0.063066
-0.014915
-0.144926
-0.069441
-0.175485
-0.054416
0.055242
0.178555
-0.154925
0.076461
-0.062220
0.064698
0.051033
0.293322
0.011427
-0.086649
0.129494
0.074019
-0.087097
-0.054339
-0.007700
0.080490
-0.038278
-0.006958
0.170335
-0.004092
0.050605
0.000581
-0.108411
0.248464
0.251145
-0.110650
0.138638
0.028676
-0.052669
-0.008119
0.005298
-0.016145
-0.109208
-0.081403
-0.038545
0.010213
0.008820
-0.248126
0.284881
0.030725
0.309487
0.105599
0.114218
0.141178
0.333341
-0.254565
0.258406
-0.067454
-0.113792
0.017467
-0.251289
-0.029498
-0.148693
0.181470
-0.028567
0.027471
0.091878
0.169249
-0.222020
-0.110688
-0.002459
0.016343
-0.037589
0.089574
0.294325
-0.048332
0.175881
0.020372
-0.133343
0.141786
0.017225
0.033334
0.037772
-0.106919
0.013002
-0.028267
-0.076008
-0.139604
-0.080630
-0.044060
0.119856
-0.007525
0.166666
0.024600
-0.152829
-0.003287
-0.033382
-0.085049
0.009573
-0.099406
0.100997
0.255462
0.000494
-0.231449
-0.115845
0.016921
-0.103647
0.141950
-0.060014
-0.104257
-0.185236
-0.053159
-0.019489
-0.093300
0.019319
-0.094773
0.287816
0.113870
-0.004011
-0.080196
-0.154335
0.070566
-0.020792
0.035858
-0.136149
-0.051106
0.131955
0.032647
0.224666
-0.060534
-0.101979
0.232288
-0.069990
0.029998
0.079015
0.047823
-0.009706
-0.091378
-0.193598
0.247219
-0.099969
-0.032141
-0.114919
-0.141348
0.044943
0.095320
0.104714
0.024038
-0.128031
-0.249506
-0.092967
-0.022541
0.060240
-0.020826
-0.045571
0.044757
0.017539
-0.027207
0.060471
-0.044930
0.000892
0.031617
-0.433327
0.010852
-0.167224
-0.033072
-0.028326
0.121699
0.056287
-0.145205
-0.024378
0.013292
-0.396387
0.060183
0.002119
0.078041
-0.051416
-0.114791
0.187577
0.061046
0.008844
-0.021853
-0.038063
0.120498
0.074183
