0.173057
0.132487
-0.007751
0.145351
0.031507
0.082396
0.137948
0.189067
0.074903
0.251312
0.195391
0.052288
0.039698
-0.120037
-0.002798
-0.054593
-0.016173
0.127263
0.120054
-0.043134
-0.023436
-0.028625
-0.026326
-0.000838
0.061571
0.201383
0.031067
-0.040297
0.056617
-0.044484
0.091762
0.209691
-0.012350
0.183113
-0.024892
0.225580
0.038294
0.217535
0.001844
-0.048333
0.017807
0.078003
0.194826
0.011450
0.146311
0.130047
-0.004209
0.190118
0.102364
-0.112201
0.138305
0.068041
-0.015156
0.064985
-0.024171
0.174945
0.056008
0.048284
0.153475
0.184663
0.041400
0.067241
0.149726
0.126489
0.010405
0.175403
0.202559
0.138516
-0.019205
0.191374
-0.028150
-0.038539
0.215290
0.147936
0.099187
0.039608
-0.068918
-0.013674
0.042359
-0.168680
0.015444
0.009062
-0.050978
-0.097931
-0.008289
-0.079384
0.009487
0.062167
0.036646
0.038789
0.000407
0.022421
-0.001120
0.027558
-0.007892
0.307791
-0.010799
-0.020522
0.042592
-0.022235
0.017910
0.089200
0.077223
0.130768
-0.029051
0.203700
0.122943
0.074118
0.069163
-0.018459
0.116697
0.034302
0.220243
0.036545
0.225232
0.169527
0.056514
0.047386
0.239306
0.012980
-0.032439
0.202117
0.203294
0.024668
0.213414
0.096370
0.042250
-0.045143
-0.016273
0.099131
0.098157
0.015891
-0.061698
0.109946
0.098055
0.195542
-0.005109
0.148073
0.023510
-0.031086
0.000671
0.030230
0.017426
0.009763
0.064489
0.042347
0.107383
-0.047193
0.061543
0.015402
0.119017
-0.042956
0.129616
0.026383
0.052808
0.017656
0.153821
0.246513
0.045683
0.160681
0.131421
0.180467
0.035372
0.226912
0.179113
0.123943
0.034171
0.227223
0.051960
0.134135
0.089310
0.102033
0.068323
0.172750
-0.005205
0.005341
0.155629
0.143963
-0.038547
-0.084485
-0.009143
0.146722
0.070940
0.277616
0.018536
0.036927
-0.045904
0.021768
-0.002784
-0.031625
0.071595
0.123755
0.026972
0.021439
0.082836
0.033192
-0.008829
0.127695
-0.006929
0.196335
0.104942
0.042374
-0.020261
0.025003
-0.088332
-0.036387
0.102453
0.157394
0.124881
-0.075689
-0.033841
0.070603
-0.004723
-0.014433
0.079623
0.154011
0.023722
-0.022812
0.164437
0.025010
0.177143
0.044599
0.102298
-0.000076
0.152243
0.038523
-0.077402
-0.008151
-0.069676
-0.030956
-0.048132
0.027831
0.169400
-0.037623
0.185830
0.189467
-0.011636
0.175498
0.245940
-0.054371
0.027706
0.062654
-0.036127
-0.021125
-0.051089
0.122114
0.064994
0.047080
0.079164
0.039923
0.127069
0.061818
0.134188
0.105002
0.118347
0.090553
-0.031363
-0.008101
0.013732
0.108959
0.008471
0.076556
0.183687
0.018783
-0.019989
-0.038730
0.020775
0.084135
0.208332
-0.067206
0.092490
0.053931
-0.057305
0.138549
0.103563
0.078735
0.051112
0.226774
0.029314
-0.013792
0.015121
0.023880
0.103495
0.224532
0.018619
0.058984
-0.045450
0.066662
-0.005368
0.082803
0.108991
0.038583
-0.002987
-0.004583
0.036671
0.067906
0.088569
0.114019
-0.011425
0.016310
0.086806
0.065888
0.026037
0.049623
0.063661
0.030603
-0.013081
0.039899
0.017893
0.034330
-0.057743
0.229194
0.078566
0.260092
0.088593
0.113762
-0.097998
0.139773
0.219648
-0.045718
0.001789
0.010750
0.044400
0.011452
0.070647
-0.026096
0.154528
0.099461
0.174393
0.092486
-0.043206
0.043559
0.029693
0.051772
0.057613
0.210896
0.167783
0.098198
0.146733
0.073218
0.127979
0.072299
0.257751
0.171557
-0.082990
-0.048266
0.149211
0.098577
0.116129
0.141586
0.211517
0.051128
0.144994
0.151668
0.137389
0.026157
0.031996
0.045598
0.061054
0.051562
0.120239
0.000989
0.142873
-0.018085
0.151911
-0.027078
0.080132
-0.093476
0.192308
0.057774
0.025798
-0.055455
0.059482
0.015055
0.117458
0.062504
0.115838
0.132773
0.039083
0.089329
-0.021839
-0.026844
0.290109
-0.069142
