-0.072747,0.105181,-0.047015,-0.051657,0.069290,0.180003,-0.098244,0.079473,-0.021578,0.086093,0.055273,0.162485,-0.030985,-0.051465,-0.020386,-0.003347,-0.072079,0.067733,0.057765,0.092942,-0.154276,0.061565,0.201662,0.073032,0.117557,-0.117613,-0.018182,-0.016109,-0.078515,-0.170871,0.019848,0.111823,-0.013616,0.004100,0.042459,-0.069325,-0.027573,-0.038306,-0.016132,-0.089636,-0.072891,0.001118,-0.060287,0.112548,0.021560,-0.100445,0.069541,0.090919,0.062421,0.122266,0.038673,0.075484,-0.004015,-0.006847,0.189175,-0.090792,-0.132231,0.021760,-0.194710,-0.035632,-0.081345,0.020460,0.207798,0.081103,0.008026,-0.046394,0.059469,0.059828,0.100116,-0.211805,-0.015700,-0.032808,0.004642,0.029646,0.020088,0.087752,-0.131711,-0.029652,-0.062592,0.085688,-0.040353,-0.064138,-0.021065,0.124749,-0.083414,0.028602,-0.090064,0.044217,0.055015,0.010051,-0.007334,-0.073316,0.108589,0.107326,0.017680,0.087019,0.051236,-0.049498,0.032648,0.101657,-0.108512,-0.025053,-0.088123,0.063867,-0.058651,-0.025845,0.077732,-0.075752,-0.027883,-0.042157,-0.200918,-0.051264,0.091425,0.023844,-0.020276,-0.090284,0.092673,0.100678,-0.115090,0.091379,-0.020556,0.041267,0.005973,0.059403,-0.029863,-0.038917,0.021504,-0.052306,0.088119,0.066073,-0.115207,0.062412,-0.003061,0.082429,-0.016542,-0.111479,0.087526,-0.121851,-0.006978,-0.011540,-0.098854,0.102392,-0.131200,-0.051283,0.186637,-0.071124,-0.153206,0.005120,-0.115226,0.099690,-0.051041,-0.029804,0.044238,0.074393,-0.015416,0.179403,0.001214,-0.012080,-0.062033,-0.029147,0.098238,0.098570,0.067907,0.043250,-0.073660,0.043815,0.014847,-0.180732,0.118959,-0.004393,0.057075,0.072561,0.085961,0.079728,0.012844,0.094835,0.051880,-0.006927,0.013916,-0.019056,0.188823,0.200499,0.032602,0.095623,0.070339,-0.049117,0.022294,0.111135,-0.060605,-0.052023,0.093115,-0.026298
0.066300,0.015950,0.021396,-0.066224,-0.032598,-0.027313,0.131150,-0.000123,0.062167,-0.087187,-0.006042,-0.054523,0.041094,-0.009045,0.046660,-0.076611,0.093475,-0.117015,-0.125412,0.002149,0.135895,0.211558,0.136549,-0.019350,-0.004667,0.011658,-0.072947,0.111265,0.017400,-0.086271,-0.081023,0.022770,0.102479,0.112863,0.017429,0.046484,0.020259,0.010673,0.044090,-0.009024,-0.021133,0.019633,-0.050365,0.044316,-0.109484,0.017463,0.069262,-0.044599,0.067469,0.106117,-0.006144,0.012311,-0.041400,-0.026602,-0.167651,0.086141,0.104803,0.113085,0.026933,0.048284,-0.080832,-0.043418,-0.103551,-0.201809,-0.082236,-0.025854,-0.090607,-0.057071,-0.095606,-0.189757,-0.002526,-0.236752,0.024658,-0.061252,-0.005754,0.009793,0.128359,-0.021555,0.068907,-0.101814,0.016848,0.105614,-0.096479,0.124871,-0.050596,-0.156545,-0.182156,-0.006567,0.003954,0.034195,-0.146964,0.071744,0.042305,-0.023427,0.010957,0.000384,-0.021333,0.099112,0.024755,0.024571,0.025896,-0.072932,-0.079210,-0.012174,0.090710,-0.026255,0.048183,-0.064808,0.102107,-0.012225,0.056216,0.039404,-0.051438,0.049389,-0.010327,0.187080,0.079366,-0.071281,0.014063,-0.137844,0.048847,0.029651,-0.073833,-0.082433,-0.077733,-0.059626,0.015110,0.061496,-0.043313,0.003822,-0.121390,-0.106090,-0.116809,-0.117454,-0.006427,0.035934,-0.066703,0.069662,-0.053947,-0.115321,0.061533,0.003583,-0.041665,-0.039389,0.092980,0.003990,-0.126287,-0.138474,-0.103898,-0.040437,-0.041682,0.011120,-0.017134,-0.025830,0.150195,0.148404,0.131484,0.049146,-0.043007,-0.050321,-0.001977,-0.024361,0.027706,-0.049349,0.048350,-0.080400,-0.035936,-0.052328,-0.038403,0.009212,-0.037431,-0.032470,0.103700,-0.002304,-0.103906,-0.084670,0.112671,0.045520,-0.091101,0.093873,0.013993,-0.121582,-0.072099,-0.129121,0.052477,0.267011,-0.174676,-0.056851,-0.075682,0.035047,0.002425,-0.054650
0.029076,0.030478,0.037262,-0.029392,0.006042,-0.120785,-0.098811,-0.156008,0.063635,0.111389,0.096333,-0.042324,-0.006458,-0.085563,0.058725,0.158963,-0.125675,0.049889,-0.050969,-0.054046,0.085019,0.063719,-0.117574,0.114063,-0.182037,0.133494,0.118907,-0.033031,-0.104704,0.215621,0.083416,-0.039344,-0.018424,-0.029372,-0.265205,0.042807,0.076406,-0.053990,0.031292,0.143868,0.091113,-0.026741,-0.169082,0.080320,0.045127,-0.021629,0.089258,0.115559,-0.227950,0.077974,0.012839,-0.111728,0.105509,0.162267,-0.037467,-0.084412,-0.142365,-0.231556,0.021836,0.034504,-0.149488,-0.088496,0.029143,0.015590,-0.070492,-0.108624,-0.064042,0.159716,0.072780,-0.000343,-0.056344,-0.032182,0.087498,0.044503,-0.037823,0.009452,-0.014117,0.094449,-0.037374,-0.019076,-0.121458,-0.182733,0.048458,-0.007575,0.160180,-0.006421,0.286750,-0.006180,-0.092386,0.006370,0.182896,0.060976,-0.095362,-0.130545,0.126885,-0.061451,-0.047668,-0.177954,-0.001351,-0.058472,0.079639,0.035376,0.008711,-0.215962,0.058481,0.129903,0.007565,-0.021640,-0.007907,-0.162355,0.018218,0.059064,-0.026662,0.151947,0.100973,0.090529,0.110875,0.104650,0.014395,0.123035,-0.060457,0.086050,0.048577,-0.033805,0.032738,-0.021725,0.026896,-0.097237,0.068773,0.058216,-0.162560,0.162239,0.025330,0.099220,0.088879,-0.019049,0.144671,0.046362,0.059358,0.007597,-0.049461,-0.104533,0.133316,0.194969,-0.010852,-0.019143,0.091021,-0.183645,0.010193,0.031730,0.070046,-0.034871,-0.020320,0.032381,-0.128447,0.177367,-0.089689,0.051783,0.028887,-0.028193,0.021250,0.109444,0.016130,-0.090771,-0.062650,0.123720,0.018948,0.095980,0.068329,0.065927,0.024904,-0.084915,-0.161377,-0.005166,0.090076,0.046643,-0.060002,0.022943,0.098449,-0.094916,0.019571,-0.008208,0.123708,0.013799,-0.210802,0.009079,0.257130,-0.062845,-0.015412,-0.036663,-0.087836,-0.011246
0.040866,-0.000634,-0.064144,0.109451,-0.160515,-0.047891,-0.017688,0.025202,-0.018616,-0.107693,-0.124528,-0.028833,-0.006541,-0.041125,0.140977,0.021472,0.029872,-0.043978,-0.034341,0.058934,-0.022964,0.037552,-0.005266,0.174059,0.005764,-0.138308,-0.069068,0.031740,0.075060,-0.070987,0.050016,-0.066558,0.056440,-0.032851,0.047611,-0.084584,-0.076307,-0.021875,-0.089983,-0.114886,-0.075537,-0.136432,-0.100931,-0.118046,0.134305,-0.030100,0.069445,0.036364,-0.059271,0.067560,0.093689,-0.040446,-0.029019,-0.074046,0.152651,-0.024960,0.080739,0.077876,0.031907,0.071727,0.037869,-0.168683,-0.028816,-0.128996,-0.142894,-0.152393,0.023185,0.015897,-0.221413,-0.050068,0.030238,-0.129198,0.055991,-0.122492,-0.103199,-0.020053,-0.095713,-0.037774,-0.087721,-0.065210,-0.016464,-0.022855,-0.043481,-0.064598,0.037385,-0.022895,0.066331,0.011880,-0.183468,0.049609,0.009368,0.119480,0.030104,-0.091680,0.046851,-0.172935,-0.006161,-0.071478,0.011495,0.066148,-0.130348,0.040268,0.140733,-0.103702,0.060692,-0.202518,0.108233,-0.003131,-0.001279,0.054523,0.002181,0.014402,-0.117693,-0.061948,-0.107688,-0.058852,0.079138,0.095261,0.117068,-0.047450,0.082196,-0.026841,-0.024835,-0.004146,0.099813,0.044177,-0.083269,0.060299,0.008366,-0.087734,-0.052482,0.035778,0.071447,-0.137514,0.016220,0.074936,-0.021870,-0.173825,-0.061969,0.027092,-0.032263,-0.010575,-0.020561,-0.159470,-0.014626,-0.127253,-0.007432,-0.009763,0.165714,0.079137,0.084401,-0.012731,0.118480,0.011225,-0.104142,0.101010,0.093656,0.096758,-0.001280,-0.074438,-0.049542,-0.186193,-0.059862,-0.096505,0.056379,-0.093039,-0.029347,0.188467,-0.141125,-0.031350,0.079430,0.054741,0.082783,-0.107771,-0.067084,0.009824,0.099647,0.043398,0.099000,0.039528,-0.073382,-0.079851,-0.142275,-0.151696,-0.086935,0.033517,-0.055768,0.010049,0.041704,-0.095015,-0.001025,0.109584
-0.004205,0.079909,0.075698,-0.040174,0.044316,0.071134,0.050399,0.022629,-0.042969,-0.100073,0.074990,-0.057685,-0.043325,0.006062,0.006141,0.190859,0.166662,-0.110794,0.017585,0.230872,-0.114935,0.082208,0.068973,0.003315,0.168843,-0.100572,-0.100780,0.034222,-0.017268,0.156984,-0.058626,-0.022940,-0.006706,-0.083964,0.025742,0.023856,-0.117181,0.169147,-0.117089,0.044521,-0.041794,0.103148,0.132568,0.030310,0.035654,-0.006785,-0.025118,0.026905,0.249747,0.127347,0.124626,0.002654,-0.104451,-0.005665,0.010459,-0.080164,-0.086880,-0.146736,0.048801,0.111293,0.207960,0.036133,0.138808,-0.037841,0.036659,0.037333,0.075328,-0.133954,-0.039138,-0.026062,-0.002140,-0.088574,-0.066277,-0.060312,0.056333,0.005529,0.034809,-0.039185,0.059358,0.064933,0.041063,-0.022519,-0.029079,0.132595,0.008787,0.119447,0.053503,-0.047467,0.090266,-0.119791,0.044855,-0.090891,0.172184,0.132036,-0.057940,-0.026055,0.120471,-0.068284,-0.027012,0.206895,-0.093044,-0.018111,0.068754,0.073892,-0.196052,-0.010513,-0.011620,-0.059188,0.011765,-0.019554,0.013268,0.018753,-0.096189,-0.083708,0.129883,-0.167908,-0.119973,0.074174,0.002205,0.088035,0.016049,-0.031537,0.117110,-0.000904,0.006519,0.112903,-0.039631,-0.051500,0.083811,-0.060207,0.072041,0.044877,0.119852,-0.062960,0.014057,0.016456,-0.225847,0.003282,0.114847,0.092368,0.068957,0.063751,0.103980,0.021190,0.093682,-0.049902,-0.073523,0.217391,-0.010580,0.180272,0.018489,-0.050560,0.082220,0.073187,-0.081334,-0.014441,-0.093749,0.013031,-0.078457,0.009639,-0.096694,-0.014543,0.060035,0.045646,0.102491,0.047432,-0.003704,-0.009952,-0.057817,0.047053,-0.174043,0.185977,-0.012088,0.014427,-0.013466,-0.026594,-0.000331,0.029429,0.010830,0.060898,0.024581,-0.040893,-0.029906,-0.157401,-0.036815,0.059392,0.032468,0.206590,0.080506,-0.058964,-0.028239,0.031626
-0.024159,0.077102,-0.046098,-0.009534,-0.008218,0.025483,-0.016051,0.053780,-0.072205,-0.015898,0.069183,0.141571,0.075572,-0.032427,-0.023206,0.030829,0.050382,-0.084465,-0.086359,0.046445,0.018908,-0.188823,-0.033647,0.018666,0.020783,0.102535,0.110173,0.179826,0.052432,0.133224,0.004759,-0.111856,0.018750,-0.098977,0.076134,-0.082393,-0.091697,-0.085088,-0.049509,0.081313,0.124101,0.107375,0.000080,-0.015489,-0.120384,0.019754,-0.071964,-0.011835,0.014934,-0.098940,0.005851,0.051304,-0.021379,0.081441,-0.134327,-0.029807,0.027836,-0.061119,0.002225,0.107892,-0.015522,0.086627,0.051762,-0.085934,-0.028317,-0.021686,0.099325,-0.104422,-0.076960,-0.150789,0.175699,-0.165299,-0.016062,0.094097,0.177284,-0.104552,0.137493,-0.047120,-0.027954,-0.065399,0.177848,0.069666,-0.004897,-0.285218,0.085572,-0.017354,-0.064264,-0.011369,0.069748,-0.149500,0.047027,0.021910,-0.110933,-0.072545,-0.002446,-0.090835,0.002967,0.005879,-0.186061,-0.072384,0.076586,-0.050447,-0.000758,0.058587,-0.035476,-0.020975,-0.030448,-0.097323,-0.049715,-0.029199,0.014531,-0.059083,0.010580,0.032449,0.001187,-0.045547,0.097340,-0.065877,0.053168,0.045999,0.015383,-0.088036,0.080826,0.045686,0.131982,0.005358,-0.054829,-0.036693,-0.105914,-0.068535,-0.054922,-0.034839,0.048202,-0.043130,0.037009,0.039362,-0.062297,0.091457,0.110927,-0.053296,0.089036,-0.006913,-0.016944,-0.023233,0.030669,0.057360,0.090881,0.013132,0.045889,-0.060199,-0.047784,-0.016933,0.083809,0.057109,-0.051022,-0.081573,0.022615,-0.130829,-0.038153,0.000035,-0.112690,-0.036397,0.068012,0.081599,0.033192,0.017241,-0.030225,0.052610,-0.027019,-0.091454,0.028098,0.002747,-0.058559,-0.091878,-0.087200,-0.025681,0.111224,0.139854,-0.023882,-0.032850,0.032439,0.002617,-0.079773,-0.012538,0.067440,-0.109099,0.144303,0.123143,0.135363,-0.071257,-0.015652,-0.016457
-0.119392,-0.020659,-0.072185,-0.004146,0.029976,0.037045,0.010989,-0.004515,0.131983,-0.111650,0.035235,0.036936,-0.092382,-0.093126,0.041643,-0.043084,0.036344,-0.064197,0.020605,0.040915,-0.017729,-0.002604,0.086076,0.017028,-0.015849,-0.136393,0.015199,0.058510,-0.073300,0.058936,0.105020,0.031627,-0.227816,-0.025000,0.093722,-0.024210,0.078632,-0.113446,-0.063297,-0.125655,0.008462,-0.052382,-0.120160,-0.004982,0.020512,-0.148249,-0.174706,0.033586,-0.144158,0.015072,-0.038953,-0.082252,-0.071598,0.138705,-0.020816,-0.100154,0.109531,-0.002090,0.207586,0.086675,-0.123576,-0.088861,-0.018593,-0.030220,-0.038729,0.220199,-0.046426,0.044874,0.085324,0.188752,0.108586,-0.067819,0.080157,-0.028643,0.026466,-0.104907,-0.009899,-0.089967,0.013425,-0.016974,-0.011754,0.027905,-0.064052,-0.079356,0.009114,0.046552,0.113691,0.133508,-0.073511,-0.039040,-0.121720,-0.009057,-0.022789,0.010568,0.141069,0.045991,-0.029491,0.116497,-0.119889,0.021339,-0.073264,0.015545,0.050197,-0.003406,0.122650,0.137726,-0.087938,-0.043346,0.029677,0.040024,-0.040696,-0.045427,0.035764,0.170581,-0.112998,-0.146484,-0.195621,-0.032532,-0.090566,0.045936,0.000234,0.019980,-0.101092,-0.037272,-0.027160,-0.106083,0.024579,-0.011491,-0.000838,-0.025643,-0.131811,-0.074625,-0.054299,-0.032007,0.191260,-0.000941,0.019833,-0.023939,-0.014070,-0.028076,-0.131207,0.056347,0.113261,-0.050912,0.010464,-0.028386,-0.110603,-0.089436,-0.094782,0.004914,0.021055,0.250746,-0.051045,0.014042,-0.021291,0.018186,-0.125274,0.167860,-0.050116,-0.016762,-0.073747,-0.090110,-0.059437,-0.087035,-0.044125,0.166464,-0.069631,-0.385160,-0.012619,-0.031848,0.109252,-0.116779,-0.133016,-0.112445,-0.119853,0.120551,0.097780,-0.047858,-0.023892,0.020435,0.076654,0.014469,-0.047551,-0.016698,-0.037105,0.097958,0.027769,-0.015988,-0.018523,0.016403,0.119474,-0.155657
-0.038634,0.079511,0.102028,0.142889,0.050669,-0.024394,-0.009319,-0.037356,-0.048170,-0.072532,-0.033947,0.006194,0.005243,0.053864,0.189009,-0.055276,-0.007370,0.076085,0.004898,0.049566,0.087181,-0.076307,-0.092713,-0.015617,0.101993,0.145502,-0.036259,0.065380,-0.189567,0.005397,0.093748,0.001920,0.105082,0.133804,-0.045762,0.008042,-0.040169,-0.157350,0.077497,0.086956,0.168351,-0.108762,0.053715,0.053002,-0.111495,0.074021,0.078897,-0.055098,0.027293,-0.092084,-0.067135,0.055001,0.028223,0.011609,-0.130246,-0.006125,-0.206926,-0.053622,0.116607,-0.029422,0.026719,0.012627,-0.022506,-0.133651,0.055082,-0.067924,0.002399,-0.001397,0.023607,0.085472,-0.010631,0.028713,-0.082949,0.032924,-0.032645,-0.012642,0.030058,0.008557,0.005637,-0.058528,0.061580,0.001258,-0.057328,-0.039100,-0.076930,-0.038344,0.082313,0.126870,0.074307,0.162758,-0.018899,-0.046713,0.034585,-0.023611,0.027415,-0.110804,0.025971,0.009315,0.078390,0.012993,0.006710,-0.181000,0.110235,0.007410,-0.142305,0.092236,-0.169397,0.076618,0.078021,-0.044670,0.042921,0.025323,0.245821,-0.130212,0.129694,-0.003385,0.178349,-0.049022,-0.064978,-0.084726,-0.086146,0.039195,-0.013459,-0.038661,0.041083,0.164345,0.073779,-0.038009,-0.052647,-0.071597,-0.028384,-0.016152,-0.077777,-0.016412,-0.066406,-0.010083,0.014024,0.143006,-0.062753,-0.075314,0.024687,0.159990,0.068171,0.088410,-0.029620,-0.011612,0.032482,-0.069529,-0.011780,0.002828,-0.007671,0.130957,-0.036123,-0.027490,0.184382,-0.105957,0.022483,0.185708,0.159686,0.004973,-0.025650,-0.010659,0.001349,-0.038173,0.006960,-0.062402,0.147822,0.188852,0.018249,0.035764,-0.077697,-0.058164,-0.019184,-0.098030,-0.029730,-0.052385,-0.044839,-0.022691,-0.039748,-0.057505,0.029367,0.026042,0.010389,0.171033,0.124309,-0.018646,0.138209,-0.001820,0.007830,0.241233,0.023740,0.032910
-0.120102,-0.068401,-0.038957,0.058683,-0.010420,0.001716,-0.122125,-0.015275,0.120779,-0.003542,0.073390,0.105902,-0.103954,-0.054523,-0.051480,-0.111795,0.108264,0.054359,-0.009954,-0.099019,-0.069865,0.170615,0.201493,-0.143641,-0.000043,-0.082654,0.157257,-0.000483,-0.069184,0.110964,0.087286,0.024397,-0.059192,-0.036016,-0.008539,-0.002703,0.141784,-0.043019,0.084286,-0.052514,-0.037135,0.045144,-0.038438,0.091535,0.107001,-0.124604,0.091174,0.090012,-0.022212,0.148513,0.103095,-0.094945,0.048365,0.015021,0.090125,-0.117430,-0.068449,0.023187,0.021769,0.041679,0.003427,0.200291,0.036833,0.056997,0.052454,0.045240,-0.097108,0.032198,0.032576,0.035237,0.077004,-0.087311,-0.073404,-0.040181,0.011594,0.027528,-0.050685,-0.025182,0.131567,-0.002968,-0.029441,0.061480,-0.051158,0.060897,-0.116157,0.067471,0.113657,0.075925,-0.026484,0.083371,0.011093,-0.022226,0.012928,0.060326,-0.019127,0.046865,0.075399,-0.150478,0.072639,-0.006740,-0.079889,-0.005664,0.007103,-0.086873,-0.065235,0.072050,-0.082301,-0.027839,0.002772,-0.053156,0.000544,0.000964,0.032120,-0.080933,-0.083908,-0.024707,0.140773,0.026156,0.037184,0.097101,0.057249,0.165799,-0.130273,-0.037536,-0.075390,0.033012,0.155437,0.042934,0.071694,-0.051970,0.039973,-0.074786,-0.098319,-0.074682,0.136167,-0.016392,-0.011212,-0.040517,-0.006252,0.096571,-0.029041,-0.118312,0.050109,0.026658,-0.147075,0.061852,-0.075380,0.028612,-0.014675,-0.031152,0.041551,0.104887,-0.019498,0.031183,0.003035,0.085963,-0.050879,-0.015215,0.035720,0.006976,0.033420,-0.062124,-0.004812,0.106647,0.010975,-0.029176,0.077041,-0.137783,0.023760,-0.007457,0.124760,-0.026834,0.024985,0.015870,-0.038633,0.074995,0.054634,-0.084009,0.078798,-0.115928,-0.053000,-0.129744,-0.117890,0.026916,-0.103298,0.098481,0.078961,-0.029582,-0.060326,0.101230,0.034409,0.047178
-0.038791,0.057574,-0.008079,-0.052836,-0.090287,0.176477,-0.079268,-0.011812,0.064618,0.118737,-0.048989,-0.127808,-0.116424,0.080686,0.006506,0.055856,-0.091405,-0.140441,-0.068207,0.023991,-0.081763,-0.255146,-0.141440,-0.069395,0.078898,-0.245946,0.006392,-0.054437,-0.079249,-0.039355,0.028447,0.049813,-0.000730,-0.024609,-0.004871,0.007905,0.094033,0.009703,-0.029602,-0.033444,-0.037675,0.082672,0.043561,0.095802,0.140977,-0.142335,-0.026441,0.038484,0.189244,-0.078666,0.098819,-0.005789,-0.044530,-0.043803,0.171509,-0.006912,-0.082509,-0.008315,0.075379,-0.011463,0.073135,0.066545,0.009222,-0.059436,0.050723,0.046254,-0.051876,-0.028207,0.014484,0.070486,0.006437,-0.012461,0.055827,0.103024,-0.119744,0.105111,-0.138484,-0.073663,-0.022578,-0.048139,-0.047676,-0.070432,-0.134708,-0.158696,-0.003426,-0.184466,-0.027065,-0.018387,0.112712,-0.079178,-0.061777,-0.103528,-0.032382,-0.115302,-0.026518,0.035837,0.024255,0.018489,-0.139584,0.051502,-0.147900,0.013345,-0.074302,-0.152100,0.046836,0.010325,-0.051203,-0.100669,-0.016217,0.007336,-0.168866,-0.096087,-0.060010,-0.022039,0.020639,0.086914,-0.014128,0.090233,-0.051457,0.095028,-0.083682,0.078099,-0.067661,0.124555,-0.119574,-0.032906,0.066704,-0.020787,0.026643,-0.081627,-0.014273,0.081168,-0.007797,-0.022037,0.072034,-0.047826,0.067704,-0.104695,-0.075927,0.022233,0.052775,0.023365,0.005153,0.131406,0.079596,0.111812,-0.183480,0.072935,-0.128406,0.013376,0.019805,-0.048736,0.029631,0.004822,-0.029086,-0.038702,-0.054403,-0.116847,-0.114069,-0.026109,0.087659,0.081076,-0.027900,0.108100,-0.097972,0.058253,-0.059880,-0.180446,0.011439,0.094076,-0.014414,0.022353,0.032621,-0.029846,0.006003,0.036387,0.017044,0.030759,0.006300,0.137998,-0.085514,0.034138,-0.000250,-0.074961,-0.022196,0.035349,-0.012217,-0.007355,0.027176,0.088567,-0.142008,-0.006283
-0.164844,-0.069694,-0.109722,0.058351,-0.023757,-0.156830,-0.095504,0.135694,-0.018457,0.139673,0.177977,-0.146134,-0.041632,-0.188131,-0.061167,-0.001036,-0.058428,-0.062614,0.006873,0.003874,-0.169767,-0.022675,-0.091257,0.137259,0.018809,0.138476,-0.000563,-0.029603,-0.134494,0.003947,-0.053784,-0.147553,-0.113324,-0.066431,-0.007773,0.089631,-0.024061,0.033002,0.046189,0.057549,-0.026367,0.203030,0.099349,-0.089101,-0.167045,-0.131734,0.043205,0.076502,0.196207,0.027047,0.092967,-0.024562,-0.137468,-0.082843,-0.217588,-0.275860,-0.016567,-0.033275,-0.036703,0.090667,0.057616,-0.092611,0.031497,-0.014476,0.047459,-0.061921,-0.011979,-0.027098,0.098782,-0.011376,-0.169016,0.050367,0.048743,-0.005809,0.050382,0.021745,0.237014,-0.082121,-0.041287,0.050693,-0.153439,-0.073896,-0.082920,-0.068882,-0.000214,-0.056319,-0.016446,0.026059,-0.048943,-0.007192,0.133575,-0.016869,0.015119,-0.037980,0.105269,0.095552,0.105075,-0.024265,-0.125717,-0.030019,0.086746,-0.108253,0.024411,-0.100181,-0.004705,-0.080369,0.102227,-0.123189,-0.165247,0.009673,0.066242,-0.076578,0.002848,-0.017892,0.001592,-0.009036,-0.046155,-0.029597,-0.051838,0.111991,0.020301,0.000269,-0.105152,-0.116430,-0.088845,-0.009996,-0.000146,-0.133483,0.054184,0.001527,0.052526,-0.040438,-0.046959,-0.183127,0.123042,-0.053753,0.000332,0.183240,-0.065391,0.092012,-0.041070,0.024766,-0.073939,-0.086371,0.027819,-0.119652,0.034855,0.049980,-0.118787,-0.060440,-0.206234,-0.038936,0.027954,-0.048670,-0.055621,0.030561,-0.068892,-0.265082,-0.109537,-0.051547,-0.043252,-0.111553,-0.047572,-0.078919,0.119852,0.078187,0.038078,0.155968,-0.054784,0.103617,0.210970,0.011933,0.029409,-0.065312,0.008410,0.032895,0.246301,0.014155,0.063053,-0.056623,0.004998,0.009688,-0.023399,0.005603,-0.090927,-0.065982,0.013417,-0.032803,-0.063561,-0.195920,0.016692,-0.053835
0.048754,0.003449,-0.022575,-0.067596,0.110059,-0.011914,-0.084514,-0.078645,0.067841,0.129657,-0.012635,0.030785,-0.019943,0.073371,0.028735,0.027507,0.077557,0.021335,0.043083,-0.032764,0.012107,0.048991,0.019382,-0.107251,-0.038187,0.158489,-0.036956,0.024061,-0.127720,-0.041736,-0.008421,0.050875,0.000623,0.070693,-0.033301,0.045717,0.138865,0.116436,0.052640,0.167990,-0.042332,-0.097382,0.093193,-0.054450,-0.040028,0.013227,0.131741,0.057383,0.050855,0.035570,-0.062833,0.057384,0.077982,-0.232768,-0.003266,0.039283,-0.034409,-0.005507,0.004184,-0.027729,0.150248,0.106821,0.017586,0.045659,-0.081965,-0.076149,-0.080239,0.107289,-0.104286,0.020345,0.076661,-0.134872,-0.052226,0.051798,-0.080763,0.148519,-0.116449,0.104756,-0.080116,-0.062642,0.013330,-0.221603,0.043425,0.036918,-0.049845,-0.023525,-0.014024,-0.023217,0.085749,0.035119,0.028383,0.098710,-0.076506,0.053416,-0.052695,0.035669,-0.001134,0.019935,-0.020622,-0.095232,0.132244,0.071066,0.094508,-0.075859,0.060370,-0.011478,0.219462,0.031938,-0.002012,0.146381,-0.027814,0.044892,-0.048879,-0.025035,0.056211,0.020363,0.016715,-0.036439,0.016193,0.059446,0.021148,0.180789,0.015720,-0.012687,-0.184955,0.039997,0.054876,-0.033173,-0.004588,0.038636,0.012610,-0.020708,-0.074118,0.003022,0.001244,0.109327,-0.004323,0.077269,0.064629,0.058242,-0.024455,-0.011312,-0.028039,0.113022,-0.079101,0.010892,0.030181,0.054986,0.003912,-0.054752,0.011501,-0.002456,-0.012864,0.098563,0.045626,0.037459,-0.126638,0.135021,0.022398,0.088828,0.034778,0.124693,-0.014691,0.107172,0.059672,-0.109890,-0.017229,0.034740,0.013256,0.064256,-0.117333,0.014869,0.130193,0.010496,-0.077429,0.057327,0.063800,-0.059647,-0.009336,0.023400,-0.027789,-0.044220,0.064946,0.011643,0.005693,0.004661,0.049100,-0.091042,0.026167,-0.000606,0.075352,-0.029008
-0.012286,-0.069157,0.113974,-0.095260,-0.033011,-0.055849,-0.150182,0.003699,0.106015,0.109591,0.118917,0.005329,-0.074228,-0.003378,-0.102430,-0.045549,0.127974,0.079784,-0.006398,0.019574,-0.051785,0.013736,-0.002450,-0.027939,-0.024067,0.033445,0.019244,-0.028823,0.025102,0.130108,-0.005202,0.015814,-0.127772,-0.055515,-0.071405,0.222275,0.089731,0.039180,0.000058,0.002882,-0.022406,-0.051352,0.105803,-0.057817,0.089041,-0.064965,-0.062734,0.002907,0.009611,0.064221,0.040174,-0.098112,0.054071,-0.054598,0.041739,-0.023024,-0.025428,0.035639,-0.023375,0.021517,0.082040,0.010750,0.070924,-0.081482,-0.039304,-0.022222,-0.013551,-0.021752,0.102332,0.005979,0.165769,-0.170850,0.000026,0.090751,-0.014170,0.016304,0.029735,0.071371,0.118712,0.099861,0.019836,-0.075014,-0.008822,0.169712,-0.111856,-0.128644,0.162955,-0.034887,-0.101292,0.072670,0.023088,0.017002,0.083256,-0.050888,0.014390,0.052166,0.051669,-0.067451,0.159022,0.011017,-0.006660,0.070993,-0.031706,-0.129449,-0.018472,0.070677,0.091476,-0.004260,0.016050,-0.035721,0.198567,0.081729,0.086100,0.106957,0.046114,0.210344,-0.038707,0.149611,0.023130,0.037727,-0.018162,0.073165,-0.103933,-0.055257,-0.096678,0.091375,0.141956,-0.046767,0.071232,0.004691,0.056427,-0.037402,0.135396,0.148784,-0.024107,-0.085697,-0.004154,0.009403,0.098394,0.031698,-0.045444,0.051001,-0.042967,0.003997,0.036742,-0.035246,0.022587,-0.073180,-0.077494,0.018478,0.028564,-0.102260,0.081145,0.091646,-0.033189,0.154666,-0.021169,-0.127023,0.142329,0.094091,0.056869,0.035591,0.142962,-0.059124,0.018712,-0.070125,0.029506,-0.136558,0.061996,0.076595,-0.002967,-0.048788,0.035670,-0.110379,0.005857,0.130302,-0.063489,0.200678,0.065827,0.003862,-0.003685,0.011707,0.177527,0.152631,-0.043703,-0.145499,-0.047290,-0.007355,0.048859,-0.101098,-0.064625,-0.038536
0.006110,-0.081541,0.112982,0.074689,-0.033566,-0.025266,0.080576,-0.123278,0.081966,0.036271,0.104462,0.166487,-0.152429,0.019623,0.054626,-0.107625,-0.044311,0.102410,-0.072857,-0.020204,0.066293,0.022359,0.095472,-0.098428,0.001747,0.178119,0.071013,0.040512,0.018363,0.127133,-0.015461,0.052117,0.002261,0.006194,-0.083545,-0.004466,0.102687,0.029779,0.039376,0.094694,0.132190,-0.053741,0.042268,-0.055319,-0.045867,0.040181,0.001328,0.128985,-0.000499,-0.000694,0.013178,-0.009955,0.101804,0.102421,-0.052659,-0.055681,0.017839,-0.037869,-0.029702,-0.028699,0.018890,0.190516,-0.001818,0.027569,-0.055763,0.129537,-0.034883,-0.004808,0.052281,0.056406,-0.070869,-0.019963,0.046223,0.058529,-0.093228,-0.010105,0.086921,0.134521,-0.052195,0.043806,0.026741,-0.123705,-0.048502,-0.044291,-0.003134,0.016016,-0.017898,0.040886,-0.016379,0.121915,0.034591,0.175622,-0.063557,0.081631,-0.048730,0.024333,0.092043,-0.055321,0.042141,0.099988,0.011625,-0.046946,-0.042041,0.022234,-0.001614,0.023081,0.071639,0.041113,0.057956,0.004779,0.146336,0.237694,0.111131,0.028072,0.019332,0.138011,-0.138070,0.056386,-0.003501,0.050000,-0.095276,0.006069,-0.041409,-0.024933,0.156806,0.060867,0.014662,-0.097150,0.013027,-0.130542,-0.078226,0.015939,0.036353,0.032520,-0.009591,-0.076817,0.031537,0.057059,-0.016912,-0.010403,-0.027536,0.064780,0.085923,0.033481,0.049928,0.079660,0.062773,0.002877,0.086344,0.188153,0.143630,-0.085461,-0.001023,-0.074743,0.014371,0.010989,0.037804,0.030603,0.123434,-0.005229,-0.073922,0.014349,-0.066625,0.144638,0.242143,0.077544,0.057161,0.021504,-0.059271,-0.032519,0.002493,0.010562,0.143706,-0.016105,-0.038210,-0.020280,-0.195052,-0.118324,-0.025864,-0.043935,0.006679,0.098639,-0.022526,0.011969,-0.095801,0.155076,0.100162,0.292711,-0.063938,0.029026,-0.077225,0.015055
-0.005647,0.046754,-0.019975,0.159213,-0.028417,0.123308,-0.096217,0.039418,0.010020,0.108038,0.100492,-0.056452,0.063051,-0.038771,-0.000573,-0.017333,-0.048887,-0.062298,0.062911,-0.004970,0.012596,-0.148344,-0.110062,-0.077553,0.011538,-0.126099,0.085376,-0.194311,-0.081832,0.103981,0.086306,-0.022999,0.109836,-0.012752,0.202483,-0.031073,0.031365,-0.018996,0.010628,-0.005994,0.175683,-0.024330,-0.125900,0.010086,-0.032887,-0.073518,0.034022,0.015693,-0.102305,-0.092138,0.001884,0.006456,-0.030427,0.161285,-0.023230,0.002254,-0.030489,-0.017496,0.016589,0.079995,-0.224968,0.171437,0.099956,-0.027575,0.010243,-0.037219,0.066184,-0.132617,-0.097278,-0.236630,-0.061111,0.139024,0.070026,0.070461,-0.087877,-0.037337,0.119182,-0.021125,-0.072905,0.038691,-0.075368,0.044919,-0.008732,0.000949,0.172003,-0.026445,-0.075921,0.067458,0.077716,-0.015662,0.031252,0.106800,0.058710,-0.007186,-0.164929,-0.168051,0.031786,-0.002267,-0.080227,0.041659,-0.025224,-0.129002,-0.140420,-0.023206,0.036364,0.055391,0.071471,0.003084,-0.082101,-0.052332,-0.007793,-0.047851,0.057426,0.338811,-0.010648,-0.021454,0.232022,0.005319,0.202398,0.069390,-0.078823,0.113725,0.054157,0.055920,-0.002613,-0.076996,-0.019388,-0.050552,0.101112,-0.101575,-0.015904,-0.020636,0.045521,-0.007647,0.132636,-0.010534,0.057963,0.082031,0.016443,0.003864,0.077202,-0.007113,0.043008,0.004273,-0.069650,0.244244,0.052056,0.049488,-0.087066,0.013045,-0.100245,-0.135271,0.057031,0.046648,-0.016009,-0.072369,0.016443,-0.056348,-0.072928,-0.075002,0.057462,-0.104471,0.088565,0.239092,-0.015809,0.082937,-0.035647,0.080644,-0.025496,-0.121474,-0.039995,-0.085987,-0.059033,-0.005800,0.143910,0.025642,0.028423,-0.074293,0.016279,0.013438,-0.061555,0.021986,-0.021629,0.025750,-0.008906,0.054512,0.120109,0.062716,0.186573,0.034891,-0.045409,-0.094610
0.076883,0.073392,-0.067864,-0.019273,0.072733,0.116695,0.086279,0.005749,0.003169,0.023033,0.191787,-0.036761,0.028174,-0.081791,0.030888,-0.201340,0.098398,-0.086618,0.140194,0.212839,-0.097953,-0.095360,-0.134256,0.161894,0.031112,0.073841,0.074738,-0.059156,0.048353,0.006402,0.065074,-0.049149,0.031791,0.013229,-0.017010,-0.004463,-0.036929,-0.036984,-0.070906,-0.086241,-0.124448,-0.077170,-0.090671,0.026986,0.008414,0.060702,0.053573,0.003398,-0.001995,-0.047769,0.021557,-0.075587,0.018962,0.036137,0.008060,-0.045050,0.003789,0.084404,-0.065796,0.021306,-0.110151,-0.015731,0.032395,-0.085072,0.036890,0.100291,0.017873,0.107118,0.121380,0.067445,0.070444,-0.042402,-0.039284,0.011587,-0.131503,0.099856,-0.019027,0.045076,0.159434,-0.001486,0.115033,-0.046570,0.090496,-0.057159,-0.021621,-0.050315,0.060061,0.004796,-0.174994,0.099823,0.061055,-0.121308,0.027232,-0.084382,0.037644,0.218129,-0.048537,-0.043854,0.014745,0.121143,-0.048718,-0.028287,-0.149316,-0.041183,-0.007243,-0.025035,-0.110149,0.078535,-0.062673,-0.067667,0.018313,0.053407,0.011143,0.025070,-0.091564,0.033738,0.049484,0.120505,-0.088881,0.012137,0.010784,0.025382,0.118094,-0.057174,0.091592,0.025498,-0.113742,0.042868,0.123931,0.073480,-0.142783,-0.024295,-0.108342,0.038049,0.080345,-0.042131,0.113532,0.014565,0.059035,-0.010451,-0.204913,0.042088,-0.065257,-0.073330,0.096322,-0.025560,0.042130,-0.062396,-0.076651,0.120240,-0.069664,-0.002614,0.084302,0.075994,-0.043084,-0.147924,-0.014940,0.044099,0.088622,-0.020832,0.112378,0.070343,-0.048148,0.056616,-0.084715,0.002809,0.046653,-0.032219,0.067097,0.008970,0.208188,0.105525,0.132360,-0.004934,-0.018108,-0.048765,-0.043085,-0.085867,-0.027356,0.016538,0.045193,-0.008835,0.038665,-0.041913,-0.081479,0.086777,-0.021381,0.028955,-0.132347,0.168278,0.121390,-0.032306
-0.041361,0.028094,0.021792,-0.122363,-0.052543,0.023952,-0.034431,-0.015952,0.144967,-0.095644,0.029607,0.221610,-0.050452,-0.101190,0.056321,0.004917,0.084389,-0.265623,0.013501,0.030877,-0.168979,0.008041,0.238435,0.139821,-0.069261,0.029917,-0.083332,-0.098321,-0.067313,-0.012817,-0.060685,-0.169999,0.064949,0.090885,-0.014582,0.105863,-0.004360,0.000843,-0.108322,-0.037258,0.110443,-0.085901,-0.295527,0.101786,-0.065029,-0.196972,0.040248,-0.093897,-0.087008,-0.011998,0.015762,-0.024567,-0.236475,-0.026577,-0.211612,-0.094274,-0.048026,-0.026802,0.031398,0.125618,-0.124771,-0.035351,0.094101,-0.082733,0.023037,-0.029868,0.137449,-0.050779,-0.005496,-0.012185,-0.061692,0.014597,-0.085470,-0.061416,-0.031808,0.110705,0.057492,-0.199910,0.059304,0.076738,0.006052,0.027362,-0.131281,0.141520,0.040659,0.047504,0.010892,0.075494,0.024852,-0.255510,-0.084383,0.045716,0.111226,0.113788,0.014551,-0.030551,0.021299,-0.023818,-0.135701,0.046312,0.051706,0.120441,-0.023477,-0.049906,0.060759,0.005081,0.073306,-0.205545,0.137167,-0.006084,-0.011624,-0.113815,-0.187394,-0.120957,-0.113297,0.058355,0.077934,-0.026767,-0.022267,0.001030,0.066926,0.007833,-0.038689,-0.076877,-0.040996,-0.233236,0.003343,-0.013281,0.060613,0.090607,-0.244088,-0.011127,0.032564,-0.078302,0.242070,0.106446,0.002705,0.021908,0.082963,-0.054431,-0.025331,-0.065094,0.013655,0.030934,0.049896,-0.055306,-0.202282,-0.014643,-0.129829,-0.030418,-0.115650,0.236223,0.059974,0.111361,0.036309,-0.074747,0.084400,0.112608,-0.275494,-0.269863,-0.137514,-0.050568,0.188423,-0.022605,0.051724,-0.055938,-0.164909,-0.311363,-0.042025,0.105604,0.077111,0.045786,0.085597,0.137562,0.054387,0.018795,0.010667,-0.075243,-0.022730,0.074809,-0.061519,0.012464,-0.071623,-0.167988,-0.015597,0.157138,0.091099,-0.060774,0.037031,-0.007528,0.096484,-0.210702
0.067011,0.095153,0.014952,-0.066525,-0.120525,0.203934,0.169015,0.131446,-0.063441,0.049241,0.062442,0.015469,0.159288,-0.020739,0.047363,-0.120321,0.027481,-0.102852,0.061069,0.249673,-0.100045,0.030615,-0.176410,-0.039169,0.094878,0.102093,0.040261,0.155969,0.143634,0.087229,0.021688,0.070556,0.067214,-0.006410,-0.015909,-0.022045,-0.070036,0.073790,-0.100200,-0.109930,-0.075453,-0.095341,-0.036340,0.031108,-0.124414,-0.004616,0.022397,-0.016920,-0.017661,0.097662,-0.021403,-0.032360,0.005597,-0.000980,-0.052984,0.028907,-0.158879,0.068490,-0.029862,0.035968,-0.191003,-0.056332,0.068595,-0.148266,0.032841,0.053210,0.139528,-0.060736,0.076037,0.149455,-0.023545,-0.100370,0.046044,0.097987,-0.061792,0.156245,0.070874,-0.067674,0.027196,0.020619,0.063979,-0.007611,0.053769,0.046996,-0.047205,0.067592,0.023469,0.086348,-0.081900,-0.099697,0.059267,-0.038210,0.111410,-0.022457,0.135348,0.138832,-0.057442,0.082412,-0.106155,0.149940,0.048828,-0.071335,-0.075573,0.112035,0.003929,0.075451,0.059138,-0.094094,-0.027910,0.128762,0.049683,-0.075988,0.051749,0.072445,-0.151042,0.009528,0.049374,0.006921,-0.017222,-0.051675,-0.012083,0.028712,0.162369,-0.003780,0.003394,-0.042764,0.029766,0.136828,-0.044000,0.136099,0.070297,-0.073525,0.153378,0.113675,0.080266,0.033002,-0.010074,0.037235,0.100884,0.004804,-0.160377,0.089857,0.044461,-0.094939,0.110815,-0.008827,0.075659,0.135310,-0.110218,0.001626,-0.111110,0.023803,0.114479,0.108091,0.022523,0.115989,-0.012927,0.035163,-0.111799,-0.040416,-0.083322,-0.000083,-0.092545,-0.076553,-0.056432,0.012997,-0.015030,-0.196867,0.048497,0.084280,-0.052425,0.160042,-0.131074,-0.055806,-0.037118,-0.093129,-0.117784,-0.017583,0.009532,0.082496,-0.054065,0.062803,0.085068,0.011012,0.075889,-0.011473,-0.060441,0.032720,0.223960,0.027006,0.016049,0.037154
-0.012457,0.029423,0.078293,0.193984,0.094611,-0.062960,0.001201,0.047795,-0.033932,0.162318,-0.108252,0.042589,0.020882,0.034300,-0.055956,0.054864,-0.043191,0.018988,-0.102012,0.020625,-0.196699,-0.077866,0.040486,0.092844,-0.068637,-0.156026,0.037928,-0.019913,0.044082,-0.004250,-0.092886,0.113853,0.061623,-0.016234,-0.064460,0.067223,-0.071892,-0.108145,-0.053824,-0.146510,0.015959,0.058245,-0.038221,-0.050453,0.153118,0.067490,-0.028137,-0.015137,0.018728,-0.032459,-0.036965,-0.087911,-0.078713,-0.041206,0.145554,-0.028184,-0.119528,0.063571,-0.011589,0.077727,0.142763,-0.124716,0.032766,0.183601,-0.036147,-0.259049,0.038952,0.016038,0.024011,-0.117879,0.082297,0.066157,0.006022,-0.064152,-0.098686,-0.081077,-0.049870,-0.045871,-0.010830,0.041778,0.029923,-0.040475,-0.060723,-0.152233,-0.051891,-0.071722,0.097172,-0.094919,-0.110752,0.071414,-0.052487,0.006809,-0.047210,0.102712,-0.038542,-0.120486,0.016774,-0.040785,0.022088,-0.089398,-0.065268,0.017986,0.040606,0.051923,0.003370,0.050869,0.097647,0.061757,-0.016904,-0.039357,0.026036,-0.106898,0.031100,0.067787,-0.015770,0.080102,0.153742,-0.060937,0.007848,0.020077,0.039181,-0.037880,-0.032627,-0.020736,-0.032706,-0.048146,0.053367,0.003020,-0.013618,0.102182,-0.007830,-0.021496,-0.007315,0.051591,-0.040703,0.028750,-0.025982,-0.115368,0.026027,-0.009954,0.032816,-0.059495,-0.032893,-0.045203,0.049837,-0.084430,-0.115748,-0.053845,0.032352,0.034047,-0.115840,0.024794,-0.013075,0.014645,0.039525,-0.102219,0.035281,-0.002109,-0.032515,-0.024875,0.072834,-0.100134,0.009804,-0.140439,-0.113407,-0.082475,-0.026329,0.195988,-0.023976,0.014442,-0.030754,-0.013107,-0.059114,-0.087611,-0.067635,0.044136,0.164264,-0.086365,0.051250,-0.035108,-0.009381,0.014193,0.080625,0.014671,-0.035251,0.199299,-0.031341,-0.171450,0.000708,-0.153742,0.150188,-0.024388
0.042818,-0.011971,0.041757,-0.159763,-0.097689,-0.036565,0.059011,-0.059790,-0.013072,0.054481,0.067186,-0.067108,0.002886,-0.015148,-0.087332,0.112460,0.084706,-0.076222,-0.058810,0.045367,0.048697,0.009764,-0.109765,0.016639,0.023580,0.086249,-0.037939,0.023490,-0.031526,-0.077598,0.077931,0.031857,0.035631,-0.040783,0.019107,0.178395,-0.103352,-0.117075,0.098124,0.219879,0.051917,-0.101363,0.012362,0.010652,-0.073847,0.064597,0.000096,0.111116,-0.019372,0.081181,0.078482,0.117225,0.058598,-0.014300,-0.108549,0.002725,-0.224098,-0.063052,-0.035821,0.022241,0.050816,0.045176,-0.033814,-0.070400,-0.012267,-0.037757,-0.059041,-0.087472,-0.081416,0.028343,0.040345,-0.029274,0.037050,0.071807,-0.015262,-0.072820,0.065911,0.033186,-0.071103,-0.004869,0.032849,-0.021045,-0.024482,-0.069959,0.127932,-0.130849,-0.157886,-0.056295,0.166173,0.015820,0.063295,0.022698,-0.052807,0.043023,-0.161185,-0.144600,0.028024,-0.061277,0.003373,0.031646,0.144035,0.073969,-0.220761,-0.042626,-0.068321,-0.131553,-0.136241,0.028626,0.007758,-0.163630,-0.039894,0.014750,-0.035540,0.091252,0.244716,0.074216,0.054869,0.062189,0.033962,0.068278,0.088697,-0.023822,0.002505,-0.010642,-0.025356,0.036454,-0.024286,-0.111673,0.039911,-0.024098,-0.069007,0.064150,0.053063,-0.060357,-0.154485,-0.104156,0.013960,0.150011,0.011738,-0.041805,0.157128,0.067861,-0.013943,-0.020546,-0.074692,0.114249,0.013115,-0.164361,-0.047091,0.018711,-0.060387,-0.234741,-0.014702,0.015740,-0.171069,0.207934,0.040951,-0.164893,0.077258,0.039502,0.081267,0.116279,-0.069275,0.079669,-0.046487,-0.058014,0.015412,0.090370,-0.024794,-0.070467,-0.066041,-0.076184,0.051667,-0.054801,0.035134,-0.006257,-0.346628,-0.077385,-0.017281,0.022871,-0.084464,-0.111269,0.063892,0.016715,0.055376,-0.038014,-0.035564,-0.078947,0.028886,0.078490,-0.215005,0.050547
0.052027,0.024019,0.119912,0.150705,0.008172,0.076958,0.005065,-0.071949,-0.052971,0.019558,-0.151791,-0.045346,-0.063921,0.052933,0.008718,-0.131530,-0.092099,-0.089976,-0.036663,0.002843,-0.186454,0.041275,0.063029,-0.067981,-0.066803,-0.091827,0.082385,0.017354,0.078330,0.113123,0.004123,-0.000055,-0.125003,-0.149461,0.040314,-0.001078,-0.123458,-0.089586,-0.088622,-0.210050,0.036953,0.054773,-0.183189,-0.009780,-0.032951,-0.004163,-0.066210,-0.108314,0.007488,0.032834,-0.092190,0.088006,-0.239945,-0.013554,0.015975,-0.205159,0.143982,0.102940,0.049796,-0.051917,-0.066495,0.090014,0.000345,-0.129551,-0.004697,-0.019298,0.064841,-0.069784,0.021051,0.038478,-0.211226,0.005482,0.073970,0.004830,-0.099049,-0.078224,-0.071752,-0.181449,-0.132588,0.008830,-0.062984,-0.114570,-0.002727,-0.017480,-0.067792,-0.055107,-0.184431,0.005001,0.036522,-0.108665,0.009557,0.007741,0.078122,-0.140623,-0.015762,-0.062902,0.037706,0.014592,-0.081995,0.041691,-0.042561,-0.197260,0.028562,0.014762,0.050161,0.103018,-0.141763,-0.156078,-0.017988,-0.172994,-0.009301,-0.053609,-0.276021,-0.038216,0.025737,-0.048522,0.027584,-0.008974,0.055345,-0.110270,-0.110589,-0.060304,0.116390,0.014113,-0.107863,-0.166444,0.107801,-0.037730,-0.095719,-0.044573,-0.159838,-0.059534,0.045207,-0.100186,0.070146,-0.022995,0.143918,-0.034217,-0.049265,-0.120081,0.060715,-0.054111,0.059999,-0.037725,0.065651,0.195918,0.006444,-0.076158,-0.143770,0.025166,-0.165651,0.005848,0.011853,-0.012461,0.276373,0.141261,-0.059373,-0.120272,-0.195850,-0.210062,-0.067509,-0.148011,-0.004614,0.053582,-0.086239,0.130810,-0.127474,0.266732,-0.147689,-0.068092,-0.038469,0.005571,0.005410,0.038717,0.087149,-0.127740,0.070302,0.021432,-0.050741,-0.081604,0.002599,0.056029,-0.089978,-0.235641,-0.063806,-0.078788,-0.096452,-0.070814,0.022400,-0.023507,-0.238940,-0.042049
0.011596,0.052291,0.006490,0.019554,0.027139,0.074691,-0.031449,0.071725,-0.056986,0.005368,0.121848,-0.133987,-0.016803,-0.056381,-0.048849,0.037454,-0.104001,0.125599,-0.070960,0.015010,0.099968,-0.138671,-0.134468,-0.073891,-0.013319,0.069587,0.064743,-0.144386,-0.002395,0.050966,0.033164,-0.078161,-0.053748,-0.083297,0.041195,-0.064054,-0.008037,-0.066003,0.076357,0.027547,-0.061055,-0.053337,-0.019932,0.027840,-0.058204,0.022854,0.010873,-0.002812,0.096375,-0.070136,0.020451,0.140251,0.140712,-0.094459,0.069349,-0.086171,-0.112202,0.053843,-0.075444,0.024520,-0.019800,-0.012322,0.033145,-0.065568,0.106313,0.099766,-0.004240,0.025370,-0.021178,0.200693,-0.040439,0.021705,-0.001390,0.016642,0.103657,0.038398,0.031593,0.046590,-0.013071,0.123282,-0.072922,-0.086249,-0.034327,0.017395,-0.132570,0.040257,0.011176,0.127362,0.027140,0.140533,0.070318,0.105355,0.125018,-0.067320,0.164839,0.010147,0.098818,-0.026298,0.046131,0.077873,0.105255,0.032173,0.069919,-0.009084,-0.022387,-0.046907,-0.022245,0.046929,-0.107105,0.027018,-0.013476,0.004459,0.092525,0.022830,-0.056953,-0.009187,-0.030035,-0.000903,0.060577,0.057654,-0.024312,0.036091,0.033353,0.094839,0.032140,0.045872,0.055358,-0.013682,0.118646,0.055409,-0.108425,-0.019170,0.021086,0.004257,0.048191,0.086287,0.018674,-0.031033,0.135734,-0.058041,-0.029003,0.007279,-0.073794,-0.171587,0.081880,-0.088399,0.085719,-0.057860,0.109985,-0.073648,0.105554,-0.134573,0.058100,0.074966,-0.053713,0.035079,-0.047020,0.004044,0.077205,0.094931,-0.075840,0.039439,0.138397,-0.091219,0.117689,-0.068932,0.098596,0.137588,0.069624,-0.011102,-0.026246,-0.042910,0.058486,-0.132189,0.145330,0.021640,0.022092,0.074076,0.092733,-0.000868,0.174556,-0.004768,-0.061866,0.096526,0.032681,-0.015872,-0.028046,0.174245,0.045806,-0.040306,-0.054136,0.149303
0.009523,0.223026,0.032178,0.111874,0.111982,-0.159713,-0.079650,0.073407,-0.095178,-0.052748,-0.025503,-0.063924,0.047192,-0.193865,0.031713,0.044810,-0.161515,-0.002712,-0.092791,-0.008946,0.036024,0.038636,-0.041361,0.018535,0.041711,-0.012868,-0.073035,0.110573,-0.061180,-0.063404,-0.170744,-0.087599,0.047493,0.024640,0.099658,0.003984,0.050517,-0.043673,-0.001956,-0.006396,0.028626,0.042444,0.102811,0.096505,0.027244,-0.063150,-0.002522,0.001493,0.105593,-0.008770,0.061418,-0.099707,-0.130266,0.112861,-0.046521,0.063919,-0.116863,-0.023305,0.140075,0.020684,0.106136,0.010063,0.033266,0.003541,0.048812,-0.037337,0.085229,0.012904,-0.070846,-0.125179,-0.176434,0.038884,-0.053340,0.000318,0.078252,-0.054563,0.167628,-0.094419,-0.074478,-0.035580,-0.142597,0.081949,-0.013243,0.017591,0.018871,0.035056,0.201786,0.017109,0.012269,-0.031063,0.089529,-0.089599,0.036180,-0.019832,-0.049574,0.049189,-0.063373,0.022819,-0.099598,-0.000714,-0.046971,-0.002014,-0.011851,-0.068484,-0.027317,0.057599,0.054590,-0.181391,0.037228,0.149746,0.101577,-0.135307,0.014780,0.083031,-0.024332,-0.063844,-0.014747,-0.110297,-0.002179,-0.020390,-0.108181,0.018329,0.133627,0.044990,-0.016298,0.005828,-0.038415,-0.005314,-0.028084,-0.038619,-0.020939,-0.057814,-0.029991,-0.134438,0.043020,0.017949,0.066681,0.037648,0.020281,0.038847,0.067671,0.027175,-0.051557,0.048838,0.088316,0.067313,0.068503,0.056135,-0.082046,-0.007067,-0.086619,0.198425,-0.010157,0.036126,-0.144700,0.045828,-0.059232,0.116284,-0.143776,-0.073956,0.026032,-0.058513,-0.002411,0.022615,-0.125080,0.042015,-0.097372,0.118447,-0.009866,-0.060969,-0.011106,0.123446,0.045551,0.043400,-0.001477,0.059832,-0.081034,0.026471,0.122730,-0.017216,0.058042,0.126379,-0.100940,-0.058085,0.027333,-0.185317,0.032309,0.023129,-0.023766,-0.015156,0.065658,-0.095495
-0.005307,-0.008300,0.074009,-0.044426,0.045614,-0.057410,0.034654,0.078974,0.025014,-0.004877,0.076143,0.064213,-0.069565,0.021099,-0.013713,0.056006,-0.036827,0.219085,-0.025242,0.222836,0.075540,-0.003798,0.050922,-0.118803,0.130931,0.086247,0.107269,-0.017154,-0.063107,0.063045,0.028417,-0.014839,-0.019708,-0.058137,-0.029051,0.025641,0.086822,0.096840,0.087354,0.038834,-0.067746,-0.036344,0.062005,-0.020979,-0.060411,0.141793,-0.017524,0.061476,-0.025879,0.062708,0.102372,-0.001656,0.200995,0.025860,-0.098675,-0.065099,0.030406,0.016461,-0.080573,0.113277,-0.027849,-0.154095,0.251441,0.104416,-0.064376,-0.005387,0.165395,-0.013552,-0.120142,-0.000827,-0.027865,0.010764,-0.050974,-0.156127,-0.118615,0.032701,0.070137,0.252338,0.093863,-0.048082,0.091227,0.029803,0.027130,-0.023174,-0.090410,-0.007859,-0.097379,-0.012751,-0.022584,0.238830,0.102514,0.030545,0.146502,-0.022917,-0.041356,-0.111172,-0.000067,-0.029769,0.247103,0.243884,0.037424,-0.111172,-0.036373,-0.032090,-0.067024,-0.130778,0.029594,0.216896,0.065240,-0.062312,0.025547,0.225532,0.010664,0.160039,0.160160,0.053199,-0.131149,0.089277,0.122259,0.107100,0.033374,0.063431,0.068143,-0.125795,-0.057057,0.128733,0.100224,-0.012106,0.192712,-0.060573,0.081934,-0.010887,-0.010672,-0.179057,-0.153013,-0.032468,0.031096,0.077182,-0.035582,0.147980,-0.044422,0.089970,-0.061817,-0.187426,0.247598,-0.104744,0.066729,0.086487,0.102534,0.191101,0.091011,-0.167863,0.164669,0.036420,-0.129327,-0.117872,0.014844,0.062193,0.273825,0.187370,0.149214,-0.008876,0.037619,-0.136371,0.072716,-0.010650,0.060033,0.098397,-0.086779,-0.124530,-0.032454,0.125063,-0.063893,0.023810,0.063675,0.087817,-0.118055,0.031973,0.062839,0.059172,-0.061302,0.078986,-0.031802,-0.090222,-0.054736,0.054949,-0.098833,-0.102696,-0.037449,-0.032491,0.031212,0.035066
-0.022005,0.087081,0.220350,-0.098369,-0.000500,-0.068640,0.090305,0.090922,0.016885,-0.003935,-0.079723,-0.052605,-0.059449,-0.078876,-0.013510,0.071657,0.034921,-0.180898,0.026892,0.116828,0.026792,-0.080320,-0.058826,-0.158397,0.029168,-0.070803,0.106677,-0.032623,-0.010848,0.064918,-0.006526,-0.033879,-0.017305,-0.010558,-0.161890,0.088096,0.110149,0.075134,0.031436,-0.068422,0.094388,0.132854,-0.000362,0.023822,0.024036,-0.043327,0.029336,-0.025378,-0.042852,-0.054033,0.035285,-0.009154,-0.044261,0.106483,0.010578,-0.093131,0.002398,-0.055849,0.002587,0.164667,0.061268,-0.029767,-0.013134,0.011137,-0.043876,-0.222415,0.043993,0.011524,0.066167,-0.196937,0.025952,0.073290,0.037525,-0.106465,0.085940,-0.007733,0.057575,0.008396,-0.043625,0.012885,0.010954,0.032884,-0.043610,-0.107681,-0.265382,0.027409,0.092552,-0.044330,0.040622,-0.153345,0.072722,-0.031940,-0.054858,0.058871,0.130980,-0.064027,0.026145,-0.071634,-0.134386,-0.011858,-0.047980,-0.028345,0.059589,-0.033521,-0.026873,0.224627,0.220636,-0.051009,0.092707,0.026880,0.075542,-0.072492,-0.061900,0.069616,0.056139,-0.139324,0.031566,-0.037051,-0.091932,0.091476,-0.001177,0.124449,0.058593,0.050297,-0.089179,0.005222,0.259311,0.035198,0.036291,0.031485,-0.106911,-0.030403,0.076734,0.021749,0.016094,-0.022623,-0.033453,-0.063375,0.099474,0.058939,0.107597,0.012291,-0.054282,0.088423,0.020696,-0.013968,-0.048628,-0.040202,-0.121285,0.086041,0.091927,-0.094918,0.041827,0.089170,0.111576,-0.091389,0.031490,-0.082819,-0.073810,-0.007423,-0.085168,-0.017307,-0.108268,-0.204516,-0.034269,0.020689,-0.033559,-0.173107,0.011915,0.053106,-0.146026,0.087588,-0.056083,-0.087865,-0.063155,0.082463,0.210134,-0.063179,0.116212,0.034476,0.054761,-0.041885,-0.010265,-0.023691,-0.014891,0.007544,0.004731,0.104772,-0.010576,-0.260678,0.017445,-0.026430
0.076836,-0.164677,0.098275,0.102802,-0.080514,-0.061159,0.016842,0.015310,-0.046053,-0.019143,-0.038459,-0.092584,-0.029791,0.085346,-0.004450,0.146327,0.104342,0.004224,-0.036893,-0.118782,-0.051382,-0.060950,0.050553,-0.057892,-0.103330,-0.067967,-0.021860,0.053789,-0.000043,-0.182182,-0.002589,-0.015688,0.064068,0.073005,-0.070591,0.130432,0.037092,0.055896,0.143262,0.112314,-0.040950,0.050232,-0.025361,-0.019594,0.004602,0.111009,0.000663,-0.088916,-0.084851,-0.050833,-0.112365,0.029122,0.074013,0.112663,-0.062962,0.057104,0.052489,-0.162875,-0.041860,-0.015590,-0.040605,0.040119,-0.100389,0.035139,-0.114918,0.133566,0.012744,-0.035845,0.240336,0.078104,0.159139,-0.114802,-0.067587,-0.055848,-0.043170,0.051387,0.075863,0.005746,-0.003457,-0.030933,0.073672,-0.052112,0.138550,-0.068962,0.039321,0.031165,-0.071098,-0.014519,0.048529,-0.100364,-0.066027,-0.005514,0.005013,-0.066455,-0.107903,0.048287,0.170445,0.037161,0.047699,0.048282,0.042962,0.041807,-0.041687,-0.047651,-0.038330,0.161593,0.059279,0.083504,-0.069815,0.018352,0.068181,-0.003765,-0.001322,-0.051984,0.039202,-0.004134,-0.180349,-0.109215,-0.136191,-0.040108,0.026840,0.011321,-0.069846,-0.049650,-0.000118,-0.036725,-0.054693,0.039553,0.025019,0.131022,0.111413,0.122115,-0.032690,0.074055,-0.037258,-0.025395,-0.070488,0.035438,-0.118409,0.032954,0.100130,-0.147223,0.082152,0.063689,-0.060895,0.055266,0.095840,0.011610,0.058309,0.037582,-0.084256,-0.003605,0.066136,-0.155571,0.145212,-0.087377,0.106760,0.124872,0.073754,0.014640,0.008017,-0.059960,0.024656,-0.005494,0.227927,0.129370,0.083394,0.190778,0.057724,0.165360,-0.212323,-0.027690,-0.086470,0.005892,-0.012157,-0.241525,-0.005117,0.020024,-0.016690,-0.065437,-0.146887,-0.031506,0.097298,0.041881,-0.132386,0.030039,0.026791,0.094705,0.057431,-0.050826,0.048489,0.084161
0.004068,0.002713,0.081949,0.117787,-0.005243,-0.075643,-0.028715,0.004703,-0.078192,-0.011462,-0.105918,0.030188,-0.056767,0.030960,0.045674,0.113848,0.079639,-0.086226,-0.124090,0.037068,-0.067441,0.181501,0.009670,-0.050936,-0.076120,-0.083820,0.123367,-0.065409,-0.012980,-0.084245,-0.057505,-0.100911,0.179018,-0.002239,0.033815,-0.113274,0.151595,-0.054069,0.161534,0.061758,0.011636,-0.054259,-0.108636,-0.116746,-0.041996,-0.008161,0.070093,-0.007062,0.006404,0.115388,0.013746,0.008313,-0.090571,0.069250,0.013685,-0.119663,0.100224,-0.006286,-0.112073,0.105781,-0.034679,0.045713,0.061647,0.013624,-0.020162,0.084755,-0.019523,0.054234,0.034419,0.099295,0.157149,-0.095039,0.066845,0.064113,0.086561,0.100597,-0.038267,-0.037206,-0.048522,0.001375,-0.060957,-0.043199,0.094760,0.001018,-0.026490,0.054778,0.027120,0.038814,0.056035,-0.102585,0.162045,-0.055564,0.052690,0.082783,0.032541,0.072671,-0.036959,-0.134990,0.029530,-0.002115,0.020137,-0.114670,0.064892,-0.117169,0.144056,0.094072,-0.031949,-0.017216,-0.125012,0.064269,-0.069337,-0.073000,-0.030765,-0.018474,-0.096957,-0.047920,0.000792,0.022661,0.055222,0.129782,0.099862,0.104827,-0.003974,0.066566,-0.152465,-0.111914,0.151789,-0.077484,0.133242,0.031755,-0.062159,0.136753,-0.019231,-0.045437,0.175936,0.084340,-0.168682,-0.039591,-0.093618,0.056196,0.070341,-0.153675,0.009196,-0.022505,-0.035195,0.076395,0.150421,0.015396,-0.047344,-0.122877,-0.118699,0.142926,0.117575,0.009374,-0.025044,0.083089,-0.041348,0.066707,0.024815,-0.076742,-0.024098,-0.065276,0.163507,-0.013027,0.046712,0.108209,0.070465,0.260551,0.051547,0.014170,-0.013928,0.023027,-0.100160,-0.027063,0.019987,0.029578,-0.129491,0.068911,0.194668,-0.025594,0.011141,-0.151499,0.038639,0.040159,-0.131084,0.123913,0.045416,-0.015597,0.110818,-0.029592,-0.014221,0.172046
-0.063995,-0.026774,-0.005984,0.082177,0.012779,0.051074,0.118642,0.028286,-0.084871,0.149695,-0.062211,0.094400,0.071881,-0.080605,-0.028932,-0.079935,0.096319,-0.047429,0.068371,-0.015753,-0.038323,0.040461,0.122472,-0.012297,-0.021026,0.023008,-0.073011,0.008752,0.006237,0.174054,0.020487,0.044186,-0.167333,-0.070315,-0.148206,-0.076183,-0.156690,0.048234,-0.112216,-0.145609,0.087542,0.183687,0.130924,0.066293,-0.044727,0.096658,-0.038925,-0.114626,0.080981,-0.079791,-0.126999,0.004303,0.035466,0.065611,0.046197,0.088055,-0.114407,-0.034559,0.046239,-0.086007,0.038069,-0.130721,-0.098581,-0.069449,-0.017156,-0.087732,-0.014410,-0.023125,0.125780,-0.094877,0.055868,-0.085069,0.073407,-0.074125,-0.016230,-0.096336,0.034015,0.063942,-0.249890,0.031416,0.055104,-0.174817,-0.008309,0.074356,0.030529,-0.064893,0.083853,-0.008332,-0.107941,0.071016,-0.130080,0.066677,0.056709,0.037564,0.144895,0.021250,0.087045,0.159706,0.072179,-0.070174,-0.040156,-0.105764,0.089117,0.138778,-0.013147,0.057198,0.125179,0.022560,-0.106139,0.071453,0.004516,-0.001651,0.098384,0.102504,-0.023026,0.025694,-0.111430,-0.074550,-0.148843,-0.137337,-0.051373,-0.182903,0.008178,0.030207,0.117445,-0.011722,-0.073775,0.012922,-0.072366,-0.065198,0.077966,-0.129657,-0.113342,-0.059778,-0.064154,-0.033583,-0.002668,-0.027879,-0.102823,-0.079664,-0.150675,0.068549,0.033083,0.043651,-0.093618,-0.085806,0.056891,-0.014058,0.071411,0.029091,0.010437,-0.155448,0.002205,-0.090733,0.050015,0.310113,-0.063191,-0.200786,0.072542,0.029106,-0.095550,0.010042,0.039940,-0.102205,-0.064032,0.098661,0.022147,0.057384,-0.008029,-0.002836,-0.010444,0.030435,-0.005004,-0.217584,0.077745,-0.128181,-0.178023,0.016775,-0.118524,-0.031441,-0.019260,-0.088307,-0.063115,0.047459,0.075676,-0.016831,0.034950,0.060421,-0.124479,-0.178295,-0.001146,0.019466
0.130463,0.010515,-0.059298,-0.009621,-0.049438,-0.110038,0.103918,0.012611,-0.051767,0.115180,-0.110309,-0.000928,0.144311,0.107254,-0.013064,-0.203355,-0.036856,-0.017945,0.009306,0.024185,-0.063689,-0.081976,-0.010376,0.005498,0.031721,0.059871,0.032766,-0.034369,0.177791,-0.166659,0.040152,0.008024,-0.044693,0.001667,0.001293,0.211536,-0.082316,-0.191001,-0.088314,-0.037599,-0.231394,0.016052,0.082109,-0.118233,0.129158,0.091836,0.006079,-0.119645,-0.055592,-0.209199,-0.028028,-0.243387,0.046297,-0.011142,-0.044792,0.050655,-0.025278,0.082167,-0.056607,-0.018717,0.024764,-0.000736,-0.137749,0.003927,0.022515,0.044396,0.039806,-0.030158,-0.051842,0.007775,0.033759,0.048409,0.048010,0.031275,0.092072,-0.037972,0.013333,-0.002087,-0.051114,0.062590,0.013983,-0.105913,0.012136,0.014085,0.064073,0.018802,0.034087,-0.075943,-0.204438,0.005437,-0.053082,-0.059248,-0.043408,0.074090,-0.055780,0.053332,-0.157759,0.156212,0.014928,-0.105365,-0.098981,0.000228,0.046737,0.119955,0.047107,0.011939,-0.077428,0.043500,-0.079546,0.060205,0.283852,0.019556,0.027698,-0.075090,-0.032574,-0.024311,0.001256,-0.118904,-0.180476,-0.136602,-0.075949,-0.108499,0.006826,-0.160370,0.066152,0.090758,-0.071271,0.134771,-0.045056,-0.085942,-0.045027,-0.116124,-0.127529,0.017444,-0.045585,-0.039247,-0.012721,-0.036442,-0.072857,-0.137935,0.108177,0.114814,0.112244,0.005195,-0.032947,0.133984,0.056443,-0.127359,0.009005,-0.081292,-0.003933,0.003091,-0.065376,-0.112491,-0.007782,0.114677,0.031618,-0.008365,0.033188,0.063438,0.010202,-0.083717,0.114783,0.027003,-0.062533,0.104469,-0.044311,-0.086906,-0.059648,-0.010320,-0.051829,-0.020904,-0.055764,0.020051,0.166774,-0.013416,-0.056025,0.038911,-0.099178,-0.058695,0.056245,-0.001016,0.011054,-0.085088,0.022212,-0.029712,-0.098638,-0.140340,-0.155878,0.019891,-0.036502,-0.042789
-0.120090,0.130658,0.018036,0.042665,0.127909,0.000680,0.032106,0.104420,0.006503,0.133682,-0.081962,-0.014075,0.016510,-0.017369,-0.238787,-0.003192,0.034591,-0.061870,-0.059059,0.145069,-0.222526,-0.010275,0.057017,-0.229773,0.176623,-0.061569,0.109428,0.028553,0.009453,-0.069805,-0.113072,-0.008285,-0.011746,-0.087180,-0.069198,-0.008496,-0.058592,0.004918,0.004811,-0.010739,0.203877,0.378718,-0.047768,0.042146,0.035258,-0.037531,0.026758,0.009119,-0.006890,0.040134,0.138387,-0.008338,-0.032476,0.173740,-0.068897,-0.167873,0.078665,-0.161037,-0.056689,0.080073,-0.005433,0.189073,0.045516,-0.068180,-0.084404,0.016912,0.016465,-0.115010,0.115421,0.112122,-0.011032,-0.058477,0.052679,-0.032839,0.051037,-0.052361,0.059843,-0.022370,-0.065184,-0.000461,-0.007707,-0.130964,-0.041536,0.042764,0.214273,-0.014319,0.015025,0.057087,0.088377,-0.067925,-0.024847,0.015902,0.010401,-0.090857,-0.306592,-0.036469,-0.006272,0.017105,-0.050769,0.031304,-0.051795,0.075497,0.078964,-0.006404,-0.060381,0.100231,-0.048097,-0.026711,-0.073536,-0.039928,-0.013835,0.015875,0.032465,0.000506,0.003131,-0.074635,-0.061851,-0.004111,-0.032276,-0.020183,0.020877,0.004184,0.039334,-0.090534,0.141293,0.040729,-0.055291,-0.036034,0.018414,-0.087141,0.032499,-0.072905,-0.108715,-0.089950,0.070584,-0.065305,-0.077301,-0.003727,-0.038490,0.066568,0.048421,0.058130,-0.055965,0.107479,0.053359,0.270184,-0.061474,-0.005652,0.077868,0.142814,0.041902,0.010733,0.112922,-0.028880,-0.062399,-0.064624,0.011203,-0.062915,-0.037939,-0.064504,-0.026908,-0.035272,-0.123897,0.209873,0.027734,0.120884,-0.034793,-0.260498,-0.048200,-0.123102,-0.066887,0.057298,-0.135888,-0.102347,-0.086591,0.047952,0.090263,-0.018636,0.090821,0.063871,0.025083,0.004545,-0.120770,-0.027529,0.075446,0.131359,0.182825,0.083400,-0.032893,-0.093666,0.173025,-0.026443
0.028388,0.032225,-0.030942,0.002757,-0.126685,0.010134,0.088570,0.065752,-0.029461,-0.042254,-0.043426,0.020588,0.125468,0.038771,-0.013938,-0.088215,0.030683,0.105977,0.006533,-0.038098,0.009924,0.095148,-0.012611,0.008110,-0.005788,0.071904,-0.038034,0.008418,0.059007,0.155040,-0.047519,0.035160,-0.011877,-0.116954,-0.080795,-0.124366,-0.157103,0.059966,-0.048572,-0.067529,0.047730,0.090931,0.054621,-0.017827,-0.059616,0.070204,-0.095315,-0.114075,0.035458,-0.034856,-0.040633,0.005882,-0.048956,0.014091,0.003424,0.029762,0.101966,-0.021759,0.017475,-0.037986,0.132623,0.075779,-0.071314,0.000232,0.012372,-0.003692,0.044267,0.017975,0.017612,0.003946,0.055382,0.049382,-0.002320,-0.011902,-0.158040,-0.163581,-0.029645,0.050679,-0.019895,0.053040,0.142843,-0.193493,0.115265,0.065358,0.141757,0.059047,-0.015628,-0.047207,-0.060721,0.104522,0.016223,-0.071379,0.020650,0.047931,0.048183,-0.034407,0.020433,0.043658,0.098032,-0.029611,0.075050,0.028536,0.036961,0.081512,0.115721,0.084360,0.089426,0.120397,0.033199,-0.037098,-0.064207,0.058356,0.020826,0.092244,-0.019322,0.045353,0.014497,-0.139412,0.071063,-0.107748,-0.083493,-0.138373,-0.028726,0.040236,0.061687,0.084264,-0.036314,-0.084072,-0.095109,-0.013353,-0.017928,-0.057849,0.006577,-0.031507,0.001768,-0.042905,0.018072,0.007294,-0.070341,-0.005293,-0.099460,0.023222,-0.151782,0.061795,0.030558,-0.011849,0.145754,-0.011562,0.043734,-0.021251,-0.124724,0.047959,-0.046127,0.078583,0.103943,-0.113421,-0.077169,-0.043281,0.121761,0.023666,-0.049689,0.012269,0.044243,0.100586,-0.094909,-0.015914,0.103345,0.108188,0.055037,-0.008287,0.040670,0.027901,0.065708,0.076684,0.005929,-0.197559,0.126346,-0.020811,-0.020471,-0.029666,0.085247,-0.012966,-0.023330,-0.021430,-0.025027,0.128805,0.154872,-0.007420,-0.084291,-0.086166,-0.068163,0.156507
-0.129607,-0.044438,-0.156220,-0.110435,0.024460,-0.132597,-0.146148,-0.119622,0.053027,-0.072903,-0.059683,-0.051288,-0.001688,-0.082731,-0.014320,-0.089534,0.064556,-0.004032,-0.079988,-0.034409,0.122948,-0.033529,-0.041610,-0.023291,0.089842,0.154978,0.066379,-0.149095,-0.056156,0.005229,-0.030361,-0.045957,-0.134832,-0.031392,0.020349,-0.204558,0.012346,0.093612,0.060266,0.004964,0.073054,0.119233,0.149590,-0.100986,-0.014433,0.089053,0.056172,-0.067765,0.001509,-0.063539,0.052999,0.086155,0.015542,0.034001,0.092602,-0.025229,0.130809,0.083800,0.125070,-0.036584,0.148945,0.118803,-0.066084,0.035605,0.004760,-0.058630,-0.239911,0.260216,-0.087830,-0.136073,0.082663,-0.065261,-0.024167,-0.029719,-0.002060,-0.217492,-0.068410,0.104455,-0.153613,0.030361,-0.002192,0.036363,-0.029757,0.091230,-0.097453,0.079421,-0.042478,-0.144717,0.027274,0.065423,0.072765,-0.013081,-0.136544,0.041960,0.047312,-0.052078,-0.120833,-0.051870,0.071464,-0.203001,0.099659,-0.048219,0.022749,-0.093158,-0.041719,-0.001032,-0.024649,0.111946,0.100883,0.015792,-0.196754,0.049926,0.020168,-0.010043,0.065493,-0.071523,0.078966,0.022913,-0.017427,0.015533,0.084684,0.038579,-0.058009,0.056592,-0.033312,0.127069,0.074791,0.017790,-0.053453,0.023952,0.236043,-0.082707,-0.100678,0.018440,-0.113404,-0.120823,-0.057554,0.064934,-0.061121,0.153049,-0.138338,-0.027771,0.018136,0.031693,-0.111099,-0.028268,-0.013104,-0.045254,-0.061501,0.061038,0.029064,0.082731,-0.171809,-0.110658,-0.007026,0.067230,-0.187198,-0.073616,0.088410,0.159775,0.043971,0.115731,0.095959,0.082537,-0.197390,-0.011114,0.121969,-0.057770,-0.036205,-0.157173,0.177222,-0.085356,-0.038921,0.008005,0.063823,0.005586,0.087731,0.036298,0.060576,-0.077160,0.028389,-0.099482,0.029941,0.037324,-0.008286,0.022664,0.045311,-0.091100,-0.125918,0.018387,0.049314,0.139142
