0.328667
-0.000914
-0.076265
-0.071325
0.015491
0.002500
0.365448
0.210550
0.056559
-0.089205
0.134758
0.237918
0.276854
0.116175
-0.080545
0.206285
0.356607
0.399982
0.049772
0.117560
0.010059
0.098916
0.786388
0.260626
0.266089
-0.044624
-0.070444
0.319351
0.117234
0.166160
0.250755
-0.033795
0.015135
0.147609
0.252890
0.142488
0.372405
0.432129
0.493522
0.235222
-0.183205
-0.219695
0.168529
0.582736
0.374923
0.533277
0.595321
0.210575
0.025384
0.433441
0.360901
-0.136230
-0.252608
0.169119
0.504490
0.010074
0.324588
0.626367
0.477793
-0.017913
0.225887
0.314188
-0.036510
-0.051918
0.175216
0.423273
0.164171
0.322209
0.245417
0.287774
0.146420
0.412865
0.249164
0.293268
0.066231
0.360569
-0.157508
-0.002530
0.073461
0.049976
0.121465
-0.056677
-0.058523
0.152454
0.226671
0.087870
0.379912
0.212559
0.203029
0.123953
0.129274
0.194383
-0.127392
0.310877
0.175603
-0.051600
-0.006757
0.030246
0.003265
0.220787
-0.021948
-0.096520
0.143167
0.291117
0.154161
0.244930
-0.034203
-0.100600
-0.089344
0.468113
0.017036
0.110833
0.177663
0.087710
-0.122864
-0.066100
0.551095
0.277165
0.007686
0.441692
-0.015799
0.265187
0.006996
0.377317
0.313012
0.303567
0.061798
0.613884
-0.015120
-0.045128
0.346761
-0.008615
0.262581
-0.036014
0.016106
0.016169
0.225765
0.201995
0.307680
0.141788
0.020267
0.315317
0.372101
0.335190
