-0.041895,-0.054440,-0.049377,-0.087416,-0.094898,-0.070962,-0.025021,-0.038532,-0.045837
0.121748,0.096591,0.121188,0.073077,-0.273924,0.066145,-0.048378,-0.038694,-0.060150
-0.014237,0.040807,-0.009096,0.041863,0.249753,0.049339,-0.024901,0.070584,-0.019003
-0.020183,-0.048741,-0.027219,-0.062316,-0.073901,-0.071933,-0.036479,-0.046551,-0.036195
0.001070,0.052709,0.007081,0.044383,0.207615,0.043260,0.019311,0.078472,0.026433
-0.067850,-0.030031,-0.061324,-0.036025,0.013145,-0.045205,-0.061528,-0.056900,-0.049079
0.028772,0.219027,0.061790,-0.087134,-0.070122,-0.096586,-0.007651,-0.035172,-0.022115
-0.045355,-0.035979,-0.053189,-0.044809,-0.040200,-0.035109,-0.056354,-0.041371,-0.058407
-0.046703,-0.046412,-0.047843,-0.047186,-0.141573,-0.042977,-0.042716,-0.067273,-0.021455
-0.009476,-0.066572,0.121569,-0.041775,0.044749,0.076396,0.001654,-0.049139,0.035871
-0.071405,-0.032622,-0.066956,-0.063423,-0.025416,-0.065055,-0.031348,-0.091815,-0.025222
0.012780,-0.015634,-0.139299,0.074125,0.096164,-0.226492,-0.002092,-0.027763,-0.086831
0.104275,0.014500,-0.064944,0.199530,-0.032362,-0.053168,0.088583,-0.044444,-0.058691
-0.014546,0.012419,-0.012372,0.015578,0.154544,0.017753,0.008452,0.070857,0.012514
-0.035060,-0.059962,-0.038392,-0.022021,-0.058978,-0.034641,-0.041983,-0.051211,-0.036640
0.055452,0.088851,0.059842,0.013193,0.121551,0.026409,-0.053252,-0.060510,-0.060239
0.053086,0.120546,0.069687,-0.047037,0.148665,-0.045290,0.078205,0.036349,0.072811
-0.020439,0.100972,-0.006156,-0.022913,0.202894,-0.025940,-0.052504,-0.169241,-0.057897
-0.021958,-0.055602,-0.022138,-0.042808,-0.035215,-0.061358,-0.037820,-0.070276,-0.056979
0.025049,0.068672,0.033071,0.049192,0.172133,0.046698,0.007031,0.011777,0.020294
0.019179,0.035359,0.021393,0.043348,0.158267,0.039310,0.023214,0.037655,0.026220
-0.016708,-0.056234,-0.034501,-0.009436,-0.168882,-0.039209,0.069081,0.201292,0.051700
-0.116634,0.078722,0.036980,-0.124836,0.086156,0.094275,-0.103585,-0.091726,-0.020216
-0.026340,-0.008213,-0.041189,-0.041551,-0.051195,-0.019672,0.092959,0.173284,0.108108
0.016419,0.028198,0.045377,0.056659,0.131959,0.055709,0.028224,0.053633,0.031403
-0.007102,0.015218,0.001562,-0.004996,0.003410,0.001406,0.000023,-0.006276,-0.005104
-0.006483,-0.041134,-0.014289,-0.052048,0.036176,-0.044239,0.018806,0.236952,0.025453
-0.107181,-0.238786,-0.115597,0.063510,0.092047,0.073463,0.043558,0.128877,0.034445
-0.023739,-0.035072,0.056912,-0.048290,-0.101443,0.197850,0.004170,-0.033075,0.012041
-0.034951,0.015818,0.049297,-0.068191,-0.103776,0.158353,-0.049122,-0.018857,0.128740
-0.040397,-0.063457,-0.036060,-0.060017,-0.064120,-0.055149,-0.036371,-0.054884,-0.043708
-0.105629,-0.110509,-0.107027,0.041858,-0.004819,0.060384,0.028946,0.152674,0.035530
-0.045149,-0.036365,-0.068971,0.101741,-0.128285,-0.033061,0.055999,0.162660,0.020638
-0.043411,-0.029448,-0.052664,-0.034635,-0.102698,-0.046982,0.068830,0.175469,0.075079
-0.029359,-0.050318,-0.037093,-0.054669,-0.015441,-0.051723,-0.035859,-0.057739,-0.034351
-0.008110,-0.006486,-0.025801,-0.020668,-0.088369,-0.020835,0.052245,0.184130,0.059498
-0.007047,-0.023980,-0.060563,-0.029657,0.019285,0.099371,-0.027820,-0.006960,0.123626
-0.014246,-0.031330,-0.057874,-0.048374,0.042746,0.125850,-0.017705,-0.061472,0.088629
-0.003549,-0.002455,0.002600,0.027305,0.022692,0.047262,0.030142,0.154971,0.045357
-0.070855,0.030033,0.088505,-0.165061,0.062009,0.151546,-0.070956,0.040966,0.041976
0.003985,-0.070399,0.024797,-0.052246,-0.048432,0.190246,-0.082973,-0.068573,0.123044
-0.052799,-0.026002,-0.052180,0.000505,-0.115903,-0.020879,-0.049926,-0.038792,-0.042360
0.009346,0.023410,0.016477,-0.043369,0.093864,-0.052620,-0.067870,0.159969,-0.069392
0.031611,0.081198,0.031320,0.025061,0.163395,0.023903,0.001736,0.088531,0.009516
-0.042503,-0.049130,-0.068602,-0.012674,0.069435,0.036446,0.015662,0.155781,0.022010
0.087279,0.055826,-0.016577,0.131214,-0.153737,-0.116271,0.068062,0.067061,-0.021496
0.052487,0.110086,0.055193,-0.022530,0.100280,-0.012930,-0.113372,-0.182813,-0.131278
0.041348,0.008536,0.050995,0.043508,0.131276,0.071076,0.062115,-0.023437,0.095508
0.069787,0.083611,0.079964,0.058825,-0.069140,0.059763,0.039881,0.016384,0.038650
-0.152277,0.041602,0.095428,-0.157598,0.066577,0.171993,-0.048912,0.010148,0.040176
0.045419,-0.033974,0.037820,0.035571,0.236118,0.021831,0.013243,-0.026722,0.016433
0.029113,0.120723,0.029954,0.054080,0.179805,0.039778,-0.008662,-0.085000,-0.005663
0.082455,0.156684,0.088172,0.048080,-0.130137,0.039338,-0.091408,-0.084788,-0.078326
-0.025971,-0.050047,-0.041403,-0.051249,-0.022542,-0.040635,-0.040009,-0.048279,-0.045707
0.095041,0.088411,0.105520,0.074961,-0.130391,0.083041,0.055531,-0.016035,0.049281
0.119591,0.001550,0.108291,0.076934,-0.362715,0.032851,0.122827,-0.073768,0.108834
-0.000286,0.006076,0.026207,0.089681,0.131633,0.116487,0.039087,0.020267,0.076220
0.018876,0.041587,0.020026,0.055649,0.198055,0.046995,-0.018721,0.048755,-0.020677
-0.025858,-0.020429,-0.028133,-0.025056,-0.090083,-0.030543,-0.040274,-0.054000,-0.053649
0.007288,0.042356,0.013042,0.052471,0.179688,0.055322,0.012115,0.046516,0.025253
-0.019069,-0.049221,-0.027915,-0.034168,-0.045190,-0.039806,-0.046797,-0.028142,-0.051112
-0.030312,0.181385,-0.011428,0.085130,0.074858,0.086540,0.038006,-0.085034,0.028789
0.027386,0.033046,0.035960,0.014909,0.069295,0.017177,0.026578,0.025696,0.039902
0.052001,0.094142,0.053804,0.047738,0.032326,0.047780,-0.009285,-0.125741,-0.011560
0.023305,0.055632,0.019538,0.036673,0.138680,0.045442,0.024909,0.045289,0.024563
0.023417,0.012243,0.023106,0.037674,0.174313,0.050330,0.007823,0.040828,0.014098
0.082900,0.133128,0.085263,-0.002982,0.010937,-0.019381,-0.113987,-0.052683,-0.113929
0.058138,-0.070689,0.053171,0.086224,0.082444,0.079628,0.059901,-0.084028,0.072168
-0.045820,-0.052306,-0.058032,-0.048753,-0.091127,-0.056817,-0.019638,-0.104553,-0.031691
0.066577,0.024227,-0.035524,0.057872,0.061303,0.049271,0.015565,0.100117,0.013738
0.002760,-0.006177,0.006346,0.030610,0.218993,0.056992,-0.070588,-0.223317,-0.097272
0.021005,0.020199,0.037520,0.062852,0.114363,0.049886,0.024854,0.044988,0.040716
-0.003911,-0.011794,-0.012188,0.024046,0.070808,0.036298,0.057108,0.091212,0.060159
0.017872,0.079245,-0.053340,0.084608,0.143782,-0.086588,-0.023572,-0.069306,-0.027567
-0.032056,-0.023521,-0.039691,-0.058025,-0.040964,-0.046144,-0.037532,-0.058250,-0.054173
-0.024404,0.189664,-0.054708,0.037135,-0.134943,0.071710,0.007137,-0.057643,0.017929
-0.051055,-0.064556,-0.037885,-0.084528,-0.090735,-0.103549,-0.039352,-0.073826,-0.043781
-0.040280,-0.008458,0.079489,-0.124460,-0.043048,0.149219,-0.046398,-0.032695,0.101460
-0.031980,-0.090184,-0.021955,0.072743,-0.074661,0.083224,0.107015,0.028829,0.116589
-0.029707,-0.042076,0.046401,-0.165679,-0.009189,0.091477,0.039447,0.074919,0.052680
0.015246,0.036875,-0.003857,0.035433,0.076258,0.056869,0.028302,0.030327,0.025927
-0.029186,-0.062224,-0.042778,-0.047961,-0.105779,-0.038141,-0.043246,-0.019041,-0.039793
0.013859,0.040147,0.013823,0.039881,0.208488,0.028785,0.017990,0.040407,0.018973
-0.005140,0.073442,-0.008176,0.138171,-0.328708,0.166379,0.033314,-0.066206,0.037618
-0.030317,-0.032373,-0.034057,0.006960,-0.029160,-0.000254,0.055116,0.163551,0.064541
-0.033709,-0.015501,-0.043517,-0.042559,-0.011536,-0.062507,-0.088267,-0.042423,-0.071215
-0.036175,-0.065319,-0.039557,-0.058063,-0.040366,-0.057965,-0.029244,-0.052317,-0.034891
-0.000354,-0.045552,0.007045,0.050161,-0.042921,0.055274,0.072038,0.183239,0.088025
-0.064465,-0.024882,-0.055138,-0.046426,-0.035222,-0.045784,-0.030484,-0.051371,-0.041897
0.030816,0.121086,0.041935,0.082372,0.000784,0.083308,0.044659,-0.015015,0.039854
0.002705,0.015296,0.008444,0.043429,-0.008047,0.052940,0.013713,0.239423,0.012616
-0.104203,-0.147876,-0.104682,-0.015145,0.171989,-0.014559,-0.009677,0.119307,-0.008113
0.058026,0.109034,0.072001,0.050090,0.014494,0.060682,0.017804,-0.060531,0.018456
0.019009,0.066755,0.033253,0.025753,0.189166,0.021206,0.027024,-0.007905,0.037435
-0.026184,0.010635,-0.027632,0.008581,-0.025137,0.004087,0.053603,0.151390,0.060533
0.156607,-0.064842,-0.078361,-0.029389,-0.001884,-0.038126,-0.119514,0.066579,0.089821
0.047101,-0.010117,0.026789,0.118177,0.122242,0.093245,0.068476,0.012005,0.047155
0.011258,0.000269,0.009643,0.119714,0.141146,0.115776,-0.110638,-0.211513,-0.124137
-0.096130,-0.131868,-0.099302,-0.067491,0.117298,-0.072558,0.014734,0.171534,0.020153
-0.028934,-0.036542,-0.038362,-0.072978,-0.061042,-0.070405,-0.027368,-0.066851,-0.029760
-0.040030,-0.084831,-0.057773,-0.089637,0.217089,-0.085572,-0.056650,-0.092757,-0.065546
0.023229,0.035804,0.032891,0.008714,0.164011,0.006534,0.026910,0.013005,0.033433
0.077216,0.147753,0.089475,0.080952,-0.169840,0.083247,-0.020774,-0.081501,-0.028784
-0.041578,-0.041349,-0.053116,-0.062984,-0.010970,-0.057322,-0.055222,-0.054995,-0.056237
-0.080947,-0.030595,0.101717,-0.153029,-0.029919,0.135308,-0.073215,-0.001568,0.088757
-0.027303,-0.069648,-0.044530,-0.063892,-0.031693,-0.057769,-0.040206,-0.020753,-0.050513
-0.037374,-0.039548,-0.040679,-0.048305,-0.051696,-0.041744,-0.029658,-0.028790,-0.032708
-0.029871,-0.054684,-0.039024,-0.034795,-0.022044,-0.045562,-0.048739,-0.046591,-0.055654
-0.001498,0.060809,0.011623,0.018411,0.156570,0.023681,0.016400,-0.008944,0.004227
0.031466,-0.021495,0.053217,-0.012522,-0.206815,0.069452,0.053429,0.040461,0.080868
0.009458,-0.015348,0.010134,0.013770,0.142112,0.019680,0.019531,0.047411,0.011744
-0.029673,-0.033237,-0.030666,-0.039628,-0.045401,-0.034977,-0.045906,-0.080679,-0.048305
0.045029,0.099727,0.043012,0.028882,0.114409,0.030756,-0.029354,-0.019386,-0.033685
-0.027444,0.039398,-0.021431,0.030506,0.199027,0.047047,0.004044,0.053364,0.004996
0.043609,0.214358,0.044380,-0.078224,0.055083,-0.083547,-0.067390,-0.086483,-0.067173
0.000175,0.029539,-0.011768,0.020089,0.192107,0.053432,-0.019991,0.055563,-0.026185
-0.039503,-0.049134,-0.039899,-0.036935,-0.052152,-0.041757,-0.038736,-0.053642,-0.040936
-0.041662,-0.059630,-0.048436,-0.063500,-0.026537,-0.060883,-0.060055,-0.057751,-0.061028
0.001229,0.019778,0.006083,0.053314,0.170841,0.038600,0.017640,0.020706,0.029342
0.073692,0.141091,0.061890,-0.002645,0.045970,0.033011,-0.007059,-0.010051,-0.015492
0.021812,-0.060621,0.022061,0.168922,-0.204275,0.115910,0.037476,-0.054233,0.008237
0.010780,0.049020,0.012225,0.043891,0.157786,0.049281,0.028927,-0.014703,0.027449
-0.013852,-0.015069,-0.015119,-0.002806,0.011059,0.007669,0.010595,0.017660,0.012921
-0.047525,-0.041785,-0.049806,-0.057482,-0.051350,-0.073899,-0.051756,-0.021057,-0.047547
0.021535,0.029170,0.013406,0.026253,0.297140,0.037562,0.020109,0.054506,0.021792
-0.037953,-0.042275,0.002887,0.110423,0.024696,-0.055966,0.126602,-0.030009,-0.049574
0.092855,0.056845,0.117126,0.073256,-0.035533,0.052422,-0.036886,-0.065999,-0.036433
-0.099964,0.014268,-0.090819,-0.015941,0.451545,-0.007774,-0.118642,0.005989,-0.109607
-0.043603,-0.069047,-0.049835,-0.058712,-0.005013,-0.059478,-0.003555,0.251750,-0.008375
-0.035803,-0.043234,-0.036888,-0.049315,-0.033127,-0.042059,-0.051269,-0.045673,-0.056828
-0.034769,0.012252,-0.030245,0.052022,-0.022885,0.052777,0.043854,0.107249,0.046546
-0.062243,-0.036318,-0.046626,-0.045833,-0.083134,-0.039158,-0.026359,-0.049990,-0.022430
-0.004141,0.007487,0.000147,0.001474,0.020299,0.005059,0.003026,0.013826,0.005013
0.244662,-0.092349,0.003729,0.019384,-0.337098,-0.060041,0.342851,-0.100742,0.015399
0.046410,0.176937,0.069666,-0.004708,0.017494,-0.018322,-0.027394,-0.030723,-0.018359
0.017202,0.077421,0.011860,0.063502,0.109071,0.060460,-0.008631,-0.038686,-0.004132
0.028172,-0.013383,-0.019097,-0.064658,-0.207843,0.227903,-0.002740,-0.021306,0.125562
0.066587,0.118455,0.064161,0.019596,0.083174,0.008463,-0.026845,-0.032276,-0.024614
0.028194,0.050106,0.021215,0.051173,0.181234,0.044510,0.021561,0.027491,0.019122
-0.030032,-0.040407,0.042121,-0.085115,-0.081000,0.155940,-0.053831,-0.055974,0.072225
-0.041511,0.002919,-0.040404,-0.132575,0.366592,-0.132131,-0.044608,0.003244,-0.040815
0.022768,0.032228,0.031610,0.007680,0.132507,-0.000570,0.018552,-0.015540,0.025354
-0.016598,-0.061920,-0.026781,0.015361,0.106568,0.039756,0.042870,0.117371,0.020579
0.020090,0.020658,0.019393,0.006196,0.205875,0.008780,0.017874,0.046970,0.013578
0.007123,0.168748,0.010089,0.045458,0.071930,0.060690,0.018881,-0.053056,0.003138
0.014500,0.107698,0.028613,-0.023011,0.068276,-0.006711,-0.013723,-0.030971,-0.021916
-0.127457,-0.131653,-0.130357,-0.092501,0.098772,-0.022949,0.037162,0.077021,0.068344
0.012083,0.018167,-0.005982,0.051999,0.017580,0.055298,0.039553,0.094980,0.029874
-0.038158,-0.023909,0.059140,-0.123373,-0.041281,0.168125,-0.031356,-0.012090,0.056699
0.044608,0.036414,0.053388,0.073302,-0.056681,0.049878,0.060019,0.057894,0.069986
-0.038928,-0.023965,-0.047428,-0.042900,-0.043108,-0.038947,-0.067237,-0.029231,-0.050647
-0.019638,-0.038087,0.044075,-0.042499,-0.125551,0.186591,-0.030270,-0.048864,0.066064
0.055302,-0.005014,-0.047889,0.086932,0.029543,-0.143241,0.066057,0.050087,-0.087979
-0.034305,-0.033371,-0.043608,-0.041178,-0.051773,-0.037910,-0.036677,-0.039254,-0.037026
0.075116,0.126442,0.071364,0.076599,-0.094748,0.053252,0.011351,-0.132879,-0.012052
-0.043632,-0.068232,-0.049085,-0.033042,-0.073745,-0.051771,-0.029766,-0.043622,-0.029274
-0.030905,-0.037690,-0.029033,-0.051997,-0.018401,-0.046767,-0.065908,-0.035411,-0.065122
0.044389,0.060117,0.052333,0.068802,-0.021080,0.068967,0.032837,0.078742,0.030065
0.020129,0.068359,0.025848,-0.097765,0.173718,-0.098784,-0.011398,0.148244,-0.003342
0.033182,0.058799,0.029997,0.036795,0.256452,0.016020,0.008716,0.028133,0.009187
-0.071248,-0.066153,-0.078793,-0.094588,0.080053,-0.090914,-0.031436,-0.016974,-0.024850
-0.027271,0.002234,-0.016412,-0.065091,-0.034175,-0.071227,-0.061727,-0.081774,-0.054017
0.042810,0.181454,0.049702,0.036128,0.036111,0.023294,-0.069240,-0.193898,-0.074204
0.012015,0.053533,-0.004246,0.043479,0.208999,0.033912,-0.014143,0.036776,-0.016851
0.014816,-0.012520,0.021727,0.045858,0.024288,0.049202,0.039803,0.101738,0.032602
-0.037273,-0.055625,-0.041525,-0.036887,-0.062081,-0.035508,-0.045028,-0.033159,-0.049677
0.027357,0.103376,0.031114,0.046977,0.050881,0.061794,0.002279,-0.046428,-0.015431
0.022645,0.038514,0.026951,0.019809,0.145828,0.018957,0.015118,0.027150,0.016740
-0.031140,-0.047700,0.069574,-0.081832,-0.067809,0.175249,-0.060366,-0.057085,0.083735
-0.071006,-0.033968,-0.084269,0.005443,-0.054762,0.000349,0.069438,0.174792,0.097589
0.033287,0.177611,0.037934,0.003366,0.087044,-0.018697,-0.057156,-0.148100,-0.057178
-0.046342,-0.061532,-0.053403,-0.047663,-0.036538,-0.047188,-0.050883,-0.020490,-0.046949
-0.027791,-0.031636,-0.039246,-0.036798,-0.050263,-0.038037,-0.064261,-0.042191,-0.065556
0.012939,0.057396,0.021498,-0.008684,0.174190,0.008904,0.032416,0.060105,0.029608
-0.029847,-0.025217,-0.025747,-0.068657,-0.044488,-0.075838,-0.048811,-0.038679,-0.038045
-0.003840,0.035667,0.003895,0.031114,0.088647,0.032603,0.003198,0.032944,0.013888
-0.037207,-0.050232,-0.041962,-0.032059,-0.024572,-0.038948,-0.070653,-0.033461,-0.069533
-0.041224,-0.022006,-0.048573,-0.037742,-0.067902,-0.042816,-0.051664,-0.039535,-0.054496
-0.029737,-0.039009,-0.037501,-0.064696,-0.050370,-0.066694,-0.050594,-0.017663,-0.056945
0.019523,-0.027464,0.015388,0.071132,-0.011293,0.089568,0.037034,0.108925,0.048012
-0.070157,-0.188576,-0.055489,-0.031745,0.185321,-0.032075,0.022755,0.217542,0.027178
-0.012211,0.049175,-0.025527,0.025452,0.151430,0.050021,0.004659,0.000621,-0.001101
0.051935,-0.025336,-0.071233,0.131775,0.140556,-0.134507,0.046373,0.004272,-0.074320
-0.036492,-0.026538,-0.042136,-0.044565,-0.024485,-0.052615,-0.053552,-0.047999,-0.055769
-0.034573,-0.050117,-0.052302,-0.050578,-0.044583,-0.049082,-0.047790,-0.044110,-0.042413
0.020403,0.021678,0.022196,0.014112,0.224357,0.009621,0.023639,-0.012144,0.021104
-0.001260,-0.045452,-0.021487,0.166090,-0.052402,0.178370,0.004610,-0.088118,-0.013553
0.058429,-0.089880,-0.076621,0.188344,0.012183,-0.057377,0.036515,-0.061569,-0.014387
0.080378,-0.045654,-0.008230,0.274845,-0.163512,-0.073387,0.015446,0.005764,-0.004656
-0.008996,-0.109471,-0.030545,-0.062959,-0.126509,-0.036495,0.042952,0.348661,0.052467
-0.037921,-0.032799,-0.032312,-0.033068,-0.083231,-0.042989,-0.042818,-0.055182,-0.043234
0.043394,0.221622,0.046251,-0.024655,0.013675,-0.024831,-0.048162,-0.038246,-0.053701
-0.015824,-0.043267,-0.021376,-0.045122,0.079835,-0.031731,0.045108,0.096000,0.064491
-0.020314,0.127991,-0.022073,-0.041101,0.172116,-0.041241,-0.074942,-0.148825,-0.084048
-0.043932,-0.032913,-0.047471,-0.051094,-0.030466,-0.045218,-0.033757,-0.057598,-0.025931
0.045577,0.144179,0.056541,0.026202,0.071528,0.022250,-0.007340,-0.026803,-0.013233
0.033787,0.062197,0.012977,0.042746,0.147853,0.048374,0.057804,0.023361,0.048164
-0.010284,0.030755,0.041458,-0.064248,0.028885,0.138622,-0.024611,0.063515,0.046891
0.018629,0.061569,0.019981,0.025649,0.190925,0.033954,-0.007343,-0.012265,-0.001994
-0.016032,0.023245,-0.009132,0.040492,0.258330,0.052428,-0.017699,-0.072569,-0.019937
0.015946,0.086893,0.025058,0.033709,0.160106,0.022781,0.020540,-0.044843,0.026921
-0.007190,0.013018,-0.002280,0.040487,0.139034,0.038559,0.006488,0.051546,0.019977
-0.021123,-0.042761,-0.037516,-0.041436,-0.039573,-0.051841,-0.036394,-0.048951,-0.055860
0.038646,0.006656,0.040917,-0.004944,0.314270,0.095978,0.039681,0.280039,0.027738
0.000696,0.023219,-0.001509,0.013949,0.154521,0.026073,-0.000483,0.022017,0.000568
-0.055742,-0.003868,0.070323,-0.140805,-0.022695,0.190595,-0.047635,-0.016642,0.094331
0.014009,0.050666,0.017962,0.046374,0.101271,0.047846,0.052076,0.031804,0.060943
-0.039210,-0.046823,-0.035713,-0.046872,-0.117358,-0.041504,-0.042902,-0.043415,-0.043223
0.066643,0.043343,0.111473,0.021726,-0.144684,0.088042,-0.053208,-0.074398,0.019391
-0.053291,0.003955,0.095082,-0.085269,-0.015565,0.178922,-0.024113,-0.059390,-0.005752
-0.064185,-0.001774,0.005938,0.130751,-0.040325,-0.047863,0.111565,-0.037309,-0.076152
-0.039356,-0.042943,-0.040647,-0.040526,-0.021010,-0.036442,-0.064601,-0.050703,-0.059559
-0.053290,-0.029835,-0.044260,-0.048333,-0.040297,-0.041516,-0.052104,-0.046818,-0.050591
-0.036197,-0.076533,-0.031807,-0.016992,-0.020263,-0.010075,0.066428,0.223105,0.079768
0.025875,0.042124,-0.003495,0.019127,0.182830,0.040015,-0.000597,0.038276,0.000737
-0.046409,-0.031729,-0.052989,-0.034519,-0.016516,-0.040356,-0.049403,-0.032503,-0.073517
0.018391,-0.038895,0.006898,0.000605,0.208389,0.021731,0.002441,0.099200,-0.004411
0.057288,0.095433,0.077143,0.031900,0.080924,0.024939,0.018287,-0.041713,0.036481
0.069185,0.011957,-0.100292,0.169890,-0.035043,-0.081718,0.078398,0.013148,-0.098319
-0.048098,-0.081193,-0.043107,-0.029733,-0.029319,-0.040884,-0.086085,-0.043803,-0.084996
-0.019533,-0.046836,-0.023172,-0.058245,-0.063879,-0.059459,-0.036465,-0.070171,-0.029931
0.000044,-0.039123,-0.011872,0.008418,-0.139086,0.021299,0.029019,0.221126,0.041708
-0.036113,-0.050061,-0.034537,-0.042630,-0.079762,-0.050891,-0.060503,-0.052034,-0.058871
0.110119,0.123127,0.099467,0.006781,-0.080073,0.002455,-0.074514,-0.141482,-0.082276
-0.043706,-0.042862,-0.044122,-0.045091,-0.039392,-0.050246,-0.041963,-0.049271,-0.052439
0.069118,0.101589,0.070812,0.052486,-0.195892,0.054975,0.028261,-0.000999,0.030746
0.039243,0.032010,0.034635,0.039123,0.115726,0.057263,0.031870,0.102206,0.029006
-0.045054,-0.034004,-0.053227,-0.038528,-0.016290,-0.035134,-0.069846,-0.046567,-0.056534
0.035625,0.101028,0.042411,0.000381,0.103114,0.005358,-0.034545,-0.077558,-0.034368
0.002600,0.017479,0.000076,0.012195,0.201573,0.009265,0.010089,0.011598,0.019684
-0.034946,-0.104614,-0.048130,-0.028135,-0.078966,-0.042606,-0.014812,-0.038573,-0.018981
0.001332,-0.037255,-0.011274,-0.006773,-0.155048,-0.013244,0.037449,0.210123,0.042614
-0.026493,0.070858,-0.041741,0.084594,0.093944,0.085013,0.030723,0.023385,0.038660
-0.034469,-0.042307,-0.036851,-0.056000,-0.072512,-0.048132,-0.033246,-0.071106,-0.054818
-0.048722,0.010577,-0.051141,-0.125879,0.069201,-0.121537,-0.049355,0.018950,-0.031633
-0.025752,-0.043121,-0.044259,-0.053200,-0.054681,-0.059415,-0.021814,-0.079968,-0.025740
-0.096361,-0.065267,0.028582,-0.112410,0.065500,0.070827,-0.092689,0.081257,0.045735
-0.042030,-0.042131,0.079057,-0.049948,-0.107701,0.158620,-0.072223,-0.021536,0.070598
0.032224,0.004435,0.046216,0.035431,-0.070970,0.016277,0.066235,0.128959,0.065592
-0.021842,0.036627,-0.128544,0.065487,0.450296,0.013702,-0.164830,-0.007425,-0.296343
0.018137,0.052635,0.028645,0.019365,0.175253,0.043047,0.002583,0.056434,0.008932
-0.016931,-0.134789,-0.022893,-0.019230,-0.060727,-0.020178,0.052511,0.199901,0.054438
-0.018160,0.000422,-0.020306,0.024034,0.198106,0.026592,-0.013784,0.083383,-0.012780
-0.049052,-0.008674,-0.055427,-0.046162,-0.026809,-0.045558,-0.030443,-0.053299,-0.032074
0.014951,0.027350,0.011601,0.029468,0.233684,0.037282,0.016611,0.057328,0.003378
0.043451,0.123468,0.048808,0.042597,0.031224,0.063428,-0.079271,-0.094705,-0.085752
-0.052608,-0.060572,-0.044346,-0.090761,0.111362,-0.088952,-0.052092,-0.065067,-0.045972
0.020515,-0.008833,-0.062317,0.189942,0.126495,-0.040609,0.062690,-0.003116,-0.042661
0.022590,0.235384,0.035138,0.025558,0.048947,0.036218,-0.078496,-0.175387,-0.080750
-0.051851,-0.031491,-0.055550,-0.038414,-0.007532,-0.045076,-0.050277,-0.036362,-0.055509
0.017095,0.028915,0.007197,0.040454,0.117168,0.052105,0.016783,0.065686,0.007635
0.107583,-0.034420,-0.087101,0.126450,0.076037,-0.045352,0.042478,-0.018018,-0.009668
0.075967,0.094462,0.072236,0.069966,0.031200,0.066673,-0.018151,-0.016316,-0.013303
-0.051511,0.015148,0.132499,-0.087479,-0.065474,0.139034,-0.049316,0.039580,0.071448
-0.018354,-0.154812,-0.052524,-0.056665,0.035514,-0.066106,0.040271,0.229954,0.057765
0.019187,0.134627,0.015789,0.069188,-0.015054,0.070383,-0.002845,-0.084491,0.013320
0.021604,0.047196,0.029499,0.018803,0.177764,0.017852,0.012617,0.025086,0.015739
0.020661,0.075656,0.042070,0.062053,0.039829,0.068102,0.030498,-0.107374,0.017893
0.024605,0.039634,0.006591,0.043466,0.120708,0.054627,0.049891,0.057220,0.055083
-0.083442,0.038498,0.026816,-0.086083,-0.005286,0.087375,-0.107132,0.004027,0.073181
-0.021151,-0.044536,-0.018442,-0.068107,-0.119141,-0.067140,0.024115,0.227278,0.037546
0.089667,0.075949,0.095812,0.027675,-0.031950,0.042685,0.044455,-0.055026,0.018465
-0.016599,0.028882,-0.011264,-0.033926,-0.114085,-0.033479,0.045641,0.200120,0.043540
-0.048787,-0.047137,-0.043209,-0.036106,-0.058093,-0.029624,-0.040919,-0.047188,-0.040721
-0.054926,-0.032628,-0.043497,0.018700,-0.102128,-0.008069,0.194999,0.061923,0.023703
-0.021321,-0.046833,-0.038947,-0.073232,-0.048683,-0.074139,-0.021820,-0.081648,-0.026796
-0.025599,-0.033153,-0.029325,-0.100139,-0.071924,-0.091581,-0.037561,0.047590,-0.047487
-0.042302,-0.042764,-0.057148,-0.034153,-0.052983,-0.045971,-0.019744,-0.073300,-0.040965
0.000196,-0.053043,-0.004790,-0.048459,-0.043943,-0.058913,-0.059708,-0.040582,-0.070656
-0.109978,-0.082551,-0.112681,-0.021232,0.165214,-0.017679,0.024435,0.166203,0.018230
-0.029936,-0.026549,-0.038354,-0.048812,-0.037859,-0.049075,-0.044343,-0.057976,-0.047280
0.023438,0.039089,0.003602,0.028377,0.176778,0.046388,0.023106,0.014613,0.012991
0.072296,0.041240,-0.040489,-0.046747,-0.263511,0.025808,-0.045424,0.104364,0.115385
0.077282,0.008148,-0.079766,0.154115,0.088452,-0.168340,0.098071,0.015006,-0.077765
-0.016059,-0.033792,-0.026029,-0.053149,-0.080636,-0.057688,-0.027469,-0.058108,-0.038323
0.007198,0.008461,0.013689,0.015310,0.183131,0.020921,0.018789,0.057799,0.013739
0.028301,0.070071,0.030902,0.021781,0.163870,0.022930,0.003170,-0.082182,-0.001833
0.048689,0.021268,0.012131,0.021300,0.158886,0.023887,0.056242,0.048503,0.040827
0.002395,0.267962,0.015311,-0.028984,-0.000391,-0.019809,-0.013703,-0.144546,-0.033283
0.090282,-0.026607,-0.064584,0.184431,-0.075126,-0.091060,0.069687,-0.003322,-0.051343
0.003731,-0.000796,-0.004441,0.010563,0.002777,-0.007892,0.003318,-0.003316,-0.003995
0.001261,-0.000682,-0.000263,0.002784,0.028550,0.000364,0.003118,0.013486,0.010349
0.032234,0.055553,0.031229,0.069278,0.238740,0.084866,0.033450,0.104460,0.038221
-0.045423,-0.031613,-0.054383,-0.043663,-0.040404,-0.049403,-0.057807,-0.041475,-0.060707
-0.045366,-0.069714,-0.051063,-0.053936,-0.055991,-0.041627,-0.032108,-0.077162,-0.037178
-0.040918,-0.039752,-0.036008,-0.042825,-0.116357,-0.036035,0.129110,0.127423,0.125333
-0.038915,-0.044248,-0.053079,-0.043314,-0.047095,-0.049544,-0.061653,-0.046296,-0.075941
-0.040926,-0.059554,-0.038299,-0.024723,-0.098798,-0.028403,-0.040362,-0.048412,-0.023439
0.023387,0.046413,0.024696,0.044605,0.261514,0.040138,0.014083,0.053719,0.015378
-0.015624,-0.034510,-0.016540,-0.146410,0.008294,-0.141751,-0.058973,0.032504,-0.053592
-0.036170,-0.057721,-0.036910,-0.068824,-0.021272,-0.051905,-0.047680,-0.087265,-0.045428
-0.022430,-0.039832,-0.026501,-0.039793,-0.101330,-0.041758,-0.050507,0.003914,-0.052951
0.022989,0.017186,0.015424,0.006081,0.240813,0.019925,-0.013224,0.013014,-0.011720
-0.048208,-0.055335,-0.041154,-0.039803,-0.028403,-0.063530,-0.036935,-0.067807,-0.052824
0.058098,-0.029661,-0.033953,0.179706,-0.040388,-0.113242,0.087945,-0.004626,-0.013130
0.001288,0.039886,-0.011223,0.060504,0.042079,0.076944,0.017820,0.049255,0.006290
-0.055969,0.062685,-0.059794,-0.111692,0.351520,-0.107811,-0.083913,-0.014072,-0.079694
0.054218,0.188395,0.068155,0.019837,-0.032632,0.013900,-0.059047,-0.125335,-0.062392
-0.033605,-0.041122,-0.042385,-0.065531,-0.022214,-0.073108,-0.039137,-0.046887,-0.051783
-0.001649,-0.023839,-0.065690,0.090375,0.110434,-0.148824,0.038169,0.040339,-0.129628
0.010400,-0.003690,0.009278,0.038494,0.216762,0.035138,0.010991,0.074351,0.020786
0.034947,0.232512,0.055179,-0.186535,-0.130952,-0.182212,0.018264,0.094699,0.024404
-0.067190,-0.014371,-0.063476,-0.057138,0.022262,-0.055621,-0.063586,-0.026253,-0.056244
-0.105718,0.004354,-0.098421,-0.037689,0.467940,-0.025012,-0.098164,-0.030324,-0.114862
0.014544,0.080254,0.003160,0.053668,0.135800,0.046255,-0.029259,0.000916,-0.021623
0.032990,-0.067084,0.040597,0.056150,0.033216,0.058771,0.039278,0.133214,0.052717
0.125982,-0.002486,-0.108956,0.207963,0.026798,-0.158582,0.100030,-0.021639,-0.103460
-0.038430,-0.038943,-0.045001,-0.038518,-0.036756,-0.038077,-0.040247,-0.030421,-0.036544
-0.042342,-0.046139,0.068787,-0.104135,-0.061027,0.170115,-0.030584,-0.037513,0.033637
-0.035443,-0.028825,-0.032407,-0.017280,-0.019808,-0.014623,0.070369,0.195085,0.079487
-0.028911,-0.055003,-0.034482,-0.021384,-0.034767,-0.032630,-0.053021,-0.061296,-0.056663
0.043159,-0.008033,0.006755,0.009255,0.146004,0.041055,0.009109,0.054709,-0.000899
0.010577,-0.044872,0.011593,0.042895,-0.175696,0.037022,0.074900,0.125674,0.084583
0.023689,0.149352,0.042968,0.033216,0.080578,0.021525,-0.022052,-0.016717,-0.028574
-0.049469,-0.016231,-0.039638,-0.048864,-0.071467,-0.049909,-0.022106,-0.040528,-0.029319
-0.024429,-0.032787,-0.022535,0.060957,-0.136441,0.046601,0.062076,0.097433,0.071032
-0.041655,-0.029561,-0.040787,-0.040015,-0.035045,-0.050011,-0.047457,-0.047614,-0.044780
0.042631,0.091071,0.044335,0.025046,0.059909,0.036343,-0.005169,-0.039275,0.002483
0.029251,0.017550,0.033739,0.035762,0.168924,0.024596,0.025734,0.058565,0.032857
0.016984,0.029135,0.012364,0.049911,0.181416,0.052478,0.040101,0.058472,0.027981
-0.033739,-0.001877,0.059644,-0.091380,-0.111743,0.187989,-0.045619,-0.023636,0.066643
-0.045793,-0.069982,-0.057495,-0.066216,-0.003909,-0.060506,-0.030861,-0.039698,-0.025825
-0.029404,0.028184,-0.032874,-0.034518,-0.192284,-0.025233,0.101043,0.114722,0.103528
0.031664,0.052491,0.126945,-0.060807,-0.208899,0.107247,-0.023976,0.041070,0.065544
0.043673,0.180413,0.045316,-0.082568,0.072340,-0.090666,0.009507,0.058338,0.015463
-0.066996,-0.089054,-0.057193,-0.058476,-0.048947,-0.065036,0.089138,0.137606,0.097900
-0.060096,-0.047392,-0.071164,-0.044021,-0.032294,-0.039741,-0.016591,-0.057252,-0.013291
-0.024829,-0.057462,-0.022645,-0.027883,-0.132774,-0.038443,-0.026777,-0.017866,-0.024810
-0.041831,-0.020239,-0.048248,-0.033447,-0.004418,-0.043878,-0.058901,-0.087291,-0.065127
0.014989,-0.001700,0.019753,0.025099,0.225094,0.036037,-0.000849,0.084850,-0.000174
0.021806,0.006725,0.020138,-0.091324,0.000866,-0.076221,-0.069201,-0.098160,-0.083005
0.024231,-0.008405,0.026431,0.009037,0.235036,0.020162,0.020088,0.053537,0.011399
0.011195,0.025245,0.016024,0.003044,0.154599,0.030183,-0.031103,-0.008327,-0.039677
-0.067369,-0.161590,-0.076559,0.050971,0.144533,0.053443,0.038353,0.072514,0.036832
-0.022536,-0.039513,-0.027256,-0.048587,-0.005981,-0.042919,-0.055298,-0.075183,-0.063232
-0.018436,-0.060534,-0.028229,-0.058114,-0.050213,-0.057203,-0.042958,-0.068024,-0.041457
0.020137,0.040449,0.024592,0.012423,0.093581,0.015156,0.039574,0.010135,0.039652
-0.043455,-0.037967,-0.044729,-0.049427,-0.047188,-0.041825,-0.048179,-0.057919,-0.053097
0.170060,0.084501,-0.049295,0.061737,0.005734,-0.092559,-0.032780,-0.041866,-0.080364
0.002152,0.090597,0.026861,0.012678,0.220885,0.009434,-0.010204,0.067907,-0.004015
0.062334,-0.005803,0.053094,0.076806,-0.405320,0.066655,0.116183,0.009161,0.119041
-0.035615,0.214040,-0.022019,-0.154492,-0.080297,-0.165359,0.053689,-0.045794,0.065699
0.057043,0.040310,-0.048479,0.180374,-0.048984,-0.051882,0.063799,-0.009796,-0.090034
-0.034934,-0.038211,-0.031989,-0.041926,-0.068255,-0.051560,-0.042901,-0.041045,-0.036359
-0.049432,-0.018572,-0.065348,-0.034262,-0.030325,-0.034307,-0.064738,-0.065386,-0.075283
0.051135,0.264970,0.053235,-0.053461,-0.017838,-0.056933,-0.048983,-0.098080,-0.042509
0.071992,-0.055247,-0.007862,0.177617,-0.069713,-0.077454,0.092191,-0.044822,-0.043427
0.035714,0.044174,0.045454,0.039120,0.159230,0.035411,0.024508,0.004641,0.029432
-0.038613,-0.052750,-0.035082,-0.064189,-0.038008,-0.058496,-0.041443,-0.042787,-0.031480
-0.059790,-0.040872,-0.058623,-0.042420,-0.070818,-0.030508,-0.037271,-0.046975,-0.046268
-0.030814,-0.059437,-0.046768,-0.065478,-0.020580,-0.070236,-0.019292,-0.063608,-0.038768
0.079639,0.200302,0.073348,-0.048643,-0.038680,-0.066072,-0.059511,-0.074576,-0.075050
0.008686,0.094416,0.000781,-0.012739,0.229090,-0.010232,-0.023867,-0.082720,-0.036259
0.023420,-0.011715,0.031069,0.033026,0.001042,0.030779,0.033537,0.048835,0.032965
-0.099568,-0.199266,-0.094794,0.024239,0.120728,0.008120,0.033892,0.151954,0.014582
0.036933,0.041737,0.037346,0.010300,0.156410,0.026277,0.023292,0.050352,0.026914
0.006792,0.018986,0.015963,0.070001,0.067641,0.087908,0.010175,0.108944,0.004244
0.179921,0.040731,0.220437,-0.013326,-0.438012,-0.014314,0.054595,-0.049814,0.062069
-0.024566,-0.055786,-0.032664,-0.053519,-0.021118,-0.050428,-0.051153,-0.047337,-0.046837
0.030039,-0.009949,0.024948,0.054866,0.069213,0.058883,0.029214,0.128029,0.056674
0.030490,0.178418,0.032792,-0.061679,-0.131448,-0.058791,0.025492,0.020923,0.011500
0.015532,0.140771,0.024456,0.028248,0.135786,0.040855,-0.025028,-0.003843,-0.031481
0.034606,0.146669,0.024037,0.007275,0.112190,0.015214,-0.006826,-0.057034,-0.006386
0.011659,0.081994,0.026893,0.052996,0.189815,0.084205,0.012974,0.089841,0.045028
0.020337,0.022223,0.012165,0.031380,0.250357,0.032307,0.006732,0.056122,0.007977
-0.057142,-0.063270,-0.070759,-0.060518,0.222000,-0.069980,-0.065560,-0.044734,-0.098832
-0.021749,-0.039446,-0.040529,-0.050400,-0.091258,-0.053203,-0.042945,-0.053227,-0.044117
0.096535,0.143964,0.107953,0.025373,-0.059820,0.036178,-0.006321,-0.129349,-0.022325
0.008896,0.095074,0.109209,-0.011381,-0.204677,0.102385,-0.022260,-0.014958,0.046037
0.061785,-0.058457,0.058549,0.051383,0.034441,0.063690,0.038006,0.076348,0.045653
0.088164,0.265157,0.077929,-0.010751,-0.255128,-0.024000,-0.045139,-0.033347,-0.044624
0.028249,0.171802,0.040648,0.019031,0.064360,0.016941,0.004086,-0.019980,0.008537
-0.053738,-0.029824,0.109388,-0.106019,-0.126094,0.278031,0.005817,-0.022512,0.003388
0.025775,-0.017662,-0.049806,0.130633,0.062796,-0.162382,0.061188,0.011600,-0.075947
0.033613,0.062871,0.044819,0.041468,0.150604,0.042501,0.014844,0.057318,0.012208
-0.034473,-0.067425,-0.022958,-0.045357,-0.055335,-0.047901,-0.027869,-0.048315,-0.026622
-0.000749,0.038453,-0.005483,0.040543,0.220499,0.047200,0.021733,0.028614,0.035601
0.024588,-0.069016,0.021436,0.031265,0.094562,0.041186,0.040223,0.061013,0.044651
0.056452,0.163912,0.072762,0.048097,0.031518,0.068664,-0.035455,-0.093946,-0.026257
0.087035,0.126538,0.087314,0.064387,-0.075130,0.064118,0.009167,-0.031296,0.010347
-0.050417,0.042142,0.042613,-0.055698,0.096300,0.139835,-0.039388,-0.019387,-0.007159
0.030763,0.023862,0.019809,0.040504,0.164389,0.043539,0.005299,0.037620,0.016151
-0.002942,-0.043888,0.010326,0.030336,0.131622,0.028979,0.035383,0.084224,0.038488
0.078408,0.173002,0.074644,-0.051050,-0.016809,-0.039819,0.024992,-0.034460,0.008458
-0.033568,-0.027026,-0.039298,-0.056270,-0.042295,-0.053079,-0.051987,-0.036912,-0.047324
-0.112284,-0.031532,-0.023372,-0.133147,0.008470,0.169968,-0.142995,0.008130,-0.023265
-0.042842,-0.070785,-0.035307,-0.058999,-0.054835,-0.060524,-0.047143,-0.084698,-0.052412
-0.014959,-0.030510,-0.024409,0.048521,0.157120,0.054078,-0.009972,0.057862,-0.015963
0.013933,-0.061283,0.001719,0.096718,0.094857,0.028617,0.046419,0.051384,-0.004825
-0.096203,-0.176188,-0.112737,0.011860,0.131444,0.035746,0.051135,0.189157,0.040618
-0.075127,0.010669,0.063609,-0.072256,0.108065,0.094571,-0.089548,0.004880,0.061637
0.086468,0.142422,0.088228,0.022363,-0.037790,0.026722,-0.055684,-0.022496,-0.054085
-0.028527,-0.038405,-0.037725,-0.016922,-0.092858,-0.016626,0.034402,0.224948,0.023795
-0.023208,-0.051314,-0.029378,-0.058908,-0.002777,-0.067437,-0.040183,-0.059668,-0.047873
0.027160,0.175069,0.031544,0.065235,-0.040171,0.057627,-0.073282,-0.078830,-0.081483
-0.041418,-0.043497,-0.046292,-0.038705,-0.064337,-0.038695,-0.041832,-0.057903,-0.041771
-0.016407,-0.067211,-0.018108,-0.053093,-0.066844,-0.048867,-0.041448,-0.048968,-0.044566
0.083765,0.139460,0.089853,0.040649,-0.032535,0.059958,-0.085788,-0.105852,-0.085824
0.061669,-0.072665,0.046546,0.041882,-0.218049,0.039171,0.126762,0.109795,0.138385
0.016514,0.033339,0.018485,-0.003911,0.199918,-0.002483,-0.047333,-0.135306,-0.057994
-0.049338,-0.026497,-0.054371,-0.031983,-0.011730,-0.031939,-0.042483,-0.043034,-0.045185
0.040504,0.287734,0.049080,-0.089911,-0.060658,-0.099189,-0.012550,-0.015751,-0.022220
-0.008747,-0.025191,-0.007805,-0.109444,-0.167874,-0.109809,0.013869,0.242897,0.026339
-0.007583,0.036905,0.015399,0.025269,0.092339,0.030378,0.037487,-0.000664,0.041517
-0.040488,-0.029014,0.029027,-0.099379,-0.042934,0.158241,-0.058012,-0.063888,0.090298
-0.035345,0.083749,-0.042236,-0.131848,0.206669,-0.139513,-0.029813,0.051875,-0.051709
0.030970,-0.020923,-0.095582,0.112254,0.160835,-0.147197,0.001786,-0.016926,-0.111784
0.024360,0.070748,0.021763,-0.029229,0.212788,-0.027076,-0.089830,-0.116997,-0.104533
0.065073,0.021810,-0.025388,0.147655,-0.117913,-0.028335,0.077892,0.017750,0.001041
0.069992,0.154407,0.089809,-0.036062,-0.125854,-0.041965,-0.041190,0.036004,-0.046919
0.099346,0.156214,0.104485,-0.009272,-0.020875,-0.003728,-0.050285,-0.035162,-0.033528
-0.033086,-0.040080,-0.032833,-0.068148,-0.053656,-0.076911,-0.029479,-0.057417,-0.027862
-0.074129,-0.017247,0.050991,-0.099359,0.020809,0.152182,-0.057330,-0.035333,0.063516
0.028531,0.135543,0.041857,0.011818,0.079188,0.008485,-0.033907,-0.079269,-0.041443
-0.054835,-0.024572,-0.050917,-0.042531,-0.022863,-0.040327,-0.057719,-0.043949,-0.045310
-0.012454,0.060281,-0.012316,0.038309,0.177414,0.040794,0.004962,0.018497,-0.000158
0.024790,0.003400,0.027452,0.016109,0.269499,0.010134,0.019660,0.019315,0.013723
0.017549,0.082856,0.054383,0.001790,0.146989,-0.012725,0.034581,0.041005,0.049408
-0.026014,-0.017746,-0.032327,-0.058581,-0.046290,-0.048353,-0.044739,-0.075326,-0.054848
0.048752,0.001713,0.049859,0.072540,0.113180,0.062740,0.035443,0.031499,0.039714
-0.030062,-0.049949,-0.024690,-0.057875,0.316182,-0.028881,-0.046696,-0.082372,-0.048693
0.015810,0.038978,0.018445,0.019519,0.143115,0.034119,-0.002494,0.034536,0.007065
0.077729,0.108946,0.086744,0.038965,-0.044144,0.028074,0.017682,-0.000292,0.004266
-0.032471,-0.051763,-0.037990,-0.049662,-0.004032,-0.051709,-0.048412,-0.042681,-0.052455
0.043720,-0.006382,0.052061,0.022631,0.137230,0.023390,0.062874,-0.012270,0.064098
0.063639,0.145853,0.084891,0.046991,-0.151953,0.024506,0.066605,-0.055671,0.054334
-0.000963,0.061523,0.000544,0.032286,0.159671,0.045017,0.016193,0.041963,0.012711
-0.097997,-0.126465,-0.089350,0.017149,0.155248,0.010547,0.045625,0.088341,0.052422
-0.023656,-0.115133,-0.023115,0.016025,-0.116842,0.015798,0.076840,0.173228,0.071453
0.024887,0.055636,0.016475,0.024157,0.148991,0.038053,0.034173,0.014088,0.029662
-0.052307,-0.037956,-0.053735,-0.033025,-0.013359,-0.043718,-0.051863,-0.042058,-0.070561
-0.010104,-0.056273,-0.009560,0.005910,-0.006657,0.000355,0.035393,0.217499,0.027049
0.060209,0.158336,0.060594,0.025566,0.015724,0.016171,-0.055499,-0.081873,-0.067627
-0.049197,-0.015021,-0.042617,-0.024140,-0.031218,-0.024259,-0.059467,-0.030561,-0.066818
0.048627,-0.042979,0.054536,0.053741,-0.017119,0.054379,0.019376,0.203181,0.027379
-0.028385,-0.061382,-0.057590,-0.017236,-0.132579,-0.017292,0.091618,0.189267,0.089940
0.049761,0.037523,0.056126,0.042930,0.178269,0.060412,0.031551,0.020140,0.027359
0.074681,0.158941,0.068957,-0.072560,0.016966,-0.060499,-0.051909,-0.055213,-0.053390
0.008302,-0.074116,0.004883,0.047038,0.047284,0.040566,0.065811,0.102263,0.066239
0.051194,0.009760,-0.088927,0.144301,0.144193,-0.164577,0.054274,0.015418,-0.065887
-0.032164,-0.003433,-0.040428,-0.062152,-0.009969,-0.058455,-0.061676,-0.055387,-0.068688
0.050172,0.128026,0.042131,0.078401,-0.091998,0.082615,0.031669,-0.040565,0.035800
-0.001065,0.016370,-0.010781,0.042616,0.138844,0.048092,0.035725,0.038168,0.027169
0.054703,0.183580,0.066531,-0.063622,-0.113524,-0.056912,0.006034,-0.054099,-0.001463
0.018613,0.064741,0.013084,0.041239,0.133243,0.057855,0.001741,0.060351,-0.003706
-0.055474,-0.015260,0.090746,-0.061954,-0.068368,0.143076,-0.072241,-0.004120,0.064822
-0.047231,-0.010474,-0.034839,-0.058859,-0.045767,-0.058560,-0.052336,-0.036409,-0.042463
-0.068168,-0.020807,0.037640,-0.054868,0.051667,0.194914,-0.057737,-0.029502,0.080042
0.000521,0.029417,-0.009066,0.008070,0.122771,0.005532,0.007769,0.015045,0.006190
-0.044294,-0.035755,-0.058551,-0.054517,-0.014362,-0.055761,-0.034289,-0.059160,-0.037814
0.037770,0.090015,0.017358,0.055108,0.071606,0.070278,0.005434,0.078653,-0.000888
0.022976,0.089951,0.026649,-0.003772,0.285996,0.002429,-0.116154,-0.085472,-0.124754
0.053910,0.034122,0.048442,0.066842,0.042211,0.063489,0.058877,0.116108,0.048033
-0.026984,-0.060686,-0.031963,-0.054573,-0.047984,-0.058925,-0.028985,-0.053949,-0.045897
0.011326,0.025949,0.015667,0.038284,-0.043556,0.045690,0.048837,0.093607,0.055756
0.054886,0.071359,0.070740,0.069635,-0.150473,0.072163,0.033499,0.041497,0.040754
-0.050256,-0.038084,-0.050727,-0.030252,-0.018141,-0.033579,-0.047955,-0.055186,-0.047962
-0.045728,-0.047295,-0.042574,-0.046544,-0.030929,-0.055703,-0.042823,-0.043262,-0.044852
0.067317,0.196104,0.072469,0.002058,0.015076,-0.000822,-0.049142,-0.160265,-0.052490
0.062680,-0.032897,-0.040163,0.220665,-0.104626,-0.080230,0.057894,-0.056551,-0.058923
-0.021727,0.014759,-0.018202,-0.075955,-0.102653,0.188513,-0.047363,-0.053109,0.068147
-0.011746,0.061911,0.005047,-0.022131,0.123617,0.057724,0.035093,0.062142,0.032931
-0.051657,-0.031106,0.144663,-0.101670,-0.005139,0.088776,-0.053756,-0.002506,0.072345
0.049083,0.191605,0.050013,-0.011810,-0.020860,-0.013373,-0.038312,0.029507,-0.025936
0.047916,0.020736,0.032674,0.030951,0.119760,0.050409,0.031157,0.052470,0.030220
-0.010994,-0.043084,-0.029063,-0.044600,-0.137806,-0.052150,-0.013685,-0.068962,-0.008141
0.029988,-0.126099,0.040786,0.156507,-0.165551,0.155152,0.016148,-0.136500,0.035104
-0.013409,0.093892,-0.004784,0.076223,0.089891,0.086492,0.037638,0.062877,0.041863
-0.033666,-0.048671,-0.047351,0.085337,-0.086199,0.071722,0.039540,0.129360,0.047434
0.016604,0.071785,0.039492,-0.015877,0.001436,0.141980,0.016356,0.034615,0.046860
-0.013929,-0.040507,0.050522,-0.051130,-0.101546,0.153906,-0.039736,-0.053100,0.070662
-0.023978,0.142615,-0.012334,-0.080126,0.019181,-0.080062,-0.104861,-0.145720,-0.086997
-0.051087,-0.044745,-0.047194,-0.046287,0.003992,-0.042197,-0.045614,-0.060785,-0.042652
-0.021056,-0.027240,-0.035603,0.005153,0.221623,0.011411,-0.010498,0.056929,-0.015729
0.015672,-0.033050,0.003979,-0.050833,-0.189805,-0.054911,-0.009431,-0.068761,-0.009614
-0.041422,0.193187,-0.019473,-0.004605,0.059140,0.012929,-0.023588,0.201121,-0.019006
0.021085,0.087001,-0.001969,0.075658,0.158310,0.076698,-0.108441,-0.239021,-0.109004
-0.044231,-0.040166,-0.060540,-0.050539,-0.025200,-0.059500,-0.026523,-0.085549,-0.032186
0.123425,0.012192,-0.069778,0.136882,0.010478,-0.035392,-0.057262,-0.028847,-0.017734
-0.129921,-0.052342,0.026320,-0.161554,0.082027,0.076277,-0.124560,-0.012874,0.039773
-0.002046,-0.008448,0.008086,-0.019764,0.076114,-0.047726,0.032862,0.154537,0.019443
0.002252,-0.061417,-0.013007,-0.071674,-0.051610,-0.080987,-0.038243,-0.052195,-0.043169
-0.113072,-0.126949,-0.109154,-0.043861,0.061785,-0.036052,-0.021907,0.187432,-0.024483
-0.050106,-0.253421,-0.068143,-0.048239,0.125428,-0.050031,-0.000533,-0.073278,-0.012342
-0.054753,-0.026697,-0.052855,-0.063754,-0.037736,-0.071976,-0.042668,-0.022443,-0.043700
-0.146210,0.016727,0.043330,-0.200407,0.101943,0.184057,-0.121012,0.064676,0.043126
-0.026189,-0.024156,0.071881,-0.095537,-0.107354,0.247592,-0.031326,-0.006205,0.114424
0.056697,0.000968,-0.024579,0.149774,-0.155691,-0.074283,0.093822,0.010146,-0.005193
0.038397,-0.036767,0.194767,-0.073020,-0.211008,0.016099,0.007395,0.012308,0.128480
-0.001244,0.037525,0.004831,0.028085,0.219452,0.037620,0.007037,0.029598,0.013820
-0.004173,0.017446,-0.001479,0.014564,0.170088,0.030827,-0.029089,-0.031504,-0.024183
-0.044117,-0.033032,-0.049745,-0.044262,-0.023198,-0.046442,-0.039693,-0.061904,-0.052788
-0.053076,-0.028154,-0.069622,-0.037070,0.003445,-0.033271,-0.056121,-0.016034,-0.056458
-0.014483,0.004026,-0.007403,0.019285,0.112950,0.027975,0.020787,0.049141,0.016289
-0.143236,0.018212,-0.156637,-0.003545,0.570374,-0.001839,-0.140554,0.010839,-0.146739
0.022238,0.068722,0.031916,0.012195,0.168149,0.007810,-0.078261,-0.144635,-0.072174
-0.092476,-0.114305,-0.102495,-0.006059,0.187699,-0.000482,-0.000797,0.046281,-0.001479
0.081703,0.005844,0.085825,0.098576,0.001483,0.105107,-0.040645,-0.112631,-0.038255
-0.033761,-0.052542,-0.037219,-0.032930,-0.050724,-0.042251,-0.025525,-0.042069,-0.032906
0.050589,0.168297,0.069780,0.004011,-0.042934,0.008338,0.038223,-0.035271,0.038638
-0.032880,0.074778,0.219595,-0.043448,-0.084043,0.017643,-0.028172,-0.037994,-0.012063
-0.045622,-0.022920,-0.051576,-0.029459,-0.071195,-0.018029,-0.061638,-0.037592,-0.058696
0.062565,0.146266,0.076941,0.091261,-0.124385,0.084522,0.039083,0.006532,0.032996
-0.029097,-0.068044,-0.021709,-0.074340,-0.078358,-0.067613,-0.008470,-0.065834,-0.006315
-0.017796,-0.098700,-0.019555,-0.013284,0.224139,-0.000683,-0.013931,0.007027,-0.009455
0.071842,0.051424,0.053209,0.073274,-0.115056,0.067643,0.060651,0.038752,0.070422
-0.104158,-0.007676,0.111357,-0.159379,0.028394,0.175571,-0.056285,-0.041399,0.086322
0.007829,0.018193,0.015322,0.020454,0.105372,0.031027,-0.005270,0.013179,-0.002872
-0.041030,0.120588,-0.061106,0.073054,0.217241,0.030642,0.004399,-0.038909,-0.006754
0.004780,0.068011,0.002095,0.041751,0.105371,0.051849,0.019952,0.012621,0.016143
0.043103,0.118807,0.044898,0.026413,-0.021654,0.038381,0.017473,0.002106,0.007763
0.050512,0.014679,-0.146315,0.127519,0.110989,-0.150167,0.053727,0.045595,-0.098447
0.027327,0.082831,0.047612,0.036489,-0.009927,0.076695,-0.004250,0.078648,0.036846
-0.034110,-0.010710,-0.032715,-0.001204,0.116504,0.027263,0.033352,0.123225,0.033148
0.030997,0.046383,0.038998,0.025520,0.163292,0.018106,0.037038,0.011201,0.053442
0.060152,0.057109,0.052598,-0.051044,0.068745,0.001709,0.045399,0.089552,0.041817
0.056316,-0.016030,0.037106,0.019997,0.184904,0.039015,0.030375,0.042137,0.010623
0.047621,0.130763,0.046435,0.018735,0.088826,0.016265,-0.037847,-0.026055,-0.030635
-0.038880,-0.002914,-0.022764,-0.027444,-0.141879,-0.039821,0.078042,0.191053,0.106510
0.125433,0.071913,0.031421,0.101728,-0.205451,-0.019765,0.054715,-0.033801,-0.025436
-0.051877,-0.027642,-0.066219,-0.053570,-0.038578,-0.033944,-0.056224,-0.047442,-0.055979
0.028859,-0.022586,0.042713,0.029280,0.143956,0.020904,0.014828,0.070500,0.013177
-0.033729,0.017949,-0.031201,-0.044257,0.278388,-0.050890,-0.065780,-0.110379,-0.077282
0.029393,0.031216,0.026022,0.066657,0.156245,0.067573,0.039063,0.036521,0.041281
-0.015646,0.001712,0.121982,-0.000041,-0.020596,0.129184,0.002689,-0.023021,-0.059178
0.027309,0.004928,0.033532,0.001908,0.175398,0.001620,0.017661,0.010291,0.009792
-0.051210,-0.032929,-0.058683,-0.024960,-0.094876,-0.023685,-0.060924,-0.026673,-0.058296
-0.011860,0.053846,-0.012714,0.039646,0.253360,0.040241,0.019698,0.026059,0.020689
0.024154,0.028395,0.035436,0.027251,0.067059,0.025601,0.015138,-0.016456,0.016483
0.031796,0.030523,0.025281,0.048837,0.076515,0.059514,0.017452,0.060473,0.012576
0.003202,0.039021,-0.003436,0.030564,0.151178,0.032955,0.005691,0.060936,-0.005743
-0.032989,-0.067748,0.109054,-0.018535,-0.160918,0.185742,-0.024434,-0.071830,0.090093
-0.043399,-0.033515,-0.062335,-0.041236,-0.029928,-0.055978,-0.033044,-0.036066,-0.030951
0.059551,0.121631,0.060784,0.088417,-0.036939,0.090128,0.059194,0.044864,0.066910
-0.005039,-0.003827,-0.005998,0.013037,-0.005997,-0.005496,0.003457,-0.003644,-0.006964
0.062973,-0.021167,-0.062893,0.166100,0.065936,-0.088493,0.068580,-0.025663,-0.039181
-0.030811,-0.062150,-0.037253,-0.036510,-0.042091,-0.042399,-0.038044,-0.063442,-0.041090
0.039786,0.240388,0.047786,0.004286,-0.098545,0.000016,-0.015759,0.002288,-0.033568
0.051821,-0.027659,0.014231,0.106766,0.010275,-0.038965,0.052632,-0.006459,-0.004954
-0.037439,-0.083839,-0.050567,-0.050013,-0.012682,-0.036470,-0.050252,-0.023261,-0.059765
-0.006657,0.011625,-0.011423,0.017279,0.151203,0.021215,0.023931,0.055408,0.039286
0.009668,-0.002095,0.003533,-0.022775,0.301745,-0.010419,-0.022489,0.002308,-0.020437
-0.033898,-0.067992,-0.043804,-0.063263,-0.020828,-0.064797,-0.028121,-0.069181,-0.041526
0.052515,0.069238,0.047257,0.058952,-0.065409,0.081270,0.069332,0.084300,0.062438
0.002516,0.005208,0.001257,0.011119,0.008961,0.014525,-0.004904,-0.010596,-0.010221
-0.013899,-0.034763,-0.022399,0.024527,-0.158776,0.019976,0.074874,0.154385,0.077692
-0.051346,0.005028,-0.056414,-0.036268,-0.057469,-0.031991,-0.081017,-0.035923,-0.084267
-0.008751,-0.012836,0.006256,0.014412,0.087491,-0.007293,0.044292,0.152310,0.053006
-0.047309,-0.048948,-0.050145,-0.047313,-0.067764,-0.035942,-0.048334,-0.026615,-0.058186
-0.018805,0.133173,-0.008819,-0.019189,0.236267,-0.013535,-0.096828,-0.177606,-0.099335
-0.076607,-0.142814,-0.081989,-0.001186,0.150233,-0.001317,-0.001677,0.163718,-0.002285
0.074982,0.001574,0.058360,0.010541,0.111696,0.026541,0.030277,0.057207,0.035241
-0.010856,-0.085260,-0.006466,-0.121736,-0.016815,-0.105750,-0.022460,-0.076070,-0.032151
0.043858,0.116857,0.048276,0.014721,0.108869,0.012955,-0.001461,-0.034431,-0.000430
0.050297,0.053367,0.051014,-0.046819,0.114931,-0.031152,0.052408,0.149230,0.064447
0.000894,-0.112061,0.008425,0.078220,-0.088514,0.078528,0.063037,0.157610,0.069757
-0.036004,-0.012016,-0.031190,-0.049287,-0.057313,-0.050263,-0.055136,-0.042684,-0.062673
-0.068689,-0.058270,-0.062803,-0.055208,-0.022999,-0.049878,-0.042762,-0.024439,-0.039521
0.002456,-0.020157,0.013843,0.042317,0.102974,0.014724,0.074521,0.200185,0.048595
-0.133851,-0.148514,-0.123318,0.015911,0.022677,0.024537,0.078156,0.159770,0.068790
0.008932,0.131279,0.012180,0.058058,0.043044,0.070941,-0.000128,-0.087830,0.006435
-0.030264,-0.029714,-0.048114,-0.065738,-0.035552,-0.060351,-0.035625,-0.042215,-0.037310
-0.026077,-0.093194,-0.010357,0.180526,0.030733,0.155831,-0.012243,-0.209258,-0.015727
0.014110,-0.036583,0.007862,0.074388,0.018773,0.070874,0.040669,0.109512,0.060982
0.075342,0.004989,-0.042883,0.214421,-0.049654,-0.163172,0.103488,0.022976,-0.077915
-0.003448,0.016854,-0.002616,0.015202,0.085698,0.025291,0.009931,0.032793,0.013906
0.007714,0.228790,0.035398,-0.031322,0.069929,-0.031753,-0.053699,-0.094428,-0.057048
-0.042748,-0.013551,0.033335,-0.130867,-0.015175,0.179580,-0.081997,-0.027962,0.054358
0.022267,0.058488,0.020222,0.029519,0.137611,0.041489,-0.020294,-0.016305,-0.047562
0.021940,0.064197,0.025837,0.083552,-0.039757,0.055332,0.006856,0.111093,0.012587
-0.042808,-0.017586,-0.051090,0.020977,-0.106438,0.006835,0.077465,0.166167,0.084261
0.042902,0.085421,0.026456,-0.034175,0.183162,-0.031329,-0.119226,-0.139620,-0.122985
-0.047325,-0.023042,-0.048527,-0.025377,-0.042971,-0.033276,-0.060306,-0.040367,-0.051779
-0.039866,-0.038757,-0.037600,-0.031854,-0.066374,-0.035444,-0.063156,-0.035875,-0.056632
-0.016319,0.005766,-0.015222,0.031891,0.180087,0.021213,0.012559,0.096889,0.016289
0.020426,0.027955,0.027047,0.051577,0.055021,0.047963,0.008238,0.069974,0.022752
