0.122614,0.057074,-0.051013,-0.052048,-0.046405,-0.036679,-0.019593,0.026673,-0.051831,0.009110,0.032342,-0.039829,-0.102198,0.001477,-0.120166,0.113488,0.061679,-0.059792,-0.058855,-0.037446,0.060449,-0.078749,0.137500,-0.025855,-0.040058,0.032830,0.096572,0.029423,-0.010414,-0.067628,0.005131,-0.021686,-0.095184,0.073783,0.058824,-0.097042,0.046680,0.071170,0.024506,-0.011439,-0.028090,0.015465,0.023432,0.020695,-0.123885,-0.027685,0.062447,-0.041883,-0.020121,-0.006079,-0.135892,0.006188,0.052885,0.100880,0.010588,-0.028934,0.046214,0.005330,0.096757,0.006493,0.040656,0.001000,-0.029417,0.047320,0.030781,-0.014245,0.020320,0.005206,-0.028188,0.009615,-0.018273,0.161712,0.034364,0.007764,-0.169786,-0.051795,0.082287,-0.043317,0.015664,-0.057747,0.005651,0.006112,0.060767,-0.064155,0.070148,-0.052914,-0.004208,0.022280,-0.051268,0.031106,-0.052928,-0.027212,0.004493,0.031636,-0.067262,0.009199,0.001153,0.104947,0.033972,-0.046520,0.096600,0.025346,-0.108180,-0.003268,-0.030530,-0.092881,0.000848,0.067295,-0.004673,0.037285,0.023920,-0.035985,0.030729,0.008577,-0.060832,-0.055717,0.050072,-0.049188,0.023167,0.123604,-0.090616,-0.076897,-0.000158,0.042703,-0.145558,0.028612,0.026811,-0.067738,-0.078769,-0.014885,0.023156,0.063501,0.004521,0.000194,-0.102282,-0.010227,-0.059595,0.031107,0.009730,-0.037561,0.000611,0.035540,0.120054,-0.049107,0.094194,-0.010414,0.069347,0.008910,-0.086028,0.006036,0.035088,-0.011545,-0.044770,0.036439,0.041775,-0.032303,-0.048769,-0.042828,0.036299,-0.007254,-0.050236,0.043069,-0.028255,-0.032364,0.063629,-0.047265,-0.023905,0.011338,0.017241,0.025635,-0.034509,0.011199,-0.118166,-0.045247,-0.020161,0.032748,0.032121,0.045636,0.025645,-0.001165,0.033504,-0.003276,0.047694,0.089538,-0.052067,-0.053792,0.004435,-0.043296,-0.018008,-0.005087,0.054928,-0.092754,-0.002991,-0.013988,-0.021596,0.050641,-0.003051,0.062495,-0.019163,-0.028219,-0.052932,0.069577,-0.000777,-0.092507,0.046602,0.027976,0.006202,0.008992,0.009037,-0.060055,-0.107704,0.077230,0.004779,-0.073524,0.004005,-0.012893,-0.019861,0.015764,0.090360,-0.021839,0.050982,-0.018283,0.062815,-0.115818,0.032868,0.036538,0.046224,-0.014067,-0.008456,0.071312,-0.089342,0.103206,0.042102,-0.017945,0.014726,0.112943,-0.005956,0.045066,-0.050892,-0.008443,-0.056851,-0.049834,-0.043928,-0.056603,-0.034247,0.064046,-0.066933,0.023840,-0.055320,0.000742,-0.008336,-0.023347,-0.019321,0.017750,-0.005240,0.031583,0.029337,-0.002406,0.034632,-0.017181,0.065102,0.030649,0.033988,-0.027534,-0.047347,0.043487,0.001773,-0.000270,-0.018370,0.056740,-0.093520,0.020441,0.010725,-0.049684,-0.000256,0.059239,-0.031660,-0.119388,0.117763,-0.070462,-0.100773,0.027251,-0.071045,0.074378,-0.061152,0.031368,-0.043599,-0.025177,-0.122090,-0.014112,0.032280,0.014194,0.048530,0.021670,0.147068,0.016957,-0.046142,0.033826,-0.056554,0.006872,-0.011100,-0.016164,-0.003954,0.019968,-0.064122,-0.062975,0.006115,-0.137421,0.020688,-0.024336,-0.027914,0.022491,0.082900,-0.014278,-0.013136,0.055715,0.004765,0.034747,-0.036705,-0.004655,0.012232,0.016373,-0.047242,0.002974,0.086094,-0.068620,0.053014,-0.067569,-0.021079,0.076552,-0.096625,0.032037,0.014975,-0.007770,0.088661,-0.023991,-0.042277,0.012884,-0.088697,0.000034,-0.030018,0.067200,0.062117,0.011099,-0.004362,0.039684,-0.082843,-0.047339,-0.005445,0.018160,0.001024,0.052855,0.023440,-0.047768,-0.039728,0.036581,-0.073862,-0.063212,0.081328,0.056108,0.014550,0.016332,-0.022738,-0.003601,-0.037793,0.051773,0.086202,0.083190,0.026030,0.025561,0.018907,-0.030899,-0.038910,0.007837,-0.006975,0.063626,-0.036343,0.050982,0.035036,-0.004817,0.041501,-0.068108,-0.037846,0.017780
-0.010949,-0.044766,-0.030745,-0.041958,-0.058011,-0.034159,0.057153,-0.037724,-0.036739,-0.052302,0.021183,0.021144,-0.044571,0.003924,0.029696,0.015487,-0.005797,-0.055456,-0.081890,-0.096049,0.005034,-0.003529,-0.053846,-0.034792,0.027067,-0.056628,0.035098,0.025072,-0.003913,-0.080237,-0.009143,0.069310,0.035109,-0.017441,-0.091149,0.005877,0.004091,-0.009315,0.021542,0.018065,-0.127064,-0.066110,0.093815,-0.054990,-0.020596,0.006304,0.017665,0.060172,-0.055627,-0.035609,0.003660,-0.032013,0.045265,0.019588,-0.100761,-0.089836,0.003431,-0.044887,0.013594,0.026370,0.029885,-0.013787,-0.000054,0.027524,0.072762,0.043166,-0.002058,-0.035318,0.007243,-0.023383,0.025795,-0.022859,0.048840,0.107129,-0.089413,0.048825,0.011781,0.007056,-0.021050,0.066269,-0.077633,-0.065144,0.045854,0.027522,0.014301,0.037910,0.062995,0.046535,-0.072568,0.033624,-0.044863,0.015327,-0.004551,0.098211,-0.031758,0.051061,-0.032696,0.037551,-0.046891,-0.002912,-0.047471,0.072283,0.041124,-0.039173,-0.076510,0.002020,0.038105,-0.001878,0.027115,0.002576,-0.065718,-0.080204,-0.011409,-0.022231,-0.033786,0.007717,0.102435,0.004649,-0.098862,-0.034137,0.101775,0.109324,-0.021784,-0.047520,-0.023223,0.004095,-0.042220,-0.014264,-0.011319,-0.023064,0.006922,0.027107,-0.076241,-0.005860,0.039844,0.024566,-0.044614,-0.011712,-0.012787,0.078105,0.039691,-0.071972,-0.074233,0.069311,0.042178,0.014428,0.041457,-0.031105,0.086960,0.012497,-0.077634,-0.023089,0.003389,-0.000065,0.048262,-0.016655,-0.001023,-0.027738,-0.023553,0.009618,-0.025699,-0.036023,0.055045,0.063747,0.052973,0.028039,-0.009156,0.008893,-0.112079,0.054951,-0.006905,0.075959,-0.045247,-0.001875,-0.005230,0.036976,0.082140,0.097580,-0.000740,0.037352,-0.025229,0.058468,-0.014114,-0.005976,0.049978,0.040552,-0.027709,-0.004308,-0.019966,0.033253,0.002894,-0.054359,-0.053420,-0.043704,0.031118,0.033095,0.036852,-0.009568,-0.017302,-0.085934,0.083044,0.014165,0.017644,-0.080493,0.035347,0.074069,-0.066408,0.009417,-0.070762,0.009637,0.003482,-0.003839,-0.031402,0.015497,0.032886,-0.082701,0.025771,-0.005975,-0.028565,0.076812,-0.012322,0.090482,-0.010979,0.017699,0.048336,-0.010726,0.018282,0.050902,0.080785,0.009288,0.045734,-0.014411,0.017953,-0.030011,-0.030056,0.036185,0.045670,0.067157,-0.002563,0.063470,-0.041466,-0.115099,0.040489,0.015293,-0.025467,-0.003890,0.097429,-0.049219,-0.063259,-0.054669,0.042571,-0.055480,-0.056174,0.013048,0.061774,0.056015,0.012748,0.076951,0.033178,-0.028100,0.025231,0.053010,-0.061749,-0.092544,-0.047843,0.014703,-0.003285,-0.100725,-0.062122,-0.023014,-0.058085,-0.051054,-0.047118,-0.067061,0.035058,0.003900,0.073165,0.007339,-0.042604,-0.087438,-0.010695,0.079544,0.065739,0.035274,-0.073627,0.020891,-0.085783,0.067979,0.029831,0.027266,-0.049655,-0.021418,-0.053642,-0.075535,0.005378,-0.000957,-0.007721,0.022992,-0.007350,0.008447,0.066766,0.022503,0.029703,-0.030333,0.050251,0.025432,0.106106,0.051884,0.016673,-0.115865,0.000406,-0.042317,-0.006321,-0.046934,0.031752,-0.025637,0.003118,0.023343,0.007455,0.026082,-0.002276,0.043695,-0.122544,0.031171,0.040092,-0.074430,0.010338,-0.041768,0.027569,0.001067,-0.001973,-0.016281,-0.079358,-0.006520,-0.058267,-0.107958,-0.145107,0.042073,-0.048916,0.004181,0.015692,0.030303,0.017056,-0.012750,0.184075,0.071676,0.042802,-0.055301,0.001302,-0.035993,-0.045453,-0.040416,-0.046081,-0.045812,0.038370,-0.061275,-0.102907,-0.030758,-0.036529,-0.033538,-0.043224,0.075772,0.082089,0.021779,0.002312,0.008928,0.039668,-0.062848,-0.009335,0.052392,0.002717,0.030609,-0.044382,-0.048572,0.037644,0.022655,0.053045,0.044043,-0.032923,0.042865,-0.016627,-0.020025,-0.059150,-0.025717
0.057457,-0.001056,0.002820,-0.010674,0.004305,0.146262,-0.125647,0.017447,0.020406,0.011872,0.004858,-0.097301,-0.006094,-0.066429,0.040147,-0.025614,0.094140,-0.058147,-0.055830,0.046690,-0.002693,-0.061799,-0.081889,0.013553,0.138394,0.086968,0.000210,0.024363,-0.014318,-0.041308,-0.041880,-0.024795,0.021614,0.037225,-0.128130,-0.008625,0.050806,0.080896,-0.032556,-0.042113,0.045093,-0.012106,0.054800,0.089289,0.004044,-0.025933,0.067219,0.038931,-0.031172,0.043188,0.009771,0.020893,-0.026554,0.012129,0.032549,-0.035550,-0.043042,0.035725,-0.057099,0.068462,0.047220,0.067551,-0.021217,-0.042634,-0.032932,-0.023754,-0.039674,-0.006173,-0.010084,-0.015149,-0.066211,0.061839,-0.043983,-0.084283,0.147405,0.003483,-0.024683,-0.073343,0.050162,0.035251,-0.044950,0.039428,-0.023158,-0.090539,-0.002113,0.138197,0.069369,0.050497,0.040938,0.005632,0.009556,0.132639,-0.009164,-0.047786,-0.031192,-0.051910,-0.061283,-0.088057,-0.000865,-0.003274,0.020694,-0.048984,0.011026,-0.003145,0.083692,-0.002647,-0.010708,-0.024237,0.018067,0.092418,-0.014341,-0.055141,-0.026290,-0.008548,0.025755,-0.012284,-0.008444,0.020596,-0.052274,-0.035594,0.046199,0.026974,0.046143,-0.012169,-0.074745,0.013520,0.015108,-0.040139,0.067018,-0.027891,-0.018159,-0.030648,-0.020658,0.058107,0.069986,0.060521,0.051134,0.025794,-0.111968,0.004407,0.089434,0.013427,0.002806,0.023931,0.011451,-0.042589,0.002435,0.109798,-0.031126,0.092095,0.030282,-0.063906,-0.028968,-0.022455,-0.044909,-0.039488,-0.000140,-0.069648,-0.021513,-0.014640,-0.079285,0.060207,-0.003008,-0.076117,0.045781,0.014853,-0.043950,-0.093990,-0.033105,-0.029280,0.000959,-0.053655,-0.067582,-0.006796,0.125974,-0.126987,-0.052891,0.083488,0.002151,-0.048408,0.072555,0.052186,-0.050152,0.074243,-0.002557,0.077488,0.040279,-0.013161,0.039172,-0.036633,0.010000,0.009531,0.049645,-0.016868,0.065021,0.035014,0.003583,-0.075767,0.009620,0.041317,-0.004861,-0.066662,0.039203,0.116157,0.013695,-0.062978,0.058133,-0.072168,-0.011688,-0.016602,0.045075,-0.060746,0.063102,0.068893,0.092263,-0.028683,0.054947,-0.058989,-0.015386,-0.001998,0.035369,0.033159,-0.086027,0.004529,-0.049207,0.007691,0.050225,-0.088122,-0.000566,-0.045955,-0.029093,-0.002210,-0.010193,0.043585,-0.010384,0.012090,-0.065831,0.015525,0.001618,0.028379,-0.000157,-0.008668,-0.104765,0.066409,0.020406,0.065699,-0.037618,0.068246,-0.008004,0.005585,0.007167,0.015753,-0.100366,-0.036355,-0.129720,0.015578,0.107419,0.006551,-0.030836,0.011763,-0.029678,-0.035727,0.107036,-0.016712,0.002946,-0.007692,-0.004228,-0.013793,-0.055906,0.017148,0.030306,-0.023492,0.100421,0.038062,0.055441,0.042839,-0.044739,-0.023198,-0.016616,-0.020925,-0.078617,0.034256,-0.022553,-0.006498,-0.036259,-0.001576,0.110368,0.023704,0.033928,-0.014901,-0.034410,0.015135,-0.067143,-0.078647,-0.014752,-0.018564,0.051981,0.029665,0.014952,-0.036241,-0.063607,0.001457,0.040699,-0.076931,-0.029643,-0.006100,-0.034051,0.092764,0.016318,0.031661,-0.015504,-0.007363,0.135445,0.042717,-0.007519,-0.045079,-0.005420,-0.055430,-0.029793,0.093816,-0.011388,0.048328,-0.035859,0.005403,0.054851,-0.026051,0.020372,0.045558,0.018181,-0.036989,0.005403,0.055807,0.029146,-0.062114,0.013422,-0.011779,-0.012545,0.060410,0.059936,0.011638,-0.030755,0.029738,-0.033293,-0.005773,0.006569,-0.001246,-0.007781,0.019155,0.095808,0.090524,0.004717,0.069040,-0.011999,-0.050641,-0.051583,-0.075036,0.045397,0.069082,0.007141,-0.020612,0.037340,-0.032959,-0.019627,-0.044212,-0.014746,-0.019188,-0.060601,0.040081,0.087970,0.007200,0.057776,-0.032276,0.020265,-0.005269,-0.036026,-0.015995,0.025515,-0.087823,0.060539,-0.002501,-0.029750,-0.021680,-0.007536,0.073134
-0.001087,-0.060530,-0.051980,-0.092773,0.006759,-0.055961,0.217655,0.034450,-0.026882,-0.019330,0.013108,-0.011164,-0.052349,0.048329,0.043702,0.021374,-0.011813,-0.053699,0.012276,-0.010740,0.013409,-0.011985,0.010460,-0.005614,-0.078682,-0.017187,-0.078299,0.055678,-0.071207,0.024002,0.072764,0.083557,-0.004818,-0.011740,0.001014,-0.056282,-0.023248,0.052908,-0.003990,-0.095895,-0.039370,0.001075,0.000611,-0.087350,0.002252,-0.056031,0.059988,0.003424,0.036469,-0.048393,-0.076873,-0.004909,-0.008319,0.006859,-0.020019,0.000404,-0.034392,0.035578,0.013542,0.005463,-0.070163,0.045567,0.037577,0.036761,-0.019708,0.002053,0.075954,0.033933,-0.008336,0.046952,-0.039239,0.009858,-0.012445,-0.002529,-0.092661,0.038066,0.071119,0.020020,-0.027110,0.016794,0.024451,0.010296,-0.009956,-0.015916,-0.009298,0.047963,0.013510,0.110928,0.061774,0.015623,-0.056285,0.021548,-0.009835,0.040113,-0.053055,0.026524,-0.005158,-0.042296,-0.054872,0.051181,0.016653,-0.011832,-0.005544,0.022067,-0.063034,-0.005038,-0.046026,-0.016630,0.025407,0.019386,0.105396,0.083232,-0.027975,0.100137,-0.064038,-0.004041,0.046196,0.100400,-0.040865,-0.072959,0.015907,0.071143,-0.028022,0.069837,0.131866,-0.029783,0.064577,0.052280,-0.115773,-0.055227,-0.000262,-0.035292,0.121220,-0.036260,0.007520,-0.078950,-0.017506,-0.077011,-0.011051,-0.080298,-0.010118,-0.023473,0.066279,-0.002966,0.067207,-0.021053,0.044437,0.025810,0.059638,0.036389,-0.009752,-0.092681,-0.003469,-0.007264,0.022513,-0.021291,0.091728,0.056482,0.033823,-0.063261,0.048928,-0.021818,0.037626,-0.059739,0.089196,-0.071161,-0.048319,0.030201,0.017688,0.033607,0.065955,0.003354,-0.062729,0.057516,0.034839,-0.003316,-0.089059,-0.001998,0.037388,-0.099753,-0.034172,0.075215,-0.002568,0.061906,0.094825,-0.035364,-0.060079,-0.034205,0.018945,-0.036298,-0.012493,0.092839,-0.042852,-0.049802,0.009024,-0.025096,-0.034466,-0.078488,-0.010837,0.072241,-0.053577,-0.076955,-0.068133,-0.011313,-0.037879,-0.035361,-0.016992,-0.095759,0.034253,-0.022158,-0.005331,0.041878,0.035708,0.023080,0.069439,0.046992,-0.032046,0.090835,0.065965,0.039474,-0.061821,0.014364,-0.010123,0.120607,0.084612,-0.021480,-0.010293,0.033769,0.034828,-0.005465,0.028412,0.029578,-0.033844,0.013201,-0.138963,-0.027279,-0.032898,0.078136,-0.017492,-0.016944,0.081100,0.029586,0.077033,-0.022564,-0.040139,0.024260,0.062265,0.039018,-0.007242,-0.019573,0.010373,-0.005170,-0.058164,0.062686,0.047914,-0.023482,-0.030648,0.049025,-0.071126,0.008754,0.025178,-0.066143,0.058477,-0.004066,-0.016205,0.000488,-0.002309,-0.059897,0.040088,0.029876,0.016111,-0.005625,-0.006139,0.134422,0.042828,-0.056612,0.016835,-0.015744,-0.046425,-0.034447,-0.085441,-0.094030,-0.010801,0.019833,0.095091,0.078910,-0.036200,0.031003,-0.017847,-0.010565,0.060454,0.094082,0.010685,-0.053728,-0.011683,-0.048034,0.011205,0.064846,0.069292,-0.065594,-0.027102,0.035686,-0.040319,-0.075333,0.083254,-0.002202,0.020448,-0.014639,-0.059538,-0.047140,-0.016182,0.074685,0.004024,0.108738,-0.044853,-0.015891,0.007150,-0.051234,0.019270,0.024105,0.010027,0.007407,-0.067622,0.088074,-0.021778,0.026243,0.022028,0.043486,0.043576,0.009486,0.020992,0.066844,0.092023,-0.038573,0.023075,0.125484,-0.034150,0.000288,0.100723,0.032445,-0.036148,0.055874,-0.016689,-0.056036,-0.000831,-0.058385,-0.002967,0.106491,0.016128,-0.026676,-0.010569,0.013972,-0.055045,-0.086664,-0.032834,-0.037733,0.008960,-0.005560,-0.054329,-0.026740,0.029273,0.059765,0.134941,0.031248,0.010665,-0.054252,-0.021402,0.031861,0.025318,0.039619,0.044412,0.021019,0.012139,0.012571,-0.028975,-0.093149,0.033956,0.062633,0.044546,-0.006413,-0.047023,0.024102,0.000672,-0.006600
-0.093175,0.019165,0.018975,0.100142,-0.056021,-0.113841,0.038034,-0.055640,0.045858,0.024335,0.041265,0.025716,0.060487,0.044722,0.049625,0.053443,0.008658,0.015658,0.018237,0.001423,0.079802,-0.007940,-0.101614,-0.023196,-0.016882,0.009172,0.031930,0.020893,-0.039510,0.038029,-0.054248,-0.015983,0.003275,0.056111,-0.071227,-0.010232,0.049444,0.040059,-0.062496,-0.023189,0.025976,0.128634,-0.008842,0.118764,-0.083569,0.003302,-0.061394,-0.031265,-0.080369,-0.012339,0.014326,-0.042839,0.059371,-0.035405,-0.000509,-0.028081,-0.046709,0.003636,0.010765,-0.034390,-0.033878,0.026028,0.049429,-0.073166,0.009780,0.020977,-0.030858,-0.015027,0.058060,-0.026165,0.073163,0.010063,0.017048,0.084777,0.001940,0.025274,-0.030246,0.005266,-0.026600,0.053443,-0.008342,-0.011713,-0.033487,-0.003926,0.027732,-0.049462,-0.107256,-0.012395,0.002747,0.024880,0.021923,0.050467,0.002339,-0.091521,-0.002346,0.023671,-0.014057,-0.041898,-0.028119,0.037877,0.043751,-0.076982,-0.070676,0.107775,0.037257,0.025073,0.095666,-0.006630,0.036002,-0.026199,0.018463,-0.004983,0.024116,-0.012475,-0.064789,0.161466,-0.000701,0.055879,-0.000963,0.013754,0.014043,0.000492,0.096824,0.142816,-0.055061,0.037147,0.025776,-0.024884,0.040650,-0.003420,-0.018898,-0.064407,-0.088474,-0.056438,-0.002628,0.128171,-0.011405,0.043732,0.030976,-0.007580,-0.040639,0.011433,-0.108531,-0.098104,0.010429,-0.003214,-0.073439,0.039584,0.005339,0.014338,0.002538,0.001669,0.031426,-0.029662,-0.065115,-0.050975,0.021912,-0.002059,-0.090316,0.036263,-0.037298,-0.085595,-0.021226,0.003123,-0.064078,0.000905,-0.016489,-0.015301,0.020069,0.040594,0.113016,0.008154,-0.053129,0.078671,0.033741,-0.034438,0.066978,0.007363,0.046322,0.027978,-0.007991,0.001225,0.001011,-0.014938,0.016349,0.036403,0.037099,-0.001869,0.015364,0.058301,-0.000534,0.082517,0.059223,0.034238,-0.046374,0.069904,-0.013566,-0.048602,0.051970,0.069391,0.000486,0.009561,-0.007680,-0.005926,-0.021745,-0.039730,0.022177,-0.049489,0.038998,-0.008582,-0.003941,0.013103,0.055602,-0.046418,-0.001021,-0.029750,0.006904,0.058051,-0.057687,-0.008186,0.004777,0.032888,0.117578,-0.011982,0.021814,0.007942,0.005618,-0.055669,0.042430,0.022787,-0.056185,-0.119955,-0.009992,-0.011732,-0.034280,0.002760,-0.028246,-0.032491,0.038891,0.053769,-0.095216,0.049449,-0.099377,-0.019021,0.017556,0.013532,0.006625,-0.018207,0.015400,-0.013849,-0.022734,0.073134,0.091467,0.087635,0.093548,-0.024001,0.081317,0.029006,0.063454,0.048242,-0.013856,-0.024092,-0.049770,-0.031012,-0.069295,0.015833,-0.007146,-0.075664,-0.089306,0.006261,0.061068,-0.031900,-0.001017,0.036407,-0.045417,0.011355,-0.017017,0.045232,-0.075696,0.040233,0.086610,-0.016528,-0.023973,0.003091,0.095054,-0.061595,0.083498,-0.005974,0.049994,0.029246,-0.011840,-0.026823,0.047704,0.006799,0.012728,-0.117670,-0.023282,0.074502,0.028859,-0.003225,0.100129,-0.023572,0.010168,-0.009578,0.000194,0.056851,0.009429,0.103834,-0.026326,-0.010670,0.054894,-0.045947,0.037720,-0.032931,-0.004759,-0.006292,-0.010031,0.044275,-0.108856,0.000558,-0.035654,-0.019633,0.042737,-0.035839,-0.039456,-0.070204,0.003217,0.047660,-0.070645,-0.043911,-0.026769,0.024087,-0.026902,0.066822,-0.023947,-0.085405,-0.066376,-0.033885,0.112295,-0.010036,-0.039743,-0.021364,-0.009957,0.044342,0.036884,-0.010438,0.040274,-0.015194,-0.058973,0.007901,-0.121179,-0.051229,0.031370,0.128191,-0.063947,-0.120713,0.033708,0.003715,-0.023511,-0.047570,-0.029270,0.059801,-0.085651,-0.030739,0.039149,-0.028346,0.014904,-0.085369,0.001209,0.011386,0.016106,0.072955,0.028783,0.110624,0.029266,-0.022376,-0.067316,-0.064546,0.117857,0.013392,0.076850,0.076375,-0.032676,-0.052248
-0.085276,-0.038637,-0.016180,0.066848,0.108793,-0.031116,-0.021793,0.035386,-0.069955,0.047718,0.160276,0.012885,-0.053336,-0.051996,0.008803,0.030689,-0.006835,0.023788,-0.051071,0.063113,-0.014103,0.025323,-0.030064,-0.023791,-0.010572,-0.087636,-0.030112,0.005628,0.009071,-0.012010,-0.026615,-0.005425,-0.094330,0.008130,0.055535,-0.035581,0.064491,0.078886,0.041052,-0.108096,0.060319,0.037177,0.003944,0.023881,-0.016644,-0.007650,-0.060561,-0.044154,0.012743,0.062477,0.012408,-0.000110,0.007089,-0.024496,-0.007684,0.084442,-0.098309,-0.047526,0.111117,-0.038120,-0.021059,0.034609,0.050116,0.094684,-0.009050,-0.054818,-0.027607,-0.052035,0.017255,-0.058326,0.076606,-0.042715,-0.016969,-0.113048,-0.022503,-0.014824,-0.042141,-0.013741,0.069493,0.086607,0.042784,-0.033498,-0.013259,-0.055922,0.046993,0.034192,-0.033578,0.040713,0.072389,0.021830,0.052159,0.134407,0.029075,0.049422,0.034137,-0.005221,-0.002012,0.087122,-0.025974,0.105749,-0.012879,-0.011178,-0.007458,0.040625,0.044556,0.045196,0.008748,0.033536,-0.053912,0.004726,-0.023819,-0.018967,-0.068891,0.026640,0.082947,0.066614,0.044849,0.046550,-0.017905,0.067555,-0.081002,-0.019813,-0.017205,0.031583,0.119700,0.072410,-0.025084,-0.015951,-0.043898,0.006013,0.086529,0.004721,-0.004439,-0.009710,0.025943,0.014015,0.035063,-0.047054,-0.015475,-0.000418,0.106490,0.024117,0.011871,0.011599,-0.042487,-0.034304,-0.112419,-0.063501,-0.009879,-0.049981,0.009264,-0.103625,-0.005172,-0.076219,0.018330,0.017219,0.020391,0.141419,0.056617,-0.030803,-0.070774,0.019743,0.105914,0.044767,-0.060268,0.022640,0.003874,-0.005214,-0.045840,-0.054905,-0.025020,0.004558,-0.080462,0.037034,-0.010300,-0.061124,0.039133,0.049736,0.005140,-0.025034,0.055108,-0.022261,0.059469,0.015724,0.089821,0.049699,-0.020168,-0.001537,-0.012864,-0.042921,0.038206,0.019190,0.020655,0.048884,0.048631,-0.112595,-0.041173,-0.033379,-0.018599,0.068290,-0.036777,0.010439,0.023360,0.059358,-0.023876,-0.004712,0.017306,-0.075877,0.042891,-0.079843,-0.038468,-0.042809,0.042717,0.006206,-0.080253,0.008491,0.005301,0.026949,-0.059721,-0.014535,-0.135482,0.003332,0.040838,-0.017307,-0.051534,0.031189,-0.064870,-0.015447,0.059644,0.036584,0.029190,-0.069347,0.006006,-0.022984,0.032829,0.095995,-0.005065,0.020451,-0.008623,0.081286,0.015887,-0.000610,-0.015405,-0.090416,0.044223,-0.007051,0.043666,0.052801,-0.009611,-0.057046,0.009838,-0.064758,0.007389,-0.092681,-0.001212,-0.067856,-0.069816,0.024792,-0.059508,0.063293,-0.092899,0.041558,-0.023907,0.014850,-0.085803,0.039859,0.000184,0.063615,0.091498,-0.064404,-0.003057,-0.030449,0.002970,0.081388,0.100295,0.007982,-0.010161,-0.029503,0.041039,0.017675,-0.044607,-0.000055,0.059574,-0.017852,0.007892,-0.013370,-0.026817,0.007554,-0.030631,-0.057185,-0.077476,-0.034614,-0.049298,0.000595,-0.177584,0.044939,-0.022657,-0.006746,-0.004471,-0.026541,0.075446,-0.002336,0.096884,-0.120347,-0.032166,-0.018447,-0.047180,0.039521,0.056134,0.033134,0.000648,-0.031523,0.068916,0.024438,-0.092626,-0.092531,-0.007850,-0.033935,0.012553,-0.065956,-0.038925,-0.011327,-0.108947,0.025702,0.023888,0.134215,-0.056502,-0.068720,-0.046299,-0.028697,0.073658,-0.031783,-0.003776,0.072619,0.074094,-0.136301,-0.089724,-0.002727,0.084930,-0.017714,-0.098926,0.021286,0.037316,0.046623,0.060556,0.042811,0.030268,0.018665,-0.004818,0.044455,0.097770,0.010956,0.083107,-0.029527,-0.087587,-0.021020,0.046521,-0.015374,-0.027675,-0.021486,0.071084,0.061968,0.094085,-0.074222,0.071645,-0.064631,0.060208,-0.067232,-0.012504,-0.031702,-0.028227,-0.068659,0.045478,-0.012660,-0.020390,0.056529,0.093213,0.023193,0.058852,-0.003531,-0.004244,0.053673,0.017315,-0.027116
-0.010187,0.092391,-0.019572,0.051111,-0.009062,-0.070662,0.011925,0.012052,0.042743,0.032677,-0.104534,0.011732,0.012363,-0.021266,-0.123363,0.059654,-0.048155,-0.012844,0.058443,-0.018777,0.033193,-0.034658,-0.008693,0.053687,-0.017832,-0.053220,0.044596,-0.027820,-0.040397,-0.004721,0.055123,-0.039183,-0.140455,0.063258,-0.011951,0.040565,0.035141,0.006802,0.020521,0.108045,-0.037299,-0.007271,-0.032525,0.051491,0.014866,0.026914,-0.014262,0.014659,0.067598,-0.033479,0.004024,-0.050109,-0.036478,-0.038456,0.030236,0.039159,-0.003143,-0.048375,-0.066521,-0.057247,0.042246,0.031419,-0.078575,0.050494,-0.036153,0.023651,0.016016,-0.051473,-0.002066,0.152490,-0.012077,0.038818,-0.002174,-0.023281,-0.137791,0.057694,-0.004254,0.025787,0.020698,0.006718,-0.027880,0.009942,-0.043978,-0.025250,-0.010504,-0.023778,0.004880,-0.076497,-0.010917,-0.121601,-0.010095,0.038342,0.018280,0.030094,0.106275,0.027348,-0.031630,0.059496,-0.014137,-0.034109,0.038208,-0.050062,-0.050418,0.039802,-0.025385,0.009724,0.018077,0.000091,-0.037431,0.026177,0.058141,0.026953,-0.011533,0.047152,-0.021284,0.095133,-0.000711,0.115222,-0.021642,-0.032683,0.095063,-0.021787,0.051429,-0.038409,0.017293,0.072945,-0.034940,-0.050369,0.126283,0.040861,0.065698,0.025870,-0.046653,-0.043055,0.061655,0.031697,0.046148,0.004563,0.029553,0.026487,-0.003480,-0.047246,0.066694,0.004362,0.019256,-0.051216,-0.042948,-0.015818,-0.017505,-0.092107,-0.024142,0.048691,0.060716,-0.092117,-0.015477,-0.008049,-0.094895,0.062223,-0.012407,0.080388,0.026792,-0.122647,0.043778,-0.017964,0.018923,0.016897,-0.006055,0.018159,0.045686,0.114044,-0.014400,-0.089116,-0.072228,0.041068,0.051799,-0.069690,-0.056654,0.062603,0.056053,0.025325,-0.022108,0.030605,0.031296,0.023880,0.016248,-0.051361,0.034399,-0.007861,-0.057282,-0.027540,-0.032284,0.031221,-0.023289,-0.077363,-0.006782,-0.009044,0.017460,0.006065,0.002398,0.105994,-0.056982,-0.017526,-0.046198,-0.009898,-0.047823,-0.106046,-0.050085,0.105741,0.018120,-0.036308,-0.022425,-0.010635,-0.006966,0.035805,-0.039083,0.055749,-0.043276,-0.045470,-0.010277,-0.055032,0.042662,0.036281,-0.038292,-0.032841,0.020322,-0.076745,0.054290,-0.008594,-0.057460,0.008145,-0.037043,0.088251,-0.072708,-0.018245,-0.020076,0.039443,-0.019966,-0.029951,0.044412,-0.154220,-0.027035,0.032540,-0.031687,-0.040934,0.005097,-0.068448,-0.010361,0.008197,0.025059,0.021501,0.019434,-0.008016,0.085627,-0.023602,0.045811,-0.058525,0.083227,0.026912,-0.074603,0.002911,0.062893,-0.009086,-0.000705,0.060105,0.131758,-0.056052,0.005024,-0.009363,0.077294,0.045609,0.006518,-0.067458,0.000646,-0.086200,-0.014965,0.041814,0.013598,-0.023641,0.061602,0.046578,-0.004743,-0.058642,-0.081628,-0.018711,0.078391,-0.034027,-0.005411,-0.028871,-0.042509,0.044637,0.078431,-0.067483,-0.005781,0.059225,-0.033480,0.054413,-0.011376,0.000977,-0.020068,0.045292,0.092879,0.000908,0.084762,-0.021901,-0.017198,-0.081409,-0.035230,-0.003908,0.029484,0.009734,-0.055854,0.018551,0.074917,-0.058685,0.006459,-0.020342,0.000421,-0.075562,-0.011572,-0.060813,-0.012146,-0.062532,-0.016374,0.047052,0.004264,-0.034153,-0.144167,0.071433,-0.000399,-0.195654,-0.064390,0.000654,-0.030734,0.027431,0.075058,-0.006028,0.006458,-0.091261,0.053283,-0.052667,0.017945,0.015607,0.055361,0.040217,-0.073318,-0.055943,0.083187,-0.088312,-0.023346,-0.025770,0.005969,-0.001833,-0.068959,-0.062725,-0.014748,-0.055987,-0.043067,0.044442,0.087461,-0.021976,0.011549,-0.093403,-0.014381,0.010872,-0.059209,0.147688,-0.025724,0.067302,-0.008050,-0.097825,0.035565,0.027658,-0.020058,0.010342,0.005139,0.018546,-0.029807,0.107727,0.091587,-0.094412,-0.120230,0.035101,-0.036585,0.115844
0.015979,0.049119,-0.035156,0.038939,0.041147,-0.048583,-0.106510,0.069533,-0.073107,-0.020929,0.024244,-0.011272,0.071382,-0.018666,0.034729,-0.010390,-0.039392,0.061621,0.030274,0.033551,0.010181,-0.061707,-0.016529,0.074231,0.001064,-0.049338,0.026570,-0.074883,0.024908,0.061315,-0.029739,-0.054092,0.048307,-0.003766,0.009584,-0.006515,0.066697,0.061286,0.049630,0.117838,0.039497,-0.017724,0.005664,-0.031512,-0.047550,-0.015430,-0.016408,0.096576,-0.000583,0.034750,-0.002779,-0.070096,-0.012346,-0.009598,0.037764,-0.042174,-0.010205,0.021369,0.011082,0.011923,0.081598,0.025442,-0.011417,-0.018511,-0.003600,0.122420,0.031034,-0.103123,0.016009,0.010954,0.052190,-0.027751,0.063492,-0.027190,0.031674,-0.050512,0.003396,-0.060349,-0.028188,-0.005836,-0.018914,0.010648,-0.020639,0.044279,0.061929,0.012546,0.033172,-0.026228,-0.008584,0.017879,-0.123262,-0.046572,-0.011733,0.005441,-0.032671,-0.082705,0.040091,-0.046693,-0.069090,0.025229,0.133703,-0.007046,-0.030713,0.119148,-0.009030,0.129085,-0.036232,-0.039270,-0.042179,-0.020749,-0.028104,-0.035598,-0.003080,0.036339,-0.040063,0.074169,0.046318,-0.075612,-0.064203,-0.034829,-0.112595,0.023220,-0.036740,-0.000572,-0.137648,0.009518,0.041603,0.063400,0.071695,-0.007972,0.008755,-0.011449,-0.025522,0.013773,0.094804,0.042326,0.036409,0.026769,-0.048862,0.000963,-0.044770,-0.066968,0.025437,0.041681,0.026103,-0.048751,-0.017223,0.040062,0.018759,0.014233,-0.037161,0.028477,-0.070411,0.090696,-0.131501,0.023227,-0.056788,-0.109548,-0.009814,-0.032244,-0.008844,0.016121,-0.014958,0.054928,-0.029764,0.050942,-0.012221,0.007374,-0.077110,-0.060157,-0.054401,-0.004962,0.039894,-0.034017,0.015797,-0.079608,-0.041634,0.008227,-0.059701,0.123908,-0.104220,0.011294,-0.011670,-0.004349,-0.024873,0.006230,-0.055822,-0.119731,0.046120,0.008690,0.051461,0.059733,-0.031195,-0.034842,-0.033118,-0.003470,0.094361,0.004853,-0.104907,-0.043552,0.033081,0.046968,-0.035310,0.043707,-0.024758,0.014322,-0.052324,0.114960,-0.034778,-0.028300,0.047512,-0.026720,0.027366,-0.006207,0.019865,-0.009148,0.024219,-0.060412,-0.022534,0.059095,-0.023759,0.000534,-0.011425,0.036404,-0.081889,0.018478,-0.035269,0.032684,0.057523,-0.125410,0.068974,0.000068,-0.061186,0.054242,0.087651,0.024217,0.008719,0.002954,0.052422,0.006265,0.059929,-0.000191,-0.069003,0.056031,0.001534,-0.035309,0.103353,-0.089317,0.036771,0.021492,0.019033,-0.018234,-0.036078,0.014526,-0.043232,0.018586,0.032958,-0.012715,-0.059736,0.070443,-0.004729,-0.072144,-0.059245,-0.004468,-0.012175,0.089708,0.000864,0.002708,-0.100014,0.078454,0.012421,0.039258,-0.050199,0.074732,-0.067523,0.007571,0.012405,-0.019344,-0.093986,0.053697,-0.017040,0.040374,-0.047748,-0.021623,-0.046006,0.002801,-0.051406,-0.015030,0.017842,-0.058202,0.073901,0.025666,-0.049027,-0.042169,-0.091156,0.057157,0.065252,-0.003861,-0.057442,-0.023415,-0.017684,-0.045189,0.063891,0.043309,0.065012,-0.024154,0.027441,0.067558,-0.005071,-0.108457,0.024361,0.047706,-0.001990,0.020287,0.024735,0.035628,0.005220,0.018163,0.051600,-0.046809,0.083297,-0.017584,-0.042183,0.059689,0.121241,0.035465,-0.004372,0.095747,0.038386,-0.011656,-0.012045,-0.044065,-0.022240,-0.001100,-0.106407,0.048797,0.014246,-0.052821,-0.102311,0.030574,-0.007023,-0.010020,-0.018142,-0.007030,0.021327,0.053043,-0.085751,0.065381,-0.022179,-0.048278,-0.091633,-0.043947,0.032324,-0.003634,0.069564,0.023415,0.028353,0.024714,-0.050842,-0.037231,-0.008870,0.015294,-0.022968,0.020200,0.045859,0.071786,-0.023724,-0.010908,0.040987,-0.007563,-0.150764,0.100137,0.005750,0.036806,-0.012947,-0.006351,-0.039638,0.024952,0.005165,0.040451,0.004504,-0.042795,-0.019019,-0.060662
0.003206,0.012766,-0.023352,0.057153,-0.036962,-0.042433,-0.057948,-0.044171,0.015613,-0.038277,0.009157,0.062523,0.095373,-0.022987,0.147312,-0.037923,0.062577,0.076238,0.108592,0.043069,-0.016157,0.003628,-0.107313,-0.010197,-0.065279,0.072129,-0.037688,-0.065532,0.029591,0.065812,-0.076992,0.012999,0.013554,0.011504,0.035993,0.014652,-0.040106,-0.011213,-0.084089,-0.082410,-0.031597,-0.010014,-0.065056,0.016019,0.089950,0.017973,-0.066771,0.035690,-0.030527,-0.087378,0.018112,0.011819,-0.106232,-0.090841,-0.022386,-0.024698,-0.041793,-0.035895,-0.104874,0.069293,0.005841,-0.087273,-0.026592,-0.028305,-0.023693,0.072328,0.026034,0.018762,-0.017755,-0.027731,-0.075784,0.001722,0.049707,-0.024047,0.138597,-0.000263,-0.021665,0.016045,0.070567,0.080817,0.064552,0.118436,-0.026837,0.061375,-0.150199,0.059304,-0.074439,0.060742,0.087133,-0.039937,0.021194,-0.064213,-0.004967,0.119736,-0.035041,-0.068054,-0.017586,-0.108511,-0.036172,-0.088590,0.041686,0.212102,0.064331,-0.067063,0.088436,-0.012309,-0.056706,-0.036296,0.078422,-0.056251,-0.010447,0.053191,0.102213,-0.053132,0.025100,-0.030259,0.006007,-0.043467,0.020787,0.112160,-0.029877,-0.019162,0.028726,0.009066,-0.200144,-0.046709,-0.046120,-0.035604,0.098850,0.006369,-0.046932,-0.018274,0.005442,-0.052412,0.006130,-0.104342,-0.039659,-0.048576,0.051834,-0.048250,-0.036616,-0.056262,0.005872,-0.019066,0.023222,0.000737,-0.022679,-0.039416,0.060957,-0.008533,0.121402,0.017537,0.021646,0.090136,0.040826,-0.086653,0.018313,-0.150792,-0.082943,-0.034494,0.094412,0.044824,0.005524,0.008867,0.004604,0.061703,0.049419,0.000698,-0.127633,0.043622,0.036519,-0.078881,-0.026250,0.026030,0.042525,0.048282,-0.061743,-0.005016,0.060773,-0.051982,0.069933,0.077220,0.059532,-0.008831,0.040191,0.022500,0.036296,0.036084,0.044054,-0.090770,0.012260,0.003628,0.033216,-0.057648,-0.055013,0.105134,0.019233,-0.143264,0.000667,0.013335,0.023455,0.127369,-0.032755,0.132223,0.094899,-0.070340,0.031590,-0.030137,0.069715,-0.056059,-0.010538,0.114734,0.000294,-0.016760,0.088172,0.037387,0.006516,0.034334,-0.025517,-0.005524,-0.066194,-0.000302,0.030685,-0.016678,0.022395,0.055750,-0.021469,-0.043431,-0.026505,-0.017315,-0.009464,0.024948,-0.073369,-0.024616,-0.136034,-0.022507,-0.040814,0.082101,-0.031156,0.016319,-0.054820,0.008408,0.048132,-0.032888,-0.075957,0.033015,0.023495,-0.003551,-0.014115,-0.005108,0.010364,0.014822,-0.006982,0.048606,0.049647,0.014889,0.039713,-0.045788,-0.153269,0.002053,-0.044791,0.003416,0.092405,-0.002200,0.055160,0.010490,0.004940,-0.081135,0.084616,-0.069417,-0.045837,-0.013723,0.070655,-0.015282,-0.085145,-0.024129,-0.019294,0.033419,0.035657,0.125197,-0.014315,0.011304,0.021817,-0.060194,0.057385,0.003028,-0.060009,0.053337,-0.054087,0.127277,0.039343,-0.047243,-0.014378,0.048099,-0.108266,-0.045259,-0.044471,-0.017517,0.074161,-0.061125,0.069712,0.052386,-0.026290,0.023262,0.012121,-0.033373,0.013262,0.058992,-0.053172,-0.009143,0.016848,0.054485,-0.013137,0.068912,0.109208,-0.064856,0.008721,0.064957,0.005782,-0.016361,0.013118,-0.099517,0.038962,0.050503,0.040186,0.042855,0.091130,0.152593,0.055594,0.004679,-0.012764,-0.027692,0.022643,0.010808,-0.000113,0.014328,0.099920,0.006513,-0.003366,-0.024698,0.071766,-0.000902,-0.009056,-0.037476,-0.019153,-0.144802,-0.036394,-0.023359,0.064662,-0.057596,-0.048543,0.044925,-0.047265,-0.119410,-0.064507,0.022494,-0.073464,0.026416,-0.012512,-0.045594,0.125099,-0.012906,0.030299,-0.023887,-0.080036,0.032258,-0.038088,-0.007865,-0.045702,-0.064560,0.019667,-0.005876,-0.047865,-0.025780,-0.015654,-0.062121,0.013621,-0.017838,0.111016,-0.045872,-0.027303,0.061856,0.051244,0.073168
-0.007337,0.037943,0.003003,-0.041324,0.061625,-0.026466,0.087132,0.052045,-0.013372,-0.021537,0.050709,-0.022175,0.112192,-0.009981,-0.086264,0.025716,0.057486,-0.011400,0.028018,0.082654,-0.022972,0.103710,-0.082052,0.006563,0.045005,-0.008456,0.088510,-0.056741,-0.015028,-0.092790,0.054538,0.010780,0.004784,-0.024138,0.060821,-0.030081,0.038097,-0.019905,0.067281,0.037655,-0.032093,-0.049131,0.007173,-0.010936,0.012931,-0.018596,0.015140,-0.010662,-0.049181,-0.053985,0.014108,-0.013173,-0.025905,0.032999,-0.006491,-0.009949,0.016491,0.079117,-0.005461,0.000897,-0.017778,-0.003904,-0.055487,0.034302,-0.021546,-0.053405,0.072284,-0.062594,-0.029574,0.045751,0.129449,0.011293,0.094918,0.061031,-0.066528,-0.047319,0.014279,0.018928,-0.018134,0.042465,0.006494,-0.027839,-0.005301,0.057435,-0.025619,-0.057813,-0.022299,-0.024974,-0.011165,0.032897,-0.002024,0.005989,0.009897,-0.012896,0.102145,0.010100,-0.047196,0.004887,-0.010692,0.029549,0.036047,-0.081049,0.067989,0.031853,-0.066812,-0.033436,-0.051066,0.090156,-0.020826,-0.075517,-0.011584,-0.114897,0.017649,0.012484,-0.045169,-0.004071,0.031953,0.063312,-0.021973,-0.051631,-0.063305,-0.008329,0.065786,0.006507,-0.078443,0.052827,0.012344,-0.018802,-0.034972,0.029085,-0.068952,0.048898,-0.112490,-0.047882,-0.053965,-0.024294,-0.021917,0.025105,0.016528,0.009457,0.019776,0.006838,-0.054472,-0.084371,0.055651,-0.042242,-0.043329,-0.060104,0.131247,-0.041172,0.082056,0.022302,-0.032677,-0.018868,-0.011812,-0.033655,-0.014089,-0.051825,0.018729,0.077706,0.059437,0.005884,0.013302,0.017037,-0.014273,0.040038,0.047187,0.009478,0.004619,0.062271,-0.097930,0.005891,-0.008128,-0.015722,-0.034580,-0.012502,-0.035489,-0.019299,-0.012041,0.067672,0.058526,0.004959,0.051541,0.062211,-0.071648,-0.056949,-0.059630,-0.042538,0.036997,0.035808,-0.027122,-0.072263,-0.054590,0.017165,-0.023445,0.068987,0.027783,-0.036439,-0.033232,0.097286,0.043387,-0.019614,0.014174,0.019482,-0.100327,0.002610,-0.007908,0.073218,-0.036388,0.079408,0.027748,0.018194,-0.067208,0.046827,-0.015069,-0.083658,0.042498,0.009795,0.053252,0.030575,-0.054320,0.001564,0.038477,0.063895,-0.087884,-0.081680,0.016104,-0.044995,-0.038152,0.025040,0.038672,0.026111,0.003019,-0.019020,0.072469,0.133243,-0.045398,0.034952,0.059986,0.032548,-0.054086,0.029751,0.028147,-0.038584,0.037716,-0.023506,0.064349,-0.068884,-0.042112,0.048964,-0.013226,-0.020422,0.038509,0.028749,0.001576,0.016933,-0.043853,0.021555,0.007245,-0.064466,0.116351,-0.020466,-0.075099,-0.011424,0.072408,0.047837,0.003911,-0.047350,0.003432,-0.001086,-0.011239,0.028145,0.026342,0.006604,-0.053254,-0.090441,-0.016793,0.040829,0.111237,-0.097345,0.018394,0.032053,-0.023582,-0.004297,-0.032384,0.097882,-0.044904,-0.018074,-0.032438,0.087831,0.005426,-0.018174,-0.066569,-0.027387,-0.071437,-0.027471,-0.044253,0.010922,-0.024098,-0.004040,-0.035453,0.027706,0.027284,0.066367,0.017423,0.034235,-0.051117,0.044773,0.005082,0.132787,0.002037,0.033587,-0.046974,0.013965,0.048504,-0.016596,-0.005088,0.034522,0.004771,-0.010577,-0.044256,0.060859,0.005287,-0.008323,0.065856,0.044958,-0.022799,0.062250,-0.067304,-0.097477,-0.027280,0.024691,0.002831,-0.024566,0.025383,-0.044576,-0.022169,-0.056359,0.100593,-0.042158,-0.088874,0.045082,-0.021782,0.048808,0.117604,0.040263,0.016712,0.055890,-0.063446,-0.067087,-0.002336,0.095999,-0.033885,0.061042,0.091182,-0.033855,-0.024347,0.035872,0.017249,0.027019,-0.117031,0.076212,-0.010558,0.017802,0.159484,0.062398,0.166218,-0.047301,0.018515,0.050430,-0.003829,-0.042089,0.002909,0.016407,0.011046,-0.005099,0.013280,-0.033174,0.086244,-0.079849,0.028208,-0.040543,0.011522,-0.057194
0.024069,0.006952,-0.055390,-0.053927,0.043336,-0.024591,-0.046966,0.046145,-0.050697,-0.031508,0.000518,-0.066034,-0.015465,0.008919,0.019012,-0.052182,0.064476,-0.062140,0.018914,-0.007396,0.071128,-0.027204,0.067854,-0.051406,0.118178,-0.007179,0.000185,0.009882,-0.046835,-0.014987,0.008816,0.025225,0.088873,0.033118,0.046413,0.052332,-0.075932,-0.020040,0.044398,-0.032123,-0.067702,0.007163,0.033850,0.028074,0.058563,-0.054711,0.075832,-0.008886,-0.020537,0.014328,0.011153,0.003012,0.014282,-0.043696,-0.075821,0.016151,-0.026824,0.076174,0.043726,0.020146,-0.015613,0.027412,0.043852,-0.017403,0.005090,-0.042236,-0.032755,-0.012779,-0.016423,0.017812,-0.032920,0.015387,0.040373,-0.071362,0.065311,-0.027733,0.079669,0.093197,-0.038830,-0.027791,0.008112,-0.033194,0.018630,-0.098702,0.014900,0.008255,-0.011681,-0.010764,-0.014131,-0.052010,-0.002904,-0.033151,-0.007088,-0.113735,0.032558,0.017195,-0.066758,0.190540,-0.047635,-0.094468,-0.003786,-0.145393,0.028328,0.052741,-0.027639,-0.082184,0.026507,-0.071250,-0.045775,-0.083749,-0.062781,-0.041395,-0.042829,0.043040,0.066088,0.031196,-0.081814,0.080225,-0.026622,0.026041,0.010349,-0.058189,0.004513,-0.052136,-0.135875,0.016021,0.062053,0.042349,-0.119475,-0.023401,-0.037723,0.087479,0.130507,-0.014606,0.034560,-0.101830,-0.059320,-0.072942,0.077386,0.014921,0.019000,0.019036,-0.071547,0.005477,0.027048,-0.050452,0.002474,-0.023157,-0.072438,0.003500,-0.030187,-0.022897,0.027180,0.053477,-0.148533,-0.067580,-0.032532,-0.089279,0.063771,-0.006321,-0.020269,-0.019157,0.031710,-0.039588,-0.031945,0.035689,-0.037185,0.002971,-0.018721,0.113745,-0.004160,0.015220,0.033063,0.016704,-0.028396,-0.019126,-0.039570,0.041238,-0.012318,0.065481,0.040069,-0.072945,0.045818,0.066122,-0.071126,-0.031520,0.012884,-0.075984,0.077489,-0.102268,0.076868,-0.002533,-0.038915,0.010999,0.057881,0.052271,0.004590,0.084485,-0.019019,-0.026125,0.007525,-0.015372,-0.016120,-0.010546,-0.010997,0.072430,0.027967,-0.085643,-0.032043,0.040521,0.053312,-0.010222,-0.017600,-0.003455,0.054420,0.019991,-0.009416,-0.024535,0.050294,-0.013686,0.025409,0.018085,-0.003677,-0.026045,-0.073432,0.018755,0.005037,-0.060848,0.028684,0.042494,-0.043494,0.037054,0.136552,-0.001234,0.103223,-0.068652,-0.044912,0.004721,-0.024410,-0.071919,-0.048359,-0.004444,0.007630,-0.062153,0.069246,-0.023961,-0.012976,-0.005485,-0.048523,0.100797,0.091248,-0.024421,-0.024171,-0.001786,0.076617,0.028419,0.039824,0.026406,-0.030407,0.079328,0.050182,-0.036673,-0.041365,0.000241,0.032626,0.087383,0.004533,0.068808,-0.012295,-0.053495,0.091938,0.026649,-0.099059,0.030879,-0.015362,0.031388,-0.018892,0.031911,-0.007088,-0.066073,0.061177,0.010470,0.062553,0.023656,-0.012659,0.058842,0.060745,0.015626,-0.024807,-0.026360,-0.049573,-0.060424,-0.028879,-0.034976,-0.098124,-0.068372,0.000771,0.057632,0.016119,-0.074789,0.020238,-0.049972,0.040761,0.077051,-0.006640,0.026614,-0.008597,-0.006951,0.045041,0.017970,-0.030602,-0.032432,0.000612,0.064496,-0.000306,-0.016285,0.017622,-0.065194,0.004870,0.011523,-0.019463,0.073360,-0.030681,0.001576,0.042835,0.026322,0.030403,0.022609,-0.005932,-0.076844,0.009405,0.008303,-0.065089,0.086601,-0.073835,0.033559,0.007195,-0.007479,-0.004174,-0.060837,-0.057141,-0.030441,-0.084970,0.004351,0.055841,0.021862,0.057080,-0.024396,-0.054557,0.003630,-0.078615,-0.047656,-0.024360,0.002536,-0.017548,0.007908,0.005195,0.071310,0.058824,-0.007128,-0.061749,0.158078,-0.036648,-0.007250,-0.007358,-0.011663,-0.026359,0.061705,-0.031260,-0.000839,-0.005762,0.003936,0.015074,-0.045501,0.010994,-0.059580,-0.014424,-0.018959,-0.023604,-0.014452,0.058905,0.022612,0.058286,0.035762
0.049237,-0.075894,0.076003,-0.067044,0.028567,0.028136,0.012814,0.025016,0.033909,0.038778,0.170619,0.099706,-0.060337,-0.055575,-0.012672,0.009029,-0.020825,0.078366,-0.042934,-0.039739,-0.019282,0.040198,-0.037302,0.009863,-0.052204,-0.048197,0.035783,-0.048277,0.026318,-0.047672,0.061740,0.031051,0.090722,-0.017459,0.019137,0.025508,0.000968,0.049957,0.011250,-0.002964,0.123003,-0.057873,-0.043622,0.064377,0.001033,0.002683,0.051532,-0.030384,0.028546,0.026580,0.048183,0.074391,0.009870,-0.012635,-0.073032,-0.113362,-0.064793,0.043192,-0.034368,0.088526,0.043471,0.020170,-0.048062,0.059297,-0.013970,-0.011510,0.020717,0.051997,-0.003697,-0.068364,0.010425,-0.053991,-0.016797,-0.029134,-0.008770,-0.019047,-0.107692,-0.030767,0.108038,-0.066204,0.042145,0.021967,0.089745,0.040449,0.031457,0.042136,0.008734,0.051530,0.000021,-0.006177,0.020074,0.029172,-0.009347,-0.068336,0.108798,0.027818,0.027800,-0.058796,-0.032273,0.094706,-0.049360,-0.032233,0.082670,0.115660,0.039889,-0.019355,-0.082544,0.007914,0.036997,-0.062522,-0.036200,-0.017199,0.019164,0.009945,0.016077,0.014221,-0.042004,-0.025976,-0.056063,0.049821,0.007987,-0.033081,0.015978,-0.045443,0.065103,0.118960,-0.007338,0.010271,0.087475,0.041204,-0.042996,-0.029105,0.121944,0.034030,-0.032735,0.039895,-0.010309,0.029262,-0.021550,0.004974,-0.058476,-0.012555,0.032702,0.035878,0.001933,0.013436,0.005680,0.002233,-0.071193,-0.002501,-0.003884,0.026133,-0.062665,-0.099336,-0.070485,0.021247,-0.049647,0.031099,0.096351,0.003742,-0.051894,0.036612,0.013909,-0.127712,0.010812,-0.073942,0.026480,-0.009073,0.068226,-0.055570,-0.064528,0.093162,-0.001439,-0.027837,0.047286,0.000501,-0.033152,-0.045118,-0.058065,0.003298,-0.076704,-0.088679,-0.044805,0.068309,-0.013802,0.021464,0.051908,0.014793,-0.018944,-0.016562,-0.061460,-0.024786,0.035417,0.010743,-0.026119,-0.055479,0.019077,0.086206,0.068646,-0.028248,0.016442,0.077568,0.029335,0.053366,0.027504,0.026328,-0.124918,-0.009342,-0.004902,0.065831,0.040416,0.013388,-0.070368,0.025655,-0.059122,0.035787,0.062751,0.031662,-0.045709,0.013768,0.037145,-0.034521,0.072203,-0.029230,0.076005,0.034380,-0.074906,0.072524,0.035365,0.062156,0.080883,0.024672,0.120734,-0.009577,-0.054562,0.018395,0.020416,-0.075537,0.019823,0.028532,0.026207,-0.035141,-0.058249,0.085063,0.124670,-0.000021,-0.025447,0.042055,-0.043339,0.085250,0.050971,-0.056426,0.005172,0.006872,-0.000699,-0.022659,-0.091388,0.012761,-0.008966,-0.016103,0.026501,0.070985,-0.012081,-0.015453,0.084488,0.028692,-0.008301,0.052385,-0.056361,0.005238,0.061398,-0.054996,0.042733,-0.074361,-0.012960,-0.000703,0.040595,0.041269,0.036449,0.084683,-0.050383,-0.036433,0.029289,0.002751,0.010929,0.019136,-0.004532,-0.002863,0.028266,-0.100839,-0.058460,0.022097,0.016776,-0.117857,0.026111,0.024084,-0.021997,0.053728,-0.032694,0.022171,-0.049317,0.001856,0.047613,0.007619,-0.016269,0.015694,0.005341,0.042103,-0.069795,0.031740,0.046655,-0.104057,0.015499,0.069069,-0.038234,-0.047828,0.000416,0.105106,-0.075131,0.035397,-0.013773,0.064284,0.028267,0.025881,0.017152,-0.078327,-0.101927,0.026803,-0.007113,0.100557,-0.007054,0.011693,0.040255,-0.044641,-0.055265,0.085172,-0.072439,0.013687,-0.046415,0.030880,-0.072975,0.026551,-0.036731,-0.100145,-0.067977,-0.034376,0.038933,-0.015545,0.067476,-0.056777,-0.013475,0.013406,-0.038100,-0.015781,0.052940,-0.040650,0.091619,-0.015952,0.068205,-0.026673,-0.140298,-0.055092,-0.013394,-0.100327,-0.079575,0.082216,-0.070141,-0.004755,0.026288,-0.031842,0.008724,-0.027566,0.042912,0.018238,0.055862,0.020229,0.027677,-0.057748,-0.047261,0.011349,-0.086376,-0.049053,0.008212,-0.001910
0.063963,-0.019709,0.015741,0.038837,0.065514,0.005063,-0.049826,-0.005794,-0.136448,-0.015174,0.077815,-0.005549,0.051349,0.019648,-0.001162,-0.018571,0.021781,-0.082142,0.005978,-0.043171,-0.095961,-0.071768,-0.022025,0.031700,-0.080745,0.011107,0.032913,-0.054137,0.104190,0.095167,0.065886,-0.125711,-0.024675,0.044677,0.019166,-0.050946,-0.057629,0.034244,0.044550,0.002515,-0.047373,-0.027529,0.030658,-0.043801,-0.027943,-0.030740,-0.001034,0.052684,0.084776,0.009395,-0.003093,-0.017611,-0.013845,0.055543,0.132484,-0.004585,-0.039689,0.055919,0.079587,-0.041117,-0.014836,0.027364,0.046111,0.061666,-0.020707,-0.036246,0.103085,0.020744,0.016554,0.005614,0.059965,0.016683,0.080489,-0.011362,-0.055256,0.086604,-0.003015,-0.028760,-0.010504,0.061494,0.001200,-0.040984,0.007788,0.029467,0.042320,0.056417,0.054630,0.017054,0.038671,0.011752,0.142081,-0.012446,0.011239,-0.026682,-0.026929,-0.052415,0.155422,-0.061343,0.050253,-0.009665,-0.081867,-0.078519,-0.043776,0.016735,0.005624,-0.001706,-0.094373,0.037327,0.012837,0.005950,0.033414,0.002894,0.033910,0.047485,-0.093540,0.074599,-0.022349,0.027970,0.007297,-0.053986,-0.085890,0.020397,-0.056813,-0.050244,0.015037,0.035934,0.023063,0.021132,-0.034093,-0.068631,0.045580,-0.016876,-0.018471,0.025387,0.076415,0.000909,0.080559,-0.056889,0.026171,0.018747,0.053184,0.094993,0.021469,0.094426,0.023418,0.021601,-0.012824,-0.033133,0.015652,0.065117,0.016699,-0.023912,-0.081418,0.063205,-0.085985,-0.006230,-0.034713,-0.005030,-0.066243,-0.010161,0.022522,-0.026244,-0.045292,-0.039451,0.077545,-0.006999,-0.046791,0.144795,0.032162,-0.000286,0.054416,-0.063450,0.202149,0.009189,0.017959,0.106216,0.014701,0.013576,-0.039414,-0.030537,-0.084744,0.097497,-0.015065,-0.039562,0.032558,0.013088,0.052294,0.051221,0.004680,-0.054538,0.025985,0.005188,0.018833,-0.042798,0.045076,0.012493,-0.026720,-0.019994,-0.076115,0.019129,-0.070420,-0.008372,-0.048874,-0.128828,0.028207,0.010381,0.006361,0.012187,-0.012951,-0.023484,-0.000408,-0.050442,0.007264,-0.087599,-0.016657,0.047877,-0.055942,0.019907,0.019823,-0.081101,-0.036693,0.071797,-0.024568,-0.090272,0.024990,0.041680,0.057521,0.113700,-0.013155,-0.026334,-0.061908,0.037706,-0.028895,0.024167,0.025864,0.015358,-0.006738,-0.061345,0.049408,-0.021825,0.033395,-0.006360,0.040412,0.106340,-0.078443,0.016316,-0.026121,-0.098546,-0.056748,-0.000174,0.005080,-0.023335,-0.077577,-0.020156,-0.014381,0.038863,0.088744,-0.043110,-0.045564,-0.059020,0.022204,-0.027054,-0.088962,0.059446,0.130886,-0.063359,-0.000455,-0.131924,0.008761,0.042179,0.083868,0.071054,0.020716,0.005736,-0.060943,-0.101713,0.086581,-0.054340,0.005856,-0.023002,-0.008003,0.003043,0.029513,-0.011380,0.026039,0.007596,0.002179,-0.045060,-0.072094,-0.098664,-0.009896,0.082270,0.063934,-0.072186,-0.072517,0.018241,0.013695,-0.030095,0.006646,-0.042234,0.026842,-0.059238,0.047492,-0.068225,-0.047404,-0.050683,0.055090,-0.009407,-0.083704,-0.004240,0.026945,-0.015673,0.047661,-0.022035,-0.081300,0.018842,-0.007173,-0.035380,0.036797,-0.002245,-0.006910,0.021030,-0.009347,-0.053398,-0.013115,-0.065168,0.005455,-0.024622,0.065024,-0.057522,-0.049952,-0.018829,0.006961,-0.030357,-0.038155,0.038391,-0.010121,0.010987,0.002936,0.021699,-0.026017,0.046967,0.009435,0.024570,-0.016619,-0.007011,0.035099,-0.024262,0.031513,-0.089715,0.007579,0.065076,-0.058408,0.033926,-0.096916,0.013590,0.101550,-0.098174,-0.023675,-0.011173,-0.036374,0.003100,-0.051471,-0.015280,-0.023598,0.071354,-0.083473,0.031589,0.081118,0.042048,0.067615,0.090244,-0.024288,0.048317,-0.091798,0.006579,0.022610,0.031031,-0.007197,0.098779,0.030020,-0.032430,-0.009115,-0.041554
0.000908,-0.032676,0.027353,0.059864,-0.000551,0.046127,0.143823,-0.006109,0.029101,0.022647,0.101733,-0.022941,-0.021734,0.032609,-0.024771,-0.007809,0.030033,0.010150,0.040964,0.091331,-0.009085,-0.032131,0.011187,-0.019908,-0.073798,-0.006803,-0.032777,-0.018449,-0.077786,0.060109,-0.012985,0.069995,-0.035658,0.018101,0.019190,-0.073255,0.084408,0.025681,0.064585,-0.042077,0.007556,0.103161,0.009640,-0.006529,-0.041971,-0.076282,-0.056949,0.078473,0.021911,-0.067442,-0.030681,-0.047697,-0.055148,0.011378,-0.075567,0.072022,-0.022377,0.005488,0.009030,-0.005098,-0.036622,0.011630,-0.017766,0.014194,-0.051495,-0.015806,0.045627,0.073590,0.048205,0.003738,-0.033536,-0.026225,0.039053,-0.092900,-0.083604,0.058780,0.000877,-0.097108,0.013810,0.058270,-0.050129,0.085793,0.035340,-0.031792,-0.062710,0.029826,-0.039157,0.012816,0.071714,0.035375,-0.143270,0.047179,0.016703,0.011205,-0.151912,0.028896,0.091199,0.018173,-0.087098,-0.021199,0.022688,0.126074,-0.043982,-0.076758,0.072853,0.021706,0.072486,0.016708,0.007744,0.011625,-0.025263,0.074408,-0.028007,-0.001060,-0.008742,-0.078855,-0.003808,0.023786,0.006368,-0.004320,-0.012205,0.037105,-0.032576,-0.040368,0.001782,-0.046758,0.019208,-0.004120,-0.002357,0.046376,0.081464,0.088381,-0.002181,-0.055021,0.035562,0.009399,0.080143,0.027325,-0.011726,-0.050625,0.046562,-0.047926,0.029567,-0.029870,0.024536,-0.007276,-0.008155,0.066548,-0.046171,-0.015856,0.021729,0.026691,-0.037269,0.088215,0.010556,0.042647,0.019701,0.011100,0.006146,0.021019,0.043806,-0.040968,0.027784,-0.015212,-0.004024,0.005207,-0.043960,0.058732,0.055854,0.019346,-0.028191,-0.026865,-0.024577,0.044736,0.032718,0.073027,-0.033290,0.057877,-0.060767,-0.019248,-0.108635,0.153881,0.018390,-0.034089,0.092278,0.078401,0.031864,-0.022832,-0.007952,-0.053454,0.013228,-0.037292,0.026860,-0.042696,0.016560,0.032192,0.003414,0.110008,0.024816,-0.023908,-0.024481,-0.023651,0.018668,0.105458,-0.033863,-0.065105,-0.060980,0.054465,-0.008950,-0.080249,-0.061868,-0.069126,0.048773,0.006182,0.053666,-0.023404,0.074891,0.001782,-0.020782,-0.029992,-0.033807,0.010647,-0.000641,-0.001082,0.040218,0.066793,0.012410,-0.025591,0.096896,-0.038677,0.015371,0.002660,-0.034489,-0.014063,-0.029126,0.061385,0.051223,-0.023897,0.017742,-0.101168,-0.025160,0.007995,0.000138,-0.075343,0.019611,0.011396,-0.008992,0.002496,-0.067691,-0.014077,0.014901,0.140909,-0.054867,-0.018789,-0.102598,-0.018113,0.094975,0.006331,-0.037571,0.076881,0.048385,0.048881,0.059194,-0.014555,0.034402,-0.034155,-0.000487,-0.035982,0.000664,0.002910,-0.003981,-0.043600,0.017532,0.013547,-0.078351,-0.094292,0.049992,-0.052118,0.032616,-0.077009,0.004223,0.010020,-0.033063,0.021577,-0.083739,0.041658,0.141905,0.017829,-0.089960,0.024923,-0.037485,-0.030539,-0.005219,0.033137,-0.100154,0.005913,-0.062006,-0.065951,-0.018651,0.035220,0.002782,0.004404,-0.015393,-0.055748,0.092031,-0.044653,0.088428,-0.029348,-0.079247,-0.086858,0.090390,0.003673,-0.034061,-0.085472,-0.042927,0.019079,0.000922,0.062511,-0.076222,0.020044,0.032569,-0.053590,0.015854,0.014809,0.096542,0.107431,-0.003322,0.071912,-0.016181,-0.045813,0.062906,0.007417,-0.031106,-0.004270,0.066973,-0.063176,0.140383,0.005230,0.068639,-0.023385,-0.042205,-0.049986,0.006952,0.015281,-0.098222,0.031471,-0.042400,0.013454,0.036631,0.067956,-0.067568,0.084261,0.057533,-0.030817,-0.022694,0.089240,0.060498,-0.007452,-0.055554,0.017363,0.002670,-0.035032,-0.003961,-0.078336,0.017644,-0.028881,0.012988,0.044008,-0.008237,-0.035106,0.016673,0.012159,0.064172,-0.009445,-0.097986,-0.018127,-0.009193,0.006610,0.040198,0.035211,0.044868,0.015966,-0.065611,-0.026079
-0.006575,0.007871,0.063156,-0.028595,0.000755,0.070824,-0.069177,0.053924,-0.074989,0.036813,0.055012,0.029818,0.060733,0.078795,-0.042480,-0.071616,0.016630,-0.001502,-0.092112,0.105260,0.045270,-0.021184,0.001716,0.097675,0.059003,-0.030774,0.004072,-0.019463,-0.049809,-0.002469,0.010833,-0.000931,-0.046541,-0.071873,0.026710,0.008249,-0.062360,0.008946,0.028704,0.018426,-0.001843,0.066243,-0.011355,0.046385,-0.097033,0.009919,-0.039402,-0.041393,-0.035687,-0.031571,-0.032215,0.019613,0.028683,0.032059,-0.013866,0.042457,0.083717,0.090175,0.010294,0.065369,0.001397,-0.095392,-0.015882,-0.037267,-0.074703,-0.028038,-0.094594,-0.042299,-0.020421,-0.054442,-0.040880,-0.032276,-0.040970,0.060698,0.100989,-0.038658,-0.048224,0.026844,0.037484,-0.001876,0.119982,0.036553,-0.047587,0.018975,0.002187,-0.007287,0.056311,0.014430,0.069471,-0.032893,-0.006202,0.097884,0.004680,0.084864,-0.033463,-0.002818,0.033431,0.066413,-0.005576,-0.034769,-0.015204,-0.075298,0.037440,-0.013433,0.043427,-0.061947,-0.030185,0.076952,0.062710,-0.033202,0.009187,-0.076178,0.120797,-0.065479,0.020550,0.014179,0.129903,0.030893,-0.012900,-0.097730,0.022926,-0.040879,0.029614,0.014998,-0.023203,0.037952,-0.069314,0.055448,0.035184,-0.051009,-0.038714,-0.002777,0.016757,0.002834,0.036908,0.015459,0.049305,0.046986,-0.066717,0.105984,-0.026001,0.066224,-0.033683,0.008288,-0.034154,0.129576,-0.025114,-0.024750,0.013028,0.078615,-0.021625,-0.042074,0.013597,0.000889,0.004370,-0.038554,0.010394,-0.079140,0.039950,-0.049745,0.106746,-0.083167,-0.019381,-0.059635,-0.042139,0.059250,-0.008981,-0.027310,-0.031893,-0.049151,0.063152,0.012369,0.024860,0.116097,0.037309,-0.030660,-0.053072,0.062121,0.056373,0.009599,-0.023204,-0.081427,-0.110841,-0.078583,-0.000845,0.004391,-0.130992,-0.002133,0.006750,-0.058131,-0.008325,-0.033201,-0.025102,-0.086046,0.048991,0.017042,0.015792,-0.034142,0.037889,-0.026912,-0.004763,0.032141,0.002210,0.023685,-0.061288,-0.042155,0.113318,0.070678,-0.012265,0.040446,0.044387,-0.044494,0.021836,0.033141,0.053278,-0.050130,-0.020226,-0.015058,-0.027971,0.109173,-0.031710,-0.006541,0.016852,-0.005974,0.014728,0.005339,-0.011942,-0.009842,-0.025963,-0.060742,0.006452,-0.100922,0.071186,0.018834,-0.065734,-0.068581,-0.070247,-0.005871,-0.012714,-0.105900,0.074561,-0.035419,-0.052347,0.127203,-0.078452,-0.004863,-0.024967,0.119113,0.078237,0.058279,0.055318,-0.098272,-0.172812,-0.027993,-0.041444,-0.038646,0.068221,-0.018583,-0.045867,-0.080426,-0.077637,0.082865,0.037244,0.054624,0.124175,-0.122717,0.002836,-0.031974,0.039593,-0.012004,-0.020402,0.053302,0.088615,-0.024468,-0.036231,-0.029088,0.053021,0.020312,0.077269,-0.047271,-0.007626,0.024832,-0.172507,-0.075915,0.028912,0.010674,0.014607,0.069247,-0.004196,0.142696,0.011831,0.047168,0.060160,-0.118252,0.005556,-0.036391,0.054984,-0.004672,0.019806,-0.044122,-0.010707,-0.016125,-0.006195,-0.083831,-0.027818,0.084695,0.081663,-0.134256,0.031583,-0.049300,0.001565,-0.008858,-0.039645,-0.035525,0.028660,0.043796,-0.009144,-0.007993,-0.082539,-0.007804,-0.001733,0.072219,-0.074360,0.048985,0.005915,-0.033403,0.030968,-0.049512,0.079608,-0.042157,-0.077666,-0.078297,-0.028982,0.031107,-0.085383,0.043801,0.217379,0.036528,-0.079154,0.080769,0.001418,-0.052139,-0.000304,0.027253,-0.046602,0.001428,0.057648,0.027374,0.005704,0.054775,0.033793,0.003054,0.054029,-0.054823,-0.010156,-0.073038,0.035745,0.015559,0.051731,0.035382,0.079744,-0.061281,0.066372,0.007747,0.056712,-0.013623,-0.000021,0.102351,0.054231,0.067885,0.012999,0.035536,0.033690,0.004436,0.003697,-0.044480,-0.001004,0.010732,-0.042838,0.030656,0.075287,0.061409,-0.057182,0.028785
-0.054494,0.044980,-0.011114,0.043299,-0.044927,-0.026682,0.084595,-0.058267,0.068675,-0.010582,-0.040092,-0.030387,0.012393,-0.029940,0.066160,-0.000146,0.036616,-0.073751,-0.046929,-0.017326,-0.061921,-0.024902,-0.068730,0.042902,0.093741,0.019291,-0.023143,-0.032880,-0.041139,0.072272,-0.035612,0.010693,-0.069058,-0.004293,-0.001676,-0.103117,0.052892,-0.053867,-0.057860,-0.082481,-0.047214,-0.105296,0.048617,-0.084392,-0.091309,-0.022115,-0.104281,-0.047920,0.084936,0.001538,-0.034209,0.052921,0.009904,0.058425,0.078616,-0.011392,-0.015580,-0.037211,0.023081,0.035411,0.002311,0.053306,0.042110,-0.017840,-0.064294,0.003773,0.009289,0.031288,-0.006465,0.001008,-0.034770,0.019585,0.007607,0.076154,-0.088146,-0.027577,-0.091032,-0.078629,-0.001044,-0.011737,-0.049610,-0.006296,0.020621,0.017799,0.083075,0.005775,0.019751,0.013225,-0.029039,0.004381,-0.101872,-0.063123,0.006760,0.002583,0.032988,-0.018070,0.036565,-0.079226,0.011961,0.029900,0.071237,-0.044378,-0.060373,0.113066,-0.094403,-0.050882,-0.064666,0.018864,0.056895,-0.001880,0.021682,-0.110330,-0.011271,0.062681,0.048887,0.067342,-0.077834,-0.028098,-0.081465,0.014681,-0.022206,-0.023282,-0.074365,-0.038427,-0.003795,0.010144,0.044168,-0.012793,-0.000413,-0.048103,0.045208,0.070200,-0.113785,0.034264,0.022956,-0.004281,0.013520,0.000511,-0.013942,0.028731,-0.002506,-0.014216,-0.062747,-0.039775,0.043963,-0.005458,-0.025068,-0.028417,-0.052637,-0.053604,-0.011255,-0.032759,-0.049813,-0.068411,0.015104,-0.043546,-0.010730,0.099208,-0.039453,0.101363,0.011953,-0.045608,0.089667,0.008215,0.005498,-0.019010,-0.037001,-0.036858,0.011574,-0.054437,-0.083354,-0.005786,0.126983,0.074211,-0.017333,-0.011286,0.032714,0.004956,-0.068194,0.031827,0.069552,-0.006675,-0.000137,0.015214,-0.076250,0.001165,0.004371,-0.004189,-0.004028,-0.108319,0.020834,0.042021,0.027997,-0.000443,-0.036048,-0.042911,-0.046473,0.052540,0.010048,0.011546,-0.030336,0.079799,-0.080071,-0.026619,-0.077934,0.027306,-0.071766,-0.061870,0.089471,-0.091380,0.019354,0.083144,-0.019842,-0.035689,0.013925,-0.006659,-0.099441,0.002101,0.036589,-0.033810,-0.063976,-0.035246,-0.101970,-0.099942,-0.008611,-0.078211,-0.013246,0.038194,-0.033410,0.036257,0.057009,-0.041545,0.070387,-0.037760,-0.008023,0.045992,0.041809,-0.001083,0.020745,0.020272,0.083524,0.064322,0.072557,-0.056895,-0.018598,0.035934,-0.018587,0.012199,0.040177,0.019753,-0.027932,-0.006798,0.024623,-0.004772,0.019327,0.016245,-0.032581,0.003748,0.013045,-0.022923,0.045388,0.022146,-0.026713,-0.027808,0.035280,0.110391,0.000808,-0.012210,0.008716,0.015701,0.034082,0.005975,0.001071,-0.038041,-0.009660,0.045260,0.034853,-0.089026,-0.027447,-0.053585,-0.072040,0.001986,-0.047870,0.024067,-0.014891,0.052562,0.079751,0.010301,-0.099983,-0.017953,-0.025515,0.002199,-0.023555,-0.075878,-0.099859,-0.008687,0.003511,-0.042988,0.011353,0.059560,-0.002525,-0.047532,0.049070,-0.060906,-0.005536,0.046957,-0.034670,-0.026149,0.019521,0.035384,0.046857,-0.074046,0.003331,0.086743,-0.104072,-0.022747,0.016589,0.011225,0.038783,0.032946,0.024122,-0.024660,-0.093996,0.023055,-0.074624,0.010959,-0.069620,-0.080109,-0.018856,-0.088972,0.059063,0.069365,-0.000925,-0.025495,0.023504,-0.050961,-0.054639,-0.035588,-0.031222,0.007756,-0.015928,0.013327,0.004399,-0.020377,-0.033754,0.040088,0.035997,-0.147248,0.025961,-0.002731,-0.033567,-0.001806,-0.010265,-0.013577,0.002307,-0.063666,-0.021943,-0.019778,0.085952,-0.080379,-0.059954,-0.058246,-0.047176,0.006591,0.025895,0.061113,-0.008122,-0.008176,0.035280,-0.113372,0.023776,-0.036291,0.038169,-0.006623,0.056908,0.040808,0.007505,0.058962,-0.000635,0.014426,-0.001700,-0.052372,0.022075,-0.027886
-0.076486,0.080385,-0.079341,0.052618,-0.079620,0.005791,0.076530,0.093298,-0.000014,0.044348,-0.044948,-0.064976,0.041601,-0.032028,-0.029510,0.038542,-0.120097,0.023116,0.101795,-0.017724,-0.040544,-0.057530,0.066543,0.030189,-0.012916,-0.076862,0.084675,-0.061565,0.026237,-0.049307,0.052733,0.077964,-0.031933,-0.009289,0.043589,-0.027833,-0.160657,-0.050882,0.004304,0.067972,-0.013290,-0.092482,-0.026875,-0.084655,0.010109,-0.018215,-0.054062,0.117652,-0.007320,-0.083080,-0.061490,-0.041614,-0.049504,-0.042314,-0.126661,0.045586,0.041404,0.026586,0.054302,-0.094626,-0.130233,-0.107378,-0.092900,-0.012175,0.097845,0.080365,-0.115582,-0.028328,-0.063136,-0.029867,0.017282,0.014306,0.021072,0.029462,-0.073590,0.070097,-0.035529,-0.019195,0.098475,-0.047236,0.067726,-0.065903,-0.029432,0.045016,0.065207,-0.023377,0.017985,0.007700,0.025993,-0.063928,-0.044256,0.011042,-0.001893,-0.008952,0.065126,-0.143768,-0.047055,-0.051519,0.029321,-0.012719,0.007356,-0.105141,0.024328,-0.005969,0.000109,0.035873,-0.027126,-0.084217,0.013262,-0.009657,0.000977,0.072796,0.005656,0.082457,-0.048811,0.068597,-0.031624,-0.051365,-0.037007,0.001598,-0.093426,0.047414,-0.038537,-0.029175,-0.004697,-0.023974,0.002569,0.020203,-0.085444,0.008531,0.059854,0.012389,0.039689,-0.050391,0.013446,-0.018806,0.032042,0.013924,-0.060160,0.045561,0.013239,0.021071,-0.034024,0.031494,0.024632,-0.019436,-0.004576,-0.036931,-0.092517,-0.020959,-0.051037,-0.083404,0.019816,0.015397,-0.077302,-0.015488,0.002992,0.110136,0.028180,0.002702,0.086890,-0.021032,-0.067488,-0.008689,0.043397,0.011170,-0.046510,0.031948,-0.079369,0.002064,0.060373,-0.062478,-0.050523,-0.038426,-0.049980,0.050260,0.052114,-0.003679,-0.031700,0.037618,-0.034054,0.002019,0.070191,0.007792,-0.017945,-0.043008,-0.033107,-0.086342,0.023094,-0.020159,0.063020,-0.019547,0.008934,-0.076243,-0.058380,-0.087286,-0.054263,-0.056772,-0.061982,0.047396,0.021840,0.146600,0.101437,0.058238,-0.043682,-0.050924,-0.028436,0.001812,0.019280,0.034837,-0.010585,0.028984,-0.064582,-0.042773,0.011204,-0.069748,-0.056161,-0.039086,0.013306,-0.071889,-0.009974,0.015552,-0.036000,0.010852,0.099693,0.072343,-0.047607,-0.009811,-0.005439,0.081951,0.101770,-0.069451,0.000830,0.021374,0.030535,-0.070582,-0.033761,-0.042631,0.079309,0.001334,-0.088691,-0.031068,-0.013201,-0.062962,-0.065741,-0.113257,-0.034612,-0.035816,-0.107989,-0.014502,-0.011945,-0.036820,0.058126,0.062073,0.012838,0.054639,0.036875,-0.017694,-0.015037,-0.001034,0.061015,-0.065523,-0.199293,0.039811,0.034411,-0.110944,-0.004643,-0.016576,-0.010200,-0.023011,0.056295,-0.115922,-0.057025,-0.017604,0.090750,-0.024602,-0.003920,-0.022260,0.024988,0.016034,0.076518,0.008446,0.013153,0.010387,0.021271,0.041372,-0.161115,-0.044421,-0.060467,0.004793,0.085034,-0.012615,0.021597,0.057566,0.043005,-0.064125,0.079932,-0.045626,0.004902,-0.056612,0.029805,0.055824,0.083729,0.061571,0.095608,-0.050815,0.049999,-0.057938,0.055852,0.058816,0.060616,-0.032879,0.069489,-0.021847,0.032673,0.076784,0.009871,0.086896,0.023993,0.018153,-0.072009,0.003385,-0.002128,0.024143,0.050516,0.005522,0.014292,-0.006438,-0.011391,-0.004376,0.021972,0.052120,-0.006895,0.067466,0.044518,0.017883,0.063418,0.015933,-0.033157,-0.066001,-0.029169,0.019717,-0.043461,0.004530,-0.082144,0.054124,0.004238,0.003692,0.049347,0.020391,0.081715,-0.051098,0.042238,0.066673,0.032309,0.004894,-0.011016,0.025883,-0.059494,-0.075720,0.033960,-0.003225,-0.002077,-0.023430,0.060500,0.063205,-0.020553,0.033119,0.005130,-0.009710,-0.016992,0.044585,-0.088382,-0.041187,-0.057090,0.000789,0.039038,-0.041915,0.122359,-0.018926,0.006085,0.045549,0.028573,0.124879
0.050518,0.029800,0.015886,0.029316,0.066411,0.120521,0.050652,-0.038763,-0.009200,0.027322,-0.054872,0.075243,-0.001193,0.004242,0.060569,0.014588,0.016895,0.002795,-0.042713,0.083521,-0.040750,0.012301,0.047461,-0.012554,0.146872,0.000895,-0.010249,-0.022645,-0.023307,-0.006258,0.057885,0.014799,0.043472,0.016072,0.054572,-0.030785,0.117285,0.061040,0.023098,-0.085281,0.063764,0.043702,-0.026880,0.020665,-0.036716,0.002564,-0.068125,-0.053278,-0.000572,-0.044300,-0.046911,0.016402,-0.004682,-0.016694,0.013221,0.086212,0.065949,-0.008450,-0.004419,-0.056114,-0.025571,-0.028827,0.034459,-0.051660,0.038563,-0.097452,0.011655,0.001184,-0.045246,-0.055879,-0.020113,-0.002609,-0.025385,-0.012344,-0.020350,0.058535,-0.038154,-0.013999,-0.041379,-0.010183,-0.000485,0.018537,-0.070534,-0.023942,0.010164,0.018389,-0.041731,-0.077542,-0.023780,0.016963,-0.077892,-0.025895,0.009630,0.071202,-0.001058,0.055945,0.030373,-0.078290,0.011534,0.061624,-0.048769,0.130930,-0.015229,-0.009106,0.039689,-0.066891,-0.032066,0.020786,0.044091,-0.014650,0.039397,0.002282,-0.015231,0.019289,-0.017636,0.083939,0.119816,-0.060108,0.035834,0.013784,0.043332,-0.092117,-0.049866,-0.014755,0.073024,0.014370,0.075765,0.012636,-0.031095,0.030828,0.098267,0.043066,0.041937,0.029447,0.058837,0.043902,0.033534,0.046577,0.018970,0.057469,-0.047207,-0.004660,0.029273,-0.004192,-0.047043,0.025444,0.076181,0.121558,0.027747,-0.026796,0.024010,0.042727,0.008612,0.073665,-0.007370,-0.035764,-0.018705,-0.026885,0.048838,-0.037654,0.069613,0.048232,-0.032132,-0.002986,0.009514,-0.061441,0.153020,0.030968,0.012294,0.031085,-0.042942,-0.021894,0.039957,0.009066,0.008678,0.025020,-0.003034,0.040485,-0.040925,-0.090544,0.000180,0.024014,-0.048106,-0.057076,-0.016806,-0.031488,0.050932,0.000375,-0.038117,-0.112784,0.022857,0.104431,0.060514,-0.014435,0.008943,-0.033974,0.070203,-0.058599,-0.048669,0.043815,0.019948,-0.065572,0.037726,0.108275,-0.030570,0.020071,0.006275,-0.008229,0.034362,-0.022739,-0.002939,0.029383,0.037666,0.051755,-0.046318,-0.033071,0.057609,0.003963,0.064684,0.101121,0.002641,-0.028986,0.073245,-0.121632,-0.008570,0.075800,-0.003012,-0.012885,-0.030996,0.001232,-0.045910,-0.074418,-0.046838,-0.017475,0.037333,-0.001534,0.015889,0.092652,-0.052833,0.065864,-0.062007,-0.042575,-0.000351,0.061249,0.024457,0.036359,-0.029672,-0.038988,-0.021055,-0.046023,-0.037840,-0.079485,-0.056550,0.010643,-0.014215,0.030518,0.002911,-0.059109,-0.016553,-0.024066,-0.069308,0.069445,-0.044264,-0.021663,-0.068658,-0.028998,0.001500,0.012120,0.023688,-0.024100,-0.015283,0.015455,0.000571,0.090793,-0.085798,-0.005057,-0.076136,-0.017013,-0.063747,-0.018527,-0.055160,0.059934,-0.122494,0.008714,-0.032048,0.025713,-0.083357,-0.095917,0.097683,-0.028576,-0.029370,0.006469,-0.069372,-0.054301,-0.018629,-0.082041,0.029492,0.037491,0.002529,0.097259,-0.054013,0.010719,-0.001716,0.000289,0.085244,0.098846,0.003261,0.026458,0.082357,0.093855,0.000391,-0.020704,-0.038261,0.056311,-0.008503,0.052093,-0.001121,-0.021217,0.042602,0.002272,-0.008534,0.023827,0.001751,-0.004401,0.003718,-0.045224,0.057076,-0.025781,0.077933,0.000912,0.042414,0.004798,0.082274,-0.025698,-0.039921,0.002560,0.017031,0.079499,-0.035914,0.029298,0.034327,0.028943,0.048554,-0.060604,-0.000973,-0.007782,0.016827,-0.064225,-0.001178,-0.075858,0.050012,0.017731,-0.003662,-0.024014,-0.006727,0.057818,-0.058899,0.018982,-0.029947,0.002895,0.037615,-0.120053,0.096256,0.022515,-0.038788,-0.000333,0.069263,0.119448,-0.009161,0.059216,-0.044029,-0.009280,0.000140,0.009725,0.005783,-0.074618,-0.063095,-0.043110,-0.001927,-0.039561,-0.045141,-0.050854,-0.023982,-0.030334
-0.005480,-0.055982,-0.009184,0.087662,0.039896,-0.059127,-0.072256,0.033395,0.017243,-0.084185,-0.055085,0.133827,-0.054750,0.005439,0.076093,-0.021412,0.056711,-0.150096,0.038977,-0.067015,-0.030932,-0.019062,0.083211,-0.010539,0.037655,0.041991,0.017456,-0.016544,0.041862,-0.039774,0.075724,-0.079844,-0.041732,-0.019424,0.050177,0.032803,-0.086944,-0.111566,-0.010117,-0.018144,-0.069230,-0.030154,-0.003725,-0.020909,0.026454,0.010631,-0.052517,-0.092261,-0.036493,0.002429,-0.081419,-0.084559,0.040215,-0.086184,0.097026,-0.047141,0.041866,0.041999,0.106491,-0.073979,-0.025533,-0.071808,0.041728,-0.058784,-0.069518,0.089890,0.043079,0.054157,-0.003539,0.002243,0.005886,-0.089747,-0.048269,0.054335,0.004399,0.014587,0.047563,-0.049749,0.023494,0.012470,0.061911,-0.066320,-0.018813,0.019548,0.019445,0.047086,0.048076,0.051118,0.014119,0.050534,0.019229,0.057102,0.008217,0.024029,-0.019861,0.065990,-0.014947,-0.093194,-0.079845,0.017998,-0.005621,0.021473,-0.042554,0.047095,-0.021078,0.118196,0.023269,-0.072960,-0.023027,-0.010205,-0.022233,0.001686,0.087532,-0.032832,-0.099977,0.055043,0.022660,0.093709,-0.012329,-0.105663,0.052867,-0.015954,-0.007627,0.070651,0.058121,-0.041285,-0.042854,-0.001390,0.002335,0.086937,0.039328,0.109731,0.080153,-0.050610,0.091072,-0.108627,-0.087499,0.023177,0.051157,-0.017569,0.018726,0.004920,0.049656,0.025641,-0.099690,-0.016693,0.007657,-0.033815,-0.069863,-0.019822,0.009255,-0.065504,0.019038,0.051415,0.019362,-0.065292,-0.007247,0.126044,0.045156,-0.072569,-0.046765,-0.048621,0.020882,0.098100,-0.015995,-0.071832,-0.034058,0.010426,0.054274,0.033014,0.052088,-0.066942,0.005549,0.067450,-0.041613,-0.024937,-0.006752,-0.032986,0.048047,-0.033675,0.071386,-0.126469,0.052078,-0.053437,-0.027167,-0.095292,-0.079140,-0.013980,-0.019545,-0.000654,-0.027200,0.009736,-0.061319,-0.090498,-0.173898,-0.031016,-0.066967,-0.053713,-0.051291,0.021174,-0.010192,-0.063111,0.013910,-0.032725,0.076270,-0.049254,-0.010248,0.024298,0.015471,-0.013166,-0.010235,0.054407,-0.046300,0.008458,0.006798,0.016226,-0.015970,-0.112649,-0.026612,-0.021805,0.056080,0.073907,-0.028939,-0.077608,0.021845,-0.038830,-0.000529,-0.041504,0.029518,-0.063356,-0.003883,-0.127274,0.022835,-0.093847,-0.044158,0.009033,-0.050619,-0.011704,-0.059629,-0.062389,0.004866,0.032869,-0.033362,-0.031833,-0.021778,0.064755,0.011790,-0.012750,-0.025577,-0.071352,-0.046495,0.040317,0.003820,-0.037687,0.019431,0.022081,0.016790,0.004320,0.047191,0.052731,0.000289,-0.098368,0.030203,0.009364,-0.092625,-0.028215,0.001038,-0.070255,0.014254,-0.082936,-0.113496,-0.012358,0.063012,-0.045242,0.011363,0.021299,0.005057,-0.034885,0.053862,-0.011546,0.025685,-0.077978,0.020759,-0.010691,0.018442,-0.073324,-0.008404,0.113251,-0.051330,0.054947,-0.045241,-0.033544,0.015888,-0.029503,-0.046408,0.015776,-0.027731,0.011910,0.007943,0.023945,0.026893,0.053085,0.087586,-0.153292,-0.007984,0.026671,0.020921,-0.042800,-0.092424,-0.132769,-0.003847,0.013377,0.021374,-0.065558,0.006513,0.049928,-0.015102,-0.069087,0.025681,0.062251,-0.074618,-0.018283,-0.003987,0.057618,0.038932,0.003384,-0.044259,-0.012622,-0.014796,-0.129742,-0.007439,-0.026254,-0.052219,0.035341,0.003725,-0.007868,-0.013617,-0.027697,0.148857,-0.190473,0.053695,0.040145,-0.019804,-0.027838,-0.030087,-0.066015,0.050929,-0.053980,-0.054818,-0.099938,-0.050135,0.040171,-0.026441,-0.045338,0.043042,-0.156339,0.015153,0.011783,-0.046699,-0.112989,0.023001,-0.018839,0.138315,-0.015387,-0.103600,-0.095275,0.001877,-0.030799,-0.097139,-0.061975,0.025199,-0.085040,-0.069332,-0.084409,-0.045396,-0.008729,0.014517,-0.049042,0.130572,-0.111540,0.025865,0.032362,-0.011325,0.060786
-0.009505,-0.029192,0.025195,0.001869,-0.030048,0.061665,-0.006036,0.034543,-0.001832,-0.015163,0.098036,0.009132,-0.006007,-0.050020,-0.139161,0.011756,-0.026336,-0.156919,-0.017200,0.037666,0.086203,-0.011220,-0.020044,0.015964,0.077394,-0.015584,0.035369,0.026267,-0.040947,-0.104384,0.006296,0.039252,0.025202,0.015164,0.016723,0.009297,-0.117872,0.000715,-0.004301,-0.017115,-0.024104,0.000741,-0.031937,0.105047,-0.020466,-0.035724,-0.004811,-0.053925,0.034349,0.017433,-0.006831,0.025489,0.072116,-0.006082,-0.034998,-0.058028,0.017631,0.063998,0.095630,-0.017126,-0.040061,0.057481,0.040885,-0.003442,-0.003241,0.022687,0.038182,0.058004,-0.013615,0.056941,0.069751,-0.056205,-0.002684,-0.007147,-0.032806,-0.031354,-0.109033,-0.033551,-0.081341,0.016898,0.010335,-0.052735,0.068299,0.012948,0.026573,-0.058056,0.015868,-0.015850,0.064496,-0.062305,0.003648,-0.007050,-0.008020,-0.051209,-0.004023,-0.067650,0.052488,0.010255,0.009543,0.012852,-0.017927,-0.064327,0.047255,-0.083027,-0.101159,-0.055343,0.045002,-0.069823,0.011615,0.121152,0.028704,-0.024910,0.048279,-0.016141,0.024195,-0.022319,-0.025615,0.019008,-0.073279,0.052875,-0.089243,-0.025454,0.005365,-0.020401,-0.094818,0.023781,-0.060106,-0.051511,-0.036234,0.007512,-0.060216,0.059465,0.079900,-0.003012,-0.034084,0.104263,-0.011468,0.055355,-0.029085,0.007960,-0.017632,-0.021230,-0.155960,0.111914,-0.007395,-0.007137,-0.011589,0.086445,-0.024180,-0.010868,-0.085589,-0.056343,-0.026956,-0.012538,-0.023877,-0.010274,-0.005748,0.013662,0.102693,-0.056313,0.020363,-0.013406,0.065602,-0.039770,0.014552,-0.046267,0.033588,0.027555,-0.083065,-0.123169,0.002536,0.079454,-0.035810,-0.098635,0.039564,-0.020548,0.001094,0.082398,-0.032922,-0.010218,0.043819,0.030188,-0.013792,0.012256,-0.034867,-0.052096,-0.017245,0.018726,0.008688,-0.054650,-0.061495,0.032056,-0.038863,-0.020242,0.001098,0.073325,-0.023770,-0.023380,0.002958,0.004223,-0.039486,-0.061934,0.068863,-0.052242,-0.039846,0.058917,-0.009927,-0.057713,-0.042145,0.046352,-0.003199,-0.025246,-0.012016,0.010284,0.061703,0.070189,0.052792,0.006169,-0.128721,0.005793,-0.106923,-0.033506,0.058902,0.064594,0.065162,0.013449,-0.049910,0.079849,0.041576,0.077206,-0.128993,0.198436,0.026769,0.028028,-0.030802,0.057147,0.033674,-0.054551,-0.048421,0.014782,0.015436,-0.022639,-0.058692,-0.082594,0.028806,-0.046307,-0.008371,0.024602,-0.047800,-0.035035,0.041954,0.028301,0.039482,0.045138,0.021441,0.040627,-0.032369,0.069823,0.005868,0.081726,-0.005676,0.101465,-0.084109,0.005475,-0.072640,-0.015585,-0.009289,-0.001147,-0.030926,-0.037678,0.037861,-0.058943,0.007205,0.033963,0.047357,0.070611,0.041438,0.046049,-0.082482,0.020281,-0.004780,-0.037885,-0.004359,0.009690,0.032980,0.000286,-0.052749,0.097844,-0.003987,0.064810,-0.044816,-0.063558,-0.044181,-0.043790,0.024306,-0.047788,0.005084,-0.020115,-0.038824,-0.101505,-0.039445,-0.020149,0.040287,0.061756,-0.014171,0.003259,-0.059125,0.006452,0.059979,-0.075541,0.020942,-0.083899,-0.014998,0.049557,-0.025271,0.015748,0.003572,0.080314,-0.037954,0.063636,0.057276,0.005091,0.046237,-0.021515,-0.012466,-0.057484,-0.060694,-0.053167,-0.048200,0.089910,-0.021126,0.014508,-0.068094,-0.034175,-0.000930,0.024465,0.045096,0.032345,-0.008812,-0.015009,0.019504,0.053188,-0.060552,-0.154190,0.025988,0.078379,-0.001245,-0.042119,-0.044486,0.007529,0.007396,-0.033592,-0.056859,0.034900,0.016809,0.040416,-0.026900,-0.024918,0.071886,0.043367,-0.083703,0.096381,-0.002081,-0.029021,0.128752,-0.064801,0.008265,-0.149022,-0.057258,-0.015772,-0.052098,-0.037539,0.053388,0.012563,-0.017119,0.060267,-0.004005,-0.005558,-0.097307,-0.007503,-0.054077,-0.098776,0.006211,0.005120
-0.031885,-0.010618,-0.052114,-0.055123,0.010445,-0.003721,0.108367,0.014093,0.046419,-0.028729,-0.039865,0.009384,-0.058113,0.041454,0.040257,-0.023237,0.001043,0.059647,0.078627,-0.021655,0.022410,0.018746,0.145760,-0.026667,0.005585,0.050438,-0.069056,-0.054808,0.009829,-0.087703,-0.045742,-0.031865,-0.003500,-0.034245,0.046943,-0.056588,-0.045773,-0.001972,-0.011036,0.013884,0.054417,0.005557,0.003354,-0.093662,0.005637,-0.061225,0.038366,0.050785,0.025806,-0.089157,0.011991,0.001112,-0.002701,0.093463,0.027964,-0.134067,-0.018034,-0.059456,0.020337,0.034618,0.049130,0.004332,-0.020728,0.023433,0.008591,0.010634,0.019424,-0.002694,0.029869,-0.072208,-0.008876,0.046134,0.022298,-0.087205,-0.017526,0.065999,0.006276,0.033484,-0.081586,0.032112,-0.032738,0.013966,-0.083174,0.033278,-0.098089,-0.037669,0.025078,-0.063797,-0.016373,-0.024960,-0.002390,0.083428,-0.004704,-0.009703,-0.028118,-0.035901,-0.065464,-0.015171,0.109762,-0.027037,0.104454,0.025924,-0.004292,0.035927,0.057247,0.102398,0.113040,-0.047877,0.052096,0.013570,0.131421,0.111415,0.007506,0.038956,0.000989,0.034702,0.026380,-0.020277,0.045973,-0.033631,-0.050645,-0.025857,-0.056221,-0.041989,-0.050700,-0.053124,0.009381,-0.039348,0.021978,-0.004213,0.012214,0.054435,0.024871,-0.020637,0.032397,-0.092498,-0.065893,0.017402,0.043402,0.024653,0.003389,-0.023677,0.015465,-0.096090,0.050895,0.023878,0.022344,0.106848,-0.023374,0.053575,0.004277,0.050604,-0.018896,-0.010417,0.093633,-0.001406,-0.008585,-0.062714,-0.013870,0.031828,-0.009459,-0.051555,-0.005557,0.013826,-0.049261,-0.004870,0.067054,0.015414,-0.075298,0.016881,-0.011584,-0.024383,0.060619,-0.025498,-0.005723,-0.042602,0.026606,0.135961,0.026541,-0.057377,0.112593,0.025611,0.036124,-0.066646,0.000438,-0.017222,0.051842,-0.049187,0.064912,0.009369,0.081654,-0.034583,-0.012739,0.044652,-0.000315,-0.041120,-0.043346,-0.016896,-0.120809,0.048108,-0.019934,-0.027303,0.073606,0.018667,-0.082032,0.053266,0.046692,-0.017664,0.021642,-0.004677,-0.052212,-0.056157,-0.019001,-0.063422,-0.049485,-0.022003,-0.034712,-0.029951,-0.002315,0.025576,-0.016195,-0.075949,0.031412,-0.060487,-0.035010,-0.058162,0.078566,-0.060845,-0.110051,-0.049532,-0.030260,0.115512,-0.055969,0.057948,0.074947,0.003824,0.005519,-0.020084,-0.024627,0.071283,-0.067865,0.080443,0.095676,-0.103928,-0.025981,-0.037356,-0.062416,-0.084556,0.093986,0.052473,-0.055973,0.002803,-0.015227,-0.016494,0.067964,-0.065701,0.112126,0.048707,0.024938,-0.095495,0.029820,-0.099727,0.034740,-0.091204,-0.108802,-0.062385,0.004912,0.023480,0.007011,0.072686,-0.033160,0.088393,-0.043232,-0.031817,-0.108120,-0.012104,0.032341,-0.057139,-0.002616,-0.011553,-0.043208,-0.025773,0.037959,0.040872,0.001654,0.059574,-0.002169,0.059398,0.051847,0.002412,-0.060115,0.027302,-0.080017,0.038560,0.032261,-0.000947,-0.060092,-0.035323,-0.016758,-0.025074,0.006043,-0.000410,-0.043315,-0.021456,-0.010012,0.058474,-0.051341,-0.019200,0.036995,-0.051774,0.065022,0.045804,0.030377,0.018221,0.039732,0.033627,-0.004021,-0.040694,0.042214,-0.046314,0.038367,0.021037,0.009477,-0.028285,-0.040881,-0.047989,-0.051746,0.026772,0.016677,-0.010437,-0.042292,-0.014455,-0.002770,0.024577,0.009340,-0.022856,-0.021513,-0.055832,0.005023,0.022766,0.043893,-0.008131,-0.041013,0.013800,0.030443,-0.042796,-0.049487,-0.067950,-0.032372,0.016161,-0.055252,0.048686,-0.049770,0.030581,-0.071758,-0.063964,-0.095548,-0.034591,0.033614,-0.033273,0.010201,0.046799,-0.013689,0.061245,-0.081583,-0.006857,-0.047942,0.009163,0.025323,0.034168,0.010546,-0.015197,0.010305,-0.009753,0.017410,-0.025357,-0.008131,0.002792,-0.033066,0.046321,-0.005485,-0.026791,-0.015007,-0.002441
0.019773,-0.021348,0.005514,-0.129215,-0.001805,-0.037933,0.091846,0.072682,-0.023384,0.030163,-0.044468,-0.079155,-0.056391,0.009262,-0.038474,0.033317,-0.003013,-0.064970,-0.034348,0.046108,-0.059543,-0.016915,0.052495,0.043197,0.047743,0.067441,-0.056020,0.040583,-0.019349,0.012497,-0.001846,0.057183,-0.018461,-0.004590,0.001127,0.073428,-0.102490,-0.017778,-0.006004,0.001050,0.001145,-0.057219,-0.084358,0.019580,0.005053,0.028668,0.015441,0.012848,-0.073789,0.123933,0.038267,-0.082773,0.022377,0.031355,0.074567,-0.053963,0.043729,0.038605,0.008796,-0.031935,0.016288,0.107457,0.038312,-0.064833,-0.014274,-0.012174,-0.083790,-0.023114,0.021612,-0.037796,0.019797,0.027717,-0.087980,-0.054046,-0.064521,-0.080530,-0.039894,0.046842,-0.085622,0.078728,0.023488,-0.005901,0.013630,0.056276,-0.072275,0.017247,0.000778,0.006933,0.031773,0.090426,-0.079474,0.029228,-0.013496,-0.045133,0.002666,-0.032957,-0.069465,-0.009782,0.033053,-0.012485,0.000829,-0.092165,-0.036091,0.079156,-0.055390,-0.047864,0.037815,-0.102248,0.032180,0.056985,-0.046938,0.017695,0.037503,-0.033426,0.001820,-0.029616,0.036389,-0.018839,-0.007044,-0.091137,-0.060791,0.042524,0.009797,0.085588,-0.150009,0.029565,0.032709,-0.120024,-0.086449,0.062333,-0.092737,-0.036971,0.058645,-0.025324,0.094238,0.066071,-0.018889,-0.095353,0.055343,0.078611,0.044505,-0.024676,-0.094580,0.009344,0.019504,0.011462,-0.010033,-0.101818,-0.008901,0.025727,0.041947,-0.081386,-0.045258,-0.070888,-0.006822,-0.083919,-0.040809,0.005552,0.064440,0.003373,0.015564,0.065220,-0.124075,-0.149310,-0.106789,0.022756,0.012575,-0.107956,-0.065031,0.039729,-0.111906,-0.055850,-0.096544,0.016896,-0.008573,0.027892,-0.026993,-0.024199,-0.036840,0.034891,0.066857,-0.003141,0.096240,-0.016621,0.030689,-0.030035,-0.039802,0.010356,-0.058017,0.052338,-0.030940,0.038603,-0.122613,0.027319,0.015667,0.109742,0.032622,0.054019,0.068735,-0.064071,-0.073289,-0.009795,-0.000566,-0.054928,0.125169,0.064872,0.109534,0.025340,0.020009,0.093497,0.027801,-0.036203,0.048540,0.080455,-0.001779,0.009560,0.006366,0.008501,-0.043205,-0.073046,0.074422,-0.034602,0.038193,-0.012057,-0.091411,-0.045623,-0.051345,0.028385,-0.010337,-0.107563,-0.064331,0.102826,-0.018473,0.036864,-0.036983,-0.029737,0.018955,-0.026707,-0.056525,0.048178,-0.022711,-0.081161,0.102425,-0.027735,0.024706,-0.022388,-0.022185,-0.006881,0.076753,0.067961,-0.040397,0.019137,0.005600,-0.042463,0.023116,-0.057356,0.003121,0.071615,0.029488,-0.005527,0.010379,0.023793,-0.022598,0.016116,-0.038794,-0.004862,0.000447,-0.041460,-0.032110,0.010499,0.006072,-0.091289,-0.122186,0.033512,0.025916,0.168556,-0.072754,0.011323,-0.020855,-0.099229,0.057643,0.003213,-0.012180,0.039787,-0.022138,-0.047135,0.001943,0.005338,0.037494,-0.024812,-0.034076,-0.069194,-0.049154,0.005773,-0.016760,-0.029304,-0.012216,0.083368,-0.007799,-0.047652,-0.024354,0.014149,-0.045526,-0.006507,0.052332,-0.057003,-0.069722,-0.085570,-0.030936,0.013435,-0.076742,-0.056767,-0.074248,0.028638,0.047626,0.058084,-0.009917,0.023607,-0.036544,0.028812,-0.009461,-0.010978,0.066037,-0.079812,0.031228,0.022144,-0.035369,0.019990,-0.023908,0.010966,0.039456,-0.008282,0.000187,-0.034522,-0.065347,-0.003856,-0.050303,-0.056559,-0.009969,0.004201,-0.005753,0.008716,-0.060336,-0.058158,-0.054950,0.027077,-0.011535,0.116334,-0.087023,-0.012159,-0.131849,0.033408,-0.009841,0.041520,0.007272,-0.101453,-0.081028,-0.012444,0.036013,0.070987,-0.005569,-0.052472,0.027410,0.018423,0.006805,-0.027477,-0.045618,-0.036084,-0.029395,0.025664,0.055585,-0.093148,-0.011970,0.006049,0.055908,0.004524,0.009214,0.076739,0.006285,-0.010778,-0.063429,-0.045096,-0.018200,-0.027101
0.135041,0.002480,0.057053,-0.003895,-0.021064,0.068485,-0.041061,-0.092715,-0.002647,0.055664,0.030970,0.077263,0.080856,-0.016461,-0.019806,0.056675,0.032602,0.032091,-0.067931,-0.054328,0.022405,0.000535,-0.081279,-0.007527,-0.075211,-0.062449,0.043253,0.063500,-0.106968,-0.041603,0.105632,0.010752,-0.054867,0.028770,-0.112382,-0.058872,-0.004817,0.038778,0.006743,0.012269,0.001405,-0.006596,0.022821,0.011934,0.023521,0.020475,0.033829,-0.050164,-0.022565,0.016785,0.067572,0.049240,-0.011466,0.060916,-0.064389,0.017598,-0.020924,-0.086958,-0.056074,0.014501,-0.045134,-0.008214,-0.032387,0.009396,0.101278,-0.063087,-0.004593,-0.004251,0.041858,-0.031016,-0.082942,0.065627,0.014560,0.010536,-0.141860,0.049146,-0.032310,0.028131,-0.044582,-0.047787,-0.080289,0.049339,-0.023679,-0.021657,0.142934,0.061874,0.068439,-0.006915,-0.006902,-0.118532,0.044866,-0.076134,0.021026,-0.004158,-0.017204,-0.015145,-0.023952,0.090501,-0.021700,-0.075774,-0.021923,0.112675,-0.047120,0.079227,-0.103246,-0.043931,-0.056099,0.030277,-0.007587,0.016209,0.027141,0.144797,-0.075753,-0.072437,-0.044204,-0.006670,-0.035213,-0.025768,-0.036342,-0.019898,-0.004809,0.006689,-0.015757,-0.031054,-0.033773,0.025066,-0.068837,-0.051444,0.022365,-0.108764,0.089758,-0.023544,-0.015365,0.062703,0.079869,0.048131,-0.097622,-0.049281,0.031049,-0.055412,0.026385,0.063842,0.065290,0.024522,-0.009721,-0.020458,-0.003413,-0.059658,-0.042138,0.103723,-0.113694,0.056438,-0.102104,-0.072518,-0.002031,-0.015419,0.052528,0.010192,0.004697,-0.091706,-0.038234,-0.034506,0.074841,0.013288,-0.016902,-0.137090,-0.097550,-0.022742,0.017975,-0.143254,-0.024190,0.021784,-0.053963,-0.010277,-0.008621,-0.083530,-0.039283,-0.054619,-0.003145,-0.027018,0.045148,0.021103,-0.072316,0.063418,0.049226,-0.068860,0.051401,-0.012087,-0.011920,-0.116790,-0.036165,-0.047095,0.100624,0.068629,0.055362,-0.006494,0.035559,0.075940,-0.002088,0.016394,-0.004792,-0.059395,-0.026992,-0.032939,0.013060,0.071127,-0.065624,-0.013028,-0.024536,-0.083824,-0.132662,-0.052548,0.014057,0.024210,-0.004616,-0.016313,0.048960,0.028077,-0.012287,-0.025276,-0.076969,0.020681,0.094717,0.010913,0.039431,0.067358,-0.012186,0.069713,0.011794,-0.051126,0.000332,0.028068,-0.004818,0.017565,-0.047725,-0.086629,0.008024,-0.096165,0.013752,-0.132597,-0.032563,0.007573,-0.076759,0.006123,0.060826,-0.027851,-0.064527,0.020923,-0.116449,0.029057,0.084526,0.005996,0.055944,-0.145566,0.035425,-0.030443,0.023227,0.021791,-0.029029,-0.062417,-0.004491,0.016890,0.051601,-0.012148,-0.030604,-0.030443,-0.002220,0.088250,0.042188,0.020112,-0.000786,0.058052,0.058686,-0.096750,-0.003621,0.048976,-0.098447,0.004874,-0.050495,0.121624,0.003549,0.003217,0.037317,0.020695,0.055067,-0.002090,0.076478,-0.070815,0.024923,0.008753,0.014181,0.056477,0.017009,-0.010744,-0.025840,-0.062004,-0.051612,0.051467,0.008775,0.073563,-0.081491,0.040845,-0.023427,-0.034221,-0.043849,-0.015582,0.095774,-0.149576,0.083554,-0.036505,-0.011159,0.031269,-0.015238,0.013308,-0.069660,-0.122345,0.016139,0.038955,-0.078151,0.035921,-0.020316,0.068822,-0.035775,0.070888,0.013311,-0.008391,0.098549,-0.121960,0.083692,-0.024333,0.034560,-0.000990,0.096999,-0.014831,-0.005990,0.029144,0.155036,-0.072025,-0.085656,0.034077,-0.046240,0.068332,0.093857,0.023988,-0.083428,0.104552,-0.007842,-0.053716,-0.001668,-0.035084,-0.079023,-0.066184,-0.030002,-0.018824,-0.010710,0.011541,-0.079338,0.009466,0.058208,0.022131,0.003510,-0.058108,-0.007528,-0.048377,0.029917,-0.092602,-0.060038,0.037395,-0.049166,-0.088192,0.097475,0.041006,-0.036212,-0.044397,0.030225,0.036359,0.034069,0.015158,-0.128269,0.031850,-0.078303,-0.010172,-0.005833,0.020838
0.093601,0.049978,-0.069326,-0.092504,0.020444,-0.007919,-0.036245,-0.005505,0.049698,-0.073637,0.031707,0.014289,-0.012195,0.025555,0.134058,-0.059672,0.010314,-0.040257,-0.010324,-0.055641,-0.015222,-0.068246,-0.050649,0.083457,0.011995,0.037994,-0.043734,-0.044079,-0.042767,-0.042592,0.063656,-0.111006,0.119996,0.053080,0.031444,-0.063836,0.054651,-0.074837,0.060875,-0.038153,0.072098,-0.082924,0.053799,0.094441,-0.076604,-0.014658,0.038380,-0.026398,-0.022195,-0.034418,-0.122925,-0.029446,0.012351,-0.052076,0.068255,-0.034656,-0.038779,-0.008002,-0.068864,-0.000972,0.048722,0.038385,0.104851,-0.119999,-0.002650,-0.059421,-0.037951,0.062749,0.050255,0.038690,-0.032868,0.001897,-0.010914,-0.030575,0.151496,-0.057254,0.035900,0.005181,0.039585,0.035553,-0.001711,-0.077142,0.054328,0.038991,0.106880,0.081670,-0.032625,-0.004001,-0.032948,0.036918,0.020389,-0.198924,0.011626,-0.073281,0.132780,-0.042220,-0.013935,0.040789,0.022953,0.014687,-0.062718,-0.045475,-0.164965,-0.038698,-0.085934,-0.021020,0.036470,0.020471,-0.025266,-0.094753,-0.070754,0.000745,-0.024491,0.010523,0.098834,-0.046328,0.028111,0.078709,-0.043672,0.046720,-0.096185,0.061417,-0.052979,0.060418,0.223600,-0.032519,0.022914,-0.046258,0.003105,-0.014897,-0.025913,-0.060861,-0.044696,0.009956,-0.059764,-0.020915,-0.101266,-0.041682,0.074339,-0.020432,0.022865,0.009556,0.033781,0.026280,0.020627,-0.088621,-0.024789,-0.043083,0.018836,-0.009778,0.074560,0.017701,-0.029380,0.009074,0.033913,0.060867,0.035774,0.121626,0.016196,0.065064,0.040612,0.074374,-0.060967,0.072753,0.007516,0.041726,-0.022815,-0.063108,0.006028,-0.042242,0.031593,0.098904,-0.024904,0.016570,-0.031393,0.036094,-0.097625,-0.007583,0.053173,0.005767,0.009467,-0.111248,0.012113,-0.004095,-0.033941,-0.029177,0.026274,-0.007598,-0.027952,0.019513,0.071073,-0.053113,0.002183,-0.034852,-0.003498,-0.042895,-0.031033,-0.024212,-0.068105,-0.000190,0.002850,0.012578,-0.004411,-0.087616,-0.054116,-0.066786,0.122289,-0.037020,-0.049705,-0.024834,0.103343,-0.001093,-0.010803,0.097487,-0.064299,0.013213,0.152934,-0.020759,0.022332,-0.044263,-0.006590,0.019052,-0.004872,-0.048065,0.028953,-0.096756,0.000226,0.039773,-0.010452,-0.102093,-0.054232,0.011300,0.049684,-0.051184,0.012092,-0.046329,0.000899,-0.075080,0.020998,-0.074034,0.043454,-0.065684,-0.095315,0.156388,0.002137,0.090212,-0.076876,-0.037022,-0.017383,-0.020937,0.021589,-0.025100,-0.080061,-0.007323,0.096415,-0.000268,0.066286,0.020287,-0.020348,0.035344,0.019514,0.063959,0.022755,0.073125,0.088608,0.069764,0.000213,0.025588,-0.044500,-0.008967,-0.003362,-0.003777,-0.081422,-0.047951,0.040896,-0.004929,0.046039,-0.054213,-0.000017,0.027714,-0.057085,0.051883,0.034143,-0.036779,-0.008101,-0.039772,-0.003368,-0.009999,0.006044,-0.038751,0.000405,-0.046630,-0.001940,-0.032688,0.008917,0.009516,0.069593,-0.013329,0.027883,0.074819,0.113560,-0.068786,0.002734,0.094153,-0.076814,0.019315,-0.059825,-0.037241,-0.029546,-0.039254,0.027950,-0.002558,0.015616,0.059211,-0.098226,-0.068822,0.002236,0.043504,0.026177,0.032522,0.045535,0.033363,0.021693,0.002921,-0.058807,0.007626,0.053470,0.095622,-0.030814,0.006034,0.019485,-0.036567,-0.036325,0.062563,-0.007573,0.057154,-0.038465,0.035313,-0.043458,-0.019839,0.003494,-0.008456,0.007239,0.012491,-0.110806,0.044382,0.016845,-0.014546,0.003983,-0.013029,-0.036675,0.049681,0.032108,-0.034808,-0.018999,0.125809,0.042164,0.040397,-0.074544,-0.087346,-0.051814,-0.052401,0.031358,0.027023,0.048577,0.058769,-0.030725,0.024952,0.074158,0.009313,0.022259,-0.021086,-0.091972,0.018492,0.010267,-0.043909,0.021446,-0.001887,-0.010249,-0.022513,-0.013138,0.003553,-0.060927,0.022998
0.034748,-0.037840,-0.069891,-0.081754,-0.023203,0.003311,0.056524,0.018875,0.015466,0.018715,-0.033788,0.013364,0.116924,0.001265,0.006334,0.010148,-0.000209,-0.064163,-0.009896,0.049014,0.055878,-0.011490,-0.091830,0.032110,0.028996,-0.005260,0.002236,-0.019867,-0.012009,-0.031219,0.040241,-0.092757,-0.019516,0.019474,-0.067779,-0.025912,0.128531,-0.060114,0.005049,0.003505,-0.070384,-0.035737,0.031020,-0.072394,-0.055198,-0.020741,0.132355,-0.006864,0.006888,-0.053284,-0.031160,0.104769,0.013855,0.065751,0.143302,-0.013840,0.079799,0.057431,-0.006992,0.007132,0.027532,-0.018707,0.020296,0.016083,-0.024664,0.061926,0.004968,0.032858,-0.041581,-0.032918,0.019119,0.008303,-0.064980,-0.008506,-0.127002,-0.036326,-0.008606,-0.068379,0.004147,-0.056039,-0.009012,0.000755,0.087387,0.077791,0.016314,0.050867,0.111983,-0.017838,-0.036731,-0.000143,0.026968,0.073291,0.007083,0.037511,-0.064103,0.013709,0.032097,0.047749,0.081969,0.016503,-0.037961,0.108654,-0.036815,0.005217,0.041715,-0.038367,-0.053863,0.092449,0.021224,0.038251,0.054030,0.029809,-0.003375,-0.041351,-0.128987,0.014679,0.016163,0.036788,-0.065368,0.018538,-0.013713,0.001460,-0.048154,-0.012753,-0.107864,0.015204,-0.013771,-0.048410,0.090737,-0.124861,0.001335,-0.056267,-0.091240,-0.029751,0.060633,-0.036247,-0.011553,-0.090647,-0.007747,0.026945,-0.000404,-0.036349,0.036264,0.047035,0.018780,0.017720,0.051983,-0.036135,0.053693,0.003326,0.072275,0.033451,0.014596,0.011148,-0.006485,-0.019033,-0.092400,-0.091850,-0.082080,-0.088062,-0.036150,0.040996,0.013905,-0.069295,0.015039,-0.080692,-0.016380,-0.050145,0.005167,0.069738,-0.033686,-0.026523,-0.003081,-0.041143,0.050610,0.043949,0.053839,0.014202,-0.029493,0.025840,0.031994,-0.014744,0.070264,0.004771,0.038058,-0.081177,-0.014093,0.005989,-0.019781,0.029783,0.036447,0.029980,-0.057717,-0.085596,-0.038794,0.026767,-0.026364,0.074887,0.005751,0.046856,-0.060642,0.010917,0.016163,0.027512,-0.071223,0.061588,-0.048087,0.008072,-0.042522,-0.024348,-0.059968,0.082092,-0.000328,0.005980,0.014632,-0.000252,0.027734,0.112865,0.045022,0.058795,0.013946,-0.033126,-0.006242,0.091941,-0.023089,0.036504,0.037621,-0.062589,-0.079371,0.033994,-0.032860,0.058706,-0.004847,-0.000352,0.061983,0.105360,0.004560,0.109639,-0.034479,0.015299,-0.010266,-0.091452,0.067138,-0.064944,-0.035102,0.010835,-0.002093,0.043337,-0.050299,-0.012485,0.001425,-0.029909,-0.142918,0.026558,-0.025353,0.061679,0.031034,-0.004877,0.016405,0.003790,0.032494,-0.072326,-0.049647,-0.006011,0.026234,-0.012770,-0.001965,-0.010412,0.046288,-0.029519,-0.054209,-0.057988,-0.041117,-0.034225,0.111736,0.059168,0.007639,-0.050846,0.098874,0.071715,0.015473,-0.049044,0.069858,0.021923,0.024492,-0.082208,-0.105064,0.015657,-0.033262,0.065040,0.030149,0.016573,-0.009567,-0.004749,0.012155,-0.058323,0.037966,0.012291,0.006677,-0.008765,-0.063324,-0.005756,-0.014597,-0.085053,-0.031301,-0.065914,0.019005,0.089545,-0.088212,0.006196,0.036249,0.051141,-0.004977,0.053111,0.031523,0.013230,-0.002172,0.025485,-0.025483,0.076420,0.021045,0.040288,0.050322,0.037470,-0.149991,0.000752,-0.000984,-0.034383,0.069883,-0.023810,0.000465,0.064224,-0.008041,0.049280,0.000314,-0.027543,0.079084,-0.006887,0.000586,-0.017337,0.001888,0.021036,0.027374,0.062143,0.123570,-0.008254,-0.072474,0.022179,-0.016476,-0.034585,0.021371,-0.041430,0.045952,0.010209,-0.054103,-0.040299,0.035853,-0.037638,0.003628,0.068668,0.051826,0.084156,0.029936,-0.049713,0.000730,-0.029168,0.061729,-0.001461,0.026969,-0.018428,-0.001331,-0.039418,0.025166,-0.018910,-0.031291,-0.057779,0.022225,0.039796,0.101277,-0.080980,-0.034779,-0.047994,0.012142,-0.043602
0.048778,0.072530,0.004821,0.045999,-0.054148,0.019413,0.037633,0.007398,-0.010233,0.097003,-0.036527,0.055161,-0.072163,0.046646,0.025085,0.071131,0.042366,0.075040,0.054156,0.015429,-0.105035,0.034674,0.075947,0.000156,-0.134001,0.058028,0.028945,-0.022272,-0.078236,0.072673,0.059492,-0.011070,-0.024861,0.043265,0.110099,0.036161,0.064919,-0.009706,0.007997,0.042773,-0.018431,0.038862,0.023736,0.124989,0.024001,0.000631,-0.058386,0.105699,-0.023240,0.023418,0.093341,0.055293,-0.055292,-0.022398,0.052789,0.046027,-0.039600,-0.073576,-0.029997,-0.016174,0.036390,0.036239,-0.071000,-0.079190,0.011015,0.069104,0.127817,-0.031927,-0.071434,-0.042559,-0.013539,0.041020,0.017939,0.044060,-0.029028,-0.005847,0.058106,0.053376,0.002731,0.040411,0.057174,0.039256,-0.028145,-0.101034,-0.026596,0.055639,-0.083842,0.046234,0.025021,-0.003954,0.071931,0.012730,0.002472,-0.086499,-0.048694,0.028065,-0.031385,-0.090867,0.073259,-0.003177,-0.015952,-0.008921,0.031637,-0.039078,-0.002812,0.009339,-0.141967,0.006355,-0.029499,0.043861,-0.044422,0.021930,-0.041862,0.002672,-0.008783,-0.127036,0.014946,-0.048117,-0.025180,-0.005187,0.035879,-0.003005,0.143233,0.017823,-0.139301,0.051650,-0.052062,0.067770,0.044448,0.142470,0.143337,0.086538,0.015788,-0.055561,-0.048360,0.062646,-0.002181,0.008828,0.050236,-0.018449,-0.002898,0.015598,0.078610,-0.048466,0.072436,0.001400,0.026656,0.006204,-0.045350,0.077023,0.009340,-0.020234,-0.012373,-0.040308,-0.026106,-0.152570,0.001669,-0.036633,-0.005180,0.047382,-0.011952,-0.022533,0.141353,-0.056367,-0.023066,0.061593,-0.013735,-0.010071,-0.060470,0.033519,0.054907,-0.029219,0.027025,-0.064953,0.062001,0.035622,-0.110978,0.001559,-0.017942,0.024309,0.029280,0.088396,0.009544,0.036852,0.067875,0.006142,0.063790,0.041554,0.013548,-0.091125,-0.050911,-0.083312,0.110420,0.054814,-0.018153,-0.010378,0.064604,-0.033158,0.025517,0.055651,-0.001707,-0.018464,0.060615,0.088570,-0.074033,-0.074430,0.007346,0.022531,-0.026139,0.051249,-0.026946,0.016672,0.063022,0.007549,-0.002929,-0.015664,-0.002046,0.035151,0.007224,-0.046590,-0.061915,-0.021511,-0.046508,-0.010748,0.031485,0.066786,0.067037,-0.095396,0.012775,-0.085189,0.056935,0.062862,-0.027651,0.108249,0.019999,0.069775,-0.037286,-0.046020,0.045801,-0.012892,-0.037930,0.054335,-0.048424,0.009705,0.007443,-0.076028,-0.001071,0.071933,-0.060793,0.054264,-0.013277,0.042022,-0.012208,-0.059784,-0.126461,0.023069,-0.089083,-0.019410,0.000299,0.054437,-0.006945,0.020594,-0.081799,0.011134,0.064412,-0.045975,0.000125,-0.048443,0.009659,0.095536,0.085528,0.020488,0.101815,0.015521,-0.032702,-0.038565,-0.026598,0.037601,-0.079325,0.023799,0.049283,-0.012310,0.057282,0.032401,-0.079092,-0.005439,0.005983,0.049621,0.017615,-0.003814,-0.000300,0.058986,0.085932,0.018696,-0.007981,-0.052107,-0.057551,0.006109,0.067909,0.012865,0.048094,0.016156,-0.026279,0.022633,-0.048267,-0.006249,0.043156,-0.013713,-0.015001,-0.030241,-0.012642,0.051291,0.108977,-0.013859,-0.012987,0.009084,-0.001263,-0.087825,-0.024878,-0.051997,-0.040302,-0.059167,0.009247,0.049466,-0.142524,-0.007835,0.041771,0.037837,-0.053923,-0.071031,-0.024807,0.077573,-0.036112,-0.053290,0.028851,0.031004,0.018813,0.001456,-0.013009,-0.074952,-0.039657,-0.017010,-0.016471,0.008750,0.005517,-0.050339,0.009470,0.000388,0.028302,0.074258,-0.112022,0.046690,0.014865,0.054023,-0.018444,0.011334,-0.014434,0.008636,0.045874,-0.053619,-0.061888,0.104198,-0.090064,0.077280,-0.033341,0.053076,0.057015,0.012835,0.065915,-0.078896,-0.025464,0.040424,-0.062601,-0.018620,0.075798,-0.006937,0.024633,0.136335,-0.063755,-0.048175,0.072254,0.058192,0.051983,-0.016814
-0.048567,-0.075866,0.128711,-0.004632,0.005595,0.061901,-0.072437,-0.071274,0.038985,0.042311,0.034109,-0.046075,-0.010098,-0.001803,0.019548,0.008407,-0.026887,-0.092283,0.018557,0.070774,0.033861,0.083357,0.041260,-0.111083,-0.028319,0.029460,-0.072492,-0.001218,0.048615,-0.021075,0.051919,0.047700,0.026778,-0.029567,0.093569,0.053759,0.080393,0.031933,0.009786,-0.082270,0.114069,-0.001670,-0.084276,-0.054322,0.073236,0.095778,0.105476,-0.037008,-0.051103,0.015545,0.090702,0.054383,0.031205,-0.014041,0.044333,0.037272,-0.066764,-0.053145,-0.082721,-0.023603,-0.047468,-0.042463,0.014590,0.019972,-0.044182,-0.091961,0.058521,0.032221,-0.036625,0.026807,-0.007543,0.025419,0.003679,0.025399,0.032308,0.003376,-0.061562,0.066340,-0.080846,-0.024932,-0.024466,-0.077773,-0.067681,-0.051900,-0.005137,0.055894,0.025625,0.008894,0.033372,-0.061328,0.066436,0.095060,-0.014319,-0.096948,0.086165,0.047721,-0.021347,-0.009185,-0.011556,-0.090146,-0.016822,-0.056843,0.137224,-0.009696,0.019939,0.074854,0.059645,0.062802,0.062324,0.008509,-0.040353,-0.036944,0.009997,0.009967,-0.060012,-0.004403,-0.049006,0.009210,0.023724,-0.024119,-0.024747,0.068948,0.048295,0.035860,0.174133,-0.021842,0.067327,0.002974,0.031768,-0.036025,-0.021067,0.002889,-0.032160,-0.002373,0.011557,-0.001910,-0.094977,-0.006071,0.011006,-0.147234,0.052699,0.041506,-0.059487,-0.027189,-0.083185,0.056450,0.036222,-0.036515,0.010488,0.000829,-0.051826,0.009789,-0.040878,-0.046337,-0.038339,-0.066752,0.060332,0.146459,0.046993,-0.024603,0.072607,-0.068964,-0.124833,-0.058881,0.008601,-0.045933,0.039853,0.006451,0.009695,0.047702,0.042130,-0.037083,-0.080914,-0.048531,-0.012000,-0.048649,-0.061380,0.010798,0.028922,-0.034495,0.013786,0.023206,-0.041886,0.029487,-0.005828,-0.016367,0.069544,-0.011583,0.019608,-0.010783,-0.087542,-0.020200,0.062636,0.048858,-0.007775,-0.065729,-0.102944,-0.049653,0.042973,0.032142,-0.035167,0.029860,0.006905,-0.014020,0.016026,0.045694,-0.096849,-0.068272,-0.016089,0.064381,0.012402,0.045895,0.004108,-0.062465,-0.089878,-0.007537,-0.026766,-0.028321,-0.008506,-0.097548,-0.005968,0.064595,0.032015,-0.066149,-0.004945,0.019462,-0.029883,-0.011011,-0.044309,-0.042072,0.017663,0.086446,0.008479,0.043185,-0.136375,-0.146734,0.005505,-0.088948,0.011224,-0.076933,0.013791,0.101720,-0.080718,0.015133,0.036638,-0.012650,-0.110328,-0.015400,0.041130,0.016505,0.074187,0.108835,0.048893,-0.014693,0.045700,-0.065673,0.004935,-0.052589,-0.029226,-0.038899,-0.023535,-0.122571,0.002315,0.036975,-0.000849,0.041110,-0.002474,0.003907,-0.038726,0.004086,0.079002,0.082348,0.022071,-0.122237,0.007537,0.003719,-0.039655,0.082723,-0.052603,-0.014818,0.074617,-0.051968,0.049380,-0.038830,-0.032430,-0.005536,-0.029307,-0.083403,0.021193,-0.064762,0.035450,0.009126,-0.039731,-0.095354,0.045747,-0.013346,-0.023941,-0.033899,0.010003,-0.005145,0.088751,0.016951,-0.012537,0.021503,0.022704,-0.068922,0.050786,-0.048076,0.058865,-0.053569,-0.004740,-0.091421,0.040010,-0.052327,-0.056257,-0.137492,0.002196,0.041683,-0.010227,-0.067618,-0.030766,0.015724,-0.017208,0.061009,0.006445,0.003674,-0.046508,0.016461,0.002438,0.003370,0.140040,-0.015741,-0.019586,-0.023025,-0.005048,-0.003124,0.060115,-0.045460,-0.009243,0.028542,0.006698,0.053857,-0.034384,0.049173,-0.064475,-0.013576,0.065307,-0.009416,-0.034695,0.028590,0.003252,-0.065284,0.080411,-0.013446,-0.005101,-0.031090,-0.014826,0.033299,-0.093119,0.067135,-0.000734,0.106287,-0.070228,-0.009074,0.014471,0.046841,0.042584,0.067016,-0.032032,-0.058428,-0.029222,0.006691,-0.037375,-0.054687,-0.027986,-0.050728,-0.058494,-0.027560,-0.007918,-0.000919,0.064731,-0.023176,0.024577,-0.065788
