0.160124
-0.033752
0.073927
0.050969
0.029477
-0.075692
-0.076626
-0.040753
0.140093
-0.015122
-0.015760
0.097933
0.101809
0.037009
0.035030
-0.040955
0.092522
-0.035068
0.007790
-0.141686
0.127890
-0.003619
0.064323
-0.028132
-0.061017
-0.165884
0.003651
-0.116185
-0.020204
-0.037609
0.063429
-0.025834
-0.058903
0.190188
0.147425
-0.006051
0.184644
-0.084715
0.047457
0.008228
0.013186
-0.096777
-0.030021
-0.014381
0.003887
-0.052956
-0.221933
-0.012799
-0.196133
0.077283
-0.009969
0.042693
-0.145813
0.063051
0.043762
-0.035985
0.041143
0.083583
0.136699
-0.044257
0.116063
-0.110020
-0.042201
0.033003
-0.080611
-0.010153
0.013474
0.162187
0.023167
-0.047509
-0.102186
0.066037
0.212092
0.083668
-0.010297
-0.049955
-0.029841
-0.086551
0.105593
-0.071081
0.117262
0.053105
-0.000521
0.005520
0.071067
-0.056400
0.002376
-0.068321
0.063960
-0.019704
-0.030285
-0.101019
-0.066461
0.160906
-0.007669
0.064844
0.069257
0.135858
0.006205
-0.119339
0.016498
0.011153
-0.059473
-0.113829
0.098728
-0.070467
-0.025986
-0.058073
0.087120
-0.000607
0.160113
-0.012624
-0.067645
0.071080
0.132664
-0.107745
-0.046564
-0.028130
-0.052225
0.150908
-0.006866
0.217661
-0.006097
0.059136
0.087824
0.178578
0.152900
0.095273
0.068842
-0.038008
0.115468
-0.679477
0.126681
-0.266170
-0.086280
0.003610
-0.125863
-0.117684
-0.072241
-0.003847
0.034160
-0.073973
-0.012605
-0.040948
0.029368
-0.008722
-0.044394
-0.027834
-0.050173
-0.068809
0.082312
0.105180
-0.045582
0.044284
-0.136555
-0.020470
0.094889
-0.007889
-0.030725
-0.059993
0.029005
0.166926
0.047039
-0.025792
-0.017221
-0.115594
-0.037813
-0.061598
-0.006404
-0.016718
-0.089827
0.154856
0.043786
0.136992
0.102024
-0.006489
-0.065166
0.120325
-0.058162
0.040737
0.059355
0.075264
0.039100
0.116707
-0.043620
-0.103827
0.014448
-0.019494
0.101006
0.024455
-0.000408
-0.100163
-0.046626
0.049567
0.086517
0.069715
-0.008573
0.078190
-0.016236
-0.056784
0.108683
0.041310
-0.172431
0.022656
-0.086257
-0.024373
0.025682
-0.052408
-0.026042
0.005158
-0.015479
-0.024806
-0.072429
0.055928
0.030868
0.050844
0.035093
-0.041470
-0.056961
-0.024751
-0.014574
-0.062959
0.222313
0.188879
0.003704
0.094826
0.085784
-0.048123
-0.019095
-0.026806
-0.042097
0.046244
-0.025631
0.136054
-0.065678
-0.023281
-0.006479
-0.028311
-0.076619
0.043730
0.013032
0.074582
0.026035
-0.136829
-0.002708
0.007721
0.005179
-0.029078
0.001188
-0.035331
-0.044194
0.014447
0.066473
0.121849
0.126563
0.012803
-0.046422
-0.058309
-0.051723
-0.013184
0.154349
0.052300
-0.010368
0.002877
0.086840
0.013678
0.091461
0.054872
0.115022
-0.001303
-0.014845
-0.036290
-0.035914
-0.067926
-0.062005
0.066568
-0.027193
-0.008157
0.162154
-0.043435
0.142366
-0.029266
0.097247
-0.042960
0.017072
0.163342
0.136900
0.153344
-0.019328
-0.045507
-0.029101
-0.066050
-0.058204
-0.058806
-0.073590
-0.042440
0.122072
-0.000406
-0.027988
-0.067383
0.017468
0.169936
0.061952
0.002030
0.089507
-0.061741
0.034198
0.024592
0.118478
-0.004739
0.039190
-0.128137
0.127272
0.121006
-0.068614
-0.060921
-0.109656
-0.009728
-0.054068
-0.033886
0.077542
-0.073226
0.014465
0.075254
-0.027840
-0.019203
-0.073903
-0.033427
0.028135
0.014682
-0.104520
0.017749
0.040771
0.074971
0.018479
-0.031129
-0.062761
0.162915
0.056326
0.017164
0.088285
-0.065044
-0.049192
-0.020146
-0.046336
0.099487
-0.041733
0.034822
0.035404
-0.018254
0.144167
-0.049665
-0.005676
-0.018281
-0.017829
-0.087625
0.121778
0.010283
0.017292
0.094729
-0.032778
-0.107124
-0.003253
0.118159
-0.056468
0.088639
0.073536
0.036828
-0.007794
-0.022387
0.140796
0.108812
0.021332
-0.173078
-0.056384
-0.081865
-0.031790
0.175004
0.048796
0.132288
0.017329
-0.064213
-0.024018
-0.021576
-0.064478
0.061314
0.184644
0.054248
-0.054844
-0.022233
0.004960
-0.084521
-0.086005
-0.010662
-0.058976
0.183106
-0.074207
-0.110777
-0.081431
0.075390
0.049858
-0.054989
0.010158
-0.095497
-0.065929
-0.041784
0.006766
-0.001516
0.095525
0.065330
0.054224
0.164652
-0.002083
0.157780
-0.010798
0.049832
0.140965
-0.016510
0.101769
0.005738
-0.063912
0.079204
0.007731
-0.096972
0.089184
-0.069150
0.037228
-0.070729
0.222067
-0.028243
-0.091216
-0.023305
0.050250
0.043907
0.058284
-0.037382
-0.064371
-0.073702
0.257436
-0.045724
-0.032581
-0.064414
0.002588
-0.086720
0.031690
-0.066197
-0.136421
0.046428
0.129161
-0.025554
0.106622
0.020280
0.011798
0.187225
0.120042
0.095226
0.014984
-0.126411
-0.042097
-0.064911
-0.002694
-0.022483
0.108343
-0.105022
0.212286
-0.056017
-0.064519
-0.077332
0.130009
0.067168
0.035217
0.030106
0.008633
-0.076900
0.016716
-0.006531
0.159656
-0.048310
0.033990
0.093884
-0.041564
0.147362
0.094960
-0.041056
0.005063
-0.077016
-0.015571
0.060383
-0.075481
-0.015669
0.125790
0.097201
-0.043347
-0.171158
-0.032212
0.134940
-0.091791
0.030455
0.002182
0.027922
0.015920
0.004834
0.051693
0.039296
0.245134
0.053453
0.162077
0.001810
-0.073596
0.121176
0.047541
-0.040825
-0.080493
0.078146
0.077743
0.055962
-0.024605
0.048331
0.008419
0.004109
0.087259
0.022547
-0.043287
-0.097953
0.148162
-0.057351
0.080969
0.073631
-0.015367
0.086668
-0.024724
0.133901
-0.077516
-0.024583
-0.080253
-0.042521
-0.075265
0.140502
-0.024030
0.106314
-0.057394
0.168289
-0.084347
0.081876
0.006216
-0.039212
0.040400
0.186123
0.016644
0.021206
0.114096
0.017157
0.243014
-0.041038
0.134694
0.028756
-0.080740
-0.031170
-0.032092
-0.024322
-0.012752
-0.199003
0.059815
0.020635
-0.059063
-0.048555
-0.069471
0.023935
0.070737
0.045275
-0.003179
-0.096777
0.048704
-0.034807
-0.014050
-0.090542
