0.359844
0.005641
0.101421
0.033405
-0.007463
0.006597
0.494755
0.175429
-0.041524
-0.031368
0.688660
0.289562
0.091436
0.424769
0.051061
0.070709
-0.015262
-0.011279
0.014978
0.004242
-0.060676
-0.133104
0.024735
0.036422
0.392090
0.315077
0.074149
-0.025583
0.040293
-0.066430
-0.195450
0.142913
-0.043241
0.103021
-0.015051
-0.001151
-0.005150
0.006075
0.086601
0.067421
0.601921
-0.048133
-0.085117
0.031021
0.023178
0.037266
-0.076160
0.040830
0.803332
-0.112900
0.207794
-0.062036
0.046346
-0.017197
0.000215
0.487963
0.102385
0.713756
0.087381
0.107977
0.035760
0.138430
0.172352
-0.060781
0.005201
0.017282
0.587793
-0.100408
-0.089976
0.005611
0.017806
0.035322
-0.055645
0.013986
0.022611
0.028268
0.005923
-0.007933
-0.045139
0.307247
0.053305
0.108364
0.229657
-0.133358
-0.055116
0.678622
-0.011923
-0.037970
-0.014891
0.066066
-0.036681
0.012161
0.025721
-0.110030
0.076525
-0.085304
0.140554
-0.199169
-0.067953
0.264291
0.066709
0.202019
0.008538
-0.048197
0.151851
-0.015409
0.301693
-0.026271
0.097495
0.038187
0.122583
0.372417
-0.031291
0.000482
-0.073660
-0.006871
0.191177
0.037446
0.027340
0.056851
0.304509
0.019048
0.176132
0.214308
0.057485
0.014605
-0.042010
-0.039027
-0.065613
0.316477
0.079429
0.027135
-0.112350
0.013919
-0.105492
-0.014383
0.091618
0.038900
-0.049897
-0.023075
-0.118890
0.131689
-0.263248
0.186605
