-0.033785
-0.067231
-0.074051
0.047236
-0.031535
0.004674
-0.152138
-0.025360
0.016143
0.287418
0.378691
0.033886
-0.042923
-0.101252
0.072159
-0.004104
-0.094606
0.041091
-0.085318
0.032631
0.036777
-0.056015
-0.063641
-0.028207
0.100340
-0.018660
0.040609
-0.007975
-0.065268
-0.040758
0.007143
0.039542
-0.056019
-0.038358
-0.061494
-0.424140
-0.172088
-0.018238
-0.024820
0.202495
-0.000484
0.076681
0.027920
-0.129837
0.039488
-0.033951
-0.008419
0.016325
0.085834
0.047510
0.032546
0.080632
-0.000528
0.302494
0.056540
-0.045406
-0.062561
0.081650
-0.074925
-0.020301
-0.001004
0.005551
-0.081693
-0.009310
0.035686
-0.068957
0.016813
0.036421
-0.002667
0.091313
0.064989
-0.026156
0.083092
-0.008165
-0.075338
0.111661
0.041418
0.035013
0.030491
-0.000447
-0.002115
-0.020347
-0.104161
0.015714
-0.005022
-0.068546
-0.078693
-0.007736
0.041787
-0.069052
0.010280
0.037555
-0.091517
0.087949
0.036188
-0.232178
0.029291
0.056688
-0.029756
0.011190
0.032103
0.034897
0.078655
0.294148
0.083424
0.112352
0.012875
0.140387
-0.027146
-0.115530
0.048246
0.045954
0.015789
-0.029593
-0.043472
0.375352
-0.011811
0.100005
-0.009033
0.005518
0.053088
-0.015308
0.132627
-0.118766
-0.027086
-0.056642
0.033961
-0.022864
0.034468
0.101549
0.038138
-0.193552
-0.005032
0.021208
0.133794
0.075291
0.018637
-0.052841
0.003660
-0.001746
-0.002583
-0.041425
0.083890
0.030306
0.058840
-0.063031
-0.085119
-0.019218
-0.018939
-0.104971
0.017764
0.061008
0.016726
-0.256213
0.032827
0.097416
0.130110
0.048526
-0.013147
-0.116931
0.046263
-0.102497
-0.007132
0.076444
-0.106097
0.034568
-0.038701
-0.121038
0.114770
0.037735
0.079419
0.054685
-0.025046
0.134786
0.028602
-0.063948
0.000037
0.045270
0.096739
-0.125752
-0.009374
0.026764
0.334973
-0.030754
0.060276
0.011568
0.148847
-0.093417
0.048024
0.099310
-0.126664
0.133876
0.087639
0.119305
0.026630
-0.024586
0.017442
-0.053461
-0.091006
0.062826
0.011680
-0.005550
-0.030584
-0.049632
-0.043281
0.045641
-0.236461
-0.150630
-0.053663
-0.032767
-0.075367
-0.042234
0.039007
0.062534
0.005901
0.001786
0.038337
-0.008194
0.075156
0.031935
0.014140
-0.050331
0.088464
0.040654
-0.040803
0.064779
0.073271
-0.013915
0.021661
-0.008755
0.198944
0.030853
-0.068694
-0.310643
0.023489
0.062351
0.121172
0.061056
-0.254683
-0.026875
-0.033219
0.115251
0.038509
-0.112325
-0.018407
-0.054089
0.005846
0.082737
0.023205
0.014973
0.220267
-0.069326
-0.242610
0.069603
0.038607
0.022043
-0.138516
-0.084062
0.052708
0.028972
-0.150180
-0.124880
-0.002630
-0.017405
0.003644
-0.080393
0.039007
0.060032
0.113199
0.098482
0.091108
0.091775
0.094918
-0.002936
0.051367
0.002515
0.111003
-0.004374
-0.005814
0.040428
0.091347
-0.010833
0.003119
0.072518
0.020576
-0.055429
0.413430
0.035532
-0.004705
0.037346
-0.005829
0.088181
-0.112784
-0.001419
-0.081117
-0.046949
0.052413
-0.044425
0.020268
0.207464
0.087888
0.105919
-0.044357
0.027250
0.061063
0.094775
-0.028986
-0.006275
-0.036607
0.037553
0.043625
0.004450
0.021699
-0.002541
-0.248655
0.039555
-0.082721
0.066825
0.086551
-0.066397
0.061429
-0.012123
-0.065687
0.098668
-0.023114
0.051675
0.008265
-0.239127
-0.035319
-0.037047
0.008582
-0.044226
-0.097369
0.072590
0.042705
0.030818
0.050464
0.145378
0.036862
-0.033249
0.083478
-0.008242
0.004141
-0.072715
-0.047440
0.021231
0.300024
-0.084215
-0.010403
-0.095210
0.017761
-0.069968
-0.014573
0.049045
-0.102182
0.074538
-0.050779
-0.009603
-0.002939
0.004082
0.117386
-0.055395
0.055287
0.145875
-0.065310
0.116339
0.027560
0.108245
-0.121684
0.004242
-0.042122
0.039858
0.041406
0.016066
-0.204762
0.107050
-0.072542
0.037098
0.157884
-0.019331
-0.210725
0.011410
-0.050522
0.053882
0.127228
-0.143284
0.309419
0.074074
0.064978
-0.093241
-0.023598
-0.031652
-0.008893
-0.080170
0.027577
-0.035409
-0.008731
-0.077865
0.017595
0.040790
0.096877
0.083486
-0.087994
0.023904
-0.010305
0.093935
0.290147
-0.049027
0.030672
0.012956
0.048709
0.037763
-0.054300
-0.061045
0.005211
0.027172
0.050027
0.015136
-0.031734
-0.071188
-0.099843
-0.052651
-0.050131
0.036138
0.204088
0.005922
0.027428
0.020904
0.347495
0.026717
0.043273
-0.064460
0.033108
-0.077199
-0.033154
0.091373
0.002052
0.011002
-0.041326
-0.029829
-0.237951
0.068559
-0.021666
-0.088625
0.073904
0.044558
-0.072901
-0.061139
-0.046867
-0.151604
0.024244
-0.060669
-0.077132
-0.057695
0.093423
-0.054806
-0.020958
-0.009953
0.006696
-0.072017
0.063750
0.353659
-0.034848
-0.136983
0.089995
-0.131555
0.033109
-0.035533
0.027081
-0.051977
0.073165
0.056320
-0.027529
0.133181
0.059184
-0.100775
0.077289
0.076031
-0.064374
-0.090939
-0.107362
0.037916
0.136430
-0.121310
0.027805
-0.012314
0.097305
-0.028758
0.003672
0.014959
0.031752
0.023173
0.030443
0.028917
0.144684
-0.000161
0.045939
0.111351
-0.119216
0.074994
0.015065
0.007174
0.030421
-0.088447
0.047585
0.215938
0.120348
0.068483
0.008015
-0.118455
0.025686
0.082082
-0.006385
0.129543
0.035159
-0.017255
-0.198555
0.018708
0.000646
-0.044113
0.049017
-0.050173
0.090412
0.026895
-0.056159
-0.008605
0.102071
-0.002871
0.400805
0.074227
0.046871
0.031224
0.054917
-0.214758
-0.055032
0.098895
0.092456
-0.054117
0.286794
-0.013066
-0.078609
0.025779
0.027239
0.094838
0.004394
-0.054381
0.021937
0.005238
-0.051782
0.045168
0.000012
0.084926
-0.117797
0.035619
-0.165166
0.211221
0.051505
0.032287
0.017875
-0.147742
-0.011440
-0.005019
0.065475
0.012423
-0.035102
0.107906
0.203034
-0.072503
0.184948
-0.030515
-0.048502
-0.026169
0.006029
-0.086980
0.046753
-0.076676
0.012875
-0.009849
-0.010811
-0.125920
0.142169
-0.018330
-0.042800
0.076264
0.009249
-0.038567
-0.062063
0.013798
0.103236
-0.052150
-0.020318
0.016296
-0.044774
-0.039157
0.052913
0.040548
-0.040793
-0.060196
-0.037380
-0.023317
-0.009866
0.103651
0.038312
-0.031054
0.008770
0.055905
-0.025372
0.398408
-0.103539
-0.038928
0.003141
0.028994
-0.073362
-0.157756
-0.176526
-0.015974
0.051543
0.157809
0.060813
-0.092105
-0.060142
-0.124345
-0.088908
-0.041778
-0.033898
-0.035034
-0.035061
0.037328
-0.074810
0.119729
0.030388
-0.314639
-0.017840
-0.044678
-0.116012
-0.071381
0.000418
-0.143895
0.117463
-0.102935
-0.053180
0.105566
0.046235
-0.072868
-0.029007
0.060460
-0.052512
-0.326311
-0.017194
0.081951
0.004937
0.021651
-0.130394
0.038288
-0.039066
-0.005685
-0.055904
-0.024871
-0.100875
-0.072857
-0.020118
-0.000364
-0.030904
-0.111638
0.188014
0.102743
-0.108999
0.012623
-0.049256
0.234242
0.067732
-0.015553
0.077817
-0.057851
-0.044701
-0.010984
0.061938
-0.119071
0.177794
-0.047740
0.031933
0.017505
-0.029728
-0.010049
0.116181
-0.031599
-0.033409
-0.003380
0.000719
0.072683
-0.009467
0.020174
-0.009205
-0.001323
0.149563
0.039995
-0.038869
-0.031106
0.033348
0.153636
0.033119
-0.073638
-0.000967
0.176545
0.048565
0.213925
0.016214
-0.099149
0.192251
0.082356
0.189808
0.122671
-0.033901
0.034565
0.181657
-0.023508
0.065216
-0.089580
-0.078862
-0.006293
-0.071974
0.006005
0.077542
0.333518
0.084244
-0.035892
-0.021192
0.060326
-0.023170
0.005608
-0.027972
-0.051439
0.093812
0.014208
0.030744
-0.077167
0.033439
-0.209663
-0.028600
0.043849
-0.037416
0.058694
0.130482
-0.005639
-0.095441
0.021978
0.073133
-0.045534
0.206329
0.007852
-0.037334
-0.130106
0.166903
0.038563
0.010701
-0.038605
0.074657
-0.040495
-0.059681
0.046895
0.059964
0.008311
0.104864
0.002718
-0.055326
-0.061859
-0.035083
-0.018222
0.009388
0.135416
0.036892
0.020688
-0.086915
0.008710
0.075850
-0.107572
0.002250
-0.048920
0.018688
-0.029302
-0.060778
0.070944
-0.029466
-0.093333
-0.053663
-0.029391
0.082005
0.441943
0.018403
-0.079353
0.095291
0.055122
-0.037112
0.140418
-0.081026
-0.012585
-0.050753
0.028263
0.088130
-0.099797
-0.063153
0.040240
0.162364
-0.070300
-0.029819
-0.022750
0.068257
0.093662
-0.116030
-0.042915
0.007401
-0.120949
-0.038766
0.045934
-0.009124
-0.008815
0.029330
-0.093207
0.015947
0.127628
-0.017410
-0.187812
0.013117
0.010465
0.054360
0.076695
-0.045148
-0.048121
-0.131472
0.055574
0.099753
0.042654
-0.196827
-0.074273
0.325595
-0.027009
-0.103797
0.013858
0.038107
0.030033
-0.087219
-0.071466
0.025854
0.237567
0.116995
-0.108370
-0.023316
0.010354
0.048275
-0.052447
-0.154373
-0.030192
-0.080531
0.026813
0.124064
0.017778
-0.062333
0.073501
0.007848
0.085723
-0.023613
-0.039908
0.067597
0.103252
-0.058824
0.045027
0.182694
0.013780
-0.322122
-0.044103
-0.016106
-0.191918
0.024051
0.002794
-0.009839
-0.015064
-0.043704
-0.179415
0.042241
-0.063039
0.048308
0.101549
0.064214
-0.059810
0.045555
0.102047
0.053786
-0.039061
-0.031286
0.075708
0.092151
-0.120932
-0.076465
0.022791
-0.064340
0.021861
-0.062661
0.122096
-0.073675
0.058736
-0.034368
0.026399
-0.053468
0.273390
-0.040065
-0.013218
-0.007871
0.269604
-0.142060
-0.112708
0.041556
0.023383
-0.009322
-0.111669
-0.038421
0.035183
0.002148
0.022001
-0.087659
-0.006306
-0.101078
-0.066483
0.022475
0.033638
0.011426
0.051144
-0.022964
-0.055960
0.063631
0.112101
-0.101929
-0.042399
0.109929
-0.027398
0.126797
-0.064841
-0.080930
0.019599
0.097331
-0.074999
0.087465
-0.039915
0.041984
0.023181
0.066437
-0.048113
0.002986
0.051497
0.001372
0.099234
-0.059716
0.022818
0.071248
0.018401
0.038612
0.154927
0.096320
-0.056569
0.269179
-0.090220
