0.009908,0.005650,-0.068905,0.200992,0.164809,-0.334252,-0.014187,-0.013729,-0.148444
0.048706,0.333014,0.120318,0.018228,-0.262760,-0.016102,-0.014576,-0.058337,-0.041081
-0.021178,0.003472,-0.020501,0.036552,0.236465,0.098152,-0.021589,0.084184,0.007965
0.011360,-0.013510,-0.000043,-0.068835,-0.155551,-0.153005,-0.060862,-0.001895,-0.069352
0.028835,0.025574,0.016190,0.023299,0.239922,0.071501,0.028959,0.047379,0.020610
-0.035997,-0.028111,-0.049666,-0.045850,-0.103414,-0.084104,-0.043537,-0.085885,-0.049355
-0.007831,-0.265402,-0.057850,-0.082333,0.372400,0.022419,-0.021517,0.135824,0.024269
-0.061643,-0.037483,-0.049516,-0.002812,-0.181440,-0.063147,-0.084552,-0.032662,-0.057626
0.005678,0.057913,0.020397,0.086050,-0.283031,-0.045361,0.005042,-0.104421,-0.069058
0.049779,0.144019,0.065663,-0.009312,-0.166058,-0.044633,-0.042071,-0.220721,-0.086028
-0.011041,0.028655,-0.006937,0.031104,-0.366814,-0.014845,0.015744,-0.040574,0.017558
0.024319,-0.069624,-0.126584,-0.083213,-0.078144,-0.064043,-0.087589,-0.090340,0.024577
-0.024770,-0.077315,-0.053889,-0.068309,-0.024136,-0.057806,-0.031825,-0.055835,-0.038476
-0.002046,0.013221,0.078254,-0.025073,-0.093361,0.185136,0.017543,0.093825,0.117640
0.055175,0.197839,0.088726,0.104503,-0.142352,0.122831,-0.013046,-0.097664,-0.016280
-0.004350,-0.040224,-0.024407,0.136431,0.258963,-0.051726,-0.029076,-0.061405,-0.011204
0.027340,0.025457,0.022300,-0.001563,0.292472,0.069966,0.003331,-0.034118,-0.012623
0.018437,-0.070785,0.010277,-0.081598,0.416721,-0.002126,0.006789,0.045711,0.022265
0.001444,-0.046012,-0.100118,0.136778,0.140355,-0.342611,0.033711,0.018332,-0.090173
-0.055848,-0.041117,0.033998,-0.191654,0.071721,0.230977,-0.063992,0.011026,0.144442
0.016442,-0.002087,0.017522,0.005278,0.234567,0.047918,0.016888,0.074705,0.037307
-0.003988,-0.002022,-0.006194,-0.025991,0.295132,0.032384,-0.011529,0.041238,-0.006539
0.061482,0.089653,-0.192834,-0.053202,0.214500,0.136619,0.028686,-0.061652,0.057321
-0.051195,-0.045028,-0.065332,-0.044654,-0.059091,-0.060697,-0.044808,-0.029444,-0.060045
0.044794,-0.069715,0.028453,0.023413,0.301833,0.094496,0.037782,-0.110839,-0.002784
0.000519,0.086217,-0.032847,0.083256,0.423918,0.075044,-0.045264,0.101198,0.008504
0.002254,0.255577,0.028638,-0.006468,-0.061829,-0.027717,-0.010822,-0.029655,-0.017944
0.034192,-0.012175,0.021380,-0.015044,0.269679,0.048995,0.027458,0.039576,0.029833
-0.024878,-0.076620,-0.031814,-0.095449,-0.069528,-0.105193,-0.026790,-0.073786,-0.035257
-0.006178,-0.048982,0.025339,-0.072973,0.079451,0.261360,0.004788,-0.044329,0.005181
0.034528,-0.120516,0.033905,0.069083,-0.186991,0.080333,0.050307,-0.145777,0.036905
-0.083604,-0.055779,0.076886,-0.032072,-0.099007,0.422046,-0.054750,-0.124866,0.068989
-0.005878,0.006140,-0.006470,-0.005347,0.267327,0.050772,-0.008599,0.035179,-0.006154
-0.012274,0.090989,0.001750,0.139366,-0.420691,0.043234,-0.008538,0.142878,0.021633
0.008623,-0.034256,0.008159,0.012897,0.232902,0.051979,0.002986,0.063192,0.016267
-0.000810,-0.021386,0.009047,-0.088788,-0.248110,-0.123525,-0.029229,-0.011669,-0.032239
-0.010427,-0.046245,-0.033532,-0.008593,0.338896,0.063507,-0.015556,0.075371,-0.004034
-0.175242,0.021964,0.186312,-0.274771,-0.033087,0.209543,-0.008894,-0.033296,-0.059419
0.002825,0.006182,0.012470,-0.011467,0.246974,0.055692,0.018794,0.085284,0.038849
0.061698,-0.014074,0.053237,0.018023,0.206694,0.061825,0.008151,0.069930,0.015905
0.019118,-0.030651,-0.000240,-0.031889,0.330223,0.045952,-0.007232,0.017080,-0.004663
-0.139835,-0.024424,0.017454,-0.227720,0.131041,0.170747,-0.104654,-0.002910,0.033190
-0.000234,-0.026438,-0.006460,-0.047616,-0.215526,-0.104436,0.012920,0.348506,0.054388
-0.031479,-0.065742,-0.064338,0.008005,-0.130245,-0.053335,-0.038466,-0.031713,-0.043591
-0.027030,-0.118328,-0.019638,-0.159326,0.540824,-0.001716,-0.031199,-0.048959,-0.002052
-0.098962,-0.282855,-0.140960,-0.031228,0.114261,-0.007852,0.023940,0.021389,0.009381
0.015219,0.030863,-0.001565,0.007308,0.251507,0.040118,0.020027,-0.021172,0.026271
-0.069682,-0.215701,-0.100844,-0.078071,0.155980,-0.054447,-0.043268,-0.048716,-0.035562
-0.045402,-0.065461,-0.085872,0.013790,-0.066718,-0.101177,-0.042039,-0.068774,-0.076762
0.034845,0.002327,0.030257,0.046532,0.172619,0.062752,0.028550,0.077750,0.045753
0.008669,-0.038026,0.004876,-0.109869,0.428331,-0.036209,0.000346,-0.080431,-0.002356
0.020317,0.173269,0.078546,-0.058363,0.255880,-0.026195,0.001008,-0.116209,-0.018695
0.008491,-0.033306,-0.032711,-0.003536,0.035966,0.236533,0.009041,-0.021013,0.108529
0.014170,0.064051,0.014978,-0.004499,0.273435,0.044995,0.019383,0.034191,0.024147
0.018997,0.039114,0.021481,-0.023398,0.205189,0.047120,0.023753,0.020563,0.015366
-0.006361,-0.020066,-0.031471,0.079891,-0.309759,-0.038655,-0.009287,-0.082116,-0.048735
-0.019257,-0.133705,-0.059259,-0.011070,0.299317,0.054599,-0.001293,-0.066629,-0.017296
0.017676,-0.019328,0.023814,-0.038338,0.327787,0.052423,0.009408,0.055909,0.027865
0.090864,-0.038377,-0.041661,0.330516,-0.062031,-0.001426,0.110627,-0.088092,-0.030786
0.010680,-0.047325,-0.013656,0.059025,-0.298010,-0.003336,0.028073,-0.086881,0.015435
0.025655,-0.019095,0.016609,-0.017000,0.262767,0.059768,0.009597,0.070860,0.030163
-0.041909,-0.062791,-0.072505,0.001543,-0.124498,-0.035113,-0.027596,-0.107470,-0.048066
-0.012942,0.016382,-0.010610,0.010446,-0.230618,-0.062732,-0.031527,-0.085882,-0.040889
-0.032083,0.130513,0.090524,-0.153281,0.285521,0.057798,-0.075780,-0.173359,-0.075908
0.007646,0.017868,0.011691,0.010981,0.281290,0.059944,0.011738,0.047856,0.018315
0.028635,-0.014721,-0.024559,0.239836,0.113896,-0.236363,0.157328,-0.133771,-0.095549
0.059264,0.332835,0.135795,-0.059951,0.019958,-0.054116,0.014380,-0.027301,0.007385
-0.011086,-0.094006,-0.027033,-0.021717,-0.118009,-0.070986,0.032307,0.362257,0.079279
0.012256,0.011012,0.016019,-0.017265,0.269125,0.046894,0.010836,0.060904,0.039493
0.021965,-0.080962,0.006881,-0.012348,-0.296478,-0.089607,0.016233,-0.105895,-0.004051
-0.013893,0.035179,0.046428,0.208306,0.063872,-0.017590,0.089917,0.024295,0.000001
-0.017982,-0.032642,0.039774,-0.012500,0.361396,0.064687,0.032814,0.029837,0.011697
0.005805,0.014939,0.000734,-0.016906,-0.368603,-0.061328,-0.016178,-0.019783,-0.019340
-0.046213,-0.068284,-0.068370,-0.016960,-0.123068,-0.023565,-0.066100,-0.118749,-0.090820
-0.079404,0.007519,-0.075218,0.016581,-0.190112,-0.045241,-0.072392,-0.016722,-0.061205
-0.035043,0.040037,-0.024980,-0.036746,0.031454,-0.033785,0.004905,0.278014,0.064517
0.070952,0.096832,0.020411,-0.019804,0.107238,0.127226,0.011889,0.000412,0.109487
0.016551,-0.010479,0.017127,-0.020465,0.276537,0.053081,0.012192,0.076911,0.045040
-0.031088,-0.087516,-0.051011,-0.036801,-0.193505,-0.106867,-0.018029,0.067562,0.000329
0.009707,-0.032611,-0.003395,-0.004900,0.231838,0.080210,-0.024852,0.088879,-0.004690
0.006184,-0.005982,0.008945,-0.016141,0.257911,0.042963,0.032609,0.067909,0.053139
-0.012944,0.007882,0.028162,0.018208,0.339751,0.106361,0.048541,0.031802,-0.010462
0.046207,-0.037492,0.005652,0.087525,0.200663,-0.066194,-0.203839,0.132578,0.045904
0.049455,0.104497,0.008531,0.114606,0.127849,-0.140314,0.077964,0.097584,0.034080
-0.003916,-0.123837,-0.011027,-0.028444,0.269358,0.073869,-0.014213,0.089724,0.015834
-0.003989,-0.013960,0.009137,-0.027418,0.281339,0.058859,-0.003730,0.013003,0.000819
-0.072385,-0.026622,-0.087174,-0.027886,-0.053355,-0.025760,-0.073476,-0.005808,-0.074604
-0.040411,-0.047556,-0.044765,-0.034433,-0.090118,-0.050458,-0.068979,-0.089563,-0.071519
0.004796,-0.012184,0.018437,0.016164,0.282428,0.119238,0.001601,0.103739,0.042501
-0.006474,-0.011643,-0.011648,-0.036917,0.327219,0.030633,-0.001756,0.071061,0.030882
-0.019564,0.027068,-0.012572,0.078879,0.218298,0.016207,0.029192,0.017298,0.020077
0.023450,-0.018651,0.014669,-0.022583,0.320608,0.059620,0.012762,0.014398,0.027505
-0.016891,-0.035168,-0.019936,-0.036457,0.332888,0.045147,-0.006381,0.041170,-0.005993
0.020978,0.078561,0.032064,-0.045297,0.345208,0.027228,-0.011045,-0.103419,-0.040324
-0.003016,0.028952,0.056038,-0.045882,0.331219,0.087086,0.039062,-0.016159,-0.015829
-0.044039,-0.095860,-0.086397,-0.107421,0.025567,-0.088533,-0.079577,-0.105990,-0.104744
0.069495,-0.085104,-0.009547,0.310607,0.050725,-0.255120,-0.025461,0.037607,-0.019182
0.036260,-0.069785,0.022956,0.039464,-0.054928,0.003926,0.062580,0.245704,0.099977
0.014821,-0.063644,0.007904,-0.017320,0.322733,0.031978,0.013784,0.064545,0.020872
-0.002835,-0.027176,-0.003433,-0.040212,0.342263,0.047535,-0.002375,0.022952,-0.008506
0.021024,-0.028554,0.013697,0.005040,0.294794,0.042735,0.024509,-0.012531,0.013804
0.035992,0.294087,0.075391,-0.009147,-0.204090,-0.058250,0.005034,-0.087182,-0.033757
-0.007235,-0.026446,-0.011446,-0.076268,-0.068077,-0.087018,-0.069203,-0.057285,-0.070025
-0.031949,-0.054116,-0.004620,-0.053046,-0.187017,-0.065786,0.000815,-0.057933,-0.063830
0.007727,0.054787,0.036989,-0.004894,0.254171,0.031188,-0.018599,-0.020986,-0.017689
-0.028463,-0.068644,-0.030558,-0.049607,-0.184227,-0.103836,-0.038710,-0.086248,-0.033752
-0.042428,-0.087787,-0.035342,-0.054751,-0.127848,-0.071598,-0.009280,-0.077955,-0.035942
0.032608,0.044074,0.029971,-0.010777,0.359831,0.047428,0.024554,-0.010762,0.022347
-0.006177,-0.019118,0.002667,-0.006848,0.332367,0.078339,0.011040,0.050320,0.034910
-0.010758,-0.057706,-0.023239,-0.038812,-0.124773,-0.057982,-0.031398,-0.064862,-0.037079
-0.014458,0.064093,0.000949,-0.055183,-0.237261,-0.065474,-0.000569,-0.085169,-0.021585
0.031318,-0.055533,0.023557,-0.039014,0.258014,0.005217,0.040044,0.036122,0.049298
0.037665,-0.049525,0.035668,-0.041924,-0.438356,-0.144826,0.000803,-0.093144,0.056320
0.002380,0.152476,0.038235,0.086975,-0.247614,-0.101021,0.004615,-0.080844,-0.049812
0.017054,0.055706,0.017710,0.056952,0.406891,0.090834,-0.006493,0.086689,-0.008188
-0.056154,-0.101654,-0.106615,-0.008531,-0.193692,-0.070343,0.057484,0.324369,0.158579
0.021066,-0.037866,0.012123,-0.045487,0.426867,0.033194,0.026563,0.030725,0.001103
-0.039432,-0.005087,-0.048583,-0.040383,-0.099901,-0.056250,-0.057895,-0.074361,-0.076973
0.017496,-0.064509,0.006504,-0.146886,-0.180214,-0.159297,-0.006284,0.127076,0.028290
0.024049,-0.033653,-0.067868,0.208406,-0.060210,-0.200123,0.056671,0.085323,-0.003926
-0.126643,-0.008000,0.102115,0.133956,0.233511,-0.024940,0.041002,-0.056378,0.003199
-0.013653,-0.086692,-0.042143,-0.056713,-0.180034,-0.084686,-0.032566,-0.051923,-0.033388
-0.024020,-0.080803,-0.028903,-0.034127,-0.234364,-0.055468,-0.005407,-0.084056,-0.025031
0.015426,-0.011503,-0.010110,-0.026144,0.314606,0.036945,-0.036174,0.066777,-0.020554
-0.032109,-0.259464,-0.085095,-0.124540,0.410919,-0.017657,-0.050595,0.149256,-0.015895
0.036713,0.050310,-0.020538,0.218420,-0.246230,-0.039404,0.073955,-0.058806,0.002758
0.008285,0.201299,0.041044,-0.002719,-0.229440,-0.056581,-0.052334,-0.077722,-0.060688
0.166239,0.003625,-0.037646,0.330813,0.064803,-0.234137,-0.018801,-0.148663,-0.023129
0.060007,0.002861,-0.020741,0.183592,-0.154331,-0.000396,0.145887,0.041394,-0.030213
-0.006446,0.000959,-0.014374,0.016106,-0.280431,-0.055999,-0.009168,-0.067475,-0.027049
0.066656,0.047390,0.063763,0.143246,-0.243924,0.113638,0.040036,0.106929,0.069394
-0.009162,-0.043894,0.002127,-0.005327,0.272951,0.077851,0.009419,0.099514,0.027586
0.010493,-0.034233,-0.008320,-0.022003,0.251411,0.061680,0.011417,0.056442,0.029610
-0.089116,-0.070321,-0.006072,-0.256144,0.195349,0.192965,-0.063521,0.014222,0.020141
-0.048091,0.004636,-0.044208,-0.060818,-0.086030,-0.073049,-0.028616,-0.112283,-0.077763
0.014596,-0.018868,-0.052092,0.408398,0.174882,-0.461837,0.071612,-0.039596,-0.017854
0.051807,0.133628,0.060524,0.040157,-0.190161,-0.051092,-0.006948,-0.104980,-0.059180
-0.002724,-0.002801,-0.013419,-0.022760,-0.204059,-0.082442,-0.030050,-0.070669,-0.051721
0.001246,0.001564,0.013750,-0.035916,0.322262,0.058159,-0.006390,-0.001367,-0.007909
0.002925,-0.015531,0.019968,-0.021476,0.304428,0.070704,0.001099,0.018467,0.010928
-0.033895,-0.046448,-0.041057,-0.043286,-0.058551,-0.057210,-0.049566,-0.071642,-0.081285
-0.050474,-0.043281,-0.070892,-0.064856,-0.037288,-0.062184,-0.058243,-0.043809,-0.074178
-0.005340,-0.049422,-0.025694,-0.046945,0.348960,0.055779,-0.008853,0.079351,-0.005288
0.022898,-0.011722,0.029719,-0.002222,0.296170,0.068681,0.012530,0.048872,-0.000253
-0.118536,-0.084090,0.022448,-0.063905,-0.104674,-0.084166,0.041264,-0.065831,-0.118471
0.000421,0.344770,0.038623,0.064412,-0.104970,0.002033,-0.043053,-0.191276,-0.071073
0.008506,-0.047230,-0.013545,-0.054723,0.456368,0.013014,0.017352,-0.005429,0.002956
0.006713,-0.034777,0.062341,-0.046923,0.159143,0.120066,0.030509,0.058587,0.076484
0.023862,0.053773,0.043644,0.040505,0.241171,0.123380,-0.024161,-0.058765,-0.019446
-0.033440,-0.065113,-0.035717,-0.037842,0.411950,0.055588,-0.012438,0.056431,0.008735
-0.031654,-0.014678,-0.069498,-0.049339,-0.106724,-0.068688,-0.020757,-0.080094,-0.035326
-0.011406,-0.094115,-0.037442,-0.005188,0.167181,0.034997,0.039813,0.172400,0.081642
-0.032193,-0.065575,-0.035987,-0.037573,-0.100507,-0.070855,-0.041388,-0.040322,-0.042827
0.039172,-0.016584,0.030359,-0.022148,0.270872,0.054583,0.007038,0.022112,0.015618
0.030370,-0.000777,-0.000436,0.063392,0.083999,0.238749,0.035150,0.000460,0.056597
0.036288,0.001015,-0.010165,0.021750,0.350889,-0.048995,-0.017693,0.012959,0.013160
0.019828,-0.099376,0.035026,0.142422,-0.322506,0.150886,0.021322,-0.047138,0.036513
0.013736,-0.078718,-0.031102,-0.044942,-0.276485,-0.086985,-0.003552,-0.124711,-0.006258
-0.020875,-0.056593,-0.019153,-0.102044,-0.063136,-0.115472,-0.006178,-0.088523,-0.016759
0.013338,-0.049092,0.015681,-0.001740,-0.310714,-0.047644,0.021316,-0.088704,-0.005597
0.053974,-0.049198,-0.011054,0.317071,-0.070742,-0.051237,0.086939,-0.097809,-0.009902
-0.002848,-0.013713,0.011355,-0.007538,-0.309073,-0.035163,0.003224,-0.046399,0.003525
0.052542,0.048209,0.005740,0.109275,0.226801,-0.076689,-0.000323,-0.073880,0.002740
-0.013617,0.016295,-0.004116,-0.002523,-0.282097,-0.052756,-0.022916,-0.110958,-0.035837
-0.060311,-0.124859,0.071245,-0.146092,-0.124037,0.213553,-0.083817,-0.067808,0.057956
0.000644,-0.070950,-0.009161,-0.022394,0.391129,0.016237,0.029743,-0.022185,-0.062089
0.002321,-0.056665,0.002747,-0.054102,0.332195,0.034155,0.007829,0.050040,0.022823
0.012538,0.003377,-0.024363,0.259452,0.180041,-0.427888,0.098035,0.029134,-0.155274
-0.007898,0.060309,-0.002448,-0.024679,0.385679,0.036531,0.026356,-0.008756,0.018762
-0.027576,-0.094353,-0.051299,-0.071003,-0.069044,-0.069626,-0.029755,-0.079283,-0.039744
0.018653,-0.015063,0.026744,0.023286,0.305317,0.087345,0.007395,-0.071642,-0.005496
0.011014,-0.061657,0.004257,-0.059295,0.426405,0.011049,0.006728,0.012764,0.011662
-0.000285,-0.024613,-0.008990,-0.054603,0.370697,0.028638,0.010166,-0.008646,0.010951
-0.022850,-0.043678,-0.040126,-0.086386,0.088350,-0.098794,-0.057835,-0.113418,-0.088392
-0.038618,-0.054956,-0.043381,-0.054547,-0.060572,-0.061897,-0.051470,-0.041758,-0.087498
0.037994,-0.061733,0.021381,-0.040526,0.221396,0.008596,0.005814,0.104878,0.028217
0.014016,0.164233,0.043413,0.091987,-0.405978,-0.014488,-0.007611,-0.095304,-0.039258
0.032232,0.036385,0.030752,-0.058624,-0.140839,-0.110038,0.072837,0.314449,0.113115
0.006788,-0.019973,0.011498,-0.020651,0.339033,0.033727,0.015071,0.008860,0.012684
0.007374,0.151944,0.112048,0.138854,0.054575,-0.102758,0.128584,-0.057705,-0.012417
-0.002351,-0.035324,-0.008827,-0.019898,0.287509,0.051089,0.010704,0.040055,0.035912
0.007971,-0.041316,0.011427,-0.159568,0.050059,0.209291,-0.068762,-0.079140,0.226377
-0.032017,-0.095884,-0.049235,-0.060230,-0.091208,-0.069815,-0.050884,-0.060373,-0.055031
-0.010471,-0.054242,0.000303,-0.068622,-0.310396,-0.098994,0.006966,-0.089912,-0.006264
-0.006238,0.030410,0.002745,0.048467,0.204017,0.098190,-0.004675,0.057194,-0.013252
0.002197,-0.043997,-0.009063,-0.061390,0.388839,-0.004108,-0.016727,0.042764,-0.022709
0.050178,0.193192,0.099823,0.015643,-0.074949,-0.001105,-0.007748,0.000419,-0.004311
0.011811,-0.056129,0.004855,0.000391,0.277443,0.058036,0.008573,0.069249,0.030871
-0.025783,-0.057401,-0.042110,-0.028408,0.265135,0.064720,0.019420,0.152287,0.050798
0.000723,-0.027074,-0.007473,-0.025101,0.252895,0.039839,0.015114,0.044054,0.020018
0.002264,-0.046626,-0.011425,-0.055841,0.334984,0.007312,0.036560,0.046743,0.042079
-0.019480,-0.060519,0.019009,-0.124955,0.476974,0.075207,-0.019916,0.016780,0.024369
-0.048781,-0.007312,-0.030580,-0.024619,-0.054557,-0.036864,-0.060495,-0.053640,-0.095420
-0.005693,0.010110,-0.006558,0.065630,0.209865,0.116403,-0.006740,0.093812,0.039667
-0.037794,-0.018738,-0.042032,-0.007497,-0.156540,-0.072057,-0.038720,-0.073993,-0.038081
-0.012400,-0.057424,-0.018765,-0.034174,0.350306,0.038976,0.000683,0.042937,-0.001953
-0.019023,-0.004842,-0.016054,-0.035474,-0.194769,-0.091890,-0.024825,-0.094165,-0.055508
-0.052879,-0.033076,-0.047361,-0.038801,-0.116274,-0.079734,-0.057394,-0.061108,-0.079249
0.014141,-0.019987,0.002568,-0.013778,0.281347,0.096945,0.005042,0.084380,0.025352
-0.020582,0.021266,-0.022230,-0.010800,-0.273963,-0.057719,-0.024878,-0.067377,-0.039469
-0.034378,-0.036182,-0.043786,-0.027215,-0.112187,-0.044448,-0.064991,-0.033778,-0.057002
-0.061992,-0.138862,-0.088513,-0.038594,-0.136930,-0.080356,0.073456,0.237618,0.101698
-0.053570,-0.012306,-0.032985,-0.074331,-0.034008,-0.078376,-0.065469,-0.078766,-0.075500
0.005394,-0.315564,-0.048882,0.009526,0.228778,0.067288,-0.009406,0.087672,0.005457
0.018391,-0.017186,0.052240,-0.000812,0.343199,0.002459,0.026372,0.087614,-0.013052
0.032109,0.105628,0.052789,0.049708,0.130419,0.070490,0.025461,-0.136690,-0.004745
0.049656,-0.059290,-0.094297,0.258553,0.128142,-0.358765,0.154044,0.060818,-0.094316
0.095793,0.151710,0.122074,0.085105,-0.467291,-0.026410,0.050180,-0.030091,0.050865
0.013189,-0.062428,-0.001590,-0.066508,0.429506,0.016727,-0.003706,0.020131,-0.005499
0.011073,-0.031380,0.006593,0.009415,0.198507,0.063645,0.006624,0.112133,0.041248
0.007721,-0.013922,0.018396,-0.037378,0.284336,0.042515,0.018643,0.006514,-0.004483
-0.017162,0.027773,-0.012315,0.038075,0.297662,0.086351,-0.009228,0.096210,0.004870
0.031204,0.043395,0.009886,0.200053,0.115589,-0.106271,0.079165,-0.012452,0.026251
-0.007096,-0.027658,-0.009697,-0.041269,0.349585,0.066566,-0.007235,-0.010509,0.017511
-0.048019,-0.021259,-0.040958,0.007729,-0.149960,-0.023470,-0.075202,-0.008336,-0.070359
-0.051454,-0.084208,-0.067101,-0.067982,-0.077581,-0.100467,-0.044987,-0.007989,-0.044053
-0.046020,0.014324,0.037354,-0.198553,0.455356,0.065199,-0.094704,-0.114791,-0.044137
0.012926,0.107806,0.034029,-0.006873,0.193291,0.029896,-0.012212,-0.076742,-0.040247
-0.077579,0.044622,0.004237,-0.198569,0.191234,0.038147,-0.142555,0.134333,-0.003252
0.008662,0.013426,0.013583,-0.008788,0.340655,0.063060,-0.014702,-0.015738,-0.006838
-0.029667,-0.209618,-0.057112,-0.167027,0.560639,-0.000812,-0.005102,0.021879,0.022599
-0.010838,-0.029099,-0.020422,-0.030581,0.333290,0.044876,0.011430,0.062499,0.015861
0.030633,-0.039549,0.004178,-0.023773,0.399011,0.079040,0.023532,0.030509,0.020488
-0.045009,-0.111802,-0.050613,-0.082921,0.323961,0.041364,-0.042050,0.074533,0.036417
0.000877,-0.113086,-0.027271,-0.013043,0.428697,0.074948,0.019217,-0.125445,-0.043635
-0.060367,0.008682,-0.054602,-0.023202,-0.157861,-0.060657,-0.068954,-0.040639,-0.051956
0.017128,-0.021594,0.010098,-0.027418,0.297351,0.077991,0.012342,0.033525,0.020586
-0.072499,-0.052039,-0.034392,-0.083331,-0.062140,-0.032508,-0.087027,-0.053846,-0.013217
0.005358,-0.007708,0.008631,-0.022844,0.270901,0.052843,-0.009946,0.030537,-0.001313
-0.022985,-0.008080,-0.029814,-0.009645,0.259603,0.060900,-0.023029,0.086748,-0.016070
0.017334,-0.008380,0.003870,-0.021255,0.291044,0.047004,0.031479,0.013565,0.022640
0.030059,-0.089490,0.004352,-0.069102,0.352575,0.024067,0.015291,0.022564,0.017671
0.000596,-0.039192,-0.014769,0.006496,-0.245432,-0.048778,-0.013298,-0.079978,-0.013183
0.009155,0.049031,0.014556,0.014379,0.210345,0.075997,0.000980,0.062319,-0.009809
-0.032889,0.093337,0.014206,-0.081863,0.217297,-0.051808,-0.154821,-0.213160,-0.139382
-0.019168,-0.057305,-0.024279,-0.142249,0.446139,-0.133803,0.020895,-0.089965,-0.023064
0.002851,0.204258,0.039860,0.042053,0.168814,0.068980,0.019331,-0.079337,-0.005457
0.027334,0.072059,0.035502,0.037379,0.360467,0.092681,0.027032,0.069478,0.026847
0.031726,0.037104,0.045520,-0.135573,-0.277672,-0.199548,0.034328,-0.133637,0.068511
0.024796,0.022119,0.015604,0.003440,0.296786,0.077529,0.000185,0.023766,0.057042
-0.031121,-0.033735,-0.012142,0.035727,0.288912,0.082072,-0.011749,0.018294,0.006323
-0.001718,0.032981,0.000858,-0.067686,0.300589,-0.009833,-0.013825,0.054919,0.012350
-0.007918,0.044425,0.026138,-0.023479,0.287015,0.032431,0.019268,-0.038281,0.017788
0.104271,0.209287,0.132526,0.068243,-0.229289,-0.064043,0.022357,-0.065395,-0.046698
-0.087379,-0.077370,-0.100317,-0.040502,-0.160583,-0.072428,-0.015304,0.008675,-0.010466
-0.002506,-0.151666,-0.025532,-0.099467,0.385769,0.030742,0.005143,0.056345,0.046902
-0.015291,0.081482,-0.002452,-0.023548,-0.219071,-0.069927,-0.023703,-0.067915,-0.050590
0.009422,-0.014775,0.007098,-0.035757,0.395053,0.034676,0.010107,-0.084747,-0.005424
-0.044949,0.028426,-0.035364,-0.073843,-0.132177,-0.097837,-0.092443,-0.041599,-0.086366
-0.054649,-0.026242,-0.081831,-0.037303,-0.075521,-0.066267,-0.055476,-0.052297,-0.038722
0.004759,0.030150,-0.018580,-0.024812,0.321846,-0.110651,0.004165,0.086201,-0.058023
0.040076,-0.008021,0.035441,0.018145,0.267584,0.073767,0.046327,0.029398,0.042584
-0.055814,-0.249018,-0.057015,-0.086367,0.380271,0.014776,-0.032931,0.150498,0.050575
-0.016558,-0.058963,-0.044775,-0.052005,-0.143555,-0.065812,-0.046731,-0.049058,-0.044289
-0.059605,0.014938,-0.061290,-0.004182,-0.126008,-0.031771,-0.034386,-0.029812,-0.047109
0.007144,-0.048052,-0.003658,-0.036639,0.413653,0.017337,0.014033,0.024123,0.019714
-0.008378,-0.050833,-0.007625,-0.034334,0.300045,0.061531,0.010428,0.039902,0.037585
-0.025095,-0.059212,-0.037112,-0.063448,-0.052356,-0.069447,-0.044807,-0.086885,-0.051794
-0.118940,0.098967,0.035693,0.034498,0.262502,-0.074848,0.044981,-0.012326,0.020996
0.116220,-0.033345,-0.064833,-0.003781,0.289185,-0.056059,-0.070155,-0.034953,0.139145
0.003195,-0.063146,-0.005596,-0.055391,0.318051,0.060230,0.002988,0.051013,0.010954
0.013648,-0.017121,0.018794,-0.038713,0.345858,0.048994,-0.012366,-0.043448,-0.023473
-0.000299,-0.066230,0.010179,-0.135907,0.526933,-0.011685,-0.010394,-0.114738,-0.030511
0.003019,0.017637,0.012766,0.017410,0.296120,0.080138,0.002919,0.062049,0.013252
0.075126,-0.002127,-0.075518,0.183793,-0.165620,-0.126076,0.066400,0.086120,-0.061304
0.025421,0.144050,0.051090,-0.002114,0.182705,0.047915,-0.000481,-0.041267,-0.020332
-0.003877,-0.068075,-0.013868,-0.056639,-0.123499,-0.092444,-0.038066,-0.080148,-0.050302
0.062031,0.311121,0.115940,0.023936,-0.155724,-0.013494,0.010799,-0.132846,-0.024285
0.042113,-0.041583,0.021016,-0.064699,-0.292352,-0.101392,0.016826,-0.104673,-0.007116
-0.046050,-0.051636,-0.083672,0.005810,-0.097002,-0.096943,0.023435,-0.072955,-0.121106
0.001972,-0.000243,-0.005647,-0.079440,-0.123883,-0.100713,-0.061547,-0.019962,-0.071440
-0.039921,-0.076190,-0.051095,-0.045346,-0.086697,-0.052685,-0.067008,-0.078904,-0.063695
0.001608,-0.017544,-0.002086,-0.012109,0.270775,0.044010,-0.012047,0.021882,-0.001129
0.016768,-0.067628,0.014706,-0.116523,0.492641,0.008866,0.007724,-0.024532,-0.006201
-0.063552,-0.030431,-0.080348,-0.021526,-0.069995,-0.043795,-0.045783,-0.086555,-0.058690
-0.017687,-0.121661,-0.067896,-0.085787,0.221267,0.035717,-0.009682,0.245951,0.070685
0.021836,-0.024716,0.002517,0.003872,0.256901,0.085886,0.017693,0.063734,0.020871
-0.097850,-0.241515,-0.043706,-0.039525,-0.109626,-0.058577,0.124096,0.369447,0.102172
-0.052943,-0.060354,-0.068817,-0.056961,-0.029110,-0.071786,-0.040472,-0.054549,-0.052340
-0.011758,-0.048842,-0.018109,0.019136,0.281841,0.058050,0.010159,0.083501,0.021591
0.004793,0.033507,0.025529,-0.034555,0.366410,0.023504,-0.017991,-0.023876,-0.023362
0.007062,0.022408,0.015671,0.033324,0.231038,0.102068,0.010013,0.084255,0.029310
0.038136,0.036881,0.054347,-0.055243,0.360721,0.006620,-0.012454,-0.086637,-0.033068
0.022010,0.063449,-0.000064,0.025634,0.395722,0.119660,0.011443,0.079512,0.011886
0.031447,0.047225,-0.008766,-0.011072,0.326576,-0.026040,-0.024719,-0.031729,0.031764
0.007905,-0.025890,0.000730,-0.006511,0.328387,0.049342,0.003295,0.050948,0.005701
-0.001938,-0.050072,-0.019566,-0.010771,0.266454,0.033418,0.006642,0.022031,0.008170
-0.078988,-0.152158,-0.105166,-0.016747,-0.147857,-0.018280,0.002249,0.061012,0.018178
0.005714,-0.041758,0.006639,-0.008764,0.293637,0.050503,0.026619,0.052568,0.040584
0.033830,0.001624,0.031091,0.004289,0.265944,0.064174,0.011713,-0.016030,0.003395
-0.012177,-0.053933,-0.038182,-0.042498,-0.115646,-0.070067,-0.012735,-0.112450,-0.036722
-0.040133,-0.274967,-0.143674,0.002775,0.087589,0.051370,-0.022943,-0.014876,-0.021787
-0.016337,-0.031374,-0.012704,-0.065040,0.370054,0.048914,-0.023363,0.037472,0.005330
0.059367,-0.035794,-0.036716,0.309022,-0.188700,-0.114290,0.062640,0.004539,-0.050690
-0.003528,-0.119615,0.056828,0.139953,0.176832,-0.105859,0.146098,0.066482,-0.059289
-0.069194,0.034756,0.052425,-0.211679,0.130067,0.106746,-0.090220,0.021347,0.068837
-0.008629,0.025893,-0.006032,0.005723,0.319835,0.071579,0.016299,0.032569,-0.001313
-0.016412,0.019554,-0.014233,0.013030,-0.261458,-0.033952,0.026116,0.262711,0.082983
0.049447,0.079740,0.069396,0.134566,-0.209440,0.088018,0.060975,0.007465,0.063663
-0.006307,-0.011941,0.009301,-0.036296,0.321055,0.049899,0.007517,0.066871,0.042165
-0.007734,-0.075957,-0.015642,-0.067405,0.416971,0.022781,-0.014822,0.035389,0.012114
-0.088654,-0.145946,-0.090383,-0.023746,0.227545,0.060001,0.004040,0.063324,0.016179
0.021021,-0.024862,0.003529,0.002719,0.297097,0.046663,0.025663,0.023989,0.012657
0.045735,0.105880,-0.001636,-0.002265,0.291720,0.002647,-0.014016,0.025994,0.020935
-0.060617,-0.062925,-0.078204,-0.067046,-0.007279,-0.059422,-0.064568,-0.052306,-0.068754
0.075398,-0.084174,-0.109300,0.142916,0.223584,-0.216986,0.114365,-0.022728,-0.089422
0.000675,-0.048906,0.002162,0.013167,0.244226,0.070114,0.012874,0.130455,0.025399
0.008368,-0.060196,-0.011588,0.002580,0.256974,0.040918,0.023590,0.062226,0.031533
0.067327,0.127081,0.076201,-0.003331,0.092701,0.017033,0.065541,0.058287,0.076074
-0.000836,0.020332,0.009211,0.016021,0.251761,0.078591,0.008951,0.016565,0.005880
0.044901,0.018724,0.002829,-0.020765,0.331953,0.041403,-0.006817,0.059271,0.045118
-0.056248,-0.187240,-0.088392,-0.028678,-0.120820,-0.034521,0.098666,0.295107,0.110412
-0.026747,-0.079346,0.107362,-0.053201,0.270765,0.034365,0.128419,0.023335,-0.094210
0.040023,-0.162890,0.030043,0.008621,-0.371307,-0.013343,0.047157,-0.120733,0.030390
0.012879,-0.080350,0.013007,-0.064564,0.395743,0.044768,0.006085,0.064266,0.035122
-0.000051,-0.048287,0.006936,-0.046289,0.467105,0.034151,0.009248,0.005086,0.013844
0.025925,0.183819,0.054220,0.054828,0.092868,0.074985,-0.018044,-0.053168,-0.022038
-0.018017,0.027252,-0.015546,-0.009269,-0.120706,-0.027348,-0.030316,0.409305,0.026190
-0.017403,-0.038828,-0.015466,-0.063089,-0.232493,-0.080051,-0.007193,-0.055171,-0.006524
0.003209,-0.035199,-0.016861,0.015036,0.254763,0.085201,0.016180,0.055465,0.034270
0.008224,-0.032355,0.053855,0.044457,0.335802,0.023351,0.028938,-0.018014,-0.010745
-0.017822,-0.029371,-0.009533,-0.027117,0.305308,0.060226,0.004066,0.048218,0.028359
-0.055347,-0.045142,-0.058682,-0.072784,-0.036447,-0.090231,-0.047771,-0.077452,-0.065371
0.036414,-0.007145,-0.010033,-0.024061,0.323622,0.092314,0.024789,-0.031264,0.005756
-0.023336,-0.104475,-0.066915,-0.058453,-0.011172,-0.105865,-0.042630,-0.062196,-0.046198
0.021236,0.038095,0.025406,-0.065665,0.245126,0.030102,-0.013309,0.023220,-0.021392
0.018446,-0.042139,0.017922,-0.124685,0.540731,0.005206,-0.005363,-0.135769,-0.022870
-0.029824,0.097639,-0.019760,0.047610,0.239485,0.090547,-0.017697,0.032036,-0.011942
0.001548,-0.050282,-0.037374,-0.043131,-0.219734,-0.109215,-0.045114,-0.120497,-0.059818
0.037433,-0.035527,0.017586,-0.037295,0.460622,0.032606,0.027433,0.027219,0.028373
0.041937,0.059284,0.045172,-0.025556,0.289072,0.039687,-0.006136,-0.095067,-0.043259
0.004637,0.063080,0.011879,-0.051077,-0.225909,0.242775,-0.080301,-0.078742,0.004038
0.038302,0.022723,0.036266,0.003733,0.231114,0.036910,0.029808,0.082162,0.037452
-0.020033,-0.021188,-0.019246,-0.066961,-0.094595,-0.094166,-0.081577,-0.076117,-0.069590
-0.048460,-0.053346,-0.047059,-0.043990,-0.055861,-0.054832,-0.048665,-0.037507,-0.067886
-0.007981,-0.037488,-0.020968,-0.033255,-0.270064,-0.089513,-0.009703,-0.086083,-0.024657
0.080262,0.257013,0.103500,-0.046911,-0.156565,-0.060962,-0.029263,0.042779,-0.029800
-0.020867,-0.102534,-0.023667,-0.114852,0.491937,0.061966,-0.019783,0.046328,0.036221
-0.006989,-0.095080,-0.014486,-0.083187,0.462036,0.011213,-0.021399,0.014912,-0.014218
-0.016082,-0.146836,-0.021337,-0.107822,0.425085,0.006447,0.001864,0.049091,0.032783
-0.012210,-0.037156,-0.044156,-0.039445,-0.179438,-0.081980,-0.051601,-0.078537,0.010083
-0.003207,-0.041502,0.000509,-0.039195,-0.158979,-0.102360,-0.030064,-0.104901,-0.044957
0.014794,0.092085,0.010830,0.020261,-0.434775,-0.024636,-0.004962,0.102036,0.012436
0.034773,-0.136134,-0.005025,-0.143555,0.432975,-0.073363,0.007054,-0.040877,-0.015882
-0.018603,-0.022533,-0.018521,-0.009632,0.242799,0.049051,-0.013855,0.058281,0.018378
0.005324,-0.032156,0.016192,-0.011742,0.277678,0.043450,0.001549,0.049289,0.010416
-0.019396,-0.022120,-0.033146,-0.067303,-0.172244,-0.080661,-0.016857,-0.085334,-0.035893
-0.009771,-0.006940,-0.001213,0.127012,-0.329179,0.218433,0.003652,-0.020850,0.023029
-0.017348,-0.069615,-0.030633,-0.046109,-0.119144,-0.075964,-0.042850,-0.084167,-0.061723
0.018685,-0.026558,0.063120,-0.140457,0.475563,0.074978,0.020254,-0.011506,0.021507
-0.056502,-0.028199,0.055314,-0.227612,-0.106694,0.428592,-0.070015,-0.017884,0.076920
0.051095,0.036378,0.001772,0.044104,0.281065,0.031371,-0.016171,0.063874,0.107403
-0.033372,-0.000129,-0.022708,0.020998,-0.208554,-0.051243,-0.023243,-0.038806,-0.034892
-0.042753,0.167890,-0.016834,-0.101095,0.312522,-0.092077,0.029946,-0.117188,0.031183
-0.079392,-0.020980,-0.082612,-0.052319,-0.201113,-0.075944,0.057449,0.136614,0.117507
0.012122,0.021053,0.073087,0.005151,0.230111,0.099195,0.078525,0.087288,-0.040701
0.032728,0.093570,0.064335,-0.049316,0.280386,0.035506,0.018260,-0.063209,-0.004006
-0.016342,-0.057232,-0.033007,-0.035258,-0.092719,-0.066359,-0.038847,-0.037675,-0.050085
0.004943,-0.095723,0.006052,-0.068116,0.354614,0.051896,0.001958,0.046146,0.035233
-0.062136,-0.039740,-0.053185,-0.065210,-0.068508,-0.089927,-0.023850,-0.055467,-0.041711
-0.035152,-0.033179,-0.026142,-0.016896,-0.244025,-0.087629,-0.008070,-0.038877,-0.024626
0.009630,0.022140,0.026155,-0.029037,0.321385,0.055349,0.020003,0.062878,0.030820
-0.054359,0.072582,0.046393,-0.141166,-0.054635,0.298621,-0.032209,-0.184261,0.073791
-0.008581,-0.053316,-0.008932,0.055732,-0.009043,0.048184,0.016659,0.243984,0.064701
0.063137,0.137999,0.088894,0.136250,-0.454892,0.042143,0.052732,-0.032913,0.036893
0.013985,0.002539,0.010387,0.019272,0.230186,0.078084,0.001098,0.053932,0.025100
0.086957,-0.127870,-0.075987,0.177250,-0.058461,-0.133461,0.103597,-0.089615,-0.100280
-0.002118,-0.025455,-0.012138,0.010880,0.195240,0.059268,-0.004993,0.061566,0.021630
0.003776,-0.126307,-0.017681,-0.135074,0.563445,0.012232,-0.019873,0.007890,-0.011867
0.023681,-0.025381,0.011412,-0.002452,0.304595,0.063699,0.017429,0.043063,0.020583
0.010556,-0.075454,-0.011980,-0.014238,0.268384,0.058865,0.023927,0.078292,0.046207
0.000921,-0.013320,0.006719,-0.015114,0.281058,0.048597,0.018607,0.063863,0.006663
0.001996,-0.028324,0.013704,-0.031653,0.342096,0.012354,0.016294,0.012940,0.026037
0.015229,-0.028942,0.004815,-0.013750,0.289925,0.035949,0.008733,0.071466,0.014147
-0.016135,-0.072846,-0.028259,-0.026290,-0.156994,-0.064475,0.033699,0.409168,0.113654
-0.112830,-0.172102,-0.029493,0.066621,-0.065986,0.194066,0.071550,0.109729,-0.010622
-0.020610,-0.094416,-0.030641,-0.019117,0.373642,0.017685,-0.009566,-0.010494,-0.012191
-0.049800,0.012656,-0.037652,-0.029183,-0.203896,-0.069480,-0.029998,-0.047267,-0.054576
-0.034138,-0.074115,-0.048876,-0.051515,-0.056737,-0.080517,-0.033597,-0.046579,-0.029648
-0.028167,-0.036375,-0.011194,0.023924,-0.172843,0.190005,-0.010315,0.050610,0.139007
0.003619,0.000552,-0.013742,0.051057,0.281115,-0.000742,-0.004873,-0.023560,0.032615
0.026366,0.016094,-0.039047,0.022266,0.342809,-0.001256,0.012945,0.041202,0.061410
-0.090962,-0.039985,-0.098635,-0.001095,-0.087679,-0.042414,-0.099974,-0.037659,-0.103656
-0.003447,-0.037867,0.165743,-0.210077,0.043507,0.314149,-0.016042,-0.119107,-0.008766
