0.115702
0.001040
-0.312502
-0.130941
-0.126712
0.045003
-0.139577
-0.177829
-0.156784
-0.185528
-0.251034
-0.015425
-0.155286
0.003620
-0.096241
-0.219047
0.150646
0.013672
-0.182326
-0.223904
-0.059467
-0.163604
-0.024317
-0.094483
0.034439
0.166184
-0.174775
-0.010943
-0.091520
-0.149233
-0.020984
0.055085
-0.108754
-0.249016
-0.123516
0.018725
-0.026980
-0.090683
0.016129
-0.026142
0.164419
-0.174948
-0.150916
-0.128238
-0.025221
-0.154138
-0.181335
0.039329
-0.170858
-0.236019
-0.102092
-0.113145
-0.062803
0.035384
-0.056660
-0.139735
-0.148154
-0.081345
-0.143480
-0.160101
-0.148132
-0.113192
-0.121010
-0.033278
0.118306
-0.056529
-0.129990
0.041911
-0.063077
-0.042143
0.004185
-0.212994
-0.114882
-0.010450
-0.174538
-0.155907
-0.074017
-0.047472
0.062815
0.072065
-0.109386
0.127560
-0.175087
-0.240676
-0.144124
0.089863
-0.072708
-0.161388
-0.084508
-0.009663
-0.147913
-0.195458
-0.165991
-0.193407
-0.045423
-0.145165
0.119674
0.194576
-0.134635
0.159276
-0.132477
-0.246988
-0.212249
-0.364459
-0.167221
-0.171569
-0.155553
-0.236607
-0.196480
-0.248515
-0.168312
-0.231010
-0.125495
0.084495
-0.051908
-0.175013
-0.097972
-0.125285
-0.184772
-0.212048
-0.124416
0.216659
-0.249366
-0.026294
-0.092257
0.018325
-0.193512
0.049255
-0.140292
0.008308
-0.096239
-0.103653
-0.240874
-0.120115
0.149985
0.153874
-0.161408
-0.067903
-0.223570
-0.058229
-0.099486
-0.110570
0.089093
-0.099846
0.025481
-0.117399
-0.239331
0.139467
-0.116665
0.031748
-0.111152
0.032705
-0.228745
-0.170012
-0.130280
-0.223716
-0.109544
-0.059242
-0.024085
-0.182994
-0.139486
-0.115046
-0.119625
0.107817
-0.194011
-0.136788
0.011243
0.168464
-0.049819
-0.179861
-0.018871
-0.149482
0.014976
-0.132824
0.018625
-0.079382
-0.107738
-0.008983
0.000668
-0.116944
0.101591
0.075873
-0.101159
-0.089136
0.073664
-0.164843
-0.049368
-0.123883
-0.067980
-0.054675
0.074465
0.099291
-0.126475
0.087453
0.004507
-0.095328
-0.017822
0.112901
0.170659
0.034597
-0.117844
-0.190484
-0.089766
-0.128531
-0.179940
0.033758
-0.085326
-0.081440
0.004015
-0.033662
-0.100853
-0.195303
0.059555
0.142169
-0.126617
0.112427
-0.112582
-0.195035
-0.056361
-0.224306
0.130109
-0.017981
-0.145498
-0.232122
-0.134830
0.101258
-0.153764
-0.181220
-0.127648
0.004745
-0.166942
-0.123701
-0.029446
-0.252534
-0.012651
0.074898
-0.259825
-0.090135
0.127856
0.005789
-0.158514
-0.162919
-0.152201
-0.144147
-0.069663
-0.095211
0.075080
-0.185692
-0.045295
0.005194
0.095949
0.048429
-0.198531
-0.111266
-0.207503
0.129374
-0.218289
0.061763
-0.105541
0.121240
-0.138892
0.066498
-0.030534
-0.171815
0.215264
-0.152305
-0.291046
0.172268
-0.145418
-0.227169
0.025700
-0.152372
-0.258347
-0.100101
-0.049501
-0.115718
0.026973
-0.100253
-0.107281
-0.020536
0.047380
-0.196000
-0.127512
-0.171680
0.006911
-0.142770
-0.071080
-0.104286
-0.009382
-0.122298
-0.098704
0.038898
-0.129949
-0.064916
-0.140726
0.063512
-0.061817
0.156347
0.110325
0.097651
-0.163919
0.122695
0.089550
-0.009842
-0.037432
-0.152724
-0.204094
-0.097217
0.010922
-0.219213
-0.170319
-0.009897
-0.176421
-0.008140
0.018235
0.001713
-0.299026
-0.167812
-0.207154
0.061151
-0.172235
-0.082496
0.017078
-0.015041
-0.150962
-0.151561
-0.090278
-0.149238
-0.114849
-0.145318
0.029279
-0.225831
-0.200193
0.068294
0.096465
-0.170852
-0.191050
-0.080267
-0.127910
0.044266
-0.025172
-0.164513
0.011535
-0.113472
-0.131995
-0.100881
-0.038897
-0.027700
-0.120266
-0.032620
-0.000876
0.037200
0.102708
-0.126632
-0.083208
-0.031100
-0.161481
-0.018187
0.016927
0.040593
0.014023
0.048993
0.046146
-0.128436
0.031370
-0.106563
-0.152712
-0.030915
-0.144961
-0.108300
0.164737
-0.247760
-0.169600
-0.136151
-0.079368
0.106738
-0.031854
-0.148671
-0.193056
-0.139019
-0.127771
-0.328241
-0.138952
-0.167086
-0.162187
-0.205201
-0.147938
-0.167253
-0.094379
-0.127043
-0.139100
-0.106884
0.002878
-0.091134
-0.169280
-0.129653
-0.108845
0.001713
-0.165137
-0.090456
-0.164906
-0.082749
0.271891
-0.162104
-0.291053
0.033784
0.002602
-0.099132
-0.102120
-0.142314
0.014968
-0.042168
-0.032086
-0.168546
0.055501
-0.122025
0.121540
-0.123182
-0.110993
-0.147118
-0.045111
-0.015871
-0.122846
0.257278
-0.183462
-0.159177
-0.192040
-0.245800
-0.165287
0.032510
-0.166813
-0.019254
0.045271
-0.171060
0.091722
-0.023131
-0.122804
-0.183650
0.132700
0.141183
0.085397
0.177143
0.055141
-0.214451
-0.024423
0.113723
-0.141514
-0.029366
-0.087134
-0.156980
-0.136689
0.070418
0.018974
-0.128924
-0.045846
0.117543
0.162015
0.008901
-0.134014
-0.005239
0.033799
0.115658
0.017569
-0.125459
0.174680
0.024812
-0.067658
-0.128956
-0.006761
0.040522
-0.166754
-0.102420
-0.146185
-0.001156
-0.047670
0.026964
-0.217757
0.007151
-0.048843
-0.118731
0.032950
-0.112662
-0.030990
-0.019112
0.155899
-0.156515
-0.091563
-0.176288
-0.024591
-0.199286
-0.186046
-0.139768
-0.090487
-0.131562
-0.014608
-0.068396
-0.040774
-0.134107
-0.227341
-0.048451
0.032486
0.003519
-0.208367
-0.236033
-0.098583
-0.096966
-0.059568
-0.013429
0.268566
-0.193071
-0.005019
-0.162282
0.161548
-0.143301
0.002558
-0.011323
-0.207067
0.000462
-0.154331
-0.116917
-0.136183
-0.149228
-0.005550
-0.215324
-0.132548
-0.070818
-0.147506
-0.008874
-0.041085
0.001560
-0.203798
-0.027336
-0.075534
-0.024656
-0.173289
-0.119905
-0.198372
-0.091410
-0.189758
0.044435
-0.125716
0.015067
-0.199512
-0.040583
-0.035456
0.109288
-0.107328
0.156044
-0.167571
-0.168548
-0.106013
-0.093870
-0.003498
-0.035530
-0.139166
-0.006099
-0.013922
-0.150105
-0.022665
-0.022884
-0.130335
-0.180932
-0.131916
0.082246
-0.023906
-0.182070
0.136354
0.100908
-0.131051
0.024344
-0.056550
-0.184205
-0.099504
0.192507
-0.171526
0.087822
