-0.059590,0.002586,0.041162,-0.037641,-0.052876,0.055612,-0.052903,-0.058193,-0.021771,0.017188,-0.065381,-0.006525,0.066365,0.108690,-0.001287,0.091164,0.006706,-0.025701,0.067913,0.052950,-0.000143,0.097700,0.024184,-0.057852,0.094073,0.013108,0.034781,-0.026917,0.039289,0.081235,0.009005,0.118163,-0.040430,-0.092933,-0.054213,0.021982,0.012398,0.070933,0.095030,-0.131821,-0.062545,0.021691,-0.067839,0.033804,-0.025787,0.088556,0.139426,-0.027978,-0.024939,-0.037095,0.020811,-0.075386,0.051601,-0.076895,-0.080522,-0.055642,-0.021330,0.140527,-0.073396,0.110828,0.079054,0.015882,0.055189,-0.089394,0.106039,0.025809,-0.095421,0.020025,0.121334,0.037925,0.045735,0.001312,-0.056327,-0.055874,-0.020834,-0.015690,-0.097535,0.058677,0.036303,-0.040420,-0.029665,0.009045,0.002786,0.086817,0.006395,0.029737,-0.022500,-0.059221,0.005942,0.134155,-0.121662,-0.011393,-0.008639,-0.052652,-0.001901,-0.158429,-0.053122,-0.018761,-0.066874,-0.005564,-0.113660,-0.089351,0.025504,0.041862,0.028457,0.035749,-0.028836,0.016077,-0.088746,0.030956,0.119415,-0.007192,0.019994,0.033142,0.029852,-0.127257,-0.080097,0.056341,0.010030,0.004322,-0.019967,-0.027624,0.034336,0.049432,0.013795,0.000775,-0.010439,-0.032937,0.045710,-0.031783,0.009713,-0.020888,0.061589,0.020599,0.109231,0.142866,0.011095,0.010852,-0.019919,-0.096148,-0.000713,0.073782,-0.043987,-0.029509,-0.043224,-0.006688,-0.080864,0.134252,0.010957,0.070907,-0.014807,-0.023821,-0.029998,-0.046828,0.004050,0.106348,-0.018606,0.097117,-0.073876,0.118639,0.049470,-0.038425,-0.062230,-0.095993,-0.010841,-0.047491,0.047308,-0.047518,-0.066462,-0.057204,0.105699,-0.073964,0.137780,-0.096984,0.007198,0.012439,0.108996,-0.025808,-0.086451,-0.004575,0.074801,0.009521,-0.083266,-0.130932,0.021462,0.057171,-0.075066,0.101089,0.060364,-0.077226,0.093680,-0.012174,-0.019627,-0.108272,-0.007813,0.059455,-0.081646,-0.051843,0.108740,-0.070805,-0.032186,-0.016393,0.052398,-0.063329,0.001002,0.056569,0.074086,0.000170,0.030657,0.004371,0.139277,-0.019221,-0.005300,-0.051474,0.008054,-0.120322,-0.012351,-0.010178,-0.010417,0.092157,0.070019,-0.067244,-0.162299,-0.069056,-0.061839,0.037658,0.047708,-0.169689,-0.005507,-0.021680,-0.073759,-0.064263,-0.009327,0.002652,-0.018428,-0.125565,0.109211,0.036999,-0.044385,-0.037954,0.030514,-0.067044,-0.001926,-0.045781,-0.020216,-0.019621,-0.020713,-0.087357,-0.093805,-0.065595,0.016915,-0.176382,0.005262,0.135856,0.028972,0.078995,-0.094857,-0.001674,-0.075630,-0.030375,0.077639,-0.085591,-0.088658,0.140861,0.012552,-0.023120,0.056281,-0.073890,-0.013002,-0.091415,-0.134676,0.126228,0.011655,0.129182,0.042715,-0.017216,0.056129,-0.135311,-0.178996,-0.140290,0.063341,-0.144616,0.027072,0.043699,-0.025320,0.048469,0.050557,-0.071323,-0.088585,0.020996,-0.096684,0.006438,0.054654,-0.061782,-0.003111,-0.051654,0.121411,-0.045298,0.080413,-0.001030,-0.069991,0.017900,0.041036,-0.044184,0.043465,-0.061804,-0.093656,0.002909,0.145587,-0.041356,0.051805,-0.088121,0.001653,0.120125,0.025555,-0.151834,-0.078727,0.064940,0.033118,0.005179,-0.055570,-0.055195,-0.007076,-0.014176,0.132599,0.059992,0.079158,-0.084819,-0.009878,-0.023440,0.075941,0.111535,-0.019826,-0.183374,0.000068,0.105795,-0.081758,0.086404,0.092291,0.022977,0.030637,0.024668,-0.027276,0.072084,-0.096836,0.061448,0.114950,0.115580,-0.040381,0.008007,0.009916,-0.236814,-0.022594,0.167570,0.000981,-0.191129,0.024640,-0.070723,0.089240,-0.035379,0.101582,0.044650,0.041334,-0.026776,0.083088,-0.057646,0.022186,-0.075417,-0.139084,0.090530,0.014618,0.080864,-0.015909,-0.044884,0.112538,-0.014598,0.004841,-0.082936,0.085467,0.089212,-0.002017,-0.051219,-0.046454,-0.019741
0.014365,0.015739,-0.008668,0.127876,-0.185053,0.077319,-0.017737,-0.052502,-0.084305,0.035759,0.033371,0.075131,-0.037914,-0.144187,-0.018061,0.091830,0.057023,0.046967,-0.156452,0.065640,-0.007741,-0.044355,0.015060,0.080740,0.113281,-0.004142,0.012375,-0.095014,-0.072126,-0.071070,-0.043307,0.091197,-0.010624,-0.123842,-0.019824,-0.097419,-0.002472,-0.045733,0.046945,0.010915,-0.050340,-0.001672,-0.045676,0.009863,0.020099,0.020327,0.125492,0.016761,0.070642,0.106852,-0.010462,0.069158,0.096220,-0.156406,0.002764,0.033942,0.016833,0.026485,-0.099447,-0.089819,0.147285,0.020683,0.043098,-0.043819,0.069940,-0.068256,-0.046201,-0.040336,0.023154,0.192317,0.035593,0.044440,-0.133773,-0.047255,0.015498,0.009372,0.021787,0.076800,0.030215,0.009594,-0.045797,0.067431,-0.005801,-0.048763,-0.092039,0.068745,-0.047917,0.112870,0.038225,-0.113189,0.067768,-0.119162,0.001082,-0.034813,-0.055696,-0.019867,-0.037549,-0.026041,-0.137008,-0.112569,-0.008253,0.093896,0.053385,-0.037139,0.042455,-0.102813,-0.080199,-0.042426,0.001046,-0.099443,-0.076435,0.022982,0.100430,-0.000564,0.003922,0.178161,0.067881,0.038938,-0.052781,0.013067,0.068602,0.092475,-0.041946,0.042364,-0.131722,-0.032894,-0.094151,-0.110055,-0.027666,-0.113810,-0.089761,0.019027,0.021491,0.074025,-0.027548,0.092858,-0.046263,0.088785,0.057346,0.040250,-0.021863,-0.087948,-0.006425,-0.055386,-0.088619,-0.159473,0.088724,0.087888,0.031403,0.004721,-0.064659,-0.081277,0.088929,0.034604,0.075162,0.033387,-0.020878,-0.127500,-0.044957,-0.051666,-0.006791,0.108087,0.076523,-0.074264,-0.037775,0.012391,-0.013520,-0.068306,-0.058864,-0.078980,-0.016416,0.055036,0.001329,0.047024,-0.017282,-0.051710,-0.085546,-0.132482,-0.025341,-0.005659,-0.024879,0.017173,0.004100,0.026894,-0.009173,0.118281,-0.017202,-0.002614,0.044080,-0.018725,0.070732,-0.012659,0.045350,-0.010520,0.015522,-0.060234,0.121422,0.059589,-0.031554,-0.133857,-0.031145,-0.013474,-0.044401,0.101944,0.043580,0.046546,0.072137,-0.040864,-0.087836,0.021370,0.034757,-0.070525,-0.012372,-0.091784,-0.023718,0.042694,0.098687,0.043260,-0.079494,-0.050426,-0.154262,0.097222,-0.020758,0.015092,0.105494,-0.093355,-0.066026,0.013157,-0.030979,-0.038320,-0.058900,0.084394,-0.036621,0.026038,-0.023604,0.052574,0.054352,-0.014917,-0.078591,0.061420,0.041614,0.018217,-0.003258,-0.114085,0.022454,-0.044173,-0.070564,-0.067300,-0.020203,0.066445,-0.061492,0.001125,-0.028400,-0.005055,0.030354,-0.019731,-0.123565,0.017551,-0.044542,-0.083857,0.007108,0.016657,0.022816,0.142955,0.113489,-0.006155,0.030797,0.009977,0.043948,-0.091066,0.037075,0.026131,-0.061596,0.016732,-0.016301,-0.121811,-0.011637,0.170455,-0.058441,-0.101351,-0.044057,-0.019160,-0.049167,0.027263,0.009739,0.086797,-0.108212,-0.034981,0.081846,-0.007650,-0.006763,0.083518,0.105814,-0.112003,-0.082880,-0.025465,0.029983,0.018584,0.083983,-0.063828,0.014572,-0.068751,0.026212,-0.141531,0.018409,0.074127,0.106380,0.015994,-0.019625,-0.046856,0.034004,0.126043,0.017313,-0.048327,-0.100240,0.001210,0.054919,0.023464,-0.120901,0.000644,0.010966,-0.056919,0.065626,-0.001258,-0.051772,-0.024510,0.023732,0.104796,0.149359,-0.056283,-0.118251,-0.034747,0.047612,-0.002449,0.006212,-0.085839,0.035346,-0.094601,-0.021822,-0.192098,-0.080997,0.008993,0.112053,-0.007510,0.043284,-0.037267,0.047950,0.058481,0.038661,0.157420,-0.057084,-0.001313,-0.018955,-0.033346,0.047529,0.072712,0.024884,0.006132,-0.035842,-0.067999,0.098712,0.100703,-0.059195,0.016964,-0.122246,-0.019708,-0.055139,-0.075130,-0.057812,0.001092,-0.024974,0.017836,-0.074682,0.052345,0.053564,-0.028098,-0.051871,-0.005526,-0.018258,0.000900,0.076861,0.015061,0.101856,0.003844
0.046170,-0.070127,0.068814,-0.036252,0.081929,-0.028761,0.027372,-0.023988,-0.044291,-0.055715,-0.030551,-0.024213,0.057234,-0.039999,0.101399,-0.058926,0.113094,-0.067715,-0.010014,-0.126574,-0.060375,0.037278,0.038264,-0.004292,-0.015673,-0.042494,0.113753,-0.037557,0.068679,-0.016221,-0.000042,0.138499,-0.014987,0.180986,-0.024084,-0.017245,-0.091667,-0.063881,-0.070413,-0.011480,-0.055699,0.027355,-0.029201,-0.056600,-0.079431,0.078588,-0.045834,0.048004,-0.047785,0.014191,0.186107,0.000932,-0.122164,0.058559,-0.008990,0.173308,-0.001049,0.065975,-0.073516,-0.114668,-0.054626,0.071148,-0.038965,-0.086907,0.084493,-0.085535,0.007038,-0.070541,-0.024096,-0.065897,-0.038411,-0.001844,-0.049005,-0.011291,-0.069069,-0.032225,0.009518,-0.054979,-0.053931,0.002685,-0.029964,0.066277,-0.056844,-0.032384,-0.084992,0.079493,-0.080412,-0.061738,0.007674,0.022030,0.036281,-0.066513,0.112200,0.001811,-0.154934,0.021442,0.016811,0.011603,-0.091755,-0.001213,0.090409,0.024646,0.029563,-0.036936,-0.134814,-0.055285,0.076931,0.123516,-0.149675,0.101480,-0.014017,0.016276,0.013249,0.039769,-0.056752,0.005559,-0.035191,-0.004616,-0.022671,-0.039439,0.066303,-0.044421,-0.000937,0.024912,0.079112,-0.140923,0.073661,-0.085893,0.016477,0.024491,0.032633,-0.023601,-0.054517,0.042511,0.028103,0.059031,0.100426,-0.044844,0.080006,-0.103867,0.027942,0.038927,0.075933,0.041817,-0.050382,-0.117900,-0.099311,-0.010154,0.001217,0.029313,0.026400,0.089192,-0.063398,-0.112579,0.066397,-0.013207,-0.025146,-0.075116,0.002440,0.018558,-0.013968,0.046035,0.029935,0.121443,-0.047874,0.124476,0.116025,-0.019066,0.042848,-0.014949,0.095452,0.178972,-0.018163,-0.012589,-0.031397,-0.010854,-0.034610,-0.075302,0.110612,0.019988,-0.004342,-0.079473,-0.036110,-0.066518,-0.018728,0.017186,0.058566,0.036529,-0.021543,0.019437,-0.136337,-0.104077,-0.075471,-0.016646,-0.071107,0.046898,-0.035732,0.090353,0.081021,-0.142208,-0.033580,-0.067197,0.029428,0.062366,0.032744,-0.058015,0.056303,-0.003492,-0.151571,-0.032801,-0.015589,-0.004626,-0.036841,0.048085,0.015804,-0.114637,0.043582,-0.048684,0.001862,-0.074894,0.100337,0.111407,0.148634,0.039476,0.124117,0.029208,0.030176,-0.020686,0.048640,0.118912,0.083788,-0.081354,-0.031785,0.022383,-0.206312,0.022536,-0.013951,0.137260,-0.094418,0.079028,0.119666,0.034021,0.041063,0.028744,-0.147526,-0.007881,0.055853,0.069389,0.045937,0.017557,0.000946,-0.081120,-0.045286,0.028766,-0.087687,-0.032502,0.052198,-0.048155,-0.057351,-0.045622,-0.116635,0.038555,0.133204,-0.047074,-0.035723,0.012060,-0.028233,-0.024924,-0.028500,-0.106358,-0.080644,-0.061155,0.061824,-0.024287,0.074277,0.171034,0.070849,-0.032335,0.090477,0.028983,-0.049228,-0.009025,0.020235,-0.009001,-0.072777,-0.023381,0.004285,0.084239,0.057693,-0.044551,-0.041854,0.034189,-0.085228,0.018706,-0.011977,0.019932,-0.085759,-0.025711,0.066756,-0.002410,-0.108144,-0.003974,-0.042213,-0.160661,0.020323,0.028629,0.004161,0.049715,0.044639,-0.056199,-0.074629,-0.027276,0.009644,-0.003090,-0.087421,0.113551,0.029109,-0.058169,-0.055912,-0.078258,-0.044199,0.120068,0.053869,-0.145834,0.042865,-0.110868,-0.047684,-0.044674,0.064457,-0.011053,0.041543,0.045400,-0.104471,0.051832,-0.029397,0.092346,0.016281,-0.141273,0.031759,-0.128513,-0.105200,-0.068830,-0.032041,0.015620,0.012942,-0.046163,-0.038880,-0.068859,-0.008425,0.023709,0.056181,0.072364,-0.008775,0.032670,0.061090,0.106471,0.067974,-0.014127,-0.012529,-0.038852,-0.192233,0.067970,-0.087240,-0.049972,0.109670,0.038256,-0.030656,0.065447,-0.025919,-0.151565,-0.105222,0.050840,-0.052777,-0.083998,-0.042043,-0.023291,-0.014539,0.049659,-0.079541,0.023427,0.047218,0.163154,-0.049509,-0.062331
0.033265,-0.036254,0.095320,0.086515,-0.044151,-0.021887,-0.105343,0.164988,0.137148,-0.099016,-0.022412,-0.108292,0.097193,0.015196,0.001480,-0.012302,0.150696,0.050367,0.028752,-0.010143,0.060989,-0.167015,0.058849,-0.069173,0.005748,-0.046893,0.035655,0.010675,0.046045,0.000182,-0.000874,-0.070272,0.041779,-0.103192,-0.087126,0.011324,0.040774,0.007311,-0.017689,0.104669,0.070587,-0.127681,-0.027873,-0.081030,0.079217,0.073757,-0.033988,-0.050745,-0.049670,0.050112,0.064620,-0.025295,0.072030,0.017612,-0.095460,-0.039960,-0.011536,-0.098091,-0.024120,0.044276,-0.046078,0.069833,-0.080006,-0.129458,0.060724,-0.024378,0.074706,-0.018838,0.054079,-0.020778,0.019438,0.060495,0.049628,0.004061,-0.112458,-0.038932,0.015856,0.016932,0.120938,-0.076450,-0.039935,0.013034,0.013193,0.157029,-0.210108,-0.026136,0.001268,-0.058768,0.052150,-0.006930,-0.015333,-0.097435,0.130911,-0.194818,0.054716,0.051476,0.006625,-0.023267,-0.082837,0.039812,0.032740,-0.009557,-0.096887,-0.034361,-0.030145,0.079106,-0.128635,0.051369,-0.067963,0.043642,-0.061539,0.072514,-0.044308,0.133285,-0.109561,0.032529,0.036271,0.024195,-0.070631,0.042869,-0.015903,0.139523,-0.110123,0.033534,0.247812,0.027282,-0.097012,0.031749,-0.087038,-0.045774,0.093349,-0.130424,0.093864,-0.073075,0.016691,-0.020581,-0.018543,0.030106,0.054470,0.025808,-0.012952,0.036492,0.007116,-0.107297,0.037159,0.136480,0.288060,-0.018720,0.006213,-0.159282,0.021370,0.068766,0.042612,0.001232,0.055924,0.056842,-0.063073,-0.032564,0.016181,0.037945,-0.037494,0.115012,0.008439,-0.088843,0.003365,0.009180,-0.076882,0.087421,-0.074145,-0.013294,0.079569,-0.052119,0.281108,-0.023059,0.026198,-0.037751,-0.181440,0.088080,-0.027848,0.106017,0.161901,0.006543,0.025715,0.020191,0.048018,0.047529,0.032086,-0.099259,0.025685,0.087825,-0.055103,-0.104509,0.046549,0.062655,-0.041113,0.149258,0.060952,-0.043718,-0.037748,0.061366,0.023570,0.001231,-0.023145,-0.039224,-0.018468,0.178350,0.006298,0.095279,-0.027467,-0.023722,0.033828,-0.003628,0.017720,-0.123229,-0.230695,-0.012881,-0.219073,-0.013117,-0.046436,-0.009353,0.092841,-0.004304,-0.053905,-0.216678,-0.043706,-0.037042,0.148644,0.035962,0.067407,-0.028658,0.068308,-0.049991,0.138647,0.049192,-0.017264,0.043709,-0.071118,-0.009248,0.082599,0.017228,-0.068370,-0.044667,0.013110,0.104359,-0.030342,-0.203487,-0.198542,0.025988,-0.019095,0.081399,0.022359,-0.110896,-0.163426,-0.063089,0.110597,-0.218682,0.036501,0.106408,0.005026,-0.074478,0.018916,0.111989,0.214293,-0.018401,-0.019574,-0.118671,0.035691,0.010448,-0.042188,0.010397,0.007360,-0.004465,0.137202,-0.161666,0.072804,-0.072433,-0.080029,0.043640,-0.008621,-0.140831,-0.018202,-0.063890,-0.034433,-0.109552,0.071935,-0.261406,0.098670,0.105624,0.034385,0.140355,0.138615,-0.068482,0.085519,-0.140485,-0.038203,-0.003858,-0.236341,-0.014641,0.069849,0.010641,0.202830,-0.111647,0.078328,0.064952,0.025966,-0.123589,0.026873,-0.096670,-0.005395,-0.091360,0.053906,-0.007215,-0.083142,-0.038961,-0.077276,-0.201873,-0.070463,0.046680,0.013177,0.000065,-0.021400,0.004292,-0.138116,0.072465,0.108374,0.051243,0.160082,-0.040339,0.122782,-0.168924,0.018162,0.012159,-0.032525,0.010883,-0.001496,0.003039,0.044957,-0.244367,0.025110,-0.081831,0.031292,-0.132105,0.052244,-0.018546,-0.050484,-0.092433,0.035897,0.006646,0.001997,-0.189403,0.072209,0.140500,-0.257980,0.047317,0.006007,0.042804,-0.175675,-0.235772,0.198779,0.032803,-0.062019,0.111482,-0.027559,0.036835,0.072764,-0.137722,0.087457,-0.028562,0.076235,0.031640,-0.071872,0.149807,-0.120353,0.150431,-0.089396,0.060433,0.004003,-0.148672,0.009431,0.015658,-0.034260,-0.054977,-0.025966,-0.018469
-0.024645,0.064966,0.002144,0.048518,0.111151,0.045413,-0.065059,-0.023291,0.016529,0.016206,0.022990,-0.043327,-0.006237,0.050828,0.048676,0.009478,0.018766,-0.024851,0.063600,0.031964,-0.096183,0.108033,0.073602,-0.038131,0.098057,-0.045241,-0.004564,0.076495,-0.132764,0.110321,0.031954,0.102565,-0.013726,-0.045835,-0.022342,-0.004581,0.079184,-0.025187,-0.054677,0.172286,0.041068,0.043640,0.103982,-0.053179,-0.095634,-0.041583,-0.000895,0.028649,0.110344,0.072506,0.002582,0.089698,0.016059,0.091397,0.071852,0.029441,0.001792,0.038635,-0.113799,0.010683,-0.013390,-0.012060,0.128896,0.051157,-0.094406,-0.051906,0.101864,0.000874,-0.022238,-0.057010,-0.008691,0.110217,-0.002436,-0.143254,-0.114817,0.082501,0.020063,0.025702,-0.158563,0.099649,0.054962,0.105589,0.041551,0.003075,0.118197,-0.020322,0.063280,0.115247,-0.016498,-0.047479,-0.043364,0.036688,0.085048,0.103401,0.007432,0.125689,0.107943,0.059242,0.062036,-0.042872,0.099089,0.067990,0.052692,-0.128137,-0.071308,-0.016273,0.020266,-0.054905,0.075240,0.049477,-0.008069,0.013345,-0.001651,-0.097854,-0.077858,0.051014,0.002523,-0.072939,0.043622,-0.041742,0.075831,-0.034588,0.004247,-0.012983,0.039193,0.038590,0.179051,-0.020754,-0.033365,0.048985,0.014102,-0.121756,0.085756,-0.022602,-0.044722,0.040035,0.047080,-0.037987,0.028182,-0.025067,-0.008529,-0.019655,0.080188,-0.001275,0.090206,-0.127424,-0.104465,-0.103323,0.047782,-0.074210,-0.128087,-0.049510,0.037012,0.012546,-0.027404,0.116008,-0.013475,-0.108411,0.047658,-0.082064,-0.006434,-0.083916,-0.027367,-0.061800,0.052918,-0.064984,-0.025893,0.027531,-0.061224,0.034372,0.050973,-0.021641,0.075268,0.003824,0.049647,-0.007876,0.062302,0.072200,0.002393,-0.110779,0.015790,-0.101992,-0.070923,-0.048266,-0.007044,0.035165,-0.058363,0.013506,-0.071424,0.050200,-0.053318,-0.067029,0.071704,-0.175019,-0.047804,0.007591,0.011992,-0.088573,-0.046697,-0.016458,0.062179,-0.107340,0.121218,0.041566,-0.084642,-0.059681,0.146019,-0.048539,-0.053176,-0.021643,-0.060408,0.004174,-0.067053,-0.052139,-0.053001,-0.094916,0.142995,0.118956,-0.027311,-0.037991,-0.063804,-0.075610,-0.097227,0.040064,0.007888,-0.069076,-0.133121,0.004133,-0.016181,-0.066484,0.034468,0.046285,0.037874,0.021343,-0.064133,0.052992,0.020044,-0.056735,0.017118,0.082818,0.023633,-0.109164,-0.020014,-0.055579,-0.045836,-0.048965,-0.051209,-0.034627,0.018314,-0.012066,0.014933,0.110179,-0.032074,0.106077,-0.044908,0.075708,0.030173,-0.081455,-0.048774,-0.004183,0.002024,-0.161176,0.126460,0.062806,-0.030972,-0.045594,0.154032,0.070240,-0.015739,0.036227,0.032531,-0.031096,0.042155,-0.195688,0.092825,0.115611,-0.057599,0.101797,0.002552,0.080623,-0.048982,-0.035017,0.111601,-0.066566,-0.053433,-0.007651,0.097734,-0.036375,-0.020401,0.087176,0.035972,0.138273,-0.000458,-0.019501,0.174885,0.025924,-0.003653,-0.098225,-0.203837,0.194986,0.087771,-0.040511,-0.048359,-0.014608,0.071486,0.054503,-0.090288,-0.050260,0.031580,-0.012023,0.140797,0.114276,-0.075116,-0.013685,-0.030236,-0.090311,-0.051659,-0.115106,-0.026080,0.087311,-0.097843,-0.010158,-0.035003,0.084119,0.056159,0.018717,0.042432,-0.044664,-0.001832,0.004486,0.112560,0.068572,-0.062118,0.075520,0.085268,-0.112314,0.069662,0.020147,0.029319,-0.022644,-0.045045,0.072558,0.153773,-0.053484,-0.032219,0.028875,-0.058554,-0.021141,0.026137,-0.049736,0.127621,-0.022578,-0.018714,-0.050823,0.029643,-0.021701,0.022678,-0.071240,-0.110216,0.052564,-0.014468,-0.010990,-0.074296,0.013647,-0.118029,0.110300,0.011186,0.016698,-0.067625,0.155785,0.002861,-0.077201,-0.006783,0.058845,0.015873,-0.005951,0.089826,0.007512,-0.034829,-0.098501,-0.052212,-0.101206,0.026499,-0.064672
-0.117162,-0.052160,-0.042997,-0.005852,0.062752,-0.062720,-0.037388,0.056512,-0.039002,-0.090282,0.103018,-0.141209,-0.025695,0.121456,-0.128683,0.134184,-0.105772,-0.064045,-0.065190,0.000002,-0.009731,0.019754,0.051551,-0.024025,0.051760,0.095699,0.000667,-0.102724,-0.086258,0.067539,0.057680,0.122871,-0.052840,0.014401,-0.023680,0.091904,-0.042975,0.130262,-0.050460,0.013363,-0.008958,-0.044410,0.052613,-0.079525,-0.042963,-0.042505,-0.017965,0.084613,-0.003441,0.013185,0.103970,0.038297,0.019391,0.116714,-0.141403,0.104668,0.040163,-0.024538,-0.018024,-0.040945,-0.139528,0.136932,0.027048,-0.054550,-0.045616,-0.051239,0.116772,0.043120,0.116799,0.119489,0.029167,0.145131,-0.035907,-0.081745,0.120171,0.084470,0.008894,0.006111,0.141682,-0.012992,0.021212,0.024977,0.110715,0.122451,0.001206,-0.135165,-0.046949,0.011765,0.080039,0.017162,-0.016729,0.051019,-0.114552,-0.009544,0.045082,0.002583,-0.055807,0.068089,0.039530,0.009595,0.034715,-0.001156,-0.068325,0.071084,0.115001,-0.019847,0.133004,0.048332,-0.055966,-0.074396,0.075098,0.083624,0.093427,0.123897,-0.084124,0.072656,-0.001323,0.092627,-0.008746,-0.005477,0.078786,-0.045278,-0.007570,-0.076174,-0.013273,0.034672,-0.037004,-0.041100,-0.060320,-0.045286,-0.065342,0.004112,-0.135688,-0.106342,0.022755,-0.007197,0.012289,-0.032774,-0.038657,0.032845,-0.061384,-0.100319,-0.034895,0.001212,-0.108951,-0.025281,-0.026981,-0.024614,-0.031002,0.007512,0.007630,0.079367,-0.033821,0.100175,0.048471,-0.061402,-0.020504,0.065270,-0.016390,0.056377,-0.033078,-0.087281,0.032404,-0.042973,0.112736,-0.027134,0.062052,0.035814,0.127874,0.054897,0.053084,-0.034977,0.053890,0.103991,-0.030768,-0.064056,-0.002898,0.026958,0.055859,-0.036981,0.077297,-0.114285,0.046707,0.086865,0.083230,-0.162750,-0.006011,-0.038707,0.033178,0.124310,-0.083717,-0.034181,-0.002409,-0.044120,0.031478,-0.127966,0.087471,0.022818,0.030236,0.044798,0.061339,-0.064509,-0.038511,0.113023,-0.188150,0.045834,-0.067676,0.090952,0.076084,-0.053203,-0.090050,-0.044272,-0.096604,0.010078,-0.031427,-0.061251,0.035373,-0.011623,-0.033189,-0.007863,-0.125587,-0.073332,0.096030,-0.035901,0.006159,0.018112,0.005550,-0.055944,-0.019507,0.012853,0.059282,0.080088,-0.094042,0.003182,-0.091383,-0.047540,0.112241,0.163279,0.150505,0.002799,0.014346,-0.144569,0.129234,0.042142,-0.001660,-0.052859,0.083473,0.014995,0.065990,0.061834,0.119043,-0.039890,0.026451,0.014963,-0.038036,-0.002560,-0.123529,0.031393,0.033303,-0.040430,0.101490,-0.037284,-0.041653,0.092532,0.091943,-0.017565,-0.073892,0.064143,-0.005345,0.030361,0.030048,0.023298,0.024483,-0.014117,0.004023,0.026756,0.078847,0.114376,-0.058149,0.101683,0.048759,0.105074,-0.033526,-0.078679,-0.026256,0.021020,0.001239,0.048267,0.044941,-0.025979,0.019289,-0.087594,0.020528,-0.077246,0.018161,0.025009,0.043691,0.040707,0.021410,-0.134019,-0.027912,-0.056212,-0.001491,-0.031195,0.095862,-0.041271,-0.117502,0.080963,-0.069394,0.100692,-0.083236,0.069394,-0.043607,-0.082523,-0.070027,-0.004423,-0.047190,0.057756,-0.066829,-0.025635,-0.150599,0.026923,-0.077010,-0.040814,-0.012187,0.049082,-0.055904,-0.089534,0.036211,-0.016119,0.057655,-0.001882,-0.002911,-0.012045,-0.047753,0.005074,0.007393,0.029825,0.027177,-0.030769,0.100193,0.001860,0.104208,-0.002491,0.090472,0.022188,0.074534,-0.068515,-0.069689,0.079359,-0.097783,0.016374,0.021849,-0.021662,0.071490,0.017399,0.054833,0.022977,0.007306,-0.034309,-0.014842,0.021883,-0.044731,-0.050031,-0.020925,-0.089046,-0.040539,0.048911,0.056582,0.011403,0.018041,-0.036940,0.087525,0.067352,0.031461,-0.078754,-0.004661,0.045386,-0.019797,-0.042199,0.001024,0.011252,0.017165,-0.040321
0.070016,-0.060580,-0.009483,-0.070681,-0.019612,0.113601,-0.089222,-0.009497,-0.017526,-0.098643,0.028445,0.048200,0.051319,0.022369,-0.023419,-0.067071,0.011607,-0.024871,0.009350,0.023963,0.153376,0.003475,-0.113979,0.042666,0.030718,-0.135924,0.057722,0.008745,-0.031850,-0.038970,-0.053078,-0.196055,-0.079902,0.028189,0.059845,-0.094347,0.099353,-0.108998,-0.057650,-0.076381,0.032748,-0.058755,0.030024,-0.048534,-0.069250,0.006911,0.107761,0.053793,0.070287,-0.041914,0.030091,0.001627,-0.063217,0.162303,-0.018372,-0.041105,-0.134363,-0.045185,-0.005985,0.096186,0.060243,0.093558,0.077833,0.001649,0.001467,-0.044763,0.018535,-0.046459,0.082396,-0.003865,-0.041478,0.006056,-0.050526,0.131028,-0.081353,-0.025084,0.103897,0.039817,-0.068762,-0.197387,0.045245,0.170303,0.081495,0.004824,-0.070327,0.070410,-0.038267,-0.058467,-0.019368,-0.043416,0.014100,0.119235,0.061785,0.019999,0.017535,-0.078417,-0.018999,-0.066945,0.003301,0.148955,-0.116230,-0.017759,-0.091010,-0.089757,-0.030978,-0.028287,-0.060840,0.073734,-0.009391,0.015906,-0.019978,0.035724,-0.097532,0.104138,0.077350,-0.011236,-0.220989,0.055829,-0.032187,-0.025087,-0.017790,0.012601,0.004743,0.005209,0.030553,0.057908,0.129551,-0.012404,0.009018,-0.046875,-0.106549,0.062810,-0.130266,0.024861,-0.099343,-0.039004,-0.005114,-0.015972,0.117179,0.071542,-0.046416,0.081437,-0.032614,0.092843,-0.023140,-0.013290,0.062212,-0.009825,-0.038175,-0.007948,0.107108,-0.034382,-0.051163,-0.029271,-0.038509,0.111813,-0.016569,0.045005,0.027702,0.033451,0.081162,-0.052414,0.049006,-0.100968,0.064863,-0.086007,0.021859,-0.114350,0.147289,0.143404,-0.109687,0.025263,0.108952,-0.001168,0.017798,-0.063965,-0.075223,0.070869,-0.008442,0.063424,0.029995,-0.066519,-0.021914,0.009493,0.069142,-0.067091,0.053716,0.116025,-0.101922,0.024791,0.005209,-0.076719,0.026252,-0.013384,0.000779,0.075666,0.029215,-0.039962,0.083220,0.006426,-0.127700,-0.004854,0.100727,0.045188,0.030120,0.032240,-0.030839,0.100517,-0.045367,0.048082,0.047978,0.093018,0.072106,0.089360,0.071097,0.036868,0.125652,0.020711,-0.047360,-0.120039,-0.071988,-0.114742,0.050569,-0.047587,-0.024056,-0.001073,-0.047078,0.011272,-0.009892,-0.055147,-0.088118,-0.023607,-0.028996,-0.005683,0.063291,-0.004197,-0.000057,-0.099812,-0.079957,0.088380,-0.091671,0.019948,-0.009910,-0.001170,0.087911,0.048792,0.064633,-0.056320,0.143237,-0.042173,-0.016783,0.031639,0.216835,0.168003,0.042752,0.024823,-0.089105,0.018016,0.020053,-0.071116,0.040143,-0.070227,-0.063121,0.131114,0.101758,-0.121275,-0.057261,-0.052016,0.126060,0.123669,0.046781,0.050307,-0.000527,0.037813,-0.030420,0.023152,-0.082123,0.009812,-0.074790,-0.000488,-0.083755,0.033023,-0.222313,0.069385,-0.005079,0.059790,-0.005920,-0.076742,-0.144667,0.087750,0.072051,0.068946,0.053429,0.047178,-0.021584,-0.008820,-0.011490,-0.011305,0.012704,-0.022920,0.179917,-0.013227,-0.069985,0.056216,-0.033651,0.019651,0.014930,-0.004389,-0.057321,-0.021269,0.065730,-0.008008,-0.077692,0.086873,-0.097182,-0.062570,0.062775,-0.055122,0.036398,-0.049561,-0.085087,-0.024984,0.027127,-0.036459,-0.055741,0.006346,-0.026007,-0.014686,0.156114,0.094177,0.096166,-0.032656,0.147803,-0.099276,-0.006654,-0.083121,-0.010934,0.178655,0.062304,-0.112334,-0.092795,0.074748,-0.027200,-0.037138,0.075180,-0.050575,0.080985,0.039663,0.091923,0.037603,0.059658,0.088029,-0.073540,0.048933,0.109899,0.135157,0.058661,0.026500,0.034477,0.029011,0.121399,0.018745,-0.025357,0.142262,-0.126809,-0.009478,0.019261,-0.044834,-0.101567,0.104665,0.087388,0.001897,0.001351,0.015472,-0.152168,0.075417,-0.107709,0.012818,0.166613,0.000704,0.092513,-0.015524,0.024577,-0.094722
-0.111138,-0.019706,0.035147,-0.003553,0.126675,-0.051238,-0.116209,-0.062837,0.049088,0.049694,0.006776,0.023611,-0.025953,-0.090852,-0.076710,0.106331,0.029712,0.054872,-0.092329,0.124181,-0.038454,0.068752,0.038883,0.018058,0.172635,0.017885,0.078556,-0.014141,0.045716,0.068808,-0.012319,0.049468,-0.069477,-0.094023,0.013353,0.072887,-0.066502,0.019646,0.001890,0.089505,0.194458,0.004575,0.092050,0.020511,-0.034431,-0.050486,-0.090132,0.059005,0.081385,0.078485,-0.052350,-0.089387,0.066686,0.036941,-0.061541,0.002493,0.020069,-0.136128,-0.151148,-0.054034,-0.059842,-0.091532,-0.065548,-0.085349,0.047656,-0.068525,0.084486,0.010071,-0.048584,-0.049709,-0.017644,-0.180148,0.153157,0.037841,-0.062022,0.046864,-0.012494,-0.028815,-0.101136,0.047247,-0.141953,-0.056247,-0.044876,-0.056544,-0.005933,0.036489,-0.009967,-0.116396,-0.115488,-0.050041,-0.063289,0.010486,-0.024183,0.026982,-0.000565,-0.063909,-0.120642,-0.112273,0.002972,-0.038566,0.028042,0.022683,-0.077382,0.101570,-0.096487,-0.031515,-0.087313,0.019248,0.003009,0.022458,-0.051069,-0.070238,-0.062831,-0.050467,0.070982,-0.001664,0.011993,-0.056320,0.024491,0.070262,0.054328,-0.096021,-0.099339,-0.117944,-0.001870,0.060520,-0.057197,-0.021355,-0.101556,-0.015564,0.101627,0.028247,-0.005052,-0.031901,-0.032197,0.083296,-0.027565,-0.046110,-0.074021,-0.125475,-0.031676,0.019038,-0.094047,0.007348,0.032646,0.030028,0.087245,-0.020463,-0.054286,-0.008112,-0.055999,-0.008059,-0.063200,0.019965,0.125661,0.068743,-0.020912,0.057345,-0.051480,-0.064444,0.033674,0.128210,-0.050402,-0.068861,0.025335,0.085666,-0.070276,0.043413,-0.036966,-0.021663,0.043164,-0.055552,-0.098967,-0.064017,0.080687,-0.023431,-0.078592,0.128264,0.113156,-0.036848,-0.032886,0.001087,-0.047601,0.169239,0.070994,0.002835,-0.011944,0.014339,0.031131,0.060203,0.032957,-0.111726,0.031364,0.065088,0.024263,-0.070090,-0.069191,-0.013636,-0.081418,-0.024678,-0.057248,-0.012480,0.018067,0.117450,0.123876,-0.051098,0.105037,-0.030732,0.003289,-0.049602,0.062484,0.135084,0.110768,-0.077454,-0.005873,-0.053763,0.069640,0.015515,0.015744,0.157264,0.087718,0.039591,0.043699,0.006133,0.169460,0.007529,0.065671,0.070320,0.131650,0.028774,0.022761,-0.088436,-0.041420,-0.038720,0.110615,0.034226,0.055465,-0.083495,0.070192,-0.112590,0.068147,0.018944,-0.073335,0.005847,-0.076699,-0.069034,0.079145,-0.000278,-0.029533,-0.054039,-0.000065,-0.116012,0.110393,0.019179,0.044314,-0.129235,-0.003336,0.055327,-0.115587,-0.032425,-0.049743,0.022720,-0.013578,0.063890,0.080119,0.055157,0.036936,-0.054828,-0.113573,0.044903,0.025251,-0.053328,-0.005849,-0.051066,0.073358,-0.048577,0.074721,-0.055177,0.007158,0.037356,0.082447,0.051509,-0.046711,0.044949,0.091854,0.041856,0.072416,-0.073450,-0.004679,-0.148344,-0.051623,0.025288,0.087927,-0.088179,-0.052761,-0.035893,-0.031090,0.079636,-0.059625,-0.030684,-0.020862,-0.079034,0.036342,0.029828,0.040494,-0.009173,0.026566,0.086225,-0.051567,0.072293,-0.073369,-0.023291,-0.034790,-0.069703,0.064912,0.129006,-0.125108,0.140097,0.120504,-0.074452,0.122705,-0.025621,0.005766,-0.007600,-0.005363,-0.019952,0.121596,-0.070761,0.037751,0.088137,0.000936,0.140923,-0.032665,0.024670,-0.039991,-0.048502,0.001972,0.096576,-0.045202,-0.052085,0.076368,0.010510,0.022415,-0.063552,0.035387,-0.131692,-0.084506,0.114560,-0.022966,0.038642,-0.120908,0.130977,0.036766,0.026768,-0.041853,0.115591,-0.049964,0.090447,0.054182,-0.070303,-0.081047,0.016885,-0.027106,-0.027835,0.003138,0.021577,-0.058855,0.000584,-0.060513,0.081387,0.039311,-0.048109,-0.145416,-0.129051,-0.037571,0.038794,0.029270,0.091327,-0.030864,-0.083042,0.066252,-0.019848,-0.025331,0.009882
0.056361,-0.024830,-0.150053,-0.111939,0.011148,-0.007188,0.015828,-0.143748,-0.108732,0.085203,0.005630,0.005086,-0.025158,-0.012998,0.102862,0.056708,0.103735,-0.149284,0.026922,-0.046774,-0.109926,-0.059572,-0.035762,0.003555,0.114684,-0.062799,-0.032839,-0.000455,0.002120,0.003363,-0.016458,-0.059932,0.018991,-0.136716,0.055249,0.011487,0.030947,-0.064291,0.110261,0.008179,0.040579,0.046854,-0.079622,0.008715,-0.204377,0.000033,-0.067692,0.015475,0.044230,0.002608,0.011363,0.059775,-0.004987,-0.060026,-0.020403,-0.008903,0.027021,-0.123291,-0.002388,0.058248,-0.098288,0.055214,0.120954,0.067606,0.000292,0.003119,0.115763,-0.051156,0.038791,0.013543,-0.036748,0.126289,-0.050286,-0.040347,0.006683,0.103458,-0.012021,-0.003998,0.074105,0.010406,-0.003128,-0.014162,0.137901,0.024512,0.127387,-0.026859,0.053319,0.118544,-0.027721,0.073198,-0.084349,0.063586,0.087938,0.103402,0.021048,0.019655,0.071577,0.046384,-0.004984,-0.064863,0.004569,0.045032,0.060804,0.049749,-0.009239,0.077190,-0.101964,0.132331,0.029559,-0.102899,0.000521,-0.097040,-0.051057,0.043112,-0.025459,-0.000619,-0.175657,0.092764,-0.033482,-0.050302,0.035476,-0.037910,-0.028662,0.081421,-0.002905,-0.004632,0.065764,0.173716,0.059109,-0.038123,-0.021317,0.146253,-0.008025,-0.040541,0.071690,-0.164849,0.003735,0.036086,0.040409,-0.051140,-0.109724,0.004697,-0.005349,-0.042002,-0.012791,-0.128781,-0.009781,0.067958,0.006754,-0.124282,-0.034881,-0.017535,0.052877,-0.180825,-0.004915,0.038106,-0.030874,0.015539,0.057512,-0.023794,0.005254,0.041779,-0.033649,0.045360,0.028187,0.066642,-0.014314,0.182041,-0.020986,0.060872,-0.027511,-0.137592,-0.048401,-0.028964,0.036214,0.013395,0.041460,0.000211,0.128289,0.072148,-0.063032,-0.023092,-0.038408,0.086096,-0.011982,-0.005654,-0.038567,-0.083484,0.198272,0.019982,0.035543,-0.091982,-0.027594,-0.008503,-0.087239,-0.052754,0.169182,0.024968,-0.006491,0.007698,-0.107677,0.057853,-0.044053,0.057982,-0.059557,-0.029096,-0.191646,-0.057553,0.018817,0.059860,0.049984,0.164621,0.055652,-0.068799,-0.057548,-0.108963,0.124673,-0.081820,0.016864,0.048620,0.227360,-0.031671,0.025602,0.063310,-0.007638,-0.016249,0.009881,-0.042107,-0.153772,-0.005887,-0.086959,0.235009,-0.063058,-0.005308,0.119036,-0.015503,0.129588,0.015203,0.078327,0.002696,0.050823,0.032555,-0.011896,-0.183469,-0.052868,-0.115178,0.005452,-0.018534,-0.021236,-0.032377,-0.068324,-0.102110,0.021330,0.046361,-0.076355,0.009494,-0.027723,0.037595,-0.011548,-0.088428,0.053100,0.242705,0.184348,0.027851,0.015982,0.010693,0.009996,0.054208,0.023707,0.027583,0.041219,0.081087,-0.064575,0.155735,0.046107,0.136191,-0.028759,0.031560,0.002702,0.002980,-0.048512,0.037421,0.067259,-0.049280,0.085004,0.135151,0.033553,0.039868,0.105785,-0.030501,-0.048439,0.036858,-0.095953,0.010140,0.015690,-0.133452,0.025534,0.032039,0.117739,0.039546,0.042099,-0.080716,-0.012698,-0.026193,0.092355,0.197294,0.019878,-0.009379,0.051331,0.027671,0.034573,-0.002762,-0.123325,-0.049177,0.047401,0.142443,-0.045053,-0.000008,0.095940,0.156096,0.012735,0.045889,-0.094877,0.113169,0.171910,0.025717,-0.028944,-0.013316,0.001628,0.223745,-0.015077,-0.005358,0.028649,-0.051683,0.042825,-0.038406,0.008921,-0.196375,0.028879,-0.045675,0.063513,0.008833,0.087463,-0.154235,0.048185,0.081287,-0.017910,0.033900,0.013024,-0.141355,-0.009976,0.036864,-0.081313,-0.056103,0.072555,0.011081,0.062210,-0.051338,0.063001,-0.027009,0.085165,0.041033,-0.006443,0.051440,0.046233,-0.141902,0.059953,-0.126612,-0.073203,0.002332,0.023691,0.090660,-0.162100,-0.044491,-0.051193,0.019349,0.059300,0.084454,-0.007073,0.113015,-0.033503,0.042400,0.014684,0.181845
-0.030007,0.090887,-0.042591,0.010010,0.057551,0.058033,-0.016276,0.031133,0.027306,-0.089259,-0.020410,-0.127576,0.027487,-0.035096,0.036575,0.023336,0.110606,-0.065867,-0.014629,-0.004722,-0.007029,-0.119265,0.085023,-0.034547,0.092140,0.146073,-0.069107,0.021292,0.031987,0.034294,-0.041378,0.007231,0.056624,0.020613,0.034984,0.060278,0.154659,0.040192,-0.088283,0.079967,-0.046927,-0.006658,-0.139449,0.014712,-0.059397,-0.033889,0.074143,-0.028865,-0.022885,0.060141,-0.033185,-0.070467,-0.003588,-0.050745,0.093033,-0.070101,0.005315,0.014986,0.024636,0.004535,-0.012135,0.041779,-0.010746,0.053985,-0.005314,0.044225,0.024645,0.031173,-0.091837,-0.032874,0.002044,0.137659,0.124273,-0.096970,0.046458,-0.102598,0.095702,-0.016611,-0.023283,-0.111614,0.098315,0.073936,-0.028013,0.034808,0.019906,-0.007907,0.053847,-0.019380,-0.042370,0.120301,0.125719,-0.078834,-0.061302,-0.035430,-0.074677,-0.002112,0.031325,-0.067162,0.049317,-0.047957,0.127561,-0.011124,0.016890,0.004027,0.047481,-0.006415,-0.016464,-0.125595,0.008667,-0.037808,0.028613,-0.028439,0.190439,-0.074563,0.128319,0.032649,0.032945,-0.020072,0.007208,-0.140351,0.047392,-0.109874,-0.141479,-0.031604,-0.029711,0.017674,0.018090,0.008226,0.005834,0.057877,0.002073,0.107024,-0.039917,0.039141,-0.015604,-0.076244,-0.018552,0.073396,-0.022438,-0.003708,0.075865,0.124848,-0.027725,0.093619,-0.019205,-0.034050,-0.034287,-0.009664,-0.072332,0.049498,0.016669,0.088466,0.035020,-0.001876,0.122602,0.012549,0.018954,0.098789,0.096683,0.041706,0.101398,0.052223,0.020582,-0.070169,0.014016,-0.008105,-0.000546,0.032945,0.136386,0.092843,-0.051291,0.039682,-0.057985,-0.081189,0.010928,-0.012967,0.010174,0.105397,-0.093215,0.045212,-0.047354,-0.048585,-0.123724,-0.017896,-0.112827,-0.001424,0.032479,0.059171,-0.050480,-0.073925,0.132833,0.019354,-0.005769,-0.030953,-0.039340,-0.076027,-0.014508,-0.098271,-0.015185,-0.017432,0.066128,-0.056466,-0.055989,-0.105125,0.014568,0.006725,-0.082713,-0.001980,-0.034174,0.041952,0.069790,0.038417,-0.034521,0.055355,-0.041683,-0.066871,0.044761,0.099261,-0.046374,0.070664,-0.019188,0.041344,0.105180,0.056773,-0.054300,0.045201,0.016019,-0.010381,-0.003407,0.087857,-0.038317,-0.153554,0.032372,-0.067301,-0.065298,-0.019596,0.005116,-0.175004,-0.005194,0.076478,-0.002006,-0.025220,0.048627,-0.029669,0.000103,-0.049328,-0.089226,-0.080788,-0.103279,0.045746,-0.007525,-0.019892,-0.043753,0.027679,0.023038,-0.052806,-0.001012,0.063233,0.036183,0.088630,-0.087284,-0.073736,-0.033666,0.114032,-0.029439,-0.015601,0.069733,0.025675,0.121333,-0.019864,-0.042781,0.054189,0.054902,0.049682,0.012936,0.033938,-0.017884,0.087629,0.033120,0.035337,-0.133886,0.000838,0.058266,0.159944,-0.061716,-0.054514,-0.109824,0.005733,-0.061700,-0.017341,0.024723,-0.082870,0.006966,-0.047789,0.058028,-0.076097,-0.016101,-0.009566,0.040083,0.046080,-0.128200,-0.054686,-0.071752,-0.141895,-0.016935,0.034341,0.084679,0.060740,0.077456,-0.120678,0.070006,0.107489,0.064166,0.030203,-0.044533,-0.015342,0.025118,0.006687,-0.047462,-0.009949,-0.042600,-0.059058,0.097508,0.019375,-0.079606,-0.078394,0.139368,-0.011331,-0.116906,0.030143,0.127357,-0.001307,-0.051449,0.085440,0.074260,0.022017,0.156207,0.015571,-0.035622,0.026199,0.026156,0.060700,0.028243,-0.044501,-0.005151,0.091047,0.039800,0.034023,-0.034764,-0.068542,-0.023112,0.154450,0.003476,-0.102347,0.053412,0.142285,-0.029555,-0.014682,0.022367,0.182092,0.130705,-0.045063,0.089533,0.027278,0.019919,0.009156,0.045677,0.045043,0.013594,0.023656,-0.032949,-0.009065,0.023038,-0.039947,-0.011285,-0.035466,-0.010342,0.007452,0.000252,-0.103735,-0.030839,0.130840,-0.032800,-0.007835
0.042624,0.032904,0.163453,-0.032925,-0.067606,0.082747,-0.121542,-0.002420,0.014031,0.050528,-0.017716,-0.134990,0.007016,-0.004161,-0.017888,-0.050181,0.075816,-0.062843,0.106500,-0.048820,-0.107706,0.050187,0.053590,0.054848,-0.032216,0.083116,-0.009060,0.005076,-0.092098,0.009478,0.021611,-0.126170,-0.025610,-0.086798,0.032700,-0.127236,-0.128770,-0.009475,0.029200,0.109455,-0.051867,-0.061088,0.020615,-0.084650,0.112465,0.054530,-0.066127,-0.004299,-0.104403,0.050018,0.065602,0.000856,0.038174,0.061755,-0.036085,0.007591,-0.056306,0.159842,0.021130,0.036511,0.050703,0.109078,-0.148062,-0.038823,-0.105095,-0.010444,-0.014454,-0.002483,0.110223,0.023356,0.024031,-0.036779,0.019229,-0.026795,-0.128305,0.000690,-0.047091,0.018305,0.153390,0.046419,-0.057818,-0.071072,0.036548,0.083151,0.023069,0.108848,0.000466,0.042161,0.108332,0.077511,-0.026335,0.117915,0.007682,-0.073718,0.002318,0.034491,0.044081,0.023529,-0.070169,-0.134943,-0.003127,-0.037536,-0.018294,0.069076,-0.085720,-0.113246,-0.003278,0.107495,0.030689,0.066208,0.045578,0.091543,0.011685,-0.014689,-0.000269,-0.022096,0.075689,-0.061940,0.037010,-0.006811,-0.067246,-0.005747,0.084560,0.058806,-0.098614,-0.034980,0.005978,0.049360,-0.081558,-0.091367,0.099756,0.021249,-0.071526,-0.073751,0.017329,-0.111214,0.098287,-0.005163,0.163557,-0.049062,-0.130357,-0.076223,-0.012592,0.030461,0.036981,0.026879,-0.116667,0.009560,-0.020923,0.058722,-0.067239,-0.119886,-0.005435,0.023254,-0.065519,0.010013,0.070978,-0.010367,0.085743,0.093424,-0.071119,0.156875,0.047891,-0.125187,-0.036619,0.029455,0.045344,0.025886,-0.081515,0.094033,0.081720,0.106826,0.064259,-0.022031,0.037502,0.020176,-0.074976,0.033677,-0.018122,0.050151,0.021080,-0.080066,-0.035433,0.042201,-0.007304,0.011259,-0.079419,-0.085834,0.159300,-0.083096,-0.005197,0.094474,-0.051666,0.084862,-0.041400,-0.195015,0.043366,-0.051698,-0.098559,-0.031804,-0.039547,0.023959,-0.006836,0.025570,0.054587,-0.053222,-0.129475,0.039447,-0.083763,0.096330,-0.034363,0.078812,-0.028002,-0.024903,-0.048962,-0.065143,-0.209524,-0.017651,0.035165,-0.068199,0.015697,-0.031651,0.058370,0.004272,0.033689,-0.063417,-0.093048,0.001311,0.017783,-0.098716,0.036074,0.020305,0.099547,-0.129346,0.095549,0.073180,0.044583,0.167928,-0.002687,-0.089737,0.053967,-0.020228,-0.036576,0.043429,-0.004170,0.042406,0.060815,-0.242102,-0.029308,-0.042962,-0.005989,0.024000,-0.184756,0.000063,-0.052482,-0.002353,-0.046062,-0.043664,0.056109,0.075862,-0.127362,-0.038367,-0.002403,0.028278,-0.007217,0.048767,0.217918,-0.083999,-0.030206,-0.017746,-0.033090,-0.037371,-0.110156,-0.156214,-0.011847,0.003789,0.029568,-0.001230,0.063708,0.128998,0.071069,0.056126,-0.023639,-0.032617,-0.007231,0.177585,0.012392,0.019054,0.102900,-0.131356,0.018409,0.048068,-0.046121,-0.015157,0.059519,0.003542,-0.022678,0.033217,0.041754,-0.002844,-0.105461,-0.071187,-0.061794,0.062773,0.050987,-0.088932,0.043940,0.129594,-0.018274,-0.039631,-0.030509,0.022893,0.032026,0.116409,-0.259445,0.034949,0.056438,0.103566,-0.014300,0.097115,0.001152,-0.117261,0.058655,-0.063452,-0.033910,0.010742,-0.047338,-0.047785,0.004509,-0.079059,0.007290,-0.082494,0.062243,-0.028817,0.037385,0.012091,-0.031203,-0.084455,0.070107,0.026094,0.141209,-0.009391,-0.058990,-0.133164,-0.115139,-0.117846,0.039915,0.018302,0.120932,-0.026840,0.010163,-0.066479,0.017216,0.035951,-0.057571,-0.159671,0.031426,-0.043716,-0.071629,-0.085084,0.004410,0.047730,0.068249,-0.045516,0.108165,0.123629,0.106484,0.100193,0.082095,0.020011,-0.020028,-0.091215,0.047550,-0.000879,-0.014308,-0.062679,0.036724,0.119826,-0.021280,-0.054941,0.015301,0.042599,0.036813,0.009291
-0.106760,0.088451,0.055830,0.057033,-0.045399,-0.083482,0.045726,0.037760,-0.001303,-0.102589,0.049260,-0.068263,-0.015965,-0.008083,0.038608,-0.070335,0.063463,0.158025,-0.040569,0.071710,0.010420,0.007513,0.050791,-0.105041,-0.131396,0.044963,-0.017745,0.049038,0.023246,-0.057491,-0.031397,-0.013289,-0.079325,-0.004173,-0.024372,0.022373,-0.075507,-0.208454,0.023620,0.159769,0.009293,-0.079531,-0.031251,0.162392,-0.054851,0.024655,-0.017027,-0.019742,0.049571,-0.026919,-0.023083,-0.086236,0.032590,0.042672,0.012283,0.097394,0.083359,0.004198,-0.015167,-0.029732,0.135008,0.019064,0.029443,-0.079139,-0.011839,-0.060964,-0.056206,0.014147,-0.080114,-0.091659,0.022462,0.053059,0.008833,0.135739,0.026033,-0.054010,-0.006040,-0.114944,-0.071966,0.028020,0.030372,0.027145,0.123531,-0.112578,0.025096,0.155950,0.086132,-0.060038,0.031262,-0.146157,-0.073975,-0.106425,0.062512,0.009465,0.059518,-0.088864,-0.046661,0.035419,0.160283,-0.010837,0.022306,-0.018824,-0.032326,-0.013873,0.079708,-0.013900,-0.010879,-0.143801,0.064261,0.013092,0.108253,-0.027209,-0.056426,-0.050385,0.002537,-0.051702,0.050584,-0.023762,0.067755,0.034450,0.005712,0.060137,-0.111959,0.054020,0.062525,0.110195,0.072004,0.128391,0.100389,-0.020544,-0.052844,-0.156056,0.071988,-0.069550,0.028760,-0.067223,-0.052318,0.044950,0.002486,0.063487,-0.014722,0.082989,-0.041218,-0.006605,0.027518,-0.048030,-0.007506,-0.029329,-0.063902,0.147276,-0.052456,0.000226,-0.114974,0.089372,-0.012146,-0.077739,-0.000178,-0.064083,0.052540,0.017412,0.018017,-0.018749,-0.017731,-0.004878,0.009879,-0.026122,0.043843,-0.035522,0.110852,-0.081095,0.066581,-0.101829,-0.073246,0.132313,-0.022718,0.042210,0.004173,-0.096165,0.059569,-0.089530,0.010628,0.013884,-0.042628,0.105719,0.044423,0.004401,0.006636,0.015624,0.071778,-0.001170,-0.044409,0.041524,0.068205,0.035472,0.046917,-0.076418,0.002323,-0.003291,0.028551,-0.084952,-0.009043,0.045782,-0.023472,0.051893,-0.058435,0.018466,-0.046005,-0.010179,0.065991,-0.097179,-0.011476,0.006655,0.049110,-0.051472,-0.074747,-0.032820,-0.043968,0.101674,-0.029734,-0.124280,0.050183,0.094758,-0.048195,-0.031684,-0.010145,0.054506,-0.032212,-0.012602,0.166025,0.008805,-0.036303,-0.039927,0.077524,-0.007329,-0.151258,0.010648,0.120567,0.011643,-0.097102,-0.007664,0.058243,-0.034134,-0.107543,0.069528,0.017303,0.048514,0.114597,0.015139,0.001354,0.004371,0.121762,0.108501,-0.012758,-0.130951,-0.047418,0.009696,-0.022637,-0.084981,0.057782,0.023464,-0.000916,0.084922,0.007626,0.114915,-0.036025,0.035254,0.041455,0.088826,-0.080898,0.042314,0.076532,-0.114110,-0.032900,-0.087453,-0.026889,-0.156790,-0.079812,-0.064328,-0.075716,0.031121,-0.076233,0.013411,-0.014271,-0.006977,0.087541,0.047336,-0.021463,0.056420,0.007754,0.046234,0.017920,-0.000704,0.149948,-0.043241,-0.081571,0.028619,-0.074347,0.055097,0.027213,-0.026968,-0.030922,0.007353,-0.087575,0.069024,-0.059383,-0.065942,0.018322,0.043626,-0.011272,-0.062555,-0.011316,-0.051599,-0.041351,-0.015158,-0.040761,-0.073999,-0.045591,0.016916,-0.024513,-0.060500,0.041373,0.088803,0.144160,0.065774,-0.100275,-0.027392,0.015870,-0.017855,0.035003,0.028078,-0.013184,-0.024364,0.027044,-0.199993,0.065336,-0.140716,0.078058,0.036149,-0.033095,-0.014438,0.017221,-0.016433,0.031796,0.040311,-0.056621,0.064470,-0.005320,0.047111,-0.011016,0.070021,-0.045819,0.022041,0.020968,-0.002818,0.010068,-0.038018,-0.073436,0.130677,-0.098305,0.011284,-0.052399,0.166767,-0.085490,-0.040717,0.058386,-0.056040,-0.012689,0.022449,0.072588,0.070243,-0.106719,-0.054108,0.060939,0.079485,0.101958,0.199665,-0.016413,0.098329,0.016111,0.050999,0.052490,0.020643,0.134769,0.123382
0.002088,-0.119289,-0.034549,-0.050677,0.076482,-0.008972,-0.079703,0.032902,-0.130152,-0.082037,-0.140199,0.022120,-0.069953,0.074600,0.009693,0.000325,0.004734,-0.036219,0.126682,-0.045122,-0.042658,0.041899,-0.013703,-0.081735,-0.000170,0.003328,-0.002840,0.072810,0.006769,0.114375,-0.060480,-0.013776,-0.088961,-0.134400,-0.089979,0.026529,-0.056585,0.023748,-0.013028,0.113619,-0.027382,0.031464,0.007989,0.063335,-0.014803,0.019893,-0.048276,0.243070,-0.019434,-0.024305,0.027188,-0.098603,-0.028962,-0.195852,0.046044,-0.098171,0.044102,-0.059298,0.021037,0.055241,0.005546,-0.064180,0.112427,-0.043921,-0.036922,0.046685,-0.117727,-0.066538,0.084729,0.088897,-0.006117,0.086457,0.152991,-0.098556,-0.067574,0.082631,-0.166555,0.061026,-0.064023,0.035767,-0.121956,0.011448,-0.041008,0.013795,-0.121346,-0.036519,-0.073829,-0.043469,0.115133,-0.055560,-0.154461,-0.060328,-0.085214,0.024317,-0.028622,-0.145529,0.002026,-0.100635,0.027735,0.097015,-0.002410,0.002309,0.018333,-0.058027,0.113114,0.001523,-0.066488,-0.055404,0.061220,-0.065627,-0.143617,0.150611,-0.055299,-0.047997,0.049679,-0.021047,-0.092056,-0.021246,0.189425,0.095690,0.005818,0.027813,-0.147182,-0.068549,-0.073053,0.015039,-0.051442,0.018589,-0.023140,0.018590,-0.013331,-0.080609,-0.011389,-0.062075,0.005468,0.065711,0.043516,0.133272,-0.105823,-0.001737,0.091858,0.112327,-0.080514,0.008626,0.021682,-0.029559,-0.114645,-0.030934,-0.130121,-0.021171,-0.156743,0.026810,0.002684,0.009264,0.019795,0.056052,0.031602,-0.079297,-0.144446,0.061471,-0.058837,-0.006787,-0.047564,0.118332,-0.104080,0.077932,-0.028890,-0.007674,0.010391,0.079424,-0.035840,0.167305,0.077659,0.133071,-0.051343,0.002130,-0.049455,-0.142780,0.133269,-0.095143,0.016665,0.095823,-0.077296,0.005748,-0.028457,-0.009673,0.055599,0.020638,0.048581,0.019363,0.089321,0.009420,0.017138,0.035949,-0.030620,0.007426,0.029391,-0.020628,-0.157290,-0.011264,-0.166569,0.173153,-0.095503,0.019608,0.093155,-0.052355,-0.008699,0.066435,0.000013,0.108855,-0.024435,0.008069,0.059595,-0.023140,-0.066759,0.051409,0.013928,0.073604,0.057945,-0.045642,-0.169546,-0.100543,0.003001,0.002776,-0.002850,-0.038450,-0.058693,0.050288,0.106787,0.069068,0.054724,-0.087570,0.095264,-0.017091,-0.066705,0.027567,-0.082494,-0.011555,-0.027444,0.016061,0.120297,-0.132873,0.024747,0.038296,-0.036723,-0.092194,0.009433,0.000139,0.073860,-0.029628,-0.031983,-0.035817,0.046949,-0.025719,-0.017747,0.040735,-0.025472,0.094722,-0.020963,-0.082661,0.111139,0.029797,-0.040067,-0.168006,0.000623,0.044749,0.052146,0.038254,0.082937,0.051992,0.004902,-0.015115,-0.051697,0.003439,0.084121,-0.069299,-0.061500,-0.024378,-0.017858,0.172192,-0.056181,0.053183,0.077323,0.061642,0.021413,-0.027230,0.154949,0.010360,0.104561,-0.055861,0.113097,0.027059,0.109193,-0.012753,-0.094350,0.045950,-0.005191,0.100828,-0.041362,-0.102783,-0.132122,-0.112693,-0.069019,-0.003663,-0.054313,0.010336,-0.089198,0.018678,-0.026872,0.064279,0.002408,-0.102621,-0.072196,-0.093949,-0.036584,0.093783,0.107237,0.141395,0.070753,0.219065,0.068095,-0.136372,0.003519,0.043261,0.046330,0.018992,0.189947,0.020683,-0.034280,-0.014371,0.081028,-0.032930,0.067041,0.123393,-0.110243,0.042246,0.087032,0.073101,0.021123,-0.086646,-0.087753,-0.020618,-0.081708,-0.077754,0.057181,0.009356,-0.038615,0.047421,-0.002425,0.098281,-0.074042,-0.116751,-0.017626,-0.078802,0.123902,-0.124630,0.000577,-0.010077,0.049384,-0.010730,0.014760,0.002559,0.031051,0.022140,0.037675,0.081412,-0.038432,-0.041710,-0.010702,0.070169,-0.050779,0.066267,0.030621,0.039043,0.074869,-0.009885,-0.040440,0.011960,0.013681,0.056809,0.024945,0.144863,-0.022950,-0.025651
-0.114369,-0.005787,-0.025048,0.020351,-0.079140,0.021394,0.215608,-0.104431,0.180326,0.032770,-0.106050,-0.005416,-0.081978,0.006639,0.101899,-0.010017,-0.073149,-0.141795,0.027035,0.013016,-0.053371,0.086263,-0.014026,-0.020248,0.044149,0.022698,0.106888,-0.003070,0.068692,-0.012305,0.046535,-0.041212,0.080213,-0.028802,0.066327,-0.001776,-0.001915,0.034662,-0.166171,0.021623,0.128917,0.050309,-0.044916,0.044580,-0.051236,-0.008269,0.055175,-0.081537,-0.000683,-0.063450,-0.064562,0.013212,0.036728,0.078708,0.010871,0.131179,0.048786,-0.070902,-0.077848,0.050791,0.162405,-0.087908,-0.097867,-0.038413,-0.058076,0.173255,0.097097,-0.032354,0.048642,0.061057,0.013671,0.006107,-0.146776,-0.014783,0.121348,-0.040741,-0.015474,0.101219,0.014297,0.057544,-0.162613,0.036164,-0.067735,0.005207,-0.023015,-0.096969,-0.013666,0.029432,-0.024383,0.055037,-0.077387,-0.018607,-0.010877,0.028632,0.113088,-0.108179,-0.005195,0.032329,0.008836,-0.003809,-0.141780,-0.004316,0.024964,0.095913,0.071365,0.057235,0.011628,-0.097798,0.041892,-0.140525,0.000792,-0.019645,-0.035506,0.091938,0.179974,0.047109,0.222374,0.007015,-0.008256,0.016079,-0.004392,-0.137016,-0.034527,-0.127956,-0.115216,-0.002516,-0.007944,-0.065415,-0.032634,0.074821,-0.018941,-0.038856,0.063645,-0.050042,0.030078,-0.004349,0.025225,0.014913,-0.110867,0.001396,-0.035544,0.056152,0.058431,0.176501,0.009129,-0.035671,-0.063690,-0.065390,0.036935,0.128153,0.097102,0.156616,0.036630,-0.088908,0.041883,-0.030520,-0.018776,-0.025391,0.016512,-0.084293,-0.045246,0.034887,-0.030579,-0.157934,0.015138,0.016597,-0.008466,0.045724,-0.011134,-0.064287,-0.039334,0.106352,0.074797,-0.071286,-0.159086,-0.069148,0.077656,-0.009286,-0.006444,-0.023144,0.015857,0.091880,-0.019512,0.014701,-0.063211,-0.025902,0.010931,-0.163878,-0.102240,-0.016554,-0.061080,-0.087203,-0.015992,-0.063252,-0.137599,-0.047274,0.000567,-0.080956,-0.044413,-0.134311,-0.048961,-0.024247,0.029512,-0.010497,0.197646,-0.011968,0.034656,0.043914,-0.021022,-0.140448,0.101267,0.179912,0.011593,0.241240,0.016177,-0.007319,0.021346,-0.041132,0.029924,0.010528,-0.093482,-0.101674,0.011952,0.106362,-0.027656,-0.082308,-0.100444,0.054688,-0.062319,0.098967,-0.031902,-0.015556,-0.128906,0.086287,0.066902,-0.062097,-0.049528,-0.135761,-0.021301,0.027061,0.112559,-0.097515,0.034554,0.028129,0.006249,-0.009682,0.035805,0.043524,-0.037558,0.027803,0.068239,0.121399,-0.072900,0.108901,0.008449,0.025808,-0.085392,-0.155789,-0.038788,0.047892,0.042161,-0.071861,0.084123,-0.064688,0.059252,-0.023845,-0.077257,-0.082400,0.187378,0.013252,0.041423,-0.122833,0.008081,0.105464,-0.019590,0.026373,-0.001459,-0.017011,-0.018583,-0.017428,0.170701,-0.062654,0.015533,0.176272,0.075243,0.048610,0.002319,0.045036,0.039574,-0.068564,-0.070156,0.111135,-0.175424,0.150144,-0.069383,-0.022550,-0.129305,0.094988,-0.022772,-0.063188,0.053765,0.031682,-0.055664,0.123149,-0.070639,0.074518,0.031980,0.009644,0.029216,0.012642,0.085041,0.026654,0.019352,-0.007477,0.084528,-0.179752,0.042794,-0.066703,0.169810,-0.043780,0.053876,0.027068,-0.015356,-0.007078,0.033669,0.195401,-0.281427,0.070931,-0.046671,0.025499,-0.054349,0.032511,-0.066077,-0.121822,-0.018732,0.090807,-0.011576,-0.031664,0.073680,0.018865,0.090106,-0.025024,-0.151865,-0.026261,0.024736,0.099081,-0.014011,0.000610,0.050077,0.006995,-0.027938,-0.037304,-0.157565,-0.044543,-0.008162,-0.041319,-0.000789,-0.023706,0.019741,0.057723,-0.084790,0.044681,0.125876,0.065570,0.053199,-0.091637,0.020502,-0.049762,-0.066472,0.012963,-0.012018,-0.184899,-0.066135,-0.019717,0.038208,0.029169,-0.038804,-0.131104,0.016908,-0.051998,0.025139,0.095089,-0.059305,-0.104566
0.007145,0.003461,-0.114978,-0.051996,-0.013698,-0.055163,0.135517,0.146607,-0.090455,-0.009285,-0.022551,0.105445,0.153170,-0.022126,0.018012,0.044035,0.049139,-0.015541,0.153770,0.120105,-0.150290,0.014850,-0.112715,0.026180,-0.089121,0.148578,-0.067281,0.080507,0.065515,-0.080694,-0.040345,-0.044513,0.018170,0.044876,-0.035195,-0.120696,-0.000597,-0.063415,-0.078195,0.020301,-0.131099,0.155245,-0.036954,0.020671,0.113156,-0.095108,-0.107384,0.038343,0.072900,-0.003477,0.005115,-0.033950,0.015845,0.005062,-0.015916,0.050058,-0.062888,-0.112247,-0.022965,-0.037608,-0.044826,0.010784,0.083406,-0.072872,0.020435,-0.120401,0.153954,0.004174,0.083394,-0.040886,0.009181,-0.060467,-0.080158,0.089245,0.014808,-0.002070,0.088637,-0.019223,0.011044,-0.053449,-0.045803,0.054090,0.049436,-0.078257,0.036945,0.133947,-0.004384,0.053387,-0.017172,0.007982,0.100068,-0.080161,0.009763,-0.004360,0.021676,-0.008665,0.004972,0.032733,0.031560,-0.010406,0.035792,0.001927,-0.007350,0.016068,-0.023569,0.026265,-0.065578,0.071252,-0.010240,-0.039907,-0.070348,0.029623,0.165562,0.103048,0.249411,-0.043226,0.083661,-0.167730,-0.109348,-0.010107,-0.031133,-0.080234,0.077861,0.058618,-0.008563,0.036129,-0.044674,-0.028575,0.045635,-0.014232,-0.023044,0.025044,0.041626,-0.039783,-0.047127,-0.028938,-0.011613,-0.004968,-0.100398,-0.053899,0.072374,-0.093127,0.122654,0.060271,0.051387,-0.003446,0.098129,-0.024659,0.026435,0.011158,0.038506,-0.044227,0.064550,0.022993,-0.028744,-0.085589,-0.065406,-0.018740,0.035322,-0.013887,-0.012410,0.051405,0.027255,-0.063639,0.082614,-0.084806,-0.067698,-0.080065,-0.020358,-0.068778,-0.022650,0.151414,-0.078472,0.052517,0.002877,0.045674,-0.011124,-0.137126,0.002135,-0.099710,-0.029456,-0.023545,-0.020192,0.021564,-0.011844,-0.142777,-0.044781,-0.028414,0.115072,0.086255,0.010998,-0.129407,-0.028142,-0.104088,-0.014730,-0.027106,-0.011941,-0.023139,0.073337,-0.065167,0.000712,0.106605,-0.055345,-0.115456,-0.047801,-0.029420,0.062739,-0.007239,-0.075802,-0.143752,0.009181,-0.034231,-0.063630,0.090544,0.018740,0.051941,-0.043607,-0.105505,-0.006369,-0.054275,0.089952,0.074768,0.035210,-0.029587,-0.025068,0.000419,0.042759,-0.029970,0.071701,-0.004393,0.091003,-0.067724,0.096314,-0.060851,0.010170,0.013195,-0.073588,-0.089573,0.020475,0.048670,-0.057361,-0.018825,0.022975,0.088458,0.068045,0.005347,0.088390,-0.030986,-0.044694,0.070589,-0.169703,0.051266,0.019411,0.012157,-0.053822,-0.108888,0.014432,-0.117318,-0.017906,-0.104857,-0.063394,0.001324,0.094108,-0.101182,0.123292,-0.012742,0.036204,0.075267,0.084459,0.056666,-0.037521,0.144514,0.032706,0.055586,-0.009559,0.013670,0.021912,-0.049907,-0.008257,0.025781,0.144834,-0.021538,0.024460,0.244200,-0.040169,-0.034884,-0.004738,0.059300,-0.011292,-0.022830,-0.010528,0.147589,0.038707,-0.005396,0.066262,-0.042709,-0.056815,-0.163100,0.051643,-0.002354,-0.203457,-0.101996,0.083860,0.058968,0.014711,-0.003690,0.112828,0.043121,0.061825,0.092452,-0.002821,-0.051558,-0.141016,0.052518,0.138917,0.009601,-0.038322,0.057315,-0.049350,-0.121397,0.027571,-0.120594,0.002337,-0.000652,-0.046147,-0.079228,0.089005,0.071412,-0.072893,-0.059668,-0.035737,-0.137888,-0.028081,0.031075,-0.127265,0.042371,-0.109135,0.025444,0.014161,0.035070,0.010548,-0.065976,-0.002981,0.034473,0.139008,-0.006113,0.047276,-0.039806,0.086068,0.026266,0.006458,-0.057363,-0.061376,-0.024904,-0.047314,-0.031915,0.127921,0.030806,0.144704,0.024887,0.072176,0.018207,-0.109984,-0.008531,-0.027682,-0.029799,0.107392,0.035884,0.012666,-0.082905,-0.011463,-0.114318,0.112484,0.024438,0.054650,-0.086931,0.071790,0.007080,-0.010555,-0.047267,-0.031693,-0.044309,-0.062643,-0.029425
0.032948,0.118997,-0.022042,0.022929,-0.031246,0.024688,0.040890,0.022613,0.010381,-0.010953,0.058372,0.067809,-0.046474,-0.062043,0.009678,0.146723,-0.020549,-0.003001,-0.055778,-0.030108,0.044820,0.051600,-0.012579,-0.032056,-0.024265,0.090960,-0.046601,0.071414,0.045918,-0.065499,-0.048024,0.079031,-0.037468,-0.015179,-0.018933,0.123750,-0.057722,-0.121263,-0.024179,0.036743,0.038203,-0.047244,0.030434,-0.002980,-0.020735,-0.028757,-0.025397,0.102214,0.014433,0.002484,-0.069160,-0.051579,0.058643,0.102275,0.163485,-0.098543,-0.006617,0.092430,-0.058016,0.031160,0.093526,0.040396,0.041254,-0.008042,0.013533,-0.020850,0.028234,0.038975,-0.035829,-0.035343,0.072766,-0.073468,0.136613,-0.062041,0.028320,-0.043799,-0.019331,-0.117502,0.003642,-0.076642,0.186261,0.050199,-0.079320,-0.020687,-0.067284,-0.054439,0.026342,0.032809,0.102671,0.094986,0.031007,0.146410,-0.042711,-0.033857,0.000611,-0.078187,-0.058527,-0.117836,0.072942,-0.049347,-0.098807,0.047244,0.139799,0.078090,0.063266,-0.006771,-0.016814,0.156783,0.082308,0.007220,0.077321,-0.133967,0.081551,0.036505,-0.262688,0.121434,0.006295,0.020424,0.100958,0.041346,-0.069604,-0.106094,-0.024028,0.009013,0.049859,-0.000059,-0.017192,-0.065618,0.012235,0.109676,-0.017829,0.025112,-0.024204,0.078165,0.033803,0.071826,0.053359,0.090541,0.020095,0.074629,0.096324,-0.009106,-0.084911,-0.044826,0.032211,-0.031927,0.029803,0.186556,-0.024564,0.050351,-0.097996,0.023616,-0.025122,0.052688,0.067099,-0.007063,-0.022845,-0.146718,0.066799,0.128570,-0.051164,0.006945,-0.027523,0.011680,-0.028618,0.067961,-0.027927,-0.177554,0.023135,0.116811,-0.017791,0.081757,0.049733,-0.015288,-0.069251,0.058410,0.009550,-0.009301,0.038374,0.012908,-0.010397,0.178002,-0.124544,0.054649,0.096576,-0.005890,-0.022113,0.012356,0.038626,-0.051620,-0.030589,0.108061,0.011515,-0.015392,-0.075833,-0.018301,0.042586,-0.077582,-0.052069,0.124181,-0.039763,-0.012078,0.065228,0.006094,0.197331,-0.040812,0.017678,0.072351,-0.045524,0.017811,0.003853,0.062754,0.015895,0.030742,-0.089916,-0.030443,-0.027251,0.018699,0.080247,0.055886,0.078001,0.056211,-0.068106,0.021885,0.168498,-0.013900,-0.077857,0.005790,-0.070905,0.016277,-0.041905,-0.065205,0.017783,0.060448,-0.119309,0.040481,0.015246,0.032364,0.183430,0.074563,0.021423,0.036221,0.060622,-0.021673,-0.004710,0.075204,0.037493,0.011002,-0.129036,-0.021110,0.038254,0.054156,-0.104029,0.011535,0.003285,-0.099581,0.076357,-0.001336,-0.069738,-0.035375,-0.050297,0.062969,-0.051437,-0.087102,0.031069,-0.078391,0.018495,0.001631,-0.053204,-0.002641,0.025617,0.009910,0.032482,-0.150333,-0.048031,-0.063990,0.008015,0.016539,0.071458,-0.089933,0.031887,0.088723,0.046421,-0.262229,-0.018035,-0.029791,0.056361,-0.028226,0.057656,-0.040458,-0.052875,-0.070425,0.040389,0.044644,0.018710,-0.072125,0.006420,-0.028946,-0.022146,0.030736,0.059583,-0.006827,0.094633,0.090489,0.016547,-0.008593,-0.108418,0.006969,0.076040,-0.006471,0.002637,0.096440,-0.020543,0.156666,-0.129532,0.017648,-0.015260,0.067701,0.003881,-0.098749,0.071332,0.038268,-0.027481,-0.105093,-0.013337,0.088428,0.084902,-0.039469,-0.018461,-0.019505,0.005263,-0.012667,0.180983,-0.042850,0.068025,-0.024232,0.014541,-0.084212,0.122741,0.052261,0.027420,-0.061086,-0.026903,-0.121161,-0.002105,0.081651,-0.024753,0.105656,0.042654,0.015185,-0.001113,0.053299,0.045491,-0.002130,0.021266,0.039281,-0.078964,0.004006,-0.046434,0.085433,-0.061027,-0.191573,0.029149,-0.124049,0.044562,0.041241,-0.056064,-0.001357,0.028400,0.156254,0.002870,0.105643,-0.110771,-0.005456,-0.070017,-0.015232,-0.152179,-0.049133,-0.014752,0.042325,0.092565,0.162776,-0.061008,0.045904
-0.062697,-0.164733,-0.030120,-0.054738,-0.013047,0.022115,0.092365,-0.055213,0.066155,0.114189,-0.043734,0.012756,-0.046586,0.007918,-0.002395,-0.065369,0.028704,-0.114082,0.043580,0.098068,0.073816,-0.027355,0.030523,-0.022604,0.070669,0.229583,-0.005037,-0.057303,0.004598,-0.075603,0.023214,0.009285,-0.065110,0.018039,-0.049058,-0.084338,-0.125204,0.222653,0.036851,0.104369,0.087575,-0.000434,-0.006261,-0.087853,0.049668,-0.113618,0.017861,-0.017463,-0.071725,-0.008353,-0.056123,0.002859,0.048964,-0.058375,-0.030549,0.001995,0.024150,-0.017751,0.028865,0.014144,0.105959,-0.042226,-0.051554,0.022794,0.039780,-0.074975,-0.028219,-0.129434,0.004179,0.020281,0.002146,0.058923,0.122110,-0.059094,-0.038790,-0.009218,-0.042488,0.044546,-0.059533,-0.041626,-0.021545,0.125131,0.093012,-0.008240,0.047750,-0.088225,0.046285,-0.017453,-0.024950,0.085080,-0.053852,0.117301,-0.034448,0.049042,-0.142285,0.076580,-0.084066,0.023436,0.055108,0.028176,0.135761,-0.066188,-0.070276,0.004323,0.025418,0.136316,-0.008169,-0.023522,-0.038537,-0.022767,0.026065,0.049087,0.101766,-0.066330,0.058063,-0.030045,-0.034425,-0.025005,0.032867,-0.012341,-0.025719,0.043037,0.114387,0.044664,0.088072,-0.050538,-0.020919,-0.067535,0.072735,0.017406,-0.143147,0.007557,0.096934,0.075941,-0.052666,0.162895,0.030919,-0.031641,-0.011666,0.027548,-0.010618,0.040560,-0.044881,0.071849,0.108199,-0.044533,0.219194,-0.076560,-0.044401,0.062160,0.098804,-0.014373,0.003142,-0.026457,0.064108,0.006300,-0.003638,0.028722,0.009110,-0.012477,-0.097226,-0.130478,0.065697,-0.100898,-0.090019,0.135591,-0.014980,-0.034752,0.151407,-0.044094,-0.027189,-0.118039,-0.078100,0.065263,0.150709,0.057177,0.015384,0.008759,0.088085,-0.008588,-0.070823,0.080302,-0.037746,0.166718,-0.016289,0.078060,-0.063128,0.030009,0.129998,-0.025430,0.083908,0.054853,0.037204,0.003715,0.064685,-0.061345,-0.021944,-0.149062,-0.081382,-0.020865,-0.052992,0.027649,0.060266,-0.019120,0.091357,0.041976,0.095578,0.001353,0.044865,0.082814,-0.035949,0.046832,0.042091,-0.041072,0.094032,-0.051144,0.045026,0.023747,0.005276,-0.160084,0.031947,0.010693,-0.028926,0.047869,0.083570,-0.028623,0.103197,0.021583,0.001825,-0.025809,-0.147418,0.090310,0.115990,-0.112365,-0.023392,-0.003241,-0.009702,-0.057550,0.110813,0.116760,0.031705,0.045456,0.062581,-0.029342,0.019635,-0.076177,0.052063,0.011265,0.089964,0.070923,-0.022149,0.080291,0.033803,-0.084437,0.042937,0.163490,0.041413,0.069526,0.026635,0.032931,0.067994,0.088784,0.016693,-0.036141,-0.100900,-0.109831,-0.020126,-0.021472,0.010358,0.023637,-0.065522,-0.079934,0.003629,0.072800,-0.027866,0.027799,-0.020319,-0.087004,0.022230,0.032353,-0.046484,0.066148,-0.025697,0.082477,-0.078558,0.023196,-0.077742,-0.070307,-0.028285,0.094902,0.032420,-0.012502,-0.053706,-0.104511,0.043733,-0.034261,-0.081610,-0.022927,0.020098,-0.054806,0.011939,-0.035163,-0.062524,-0.062885,0.123657,0.090097,-0.050265,0.001377,-0.025424,-0.012554,-0.009583,-0.106994,0.027029,0.006499,-0.077087,-0.027002,-0.000774,-0.111695,0.012633,-0.098971,-0.063810,-0.057519,-0.032573,-0.131544,0.133334,0.047278,0.010200,-0.018735,-0.137505,-0.017040,-0.028960,-0.053994,0.091920,0.037998,0.087787,0.118001,-0.080335,0.074036,-0.103888,-0.094311,0.058299,-0.032257,-0.050603,0.087105,-0.041793,-0.053859,0.063710,-0.021970,-0.071571,-0.042789,-0.101466,-0.021736,-0.062421,0.036967,0.035978,-0.066029,-0.003665,-0.028376,0.001216,0.054375,0.050583,0.034615,-0.134814,0.025723,0.163150,-0.103395,0.012311,-0.091371,0.061391,0.142414,-0.023302,0.043891,-0.000748,-0.022028,0.063134,-0.041798,-0.060437,0.099131,-0.002084,0.037586,0.142408,0.181730,0.009072,-0.093906
0.076270,-0.195910,-0.032434,-0.080467,-0.098875,-0.088271,-0.155484,0.016678,-0.175821,0.121097,0.050810,-0.103936,0.008880,-0.052602,0.020604,0.018886,0.013253,0.010843,0.032219,-0.119115,0.021705,-0.079173,-0.002332,0.018571,0.045041,-0.183720,-0.028509,-0.040816,0.025738,0.063742,-0.002006,0.055620,-0.062050,0.043298,-0.023618,-0.071732,-0.064872,0.024394,-0.050408,0.185557,-0.052294,0.124180,-0.031937,0.074618,0.075449,0.065581,-0.022465,0.088815,0.008443,-0.015385,-0.078488,0.026789,-0.055016,0.035461,-0.027424,-0.042330,0.015492,0.090200,-0.130726,-0.061940,-0.115093,-0.040328,-0.076590,-0.122959,-0.069868,0.102460,0.112815,0.010352,0.002506,-0.061079,-0.056223,0.084156,0.121780,0.097718,-0.074203,-0.023334,-0.006976,0.021990,-0.033869,-0.075564,0.020063,0.044932,0.020915,-0.054214,-0.005232,-0.103229,0.011447,0.001401,-0.061121,0.080084,-0.094563,0.041655,0.012428,-0.103523,-0.072861,0.109085,-0.066214,0.147298,-0.056520,-0.034293,-0.022686,0.027138,-0.004824,0.123050,0.003017,-0.012616,-0.117083,0.094177,-0.049081,-0.101166,0.060570,-0.114771,-0.182512,-0.003793,-0.032283,0.008302,-0.073829,-0.117175,-0.009649,0.019293,-0.060915,-0.081856,0.112570,0.087099,0.000476,-0.072732,0.125622,0.057765,0.028074,0.034676,-0.020377,-0.100671,0.038545,0.091979,0.013474,0.156251,-0.148150,0.034660,0.048914,0.091104,-0.068929,-0.157039,-0.032314,-0.026541,-0.079091,0.045277,0.089279,-0.031156,0.019488,-0.013129,-0.083459,-0.003707,0.027229,0.025370,0.107548,0.089415,-0.052750,-0.023229,0.024551,0.007297,0.010822,-0.026369,-0.059660,0.091768,0.091781,0.081175,0.106247,0.051404,0.082553,-0.033550,0.001372,0.067850,0.111797,-0.062037,-0.026132,-0.036298,0.037435,-0.023445,0.045573,0.039502,0.006310,0.066078,0.057110,-0.098461,-0.081935,0.051452,-0.020158,-0.120100,0.041917,-0.151637,-0.006823,-0.100715,-0.143366,-0.098321,-0.040560,0.033358,0.029603,-0.025775,0.004044,0.024650,0.067720,-0.060082,0.038188,0.040739,0.132998,0.027452,-0.061115,0.063868,-0.065221,-0.042001,-0.092503,-0.080642,-0.073517,-0.146654,-0.084867,0.079208,0.054244,0.063384,0.056760,-0.028813,-0.125473,-0.071923,-0.018269,0.053247,0.033321,0.088548,0.018642,-0.013135,-0.040408,-0.105435,-0.065371,0.029558,0.045858,-0.007419,0.066787,0.002263,0.026681,0.116128,-0.086009,-0.000306,0.124738,0.044045,0.059826,0.065542,0.023238,0.121252,0.082478,-0.016817,0.028184,-0.074071,0.064737,0.016967,0.101565,0.002219,-0.043322,-0.025298,0.073890,-0.042569,0.057219,0.048377,-0.060781,0.021508,0.008719,0.015297,0.023951,0.092250,-0.079987,-0.019336,-0.031453,-0.061833,-0.046421,0.033031,0.012588,0.166155,-0.058091,0.087865,-0.051624,-0.000825,0.020336,0.062012,0.077571,-0.018108,-0.096769,-0.016916,-0.034472,-0.147467,-0.101458,0.015613,-0.170377,0.052731,0.105639,0.046641,0.021887,-0.147655,0.113478,0.076648,-0.124378,-0.085493,0.025723,-0.081118,0.100986,0.065706,-0.057491,-0.022522,-0.088719,-0.034587,0.000402,0.027594,0.062275,-0.018343,0.069886,-0.005107,0.054769,-0.079512,0.059191,-0.044198,0.073755,-0.171246,-0.077223,0.145819,0.113272,0.010507,0.027818,0.080267,0.053000,-0.054320,0.128286,-0.008665,-0.041833,-0.201309,-0.052027,0.118863,-0.038778,-0.141207,-0.014352,0.105509,-0.119586,0.045233,-0.029757,0.020006,0.087696,0.042879,-0.000769,-0.023814,0.151159,0.053859,0.014064,-0.111828,0.035963,0.172372,-0.063811,-0.060261,-0.041180,-0.002606,0.032158,0.000864,0.027321,0.001040,0.040104,-0.054402,-0.019910,-0.036960,0.049832,0.007813,-0.006306,-0.065283,-0.020787,0.054247,-0.049287,0.082733,0.030132,0.030899,0.037368,0.077097,-0.047012,-0.061074,0.080014,-0.101484,-0.022853,-0.038070,0.007766,0.113300,-0.149948,0.006117
0.057096,-0.030833,0.085862,0.082938,0.073716,0.114581,-0.131976,-0.100210,0.105989,0.018999,0.046376,-0.013062,-0.023539,0.027320,-0.051392,0.054950,-0.020358,-0.025349,0.012567,0.012628,0.058014,0.042045,0.047724,0.157680,0.194417,-0.170094,-0.031551,-0.128743,0.048920,0.024492,0.083422,-0.002537,0.104076,-0.005892,0.036811,0.011044,0.063484,0.012367,-0.088159,-0.018935,-0.019214,-0.025755,0.082888,-0.000697,0.064843,-0.205717,0.009209,0.005206,-0.007307,0.017875,-0.098574,0.019679,0.034778,0.087536,0.079931,0.091134,-0.089429,-0.006389,-0.024360,-0.004066,-0.009224,-0.044052,0.019099,-0.013607,0.016556,0.025290,-0.152342,-0.114314,-0.065149,0.015902,0.016415,-0.024029,0.086683,0.164375,0.003252,0.097958,0.060137,0.011842,-0.132999,-0.086954,-0.029156,0.027960,0.038197,0.103872,-0.090468,-0.053467,0.063165,0.117184,-0.090111,-0.084138,0.064050,-0.078541,-0.019271,0.017299,0.061870,-0.015040,0.002910,-0.004145,0.073549,-0.049857,-0.006672,-0.033788,0.049830,0.054720,-0.059265,0.104557,0.000255,-0.046253,-0.050341,-0.062884,-0.020784,0.105718,-0.135010,-0.106378,0.110316,-0.054127,0.144506,0.007277,-0.026237,0.065305,0.000862,0.033296,0.107776,0.122262,-0.003522,-0.061213,-0.068953,0.080561,-0.116459,0.084869,0.044078,-0.100596,0.054952,-0.068970,0.043023,0.001983,0.007032,0.002062,-0.070469,0.020717,-0.081880,0.005791,0.003921,0.052933,0.075980,0.016534,-0.049907,0.082558,-0.046797,0.029913,-0.087112,0.102819,-0.015944,0.046866,-0.030361,-0.047285,0.072071,0.081040,0.064667,0.016785,-0.114544,-0.000103,-0.016376,0.005360,0.037942,0.029123,-0.001076,0.098570,0.105328,-0.035407,0.034145,0.116504,0.080940,0.037809,0.018146,0.022816,-0.028934,-0.074739,-0.060129,0.142906,0.079573,0.073016,-0.047976,-0.031601,0.006268,-0.056780,-0.047263,0.091774,0.035307,0.055721,-0.037569,-0.111616,-0.048897,-0.146176,-0.029581,0.106955,0.032274,-0.033897,0.046859,0.011947,0.024451,-0.015946,-0.049678,0.066480,-0.072840,-0.089509,-0.017078,0.016324,-0.044172,0.018323,-0.020929,-0.006348,-0.038084,-0.088626,0.084123,-0.024190,-0.040570,0.039518,0.027360,0.138871,-0.111278,0.069793,0.095067,0.028342,0.035675,0.018431,0.005282,0.138357,-0.025508,-0.035440,-0.004623,0.051822,0.001939,-0.100498,-0.026919,-0.000467,-0.001011,0.053722,0.106485,0.021184,0.078882,0.005349,0.065364,0.013067,0.102468,-0.048518,-0.016581,-0.062763,-0.017583,-0.001561,0.087054,0.047202,-0.085244,0.079771,0.048149,0.069876,-0.015686,-0.077464,0.001412,0.088381,-0.043295,-0.099843,0.013051,-0.007178,0.073920,-0.079283,0.113940,-0.022888,0.096398,0.010806,0.005094,0.038749,-0.086432,0.096449,0.021986,0.041538,-0.013372,-0.043565,-0.034125,0.014323,0.146542,-0.030050,-0.042360,0.099629,0.018927,-0.046742,-0.032883,0.119386,0.030883,0.091200,0.030522,0.052235,-0.095184,0.013100,0.024629,-0.011337,-0.082348,-0.018705,-0.057339,0.094548,-0.064972,-0.100280,0.003828,0.042977,0.004569,-0.072020,0.013440,0.016362,-0.044384,-0.020980,-0.062884,-0.039773,0.103329,0.146408,0.064796,-0.045010,-0.024891,0.089336,0.017238,-0.014080,-0.024288,0.000176,0.167084,-0.031711,-0.010202,0.017857,0.179947,0.066595,-0.026793,0.025946,-0.000554,0.085753,-0.101653,0.001198,0.106180,0.006967,0.045281,0.038780,-0.068827,-0.048475,0.040776,0.067580,0.051720,-0.075052,-0.043068,0.070501,0.034940,-0.000270,0.043235,-0.023098,0.029923,0.106156,-0.016594,-0.003563,0.140932,0.053136,0.018984,-0.052269,-0.030490,-0.088637,-0.010841,0.152336,0.049120,0.033376,0.085474,0.007913,0.017061,0.007555,-0.049314,-0.041607,0.009103,0.029292,-0.073588,-0.138916,-0.096073,0.053106,-0.108086,-0.098820,-0.092829,0.013358,0.074576,-0.015597,0.022252,0.081012
0.025932,-0.062854,-0.027802,0.035580,0.009451,0.024796,0.067339,0.033134,0.119254,0.100047,0.062143,0.073126,0.022360,-0.027053,0.003475,0.008827,-0.043462,-0.010094,0.126214,-0.018001,0.041636,-0.061163,0.020918,0.058540,-0.027129,0.094469,0.038069,0.068494,0.100102,0.076930,-0.064135,-0.002175,-0.093848,0.019257,0.064015,-0.053825,-0.034782,0.285021,-0.030004,0.158915,0.144931,0.038222,0.048474,0.041970,-0.113884,0.163597,-0.032265,0.080910,0.073373,-0.044508,-0.016306,-0.111016,-0.073718,-0.069442,-0.039753,-0.050183,0.023932,-0.051337,0.090365,-0.048450,-0.003821,0.098685,-0.088700,0.004519,0.027458,-0.060129,-0.079621,0.056564,-0.059353,-0.035106,-0.015724,0.004477,0.011282,0.003063,-0.053397,0.103690,-0.070856,-0.003266,0.085083,-0.038131,0.008034,0.050570,0.016715,-0.045067,-0.066213,-0.039978,0.025499,-0.057759,-0.009578,0.048125,0.069976,-0.016091,0.152568,-0.000218,0.014776,0.111313,0.023184,0.086162,-0.058393,-0.015382,-0.051379,0.021666,0.062331,-0.055576,0.038499,0.019584,-0.016362,0.202417,0.107530,0.007237,0.080451,-0.048179,0.206115,-0.004631,0.206298,0.049868,0.160764,0.014344,0.086170,-0.023286,0.037771,-0.030206,0.003780,-0.095296,0.052942,-0.032709,-0.014360,0.061686,0.026124,0.100143,-0.092529,0.004224,0.009855,-0.063427,0.079332,-0.103884,0.001490,-0.064142,0.090289,0.008047,-0.029812,-0.046042,0.090665,0.152176,0.036002,-0.079736,-0.018023,0.019424,-0.102192,0.049758,-0.076529,-0.032247,0.061503,-0.026484,0.117566,-0.042045,0.024077,0.114120,0.032148,-0.149496,-0.011356,-0.115246,0.036150,0.022172,-0.034035,-0.079074,-0.088377,0.043616,0.000390,-0.086574,-0.064295,0.065025,0.019446,0.069168,-0.039846,0.032077,0.057191,-0.047208,-0.079915,-0.031185,0.088334,-0.038864,0.060128,-0.081015,-0.049223,-0.054372,0.132767,-0.072869,-0.011161,-0.029803,-0.057851,-0.017638,-0.022524,-0.159160,-0.026363,0.028521,-0.011778,0.036959,-0.071969,0.071489,0.055045,0.023668,0.026521,0.086024,-0.111010,-0.056197,0.005646,0.016598,-0.095666,-0.030089,-0.098852,-0.011734,0.041276,-0.085446,0.015835,-0.078679,0.023250,0.077883,-0.069710,-0.025107,-0.038076,-0.026914,0.128434,-0.019360,-0.033141,0.058597,0.036905,0.014543,-0.029882,-0.028760,-0.064960,-0.024329,-0.082971,-0.053489,-0.011691,-0.185565,0.075908,-0.088271,0.007829,0.038362,0.045460,-0.090304,-0.002779,-0.057535,0.010860,-0.072897,0.176964,0.093570,-0.055752,0.043042,-0.093635,0.091801,-0.104649,0.042436,-0.008795,0.087896,0.132402,-0.072897,-0.030592,-0.104177,0.039216,-0.056371,0.033985,-0.014167,0.038101,0.010237,-0.146598,-0.016936,0.089409,-0.089915,0.009188,0.097325,0.048460,0.064200,0.027191,-0.022308,-0.076799,0.110870,0.129403,-0.020540,0.052678,-0.022280,0.042365,0.193501,0.015696,-0.091092,-0.046662,-0.042214,-0.049605,-0.024621,0.076994,-0.039653,-0.016437,0.036281,-0.055271,-0.084849,-0.072294,0.047886,-0.005440,-0.058187,-0.002155,0.044817,0.127130,-0.106332,-0.044135,0.018076,-0.104275,-0.127271,-0.130050,-0.132463,0.038815,0.027317,-0.085056,-0.047104,-0.022772,0.115053,-0.115703,0.054816,-0.086560,0.011792,0.009745,-0.046435,0.056264,0.104451,0.032679,-0.051114,-0.071714,0.123150,-0.059424,0.060634,-0.001205,0.005358,0.031890,0.005251,0.023889,0.004139,0.075882,-0.036298,-0.026845,-0.023622,-0.035441,0.137767,0.043982,0.081017,0.020978,-0.006482,0.159487,-0.040899,0.056842,-0.057327,-0.119181,0.009071,-0.072325,-0.012708,-0.076526,0.018959,0.012417,-0.038912,0.003598,-0.073539,-0.027077,-0.078183,-0.064831,-0.085710,0.140969,-0.015684,0.012661,-0.062306,-0.015460,-0.063092,-0.088132,0.082948,0.046207,-0.041537,0.047725,-0.102392,-0.041453,-0.051241,0.036642,0.084845,-0.053714,-0.115259,0.040461,0.018759
-0.061461,-0.133159,-0.014570,0.000654,-0.065966,-0.100957,-0.097438,0.066048,0.017188,0.162433,-0.030177,-0.054788,-0.003333,-0.016515,-0.001892,-0.101410,-0.006277,0.005657,-0.056296,-0.068985,-0.127183,-0.026127,0.027883,0.023220,0.040663,0.096404,-0.044524,0.102993,0.075316,-0.002819,-0.045640,0.061970,-0.028944,-0.014491,-0.010255,0.109821,-0.039513,-0.072008,-0.076375,-0.171800,-0.019980,-0.135896,-0.064476,0.045725,-0.049673,-0.063252,-0.039479,-0.037274,-0.008009,-0.091790,0.050889,-0.053487,-0.068672,0.062041,-0.015488,-0.053689,0.079585,0.062916,-0.076007,0.051495,0.127874,-0.038944,0.033652,-0.082724,-0.133473,-0.086935,0.042645,0.087625,-0.017607,0.015906,-0.107455,0.159131,-0.055595,-0.023919,-0.078191,-0.006739,0.014633,0.078894,-0.045948,0.044294,0.029683,0.166872,-0.055351,0.025979,0.092808,-0.059437,0.002111,0.056207,-0.035589,0.141317,-0.026175,0.031631,-0.046331,-0.048963,0.009278,-0.096474,-0.006446,-0.013148,0.070860,-0.072299,0.046770,-0.099664,0.007891,0.076962,-0.080682,0.106438,0.038939,0.039145,-0.023303,0.004868,-0.081005,-0.070998,0.074160,-0.062927,0.057712,-0.177942,-0.057378,0.018413,-0.017547,-0.033953,-0.013037,0.022412,0.083904,0.107233,-0.111826,-0.015984,0.047831,0.028081,-0.084099,-0.142666,0.044205,-0.046330,0.011246,-0.153703,0.021896,0.002379,-0.038036,0.027852,0.030032,-0.009327,0.090348,0.081709,0.008532,-0.057176,-0.033101,-0.014470,-0.046410,0.025020,-0.017864,-0.083951,-0.082616,0.018891,-0.005917,0.003792,0.005250,0.166679,-0.061053,0.094306,-0.051082,-0.067284,-0.083331,-0.079494,-0.141126,-0.026495,-0.098913,-0.045313,-0.039828,-0.035681,0.190008,-0.012292,-0.023568,-0.024394,-0.051844,0.018451,0.055735,-0.073551,-0.037925,-0.091215,0.037127,0.006432,-0.065339,0.004494,0.081089,0.038257,-0.077005,0.099960,0.061664,-0.002644,0.112469,0.024651,0.059232,0.047269,0.019535,0.137816,0.008175,-0.097595,0.015858,-0.066077,-0.026293,-0.125580,0.034656,-0.012878,0.059324,-0.099081,-0.107622,-0.040446,0.017556,-0.018286,0.005985,0.036794,-0.037877,-0.003762,-0.054659,-0.158947,-0.043601,-0.068320,0.007990,0.010037,-0.087149,-0.046804,-0.095719,0.002562,0.002223,0.050962,-0.119462,0.002954,0.080151,0.021429,-0.090028,0.066613,-0.004200,-0.073859,-0.004346,0.093038,-0.132752,0.081630,0.029886,0.081647,-0.040455,0.252484,-0.043113,0.080862,0.102023,-0.082535,-0.111727,0.034689,0.067235,0.054875,0.095835,-0.114963,-0.026239,0.082855,-0.053333,-0.029596,-0.063391,-0.122311,-0.098458,0.037318,-0.133974,-0.038385,0.025966,0.014393,-0.010885,-0.078172,0.065368,-0.005214,-0.011531,-0.047017,0.134925,0.059199,-0.051451,-0.036266,-0.071843,0.012818,0.038564,0.085414,0.020397,-0.159396,0.106594,-0.048120,0.011004,0.001956,-0.165314,0.118049,-0.101090,-0.033189,-0.000650,-0.084673,-0.052245,0.023560,-0.116264,-0.066305,-0.068180,0.096227,-0.079142,-0.032888,0.050107,0.010772,0.025425,0.110201,0.029061,-0.010071,-0.138134,0.010393,0.049558,-0.023096,0.020078,-0.014096,0.159540,-0.065490,0.030620,-0.131385,-0.002524,0.035359,0.116060,0.136060,-0.122456,-0.066936,0.062672,-0.069392,-0.201804,0.068037,-0.018720,-0.013207,0.021496,0.013231,0.056311,-0.011735,0.048468,0.027562,0.046390,0.057883,-0.024138,-0.088308,-0.031101,0.028277,0.053367,0.008940,-0.103289,0.092281,0.068220,-0.085451,0.020411,0.043906,-0.111612,-0.036745,0.034971,0.044973,0.111114,0.031170,0.000940,0.097720,-0.031063,0.068703,-0.046360,0.076742,-0.053480,-0.032773,-0.093872,0.105056,0.089936,-0.042359,-0.127930,-0.023645,-0.004870,0.043896,-0.038692,-0.056705,-0.225952,-0.101229,-0.006816,-0.047572,-0.017587,0.030702,-0.084528,0.007632,-0.072704,-0.130140,0.074556,-0.015192,-0.001804,0.000300,0.000198,-0.030460
-0.142183,-0.017640,-0.049980,-0.024439,0.046134,-0.013032,0.038967,-0.056766,-0.051026,-0.076995,-0.082580,0.024914,-0.075264,-0.066008,-0.038741,-0.022261,0.038100,-0.000259,-0.034989,-0.013283,0.049748,0.056615,0.005130,0.095634,-0.028665,0.021261,-0.010169,-0.104278,0.091043,-0.196645,0.040383,-0.024153,0.029266,-0.016637,0.043233,-0.003671,0.075612,0.025277,0.086260,0.005233,-0.026814,0.065851,0.005356,-0.013332,-0.036003,0.073407,0.062414,0.037983,0.100034,-0.131979,0.100575,-0.017164,-0.000188,0.120139,-0.021950,-0.019082,0.027453,0.009300,0.025732,-0.016475,0.044106,0.043405,0.032855,0.017633,0.043235,-0.051670,-0.079828,-0.042313,-0.077911,0.020146,-0.072730,-0.059367,0.053405,0.002785,0.037969,-0.078873,0.137204,-0.066962,0.087555,0.044126,-0.030464,-0.021291,0.090715,-0.042990,-0.048907,-0.002829,0.108996,0.028881,0.159644,0.078974,0.084380,0.000716,0.027451,-0.045462,-0.092316,-0.056404,0.051180,-0.041793,-0.084552,0.028724,0.090647,-0.043436,0.025894,0.119980,-0.102104,0.023078,-0.062236,0.048644,-0.053435,-0.010188,0.061212,-0.010547,0.002322,-0.045712,-0.052771,-0.112092,-0.027488,0.005579,0.115983,0.017792,-0.050874,0.029630,0.070309,0.039919,-0.063932,0.062857,0.112112,-0.144188,0.045997,0.003744,0.019228,-0.001889,0.082467,-0.020525,-0.054328,-0.059773,0.045848,-0.006365,-0.008010,0.019522,-0.077741,-0.015832,0.020706,-0.113361,0.164997,-0.014960,-0.011508,0.052018,-0.033149,0.074974,0.062777,0.057052,-0.022272,-0.021131,0.058961,0.037285,0.090822,-0.172677,0.127758,-0.133514,0.051035,-0.065464,-0.058094,-0.021292,0.022877,0.029012,-0.040994,-0.012876,0.079474,-0.098063,-0.126399,0.079455,0.050111,-0.067435,-0.153572,0.063092,0.014783,0.020734,0.163861,0.067862,0.030833,0.004480,0.073861,0.063417,0.013203,0.019418,0.017160,0.050188,0.042881,0.092103,0.023282,-0.001076,-0.006069,0.005412,0.116751,0.033037,0.030918,-0.010705,0.078853,0.017399,0.008549,-0.023843,0.044315,-0.017831,-0.037516,-0.042988,0.037888,0.073054,0.027340,-0.010361,-0.033299,-0.042871,0.015094,0.052043,0.038975,-0.025778,-0.076762,-0.014315,0.072287,-0.061898,-0.080770,0.005716,0.044249,0.057801,-0.090397,-0.048598,0.037746,0.091165,0.041421,-0.006943,-0.011810,0.020578,0.047030,-0.033790,0.098140,0.080190,-0.097847,0.004614,-0.014076,0.009327,-0.039543,-0.053958,-0.019370,0.021946,0.050345,-0.053987,-0.027437,-0.096050,-0.042995,-0.128102,0.032173,-0.102565,-0.034989,-0.038771,0.032808,-0.017837,0.007478,0.015757,0.004277,0.020220,-0.027811,-0.058344,-0.065415,0.027514,0.005229,0.026304,0.036534,-0.113065,-0.077054,0.029310,0.067185,0.050453,0.026989,0.170279,-0.082323,0.004771,-0.049303,-0.087636,-0.078447,0.047500,-0.146318,0.011892,0.092786,-0.019844,-0.026515,-0.047257,-0.137479,-0.069097,0.006669,0.099023,0.059552,-0.024170,-0.107689,0.038366,0.070624,0.085642,0.033721,0.046611,-0.006394,-0.073041,0.072514,-0.003738,0.060697,0.015698,-0.138826,0.032953,-0.046007,-0.059074,-0.071846,-0.019654,-0.140211,-0.068406,-0.059106,-0.004843,0.038658,-0.003385,-0.085527,-0.024633,-0.079757,0.007233,-0.048931,-0.056608,0.015343,-0.126009,-0.119814,0.014262,-0.038857,0.064308,0.041799,-0.013487,-0.050158,-0.070874,0.053298,0.016909,0.027438,-0.016889,0.057684,0.045878,-0.035180,0.029169,0.132912,0.028782,-0.102029,0.004308,-0.013024,0.005225,0.121672,0.021008,-0.047556,-0.036861,0.082136,0.103688,-0.090368,-0.024110,-0.032894,0.057385,0.005930,-0.023396,0.016633,-0.048697,-0.019821,-0.018436,0.042686,-0.007128,-0.005063,-0.069683,-0.167176,-0.076764,-0.030241,0.045539,-0.010190,0.093977,0.010922,0.007596,0.071570,-0.038909,0.033233,-0.042471,0.025618,0.009985,0.025028,0.030260,-0.001350,0.000399
0.049887,0.079238,-0.029175,-0.128965,0.031178,0.125901,0.057423,0.081922,-0.057302,-0.032759,-0.147768,-0.034400,0.057647,0.090876,0.018919,-0.039450,0.122440,0.037860,0.011478,0.005022,-0.048470,-0.069628,0.064408,-0.029777,-0.061182,0.057471,0.006905,-0.010778,0.096999,0.044838,-0.071308,0.033974,-0.065398,-0.107090,-0.019832,0.170352,-0.159428,-0.063165,-0.059891,0.066412,-0.006356,-0.037092,0.030135,0.031745,0.118732,-0.071239,0.083475,0.033848,-0.072275,0.035487,0.027620,-0.046514,-0.018197,0.010790,-0.055178,0.021214,0.052040,-0.075677,0.031507,-0.058884,0.036025,0.132662,-0.023666,-0.125099,0.088527,0.022150,-0.059908,0.075285,0.022430,0.020175,0.001410,-0.026758,-0.031109,-0.015281,0.011766,0.098327,0.036132,-0.255764,-0.073423,0.010583,0.032182,-0.052865,0.048390,0.117020,0.058849,-0.047742,0.051838,0.014915,-0.026031,-0.121740,0.031365,0.058208,-0.039683,-0.031457,-0.005851,-0.090103,-0.070915,0.016991,0.211936,0.000048,-0.033892,0.021254,-0.001188,0.066939,0.042424,0.069135,-0.016545,-0.130420,0.158774,-0.074109,0.001785,-0.034866,-0.036506,0.050833,0.017022,-0.005904,0.052108,-0.004824,-0.005342,-0.066250,-0.049406,-0.088720,0.038538,-0.058858,-0.079724,0.073286,-0.051133,-0.077994,0.026911,0.064474,-0.031764,-0.052597,-0.082873,-0.048707,-0.075120,0.052135,-0.033729,0.014924,0.048793,-0.106597,-0.043929,0.180803,0.286916,-0.125262,0.096566,0.014073,-0.029753,-0.055201,-0.162649,-0.238152,-0.118043,-0.082285,0.019206,0.156405,0.008610,-0.024575,0.039146,-0.104127,0.108673,-0.009033,-0.014056,-0.149774,0.024342,0.188923,-0.002097,0.041392,0.008512,-0.055462,-0.107328,0.139612,-0.039706,-0.095052,-0.060859,-0.041697,0.031415,0.029294,-0.044453,0.063736,0.010640,0.005836,-0.064640,-0.026572,-0.049214,0.146567,-0.058660,-0.032350,0.061561,-0.034925,0.028846,-0.088487,0.009291,-0.015981,0.034753,-0.032895,0.019353,-0.094465,0.064443,-0.051278,0.076051,0.057479,0.077233,-0.121721,0.139161,-0.051034,0.017299,0.011996,0.000717,-0.008556,0.038930,0.006778,0.024117,-0.183157,-0.059345,0.024373,-0.057476,0.061891,0.002054,0.015893,0.035778,-0.033978,0.035763,-0.195891,0.171195,-0.083084,0.025234,-0.113610,-0.083469,-0.008057,0.072530,-0.123887,-0.054489,0.030660,-0.007055,-0.051083,-0.034819,-0.103438,-0.005229,0.064240,0.023539,-0.073437,0.107974,-0.055135,-0.077442,0.011110,-0.011098,-0.196559,-0.002066,-0.044888,-0.041971,0.013265,0.089744,-0.143301,-0.056431,-0.020534,0.017317,0.199686,-0.036040,-0.007685,0.038626,-0.010924,0.099355,0.080869,0.021112,0.088070,-0.034891,0.062230,0.022798,-0.128581,-0.110061,0.019900,-0.021558,0.101060,0.024235,-0.018869,-0.023659,0.073955,0.069613,0.026001,0.030704,-0.074942,0.070541,-0.021221,0.090111,-0.009538,0.009684,0.138372,0.071205,-0.072158,-0.006541,-0.085894,-0.009446,-0.011337,0.064103,-0.100050,0.044529,-0.068127,0.216855,0.043656,-0.010589,0.067103,-0.015588,0.026345,-0.023578,0.070363,0.047515,-0.097970,0.166717,-0.070390,-0.094779,0.018746,-0.012057,-0.037945,-0.031979,0.025325,0.060872,0.046150,0.062609,-0.044960,0.040270,0.072780,0.037924,-0.042016,0.084866,-0.013651,-0.024568,-0.045638,0.048501,0.067537,-0.010954,-0.244914,-0.103736,-0.014020,-0.050975,0.044840,0.059303,-0.001329,0.032789,0.031183,0.115643,0.034205,0.142776,0.018784,-0.011471,0.143332,0.080423,-0.004179,-0.031940,-0.033853,0.094328,0.127594,-0.106085,0.183153,-0.006372,0.102278,-0.049649,0.057791,0.256784,-0.062828,0.065078,-0.046392,-0.020182,-0.024749,0.001006,0.021295,-0.016379,-0.071832,-0.068448,0.088409,-0.004004,-0.037972,0.071615,0.020046,-0.050624,-0.228815,-0.108091,-0.014416,-0.059201,0.102486,0.073170,-0.017040,-0.003128,0.001119,0.035530,-0.092556
-0.025619,0.046494,0.019625,-0.003398,0.004563,0.026069,0.015320,0.056131,-0.093977,-0.115092,0.088770,-0.072763,-0.004316,-0.088190,0.063045,-0.034465,-0.037412,-0.076316,-0.163172,0.014890,0.067144,-0.033113,0.028275,0.002973,-0.009705,-0.045535,-0.028810,0.009699,0.046545,0.057874,-0.019920,0.172219,-0.043151,-0.041750,0.018390,-0.037581,-0.016642,0.042276,-0.074032,-0.028530,-0.013013,-0.033076,0.049064,0.010375,0.028152,-0.010900,-0.091290,0.038158,0.044718,-0.023026,-0.072163,0.002160,-0.026832,-0.008245,-0.054648,0.039296,-0.043287,-0.013040,0.138761,0.018745,-0.066228,0.073233,-0.032770,0.010969,-0.047305,-0.053993,0.002172,0.080355,0.045308,0.012058,0.026980,-0.054459,-0.049603,-0.075902,-0.015972,0.118175,0.031135,0.079167,0.037130,-0.065470,-0.007769,0.196950,-0.001067,-0.145271,-0.016116,0.029933,0.020510,-0.032889,0.144575,0.057318,0.069132,0.000582,0.098060,0.012739,-0.051995,-0.094513,-0.027080,0.031364,-0.030426,0.072082,-0.077453,0.083841,0.065266,-0.051157,-0.017452,0.018866,-0.045559,-0.002935,0.049360,-0.018299,0.007897,-0.066675,0.024938,0.026364,0.100208,-0.041455,-0.059876,0.030237,-0.006130,0.127061,0.053264,0.098707,0.066583,0.106575,-0.003316,-0.038054,-0.053759,0.122165,0.027726,0.093942,0.103736,-0.076362,-0.040879,-0.003261,0.035115,0.145664,-0.081033,0.028882,0.032668,0.048090,0.065714,-0.075368,0.029682,0.002336,-0.048379,0.051557,-0.013828,-0.053712,-0.057727,-0.040574,-0.010187,0.047599,-0.063181,0.028407,0.021191,0.080673,0.057618,0.050251,0.083328,-0.049188,0.013815,0.020418,-0.001217,0.037455,-0.025900,0.013012,0.045247,-0.120187,0.156916,0.109146,0.074369,-0.098558,-0.039586,-0.000959,-0.033745,0.011785,-0.032289,0.097791,-0.048555,-0.102614,0.019820,0.045482,0.056661,-0.166142,0.005958,0.124599,0.087430,0.022737,-0.027760,-0.005695,-0.050372,-0.075618,0.041096,-0.014057,0.094060,-0.057444,0.021792,-0.052064,0.105430,0.024584,-0.041722,-0.042599,0.083503,-0.075196,-0.007402,-0.022476,0.026031,-0.017363,-0.045871,-0.011250,-0.058518,-0.012315,0.066080,0.009030,0.015943,0.104225,-0.119250,0.036318,0.093841,0.096616,0.037219,-0.018362,-0.047683,-0.036373,0.080452,-0.009969,0.063243,0.021365,-0.006999,-0.015699,0.110777,-0.063721,-0.057896,0.073268,0.032002,0.206741,0.103988,0.020060,0.047208,0.157526,0.092864,-0.000438,-0.012499,-0.018861,-0.030946,-0.107643,-0.015796,-0.010194,-0.017307,-0.017049,0.020859,0.010317,-0.077294,0.035611,0.024095,-0.032424,0.101823,-0.041514,-0.018168,0.017090,0.058207,0.061375,-0.011781,-0.097217,-0.035450,-0.085032,-0.043094,-0.064787,0.130588,0.049464,0.079659,0.019527,-0.022511,0.060077,0.019295,0.030724,-0.087295,-0.046528,0.049242,-0.030564,0.070659,0.070560,0.152210,0.130186,0.040659,0.036803,-0.033516,-0.013383,0.132769,-0.019585,0.003763,-0.114226,0.046491,-0.001727,0.126963,0.004006,-0.044766,-0.030401,0.030671,-0.063896,0.023772,-0.014875,0.094289,0.003941,-0.128202,-0.010415,-0.012458,-0.021294,0.042145,0.092071,-0.090590,-0.084032,0.014108,-0.094649,-0.056338,0.024417,0.001799,0.033771,0.064733,0.056849,0.050961,0.121910,-0.006342,-0.007328,0.021077,-0.008021,-0.083863,0.085278,-0.091707,0.006544,-0.179174,-0.056675,-0.018640,-0.055082,0.005832,0.062652,0.132194,-0.005817,0.008700,-0.020434,-0.088943,-0.071316,0.019737,0.032508,0.027791,0.009195,0.068235,0.054528,0.076921,0.000610,0.035980,-0.206248,-0.014179,-0.120341,-0.242456,-0.166433,-0.034041,0.011392,0.045863,0.026867,0.033700,0.009199,-0.121129,0.039020,0.092448,0.024501,-0.110865,-0.085165,-0.148870,-0.032726,0.081920,0.048616,-0.097223,-0.001073,0.098360,0.001640,-0.077885,0.023750,-0.010643,-0.060750,0.142554,0.109212,0.106531,0.079607
0.086603,0.043899,-0.072379,-0.116626,0.014719,-0.012338,-0.082540,0.003018,-0.084486,-0.046192,0.043725,-0.021133,0.100206,-0.160332,-0.115701,-0.000839,-0.036194,-0.044623,-0.020097,-0.093930,-0.107385,0.041826,0.007009,-0.042207,-0.043678,-0.190472,0.000622,0.062872,0.052591,-0.009652,0.064759,0.076706,-0.010488,-0.000761,-0.069188,0.093148,0.076966,0.024901,-0.007017,0.142856,0.051059,-0.120229,-0.073986,0.063759,0.072177,-0.013492,-0.034078,0.160682,-0.047565,0.072451,0.054213,-0.037441,-0.086224,0.130249,-0.033321,-0.037970,-0.059423,-0.062296,0.034523,0.042415,0.127046,0.061095,-0.019158,0.133081,0.105362,0.069838,-0.054527,-0.029116,-0.026033,0.013099,-0.015541,-0.001184,-0.001104,0.105543,-0.016919,0.059449,-0.051574,0.036190,-0.029133,0.054044,-0.070343,0.023159,-0.057959,-0.063009,-0.054585,0.059446,0.058138,-0.030072,0.150827,-0.007675,-0.033616,0.018315,0.042607,-0.079341,-0.167838,0.021313,-0.147395,0.013391,-0.008119,-0.099881,0.064618,-0.050585,0.009028,0.065535,0.054753,0.018235,0.007646,-0.109226,0.124264,0.041618,-0.053305,0.014433,-0.210503,-0.010613,-0.081283,-0.044314,-0.089878,0.017053,0.062697,-0.098503,-0.072796,0.015521,0.101461,0.123279,0.039886,-0.033504,0.031029,-0.066980,0.033043,0.079106,-0.194449,-0.046545,0.070000,0.032457,0.024581,0.083657,0.061307,0.027110,-0.122515,-0.078812,0.031520,0.104388,-0.055755,-0.002264,-0.110241,0.030146,0.034129,0.029448,-0.034431,-0.030138,0.101924,-0.043038,0.050104,0.010103,-0.053512,-0.131259,-0.130446,-0.048855,0.001700,0.013776,-0.009622,0.010001,0.018794,-0.058357,-0.056896,-0.078669,-0.062206,-0.131647,0.027542,-0.122106,0.013759,-0.012927,-0.101307,-0.025992,-0.081038,0.051408,0.009903,0.044212,0.002164,-0.002593,-0.080839,-0.084261,0.053279,-0.021869,0.076885,-0.064809,0.014642,-0.020127,0.103399,0.095114,-0.052677,-0.027398,0.060939,0.010581,0.004229,0.059406,0.037640,-0.031689,0.086677,-0.097667,-0.088957,-0.060187,0.012869,-0.096644,-0.041192,0.117939,-0.121315,0.005671,0.021111,-0.031353,0.063374,-0.118930,-0.067593,0.022506,-0.003292,-0.081117,-0.011064,0.069758,0.081114,-0.003793,-0.086269,0.033970,-0.096706,0.027542,-0.111785,-0.098812,0.042304,-0.037583,0.043530,0.028297,-0.001808,-0.000216,0.118547,-0.071792,0.140040,-0.099039,0.021536,0.072738,0.098627,0.089958,0.059619,0.037057,-0.001690,-0.031389,0.058178,-0.052972,0.157276,0.008544,-0.013882,0.045818,-0.072252,-0.039109,0.176714,-0.049221,0.053530,0.003797,-0.101271,0.029801,0.136305,0.013003,0.076576,-0.020492,-0.025090,0.009059,-0.053005,-0.002308,0.040091,0.069834,-0.006927,-0.036176,-0.051030,0.037685,0.059930,-0.019441,-0.014106,0.072572,-0.007269,0.021512,0.082436,0.111348,-0.019373,0.144164,-0.035703,-0.057785,-0.149697,-0.005399,0.007629,0.037520,-0.010995,-0.051189,-0.010425,-0.014494,-0.002806,-0.032487,0.018091,0.037846,-0.014272,-0.020034,-0.003146,0.021241,-0.071178,-0.027740,0.047150,-0.116920,-0.053970,0.078668,0.049819,0.004246,-0.081004,0.013755,0.055810,0.040126,0.007567,0.117059,0.125250,0.054988,0.095993,-0.078340,0.061561,-0.032747,-0.056795,0.078254,0.121387,-0.036772,0.145929,0.017410,0.031836,0.172176,-0.096606,0.052052,-0.005626,-0.008609,0.068536,0.134060,-0.047795,0.065044,0.036177,0.002941,-0.058974,-0.026503,0.055174,0.026867,-0.038701,-0.057201,-0.040044,0.036289,0.007924,-0.045293,0.100701,-0.030961,-0.084244,0.026286,-0.027670,0.046386,-0.114171,0.072051,-0.114175,0.096300,0.007250,0.022660,-0.133000,-0.046416,0.069631,-0.071789,-0.048313,0.016983,-0.000237,-0.020420,0.013301,0.069951,-0.206676,0.029108,-0.088736,0.020930,-0.030617,-0.066174,-0.003908,-0.002511,-0.036893,-0.023700,-0.006944,-0.039930,0.000119,-0.028549
-0.070553,-0.075856,0.106639,-0.029224,-0.105889,0.124859,0.056878,0.017167,0.031634,0.087808,-0.050997,0.001337,-0.047408,0.131432,0.066302,-0.030786,0.020610,-0.040979,0.145338,0.056621,0.043222,0.055801,0.010753,0.042940,0.004335,0.002800,-0.068224,-0.069449,-0.076610,0.038925,-0.052472,0.030551,0.146150,0.024228,-0.120555,-0.055237,0.144768,0.064788,0.105639,0.055421,0.054653,0.034676,-0.074756,-0.010065,-0.000072,0.146158,-0.042696,0.003768,0.064746,0.079729,-0.041876,0.140528,-0.015340,0.141619,-0.074701,-0.040639,0.046407,-0.059061,-0.116458,-0.018542,0.079743,0.038794,0.012445,-0.052001,-0.048943,0.087939,0.029364,0.139087,-0.090294,0.013782,0.055670,-0.040831,-0.038977,0.013253,-0.025992,0.004576,0.024510,-0.022251,0.052338,-0.161051,-0.079659,-0.024167,-0.032105,0.118163,0.035183,0.034518,-0.015452,0.016770,-0.059243,-0.013169,-0.028930,0.126398,-0.060597,-0.015309,0.028408,0.066301,0.070091,-0.118537,-0.087461,0.006350,-0.009027,0.015473,-0.003751,-0.002216,-0.018782,0.072202,-0.027289,-0.225708,0.045828,0.079573,-0.023478,0.086259,-0.004393,0.027732,-0.098952,0.054237,-0.046299,-0.008703,-0.001302,0.051782,-0.015201,-0.054670,0.066464,0.082415,0.046211,-0.139113,-0.039614,-0.020898,0.019320,-0.042018,-0.022584,-0.122934,-0.002734,-0.023484,0.001487,-0.052022,-0.028507,0.003365,-0.009888,0.014774,-0.048729,0.031645,-0.118179,0.021827,-0.044113,-0.076215,0.039008,0.048921,-0.033427,0.039568,0.013431,-0.100362,-0.051750,-0.019334,0.008359,-0.011293,0.072048,-0.097222,0.063222,-0.023818,-0.088964,-0.082798,-0.040591,-0.034633,0.029015,-0.058322,-0.053049,0.032296,-0.008687,0.015649,-0.093313,0.042943,0.095396,0.025859,-0.075267,0.042977,-0.005249,-0.010992,-0.057925,0.034468,0.041210,-0.099659,0.093309,0.038132,0.059997,-0.121608,0.032427,-0.042941,-0.014552,0.049742,0.071008,-0.091971,-0.073101,-0.029498,-0.068147,0.034340,-0.063641,0.133101,0.195754,0.102185,0.059639,0.127490,-0.118915,0.088809,-0.043548,0.105823,0.066227,-0.081344,-0.002950,0.062266,-0.106762,0.027524,0.085809,0.014202,0.011607,-0.131625,0.040128,0.087917,-0.034837,-0.024332,0.184947,0.009250,0.028928,0.021570,0.015236,0.048325,-0.052576,0.059856,0.035021,-0.066449,0.075197,-0.039320,-0.042045,0.053554,-0.041111,0.007547,-0.031465,0.049699,0.042090,-0.017831,-0.009506,0.081840,0.026943,-0.042166,0.065882,-0.004272,-0.069603,0.015404,-0.016973,0.089462,-0.056704,0.137830,-0.014794,-0.117300,0.074145,-0.084865,-0.075024,-0.047082,-0.035152,0.098352,-0.049871,0.010412,-0.071216,-0.060418,0.028407,0.009366,-0.015188,-0.077456,0.116378,0.044484,0.041888,0.091161,-0.031880,0.036510,-0.007399,-0.061014,0.048722,0.034292,-0.011803,0.146801,0.083241,0.098422,0.102105,-0.105193,0.056631,-0.031687,0.017647,-0.001619,0.007824,-0.113128,0.091083,0.030518,0.048387,-0.101647,-0.084910,-0.033406,0.006946,-0.017757,-0.007595,0.079458,0.023081,0.046395,0.081602,-0.048075,-0.015497,0.010326,-0.005625,-0.122514,0.057229,-0.062944,-0.067287,0.181332,0.096425,-0.031919,0.018665,0.052602,-0.028081,0.112034,-0.048754,0.019837,-0.026233,-0.048192,-0.046425,-0.024161,0.032179,0.061430,0.062881,0.025515,-0.110559,-0.039388,-0.006087,-0.017027,0.001528,-0.002355,-0.029992,-0.062621,0.004259,0.123775,-0.009553,-0.014408,0.015446,-0.011060,-0.036579,0.032638,0.027588,0.045839,0.042822,-0.049586,-0.017041,0.023196,0.046408,-0.039251,-0.083000,-0.071646,0.012068,0.007801,-0.061951,0.112101,0.054591,0.041073,-0.018432,-0.080597,0.143758,0.000373,-0.031943,0.016593,-0.004608,0.059998,0.013707,-0.097610,-0.027797,0.091171,0.085890,-0.010790,-0.075954,-0.099613,0.041917,-0.008779,-0.030596,0.002823,-0.074650,0.014933,-0.008065,0.009927
0.179670,-0.011804,-0.073963,0.000438,-0.030436,-0.074628,0.001767,0.134915,-0.008225,-0.023382,0.091805,0.003272,0.010594,0.015224,-0.109017,-0.027176,-0.005579,0.009441,-0.094541,-0.084225,-0.028342,0.126917,-0.084948,-0.038771,0.008167,0.188754,-0.024529,0.042593,0.024377,0.068267,-0.033081,-0.027372,-0.132880,-0.051112,0.041846,-0.062933,-0.095598,-0.020586,0.034490,0.039705,0.082800,-0.074404,0.016971,-0.012470,0.036540,-0.070296,0.065377,0.030923,0.004082,0.123008,-0.052145,-0.051582,-0.148475,-0.020746,0.078898,0.042035,0.011483,-0.019180,0.009064,0.031114,0.061544,-0.069893,-0.046144,-0.076312,0.068088,-0.022665,0.051941,-0.019590,0.011476,-0.083955,0.049369,-0.000689,0.066591,0.031940,-0.073493,0.026125,0.062779,-0.003124,-0.033289,-0.072610,-0.018918,0.056417,0.045749,-0.010320,-0.133337,-0.102959,-0.075405,0.041444,-0.050524,-0.070228,0.097284,-0.012145,0.028721,0.059412,-0.000457,-0.120260,-0.017608,-0.048176,-0.028150,-0.036872,-0.069989,-0.027776,0.042652,0.110503,-0.010422,-0.024082,0.019787,0.066431,0.042689,0.090866,0.027531,-0.040118,0.206241,-0.109907,-0.017818,-0.013321,0.221689,-0.088323,-0.016514,-0.076720,-0.009695,-0.239330,-0.049450,0.142166,-0.080097,0.013180,-0.134012,0.161342,0.055553,-0.022706,-0.193624,-0.061412,0.006430,0.026096,-0.055643,-0.044556,0.025923,-0.041964,-0.033316,-0.073191,0.033028,-0.063470,-0.006005,0.006718,-0.031331,0.015102,0.031114,0.007390,-0.038485,-0.074025,0.079100,0.003484,-0.009800,0.046730,-0.039357,0.173538,-0.060734,0.046763,0.078851,0.154132,-0.007193,-0.099002,0.062755,-0.054137,-0.064293,0.131580,0.013146,0.034550,0.109728,0.011304,0.040221,0.086796,0.017498,-0.100946,0.001589,-0.013737,0.049684,0.028311,-0.027049,0.069835,0.037552,-0.104685,0.159349,0.135717,0.035791,0.154247,-0.010766,-0.008942,-0.093251,0.010228,-0.001005,-0.036138,0.095961,-0.041270,-0.063980,-0.140751,0.030232,-0.018749,0.062090,-0.068158,-0.036972,-0.016648,-0.011290,0.090374,-0.058088,-0.026384,-0.170504,0.107157,0.045296,0.000621,-0.051201,-0.014790,0.127262,0.102639,-0.004619,0.025395,-0.021880,0.012139,-0.057685,0.136949,0.036832,0.038881,0.038604,0.005969,0.093391,-0.026972,0.031087,0.022376,0.087352,0.031452,0.033551,0.008054,0.013404,0.021895,0.018910,-0.096240,-0.012421,-0.100772,-0.018351,0.039265,0.144889,-0.081332,0.146184,0.020138,0.085930,-0.057132,0.009506,0.119161,0.070176,0.060539,-0.031718,0.037404,-0.138324,-0.113621,0.089287,0.048959,0.020520,-0.030999,0.012122,-0.102104,-0.056460,-0.027367,0.103767,0.171482,0.011410,-0.091687,0.033132,0.127679,-0.028292,-0.030657,0.024198,-0.003118,0.094523,-0.082491,-0.038486,0.096014,-0.011654,-0.044421,0.063632,-0.072728,-0.159287,0.046121,-0.033152,-0.021621,0.048159,0.064278,-0.022094,-0.056833,0.015767,-0.054920,-0.001501,0.048128,-0.051745,0.052381,0.000454,0.006284,-0.023767,0.027076,-0.061766,0.112505,-0.141128,-0.005406,0.080074,-0.041990,0.043849,-0.039627,0.101630,0.016665,-0.025760,0.016871,-0.163971,-0.026086,-0.027071,-0.052221,0.065178,0.108358,-0.049126,0.014832,0.078013,-0.136020,-0.075280,-0.146724,-0.126356,-0.113119,0.027591,0.062176,-0.015500,-0.056371,0.053893,-0.115068,-0.086264,-0.065056,0.123406,-0.059087,-0.053486,-0.004935,-0.139267,-0.098191,-0.080468,0.085953,0.111123,0.100171,-0.006942,0.009331,0.047617,0.079196,-0.078364,0.027955,-0.040244,0.071595,0.037518,-0.043988,0.030871,-0.016847,0.041725,-0.030395,-0.109372,0.033007,0.126191,0.004572,0.185379,-0.086393,0.034382,0.137825,-0.046375,0.038660,0.045302,0.102642,-0.023738,0.193108,-0.057776,-0.007320,-0.181190,-0.029646,0.031620,0.147195,0.010307,0.023951,0.037308,0.006261,0.118019,0.058884,-0.100195,0.082243
