-0.277762
-0.109068
-0.050212
-0.082971
-0.013917
-0.052720
0.010762
0.071639
-0.075703
-0.012064
-0.023485
0.067695
-0.010902
-0.145595
-0.032366
0.070342
-0.033769
-0.038778
0.003800
-0.047119
0.020425
0.037313
-0.010845
-0.032798
-0.135663
-0.092754
0.014148
0.004987
-0.017712
-0.015583
0.109878
-0.006532
0.005397
0.106208
0.009607
0.135931
0.026114
-0.007389
0.007097
0.206700
-0.029771
-0.028558
-0.147631
0.065025
0.002032
-0.020424
0.123909
-0.143074
0.177793
0.003367
-0.172982
-0.070190
0.013012
0.040369
-0.016981
0.003883
0.076451
-0.018192
0.004779
0.011013
-0.305360
-0.111453
-0.044726
0.011903
-0.018931
0.014163
-0.004174
0.005872
-0.034948
0.019219
-0.031613
-0.061145
0.154448
-0.032030
-0.142332
0.083791
-0.066666
-0.006248
-0.032670
-0.017244
-0.078514
0.006055
-0.029107
-0.043813
-0.006302
-0.017121
0.114532
-0.128223
0.223986
-0.151920
0.055966
-0.074046
0.102054
0.034468
-0.009480
0.010441
-0.019479
-0.114814
0.043882
0.036904
-0.031504
0.006208
-0.115018
-0.084338
-0.007694
-0.006184
0.196420
0.035049
-0.069932
-0.145348
0.092145
-0.012857
0.014325
0.028004
-0.122539
0.117608
0.008446
-0.127890
-0.018261
-0.000225
0.102791
-0.006316
0.021050
-0.065650
-0.100958
0.065906
0.070723
0.049839
-0.036242
-0.032295
-0.071870
-0.221709
-0.211184
-0.056524
-0.075081
-0.048488
-0.016177
0.053514
-0.038579
0.002737
0.011577
-0.011786
-0.008226
-0.052481
-0.032598
-0.007033
-0.080830
-0.018835
0.085817
-0.387595
-0.051424
-0.053306
-0.038117
0.019537
-0.031641
-0.030382
-0.007715
-0.033624
-0.051989
-0.000493
0.005122
-0.019343
-0.076482
0.000777
0.009114
-0.109904
0.006417
-0.086513
-0.061468
-0.226384
0.055827
0.027019
-0.009832
-0.015542
-0.008250
-0.054329
-0.007654
0.235807
-0.169632
-0.030188
-0.087778
-0.001980
-0.041029
-0.210773
0.011437
0.002537
-0.044076
-0.024295
-0.014236
0.343367
-0.025080
-0.057456
0.143307
-0.057023
-0.004440
-0.093728
-0.029313
0.026116
0.012573
0.009297
0.056157
-0.148892
0.005697
-0.034611
-0.048454
-0.000726
-0.025515
0.030886
-0.069614
0.030976
-0.017533
0.002184
0.081821
-0.008177
0.148275
0.042867
0.001710
0.160233
0.023787
0.002576
0.279959
-0.027022
-0.053981
-0.038462
0.028515
-0.050661
-0.053715
-0.106455
-0.057745
-0.014393
0.226544
-0.090537
-0.026506
-0.081279
-0.099560
0.015191
0.055769
-0.017112
-0.063311
0.030563
0.018543
-0.054393
-0.066043
0.059423
0.047821
0.087796
-0.074360
0.003026
-0.036067
-0.029308
0.011952
0.124775
-0.210749
0.093443
-0.000123
-0.038587
0.040429
0.142411
-0.041935
-0.044657
-0.052734
-0.013489
-0.008006
-0.042948
0.026215
-0.070676
-0.128319
-0.040243
0.205085
0.085872
-0.143121
-0.008370
-0.206370
-0.105250
0.038337
0.040819
-0.011795
-0.018294
0.026494
-0.017809
0.016780
0.030887
-0.008147
0.086888
0.038498
0.118029
-0.029846
0.002649
-0.051008
-0.012377
-0.103390
0.031012
-0.071060
0.060499
-0.058565
-0.111945
-0.104727
-0.065329
-0.080133
-0.009518
-0.128966
-0.019794
0.128940
-0.015370
0.101191
-0.072587
0.210555
-0.029691
-0.020162
-0.052631
0.104530
0.050153
-0.004009
-0.006884
0.016821
0.151827
-0.517229
-0.015366
-0.004232
-0.015710
0.006666
0.170146
-0.076763
-0.028119
-0.128665
-0.003794
-0.017201
0.112535
0.033836
-0.006447
-0.011963
-0.046223
-0.124764
-0.013500
-0.019143
-0.003419
-0.019594
0.003520
0.004327
0.066499
-0.025751
-0.089896
-0.004774
-0.013427
-0.003946
-0.100580
-0.008807
-0.117950
-0.083352
0.141779
-0.117826
-0.056575
-0.023773
0.186653
-0.013673
-0.017231
-0.092836
0.035155
-0.092944
0.343975
0.006330
-0.085802
-0.147100
-0.014119
0.001849
0.021858
0.089841
0.049014
-0.019892
-0.042011
-0.067235
0.163992
-0.119330
0.017459
-0.084640
-0.006112
-0.046055
-0.098787
-0.114731
-0.013912
-0.011121
-0.030060
0.283872
0.108761
