-0.113192
0.183136
-0.080934
0.076572
-0.156828
-0.004480
-0.090283
-0.025670
-0.191132
-0.116974
0.072361
-0.059111
0.233881
-0.244676
-0.019262
-0.129929
-0.182812
-0.142740
0.079809
0.027708
-0.109444
-0.054417
-0.102516
0.087305
-0.049610
-0.010108
0.026388
0.266598
-0.009179
-0.094116
-0.092922
-0.077819
0.137330
-0.168393
0.118370
-0.023850
-0.104593
-0.045622
-0.016918
0.270673
-0.140956
-0.013851
-0.127245
-0.128889
-0.027760
-0.033844
0.063885
-0.066437
0.003706
0.204728
-0.125853
-0.252851
0.160623
0.044775
-0.005680
0.196677
-0.040188
-0.102617
0.125419
-0.130167
0.067047
-0.131977
-0.074934
-0.036385
-0.088008
-0.085715
0.077165
-0.171054
-0.025792
-0.103710
0.014249
-0.010663
-0.098729
0.028680
0.096428
-0.081616
-0.096808
-0.085217
0.037805
-0.077426
-0.148807
-0.072970
-0.165882
-0.063813
0.027654
0.034118
-0.001184
-0.089981
0.065285
0.013467
-0.039688
0.142263
-0.051053
-0.043588
0.022940
-0.094792
-0.083706
0.339558
0.210238
0.181580
-0.091104
-0.092501
0.239301
0.051068
-0.044176
0.306484
-0.087777
0.062320
-0.082678
0.023977
-0.081755
0.123816
-0.114312
0.092656
-0.175245
-0.054594
0.029017
-0.003372
-0.094427
0.027421
0.079168
-0.086163
-0.000869
0.161782
-0.060142
0.236191
-0.124584
0.390559
-0.160813
0.002521
-0.009979
0.003724
-0.014515
0.284057
-0.041425
-0.190253
0.233668
-0.088860
-0.413254
-0.077840
0.308751
-0.077716
0.009107
-0.119067
-0.078346
-0.277816
0.100665
-0.099943
-0.081233
-0.029157
0.006819
-0.097529
-0.042177
0.025681
0.105763
0.074371
-0.035019
-0.008438
-0.196880
-0.193150
0.129856
0.015625
0.107020
-0.099685
-0.130583
0.107078
-0.019608
-0.105339
-0.071901
-0.046606
-0.047975
0.054678
0.144943
-0.066273
0.019131
-0.168408
0.036424
0.112000
0.096686
-0.024706
0.243945
-0.141596
0.195351
0.060819
0.112714
-0.150833
-0.020284
-0.034158
-0.204283
0.294229
0.011896
-0.024656
-0.100985
0.118212
0.052356
-0.106730
-0.103307
-0.025720
-0.133972
-0.084854
-0.030199
-0.086151
0.087406
-0.146253
-0.159773
-0.056010
-0.091972
0.184779
0.036225
-0.028276
-0.116132
0.171518
0.048773
0.274832
-0.072391
-0.046976
-0.141807
-0.035083
-0.055968
-0.052496
0.059867
0.093869
0.112388
-0.011049
0.123430
-0.333931
-0.000288
-0.058419
-0.177055
-0.040065
0.060533
-0.015163
0.001738
0.117272
0.016637
0.025001
-0.032908
-0.090992
0.049642
0.447053
-0.049248
-0.074104
-0.282861
-0.017810
-0.037727
-0.040790
-0.023888
-0.085331
0.260186
0.090724
-0.087121
-0.037275
-0.030520
0.250525
0.103096
-0.020250
-0.081826
-0.128054
-0.074805
-0.107490
-0.059799
0.010545
-0.106739
-0.017586
-0.113096
-0.000289
0.340688
-0.023921
0.035406
0.195388
0.035464
-0.116647
0.018746
0.351416
0.046398
-0.080541
-0.106090
-0.108630
0.177049
-0.071721
-0.002283
-0.024900
-0.059304
-0.024552
-0.169327
-0.050001
0.168404
-0.045318
-0.592929
-0.031677
0.169154
-0.016487
-0.051414
0.069098
-0.077556
-0.252073
0.267360
-0.054705
0.077536
-0.049034
-0.117539
0.274248
0.063974
0.379792
-0.138609
0.002932
0.366948
-0.078174
-0.095053
0.191840
0.004433
-0.175376
0.015010
0.015245
0.040723
-0.045368
0.054069
-0.124066
-0.149096
-0.086383
-0.074038
-0.037505
-0.011783
-0.053228
-0.118716
-0.015259
0.042044
0.235204
-0.027988
-0.320121
0.277328
0.057204
-0.186163
-0.136242
0.065663
0.129141
-0.141873
0.023719
-0.125390
-0.121834
0.147976
0.007066
0.090811
0.048964
0.226263
0.225336
0.004859
0.000987
-0.036961
0.008239
0.032500
0.130827
-0.046198
-0.243461
0.099316
-0.166559
-0.086231
0.417336
0.148444
0.039988
-0.064630
-0.163898
-0.102897
-0.011758
0.038472
-0.150324
-0.010171
0.236054
-0.039799
0.016569
0.131927
-0.071815
-0.234194
-0.070536
-0.103543
-0.039478
-0.129716
-0.035009
-0.073167
-0.073158
-0.060284
-0.070858
-0.143102
-0.048592
0.060728
0.061499
0.009647
-0.138829
0.043119
0.277312
-0.104286
0.165873
-0.038172
0.108907
0.025667
0.135836
-0.035280
-0.033733
-0.133909
-0.100459
0.072295
0.248644
0.008681
-0.108982
-0.073424
0.066159
0.206658
-0.123378
-0.014318
-0.132891
0.183137
0.052024
-0.068508
-0.071333
0.127984
-0.064712
-0.126206
-0.045424
-0.045366
-0.017899
0.242886
-0.044230
-0.025761
0.006155
-0.140656
0.141960
-0.223539
-0.080140
-0.010659
-0.222283
0.061938
-0.116062
0.057998
0.063327
-0.004937
0.258527
-0.225138
-0.042071
0.033789
0.022885
0.082657
-0.136056
-0.156715
-0.048615
0.009538
-0.054886
-0.018200
-0.012442
-0.173015
0.021991
-0.290045
0.053343
-0.102156
0.135338
-0.063891
0.045885
0.103629
-0.049623
0.169325
-0.027786
-0.139913
-0.039001
0.298720
-0.026527
-0.059985
-0.108241
-0.010649
-0.113882
0.117729
-0.004571
-0.087688
0.246358
0.043975
0.001455
0.074800
-0.299643
0.302842
0.031908
-0.070016
-0.113751
-0.025497
0.120005
0.093487
-0.126006
0.208949
0.270883
0.203412
-0.019878
0.155874
-0.108045
-0.112331
0.051444
0.086534
-0.176517
0.387257
-0.111085
-0.093605
-0.008031
-0.034401
-0.101205
-0.186802
0.055993
-0.132487
-0.511451
0.015760
-0.076232
0.301390
-0.241780
-0.302651
-0.076465
-0.149892
0.266959
0.037696
-0.029901
-0.148502
-0.117618
-0.047368
0.089069
0.010239
-0.015820
0.236877
-0.121377
0.211037
-0.020425
-0.076887
-0.119506
0.060880
-0.026866
-0.028434
-0.088765
-0.070402
-0.023926
0.041597
0.013139
-0.003950
-0.011607
0.012988
-0.051697
-0.020953
0.038031
-0.063831
0.015957
0.276048
-0.149239
-0.016200
-0.003944
0.128984
0.001390
-0.043701
0.073577
0.279988
-0.100267
0.025618
-0.053519
-0.176703
-0.014282
0.094308
0.134137
-0.116875
-0.032341
-0.050856
0.105511
0.068289
0.004058
0.232152
-0.130711
0.249196
-0.059766
-0.030596
-0.015984
0.001563
0.224445
0.092304
-0.011348
-0.089097
0.001427
