-0.051008,-0.101128,-0.049901,0.043411,0.243938,0.028247,0.002625,-0.093553,-0.049809
-0.091894,0.074834,0.001302,-0.094889,0.155978,0.043490,-0.104884,0.107027,-0.025300
0.013581,0.010146,0.014114,0.227805,-0.080585,-0.171193,0.056144,-0.006365,-0.033791
-0.009974,-0.017049,0.020967,-0.048325,-0.244605,0.312151,-0.004044,-0.020286,-0.026953
-0.084727,-0.287346,-0.054695,-0.024270,0.040917,-0.005707,0.092651,0.247031,0.074720
-0.052565,-0.016887,0.031416,0.175875,-0.207646,0.142086,0.069017,-0.028667,-0.038154
-0.078553,-0.001751,0.063043,-0.306114,-0.103480,0.389616,-0.051329,-0.024956,0.088835
-0.033517,-0.053825,-0.023271,-0.038610,-0.089229,-0.041790,-0.016089,-0.031716,-0.006389
0.035832,-0.084297,-0.057344,0.054574,-0.150954,-0.099924,0.185536,0.056515,0.031387
-0.038747,0.016530,-0.033711,-0.011172,0.196831,-0.040900,-0.048694,-0.059521,-0.041002
-0.062531,-0.042262,0.060234,-0.190040,-0.026946,0.218833,-0.038998,0.010240,0.091671
-0.006489,-0.073485,0.041192,0.031876,-0.350978,0.231895,0.038608,-0.091784,0.062234
0.023944,-0.018126,0.007990,0.276864,-0.022791,-0.243290,0.054445,-0.042772,-0.026951
-0.011681,0.055328,0.021668,-0.033473,0.189535,-0.079256,0.041396,0.098852,-0.107938
0.009232,0.037833,0.002151,0.026361,0.176010,0.027778,0.004950,0.034958,0.004251
0.037307,-0.031851,-0.061090,0.134112,-0.111707,-0.095344,0.215124,0.065191,-0.075480
-0.079162,-0.143498,-0.127496,-0.016990,0.010031,0.000311,0.061998,0.183889,0.105947
-0.006788,0.045881,-0.011299,0.009120,0.139248,0.003060,0.035292,0.078831,0.025825
-0.080074,-0.234787,-0.081879,-0.016386,-0.000489,-0.008910,0.067457,0.261525,0.075474
0.050158,0.150402,0.028656,0.119102,-0.116070,-0.102433,0.005458,-0.092845,-0.010787
-0.036155,-0.085236,-0.057865,-0.067374,-0.106780,-0.081332,0.022139,0.026035,0.002183
-0.039183,-0.059152,-0.049747,-0.065829,0.030716,-0.050043,-0.067781,-0.068562,-0.041950
0.076247,0.332642,0.059238,-0.036024,0.010922,-0.012827,-0.070562,-0.304054,-0.041013
-0.052025,-0.049480,-0.042212,-0.059615,-0.019622,-0.060271,-0.033343,-0.072769,-0.051917
0.004281,0.023759,0.015653,0.018728,0.164990,0.020830,0.016192,0.051195,0.019966
-0.011077,0.084840,-0.030281,-0.006525,0.153415,-0.011310,-0.046363,0.093473,0.035418
0.082855,-0.027763,0.012373,0.206474,0.104393,-0.087722,0.010834,-0.069928,-0.132284
0.068201,0.332626,0.070234,-0.057895,0.027096,-0.016220,-0.052379,-0.321311,-0.027669
-0.072022,-0.217089,-0.078101,-0.049643,-0.007209,-0.029164,0.092072,0.287989,0.097394
0.027774,0.046441,-0.017274,0.117083,0.096937,-0.166585,0.047168,-0.047783,-0.094031
0.069061,0.470926,0.015510,-0.114767,-0.204797,-0.089315,-0.002247,-0.197832,0.004024
-0.037659,0.002856,0.060707,-0.290511,-0.089337,0.345106,-0.062628,-0.035484,0.089587
0.072230,0.235988,0.026114,-0.008436,0.018248,0.005055,-0.061297,-0.242536,-0.073979
0.023597,-0.063619,0.052874,-0.085624,-0.069416,-0.032336,-0.058021,-0.086665,-0.006503
-0.058800,-0.310800,-0.049850,0.001289,0.022538,-0.022208,0.062508,0.288122,0.042965
0.034757,0.053834,0.040559,-0.003179,-0.031716,0.047937,-0.007030,0.213205,0.012888
-0.003953,-0.044459,0.001488,-0.069870,-0.081019,-0.059377,-0.011328,-0.062132,-0.019040
-0.007300,-0.238724,-0.009893,-0.037003,-0.006280,-0.041440,0.045558,0.268848,0.045758
-0.045602,-0.313797,-0.032290,-0.012706,-0.044250,0.020727,0.033416,0.393183,0.011487
-0.039723,-0.049668,-0.036624,-0.059493,-0.010352,-0.049023,-0.043035,-0.055630,-0.061570
-0.069737,-0.220370,-0.046621,-0.011590,0.037405,-0.009807,0.061595,0.216306,0.051427
-0.003808,-0.030212,0.048765,0.277434,-0.133104,-0.098728,-0.037190,0.041994,-0.082057
-0.011363,-0.081038,-0.080006,-0.048716,0.353399,-0.031692,-0.041174,-0.096641,0.003400
-0.017491,-0.255723,-0.016261,-0.135261,-0.200068,-0.107947,0.114343,0.486287,0.115553
-0.126666,-0.076155,0.017408,-0.124498,0.159873,0.044821,0.028526,0.078281,0.005876
0.035399,0.028476,-0.047887,0.160996,0.046026,-0.210761,0.042378,-0.000686,-0.078526
-0.056190,-0.029365,-0.046633,-0.090056,0.334187,-0.117684,-0.037475,-0.126163,0.014736
-0.048136,-0.016020,-0.010814,-0.118326,0.296737,-0.071690,0.012498,0.029889,-0.067553
-0.016860,-0.041643,-0.034843,-0.060158,0.361598,-0.100085,-0.027691,-0.099216,-0.036744
-0.041290,-0.302976,-0.031164,0.007305,0.054962,-0.000026,0.021771,0.290737,0.010887
-0.035098,-0.068875,-0.023844,-0.076036,0.333443,-0.099001,-0.016607,-0.107053,-0.023663
0.034743,0.073550,0.048397,-0.148685,0.125920,-0.138790,0.016950,0.169160,-0.047426
-0.054460,0.027179,-0.060014,-0.093350,0.212716,-0.086861,-0.052672,-0.048422,-0.067503
0.002638,0.108111,0.230542,-0.095495,0.004826,0.017206,-0.051581,-0.074989,0.005098
0.053875,-0.001396,-0.045858,0.213371,0.033503,-0.237551,0.039613,0.003651,-0.056602
0.047249,0.242945,0.041598,0.009731,0.007564,0.003840,-0.063871,-0.227788,-0.061365
-0.010931,-0.047724,0.004525,-0.039501,-0.074421,-0.035285,-0.046161,-0.055072,-0.023162
-0.013321,-0.004948,0.003736,-0.013431,-0.209137,0.319814,-0.015737,-0.047240,-0.005004
0.093563,-0.007598,-0.080996,0.194090,0.012366,-0.160017,0.106289,-0.056389,-0.096000
-0.058215,-0.199008,-0.074324,0.001694,-0.052230,0.015244,0.046822,0.265771,0.053089
0.004575,-0.079931,0.004415,-0.128552,-0.000209,-0.112404,0.020677,-0.103866,-0.013999
-0.060716,-0.003736,-0.013907,-0.085246,0.298627,-0.090832,-0.001769,-0.072187,-0.033356
0.064207,0.176584,0.089618,-0.031511,-0.246070,-0.003045,-0.019509,-0.029680,-0.022499
0.102075,0.466875,0.114743,-0.089833,-0.275896,-0.101093,-0.047192,-0.162251,-0.025004
0.074914,-0.016940,-0.054945,0.239927,-0.013013,-0.232091,0.053790,-0.009803,-0.051087
-0.032882,-0.044692,-0.046481,-0.041894,0.024734,-0.043567,-0.059755,-0.022723,-0.054715
-0.039451,-0.025076,0.066811,-0.271891,-0.038710,0.284296,-0.049864,-0.036189,0.091617
0.018740,-0.059718,0.020563,-0.066336,-0.049311,-0.074618,0.009940,-0.088022,0.008842
0.068842,0.204556,0.065401,-0.018964,-0.057933,-0.007450,-0.011017,-0.110067,-0.034640
-0.056899,-0.040287,0.077820,-0.238274,-0.062949,0.341336,-0.030979,-0.006306,0.051413
0.088730,0.332316,0.083758,-0.074949,-0.113586,-0.085412,-0.011379,-0.218343,-0.005711
-0.057622,-0.060272,-0.030704,-0.032918,0.281113,-0.055032,-0.025785,-0.038291,-0.036227
-0.033585,-0.034540,-0.034441,-0.055959,-0.054515,-0.048375,-0.033158,-0.051266,-0.032583
0.060016,-0.044558,-0.037731,0.221500,-0.054965,-0.180728,0.095184,-0.030818,-0.059224
-0.009895,0.017527,-0.011880,0.016041,0.221836,0.008654,-0.006244,0.041726,-0.011879
-0.031333,-0.028686,0.049302,-0.098218,-0.245581,0.364823,-0.045421,-0.068407,0.089978
0.129794,0.030563,0.025679,0.159180,-0.142544,-0.155321,0.031901,-0.112919,0.012947
-0.073087,-0.012139,0.092888,-0.284971,-0.032215,0.315625,-0.084825,-0.017278,0.089475
-0.012701,-0.091903,-0.016098,-0.009209,-0.122341,-0.006938,0.047733,0.251909,0.042528
-0.009203,0.117919,0.130422,-0.152231,-0.078826,0.031798,-0.013874,-0.069699,-0.031944
-0.009015,0.061270,-0.002657,0.013556,0.127343,0.007508,-0.039668,0.021924,-0.017139
0.025048,0.032832,0.001091,0.158677,-0.320462,0.190474,0.009082,-0.001772,0.020465
-0.043977,0.059827,0.034115,-0.062940,-0.061613,0.198036,0.046506,-0.019826,0.013134
0.003021,-0.041631,0.059598,-0.012829,-0.187520,0.210930,-0.014769,-0.061016,0.030895
-0.009572,-0.109831,-0.045101,0.100442,0.147628,0.127209,-0.033234,-0.183530,-0.048799
-0.039735,-0.050406,-0.068515,-0.048114,0.074785,-0.077262,-0.050201,-0.062123,-0.039177
0.001080,-0.025301,0.023621,-0.047476,-0.152744,-0.019468,-0.001238,-0.050666,0.044570
0.038441,0.020749,0.020209,0.028416,0.218023,0.024418,0.047057,0.015594,0.026550
-0.029239,-0.034194,-0.023299,-0.058721,0.125709,-0.103386,-0.019319,-0.056016,-0.032052
0.015872,0.167688,0.015189,0.003127,-0.216423,0.007279,-0.044416,0.181817,0.017987
-0.032944,-0.193788,0.014531,0.059493,0.314884,0.058931,-0.007026,-0.167312,-0.041420
-0.005594,-0.099399,-0.015868,-0.099430,0.239137,-0.121868,0.004889,-0.138518,0.014572
-0.080720,-0.012420,-0.078926,-0.020039,-0.027729,-0.028237,-0.088598,-0.017526,-0.082730
-0.038443,-0.048120,-0.050190,-0.031822,-0.001847,-0.030331,-0.023719,-0.087974,-0.023552
0.087512,0.047380,0.035896,0.068913,-0.003334,0.042303,0.067985,0.018548,0.019815
-0.035537,-0.049584,-0.026420,-0.067653,-0.040327,-0.068340,-0.008793,-0.046997,-0.021865
-0.064065,-0.012780,0.070260,-0.168869,-0.049812,0.226082,-0.053576,0.000510,0.045013
-0.007714,-0.045080,-0.016136,-0.136507,0.030194,-0.119156,0.033070,-0.179262,0.036631
-0.047431,-0.037178,-0.066843,-0.040114,0.001327,-0.042173,-0.057947,-0.031490,-0.053013
0.083067,0.001356,0.081156,0.030819,-0.301806,0.028048,0.097235,0.004263,0.099491
0.003937,0.255908,-0.010217,0.021113,-0.086713,-0.001743,-0.015006,-0.142287,-0.030481
-0.046594,-0.071779,-0.050712,-0.096156,0.255253,-0.086016,-0.023144,-0.086623,-0.037367
0.067938,0.291216,0.026248,-0.001673,-0.064119,0.037708,-0.045718,-0.176659,-0.043349
0.031259,0.197190,0.050389,-0.010402,-0.137226,-0.123362,-0.031705,-0.050857,0.045513
0.103227,-0.054996,-0.067637,0.427530,-0.007175,-0.395311,0.103170,-0.033912,-0.071525
-0.096327,-0.315523,-0.041254,0.004029,-0.044474,-0.052868,0.102119,0.361024,0.085160
-0.020341,-0.173309,-0.009352,-0.056715,0.420153,-0.119816,-0.006687,-0.123244,0.023836
-0.125695,-0.148833,-0.068413,0.003824,0.053920,0.095382,0.045054,0.168604,0.002732
0.019488,0.119292,0.017361,0.018539,0.159443,0.026880,-0.049393,-0.050174,-0.056165
-0.036250,0.026857,-0.005211,0.054655,0.251938,0.032763,-0.043461,0.044341,0.015071
0.001109,0.059599,-0.080014,-0.061049,0.188262,-0.133905,-0.022135,-0.043383,-0.069540
0.046733,0.294587,0.054779,-0.018210,0.045937,-0.023257,-0.035566,-0.308785,-0.016328
-0.044603,-0.045472,-0.054996,-0.025526,-0.040182,-0.010008,-0.028025,-0.050778,-0.057560
-0.028347,-0.051226,-0.057917,-0.039842,-0.045555,-0.054259,0.046432,0.257258,-0.000270
0.023092,0.018141,0.020061,0.018312,0.205459,0.044844,0.008549,0.046092,0.019904
-0.122725,0.091682,-0.020511,-0.227678,0.045949,0.277213,-0.067410,0.068398,-0.005274
-0.012702,-0.051582,0.000309,0.303838,-0.307198,0.036173,0.034489,-0.054350,-0.010167
0.015276,-0.068979,0.016043,-0.096945,-0.206547,0.086109,0.028227,0.085783,0.146726
-0.002252,-0.008156,0.001131,-0.279532,-0.037938,0.319306,-0.002599,0.003814,-0.013825
-0.015792,0.008388,-0.007536,-0.002212,0.221824,-0.014958,-0.007606,0.001896,-0.011828
0.065424,0.115262,0.012323,0.028647,0.159464,-0.089277,-0.062210,-0.180249,-0.042700
0.062578,-0.024266,-0.042260,0.388904,-0.035347,-0.329759,0.070112,-0.037663,-0.037080
-0.020430,-0.057522,0.006728,-0.084069,-0.036618,-0.063289,-0.009638,-0.058646,-0.031880
0.054493,0.054545,0.059762,0.024982,-0.269654,0.040184,0.041617,0.010186,0.048364
0.045187,0.060859,0.019613,0.045986,0.146174,0.042979,0.001426,-0.003544,-0.030973
-0.083260,-0.023629,-0.079509,-0.012383,-0.044129,-0.004985,-0.068824,-0.004210,-0.072463
-0.101877,-0.259625,-0.074085,-0.000846,0.100148,-0.048652,0.062292,0.309181,0.046275
-0.047779,-0.032825,-0.043282,-0.059583,-0.040680,-0.063565,-0.035721,-0.034599,-0.047249
0.065785,0.009472,0.006027,0.243802,-0.165213,-0.104653,0.069132,-0.120746,-0.016838
0.010141,0.012834,0.012900,0.035185,0.188696,0.023305,0.002847,0.037246,0.002193
0.141677,0.147498,0.020331,0.029271,-0.188610,-0.092504,0.009762,-0.083911,0.008561
0.018929,0.066754,0.019993,0.046397,0.069372,0.047423,0.019317,0.074790,0.013059
0.013063,0.006004,-0.009911,0.038645,0.253276,0.014401,-0.033142,0.023292,-0.002969
-0.068229,-0.022219,-0.028915,-0.014471,0.026738,0.258674,0.008827,-0.069114,0.037046
-0.037653,-0.052676,-0.027375,-0.040987,0.340921,-0.088624,-0.055379,-0.086661,-0.026878
0.013118,-0.058212,0.006802,-0.016735,-0.167980,-0.059105,0.035050,0.217202,0.023385
-0.058430,0.133516,-0.004571,0.136977,-0.207739,0.002002,-0.059608,0.094020,-0.052089
-0.009083,-0.072528,-0.025973,-0.053559,0.139716,-0.073125,-0.028754,-0.074739,-0.026218
-0.020536,-0.161461,-0.037148,-0.034276,-0.120137,-0.042523,0.064800,0.254565,0.070289
-0.029964,-0.054140,-0.046181,-0.066674,-0.030387,-0.065254,-0.046014,-0.057450,-0.066480
0.074744,-0.036804,-0.058413,0.350918,-0.040192,-0.263219,0.084351,-0.025046,-0.076878
-0.054976,0.058383,0.055489,-0.179652,-0.019802,0.218657,-0.092968,-0.047459,0.043120
0.055077,-0.038648,-0.066995,0.239493,0.022536,-0.236474,0.082198,0.003429,-0.061598
-0.024112,-0.077333,0.038761,-0.089535,-0.213263,0.066709,0.039554,0.053831,0.203778
0.033802,-0.023439,-0.065495,0.142723,0.004946,-0.177308,0.094950,0.000187,-0.055582
-0.051912,-0.004503,-0.054736,0.018364,0.280216,-0.007417,-0.072450,-0.039684,-0.062388
-0.072481,0.011485,0.072459,0.075064,0.235161,-0.166014,-0.053367,-0.158347,0.038799
0.027155,0.107581,0.035227,0.041284,0.162275,0.023600,-0.026086,-0.157274,-0.028529
0.041948,0.148566,-0.040222,0.025825,0.203794,-0.094054,-0.071938,-0.102107,-0.074532
-0.036392,-0.008981,-0.032951,-0.012654,0.374527,0.023547,-0.032157,0.006440,-0.032343
-0.017305,-0.036181,-0.037565,-0.060036,-0.122950,-0.032571,-0.019094,-0.070545,-0.013257
-0.103433,-0.049349,0.024348,-0.060794,-0.012930,0.062567,-0.010451,0.138846,0.116253
0.071150,0.219944,0.066589,-0.009888,-0.016449,-0.011908,-0.068545,-0.184479,-0.060384
-0.035599,-0.043852,-0.053721,-0.014600,-0.039361,-0.018652,-0.048452,-0.040144,-0.060656
0.016411,-0.144674,-0.057851,0.143917,-0.127898,-0.107454,0.177298,0.093459,-0.000555
0.068911,0.237226,0.077936,-0.037002,0.009797,-0.025531,-0.087545,-0.200526,-0.080248
0.051325,0.262243,0.047212,-0.000830,-0.000790,0.005224,-0.061510,-0.247643,-0.052727
-0.009433,0.022451,-0.012379,0.045698,0.192023,0.031323,-0.010808,0.022359,-0.026591
-0.031285,-0.054194,-0.040777,-0.075794,0.069949,-0.093158,-0.022892,-0.057475,-0.029017
0.023450,-0.077843,-0.004519,-0.058764,-0.099977,-0.084387,0.016503,-0.089769,0.009183
-0.002086,-0.058498,-0.027024,-0.070159,-0.037375,-0.058580,0.000688,-0.053302,0.023335
-0.060857,-0.046686,0.073868,-0.230971,-0.017463,0.275007,-0.061497,-0.026367,0.105733
-0.091499,0.169784,0.069675,-0.034332,-0.234040,-0.043959,0.031635,0.034275,-0.035098
-0.066929,0.003286,0.008332,-0.231956,0.069419,0.208459,-0.052816,0.039614,0.029163
0.049227,0.257497,0.049599,0.021187,-0.022673,0.009719,-0.074661,-0.193118,-0.071274
-0.002041,-0.029623,-0.009349,0.072636,0.222238,0.044423,-0.068828,-0.122292,-0.050521
-0.040127,-0.036516,0.086257,-0.198405,-0.153968,0.385866,-0.072883,-0.069527,0.119976
-0.011399,-0.018318,0.007380,-0.073915,-0.289804,-0.010598,0.000922,0.295869,-0.020990
-0.099170,-0.017880,0.034129,-0.111148,0.217660,-0.004577,-0.020331,0.081270,-0.024448
-0.055521,-0.085038,-0.009519,-0.041558,0.294766,0.013435,0.005531,-0.060949,-0.090138
-0.026716,-0.071247,-0.035464,-0.062570,0.048622,-0.075347,-0.035945,-0.058970,-0.041370
-0.070172,-0.126222,-0.067656,0.030754,0.145108,0.046750,0.045211,0.091994,0.052304
-0.067758,-0.003063,0.075635,-0.279263,-0.020013,0.300665,-0.062346,-0.015263,0.063462
-0.048794,0.004335,0.053470,-0.243093,-0.005448,0.291835,-0.052884,-0.035133,0.054287
0.058078,0.136108,0.062473,-0.127069,-0.173448,-0.123616,0.026825,0.062584,0.064749
-0.002419,-0.062807,-0.003122,-0.048439,-0.028972,-0.063359,-0.007625,-0.078097,-0.011430
0.084896,-0.008259,-0.083278,0.355393,0.022789,-0.365268,0.089931,-0.037008,-0.046582
-0.051027,-0.019982,-0.073134,-0.041687,0.406874,-0.099771,-0.055385,-0.080187,-0.048340
-0.041202,-0.073017,-0.021955,-0.078236,0.003986,-0.071720,-0.016409,-0.095718,-0.034508
0.117647,0.100679,-0.007616,0.123923,-0.090413,-0.071885,0.016958,-0.100785,-0.074639
0.005702,0.111280,0.120232,-0.090418,-0.181990,0.120537,-0.014016,-0.062020,0.005116
-0.047913,-0.034576,-0.053704,-0.045209,0.252160,-0.120837,-0.055490,-0.081150,-0.056519
0.014977,-0.064041,0.032997,0.229366,0.008480,-0.223455,0.002730,-0.050022,0.015758
-0.009548,-0.110193,-0.007843,-0.047388,-0.091182,-0.047990,-0.020954,-0.079719,-0.005437
-0.068877,0.025482,0.039036,-0.284769,-0.072696,0.358507,-0.019133,-0.056990,0.075249
-0.003584,0.033972,0.018005,0.099977,-0.161124,0.083254,0.019877,0.083530,0.021093
-0.007846,0.065836,-0.053895,-0.077570,0.186234,-0.107135,-0.016635,0.065765,-0.078293
-0.008035,-0.017685,-0.007849,-0.028983,-0.282017,-0.022481,0.016655,0.347197,-0.002247
-0.042178,-0.214789,-0.050730,-0.022478,-0.004274,-0.017354,0.058367,0.223643,0.060020
-0.063714,-0.104982,-0.044581,-0.224275,0.357995,-0.162109,-0.062479,-0.075560,-0.058327
0.013047,-0.135401,-0.083447,0.050635,-0.044768,-0.102285,0.139460,0.144679,0.017477
0.014320,0.039756,0.156162,-0.064180,0.155826,0.095305,-0.066919,-0.034974,0.005019
-0.079916,-0.013420,0.092736,-0.012698,-0.361096,0.432012,-0.080221,0.005977,0.052204
0.039864,-0.152606,0.053297,-0.077165,-0.051214,-0.106543,0.029087,-0.140467,0.060870
0.070259,0.320334,0.036094,-0.071706,-0.221455,-0.066181,0.007499,-0.087272,-0.013820
0.055134,0.205114,0.033671,0.002934,-0.173504,0.003071,-0.018141,-0.077299,-0.028850
0.012296,-0.021912,0.047267,-0.043774,-0.211664,0.242610,-0.021239,-0.046914,0.064370
-0.008364,-0.006080,-0.064694,-0.019819,-0.007514,0.054063,-0.005895,0.007027,0.254515
-0.033865,-0.051531,-0.039521,-0.031301,0.005091,-0.045546,-0.057223,-0.011231,-0.042330
-0.041978,-0.070082,-0.021615,-0.058757,-0.129021,-0.085443,-0.021575,-0.075778,-0.013779
-0.026487,-0.166039,-0.024571,-0.035919,-0.125565,0.002612,0.049153,0.337715,0.026333
0.044121,0.154957,0.062119,-0.135164,-0.170466,-0.035772,0.042338,-0.007854,-0.035666
-0.100520,-0.160006,-0.076246,-0.083269,0.021974,0.018868,0.068615,0.219668,0.081023
-0.008984,0.130950,0.120455,-0.117988,-0.158100,0.077614,0.049443,-0.065140,-0.042259
-0.045375,-0.009259,0.015315,-0.186320,0.203034,0.018392,-0.037982,0.041825,-0.004646
0.028168,0.099150,0.001450,0.034610,0.172432,-0.074623,-0.009122,-0.162453,-0.083457
0.036770,0.238631,0.022211,-0.024804,-0.229910,-0.031782,-0.042175,-0.026396,0.012404
0.009735,0.038524,0.001096,0.068832,0.245322,-0.125611,-0.020424,-0.048655,-0.153601
0.008914,-0.095512,-0.107690,0.200969,0.033148,-0.065121,0.070176,-0.023307,0.022410
-0.103746,-0.292396,-0.062119,0.006957,-0.034437,-0.047849,0.087950,0.367361,0.069575
0.058961,-0.032296,-0.055390,0.231039,-0.070703,-0.134011,0.071441,-0.003101,-0.049054
0.040555,0.238643,0.025579,0.013813,-0.018216,-0.047596,-0.012003,-0.189111,-0.015175
-0.020660,-0.031320,-0.025709,-0.057727,-0.055616,-0.062619,-0.056645,-0.053929,-0.040774
-0.056331,-0.073584,-0.035722,-0.083058,0.050622,-0.042864,-0.027795,-0.057734,-0.032807
-0.003244,-0.004333,-0.051493,0.007538,0.313020,-0.021936,-0.099175,-0.095037,-0.088089
-0.020029,0.088563,-0.005526,-0.173949,0.253091,-0.196678,-0.049281,0.101565,0.017813
0.104449,0.364112,0.081732,-0.036550,0.018960,-0.023518,-0.095570,-0.322134,-0.062650
0.064561,0.059578,0.020139,-0.028372,-0.085765,-0.096000,0.016543,-0.089083,-0.075459
0.012432,-0.048092,-0.046878,-0.007302,-0.013191,-0.054173,0.229901,0.211157,-0.013711
0.119372,0.234844,0.057531,-0.108273,-0.216110,-0.086631,0.008845,-0.077038,0.024467
-0.041283,-0.064154,-0.036235,-0.038432,0.363552,-0.088286,-0.026379,-0.053992,-0.043027
0.048853,0.187491,0.058757,-0.058815,-0.038951,-0.105280,-0.029335,-0.017766,0.022724
-0.019422,0.117654,-0.040503,-0.178054,0.091646,-0.151515,-0.021114,0.103834,-0.043389
0.069900,0.203956,0.087382,-0.074974,-0.126198,0.063771,-0.059045,-0.147032,-0.000795
0.043872,0.196264,-0.135107,0.077324,0.017851,-0.054654,-0.050079,-0.065468,0.039870
0.007430,-0.015050,0.109843,-0.178800,-0.100135,0.212346,-0.033432,-0.078921,0.042000
-0.002387,-0.078280,-0.014544,-0.087057,-0.150956,-0.106350,-0.002435,-0.095806,-0.011115
-0.005762,0.007329,-0.012079,0.011728,0.256138,0.083421,0.011277,0.058900,-0.073527
0.039857,0.011481,0.020706,0.034677,0.160512,0.013442,0.019303,0.034789,0.028252
-0.004413,-0.096621,-0.003856,0.012926,0.206395,0.030459,-0.005745,-0.096593,-0.052166
-0.030186,-0.019751,-0.041247,-0.002985,0.304828,-0.080403,-0.024037,-0.052505,-0.022486
-0.000357,0.017599,0.000251,0.021601,0.185662,0.040273,-0.009123,0.046973,0.014658
-0.085293,-0.025116,-0.057295,0.004965,0.296180,-0.001044,-0.063131,0.030644,-0.055444
0.057598,0.083287,-0.042020,-0.118083,0.140307,0.149609,-0.013717,-0.144784,-0.080418
0.006866,-0.075276,0.011930,0.044012,0.218701,0.033082,-0.040192,-0.079410,-0.035160
0.085444,0.279815,0.038316,-0.046707,0.112634,0.015219,-0.068864,-0.361129,-0.060378
0.006504,-0.066572,-0.002005,-0.119926,0.124733,-0.119174,0.022406,-0.070971,0.039374
0.080414,0.320811,0.075379,-0.047815,-0.194911,-0.072802,-0.020326,-0.138831,0.000975
-0.035316,-0.070555,-0.044095,-0.056220,0.306864,-0.068405,-0.038557,-0.071939,-0.041979
-0.033883,-0.085721,-0.044781,-0.024882,0.132031,-0.049844,-0.055297,-0.043138,-0.038695
-0.057054,-0.046176,-0.050829,-0.055071,0.221574,-0.069027,-0.078545,-0.045409,-0.064123
0.048394,0.178946,0.032611,0.007371,-0.074411,-0.032387,-0.040515,-0.082113,-0.040572
-0.117557,0.039822,0.006712,0.128920,0.156575,-0.128509,-0.054672,0.011645,0.042715
-0.033070,-0.024379,-0.027207,-0.043756,-0.092010,-0.027395,-0.049945,-0.041796,-0.041580
0.049885,0.325964,0.092366,-0.069410,-0.026009,-0.050971,-0.038799,-0.237403,-0.058064
0.008211,0.036214,-0.021261,0.281057,0.125914,-0.269469,-0.000487,-0.010295,-0.035300
-0.084402,0.022082,0.016602,-0.126775,0.252865,-0.078305,-0.079654,0.039147,0.021952
0.011367,-0.160853,-0.079022,0.082835,0.022592,-0.071164,0.033086,0.144429,0.031273
-0.000187,-0.100914,0.129859,-0.092790,-0.211634,0.310354,-0.026065,-0.144527,0.127726
-0.030463,-0.044469,-0.007609,0.016279,-0.248984,0.046666,0.040312,0.293805,0.018984
-0.005278,0.086520,-0.017629,-0.114731,0.169108,0.129314,-0.165128,-0.110668,0.043587
-0.046310,-0.030954,-0.047373,-0.092660,0.249400,-0.106291,-0.001219,-0.164968,-0.045027
0.022771,-0.026165,0.013247,0.008232,0.176444,0.006257,-0.087721,-0.160265,-0.085171
0.039778,0.213873,0.040560,0.090721,0.031401,0.078691,-0.113908,-0.193531,-0.076941
-0.055572,-0.175724,-0.042676,-0.013155,-0.075676,-0.014023,0.087518,0.232724,0.074966
0.041806,0.096183,0.043601,0.053526,0.074647,0.085041,0.029897,0.112899,0.030923
-0.075496,-0.046655,0.078979,-0.067680,0.064248,0.162173,-0.045609,-0.087353,0.122368
-0.012411,-0.050636,0.008255,-0.075815,-0.010709,-0.064911,-0.004306,-0.089896,0.006690
0.046059,-0.054110,-0.045734,0.142389,-0.117269,-0.105798,0.107873,0.024482,-0.029640
-0.008804,-0.057442,-0.028403,-0.067717,-0.009986,-0.065470,-0.012058,-0.068056,-0.023544
-0.046536,-0.038629,-0.048052,-0.043007,0.281641,-0.099393,-0.045043,-0.124146,-0.040314
0.032443,0.143344,0.019881,0.009003,0.072211,0.027666,-0.108990,-0.170912,-0.055915
0.084099,-0.029050,-0.063918,0.271083,-0.036776,-0.224388,0.086354,-0.024774,-0.061087
-0.031267,-0.057557,-0.034071,-0.055786,-0.073366,-0.060568,-0.028108,-0.085002,-0.023428
0.081519,0.280752,0.051586,0.003814,-0.159061,-0.053792,-0.010145,-0.053151,-0.051952
0.013644,-0.114413,0.054563,-0.028849,-0.169859,0.260235,-0.081982,0.061550,0.016502
-0.119751,-0.018279,0.009325,-0.021153,0.278448,-0.024854,-0.007621,0.005267,-0.136766
-0.010881,-0.185702,-0.024117,-0.034079,-0.044478,-0.037262,0.040254,0.244995,0.039025
-0.050211,-0.102872,-0.040558,-0.045442,0.380358,-0.070607,-0.045309,-0.052305,-0.052952
0.002900,0.353927,-0.005829,-0.045119,0.002763,-0.034824,0.002195,-0.269775,0.010797
0.034239,0.036958,-0.027469,0.011314,0.221065,0.011436,-0.022714,0.021191,0.054843
-0.045491,-0.194893,-0.033089,-0.044810,-0.094165,-0.015077,0.076234,0.273078,0.082564
-0.019950,0.070828,-0.021567,0.046513,0.141848,0.051683,-0.023662,0.034023,-0.030290
0.021884,0.042364,0.028518,0.038361,0.161421,0.047411,0.031228,0.028297,0.051245
-0.049428,-0.065991,0.093776,-0.244229,-0.115254,0.364438,-0.021415,-0.015162,0.043098
-0.012613,-0.057298,0.023272,-0.016394,-0.134357,0.049951,-0.006080,0.107737,0.210384
0.083128,0.217707,0.087429,-0.003114,-0.039698,-0.030728,-0.053765,-0.206559,-0.086667
-0.026590,-0.045981,-0.004777,-0.039542,-0.221621,-0.076170,0.088655,0.230240,0.059149
0.025283,-0.081963,0.028768,-0.061661,-0.207128,0.212004,-0.014107,-0.111628,0.097530
0.039881,0.018202,-0.038883,0.198729,0.005116,-0.215385,0.046507,-0.019370,-0.055457
0.021735,0.036471,0.028738,0.026773,-0.242083,0.072595,0.036151,0.098970,0.033821
0.017339,0.042388,0.024959,-0.149849,-0.101531,0.320660,-0.029264,-0.072442,0.005642
0.104487,-0.054266,-0.070109,0.274801,-0.049827,-0.227838,0.092889,-0.021599,-0.060630
0.106754,0.018977,0.089324,0.024819,-0.373243,-0.033718,0.120060,-0.024567,0.082310
-0.052366,-0.092352,-0.004629,-0.078886,0.053429,0.051065,0.003476,0.117616,0.195816
-0.027573,-0.051050,-0.025227,-0.058737,-0.053272,-0.028457,-0.046316,-0.058296,-0.039652
0.092679,0.006565,-0.077119,0.194799,-0.042210,-0.130775,0.069241,-0.036523,-0.099039
-0.032982,-0.009045,0.039355,-0.298551,-0.007237,0.319772,-0.027109,-0.031085,0.054043
0.021291,0.021954,0.025767,0.004211,0.187167,0.008857,0.031897,-0.001361,0.024640
-0.014333,-0.010379,0.031532,-0.167478,-0.106324,0.286942,-0.012382,-0.023378,0.036344
-0.040115,-0.056847,-0.044437,-0.036648,0.054137,-0.048429,-0.037229,-0.039665,-0.055525
-0.045274,-0.049657,-0.022572,-0.021516,-0.202992,0.013587,0.022516,0.204264,0.047880
0.000544,0.016896,0.010429,0.021809,0.170306,0.011827,0.007804,0.019503,0.003518
-0.051513,-0.032218,-0.131396,0.036336,0.216474,-0.038746,-0.057756,0.007397,-0.041389
-0.163171,-0.009827,-0.014767,-0.081005,0.205420,0.041615,0.016171,0.048531,-0.027744
-0.041538,0.147546,0.038242,-0.012145,-0.228938,-0.037093,0.065621,0.179673,-0.023338
-0.013022,-0.002760,-0.013736,-0.072358,-0.247013,-0.027090,-0.012618,0.278498,0.064209
0.025542,-0.100325,-0.024662,0.293494,-0.231194,-0.053784,0.002393,-0.047398,0.001129
-0.105707,-0.039436,-0.106435,-0.024482,0.109129,-0.064807,-0.075362,-0.058781,-0.071228
0.067717,0.229647,0.048408,-0.008292,0.017499,-0.002191,-0.069858,-0.222911,-0.058701
0.008651,-0.096610,0.080277,-0.003551,-0.105967,0.070293,-0.009758,-0.117339,0.099899
-0.029891,-0.072922,-0.011348,-0.073111,-0.078999,-0.077059,-0.006751,-0.064021,-0.005883
-0.110637,-0.184795,-0.064703,-0.043076,-0.045357,-0.018305,0.070983,0.237768,0.083943
0.067941,-0.023947,-0.034177,0.396998,-0.052627,-0.348732,0.070802,-0.044837,-0.040496
-0.010616,-0.208827,0.078488,0.055178,-0.066715,0.045123,0.046221,0.114649,0.027310
0.032872,-0.067716,0.028854,0.275511,-0.196345,-0.077875,0.056400,-0.069771,0.002190
-0.095323,-0.091921,-0.090754,-0.017004,0.323203,-0.073427,-0.087109,-0.047008,-0.084415
0.062180,0.313878,0.078616,-0.085818,-0.255049,-0.099329,0.018418,-0.086488,0.021757
0.013842,0.238450,-0.002528,-0.004023,-0.201374,0.023761,-0.029652,0.024015,-0.027806
-0.003695,-0.070162,0.008602,-0.082909,-0.209871,0.066478,0.019649,0.135579,0.132150
0.105025,0.238976,0.055591,-0.054042,0.046932,-0.084472,-0.083724,-0.214569,-0.068834
-0.052406,-0.063039,-0.067285,-0.016703,0.046634,-0.057108,-0.053995,-0.033003,-0.066711
0.097900,-0.024692,-0.037692,0.097169,0.017345,-0.130304,0.015777,-0.143058,0.063360
-0.032684,0.002138,0.056054,-0.211245,-0.012262,0.222137,-0.047856,-0.050336,0.076685
-0.008629,-0.063509,-0.002341,-0.061639,-0.052358,-0.056371,-0.006003,-0.068710,-0.004249
-0.006282,-0.024723,-0.055195,-0.050716,0.293916,-0.114420,-0.057224,-0.131540,-0.027338
-0.077551,-0.051379,-0.076919,-0.066351,-0.000611,-0.062356,-0.033382,-0.043603,-0.040807
-0.069802,-0.016655,-0.086557,-0.024462,0.167018,-0.043822,-0.064390,-0.059258,-0.050956
-0.058509,-0.024590,0.076439,-0.292990,-0.019967,0.310921,-0.070864,-0.013133,0.076990
-0.041879,-0.029554,0.055037,-0.232379,-0.027793,0.284113,-0.053581,-0.028657,0.083018
-0.071811,-0.235767,-0.037746,0.008509,-0.061780,-0.003961,0.055503,0.291179,0.047599
-0.026335,-0.138869,-0.008227,0.060049,0.050620,0.035865,-0.012202,-0.126282,-0.023946
-0.062032,-0.042819,-0.078368,-0.077120,-0.007195,-0.079548,-0.033169,-0.048141,-0.049066
0.013650,-0.082475,-0.049225,0.066526,-0.018805,-0.143067,0.090955,0.143845,0.027658
0.008542,0.043226,0.001647,0.051742,0.219682,0.018646,-0.026059,0.039304,-0.015723
0.020157,0.038183,-0.040788,-0.041679,0.172745,-0.159727,-0.050749,-0.188337,-0.003967
-0.000527,0.029515,0.152463,-0.012943,0.046766,0.155265,-0.025786,0.006653,0.005175
-0.042749,-0.170616,-0.022766,-0.061739,-0.186618,-0.098079,0.043946,0.508683,0.048675
-0.057241,-0.173964,-0.041265,-0.032923,-0.106021,-0.061698,0.082526,0.299440,0.083827
-0.114307,-0.052854,0.038166,-0.166417,0.004816,0.148780,-0.009898,0.055063,0.125382
0.061906,0.210269,0.057837,-0.020805,0.018766,0.001982,-0.054988,-0.218633,-0.035084
0.005266,-0.099152,0.005488,-0.028713,0.257331,-0.033114,-0.040067,-0.132437,-0.028713
-0.019405,-0.003825,-0.014259,-0.075145,0.270888,-0.027460,-0.021046,-0.018521,-0.000985
0.028395,-0.024236,-0.024798,0.190407,0.032311,-0.216989,0.061972,-0.017369,-0.033363
-0.024659,-0.125337,-0.062302,0.116684,-0.025000,-0.103168,0.076537,0.121543,0.018623
-0.025263,-0.026375,0.056251,-0.264235,-0.106354,0.351922,-0.018820,-0.044009,0.062073
-0.077760,-0.167313,-0.115581,0.032177,0.012942,-0.049259,0.109074,0.185557,0.066526
0.064280,-0.006720,-0.077799,0.318575,0.028270,-0.315227,0.079279,-0.024518,-0.070733
-0.077790,-0.199215,-0.041224,-0.005937,-0.169091,-0.038927,0.081541,0.371505,0.074612
-0.008487,-0.017147,0.010988,-0.020536,-0.158834,0.274798,-0.036362,-0.006068,0.052413
0.098777,0.075654,-0.021864,0.173581,-0.024254,-0.190717,0.043116,-0.111492,-0.056999
0.022772,0.037072,0.004112,0.002654,0.102798,0.018648,0.024983,0.021364,-0.007377
-0.042357,-0.296670,-0.035972,-0.047217,-0.043693,-0.001547,0.074531,0.344122,0.050323
-0.048323,-0.055017,-0.045976,-0.063254,-0.038819,-0.059850,-0.025836,-0.060838,-0.041756
0.142197,0.146184,-0.000583,0.053691,0.051925,-0.078837,0.017891,-0.062544,-0.131196
-0.040324,-0.060485,-0.029015,-0.093989,0.240866,-0.087435,-0.030711,-0.054583,-0.003507
0.017457,0.199731,0.096114,-0.087381,-0.175101,0.053762,-0.067356,-0.084681,-0.013420
0.005818,0.030484,0.001251,0.017465,0.218979,0.038177,0.016618,0.017606,0.033956
0.020276,0.018882,0.044691,-0.008220,0.157782,-0.019025,0.013253,0.016009,0.001577
-0.046766,-0.023899,-0.054006,-0.021274,0.263665,-0.036323,-0.088817,-0.073500,-0.038113
-0.002063,0.015476,0.000112,0.029365,0.198027,0.019243,0.000505,0.038326,0.001143
-0.007666,0.086734,-0.052350,0.000054,0.237787,-0.074701,0.016291,-0.075291,-0.024083
-0.055325,-0.007592,0.043184,-0.243235,-0.067137,0.286269,-0.055842,0.002317,0.057969
0.050489,0.048045,0.034189,0.083572,-0.359852,0.091874,0.057655,0.083087,0.041940
0.004320,-0.113128,0.001757,-0.035422,-0.200728,-0.030013,0.042021,0.292940,0.048710
-0.048064,-0.001418,0.044232,-0.200314,-0.026556,0.255487,-0.045035,-0.029552,0.064170
-0.042692,-0.048537,-0.090513,0.053985,0.174650,-0.044724,0.011003,0.074423,0.031487
0.005043,-0.037140,-0.019010,-0.068113,-0.068245,-0.054015,0.007262,-0.031789,-0.016263
0.006005,0.024050,0.009911,0.023569,0.156826,0.032251,0.006931,0.020082,0.014122
-0.103159,-0.023700,-0.121108,-0.069034,0.470513,-0.078210,-0.113782,-0.053998,-0.120745
-0.023759,-0.040509,-0.035093,-0.059670,-0.036542,-0.074096,-0.051924,-0.085041,-0.067704
0.014783,-0.101654,0.024598,-0.073831,-0.285597,0.088080,0.050793,0.070926,0.205287
-0.068201,-0.108022,-0.036404,-0.023492,0.149440,-0.103811,-0.046029,-0.090648,-0.066670
-0.043374,0.014318,-0.074823,-0.104805,0.004343,-0.104632,-0.026255,-0.006147,-0.048314
0.108823,0.153413,0.101758,-0.031786,0.012436,-0.030965,-0.079559,-0.148528,-0.086580
0.015705,0.030859,-0.051391,0.235854,0.056987,-0.260929,-0.000172,0.031023,-0.039478
-0.049506,-0.044251,-0.067573,-0.030325,0.308862,-0.059615,-0.055393,-0.090141,-0.019732
-0.033701,-0.047906,-0.050851,-0.035534,-0.067935,-0.041384,-0.023885,-0.062682,-0.039062
0.075641,0.182724,0.062453,0.004339,0.067613,-0.024477,-0.075500,-0.212095,-0.076539
-0.017603,-0.119323,-0.048964,0.190933,-0.037085,0.164896,-0.000974,-0.107018,0.003328
0.182784,0.085451,0.025936,0.100599,-0.208606,-0.113891,0.033539,-0.106981,-0.006443
-0.023378,-0.063735,-0.020482,-0.062648,-0.088457,-0.079474,-0.024929,-0.041528,-0.011314
-0.021376,-0.016532,-0.114597,-0.045800,0.305427,-0.003912,-0.107305,-0.004857,0.008224
-0.029516,-0.099193,0.007963,-0.005253,-0.060069,-0.031498,-0.022105,-0.026830,-0.036289
0.010519,0.088387,-0.087815,0.133624,0.040428,-0.078603,0.060237,-0.057278,-0.100045
0.093302,-0.072819,-0.024820,0.380081,-0.331172,-0.041340,0.077913,-0.077528,-0.027053
0.013872,0.025118,0.000535,0.021796,0.061270,0.033040,-0.001068,0.028875,-0.008790
0.010107,0.028310,0.012763,0.024471,0.188001,0.046872,-0.003482,0.061714,0.017683
-0.029307,-0.105507,-0.025053,-0.058446,0.190346,-0.089626,-0.038938,-0.105246,-0.033109
-0.046536,-0.022869,0.071966,-0.209741,-0.073083,0.284525,-0.037369,-0.023898,0.061558
-0.035059,-0.210850,-0.032626,-0.012584,-0.096858,-0.005728,0.059142,0.284418,0.043865
-0.012634,-0.106455,-0.118962,0.072464,0.001321,-0.093209,0.058519,0.145235,0.033139
-0.053998,-0.068545,-0.043907,-0.065186,0.268193,-0.068354,-0.066607,-0.057440,-0.050174
-0.013736,-0.081468,-0.036101,-0.039924,-0.077469,-0.043343,-0.038000,-0.063934,-0.027941
