-0.009395
-0.036496
0.151111
-0.023915
0.115748
0.078541
0.019702
0.345838
0.087781
0.046066
0.185021
-0.059827
-0.022715
0.064350
0.065672
0.098548
0.081740
0.146082
0.080139
0.032211
0.106739
-0.028262
-0.025695
0.128913
-0.071405
0.058735
-0.058824
0.163009
0.137400
-0.023037
0.116680
0.054503
0.026537
0.090827
0.020868
0.052027
0.033893
0.008490
0.180474
0.061560
0.005763
-0.009537
-0.066688
-0.026605
0.061330
0.088794
-0.007965
-0.005439
0.010946
0.120266
0.013420
0.012284
-0.025161
0.053197
0.092105
0.036639
0.176135
0.074494
0.033249
-0.046375
-0.038578
-0.016435
0.079496
0.066197
0.008937
0.081832
0.142753
0.092395
0.069452
-0.001551
0.010385
0.055232
0.024484
-0.038758
0.050370
-0.037921
-0.041190
-0.069397
0.060536
-0.038191
-0.013583
0.074048
0.093237
0.067329
0.059497
-0.068266
0.055542
0.037526
-0.045205
0.140415
0.022568
0.059072
-0.007358
0.111585
0.021749
-0.043519
0.063166
-0.039805
-0.033806
0.038418
0.056848
0.077038
-0.044706
0.020880
0.179819
-0.032159
0.042963
0.057924
0.101327
-0.073281
0.050532
0.087776
-0.021244
0.121120
-0.037938
0.110571
0.038204
0.006442
0.017940
-0.006302
0.005976
0.067452
-0.036205
0.005483
0.075029
0.058734
0.098154
0.096092
-0.056330
0.046885
0.147319
0.061857
0.111434
-0.017001
0.113480
0.064308
-0.037793
-0.052014
0.077340
0.067838
-0.097771
0.096881
0.122188
-0.005035
0.052678
-0.021722
0.106946
0.052655
0.019638
-0.002626
0.096476
0.015960
-0.110394
0.117147
0.045698
0.083585
0.022871
0.081092
0.028178
0.073396
0.004703
-0.078341
0.068329
0.040356
0.066241
0.019625
0.033233
0.004650
0.010933
0.008459
0.036110
0.076063
0.119793
0.018863
0.101765
-0.018580
0.058841
0.003519
0.014016
0.020682
-0.032535
0.095005
0.009727
0.095843
0.139675
0.023154
-0.113966
0.049913
0.142681
0.086420
-0.050241
0.057544
0.114189
-0.001784
0.095686
-0.014139
0.005158
-0.046598
-0.028922
-0.058262
0.192712
0.015587
0.029460
0.059790
0.105255
0.115668
-0.035897
-0.006160
0.013380
-0.058407
-0.047660
0.202247
0.033237
0.097106
0.000319
0.011135
0.130751
0.014446
0.106290
-0.021596
0.044589
0.159398
-0.003562
0.033297
0.111117
0.052028
0.043283
0.030514
0.102815
0.029562
0.070200
0.005444
0.103461
0.079710
-0.050024
0.114459
-0.033287
-0.133785
0.153369
-0.012153
0.007022
0.069175
0.087669
0.123828
-0.065278
-0.003573
0.148329
-0.002940
0.055770
-0.025034
-0.025110
0.047449
0.181911
0.022762
-0.015926
0.079638
0.088326
-0.014124
0.093047
-0.045028
0.012160
0.085041
0.057729
0.147960
0.066277
0.000929
-0.005940
0.046569
0.057032
0.044916
-0.001890
0.065122
0.100629
0.132817
0.052505
0.124725
-0.015472
-0.061541
0.015423
0.044917
-0.047735
-0.006776
0.075054
0.035625
0.083969
-0.044354
0.056635
0.106204
0.043976
0.079251
0.021235
0.139061
-0.029081
0.044215
0.077067
0.020111
0.114330
0.091892
0.005859
-0.011884
0.010232
-0.059216
0.154526
-0.031950
0.092516
0.095114
0.088482
0.066140
0.037731
-0.000718
-0.050001
0.093503
-0.017222
-0.008296
-0.013299
-0.025877
-0.003695
0.121736
-0.042515
-0.045624
-0.023361
-0.068234
-0.023400
0.126822
0.065366
-0.011752
0.103442
-0.010566
0.045998
-0.023574
0.043188
-0.039973
0.138821
-0.040766
0.091792
0.028580
-0.026962
0.056216
0.000079
-0.039465
0.095852
0.000140
0.108364
0.035089
0.019659
-0.006344
0.021678
-0.009248
0.014112
0.113857
0.050770
0.156695
-0.007720
0.083809
-0.157831
0.119709
0.000459
0.071389
0.189889
0.146442
0.078879
-0.031818
-0.101858
0.069515
-0.026904
0.095556
0.142605
0.102537
0.150226
-0.047427
0.017998
0.125131
0.068123
-0.109165
-0.057205
-0.051166
0.013481
-0.046826
-0.011512
-0.043405
0.094055
0.037847
0.033529
0.050378
-0.047116
0.070407
-0.046982
-0.089964
0.009674
0.030702
0.003275
0.124896
-0.016523
0.054609
-0.059747
0.022160
0.086210
0.137745
-0.028421
-0.020577
0.117854
-0.034669
0.069775
0.007023
-0.006919
0.022535
0.127042
0.068272
0.028537
-0.008188
0.029499
0.060740
0.016703
-0.046836
0.026509
-0.016999
0.085207
0.143871
0.047964
-0.016975
-0.002402
0.041001
0.007812
-0.020707
0.027532
0.098196
0.011901
0.057498
0.098367
-0.005580
0.023817
0.120166
0.048785
0.085225
0.079274
0.116173
0.073165
0.115885
0.061952
0.028219
0.133569
0.026790
0.049007
0.032393
-0.066959
0.014267
-0.030441
0.180075
0.113407
0.055544
0.007094
-0.049076
0.014108
0.080702
0.016436
0.120665
0.024625
-0.033650
0.072374
0.033209
0.022314
0.115430
0.029337
0.034522
-0.074588
0.144032
0.131555
0.004539
0.001927
0.025845
0.089170
0.145085
0.167884
-0.020085
0.022124
0.061666
0.147015
-0.050272
0.132430
0.105265
-0.069000
0.095998
0.059799
0.091607
0.113360
0.102688
0.111219
-0.005476
0.083639
0.016378
0.127062
-0.034544
0.077905
0.077033
0.040190
0.072266
-0.003513
-0.066765
0.039291
0.013803
0.058393
-0.007241
-0.042276
0.083599
0.070015
0.144756
0.084403
-0.008578
0.065529
0.063374
0.034220
0.139416
0.084011
-0.040391
0.036890
-0.008621
-0.053328
0.001561
0.108044
0.055910
0.102175
0.136579
0.026294
0.021170
0.123775
0.083523
0.112127
-0.042547
0.129929
-0.018759
0.038880
0.039444
0.032488
0.071474
-0.010453
0.002628
-0.015724
0.033601
-0.015012
0.062033
0.042559
0.014302
0.035298
0.023353
0.176344
0.013704
-0.052459
0.042464
0.017799
-0.023470
0.020662
0.012859
0.063162
-0.081403
-0.025515
0.034121
0.062841
0.069419
0.002679
0.124342
0.048556
0.062493
0.052988
-0.015746
0.073834
-0.065680
-0.035754
0.051043
0.073880
0.087104
0.021398
0.078497
0.048453
0.012166
0.111623
0.047296
-0.038375
0.030934
-0.048862
0.092888
-0.027322
0.018814
0.019982
0.073930
0.016213
0.043357
-0.010737
0.092829
0.080973
0.099451
0.035560
0.104773
0.035471
-0.013979
0.034829
0.045895
0.034194
-0.051229
0.038014
0.020120
-0.015397
-0.011105
-0.041818
0.136377
0.140549
-0.085693
0.056480
0.006855
0.078597
0.068861
0.066422
0.178816
-0.033708
-0.054036
0.065875
0.019351
-0.036416
-0.027253
0.123428
0.004013
0.080601
0.000807
0.068661
0.037746
0.097605
0.077080
0.144677
0.119709
0.076488
0.034905
0.050915
-0.001412
0.085968
0.029263
0.094414
0.115241
0.120446
0.066332
-0.007182
0.021221
0.081056
0.059030
0.060399
-0.022002
0.055103
-0.016392
0.022321
0.052376
-0.004170
0.149030
0.003161
0.095713
0.046091
-0.022735
0.119340
-0.001515
0.063438
0.097788
0.115618
0.045689
-0.016796
0.021529
0.084944
0.058696
0.100230
-0.034194
0.021716
0.040424
-0.002576
-0.019504
0.064487
0.075260
-0.056865
0.075038
0.032816
-0.051402
0.027022
0.109891
-0.036438
0.088214
-0.002886
0.054015
0.066532
0.007420
0.083978
0.123138
0.126392
0.079038
-0.095115
-0.017274
-0.038937
-0.040991
-0.017285
-0.086332
0.134207
-0.026572
0.103987
-0.010262
0.075865
0.113882
0.102606
0.053052
0.064154
-0.018004
-0.152212
-0.033312
0.019567
0.127637
0.060112
-0.081563
-0.058941
-0.014674
0.050529
-0.005280
0.004273
0.086695
0.091913
0.013502
0.144436
0.054226
0.118402
0.083185
-0.079275
-0.074883
0.071110
-0.026417
0.037256
0.083310
-0.055261
0.104164
0.096036
0.074822
0.063481
0.014500
-0.001845
0.004783
0.067870
0.088523
0.103178
-0.012140
0.061513
0.077391
0.036119
0.023163
0.095588
0.009086
0.023778
0.003820
0.003341
0.065508
-0.001324
0.077877
-0.020609
-0.027320
-0.016498
-0.066594
-0.047283
0.157574
0.058757
-0.026323
0.069078
0.093790
0.081615
0.100464
0.048154
-0.013761
-0.048227
0.075557
0.074096
0.089250
0.100313
0.101519
0.027772
0.061302
0.122219
0.061989
0.123842
0.008265
0.084936
0.085265
0.128931
0.055323
-0.058239
0.017366
0.044033
0.120803
-0.033354
0.128778
0.029970
0.129142
0.096196
0.065932
-0.014701
0.009145
0.107615
0.014640
0.064418
0.150488
0.075001
0.016806
0.117821
0.023372
0.018605
-0.048512
0.105176
0.118249
0.127946
0.080573
-0.079341
0.081258
0.159277
0.085917
0.032903
0.033998
0.038165
0.093052
0.091199
0.117074
0.071617
0.040815
0.116529
0.072113
0.047163
-0.036359
0.090396
0.063397
-0.011389
0.071884
0.040131
0.090671
0.020879
0.076479
0.184129
0.135068
-0.020267
-0.003911
0.086260
0.060404
0.044386
0.056168
0.150174
0.035201
0.094628
0.165524
0.007041
0.166892
0.044720
0.042000
0.044305
-0.028494
-0.024786
-0.008276
-0.016901
0.059106
0.055190
-0.104122
-0.011578
0.026397
0.105165
0.030737
0.001741
-0.027606
-0.030881
-0.030584
-0.040453
-0.001385
0.067127
-0.024527
-0.019181
0.055916
0.076824
-0.028942
-0.012684
-0.026828
-0.022691
-0.050545
-0.093894
0.085882
0.000661
-0.025420
-0.004250
-0.031610
0.072529
0.088400
0.122132
-0.047429
0.062468
0.032225
-0.061644
0.066971
-0.054352
-0.041154
0.072831
0.030210
0.031830
-0.010163
0.056151
0.052397
0.044743
0.049695
0.010478
0.056789
0.112976
0.021868
-0.011525
0.078464
0.011857
0.117778
0.108265
-0.002720
-0.062945
0.080126
-0.002940
0.030911
0.058737
0.002541
-0.106242
-0.008922
0.022851
0.081949
0.155826
0.079727
0.153694
0.042091
0.011743
-0.020958
0.021444
-0.060952
0.039664
0.025585
0.089271
0.111941
0.135843
0.086949
0.074729
0.033741
0.030860
0.063955
-0.007488
0.078769
0.080039
-0.021177
-0.028212
0.136373
-0.036006
-0.104460
-0.005975
0.111284
0.013844
0.034053
0.091381
-0.029698
0.015034
-0.020765
0.051502
0.060118
0.040852
0.140982
0.111110
0.023039
