0.014759,0.081308,0.016596,0.061358,0.299940,0.106359,0.042362,0.040421,0.054699
-0.040731,-0.009755,-0.053687,-0.029937,0.150495,0.008826,0.025687,0.094961,0.031347
-0.048143,0.032766,-0.058284,-0.090544,-0.231084,-0.093794,0.132278,0.170788,0.142596
-0.044745,-0.050768,-0.054547,-0.041008,-0.040074,-0.052163,-0.040838,-0.039503,-0.055039
0.025772,0.042219,0.018858,0.033638,0.274461,0.050338,0.023751,0.062163,0.028274
-0.056214,-0.030110,-0.058084,-0.042796,-0.016445,-0.044321,-0.044493,-0.052544,-0.055307
0.021958,0.061083,0.029207,0.128647,0.018691,-0.075393,0.074602,0.038062,-0.017462
0.077260,-0.203038,0.063374,0.158204,-0.329750,0.178759,0.067553,-0.182992,0.064575
-0.029831,-0.064777,-0.043007,-0.046150,-0.048256,-0.050163,-0.050431,-0.049231,-0.054521
-0.053365,-0.030840,-0.050665,-0.046635,-0.060272,-0.053837,-0.044119,-0.037365,-0.047068
-0.030924,-0.063778,-0.034968,-0.060952,-0.085142,-0.069566,-0.046437,-0.048408,-0.054957
-0.006656,0.041406,0.003460,0.047187,0.113235,0.056957,0.010378,0.039158,0.013786
0.015279,0.085775,0.015531,0.071064,0.118158,0.083495,0.047060,0.072580,0.053409
-0.033026,-0.039761,-0.036390,-0.039682,-0.067442,-0.049162,-0.055480,-0.056740,-0.054255
-0.027106,-0.034152,-0.032983,-0.043128,-0.133446,-0.044406,0.079790,0.232706,0.101394
0.053316,0.124042,0.065594,-0.047284,0.126617,-0.040414,-0.077302,-0.135098,-0.080158
-0.031798,-0.068167,-0.031713,-0.043251,-0.050137,-0.053269,-0.041906,-0.057106,-0.054470
-0.048742,-0.072129,-0.055407,-0.085081,0.053029,-0.069124,-0.089050,-0.031920,-0.094476
-0.067580,0.014822,0.062202,-0.145028,-0.039868,0.152177,-0.062542,-0.015126,0.069513
-0.059030,-0.031362,-0.065743,-0.035269,-0.009696,-0.039400,-0.058970,-0.042513,-0.064881
0.076025,-0.028863,-0.050765,0.173722,-0.014316,-0.151598,0.066376,-0.026041,-0.049137
0.095436,0.154874,0.108809,0.000766,-0.104727,0.006686,-0.040005,-0.067538,-0.041646
-0.015052,-0.049877,-0.023153,-0.052151,-0.062832,-0.051279,-0.042711,-0.065992,-0.051136
-0.051884,0.005804,0.089734,-0.132685,-0.089302,0.162802,-0.100705,-0.012118,0.099087
0.053543,-0.035824,0.054458,0.076269,-0.209883,0.064345,0.097067,0.110807,0.111935
-0.073699,-0.037695,-0.078065,-0.078359,0.418681,-0.048718,-0.082301,-0.013033,-0.094512
-0.047769,-0.185237,-0.074511,-0.021183,0.033150,0.004441,0.090269,0.228900,0.105030
-0.042033,-0.058565,-0.045707,-0.068891,-0.020999,-0.072802,-0.030800,-0.093668,-0.038644
-0.041927,-0.072096,-0.052337,-0.058652,-0.017716,-0.060582,-0.037596,-0.073440,-0.037019
0.034642,0.107480,0.041691,0.044841,0.107093,0.049677,0.038464,-0.082097,0.039692
-0.080480,-0.001883,0.079103,-0.098691,-0.051734,0.138914,-0.084878,-0.008378,0.092000
0.056941,0.130088,0.075155,0.014797,0.030766,0.021799,-0.060393,-0.176506,-0.065370
-0.074308,-0.009549,-0.036206,-0.094222,0.121807,0.084155,-0.132119,0.093143,0.006369
-0.069060,-0.043555,-0.065862,-0.059614,0.026332,-0.060238,-0.059693,-0.054675,-0.057577
-0.029631,-0.036193,-0.037178,-0.035806,-0.037431,-0.039787,-0.051926,-0.035237,-0.053553
-0.053310,-0.136793,-0.059782,-0.000055,0.028342,0.004407,0.041575,0.186513,0.053383
0.051220,0.089509,0.062811,0.047351,0.032838,0.059603,-0.090026,-0.154814,-0.097416
-0.046827,-0.055012,-0.058590,-0.048174,0.080445,-0.045663,-0.072507,-0.043997,-0.078399
-0.033115,-0.069573,-0.014285,-0.063604,-0.151406,-0.069684,-0.022654,-0.059801,-0.011737
-0.045073,-0.043734,0.055764,-0.142209,-0.038970,0.125586,-0.081325,-0.044105,0.085060
-0.029136,-0.048985,-0.033377,-0.058062,-0.029071,-0.063470,-0.041827,-0.048992,-0.046839
-0.007688,0.057729,0.000399,0.056398,0.165768,0.070561,-0.032115,0.064333,-0.020919
-0.018724,0.039183,-0.013989,0.084696,0.107908,0.077490,0.026011,0.091589,0.031109
0.018721,0.088764,0.025630,-0.054151,0.138726,-0.057727,-0.107701,-0.156927,-0.101669
0.067823,0.200617,0.085913,-0.029637,-0.076319,-0.047972,-0.035583,-0.029285,-0.037892
-0.040399,-0.039023,-0.049728,-0.049888,-0.018566,-0.054605,-0.063100,-0.045132,-0.074238
-0.024700,-0.256242,-0.040483,-0.029377,-0.002324,-0.035342,0.040692,0.224838,0.052370
0.008996,0.072941,0.023406,-0.000145,0.149174,0.008424,0.037833,0.057562,0.042971
0.007406,0.048547,0.014211,0.040772,0.201910,0.058847,0.007920,0.073499,0.008185
-0.044898,-0.069880,-0.042815,-0.074016,0.052326,-0.070826,-0.075083,-0.069224,-0.074945
-0.050583,-0.030088,-0.047777,-0.040197,-0.030769,-0.038512,-0.055521,-0.060794,-0.051648
-0.028126,-0.046698,-0.035412,-0.062302,-0.010202,-0.072298,-0.046099,-0.048682,-0.050092
0.018426,0.018668,0.024213,0.016030,0.191323,0.040803,0.042162,0.046411,0.040209
-0.136940,-0.179066,-0.142577,-0.071176,0.172274,-0.078580,-0.024036,0.087420,-0.010980
0.104852,-0.020578,-0.070720,0.163154,-0.028665,-0.118293,0.072129,-0.023263,-0.050497
0.083478,-0.036380,-0.067319,0.145278,0.001850,-0.142495,0.054158,-0.020735,-0.050694
0.000899,-0.038637,0.003291,-0.026471,-0.307582,-0.044233,-0.002855,-0.030471,-0.006757
-0.054721,-0.052223,0.060550,-0.093850,-0.045811,0.134458,-0.053963,-0.053644,0.071767
0.037784,0.167379,0.042505,-0.039714,0.042715,-0.038296,-0.109211,-0.189702,-0.123006
0.026422,0.089533,0.015809,0.084260,0.023752,0.077743,-0.021867,-0.168179,-0.094432
0.014203,0.077644,0.023327,0.100935,0.095909,0.102781,0.038033,0.132389,0.043613
-0.032830,-0.058359,-0.039669,-0.045323,-0.035088,-0.041933,-0.047022,-0.038544,-0.050984
0.017199,0.153621,0.036740,-0.001600,0.207075,0.015681,-0.058730,-0.220101,-0.077073
-0.073001,0.089827,0.017688,-0.124966,-0.074476,0.098526,-0.130318,0.107772,0.047723
-0.042704,-0.043341,-0.041859,-0.047659,-0.028343,-0.051029,-0.046039,-0.044242,-0.049180
0.159245,0.048210,0.163459,-0.028444,-0.268954,-0.033698,-0.013217,-0.057901,-0.035422
0.059813,-0.016208,-0.042525,0.166528,-0.006610,-0.163751,0.069125,-0.045597,-0.037192
-0.030665,-0.056529,-0.033929,-0.042489,-0.035095,-0.052598,-0.038205,-0.050047,-0.048715
-0.053949,-0.032535,-0.062883,-0.050204,-0.006077,-0.060814,-0.039106,-0.029908,-0.045348
-0.118542,0.096838,0.060271,-0.112700,-0.091722,0.122604,-0.089452,-0.088931,-0.094172
-0.000010,0.005788,-0.001206,0.066728,-0.252774,0.068587,0.133502,0.061412,0.150212
0.087580,0.175571,0.100345,-0.077826,-0.128472,-0.089349,-0.047662,-0.084480,-0.051671
0.017166,-0.026863,0.012811,0.029969,-0.237788,0.045780,0.092043,0.136689,0.104122
-0.011776,0.055887,-0.012648,0.041805,0.063862,0.050030,0.026153,0.036500,0.030932
0.025051,0.175699,0.044354,0.028436,-0.020372,0.038407,-0.050364,-0.165339,-0.060837
-0.027674,-0.028858,-0.032065,0.018796,0.194764,0.034991,0.008668,0.061522,0.018367
-0.049471,-0.040098,-0.058931,-0.045122,-0.038249,-0.040954,-0.043060,-0.051564,-0.051871
0.054517,0.155119,0.071860,0.063895,-0.086123,0.063633,-0.030098,-0.068254,-0.040962
-0.034542,-0.200504,-0.050062,-0.022259,0.024987,-0.029064,0.073621,0.171754,0.077383
0.010477,0.093518,0.017884,0.070927,0.168197,0.091221,0.004221,0.046840,-0.003721
0.081467,0.168021,0.090094,0.003978,-0.026482,0.004765,-0.062139,-0.164769,-0.075410
-0.025712,-0.038877,-0.034661,-0.047172,-0.070121,-0.058558,-0.040756,-0.055574,-0.047064
-0.030357,-0.031085,-0.025903,-0.040396,-0.071359,-0.044677,-0.049096,-0.073371,-0.052054
-0.047728,-0.040613,-0.051695,-0.034333,-0.022379,-0.031318,-0.049929,-0.042201,-0.054857
-0.048971,-0.046640,-0.053608,-0.036386,-0.008397,-0.043890,-0.055321,-0.043436,-0.061707
0.016561,0.115692,0.038639,0.073710,0.021958,0.052508,0.026020,0.097806,0.041633
-0.077645,-0.155580,-0.094387,0.068453,0.054314,-0.131886,0.065496,0.103498,-0.082063
-0.066454,-0.085868,-0.074373,-0.045705,-0.043700,-0.059278,0.099856,0.117374,0.113796
0.068260,0.050620,0.078428,0.086113,-0.094077,0.087725,0.080689,0.064897,0.083531
-0.044075,-0.007904,-0.047406,-0.094844,-0.177604,-0.103060,0.061918,0.248249,0.084001
-0.015393,-0.045915,-0.030740,-0.062352,-0.061759,-0.067229,-0.026485,-0.057562,-0.027023
-0.031369,-0.055639,-0.039309,-0.042320,-0.063739,-0.051839,-0.059482,-0.048634,-0.053662
-0.004708,0.028985,0.008369,0.043222,0.124508,0.051427,0.035581,-0.013831,0.042653
-0.054331,-0.170051,-0.080976,0.003764,-0.005954,-0.012617,0.071275,0.162822,0.090889
-0.108104,-0.100623,-0.110593,0.066871,0.123117,0.088108,0.005098,0.036354,0.015976
0.024588,0.083182,0.051818,0.032908,0.116300,0.036433,0.015864,-0.040684,0.020832
0.085270,0.146208,0.091573,-0.001487,-0.059495,-0.013273,-0.064473,-0.136305,-0.080101
-0.046550,0.001662,-0.045002,-0.022165,0.247452,0.004650,-0.038840,-0.008553,-0.037241
-0.011524,0.018196,-0.007629,0.029904,0.035792,0.045716,0.044867,0.094860,0.054777
-0.018774,-0.125114,-0.031694,-0.061985,-0.013561,-0.064551,0.055280,0.174028,0.067164
-0.108346,-0.130440,-0.114235,-0.101952,0.123317,-0.098111,0.052066,0.105543,0.060395
-0.042062,-0.034671,0.038411,-0.117577,-0.024794,0.142189,-0.073475,-0.069049,0.067917
0.024229,0.052859,-0.011868,-0.075388,0.181465,0.037753,0.004743,0.065454,-0.051973
0.083228,0.117658,0.091213,0.065163,-0.206006,0.053358,0.007281,-0.121056,-0.005028
-0.019876,-0.055035,-0.019315,-0.076019,-0.081448,-0.080235,-0.021854,-0.076003,-0.033248
0.004100,0.009849,0.005921,0.026223,0.165257,0.045195,0.024517,0.116564,0.040133
0.064134,-0.038977,-0.037403,0.158594,-0.036088,-0.162971,0.059542,-0.054454,-0.030665
-0.049711,-0.113678,-0.061325,-0.022245,-0.008459,-0.013895,0.074653,0.169488,0.081034
0.045546,-0.030887,-0.020694,0.195698,-0.044876,-0.132518,0.057986,-0.027858,-0.023744
-0.187534,0.088470,-0.174579,0.101234,0.449228,0.114643,-0.177995,0.091500,-0.185874
-0.058303,-0.038256,-0.062110,-0.038936,-0.007139,-0.043234,-0.057849,-0.040443,-0.053441
-0.050436,-0.030982,-0.062104,-0.049520,-0.047761,-0.055846,-0.046804,-0.043222,-0.052217
0.018578,-0.045711,0.021716,0.033507,0.108437,0.041085,0.036718,0.058017,0.055963
-0.072083,-0.019361,0.088759,-0.130232,-0.072753,0.197695,-0.063208,-0.039506,0.096047
-0.019409,0.080680,-0.008859,0.032989,0.146976,0.048576,-0.025565,-0.023389,-0.032320
-0.070258,-0.075125,-0.081038,-0.062221,0.059627,-0.054151,-0.104641,-0.065820,-0.086675
0.108358,-0.055442,-0.071394,0.143361,-0.077940,-0.040898,0.064162,-0.037154,-0.021471
-0.071140,-0.128978,-0.081456,0.024697,0.050746,0.034450,0.056647,0.108143,0.064151
-0.068502,-0.079031,-0.071140,-0.060431,0.383712,-0.054728,-0.098367,-0.006966,-0.101986
-0.027692,-0.049486,-0.032413,-0.049192,-0.031779,-0.046788,-0.062816,-0.040741,-0.058395
-0.043135,-0.038092,-0.042319,-0.041566,-0.033781,-0.050044,-0.061270,-0.043727,-0.060439
0.055286,0.123461,0.071029,0.017603,0.066748,0.022905,-0.063938,-0.173653,-0.089451
0.014499,0.155765,0.023677,0.071213,0.042371,0.082072,0.013795,-0.055538,0.016658
-0.038177,-0.039408,-0.054583,-0.019431,-0.029266,-0.032849,-0.057030,-0.030812,-0.049500
-0.047244,-0.071660,-0.060330,-0.021371,-0.131785,-0.030412,0.068018,0.203535,0.077265
0.007100,-0.140057,-0.005885,-0.062173,-0.034006,-0.067315,0.041710,0.184930,0.062397
0.072019,-0.042794,-0.050414,0.180373,-0.041749,-0.136261,0.070083,-0.060367,-0.040062
-0.040449,-0.041391,-0.041876,-0.060837,-0.024977,-0.064635,-0.045470,-0.050890,-0.047220
-0.013797,0.078103,-0.012724,0.054693,0.222919,0.073498,-0.009223,0.093009,-0.005112
0.004909,0.040871,0.005324,0.036630,0.183288,0.055403,0.005187,0.046944,-0.000211
-0.056583,-0.101788,-0.065262,-0.078270,0.160099,-0.062335,-0.092336,-0.079284,-0.093495
0.050726,0.117118,0.072324,-0.017421,0.087561,-0.019100,-0.088312,-0.150486,-0.097946
-0.113642,-0.026561,-0.115584,-0.032769,0.195900,0.013141,-0.094283,-0.003996,-0.112474
0.020234,0.043542,0.022134,0.073362,0.156375,0.075743,-0.014129,0.053496,-0.000613
0.054635,0.002510,-0.057790,0.167269,-0.022939,-0.135105,0.087211,-0.043544,-0.050819
0.061867,0.168964,0.078334,-0.005481,-0.003149,-0.007409,-0.047815,-0.160239,-0.075560
0.062777,0.124185,0.067419,0.067014,-0.031634,0.071322,-0.030218,-0.032736,-0.032128
0.004954,0.047677,0.014465,0.032943,0.222102,0.044454,0.016170,0.010430,0.021141
-0.030798,-0.036306,-0.045033,-0.034557,-0.062916,-0.045280,-0.051175,-0.049334,-0.065059
-0.064460,-0.048150,-0.076546,-0.061541,0.140744,-0.052335,-0.086012,-0.042719,-0.098250
-0.010054,-0.080548,-0.005705,0.064883,-0.055409,0.071771,0.099227,0.122169,0.107857
-0.054290,-0.200119,-0.070774,-0.037670,0.098962,-0.028807,0.065187,0.159870,0.080379
-0.036932,-0.044462,0.085414,-0.151384,-0.014270,0.175209,-0.046896,-0.040886,0.072276
-0.008402,0.009017,-0.009493,0.082872,0.063330,0.085705,0.053479,0.111457,0.066820
-0.025541,-0.034045,-0.031776,-0.060435,-0.124205,-0.072599,-0.034283,-0.018148,-0.037857
0.061747,0.081974,0.071125,0.135857,-0.223891,0.118433,0.052682,0.076658,0.069058
-0.048583,-0.016068,0.073202,-0.127496,-0.095166,0.182343,-0.044333,-0.020957,0.062671
-0.052469,-0.047955,-0.052627,-0.030717,-0.043233,-0.030406,-0.046526,-0.055363,-0.056661
-0.038052,-0.049662,-0.048846,-0.033909,-0.029325,-0.039953,-0.053678,-0.032361,-0.055437
-0.068940,-0.104241,-0.060126,0.022228,0.012696,0.017619,0.044638,0.162305,0.053334
-0.071391,0.128589,-0.028127,-0.081043,0.042406,-0.109836,-0.074289,0.143273,-0.030525
-0.032414,-0.073400,-0.047231,0.057261,-0.187321,0.036475,0.054058,0.169355,0.065558
0.006099,-0.087388,-0.005969,0.081972,-0.016767,0.086824,0.050694,0.138132,0.058566
0.077981,-0.013483,-0.068224,0.163669,-0.017399,-0.148347,0.062721,-0.018865,-0.058902
-0.039087,-0.069086,-0.041329,-0.070733,-0.052120,-0.056735,-0.026409,-0.060938,-0.035019
-0.046332,-0.036930,-0.052056,-0.048477,-0.066509,-0.061758,-0.042132,-0.042531,-0.050891
-0.106177,-0.038116,0.075165,-0.104061,-0.035218,0.126748,-0.128635,-0.097237,0.069657
0.047229,-0.028820,-0.035618,0.187521,-0.100940,-0.110640,0.084004,-0.067697,-0.027901
0.012395,0.076070,0.014797,-0.061613,0.163894,-0.056203,-0.083528,-0.164083,-0.074523
0.033295,0.121528,0.050676,0.023237,0.126155,0.027353,-0.049851,-0.257499,-0.075137
-0.033411,-0.149039,-0.039554,0.042188,-0.106532,0.031060,0.076789,0.091018,0.093290
0.015704,0.061554,0.025484,0.055467,0.173133,0.064437,0.029564,0.043407,0.044057
-0.067134,-0.150172,-0.073021,-0.039531,0.195900,-0.040811,-0.013544,0.077457,-0.014222
-0.040656,-0.034288,-0.053283,-0.044372,-0.038454,-0.050503,-0.039732,-0.045273,-0.047060
-0.035949,-0.059699,-0.041713,-0.048804,-0.013700,-0.048399,-0.056077,-0.061250,-0.058165
-0.051222,-0.044367,-0.061897,-0.036892,-0.030449,-0.047264,-0.047840,-0.031186,-0.055054
-0.042153,-0.031864,-0.054602,-0.044547,-0.030705,-0.037852,-0.055937,-0.042892,-0.058301
-0.030775,-0.058227,-0.029264,-0.062099,-0.032487,-0.050397,-0.030630,-0.066011,-0.039846
-0.102481,-0.038776,0.079795,-0.122149,-0.014041,0.117081,-0.088022,-0.085181,0.025023
0.009256,0.014867,0.016089,0.011607,0.206359,0.027184,0.010306,0.013982,0.017243
-0.064422,-0.154275,-0.081101,-0.044999,-0.016463,-0.061529,0.061861,0.163423,0.071750
-0.050448,-0.042633,0.078272,-0.075408,-0.043970,0.143364,-0.071243,-0.062816,0.116029
0.055156,-0.004431,-0.053206,0.175473,-0.054793,-0.131060,0.104050,-0.036193,-0.074228
0.072346,0.155524,0.083441,-0.005393,0.026761,-0.000823,-0.072826,-0.147629,-0.078479
-0.129981,-0.135715,-0.144039,-0.075041,0.168903,-0.075000,0.010578,0.113603,0.013920
0.018656,0.032529,0.025317,0.028836,0.107532,0.037059,0.028225,0.030519,0.030353
-0.006270,0.054156,0.004884,0.062844,0.199763,0.069556,0.024615,0.072832,0.031510
0.005352,-0.027946,-0.001348,-0.017460,-0.047949,-0.025986,0.034158,0.222228,0.053151
-0.049519,-0.038826,-0.055696,-0.042238,-0.035073,-0.041645,-0.040783,-0.041084,-0.043467
-0.055117,-0.057331,-0.073910,-0.044862,-0.006672,-0.049539,-0.044979,-0.046824,-0.051949
-0.037322,-0.096970,-0.030900,0.063216,-0.063226,0.041515,0.131503,0.079501,0.160019
-0.047825,-0.062549,-0.053307,-0.057994,0.030825,-0.047644,-0.057424,-0.049071,-0.068716
-0.039547,-0.032693,-0.045085,-0.053033,-0.034728,-0.067746,-0.052190,-0.056738,-0.051073
-0.078225,-0.012590,0.074504,-0.100689,-0.060564,0.164036,-0.080606,-0.006120,0.066117
0.062815,0.120781,0.076950,0.047871,0.071312,0.059814,-0.149608,-0.023790,-0.168267
0.058840,0.182501,0.073255,-0.002580,-0.117391,-0.024354,-0.033138,-0.088026,-0.043878
0.003272,0.089638,0.023791,0.113787,0.023700,0.119206,0.036690,0.072722,0.049273
0.067844,0.227603,0.087855,-0.027565,-0.109619,-0.031236,-0.019429,-0.073366,-0.032207
0.013550,-0.129753,0.015909,0.163422,-0.123251,0.176160,0.014656,-0.156559,0.013431
-0.038572,-0.044456,-0.044709,-0.052962,-0.023024,-0.060184,-0.035967,-0.061742,-0.053856
-0.003180,0.143170,-0.047916,0.045955,0.100090,-0.036420,-0.080616,-0.128652,-0.044275
0.044091,0.070725,-0.065870,0.039738,0.144786,-0.145819,-0.052993,-0.191304,-0.082248
0.066204,0.000150,-0.050801,0.165204,-0.078624,-0.087839,0.092424,-0.004661,-0.064697
-0.017874,-0.073652,-0.026815,-0.076832,-0.073314,-0.077908,-0.027224,-0.077008,-0.031960
-0.037791,-0.038180,-0.047708,-0.034646,-0.044642,-0.047662,-0.071815,-0.053008,-0.073172
0.101280,0.023573,-0.075490,0.231114,-0.006361,-0.132845,0.061216,0.041644,-0.076408
-0.044359,-0.031663,-0.045807,-0.048605,-0.033793,-0.044662,-0.053908,-0.041203,-0.055047
-0.000988,0.099355,-0.007059,0.074307,0.065408,0.079202,0.011370,0.109774,0.017546
0.052047,0.099913,0.062388,0.032230,0.088119,0.037732,-0.055090,-0.032310,-0.066058
0.064386,0.134596,0.072700,0.033831,0.052255,0.041178,-0.018879,-0.102240,-0.019491
-0.067840,-0.075987,-0.071888,-0.073455,-0.050477,-0.080102,-0.068516,-0.109027,-0.076460
-0.021768,0.047617,0.043762,0.039972,-0.039578,0.138380,-0.008541,0.029954,0.049437
-0.066128,-0.037046,-0.071926,-0.046851,0.015931,-0.046833,-0.060885,-0.029358,-0.067527
0.116090,-0.022142,0.018000,0.088441,-0.248958,-0.037194,0.125251,0.049412,0.008379
0.045804,0.025467,-0.093097,0.120090,-0.015089,-0.097596,0.061230,0.026025,-0.095086
-0.176700,-0.003745,0.139978,0.110840,0.014225,-0.102181,0.106459,-0.017246,-0.094024
0.040782,0.047949,0.051063,0.015580,0.135784,0.021233,0.027607,-0.005507,0.035055
0.033169,-0.116571,0.028965,0.040522,-0.051049,0.040394,0.069261,0.115145,0.076754
0.146519,0.015361,0.076411,-0.016541,-0.292611,-0.076433,0.173935,0.027556,0.065755
0.064960,0.083784,0.077131,0.104004,-0.070914,0.108251,0.048836,0.089746,0.063119
0.007819,0.045847,0.013285,0.040108,0.145730,0.052549,0.030763,0.035352,0.037659
-0.004287,-0.063001,-0.016116,-0.051123,-0.239950,-0.061310,0.003107,-0.055922,-0.001021
-0.093601,-0.118245,-0.116474,0.027058,-0.001240,0.034172,0.063745,0.132256,0.072926
-0.086531,-0.006389,-0.045871,-0.009522,-0.001219,-0.040295,-0.082273,-0.044526,0.329738
-0.054103,-0.139825,-0.061881,0.085017,-0.053594,0.085980,0.070824,0.114779,0.080096
0.006606,0.040556,0.007868,0.025638,0.190180,0.038011,0.012841,0.043046,0.011659
-0.060382,-0.093418,-0.080998,-0.082783,0.001041,-0.089846,0.114500,0.145574,0.141287
0.020554,0.065254,-0.126179,0.093031,0.050003,-0.129122,-0.059026,-0.173902,0.020847
-0.074901,-0.039036,0.106185,-0.078257,-0.062929,0.137432,-0.096536,-0.023482,0.107123
0.042777,0.087385,-0.061952,0.060246,0.118193,-0.140319,-0.045364,-0.150643,-0.059549
-0.048994,-0.051172,-0.055957,-0.050366,-0.068527,-0.057972,-0.042812,-0.041336,-0.056530
-0.115941,-0.014533,-0.121475,-0.035558,0.181379,-0.024741,-0.102691,-0.064020,-0.109755
-0.058232,-0.050898,-0.064296,-0.049730,0.001920,-0.051704,-0.060601,-0.054928,-0.068127
-0.040144,-0.048296,-0.043437,-0.055570,-0.029249,-0.054762,-0.042754,-0.047098,-0.047702
-0.052071,-0.031655,0.069517,-0.141421,-0.030731,0.156263,-0.047896,-0.043797,0.071946
-0.024178,-0.045284,-0.030857,-0.038095,-0.045206,-0.040404,-0.057287,-0.068011,-0.066357
-0.067423,0.014709,-0.071321,-0.013188,0.265135,0.022726,-0.097322,-0.000629,-0.103765
-0.060394,-0.182292,-0.064274,-0.014865,0.078221,-0.015493,0.024593,0.136439,0.032034
-0.076554,-0.048278,-0.092855,-0.047093,0.151700,-0.034639,-0.097993,-0.030956,-0.110482
0.063005,0.177836,0.078116,-0.021387,-0.067487,-0.026596,-0.024158,-0.103929,-0.030985
-0.043045,-0.054927,-0.050869,-0.057283,0.033226,-0.054346,-0.071332,-0.068324,-0.070962
-0.044828,-0.036962,-0.048668,-0.046825,-0.030284,-0.046979,-0.044716,-0.029617,-0.055958
0.042998,0.165661,0.046012,0.014858,0.009812,-0.000983,-0.051158,-0.128125,-0.044019
-0.064065,-0.143402,-0.071217,0.009684,-0.034490,0.008678,0.045601,0.160209,0.064817
0.003312,-0.121981,-0.013423,0.097465,-0.028780,0.105564,0.072841,0.142322,0.071870
-0.024764,-0.037922,0.053403,-0.068925,-0.115967,0.188497,-0.009061,-0.065839,0.061078
-0.010166,-0.006824,-0.009396,0.027570,0.175094,0.046821,-0.003552,0.047999,-0.001376
0.002230,0.071460,0.026142,0.122772,0.050085,0.107384,0.044580,-0.054190,0.053792
-0.026554,-0.160605,-0.034603,0.109177,0.014699,0.114091,-0.036776,-0.142234,-0.040072
0.009283,0.060661,0.021545,0.071061,0.096908,0.075119,0.007665,0.102512,0.017455
0.062750,0.158943,0.089699,0.007178,0.001755,0.003642,-0.073789,-0.121229,-0.072226
-0.062941,-0.031357,-0.062415,-0.030476,0.271748,-0.024718,-0.057767,-0.025629,-0.058815
-0.027046,-0.063015,-0.023991,-0.057178,-0.039313,-0.063732,-0.042896,-0.072680,-0.049982
-0.049441,0.002882,0.062006,-0.126359,-0.030550,0.152521,-0.055288,-0.021567,0.060487
0.017972,0.023678,0.025063,0.102515,-0.072298,0.095705,0.099804,0.102657,0.119939
0.211173,-0.017718,0.218150,0.023650,-0.352080,0.026698,0.081028,-0.084203,0.056494
0.116682,0.060905,0.127792,0.007327,-0.495719,-0.005825,0.126497,0.002130,0.136032
0.096458,0.013468,0.099800,0.081321,-0.430859,0.072644,0.091502,0.058212,0.099437
0.093123,-0.033371,-0.073262,0.135081,-0.043196,-0.088426,0.083396,-0.063796,-0.058451
0.005148,0.133526,0.010809,0.079153,0.018435,0.094209,0.037719,-0.097539,0.033296
0.008438,0.088246,0.020412,0.093221,0.021073,0.084117,0.036111,0.071974,0.044991
-0.091439,-0.022741,-0.091379,-0.017273,0.058404,-0.013675,-0.108434,-0.015228,-0.108676
-0.037785,-0.086187,-0.043594,-0.068205,-0.061113,-0.081193,-0.024693,-0.094321,-0.033429
-0.058394,-0.052861,-0.064972,-0.043510,-0.094625,-0.060718,0.073531,0.159519,0.086932
0.050590,0.007078,0.057849,0.061237,-0.336922,0.054655,0.090116,0.041456,0.099692
0.095667,0.147418,0.108846,-0.038097,-0.092099,-0.039762,-0.053719,0.032631,-0.063804
-0.040033,-0.049275,-0.054330,-0.046996,-0.026791,-0.054236,-0.042379,-0.056527,-0.056285
0.093164,-0.023335,0.098992,0.036234,0.252853,0.049437,0.075270,0.083194,0.077352
0.049503,0.021387,-0.137889,0.026596,-0.047982,-0.038633,0.269148,-0.004515,-0.104258
-0.070361,-0.066815,-0.078498,0.051240,0.100996,0.056753,0.008699,0.112420,0.023678
0.026129,0.014380,0.039353,0.022517,0.193399,0.027246,-0.007114,0.066016,0.011551
-0.060865,-0.017499,0.057049,-0.127527,-0.013524,0.145712,-0.058410,-0.040051,0.087509
-0.049399,-0.050860,-0.055337,-0.049310,-0.016910,-0.043411,-0.046545,-0.039815,-0.058252
0.093153,0.051376,-0.097128,0.089390,-0.106325,-0.130616,0.080371,0.063257,-0.115746
-0.085010,-0.110345,-0.096708,-0.010290,0.024400,-0.020268,0.076941,0.130039,0.094227
-0.125549,0.017287,-0.132194,0.011940,0.443026,0.022240,-0.120626,0.071878,-0.120248
0.013690,0.087256,0.018524,0.002449,0.181875,0.027711,-0.008776,-0.000787,-0.012050
-0.053379,-0.041641,-0.066520,-0.040945,-0.016047,-0.038291,-0.055841,-0.058904,-0.057363
-0.074123,-0.079266,-0.077855,-0.025915,-0.015554,-0.033860,0.074934,0.155546,0.100734
-0.047344,-0.085691,-0.049452,-0.051490,-0.040760,-0.062031,-0.033551,-0.049222,-0.037282
-0.031841,-0.057324,-0.034635,-0.047419,-0.055625,-0.053669,-0.038100,-0.042200,-0.048127
-0.018280,-0.058305,-0.031552,-0.042678,-0.038133,-0.054671,-0.042383,-0.064586,-0.042968
0.062931,-0.013206,-0.042448,0.214035,-0.080963,-0.138182,0.082106,-0.036586,-0.037317
0.052198,-0.026114,-0.025729,0.167725,-0.011469,-0.152642,0.076219,-0.003343,-0.060397
0.075757,-0.064486,-0.042242,0.143795,-0.051489,-0.118913,0.067170,-0.056495,-0.039334
-0.060901,-0.017546,0.079689,-0.150722,-0.017626,0.167663,-0.062204,-0.021291,0.061738
0.000183,-0.062242,0.003565,0.232521,-0.217150,0.245094,0.017824,-0.067667,0.032479
0.049612,0.001888,0.048993,0.032391,0.176010,0.041204,0.037229,0.050526,0.039182
0.039375,0.067754,0.135703,-0.089185,-0.053498,0.035583,-0.036874,0.027898,0.106191
0.058702,0.146997,0.073526,0.012999,0.113194,0.003842,-0.079893,-0.172846,-0.080773
0.026305,0.058635,0.026335,0.068781,0.003639,0.075350,0.006778,-0.017577,0.008468
-0.051688,-0.026428,-0.053675,-0.052053,0.018509,-0.045995,-0.065835,-0.039422,-0.075318
-0.062616,-0.065099,-0.065944,-0.007486,0.099066,-0.010836,0.087493,0.174529,0.094417
-0.052780,-0.166217,-0.058368,-0.003973,-0.006520,-0.001279,0.066092,0.175657,0.074506
0.359876,-0.028412,0.054412,-0.067334,-0.320256,-0.032888,0.151596,-0.019705,0.055160
0.001773,0.076003,0.019569,0.077018,0.099571,0.073887,-0.000840,0.083488,0.011717
0.001083,0.050155,0.009764,0.033714,0.218303,0.055606,0.000715,0.054885,0.006393
0.043674,-0.012357,-0.053433,0.138702,0.017909,-0.154503,0.068449,-0.037263,-0.058275
-0.024962,-0.065228,-0.032115,-0.046152,-0.042592,-0.058109,-0.053016,-0.054437,-0.053751
-0.051733,-0.035214,-0.056931,-0.041316,-0.027089,-0.035613,-0.060053,-0.041569,-0.060213
-0.051115,-0.058871,-0.061708,-0.052114,-0.021378,-0.047323,-0.041734,-0.060003,-0.051237
0.108478,0.197358,0.145394,-0.130514,-0.132149,-0.154012,-0.065952,0.021446,-0.070192
0.087474,0.115763,0.099230,-0.024248,-0.114504,-0.052323,-0.057855,-0.074335,-0.043795
-0.049983,-0.031356,-0.059148,-0.044008,-0.008667,-0.040970,-0.061939,-0.028303,-0.067617
0.109539,-0.039291,-0.063307,0.140573,-0.054280,-0.077166,0.103319,-0.058839,-0.067937
0.017165,-0.030710,0.028244,0.091609,0.113089,0.091704,0.064626,0.011342,0.086100
-0.031458,-0.016134,0.041314,-0.166158,-0.024441,0.182312,-0.044812,-0.036403,0.083425
-0.045733,-0.041320,-0.045807,-0.064757,-0.065496,-0.067618,-0.027206,-0.050618,-0.037620
-0.031272,-0.076626,-0.030558,-0.061663,-0.037658,-0.066456,-0.042721,-0.051802,-0.041937
0.016337,-0.013565,0.016615,0.034163,0.098160,0.034645,0.024479,0.135561,0.043137
-0.031593,-0.061729,-0.034692,-0.062180,-0.033816,-0.054310,-0.039327,-0.065891,-0.046993
0.011170,0.085941,0.024498,0.070159,0.045031,0.074651,0.011262,0.037850,0.008807
-0.018448,-0.077831,-0.019307,-0.056115,-0.079096,-0.057811,-0.013786,-0.079562,-0.014457
-0.036759,-0.005236,0.114645,-0.057517,-0.068527,0.198237,-0.036335,-0.011289,0.071395
-0.053554,-0.161705,-0.059951,-0.026463,0.010370,-0.040690,0.061453,0.152888,0.078070
-0.041213,-0.003219,0.052776,-0.116636,-0.126101,0.195885,-0.051163,-0.013743,0.067231
-0.030076,-0.086489,-0.031814,-0.071175,-0.056834,-0.077482,-0.032147,-0.066524,-0.034747
0.042951,-0.027286,-0.021420,0.179894,-0.068557,-0.126149,0.048876,-0.016454,-0.031915
-0.057551,-0.038111,-0.057928,-0.031819,-0.032975,-0.033626,-0.055734,-0.033564,-0.055571
0.073365,0.015344,0.070423,0.082757,-0.367227,0.085918,0.082046,0.023160,0.092309
0.016889,0.167811,0.027761,0.095221,0.024027,0.097113,-0.002111,-0.149368,-0.001232
-0.091890,-0.108673,-0.097141,-0.016242,-0.028210,-0.021755,0.065471,0.184128,0.083289
0.079231,-0.026301,0.069501,0.168683,-0.436248,0.151222,0.103116,-0.086791,0.091606
0.007456,0.077567,0.013530,0.044982,0.162800,0.061844,0.046844,0.058419,0.042009
0.082289,0.110539,0.092614,-0.044028,-0.017747,-0.032604,-0.074513,0.063059,-0.076164
-0.025844,-0.041266,-0.036137,-0.061780,-0.027056,-0.063643,-0.054227,-0.036633,-0.054106
0.004467,-0.062986,0.001118,0.059449,-0.068334,0.051460,0.084325,0.110109,0.094701
0.047937,-0.003879,-0.047033,0.190456,-0.049265,-0.131437,0.077953,-0.014759,-0.062270
-0.030549,-0.049947,-0.042862,-0.035337,-0.039701,-0.042124,-0.043307,-0.034257,-0.045177
-0.028004,-0.055060,-0.021248,0.088839,-0.014626,0.090905,0.085315,0.092987,0.092915
-0.091127,-0.064745,-0.090366,-0.033869,-0.000113,-0.022761,0.083024,0.201819,0.105043
0.009825,0.059431,0.013787,0.080309,-0.081972,0.073079,0.079534,0.102577,0.089207
0.012514,-0.115011,0.000597,0.065612,-0.046056,0.062796,0.068193,0.108032,0.086975
0.079128,-0.018102,-0.062807,0.148096,0.007174,-0.151991,0.081968,-0.033360,-0.055697
-0.045358,-0.043507,-0.053675,-0.049695,-0.017387,-0.043536,-0.050985,-0.059102,-0.055849
0.057253,0.223738,0.071893,-0.021373,-0.114068,-0.015964,-0.018276,-0.038935,-0.018870
-0.051413,-0.049606,0.046903,-0.109444,-0.043425,0.178475,-0.041951,-0.070185,0.064171
0.026152,0.004786,0.021407,0.032450,0.141339,0.049326,0.029562,0.044227,0.022267
-0.086294,-0.209710,-0.102286,-0.077693,0.117607,-0.069294,-0.016289,0.156386,-0.012782
0.008849,0.093227,0.013759,0.093932,0.031887,0.102641,-0.006802,-0.091085,-0.006151
0.068114,-0.035704,-0.010204,0.182024,-0.042340,-0.153949,0.081274,-0.046568,-0.019916
0.028086,0.051522,0.024108,0.032736,0.136847,0.055648,0.053172,0.030621,0.052380
-0.058448,-0.036196,0.087152,-0.132188,-0.027093,0.181189,-0.051304,-0.045292,0.085809
0.003772,0.012902,-0.000151,0.025056,0.176257,0.042146,0.005713,0.039311,0.013989
-0.063595,-0.042393,-0.066233,-0.034334,-0.022036,-0.040502,-0.047446,-0.032238,-0.046462
-0.056212,-0.036081,-0.056507,-0.067756,0.006829,-0.065764,-0.067126,-0.047812,-0.076508
0.012765,0.030080,0.025228,0.121940,-0.046586,0.119445,0.055809,0.079819,0.066077
0.003448,0.061806,0.009452,0.044822,0.217280,0.047665,0.043334,0.078118,0.041445
-0.030991,-0.028355,-0.039367,-0.042527,-0.050905,-0.034166,-0.059720,-0.047187,-0.064455
-0.052414,-0.022067,-0.054051,-0.048579,-0.058458,-0.050016,-0.050780,-0.053782,-0.055186
-0.041560,-0.077353,-0.050154,0.176540,-0.032522,0.166924,0.005235,-0.074016,0.005279
0.024346,-0.012760,0.021143,-0.006705,-0.261335,-0.009916,0.127955,0.086777,0.143912
0.016158,0.154945,0.020100,-0.003741,0.063366,-0.004653,-0.073527,-0.206042,-0.092537
-0.092397,0.048821,0.050806,-0.109217,-0.070074,0.134295,-0.054565,-0.071579,0.057791
-0.044971,-0.053433,-0.043571,-0.012960,-0.218500,-0.013151,0.106756,0.184225,0.123491
-0.031268,-0.046893,-0.034422,-0.049026,-0.040547,-0.049550,-0.036157,-0.076430,-0.034563
-0.026829,-0.121525,-0.045466,0.035281,-0.002913,0.026152,0.070833,0.138183,0.083211
0.099213,0.080896,0.116602,0.041287,-0.249066,0.025880,0.066917,-0.087932,0.065780
0.072622,0.120395,0.086155,-0.023202,0.067147,-0.018103,-0.056145,-0.161492,-0.078762
-0.062219,-0.030735,0.077987,-0.128937,-0.041154,0.175333,-0.053160,-0.048195,0.096811
-0.058905,-0.034164,-0.050529,-0.026280,-0.025114,-0.029223,-0.055512,-0.023608,-0.062301
-0.031094,-0.076868,-0.039429,-0.058124,-0.057782,-0.055741,-0.038886,-0.078425,-0.039121
0.006439,0.020084,0.009797,-0.118102,-0.163701,-0.118225,-0.019459,-0.017779,-0.012705
-0.075916,-0.026489,-0.076107,-0.058160,0.363138,-0.052337,-0.088502,-0.042761,-0.097880
0.020310,0.056147,0.033362,0.050050,-0.013414,0.043420,0.055788,0.048489,0.057115
-0.006840,0.010663,-0.015049,0.074301,0.130087,0.085351,-0.066867,-0.101319,-0.081770
0.060388,0.174775,0.084923,-0.014577,-0.092409,-0.016515,-0.061776,-0.087280,-0.081078
0.080997,0.117458,0.086787,0.009768,0.069004,0.008724,-0.071612,-0.114694,-0.074406
-0.007841,-0.076955,-0.003414,-0.067907,-0.127709,-0.082968,-0.001172,-0.107626,0.003455
-0.030155,-0.027794,0.048633,-0.151235,-0.016516,0.177364,-0.053255,-0.055514,0.095073
-0.051097,-0.050347,-0.054554,-0.046750,-0.011392,-0.055029,-0.052849,-0.046973,-0.054630
0.082725,0.063034,0.085521,0.083889,-0.021231,0.088307,-0.039661,-0.091509,-0.057029
0.037302,0.080938,0.046386,0.120938,-0.151760,0.112449,0.061449,0.093399,0.075286
-0.032617,-0.031908,-0.125808,0.037506,0.222592,-0.172751,-0.001253,-0.057438,-0.149020
0.016239,-0.036055,0.007797,0.042833,0.064478,0.046085,0.062243,0.051694,0.068411
-0.042882,0.022508,-0.031995,-0.090632,-0.073198,-0.078239,0.008756,0.238454,0.036791
-0.039151,-0.042185,-0.041654,-0.052027,-0.084320,-0.056415,-0.017178,-0.066812,-0.018765
-0.056256,-0.032426,-0.068772,-0.027972,-0.047198,-0.028063,-0.047820,-0.048850,-0.058714
-0.004752,-0.164287,0.005251,0.201461,-0.172051,0.221356,0.013265,-0.178188,0.011564
-0.002736,0.065671,-0.002029,0.057638,0.119800,0.068140,-0.003074,0.068573,0.008581
0.084540,0.182149,0.103739,-0.053517,-0.074610,-0.068827,-0.035165,-0.089163,-0.048237
-0.019716,-0.006363,-0.017385,-0.079190,0.070166,-0.082148,-0.111812,-0.144639,-0.104297
0.054517,0.196413,0.071772,-0.011309,-0.005111,-0.023117,-0.032626,-0.153042,-0.041294
-0.001369,-0.133751,0.008827,0.015225,0.018611,0.021083,0.106335,0.134721,0.113268
0.011752,0.027780,0.016061,0.003827,0.197455,0.028946,0.058697,0.083067,0.054684
0.020741,0.071173,-0.060858,0.042297,0.079156,-0.113673,-0.159516,-0.163327,-0.071608
0.011942,0.109372,0.018010,-0.074710,0.160701,-0.058367,-0.045132,-0.173559,-0.051222
-0.101066,0.071944,0.018168,-0.100689,0.026043,0.067659,-0.130032,0.072966,0.025912
-0.045086,-0.035916,-0.047039,-0.035614,-0.017017,-0.042143,-0.059457,-0.047206,-0.060265
0.005518,0.097095,0.009992,0.097103,0.021730,0.100796,-0.013180,0.113933,-0.005563
0.128866,0.223823,0.143463,-0.145189,-0.075732,-0.164065,-0.049919,-0.079874,-0.063392
-0.065654,-0.152494,-0.074765,-0.019368,0.084938,-0.018110,0.029724,0.138612,0.040262
0.063808,0.181380,0.080799,-0.074291,-0.062314,-0.089879,-0.044220,-0.105182,-0.055091
-0.030676,-0.038159,-0.020310,-0.054202,-0.039534,-0.059065,-0.050188,-0.045921,-0.058732
-0.007340,0.125696,0.008248,0.112365,0.005923,0.104335,0.058210,0.079170,0.071997
0.055674,-0.048480,-0.037961,0.141116,-0.045224,-0.113536,0.063836,-0.043382,-0.045665
-0.018684,-0.009311,-0.024925,-0.001505,0.137061,0.006771,0.031048,0.030187,0.037122
-0.027345,-0.001755,-0.037797,0.040028,0.209656,0.061766,-0.054574,0.087611,-0.055817
-0.020978,-0.054904,-0.034074,-0.048719,-0.111705,-0.059478,-0.045873,-0.052607,-0.050223
-0.048677,-0.049709,-0.048926,-0.034737,0.008184,-0.046608,-0.059558,-0.039485,-0.066295
0.008548,0.038088,0.001529,0.045469,0.182967,0.072868,0.009157,0.091103,0.011881
-0.031200,0.005389,0.033862,-0.173882,-0.017923,0.188875,-0.044880,-0.003374,0.038077
0.021893,0.107279,0.037213,0.060116,0.086402,0.068041,-0.042310,-0.093314,-0.040026
0.005564,0.032904,0.130292,-0.038739,-0.231470,0.066254,-0.107365,0.008644,0.102525
0.045731,0.053446,0.055849,0.099379,-0.026656,0.085985,0.051629,0.096586,0.057141
-0.063856,-0.164756,-0.086003,0.010494,0.017420,0.019504,0.061501,0.121437,0.070801
-0.026359,-0.039157,0.063159,-0.096394,-0.044999,0.160057,-0.044637,-0.032155,0.066314
0.059873,0.009907,-0.041067,0.171622,-0.018113,-0.155388,0.067253,-0.028137,-0.056346
-0.008857,0.145363,0.021172,-0.030793,0.091285,0.054838,-0.066081,-0.091473,-0.057068
0.088416,0.190168,0.091590,0.001097,0.002248,0.026360,0.000104,-0.103742,-0.017462
-0.042798,-0.058735,0.083660,-0.096595,-0.101625,0.238235,-0.027591,-0.099618,0.113888
0.034326,0.131917,0.038648,0.023647,0.077862,0.031531,-0.007380,-0.072459,-0.006487
0.010824,0.235326,0.038612,-0.041569,-0.059484,-0.057007,-0.003414,-0.130731,-0.007134
-0.064374,-0.106863,-0.118725,-0.127644,0.070547,0.059999,-0.078861,0.090839,0.054312
0.056609,0.061654,0.071495,0.112507,-0.116660,0.124974,0.041813,0.023746,0.043980
0.014405,-0.023063,0.020080,0.047940,0.129561,0.048109,0.030184,0.125917,0.050223
-0.053952,-0.064253,-0.060729,-0.044506,-0.043911,-0.031318,-0.050838,-0.059975,-0.058920
0.048368,-0.037789,-0.014156,0.151484,-0.063766,-0.133479,0.074080,-0.036451,-0.044243
-0.040816,-0.040426,-0.039338,-0.042396,-0.036821,-0.040055,-0.056264,-0.052938,-0.066920
-0.002431,0.041884,0.009802,0.049619,0.169534,0.060203,-0.000841,0.056494,0.012841
-0.042161,-0.050301,-0.046539,-0.052839,0.005655,-0.060482,-0.044387,-0.055415,-0.052922
-0.050062,-0.039535,-0.056119,-0.041405,-0.045761,-0.050754,-0.053620,-0.038043,-0.041834
0.054289,0.120056,0.073945,0.070756,0.010600,0.078479,-0.020436,-0.073650,-0.029950
0.012741,0.096359,0.022338,0.057330,0.092365,0.060371,0.018070,0.046797,0.022756
-0.043742,-0.051788,-0.060237,-0.052145,0.007394,-0.052603,-0.050465,-0.050117,-0.058048
-0.050203,-0.050267,-0.057414,0.066597,-0.062071,0.062794,0.091299,0.075469,0.102058
0.036905,-0.051600,-0.040230,0.167794,-0.024539,-0.129571,0.087232,-0.040819,-0.094454
0.130513,0.012156,0.134749,0.006344,-0.450268,-0.000818,0.125782,0.025468,0.140355
0.054551,0.188417,0.072855,-0.030963,-0.061517,-0.043156,-0.036553,-0.118287,-0.050566
0.109021,0.176739,0.107399,-0.127202,-0.002288,-0.117406,-0.020129,-0.133648,-0.026202
-0.087490,-0.119259,-0.105285,-0.027374,-0.011809,-0.038427,0.018109,0.186869,0.030731
-0.043230,-0.065697,-0.044598,-0.027539,-0.026187,-0.025672,-0.052307,-0.051889,-0.053591
-0.053879,-0.046635,-0.049382,-0.047323,-0.019270,-0.047376,-0.049237,-0.051081,-0.054075
0.055013,0.087561,0.058968,0.058649,0.072999,0.080029,-0.016722,-0.123699,-0.030073
-0.043494,-0.041146,-0.046181,-0.047900,-0.007411,-0.047996,-0.051128,-0.054814,-0.052312
0.053694,-0.066962,-0.032641,0.146879,-0.004038,-0.110435,0.078659,-0.074686,-0.031582
-0.036204,-0.029823,-0.042641,-0.041194,-0.037597,-0.042424,-0.052868,-0.052769,-0.059891
-0.042181,-0.117646,-0.051008,-0.048011,-0.082493,-0.054663,0.044873,0.217080,0.057691
0.050453,0.209420,0.055958,-0.062576,-0.117706,-0.065761,-0.027302,-0.075810,-0.021874
0.015894,0.094413,0.033333,0.081477,-0.017244,0.075983,0.047525,0.064805,0.048589
0.076880,0.177217,0.089372,-0.010729,-0.175306,-0.000658,-0.034326,-0.025404,-0.034151
-0.066178,-0.020296,-0.070136,-0.024907,-0.012254,-0.026749,-0.079544,-0.029607,-0.084309
-0.036596,-0.104937,-0.049487,0.032862,-0.128652,0.016478,0.092996,0.106040,0.108745
0.078050,0.168708,0.102045,-0.017442,-0.030463,-0.030753,-0.048827,-0.151929,-0.059393
-0.063795,-0.051701,-0.066818,-0.035465,-0.026380,-0.032906,-0.054359,-0.038536,-0.050827
-0.049037,-0.020124,-0.051658,-0.060329,-0.083834,-0.063049,-0.055806,-0.038503,-0.061211
-0.034659,-0.041348,-0.042308,-0.041349,-0.041031,-0.052530,-0.059479,-0.058024,-0.065879
-0.044067,-0.054703,-0.048688,-0.045232,-0.079058,-0.042569,-0.037804,-0.056992,-0.044407
-0.051115,-0.047406,-0.054620,-0.032993,-0.021695,-0.041939,-0.057351,-0.036761,-0.060201
-0.020144,-0.082535,-0.036221,0.007166,-0.164847,0.006672,0.083518,0.128135,0.100641
0.086187,-0.020567,-0.060054,0.163764,-0.029956,-0.142941,0.080467,-0.039651,-0.040661
-0.057987,0.004683,-0.069572,-0.043757,-0.183956,-0.049628,0.111778,0.194148,0.125346
0.074390,-0.029804,-0.053626,0.162638,-0.063260,-0.127516,0.076180,-0.039966,-0.050382
-0.036019,-0.039557,-0.040916,-0.036291,0.002009,-0.045094,-0.046448,-0.061754,-0.053502
-0.054189,0.022096,-0.070753,0.080698,0.061513,0.082699,0.015067,0.003693,0.038780
-0.040388,-0.050657,-0.045103,-0.052174,-0.040396,-0.048655,-0.056369,-0.042206,-0.068293
0.056652,0.084508,0.064270,0.099527,0.005716,0.103104,-0.018228,-0.074362,-0.014167
-0.011871,-0.056269,-0.016383,-0.034066,-0.177072,-0.047214,-0.015691,-0.043535,-0.009976
-0.045138,-0.055017,-0.052731,-0.071382,-0.040272,-0.066914,-0.042209,-0.054207,-0.050480
-0.041560,-0.050933,-0.042016,-0.058894,0.228984,-0.010009,-0.044882,0.013302,-0.038857
0.080430,0.112624,0.096941,0.041696,-0.141435,0.036223,-0.024419,-0.062747,-0.036387
-0.066134,-0.069035,-0.078511,-0.030370,-0.017105,-0.034450,-0.055992,-0.013592,-0.064818
0.063755,0.176189,0.081079,0.025198,-0.201521,0.027230,-0.031787,-0.039186,-0.027896
0.059822,0.167694,0.073179,-0.004999,0.037667,-0.014075,-0.058307,-0.189096,-0.075092
0.064126,-0.063517,-0.102125,0.132877,-0.068852,-0.135315,0.053311,-0.042293,-0.116370
0.059722,-0.006391,-0.064199,0.164318,0.011898,-0.151268,0.065762,-0.035521,-0.038663
-0.034265,-0.040898,-0.050531,-0.059790,-0.009411,-0.064272,-0.026574,-0.052847,-0.042583
0.085830,0.077300,0.096707,0.062276,-0.116765,0.061269,-0.029149,-0.092347,-0.037066
-0.047978,-0.055657,-0.052423,-0.044517,-0.022280,-0.040780,-0.049122,-0.028021,-0.055841
-0.038583,-0.057327,-0.047327,-0.061474,0.007504,-0.067753,-0.060463,-0.058938,-0.065792
-0.043530,-0.051844,-0.050521,-0.051486,-0.027343,-0.054446,-0.041361,-0.048058,-0.053807
0.058952,0.000177,-0.042312,0.174347,-0.030718,-0.136852,0.064397,-0.011255,-0.057199
0.071075,0.119627,0.084536,-0.062339,0.022374,-0.061500,-0.103346,-0.117004,-0.113371
-0.090905,-0.130898,-0.100174,-0.058189,0.123303,-0.077085,0.044613,0.129849,0.062150
0.034640,0.081108,0.049003,0.080447,-0.060988,0.076980,0.024290,0.104272,0.037980
0.066006,-0.008366,-0.065674,0.128162,0.036152,-0.162706,0.089444,-0.023468,-0.067544
0.045644,-0.002121,-0.061707,0.155223,-0.005762,-0.142726,0.098462,-0.028603,-0.059985
0.002638,0.028172,0.002441,0.056157,0.150889,0.061825,0.011292,0.070164,0.025206
-0.050054,-0.047530,-0.054461,-0.053806,0.012837,-0.058797,-0.063571,-0.057994,-0.072283
-0.075499,-0.105953,-0.084057,-0.042397,0.072630,-0.031702,0.066885,0.120097,0.080505
-0.029538,-0.068102,-0.025560,-0.019671,-0.168477,-0.035273,0.048753,0.231062,0.065978
0.070859,-0.009192,-0.100259,0.128700,0.066887,-0.110685,0.098448,-0.017080,-0.095282
-0.003341,-0.047693,-0.000348,-0.043807,-0.223416,-0.043911,-0.006251,-0.053695,-0.016731
0.031865,0.075925,0.017254,0.033989,0.124773,0.056305,0.051826,0.053948,0.037452
0.021280,0.084958,0.039044,-0.046648,0.031052,0.121112,0.004300,0.042625,0.071343
0.084618,-0.066945,-0.048208,0.119824,-0.019958,-0.121707,0.091229,-0.071512,-0.043757
-0.035156,-0.056658,-0.038007,-0.065759,-0.045582,-0.071678,-0.056531,-0.049989,-0.059828
0.049883,0.103863,0.055186,0.069310,-0.013611,0.071050,0.011680,-0.033683,0.013201
-0.113120,0.048451,-0.103269,0.043108,0.176926,0.067973,-0.111394,0.082709,-0.102395
0.052062,-0.007306,-0.051533,0.157898,0.014057,-0.158399,0.063264,-0.029034,-0.055853
0.055390,0.182691,0.074027,0.032519,0.113737,0.040232,-0.041167,-0.059386,-0.058091
-0.070675,-0.132970,-0.089009,-0.005206,-0.029953,-0.000071,0.058294,0.165823,0.066025
-0.044959,-0.042151,-0.047094,-0.042916,-0.031588,-0.044681,-0.041572,-0.057505,-0.044325
-0.070830,-0.046939,-0.079691,-0.053622,0.055343,-0.049643,-0.069582,-0.051435,-0.068975
-0.097552,-0.055570,-0.088373,-0.020864,0.226383,-0.009326,-0.108514,0.019203,-0.084794
0.100300,0.137693,0.120165,-0.095180,-0.053031,-0.114864,-0.033027,-0.035863,-0.029874
-0.030356,-0.046429,0.048256,-0.057406,-0.070183,0.175177,-0.044316,-0.041380,0.078517
0.016505,0.064029,0.031944,0.036073,0.149285,0.051386,-0.015302,0.017230,-0.014680
-0.060261,-0.023953,-0.054888,-0.037077,-0.043409,-0.038862,-0.048350,-0.028213,-0.057389
0.014825,0.020764,0.017077,0.014808,0.173075,0.044595,0.026155,0.035110,0.028255
0.060402,0.010757,-0.079516,0.138361,-0.025129,-0.109654,0.087100,0.012701,-0.116281
-0.012854,-0.089160,-0.021683,-0.065050,-0.039422,-0.067231,-0.020617,-0.078218,-0.025096
0.024565,0.057094,0.048290,-0.002243,0.193430,0.013889,-0.127532,-0.200828,-0.139780
-0.073047,-0.132564,-0.085483,0.007825,0.068358,0.008873,0.052234,0.166754,0.059347
-0.070221,-0.163993,-0.091468,-0.039544,0.127362,-0.028424,0.059594,0.137350,0.082084
0.040090,0.020361,0.036971,0.010184,0.188060,0.027370,0.043885,0.065733,0.036156
0.008638,0.051653,0.012163,0.035931,0.205362,0.058682,0.022681,0.048522,0.034953
0.031536,0.036129,0.038396,0.082312,0.069854,0.079766,0.074371,0.069756,0.094716
-0.043451,-0.150768,-0.062311,-0.027996,-0.092207,-0.035970,0.067216,0.204655,0.086347
-0.035407,-0.041955,-0.043470,-0.047409,-0.009646,-0.047194,-0.061906,-0.061504,-0.064525
-0.061623,-0.058015,-0.072148,-0.046325,-0.016019,-0.051621,-0.031912,-0.020030,-0.036994
0.115919,0.081042,0.127280,-0.023591,-0.208857,-0.026323,-0.082716,-0.051709,-0.101425
-0.028595,-0.109355,-0.046914,0.066677,-0.131575,0.045847,0.146482,0.129601,0.155679
-0.032708,-0.051035,0.055271,-0.121790,-0.049710,0.156598,-0.033682,-0.069598,0.055742
0.107298,0.115407,0.119126,0.011616,0.009736,0.004854,-0.066975,-0.096325,-0.072411
0.044744,0.000586,-0.052437,0.197740,-0.036169,-0.144082,0.087868,-0.010015,-0.067158
-0.033317,-0.047562,-0.043300,-0.044220,-0.178144,-0.051020,-0.041227,-0.034775,-0.045880
-0.036309,-0.045151,-0.041544,-0.046782,-0.018843,-0.046728,-0.055097,-0.053638,-0.060210
-0.009939,-0.051300,-0.015940,0.016396,-0.090437,0.002309,0.049597,0.197927,0.065297
0.082656,0.209270,0.091994,-0.052382,-0.107709,-0.053615,-0.009391,-0.096800,-0.030045
0.060065,0.110450,0.063791,0.003816,0.075846,-0.006526,-0.101847,-0.188506,-0.113342
-0.047138,-0.021929,0.063667,-0.160363,-0.007907,0.152445,-0.055776,-0.043825,0.082738
-0.041314,-0.023212,0.074071,-0.089533,-0.087665,0.151247,-0.047270,0.002699,0.061183
-0.014015,-0.006555,-0.088152,-0.090809,-0.112851,-0.009027,-0.013589,-0.004405,-0.096278
-0.108558,0.098370,0.012150,-0.104151,0.090403,0.065115,-0.059199,-0.121614,-0.098323
-0.105032,-0.119656,-0.113042,-0.067376,-0.040154,-0.073669,0.086593,0.123662,0.080647
0.000231,0.120331,0.031592,-0.075302,-0.012117,0.090413,0.076076,0.091900,0.058582
-0.050483,-0.044635,-0.061458,-0.033470,-0.017427,-0.042909,-0.050693,-0.036358,-0.052851
-0.034098,-0.025028,0.063700,-0.137060,-0.051939,0.154431,-0.055756,-0.039422,0.071066
0.099839,0.027120,-0.008536,0.119180,-0.189878,-0.088094,0.102238,-0.006562,-0.094393
0.051305,0.255274,0.062453,-0.062892,-0.171038,-0.082332,-0.033562,-0.037038,-0.029807
-0.056207,-0.054297,-0.058072,-0.048266,-0.023722,-0.050443,-0.058668,-0.064221,-0.056593
-0.020821,-0.026117,-0.026061,-0.043725,-0.250746,-0.051515,-0.016875,-0.050394,-0.028912
0.044673,-0.039592,0.036946,0.044121,-0.244835,0.022841,0.200878,0.044030,0.151789
0.031306,0.140630,0.050811,-0.000410,0.104689,-0.004557,-0.047375,-0.187716,-0.061029
0.029754,-0.006943,-0.033813,0.157042,-0.008096,-0.155950,0.045111,-0.006595,-0.045489
0.000603,-0.096300,0.000255,-0.036718,-0.153848,-0.063037,0.017100,0.253544,0.042824
-0.006031,0.055330,0.003891,0.061246,0.111798,0.067232,0.021321,0.052781,0.021044
-0.072159,-0.053899,-0.070490,-0.082342,0.162073,-0.067527,-0.085522,-0.045783,-0.080833
0.033558,0.046093,0.045675,0.026846,0.133711,0.040529,0.019740,0.009916,0.021491
0.057085,-0.029458,-0.049330,0.119186,-0.071112,-0.071312,0.111377,-0.055963,-0.082706
-0.055542,0.035749,0.080658,-0.060699,-0.134287,0.099818,-0.037677,0.034311,0.081751
-0.044946,-0.052789,-0.053055,-0.063569,-0.009581,-0.067896,-0.035779,-0.061076,-0.038578
0.077846,0.197996,0.110382,-0.056981,-0.134895,-0.066270,-0.044357,-0.006877,-0.046472
0.017511,0.042200,0.022630,0.043677,0.150425,0.056070,0.021975,0.053816,0.024587
-0.066625,-0.042587,-0.076939,-0.055227,0.030515,-0.056404,-0.058398,-0.046872,-0.059371
-0.069024,-0.138083,-0.166407,-0.145577,0.075445,0.047910,-0.087889,0.106134,0.047579
-0.044520,-0.051528,-0.048182,-0.052609,0.000266,-0.050844,-0.047105,-0.045787,-0.050089
0.024715,0.008058,0.026229,0.011933,0.157215,0.032062,0.010197,0.048588,0.012724
0.095702,0.189452,0.120005,-0.026031,-0.098048,-0.031213,-0.033992,-0.135033,-0.036493
-0.032698,-0.048250,-0.030082,-0.054839,-0.040768,-0.060778,-0.035844,-0.052420,-0.042520
0.037915,0.135743,0.049931,0.050006,-0.040712,0.060735,-0.063016,-0.176472,-0.090551
-0.052998,-0.043265,-0.058674,-0.041406,-0.041818,-0.049549,-0.059325,-0.030391,-0.064742
-0.052291,-0.059926,-0.062337,-0.060132,0.020071,-0.060901,-0.053154,-0.043355,-0.051773
-0.047570,-0.067238,-0.055629,-0.065388,-0.072882,-0.066447,-0.044441,-0.080460,-0.055142
-0.002183,0.046929,0.010089,0.023115,0.228189,0.038547,0.009837,0.028803,0.013744
-0.013998,0.024352,-0.008519,0.019153,0.119545,0.042191,-0.032408,0.039778,-0.031242
-0.026791,-0.111300,-0.029446,0.011719,-0.269892,0.004377,0.134361,0.123157,0.134609
-0.049226,0.088776,-0.040429,-0.018935,0.224207,0.020090,-0.070995,-0.052320,-0.069031
0.013565,0.128123,0.035977,0.048683,0.109955,0.060144,0.037054,-0.118025,0.024649
-0.036984,-0.050450,-0.049842,-0.045060,-0.021439,-0.047164,-0.046881,-0.037142,-0.044929
0.063505,0.199988,0.070557,-0.016108,-0.107059,-0.011629,-0.031007,-0.051325,-0.048757
0.084183,0.195151,0.094282,-0.013527,-0.194025,-0.019746,-0.021609,-0.074207,-0.029573
0.007580,0.036752,0.013624,0.043479,0.069768,0.044012,0.019683,0.024418,0.028805
0.037167,0.079457,0.040063,0.012943,0.076855,0.028181,0.014996,-0.037000,0.002572
0.061277,0.166296,0.077896,-0.024494,-0.006162,-0.030942,-0.045263,-0.143342,-0.055486
0.017406,-0.080843,-0.014243,0.112470,0.055666,-0.133782,0.065140,-0.050168,-0.064535
-0.029340,-0.012761,0.046939,-0.093273,-0.116862,0.214812,-0.052635,-0.023492,0.081356
0.023590,0.092813,0.050506,0.072676,0.158586,0.076342,0.036602,0.073325,0.049004
-0.007915,-0.060856,-0.023288,-0.065754,-0.059820,-0.064417,-0.023489,-0.045131,-0.028961
0.057699,-0.078547,-0.042308,0.130194,0.014094,-0.126454,0.082156,-0.077857,-0.056419
-0.043739,-0.057815,-0.048130,-0.032619,-0.027455,-0.038469,-0.041137,-0.037740,-0.052873
-0.066764,-0.123400,-0.077005,0.038198,-0.084016,0.038134,0.074849,0.132869,0.085674
0.052225,0.085532,0.064368,0.035259,0.146116,0.040844,0.010459,0.033772,0.014751
-0.035645,-0.019121,0.060996,-0.097775,-0.095778,0.157820,-0.044286,-0.036501,0.079677
0.076493,0.126704,0.101216,0.081397,-0.125224,0.059350,-0.060075,-0.067724,-0.061440
0.003078,0.041635,0.004777,0.031627,0.106587,0.036631,-0.026245,0.047263,-0.012714
-0.044849,-0.027944,-0.052425,-0.034240,-0.036933,-0.043108,-0.047296,-0.051979,-0.060875
-0.104274,0.045251,0.028554,-0.181017,0.077648,0.093747,-0.016883,-0.033390,-0.007634
0.056551,-0.030179,-0.054656,0.135759,0.026041,-0.160996,0.065886,-0.055306,-0.049747
0.072440,0.108774,0.086750,-0.012764,0.082344,-0.019125,-0.080848,-0.093391,-0.093124
-0.137205,-0.013442,-0.045608,-0.174367,0.260147,0.035931,-0.177290,-0.046263,-0.003817
-0.040345,-0.057698,-0.052043,-0.059551,-0.003075,-0.064204,-0.032274,-0.050366,-0.038013
-0.027095,-0.056696,-0.037348,-0.055910,-0.040599,-0.058415,-0.029346,-0.048047,-0.037845
-0.052022,-0.110140,-0.056618,-0.031912,-0.057753,-0.039242,0.060027,0.174658,0.076209
-0.047763,-0.051727,-0.058668,-0.059268,0.043720,-0.054353,-0.063021,-0.054133,-0.068446
0.007286,0.109533,0.024449,0.060917,0.128371,0.065147,-0.005794,-0.010174,-0.005371
-0.047657,-0.032176,-0.058702,-0.043956,-0.057525,-0.053523,-0.041585,-0.036588,-0.051707
0.093660,0.054825,0.109480,0.066081,-0.075834,0.060218,-0.056519,-0.127123,-0.060518
-0.031167,0.007361,0.065894,-0.072724,-0.116168,0.134572,-0.045169,-0.001843,0.091918
0.011834,0.006722,0.009528,0.035865,0.129201,0.034084,0.008795,0.047697,0.019978
0.104352,0.119953,0.109303,-0.034772,-0.137667,-0.035899,-0.049431,-0.057758,-0.055916
-0.059301,-0.057252,-0.064442,-0.045137,0.003431,-0.042909,-0.050653,-0.024904,-0.048550
-0.062290,-0.031242,0.060291,-0.108238,-0.062971,0.196840,-0.014068,-0.042928,0.035705
-0.063861,-0.010092,-0.066386,-0.090533,-0.029313,-0.089040,-0.054284,-0.008084,-0.067021
-0.041603,-0.068288,-0.052260,-0.064491,0.015577,-0.061656,-0.040108,-0.052763,-0.056265
0.043068,0.104361,-0.067342,0.055217,0.091338,-0.143685,-0.124532,-0.160044,-0.063038
0.016142,0.059427,0.029268,0.059940,0.126629,0.059402,-0.114670,-0.164011,-0.134824
-0.020472,-0.052074,-0.022791,-0.049396,-0.067086,-0.058281,-0.039794,-0.060833,-0.036815
-0.028319,-0.103118,-0.025937,-0.039187,-0.062552,-0.050781,0.031010,0.187843,0.055465
-0.049369,-0.046033,-0.049569,-0.053125,0.013567,-0.055235,-0.054020,-0.037926,-0.058221
-0.056483,-0.052610,-0.059670,-0.036548,-0.037407,-0.049548,-0.038504,-0.042397,-0.042815
-0.044868,-0.035303,-0.041895,-0.046187,-0.023098,-0.052408,-0.043246,-0.048208,-0.046285
-0.067920,-0.117108,-0.120307,-0.117368,0.123893,0.051955,-0.115107,0.091259,0.036353
-0.037463,-0.084592,-0.057681,-0.037199,-0.111120,-0.050936,0.061540,0.193161,0.079844
-0.038373,-0.067955,-0.047146,-0.047030,-0.044626,-0.045025,-0.035960,-0.056845,-0.032604
-0.041335,-0.040730,-0.039269,-0.056864,-0.025690,-0.055266,-0.053071,-0.061628,-0.059956
0.003807,0.058667,0.021110,0.031586,0.132886,0.042050,-0.022036,0.028759,-0.006406
-0.093429,-0.106867,0.022922,-0.089240,0.112580,0.085605,-0.104959,-0.079955,0.063857
0.098404,0.090591,0.106403,-0.039182,0.097502,-0.030750,-0.091483,-0.134655,-0.095392
-0.056906,-0.137810,-0.131060,-0.108244,0.047554,0.063179,-0.103716,0.091271,0.040499
-0.038328,-0.184359,-0.067511,0.065228,-0.028462,0.069541,0.059029,0.091713,0.072008
-0.036873,-0.053351,-0.040661,-0.050454,-0.053018,-0.057689,-0.034037,-0.053175,-0.038334
-0.060386,-0.019687,0.077950,-0.145031,-0.019236,0.146600,-0.052959,-0.034604,0.088914
0.019100,-0.128971,0.009952,0.177234,-0.145232,0.180476,0.022113,-0.139174,0.007216
0.027294,0.043682,0.033447,0.017291,0.069326,0.024735,-0.002854,-0.006616,-0.009013
-0.041250,-0.043520,-0.047616,-0.047243,-0.014914,-0.045076,-0.047906,-0.027050,-0.049506
-0.059620,-0.064802,-0.056394,0.005236,-0.107699,-0.003882,0.086136,0.132902,0.096686
-0.023279,-0.050477,0.045569,-0.131284,-0.043756,0.186354,-0.041823,-0.053245,0.070989
-0.060277,-0.027701,-0.058535,-0.036850,-0.117321,-0.033571,-0.037150,-0.029066,-0.032025
-0.055494,-0.035191,0.079177,-0.091118,-0.057137,0.155971,-0.072075,-0.003965,0.064576
-0.012901,-0.070947,-0.015192,-0.055692,-0.107940,-0.063940,-0.032018,-0.044483,-0.035791
0.042043,0.081043,0.055989,0.005609,0.121345,0.015586,0.013213,0.041486,0.025985
-0.019261,-0.039516,-0.027908,-0.002932,0.089472,0.022492,0.039011,0.151427,0.055245
-0.063884,-0.114451,-0.084147,0.011723,-0.050046,0.009320,0.077468,0.147459,0.094169
-0.041600,-0.048808,-0.046156,-0.027703,-0.053916,-0.040524,-0.053182,-0.038495,-0.057569
-0.008156,0.022416,-0.007082,0.025260,0.108581,0.042001,0.025228,0.039291,0.026455
0.054149,-0.050876,-0.032591,0.035480,-0.107464,-0.021659,-0.067987,0.135940,0.055398
-0.049703,-0.059991,-0.052395,-0.039963,-0.037615,-0.047441,-0.056295,-0.051433,-0.057488
0.132004,0.157184,0.143576,-0.009938,-0.219044,-0.020508,0.005555,-0.031051,-0.005651
0.058353,-0.019182,-0.043408,0.156617,-0.023189,-0.133882,0.093555,-0.021402,-0.070458
0.036494,0.078960,0.036045,0.048374,0.127438,0.056465,0.026921,0.065561,0.029950
-0.028420,-0.061839,-0.033798,-0.029797,-0.048271,-0.031382,-0.048535,-0.052364,-0.045489
-0.059654,-0.040759,-0.063897,-0.049601,-0.013098,-0.045486,-0.043557,-0.042791,-0.050726
-0.041377,-0.038623,0.084581,-0.147935,-0.064082,0.180272,-0.046277,-0.016940,0.080464
-0.027048,-0.065402,-0.032268,-0.062095,-0.033511,-0.060432,-0.036352,-0.064612,-0.037622
-0.038148,-0.081140,-0.045490,-0.056705,-0.025235,-0.052183,-0.055340,-0.048750,-0.059039
-0.043651,-0.051998,-0.050092,-0.049670,-0.033895,-0.058109,-0.043149,-0.039330,-0.052704
0.116993,0.110089,0.131108,-0.068130,-0.011664,-0.068259,-0.052721,-0.097536,-0.068464
-0.049542,-0.041312,-0.048607,-0.053553,-0.037967,-0.052261,-0.041256,-0.047220,-0.056268
-0.022875,-0.108156,-0.039497,-0.027866,-0.011564,-0.028297,0.038649,0.206825,0.055078
-0.026900,-0.102309,-0.039008,0.016269,0.078818,0.018538,0.042474,0.140781,0.065544
-0.038196,-0.054004,-0.049594,-0.048299,-0.019298,-0.048502,-0.047720,-0.060018,-0.065255
-0.061339,-0.141058,-0.079823,0.000346,0.112902,-0.000993,0.039545,0.151209,0.066646
0.073734,-0.040560,-0.052798,0.137819,-0.035800,-0.106794,0.114948,-0.063642,-0.076415
0.050444,-0.008830,-0.035973,0.199494,-0.063765,-0.156105,0.061011,-0.018151,-0.038163
-0.072753,-0.106300,-0.087777,-0.011189,0.042801,-0.010097,0.050577,0.176511,0.070425
-0.054022,-0.016254,0.086813,-0.115703,-0.011970,0.146014,-0.047167,-0.029737,0.060740
0.008306,0.008059,0.012233,0.021602,0.173414,0.041210,0.012428,0.026539,0.012597
0.068152,0.125320,0.087558,0.051962,-0.109607,0.030357,-0.020648,-0.124065,-0.034244
0.079407,0.140714,0.080933,-0.045683,0.013919,-0.050994,-0.041456,-0.141965,-0.070402
0.084409,0.112448,0.103141,0.034057,-0.029376,0.016041,-0.080665,-0.174705,-0.109781
-0.040142,-0.059289,-0.048168,-0.038912,-0.034706,-0.044047,-0.040669,-0.034585,-0.055283
-0.038616,-0.040062,-0.051066,-0.047363,-0.043062,-0.054833,-0.028555,-0.047093,-0.026509
-0.116725,-0.140476,-0.133514,0.009263,0.010097,0.013131,0.065433,0.142506,0.083770
-0.053391,-0.068144,-0.059406,-0.029004,-0.100740,-0.028099,-0.043960,-0.019159,-0.046174
-0.085201,-0.072311,-0.093302,-0.073530,-0.085323,-0.067994,0.065765,0.173030,0.084831
0.019311,0.006964,-0.036433,0.165494,-0.114665,-0.095233,0.057602,-0.007004,-0.057594
-0.104943,-0.238326,-0.119034,0.053636,0.208746,0.043782,0.008577,0.015139,0.014977
-0.022611,-0.053215,-0.033130,-0.049555,-0.136440,-0.063265,-0.041179,-0.059234,-0.041105
0.033098,-0.004117,0.041429,0.048593,0.243382,0.071658,0.062801,0.129206,0.063654
0.047007,-0.011047,0.035884,-0.000225,-0.427239,0.011240,0.215272,0.007742,0.192114
-0.050296,-0.044943,-0.058219,-0.043082,-0.022052,-0.048706,-0.066331,-0.049810,-0.057296
-0.061118,-0.008522,0.047968,-0.037115,-0.184639,0.145792,0.011002,0.083155,0.048860
-0.057155,-0.024793,0.068260,-0.169404,-0.025582,0.177215,-0.026778,-0.032788,0.056132
0.014279,0.034336,0.007755,0.023183,0.205091,0.036843,0.017817,0.061606,0.011324
0.084531,-0.032689,-0.062373,0.117367,-0.001984,-0.129477,0.059525,-0.073202,-0.070460
0.061346,-0.007959,-0.057602,0.151622,-0.023205,-0.130549,0.084987,-0.028912,-0.075930
0.090926,-0.023327,-0.054734,0.145266,-0.010071,-0.124145,0.069482,-0.013876,-0.060472
-0.064549,-0.142172,-0.110105,-0.130734,0.130364,0.049959,-0.103884,0.069436,0.004261
-0.024769,-0.050427,-0.083876,0.038770,-0.237993,0.008580,0.099894,0.044404,0.090910
0.065424,0.081201,0.079206,0.090727,0.052448,0.097360,-0.080803,-0.062151,-0.095296
-0.027843,-0.033105,0.081531,-0.190271,0.001690,0.193420,-0.027552,-0.051049,0.079015
-0.092349,-0.058070,-0.094782,-0.014746,0.256146,-0.006247,-0.082028,-0.021770,-0.080614
-0.059728,-0.039081,0.075955,-0.131174,-0.033596,0.167667,-0.078387,-0.040083,0.072516
0.010520,-0.008163,0.026530,0.035044,0.190715,0.023600,0.015359,0.078701,0.033909
-0.050250,-0.038735,-0.056728,-0.054410,-0.000922,-0.060497,-0.035313,-0.050627,-0.041331
0.063186,0.145839,0.088453,0.044852,-0.043082,0.043254,-0.081919,-0.104509,-0.083115
0.018341,0.040845,0.019801,0.021477,0.209761,0.031567,0.027732,0.034956,0.038387
0.019409,0.036202,0.023087,0.031804,0.168775,0.045714,0.036612,0.005254,0.040538
-0.081046,-0.031793,-0.087690,-0.066987,0.180781,-0.063132,-0.101484,-0.067358,-0.100098
0.103647,0.054300,-0.195290,-0.017028,-0.039820,0.042156,-0.116717,-0.014195,0.106942
0.118470,0.083625,0.138325,0.075356,-0.162506,0.069894,0.040655,-0.025970,0.041050
0.044554,-0.016361,-0.027872,0.167179,-0.076495,-0.104417,0.075572,-0.051615,-0.029304
0.079185,0.182659,0.086397,-0.002297,-0.125779,-0.020317,-0.034884,-0.148458,-0.043107
0.024655,0.041505,0.027967,0.019741,0.111332,0.032984,-0.038876,0.006176,-0.057597
-0.031926,-0.058718,-0.028589,-0.064322,-0.017887,-0.068499,-0.038723,-0.043340,-0.034292
-0.063158,-0.005620,0.062605,-0.133127,-0.087147,0.197486,-0.052554,-0.020591,0.041888
0.018594,0.095532,0.025172,0.095473,-0.030570,0.081304,0.015865,0.078323,0.018407
-0.095169,-0.052847,-0.098442,-0.048088,-0.013271,-0.043769,-0.053777,-0.027687,-0.055558
-0.029770,-0.021084,-0.030213,-0.097036,0.111683,-0.094232,-0.058391,-0.113292,-0.077103
-0.054372,-0.079778,-0.081382,-0.032651,-0.001328,-0.030740,0.083380,0.147254,0.101370
0.073071,-0.039211,-0.042671,0.166477,-0.099803,-0.067162,0.075404,-0.043264,-0.037996
0.033436,0.193591,0.031707,0.024601,0.095120,0.033435,-0.060498,-0.145102,-0.086407
-0.025352,-0.055347,0.058549,-0.102602,-0.064330,0.164992,-0.061300,-0.040372,0.058804
-0.025302,-0.025530,0.047008,-0.141307,-0.019354,0.161037,-0.042766,-0.031775,0.071619
-0.045536,-0.059212,-0.040908,-0.079809,-0.039298,-0.076624,-0.038769,-0.053054,-0.042385
-0.045408,-0.037898,-0.049659,-0.029167,-0.036236,-0.053151,-0.045499,-0.048353,-0.041825
0.044626,0.165120,0.062117,0.025904,0.115396,0.025638,-0.047185,-0.128072,-0.057246
0.083551,0.137697,0.104344,0.020529,-0.112765,0.001974,-0.017933,-0.055660,-0.017640
0.005240,0.084812,0.007982,0.035667,0.185839,0.052748,0.007804,0.065030,0.012311
-0.040201,0.097415,0.028927,-0.033497,0.103983,0.064630,-0.074041,-0.089947,-0.113733
0.044508,0.052701,0.047614,0.029516,0.110052,0.039270,0.018530,-0.005952,0.020160
0.079699,0.043049,0.091958,0.065305,-0.154124,0.069242,0.095785,0.014706,0.104329
-0.035932,-0.049702,-0.039510,-0.055971,-0.050693,-0.054048,-0.044947,-0.069601,-0.049110
0.014068,-0.002825,0.026001,0.019438,0.162443,0.031337,0.059405,0.035332,0.069482
-0.062054,-0.198436,-0.083264,0.006091,0.076146,0.008733,0.045588,0.136306,0.052794
0.011410,0.004296,0.026682,0.003537,0.252457,0.018142,0.034964,0.037141,0.045608
-0.062172,-0.134582,-0.077183,0.003812,0.087117,-0.007183,0.071328,0.122778,0.078699
-0.045682,-0.053691,-0.042659,-0.070604,0.004401,-0.074218,-0.037517,-0.080133,-0.050164
-0.022347,-0.049465,0.328817,-0.031317,-0.151972,0.047214,-0.070747,-0.058072,0.085573
-0.097938,-0.090886,-0.104660,0.053584,-0.074565,0.042911,0.049155,0.112120,0.064934
-0.067197,-0.026797,-0.064620,-0.035354,-0.047433,-0.034031,-0.046825,-0.046912,-0.047142
0.007637,0.061485,0.020410,0.062024,0.135306,0.070464,-0.108224,-0.002466,-0.115582
-0.006539,0.028371,-0.005708,0.025115,0.081753,0.026962,-0.001098,0.057888,0.010812
0.002025,0.068187,0.009621,0.072888,0.059745,0.078280,0.018166,0.055872,0.023223
-0.034042,-0.053444,-0.037076,-0.055387,-0.038417,-0.069914,-0.040939,-0.060424,-0.041166
0.065350,-0.014434,-0.048387,0.160420,-0.004451,-0.150299,0.078909,-0.024814,-0.075086
-0.107691,-0.143369,-0.128247,0.001461,0.125629,0.010613,0.043715,0.086064,0.044121
0.021684,0.047069,0.045574,0.131581,-0.005379,0.129726,0.024005,-0.053408,0.031913
0.001358,0.029356,0.007268,0.027015,0.120111,0.042184,0.010220,0.048005,0.017611
-0.043950,-0.055846,-0.043272,-0.059572,-0.031342,-0.051148,-0.050437,-0.043538,-0.052651
-0.078773,-0.187200,-0.095222,-0.029852,0.225055,-0.025234,0.026490,0.087513,0.033046
-0.064902,-0.157847,-0.063443,-0.148260,0.062374,0.069217,-0.127106,0.073272,0.039550
-0.046988,-0.043431,-0.053230,-0.034591,-0.024172,-0.038299,-0.049283,-0.037424,-0.057891
0.111222,-0.038460,-0.114021,0.148118,-0.078803,-0.081347,0.081575,-0.026116,-0.030320
-0.047868,0.016243,-0.051551,-0.025848,-0.188935,-0.036029,0.104335,0.133003,0.114175
-0.029023,-0.106813,-0.040617,0.058484,0.017350,0.063820,0.037424,0.137718,0.055894
-0.050182,-0.015562,0.072628,-0.144058,-0.020548,0.174882,-0.051256,-0.042432,0.088781
-0.040919,-0.041487,-0.047360,-0.053346,-0.016159,-0.056078,-0.020848,-0.067307,-0.033049
-0.055988,-0.032539,-0.070195,-0.066475,-0.047079,-0.074125,-0.038654,-0.055782,-0.057798
-0.045052,-0.041293,0.074965,-0.126610,-0.027632,0.154109,-0.041210,-0.058370,0.085743
0.011876,0.142744,0.044801,0.107419,-0.010006,0.101816,0.031584,0.053770,0.041570
0.041433,0.063495,0.039276,0.056071,0.067180,0.070404,0.015586,-0.054585,0.011452
-0.049407,-0.085488,-0.059838,-0.088392,0.012620,-0.076119,-0.032396,-0.088890,-0.040180
-0.035882,-0.049931,-0.055568,-0.034095,-0.037517,-0.041357,-0.039620,-0.042506,-0.043539
-0.090683,-0.131527,-0.120866,0.140188,-0.032011,0.152674,0.023655,0.059133,0.030485
-0.061638,-0.013496,0.054522,-0.072204,-0.107541,0.149533,-0.059801,-0.036529,0.076593
0.010917,0.020634,0.010119,0.056684,0.122575,0.067230,0.029038,0.083053,0.034044
-0.042843,-0.042587,-0.057752,-0.051856,-0.027215,-0.044619,-0.051521,-0.048677,-0.062747
0.058017,0.019360,-0.102991,0.132526,-0.004230,-0.117824,0.062285,-0.000791,-0.100746
-0.060812,-0.134617,-0.071379,-0.035288,0.198976,-0.014496,-0.045222,0.106736,-0.030013
0.050987,0.178909,0.058765,0.007454,0.058070,0.002390,-0.095273,-0.166039,-0.106251
-0.051296,-0.044915,-0.058504,-0.038524,-0.025654,-0.042880,-0.057597,-0.057863,-0.061069
0.018870,0.044162,0.024473,0.034872,0.153734,0.046195,0.024615,0.072274,0.040771
0.005575,0.138863,0.027249,-0.032473,0.058105,-0.035311,0.018776,0.131778,0.031158
-0.035034,-0.036764,-0.040447,-0.050060,-0.051426,-0.058749,-0.046614,-0.033421,-0.057642
-0.029545,-0.061968,-0.036097,-0.051269,-0.011678,-0.062637,-0.028807,-0.068990,-0.040144
0.028306,0.211722,0.058019,0.011525,-0.109899,0.001654,-0.020914,-0.104260,-0.039147
-0.064404,-0.034117,-0.077261,-0.124030,0.460112,-0.117781,-0.077006,-0.024369,-0.084254
-0.021476,-0.040808,-0.017687,-0.053306,-0.094213,-0.064482,0.034514,0.229456,0.050915
0.048726,0.206059,0.060415,0.013080,-0.002843,0.009730,-0.006611,-0.121152,-0.021218
-0.025160,-0.064562,-0.027582,-0.070246,-0.039134,-0.071619,-0.039651,-0.058633,-0.046105
-0.059574,-0.153832,-0.074735,-0.000942,0.103451,-0.009748,0.049551,0.177581,0.068824
-0.033920,-0.188874,-0.043974,0.010773,0.081801,0.010553,0.040533,0.160709,0.058524
0.067788,0.083137,0.074690,0.076366,-0.167048,0.037117,0.096580,0.090583,0.122740
0.051625,0.121266,0.072972,-0.094366,0.076725,-0.073108,-0.106298,-0.154868,-0.100773
-0.029744,-0.066821,-0.047598,-0.058418,-0.032809,-0.054426,-0.042796,-0.059232,-0.055728
0.041281,0.167620,0.053890,0.026788,-0.079758,0.026759,-0.036933,-0.143564,-0.045561
0.059821,0.166139,0.079210,0.018535,-0.037275,0.005956,-0.090207,-0.113453,-0.093792
-0.022577,-0.124436,-0.028509,0.044554,-0.011695,0.036252,0.096496,0.133354,0.109587
-0.102810,-0.222303,-0.120076,-0.012742,0.136032,-0.020246,0.011717,0.089600,0.008355
0.035968,0.019811,0.038778,0.008334,0.165622,0.034132,0.037283,0.050624,0.038566
0.007673,0.073977,0.006723,0.049420,0.124604,0.069121,0.005743,0.054033,0.011433
-0.022890,0.007075,-0.011534,0.072132,0.053099,0.069815,0.079725,0.067856,0.087438
0.054721,-0.016054,0.045711,-0.011686,0.226260,0.013158,0.038069,0.042509,0.039839
-0.018947,-0.004973,-0.012937,0.020511,0.070494,0.014578,0.024697,0.139239,0.046613
0.139779,0.001828,0.153726,0.037291,-0.612185,0.010248,0.138872,-0.011199,0.143767
-0.038823,-0.039118,-0.048381,-0.042405,-0.028555,-0.050926,-0.047632,-0.046898,-0.050842
-0.019333,-0.086302,-0.046807,0.042735,-0.099547,0.061408,0.077076,0.145663,0.087270
0.036002,-0.001206,-0.037108,0.167737,-0.085143,-0.127250,0.060460,-0.007453,-0.079440
0.060146,0.197673,0.085590,0.034453,-0.059470,0.025198,-0.072113,-0.147685,-0.083817
-0.061042,-0.030699,0.077975,-0.076665,-0.077732,0.137567,-0.058063,-0.046751,0.093205
-0.025960,-0.024690,0.048987,-0.109942,-0.086592,0.166017,-0.040149,-0.043239,0.093742
0.026516,0.146895,0.032056,-0.068395,0.085507,-0.074280,-0.024303,-0.131062,-0.019302
0.002816,-0.014240,0.009521,0.090427,0.017963,0.075469,0.045352,0.099177,0.062436
0.011316,0.130508,0.025217,0.122457,-0.035502,0.114378,0.050770,0.125507,0.063230
-0.067626,-0.039038,0.065758,-0.171012,0.006562,0.164533,-0.064413,-0.058578,0.065737
-0.056451,-0.048416,-0.068773,-0.031234,-0.022850,-0.038399,-0.044442,-0.046284,-0.057920
-0.023758,-0.008298,-0.029001,-0.051134,-0.087494,-0.053270,0.059393,0.204169,0.068067
0.064324,0.003785,-0.064833,0.130335,-0.005299,-0.142248,0.067562,0.023105,-0.081627
0.070537,-0.057697,0.063544,0.107051,-0.293334,0.095294,0.073430,-0.099697,0.063902
0.073839,0.168059,0.096543,-0.064410,0.021133,-0.067342,-0.052198,-0.118568,-0.071949
-0.040415,-0.062112,-0.046495,-0.047656,-0.045404,-0.056592,-0.044628,-0.035008,-0.048531
-0.076721,-0.046606,-0.083529,-0.050452,0.227273,-0.035206,-0.104527,-0.055986,-0.109435
-0.050122,-0.037279,-0.061089,-0.049975,-0.015416,-0.061898,-0.023330,-0.054704,-0.034960
0.082951,-0.019644,-0.065704,0.141368,-0.023265,-0.118367,0.101877,-0.046694,-0.063727
-0.032393,-0.082965,-0.045055,0.068570,0.065901,0.081690,0.036950,0.120460,0.056044
0.060863,-0.017825,-0.041699,0.138925,0.000472,-0.150691,0.069150,-0.003844,-0.068527
0.075537,0.175456,0.093739,-0.087088,-0.009891,-0.086077,-0.021789,-0.134906,-0.047809
-0.104965,-0.038134,0.154775,-0.061350,-0.121096,0.151285,-0.026009,-0.017683,0.066138
-0.045480,-0.016625,-0.049105,-0.040356,-0.037276,-0.048641,-0.042116,-0.047523,-0.054525
0.072896,0.150651,0.088504,-0.010150,-0.120068,-0.018548,-0.086212,-0.119155,-0.101794
-0.041638,-0.049421,-0.050370,-0.038753,-0.017582,-0.041699,-0.050405,-0.045126,-0.054486
-0.009815,0.064930,0.014486,0.040550,0.192598,0.049985,-0.003897,0.052659,0.006636
0.068636,-0.013289,-0.051113,0.146940,-0.014840,-0.125367,0.070815,-0.021434,-0.056650
0.017612,0.098884,0.020629,0.074668,0.065123,0.075469,-0.009714,0.040818,-0.014513
0.056361,0.001875,-0.057693,0.163196,-0.007747,-0.154652,0.074670,-0.029195,-0.056368
-0.045835,-0.056523,-0.053376,-0.038709,0.020683,-0.043913,-0.072606,-0.022719,-0.076909
-0.049249,-0.037487,0.064176,-0.174376,-0.004619,0.167904,-0.067038,-0.043717,0.084324
-0.037628,-0.045379,-0.037468,-0.054881,-0.063330,-0.057462,-0.035579,-0.077081,-0.043754
-0.080713,-0.126038,-0.083569,0.032358,-0.036801,0.012273,0.038221,0.161545,0.063916
0.030697,0.052167,0.034057,0.026527,0.225020,0.042613,0.027665,0.065025,0.032268
-0.053048,-0.014872,-0.048532,-0.045189,-0.050677,-0.055999,-0.046126,-0.028783,-0.046110
-0.039655,-0.065002,-0.048220,-0.063010,-0.022387,-0.064513,-0.066749,-0.028450,-0.068984
0.089118,0.167490,0.111754,0.039942,-0.309479,0.032778,0.000433,-0.038061,0.001581
-0.050974,-0.032142,-0.054118,-0.043732,-0.011231,-0.049121,-0.056357,-0.048600,-0.058260
-0.015800,-0.043640,-0.025354,-0.065385,-0.097928,-0.069113,-0.035494,-0.057655,-0.040185
0.057305,-0.046168,-0.033666,0.162278,-0.012591,-0.139185,0.095931,-0.070335,-0.043827
0.053720,0.171248,0.062043,-0.001162,-0.036857,-0.008596,-0.057673,-0.160798,-0.070501
0.035635,0.009101,-0.033172,0.185010,-0.063838,-0.142935,0.040811,-0.007987,-0.022989
-0.012143,-0.217468,-0.019036,0.075171,-0.081142,0.077241,0.111691,-0.011273,0.132267
0.057994,0.147490,0.080941,0.003400,0.074964,0.009099,-0.052841,-0.117913,-0.068887
-0.003736,0.064447,-0.006993,0.046125,0.203398,0.069968,0.006656,0.031380,0.018778
0.054481,0.187167,0.070349,-0.064054,-0.101580,-0.068396,-0.033129,-0.045003,-0.039211
-0.086886,-0.048340,-0.104355,-0.044022,0.150416,-0.037069,-0.091211,-0.048163,-0.092730
0.051175,-0.007765,-0.034374,0.175590,-0.040569,-0.161127,0.071949,-0.021614,-0.038769
-0.030921,-0.017642,-0.037769,-0.035954,-0.103031,-0.039768,0.054682,0.185214,0.074559
0.043186,0.078836,0.061218,0.094180,-0.078466,0.097221,0.044052,0.070809,0.050205
0.004920,0.107655,0.003959,-0.078083,0.183259,-0.051074,0.011192,0.114255,0.020529
-0.025001,-0.045229,-0.030830,-0.058111,-0.110689,-0.058144,-0.028270,-0.035749,-0.030803
0.076844,-0.035585,-0.072104,0.138231,0.004876,-0.101931,0.085211,-0.046326,-0.075325
-0.049635,-0.141410,-0.062830,-0.004792,0.005278,-0.010554,0.052181,0.143936,0.082205
0.083919,0.021745,-0.073405,0.127203,-0.001434,-0.150180,0.104649,0.006019,-0.057104
-0.081815,-0.150618,-0.086080,0.046513,0.044449,0.046972,0.042977,0.119224,0.040836
-0.030113,-0.072451,-0.042841,-0.062900,-0.002778,-0.074038,-0.021795,-0.097645,-0.031316
-0.039236,-0.023914,0.067614,-0.118518,-0.051415,0.166399,-0.043648,-0.038126,0.082296
-0.020538,-0.057649,-0.026524,-0.044232,-0.167485,-0.041387,-0.041803,-0.073339,-0.044108
-0.033172,-0.113581,-0.064235,-0.147197,0.062390,-0.140611,0.140569,0.127391,0.169684
-0.042682,-0.038151,-0.041586,-0.042560,-0.042602,-0.048274,-0.048430,-0.049796,-0.061099
0.001465,0.053323,0.004315,0.058498,0.224910,0.059961,0.005736,0.077102,0.008533
-0.002367,-0.044626,-0.011870,-0.019729,-0.229499,-0.024363,0.081562,0.171571,0.098710
-0.022866,-0.052703,-0.023819,-0.055856,-0.051255,-0.067362,-0.040171,-0.058599,-0.040044
-0.007359,0.067043,-0.000175,0.058700,0.160296,0.067515,0.002276,0.074920,0.013918
-0.032046,-0.045161,-0.030803,-0.051620,-0.050360,-0.053265,-0.051995,-0.046624,-0.056622
-0.034539,-0.034952,-0.041379,-0.051574,-0.016529,-0.060111,-0.057332,-0.060108,-0.060852
0.127448,0.169545,0.124227,0.013252,-0.134695,0.010116,-0.021077,-0.010569,-0.023328
-0.052331,-0.069674,0.078457,-0.067892,-0.019112,0.140179,-0.073391,-0.093143,0.075696
-0.045061,-0.087592,-0.046451,0.020128,-0.153078,0.010343,0.081407,0.146949,0.102535
-0.051396,-0.060628,-0.057728,-0.061970,-0.010300,-0.067418,-0.057137,-0.055514,-0.064687
-0.070227,0.080413,0.067506,-0.168239,0.055550,0.094125,-0.124461,-0.109405,-0.074464
-0.040831,-0.045557,-0.052364,-0.046356,-0.043468,-0.049301,-0.047362,-0.032301,-0.051044
-0.011936,-0.087616,-0.014325,-0.069068,-0.122429,-0.071331,-0.024422,-0.048235,-0.020348
-0.011127,-0.059039,-0.019999,-0.078855,-0.061763,-0.084123,-0.040903,-0.049042,-0.051027
-0.000956,0.077891,0.021731,0.066723,0.108777,0.077370,0.042866,0.028227,0.048085
0.004892,0.101706,0.007814,0.045897,0.151526,0.067808,-0.016699,-0.014976,-0.029879
-0.040717,-0.048057,0.076718,-0.079290,-0.075932,0.161071,-0.038136,-0.050904,0.067382
-0.032147,-0.063774,-0.041271,-0.066658,-0.022697,-0.060466,-0.053164,-0.043363,-0.062934
-0.047234,-0.038230,-0.048283,-0.026234,-0.034775,-0.033879,-0.053433,-0.046005,-0.056063
-0.033689,-0.048056,-0.037090,-0.056466,-0.019819,-0.055431,-0.037565,-0.045799,-0.041429
-0.050163,-0.040242,0.087507,-0.096955,-0.049406,0.203822,-0.063673,-0.057363,0.091560
-0.077380,-0.040248,-0.078650,-0.056564,-0.030050,-0.060467,-0.029093,-0.036466,-0.030806
0.092800,0.007488,-0.086099,0.156791,-0.108569,-0.090418,0.073612,0.010318,-0.073057
-0.054735,-0.055803,-0.057681,-0.062547,-0.069483,-0.064100,-0.044039,-0.052342,-0.047816
-0.114248,-0.105372,-0.114279,0.057927,-0.039842,0.069692,0.073298,0.109978,0.084779
0.044266,-0.055059,0.176911,0.017046,-0.354315,-0.018318,0.053273,-0.011706,0.203075
0.045423,0.092026,0.056697,-0.010360,0.108587,0.007550,-0.093010,-0.116076,-0.106321
-0.038561,-0.039059,-0.051074,-0.048641,-0.038974,-0.054999,-0.047337,-0.041861,-0.046575
0.066380,-0.056868,-0.027261,0.208566,-0.116738,-0.102109,0.104078,-0.062804,-0.034266
0.007571,-0.005257,0.004628,0.044525,-0.140350,0.041077,0.117255,0.162198,0.127900
-0.015755,-0.023842,-0.009337,0.049471,0.070454,0.055866,0.051586,0.158896,0.063006
0.088954,0.101189,0.104091,-0.023615,0.048860,-0.019229,-0.051776,-0.076844,-0.063729
-0.048878,-0.029911,-0.048491,-0.030087,-0.022450,-0.037190,-0.057061,-0.025380,-0.060105
-0.043370,-0.049901,-0.046298,-0.063721,-0.027592,-0.061732,-0.021901,-0.052276,-0.029238
0.074915,0.172379,0.086632,-0.026120,-0.107907,-0.030855,-0.000471,-0.143447,-0.036538
0.016445,0.079589,0.029806,0.084365,-0.085211,0.087056,0.035439,0.070514,0.038812
-0.028742,-0.049299,-0.033192,-0.051962,-0.020165,-0.055626,-0.041997,-0.052079,-0.047825
-0.072392,-0.023006,0.091702,-0.066896,-0.079511,0.174944,-0.069724,-0.029018,0.078778
-0.066682,0.010915,0.064584,-0.122451,-0.048241,0.150522,-0.082204,-0.005305,0.086235
-0.039775,-0.047465,-0.056107,-0.051817,0.003791,-0.046669,-0.044540,-0.042971,-0.048442
-0.034596,-0.046214,-0.058095,-0.040323,-0.039428,-0.045826,-0.039695,-0.040203,-0.040385
0.004500,-0.126355,0.005138,-0.014754,-0.037751,-0.117309,0.008688,-0.165555,0.014737
-0.127088,0.081518,0.033330,-0.117621,0.090934,0.052195,-0.106985,-0.080568,-0.005478
0.003152,0.091528,0.006872,0.080559,0.055500,0.088466,0.016200,0.068333,0.020690
0.035828,0.158405,0.060055,-0.101860,0.026455,-0.089322,-0.041297,-0.031618,-0.050012
-0.039861,-0.040761,-0.040424,-0.045062,-0.017338,-0.043187,-0.055135,-0.038745,-0.069028
-0.042179,-0.055668,-0.051990,-0.027231,-0.168691,-0.044237,0.115035,0.107183,0.126846
0.025797,0.016496,0.035395,0.021096,0.147490,0.028975,0.020328,0.098913,0.043121
-0.038553,-0.147103,-0.074202,0.090653,0.060352,-0.118881,0.052964,0.048823,-0.132295
-0.050861,-0.028305,-0.055879,-0.043030,-0.015780,-0.058925,-0.043842,-0.023293,-0.048108
-0.094479,-0.033269,-0.088134,-0.023746,0.253831,-0.028619,-0.090074,-0.045272,-0.065675
-0.075641,0.167126,-0.078564,-0.195855,0.336751,-0.204404,-0.097398,0.159429,-0.091512
0.073233,0.050534,0.083332,0.086445,-0.032665,0.081065,0.018466,-0.151754,0.003964
0.118102,0.082667,0.127888,0.076580,-0.319520,0.065112,0.035237,0.006529,0.029277
-0.055317,-0.048182,-0.063196,-0.043482,0.003094,-0.048785,-0.051050,-0.029397,-0.055922
-0.003092,0.044934,-0.006311,0.014281,0.207482,0.031283,0.029665,0.015140,0.031545
0.016912,0.052652,0.022152,0.042310,0.085611,0.037235,-0.007205,0.029140,0.000168
-0.020713,-0.021135,0.017206,-0.071042,-0.097733,0.171267,-0.066034,-0.042376,0.086347
-0.027906,-0.044478,-0.036396,-0.047052,-0.007451,-0.044406,-0.059657,-0.051448,-0.063207
0.088674,0.095134,0.059492,0.076747,-0.244383,0.036875,0.068563,0.015649,0.028350
-0.025379,-0.037084,-0.024718,-0.053198,-0.021283,-0.057331,-0.035875,-0.047159,-0.045771
0.025717,0.039654,0.030937,0.034013,0.134652,0.040079,0.017062,0.058098,0.022331
-0.039002,-0.031284,0.058536,-0.170580,-0.024279,0.171985,-0.041640,-0.034623,0.062495
-0.041770,-0.045123,0.064971,-0.118434,-0.011762,0.143633,-0.052392,-0.053704,0.052622
0.084758,-0.058280,-0.050728,0.153130,0.030142,-0.152645,0.088198,-0.049353,-0.062896
-0.074774,-0.101356,-0.103218,-0.012621,0.091695,-0.003827,0.087929,0.082249,0.093524
-0.059421,-0.043238,-0.056693,-0.053675,-0.048553,-0.054429,-0.060663,-0.057835,-0.070239
-0.107103,-0.003592,0.080549,-0.141941,0.057247,0.130055,-0.081079,-0.096810,0.035053
-0.043489,0.032723,-0.039487,0.061480,0.089488,0.065010,0.000004,0.095623,0.010992
0.073274,0.185733,0.096404,-0.016142,-0.150450,-0.020499,-0.020654,-0.102387,-0.033754
-0.021665,-0.083220,-0.025523,0.075806,-0.135190,0.066378,0.098776,0.088192,0.095983
0.062662,0.104711,0.078388,0.011656,0.116256,0.020036,-0.042778,-0.042137,-0.036739
-0.016189,0.001120,-0.017033,-0.053831,0.278335,-0.046180,-0.078419,-0.151552,-0.100946
0.074201,0.170159,0.089854,-0.042015,-0.153835,-0.038766,-0.050814,0.002804,-0.057550
-0.065504,-0.049863,-0.061843,-0.061685,0.135828,-0.053105,-0.065529,-0.059136,-0.076668
-0.031000,-0.032982,-0.048099,-0.054594,-0.055031,-0.060417,-0.049428,-0.059824,-0.057224
0.011702,0.026693,0.018486,0.027654,0.191000,0.046826,-0.006380,0.063568,-0.000795
-0.059594,-0.026785,-0.065972,-0.036042,-0.001280,-0.048299,-0.062851,-0.048579,-0.066702
-0.047238,-0.062038,-0.048464,-0.042996,-0.023955,-0.043826,-0.051221,-0.045693,-0.053403
-0.040804,-0.038969,-0.051797,-0.051150,-0.037942,-0.053494,-0.044267,-0.030441,-0.051136
0.085848,0.116684,0.094860,0.047514,-0.106783,0.043094,-0.045680,-0.137789,-0.061537
0.046439,0.182995,0.068806,0.016157,-0.049489,0.001059,-0.031999,-0.159902,-0.044035
-0.081649,0.004484,0.059874,-0.146203,-0.021759,0.144409,-0.086253,-0.008247,0.093635
-0.050151,-0.052891,-0.068670,-0.039151,-0.013659,-0.042800,-0.043011,-0.045582,-0.045978
0.022502,-0.017784,0.016181,0.059980,0.134270,0.071877,0.017200,0.059008,0.027500
-0.039424,-0.037760,-0.046510,-0.067068,-0.035040,-0.068474,-0.044042,-0.031407,-0.045622
-0.074489,-0.102379,-0.092414,0.033686,-0.060965,0.028242,0.057126,0.137172,0.077564
-0.026739,-0.072135,-0.049228,-0.069140,-0.013539,-0.072603,-0.047846,-0.049406,-0.054080
-0.019872,-0.058421,-0.027479,-0.061417,-0.069614,-0.066995,-0.034720,-0.049900,-0.036620
-0.033953,-0.035011,-0.035659,-0.048125,-0.044652,-0.051819,-0.044197,-0.051875,-0.038815
0.015527,0.008517,0.017001,0.035664,0.033868,0.036725,0.024962,0.065520,0.021543
-0.036738,-0.005765,0.026589,-0.091507,-0.088793,0.158027,-0.048143,-0.029426,0.075814
0.054038,0.073102,0.072201,0.112074,-0.447099,0.085900,0.083684,-0.053115,0.084206
0.041381,-0.004596,0.053479,0.096253,0.129255,0.106636,0.026009,0.037294,0.032083
0.033427,0.139847,0.050669,0.014192,0.037501,0.020578,-0.071560,-0.168973,-0.086187
-0.027611,0.082024,-0.010422,0.069716,0.157093,0.068567,0.020810,0.054948,0.035923
0.052415,0.153828,0.064887,0.059155,0.004034,0.066634,0.026431,-0.068043,0.016346
0.049426,0.093378,0.051332,0.028936,0.112710,0.027907,-0.036834,-0.040866,-0.034888
0.074096,0.150672,0.093923,0.035850,-0.002456,0.036526,-0.052724,-0.001897,-0.052772
-0.052688,-0.134233,-0.060461,-0.005759,0.025960,0.006185,0.056793,0.149904,0.055508
-0.078379,-0.067964,-0.084996,-0.062808,0.106824,-0.056433,-0.106441,-0.037041,-0.109650
-0.031441,-0.058331,-0.036507,-0.060919,-0.032694,-0.061964,-0.032685,-0.055821,-0.042849
-0.046836,-0.034729,0.082817,-0.106118,-0.047353,0.146593,-0.081619,-0.031307,0.110987
-0.046314,-0.039543,-0.053380,-0.047438,-0.025541,-0.057243,-0.055287,-0.051564,-0.063119
0.112837,0.086793,0.117745,0.028392,-0.130963,0.016982,-0.035379,-0.117456,-0.071575
0.038149,0.140431,0.042977,-0.030863,0.105936,-0.011062,-0.031231,-0.121086,-0.046299
-0.070279,-0.039914,-0.067506,-0.038854,-0.001526,-0.039463,-0.038443,-0.038294,-0.034210
0.033943,-0.020920,0.038567,0.037214,0.217679,0.054665,0.026621,0.073682,0.030264
0.051377,0.058065,-0.071675,0.090231,0.099693,-0.152015,-0.056314,-0.169137,-0.109675
-0.035787,-0.031538,-0.045117,-0.050840,-0.041373,-0.050089,-0.054187,-0.052942,-0.063388
0.088416,-0.020080,-0.054595,0.156314,-0.079589,-0.088443,0.073306,-0.008344,-0.054040
-0.029466,-0.051058,-0.039995,-0.047769,-0.047410,-0.055806,-0.051601,-0.044563,-0.059117
-0.038606,0.002041,-0.050284,-0.060318,-0.174214,-0.072438,0.079897,0.202555,0.103147
-0.076281,-0.009559,-0.098142,-0.049350,0.371195,-0.065627,-0.085459,-0.033765,-0.097158
0.051521,0.143529,0.060708,0.029121,-0.010784,0.026192,-0.074512,-0.133629,-0.086656
-0.042862,-0.038672,-0.044444,-0.035528,-0.041802,-0.044625,-0.043671,-0.050943,-0.044546
-0.048525,-0.052182,-0.046134,-0.052238,-0.028246,-0.049294,-0.044073,-0.041427,-0.050506
-0.061674,-0.104401,-0.070918,0.024377,-0.112410,0.014964,0.090371,0.137841,0.096904
0.049643,0.188651,0.055356,-0.045665,-0.076675,-0.050289,-0.069170,-0.138555,-0.080246
-0.051843,-0.070923,-0.060593,0.036241,-0.168916,0.020290,0.052398,0.201223,0.067639
-0.021898,-0.053059,-0.031382,-0.051569,-0.077675,-0.059834,-0.022097,-0.054648,-0.024826
0.029303,-0.051569,0.034793,0.084806,0.117915,0.109680,0.021447,0.042988,0.022316
0.008239,-0.107365,-0.020927,-0.132724,-0.013518,-0.121361,0.069260,0.156654,0.083726
-0.055177,-0.064589,-0.069262,-0.084159,0.042650,-0.090120,-0.049395,-0.082057,-0.068956
-0.017537,0.035192,-0.010950,0.034301,0.124410,0.047150,0.014803,0.032043,0.014020
0.029053,0.047884,0.037401,0.094667,-0.028710,0.085655,0.046490,0.110963,0.059904
0.006449,0.112280,0.020715,-0.052806,0.081109,-0.026188,0.008859,0.128595,0.016596
0.115204,-0.086180,-0.016296,0.137891,-0.023490,-0.076390,0.123475,-0.063547,-0.057060
-0.048089,-0.073024,-0.054940,-0.072770,-0.037238,-0.069867,-0.049589,-0.070423,-0.046731
0.058093,-0.026609,0.204078,-0.044462,-0.273296,0.013134,0.038461,-0.015581,0.199030
0.065543,-0.063150,0.072908,0.134986,-0.266682,0.133064,0.103727,-0.171884,0.084507
0.020384,0.076698,0.027172,0.050490,0.115239,0.071768,0.004426,0.039819,-0.006177
-0.047093,0.018899,-0.051101,-0.007090,-0.157704,-0.018557,0.122570,0.130044,0.136612
-0.025296,-0.036808,-0.036125,-0.050814,-0.051441,-0.055265,-0.049942,-0.068438,-0.057603
-0.081772,-0.132199,-0.083665,-0.046828,0.020724,-0.051506,0.080835,0.152148,0.109509
-0.047826,-0.161525,-0.059836,0.005926,-0.006455,-0.001905,0.033900,0.184296,0.057410
0.009320,0.066798,0.016517,0.050011,0.181410,0.046330,0.041090,0.070007,0.041966
-0.027375,-0.056052,-0.037645,-0.055104,-0.104896,-0.046462,-0.032121,-0.047229,-0.039960
-0.051421,0.250252,-0.211148,0.018838,-0.074058,0.094818,0.015141,-0.094913,0.079794
0.058469,0.162708,0.070237,-0.016069,0.064117,-0.016864,-0.081403,-0.124197,-0.082203
