-0.098267
-0.031722
-0.083715
-0.066678
0.001435
-0.018429
0.013379
-0.087391
0.107886
0.188546
-0.158008
-0.273488
-0.146937
-0.034781
0.028524
0.213339
-0.124135
-0.004258
-0.021686
-0.008724
-0.018455
-0.273347
0.294976
-0.005105
-0.031085
0.067375
-0.050464
-0.054794
-0.029343
0.455119
-0.000672
-0.075452
0.378742
-0.001477
0.025568
0.202806
-0.029583
-0.275146
-0.109371
0.049240
-0.037132
0.259660
-0.076639
-0.071094
0.088086
-0.031340
-0.071021
-0.039788
-0.070095
-0.035647
-0.049745
0.019434
-0.022791
0.012031
0.137021
-0.010627
0.338762
-0.168279
0.135066
0.000655
-0.086896
0.021400
-0.022402
-0.027827
0.077717
-0.114326
-0.029774
0.136352
0.411646
0.506131
-0.031218
-0.110165
0.010786
0.072790
0.070187
-0.007818
0.009108
-0.023626
0.051853
-0.035349
-0.016963
0.039928
-0.081071
-0.330179
-0.064762
-0.048531
-0.254573
0.039103
0.257901
-0.003934
-0.050148
-0.243380
-0.007112
-0.259053
0.186167
0.334771
-0.102948
-0.147626
-0.006415
-0.024779
-0.010526
0.010808
0.084525
-0.025142
-0.063201
-0.182908
0.023298
-0.007775
-0.110428
0.039061
-0.113112
-0.026213
0.022226
0.056850
0.161943
0.310284
0.351362
-0.015970
-0.158004
-0.048149
-0.035502
0.096834
-0.086942
-0.043354
0.007755
-0.014444
0.015217
-0.006619
-0.015237
-0.200997
-0.036364
-0.046889
-0.034326
-0.012709
0.100143
-0.026017
-0.096578
0.078318
-0.018498
-0.061494
0.404520
0.006647
-0.001235
-0.226272
-0.018432
-0.206252
-0.037687
-0.050383
-0.014986
-0.005679
-0.004480
0.157185
-0.012418
-0.014590
-0.395360
-0.428751
-0.062072
-0.363762
-0.001535
-0.008141
-0.142096
-0.105058
-0.255196
0.018846
-0.010986
-0.009264
-0.014655
0.011204
-0.008864
-0.189192
0.448136
-0.035382
-0.140955
-0.095599
0.091838
-0.028281
0.206252
-0.111604
-0.059553
0.051116
-0.019616
-0.048615
-0.025743
-0.021353
-0.002558
-0.365948
-0.097307
-0.021059
-0.044767
0.030252
0.029434
0.017119
