-0.387956
0.219670
-0.044521
0.057815
-0.178532
0.098120
0.242894
0.076730
0.130629
0.180399
0.313001
0.207991
0.119706
0.015964
-0.208769
-0.092835
0.083450
0.140828
0.323374
0.039722
0.280367
0.177519
0.070749
0.053891
-0.161419
0.489032
-0.051629
0.209751
0.027513
0.289868
0.154077
0.087267
-0.098152
0.015117
-0.003703
0.140450
0.048199
0.074695
-0.144540
-0.040912
0.205442
0.185158
0.263904
0.230330
0.215811
0.207172
0.151757
0.207342
0.151896
0.080476
-0.091421
0.229749
-0.017486
0.227919
0.184719
-0.057432
-0.057900
0.162000
-0.005234
0.071188
0.064606
-0.035387
0.013034
0.194022
0.203457
-0.018073
0.094019
0.288491
0.060084
0.274761
0.307211
-0.086928
0.289136
0.163350
0.041189
-0.129744
0.050749
-0.058597
0.027282
0.162397
0.073578
0.209512
-0.115940
-0.053174
0.211443
0.213276
-0.096915
0.279590
0.183367
0.111413
0.106383
0.078646
-0.071798
0.223942
-0.093801
0.202546
0.185933
0.276095
-0.013310
-0.032246
0.170192
0.039667
0.182340
0.187070
-0.141432
0.053904
0.219535
0.172514
0.078402
-0.009156
1.012309
0.002024
0.214551
0.060648
0.148514
0.191660
0.026756
0.238068
0.240498
-0.022644
0.263863
0.164292
0.196305
0.209852
0.191566
0.097010
0.165401
0.092063
0.168211
-0.191728
0.270658
-0.103413
-0.098778
0.134263
0.018878
0.161418
0.195500
0.177502
0.319308
0.096649
0.280715
0.049818
0.105830
0.115590
