-0.045415,0.055418,-0.082646,0.007724,0.016998,0.040420,-0.003847,-0.052656,0.101641,-0.003116,0.005457,-0.070216,-0.107300,0.015556,0.070981,0.179899,0.082437,-0.115156,0.031601,0.171941,0.048479,-0.175117,-0.187006,-0.039507,0.054622,0.184202,0.043888,0.153447,-0.067473,-0.058030,-0.029338,0.060953,0.063069,-0.096991,0.072011,0.138254,0.082955,-0.070391,0.009329,0.002494,0.024471,0.071287,0.020156,-0.002259,0.043987,0.071388,-0.087166,0.026617,0.109326,-0.029698,-0.111051,-0.085025,-0.076921,-0.024150,-0.098281,0.073144,-0.128143,-0.070502,0.025236,-0.042387,-0.032497,0.095666,-0.017303,-0.034550,-0.109175,0.079311,0.061548,0.053854,-0.111139,0.074631,-0.059494,0.056758,-0.069081,-0.051536,0.044471,-0.002971,-0.040952,-0.001370,0.019184,0.082918,-0.005811,0.049808,0.005911,0.001515,0.011167,0.026019,-0.022177,0.004692,0.030538,0.078006,-0.073657,-0.083017,-0.021810,-0.030517,0.238525,-0.030811,0.120739,-0.068643,0.064126,0.067136,0.045174,0.110024,0.110941,-0.073937,-0.063220,0.150369,-0.023664,-0.046747,0.135364,0.013978,0.017884,-0.055436,-0.027763,-0.015329,-0.223903,0.083444,0.014184,-0.003399,0.137635,-0.059875,0.033817,0.146380,0.115951,0.095360,0.068071,0.000178,0.061666,-0.115353,-0.099970,-0.098906,0.145855,0.020307,0.022565,-0.094407,0.100751,-0.090394,0.111657,0.054041,0.036774,-0.088278,0.124883,-0.144858,-0.052362,0.070332,0.005550,0.067693,0.085718,-0.121673,0.088683,-0.058892,-0.064613,-0.154265,0.081045,0.057291,0.071632,0.006376,0.024277,0.055289,-0.043704,0.013334,0.003085,-0.020079,-0.030769,-0.038229,-0.036622,0.105732,0.063324,-0.062043,-0.033865,-0.156794,-0.020377,-0.058440,-0.034139,-0.005822,-0.043119,0.017127,-0.062371,0.013389,0.025991,0.056106,-0.108389,-0.012394,0.005146,-0.071991,-0.032829,0.058779,-0.041715,0.169821,-0.058251,-0.002097,-0.010578,0.011993
-0.118484,-0.003454,0.125021,0.076305,0.119942,0.000776,0.006471,-0.053345,-0.039723,0.003041,-0.057227,-0.030769,0.069697,-0.002614,-0.106653,-0.116182,0.032578,0.097866,-0.131937,-0.063427,-0.049884,0.127053,0.106754,0.155207,0.018266,-0.157408,0.020567,-0.085106,0.118548,0.023654,0.041274,-0.026859,-0.102191,-0.017977,0.296315,-0.055048,-0.003096,0.098159,0.046914,0.081737,0.008373,0.089886,-0.084876,-0.020681,-0.083488,-0.104550,0.017330,-0.078572,0.013420,-0.102564,-0.016149,-0.100969,-0.014514,0.055745,-0.103656,-0.012825,-0.021861,0.012361,0.053703,0.023757,0.069135,-0.090865,-0.024708,-0.066163,0.079706,0.147428,-0.087831,0.181790,-0.056573,-0.074661,0.076013,-0.009839,0.025434,0.008775,0.053084,-0.007890,0.022854,0.076758,0.050000,-0.026992,0.062153,0.011207,-0.051090,-0.013106,0.059354,-0.056823,-0.053568,0.029297,-0.065671,0.047602,-0.002198,0.083498,-0.018134,-0.009834,-0.091344,0.061499,-0.067285,-0.018920,0.150017,0.074990,-0.026691,-0.050203,-0.070696,-0.035084,-0.064997,-0.072530,0.122284,0.094802,-0.001386,0.084492,0.029363,-0.113389,0.012629,-0.004641,0.137007,0.072974,0.047459,-0.003773,0.019486,0.036181,-0.031062,-0.143158,-0.093078,-0.077102,0.025942,0.035453,-0.138410,0.021713,0.114632,0.069640,-0.020397,0.107968,-0.108581,0.036478,0.020613,0.041920,-0.092164,0.004528,-0.039433,-0.075809,-0.093363,0.017572,0.097352,-0.048116,0.015534,-0.102103,0.105929,0.001174,-0.187991,0.101402,0.069553,-0.009198,-0.030959,-0.022578,-0.000983,0.000634,-0.110539,0.084711,-0.114692,0.037467,-0.039035,-0.036855,-0.046621,-0.065287,0.045412,-0.056897,-0.075649,-0.007841,-0.045619,0.092422,-0.033979,0.079699,0.047937,0.018453,0.038222,0.047146,0.103545,0.016849,-0.057693,0.023377,0.028147,0.025157,0.063959,0.062064,-0.003033,0.005724,0.157495,-0.111921,0.129393,0.006727,0.014718,0.046271
-0.013872,-0.069979,-0.165882,0.070478,0.034951,-0.035653,0.005603,0.043996,0.052058,-0.033474,0.162708,0.185258,0.059604,0.064772,0.042997,-0.092057,0.013088,0.032976,-0.003826,-0.038359,-0.056379,-0.072991,0.083804,0.061844,-0.140366,-0.113239,0.113882,0.079976,-0.024790,-0.042904,0.246512,0.040091,0.027767,-0.025066,0.032204,-0.019750,0.003163,-0.198208,0.159856,-0.098641,-0.091049,0.061887,0.031816,-0.126280,0.057215,0.053449,-0.107562,0.056689,-0.141895,0.058429,0.173699,-0.100469,0.104336,0.043554,-0.071452,0.153080,0.135774,0.059201,-0.071148,-0.030896,-0.109806,0.117761,0.079141,0.093597,0.009182,0.034234,0.037357,-0.132808,0.075960,0.164577,-0.130879,0.048156,0.064596,0.002246,-0.086771,0.110534,-0.154838,0.033673,-0.058038,0.022507,0.003712,-0.109884,0.116533,-0.075215,-0.113844,-0.202987,0.159219,-0.035010,0.009681,-0.028414,-0.149677,0.048942,0.062216,-0.119788,-0.172514,0.041960,0.066794,-0.000810,-0.110953,-0.258866,-0.047469,0.059460,0.041572,0.119253,0.071127,-0.019618,-0.136045,-0.021214,0.082546,-0.007264,-0.042473,0.099566,0.031929,0.072972,0.121897,-0.071857,-0.143036,-0.044484,-0.011529,0.022695,-0.062473,0.018142,-0.027800,-0.038160,-0.146239,-0.091873,-0.073325,-0.002265,0.037886,0.071985,0.051578,-0.132106,0.240508,0.030662,0.091609,-0.045015,0.002124,-0.138584,-0.088744,0.027621,-0.030397,-0.058591,-0.065315,0.088447,-0.042634,0.030378,-0.065382,-0.043088,0.096188,-0.039168,-0.043646,-0.102837,0.001791,-0.073226,-0.003963,0.052079,0.012554,-0.007157,-0.007430,-0.074758,0.178889,0.052685,0.025399,0.056131,0.027675,-0.174614,-0.026874,0.093096,0.125624,0.024997,0.074018,-0.033383,0.054829,0.089919,-0.013313,-0.042772,0.120938,-0.075188,0.138240,0.063790,0.049152,0.013597,0.040034,-0.050479,-0.011551,-0.040415,0.072394,-0.043675,-0.006961,-0.005641,0.092160,-0.071701
0.069367,-0.013211,-0.035949,-0.044762,0.054778,-0.079596,0.012188,0.081447,0.056887,0.034014,0.029139,0.054566,0.000453,-0.029464,-0.098724,0.167505,-0.097615,-0.053101,-0.133017,-0.079797,-0.014098,-0.035590,-0.055179,-0.029051,0.077762,0.166907,0.103972,0.056308,-0.039649,0.116853,-0.117646,-0.110199,-0.075450,0.011778,0.034381,-0.049247,0.030796,-0.016645,-0.044834,-0.104651,0.072401,-0.002825,-0.097625,0.171069,-0.071894,-0.116452,0.053717,0.036547,0.042407,0.060503,0.104900,0.001915,-0.080737,-0.028358,0.192476,-0.004145,-0.014605,-0.091922,-0.075589,0.086575,-0.035080,-0.057276,0.096875,0.074882,-0.164204,0.025721,-0.048180,-0.049403,0.141730,-0.078072,0.018095,-0.031462,0.082901,0.037237,-0.011596,0.054328,-0.026532,0.051794,0.062532,0.069031,0.009819,-0.024179,-0.026173,-0.060701,-0.053301,0.021248,-0.003618,-0.081031,0.133959,0.059805,0.057177,-0.073690,-0.168319,0.117899,0.039990,0.085931,-0.170950,-0.002110,-0.081707,-0.047173,-0.083693,-0.034721,-0.058808,-0.161250,-0.082275,0.002640,-0.026692,0.077090,0.018304,-0.039242,-0.124788,0.015479,0.047365,-0.024677,-0.162994,0.151598,0.036723,0.095982,-0.120788,-0.025118,-0.036279,-0.081740,-0.069892,0.024985,-0.068620,0.052216,0.036140,0.098422,0.054165,0.026801,-0.099076,0.039969,0.040445,0.109202,0.005724,-0.098192,0.141910,-0.081385,-0.032871,-0.130938,-0.077828,0.049003,-0.070134,0.046591,-0.043544,0.001007,-0.060525,-0.097324,-0.064524,0.029064,-0.034649,0.057743,-0.141265,-0.056484,0.064890,0.007018,-0.070170,0.044781,0.083626,0.029773,-0.151377,-0.086847,-0.015905,-0.034627,-0.064222,0.005666,0.074966,0.027136,0.138914,-0.143281,0.091637,0.087925,-0.117941,-0.057136,0.070086,-0.102162,0.006662,-0.125689,0.017985,0.098581,0.029447,0.092586,0.070889,0.062020,-0.000343,0.073198,0.110023,0.050887,-0.081045,-0.008411,0.096408,-0.009364
0.125486,0.172152,-0.100005,-0.190411,0.026207,-0.080256,0.012546,0.006802,0.205077,-0.008663,0.042618,-0.168368,-0.062375,-0.071977,0.105478,0.029621,0.041480,0.071440,0.003948,0.174487,0.132494,-0.009686,0.063902,-0.108130,0.113379,-0.050650,-0.144463,-0.015264,-0.079925,0.118246,-0.115609,0.159634,0.111869,0.005426,0.072381,0.041935,0.070539,0.053016,-0.056728,-0.012903,-0.095166,0.078420,0.161082,0.064115,0.034243,-0.065670,0.039667,0.081482,0.021914,-0.080132,-0.168554,0.043778,-0.038756,-0.062132,-0.058749,0.057160,0.056816,-0.052107,0.085685,-0.095395,-0.051448,0.165872,-0.096038,-0.083917,-0.016231,-0.013587,-0.141593,-0.141641,-0.004111,-0.018212,0.010589,-0.043476,0.053702,0.017741,0.066387,-0.080930,0.008900,-0.042239,0.127247,0.108903,-0.045259,0.019839,0.071537,0.122627,0.023524,0.038021,0.013218,0.046908,0.141223,0.099554,0.062088,-0.090457,0.000588,-0.031019,0.111819,-0.098074,-0.115395,-0.137912,0.020654,-0.080484,-0.138287,0.032595,0.071075,0.061697,-0.105980,0.121568,0.038105,0.034230,0.012314,0.067733,0.035211,-0.091986,-0.092628,-0.113344,-0.060916,0.040422,0.078194,-0.068065,0.022607,0.016936,-0.029122,0.031256,-0.023900,-0.011235,-0.061560,0.144199,0.071303,-0.059324,0.000347,0.040256,0.000790,0.024044,-0.219195,-0.010957,0.064109,0.035890,0.114479,0.018462,0.052147,0.066269,-0.042109,-0.020087,-0.130386,0.019566,0.009213,-0.059987,0.123010,0.087226,0.160625,-0.052852,-0.026074,0.032148,0.010489,0.152220,-0.135987,0.013653,0.113291,0.055585,0.011023,0.071137,0.087739,-0.010016,-0.104826,-0.090508,-0.088929,0.069250,0.020368,0.091161,0.049702,-0.012306,-0.012393,-0.068712,0.056377,0.061237,-0.101330,0.014381,-0.020272,-0.026832,0.061236,-0.061109,-0.131757,-0.033800,0.122330,-0.081220,0.047424,-0.035238,-0.077629,0.051334,-0.055832,-0.020693,-0.126161,-0.036204
0.057245,0.013377,0.031007,-0.129863,0.030533,-0.048850,-0.017573,0.058095,0.053118,0.057043,-0.002760,0.020668,0.055114,-0.050353,0.002966,-0.060635,-0.122954,0.047511,0.173999,-0.071572,-0.045234,0.018679,0.024482,-0.062205,-0.020349,-0.033918,-0.046792,-0.087053,0.048934,-0.128591,0.044980,0.114307,-0.023408,0.136060,-0.197842,0.009498,-0.063293,0.083085,-0.017486,0.011839,-0.003493,-0.248064,0.091479,-0.058622,0.093778,-0.012643,0.059567,-0.073622,-0.042550,0.007290,-0.012493,0.093749,0.085103,0.005555,-0.053995,-0.065448,0.048985,0.053477,-0.007199,0.042038,0.023468,-0.053430,-0.085856,0.018614,0.000926,0.201213,0.002706,-0.000058,0.023645,-0.098653,0.006074,-0.083975,-0.019622,-0.020928,0.032200,-0.033121,0.004135,-0.030082,-0.139839,0.098481,-0.122571,0.064086,-0.073207,0.024045,-0.069070,0.025561,-0.023318,0.031944,-0.139790,-0.011285,-0.049294,-0.035032,0.002157,0.002258,-0.058661,0.098238,-0.100587,0.106887,-0.126333,-0.000223,-0.004296,-0.002663,-0.005533,0.062404,0.026344,-0.005884,-0.036783,-0.076214,0.001853,-0.149804,0.056005,0.046273,-0.017924,-0.102701,0.018955,-0.081283,-0.057904,0.059090,-0.012183,0.054380,-0.032265,-0.082038,-0.071977,-0.038945,0.043971,-0.000257,-0.026240,-0.026931,-0.029372,-0.013947,-0.110536,-0.042797,0.024584,0.096302,-0.109794,0.052928,-0.013638,0.066603,-0.239747,0.058884,0.219080,0.181176,0.028790,0.048820,-0.008366,-0.023912,-0.248300,0.124961,0.019721,-0.174128,-0.034503,-0.016593,0.015890,0.076985,-0.001787,0.042738,-0.038684,0.040365,-0.008065,0.340701,-0.021019,-0.008572,-0.038794,-0.018300,-0.041262,-0.054160,-0.075917,0.039337,-0.002908,0.044319,0.065793,0.031586,0.029585,-0.146837,-0.041904,0.071567,-0.010204,-0.036588,0.013999,-0.138855,0.036852,0.013961,0.051123,0.016301,0.100859,-0.022193,0.000625,-0.068923,-0.018844,0.014724,-0.150494,-0.023869
-0.028685,0.031286,-0.021305,0.037302,-0.003927,0.041571,-0.008721,-0.023800,-0.009656,0.105563,0.039304,0.170610,-0.311836,-0.062767,-0.039856,0.028240,0.075707,-0.114941,-0.100355,-0.032667,-0.107870,-0.109747,-0.032272,-0.073580,0.027358,0.119183,0.121856,0.017426,-0.029652,0.242187,0.095459,-0.019676,0.062867,-0.074414,-0.013555,0.062548,-0.083750,0.051715,-0.111536,0.081220,-0.036026,-0.022120,0.020766,0.006219,0.031349,-0.073120,0.162534,-0.118359,-0.024543,0.158829,0.124419,-0.047516,0.077783,-0.040781,-0.056240,0.010680,-0.046250,-0.048115,0.079530,0.093631,-0.112151,-0.034240,0.024996,0.038982,0.040430,0.064671,0.022479,0.016440,-0.008833,0.062134,-0.034932,0.018678,-0.024118,-0.027582,0.028375,0.103226,-0.059253,-0.015467,-0.149858,-0.082108,0.023459,0.075997,0.029096,0.032541,0.039134,0.078281,0.037379,-0.080739,0.042264,0.117948,-0.030914,-0.023851,-0.031118,0.072198,-0.075455,-0.002574,-0.036629,-0.039477,0.085801,-0.039390,0.077941,0.023553,0.055448,0.116151,-0.010182,0.066375,0.042062,0.106602,-0.027744,0.005659,-0.051210,-0.061556,-0.023521,-0.039818,-0.060051,-0.087917,-0.080828,0.048891,0.038839,0.191931,-0.127253,-0.071585,0.019439,0.043780,-0.043843,-0.034835,-0.102815,0.034645,0.098863,-0.064738,0.107040,-0.001159,-0.051011,-0.080839,0.114765,-0.115786,0.033528,-0.056168,0.050127,0.257952,0.015628,0.113556,-0.029891,0.006595,0.056596,0.009378,-0.082393,0.029549,-0.115964,0.041672,-0.001358,-0.058214,-0.002893,0.062829,0.141163,-0.045453,0.051627,-0.100486,0.007847,0.096538,-0.042761,0.029102,-0.081901,0.059000,-0.024931,0.025278,0.059212,-0.066751,-0.082661,-0.094264,-0.055560,0.025773,0.071639,0.005307,-0.032579,-0.136013,0.013835,-0.069024,-0.031881,-0.096701,0.107859,0.165552,-0.064342,0.097657,-0.048568,0.035698,-0.152937,0.020664,-0.050390,0.016450,0.010446,0.025854
0.014447,-0.031405,0.118345,0.019090,0.042558,0.132405,-0.004001,-0.005314,0.042478,-0.058642,-0.034647,-0.067792,0.021998,-0.008489,0.039912,-0.199542,-0.077205,-0.004244,-0.108031,0.136116,-0.115090,-0.010091,0.065509,-0.071516,-0.034320,-0.071289,0.038976,-0.001427,-0.055545,-0.009575,-0.095535,-0.015548,-0.031779,0.020838,-0.091104,0.113812,0.015944,0.019066,-0.018583,0.057532,-0.101108,-0.000365,0.025661,0.106673,0.035181,0.004393,0.099175,-0.150092,0.040668,-0.011809,-0.196724,0.063456,-0.146822,-0.075220,-0.013520,0.007514,-0.087047,0.046172,-0.022541,0.024511,-0.039534,-0.033880,0.057425,-0.072613,0.068121,-0.032002,0.094687,-0.038538,-0.051343,0.077801,-0.093354,-0.070601,-0.064738,-0.052415,0.052820,-0.089662,-0.116219,-0.057640,-0.054213,0.069350,0.004373,-0.004440,-0.054877,0.042327,-0.100550,-0.052130,0.048325,0.047152,0.099799,0.086134,0.177627,-0.102050,-0.091732,0.008649,0.060478,-0.011477,0.000832,0.078021,0.006490,0.019564,0.046733,-0.084800,-0.024054,-0.008025,0.008575,0.027695,0.073509,0.078551,-0.012473,0.031545,0.029314,-0.039259,-0.154494,0.050262,0.183327,0.127279,-0.086697,-0.049888,-0.007495,0.216008,0.050755,0.002929,0.056261,-0.038877,0.025751,-0.051242,0.032877,-0.162013,-0.046799,-0.021211,-0.044303,-0.014471,0.009884,0.009995,0.062052,0.014683,-0.187100,0.066030,0.081341,-0.011466,-0.017190,0.033349,-0.079930,-0.071200,0.018319,-0.013363,0.021717,-0.108300,-0.000285,-0.161638,-0.011897,-0.055049,0.010617,0.011481,-0.074701,-0.111347,-0.087742,-0.026708,0.018618,-0.065142,0.048155,-0.029327,0.081926,-0.038121,-0.057639,0.043888,-0.098900,-0.098580,0.031929,0.026178,-0.101264,-0.103149,-0.142453,-0.065435,-0.109065,0.049161,-0.076940,-0.041353,0.009716,-0.088439,0.043031,-0.200732,0.054177,-0.014999,-0.019397,-0.005031,0.089872,-0.087153,-0.059312,-0.062191,0.025864,0.000546
0.027654,-0.052266,-0.157449,-0.079631,0.066876,0.003959,0.005612,-0.098471,-0.111120,0.021932,0.109603,-0.041632,0.031520,0.073838,0.008600,0.051938,-0.036913,-0.111192,0.014188,0.123656,-0.116599,-0.081331,-0.055278,0.137334,-0.034487,0.133038,-0.140713,0.070676,-0.022066,0.091738,0.050797,-0.002176,-0.170414,-0.046602,0.090845,0.091416,-0.127434,-0.040517,0.008012,-0.038600,-0.029979,0.113888,0.046319,0.046816,0.124334,-0.050842,-0.172606,-0.091499,0.062199,-0.000438,-0.028238,-0.079166,0.087045,-0.085856,0.032650,-0.024558,-0.056348,-0.056515,-0.031246,0.001680,-0.129284,-0.064516,-0.007245,0.008982,0.104465,-0.029170,0.014617,-0.067270,-0.044882,-0.040310,-0.082142,-0.018820,0.057866,-0.064714,-0.036460,0.001909,-0.010487,-0.042511,-0.028063,0.018024,-0.066223,-0.120616,0.053692,0.054555,-0.111615,0.003878,0.078605,-0.023121,0.049188,-0.140475,-0.163401,-0.000224,-0.010334,0.120219,0.002254,-0.000280,0.002342,0.008004,-0.170513,-0.038338,0.079277,-0.002112,-0.012526,0.000999,0.043804,-0.007143,-0.171236,0.090299,0.064813,-0.036653,-0.033493,0.100930,-0.036856,0.041733,-0.030336,-0.042141,-0.059362,0.008856,-0.027191,0.146263,-0.024223,-0.024171,0.002720,0.068675,-0.086157,0.060970,-0.001521,0.009514,-0.033845,-0.106861,0.062670,-0.104854,0.120699,-0.121023,-0.000473,-0.064446,-0.004214,0.083408,0.038803,0.034596,0.004555,0.036968,-0.142146,0.000640,-0.016351,0.008142,0.056667,-0.003077,-0.004287,-0.089880,-0.045415,0.057108,0.146257,-0.076711,-0.019716,-0.026607,-0.144016,-0.096792,0.070910,-0.055807,-0.026629,0.066416,-0.056965,-0.017012,0.009879,-0.146479,0.091636,-0.056564,-0.124326,-0.062261,-0.106279,-0.142343,-0.085855,-0.159946,-0.043592,-0.189196,-0.008766,-0.045868,-0.050812,-0.072735,0.059159,-0.007234,0.051186,0.027708,-0.094722,0.043318,-0.090209,0.069582,-0.051245,0.058813,-0.012657,-0.011533
-0.007751,0.070175,-0.115459,0.040608,0.065202,0.005414,0.004362,-0.031359,0.066079,0.092793,0.093536,-0.016536,0.068477,0.002199,0.077135,0.192479,0.171949,-0.158854,-0.095782,0.168179,-0.041280,-0.119920,-0.123404,0.131897,0.107976,0.253353,-0.049513,0.113624,0.023391,-0.182737,0.019694,0.078660,-0.082189,-0.070239,-0.224945,0.090467,0.054774,-0.053759,0.029814,-0.000484,0.009782,-0.048337,0.092141,0.048318,0.024219,-0.077903,-0.065064,0.086306,0.098751,-0.102412,-0.089746,-0.013783,-0.115349,-0.016456,-0.058798,0.066152,-0.009532,-0.074226,0.132465,-0.131425,-0.123495,0.134572,0.023467,-0.128752,-0.004707,-0.000042,-0.022545,-0.006919,-0.001449,0.092489,-0.009100,0.044393,0.038546,0.049649,0.034564,0.118051,-0.063669,-0.027142,-0.056594,0.053147,-0.100024,-0.015820,0.022330,0.014771,0.032197,-0.120122,0.045837,-0.034761,0.095288,0.087167,-0.041805,-0.067043,0.120777,0.031909,0.077361,0.017137,-0.005907,-0.164076,0.062482,0.064036,-0.045820,0.082123,0.149774,0.078678,0.010602,0.077271,0.033784,0.010002,0.042367,-0.071887,-0.012277,0.061376,-0.037339,-0.013442,-0.164633,-0.098882,0.072036,-0.006517,0.115029,-0.199305,-0.061117,-0.041180,-0.079624,0.112918,0.097298,0.044648,-0.133134,0.005052,-0.045576,-0.114144,-0.015260,-0.076033,-0.002338,-0.047181,0.013626,-0.100902,0.173433,-0.023584,-0.087363,-0.029194,0.060105,0.045583,-0.120200,-0.003107,0.077142,0.030676,-0.113519,-0.027421,0.062386,-0.000117,0.019527,0.045678,0.057734,0.031623,-0.110948,-0.019624,0.069761,0.035189,-0.040405,0.047153,0.120387,-0.016270,-0.073427,0.100704,-0.016030,-0.056682,0.107356,-0.017863,0.009633,-0.093133,-0.044833,-0.067281,0.104325,0.109622,0.016031,-0.019858,-0.027711,0.126893,0.000171,-0.006000,-0.083806,-0.077287,0.015917,-0.141830,-0.033890,0.155513,-0.045395,-0.032839,-0.039448,-0.002676,0.085975,-0.026276
0.075328,0.004659,-0.060374,-0.064704,0.106420,0.023151,0.004526,-0.052139,-0.092838,0.011109,0.183362,0.118991,-0.042498,-0.030608,-0.021700,-0.052088,0.086111,0.119929,-0.041062,0.001186,0.009607,0.015869,0.104352,-0.041148,-0.064579,-0.310396,-0.027123,0.018153,-0.015690,-0.067988,-0.046003,0.010620,-0.041050,-0.062105,-0.073235,-0.016367,0.035261,0.070037,0.117663,0.008373,-0.101383,0.040018,-0.069650,0.091690,0.076474,0.016410,-0.026892,-0.025237,-0.174131,0.010738,-0.002390,-0.046249,0.014293,-0.047028,-0.072480,0.064857,0.005542,0.135956,0.099714,0.135251,0.006292,0.093814,0.030222,-0.041470,-0.009821,-0.096142,-0.039212,0.096091,0.055482,-0.055246,-0.062992,-0.008550,0.045892,-0.029306,0.101954,0.105718,0.087567,0.080773,-0.040836,0.031665,-0.153629,-0.064354,-0.119426,0.047291,0.024121,0.092034,0.094859,-0.063656,0.012051,0.004235,-0.069214,0.098308,0.090971,-0.114963,0.078789,0.024569,-0.006803,0.283683,0.048963,-0.039728,0.121482,-0.043677,0.045429,-0.089104,0.173311,0.036892,-0.038944,-0.003144,0.122501,-0.095026,-0.002119,0.063398,-0.077342,-0.159168,0.160675,-0.041149,-0.062668,-0.088460,0.081074,-0.213298,-0.034424,-0.003162,0.077612,0.068699,-0.023369,0.117593,-0.054781,-0.068653,-0.080874,-0.026410,0.004661,-0.153181,-0.037391,-0.014661,0.004789,-0.042696,-0.169722,0.034598,-0.111533,-0.035258,0.001108,-0.000353,0.068123,-0.048899,0.030040,0.008633,-0.069648,-0.007671,0.022798,0.064840,-0.143462,0.071505,0.077964,0.016958,-0.026221,0.146672,0.028817,0.002376,-0.042494,-0.058775,0.049810,0.159461,-0.076049,0.081994,0.074049,0.077941,-0.179055,-0.122358,-0.013209,0.070991,-0.018193,-0.022990,0.006212,-0.045792,0.007584,-0.113507,-0.065382,0.120586,-0.091654,-0.018781,0.042290,0.060502,0.019223,-0.044810,-0.006359,0.061344,-0.064441,0.071199,0.021588,0.039607,0.049988,-0.027293
-0.100540,-0.054908,-0.019587,0.113067,0.107969,-0.034559,0.003955,-0.025368,0.010280,0.025038,0.000652,-0.143542,-0.089667,0.114536,0.019486,-0.045626,0.198961,0.033941,-0.117952,-0.018842,0.063469,0.036397,0.076676,0.006729,-0.137964,-0.124452,-0.055477,-0.111167,-0.034244,-0.087101,-0.194977,0.158457,0.144240,-0.049292,-0.002328,0.045941,-0.013810,-0.014193,-0.005802,-0.001276,-0.036420,0.012254,0.059103,0.107374,-0.131527,-0.109908,0.083279,0.039133,-0.075658,-0.103246,0.029782,-0.025744,-0.018065,-0.001076,-0.030058,-0.035571,0.086017,0.110066,0.091542,-0.043585,0.009462,0.034906,-0.013512,0.141113,0.013802,0.105843,-0.078948,-0.165922,-0.030063,0.027047,-0.055568,0.002101,-0.063240,-0.073916,-0.025473,-0.052715,-0.068434,0.032216,-0.077149,-0.074654,-0.108860,-0.080960,0.004032,0.080086,0.040914,-0.017455,0.002339,-0.012442,-0.026922,-0.083121,-0.181117,0.049613,0.181419,0.024687,0.020151,-0.073933,-0.002820,-0.015118,0.052097,0.003318,0.015166,0.006436,0.039447,-0.009236,-0.084953,-0.021195,-0.008981,0.036294,0.081735,0.166994,-0.022610,0.036264,-0.035573,0.041952,0.155039,0.116321,-0.067187,-0.085273,-0.021211,-0.095097,0.005249,-0.027896,0.013409,-0.000640,-0.008868,0.018521,0.126951,-0.042923,0.020362,0.012717,0.075837,-0.054635,-0.143994,-0.105510,-0.034374,0.103980,-0.114176,0.036455,-0.049168,0.061998,0.006991,-0.043720,0.043932,0.150713,0.031143,0.078689,-0.050819,-0.016994,0.188381,-0.075425,-0.076303,0.046227,0.077442,0.107219,-0.012031,-0.136507,-0.048284,-0.018584,0.041482,0.060908,0.047647,0.020981,0.019029,-0.048084,0.037027,-0.075716,-0.081988,-0.023155,-0.110455,0.053130,-0.052787,-0.045246,0.060778,0.075281,-0.052053,-0.068828,-0.033374,-0.057183,-0.060878,0.113940,0.014531,0.062378,0.025645,-0.044730,-0.042953,-0.079143,-0.123312,-0.060082,0.018541,-0.036339,-0.053665,-0.068517
0.082177,0.028683,-0.098966,0.073632,-0.080520,-0.032940,-0.000778,-0.063252,0.045903,-0.098597,0.049203,-0.056282,-0.044713,0.034782,0.059278,-0.010745,0.111586,0.099804,0.051621,0.189457,0.051402,0.076483,0.085372,-0.092303,0.021410,-0.117522,0.007662,0.158882,-0.064955,-0.098469,-0.047331,0.007950,0.028374,-0.065572,0.029377,0.006584,0.041983,0.043581,0.029409,0.103690,-0.057465,0.134248,0.110474,-0.029213,0.073946,-0.067427,0.000942,0.074610,-0.076917,-0.046459,-0.097208,-0.059705,-0.169290,0.039753,0.053290,-0.087131,-0.088127,0.108793,0.079448,-0.157910,-0.021972,-0.050636,0.135923,-0.033225,0.065746,0.121169,0.072684,0.027576,-0.022990,-0.007371,-0.009764,0.017878,0.096292,0.009499,-0.010154,0.019918,0.065675,-0.052391,-0.048789,-0.126399,0.037429,-0.115102,0.134610,0.004194,-0.010561,0.083998,0.047237,0.056009,0.053821,0.054924,-0.060814,0.194181,-0.022135,-0.074803,-0.015522,0.007069,-0.006654,-0.058509,0.110285,0.018674,-0.000300,-0.007184,0.084889,-0.088792,0.159709,-0.050389,0.046400,-0.188420,0.005267,0.048492,0.015159,-0.114986,-0.085773,0.038998,0.106513,-0.026729,0.143187,-0.113830,0.054785,-0.122060,-0.049234,-0.027634,0.094313,0.156654,-0.112115,0.097111,-0.001403,0.023779,-0.112324,-0.070218,0.155974,-0.002852,-0.074276,-0.098549,0.022423,0.123808,0.018551,0.085897,-0.002384,-0.020942,0.099351,0.022303,-0.023959,-0.038864,0.048721,0.110326,0.106117,-0.005427,-0.011066,0.039628,-0.020116,-0.125930,0.110459,0.069466,-0.153643,0.024650,-0.040281,-0.144514,-0.043938,0.000840,0.011496,0.179393,0.000856,-0.027460,-0.021450,0.141537,0.063567,-0.039602,-0.051790,0.093067,-0.057911,-0.030944,-0.001602,0.106382,0.021267,0.075795,-0.042900,0.074992,-0.060781,0.083909,-0.127281,-0.102696,-0.080119,-0.115079,-0.161404,-0.024671,-0.077687,0.044885,-0.048053,-0.059857,0.037730,0.087458
-0.007571,-0.072585,-0.117169,-0.123224,-0.095146,-0.052257,-0.000402,0.081282,-0.047856,-0.055660,-0.069030,-0.043528,-0.057661,-0.114114,-0.002822,-0.041745,0.016552,0.099831,-0.112775,-0.034628,-0.038478,-0.032404,0.076418,-0.119197,-0.108164,-0.044454,0.076950,0.075633,-0.121774,-0.167517,-0.185630,-0.048575,-0.107286,0.061720,-0.025970,0.102151,-0.076195,0.032209,0.022802,0.026388,0.010873,-0.052085,-0.055622,0.058974,0.008664,-0.015531,0.018948,0.002212,0.041495,-0.101406,0.050829,-0.055787,-0.145946,-0.088311,-0.026466,-0.035361,-0.029141,0.036292,0.072290,-0.042424,0.010861,0.204052,-0.076248,0.061698,-0.043281,0.011332,-0.004930,0.018614,-0.031605,-0.076736,-0.087977,0.131947,0.045193,-0.101302,-0.080315,-0.028135,-0.046605,0.004840,-0.085642,0.056760,0.042614,-0.040152,0.012367,-0.083076,0.087384,-0.063823,0.066716,0.120743,0.116274,0.072133,0.094460,0.083798,0.025571,-0.050796,0.013901,-0.051919,-0.077491,0.068677,0.057692,0.045790,0.020261,-0.011101,-0.002513,0.088645,-0.014725,-0.000734,0.065067,-0.026516,-0.080774,0.097799,0.059784,-0.106296,0.013716,-0.059021,0.066876,0.107445,0.038883,-0.016132,0.014836,0.115126,-0.034415,0.041968,-0.179790,0.041664,-0.085961,0.106437,-0.010684,-0.128776,-0.052144,0.135369,0.103326,0.033501,0.059363,0.071388,-0.174248,-0.017102,-0.050749,0.188341,0.120421,-0.109446,0.097542,-0.090133,-0.020824,0.184034,0.102673,-0.039863,-0.140412,0.026515,0.125639,0.063409,-0.055754,-0.153487,-0.033836,-0.007248,0.033790,-0.000440,-0.162002,-0.062989,0.101774,-0.047730,-0.051400,0.015820,0.028051,0.017147,0.082383,0.122436,-0.027263,0.156612,0.078973,-0.058580,0.050562,-0.061423,0.001379,0.156861,-0.116009,-0.027230,-0.044419,0.009215,-0.057528,0.101694,-0.004699,-0.159778,-0.093085,-0.012204,0.029364,0.089793,-0.028600,0.122418,-0.042305,-0.032809,0.024763,0.046815
0.073299,0.004298,-0.138200,-0.050461,0.026533,-0.154559,0.009897,0.055025,-0.001638,0.117488,0.029501,-0.094726,0.117203,-0.008287,-0.091122,-0.003079,-0.008466,-0.059073,0.033293,0.068109,-0.108849,-0.047295,-0.018215,0.021449,0.074914,0.084702,-0.008179,0.040185,-0.071667,-0.010651,0.074313,0.020293,0.079643,-0.055956,-0.223991,0.089730,-0.146367,0.106014,0.074842,-0.048590,-0.000046,0.045452,0.123826,0.061822,0.174035,0.015478,-0.042419,-0.126023,0.109482,0.006830,-0.029778,0.088357,0.107065,0.005312,-0.144841,0.050673,0.091497,-0.018521,-0.004337,-0.071736,-0.116203,-0.087966,0.020481,-0.084907,0.000641,-0.109409,-0.000078,0.151272,0.033406,-0.057526,-0.030429,-0.032071,0.098572,-0.033175,0.105244,-0.026988,-0.053350,0.011762,0.118229,-0.026019,-0.087600,-0.044297,-0.077986,-0.051758,-0.029199,-0.100536,0.040070,-0.015606,-0.073827,-0.058547,-0.143715,-0.084034,0.070599,0.031964,-0.157004,-0.090492,-0.186400,0.009030,-0.104015,0.054262,-0.022159,0.093219,0.000605,0.049623,0.102266,0.039434,-0.079638,0.163581,0.046083,0.120363,0.122843,0.057095,-0.101700,0.016268,0.004349,0.084309,-0.080156,0.074424,-0.026016,-0.000571,-0.061308,0.109958,-0.048807,0.116118,0.040943,0.106319,-0.196401,-0.048514,0.046907,-0.076110,-0.082854,-0.032720,0.071830,-0.099652,-0.131617,-0.041813,0.010303,0.009603,-0.114154,0.087086,-0.084283,-0.025821,-0.071828,0.202938,-0.056320,0.082459,0.049375,0.182801,-0.177240,-0.086350,-0.060734,-0.060767,0.067664,-0.064543,-0.033808,-0.090310,-0.222381,0.016690,-0.107911,-0.049811,-0.001771,0.023553,-0.068434,0.134513,0.023524,-0.026914,0.034942,-0.056610,0.002880,0.006898,-0.012297,-0.017574,-0.045656,0.091929,-0.062160,0.008299,0.082469,-0.088944,-0.048700,-0.063825,0.007784,0.111006,0.016982,-0.082092,-0.087787,-0.039586,-0.023458,-0.051653,-0.032288,-0.036158,0.063840,0.057407
-0.094432,0.012072,-0.039736,0.023264,0.105119,0.153926,0.006533,0.062570,-0.002317,-0.154295,-0.044806,0.015103,-0.147616,0.016153,-0.006393,0.018803,-0.007590,-0.020185,0.022795,0.016156,-0.064725,-0.099177,-0.106068,0.149427,-0.056922,-0.003869,0.015037,0.154026,0.036838,-0.001096,-0.064352,-0.039860,0.080945,0.000471,-0.124533,0.066899,0.039535,0.000931,0.019319,0.016512,-0.000211,-0.033146,-0.036651,-0.041379,0.044786,-0.146388,0.021561,0.033650,0.007357,0.030742,0.020069,0.102056,-0.078746,0.007179,-0.041443,-0.002431,0.043236,0.019140,0.002372,-0.038024,-0.016940,0.148827,0.081202,0.105192,-0.181995,-0.020571,-0.001511,-0.050406,-0.073242,-0.060711,-0.054275,-0.111116,0.041853,-0.118547,-0.089285,-0.076725,-0.040211,0.027222,0.096117,0.048971,0.010996,-0.124448,0.064282,-0.059407,-0.008148,0.020505,0.055878,0.074108,0.051280,0.047604,0.039330,0.113640,-0.038635,-0.124110,0.128085,-0.040975,0.107651,0.000914,-0.180426,-0.031362,0.127210,0.032785,-0.025809,0.049199,-0.041136,0.022448,-0.073953,0.021994,0.045173,0.014230,0.098830,0.043998,0.029041,0.093217,-0.062733,0.043376,0.039520,-0.017701,0.100082,-0.125809,0.115286,-0.002932,0.099394,0.047934,-0.003302,-0.054390,-0.027264,-0.102006,-0.018193,-0.097480,0.212111,0.042028,0.112046,-0.088232,-0.029605,-0.036809,-0.070159,0.052478,-0.054655,0.080289,-0.147425,0.047777,0.014878,-0.034834,-0.013322,0.075224,-0.059531,-0.121808,0.130798,-0.062573,-0.022372,-0.121778,0.056418,0.016165,0.122921,-0.034810,-0.016219,0.041651,-0.010678,0.071258,-0.014146,0.042463,0.042574,0.060134,0.118487,-0.034583,0.089028,-0.050353,0.032953,-0.102875,-0.023472,-0.084165,-0.012499,0.081472,-0.043384,0.012038,0.062452,0.003019,-0.009804,0.188276,-0.074787,-0.157692,0.061657,-0.044998,-0.170153,-0.128599,0.055536,-0.138993,-0.022663,-0.102889,0.091614,0.123724
-0.034746,0.006691,0.040803,-0.062586,0.070180,0.022504,-0.006873,0.142436,0.074936,0.037262,0.058710,-0.040627,0.070159,-0.130204,0.051945,-0.074524,-0.008869,0.091844,-0.056594,-0.055515,-0.078711,-0.013098,0.056718,-0.047851,-0.042230,-0.116189,0.084393,-0.016196,0.027058,0.121257,-0.107220,-0.067179,-0.007373,0.059945,-0.103402,-0.023059,-0.056094,0.002999,-0.044120,-0.166855,-0.039913,0.047677,0.048305,-0.010891,-0.050407,-0.013941,0.019315,-0.093776,-0.014235,-0.156564,0.118042,0.140340,-0.016340,-0.048941,0.023698,-0.018191,-0.048708,0.127178,-0.016880,0.057037,-0.047383,0.065055,-0.119605,0.039238,-0.073061,0.006263,-0.145274,-0.024067,0.019513,-0.034027,-0.065232,-0.164202,-0.038374,-0.105143,0.044434,-0.051159,-0.001310,-0.166878,0.061552,-0.088103,-0.049832,-0.031375,-0.091446,-0.079425,-0.018781,0.098036,-0.007169,0.034387,-0.092699,0.091089,-0.111181,0.014276,-0.044884,0.080372,-0.133180,-0.117070,0.128608,0.031081,0.016388,-0.053870,-0.025555,-0.050426,-0.005112,-0.083161,-0.154272,-0.008977,-0.129301,0.038786,-0.053288,0.047582,-0.001510,-0.059682,0.072596,-0.079737,0.098057,-0.147432,-0.049869,0.061156,-0.017221,0.353658,-0.060729,0.007696,-0.090110,-0.052398,-0.046432,-0.013065,0.114281,0.036097,0.242875,-0.023813,0.105968,0.010193,0.036262,-0.009560,0.025634,-0.098996,-0.097121,-0.076663,0.015980,-0.040635,-0.027002,0.045497,0.082047,-0.001747,-0.211668,-0.061662,0.093191,-0.234757,0.013485,-0.010266,-0.144644,0.080762,-0.038147,0.044722,0.172382,-0.037020,-0.106549,0.008496,0.028169,0.118576,-0.032757,0.010270,-0.172277,-0.061589,-0.033580,-0.070115,0.004430,-0.069666,-0.021095,-0.029691,0.034785,-0.012676,0.104696,0.015468,0.010855,0.031094,0.108275,-0.077880,-0.014954,0.105196,0.065059,-0.037957,0.005902,0.103633,-0.065517,0.067783,0.138183,0.111342,0.074637,0.022207,-0.088642,-0.121586
0.216165,0.134670,0.115950,-0.018323,-0.072443,0.049357,0.012048,0.055355,0.235992,-0.008909,-0.086626,0.030906,-0.101486,-0.036163,-0.043451,-0.047465,-0.060973,-0.064916,0.025839,-0.149230,-0.041568,-0.057249,-0.071635,-0.073775,-0.050397,-0.010204,-0.088608,0.091101,-0.033697,-0.058601,0.048509,0.118629,0.031791,0.064330,0.057502,0.034170,0.021225,0.131891,-0.045198,-0.072373,-0.005355,-0.063652,0.109748,0.000484,-0.086475,0.013690,-0.133371,-0.036909,-0.079121,0.015241,0.029778,0.000204,0.030311,-0.021596,-0.053479,-0.199767,-0.039801,0.121439,-0.006729,0.042947,0.042141,0.040281,0.060319,0.119464,0.033547,-0.031908,0.028948,-0.025646,-0.007961,0.002549,-0.021387,-0.125704,-0.131175,-0.077462,-0.037762,-0.034117,-0.002015,0.005585,0.064214,0.089500,-0.051373,0.052809,-0.007504,0.035960,0.060727,0.022868,0.013378,0.038628,-0.105532,0.079721,0.070433,0.058659,0.030060,-0.058304,0.044508,0.106305,0.079909,0.058501,-0.116371,0.053408,0.141396,-0.074458,0.060975,0.031648,0.018199,0.100791,-0.053826,0.046406,0.055373,0.151506,0.124359,0.127061,0.068004,0.030295,0.000004,0.069247,0.035873,0.044666,0.046540,-0.144641,0.049748,0.119202,-0.003249,0.010676,0.119348,-0.163981,0.042804,-0.030753,-0.013984,-0.175956,0.186265,0.029028,-0.006155,0.008338,-0.021369,0.032283,-0.081314,0.063519,-0.173278,0.003858,-0.159216,0.058959,0.103479,0.156801,-0.134956,-0.066282,-0.037976,-0.089676,0.142286,-0.081840,-0.066736,0.141143,-0.029970,0.067672,0.206810,-0.095307,-0.013235,0.111065,0.024997,-0.034162,-0.058570,0.042898,-0.027598,0.043390,-0.106384,0.131594,0.044717,-0.116505,0.121981,-0.044736,0.035650,0.018369,0.024085,0.127353,0.020069,-0.004545,0.056011,0.093510,-0.095424,0.010884,-0.083406,-0.081273,0.153788,-0.186028,-0.114120,0.061697,0.021557,-0.085678,-0.045684,0.072178,-0.007652,0.100959
0.045691,-0.035704,0.052560,0.038798,-0.085102,0.016389,0.001682,-0.066019,-0.023249,-0.121627,0.047503,-0.007437,0.049569,0.032707,-0.022721,0.030510,-0.018562,-0.027963,0.036171,0.094253,0.104498,0.014204,-0.070772,0.076392,0.122066,0.098914,0.028561,0.126507,-0.008360,0.015900,-0.031976,-0.093338,0.039774,-0.050409,-0.092586,-0.102814,0.094391,-0.048717,0.028145,0.044000,-0.000591,-0.117858,-0.000678,-0.003408,0.091468,0.032119,-0.031700,0.036789,-0.025700,0.071366,-0.064761,0.046734,-0.018911,0.001827,0.138440,-0.062659,0.109656,-0.028630,0.045070,-0.014099,0.014253,-0.070057,-0.075280,-0.133205,0.038044,0.036477,-0.015446,0.001054,-0.071640,0.005342,0.081504,-0.011675,-0.012703,0.117596,0.014491,-0.022758,-0.038646,0.032373,0.013741,-0.155803,-0.052427,-0.143888,0.040416,-0.035147,-0.039711,0.065061,0.052924,-0.120754,0.027920,-0.000859,-0.020800,-0.012683,-0.076538,0.057408,-0.067356,0.097735,0.056016,-0.091989,-0.001067,-0.045660,0.034119,0.013406,0.124923,-0.222254,0.102595,-0.012047,0.024265,0.094650,-0.008553,0.154172,-0.058537,-0.132341,-0.137935,0.014645,-0.099075,0.018141,0.104231,-0.055410,-0.007170,0.004571,-0.217446,-0.069094,0.175553,0.096137,0.006701,0.032177,0.041454,0.099440,0.017695,-0.080553,-0.048518,-0.005138,-0.058302,-0.075050,0.018595,-0.004355,0.057072,-0.080780,-0.072903,-0.100603,0.094849,0.114636,0.006095,-0.096360,-0.013703,-0.117325,-0.177256,-0.116075,-0.096113,0.068091,0.018749,-0.071040,0.028839,-0.071332,-0.068598,0.017396,0.002592,-0.056297,-0.097536,0.009621,0.010274,0.048647,0.011322,0.046846,-0.001515,0.020241,0.027532,-0.112214,-0.070451,0.012365,-0.140672,0.011277,-0.060879,-0.005172,0.097175,0.017375,-0.050879,-0.033584,0.054611,0.077167,-0.059863,-0.054815,-0.011016,0.016574,-0.044450,0.079526,0.033378,0.024558,-0.069533,-0.160437,-0.057696,0.015829
0.049951,0.083202,-0.030993,0.061915,0.003695,-0.096593,0.008761,-0.106052,0.092342,0.007083,0.081169,-0.095300,0.110833,-0.031046,0.118259,-0.082798,0.052435,0.138210,0.147438,0.229059,0.052294,0.088493,0.117047,0.040410,0.053293,-0.187526,0.012806,-0.050531,0.032220,-0.215748,0.056253,-0.066483,-0.054829,-0.044603,0.078336,-0.034311,0.083165,-0.039931,0.068915,-0.008915,-0.102958,0.041037,0.048428,-0.037342,0.068044,-0.124769,-0.031266,0.055937,-0.015982,-0.048676,-0.179260,-0.101940,-0.103354,0.082561,0.095646,0.141519,-0.019589,0.057546,-0.058017,-0.142223,0.106000,-0.003398,0.027232,-0.205648,-0.079392,-0.133418,0.074447,0.075283,-0.034908,0.040439,-0.000954,-0.064232,0.136517,0.028757,0.165410,0.053852,0.054745,0.124784,0.001147,-0.048119,0.072640,-0.031337,-0.088289,0.038533,-0.036709,-0.083025,-0.073127,0.078970,-0.001209,0.049974,-0.004096,0.020110,0.013625,-0.191487,0.012945,-0.011643,-0.065722,0.075007,-0.076875,0.093013,-0.092860,0.105988,0.026750,-0.000385,-0.001315,-0.054152,-0.113431,-0.001050,0.028642,-0.034750,0.097848,0.033587,-0.095144,-0.008517,0.187674,-0.076216,0.004939,-0.109977,0.094559,-0.198373,-0.077706,-0.085349,0.020967,0.065149,0.117015,0.084400,-0.029129,-0.091477,-0.138501,0.020393,-0.107119,-0.025855,0.099905,-0.023525,0.002222,0.008496,-0.042627,0.060810,-0.157443,-0.029215,-0.114197,0.012859,0.030779,-0.015419,-0.014835,0.025270,-0.040925,0.023663,-0.014536,-0.080061,0.008164,-0.094689,0.069526,-0.034335,-0.274164,0.032668,0.029153,0.067797,-0.062094,-0.015902,0.181816,0.022695,0.038277,0.149255,-0.040269,0.040434,-0.152104,0.018632,0.099709,0.173354,-0.000253,-0.012724,0.039798,0.032691,0.046764,-0.093661,0.009158,-0.012541,0.036918,-0.037902,-0.120918,-0.017122,-0.031167,-0.153561,-0.051494,0.111267,0.037080,-0.011355,0.011223,-0.059962,0.172694,0.024659
0.011632,0.000080,0.082110,-0.123508,0.085435,-0.059235,0.005110,0.085501,-0.009139,-0.127195,0.040539,0.107439,0.011716,-0.167151,-0.163315,-0.004254,-0.058222,-0.055142,0.055985,0.006730,0.065701,-0.040948,-0.110704,-0.041891,0.053748,0.077546,0.164293,0.035293,-0.019488,0.058357,0.054305,-0.053952,0.039044,-0.088178,0.093082,0.059819,-0.039917,0.064151,0.121700,-0.284680,0.084290,-0.007073,-0.019824,0.084116,0.141796,0.023631,-0.084028,-0.055324,0.118808,-0.024339,-0.127139,-0.019574,0.028166,-0.108161,0.023969,-0.015171,0.234124,0.005858,-0.151729,-0.012468,0.027113,0.171495,0.153413,-0.081869,0.182290,-0.068935,-0.171627,-0.199731,0.145663,0.080532,0.056743,-0.072170,-0.013052,-0.003158,0.021498,-0.048265,-0.059101,0.087052,0.124008,-0.009545,-0.168640,-0.228093,-0.004811,-0.150573,0.013545,-0.115484,0.176566,0.040381,0.013075,-0.023151,0.066188,-0.064841,0.049322,-0.046847,-0.008050,0.019493,-0.057630,-0.016079,-0.112402,0.048282,0.148945,-0.044692,0.107646,0.041192,0.028615,0.132417,-0.137605,-0.064888,-0.104469,-0.059320,0.013722,0.008120,-0.087271,-0.111806,-0.061109,0.075286,0.098974,-0.034745,0.032937,-0.025807,0.000301,0.057834,0.053004,-0.044831,0.060428,-0.066681,0.027876,0.016074,0.004972,0.022851,-0.010618,0.007870,0.187102,0.063285,-0.037491,-0.021199,-0.092725,0.115468,-0.157805,0.044706,-0.085274,-0.055445,-0.018474,-0.064539,-0.165515,-0.034818,0.041282,0.018124,0.002922,0.034779,0.006718,-0.115665,0.088791,-0.095231,-0.073250,0.131524,0.007988,0.095197,-0.028397,-0.014777,0.054016,-0.081855,-0.071682,0.054224,0.082216,0.071777,0.037937,-0.127601,0.175162,-0.104699,-0.060922,-0.031135,0.102543,0.055489,-0.041380,0.025874,-0.033801,-0.063826,0.089157,-0.004560,-0.082599,0.052651,0.001933,-0.045954,-0.042477,-0.050203,-0.010539,-0.041172,-0.041040,-0.202276,0.085445,0.012552
0.029867,0.017569,0.005768,-0.112972,-0.036059,0.008247,0.004632,-0.069590,0.101973,0.075358,0.012712,-0.002986,-0.140748,0.074036,-0.044171,0.049548,-0.017495,0.077236,0.108532,-0.114890,0.015784,0.062467,0.038939,0.016985,0.027858,0.056306,0.015665,-0.093817,-0.110916,-0.123548,0.014751,0.046100,-0.009723,-0.056173,-0.151462,-0.030797,0.008311,0.073285,-0.047468,0.036781,0.130629,-0.002788,0.098975,-0.072158,-0.060860,0.033546,-0.026143,0.013741,-0.169184,0.038822,0.065342,-0.022645,-0.099685,0.087232,0.126559,-0.160555,-0.045215,-0.045209,0.041288,0.091015,0.064346,-0.112194,0.139192,0.101148,0.025071,0.006955,0.070965,-0.104546,-0.098094,-0.080010,0.076680,0.012314,-0.016717,0.146411,0.043942,0.141879,0.001559,-0.033162,0.090696,0.164993,0.011905,0.108306,-0.017713,0.043311,-0.041300,-0.069732,-0.084412,-0.039006,0.020791,-0.031629,-0.024107,0.021394,0.031735,-0.044959,0.006867,0.105390,-0.060071,0.140565,0.020132,0.040457,0.002075,0.006096,-0.016933,0.010910,-0.064226,0.061190,-0.013435,0.095192,0.067794,-0.011336,-0.126099,-0.024738,0.074743,0.014221,-0.070816,0.017299,-0.011619,0.026129,0.034996,-0.190214,-0.063726,0.034073,-0.141387,-0.036876,0.070876,0.029078,0.065402,0.097302,-0.119626,-0.071766,0.014387,-0.012415,-0.031929,0.060639,0.013416,0.058100,0.123125,0.113973,-0.334520,0.027782,-0.036296,-0.023517,0.147554,0.036610,0.082041,-0.067596,0.039966,0.122116,0.070172,0.012447,0.011585,-0.126633,0.011572,0.042204,0.028024,-0.001948,-0.052226,0.082591,0.244842,0.048722,-0.099362,0.069077,0.019004,0.055467,0.007585,-0.020355,-0.073677,0.049478,-0.050847,0.078776,0.112671,0.126212,-0.001925,-0.136986,0.068633,0.080183,0.048825,0.006292,-0.036264,-0.085649,-0.021406,0.057722,0.029352,-0.070416,0.083795,0.113128,-0.147635,-0.021252,-0.015262,0.073440,0.030528,0.023238
-0.070324,0.087417,-0.019026,0.004526,0.116424,-0.089312,-0.004379,0.048352,0.117403,0.073685,0.037592,0.057726,-0.001019,-0.011313,0.032965,-0.063717,-0.048276,-0.013196,0.007109,-0.123505,-0.031679,-0.049067,0.008131,0.031095,-0.106416,-0.011628,-0.041323,-0.003913,-0.035724,-0.004361,-0.106032,-0.066439,0.067442,0.019558,0.025103,-0.017560,0.053317,0.022466,-0.166138,-0.042725,-0.038128,0.004397,0.055960,-0.016514,-0.048852,0.178458,0.028145,-0.074553,-0.062225,0.197756,0.122753,0.018756,0.128855,0.061184,0.045133,0.051218,0.049218,-0.044321,0.024275,0.106480,-0.104125,-0.076769,-0.059041,0.067971,-0.041058,0.087081,-0.070473,0.017819,0.022589,-0.038425,-0.080885,-0.007618,0.029144,-0.053277,-0.092498,-0.012766,0.019231,0.003976,-0.032608,-0.097620,0.144397,0.027182,0.023894,0.094033,-0.068308,0.014127,0.033354,0.069816,0.042025,-0.045501,0.063585,0.008311,-0.077927,0.076977,-0.092455,0.137813,-0.100292,-0.046110,0.033698,-0.086396,-0.006502,-0.017546,0.016993,-0.080030,-0.014663,-0.087865,0.021927,-0.064698,0.072174,-0.068616,0.087338,0.152869,0.063033,-0.041872,0.012816,-0.061395,-0.038736,0.023729,-0.098402,-0.093788,0.122081,0.059790,0.018441,-0.062249,-0.036355,0.013118,-0.009041,-0.063854,-0.016244,0.002300,-0.131844,-0.048911,-0.001983,-0.103063,-0.100162,-0.002205,-0.010104,-0.017370,-0.099074,0.230654,0.018076,0.036092,-0.067569,-0.053746,-0.039728,0.012989,-0.025187,0.092212,0.004448,-0.085530,0.014838,0.204467,0.012818,0.030733,0.119783,-0.088105,0.079628,0.121414,-0.060915,0.021387,0.033869,-0.061912,-0.107765,-0.045027,-0.108823,-0.187386,-0.037382,0.041628,0.075317,-0.022212,0.005638,0.031235,-0.024904,-0.081516,-0.010417,0.023406,0.109997,0.063679,0.034911,-0.070719,0.074112,0.070397,0.153178,0.091771,0.134728,0.025852,-0.004222,0.001115,0.016392,0.102219,-0.007507,-0.053724
-0.030192,0.112431,-0.126960,-0.033948,-0.075896,-0.077898,0.004349,-0.002214,0.074938,-0.053469,-0.045052,-0.022326,-0.144115,-0.030044,-0.083663,-0.097194,0.051717,0.094316,-0.046870,0.107224,0.005492,0.027065,0.150025,0.064849,0.033769,-0.186855,-0.048167,-0.068710,0.040253,0.046419,0.081748,0.030546,0.077740,-0.039394,-0.066094,-0.076879,0.008763,-0.042413,-0.022512,-0.029597,-0.100742,-0.010571,-0.199946,0.055906,-0.004120,-0.031143,-0.075948,0.002142,-0.150969,0.025791,-0.071703,-0.005823,-0.108467,-0.066609,0.130945,0.014895,0.016725,-0.030194,0.121227,-0.021415,0.149079,0.000091,-0.083501,-0.048957,0.011702,0.076081,0.006696,-0.060521,-0.070186,-0.027600,-0.002845,0.074747,0.135899,0.013900,0.124832,0.007090,-0.028084,-0.037246,0.134266,0.146384,0.029729,-0.040099,-0.035613,-0.054294,0.034980,-0.042264,-0.067393,-0.032600,0.114318,0.071034,-0.000894,0.078976,-0.113971,-0.167452,0.076062,-0.052466,-0.182945,0.124695,-0.040236,0.186476,0.013455,0.024802,-0.065498,-0.013016,-0.167230,0.026546,0.050063,-0.047290,0.086130,0.076179,-0.003278,-0.050664,0.022039,0.045573,0.195481,0.046305,-0.033403,-0.155011,0.024865,-0.064671,0.035677,0.105778,0.047233,0.125929,0.023277,0.123564,-0.029115,-0.046568,-0.029671,0.069333,0.066224,0.073275,0.072061,-0.144517,0.134581,0.067179,-0.084212,0.045291,0.131243,-0.020551,0.180942,-0.012608,0.008984,0.036478,0.187991,0.063182,-0.058244,-0.003055,-0.120234,0.073317,-0.084916,0.019840,0.042190,-0.056454,-0.092369,0.020571,-0.037737,0.169871,0.041803,0.112758,-0.059836,-0.013756,-0.003836,-0.032644,-0.051041,0.109579,-0.073328,-0.091360,0.103832,0.030210,-0.090420,0.082237,-0.051752,0.078028,0.014230,0.010044,0.116355,0.050167,-0.090877,-0.023483,-0.023330,-0.028091,0.115304,-0.143662,-0.120607,0.013037,0.039104,0.191879,-0.092773,0.052002,-0.012918,0.192758
-0.022565,0.132969,0.035146,-0.006851,0.076134,-0.096541,0.007111,0.002587,0.126262,0.055768,0.073435,0.085934,-0.085240,-0.013045,0.090887,-0.052433,-0.000259,0.078077,0.017433,-0.055913,0.044330,0.014595,0.032066,0.009273,-0.035978,0.031057,-0.019629,-0.020611,-0.104239,-0.011589,0.033403,0.061301,0.038523,0.029087,-0.091075,-0.043618,0.103487,0.021123,-0.017978,0.056192,0.079074,-0.109617,0.074837,-0.167506,-0.057687,-0.040359,0.102931,0.012350,-0.175953,0.045486,0.048374,0.036881,-0.062716,0.048027,0.075334,-0.056543,-0.051668,-0.061691,0.092989,0.008126,-0.033373,0.013376,-0.054344,0.017869,0.317473,-0.128730,-0.047542,-0.021685,-0.021331,0.097641,0.083818,0.030638,-0.042824,0.134523,-0.053409,0.116133,0.017632,0.062427,-0.010759,0.069896,0.116703,0.037067,0.136446,0.080599,-0.077355,-0.011426,0.015292,0.020541,-0.002145,0.144787,-0.069960,0.057680,-0.057215,-0.012820,-0.060744,-0.059548,0.008297,-0.053634,-0.018846,-0.047108,-0.019677,-0.043683,0.088815,-0.140104,-0.124887,-0.017788,-0.021695,-0.043504,0.096442,-0.230452,-0.108093,0.049536,0.059363,-0.047991,-0.011607,-0.022362,0.062490,0.019280,-0.004506,-0.083325,0.069004,-0.054794,-0.054329,-0.149743,-0.079621,-0.089634,0.064657,0.069733,0.031049,0.090146,0.038449,0.001413,0.035806,0.084822,-0.000043,0.063966,0.138297,0.169489,-0.058084,-0.094867,-0.070397,0.009227,-0.043924,-0.001341,0.017314,0.021375,-0.110389,-0.110623,0.068202,0.055245,0.067903,0.017437,0.070147,0.090866,0.052023,0.115782,0.057835,0.058031,-0.020600,0.021680,0.069774,-0.035858,-0.118434,0.031966,-0.086543,-0.082444,-0.025989,0.137971,0.008733,0.005525,-0.001080,0.113118,-0.056729,-0.099299,0.009270,-0.089990,0.038369,-0.023694,0.142170,0.046307,-0.010365,0.092340,0.077975,0.067650,0.147610,0.012988,0.058531,0.040977,0.036710,0.144076,0.063415,-0.099940
0.101550,-0.082394,0.007952,-0.004078,-0.070165,0.107382,0.003583,-0.036418,-0.138452,0.071629,-0.077531,-0.107945,-0.070186,0.111147,0.042897,-0.055836,-0.027553,0.097987,0.019073,-0.011659,0.070142,0.153726,0.125264,0.026923,0.057428,-0.102419,-0.106838,-0.103235,-0.151974,0.254622,-0.106021,-0.114552,-0.131622,0.085685,-0.033285,-0.103242,0.082228,0.068964,-0.044996,-0.053558,0.049872,-0.017812,0.010961,-0.011131,-0.114334,-0.012742,-0.090468,0.057608,-0.003733,0.015206,0.017153,0.079778,0.163077,0.070883,-0.027693,0.066919,0.066374,-0.190732,-0.131502,0.055575,-0.014924,0.035066,-0.003087,-0.107518,0.137470,0.208292,0.022821,0.120643,0.029037,0.029783,0.131345,-0.023971,0.008854,0.170571,0.048195,-0.048663,0.053379,-0.086243,0.035637,0.048712,0.111470,0.122309,-0.006436,-0.012697,0.012499,0.058763,-0.038591,-0.046354,-0.065474,-0.143421,-0.040080,-0.025703,0.060355,0.039074,0.021677,0.032086,0.171018,0.005157,-0.144069,-0.095391,-0.050970,-0.082657,-0.085973,0.042502,-0.018591,0.049366,-0.136630,0.099446,-0.050734,0.093043,-0.028700,0.029125,0.006492,0.062900,0.027790,0.075668,-0.026867,0.083300,-0.100981,0.106155,-0.042214,-0.087064,-0.006874,-0.166679,-0.028165,-0.039050,0.052172,0.108976,0.128233,0.070766,-0.081464,0.025629,-0.000647,0.016065,-0.019646,-0.128259,0.049483,-0.038807,0.316080,-0.012633,0.016722,0.078655,0.067921,0.113099,-0.020054,-0.103394,-0.009790,-0.006709,-0.042292,0.049560,0.131908,0.158298,-0.001641,-0.112177,-0.043891,-0.077860,0.041411,0.013792,0.023840,0.100172,0.083793,0.065992,0.083904,-0.076389,0.066082,-0.016026,-0.167047,0.139629,0.033699,0.143157,0.008106,0.066574,-0.185523,0.021740,0.035195,0.012523,-0.009993,-0.102124,0.114725,0.066320,0.065710,0.191249,-0.014971,0.132875,0.017668,-0.079762,0.005110,0.008213,0.154858,0.099830,-0.107277,-0.058409
0.003603,-0.094849,-0.108447,-0.106536,0.029038,0.054548,0.010594,0.139230,-0.031579,0.147648,0.065800,0.104668,0.162259,0.106455,-0.162616,0.070276,-0.115180,-0.017789,-0.072720,-0.218503,0.055267,-0.052204,-0.016475,-0.105429,-0.081999,0.019615,0.101892,-0.061201,-0.031961,0.064234,-0.004459,0.031213,0.032306,0.066334,0.038388,-0.045236,-0.052713,-0.029284,-0.071865,0.119714,0.193595,0.016182,0.023190,0.007444,-0.107679,0.009239,0.191008,-0.053647,0.046495,0.061770,0.200688,0.061330,0.243341,0.090630,-0.067670,0.093367,0.090920,-0.026548,0.116910,0.113336,-0.039857,0.036052,-0.109942,0.072398,0.083161,-0.063257,0.061355,0.016898,0.104423,-0.086345,0.007946,-0.044690,-0.030182,0.070236,-0.001454,-0.033462,-0.071248,0.059527,0.069505,-0.038723,-0.075353,-0.037724,-0.096777,-0.074504,-0.144891,-0.058453,0.037732,-0.167866,0.130363,0.123556,-0.088662,-0.097857,0.084682,0.090257,-0.061843,-0.046969,0.085539,0.022424,0.020156,-0.063543,0.070732,-0.092154,-0.060105,0.078339,-0.006207,0.019116,-0.018999,-0.000716,0.134258,-0.055526,-0.029067,-0.058239,0.129189,0.038393,-0.135989,0.010411,-0.154861,0.205202,-0.113129,0.037249,-0.011875,-0.057674,0.057277,-0.051354,-0.027713,-0.124595,0.014783,0.057963,0.079980,0.123818,-0.160564,-0.084226,-0.083960,-0.041492,-0.083954,-0.139350,0.082028,-0.066704,0.054121,0.014800,0.003766,0.049020,0.072018,-0.031155,0.080212,0.048438,-0.022765,0.111143,-0.097447,-0.129648,-0.091446,-0.025784,0.112801,0.006287,0.158023,-0.039752,0.055795,-0.030473,-0.036248,0.113666,-0.082477,-0.025222,-0.027096,-0.014457,0.011901,-0.101695,-0.076990,-0.062232,0.099334,-0.035601,0.134206,0.082251,-0.149969,0.012723,0.032638,0.035934,0.031821,0.104846,0.086355,-0.079776,0.191906,0.049883,0.033203,0.045633,0.077376,-0.086662,-0.036435,0.022108,0.039103,0.033002,-0.022607,-0.198565
-0.064723,0.022435,0.222019,-0.034278,0.079455,-0.045329,0.004692,-0.027604,-0.115971,-0.070027,-0.090441,0.152777,-0.188570,-0.009011,0.039838,-0.085608,-0.031450,-0.114158,0.023030,-0.087033,-0.142053,-0.013407,-0.058482,0.050589,-0.013986,0.115645,-0.029044,0.014959,-0.109648,-0.160400,0.006664,-0.121878,0.019529,-0.114114,0.091760,0.001480,0.026753,-0.002030,0.097599,0.033111,-0.010903,-0.023244,0.005685,-0.021358,0.046782,-0.086453,-0.089239,-0.088671,-0.033394,0.146830,-0.036849,-0.090347,-0.020508,-0.063879,0.041527,-0.090123,0.081786,0.049724,-0.067661,0.075618,0.021491,-0.027634,0.078118,0.009901,0.029213,-0.175370,0.001936,-0.060380,0.054868,0.035467,0.024513,-0.040003,-0.137840,0.072254,-0.048499,-0.019921,-0.099876,0.123183,0.122317,0.013023,-0.029946,0.062773,0.042213,0.019335,0.173106,0.010309,0.020314,-0.063846,-0.115338,-0.067647,0.171935,-0.078704,0.018459,-0.045495,-0.081749,-0.062535,-0.040516,0.018869,-0.068823,0.011232,0.011839,0.016941,0.013281,-0.057869,0.129625,0.090620,0.083468,0.092755,-0.113920,-0.129307,-0.159834,0.098727,-0.009305,-0.016483,-0.062515,0.116034,0.033821,-0.024881,0.080313,-0.141406,0.097574,-0.097104,0.082402,-0.065196,0.103463,-0.024799,-0.057402,0.021273,-0.105450,-0.035188,0.062323,0.043574,0.109157,-0.003140,0.111871,-0.016075,-0.038681,-0.015491,-0.079292,-0.000499,0.035876,0.073432,0.029983,0.013572,-0.009085,-0.049846,0.108921,-0.006777,0.045286,0.044765,0.105810,0.058650,-0.212070,-0.019563,-0.006304,0.130346,-0.022630,0.024553,0.066907,-0.032192,-0.007422,-0.002468,0.029924,0.128286,0.091381,-0.003109,0.102402,0.026888,-0.041991,-0.010406,-0.043107,0.045203,-0.003397,0.015546,-0.003080,0.078050,-0.070379,0.028233,0.052117,-0.111101,-0.049911,0.026424,0.005691,-0.068570,0.042026,0.051682,-0.091101,0.074308,-0.042846,-0.075896,0.134477,0.082341
0.002318,0.005136,0.057499,0.198770,0.104254,0.115197,0.002504,-0.025070,0.005882,-0.011947,-0.068494,0.080485,-0.022629,-0.013839,0.087941,-0.062264,-0.037211,0.021998,0.021016,-0.004658,-0.055018,0.107390,0.025529,-0.000257,-0.063685,-0.110697,0.036336,0.025881,0.273338,0.037816,0.130363,0.062665,-0.139538,-0.029635,-0.015604,-0.015973,0.110522,0.135305,-0.018355,0.011176,-0.080098,-0.037485,-0.136806,0.045668,-0.014162,0.071982,0.022643,0.082719,0.032545,0.104699,-0.068044,0.057943,0.083058,-0.021997,-0.050343,0.008390,-0.039113,-0.119095,-0.011881,0.030128,-0.056484,0.084752,-0.083393,-0.006896,0.033642,-0.088856,-0.044515,0.064826,-0.019309,0.016455,0.006139,-0.054403,0.056599,-0.152393,-0.150234,-0.043937,0.084887,0.014014,0.055730,0.001998,-0.014434,0.076165,0.047763,0.045077,0.083458,-0.026859,0.089571,0.232239,-0.123247,0.032839,-0.016502,0.193061,0.057894,0.040808,0.139585,-0.050391,0.088284,-0.094599,0.023181,-0.024717,0.074815,-0.118256,0.150496,0.078547,-0.052197,-0.116595,0.097793,0.135088,-0.009999,-0.023893,0.193107,0.026697,-0.009320,-0.043557,0.029450,-0.023316,0.119888,-0.078996,-0.025404,-0.037523,0.051097,-0.014261,0.264585,-0.003293,-0.082464,-0.051254,-0.100262,-0.066482,-0.118459,-0.104643,-0.143259,0.055916,-0.031084,0.044252,-0.073730,0.114908,-0.087231,0.014597,-0.005097,0.030747,-0.008038,0.022562,-0.112727,0.032968,-0.040501,-0.069981,0.037590,0.014690,0.015369,-0.131205,0.147172,0.008879,-0.021397,0.022698,-0.011873,-0.040003,0.287529,0.009565,-0.079186,0.019716,0.102914,-0.067191,0.056495,0.114715,-0.098201,0.013735,-0.089438,-0.017536,0.071218,0.011404,-0.098791,-0.083993,0.015955,-0.017015,-0.031225,0.186349,-0.046782,0.017499,-0.111709,-0.149642,0.007356,0.171355,0.015476,0.023690,0.019000,0.120463,-0.007601,-0.019656,-0.000767,-0.000079,0.017629,0.129925
0.028114,0.096516,-0.099076,-0.140408,-0.045145,-0.077801,-0.003017,0.027214,-0.034834,0.050570,-0.045638,0.037419,-0.015265,-0.122156,0.105675,-0.056757,-0.098424,-0.033586,0.106148,0.026822,-0.013597,-0.066567,0.002867,-0.116887,-0.022586,0.095344,-0.052680,-0.067923,0.010819,0.138557,0.076486,0.004923,0.099862,-0.048646,0.028214,0.062734,-0.133547,-0.044721,-0.124905,-0.012997,-0.047778,0.007877,-0.042094,-0.121117,0.115377,-0.010972,0.038744,-0.153177,0.094457,0.112595,-0.008147,-0.044839,0.211203,-0.211111,0.172253,0.089671,-0.012569,-0.111143,0.104940,0.015021,-0.032462,0.184773,-0.007746,-0.101852,0.012258,0.120081,-0.000059,-0.012186,-0.116058,-0.020297,-0.108119,0.055837,-0.052865,-0.152998,-0.010201,-0.091076,0.090734,-0.035779,0.024633,-0.058790,0.051513,0.031535,-0.064306,0.051875,0.014803,0.025445,0.002010,0.063097,-0.051319,0.039629,0.021611,-0.117693,0.055626,0.130206,0.032306,0.078082,0.132867,0.009508,0.011378,0.028012,0.114796,0.039717,-0.031819,-0.007316,-0.134653,0.050315,0.074111,0.065481,0.013570,-0.025572,0.109474,0.005914,-0.075262,-0.057882,-0.024238,-0.040454,-0.123223,0.060300,-0.098870,0.222209,-0.085274,-0.067044,0.122226,-0.059552,-0.050631,0.033112,0.040901,-0.108587,0.099792,0.033477,-0.085933,0.048548,-0.023804,0.042982,-0.164209,0.048478,-0.065992,0.080702,0.300953,0.111323,-0.014675,-0.000140,-0.151167,0.024761,-0.007484,-0.037139,0.060518,0.036405,0.047179,0.182800,-0.035062,-0.070651,-0.034497,0.031622,0.022576,0.022455,0.135610,0.016679,0.116992,0.018188,0.003488,-0.141243,-0.085295,0.005183,-0.091058,0.005777,-0.023652,0.045637,-0.038445,-0.082711,-0.026354,-0.155524,-0.116724,-0.055138,-0.110747,-0.076749,-0.051359,-0.143357,-0.019979,-0.127431,0.159205,0.118473,0.006017,0.131741,0.153722,0.000456,-0.160809,0.048286,-0.021331,-0.012067,-0.012334,-0.042758
0.039076,-0.140443,0.043629,-0.169317,0.112092,0.016865,-0.001886,-0.012793,0.007836,-0.060763,-0.089263,0.058413,-0.011520,0.063344,0.042005,-0.033011,-0.050323,-0.136408,0.067124,0.012345,0.005712,-0.091027,-0.073364,-0.029409,-0.064485,0.057450,0.054060,0.066719,-0.008657,0.165962,0.023976,0.061529,-0.248235,-0.023948,0.024926,0.120789,-0.111740,0.002357,0.024663,0.183346,-0.061140,-0.065031,0.135505,0.007277,0.055912,-0.002874,0.002380,-0.145004,0.091128,0.023875,-0.050137,0.051108,0.044906,-0.051318,-0.024090,-0.085642,-0.081256,-0.001677,-0.016871,-0.041798,-0.055420,0.022324,-0.135583,0.036234,0.040801,0.041154,0.031282,-0.106464,0.015907,0.012647,-0.089861,-0.004305,-0.029877,-0.021859,-0.104448,-0.158535,-0.079882,-0.072598,0.027989,-0.181304,-0.142112,-0.104481,0.050449,0.007470,0.032402,0.067545,0.044248,0.025477,-0.082180,-0.003202,-0.010783,-0.106730,0.012344,0.049184,-0.028921,-0.011307,-0.049494,0.027557,-0.001128,0.071505,-0.066693,-0.114925,-0.071990,-0.021363,-0.011783,0.082146,0.153032,-0.119461,-0.006600,-0.075996,-0.034011,-0.048460,-0.044061,0.135742,0.005814,0.041548,0.012874,-0.032869,-0.014237,-0.004378,0.236675,-0.006917,-0.005956,-0.067698,0.032188,-0.052361,-0.077914,-0.009080,-0.006361,0.043935,0.022481,0.024440,-0.060196,-0.074661,0.085636,-0.103282,-0.121983,-0.059676,0.072273,0.129950,0.012088,-0.048545,0.004240,-0.025187,0.194418,0.019327,0.011557,0.076582,0.006901,0.068509,-0.018334,-0.064433,-0.025979,0.049755,-0.044115,0.063830,-0.045179,-0.095862,-0.108432,-0.058264,-0.085315,0.057986,-0.013865,-0.042789,-0.078999,-0.027671,0.025346,-0.032587,0.123968,-0.089876,-0.018615,-0.097960,-0.035617,-0.023014,-0.100967,0.067529,-0.047469,0.049994,0.103543,-0.034285,0.100321,0.033936,-0.044073,-0.020645,-0.038903,0.103632,-0.148957,-0.055856,-0.099131,-0.189015,-0.098117,0.021085
0.054531,-0.086613,-0.033860,0.072441,0.028634,-0.159921,0.003183,-0.133595,-0.016269,-0.128658,0.067833,0.114054,-0.048889,-0.034065,-0.022548,-0.005529,0.056748,-0.175427,-0.042015,-0.012551,0.080326,-0.253127,-0.187359,-0.023953,-0.214763,0.076436,-0.078980,0.100265,0.015866,-0.012815,-0.031152,-0.009774,-0.085636,-0.018769,-0.067262,0.156666,-0.107896,-0.198683,0.018115,0.061825,-0.098903,0.044265,-0.053122,0.074235,0.089568,-0.032252,-0.036537,-0.071783,0.020974,0.119954,0.028262,0.067742,0.034793,-0.109303,-0.126947,0.049851,-0.026582,0.134262,0.013529,-0.005449,0.067371,-0.009606,0.023204,0.155118,-0.006011,-0.065653,0.073972,-0.048203,0.061440,0.157303,-0.198572,0.042031,-0.128237,-0.193665,-0.135199,0.006706,-0.015191,-0.062773,-0.079976,-0.167806,0.023962,-0.146734,0.056291,0.158773,-0.027345,0.090029,0.070122,0.005284,0.053030,-0.081084,0.037934,-0.026477,-0.098263,-0.077499,0.080274,0.024995,-0.123857,0.048395,-0.048957,0.003453,0.107121,0.110632,0.074706,-0.040591,0.084691,-0.091721,0.007638,0.136286,0.046426,0.073492,0.032876,0.076495,-0.029582,-0.040751,0.011401,-0.036733,-0.099772,-0.069573,0.085361,0.029538,0.011676,-0.078315,0.042639,0.100015,-0.023678,-0.098422,0.024755,-0.228298,-0.105386,0.149772,0.168504,-0.084545,-0.057394,-0.061310,0.016027,0.012564,-0.151020,0.100418,-0.058979,0.103111,0.031058,0.082580,-0.088772,0.044451,0.090009,-0.049514,0.028653,-0.004706,0.107409,-0.057391,-0.115113,0.051540,0.061380,-0.035524,0.067545,0.053324,-0.050953,-0.164830,-0.177354,-0.034524,0.006729,-0.070379,0.028350,0.007792,-0.010260,0.055678,0.022909,-0.018505,0.038863,-0.173666,-0.059715,-0.135575,0.063701,-0.040248,-0.138476,0.018210,-0.122532,-0.020640,0.049196,0.067529,-0.019181,-0.079267,-0.000390,-0.001582,0.069796,0.073160,-0.008062,-0.005198,-0.138905,0.016501,-0.021921,-0.071292
