-0.053964,0.128353,-0.072340,0.007914,-0.127742,0.002466,-0.123399,0.026953,-0.080231,0.044419,-0.064826,-0.033393,-0.019959,0.046763,-0.004569,0.001476,-0.029178,0.014642,0.009817,0.042865,-0.254933,-0.106044,0.048503,-0.008896,-0.025617,0.029924,-0.137511,-0.010219,0.030662,0.005767,-0.025808,0.001138,0.017714,-0.031958,-0.012933,-0.123068,0.006327,0.076960,0.034074,0.064065,0.148785,-0.001310,-0.012979,0.055154,0.025324,0.036988,0.090679,-0.097888,-0.134247,-0.007346,-0.059073,0.022546,0.015342,-0.041312,0.032319,-0.025707,0.081347,-0.030490,-0.055326,0.005147,-0.042498,-0.056944,-0.003479,0.117579,0.030747,0.046561,0.002112,0.001318,-0.068171,0.050837,0.094679,0.009973,-0.046778,0.004462,-0.008765,0.017026,-0.093450,-0.008571,0.038650,0.042824,0.003280,-0.050772,0.046044,0.009162,0.105004,0.131791,-0.045284,0.076080,0.006056,0.024195,0.023002,0.022344,-0.059556,0.032718,0.003306,-0.083042
-0.029868,0.050830,-0.021769,-0.011399,-0.073390,-0.088829,-0.032453,0.049781,-0.126081,0.002007,-0.033048,-0.023683,-0.007499,-0.015268,-0.056363,-0.065483,0.001360,0.034077,-0.138975,-0.032054,-0.145125,0.066815,-0.016118,-0.017745,0.043544,-0.069231,-0.045313,-0.008022,0.020669,-0.006088,0.013110,-0.005569,-0.035529,-0.036951,-0.014376,-0.159316,-0.093785,-0.022227,0.036273,0.017080,-0.063017,0.000949,0.051888,-0.118351,-0.063520,-0.048853,-0.005859,0.054680,0.015632,-0.038288,-0.020686,-0.030185,-0.016207,0.009219,0.005410,-0.005037,-0.013655,-0.039141,-0.022457,-0.004698,-0.015498,-0.060224,-0.030511,0.013824,0.011474,-0.072211,0.013531,0.010549,0.018492,-0.093872,-0.020597,-0.070209,0.004127,-0.013122,0.005840,0.012540,-0.161847,0.011324,-0.070688,-0.011033,-0.065774,-0.065971,0.030684,-0.011707,-0.000105,0.029132,-0.030871,0.058228,-0.016564,-0.056418,-0.000174,-0.026604,-0.033262,-0.012796,-0.050223,0.012734
0.025879,0.003113,0.018754,0.094199,-0.110041,0.048173,-0.010102,0.112120,-0.017645,-0.025861,-0.045463,0.085264,-0.121714,0.049194,-0.042797,-0.015247,-0.028088,0.184076,0.009553,-0.059323,-0.000360,-0.000989,-0.118585,-0.017149,0.094944,-0.075111,0.015848,0.029350,0.043875,0.030615,-0.150693,0.068254,0.029802,-0.016629,0.062096,-0.066777,-0.031986,0.005418,0.017302,-0.072805,-0.058413,0.009903,-0.036197,-0.098485,0.036459,-0.059207,-0.009804,-0.135535,-0.097438,-0.151541,0.001389,-0.042133,-0.000424,0.007530,-0.077338,-0.030174,-0.090955,0.005334,-0.032094,-0.049708,-0.158932,-0.004848,-0.030486,-0.050329,0.072492,-0.053521,-0.004179,0.062509,-0.042411,-0.033077,-0.017654,-0.130675,0.006404,-0.081203,0.015750,-0.040682,0.084641,-0.087176,-0.021986,0.103879,-0.126876,-0.072119,-0.090880,0.202656,-0.103692,-0.044477,-0.047530,-0.014626,-0.059041,-0.076449,-0.067588,-0.013393,0.001056,-0.004813,0.032007,-0.020523
0.027163,-0.042905,-0.077164,-0.076937,-0.041328,-0.034730,0.047807,0.064391,0.027690,-0.016835,-0.092157,0.045701,0.069578,-0.033118,-0.046992,0.018171,0.051432,-0.033654,0.005337,-0.099245,0.015124,0.029489,0.087715,-0.033517,0.056118,0.014856,0.070624,0.027920,0.067481,0.035453,0.005982,-0.058672,0.013082,0.003195,0.018224,0.001666,-0.003897,0.001942,0.018443,0.000692,-0.070343,-0.039981,0.104194,0.008908,0.081551,-0.044548,0.051100,-0.086285,0.023441,-0.023217,-0.045396,-0.018781,-0.107845,-0.105416,-0.023332,-0.045816,0.035753,-0.058603,-0.004117,-0.092522,-0.017460,0.057866,-0.012008,-0.002942,0.015022,0.126237,0.086805,-0.037346,0.027483,-0.026131,-0.036723,-0.031234,-0.012452,-0.031251,-0.031933,0.015975,0.036341,-0.023098,-0.051911,-0.019620,0.032807,-0.001056,-0.025847,0.130928,0.011021,0.032489,0.008124,-0.103649,0.066862,-0.062453,0.015612,0.045581,-0.073320,-0.066343,-0.019434,0.005864
-0.020163,-0.049833,0.023162,-0.108089,-0.034774,0.123685,-0.011810,0.040691,-0.063078,0.001402,-0.013105,-0.099965,0.008373,0.048135,0.017118,0.028390,-0.095185,0.022544,-0.062602,0.091629,0.071809,0.019625,0.043184,0.095838,0.013172,-0.005401,0.072238,0.148482,0.004916,0.175512,-0.012843,-0.014882,0.016226,0.016929,-0.050603,-0.066349,-0.043853,0.002966,0.060950,-0.042224,-0.019697,-0.021383,0.025173,-0.192030,-0.081144,0.002035,0.063283,-0.013423,0.054914,-0.005868,0.036988,-0.106973,-0.007229,0.056899,0.056145,-0.073510,0.030630,-0.028793,-0.035306,0.107614,0.189471,0.000195,-0.062818,0.024448,-0.057791,0.007396,-0.067809,-0.038480,-0.062624,0.046493,0.097811,-0.169251,-0.003823,0.000856,-0.167071,0.004430,-0.099529,0.171385,0.022556,-0.010523,-0.026601,0.029845,0.107714,0.035966,-0.020345,0.067356,-0.103583,0.079544,0.012624,0.089651,-0.001401,-0.005867,0.166674,0.014451,0.017374,0.088286
0.048203,-0.013750,-0.038445,-0.016057,0.015523,0.007407,0.022792,-0.054668,-0.074216,-0.023972,0.015975,-0.032607,0.017254,-0.102862,0.048802,0.063005,-0.029109,-0.063829,-0.147816,-0.007372,0.021394,0.016995,0.043555,0.027604,-0.121639,-0.000386,-0.029183,0.020586,-0.013406,0.084703,0.082101,0.018911,0.030436,0.024047,0.144581,-0.014138,-0.040735,-0.002726,0.026993,-0.039075,0.006170,0.075928,-0.037713,-0.040950,-0.052799,0.055239,-0.012216,-0.043336,-0.062301,-0.075354,0.054224,0.066120,-0.023059,0.054686,-0.003676,0.063586,-0.043691,0.054373,0.038036,-0.047681,0.043442,-0.034605,-0.089641,0.001976,0.080205,-0.099279,-0.074189,0.010938,0.009416,0.022372,-0.073556,0.001337,0.017126,-0.009228,0.106751,-0.014516,-0.119254,0.010675,-0.016641,0.024201,0.063174,0.072698,-0.114415,-0.018400,0.012757,0.025032,-0.044488,0.085632,-0.030172,0.022734,-0.044095,-0.014757,-0.005557,-0.039448,0.019568,0.060055
-0.012756,0.057916,0.041882,-0.038226,0.037117,-0.046810,-0.085878,-0.010382,-0.031230,-0.027053,-0.095282,-0.064616,0.016840,-0.084640,-0.046806,0.049984,-0.012331,0.050200,-0.033683,0.007975,0.040840,-0.015628,-0.022688,0.033502,0.047607,-0.028589,0.059251,0.035758,0.018526,-0.052953,0.075528,0.055362,-0.069720,0.010673,-0.095070,0.035990,0.021071,0.022232,-0.005956,0.036128,0.047492,-0.046148,0.002396,0.013863,-0.015285,0.034635,0.054723,-0.014401,0.020384,0.014882,-0.069320,-0.030066,-0.027417,0.010987,0.051855,-0.007981,0.023191,0.000060,-0.040957,0.016146,-0.050673,-0.007456,0.011374,-0.003809,-0.042899,0.019805,0.022424,-0.076500,-0.085419,-0.003184,-0.005423,-0.010000,-0.070815,-0.065168,0.026321,-0.035561,0.101769,-0.012577,0.037029,0.073013,0.031491,0.010312,-0.010796,-0.008288,0.072545,0.091718,-0.002441,-0.023862,0.014358,-0.007172,0.062971,-0.020753,0.001941,-0.007953,-0.083382,-0.006436
-0.004247,0.067105,-0.061463,0.017164,0.018902,0.011624,0.088764,0.015774,0.049566,-0.033143,0.021689,-0.028663,0.076199,-0.092885,-0.005916,-0.039771,0.023068,-0.011115,-0.069697,0.036433,-0.024879,-0.010511,-0.071217,0.028690,0.049030,-0.003890,-0.039306,-0.011892,-0.099274,0.043082,-0.046758,-0.058648,0.019239,0.021254,-0.091786,0.012664,0.078204,0.017659,0.036462,0.000119,0.020104,0.008410,-0.026589,-0.019068,-0.067097,-0.044465,-0.020298,-0.040835,-0.031738,0.025622,-0.028100,-0.049879,-0.086422,0.032201,0.068759,0.070090,-0.037157,-0.037035,-0.050159,-0.013441,0.137419,0.046063,0.114525,-0.079326,0.157561,0.056541,-0.013100,0.044063,-0.016257,-0.008627,-0.001848,0.047623,0.016037,-0.050893,0.028321,-0.047228,0.019344,0.010124,0.125032,0.019716,0.025794,0.057619,-0.106091,0.056153,-0.051218,-0.043680,-0.008941,0.042394,-0.033736,0.055510,0.041886,0.041728,0.007255,-0.043272,0.042858,0.008431
0.116767,-0.099482,-0.135915,-0.003590,0.070585,0.060393,-0.056442,-0.025926,0.030127,-0.064864,0.049347,-0.039203,0.047774,0.059478,-0.127899,0.049213,-0.078985,0.004527,0.031863,0.009618,-0.053231,0.005502,-0.061901,0.044078,0.042221,0.095350,-0.051282,-0.096436,-0.020192,0.030566,0.113290,-0.041013,0.004000,0.013880,-0.001433,0.044139,-0.042052,-0.121806,-0.048144,-0.009439,-0.001163,-0.007891,0.003866,0.042966,0.027470,0.021294,0.043497,-0.009558,0.103396,0.002915,0.024118,0.018913,-0.005503,-0.024545,0.057209,0.056260,0.059293,0.080483,0.133973,0.041097,-0.021697,-0.111649,0.023681,-0.135051,-0.027964,0.027064,0.056730,-0.139206,0.017884,0.028972,0.037801,0.024662,-0.002700,-0.096263,0.044396,-0.005484,0.063713,0.048850,-0.023530,-0.060705,0.052802,-0.084259,-0.051483,0.023594,0.039984,-0.047593,-0.000167,0.034047,-0.068428,0.075172,0.068744,-0.024047,-0.011917,-0.004634,-0.025277,-0.061375
0.016647,0.011303,0.047764,0.055075,-0.037916,-0.006185,0.016832,0.046843,-0.019923,0.022677,-0.004757,-0.016539,-0.002129,-0.010353,-0.087401,-0.025233,-0.004903,-0.045401,-0.016963,0.102700,0.020276,-0.142617,0.032935,-0.010402,-0.061695,0.047634,0.017681,0.044277,0.062446,0.017205,0.018261,-0.053061,0.024019,-0.056452,0.012805,-0.011672,-0.016233,-0.018910,-0.042170,-0.003223,0.100808,0.071270,0.104403,0.035744,0.011800,0.037870,0.000066,-0.024803,-0.036634,0.026464,-0.001000,0.012836,-0.069020,0.014601,0.072387,0.140409,0.029960,0.071149,-0.040616,-0.020905,-0.019764,0.047774,-0.003676,-0.052514,0.038602,-0.045197,0.019824,-0.046128,0.081975,-0.040269,0.048958,-0.010310,0.098883,0.077169,-0.024706,-0.042993,-0.040688,-0.010244,-0.122370,0.046881,0.056973,0.027175,-0.001897,0.026943,0.042769,-0.042906,-0.001415,0.032588,0.009191,-0.029303,0.019933,-0.041840,-0.050099,0.013800,0.032472,0.053419
-0.043389,0.028107,0.016098,0.051796,-0.003065,0.000803,-0.015734,0.004972,0.040186,-0.058830,0.044769,0.012704,-0.033991,0.057856,-0.017376,-0.016092,-0.025036,0.022393,0.083947,0.012921,0.000072,-0.043632,-0.029051,-0.025524,-0.048919,0.046061,0.009079,-0.059843,-0.035917,0.028960,0.008189,-0.001461,0.029896,0.052384,0.004502,-0.035309,0.107537,-0.150119,-0.011572,-0.081350,0.002472,0.052880,0.015466,0.018003,-0.002151,0.001201,0.051791,0.122527,0.001374,0.075587,0.004521,0.044813,0.004778,-0.075643,0.030481,-0.074911,0.045433,-0.007479,-0.100123,0.027204,-0.083675,-0.016206,0.034196,-0.036833,-0.004759,-0.037098,0.040758,0.008993,0.002247,0.001105,0.007213,-0.017998,0.000438,-0.079385,-0.149724,-0.050511,0.079135,0.026232,0.012183,-0.011637,-0.120984,-0.022982,-0.015296,0.086530,-0.015013,0.033490,-0.006909,0.042993,-0.097462,0.063075,0.147281,-0.072686,0.036592,-0.016509,-0.103648,0.072434
-0.056661,-0.028443,-0.026559,-0.044621,0.123515,-0.038442,0.009982,0.078195,0.038091,0.022872,-0.073357,-0.025431,0.074377,0.028793,0.013090,-0.005575,0.009577,-0.007994,-0.060958,-0.006853,-0.007191,0.038913,0.033267,0.121559,0.007843,0.015731,-0.080443,-0.015102,0.019047,-0.065642,-0.032184,-0.007202,0.014779,0.032357,0.009818,0.010018,-0.069242,-0.000898,-0.013407,0.047776,-0.005575,-0.051045,0.134384,0.039569,-0.006370,0.042833,-0.035887,0.046081,-0.011170,-0.040711,-0.030956,0.064584,0.093250,0.015789,-0.010592,-0.012094,-0.016665,-0.008228,-0.008765,-0.028115,0.035307,0.060307,-0.041737,0.004982,-0.011537,-0.046882,0.037175,-0.000606,0.011413,-0.002303,-0.017150,0.016503,-0.100342,-0.001308,0.159172,0.006795,0.005456,0.108895,0.059326,-0.053979,0.098900,-0.020601,0.087790,-0.090954,-0.009481,-0.052892,0.022309,0.068543,0.092407,0.027441,-0.024595,0.075990,0.101004,-0.000665,-0.081724,-0.035829
0.002923,0.079182,0.024795,-0.007190,-0.099232,-0.041554,-0.012530,-0.041202,-0.049569,-0.108821,0.007831,0.018628,0.057905,-0.039978,-0.097863,0.073592,0.020952,-0.029146,0.056495,0.055322,0.060957,0.058171,-0.026022,-0.064920,0.024777,-0.075279,-0.031233,-0.036030,-0.047095,0.001350,-0.018713,-0.017564,0.039834,0.021417,0.043247,-0.036370,-0.038935,0.097215,-0.037280,-0.007608,0.017468,0.119343,-0.039638,0.003427,0.009303,-0.049238,0.023185,0.022611,0.113243,-0.001275,-0.079385,-0.091908,-0.028720,0.009993,-0.000835,0.039234,-0.060724,0.011397,0.046083,0.021774,0.044965,-0.012994,-0.061308,-0.021156,-0.054059,-0.024418,0.118549,-0.029340,-0.109038,-0.004818,-0.006690,-0.023576,-0.002023,0.132639,-0.014854,-0.049501,-0.047601,-0.073558,-0.052206,0.054635,0.011172,-0.004208,0.036728,0.024630,0.043267,0.013630,0.034044,0.046077,-0.067982,-0.068984,0.031441,-0.086881,-0.171553,0.053746,0.058103,0.087605
-0.026488,-0.036941,-0.039033,-0.000854,0.034129,0.083491,-0.005007,0.012745,-0.036050,-0.128466,0.098787,0.078365,-0.019121,0.048124,0.005701,0.014443,0.049675,0.050291,0.017402,0.013743,0.149378,-0.047018,0.009527,0.026354,0.131709,0.076078,-0.129489,0.015036,0.009519,0.012921,-0.052978,-0.004814,0.023602,-0.015247,-0.013412,0.018026,0.002804,0.000148,0.010794,-0.014263,-0.113994,-0.109961,-0.066523,0.067244,-0.089835,-0.145951,0.038380,-0.025033,-0.040206,0.071651,0.068028,0.050971,0.059039,0.012994,0.066133,0.055058,0.159484,-0.017823,0.008356,0.039819,-0.034246,0.041372,0.030397,-0.040976,-0.091008,-0.001447,0.039560,-0.110342,0.019978,0.043483,-0.080646,-0.011228,0.091879,0.025274,0.007780,0.065540,0.005888,-0.057429,-0.008488,-0.043061,0.047869,-0.010340,-0.066481,-0.022096,0.069998,-0.055897,0.043284,-0.080740,-0.047971,0.007217,-0.085454,0.020413,-0.041152,-0.083260,-0.029305,0.029409
-0.028621,-0.097117,0.069419,0.066287,0.023386,0.011055,-0.000164,-0.041932,-0.096565,-0.003076,0.034361,0.010905,-0.035774,-0.048950,0.022869,0.064371,0.021841,0.045796,-0.001724,-0.012715,-0.043261,0.029451,-0.020411,-0.051786,-0.021853,-0.109416,-0.032945,-0.112182,-0.031166,-0.087910,-0.014534,0.020317,0.002468,0.032824,0.091811,-0.040937,0.050623,0.010865,0.047583,0.105102,-0.062216,0.046981,0.052860,0.056886,0.024292,0.035552,-0.016490,-0.007303,0.085329,-0.029970,-0.033646,0.032887,-0.031904,-0.054538,0.049697,-0.014484,-0.028930,0.103113,0.002596,-0.117260,-0.003581,0.024873,0.012744,0.044110,-0.086908,-0.086060,-0.033764,0.006797,0.072510,-0.019562,0.039634,0.000656,-0.040567,0.000603,0.065839,0.043900,-0.060831,0.009834,-0.049922,-0.006159,0.067172,0.022137,-0.012026,0.028576,-0.003696,-0.032514,0.016854,-0.033245,0.044679,0.017091,-0.003161,0.021163,-0.012565,-0.073706,-0.006387,-0.017644
-0.002445,0.032058,-0.033999,-0.060590,-0.018990,-0.015457,-0.103710,-0.022608,0.061083,0.005415,0.137946,0.004324,0.002602,-0.088180,-0.041058,-0.037822,-0.044256,-0.001581,-0.057232,-0.027493,-0.141030,-0.074756,0.003014,0.088434,-0.017516,0.064485,-0.012916,-0.009835,0.039167,-0.051721,0.054934,-0.004125,0.078588,-0.015600,-0.027951,0.119275,0.024134,-0.120106,0.010928,0.143892,0.041529,0.007853,0.002510,-0.095535,0.039456,-0.005992,-0.012217,0.073499,0.016743,-0.038880,-0.040443,-0.075638,-0.019738,0.035676,0.081247,-0.127719,0.115201,0.033741,-0.007089,0.000671,-0.036158,0.010018,-0.010311,0.013824,-0.021103,0.031201,0.032274,-0.032049,-0.068159,-0.066169,0.038449,-0.106948,-0.016951,0.070324,-0.098982,0.103526,-0.070068,-0.124939,-0.013684,-0.009050,-0.051979,0.056208,0.012358,-0.020506,0.034424,-0.003382,0.015745,0.089213,-0.049444,-0.119846,0.008224,-0.003112,-0.008151,-0.014539,-0.044453,0.060605
0.004338,-0.061269,0.045574,-0.035724,-0.145715,-0.064904,0.011177,-0.157797,0.072260,0.008197,0.000288,0.060368,0.119344,0.049236,0.129128,0.012451,-0.026913,-0.017339,0.031914,-0.089299,0.239101,0.112526,-0.018042,0.029963,0.035553,0.080589,0.102791,-0.041174,-0.024004,-0.028139,-0.034173,-0.067314,-0.064406,0.099633,-0.034855,-0.015766,0.059056,0.016554,-0.001721,-0.078085,-0.123324,0.141761,0.033590,-0.133586,-0.232344,0.038358,0.040643,0.090113,-0.071826,-0.071749,-0.075990,-0.091457,-0.091222,-0.037717,0.151462,0.078858,0.065868,-0.062218,-0.042442,0.003341,0.020897,0.078428,-0.011216,0.133055,0.037426,0.044048,0.054584,0.134995,0.068372,0.042705,-0.038226,0.057236,0.077494,0.126402,-0.171308,0.038418,0.042357,-0.091137,-0.009581,0.010231,-0.053679,-0.097627,0.068115,-0.140538,-0.067719,-0.014842,-0.016931,0.097814,0.044146,0.034169,-0.060334,0.062788,-0.017622,-0.066255,0.103449,-0.023920
0.061022,0.060605,0.014859,0.036088,-0.028812,0.046195,0.038723,-0.025529,0.016604,-0.013893,0.013489,0.075004,0.099782,0.032898,0.006408,-0.006495,-0.032556,0.032535,-0.075059,0.003135,0.006636,-0.024112,-0.030800,-0.015137,-0.039947,0.039210,-0.004129,0.041916,0.068893,0.026332,-0.020050,-0.004827,-0.041815,-0.016221,-0.012488,-0.002278,-0.036650,0.007843,-0.053160,0.036483,0.013375,-0.027251,-0.015197,0.042469,-0.067145,-0.012456,0.070406,-0.137989,-0.040306,-0.026787,-0.041181,-0.029213,-0.006822,0.011915,0.054365,0.057549,0.097199,0.067883,0.087190,0.017793,0.041804,-0.018233,0.030208,0.021982,-0.021914,-0.010285,-0.005592,-0.006514,0.039982,0.029952,-0.074408,-0.011377,-0.013012,-0.005071,0.063954,0.013771,-0.048703,-0.002290,0.020302,-0.094399,-0.016218,0.045031,0.099799,0.024292,0.052813,-0.047756,0.011563,-0.012011,-0.032353,0.080465,0.020484,0.027645,-0.040281,-0.054166,0.028584,-0.034340
-0.002578,-0.019376,0.006312,-0.141315,-0.049896,0.024750,0.029457,0.071714,-0.022250,-0.006872,0.010216,-0.086298,0.048170,-0.113395,-0.022246,0.058946,0.041124,-0.066227,0.027669,-0.046180,-0.010305,0.032888,0.108649,-0.008905,0.025941,0.013135,0.012177,-0.015341,0.072490,0.032898,0.079211,0.003323,0.054292,0.010363,0.005762,0.026329,0.050475,0.004031,-0.037006,-0.024952,-0.032619,0.037851,0.043429,0.052975,0.026613,-0.130445,0.060187,-0.012029,0.007546,-0.036100,-0.026802,0.117146,-0.001841,-0.022096,0.022122,-0.105187,0.122986,-0.028807,-0.017644,0.005613,0.080376,-0.010451,0.055492,-0.032210,-0.027523,0.028191,0.014971,0.047079,0.047928,-0.000220,-0.053772,0.000113,-0.018275,0.077107,0.011344,-0.025133,0.087823,-0.020883,-0.130614,0.026678,0.104901,-0.007270,-0.002307,0.036576,0.034694,-0.105634,-0.042731,0.043644,0.040563,0.080044,0.048237,0.048023,0.055315,0.039392,0.103567,0.063258
0.048116,0.070435,-0.013105,0.005485,-0.104924,0.108282,-0.040879,-0.061857,0.164181,-0.019939,0.068935,0.022580,0.028295,-0.039015,-0.091209,0.006206,0.055633,-0.056804,0.020654,0.010473,0.139886,0.108693,-0.108763,-0.096563,-0.000819,0.107835,0.206191,0.092728,-0.058129,-0.071720,0.024837,0.133257,0.053597,0.097643,-0.037966,-0.141224,0.083057,-0.063628,-0.046185,0.038426,0.044480,0.048432,0.243940,-0.009607,-0.126393,0.040537,-0.008865,0.010224,0.119183,0.000792,0.126216,0.071943,-0.114604,-0.113639,0.107139,-0.035689,0.014273,-0.018540,0.129080,0.122916,-0.059044,0.016347,-0.013386,0.043921,0.024489,0.018924,-0.019061,-0.041519,0.070584,0.005364,0.058655,0.074268,-0.095086,0.062178,0.024127,0.139094,0.058850,0.025729,0.017316,-0.026274,0.107811,-0.021057,-0.013455,0.029779,-0.013224,0.069094,0.030777,-0.068610,0.052808,-0.004343,-0.056229,-0.004681,0.035186,-0.146405,-0.088918,0.086183
0.018772,-0.022852,-0.030806,0.172423,-0.056842,0.026315,0.033527,-0.039735,0.089304,-0.044224,-0.094652,-0.014790,-0.144895,-0.123662,0.032205,0.029168,0.026907,-0.084838,-0.055172,-0.006792,0.017767,-0.107574,0.029310,-0.032465,-0.038443,-0.124518,-0.019726,0.003294,-0.056582,0.018111,-0.024295,-0.103678,0.069636,0.143489,0.073068,0.048002,0.067585,0.038821,0.055956,-0.071447,-0.007728,0.004603,0.005264,0.074389,-0.016713,0.054875,-0.073190,-0.023184,-0.017740,0.019470,-0.042143,0.015549,-0.054310,0.059408,0.050950,0.014046,-0.021158,-0.050393,-0.015809,-0.031539,-0.028776,0.050151,0.077985,-0.032051,0.015666,0.014718,-0.076370,-0.040809,0.048956,0.028197,-0.039853,0.038524,0.010686,0.075495,0.034063,0.052042,0.021210,0.054823,-0.099954,-0.125409,0.053288,0.103674,0.009846,0.038471,-0.052879,0.018381,-0.051990,-0.070552,0.086050,-0.043372,-0.035915,-0.036898,0.009451,0.021696,0.062366,0.019155
-0.011935,0.111371,-0.010898,-0.041907,-0.031737,0.009156,0.047527,-0.028568,0.153191,-0.055853,-0.027676,-0.016331,0.048057,-0.026421,-0.023167,-0.014551,-0.016507,0.004992,-0.033948,0.000851,-0.060357,0.051009,-0.027855,0.019597,-0.001291,-0.010016,-0.042407,-0.038985,-0.066244,-0.017561,0.051392,-0.029589,-0.005932,-0.020966,0.006656,-0.026977,-0.048647,0.020167,0.043623,0.012903,-0.043964,0.005487,-0.059367,0.008465,-0.017847,-0.021083,-0.009876,0.009478,-0.130804,-0.004854,-0.021225,0.034787,-0.074617,0.026023,0.064966,0.001119,-0.062334,-0.031699,-0.009049,-0.080436,0.052357,-0.047428,0.079866,-0.034746,0.146687,0.017149,-0.002601,0.013432,-0.080859,0.009801,0.045747,-0.016213,-0.035393,-0.006815,-0.031009,-0.033890,-0.012409,-0.007774,0.061410,-0.019835,0.028026,0.009625,-0.038850,0.017843,0.003016,0.009821,-0.006559,0.053485,0.002265,0.063684,0.019227,0.007687,-0.029855,0.005003,-0.047056,0.050786
-0.009818,-0.026652,-0.024991,-0.027512,-0.074028,0.041758,-0.017472,0.012179,-0.071586,-0.017032,-0.019793,0.065552,-0.046225,0.064008,-0.050330,-0.024643,0.053428,-0.021975,-0.105788,-0.053725,0.023100,0.011718,0.065577,-0.000058,0.029408,0.024694,-0.039048,-0.002119,-0.044678,-0.040495,-0.007707,0.015884,0.022567,-0.032068,0.031079,-0.047100,-0.026510,0.032025,-0.092772,-0.028392,-0.022710,-0.040081,0.071918,-0.087442,-0.082986,-0.005208,-0.021384,0.045405,-0.018765,-0.036193,-0.042508,0.038797,0.015002,0.090451,-0.013172,-0.017850,-0.059162,-0.074493,0.040542,0.049431,0.007185,-0.010153,-0.054387,0.003615,0.045666,-0.009384,0.010771,0.002816,0.003895,-0.020165,0.015202,-0.031141,0.024487,-0.077059,0.008433,-0.072791,-0.043285,0.049622,-0.013047,-0.037614,-0.022125,0.033083,0.034272,0.103078,0.031481,-0.044319,0.003019,-0.014340,0.041415,-0.055435,-0.052269,-0.022571,-0.041849,-0.123685,0.016935,0.058397
-0.011872,0.069594,0.019448,-0.000572,0.065125,-0.060512,-0.041774,-0.081832,0.029883,-0.067279,0.059000,-0.021880,0.069901,0.034285,0.033276,0.019085,0.149988,-0.012895,-0.055348,-0.015146,-0.076207,0.034191,-0.019858,-0.019274,0.058657,-0.018137,-0.082485,0.071560,-0.050281,0.062018,0.082422,-0.028065,0.064726,0.014515,0.016069,0.007122,-0.079180,-0.037494,-0.003730,-0.025083,-0.102455,-0.021050,0.061051,0.011679,-0.091321,0.056939,-0.022414,0.082119,-0.024865,0.042456,-0.019168,-0.070148,0.050273,0.049336,0.004253,-0.040286,0.065646,-0.075028,-0.039628,0.014810,0.034470,0.001757,-0.021788,-0.090649,-0.046484,-0.052217,0.070921,-0.047421,-0.039298,0.081027,-0.004497,-0.041958,0.003827,-0.051488,-0.080716,0.033986,-0.068232,-0.042315,0.075295,-0.047560,-0.028967,0.007795,-0.007632,0.112084,0.044709,-0.048740,-0.036270,0.000033,-0.086918,-0.061706,-0.020245,-0.001521,0.024795,0.003360,0.036194,0.009391
0.039147,-0.004943,0.018980,-0.091906,0.040405,-0.004643,-0.025747,0.059687,-0.018211,-0.037134,0.025935,-0.144569,0.078564,-0.061976,-0.083912,0.034170,0.000135,-0.007125,0.026070,-0.106748,-0.020338,-0.022256,0.037797,0.087481,0.043469,0.050954,-0.003395,-0.085221,-0.022058,0.061405,0.037713,0.035066,0.012326,-0.067217,0.080772,0.018226,-0.011086,-0.012631,0.026326,-0.053750,-0.018630,-0.066211,0.114641,-0.029633,0.030138,-0.011904,0.037704,-0.051337,0.049173,0.068314,-0.018278,-0.063013,0.043345,0.087974,0.041462,-0.101662,0.062376,0.058234,0.115241,0.038323,0.091963,-0.053423,-0.001529,-0.037082,0.024247,-0.110607,0.052017,0.013109,-0.010216,-0.005679,0.113020,-0.012120,0.128213,-0.139891,-0.012232,0.099179,-0.062125,-0.048368,-0.040975,0.055308,0.070565,0.017053,-0.063492,0.016562,0.064702,0.081034,-0.028004,0.035059,0.066022,0.026397,-0.111976,0.088405,-0.045976,-0.075998,0.084629,-0.017285
-0.002338,-0.000105,0.003024,-0.006968,-0.002163,0.005840,-0.003399,-0.005967,0.001676,-0.002645,0.005990,-0.003937,0.004131,-0.002067,-0.001685,-0.005749,-0.007093,-0.001896,-0.002331,-0.002324,-0.004352,0.004266,0.005648,0.006773,0.001217,0.003129,-0.002786,-0.001064,-0.004163,0.000401,-0.000764,0.003784,0.001004,-0.003286,0.005305,0.006227,-0.002162,-0.003846,0.001508,0.007602,-0.008016,0.004250,0.006439,-0.004239,0.002442,-0.000285,-0.002618,0.003457,0.006499,0.000033,0.003564,-0.002165,0.003920,0.007114,0.006986,-0.007090,0.005198,0.002597,-0.002292,0.004191,-0.000287,0.001948,0.002443,-0.003815,-0.001757,0.005016,0.003280,0.001342,-0.005468,-0.005153,-0.001274,-0.000879,-0.012073,0.006429,-0.000450,0.007600,-0.004022,-0.006401,-0.003992,0.007894,0.000135,0.000569,0.006267,-0.000129,0.000015,-0.005370,0.001137,0.001069,-0.003721,-0.009567,-0.001039,-0.004885,-0.000395,0.005424,0.001867,0.001054
0.147778,-0.053194,0.037669,0.008172,-0.077367,0.097262,0.038369,0.081725,-0.033198,0.010030,0.015848,-0.011434,-0.152218,0.036532,-0.015056,0.104297,-0.036240,-0.106011,0.036262,0.055880,0.009009,-0.117147,0.027368,0.049810,0.076898,0.016430,-0.074678,-0.039366,-0.032085,-0.004061,-0.111480,-0.040083,-0.091593,-0.023886,-0.022087,0.136413,0.047697,-0.008244,0.003684,-0.075747,-0.085209,0.039932,0.049681,-0.112213,-0.066222,-0.045135,0.114967,-0.033381,0.021422,0.096134,0.021185,-0.145519,0.000523,-0.023726,0.074438,-0.028008,0.044674,-0.011733,-0.001481,-0.013226,0.010832,-0.154067,-0.002463,-0.021979,-0.010319,-0.071782,0.012202,-0.065425,0.066427,-0.062887,-0.080464,-0.028804,0.008602,0.100398,0.116034,-0.001815,0.044876,-0.015209,0.008158,0.107684,0.010620,0.110859,0.040139,-0.005157,0.070166,0.070083,-0.065285,-0.000629,0.034408,-0.041738,-0.045858,-0.018553,0.003656,-0.029058,-0.109936,0.077482
0.024824,0.005014,-0.022758,-0.000974,-0.112596,0.016807,0.135754,-0.048815,0.054582,0.047082,0.111380,0.078178,-0.000546,0.026832,0.089445,0.035440,-0.070300,0.015659,-0.048337,0.043791,-0.071670,0.021213,-0.040451,0.011682,0.017629,-0.017291,0.019813,0.011232,-0.048091,0.002559,0.058597,-0.078564,0.135339,0.004119,0.091284,0.114793,0.056716,-0.019571,0.005361,-0.010254,0.029684,0.127651,0.041880,-0.042086,-0.003191,0.014625,-0.006270,0.041204,0.012204,0.043140,-0.058837,0.060655,-0.052222,-0.012726,0.062567,-0.016404,0.087035,-0.003443,-0.042120,-0.026040,-0.026512,0.012506,-0.067368,0.056412,0.024381,0.061488,0.008759,0.005108,0.042898,-0.017492,0.000398,0.003219,0.026938,0.092258,-0.067347,-0.031399,0.003474,0.078732,0.021157,0.087114,0.014917,0.092400,0.011210,0.069358,0.114347,0.096532,0.064579,0.036771,-0.056233,0.013490,-0.082823,-0.032587,0.080032,-0.085550,0.010634,-0.001599
0.040524,0.058902,0.014763,0.010461,0.002451,0.025677,0.003414,-0.033323,0.014000,0.006803,-0.045725,-0.100001,0.010067,-0.002186,-0.045597,-0.009779,0.022695,-0.058444,-0.014895,0.024162,0.017799,-0.086639,-0.019056,-0.061833,0.041928,0.027679,0.033575,0.012494,-0.006708,-0.030753,0.041430,0.001347,0.056984,0.011248,0.096581,-0.054224,0.039521,0.064005,-0.026303,0.022157,0.026558,-0.048134,-0.039745,0.092190,0.014181,0.023428,0.054907,0.045710,0.052422,0.093861,0.030553,0.033894,-0.022344,0.096535,0.047048,0.030910,0.069600,0.039632,0.048108,0.032338,0.037463,0.053175,0.025614,0.033708,0.013775,0.029309,-0.021861,0.046500,0.082425,0.043592,-0.073009,0.022902,0.117975,0.043711,-0.064045,-0.012635,0.027075,0.063770,0.046945,-0.050817,-0.077934,0.028666,-0.048719,-0.006309,0.060963,0.012345,-0.067236,-0.060806,-0.037074,0.027199,0.047291,-0.010296,-0.065675,-0.054203,0.074146,0.000305
-0.046620,-0.075345,0.018437,-0.013535,0.060987,-0.019318,-0.010149,0.075196,0.056569,-0.040430,-0.081954,-0.000601,0.104602,-0.030561,0.029890,0.014435,0.008395,-0.016216,-0.107720,-0.044058,-0.002421,0.077463,-0.010886,0.019810,-0.021888,-0.084605,-0.079933,0.023815,0.036111,-0.082335,0.070894,0.039535,0.008228,-0.001865,0.007308,-0.044067,0.062899,0.004039,-0.083941,0.015143,0.012117,-0.031263,0.070862,0.006368,-0.002775,-0.026868,-0.013397,0.065284,-0.005656,-0.053846,-0.004174,-0.102906,0.039882,-0.003281,-0.009609,-0.008622,0.021819,-0.010436,0.063286,0.009115,-0.040207,0.009544,-0.001918,0.003506,-0.028744,-0.012713,-0.005278,0.040901,-0.015209,0.031493,-0.071063,-0.057287,-0.054870,-0.109175,-0.010629,0.015817,0.010671,-0.004940,0.016875,-0.023638,0.046070,-0.053929,-0.036722,-0.035551,0.018126,-0.010911,-0.027263,-0.096173,-0.001325,-0.011223,0.032351,0.023751,0.017371,-0.033475,-0.016462,-0.007022
0.004546,0.006915,0.041227,-0.025691,0.097312,-0.038909,-0.052442,0.041560,0.113019,0.010426,-0.001463,0.024904,0.030637,-0.031646,0.092776,-0.050892,0.099088,-0.041207,-0.003533,0.095615,0.067928,0.059039,-0.035014,-0.013950,0.058983,-0.090656,0.097800,0.004076,0.012237,0.016931,-0.110192,0.012170,-0.001596,-0.013494,-0.072280,-0.003779,-0.012903,0.181053,0.057504,-0.040072,0.018212,-0.022187,0.013619,-0.095767,0.030536,-0.052359,0.009692,-0.007000,0.054103,-0.097626,0.031730,-0.107431,0.006233,-0.073314,0.048604,-0.013387,-0.034006,-0.002814,-0.038349,0.026245,-0.029308,-0.074541,-0.051776,-0.103380,-0.026737,0.090676,-0.001038,-0.045263,-0.043839,-0.004458,0.059930,-0.079130,-0.092604,-0.021724,-0.076862,-0.106295,-0.018027,0.021294,0.097981,0.025888,-0.039029,-0.065847,0.002484,0.022467,-0.072243,0.009387,-0.082887,-0.052381,-0.070276,-0.035743,0.011020,0.006252,0.055568,0.015629,-0.051816,0.026114
-0.032114,0.014352,-0.105419,0.033686,-0.030264,-0.072848,0.024532,-0.033348,-0.019324,-0.014434,0.065648,-0.035392,-0.062842,0.023352,0.003942,0.058688,-0.004050,-0.005318,0.042828,0.002913,0.034148,-0.022993,-0.028432,0.000015,0.014558,0.082208,-0.008360,0.015265,0.082026,0.003275,-0.041834,-0.033755,0.038288,-0.007349,-0.096370,-0.018685,-0.023360,-0.124981,0.013473,-0.039350,-0.109498,-0.025114,-0.065120,-0.007558,-0.010054,-0.011656,0.022738,0.037191,0.052077,-0.005316,0.060060,0.074418,0.020979,-0.011261,0.012360,-0.028344,-0.042058,-0.058142,-0.021877,-0.039284,0.122832,0.017472,-0.027406,0.013882,0.059477,0.019982,-0.013019,0.055014,0.026708,0.059506,0.008101,-0.018092,-0.021966,0.031031,-0.017030,-0.044520,-0.002390,0.037464,-0.022747,0.023845,0.104833,-0.090773,-0.075735,-0.013258,-0.070147,0.120441,0.100281,-0.061303,0.017076,0.066591,0.011323,0.049826,0.014271,0.059176,0.058347,-0.028512
-0.079941,-0.065690,-0.066172,-0.032526,-0.054714,0.008771,0.003773,-0.006998,0.010393,-0.019314,-0.022725,0.001860,-0.000161,-0.000130,0.038957,-0.005208,0.034945,-0.061997,-0.019291,-0.022467,-0.036551,0.068304,-0.020500,0.032875,0.026298,-0.012599,0.022778,-0.039361,0.017003,-0.031831,-0.014564,0.097225,-0.011118,0.017523,-0.040365,-0.095535,-0.049747,-0.032070,-0.053495,-0.042425,-0.020090,0.010970,-0.075115,-0.058213,0.047773,-0.011853,-0.080272,0.037300,0.009991,0.003912,0.052782,0.019807,-0.010434,0.019472,0.033733,-0.098686,-0.051022,0.019509,0.004268,-0.036589,-0.015218,-0.001548,0.078911,0.005653,-0.044583,0.045686,-0.000425,-0.080031,-0.029609,0.020775,0.021752,-0.077158,0.016325,-0.021122,-0.076963,-0.003249,-0.073441,0.033899,-0.001919,-0.028253,-0.033338,-0.053923,-0.019251,-0.018233,-0.004704,0.004752,0.001723,-0.017389,-0.020264,-0.086071,-0.051679,0.002606,-0.064964,0.050812,0.052087,-0.108007
-0.088192,-0.080047,0.016666,-0.043950,-0.036261,-0.001588,0.009969,0.030986,0.086663,-0.028091,-0.009368,0.048944,0.130714,-0.104856,-0.043147,-0.026017,-0.034902,0.037647,0.007518,-0.034005,0.045543,-0.007279,-0.018654,-0.010589,0.013315,-0.010461,0.015627,0.016095,-0.050513,-0.001339,-0.000770,-0.060371,0.061470,0.087974,0.070546,0.042728,-0.021502,-0.019121,-0.067077,-0.031874,0.045530,0.076901,0.087334,0.021775,-0.033926,0.014718,-0.074078,0.027576,-0.008264,-0.021701,0.018778,-0.031238,-0.036555,-0.039885,-0.078278,-0.034497,0.029710,0.006258,0.058573,-0.054806,-0.012594,-0.026522,0.061896,0.097459,-0.041510,-0.000642,0.037130,-0.018245,-0.000611,0.059818,0.043590,0.020802,-0.035747,0.023613,-0.036257,-0.058858,-0.025123,0.010580,0.015929,0.040009,-0.002056,0.036677,-0.012397,-0.063580,0.003761,-0.073719,-0.001756,-0.062664,0.056323,0.024022,-0.010072,0.109477,-0.045540,0.021648,-0.015171,0.031115
-0.056318,-0.074046,0.071454,0.088568,-0.009434,-0.031180,0.084684,0.067197,0.069720,0.015824,-0.111564,0.057939,0.019056,-0.034953,0.035065,0.038078,0.061573,-0.026906,-0.058224,-0.029588,-0.000056,-0.005229,0.014607,-0.108214,0.105809,-0.093159,0.071673,-0.144454,-0.050565,-0.026288,-0.034405,-0.055460,0.029736,0.065475,0.041773,0.011249,-0.034338,0.053004,0.006966,-0.010821,0.015826,0.038459,0.068192,-0.007202,0.063602,-0.072514,-0.019359,0.012300,0.076857,0.070978,-0.035801,0.013153,0.026134,-0.096042,0.047428,0.039919,-0.013458,-0.078994,-0.002049,-0.028340,0.015943,-0.030664,0.062491,-0.048645,-0.009127,0.043231,0.014528,-0.074553,0.031628,-0.045270,-0.013039,-0.027833,0.028397,-0.026394,-0.035050,-0.056710,-0.083266,-0.008986,0.045585,-0.030403,0.135637,-0.010522,0.084329,0.103292,-0.085182,0.044426,-0.033269,0.006915,0.040229,-0.033252,-0.066357,0.052348,0.033406,0.024900,0.018577,-0.006896
0.014063,0.063493,-0.071781,0.000975,-0.039104,0.006215,0.065046,-0.005710,0.075109,-0.059133,0.035633,0.045506,-0.022879,0.042091,-0.017717,-0.040273,0.063430,-0.005944,-0.007385,0.066936,-0.007298,-0.023647,0.000952,0.015838,-0.004051,0.070832,0.012110,0.067932,0.003475,0.061302,0.027739,0.003939,0.109485,-0.009540,0.059333,-0.010644,0.007877,0.000604,-0.001229,-0.017403,-0.047538,0.021133,0.012919,-0.057184,0.018968,-0.060299,-0.027744,-0.025536,-0.036322,-0.000419,0.017244,-0.001981,0.014620,-0.100284,-0.032572,0.008605,0.020989,-0.076263,0.053171,-0.052955,0.011821,-0.011295,0.078384,0.030124,-0.017464,0.045131,0.046506,-0.010811,0.008981,0.024443,0.022298,0.011225,0.072237,0.105135,-0.057873,-0.002165,0.046390,0.043434,0.092510,0.050200,0.051266,-0.060587,-0.016289,0.013251,0.132310,0.027566,0.031785,-0.047898,0.021891,0.039759,-0.000476,-0.030548,0.040250,0.070267,0.010685,-0.049838
-0.023094,0.004292,0.003523,0.014473,0.034195,-0.028966,0.006328,0.018802,-0.004102,0.066377,-0.057479,0.024590,0.019024,0.007087,0.031287,-0.084004,0.004141,0.032218,-0.013901,0.042629,0.064114,-0.165718,-0.022862,0.107658,-0.023620,0.025222,0.046044,0.035663,0.045248,-0.000643,0.041045,-0.058566,0.046344,-0.066182,0.070484,-0.003502,0.013837,0.010978,0.000505,-0.025476,-0.014015,-0.003438,0.082871,0.032746,-0.043633,-0.027291,-0.069588,0.065698,0.072779,-0.058353,-0.006193,-0.008681,0.003449,0.060186,0.053157,0.123802,-0.015330,0.021696,-0.105477,0.005436,0.061259,0.001680,0.007380,-0.028182,0.000650,0.078320,0.052605,-0.022669,0.122518,-0.008277,0.061204,-0.028658,0.081375,-0.010249,0.007269,-0.058496,0.018100,-0.002688,-0.026338,0.005560,0.070606,0.007671,-0.031704,0.104205,0.037081,0.047065,-0.043952,-0.017658,-0.004257,0.011073,-0.042181,-0.004029,-0.004668,-0.087674,0.039718,0.044254
-0.053133,-0.034988,-0.015407,0.033169,0.012125,-0.037193,0.063125,0.030572,-0.067947,0.072206,0.013781,-0.028760,-0.013203,0.028974,-0.006485,-0.010254,0.014370,-0.031884,0.016645,0.015267,0.056221,-0.105977,0.004982,0.038664,-0.044632,0.036521,0.157851,0.050205,0.029669,0.001995,0.101153,-0.045699,0.017937,-0.056292,0.014472,0.027462,-0.017381,0.049814,-0.021137,0.001487,-0.006117,0.075412,0.078585,-0.017959,-0.061544,0.034513,0.023886,-0.054304,-0.014232,-0.030777,0.055203,0.024444,0.004088,0.033912,0.060408,0.133057,-0.017849,0.041927,-0.090922,-0.023590,0.055050,0.025666,0.103374,-0.035328,0.003292,-0.027122,-0.020551,-0.054622,0.071864,-0.020892,0.000615,-0.057664,0.045971,-0.015471,-0.011215,0.042067,0.011519,0.048453,-0.027588,0.015690,0.085763,0.048261,-0.037172,-0.002838,-0.017493,0.020918,-0.076343,-0.045639,0.020830,-0.008227,-0.070431,-0.047767,-0.059854,0.060974,0.105018,0.071943
-0.061271,-0.002505,-0.048826,-0.073828,0.017510,0.021494,0.014504,-0.021766,-0.005581,-0.010723,0.023927,0.013753,0.042386,-0.023971,0.004076,-0.010572,0.087866,0.051318,0.042048,0.017873,-0.057884,-0.067029,0.087420,0.001736,-0.016107,-0.023527,0.105017,0.077897,-0.061164,-0.115350,-0.039920,-0.105003,-0.004458,0.022310,0.088671,0.030927,-0.042581,0.028530,-0.012393,0.035277,0.043965,0.096597,-0.023763,-0.090444,-0.005318,-0.014561,-0.051253,0.002273,0.154936,0.092691,-0.053449,0.053117,0.033716,-0.057460,0.014284,-0.001481,0.004897,0.008874,0.113420,-0.075516,0.029407,-0.034180,-0.103182,-0.086238,0.008625,0.020244,-0.077838,0.020195,-0.028766,-0.026304,0.049262,-0.027102,-0.019704,-0.042950,0.022941,0.021664,-0.068979,0.080482,0.015459,0.022816,0.006731,-0.021265,-0.037504,0.045557,0.092966,0.067451,-0.065801,-0.072297,0.015086,0.011789,-0.013009,0.024436,0.032483,0.056441,0.013498,0.050004
-0.011093,0.004892,0.024384,0.005171,0.054099,0.030524,-0.032692,0.033049,0.025040,-0.044496,-0.036931,0.036646,0.000207,-0.012553,0.063126,-0.031927,-0.006258,0.031895,-0.042565,-0.060113,-0.076296,0.002531,-0.001200,0.016248,0.033348,0.020425,-0.070878,-0.003882,0.075973,-0.042170,0.013660,0.061277,0.006951,0.008253,-0.032320,-0.007074,0.018208,-0.009651,-0.015146,-0.023052,-0.129510,-0.069837,0.017729,-0.080952,0.012174,-0.064815,-0.010879,-0.067692,0.003202,-0.017522,0.021535,-0.020695,0.054098,-0.055809,-0.025939,-0.071236,0.028140,-0.017453,0.072724,-0.013180,-0.018450,0.041595,0.042923,0.060812,0.012782,-0.058012,-0.050058,0.057737,-0.116346,0.008553,-0.053059,-0.027450,-0.031448,-0.098787,0.082786,0.067249,0.033422,0.087567,-0.062597,-0.015954,-0.085113,-0.004718,-0.054099,-0.096536,0.015812,-0.022439,-0.046542,0.056285,0.050089,0.016661,-0.040153,0.081021,0.041688,-0.093776,-0.062500,-0.060709
-0.035119,-0.054547,-0.045353,0.010893,-0.001580,0.029401,-0.008663,0.058997,0.062786,-0.044809,-0.016618,-0.012573,-0.007611,0.050081,0.007534,0.018314,-0.066296,0.027139,0.040192,-0.000939,-0.094251,0.009334,0.005923,-0.014123,-0.030457,-0.012865,0.005853,-0.010886,-0.017361,0.034896,-0.059522,-0.082916,0.089024,-0.026458,0.038144,0.073896,0.040357,0.033766,-0.031573,-0.027884,0.017048,0.040633,0.055303,0.003405,0.013116,0.033322,-0.024356,0.162047,-0.057066,-0.041308,0.024227,0.085552,-0.022734,-0.027982,0.020187,-0.008275,0.042900,0.064557,0.011420,-0.045718,-0.034037,0.008098,-0.049512,0.012700,0.034775,-0.001138,0.049138,0.057481,0.019595,0.017738,-0.009716,-0.001394,0.017564,-0.029864,-0.071525,-0.033676,-0.017615,0.095711,0.014094,-0.039298,0.049534,-0.000301,0.015342,-0.023444,0.006324,-0.028886,-0.034518,0.094252,-0.009119,-0.018647,-0.004194,0.070177,-0.028894,-0.022114,0.042156,0.023156
0.085626,0.064629,-0.107361,0.014442,-0.049863,-0.009042,0.076943,0.042167,0.087755,0.063452,-0.004078,0.047683,0.026228,0.011906,0.040125,0.058495,-0.077045,0.054880,-0.009364,-0.085791,0.008877,0.014567,0.004013,-0.018353,-0.007926,0.090103,0.050843,0.036978,-0.087587,-0.021605,0.060493,-0.027175,-0.018807,-0.057212,0.036706,-0.100840,-0.020525,-0.010375,-0.004041,0.040422,-0.077608,-0.018437,-0.045432,0.085509,-0.037888,0.093764,-0.053501,-0.065891,-0.043997,0.032881,-0.065992,0.001385,-0.020562,0.025406,0.079778,0.078458,-0.017462,0.005545,0.110439,-0.099485,0.056558,0.040624,-0.040695,0.087651,-0.000712,-0.082013,0.077591,0.034325,-0.098529,-0.041884,0.022878,-0.108706,0.016732,0.026893,0.067275,-0.107666,-0.029237,-0.008798,-0.000014,-0.040624,0.029455,0.030620,-0.044186,0.037598,0.092150,0.029292,0.015121,0.061212,-0.050728,0.005535,-0.038847,0.010317,0.012706,0.015177,0.021911,0.035578
-0.072336,0.044149,-0.042772,-0.020005,0.029413,-0.032256,0.023128,-0.033747,0.028753,-0.043179,-0.041905,-0.000033,-0.042174,-0.026817,0.044343,0.027776,0.013895,-0.008160,0.051381,0.005395,0.016915,-0.042938,0.020289,-0.012965,0.075138,0.042207,0.031356,0.026557,0.037229,-0.048905,-0.008014,0.009486,0.045260,0.049768,-0.059200,-0.068798,0.035223,0.009548,-0.012968,0.006202,-0.013299,-0.010779,-0.024605,-0.004126,-0.083105,0.032106,-0.042585,0.054896,0.022055,-0.086226,-0.049122,0.017876,0.022461,-0.021070,-0.027661,0.057873,0.020618,-0.044050,0.017444,-0.014973,0.015442,-0.005563,-0.054448,0.087577,0.019502,-0.014138,0.042881,0.017231,-0.044580,-0.131638,0.088732,-0.025873,-0.072221,0.049593,-0.020125,-0.019843,0.023745,-0.012395,0.039748,-0.030604,0.042861,-0.007292,0.005796,-0.040531,-0.031033,-0.000326,-0.041437,0.080647,0.031937,0.020539,-0.035969,-0.056647,-0.089812,0.003085,0.004586,-0.048669
0.027939,-0.029129,-0.051704,-0.055215,-0.125153,-0.087225,0.061479,0.065795,-0.041810,-0.044830,0.014100,-0.007702,-0.010029,0.011163,0.081705,0.029836,0.016810,0.064246,-0.013792,0.099152,-0.035737,0.151059,-0.011868,-0.020143,-0.014133,0.042073,0.027656,0.028806,-0.014416,-0.013118,0.018182,-0.000537,0.029724,-0.076593,0.032120,-0.119149,-0.025219,-0.041880,-0.061829,-0.033914,-0.006513,0.132364,0.048462,-0.042346,-0.001700,-0.015205,-0.014166,-0.048617,-0.023793,-0.030622,0.015379,0.068144,0.030101,0.106113,-0.039476,0.018205,-0.008344,0.003209,0.019198,-0.051667,0.017934,0.078509,-0.004170,-0.057324,-0.025974,0.005112,-0.003315,-0.012389,0.082762,0.028641,0.140938,0.030670,0.135940,0.046539,0.044251,0.036399,-0.005857,0.108765,-0.041905,-0.046307,-0.187900,-0.019569,-0.087402,-0.047787,-0.115288,-0.068777,-0.067107,0.139320,-0.034212,0.025723,0.070428,-0.030675,0.027902,-0.151741,-0.060067,-0.017157
-0.090364,0.052272,-0.039382,0.042549,-0.000750,-0.016080,-0.042969,-0.088259,0.062598,0.063289,0.000704,0.022957,-0.081239,0.089963,0.047583,-0.054062,0.106485,0.066059,0.045089,-0.019310,-0.087705,-0.031108,-0.006253,0.108355,-0.016048,-0.032714,-0.108360,0.072035,-0.027696,-0.096890,0.024033,-0.060058,0.088526,-0.011039,0.068099,-0.008445,0.017437,0.079298,-0.029148,0.004507,-0.008398,0.050125,0.092674,0.064357,-0.023363,-0.019148,-0.019332,0.010722,0.022619,-0.008264,0.019842,0.018947,-0.073934,0.063859,0.002246,-0.045264,0.048030,0.005880,0.006665,-0.022697,0.032786,-0.019792,0.005128,-0.024149,-0.049524,0.033815,0.036053,0.043231,-0.069248,-0.031763,0.068156,-0.116250,0.012143,-0.004801,-0.007824,0.026177,-0.080501,-0.096519,0.008527,0.051892,0.006186,-0.025723,0.066864,0.013957,0.094004,0.002886,-0.043182,0.033661,0.039554,-0.105074,-0.012835,-0.027854,0.027456,0.016526,0.167576,-0.037942
-0.083817,0.013446,-0.035371,-0.027469,-0.061121,-0.002500,0.034934,-0.105449,-0.053522,-0.098880,0.066603,0.023125,-0.018702,-0.052009,-0.046211,-0.016771,-0.102441,0.011913,0.081688,0.056099,-0.038217,-0.085396,-0.058528,-0.081173,0.011178,0.023075,0.078507,-0.078046,0.036704,0.019878,0.027757,0.042809,-0.083265,-0.000774,0.058732,-0.123165,-0.035623,0.100657,-0.073204,0.050093,0.007193,0.034103,-0.095501,0.060032,-0.004582,-0.006078,0.023292,-0.060014,-0.051115,-0.000844,0.022357,-0.078749,-0.047369,-0.027642,0.044790,-0.007507,-0.035522,0.037448,0.007580,-0.024529,0.032761,-0.076768,-0.042235,-0.052841,0.034233,0.049691,0.041432,-0.055775,0.020381,-0.056085,0.079734,-0.056967,0.050468,0.034140,-0.066297,-0.001985,0.008225,-0.083497,-0.045249,0.061640,-0.065626,-0.023324,-0.060949,-0.055363,0.046655,0.090773,-0.019053,0.034757,-0.050149,-0.003036,0.044935,-0.076684,-0.169576,0.071521,0.105058,0.098003
-0.010805,0.024988,-0.020941,-0.087045,-0.019023,0.006778,-0.154157,-0.021619,0.028114,0.041209,0.012380,0.026206,-0.039350,-0.030286,0.079314,-0.064434,0.002250,0.034519,-0.077305,-0.093221,0.053619,-0.076107,-0.003677,0.021809,0.066846,-0.011993,-0.024454,-0.022083,-0.050546,0.020503,0.046598,0.009920,0.034276,0.061985,-0.022726,0.021700,-0.044136,0.012976,-0.001892,-0.000265,-0.002459,-0.011668,0.068985,0.011919,0.067503,0.023433,0.027728,-0.008501,0.040997,-0.071139,-0.032188,-0.011458,-0.002468,0.134847,-0.055740,-0.043287,0.048623,0.011715,0.013538,-0.050741,0.096259,-0.022035,-0.015731,0.003738,-0.076662,-0.066750,0.024534,-0.013109,-0.079746,-0.009673,0.089621,-0.128057,-0.019512,0.026808,-0.052762,0.114714,-0.026673,-0.083375,-0.010874,0.066350,0.004065,-0.033540,-0.001777,0.051751,-0.006491,0.037320,-0.044303,0.029546,0.024758,-0.076575,-0.026560,-0.023887,-0.022992,-0.033654,0.032306,-0.019212
0.026039,-0.021867,0.098877,-0.016206,0.115113,-0.011642,-0.012613,0.117792,-0.013417,0.008534,-0.037412,0.012162,0.043554,0.053907,-0.027119,-0.040778,0.011184,0.096587,0.019394,-0.032877,0.062113,-0.112716,0.021982,0.042301,-0.070687,0.145054,0.006734,0.127951,-0.033011,-0.049905,-0.026631,-0.063827,0.046444,-0.065369,0.038459,0.003534,0.037657,-0.103772,0.089875,0.016458,-0.024373,-0.029291,0.127736,0.024297,0.011216,0.051786,-0.040038,0.038485,-0.068926,0.016045,-0.059138,0.061058,0.028777,0.000432,-0.027044,0.163339,-0.010146,0.051702,-0.082382,-0.086619,-0.022307,-0.030769,-0.054548,-0.039878,0.052561,-0.000704,-0.009360,-0.010690,0.103293,-0.033938,0.063918,0.092735,-0.068941,0.062051,-0.040566,0.014509,-0.034481,-0.040067,0.006918,0.009384,0.135610,-0.025142,0.035048,-0.004861,-0.039984,-0.054366,-0.106042,-0.055200,0.039689,0.013178,-0.006093,-0.095159,-0.031833,0.035282,-0.017403,0.018857
0.052051,-0.015106,-0.061173,0.047637,0.054311,-0.002264,-0.048071,0.060285,-0.014466,-0.046430,0.094590,0.013496,-0.057215,-0.074373,-0.019161,-0.033192,-0.016603,0.058969,0.077933,-0.026114,0.110888,0.016370,-0.012959,-0.036750,-0.047430,0.069433,-0.098258,0.056314,-0.073399,0.086584,0.107991,-0.018146,-0.027401,-0.004796,0.033002,0.025063,0.013402,-0.052100,0.052499,-0.049822,-0.011703,-0.023103,-0.033344,0.071830,0.050336,0.085290,0.023030,-0.031079,0.038331,0.054033,0.021133,0.056702,-0.039178,0.011099,0.016868,0.014846,-0.007512,0.020303,0.056575,-0.016666,0.028295,0.030697,0.108374,0.082925,0.072485,0.038856,0.015539,0.034940,0.027386,-0.072062,-0.032032,0.075434,0.121059,0.052265,-0.022821,0.070519,0.060171,-0.003822,0.020069,-0.020604,-0.098522,-0.003191,-0.130848,0.039416,-0.005419,-0.039450,-0.026025,0.091751,0.042165,0.057143,0.053286,-0.063369,-0.051023,-0.039090,-0.002736,0.081725
-0.029301,0.120881,0.025075,-0.064573,-0.052833,-0.013253,-0.065050,0.114591,-0.056409,0.021632,-0.047855,-0.035185,-0.010985,0.020177,0.010356,0.127187,0.072765,-0.045370,0.100181,-0.039766,-0.009329,0.075252,0.009934,-0.034013,-0.029012,-0.010495,-0.002714,-0.005476,-0.083334,0.032073,0.030450,0.086798,0.043277,0.023395,-0.032910,0.072369,0.118199,0.023352,-0.040163,-0.066632,0.018919,0.059126,-0.107112,0.006843,-0.020077,-0.052728,-0.061922,0.043728,0.076554,0.021338,-0.062448,-0.003772,-0.115116,-0.023152,-0.006801,0.123871,-0.043629,0.075944,0.056121,0.070132,-0.027608,-0.061797,-0.043988,-0.000147,-0.031784,0.015166,-0.045615,0.056567,-0.104576,-0.031130,0.072429,-0.005473,0.004588,0.080784,-0.103774,0.024765,-0.129571,-0.048223,-0.012365,-0.021042,0.061602,0.084482,0.027060,-0.049625,0.009135,-0.036547,-0.006630,-0.145550,-0.033732,-0.085708,0.038156,-0.092285,-0.058611,-0.050940,0.036042,-0.003188
0.057119,0.034846,-0.005076,-0.007494,0.031043,-0.042948,0.002143,-0.004281,0.026751,-0.013103,-0.033510,-0.032344,0.079800,0.057612,0.064154,0.006272,0.073876,-0.091452,-0.042911,0.044891,0.026585,-0.070425,-0.025828,-0.193088,-0.034282,-0.018877,-0.034690,0.005098,0.027988,-0.001458,0.048351,-0.082411,-0.062529,0.000254,0.036322,0.090598,0.124112,-0.110102,0.036495,-0.004857,0.023752,-0.029774,-0.010092,0.047079,0.053624,-0.074226,-0.053038,0.121330,0.075935,-0.010004,0.062457,0.095879,-0.061928,0.050206,0.073422,-0.021066,0.037389,0.010519,0.003801,0.010624,0.010047,0.080939,-0.061283,0.028955,0.017000,0.051988,0.013882,0.029698,0.059003,0.018316,-0.091214,0.155137,0.099187,-0.022426,0.013247,-0.013346,0.013155,0.021502,0.045911,-0.091667,-0.036177,0.080379,-0.116677,-0.072674,0.120642,0.069359,-0.137778,-0.074363,0.029270,-0.033581,0.011449,0.015824,0.067888,0.058517,0.056552,0.071331
0.037225,-0.053478,0.007832,0.033293,-0.016333,-0.020233,0.019916,0.132936,0.034988,-0.050201,-0.021153,-0.101811,-0.006217,0.017697,-0.006404,-0.023052,-0.088596,0.009807,0.017806,0.032381,0.045897,-0.047745,0.009808,-0.152498,-0.015365,0.045721,-0.001734,-0.048052,0.041903,-0.063075,0.075433,0.072516,-0.123271,0.018339,0.108800,-0.086046,0.113017,0.009540,-0.021649,0.070273,0.047428,-0.048852,0.025971,-0.022910,-0.054673,-0.065479,0.057649,0.069504,-0.011036,-0.019401,-0.032261,-0.088192,-0.044297,-0.004708,0.050397,-0.037261,0.007515,-0.023198,0.056820,0.114850,-0.029659,0.010952,-0.079657,-0.050901,0.032555,-0.000841,-0.016826,0.038528,-0.007475,-0.130206,0.008861,0.127708,0.051412,-0.042510,0.061487,-0.033387,-0.022718,-0.054604,-0.041118,-0.055672,-0.023414,0.085085,-0.088216,-0.089542,-0.027216,-0.052871,-0.144785,0.099747,0.043199,-0.013085,0.105632,-0.012389,0.003811,-0.117034,0.066846,0.067631
0.059674,-0.008388,0.023594,-0.011478,-0.025807,-0.033405,-0.021205,-0.037211,-0.074407,-0.038516,0.003366,0.081618,0.018088,0.003622,-0.014143,-0.032456,-0.105050,0.032305,-0.077062,0.039948,-0.085709,0.002701,0.066027,0.042562,0.004158,-0.038236,-0.069727,-0.000319,0.026990,-0.065355,-0.110357,0.019800,-0.032613,0.012734,-0.061516,0.081558,0.037246,-0.078662,-0.011019,0.024207,-0.037517,-0.033174,-0.106375,0.013465,-0.015868,-0.000093,-0.021306,-0.049696,-0.107472,-0.100960,-0.013149,-0.031524,0.009846,0.020213,0.083008,0.025463,0.005876,-0.075780,0.042573,-0.008044,-0.065080,-0.076166,-0.025096,0.044062,0.020129,0.075254,0.061427,-0.002573,-0.023935,-0.040677,0.039461,-0.026583,-0.040727,0.014400,0.016893,0.015039,0.006546,-0.089372,-0.021599,0.028651,-0.076635,-0.008833,0.034574,0.023913,-0.051157,-0.047153,-0.043636,0.088523,-0.005262,0.011561,0.065779,-0.045558,-0.090198,0.047640,0.060320,0.032101
-0.149701,0.013860,0.122396,0.056159,-0.001862,-0.049753,-0.041511,0.024475,0.026102,-0.008580,-0.061563,0.008808,-0.033198,0.041740,-0.048844,-0.059009,0.069342,0.041402,-0.044557,-0.008594,0.010651,-0.048837,0.011060,-0.011164,-0.026394,0.016748,-0.022504,-0.015352,0.030633,0.008273,0.045393,-0.064507,0.116510,0.052584,-0.022528,-0.051520,0.064875,0.019918,-0.074359,0.009569,-0.102105,0.069286,-0.019858,-0.014405,0.026633,-0.021327,0.004483,0.000423,-0.037692,0.040883,0.071858,-0.024095,-0.048712,-0.029559,-0.005584,0.006525,0.003160,-0.012988,0.085106,-0.008580,-0.100777,-0.086322,0.021780,0.014752,0.004668,-0.027410,-0.001644,-0.053635,0.013778,0.030518,0.008091,-0.032736,-0.041491,-0.016400,0.000230,0.019952,-0.046191,-0.031314,0.059337,-0.017157,-0.048404,-0.105822,-0.019532,-0.009306,-0.058921,-0.053341,-0.002561,0.045768,-0.052791,0.076973,0.029331,-0.029748,-0.116086,-0.002113,0.006387,-0.013615
-0.114526,-0.082255,-0.029227,-0.016876,0.039795,0.015198,-0.026112,-0.032976,-0.020664,0.032180,-0.123158,-0.084073,0.073113,-0.046991,0.068454,-0.136999,0.050731,-0.021266,0.050670,-0.002802,-0.009346,-0.095493,0.047171,-0.014717,0.005828,-0.118712,-0.072116,-0.032735,0.018764,0.042771,-0.075404,0.035157,-0.006316,-0.097127,-0.012478,-0.059271,0.040502,-0.090779,0.005467,-0.058688,-0.063923,0.015413,0.151753,-0.126235,-0.015456,-0.027010,-0.001494,0.021669,0.039337,0.005881,0.027363,0.045450,0.008273,-0.018652,0.063618,-0.024298,-0.000122,-0.053328,0.010467,0.019589,-0.049720,-0.013536,0.030001,0.028638,0.018727,0.010469,0.020561,-0.015697,-0.012879,-0.012175,0.043391,-0.065667,0.069150,-0.017360,0.005226,-0.084221,0.011373,-0.007605,-0.038593,0.068402,0.037281,-0.102889,-0.050011,0.014503,0.039049,0.029816,0.068465,0.003583,-0.023535,-0.056317,0.097070,-0.028223,-0.012297,-0.113417,0.115668,0.004504
-0.124956,-0.056396,0.045766,0.012036,-0.051673,-0.006906,0.063222,0.014994,0.010578,0.002561,0.028862,-0.023175,0.093655,0.002813,0.002729,0.111103,-0.008722,-0.051115,-0.044094,0.089025,0.041987,0.058511,-0.015472,0.045254,0.002764,-0.031352,0.059741,-0.015966,-0.017202,-0.036778,-0.020909,0.024965,0.097790,0.052732,-0.005461,-0.054361,-0.051095,0.020893,-0.082014,0.073901,0.059205,0.043740,-0.053623,0.102918,0.045136,-0.002741,-0.021310,0.102956,0.002931,-0.078181,-0.025630,0.066952,-0.035181,-0.083697,-0.028850,0.054208,-0.034886,-0.088393,0.028466,-0.010770,0.030670,0.017948,-0.081649,0.063760,0.057431,0.000837,0.007213,0.012627,-0.030374,-0.054766,0.038085,-0.023769,0.011251,0.053967,0.077149,-0.040504,-0.037164,-0.053381,0.019206,0.022039,0.068424,-0.015709,0.059688,0.003481,-0.007532,0.027605,-0.001614,-0.044938,0.042806,-0.066113,-0.019155,0.131700,-0.040437,0.049809,-0.001862,0.036463
-0.029087,-0.029088,0.134470,-0.008138,-0.066752,-0.070710,-0.028838,0.098403,-0.028307,0.028701,0.116574,0.000816,0.085894,0.137329,-0.084132,0.036842,0.095620,0.074556,0.027497,-0.061950,0.003732,-0.055592,0.070556,0.038702,-0.061939,0.065947,0.120636,0.157086,-0.077771,0.049260,0.018958,0.006454,-0.111767,-0.092955,-0.054275,0.114542,0.078431,-0.058297,0.009375,-0.030099,0.054444,0.044481,-0.047733,0.019738,-0.091308,0.021680,-0.056226,0.040240,-0.058832,0.012417,-0.006806,0.091216,-0.100357,0.088388,0.092725,0.196389,0.007335,0.074413,-0.031547,0.005595,0.006538,-0.058955,0.043706,-0.034366,-0.001088,0.058346,-0.019393,-0.117820,0.116784,-0.053153,0.123557,0.019390,0.067329,0.059582,-0.125450,0.004149,-0.093485,-0.232778,0.021148,0.020174,0.116786,0.003189,-0.072615,0.050935,-0.041212,-0.036840,-0.051081,-0.285426,-0.029670,-0.016317,0.082619,-0.089117,0.061116,0.064943,0.010392,-0.037057
0.031428,0.055633,-0.009605,-0.185056,-0.010946,-0.033855,0.065545,0.011246,0.055473,0.053393,0.133674,0.026247,-0.031934,-0.035614,-0.029823,0.031729,0.011553,-0.160146,0.055217,0.070794,0.062900,0.108336,0.148884,-0.036684,0.114486,0.023609,0.029327,0.009531,0.044427,-0.064390,0.073825,-0.097803,0.104351,-0.067650,0.088547,0.028416,0.015470,-0.015095,-0.154812,-0.010972,0.021075,0.000350,0.081331,-0.012079,0.176373,0.044101,-0.036838,0.053654,-0.077879,-0.022643,0.089554,0.003974,0.076169,0.012767,0.041819,-0.043398,0.016598,-0.121730,-0.060619,0.045086,0.000542,-0.019421,0.075644,0.066010,-0.014434,0.131281,-0.034476,0.063469,0.038059,-0.080629,-0.077612,-0.015776,-0.079487,0.020005,-0.023556,-0.039306,-0.073262,-0.089282,-0.086911,0.074885,0.007439,-0.002614,-0.018293,0.013417,0.098433,-0.032039,0.001582,-0.045351,0.098725,-0.012370,0.125377,-0.006115,0.030452,-0.043777,0.086322,0.005856
0.015102,-0.054063,0.051310,0.133693,0.050301,0.088847,-0.010514,0.052352,-0.023968,-0.056838,0.126291,0.106504,0.020077,-0.038356,-0.056740,-0.008750,-0.035810,-0.012154,0.059723,-0.010156,-0.013621,0.045273,-0.011618,0.020421,-0.043143,-0.022621,-0.044658,0.011517,-0.031314,0.022400,0.002643,0.036670,-0.029760,-0.047364,-0.071173,-0.048275,0.020860,0.042841,-0.026105,0.051845,0.088477,-0.018714,0.049662,-0.020697,-0.027825,-0.077367,-0.080444,0.012221,-0.034361,0.030896,0.024941,-0.032038,0.062590,0.070571,-0.058285,0.048861,-0.024515,-0.088785,0.110848,0.112009,0.052279,0.060752,0.027654,0.017854,-0.089321,0.015939,0.050507,-0.020747,0.092234,0.032482,-0.023247,-0.019164,-0.052181,-0.014263,-0.018514,-0.098933,0.077751,0.033843,-0.032801,-0.040881,0.063819,-0.037534,0.059000,0.051794,0.032633,0.055506,-0.007471,-0.005281,0.033232,-0.035212,0.010954,0.082683,0.033892,0.028237,0.063285,-0.039689
0.050402,0.051702,0.035936,-0.031243,-0.003712,-0.024989,-0.016577,0.027404,0.055929,-0.025158,0.005427,-0.052852,-0.022414,0.037351,-0.032491,-0.004148,0.007162,0.002138,0.010348,0.001846,0.100119,0.095194,0.041432,0.138181,0.015203,-0.022142,-0.067535,-0.075175,-0.001825,0.143793,0.077746,-0.033585,0.071649,-0.077179,0.004080,-0.100275,-0.030050,-0.024738,0.089871,0.018978,0.066541,0.071775,-0.004842,0.107825,-0.027210,-0.034463,0.114688,-0.052914,-0.077697,0.029655,0.060518,0.076273,0.070535,-0.124266,0.058670,-0.027890,0.021806,-0.059565,0.145995,-0.030473,0.045642,-0.084166,-0.061125,0.043881,-0.048884,0.021365,0.009581,0.002475,0.074391,-0.172105,-0.052035,-0.004495,0.077572,0.081324,-0.093820,0.018669,0.022513,-0.003923,0.101769,-0.054256,0.053220,-0.048447,0.092194,-0.015217,0.006429,-0.012284,0.011977,0.005857,0.108023,-0.009272,0.078295,0.073817,-0.007918,0.054113,0.082855,0.099911
0.007714,-0.114094,-0.010589,-0.058858,-0.026148,-0.059592,0.073567,0.059639,-0.033636,0.024842,0.053158,0.013689,-0.071408,0.007547,0.059895,-0.004355,0.030597,0.052507,0.019063,-0.031765,0.052433,-0.013713,0.028964,0.029377,0.068249,-0.060284,-0.057218,-0.043289,0.030894,0.018283,-0.028621,0.015991,0.019875,-0.065602,-0.004476,-0.039031,-0.077301,0.010899,0.006994,-0.073795,-0.077741,0.022271,0.027515,-0.010566,0.040862,-0.050736,-0.046191,-0.007638,-0.037818,-0.034923,-0.093584,-0.070779,0.019584,0.017584,0.041185,-0.038126,0.009436,-0.066891,-0.054913,-0.023411,0.047343,-0.100189,-0.001559,-0.005825,-0.026404,-0.031865,-0.037668,0.082652,0.010203,0.080875,0.025169,-0.000156,0.059341,0.043706,-0.078467,0.048944,-0.024964,-0.034483,-0.076313,0.001444,-0.085137,-0.047259,-0.051030,-0.001248,-0.033401,-0.015261,0.021278,0.043343,-0.002025,0.048397,0.089955,0.055482,-0.039238,-0.011756,0.054017,0.024884
-0.036148,-0.049359,-0.073651,-0.010109,0.000628,-0.014491,-0.088026,0.045560,0.069684,-0.035759,-0.022612,0.057506,-0.053593,-0.005595,0.083949,-0.036231,0.041426,0.003473,-0.025695,-0.026852,0.052837,-0.049446,-0.166516,-0.062815,-0.018874,-0.034277,-0.023294,0.060369,0.018879,0.127083,-0.044884,0.047089,0.014782,0.085206,-0.034864,-0.039679,0.102513,-0.057157,-0.013697,0.010172,0.043487,-0.127467,-0.029969,0.090707,0.088180,0.031748,-0.010884,0.038404,0.006667,-0.007088,-0.014183,-0.048698,-0.041347,0.067543,0.054750,0.045883,0.143460,0.050198,-0.012295,-0.009761,0.006697,-0.011796,0.015728,0.015698,-0.018316,-0.042391,0.040084,0.114565,0.033535,-0.010869,-0.075717,0.108659,0.032963,-0.006030,-0.092557,0.138153,-0.061005,-0.016146,0.038629,-0.055737,0.054919,-0.079993,-0.152508,-0.040064,0.014061,-0.042351,0.042878,-0.000492,-0.042824,0.039736,0.015649,0.034478,-0.033624,0.120865,0.043772,0.131407
0.034041,0.113249,-0.082067,0.008075,0.003503,-0.023167,-0.016043,-0.026187,-0.075641,-0.002525,-0.032006,0.012558,0.025647,-0.011858,0.019890,0.045645,-0.074610,-0.110770,0.018408,0.002584,-0.049007,-0.020733,0.021414,0.017195,-0.117654,-0.009861,-0.105509,0.070414,0.025600,-0.039272,0.039094,0.043320,0.025605,0.043662,0.005346,0.114607,-0.005473,-0.026756,0.069019,0.016713,0.010424,-0.008132,0.067825,0.003704,-0.003504,0.020271,0.084154,-0.026107,0.023423,-0.062986,-0.068392,-0.039397,-0.053524,0.028982,0.113747,0.051856,0.037983,0.058989,0.009316,-0.007807,0.025695,0.099570,0.039588,0.068658,-0.044508,0.042383,0.018697,-0.129527,0.067722,-0.010727,-0.037356,-0.140502,0.048685,0.011426,-0.027975,0.091918,-0.000668,-0.043975,-0.061613,-0.025037,0.058653,0.050730,-0.081346,-0.129821,0.063938,0.077807,-0.043383,0.059734,0.023897,0.014978,-0.059712,-0.072781,-0.069655,-0.038242,-0.020928,-0.005674
-0.011488,-0.042153,0.040321,0.040438,0.058669,-0.017784,-0.008134,-0.009147,-0.016882,-0.039069,0.024257,-0.077694,-0.029013,-0.101748,0.013656,0.029351,-0.033423,0.059265,0.020710,0.017212,0.021505,0.010129,0.038767,0.082595,0.043527,-0.077196,0.031260,0.042164,0.035594,0.015888,0.038357,-0.024159,0.027123,-0.057270,0.023602,0.087707,0.045531,0.025530,-0.040129,0.040691,-0.066844,0.019649,0.045978,-0.040349,-0.064719,-0.027820,-0.058212,0.093789,0.035436,-0.037246,0.029035,-0.054624,-0.028761,0.094190,0.015266,0.022472,0.020829,-0.010414,0.033988,-0.049782,-0.016745,0.068925,0.042944,0.062726,0.068796,-0.056447,0.085884,-0.060757,0.015488,-0.027558,0.017232,0.012818,-0.005042,-0.047133,-0.039289,0.016497,-0.022503,-0.002093,0.014043,-0.014228,-0.040344,0.045279,-0.047010,-0.032174,-0.002104,-0.006327,-0.053817,0.009521,-0.051692,0.006995,0.071841,0.067695,-0.056113,-0.109024,0.050389,-0.145610
-0.013105,-0.018583,-0.027564,0.044595,0.044057,-0.020872,-0.032124,-0.022547,0.126222,-0.003908,-0.043703,-0.072960,-0.042087,-0.013332,-0.016708,-0.042255,0.029088,-0.038532,0.024268,0.030874,0.028310,0.034021,-0.054567,0.021466,0.007723,-0.018685,-0.036096,-0.017738,-0.015137,0.012964,-0.036590,-0.034690,0.005097,0.010489,0.032894,0.057404,0.027828,-0.003956,0.084064,0.085070,0.042159,-0.042024,0.051112,0.089932,-0.034507,-0.194200,0.095302,-0.030167,-0.058665,0.005831,0.040314,-0.076209,-0.079808,-0.134674,0.067355,0.038816,-0.014655,0.121713,-0.079744,-0.008624,0.054893,-0.029472,0.066257,0.073671,0.147140,-0.037513,-0.040256,-0.002300,-0.055398,-0.049051,-0.000927,-0.008247,-0.075968,0.074215,-0.016739,-0.009305,-0.046239,0.001227,0.021082,-0.150446,-0.033698,-0.091321,-0.040376,0.097446,0.034052,-0.008760,-0.067362,-0.019836,0.025699,-0.095242,-0.041877,-0.091837,0.008923,-0.005001,0.028301,-0.046015
-0.015057,-0.102318,-0.051986,-0.135579,0.072442,0.084780,0.029669,-0.029159,-0.075953,0.078191,0.035824,0.057476,-0.057265,-0.030913,-0.004311,0.029255,0.074365,-0.021083,-0.120975,0.129096,0.075435,-0.032174,0.177446,0.016655,-0.000187,-0.023211,0.017253,0.012001,0.049387,0.000845,-0.071852,0.012965,0.145919,0.069538,-0.036247,0.023608,0.017765,0.043159,-0.040525,0.089718,-0.089962,0.044378,0.099115,-0.006309,-0.034820,-0.052564,-0.037035,-0.116118,0.111141,0.105331,-0.031893,0.027855,-0.045231,-0.020735,0.038331,-0.016838,0.006309,-0.005975,-0.005985,-0.036336,-0.007899,0.007881,0.150338,0.002008,-0.039251,0.133725,-0.001892,-0.082403,0.078657,-0.138261,-0.061036,0.126578,0.007484,0.006600,-0.095131,0.024924,-0.017922,0.018144,-0.046128,-0.045569,0.014921,0.035835,0.082955,-0.045656,-0.001737,-0.018084,0.002110,-0.124568,0.044143,0.000712,0.063228,0.032377,-0.077815,0.034651,0.088531,0.052728
-0.073727,-0.037270,0.008699,0.013877,-0.067038,-0.042390,-0.009734,-0.138409,-0.002874,0.118873,0.053723,-0.010236,-0.066944,0.023903,-0.000325,-0.061532,-0.059666,-0.022850,-0.043902,-0.069849,-0.028387,0.018661,0.041303,0.059073,0.020151,0.038894,-0.033313,-0.017160,-0.018865,0.014973,0.005336,0.022595,-0.000112,0.010174,0.086541,-0.046036,-0.018426,-0.005997,-0.057695,-0.045764,0.083690,0.046941,-0.006755,0.070324,0.029178,0.004977,0.085647,0.107243,0.008294,0.028332,-0.069677,0.009796,-0.035239,0.019499,0.021096,0.021949,-0.028216,-0.103766,0.008680,-0.011620,0.003281,0.012484,0.026008,-0.097093,0.041048,-0.027717,-0.067251,0.010927,-0.028905,-0.060220,0.020294,0.017653,-0.058431,0.018123,-0.030187,-0.038146,0.005972,0.015822,0.047569,0.009580,0.078398,0.007974,-0.096879,-0.011832,0.075080,0.022271,-0.125668,0.030673,0.034028,-0.004174,0.043284,0.033173,-0.071612,0.029666,-0.014617,0.006580
-0.106087,-0.044425,-0.062864,-0.015360,-0.135665,-0.019114,-0.001661,0.038009,-0.016571,0.018465,-0.014861,0.082085,-0.030719,-0.059597,-0.030362,-0.056708,0.039794,-0.129203,0.066852,-0.024068,-0.002824,0.012261,0.052693,-0.001317,-0.037509,0.044068,0.056982,0.168336,-0.061343,0.052887,-0.088371,-0.066882,-0.009852,-0.090602,0.128293,0.019383,0.009673,0.090044,-0.012581,-0.002323,-0.090776,-0.010082,0.003349,-0.047520,-0.054459,-0.009574,0.040685,0.095825,0.040423,0.153506,0.024814,0.043176,-0.054600,-0.006118,0.029676,-0.067668,0.006399,-0.042097,-0.021799,-0.020067,-0.034828,0.147930,0.031971,0.051438,0.033131,-0.094765,0.092327,0.078194,-0.065056,-0.001248,0.014430,-0.074897,0.002318,0.008397,-0.090005,-0.024713,-0.041316,-0.148265,0.044655,-0.060914,-0.004936,0.024469,0.013089,-0.077939,0.039232,-0.109963,-0.089604,0.036918,0.088394,-0.067934,-0.051235,0.045569,0.080856,-0.105378,0.053832,0.077067
-0.009282,-0.081832,0.066229,0.003462,-0.029520,-0.034664,-0.122353,-0.007827,0.005406,-0.009922,-0.101995,-0.037390,0.024338,-0.028672,0.042801,-0.023868,0.094069,0.004732,-0.085131,0.102569,-0.009726,-0.033085,-0.019798,0.060347,0.096188,-0.060489,-0.101591,-0.065548,0.044109,-0.084260,-0.120853,0.035514,-0.001649,-0.061258,-0.028807,0.022187,0.001379,0.029999,-0.027525,0.056641,-0.033481,-0.071504,-0.099242,-0.104371,-0.040633,0.050117,-0.101872,0.056590,-0.022468,-0.066358,0.089677,-0.053295,0.090886,0.041518,0.005935,0.002782,-0.014218,0.053836,0.123560,-0.053473,-0.099034,0.007493,-0.032161,-0.032044,0.039346,-0.013862,-0.035516,-0.015952,0.082950,0.215043,0.004003,-0.075551,-0.010337,0.061057,0.044701,0.046177,0.015401,-0.075886,0.012061,0.087037,-0.060239,-0.082179,-0.202065,0.010496,-0.082558,-0.075229,-0.067065,0.061786,-0.042925,-0.081018,0.041311,-0.080057,0.027053,-0.002635,0.004742,-0.065594
0.041346,0.023364,0.008541,0.000598,-0.015019,0.037317,0.033055,0.049483,-0.062544,-0.040839,0.016451,0.088083,0.035005,0.036205,0.130799,-0.015359,0.089886,-0.039764,0.025476,0.079127,0.005759,-0.010394,0.091502,-0.074730,-0.112806,0.034347,0.008083,-0.007559,0.028984,0.032296,-0.019761,-0.067965,0.014170,-0.115487,0.043973,0.114943,0.038823,0.009004,0.015138,0.078551,-0.080192,-0.005309,-0.042036,-0.042598,-0.082384,-0.008874,-0.054715,0.013624,-0.032466,-0.010631,0.002228,0.019179,0.044313,-0.064615,0.062401,-0.055862,0.041460,0.018259,0.031230,-0.106468,0.069671,-0.003464,0.020174,-0.020029,-0.034903,-0.033246,0.002333,0.023455,-0.012503,-0.117631,-0.018616,-0.081758,-0.022612,-0.098965,-0.062389,-0.031814,0.005417,-0.028997,0.065790,-0.056930,0.013311,-0.055137,0.071372,0.063848,0.028561,-0.020567,-0.144218,-0.012227,0.098361,0.026174,-0.052015,0.014445,-0.033581,0.041603,0.031694,-0.038455
0.070039,-0.005582,0.024284,-0.003337,-0.116760,-0.074682,0.025734,-0.039142,-0.051689,-0.065468,0.054088,0.022759,-0.020602,0.053247,0.010667,0.000017,0.028651,-0.023080,-0.033498,-0.092584,0.082766,-0.003877,-0.004684,-0.071971,0.020941,-0.042003,-0.105196,0.006554,-0.066305,-0.038988,0.025241,-0.071949,0.020357,-0.051546,-0.039843,-0.009403,-0.044030,0.035748,0.108364,0.037693,-0.059017,0.040717,-0.030352,-0.067800,-0.027761,-0.017592,0.068824,-0.027799,-0.056735,-0.012592,-0.083668,-0.044100,0.042339,0.051056,0.109656,-0.037219,0.021830,-0.045681,-0.034811,0.000677,0.020184,-0.019733,0.030039,0.004383,-0.052595,0.005359,0.011056,0.042312,0.004639,0.053613,0.041891,0.016465,0.016142,0.002538,0.059071,0.034469,-0.016534,-0.091795,0.066461,-0.036557,-0.047748,-0.075938,-0.069440,0.028925,-0.037225,0.035722,0.027186,-0.084662,-0.000464,0.048650,-0.009693,-0.012883,-0.005900,0.055901,-0.024552,0.003932
0.017727,-0.007748,0.139817,-0.015470,-0.047296,0.017657,-0.116051,0.010904,-0.035625,0.057574,-0.070578,-0.029030,-0.101930,-0.103752,-0.021260,-0.084990,-0.044522,-0.004235,-0.143800,-0.042028,-0.134723,0.089215,0.095657,0.024762,0.086543,0.012256,0.022255,0.044560,0.144203,0.038953,0.057264,0.013331,0.011254,-0.035888,0.036700,0.019089,0.002234,0.014622,-0.095900,0.074966,0.016257,0.020832,0.007789,-0.072922,0.024563,-0.028855,-0.050449,-0.017461,-0.027337,0.044798,-0.013845,0.006795,-0.018001,-0.050724,0.094867,-0.002172,0.050370,-0.026151,0.019920,0.040507,0.026948,-0.094098,0.066561,0.035835,0.014303,0.099042,-0.103117,0.094203,0.003032,0.023825,-0.012689,0.012346,0.027452,-0.055330,-0.008722,-0.106890,-0.127016,-0.050651,0.043470,0.042046,-0.003387,-0.099394,0.003544,0.099025,0.032593,0.017743,0.039724,-0.019187,0.040086,0.125286,-0.121499,0.096130,0.001697,-0.014807,0.117315,0.011832
-0.072422,-0.055955,0.029307,0.107555,0.003577,0.018085,0.015859,0.107324,0.061904,-0.005827,0.018607,-0.002056,0.079488,-0.017410,-0.013239,-0.047499,0.102278,-0.059209,0.049933,0.001847,-0.009852,-0.027928,-0.074688,-0.017329,0.025995,0.040444,0.028470,-0.062874,-0.005528,0.054746,0.021362,-0.013245,0.085509,0.005537,-0.018385,-0.047279,0.044959,-0.097733,-0.025594,0.070914,-0.052808,-0.091989,0.114264,-0.023043,0.028542,0.074856,-0.000138,-0.026427,0.046446,-0.060344,0.015235,-0.065611,0.021011,0.022198,-0.080020,0.041885,0.036570,-0.059656,0.126908,0.004109,-0.008802,-0.030963,0.036423,0.080144,0.059241,-0.070879,0.041833,-0.070684,-0.064771,0.028643,-0.046305,-0.062565,0.089584,-0.004830,0.004983,-0.173503,-0.036638,-0.040942,0.051259,-0.049447,0.018104,0.099996,0.077601,0.041471,0.001401,-0.045935,0.002419,0.004436,-0.023898,-0.030889,0.013728,0.028450,-0.013473,-0.066648,-0.086173,0.126915
0.008704,-0.015880,0.050970,-0.012889,0.035978,0.086367,-0.084486,0.055414,-0.035686,0.059675,-0.014316,-0.090706,0.024560,-0.027394,0.042253,-0.048089,-0.015838,-0.017693,0.074365,0.028942,0.014949,-0.016605,0.005323,-0.015581,0.015569,-0.006021,0.014073,-0.006878,-0.071748,0.025073,0.124616,-0.031269,-0.006834,-0.094548,0.024227,0.031741,0.115624,-0.014836,0.017617,-0.038564,-0.000442,0.005992,-0.020768,-0.012344,-0.009181,0.010879,-0.053778,0.071956,-0.034198,-0.044668,-0.000244,0.081070,0.006577,0.017498,-0.114725,0.010034,-0.023747,0.051441,0.036303,-0.007853,0.040857,0.007923,0.034794,0.048737,0.034992,-0.021553,-0.007504,0.009138,0.022290,0.030972,0.107970,0.030818,-0.005022,-0.005698,-0.097831,-0.006984,0.058537,-0.021279,-0.001775,0.019579,0.131377,-0.016205,-0.010411,0.074153,0.019896,-0.042055,-0.010231,-0.035266,0.044435,-0.016942,0.013343,-0.113321,-0.050107,0.023956,0.002595,0.046755
-0.048388,0.102184,-0.010945,0.066266,-0.017169,-0.023273,0.002465,-0.000301,-0.033887,0.046783,-0.104759,0.011793,-0.031750,-0.009683,-0.022671,0.013020,0.026787,-0.048888,-0.021138,0.086332,0.014066,-0.050880,-0.031157,0.016889,-0.004100,0.051832,0.096206,0.064647,-0.033203,-0.054216,0.055747,0.052737,0.005696,0.003828,0.015345,-0.027448,0.031059,-0.071153,0.081043,-0.000915,0.124352,-0.048205,-0.002882,-0.088439,0.057260,-0.057375,0.029453,-0.112165,0.040818,0.060183,0.015190,0.035203,-0.038963,0.049324,0.027148,-0.057403,-0.073865,-0.084903,0.028210,0.023685,-0.035741,0.031575,-0.055208,0.014522,-0.036767,0.044376,0.034936,-0.008648,-0.081446,-0.040914,0.070981,-0.040556,-0.006844,0.055707,0.063798,0.000307,0.031816,-0.018209,-0.014400,-0.065397,-0.028254,-0.028461,0.021880,0.034702,-0.019786,-0.012325,-0.018404,0.035821,-0.003895,-0.065885,0.040077,-0.072594,0.078239,-0.025904,-0.053057,0.056841
-0.006765,0.040868,-0.006674,-0.014783,-0.005726,-0.043506,-0.046593,-0.038445,0.120157,0.033875,0.002941,-0.002379,-0.030086,0.012259,-0.000680,-0.017520,-0.025047,-0.068779,-0.044907,0.079023,0.000642,-0.021201,-0.038118,0.019379,0.031381,0.027592,-0.013133,0.036150,-0.007588,-0.027309,-0.040568,-0.009835,-0.031360,0.015794,-0.062248,0.049616,0.057692,-0.004082,-0.028684,0.023846,0.027213,-0.025589,-0.014753,0.015771,-0.012461,-0.060337,0.000753,0.055798,-0.019563,0.000735,0.051746,0.004361,0.024385,-0.012967,0.052535,0.010655,0.021349,0.025875,-0.015761,0.018540,-0.078645,0.010662,0.053004,0.008183,0.038885,0.035782,0.036000,-0.009855,-0.024088,-0.013666,-0.036762,-0.007668,-0.024114,-0.012719,0.023734,-0.052071,0.007647,-0.016519,-0.057274,-0.012575,-0.024274,0.011110,0.013981,0.044720,0.000237,-0.037204,0.013806,-0.026693,0.024258,0.023046,0.001898,-0.063709,-0.070137,0.058200,0.059191,-0.019088
-0.064492,-0.057348,-0.067921,-0.006105,-0.010675,0.029851,-0.085190,0.039024,0.031624,0.022856,-0.032012,0.050114,-0.015075,0.081131,0.023110,-0.063579,-0.155329,0.038809,0.089034,0.054190,-0.164806,0.010477,-0.050037,-0.135404,-0.065997,-0.015485,0.025233,-0.028147,-0.022257,0.164814,-0.105234,-0.146206,0.028085,0.001415,0.033063,0.057241,-0.030795,0.113650,-0.064178,0.056718,-0.106786,0.057412,-0.085045,-0.064016,-0.008197,0.146394,0.033006,0.111928,-0.111704,-0.133942,0.062886,0.011295,-0.000654,-0.073737,-0.065658,-0.035191,0.016592,0.118138,0.009573,-0.058457,0.110192,-0.003043,0.004364,-0.014595,0.045359,0.001895,0.078922,0.026273,-0.035620,0.087871,-0.009585,0.003233,0.007420,-0.080747,-0.113370,-0.103024,-0.079285,-0.031157,0.006048,0.067228,-0.007490,-0.052906,0.027397,-0.136040,-0.009793,-0.141641,-0.027207,-0.016160,-0.020469,-0.089955,-0.036158,0.089925,-0.049510,0.035813,0.006327,-0.108850
-0.064998,-0.063814,-0.043861,0.040638,0.009437,0.041263,0.024494,0.047951,0.008371,0.031751,-0.003709,-0.001548,-0.003617,-0.006651,0.018286,-0.034696,-0.023410,-0.085199,0.054265,0.064869,-0.026657,0.040179,-0.048837,-0.012816,-0.031022,0.006042,0.018460,0.042140,-0.030162,0.047588,-0.032039,-0.024024,0.099587,-0.043535,-0.020443,-0.008973,0.044022,-0.034980,-0.055799,-0.071826,-0.048496,0.036842,0.009199,0.081988,-0.013674,0.033539,-0.038911,0.079129,0.063408,0.012829,0.064629,0.023977,-0.023564,-0.013795,-0.052581,0.004419,-0.058795,-0.008715,-0.016954,-0.017135,0.077739,0.035313,0.039630,-0.030888,-0.003582,0.016480,-0.035528,0.011158,-0.042057,-0.008770,-0.027719,-0.023649,0.060752,0.042282,-0.090448,0.025111,0.011604,-0.052344,0.013942,-0.088268,0.025947,0.024185,0.003211,-0.058489,-0.062188,-0.026429,-0.044532,-0.010556,0.062557,-0.057611,-0.020057,0.017930,0.040628,-0.085351,-0.013396,0.058661
0.072421,-0.029774,-0.027677,0.031343,0.043771,0.091960,-0.015952,-0.005763,-0.046697,-0.016328,0.005998,-0.059309,0.048489,0.074451,-0.023603,0.023560,0.048931,0.013984,0.044764,0.012579,0.001601,-0.024127,-0.054283,0.006938,-0.021270,-0.011892,-0.115693,0.026200,-0.031195,-0.032609,0.092407,0.022380,-0.114719,-0.017974,0.018514,0.069036,0.032481,-0.095196,-0.006776,0.036989,-0.044356,0.054037,0.026823,-0.027594,-0.011060,0.012120,-0.033712,-0.055466,0.000256,0.056955,-0.061162,-0.064261,0.042826,0.021102,0.048290,-0.008599,0.035839,-0.013887,0.039652,0.000383,-0.045215,0.037844,-0.079943,-0.023363,-0.002024,0.017095,0.037157,-0.018542,-0.030922,0.001084,0.002894,-0.153984,-0.007909,0.040065,0.035454,0.057859,0.012129,-0.002579,-0.002658,-0.040423,-0.010436,0.060411,0.052575,0.095101,0.058839,0.056741,-0.025449,0.082937,-0.012547,-0.044784,0.024753,-0.090871,0.046281,0.022638,0.010489,-0.010426
0.063865,0.070143,0.031029,-0.080999,0.099798,0.059073,-0.056339,0.031321,0.014411,-0.026328,-0.103823,0.029698,-0.006515,0.026499,0.136827,0.004222,-0.057006,0.107908,0.011885,-0.050959,0.025890,-0.069285,-0.084315,-0.100239,-0.081131,0.095585,-0.034240,-0.005768,0.003218,-0.010130,-0.062623,-0.042375,0.113073,0.065298,0.081454,-0.017983,0.005578,-0.061951,0.085283,-0.021250,-0.007552,-0.104758,-0.005899,0.033529,0.059001,0.000101,-0.034192,0.017623,-0.012754,0.047500,-0.014462,0.003650,0.029245,-0.008071,0.003687,-0.028915,0.020221,0.010076,0.058798,-0.026092,0.003326,-0.029962,-0.068301,-0.017766,0.021847,0.067305,-0.047987,0.047439,-0.017505,-0.027756,0.035830,0.112971,-0.025581,0.033689,-0.073900,0.040441,0.046773,0.030789,0.044680,0.004711,-0.008754,-0.035201,-0.023790,-0.049483,0.021293,0.054452,0.002324,0.037742,-0.018450,0.053934,0.020153,-0.056870,-0.002643,-0.071424,0.062241,0.119175
-0.043927,-0.011365,-0.021957,-0.084546,0.081392,-0.050095,-0.021026,0.022359,-0.005612,0.010384,0.094496,-0.034612,0.002179,0.031241,0.004817,-0.010464,0.018694,-0.051531,-0.011975,0.024063,0.076615,-0.054047,0.017535,-0.019089,0.054039,-0.012026,0.055577,-0.105805,0.019826,-0.020249,0.091548,-0.074235,0.013564,0.004349,-0.024314,0.034623,0.055656,0.073198,0.033235,-0.028221,-0.081519,0.052451,0.014241,0.022208,0.008992,0.117940,0.040760,-0.062797,0.101585,0.024103,-0.096787,0.033673,0.089909,0.041096,0.053950,-0.103079,0.075600,-0.071214,0.056540,-0.059586,-0.030297,0.014258,-0.022534,0.018146,-0.003923,0.100779,-0.024873,0.024192,0.064301,-0.026460,-0.008978,0.060705,0.048125,-0.024287,-0.087475,-0.042594,-0.082556,-0.025963,-0.092015,-0.054470,0.119084,0.029512,0.052379,0.053306,0.018091,0.052440,0.002079,-0.083879,0.063506,0.023222,0.014048,0.078043,0.056024,-0.088769,0.024735,0.035757
-0.058127,0.129334,-0.006579,0.055399,-0.054578,0.001657,-0.022533,0.081365,-0.006434,0.051439,-0.065631,-0.051932,0.007548,0.044295,0.056949,-0.066278,0.059890,0.038116,0.001416,0.025900,-0.100455,-0.073876,-0.035829,-0.037813,-0.036407,-0.045604,-0.030676,0.071262,-0.032554,0.076860,0.005840,-0.000381,-0.117546,0.083657,0.037116,-0.080677,-0.016943,0.076111,0.035340,-0.064024,0.063593,-0.039411,0.005777,0.090671,-0.029829,-0.040686,0.072929,0.036240,-0.046950,-0.017657,0.018805,-0.064083,0.050707,-0.045324,-0.041291,-0.041784,0.064137,-0.040775,0.045856,-0.047655,-0.021130,0.066586,-0.033421,-0.065548,-0.078836,-0.021555,0.018596,-0.031511,-0.127575,0.061701,0.014320,-0.063546,0.034441,0.139438,-0.032461,-0.061456,-0.033974,-0.000443,-0.032485,-0.011850,0.015554,-0.011732,0.035648,0.116169,-0.050160,-0.102094,-0.027455,0.086895,0.043601,-0.055984,-0.064701,0.057757,0.045582,0.023692,-0.085464,0.003930
-0.015986,0.163132,0.033181,0.151621,0.026129,-0.021418,0.067616,-0.001322,-0.012369,0.045029,0.060527,-0.112574,0.072759,-0.080194,0.164394,0.032850,-0.037062,0.158942,0.021740,0.038712,-0.029184,-0.042943,0.072401,0.054751,0.093908,0.052367,0.041310,-0.041750,-0.077162,0.001539,-0.022631,-0.041466,0.111233,0.048344,-0.017810,-0.052137,0.033541,-0.014164,0.010097,0.109925,-0.075639,-0.044944,-0.023871,-0.015165,0.040367,0.143734,0.075542,-0.061772,0.053772,-0.049582,0.153868,-0.011266,-0.242837,0.043639,-0.016121,-0.028524,0.007503,-0.008475,0.029750,0.034107,-0.027425,-0.074386,0.085337,-0.034081,-0.034728,-0.026337,-0.012459,0.081718,0.039919,-0.005382,-0.029165,-0.015825,0.008065,0.066393,-0.065975,-0.021785,0.000550,-0.037742,0.076531,-0.080068,0.006877,-0.038772,-0.084019,0.008215,0.027870,-0.016958,-0.059596,0.031675,-0.013571,0.027068,0.034739,-0.050280,0.013733,-0.046164,-0.024420,-0.048597
-0.043556,-0.036441,-0.050324,-0.052422,-0.006235,-0.001038,-0.014242,0.086837,0.003911,0.031240,-0.042401,0.005453,0.014249,0.007508,0.033090,-0.045611,-0.039385,-0.061657,0.091946,-0.059011,-0.051465,0.009625,-0.019812,0.055527,-0.017162,-0.038737,-0.006271,-0.066222,-0.051963,0.039645,0.002995,-0.092931,0.089240,0.013713,-0.018642,0.028633,0.098323,0.106956,-0.034009,-0.002311,-0.022383,0.064904,-0.008710,0.006796,-0.026225,0.014822,0.003308,0.108117,-0.053845,-0.076850,0.027036,0.074120,0.019720,0.018253,-0.081539,-0.060205,-0.090962,0.093103,-0.059546,-0.051662,0.012485,-0.023471,0.055078,0.048553,-0.061739,-0.011084,0.020271,-0.015200,-0.038555,0.087020,0.016496,0.034382,0.093787,-0.102822,-0.047944,-0.013287,0.001695,0.070926,0.033587,-0.003403,0.026677,-0.091389,-0.014176,-0.031225,0.054282,0.005390,-0.047765,0.019815,-0.018404,-0.038440,-0.024655,0.001886,-0.000262,0.018459,0.019149,-0.010443
-0.064403,0.040034,-0.080782,0.007473,-0.018317,0.025652,-0.054605,-0.029191,0.018179,-0.013023,0.129202,0.002515,-0.023323,0.075847,0.025213,-0.026849,-0.031359,-0.021646,-0.025470,0.064664,0.028121,-0.086645,-0.078332,-0.018150,0.041805,-0.009159,-0.007463,0.097568,0.128116,-0.009800,-0.045862,-0.030062,0.050335,-0.003881,-0.012065,-0.069344,-0.027815,-0.062481,-0.032449,0.026503,-0.051904,0.036223,-0.025787,-0.094007,-0.023456,-0.037455,-0.070185,0.042838,-0.042624,0.020614,-0.001647,0.014843,0.029492,0.075857,-0.038521,-0.030092,-0.026347,0.006599,0.047950,-0.019869,-0.116064,-0.029793,0.038599,0.008850,-0.048524,0.055806,-0.042329,-0.054596,-0.079880,-0.017657,0.008581,-0.014702,-0.002967,0.070247,-0.075311,-0.007804,0.014479,-0.035688,0.123405,0.012884,-0.011355,-0.083223,-0.029989,-0.032087,0.040859,0.095948,-0.047273,-0.031422,0.005899,0.026115,0.041997,0.056265,-0.031130,-0.010515,-0.015096,-0.075909
-0.030927,-0.004428,-0.020088,-0.051898,-0.012983,-0.110765,-0.039084,0.009715,0.043316,-0.093151,0.044380,0.035922,0.022076,-0.015573,-0.009551,0.020744,-0.095829,0.036036,0.013536,0.150570,-0.115960,0.063579,-0.050986,0.062090,-0.029351,-0.025737,0.065861,-0.048310,-0.004618,-0.076708,0.001025,0.026072,0.018733,0.021117,0.008649,-0.018029,0.016030,-0.070899,0.050767,-0.050404,0.117384,0.038481,-0.003444,-0.031007,0.027670,0.021841,0.010777,-0.004290,-0.021451,-0.073340,-0.025898,0.040637,0.053156,-0.055784,-0.136794,0.025690,-0.066324,-0.045469,0.033247,0.092851,-0.013740,-0.048671,0.037274,-0.020480,0.035724,-0.057684,0.107845,-0.056298,-0.039175,0.021520,0.028848,-0.090318,-0.111170,-0.000305,0.063838,-0.047356,-0.085641,0.056790,-0.057268,0.064743,0.001757,-0.058464,0.079965,0.040430,-0.030689,-0.065800,-0.031433,0.023653,-0.057654,-0.086195,0.119199,0.073472,-0.046626,-0.055631,-0.006775,-0.003471
-0.051545,-0.038058,-0.003964,-0.063653,-0.011722,-0.007322,0.078163,0.005318,0.029675,-0.003424,-0.006426,0.003664,0.013888,-0.050827,0.009534,0.003240,0.023388,0.016244,-0.011405,0.066592,-0.097711,0.021683,-0.035191,-0.027319,0.038235,0.009068,0.033147,0.052141,0.021529,-0.043331,-0.025022,-0.000508,-0.003887,0.033159,0.008364,0.080084,0.082914,0.069603,0.062112,0.081968,-0.024903,0.003872,-0.062410,-0.023017,-0.005493,-0.026565,0.003883,-0.038949,0.054289,0.029306,-0.008554,-0.021213,-0.006190,-0.013565,-0.022814,0.053234,0.033145,0.001971,0.050814,0.022682,-0.001784,-0.017197,-0.029459,-0.174950,-0.068838,-0.041256,-0.048657,-0.004249,0.061261,0.092473,-0.056840,0.032076,-0.140587,0.033720,0.107950,-0.043929,-0.036101,0.077330,0.061863,-0.028210,0.052473,-0.115448,-0.064962,-0.053683,-0.019725,-0.067983,0.065546,-0.051055,0.020803,-0.088904,-0.040718,-0.013967,-0.033421,0.059973,-0.058521,-0.008333
0.005606,0.044140,0.067400,0.033097,-0.030067,-0.023630,0.023624,0.180158,-0.010957,-0.046457,0.046348,-0.030444,-0.017786,0.011555,-0.012866,0.038328,-0.026363,-0.007234,-0.026366,-0.047121,0.027313,0.003082,-0.049169,-0.136913,-0.076891,0.064959,-0.017511,-0.012513,0.090556,-0.020529,-0.000417,0.131600,-0.060759,0.027523,0.109396,-0.035813,0.050172,-0.034634,-0.100528,0.050408,-0.027772,0.123069,0.005478,0.026194,0.021713,-0.059171,0.063644,-0.054084,-0.077156,-0.009891,-0.024364,-0.070675,-0.001011,0.125865,0.115556,-0.083287,0.077428,-0.009938,0.059846,-0.054425,-0.036803,-0.004440,-0.015266,-0.023722,0.010316,0.045937,0.086835,-0.001592,-0.059824,-0.108545,0.061838,0.144130,0.066052,-0.098685,0.037302,0.083787,-0.095102,0.036616,0.041829,-0.050798,-0.070784,-0.022541,-0.150803,-0.138265,0.015940,-0.167122,-0.045050,0.074347,-0.034949,-0.026368,0.040836,-0.046341,-0.104441,-0.093572,0.060254,0.018133
-0.046228,0.045253,-0.028130,0.029204,-0.010444,-0.047882,0.031565,-0.055365,0.041562,-0.074000,-0.057750,0.068519,-0.031831,-0.115148,0.046100,0.052417,-0.053528,0.053383,0.005906,0.018369,-0.075739,-0.001027,0.056413,-0.009843,-0.029555,-0.058306,-0.023047,0.007887,-0.007910,-0.095325,0.086510,-0.035736,0.008643,-0.030499,0.039410,-0.057865,-0.004759,0.005539,0.064104,-0.031159,-0.006704,-0.000425,0.069814,0.117514,-0.004770,-0.018800,-0.052297,0.014853,-0.029159,-0.111263,-0.031701,-0.122183,-0.133209,0.010978,0.088077,-0.010379,0.047261,0.049392,-0.046465,0.039747,-0.049542,-0.024599,0.042302,0.016535,0.111632,-0.035710,-0.014404,-0.064440,-0.001062,0.036703,0.051769,-0.016188,-0.119425,-0.001196,0.061573,-0.014357,-0.017018,-0.019912,-0.015312,0.045823,0.013139,-0.096776,0.054564,-0.045592,0.069331,-0.004406,0.042137,0.005388,-0.025977,-0.025641,0.023156,0.017293,0.008653,-0.034391,-0.013666,-0.020230
0.001667,-0.042310,0.052215,-0.006194,0.056849,0.074847,-0.080926,-0.021687,0.019636,0.020425,-0.032781,-0.048112,-0.047474,0.025643,-0.023061,0.026057,-0.074258,-0.032645,-0.021698,-0.073742,-0.009353,-0.086235,0.015454,-0.058749,0.068252,-0.041143,-0.082412,-0.113101,-0.133346,0.052904,0.023464,-0.035311,-0.021707,-0.006782,0.106052,0.014719,-0.016386,-0.045280,-0.020043,0.004564,0.014583,0.037491,0.027894,-0.029919,0.063745,0.038120,-0.031256,0.013868,-0.106769,-0.083832,-0.024714,-0.011096,0.002180,0.067741,0.048263,0.046407,0.030214,0.014620,0.054572,0.063672,0.050797,-0.104779,0.086590,0.077563,-0.091992,-0.093017,0.048784,-0.024359,0.045703,0.112941,0.036435,0.048684,-0.000522,-0.067600,0.015836,0.009913,0.132284,0.076563,0.137638,0.056185,-0.016232,-0.042452,-0.063344,-0.050580,0.006833,0.016211,0.019284,-0.083078,-0.004887,-0.045406,-0.022528,0.035736,-0.110102,-0.005293,0.005703,-0.041184
0.003458,-0.024443,0.052134,0.015838,0.076164,-0.033517,-0.014211,-0.052582,-0.007132,0.048498,0.040985,-0.020258,-0.035376,0.016694,-0.001359,-0.010331,-0.010772,-0.066115,0.002089,0.012628,-0.076550,0.000737,0.010830,-0.073908,0.006357,0.103993,-0.016998,0.025630,-0.062724,0.022946,0.041994,-0.058052,-0.053668,0.010903,0.046196,0.031160,0.132517,-0.058651,0.019774,-0.049842,-0.039580,-0.045115,0.062629,0.054873,0.032389,-0.059405,0.059492,0.036877,0.037699,-0.030647,0.012760,0.025751,-0.044495,-0.018167,0.011809,0.072395,0.118335,0.033261,-0.004173,0.073513,0.001056,-0.163662,-0.079918,0.011365,0.012842,0.020602,-0.007095,0.172870,0.110668,-0.032665,-0.051794,0.147460,0.096851,-0.018794,-0.117961,0.057025,0.015422,0.031437,0.037559,-0.097608,-0.087972,0.183048,-0.028403,-0.065710,0.038538,0.014792,0.026590,0.024357,-0.011116,-0.009823,-0.061038,-0.061891,-0.021154,0.047121,0.062739,0.076716
0.041271,0.035701,0.034303,0.011189,-0.062263,0.011363,0.052100,0.008426,-0.042657,0.064723,0.022589,0.066832,0.076234,0.003345,-0.002974,0.015723,0.114032,-0.049436,-0.122928,0.002233,0.047220,0.016627,-0.062742,-0.015294,0.024262,0.023540,0.020857,0.039226,0.000224,0.027382,0.015347,-0.009886,0.069397,0.044329,0.079744,-0.075319,0.025694,-0.101031,-0.012766,-0.011320,0.081956,-0.056882,0.010565,0.076485,0.028689,-0.029432,0.016913,-0.118689,0.028244,0.009786,-0.030923,0.030581,-0.010770,-0.037329,0.111756,0.021483,0.009406,-0.047969,-0.093555,0.048717,-0.015331,-0.032097,-0.003927,-0.006853,0.029373,-0.079858,-0.068806,0.010626,0.006507,0.046876,-0.028498,0.046052,0.090286,0.025343,-0.013855,-0.010959,0.022482,0.032257,-0.050013,-0.050530,-0.028350,0.019481,0.018323,0.014741,0.016806,0.096222,0.039981,0.034940,0.023051,0.048309,0.027236,-0.037751,0.024339,-0.002697,0.030560,0.037333
-0.071649,0.015992,-0.047073,0.025469,-0.042618,-0.058385,0.064763,0.166173,-0.013713,-0.077462,0.002280,0.015987,-0.031805,-0.094515,0.053957,-0.039642,0.070606,-0.053828,-0.051333,0.068935,0.065268,0.049316,-0.050968,-0.088937,-0.043573,0.032680,0.094357,0.015974,-0.014166,0.040962,-0.104992,0.036326,0.027207,-0.031651,0.080703,0.044171,-0.032975,-0.063399,-0.058673,0.068396,0.008393,0.014354,-0.002189,-0.010627,-0.001934,-0.003334,-0.026603,-0.120081,0.019926,-0.026489,-0.037354,0.029123,0.040570,-0.113743,-0.041108,-0.029498,0.105127,-0.003620,0.072291,0.008618,-0.041770,0.108622,0.011802,-0.052888,0.046830,-0.020761,0.013832,-0.067487,-0.052067,0.064560,0.054068,-0.051613,-0.048620,0.037697,-0.059987,-0.000732,-0.047910,0.023454,0.001056,-0.003417,-0.009042,-0.061532,-0.019897,0.035128,-0.001397,-0.126787,0.035474,0.087316,0.020249,-0.057253,-0.058846,-0.014437,0.004627,0.060675,-0.056109,-0.000162
0.085974,0.051312,-0.069462,0.048374,-0.178649,0.006382,0.031864,-0.007421,0.029117,0.003603,0.054047,0.130037,-0.010316,0.007372,0.032123,-0.010384,-0.016806,0.075662,0.000476,-0.012215,0.059855,0.068386,-0.127750,0.055914,0.002297,0.072260,-0.028830,0.037634,-0.010002,-0.095901,-0.056511,-0.041395,-0.015685,0.046047,0.026461,-0.104255,-0.011979,0.022001,-0.016835,-0.048610,0.035400,0.012503,0.006342,0.087665,0.022011,0.051538,-0.046796,-0.091090,-0.032011,-0.064246,-0.040504,0.083990,-0.023380,-0.055504,0.034151,-0.076214,0.060994,-0.052149,-0.002889,0.025013,-0.090895,-0.065758,0.025504,-0.051457,-0.040124,-0.069970,-0.009199,-0.039219,-0.047746,-0.006197,0.040172,-0.054497,-0.050069,0.023076,-0.006257,0.000797,-0.086637,-0.021342,-0.005778,0.004793,0.018531,-0.058278,-0.049593,-0.011940,0.009733,-0.045000,0.074930,0.128110,-0.057833,0.061799,0.021688,-0.115884,0.043795,0.090295,-0.010352,0.019480
0.121585,0.019334,0.002531,0.040711,0.063190,0.028503,-0.020783,0.078364,0.029567,0.024437,-0.033594,0.032342,0.034342,-0.008385,-0.041430,-0.027793,-0.012000,-0.015918,-0.041913,0.025323,-0.009139,-0.036573,0.045354,-0.139157,0.043350,0.095542,0.011410,-0.059339,-0.014481,-0.056751,0.035127,0.104400,-0.086560,-0.053675,0.024605,-0.033879,0.075985,-0.031302,-0.003109,-0.036853,-0.037905,-0.057521,0.038258,0.119564,-0.065363,0.016289,0.073585,0.021756,-0.055809,0.130775,0.035661,-0.036997,0.016289,-0.022551,-0.063814,0.003977,-0.037236,-0.052641,0.040079,-0.004503,-0.039587,-0.092065,0.024829,0.009261,-0.083515,0.017861,-0.123412,0.126022,0.016936,-0.117414,0.000681,0.031042,0.027611,0.078328,-0.061472,-0.051520,0.010492,0.018788,-0.077239,-0.004414,-0.083161,0.088104,0.011007,-0.023178,0.039064,-0.017402,0.013573,0.068714,0.037568,0.074329,0.051790,-0.003042,0.079488,-0.032924,0.123699,0.096256
0.049087,-0.009232,-0.107707,0.021543,-0.074670,-0.014367,0.038095,0.018586,-0.011773,-0.006910,0.104686,0.051958,-0.035660,0.005348,0.044055,-0.000685,0.016785,-0.018979,0.008166,-0.039015,0.019816,0.009182,-0.016488,0.021645,-0.022313,0.022146,-0.059558,0.030798,-0.042545,0.007979,-0.011769,0.009745,0.042398,-0.002535,0.016313,-0.029819,0.001926,0.011344,-0.025728,0.000512,-0.059587,0.022359,0.017788,0.019695,-0.033607,0.003600,0.025926,-0.013518,-0.006306,0.009772,0.010836,-0.018578,-0.021712,0.019426,0.025657,-0.073697,0.083963,0.017037,-0.028552,0.021508,0.029998,-0.090533,-0.059249,-0.032530,-0.027519,-0.035098,0.028120,-0.054365,0.044396,0.010592,0.025739,-0.004997,-0.052978,-0.028929,-0.035714,0.026419,-0.012233,0.045202,0.020309,0.008459,-0.014638,0.000956,-0.020414,-0.005571,0.043984,0.031843,-0.021629,-0.026642,-0.068580,0.025227,0.009074,-0.051172,-0.057232,-0.020725,0.002743,0.018356
0.023156,0.059402,-0.083489,-0.023336,0.047555,0.085913,0.024506,-0.176624,0.101832,-0.018266,-0.037441,0.065745,-0.036595,-0.069831,0.069703,-0.067561,-0.053363,-0.043581,0.028980,0.042920,0.000285,0.041519,0.002474,-0.037304,0.063648,-0.031883,-0.144405,-0.036566,-0.025677,-0.072068,-0.073933,-0.077748,0.121962,0.133004,0.013152,0.001825,0.014887,0.064906,-0.039752,0.032076,-0.114491,-0.050090,0.018369,-0.027772,0.067217,-0.106961,0.037189,-0.032205,0.099830,0.083614,0.080147,-0.052961,0.138360,0.001645,0.028901,-0.241376,-0.004292,-0.077899,0.172466,0.054379,-0.022261,0.109276,-0.008991,0.083892,-0.051234,0.011365,0.062129,0.125573,-0.093822,0.041816,-0.207892,0.069866,0.019526,-0.054465,0.026859,0.014822,0.096952,0.053978,0.047375,-0.064993,-0.117493,-0.018919,-0.006430,-0.034250,0.019216,0.098395,0.034847,0.171535,0.000796,0.055247,-0.012383,0.062799,0.014497,-0.007469,-0.055310,0.010001
-0.004726,0.005804,0.008566,-0.046192,-0.100244,0.003559,0.101563,-0.069191,0.002198,-0.014277,0.140270,0.058356,-0.022613,-0.037638,0.016734,0.045324,0.022949,-0.047883,-0.078026,-0.015354,0.077540,0.049297,0.007178,-0.045655,0.048046,-0.013293,0.003372,0.004525,-0.086065,0.018733,-0.077155,-0.042998,0.035702,0.002270,-0.043227,-0.012069,-0.058333,-0.059445,0.079567,0.019599,-0.036130,0.061033,0.019813,-0.046028,0.062967,0.024368,0.045937,-0.077263,0.001061,0.092069,0.004008,0.038481,-0.000233,0.013883,-0.006856,-0.006137,0.001857,-0.049418,-0.018750,-0.040280,-0.066055,-0.028385,-0.012115,0.028705,-0.032551,-0.050426,0.031531,-0.077420,0.023981,0.014569,-0.020801,-0.050943,-0.077693,0.047027,-0.040139,0.013111,-0.047603,0.030668,-0.008370,0.106744,-0.018145,-0.012818,0.016588,0.013510,0.043617,-0.057757,0.003845,-0.038561,-0.024272,-0.024144,-0.097529,-0.006991,0.036090,0.049768,-0.090064,0.062742
-0.022646,0.035887,0.030847,0.061103,0.052575,0.015588,-0.034999,-0.101506,0.031260,-0.004037,0.035512,0.037920,0.012652,0.035929,-0.040887,-0.045525,-0.017875,0.033332,0.060214,-0.082372,0.074050,-0.106299,0.009920,-0.060921,-0.039580,0.009470,-0.034315,-0.041495,-0.060547,0.037879,0.105197,0.029422,-0.002237,-0.010431,0.115223,-0.012661,-0.019857,-0.096419,0.013372,0.000923,-0.006842,-0.100145,-0.027934,0.066086,0.009713,0.008914,0.004186,-0.000007,0.013430,0.143338,0.079878,0.046016,-0.029668,0.019811,-0.064407,-0.047039,0.038188,0.002798,0.038969,-0.046144,-0.070948,-0.050743,0.034963,-0.023744,0.032528,0.022737,0.005546,0.092852,-0.020119,0.098731,0.037198,0.069783,0.017208,-0.087921,-0.093989,0.046098,-0.012359,0.002390,0.029684,0.044911,0.056218,-0.016296,-0.053304,-0.009921,0.076514,-0.069186,0.000767,-0.019931,0.021158,-0.010072,0.013877,-0.017450,-0.055951,0.014549,0.001715,0.012816
0.029762,0.034197,-0.056724,0.039406,0.039805,-0.019133,-0.026638,0.111799,-0.029618,-0.064895,0.004035,-0.003494,0.008281,0.059281,-0.072676,-0.021770,-0.032279,0.037025,0.048123,-0.045067,0.021662,0.049771,-0.120191,-0.009493,0.039699,0.012909,-0.084743,-0.039461,-0.004630,0.109922,0.006244,0.056733,-0.069586,-0.015221,0.133133,0.026203,0.113934,-0.023962,0.013216,-0.080226,-0.052233,0.054855,-0.084817,0.106942,-0.007525,0.006807,0.021112,0.052980,0.016088,-0.007106,-0.026826,0.034165,0.000347,-0.045857,-0.032408,0.007294,0.085756,-0.023997,0.040062,-0.088722,0.005570,0.005392,0.004915,0.026497,0.011809,-0.009735,0.102296,0.040438,0.048037,-0.024686,0.030843,-0.056940,-0.013802,-0.031056,0.012763,0.053428,0.128651,0.020613,0.026307,0.067453,-0.054589,-0.005920,-0.040915,0.104069,0.003588,-0.080425,-0.008546,0.065605,0.054309,-0.017145,-0.004542,-0.112083,-0.036510,-0.055718,-0.003683,0.033385
-0.037037,0.003468,-0.034008,0.003963,-0.012762,-0.045570,0.025683,0.043087,0.012044,0.099778,-0.038078,0.036058,-0.012332,0.008512,0.025360,0.075695,-0.100308,0.022412,-0.002019,-0.005885,0.036055,0.081456,-0.000536,0.060146,-0.010995,-0.084509,0.038430,0.043198,0.014974,-0.024005,-0.034842,0.012654,-0.016864,-0.005704,0.011842,0.040776,-0.004731,0.025264,-0.005292,0.022786,0.059757,0.063757,-0.043140,0.006592,-0.031924,0.039571,0.048418,-0.051376,0.029451,-0.102333,0.022820,0.002187,-0.011722,0.021473,-0.030097,0.044706,-0.017273,-0.040752,-0.004650,0.013597,0.018975,0.033704,-0.026778,-0.027814,-0.078991,-0.012397,-0.016418,0.001359,-0.017215,-0.024567,0.045932,-0.161877,-0.013811,-0.021413,-0.026399,-0.062155,0.065141,0.086864,-0.032498,0.106909,0.052933,-0.046901,0.032428,0.032741,-0.116956,-0.105363,0.078942,0.064915,0.046001,0.023191,0.059206,-0.018367,0.090161,0.005835,0.062028,0.069047
-0.030715,-0.020721,-0.080047,0.001201,0.074419,-0.087149,0.017451,-0.017230,0.025028,-0.103856,0.066496,0.006645,0.039825,-0.049712,0.000761,0.000705,0.035200,0.015859,-0.147545,0.015789,0.017480,0.040038,0.032772,0.040916,-0.043648,-0.064500,-0.000056,0.031222,0.007843,-0.146902,0.060559,-0.115779,0.068022,-0.000769,0.063249,-0.000747,-0.060976,0.099861,-0.065295,0.019376,0.088146,-0.069426,0.061129,-0.074270,0.022630,-0.081688,0.048722,-0.023675,0.122053,-0.015403,0.001095,-0.064375,-0.083117,-0.057798,-0.000797,-0.032062,-0.128850,0.070137,-0.024279,0.041106,-0.017162,0.004294,-0.020757,0.076885,0.019428,0.103058,-0.116831,-0.019808,-0.043351,-0.116854,0.097714,0.028039,0.019746,0.095540,-0.009216,0.003531,-0.082443,-0.048969,-0.023172,0.010328,0.030932,-0.049214,0.084672,0.036857,-0.042202,-0.030351,-0.027194,0.000336,0.099925,-0.006332,-0.040752,0.067718,0.019841,-0.010107,0.105256,-0.056093
-0.035043,0.007676,-0.000386,-0.053367,-0.048648,0.017545,-0.039607,0.061355,-0.043357,-0.046895,0.057637,0.005032,-0.031689,-0.067953,0.037726,-0.003127,0.013867,-0.032886,-0.012164,-0.051481,0.104959,-0.009425,0.014398,-0.025165,-0.014852,-0.070586,-0.037950,0.012439,-0.018075,0.064079,-0.000802,0.018916,-0.017035,0.043948,-0.046929,0.038940,-0.009613,0.007479,0.048448,-0.038458,0.100991,0.092352,-0.003518,-0.010438,0.005683,-0.053150,-0.052712,-0.026275,0.023358,0.148122,0.048862,0.023807,0.088177,0.123775,-0.013206,0.027638,0.082324,-0.015047,0.010396,-0.066549,0.035405,-0.048176,0.073610,-0.013583,0.027084,-0.011725,-0.021449,-0.078162,0.022822,-0.014890,-0.025552,0.053504,0.028946,0.026614,0.031256,-0.086458,0.087672,0.065681,0.054894,-0.049181,0.035967,-0.089492,-0.001402,-0.002724,0.004609,-0.026738,-0.046463,0.059585,-0.004055,-0.055484,0.012839,0.075090,-0.003706,-0.043715,0.079878,-0.019098
-0.012315,-0.033269,0.021516,0.025103,-0.028818,0.025778,-0.000993,0.083399,0.094425,-0.061144,0.005516,0.059986,0.064245,0.016100,-0.098019,0.078915,0.114858,-0.037380,0.003196,-0.007681,-0.082142,0.007413,-0.049555,-0.035056,0.030317,-0.027565,0.041004,-0.054907,0.022055,0.025447,-0.045053,-0.011113,-0.071101,-0.159505,-0.084562,0.079169,-0.018449,0.043005,-0.046428,-0.093465,0.016108,0.020979,0.036020,-0.051299,0.108875,-0.102525,-0.017074,0.058519,0.020456,-0.006370,0.082071,-0.147525,0.129537,-0.037089,0.014258,-0.078900,-0.035505,-0.107451,-0.039060,0.051819,0.050301,0.058991,-0.057199,-0.029658,0.042333,-0.023732,-0.019937,-0.018630,0.090299,0.066037,0.034215,0.028861,-0.051969,0.035076,0.080803,0.052436,-0.074141,-0.029421,0.074069,0.060545,0.046713,-0.048321,-0.007300,0.099105,0.087709,0.006902,0.112836,0.076811,-0.063043,-0.000788,-0.023520,0.050186,0.026949,0.029231,0.055778,-0.097802
0.074677,0.069743,0.032859,0.027896,-0.004731,0.033635,-0.027262,0.076781,0.040879,0.009024,-0.043352,0.007739,-0.085324,-0.007686,-0.011472,0.017699,0.025775,0.030439,0.023602,-0.023972,-0.065968,-0.077694,-0.035070,-0.076858,-0.006981,0.052261,0.064146,0.098823,0.077112,-0.021670,0.055547,0.073708,0.021936,-0.023974,0.018334,0.073913,0.037957,0.000627,0.083734,-0.097039,-0.060065,-0.030231,-0.032861,-0.019753,-0.012169,-0.010627,0.025857,-0.018627,0.040917,0.001497,0.052105,-0.045044,-0.004949,0.020144,-0.049406,0.006227,0.101316,0.006962,-0.016260,-0.035634,0.080910,-0.047730,-0.004610,0.053951,-0.023707,0.008976,-0.023470,0.023007,-0.026942,-0.061091,-0.034116,0.043247,0.039985,-0.024284,0.053235,-0.036826,0.071373,-0.017808,0.068725,-0.016597,-0.048166,0.032113,-0.122247,0.000737,-0.023553,0.059054,-0.044178,-0.000601,-0.046886,0.019246,-0.005033,0.017053,-0.061651,-0.037345,0.008866,-0.025644
-0.079779,-0.009079,0.079672,-0.005091,-0.064819,0.101740,-0.096654,-0.034496,-0.060220,-0.082032,0.084790,-0.053479,0.005676,0.008979,0.070660,0.009071,0.052574,-0.073077,-0.026559,0.039513,-0.045754,-0.021735,0.026537,-0.019294,0.035338,0.056881,0.036633,-0.008750,-0.057529,-0.029500,-0.001441,-0.077673,0.003349,0.098084,0.071974,0.073133,0.029296,-0.068615,-0.023299,0.000943,-0.085190,0.029862,0.042624,-0.040935,-0.009249,-0.192516,-0.017508,0.013725,0.050667,-0.012903,0.012504,0.064980,0.049438,0.047437,0.080119,0.011336,0.108196,-0.016098,-0.036155,0.014693,0.019580,0.037147,0.001579,-0.065786,-0.022559,-0.177327,-0.005785,0.103954,0.058942,0.000230,0.093158,0.002391,-0.018388,0.004456,0.012237,-0.047102,-0.082610,0.065804,-0.035276,-0.026033,-0.050501,-0.004413,-0.039397,0.006930,-0.056327,-0.079202,0.029958,0.052143,0.004519,-0.048253,0.035274,0.061500,-0.058056,0.009141,0.049046,0.014191
-0.016499,0.047025,-0.020676,0.125320,0.026414,-0.051311,0.014843,0.075999,-0.027211,-0.046182,-0.050791,0.023292,-0.018173,-0.019272,0.001547,-0.019649,0.016829,0.032678,0.057326,0.006752,-0.036953,0.031466,-0.030006,-0.032611,0.015629,0.087325,-0.003403,-0.016367,-0.120965,0.014422,-0.068768,0.023639,-0.070375,-0.018737,-0.014200,0.027884,-0.040259,-0.001794,-0.035797,-0.047411,0.017315,-0.000921,-0.037212,-0.020432,0.037582,-0.049011,0.032806,0.051358,-0.003651,0.015496,-0.027830,-0.003497,0.027985,0.067960,-0.044311,-0.059569,0.032176,-0.059780,-0.026823,0.079191,-0.063026,-0.018699,0.026984,0.005997,0.008798,0.033902,-0.022327,-0.077475,0.050300,0.053178,-0.015305,0.018378,-0.034450,0.010208,-0.025804,0.064351,-0.004570,-0.038010,0.052715,-0.022942,0.014554,-0.057696,-0.061361,-0.076163,0.010031,-0.017081,-0.017310,0.058428,-0.076322,-0.024466,-0.036570,-0.016093,0.004208,0.089232,-0.037091,0.088463
-0.046643,-0.006841,0.046295,0.031744,0.045946,0.090983,-0.004012,0.021927,0.049142,0.028523,-0.074689,0.042442,0.071292,-0.001771,-0.062474,0.004160,0.009044,0.017074,-0.013585,-0.042180,0.039403,-0.049876,0.010345,-0.021190,-0.021253,-0.025748,-0.008833,-0.032479,-0.022484,0.095065,-0.028755,0.059803,0.065186,0.034423,-0.019617,-0.002988,0.037414,-0.068957,-0.001525,-0.028533,0.055627,-0.054847,-0.036402,-0.046217,-0.014592,0.074195,-0.067873,0.074966,-0.024270,-0.047516,-0.000053,-0.057520,-0.069977,0.022002,-0.017894,-0.068244,0.010554,0.023807,-0.060951,-0.014641,-0.065412,0.046874,0.015949,-0.021437,-0.025934,-0.000430,-0.030094,0.064191,-0.034105,0.059212,-0.037680,-0.119110,-0.001804,-0.057547,-0.046383,-0.027530,0.126998,-0.055220,0.029230,0.007436,0.000174,-0.056795,0.019869,0.055192,0.089684,-0.040972,0.004723,-0.004700,-0.021951,-0.005210,0.026795,-0.010296,0.029994,-0.027832,-0.018059,0.126653
0.035865,-0.071831,-0.034107,-0.029240,-0.036778,-0.034190,-0.043154,0.045034,0.030352,0.027261,-0.055345,0.010542,-0.095891,0.036006,0.007750,0.026157,0.018756,0.059130,-0.077571,0.053844,-0.020210,-0.013001,0.020812,-0.051629,-0.103700,0.026895,-0.017012,-0.027745,0.106611,-0.022881,0.030754,0.005697,0.085672,0.042211,0.086469,-0.044445,0.073588,0.031616,0.045641,0.075014,0.028646,0.016877,0.091350,0.022132,0.072864,-0.012209,-0.077898,-0.008643,-0.039639,0.028408,-0.017232,-0.012953,-0.086981,0.075420,-0.060740,-0.063159,0.025754,0.025134,0.037456,-0.018021,-0.066956,0.008501,0.148578,0.036994,0.043262,0.142703,0.042888,0.094390,-0.048732,-0.070296,-0.004005,-0.125365,0.029001,-0.014829,-0.028515,-0.043251,-0.027345,-0.147584,0.006920,-0.007750,-0.024232,-0.063415,0.121950,0.030009,0.006822,0.039904,-0.017273,0.028594,-0.005597,-0.042002,0.008901,0.008105,-0.002432,-0.046834,0.037300,0.000099
