-0.014856
0.080599
0.249972
-0.064494
0.261285
0.202727
-0.028061
0.051815
0.030031
0.196843
0.085315
0.008084
0.223878
0.162398
0.220313
-0.076186
0.096871
-0.151661
0.272935
0.187246
-0.081118
0.107064
0.267647
-0.120682
0.070050
0.128382
0.206479
0.016422
-0.032606
-0.020193
0.041677
0.115789
-0.060321
-0.076410
-0.083468
0.228371
-0.089979
-0.055480
-0.019254
0.311481
0.220218
0.122135
-0.265186
0.113266
-0.017394
0.114070
-0.075368
-0.038014
0.110687
0.219060
0.006532
0.063432
-0.023650
0.037035
0.100446
0.119178
0.136171
-0.109485
0.063218
0.084103
0.128143
0.166583
-0.062167
-0.171728
0.124908
-0.020068
0.087189
-0.137475
-0.079468
-0.000386
-0.034195
0.045057
-0.069578
0.120691
-0.063781
0.222374
0.142810
0.134429
0.263392
-0.019070
0.149735
-0.014978
-0.062082
0.170874
0.100734
0.133265
0.085640
-0.008518
-0.021175
-0.089855
0.004481
0.006711
0.012834
-0.062421
0.120281
0.144590
-0.096037
0.157211
-0.162194
0.074670
-0.061587
0.252818
-0.120914
0.088640
-0.092764
-0.035344
0.047562
0.210110
-0.141933
0.025570
0.211537
0.236970
0.070156
0.229818
0.057563
0.087240
0.068823
-0.118896
0.148904
-0.138843
0.007195
-0.095350
0.138105
0.076753
0.050609
0.066252
0.266328
0.131572
0.187431
-0.037438
-0.049409
-0.143598
-0.076344
0.111939
-0.036520
0.094238
0.117098
0.006557
0.089642
0.133200
0.169379
0.110491
0.111883
-0.097869
-0.084785
0.195340
0.094174
-0.029318
-0.099078
0.202348
-0.125499
0.059665
-0.001500
-0.144703
-0.087168
-0.002138
0.190344
-0.004038
0.205382
0.051410
-0.006648
-0.007755
-0.127049
-0.131543
-0.018780
-0.104230
-0.232536
0.259354
0.061271
0.117722
0.182559
0.241604
-0.133714
0.103814
0.233313
-0.067196
-0.105578
0.039838
-0.035958
0.187705
0.081851
-0.143619
0.099135
-0.078563
0.222600
0.225107
-0.046462
0.131574
0.128989
0.044167
0.006705
-0.197475
