-0.029539
-0.122408
-0.029368
0.018937
-0.063152
-0.030066
0.120847
0.014577
-0.039799
-0.041948
-0.026698
-0.086366
-0.091670
-0.120820
0.016381
-0.067819
0.014633
0.194925
0.053236
0.116568
-0.096121
-0.264892
-0.088130
0.173943
-0.105579
-0.238756
0.073160
-0.143525
0.080480
-0.087447
-0.062680
0.162172
-0.065732
-0.026901
0.055440
-0.051127
0.069446
-0.088304
0.107113
0.173387
-0.095872
0.019555
0.062921
-0.041416
0.047958
0.024298
-0.130669
-0.168546
-0.501723
-0.104035
-0.114294
0.016455
0.033436
-0.000183
-0.073884
-0.061616
-0.017740
0.039547
-0.031635
-0.021077
-0.042328
0.006276
-0.127844
-0.146401
-0.048253
-0.035901
-0.089596
-0.032463
-0.110899
-0.051762
0.035691
-0.030289
0.249761
0.158362
0.358984
0.138271
-0.041941
-0.125602
-0.115212
0.140377
0.032308
-0.031418
0.110608
0.060450
-0.004042
-0.154700
-0.118456
-0.028337
0.031871
-0.016893
-0.006302
0.055185
0.050620
-0.077651
-0.077818
-0.031354
-0.027734
-0.022171
0.003628
-0.216087
0.012989
0.050751
-0.086982
0.057207
-0.045171
-0.068835
0.010641
-0.015938
-0.106838
0.006681
-0.086307
-0.225506
0.152365
-0.028595
-0.031881
0.004755
-0.092584
-0.012501
-0.054436
-0.089225
-0.018127
-0.159414
0.070248
0.005733
-0.061289
0.003997
0.148238
-0.067289
0.149341
-0.157062
0.083253
-0.208965
-0.068409
-0.046237
0.003093
0.074790
-0.040500
-0.083529
-0.221559
-0.083080
0.026546
0.116902
0.048816
-0.200077
0.016548
-0.064628
-0.068653
-0.226324
-0.030202
-0.019156
-0.016017
-0.095335
-0.064533
0.016593
0.019617
-0.204057
-0.016686
-0.110841
0.001912
-0.080103
0.031868
0.001343
0.089552
-0.006665
-0.180455
0.022406
-0.079187
0.034622
-0.040987
0.168481
0.028079
0.095044
0.247618
-0.015931
-0.088619
0.048552
0.003069
-0.067281
0.138044
-0.059900
-0.024219
-0.006455
0.042058
-0.096848
0.234660
0.051564
-0.034803
-0.195397
0.068927
-0.051961
-0.145025
-0.249013
-0.037242
-0.008287
0.008306
0.066426
-0.029294
0.432509
0.110100
0.221212
-0.048741
-0.064987
-0.112605
-0.002424
0.107691
0.010935
-0.148238
-0.015498
-0.133672
0.173470
-0.050070
0.038726
0.225880
0.022666
-0.041362
-0.030880
0.028436
-0.009884
0.058660
-0.127404
-0.028915
0.077389
-0.087807
-0.150380
0.023891
-0.063001
-0.005071
0.154787
-0.131692
-0.054405
-0.036758
-0.077064
-0.011117
0.028982
0.215523
-0.010144
0.044330
-0.138184
-0.091482
-0.026171
0.009967
0.016724
0.177344
-0.049595
-0.039346
0.065066
0.071042
0.006962
-0.063020
-0.122075
-0.010100
0.072154
-0.143471
0.207451
0.073914
0.122282
0.334729
-0.272510
-0.039652
0.043248
-0.043818
0.037300
-0.035031
-0.143989
-0.083024
0.135237
0.237236
-0.028592
-0.054004
0.040780
0.086093
-0.095298
-0.040705
-0.032109
0.271309
-0.046785
-0.003706
-0.089526
0.015239
-0.114268
0.020738
-0.063787
-0.034967
-0.190292
0.033524
-0.076661
-0.002608
-0.031227
-0.032966
-0.058250
-0.153408
0.092656
0.165440
-0.050945
0.355528
-0.100568
-0.087198
-0.068195
-0.191940
-0.003198
-0.023535
-0.100876
-0.054113
-0.002839
-0.052907
-0.004273
-0.167623
-0.034918
0.120083
-0.019450
-0.030630
-0.031873
-0.055611
-0.019875
-0.162247
0.100323
-0.083465
0.010482
-0.141383
0.042689
-0.081128
0.018938
0.037646
-0.057331
-0.129095
-0.138104
0.000324
-0.064243
-0.243688
0.061003
-0.079764
-0.024502
0.049489
0.115843
-0.029180
0.081870
-0.019882
-0.035963
0.424356
-0.013356
-0.012824
-0.120669
0.221148
0.023274
0.055594
-0.059267
-0.073846
0.345663
0.027647
-0.299297
-0.084375
-0.145374
-0.214716
0.178000
0.060121
-0.044240
0.034969
-0.138160
0.013360
-0.048052
0.126500
-0.266159
0.116530
0.000433
0.164485
-0.024861
-0.030021
-0.049538
0.060496
-0.016914
-0.029730
-0.058031
0.284158
-0.201048
-0.086529
0.227333
-0.042781
-0.071139
-0.012274
-0.051757
0.021472
0.019513
-0.126321
-0.029250
0.037766
0.096480
-0.267799
0.031919
0.125913
0.079173
-0.062333
-0.045952
0.458634
-0.035996
-0.129892
-0.240880
-0.024208
-0.165602
-0.023379
0.028001
-0.004567
-0.161419
0.215150
-0.138941
-0.058959
-0.110787
-0.168192
-0.054352
-0.040356
-0.096793
-0.101719
0.135628
-0.132568
-0.043116
-0.205432
-0.107648
0.013766
0.048671
0.026534
0.117712
-0.196420
-0.011083
-0.194233
-0.105087
-0.088051
-0.121676
0.186767
-0.059598
-0.089390
-0.069929
-0.119290
0.061000
-0.005732
0.045272
0.011624
-0.034380
0.160835
-0.106802
-0.126519
-0.066966
0.015634
0.018504
0.067890
-0.072360
0.023254
0.163158
0.276139
-0.045239
0.078604
0.307068
-0.059157
-0.014089
-0.155037
-0.212720
-0.093142
-0.044961
-0.000389
-0.068070
0.112004
0.004276
0.057736
-0.167652
-0.042229
-0.136236
-0.071942
0.086276
-0.182741
-0.059756
0.282675
-0.119037
-0.084861
-0.021551
0.086308
0.423791
0.147628
0.088437
-0.094273
0.191866
-0.073498
0.018222
-0.105966
-0.113731
0.060459
0.116484
0.160106
-0.059563
0.127440
0.027896
-0.044368
-0.173484
-0.097732
0.053435
0.053307
-0.166879
0.069879
-0.034941
0.016524
0.036584
-0.078421
-0.006149
-0.124685
0.069263
0.147140
-0.038598
-0.203955
0.057353
-0.026167
0.084754
0.028076
-0.164477
0.063813
0.080678
-0.034955
-0.035249
-0.056895
-0.173707
0.036233
0.016397
-0.009439
0.077768
-0.023660
-0.084275
-0.229134
-0.128375
0.138152
0.037433
-0.168105
-0.011993
-0.017603
-0.068801
0.042725
-0.017863
-0.162025
0.210416
-0.196729
-0.117566
-0.150191
-0.023374
-0.109199
0.177643
-0.004056
-0.008774
0.126278
0.138971
-0.070976
0.347019
0.343892
0.000733
-0.066620
-0.029781
-0.143544
-0.050683
-0.045650
-0.093411
-0.010327
-0.097631
-0.036269
0.127910
-0.089378
-0.014037
0.068235
-0.119006
-0.023860
-0.048691
-0.168771
0.064626
-0.022486
-0.029793
-0.018977
-0.200622
0.248080
0.030694
0.117441
-0.093217
0.035986
0.048366
