-0.070834,-0.131887,-0.079720,-0.137003,-0.226834,-0.177706,-0.095276,-0.190812,-0.132119
-0.016985,0.157514,-0.056635,-0.180830,0.144959,0.061769,-0.159426,-0.036089,0.117562
-0.050663,-0.105100,-0.081259,-0.097930,-0.127078,-0.110035,-0.075392,-0.113444,-0.076296
0.005270,-0.067374,-0.055554,-0.079620,-0.191195,-0.114339,-0.065931,-0.149746,-0.079421
-0.035264,-0.089752,-0.051889,-0.075731,-0.141608,-0.096928,-0.056477,-0.093387,-0.073337
0.087458,0.133238,0.115727,0.008484,0.081285,0.101878,-0.154078,-0.205082,-0.134392
-0.059228,-0.117526,-0.070214,-0.102183,-0.203661,-0.146636,-0.066357,-0.142534,-0.096121
0.048587,0.119289,0.082603,0.121450,0.273279,0.167001,0.076834,0.154796,0.087754
-0.045852,-0.097474,-0.080443,-0.088193,-0.192725,-0.142302,-0.051012,-0.140921,-0.097849
0.008418,-0.081787,-0.116577,-0.055142,-0.127859,-0.110439,-0.084170,-0.103686,-0.026557
0.053570,0.102368,0.065860,0.045054,0.149615,0.139778,0.012211,0.073287,0.095612
0.071642,0.149649,0.065775,0.126916,0.232986,0.161115,0.080092,0.126751,0.107625
-0.038269,-0.198447,-0.040886,-0.170754,-0.176183,0.010719,-0.136109,0.020511,0.080826
-0.059579,-0.061933,-0.019373,0.023416,0.090449,0.084717,0.080379,0.194527,0.143481
-0.101487,-0.103067,-0.044565,-0.105664,-0.163340,-0.121648,-0.035774,-0.117637,-0.120828
0.049225,0.110371,0.101566,0.095613,0.245845,0.184341,0.046271,0.141007,0.120447
0.046066,0.122752,0.084885,0.101871,0.239114,0.154729,0.075208,0.164335,0.089643
0.046192,0.096847,0.065276,0.129797,0.263152,0.176605,0.105861,0.210764,0.136045
-0.047270,-0.082845,-0.067824,-0.105351,-0.132866,-0.099763,-0.062256,-0.099910,-0.074879
0.044796,0.113995,0.064344,0.108962,0.218024,0.116309,0.085619,0.144907,0.075524
-0.044679,-0.073870,-0.046964,-0.109954,-0.164971,-0.119281,-0.070991,-0.118447,-0.084218
-0.031633,-0.064367,-0.046846,-0.070228,-0.153386,-0.099100,-0.046605,-0.113898,-0.060536
-0.051915,-0.093778,-0.075804,-0.099576,-0.202909,-0.144425,-0.061448,-0.128496,-0.074546
0.005045,0.120247,0.124544,0.084661,0.235877,0.181633,0.088109,0.147523,0.083289
0.063748,0.102368,0.066121,0.110455,0.238150,0.153485,0.084610,0.172514,0.103491
0.082753,0.044283,-0.174951,0.114343,0.087413,-0.204786,0.090746,0.056307,-0.183802
-0.114643,-0.031299,0.169389,-0.006524,-0.189255,0.226434,0.094143,-0.195705,0.028728
-0.055945,-0.090668,-0.042916,-0.103303,-0.186115,-0.101254,-0.061449,-0.099362,-0.045406
0.026098,0.083256,0.072316,0.081956,0.183950,0.148656,0.057802,0.150523,0.126368
0.046220,0.086998,0.063474,0.096601,0.191583,0.148093,0.074173,0.139594,0.102682
-0.025569,-0.093807,-0.066141,-0.064416,-0.180863,-0.122293,-0.056541,-0.113682,-0.053638
-0.033302,-0.106746,-0.099319,-0.102125,-0.183565,-0.143185,-0.102928,-0.136814,-0.069087
-0.131867,-0.039969,0.105550,-0.179376,-0.024904,0.182779,-0.117846,0.014622,0.152012
0.050956,0.092631,0.061536,0.095943,0.173667,0.120315,0.054758,0.106296,0.064712
0.023979,0.081152,0.078774,0.085819,0.234337,0.136912,0.059179,0.156147,0.101693
0.027070,0.098240,0.079715,0.080997,0.206809,0.165860,0.068876,0.145667,0.108955
0.056060,0.104045,0.076676,0.106557,0.225482,0.155050,0.067640,0.162774,0.123780
-0.047899,-0.099631,-0.075477,-0.117928,-0.235335,-0.165075,-0.071565,-0.145747,-0.100864
-0.033392,-0.091319,-0.071632,-0.083211,-0.206286,-0.157656,-0.048374,-0.133342,-0.115643
-0.001070,0.100841,0.098345,0.090807,0.220545,0.152179,0.090337,0.152886,0.071031
-0.031756,-0.083515,-0.094174,-0.098665,-0.156866,-0.120761,-0.097155,-0.123018,-0.056393
-0.039087,-0.072635,-0.041919,-0.089076,-0.173176,-0.103682,-0.044409,-0.091803,-0.063634
0.026025,0.077563,0.054904,0.074176,0.205587,0.151288,0.053739,0.140571,0.107890
-0.080566,-0.086952,-0.000616,-0.164644,-0.208387,-0.057256,-0.113084,-0.155002,-0.049235
0.046176,0.088293,0.059611,0.112128,0.225914,0.150072,0.076289,0.154564,0.112279
-0.045756,-0.107273,-0.070049,-0.096182,-0.177282,-0.124018,-0.071405,-0.122472,-0.079443
-0.033522,-0.087733,-0.056838,-0.097467,-0.257218,-0.187430,-0.066165,-0.186716,-0.154093
-0.041224,-0.111779,-0.086338,-0.115309,-0.219162,-0.154377,-0.076431,-0.136608,-0.083047
0.096393,0.131182,0.126190,0.031211,0.060566,0.106062,-0.142857,-0.219302,-0.116196
0.079330,0.139519,0.082634,0.136954,0.269079,0.154947,0.052579,0.126893,0.079303
0.024273,0.078808,0.080210,0.064777,0.195907,0.185547,0.047349,0.146802,0.138405
-0.035249,-0.064440,-0.034933,-0.125315,-0.179540,-0.125824,-0.073376,-0.131275,-0.090189
-0.047228,-0.093836,-0.060076,-0.111614,-0.155426,-0.106996,-0.074430,-0.108164,-0.071692
0.059964,0.114690,0.069093,0.108573,0.231949,0.160322,0.069941,0.149022,0.100900
0.082591,0.127174,0.086928,0.112205,0.251148,0.188792,0.060883,0.165420,0.147076
0.096937,0.079443,-0.141805,0.161960,0.087921,-0.238042,0.132860,0.046038,-0.163182
0.051928,0.109941,0.073429,0.111023,0.257420,0.173626,0.051276,0.157061,0.119965
-0.067981,-0.130053,-0.083750,-0.128601,-0.263971,-0.161170,-0.071719,-0.161130,-0.078090
0.073598,0.139539,0.102949,0.118502,0.271367,0.185261,0.050246,0.138743,0.100046
0.092365,0.050763,-0.123184,0.140143,0.058861,-0.206503,0.134965,0.020438,-0.156064
-0.056683,-0.121657,-0.069926,-0.050842,-0.152004,-0.123694,-0.016557,-0.103656,-0.134079
0.057277,0.119790,0.083566,0.143873,0.285724,0.166595,0.080796,0.173595,0.085483
0.017424,-0.007125,-0.008758,0.103614,0.267064,0.202712,-0.130189,-0.245388,-0.137104
0.102674,0.241385,0.156597,-0.097144,-0.217946,-0.125843,-0.014612,-0.010588,-0.009658
-0.003507,0.088733,0.172760,0.011747,0.209708,0.275507,-0.030921,0.079057,0.114102
-0.034607,-0.095221,-0.071194,-0.099334,-0.166606,-0.129922,-0.078297,-0.130587,-0.094488
0.040934,0.091028,0.077939,0.087026,0.209808,0.142866,0.059395,0.156685,0.099594
-0.003805,-0.039188,-0.048993,-0.096345,-0.157730,-0.156926,-0.089188,-0.157740,-0.108801
0.028414,0.096944,0.066775,0.107200,0.190105,0.126827,0.079738,0.126113,0.086467
0.056172,0.093465,0.074485,0.109198,0.229179,0.168947,0.077209,0.169019,0.095377
-0.005560,-0.049021,-0.026748,-0.033741,-0.174801,-0.135999,-0.014531,-0.131811,-0.111656
0.034921,0.125942,0.120077,0.086466,0.288280,0.247826,0.049844,0.151613,0.126222
0.058094,0.127368,0.099439,0.102198,0.234916,0.176458,0.049205,0.133778,0.095964
0.027990,0.095208,0.077705,0.114835,0.236680,0.166153,0.086676,0.177852,0.121073
0.068241,0.134229,0.101244,0.127540,0.187057,0.133930,0.103624,0.149311,0.100991
0.042349,0.085116,0.041534,0.096686,0.199334,0.127907,0.079969,0.153357,0.106639
-0.022317,-0.111294,-0.077157,-0.070091,-0.181718,-0.151271,-0.043674,-0.136152,-0.114819
-0.052685,-0.094822,-0.071939,-0.108118,-0.147898,-0.114960,-0.072410,-0.135563,-0.090438
0.009568,0.021024,0.015544,0.016789,0.045700,0.035893,0.015695,0.033603,0.034177
0.068706,0.116135,0.086032,-0.083421,-0.060546,0.034767,-0.145524,-0.248855,-0.133512
-0.039865,-0.092597,-0.066872,-0.102834,-0.196763,-0.132081,-0.078963,-0.135066,-0.082257
0.125810,0.067151,-0.122652,0.233456,-0.061982,-0.081760,0.090176,-0.217288,-0.026799
0.119189,0.138763,0.078383,-0.118436,0.002903,0.175582,-0.086524,-0.173504,-0.159569
0.073133,0.093561,0.046561,0.122673,0.186287,0.115508,0.074928,0.134550,0.087310
-0.073511,-0.116869,-0.061068,-0.122000,-0.217538,-0.154502,-0.068892,-0.132205,-0.104976
0.050990,0.052056,-0.010460,0.095095,0.141968,0.090310,0.034223,0.131299,0.148971
0.044798,0.106279,0.090286,0.095050,0.236121,0.190030,0.062661,0.162887,0.129449
0.018406,0.069188,0.056978,0.068910,0.179367,0.127409,0.075381,0.163549,0.112761
0.052197,0.113480,0.071753,0.101770,0.199031,0.129248,0.071552,0.135245,0.077395
0.041710,0.092914,0.060154,0.076225,0.183799,0.141386,0.054141,0.122538,0.102491
0.035976,0.102597,0.083652,0.086578,0.189563,0.119606,0.062137,0.111927,0.055975
-0.030303,-0.074410,-0.060759,-0.092169,-0.144349,-0.107872,-0.051218,-0.101506,-0.072208
-0.026927,-0.090592,-0.047034,-0.086201,-0.197635,-0.143554,-0.052446,-0.145735,-0.127407
0.069954,0.153584,0.068502,0.135191,0.241981,0.153576,0.081607,0.121887,0.101271
0.050476,0.105402,0.069254,0.101890,0.214343,0.165964,0.069089,0.157065,0.121918
-0.019148,-0.114264,0.086141,-0.037083,-0.233807,0.214223,-0.045710,-0.137646,0.202791
-0.043239,-0.069347,-0.061882,-0.071510,-0.112487,-0.092846,-0.064125,-0.088264,-0.063455
-0.112199,-0.083475,0.052097,-0.105138,-0.007496,0.114794,0.043741,0.113184,0.126275
-0.097968,-0.158071,-0.122445,-0.037122,-0.021772,0.035189,0.080977,0.191114,0.192011
-0.058356,-0.097775,-0.051393,-0.103010,-0.193295,-0.127928,-0.050253,-0.118798,-0.093604
-0.074497,-0.139395,-0.117957,-0.077723,-0.098307,-0.039130,0.105692,0.184892,0.172142
0.094629,-0.113913,-0.030774,0.050136,-0.219471,0.144158,-0.099847,-0.107235,0.205406
-0.049689,-0.097565,-0.074160,-0.092671,-0.142292,-0.118009,-0.066665,-0.121686,-0.083072
0.042011,0.103985,0.070580,0.090409,0.225436,0.157837,0.049349,0.142885,0.108038
0.052500,0.122851,0.097460,0.103640,0.214095,0.177827,0.072188,0.154725,0.129360
0.061277,0.117084,0.079682,0.083558,0.168998,0.130944,0.016732,0.060182,0.054536
-0.069741,-0.132809,-0.167145,-0.126715,-0.022238,0.086317,0.133438,0.162355,0.081696
-0.092803,-0.042420,0.147890,-0.069536,-0.151184,0.028115,0.101639,-0.051898,-0.192723
-0.110334,-0.150932,-0.064984,-0.149200,-0.097127,0.041749,0.015667,0.136376,0.142475
0.050929,0.107829,0.089990,0.097627,0.232673,0.189888,0.069825,0.156955,0.122489
0.132836,0.095758,-0.115939,0.189052,0.043238,-0.200986,0.098704,-0.048776,-0.146290
-0.051031,-0.104292,-0.056988,-0.103507,-0.189554,-0.132145,-0.063342,-0.134922,-0.086805
0.041504,0.099494,0.086032,0.074082,0.188249,0.146494,0.050139,0.133005,0.100718
-0.045550,-0.109913,-0.076721,-0.104683,-0.170522,-0.130453,-0.061867,-0.117817,-0.089166
-0.071929,0.029951,0.089246,-0.157604,0.071892,0.169147,-0.134940,0.029672,0.144315
0.128109,-0.036936,-0.047581,0.232129,-0.163871,-0.058046,0.099242,-0.149443,-0.000780
0.044617,0.098765,0.080165,0.118387,0.274264,0.189010,0.076612,0.188677,0.135780
-0.046156,-0.097397,-0.096071,-0.104929,-0.188609,-0.146157,-0.084836,-0.131570,-0.072878
0.085305,0.010103,-0.147914,0.186984,0.053859,-0.257776,0.165228,0.098324,-0.130970
-0.055308,-0.093817,-0.064814,-0.113586,-0.233838,-0.126717,-0.075808,-0.142021,-0.073063
0.105788,0.009936,-0.173441,0.178025,0.069639,-0.272093,0.122422,0.077649,-0.170250
-0.077893,-0.143774,-0.079142,-0.135041,-0.183702,-0.158247,-0.077497,-0.146973,-0.134854
-0.021591,-0.116460,-0.084720,-0.157424,-0.089451,0.081273,0.032574,0.174679,0.202311
0.045195,0.087097,0.057096,0.093208,0.199371,0.146759,0.050527,0.141039,0.100570
-0.062581,-0.131982,-0.077019,-0.098310,-0.215574,-0.139222,-0.060060,-0.133096,-0.086607
0.017506,0.101845,0.098678,0.095520,0.253134,0.176619,0.076422,0.171520,0.114845
-0.049632,-0.099048,-0.060219,-0.086418,-0.118687,-0.092067,-0.051552,-0.081520,-0.064734
0.054202,0.201924,0.161381,-0.091360,0.026888,0.145026,-0.189450,-0.252768,-0.054882
0.029143,0.089761,0.073906,0.093124,0.193941,0.139134,0.073625,0.146102,0.083234
-0.081448,-0.115527,-0.042360,-0.099627,-0.180554,-0.122473,-0.031955,-0.120856,-0.123544
0.045083,0.112602,0.081114,0.130181,0.265378,0.168586,0.104132,0.190588,0.124488
-0.124518,-0.183467,-0.116480,-0.001417,-0.027332,-0.029233,0.145536,0.232816,0.147599
0.064982,0.107221,0.042078,0.116279,0.220283,0.109988,0.078220,0.157688,0.090503
-0.088100,-0.157471,-0.119342,-0.093168,-0.081817,0.039166,0.057595,0.153861,0.175657
-0.041609,-0.103360,-0.061174,-0.068202,-0.129511,-0.122746,-0.042679,-0.123576,-0.102411
-0.073029,-0.023324,0.096673,-0.128980,-0.066433,0.192825,-0.105889,-0.055656,0.132644
-0.034761,-0.075660,-0.072990,-0.104068,-0.186942,-0.139147,-0.086281,-0.141578,-0.075138
0.088847,0.178797,0.131332,0.079782,0.197356,0.137004,-0.025106,-0.010741,-0.005859
0.002354,0.091679,0.076750,0.078445,0.294894,0.219641,0.077463,0.232532,0.190863
0.082655,0.126509,0.063230,0.131702,0.205409,0.129797,0.063891,0.123603,0.068482
0.066938,0.105323,0.120276,0.030877,0.078954,0.106348,-0.130569,-0.203274,-0.098640
0.024280,0.090395,0.056876,0.103440,0.217676,0.148148,0.079373,0.153541,0.112915
0.078335,0.121626,0.079255,0.094783,0.243659,0.170406,0.011583,0.124875,0.149873
0.067556,0.130527,0.084022,0.114587,0.252243,0.172586,0.063999,0.151967,0.103086
