0.088971,0.409567,0.179345,0.014878,-0.071547,0.214089,0.006437,0.007093,-0.024097,0.169662,-0.009218,0.001517,0.065207,0.058211,-0.226456,-0.139138,-0.016729,0.084748,0.182688,-0.124683,0.022310,0.216852,0.233799,0.046968,-0.236581,0.172532,-0.106247,-0.123282,-0.064205,0.122533,-0.032419,0.034665
0.027072,0.044892,0.069475,0.087578,-0.013647,-0.215002,0.039455,-0.227230,0.193394,-0.303862,-0.045243,-0.043224,0.000818,0.117449,-0.196367,0.066315,0.148293,-0.139690,-0.242749,-0.027999,0.149095,0.109944,0.085836,0.007561,0.022826,0.154823,0.001703,0.148477,0.016404,0.001846,0.058746,-0.029835
-0.013527,-0.095939,0.247292,-0.108909,0.144249,-0.087451,0.067087,-0.155714,-0.090327,-0.005984,-0.437688,0.127682,0.097629,0.226336,-0.045922,0.036965,-0.129688,-0.000823,-0.103341,-0.031748,-0.076225,0.026508,0.032055,-0.066068,0.130585,-0.062663,-0.207535,0.010837,0.077178,-0.085646,0.043268,0.301771
0.022090,0.225636,-0.088714,-0.100516,-0.134385,-0.105464,0.160508,-0.020484,0.163298,-0.048750,-0.117354,0.021520,0.144385,0.105266,0.254822,-0.109961,-0.035549,-0.081477,-0.004688,-0.016736,0.091164,-0.056294,0.209248,0.244085,0.387914,0.101547,0.142397,-0.195063,-0.173785,-0.100085,-0.138337,0.272963
0.028087,-0.058975,-0.179732,0.207357,0.049692,-0.010012,0.371512,0.154086,-0.088453,-0.080936,-0.114722,0.352225,0.025759,-0.117578,0.100730,0.171012,0.037051,-0.214141,-0.318915,-0.131743,0.032390,-0.169179,-0.169275,0.023991,0.013524,0.204326,-0.026267,-0.022525,-0.024987,-0.078000,-0.202678,-0.128207
0.070041,-0.184731,-0.074245,0.114501,-0.093139,-0.013643,0.062238,0.003553,-0.074882,-0.015293,0.036974,0.043289,0.171966,-0.018008,0.030392,-0.121850,0.088945,-0.037273,-0.171339,-0.109868,0.034497,-0.284404,0.035559,0.152954,0.061672,-0.027926,0.007937,-0.050275,0.037321,0.018012,0.187215,-0.102674
-0.223959,-0.103078,0.082923,0.062042,-0.140765,0.174042,0.170321,-0.133384,0.034327,-0.174348,0.136824,0.023835,-0.128947,-0.065291,-0.035482,-0.055637,-0.034177,-0.005733,-0.065028,-0.160951,0.056757,0.196570,-0.068328,-0.201052,0.088093,0.105897,-0.071620,-0.060132,0.094087,0.135666,-0.021250,0.163012
-0.021201,0.049861,0.046591,0.038287,0.002745,0.086464,-0.003072,0.111395,0.023914,-0.130189,-0.172315,0.005309,0.032507,0.101554,0.197506,-0.056975,0.027868,-0.075347,0.016804,0.008535,-0.087020,0.005460,0.074336,-0.009913,0.185859,-0.025469,-0.131541,0.073587,-0.316561,-0.138336,0.117362,0.173992
-0.321842,-0.003539,-0.010263,0.135150,-0.187794,0.013949,0.045003,0.109412,-0.231556,0.167165,0.079122,-0.046746,-0.110313,-0.008723,0.028997,0.220812,-0.104914,-0.038452,0.066526,-0.219307,-0.047618,0.093185,-0.080286,0.040031,0.154520,0.142112,-0.218096,-0.346276,-0.234895,0.182656,0.077624,-0.052849
0.149493,0.284919,0.149347,-0.029810,0.156929,-0.465150,-0.044820,-0.163758,0.200543,-0.290931,-0.048386,-0.077498,0.105557,-0.124885,-0.133168,-0.202603,-0.041435,0.016823,-0.205854,0.037014,0.115107,0.053143,-0.019875,-0.052807,-0.167549,-0.082809,0.099804,0.067093,-0.048208,0.111589,0.009122,-0.078383
0.001388,0.057885,-0.139496,-0.026615,-0.033013,-0.088679,0.162634,-0.156513,0.036878,0.026904,0.160438,0.151268,0.152147,0.153190,-0.032312,0.187396,0.114858,0.018402,-0.006968,-0.157446,0.000225,-0.035219,-0.182574,-0.071436,-0.025157,-0.050089,-0.142761,-0.024508,-0.029302,0.021522,0.304461,0.095314
0.200094,-0.098297,-0.011601,0.149591,-0.072467,0.012496,-0.098326,-0.078079,-0.113655,0.038798,0.038136,-0.029293,-0.248886,-0.110840,-0.122244,0.093655,0.099813,-0.121228,-0.070877,0.173084,-0.189862,-0.035086,-0.095230,-0.048877,-0.306267,-0.008914,0.022619,-0.137811,-0.063701,0.108871,-0.071112,0.062977
0.229616,0.029630,0.117466,-0.027961,-0.175066,0.359202,-0.063078,0.098296,-0.105275,0.128685,-0.070807,0.021171,0.260027,0.026174,-0.076826,-0.178801,0.158705,-0.101943,-0.083265,-0.249747,0.018856,0.001463,0.141411,0.118532,-0.169105,0.083815,-0.020634,0.075791,0.063725,0.073799,-0.119181,0.044031
0.068238,-0.076591,0.009887,0.176719,-0.012835,0.024995,-0.193449,0.044527,-0.024249,-0.095515,0.006588,0.025227,0.003609,0.111821,-0.220270,-0.075614,0.178218,0.091576,-0.006164,-0.099516,-0.130191,0.075369,-0.253758,-0.081163,0.108003,-0.004158,-0.052270,-0.069762,-0.042356,0.125333,-0.060869,-0.048754
-0.031095,-0.044186,0.178479,0.057176,-0.111281,-0.218147,-0.148236,0.219337,0.082858,0.023864,-0.076633,0.068024,0.155180,0.135939,-0.015881,0.115976,-0.241944,-0.149110,0.005386,0.088491,-0.068068,-0.120157,-0.050798,0.223202,-0.158309,-0.089494,0.042321,0.033342,0.013368,-0.093448,0.111475,0.009761
-0.151549,-0.055219,0.026641,0.041235,-0.009690,0.152183,-0.086115,0.182797,0.294177,-0.181120,-0.206409,-0.138367,-0.215572,-0.082843,-0.057188,0.028808,0.157106,0.132612,0.098794,-0.139397,-0.091271,0.057471,0.081834,0.110828,-0.078080,0.218128,0.047936,-0.053216,-0.059926,0.015059,-0.171687,0.058171
0.017664,-0.088290,-0.001550,-0.069874,-0.045032,0.001802,-0.024132,-0.037432,-0.064972,-0.088594,-0.083029,0.088568,-0.005144,-0.084854,-0.114024,0.143092,-0.117087,-0.092155,-0.020400,-0.138096,-0.040086,0.000584,0.049326,0.086612,-0.018175,0.001896,0.037306,-0.195036,-0.033943,-0.072376,0.195410,-0.003225
-0.167228,0.028855,-0.020227,-0.143828,0.022619,0.103016,-0.176739,-0.033594,-0.041324,-0.250602,0.001799,0.177741,-0.159927,-0.122998,-0.098044,0.202945,-0.082798,-0.306597,0.276982,-0.312614,0.041209,0.025292,0.125825,-0.082071,-0.003372,0.012383,0.070360,0.057374,-0.179605,0.108925,-0.272168,0.006712
0.199089,-0.113454,0.053047,-0.051464,0.060602,-0.069399,-0.014434,-0.079715,0.209685,0.285347,0.026522,0.112773,0.110759,0.009708,0.069190,-0.023477,-0.016331,-0.024106,-0.024670,0.047175,-0.161203,0.098774,0.031573,0.029163,0.100990,-0.019577,0.260012,-0.222663,-0.240682,-0.074664,-0.193610,0.008498
-0.049284,-0.245439,-0.285904,0.099719,-0.067635,-0.152293,-0.009554,-0.055858,-0.073852,-0.113138,-0.063031,0.218209,0.085050,0.159159,-0.084826,0.089916,0.165023,0.194257,0.116981,-0.033303,-0.137139,0.106187,0.550695,-0.079649,-0.003532,0.161972,0.086738,-0.059591,-0.096853,0.123404,0.022815,0.030133
-0.134413,0.093972,-0.012936,0.196729,0.075279,-0.152562,0.295433,0.305897,-0.026177,0.135114,-0.004573,0.043721,-0.166440,-0.061182,-0.067658,-0.082549,-0.008803,0.005389,-0.074235,-0.189658,0.031142,-0.145455,0.110174,0.177705,-0.113633,0.107982,0.109916,0.046199,0.057748,-0.244813,-0.130143,-0.029866
-0.235579,0.074969,0.033890,-0.015809,-0.084465,-0.067515,-0.161806,0.113535,-0.005448,0.128672,-0.001428,-0.118947,-0.043588,-0.035765,0.030542,0.166602,-0.038127,0.129963,0.062305,-0.101267,-0.092121,-0.108426,0.002414,-0.049172,0.019427,-0.051314,-0.025342,-0.251922,-0.172763,0.133276,0.091172,-0.082012
0.037619,-0.056636,0.187582,0.067758,0.038416,0.048866,0.047034,-0.047798,0.025425,0.034077,0.158936,-0.007226,-0.047421,-0.096835,0.060961,0.006243,0.078199,-0.016420,-0.008548,0.018872,-0.144308,0.012514,0.057900,-0.071768,-0.085437,-0.060906,0.123375,0.001398,-0.165887,0.014963,-0.042558,0.030260
0.211053,0.022245,-0.399953,0.107086,-0.100710,-0.043335,0.059482,-0.118024,0.022426,0.198268,-0.422509,-0.020711,-0.128539,-0.103668,0.046275,-0.113703,-0.128519,0.045532,0.063713,-0.201285,0.297505,0.120111,-0.055172,-0.097849,0.166982,-0.030337,0.136829,0.055818,-0.218794,0.059478,0.010535,0.083060
-0.009843,0.094199,-0.292374,-0.006668,-0.065276,0.075839,-0.206729,0.080598,-0.062113,-0.078540,-0.168683,0.023219,-0.015485,0.095534,0.032022,0.057331,-0.023666,0.105034,0.016220,-0.012683,0.150225,-0.031051,-0.021150,-0.037027,0.033131,0.027985,-0.152406,0.023499,0.178218,0.055550,0.036535,-0.069092
-0.059853,0.059605,-0.135244,-0.007594,0.014845,0.015815,-0.140275,-0.065012,0.016811,0.001389,-0.004262,-0.008898,-0.027157,0.080834,-0.060127,-0.054739,0.081430,0.109913,-0.067989,-0.103081,-0.169798,-0.049506,0.063684,0.064906,-0.016408,-0.036609,0.122372,0.029754,-0.091869,-0.076608,-0.019199,-0.077871
0.016448,0.077932,-0.160551,-0.191027,0.018741,-0.103800,-0.081501,0.129734,-0.069162,0.000052,-0.192939,-0.016551,0.109793,0.019897,-0.160272,0.080183,-0.145584,0.148955,0.040846,-0.103772,0.098458,-0.095637,-0.039709,-0.072149,0.154481,0.243891,-0.153918,0.068935,0.389000,-0.033900,0.034170,-0.152482
0.088867,0.090718,0.041574,-0.027848,0.018958,-0.169993,-0.071401,-0.005624,0.088048,-0.344443,-0.045119,-0.149994,-0.054252,-0.166238,-0.134760,-0.136293,-0.008351,0.135318,-0.001783,-0.186553,0.009545,0.230864,0.079758,-0.160422,-0.169934,-0.019191,-0.028675,-0.242575,-0.057605,-0.012154,-0.099147,0.133305
-0.088158,-0.014384,-0.056174,-0.086884,-0.250937,0.081006,0.069017,-0.262576,0.038226,-0.243675,0.005561,0.074951,0.090264,-0.312250,-0.117042,0.129388,0.188520,0.108433,0.182736,-0.082968,-0.030702,0.036647,0.061668,-0.087634,-0.061962,-0.127805,0.105571,-0.090706,0.005961,-0.064066,0.157870,0.097497
0.031452,0.114284,0.021951,0.031746,-0.194240,-0.153174,0.285089,0.109275,-0.102855,-0.059465,-0.035536,-0.058954,0.117034,0.373327,-0.052411,0.026088,0.214084,0.238674,0.190517,-0.106283,-0.183153,0.117822,-0.180526,-0.069587,-0.065928,-0.225174,0.014391,-0.027587,0.008725,0.013557,-0.195193,0.094384
-0.179663,-0.109491,0.159626,-0.134382,0.090708,0.053457,0.013985,0.076156,0.034574,0.064314,-0.089111,-0.253250,-0.144591,0.300152,-0.077653,-0.050221,0.114278,-0.049438,-0.137183,0.018411,0.148680,-0.082190,0.014687,-0.147972,-0.051894,0.051255,0.115162,-0.032124,-0.016992,0.133257,-0.062847,-0.003060
-0.206259,-0.234868,-0.070894,0.066154,0.184331,0.102521,-0.098282,-0.092015,-0.217031,-0.263132,-0.147875,-0.266317,0.085359,0.123740,-0.057004,-0.289411,0.044730,0.056937,0.322177,0.018320,0.127891,-0.031451,-0.285682,-0.014201,-0.104505,0.309267,0.078639,-0.395627,-0.120085,-0.145659,-0.189144,-0.026951
-0.063131,0.183267,0.004261,0.120708,-0.016126,0.068158,0.092997,0.076083,-0.015560,-0.106368,-0.125459,-0.044411,-0.123286,-0.074819,0.205348,-0.217919,-0.054064,-0.054517,-0.038225,-0.264254,-0.233522,-0.105090,0.046479,0.077959,0.129009,0.081553,0.023332,0.054205,-0.157992,0.052521,0.076362,0.066260
-0.001374,0.048422,0.299936,-0.000397,-0.258509,-0.121148,0.206087,-0.002143,-0.102524,-0.149794,-0.126156,-0.065738,-0.094063,-0.140420,-0.251441,-0.003097,-0.020911,-0.220450,0.060819,0.053016,0.123337,-0.187579,0.028411,-0.036670,0.087184,-0.042548,-0.042099,-0.039225,0.276057,0.096663,-0.040966,0.395289
-0.027496,0.255363,0.119779,-0.108933,-0.039805,-0.004819,-0.151483,0.011837,0.147016,0.148581,-0.110611,-0.086029,-0.182788,0.066895,0.155556,-0.078754,0.224183,0.012020,0.243507,0.051414,-0.146121,0.020949,0.007243,0.034699,-0.032350,0.022407,-0.017884,0.116168,0.103785,0.108973,-0.094136,-0.099658
0.051311,-0.134056,0.118041,-0.148534,0.009240,-0.191980,-0.171439,0.115320,-0.002036,0.123684,-0.055120,0.103229,0.051829,0.025942,-0.346759,0.086906,0.012604,0.048608,0.081411,-0.025293,-0.118367,-0.082896,-0.121635,-0.030284,0.032741,0.106553,0.012465,0.062351,0.019136,-0.020812,0.041618,-0.017582
0.017601,-0.117887,0.229386,0.035710,-0.236378,0.015223,0.265000,0.144407,0.071486,-0.160084,-0.186594,-0.132897,-0.147497,0.134021,-0.007295,0.131479,-0.030849,0.053966,-0.152305,-0.036341,0.106627,0.227640,-0.039177,0.038815,-0.089506,0.056368,-0.054284,0.006617,0.051121,0.014693,-0.277634,-0.015501
0.018524,-0.103464,0.001409,-0.010598,-0.001764,-0.110120,-0.039837,0.165783,0.296108,0.198327,0.150613,0.352950,0.068502,-0.010749,-0.161999,-0.064215,0.201717,0.139610,0.035086,-0.132982,0.119013,0.131220,-0.166894,0.113665,0.119268,0.026505,0.224273,-0.172606,0.004349,0.093967,-0.094742,-0.202375
0.162493,0.196904,-0.068570,0.033432,0.062774,-0.017347,0.066358,-0.128198,-0.031984,-0.070608,0.159818,0.254992,-0.024016,-0.258919,-0.002568,0.021851,0.044119,-0.161027,-0.030175,-0.138411,-0.008956,0.051976,0.177066,0.072064,0.139449,-0.053414,-0.033771,-0.020198,0.081836,0.022908,0.359086,0.038830
0.351533,0.294503,0.076598,0.103675,-0.063634,0.151300,0.117108,0.004963,-0.039146,-0.260884,-0.005993,-0.310736,-0.114829,0.000935,0.455443,0.045535,-0.016158,0.073479,-0.111577,-0.138837,-0.088605,-0.115771,-0.149678,0.091213,0.221087,0.132716,-0.058026,-0.032556,0.007101,-0.016197,-0.109686,0.008795
0.004988,0.092851,0.033888,0.039654,-0.001363,0.248735,-0.062845,0.139926,-0.072519,0.081046,-0.036739,-0.074226,0.157907,-0.131618,-0.062934,0.052906,0.114610,-0.094445,0.008075,-0.255270,0.050522,0.147192,0.081306,0.097216,-0.113109,0.201763,-0.011966,-0.143765,-0.010049,0.106260,0.057787,0.085959
0.048724,0.060129,-0.100137,0.004807,0.148610,0.039994,0.073230,-0.020438,0.007213,0.038427,-0.003250,-0.059006,0.051065,0.051231,0.088221,-0.033733,0.033631,0.072625,-0.031393,0.020890,-0.028214,0.040459,0.031066,0.075309,0.022362,-0.014729,-0.050069,0.031127,-0.207927,0.009131,-0.025780,-0.109912
-0.032794,0.088928,-0.122392,0.163919,-0.194902,-0.036719,0.140024,-0.083114,-0.008512,-0.141208,-0.017727,0.146903,-0.027950,0.044931,-0.159406,0.007366,0.140449,0.118583,-0.116635,-0.249979,-0.232968,0.044875,0.140424,0.022895,0.027754,-0.011799,0.176483,0.046773,0.030235,-0.065552,-0.027088,0.062889
-0.064667,-0.042750,0.028473,0.074902,-0.021648,-0.187989,0.023103,0.049997,-0.048600,0.015196,-0.018506,0.124101,-0.070342,-0.361867,-0.509742,-0.143177,0.127013,0.068924,0.137157,-0.148307,-0.173327,-0.031159,-0.099869,0.246605,-0.023655,-0.044742,0.025468,0.017370,0.251601,0.066231,-0.026745,-0.157736
-0.053437,0.019881,0.181905,-0.039390,0.087909,0.198267,-0.277592,0.013618,0.059157,0.037640,-0.179529,-0.042006,-0.161977,0.324069,0.056273,-0.136353,0.149317,-0.105657,-0.213181,-0.071118,-0.058646,-0.147423,-0.182501,-0.209102,0.130809,0.089933,0.068253,-0.082573,0.053628,0.187901,0.008322,-0.089398
-0.120011,-0.000643,-0.110712,-0.107438,0.125750,-0.080168,-0.054898,0.093934,0.034681,0.030894,-0.049633,-0.126147,-0.031293,0.070683,-0.247202,0.005904,0.033983,-0.038518,0.054492,-0.052318,-0.090306,-0.044975,0.026961,0.026048,-0.066140,-0.031836,0.128797,-0.043155,-0.061489,-0.095270,-0.032379,-0.031668
0.147743,0.067645,-0.235101,-0.144392,0.093809,-0.146909,0.341085,-0.017762,0.079649,0.038902,-0.040068,0.003683,0.113987,0.013274,-0.024394,0.080881,0.081988,-0.011313,-0.119888,-0.040272,-0.173007,0.126518,-0.273172,0.225287,-0.098016,0.068105,-0.329021,0.007656,-0.076609,-0.104725,-0.062765,-0.069824
-0.243087,-0.008593,0.177741,0.393359,0.195706,0.053609,0.242927,-0.145173,0.112719,-0.176895,0.071855,-0.187130,0.099365,0.006898,0.204772,0.005300,0.042670,-0.271479,0.070573,-0.075446,-0.319279,-0.019813,0.176020,0.112017,-0.177134,-0.085388,-0.204928,-0.025118,0.013573,-0.010842,-0.005507,-0.152986
0.031605,0.003211,-0.264218,-0.003040,0.045233,-0.024872,-0.243433,-0.067345,0.011358,0.000977,-0.041859,0.050956,0.170227,0.171727,0.008493,0.032482,0.036735,0.064181,-0.090457,-0.071688,-0.190040,-0.105379,-0.100664,0.154180,-0.089477,0.033856,0.022017,0.000741,-0.209607,-0.076690,0.015695,-0.117192
-0.030574,-0.079126,0.153633,-0.179848,0.146236,0.085694,0.245317,0.118491,-0.077429,0.029234,0.010143,0.027901,-0.230512,-0.009025,0.080912,0.008511,-0.334821,-0.030412,-0.295283,0.030066,0.046539,0.048401,0.182992,0.096253,-0.099617,0.252101,0.151524,-0.186151,0.343260,0.144847,0.012707,-0.087992
-0.185614,-0.192475,-0.039214,-0.114136,0.006927,-0.236921,-0.107071,0.057730,-0.143767,0.080578,-0.080742,-0.159325,-0.048916,-0.020843,0.384493,0.028158,0.311834,-0.135100,0.034270,-0.114217,-0.111673,0.205186,-0.088477,0.128093,0.033136,0.133960,0.090663,0.035405,0.180131,0.008032,-0.030960,0.073652
-0.014313,0.042196,-0.118713,-0.078664,-0.033347,-0.067162,-0.108201,0.065691,0.233809,-0.039618,0.017491,0.097043,0.205706,0.160892,-0.118813,0.119341,0.007854,0.046417,0.021704,-0.045606,0.186179,0.048025,0.007319,-0.047773,0.218538,0.007931,0.045615,-0.288227,0.310780,-0.068813,-0.165894,-0.004205
0.083760,-0.039682,0.035540,0.055985,0.049975,-0.046210,-0.008887,-0.056983,-0.112805,0.066879,0.048123,-0.028852,-0.126430,-0.104010,-0.141039,-0.036619,0.061031,-0.195079,-0.012327,0.145197,-0.203527,-0.074453,-0.030303,0.087282,-0.173396,0.108450,0.027275,-0.119704,-0.071727,0.129544,-0.064488,-0.024499
0.085096,-0.066346,0.048637,0.020859,0.147381,-0.105684,-0.073579,-0.031581,0.017682,0.022111,-0.046131,0.035657,0.096615,0.018862,-0.103856,0.047682,-0.016248,-0.135751,0.011829,0.081569,-0.220171,-0.056055,-0.069820,0.134706,-0.100063,0.022298,-0.061775,-0.105043,-0.136229,-0.023279,-0.012240,0.019309
-0.058996,0.203126,-0.045149,0.097434,0.063081,0.307459,0.054565,0.045682,0.002847,0.086911,-0.049321,0.033240,0.157786,-0.067483,-0.087939,0.139155,0.032710,0.010390,0.124125,0.043318,-0.033122,0.036655,-0.040037,-0.010180,-0.071395,0.133798,0.120590,0.036784,0.008288,0.043838,-0.003917,0.107702
0.012278,-0.027611,-0.033750,-0.006777,0.145609,-0.000148,-0.167015,-0.023505,0.148503,-0.066570,-0.120440,-0.053729,-0.177650,-0.115520,-0.082501,0.059845,0.106628,0.040074,0.006381,-0.037124,-0.019919,-0.020368,0.013427,0.198508,0.019889,0.131513,-0.094760,-0.016564,-0.052248,-0.157680,0.010976,0.102595
-0.141965,-0.178107,0.023167,0.072699,0.050301,-0.037235,0.054133,0.248695,0.183083,-0.050004,-0.115219,-0.071681,-0.043103,0.024762,-0.249094,0.095643,0.034748,0.038845,-0.029185,0.002315,0.090202,0.227040,0.046772,0.162222,-0.143533,-0.064473,0.044067,-0.089092,-0.070255,0.045798,-0.055131,-0.119162
0.168413,-0.132133,0.011914,-0.036356,-0.078014,0.109568,0.078153,0.051668,-0.101988,-0.269381,-0.039525,0.028184,-0.039489,-0.127293,-0.192312,-0.045601,-0.007039,-0.216966,-0.228705,-0.334944,0.096182,0.013832,0.112873,0.054365,0.042414,-0.007125,-0.005348,-0.271524,-0.065346,-0.104022,0.151414,-0.147318
0.100735,-0.091497,0.231055,-0.105877,0.033494,-0.017891,0.239292,0.058829,-0.034090,-0.232859,0.083169,-0.159441,0.077961,-0.224319,-0.221068,0.134378,0.081316,0.284900,0.200386,-0.176467,-0.029190,0.062890,0.011878,0.025220,0.300731,0.101858,-0.027152,0.109642,-0.004481,-0.003098,-0.026658,0.059140
-0.035278,0.016930,-0.036340,0.176315,0.126499,0.097231,-0.051649,-0.011469,0.037430,-0.160793,0.000803,-0.180139,0.047924,0.041333,0.129824,0.175217,0.031096,-0.129521,0.010706,0.029888,-0.194062,-0.058308,0.077300,-0.155539,-0.261587,-0.072102,-0.191847,-0.039421,0.050367,-0.091604,0.034622,-0.062019
-0.174603,0.154984,-0.137997,-0.056123,-0.089411,0.035881,0.091132,-0.088808,-0.034758,0.000031,-0.068322,-0.097155,0.151730,-0.180430,0.294553,-0.050254,-0.016449,0.020879,0.226612,-0.087966,-0.146129,-0.088845,0.134833,0.005502,-0.083829,0.046934,0.097525,0.024936,-0.176606,-0.244386,0.112649,-0.166234
-0.014140,0.040919,-0.040242,-0.065796,0.204994,0.056866,0.079269,0.037050,0.040854,0.012852,0.044475,-0.092692,0.035573,0.046094,0.095865,-0.073370,0.086796,0.091370,-0.022677,-0.083144,-0.028041,0.008323,0.013379,0.029207,0.044686,0.014715,-0.009999,0.085695,-0.255854,-0.030666,0.036133,-0.101654
-0.094025,-0.228257,0.041539,-0.107029,-0.093058,-0.042166,-0.096579,-0.109216,-0.035958,-0.083052,-0.018461,-0.026598,-0.281337,0.088921,0.073878,-0.131888,0.093837,0.014779,0.062303,-0.065814,0.002713,-0.097962,0.082671,0.013669,0.061159,-0.037262,0.119519,-0.112266,0.045521,-0.175901,0.052100,-0.126499
0.006572,-0.007234,0.168538,0.057167,-0.051451,0.153149,0.028915,-0.047307,-0.162220,-0.181827,0.325694,0.051317,-0.213594,-0.022845,0.036222,0.026049,0.159269,-0.087764,-0.254976,0.112888,-0.302008,0.121456,0.016276,0.038981,-0.283106,-0.005419,0.216061,-0.091915,-0.291225,-0.035729,0.033374,0.058858
0.201409,-0.161027,0.125320,0.047303,0.082772,-0.102125,0.082449,-0.026383,0.085687,0.198197,0.109500,0.019186,0.022137,-0.099354,-0.006028,-0.045413,-0.082443,-0.205622,0.026311,0.111830,-0.234146,0.002045,-0.045315,0.109980,0.005044,0.189070,0.125253,-0.192789,-0.203133,-0.003414,-0.171197,0.052312
0.066293,0.112332,-0.187487,0.008062,-0.104326,-0.012085,-0.071691,-0.103352,0.038797,0.092638,-0.071351,0.034096,-0.064436,-0.086723,0.059294,0.136418,0.079308,0.032494,0.102508,-0.054689,-0.050946,-0.262333,0.072455,0.003534,-0.102142,0.070379,0.156014,-0.321818,0.198809,0.216358,-0.007205,-0.119072
0.006791,0.078745,0.107385,-0.085267,-0.056031,-0.130754,-0.224679,0.089914,0.238605,0.069299,-0.176741,-0.032372,-0.118819,0.033249,0.057679,0.250875,0.080771,0.175291,0.142963,0.073210,0.000521,-0.038239,0.044391,0.129485,-0.214728,0.063265,-0.110414,-0.037888,-0.099321,-0.094852,-0.014668,-0.045718
-0.075136,0.053998,0.140203,0.135259,-0.118733,-0.148694,0.179820,-0.021001,-0.109651,0.098629,0.069439,0.070284,0.019803,0.008947,0.020443,-0.199936,0.063437,0.063630,0.050106,-0.067496,-0.018642,-0.028103,-0.175479,0.120144,0.206464,0.208384,0.018597,0.226946,-0.057047,-0.053400,-0.028326,-0.116110
-0.134345,0.134769,-0.320921,-0.029493,0.017065,0.066590,0.085447,0.173109,-0.172641,-0.147426,-0.178766,0.047542,-0.195134,-0.012967,-0.022242,-0.147946,0.055209,0.085737,-0.132485,-0.016779,0.313323,0.043224,-0.084113,0.136868,-0.036131,-0.033527,-0.178669,0.213042,-0.033272,0.080760,0.130090,0.006639
0.102991,-0.022568,-0.050691,-0.083591,-0.019489,0.209991,0.185815,-0.010725,0.162107,-0.120064,-0.007342,0.065978,-0.219312,0.140968,-0.105028,-0.002503,0.049015,-0.015899,0.172185,0.019060,-0.043082,-0.116147,0.034763,0.001138,0.007573,-0.041340,0.024795,-0.020356,0.060161,-0.062362,0.049847,-0.053182
0.040700,0.110811,0.192280,0.100344,-0.117437,-0.039305,-0.007531,0.043288,0.051257,-0.019203,-0.045083,-0.243777,-0.078095,-0.024238,0.041522,0.246414,0.484119,0.108630,0.043242,0.082987,0.409028,-0.143091,-0.070167,-0.176448,0.002369,-0.053922,-0.017826,-0.132838,-0.040265,0.015874,-0.158683,-0.206518
0.243828,-0.075840,-0.057451,-0.065471,0.094935,0.122108,-0.003863,-0.025449,0.135937,-0.151205,-0.109117,0.167308,0.090017,0.052700,0.050482,-0.124764,0.199398,0.024573,0.082475,0.132940,-0.071442,-0.107150,0.153398,0.038735,-0.098443,-0.059788,0.336198,0.274639,0.272556,-0.174359,-0.026491,0.022328
0.113294,0.101402,-0.130474,-0.129913,0.058096,-0.229761,0.013623,0.193937,-0.167763,-0.075800,-0.157235,-0.086123,0.066083,0.063017,-0.250491,0.104852,-0.077938,0.033818,0.063113,-0.105008,0.061854,-0.220831,-0.007130,-0.037833,0.186120,0.336362,-0.159756,0.103283,0.333481,0.143603,0.021151,-0.099090
-0.304581,0.215782,-0.242724,-0.013826,0.040780,0.013883,0.120527,-0.049970,0.269706,-0.151280,-0.001760,0.048063,0.161810,-0.026920,0.138495,-0.172828,0.045366,0.012342,-0.089799,-0.097003,-0.032923,0.050307,0.075157,0.108494,0.097040,-0.163981,-0.003761,-0.167363,0.027832,0.020692,-0.059243,0.011129
0.121017,-0.039905,0.000220,0.195188,-0.249753,0.061913,0.107978,-0.110815,-0.059900,-0.190595,0.086826,0.288316,0.053802,0.177780,0.189669,-0.059696,0.029563,0.128206,-0.065643,-0.126961,-0.178143,0.114391,0.026198,-0.142896,0.141828,0.013320,-0.033173,0.037733,0.125545,0.375125,-0.013578,0.061223
-0.133579,-0.012029,0.160057,0.148966,0.220027,0.114235,0.165707,-0.143983,-0.071243,-0.135443,-0.015740,-0.048106,0.045604,-0.018246,0.169496,0.070562,0.007227,-0.008318,-0.054832,0.050821,-0.203970,0.069598,0.125650,0.051754,-0.145063,-0.124417,-0.200471,-0.084592,0.015160,-0.060773,-0.045547,-0.093210
-0.076222,-0.118741,-0.131399,-0.007193,0.025094,-0.027726,-0.191938,-0.084357,-0.015500,0.033006,0.024806,-0.018155,0.061651,-0.062188,-0.003436,0.025380,-0.010106,0.115781,-0.096623,-0.090812,-0.126508,-0.147823,-0.026167,0.048515,0.068692,-0.047495,0.028461,0.037632,-0.084157,0.013064,-0.036504,-0.015650
-0.031731,0.115446,-0.322551,-0.068562,-0.008333,-0.029148,-0.065527,0.023622,0.027386,0.018757,-0.133754,-0.039904,-0.012757,0.115726,-0.099532,0.011377,-0.021329,0.001614,0.002338,0.048211,0.130853,0.021359,-0.009682,0.102318,-0.038905,-0.028909,-0.020586,-0.070472,0.015610,0.006144,-0.017260,0.022023
0.157222,0.076088,0.035615,0.087638,-0.044513,-0.006634,-0.023531,-0.019447,-0.042464,-0.045002,0.029824,0.241048,0.053954,-0.025316,0.215876,-0.009700,-0.032433,0.015696,-0.003077,0.000315,0.003855,0.092263,-0.130025,0.059233,0.029520,0.096977,-0.110610,-0.000182,0.088726,0.081058,0.074985,0.004528
-0.046516,0.185465,-0.057809,0.069821,0.044951,-0.140839,-0.036980,-0.085140,-0.055338,-0.008873,-0.030477,0.032006,0.049688,-0.354477,-0.054581,-0.003056,0.110793,-0.061000,0.222201,-0.013868,0.133396,-0.134397,-0.166553,0.176714,-0.125533,0.018826,0.055653,-0.230320,-0.093538,-0.455776,0.142435,-0.158707
0.250771,-0.036705,-0.028781,-0.063668,0.098212,-0.016428,0.158692,0.118013,0.054328,-0.024773,0.106065,-0.012092,0.098945,0.184099,0.000477,0.146678,-0.107381,-0.040960,0.086638,0.033780,0.015396,0.173662,-0.141027,0.139670,-0.029223,-0.080707,-0.351967,0.062010,0.024151,0.279604,0.052713,0.221580
0.140832,0.074126,-0.156544,-0.288145,-0.061894,-0.009591,-0.048802,0.310450,-0.178132,-0.015853,0.048661,0.185394,-0.190579,-0.115267,-0.153889,-0.186222,0.119671,0.102111,-0.175914,0.184589,0.094309,0.093650,-0.223891,0.149480,0.029688,0.156305,0.123730,-0.024766,-0.328833,0.052099,0.044332,0.074177
0.223270,0.245870,0.053820,0.319691,0.048032,0.109086,-0.378147,-0.072674,-0.160570,-0.100986,0.172757,0.146638,-0.029190,0.036820,0.255905,-0.061329,-0.015113,-0.102281,0.189783,-0.193001,-0.076175,-0.163314,-0.253415,0.030168,0.367207,0.002894,-0.141143,0.040500,-0.067101,0.130520,0.124947,0.025460
0.003924,0.229596,0.036828,-0.053420,0.090087,-0.068460,-0.048117,-0.026968,0.053893,-0.013447,0.006037,0.011520,-0.229407,0.136775,0.005332,-0.005083,0.015353,0.024902,0.232834,-0.025302,-0.122403,0.162653,0.044686,-0.001681,-0.003963,-0.014720,0.044918,0.003376,0.053818,-0.008220,0.040063,0.006415
0.014709,0.073710,-0.104893,0.046603,-0.001315,-0.200328,0.293376,-0.053205,-0.179951,-0.184744,-0.149428,-0.223275,0.008403,-0.291689,-0.138170,0.068055,0.088814,0.062731,0.127362,0.098766,-0.018647,-0.122545,0.349195,0.285531,0.013589,0.101486,0.056259,-0.019050,-0.091202,-0.062538,-0.112889,0.125407
0.049689,-0.066061,0.139744,-0.049190,-0.001251,-0.061020,-0.076319,0.069048,-0.036819,0.073635,-0.047106,0.079407,-0.031713,-0.043011,-0.189558,-0.072091,0.000923,-0.069960,0.031311,-0.007740,-0.092025,-0.071286,-0.071115,-0.040843,0.018574,0.095512,0.031442,0.042494,0.003909,0.046161,0.058568,0.058401
0.151419,0.002187,-0.063304,0.001625,0.063442,-0.096956,0.073454,0.061772,-0.145115,0.096185,-0.024319,-0.005992,0.184384,0.063188,0.089584,0.133194,0.023805,0.038826,0.048778,0.051385,0.069147,-0.002648,-0.198825,0.247622,-0.111204,-0.129825,0.008988,0.000067,-0.130658,-0.167768,0.013081,-0.252460
0.088885,0.106739,-0.233269,-0.085805,0.124407,0.048286,0.036371,0.288594,0.162382,-0.016953,-0.168790,-0.232392,-0.022027,-0.302382,-0.201582,-0.012983,-0.035769,-0.319714,-0.153337,0.130736,-0.210590,0.008727,0.044642,0.050959,0.112428,-0.076407,-0.122213,-0.176905,-0.024065,-0.073923,-0.128744,-0.032803
0.121001,-0.045231,-0.138801,0.156107,0.089799,0.226496,0.324260,-0.008779,-0.046349,-0.270490,0.110815,-0.040293,0.001632,-0.194429,-0.087726,-0.064835,-0.084215,-0.128288,-0.104511,-0.097300,-0.098383,0.240942,-0.130320,0.048041,0.293294,0.029995,-0.057526,-0.053222,0.126464,0.163563,0.018941,0.015550
0.380821,-0.179223,0.132772,0.048841,0.124909,-0.196566,-0.024383,-0.010127,-0.137545,0.179675,0.074342,-0.067631,-0.117698,-0.068445,-0.285665,0.103867,0.077592,-0.065353,0.087570,0.044154,-0.241229,-0.162479,-0.026728,-0.075862,-0.071277,0.212729,0.101023,-0.084365,-0.003669,0.196601,-0.105931,-0.073568
0.175558,0.080930,0.019700,-0.129747,-0.018265,-0.060600,0.091845,0.021122,0.047105,-0.042261,0.064869,-0.083069,0.109218,-0.051949,0.128736,-0.006579,-0.084433,-0.112078,0.141645,-0.048830,-0.071236,-0.180426,0.071536,-0.030434,0.160994,0.233602,0.106364,-0.167211,-0.071900,-0.185841,-0.032403,0.174438
-0.226880,-0.069952,0.165548,-0.008015,0.024158,0.032721,0.128118,0.128593,0.126197,-0.167820,-0.020839,0.017021,0.192962,-0.062735,0.099971,-0.091087,0.022051,0.065935,0.139626,-0.085368,-0.055679,0.137377,0.063702,0.080375,0.157575,0.011459,-0.101703,0.172830,-0.151296,-0.158563,0.134265,-0.090075
-0.094377,0.050574,-0.042101,0.128444,-0.107419,-0.006854,0.265012,-0.025662,0.038803,-0.106849,0.057844,0.198822,-0.322544,0.145264,-0.142311,0.018246,-0.270596,0.148655,0.104596,0.048378,-0.077521,-0.318120,0.013777,-0.094877,0.189745,-0.026377,-0.079545,-0.234711,-0.253538,0.079464,0.071979,-0.246291
0.035115,0.072676,-0.222985,0.360053,0.014085,-0.182712,-0.280367,0.078345,-0.134225,-0.045073,-0.008006,0.114577,0.075029,0.087015,-0.033501,-0.111027,0.181515,-0.151653,0.221997,0.147699,-0.041207,-0.157697,0.304956,0.028208,0.212424,-0.016312,-0.086335,0.086914,-0.182700,0.016476,-0.072427,0.055057
-0.005879,-0.051004,-0.008390,0.194379,0.120649,-0.005802,0.005472,-0.116673,0.077932,-0.003579,0.070768,-0.114887,0.011444,0.074644,0.056119,0.107504,0.027043,-0.152612,0.025532,0.020671,-0.181598,-0.024569,0.016478,0.122882,-0.215991,-0.081446,-0.017970,-0.138288,-0.082196,0.023215,-0.040663,-0.047216
-0.118593,-0.071563,-0.152000,-0.013922,-0.022905,-0.037747,-0.151537,-0.044140,0.038504,-0.064155,-0.012418,0.003507,0.084409,-0.007316,0.047638,-0.003086,0.000049,0.080763,-0.092017,-0.159217,-0.184453,-0.225520,-0.033310,0.048588,0.004790,-0.026640,0.077963,0.041764,-0.135314,0.000992,-0.005015,-0.024844
-0.043759,-0.217705,-0.183221,0.074302,0.014913,0.152580,0.246749,0.041361,0.003273,-0.123916,0.113649,0.075215,-0.100595,-0.229521,0.020388,-0.024210,-0.023300,0.141100,0.203659,-0.215680,-0.086223,0.037988,-0.035200,0.120294,0.024016,0.295238,-0.169807,-0.257529,0.048054,-0.002585,-0.003894,0.214924
0.013362,0.077988,-0.035430,-0.002035,0.078171,0.075643,-0.208454,0.085561,-0.089998,0.125374,-0.173425,-0.072834,0.363571,-0.161781,0.064336,0.087299,0.370566,-0.143522,-0.143866,-0.179203,-0.019788,0.300930,0.094383,0.163283,-0.188129,0.247460,0.063937,0.069983,0.074059,0.092123,0.022097,0.171569
-0.003456,0.250493,-0.146681,0.235611,-0.040706,0.009091,-0.148120,-0.019392,-0.059054,-0.048023,0.020892,0.093950,-0.022116,-0.128982,0.004516,-0.182908,0.012062,0.021561,-0.018501,-0.171528,-0.286143,0.081124,-0.023457,-0.022030,0.138647,-0.063981,0.028222,-0.016110,0.023299,-0.356718,-0.213177,-0.075922
-0.230639,-0.151899,0.001994,-0.141898,-0.172522,0.139762,0.179815,-0.031636,0.095785,-0.145116,-0.253767,-0.438024,-0.088150,0.038334,-0.303082,0.169016,0.077215,-0.058793,-0.201755,0.041174,-0.108470,0.271246,-0.041424,0.026024,0.089996,0.078341,0.071288,-0.133346,-0.080492,0.191412,-0.079563,-0.150075
-0.054945,-0.305853,-0.104088,-0.146309,-0.127678,0.018264,-0.102522,-0.102490,-0.001946,-0.113878,-0.018405,0.010268,0.109245,-0.133599,-0.041919,0.075535,-0.073304,-0.082705,-0.291541,-0.076363,0.028426,-0.400607,-0.092012,0.076037,0.064684,-0.168078,0.049893,0.117466,-0.245607,-0.029707,-0.084959,-0.205184
-0.038134,0.119680,-0.171090,-0.056060,0.168223,0.080939,-0.022674,-0.162488,0.051101,0.097082,0.231424,-0.399752,0.024884,0.239551,-0.226603,-0.047815,-0.169894,-0.288101,-0.048584,-0.236358,-0.049889,0.155760,0.153967,0.098296,0.034557,0.000804,-0.016110,0.146539,0.063323,-0.232626,0.043497,-0.221456
0.039576,-0.043011,0.095196,-0.015679,0.196128,-0.095129,0.234943,-0.137111,0.002108,0.076082,-0.354855,0.092768,0.094578,-0.057063,-0.028628,0.002592,0.015809,0.050520,0.037941,-0.173225,0.004466,-0.047494,-0.008878,0.018203,0.146297,-0.163352,-0.224295,0.021556,0.087424,-0.062659,-0.024089,0.153651
-0.009600,0.020811,-0.050360,0.087743,0.040564,0.000260,0.004134,0.059980,0.128918,0.141062,0.110551,0.161854,-0.216579,0.073784,0.132128,-0.083273,0.040099,0.066101,0.061659,-0.094787,-0.068317,-0.107770,0.081114,0.132517,-0.010373,0.192276,-0.204199,0.140514,0.040212,-0.016216,-0.063756,0.119224
0.017770,-0.057639,-0.194185,0.161639,-0.070408,-0.077217,0.046885,-0.101418,0.147062,0.041357,-0.160010,-0.093410,-0.056526,-0.142546,-0.050391,-0.011322,-0.159435,-0.225790,0.157596,-0.229981,-0.109674,0.021890,0.000292,-0.242646,-0.172352,0.095300,0.065403,0.007765,0.180302,0.027177,-0.002128,-0.159025
-0.233563,0.010828,-0.126835,-0.143291,0.016707,-0.148816,-0.062185,0.015137,-0.069536,0.251567,-0.069900,-0.113025,0.023728,0.403101,-0.087560,-0.047819,0.128172,0.052066,-0.106687,-0.043646,-0.154249,-0.169154,-0.007154,-0.001603,-0.140021,0.015099,0.143615,0.048535,-0.181639,0.034108,-0.084152,-0.055030
-0.080399,0.012390,-0.075972,0.030238,0.166397,0.172857,-0.021625,-0.028610,0.038199,-0.054371,-0.082174,0.143131,-0.004571,-0.002701,0.221233,-0.044661,0.082845,0.006371,-0.077640,0.043849,0.008562,0.118889,0.024692,-0.038956,-0.062825,-0.115543,-0.048184,-0.133809,-0.189211,-0.088728,0.109860,-0.047966
-0.151766,-0.012264,-0.028627,-0.285405,0.302539,-0.027693,-0.050957,-0.011287,0.063506,0.116856,0.099282,-0.152867,-0.035673,-0.078201,0.004630,-0.025460,-0.036552,0.318367,-0.193527,-0.227509,-0.066985,-0.423642,-0.184874,0.040317,-0.109878,-0.043099,0.060600,-0.054832,0.023432,0.063907,-0.075243,0.260802
0.058300,-0.049461,0.344996,-0.013980,-0.005792,-0.102355,0.294856,0.230248,0.016373,-0.094221,0.008090,0.031401,0.020501,-0.093981,0.013217,-0.125307,0.125727,0.136814,0.087086,-0.218633,-0.036288,0.063398,-0.002529,0.026708,0.197914,0.183562,0.053353,0.263907,-0.253921,0.026463,0.151165,-0.076797
0.170753,-0.116094,0.155928,-0.051376,0.039758,-0.074805,-0.081570,0.144210,0.008138,-0.008765,0.001096,0.088660,0.062631,-0.003973,-0.196524,0.106396,0.163632,0.112430,0.065244,-0.017864,-0.048599,0.015524,-0.078549,-0.211847,0.132123,0.182584,-0.042126,0.028676,0.006556,0.035548,0.048727,-0.122741
0.157612,0.069843,0.063035,-0.041694,0.054796,0.109856,0.080205,-0.110794,0.278130,-0.206206,-0.041196,0.080013,-0.114725,0.140283,-0.237705,-0.160360,-0.126781,0.111354,0.079798,0.210988,0.044279,-0.355802,0.022242,-0.013969,-0.086569,-0.157982,0.131034,0.130160,-0.004793,-0.125716,-0.043599,-0.147883
-0.130394,0.396939,0.129147,-0.075737,0.203912,-0.082303,0.119791,-0.062088,-0.180847,0.124883,-0.027022,0.137428,-0.173570,0.189113,-0.205895,0.244097,0.042697,-0.072679,0.143447,-0.041342,0.012913,0.132177,-0.117968,0.063491,0.045752,-0.072612,0.257621,-0.142937,-0.095393,0.045855,0.323313,0.008646
-0.100246,0.208131,0.061374,-0.071471,-0.027595,-0.103614,0.206083,-0.194015,-0.040661,-0.018464,-0.147786,0.028097,-0.087756,0.047663,-0.279022,0.037678,0.273596,-0.040830,-0.224828,-0.094550,-0.147791,0.041271,-0.263904,0.106067,0.089935,0.050915,-0.295427,-0.020337,-0.113592,-0.261702,-0.106981,0.117804
-0.027226,-0.006164,-0.046145,-0.151129,-0.365368,-0.119686,0.039775,0.069720,0.088204,-0.036243,-0.101494,0.046698,0.123909,0.003304,-0.073415,0.077470,-0.146298,-0.068546,0.108379,0.054220,-0.309450,-0.017673,-0.138340,0.134523,-0.230244,0.054802,-0.047277,0.014357,0.135690,-0.014240,-0.036078,0.054925
0.136714,-0.098592,-0.023887,0.359804,0.172333,-0.025313,-0.177389,0.204370,0.071888,-0.294922,0.113308,0.178522,0.051840,0.241862,-0.009052,-0.024724,0.103266,-0.089807,0.244529,-0.202075,0.151044,0.052844,0.053301,-0.098950,-0.028519,0.033054,0.102469,0.086135,-0.090557,-0.025547,0.128168,0.106077
-0.068469,-0.006316,-0.048707,0.036828,0.108167,-0.085643,-0.180190,-0.017506,-0.017182,0.113312,-0.105858,0.161019,0.009941,0.255892,0.064930,-0.086900,0.172498,0.027368,-0.005501,0.044940,0.034534,-0.124550,-0.128760,-0.151602,-0.133267,0.192735,-0.065523,-0.073784,-0.129450,-0.170375,-0.029700,0.053755
0.119286,0.188837,0.012219,0.089438,0.037255,0.166464,0.107745,-0.063164,0.114003,-0.142861,0.024464,0.111458,0.050934,-0.023828,-0.293060,-0.022316,-0.176010,0.071704,0.021243,0.024792,0.108262,-0.205386,0.140291,-0.047393,-0.069860,0.024684,-0.031451,-0.089773,-0.164561,0.082620,0.073164,-0.073528
0.052226,0.131532,0.189302,0.171474,-0.281216,-0.076137,-0.239172,-0.078246,-0.055809,-0.088352,-0.150530,0.067462,0.016661,0.242624,0.194726,0.057683,0.175391,0.157583,-0.026825,-0.146471,-0.148454,-0.011874,-0.115585,0.019809,0.022618,0.002790,0.129183,-0.020692,-0.032580,0.049400,-0.024367,-0.097543
-0.095145,0.206424,-0.134645,-0.126392,0.070588,-0.060153,-0.029023,0.072484,-0.122294,0.047890,0.079706,-0.021952,0.087889,-0.035377,-0.088529,0.039721,-0.035144,-0.204587,0.049366,-0.032614,-0.205744,-0.036764,0.012218,-0.122666,0.114960,-0.285684,0.180455,0.000289,-0.055135,0.143991,0.129631,-0.074695
-0.081545,-0.101533,0.060936,-0.156378,0.047105,0.027292,0.382144,-0.036746,0.025589,-0.176793,-0.152059,0.067086,0.092978,0.031935,0.104284,0.013761,-0.101677,0.078871,-0.123192,-0.078383,-0.125855,0.161604,0.119367,0.025203,-0.140622,0.123888,0.222358,-0.059243,0.089393,0.245636,0.211192,-0.068183
0.132519,0.012150,0.047391,-0.186862,-0.074830,-0.136715,0.090342,-0.014429,-0.150283,-0.020005,-0.017890,-0.097741,0.065570,-0.084083,-0.089974,0.135088,-0.121886,0.032317,0.019702,-0.001331,-0.154894,-0.060244,0.015098,-0.113654,0.015401,0.265680,0.051966,0.004784,0.072849,-0.026138,0.040694,0.035363
-0.100673,-0.005228,0.022271,0.203341,-0.120161,0.026764,0.340921,0.120255,0.138771,-0.261185,0.147012,-0.133606,-0.151787,-0.231547,0.000525,0.045914,-0.108005,0.056182,0.050270,-0.225580,0.122866,0.052604,0.031420,0.275829,-0.149761,-0.051332,0.265602,0.104886,0.157698,0.042025,-0.030685,0.069883
-0.087908,0.131520,-0.063263,0.173492,0.102994,-0.138083,0.190597,0.265893,-0.037131,0.094145,-0.000951,-0.047044,-0.135182,0.000922,-0.158338,-0.045870,0.026004,-0.059047,-0.051705,-0.132161,0.071522,-0.064360,0.056540,0.061436,-0.084963,-0.004581,0.151772,0.081937,0.010250,-0.410794,-0.227578,0.005667
-0.136500,0.181273,0.020950,0.076900,0.039314,-0.045143,0.198819,0.099402,-0.029112,-0.020176,-0.075709,-0.020706,-0.102463,0.091468,0.042367,0.043792,-0.020746,0.058047,0.099383,0.041332,-0.186978,0.033985,-0.160341,-0.070731,0.125059,-0.159474,0.183177,0.083965,0.133129,0.036078,-0.120493,-0.002307
0.047731,0.017326,0.022105,-0.063825,-0.065556,-0.108798,-0.100529,-0.034760,-0.073129,0.071847,-0.145593,0.118453,0.072383,-0.036077,-0.093501,0.052687,-0.039099,-0.027400,0.053623,0.062676,-0.170125,-0.073413,0.027827,-0.196534,0.043174,0.226302,0.000884,-0.081840,0.099659,-0.159486,-0.035724,-0.051252
0.123451,-0.181351,-0.115259,0.148400,0.105209,-0.124806,0.062703,0.049448,-0.022379,-0.269422,-0.047149,0.140007,0.127355,-0.193827,0.098607,0.012931,0.035550,-0.048347,-0.378366,-0.106111,0.017211,-0.112736,-0.029369,0.088682,0.080582,0.152829,-0.058957,-0.103248,-0.061875,-0.012208,0.022751,-0.076533
0.229121,-0.290941,-0.092275,-0.202523,0.145273,-0.123050,0.001056,-0.045061,0.142664,-0.288223,-0.067301,-0.036080,-0.314223,0.203749,0.111002,-0.101861,0.170147,-0.105873,0.136686,0.081189,-0.116032,-0.070291,-0.096957,0.144287,0.135426,-0.111749,0.065557,0.083897,0.190933,-0.171406,0.098381,0.000815
0.020426,0.072536,0.010871,-0.174078,0.124428,0.046804,-0.062100,0.085025,-0.048347,-0.236580,-0.007321,0.260269,-0.063676,-0.114612,0.045534,0.114644,-0.006239,-0.150855,0.218943,-0.201727,0.012514,0.024617,0.163386,-0.045122,-0.020544,-0.095731,0.021430,0.054841,-0.081496,0.190376,-0.331334,-0.053065
-0.081880,-0.252421,-0.083625,-0.035669,-0.000585,0.012916,-0.146362,-0.013853,0.000295,-0.133758,-0.028981,-0.009741,0.003973,-0.091599,-0.020607,0.029838,-0.065386,0.003426,-0.229939,-0.119968,0.007607,-0.288439,0.022764,0.093225,0.037457,-0.039223,0.052904,-0.077599,-0.139563,0.009782,0.042402,-0.092355
-0.212896,-0.080457,-0.125377,0.159008,0.105812,0.113141,0.020794,0.068078,0.071095,-0.020504,-0.011159,0.234541,-0.077439,-0.158880,0.026567,-0.165766,0.078590,0.180671,-0.022695,-0.167338,-0.000569,0.195644,-0.227287,0.051531,-0.277186,-0.189442,-0.070918,0.054343,0.074630,0.057381,0.180743,-0.333568
0.025674,0.088381,0.017785,-0.025589,0.053848,-0.012903,-0.256940,-0.280586,-0.172855,0.123998,-0.101395,0.388864,0.086787,0.122812,0.283565,-0.100381,-0.036149,-0.085875,0.024385,0.089940,-0.135021,-0.086980,-0.116848,0.060351,0.007190,0.202009,0.058671,-0.094730,0.081417,0.119333,0.107070,-0.200692
0.015421,0.108030,-0.017664,0.088656,-0.092936,-0.166535,-0.021158,0.093676,0.054737,0.053555,-0.001205,0.197326,-0.001872,-0.085470,0.205032,0.262706,0.074154,0.090584,0.227128,-0.037790,-0.035815,-0.093123,-0.065513,0.161845,-0.101592,0.061852,-0.090994,0.025060,-0.073044,-0.085399,0.025603,0.015875
-0.043330,-0.150919,-0.042534,0.177290,-0.002745,0.146549,-0.192414,-0.180799,-0.033362,-0.112246,-0.015361,0.015455,0.159643,-0.067845,-0.182539,0.239093,-0.058334,-0.023408,-0.262285,-0.028947,0.118245,-0.132493,0.053318,0.117253,0.166752,0.066476,0.061289,0.046539,-0.124254,-0.040505,0.205579,0.041174
-0.079091,-0.124685,0.100672,-0.198522,-0.027458,0.036160,0.288681,0.163177,0.178731,-0.083836,-0.126110,-0.005935,0.011974,-0.205624,0.020186,0.097242,0.072569,0.019085,0.042883,0.063859,0.084253,0.043489,0.198076,-0.012235,-0.172437,0.055995,0.059578,-0.066178,0.103545,0.084589,0.174539,-0.011794
0.156262,-0.061662,0.005600,-0.093710,-0.054450,-0.107265,0.174483,0.040967,0.134648,-0.049062,0.224024,0.035163,-0.039914,0.188507,-0.105326,0.159105,-0.032102,0.023237,-0.103633,-0.276455,-0.064873,0.069959,-0.191952,-0.172676,-0.174809,0.383165,0.038110,0.067724,0.015695,-0.179044,0.188958,-0.069405
0.088741,-0.018549,-0.142189,-0.065688,0.078442,-0.162556,-0.164362,0.018193,0.018147,0.017544,-0.218853,0.023408,0.097962,0.115117,-0.237755,0.089082,-0.084281,-0.043554,-0.000542,-0.056212,-0.155946,-0.058475,-0.119681,0.078773,-0.050269,0.030528,-0.044878,-0.004145,-0.109990,-0.023508,0.028786,0.029184
0.184394,0.318494,0.047740,0.097437,0.019927,0.184330,0.109764,0.006109,0.194560,-0.110907,-0.153127,0.151555,0.137536,0.127322,-0.375965,-0.092908,-0.100551,0.187695,-0.024016,0.055989,-0.008694,-0.279235,0.123461,0.027975,-0.175228,0.053303,-0.025275,-0.072668,-0.309965,0.060648,0.039861,-0.132083
0.019766,-0.018210,-0.019583,0.158494,0.062054,0.141853,-0.153755,0.007711,-0.031662,-0.256906,0.019140,0.001623,-0.065273,-0.048560,0.063506,-0.097695,-0.088128,0.057437,0.019451,-0.100732,-0.101544,0.066322,0.183264,-0.005536,0.070131,0.088346,0.260083,-0.064593,0.083551,0.169330,0.013285,-0.027734
-0.143112,0.033408,-0.024152,0.027322,-0.232494,-0.149290,0.024168,0.132398,0.189682,-0.196292,0.077059,-0.061844,-0.087547,-0.022241,-0.395051,-0.073108,-0.082851,-0.413684,-0.018153,-0.169885,-0.139065,-0.106508,-0.074608,-0.237301,-0.070593,0.221053,-0.045731,-0.058657,0.139313,-0.012582,0.027792,0.365665
0.060217,0.162991,0.022748,0.122109,-0.028771,0.242654,-0.006310,0.024794,-0.011257,0.082630,-0.011874,0.053470,0.200725,-0.068483,-0.108069,-0.002709,-0.015593,0.016886,-0.011111,-0.083037,0.031006,0.026112,0.081928,0.019968,-0.072382,0.126708,-0.012175,0.012364,-0.048565,0.090484,-0.034178,0.057421
0.123858,0.212921,0.152307,-0.047326,0.116089,0.160138,-0.094124,0.206855,0.041405,-0.115725,-0.127287,-0.051469,-0.113438,-0.241690,0.089377,0.079576,-0.098788,0.047904,-0.101535,-0.110615,-0.105775,0.026556,-0.067703,-0.042357,0.016575,-0.078878,0.015626,-0.310283,0.077748,-0.110728,0.049202,-0.057217
0.097771,0.200755,0.022865,0.069165,-0.001831,0.162894,0.053033,-0.041846,0.124874,-0.079165,-0.043519,0.080040,0.035238,0.076918,-0.269045,-0.073573,-0.088684,0.119804,0.021443,0.032669,-0.015680,-0.201875,0.084360,-0.030985,-0.072794,-0.015162,0.028850,-0.006338,-0.134641,0.023574,-0.011758,-0.075856
-0.017322,0.065516,-0.011852,-0.020197,0.042586,0.021801,-0.150877,0.038733,-0.060706,0.069908,-0.089193,-0.104530,0.194506,-0.079299,0.046133,0.017514,0.200276,-0.075552,-0.057364,-0.147083,-0.054394,0.189790,0.029027,0.083895,-0.107358,0.113198,0.085272,0.063806,0.075416,0.061976,-0.019350,0.099119
-0.033777,0.139063,-0.019801,0.017365,-0.027059,-0.040897,0.000129,-0.012807,-0.052310,-0.216095,0.005980,-0.116927,0.183930,-0.244080,-0.118545,0.025354,0.055422,-0.168916,-0.111783,-0.151522,0.010310,0.029167,-0.027374,-0.136065,0.003827,-0.032246,0.330630,-0.016260,-0.022947,0.059178,-0.014495,-0.179696
0.084479,-0.059198,-0.200821,0.109742,-0.074806,-0.105621,-0.078372,0.006534,0.073071,-0.005440,0.074934,0.141451,-0.091126,-0.044394,-0.301398,0.132085,0.019602,0.010253,-0.109864,-0.069226,-0.002736,-0.011308,-0.104897,0.091593,-0.277721,-0.065178,0.094058,-0.205543,0.428114,0.192536,-0.109607,-0.058910
-0.063569,0.135981,-0.341102,-0.120699,-0.039926,0.123651,-0.029901,0.114576,-0.109097,-0.094616,-0.282435,0.107041,-0.110865,0.026894,0.103807,-0.139994,-0.067242,0.098631,-0.165025,0.065940,0.214366,0.190540,-0.050964,0.096533,0.072942,0.000623,-0.086412,0.061658,-0.151065,-0.077307,0.136191,0.043364
0.113690,0.379624,0.031566,0.163809,0.160940,-0.068345,0.189372,0.099040,0.045025,-0.021176,-0.120977,0.027501,-0.286879,0.149077,-0.011856,-0.088806,0.204565,-0.030050,0.226167,-0.030210,-0.128718,0.393496,0.095894,-0.002950,-0.020541,0.252335,-0.031328,-0.227553,0.215010,0.069650,0.112654,0.091235
0.006573,-0.154701,-0.102851,0.289378,-0.146715,-0.077073,0.108877,-0.075006,-0.032877,0.002363,0.002657,-0.140837,0.222874,-0.017355,-0.143749,-0.175140,0.150248,0.000685,-0.303305,0.044939,0.009333,-0.227898,0.005321,0.087760,0.122407,0.046862,0.071044,-0.130815,0.097748,-0.100831,0.280215,-0.128170
-0.128980,0.036188,0.123653,-0.016533,0.023014,0.013796,0.052236,0.134266,-0.068880,-0.020824,-0.291377,-0.219248,-0.128115,-0.159358,-0.062902,-0.024179,0.153102,-0.186045,-0.064554,0.078780,0.170290,-0.137266,0.005920,-0.061007,-0.031444,0.093478,0.145759,-0.308243,0.004322,-0.072093,-0.016297,-0.243458
0.003775,0.015638,-0.159464,-0.003957,0.196222,-0.030944,0.057831,-0.019796,0.024992,0.009849,0.053152,-0.111904,0.048811,0.157388,0.125506,0.033084,0.108501,0.089356,0.016009,0.005883,-0.050215,0.113144,0.087546,0.089764,-0.005317,0.027528,-0.008872,0.026976,-0.258119,-0.089950,0.028293,-0.145631
0.032168,0.057699,-0.080378,0.147510,0.106966,0.197777,0.290870,0.063120,0.082740,-0.089578,0.301663,-0.245952,-0.114308,-0.082558,0.223239,-0.033601,0.257562,0.135548,-0.106911,-0.132054,0.441763,0.126543,0.015249,-0.178907,-0.018379,-0.108301,0.030614,0.046911,-0.045592,0.054073,-0.122027,-0.152693
0.050974,-0.017281,0.084948,0.156607,-0.022623,0.051286,-0.084937,-0.173302,0.070605,-0.135964,-0.125367,0.378877,-0.153025,-0.061484,0.131035,-0.006337,-0.126690,0.101632,-0.167398,-0.017757,-0.080358,0.168016,0.004592,0.039965,0.039583,0.323375,-0.069102,-0.112960,0.019207,0.059528,0.061620,-0.130483
-0.020639,0.080193,-0.086146,0.048380,-0.104055,-0.125295,0.173695,0.248918,-0.241336,-0.002061,-0.072162,0.057844,0.147650,0.076686,-0.032526,-0.079460,0.094188,-0.011533,-0.038782,-0.082783,-0.173027,-0.056173,0.080804,-0.119322,-0.048802,-0.227799,0.232001,-0.060053,0.011225,-0.111425,-0.129680,-0.104703
-0.086617,0.012274,-0.192008,0.191467,-0.073655,0.144731,0.159185,-0.046227,0.187860,-0.070479,0.042546,-0.029425,-0.195527,0.064028,0.286940,-0.020296,0.004375,-0.122187,-0.217362,0.004616,0.234049,0.043949,-0.057506,0.218907,-0.326247,-0.231730,-0.000268,-0.088983,-0.039713,0.199388,0.072747,0.178938
0.047882,0.009491,-0.210908,-0.017506,0.127910,0.008602,-0.169972,-0.042448,0.048268,0.106023,-0.040927,0.045337,-0.060088,0.074166,0.010356,0.062013,-0.018040,-0.204685,-0.060248,0.188452,0.059306,-0.062897,-0.016128,-0.047919,-0.156404,0.069343,-0.070997,-0.137809,0.051509,0.055639,-0.011578,0.027995
0.000184,0.047218,-0.226147,0.067922,-0.084787,0.100532,-0.087962,-0.004555,0.075816,0.022066,-0.165286,0.104084,-0.126652,0.139036,0.182136,0.025471,-0.013205,-0.056271,-0.194429,0.059485,0.008356,0.038779,0.020426,-0.101253,-0.161144,-0.145516,0.039794,-0.153650,-0.122614,-0.041127,0.006737,0.184708
-0.070293,0.043119,-0.008808,-0.093334,0.124459,0.058770,0.047749,0.050254,0.016269,-0.020026,-0.015524,-0.062641,0.085370,0.065724,0.261925,-0.031314,0.101818,0.090854,-0.007263,0.001158,0.020050,0.010815,0.048628,0.051602,0.046989,-0.066616,-0.028958,0.047048,-0.289479,-0.077290,0.081360,-0.067329
0.030701,0.130941,-0.465255,0.184874,-0.045492,0.079908,-0.075107,-0.152614,-0.000851,-0.126884,-0.084694,-0.106151,-0.168423,0.093719,0.158607,0.030158,-0.007031,-0.233730,-0.040496,0.066747,0.008048,-0.210830,0.047788,0.140814,-0.282564,-0.117253,0.041645,-0.267635,0.094871,0.245581,-0.055837,0.246197
-0.155667,-0.042859,-0.049641,0.203478,0.014951,0.117321,-0.105225,-0.065789,0.034134,0.012388,-0.002680,0.014282,0.205196,-0.103167,-0.067892,0.246005,-0.051706,0.083947,-0.212460,-0.001424,-0.026807,-0.158505,-0.092722,0.129485,0.134942,0.072937,0.050850,0.096416,-0.089595,0.097336,0.137259,0.148768
-0.105423,-0.147327,-0.043010,0.113025,-0.012322,0.060834,-0.272486,0.250667,-0.099972,-0.092590,-0.159833,-0.064297,0.259654,-0.120960,-0.048815,-0.093017,-0.046216,0.024062,-0.022814,-0.039386,-0.195668,-0.021119,-0.036630,-0.004773,0.032362,-0.205873,0.198366,-0.170519,-0.108696,0.142826,-0.032368,-0.057871
0.014872,-0.031036,0.023896,0.172222,-0.085615,-0.148664,-0.115289,0.067381,0.090795,-0.045461,-0.105397,-0.049691,-0.068644,0.004956,-0.148154,0.130053,0.112579,0.215142,-0.207729,-0.046674,-0.022145,0.089406,0.111205,-0.008076,0.007819,-0.047798,-0.007906,-0.038122,-0.079072,-0.352382,-0.027254,0.067203
0.012611,0.024104,0.070889,0.191293,0.122454,0.008358,0.090774,0.046670,-0.405163,-0.159378,-0.121100,-0.166145,-0.201633,-0.112127,-0.060051,0.116259,0.072369,0.026118,0.001669,-0.044960,-0.333802,-0.194131,0.039568,-0.060380,-0.362734,0.089861,-0.293170,0.335796,0.066951,0.016508,0.207716,-0.134712
0.159931,0.030523,-0.144132,0.066960,-0.111385,0.059793,0.039461,0.236626,0.088481,-0.092225,0.082018,0.040069,0.019728,-0.059240,0.126760,-0.032537,-0.001687,-0.011397,0.081257,-0.094611,-0.211770,-0.067538,0.155734,-0.038331,0.094612,-0.061073,0.071538,0.000438,0.045445,0.181968,0.047930,-0.162020
-0.126842,0.125943,-0.180991,0.274906,-0.008674,0.057418,-0.244655,0.136171,0.079049,-0.042892,0.055227,-0.158449,-0.049732,-0.150123,-0.228670,0.046989,0.156953,0.034501,0.059517,-0.222610,-0.166431,-0.053893,-0.040461,-0.062385,0.125964,0.042049,-0.014189,-0.238457,-0.176875,-0.048016,0.077338,-0.104184
-0.178944,0.097464,0.097969,0.085430,0.248978,0.026427,0.226572,-0.131806,-0.128759,-0.067212,-0.104717,0.198444,-0.135998,0.173009,0.043759,-0.093208,0.258705,0.014951,-0.093025,-0.099067,0.141480,-0.046079,0.133180,0.214446,0.157000,-0.160618,-0.211143,-0.054705,-0.019536,0.063013,0.131601,0.060506
-0.020113,0.005658,-0.202454,-0.018905,0.122681,0.103184,0.080632,0.063075,0.154895,-0.080038,0.003564,0.065276,0.072246,0.122861,0.316936,-0.135500,0.025313,-0.051715,-0.090904,-0.025704,-0.078510,0.214867,-0.078490,-0.039075,-0.110278,0.078057,0.035621,0.017159,-0.419601,0.000683,0.219979,-0.189638
-0.312096,0.327603,-0.171340,-0.149536,-0.194185,0.033628,-0.000848,0.151280,-0.083651,-0.348975,0.237964,0.143840,0.043158,0.042887,0.066874,-0.095857,0.144231,0.040188,-0.117097,0.124466,0.092197,0.053524,0.013789,0.238543,0.023617,0.148517,-0.109353,-0.045436,0.139641,-0.044252,0.033549,-0.146876
0.041779,0.141633,-0.429290,0.146339,-0.103656,0.058561,-0.126433,-0.289777,0.029304,-0.069275,-0.041843,-0.059389,-0.068386,0.040748,-0.010867,0.145256,-0.071159,-0.093141,-0.142247,0.097562,-0.061140,-0.012754,-0.040883,0.085143,-0.233461,-0.176128,0.006989,-0.342802,0.233982,0.085267,-0.234737,0.080211
-0.113963,0.239670,0.092071,0.072970,0.165360,0.106821,-0.129510,-0.011107,0.162062,0.044637,-0.020074,-0.078414,-0.028453,-0.090976,-0.021771,0.009834,-0.019531,0.195468,0.220830,0.048920,0.003457,0.150147,0.018675,-0.048729,-0.133187,0.218087,0.063152,0.041125,0.047111,0.082757,-0.048445,0.215819
-0.104067,0.054069,-0.104382,0.095427,0.145390,0.221967,0.149539,0.169314,-0.002998,-0.079278,-0.065275,0.115931,-0.004669,-0.041576,0.040596,0.198758,0.165364,-0.003200,0.031316,0.105720,-0.115809,-0.054871,-0.124428,-0.251982,0.109033,-0.016406,0.294485,0.000400,0.164488,-0.212464,0.029089,0.105654
0.081587,-0.170547,-0.108296,-0.029810,0.021005,0.484241,0.142384,-0.049008,0.058858,-0.074992,-0.198608,0.019390,0.049212,0.086534,-0.108651,0.032150,0.193803,-0.089208,0.120888,0.019490,-0.076233,-0.119198,-0.124913,0.230215,0.034327,0.173314,0.109142,0.150765,0.072117,-0.070205,-0.056279,0.017869
0.086126,-0.108572,0.054312,0.151079,0.030801,0.081981,-0.056872,-0.125868,-0.182547,-0.011127,0.029339,-0.147042,-0.220622,-0.176114,-0.083290,0.042641,-0.022587,-0.087531,-0.052636,0.120974,-0.229251,-0.019346,-0.088272,-0.044968,-0.333731,-0.008904,-0.056467,0.008421,-0.037399,0.078799,0.022969,-0.049499
0.001642,-0.155787,-0.055953,-0.135842,0.028420,-0.257213,0.040448,-0.106480,0.042381,-0.086566,-0.016710,-0.061286,-0.204886,0.114980,0.127277,-0.090556,0.152105,-0.018881,0.021204,0.043660,-0.092565,0.065486,-0.081499,0.025121,0.077074,-0.051682,-0.002615,0.080217,0.121592,-0.066294,0.023135,0.019503
0.068284,-0.196384,-0.020608,-0.135544,-0.105694,0.376073,0.074544,0.047731,-0.062218,0.011328,-0.053359,0.076796,-0.127832,0.163686,0.083503,0.007498,0.205280,-0.128566,0.233291,-0.145905,-0.073739,-0.059275,-0.015923,0.101490,0.032004,0.038877,0.062448,-0.085976,0.150578,-0.103526,0.117843,-0.049318
-0.055320,-0.179310,-0.078465,-0.125653,0.028970,-0.229408,0.006345,0.065449,0.090586,-0.161874,-0.024079,-0.063399,-0.437460,0.073115,0.103636,0.038614,0.021117,-0.055744,0.136520,-0.087021,-0.131139,-0.030991,0.013989,0.034967,0.120763,-0.114591,0.006877,-0.160076,-0.017951,-0.003234,0.104048,-0.114930
-0.277900,0.035269,0.160366,0.029439,-0.347210,0.043220,-0.071410,0.082072,0.243890,-0.166058,-0.199804,-0.053451,0.001824,-0.013327,-0.024343,-0.117122,0.036196,-0.247900,0.001677,-0.022650,0.040412,0.034323,-0.187598,-0.182817,-0.205417,-0.093942,0.027804,-0.048876,-0.045441,-0.144515,0.075452,0.067432
-0.082618,-0.193191,-0.165925,-0.121390,0.033759,-0.319611,-0.009675,0.054829,0.067492,-0.188203,-0.039560,-0.064580,-0.415090,0.087374,0.102293,0.030178,0.114840,-0.068153,0.070092,-0.149998,-0.226750,0.022778,0.031791,0.069210,0.141775,-0.054956,0.005570,-0.196754,-0.021023,-0.016287,0.148260,-0.113181
0.044733,-0.008888,-0.070619,0.026360,0.159030,0.011414,0.310698,0.323112,0.047391,-0.106746,0.054228,-0.318273,-0.109527,-0.120857,-0.135992,0.090223,0.093807,0.046000,-0.042266,-0.249079,0.084733,0.101964,0.061419,0.000774,0.016556,-0.106597,0.071884,-0.050055,-0.155188,-0.067151,0.061155,0.104428
-0.044565,-0.133471,0.235906,0.152691,0.176120,-0.016826,0.155098,-0.041232,0.389503,0.102840,0.178376,0.103335,0.056434,0.057951,0.119166,-0.083063,0.145008,-0.200327,-0.018703,-0.013640,0.058694,0.095331,-0.024435,0.293779,0.069057,-0.178697,0.150957,-0.352441,-0.192153,0.079617,-0.167648,0.049166
-0.173388,-0.074815,-0.311971,-0.129214,0.161656,-0.126196,0.259562,0.023318,-0.018891,0.100116,-0.036904,-0.074555,0.054723,0.228424,-0.171407,0.111608,0.038382,-0.056319,-0.066071,0.117844,0.062881,0.018537,0.276238,-0.009328,-0.233028,0.224125,0.059941,0.005114,-0.239128,-0.119936,-0.072968,-0.014713
-0.133255,0.146594,-0.091894,0.108593,-0.079355,0.039179,-0.157536,-0.001148,0.181425,0.018702,-0.007705,-0.003629,-0.184695,-0.198777,-0.033396,-0.048189,0.132242,-0.006796,-0.074580,-0.084616,-0.196397,0.081654,-0.000276,0.082229,0.060977,0.059924,-0.088178,0.000484,-0.060359,-0.183009,-0.154064,-0.156401
0.026339,0.028582,-0.031821,0.084311,-0.106277,0.460539,0.080808,-0.057603,0.039281,0.017783,-0.138177,0.034334,0.313130,-0.023546,-0.192931,0.028582,0.153630,-0.056800,-0.037064,-0.036345,-0.057029,-0.148382,-0.076494,0.140348,-0.059277,0.207894,0.121752,0.146498,-0.017024,0.085116,-0.051762,-0.030262
-0.100354,-0.067798,-0.046316,-0.090396,0.043467,-0.074311,-0.031091,0.115674,0.087798,0.089105,-0.162158,-0.125380,-0.047407,0.246594,-0.145885,0.069395,0.111619,-0.002348,-0.112020,0.035502,-0.079097,-0.040933,0.085090,0.006303,-0.091240,-0.016229,0.079077,0.018550,-0.104836,0.024942,-0.090821,-0.002095
0.009425,0.194104,-0.021899,0.112648,-0.175867,0.069661,0.106021,-0.029572,-0.026322,-0.149539,0.085114,-0.216594,-0.072067,-0.113828,0.031576,0.113992,0.120050,0.057754,0.137157,-0.282193,0.058272,-0.198712,0.023253,0.214671,0.035123,-0.133272,0.043945,-0.060549,0.200181,-0.109224,-0.078346,0.047760
0.016848,0.106063,0.008028,-0.036343,0.078320,-0.321264,-0.152608,-0.010597,-0.074234,-0.102401,-0.045697,-0.111099,0.264031,-0.110975,0.159549,-0.049956,0.152574,-0.119581,-0.151727,-0.133481,-0.000551,0.203749,-0.091819,0.056494,-0.132967,0.054337,0.101088,0.126140,0.031139,0.146196,0.006527,0.022466
0.174778,0.277114,0.073700,0.056594,0.061177,0.062912,0.060361,0.051688,0.142659,-0.118440,-0.118362,0.039965,0.130457,0.055141,-0.233466,-0.099506,-0.081787,0.082527,-0.039075,-0.027004,0.026390,-0.164118,0.065451,0.033441,-0.180787,0.065260,-0.021833,-0.061443,-0.210299,0.114983,0.003720,-0.078678
0.077902,0.062912,-0.038528,0.136785,0.045183,-0.085678,0.134082,-0.276398,-0.086336,-0.156513,0.160658,0.114743,-0.161121,0.127254,-0.006579,-0.157676,0.119985,-0.132949,0.091309,-0.250302,0.105161,0.095487,-0.035117,0.114368,0.040582,0.116886,0.018389,0.227746,0.108406,0.066709,-0.115048,0.062949
0.087586,0.217024,0.054572,0.062735,-0.029641,0.243241,0.038265,-0.021069,0.097545,-0.002900,-0.040298,0.056014,0.088427,0.051996,-0.232727,-0.063993,-0.068517,0.082104,0.032028,0.008948,0.008959,-0.150937,0.057053,0.002775,-0.101817,0.014811,0.017748,0.022288,-0.105862,0.030384,-0.042009,-0.053111
0.259511,-0.135372,0.035022,-0.189901,-0.109786,0.102249,-0.141231,0.054311,-0.095333,-0.014534,-0.028552,-0.004679,-0.070985,0.056410,-0.043683,-0.138284,0.088510,-0.122224,-0.029740,-0.186978,0.078767,-0.064541,0.193023,0.002216,-0.125971,-0.077599,-0.062211,-0.194617,0.091528,-0.254326,0.060272,-0.077639
0.108186,0.060645,-0.040472,0.145490,-0.266116,-0.178474,0.177432,-0.027819,0.012175,-0.122875,0.041131,0.089427,-0.014601,-0.213981,-0.035565,0.237404,-0.227971,0.208947,-0.079324,-0.210330,-0.111303,0.192893,0.124404,0.332647,-0.096696,-0.194045,0.120213,0.021800,0.132728,-0.150787,-0.018991,-0.049369
-0.119882,0.158657,-0.146780,-0.020122,-0.038005,0.062667,0.231056,-0.046724,0.148434,-0.028621,0.126159,-0.044452,-0.167409,-0.225354,0.062471,-0.289487,0.379297,-0.153245,0.007881,-0.074133,0.059248,-0.100060,0.178882,-0.341070,0.005965,0.194486,0.036948,-0.007696,0.082893,0.214468,-0.131926,-0.124829
0.196402,-0.012051,-0.089886,-0.029409,-0.198193,-0.031490,0.068178,-0.136099,-0.053628,-0.026177,0.013467,0.045545,-0.129473,-0.012269,-0.082510,0.234799,-0.039780,-0.062790,-0.093082,0.025711,0.072704,-0.120865,-0.040263,-0.114546,-0.147390,0.023711,0.032871,-0.161631,0.413278,0.229519,-0.122990,0.207114
