-0.054056
-0.070328
-0.244035
0.043789
-0.038709
-0.039877
-0.001351
0.089076
-0.041435
-0.132668
-0.019000
0.039649
0.463474
-0.094382
0.001200
-0.045983
-0.115817
-0.207122
0.019118
0.442344
-0.036147
-0.200932
-0.047562
-0.048048
-0.193450
0.099676
-0.082275
-0.167485
-0.157814
-0.045699
-0.256258
-0.063604
0.002706
0.058060
-0.000042
-0.019869
0.113328
-0.167910
0.004961
-0.015523
-0.060803
-0.027058
-0.156041
0.004011
0.004510
-0.007304
-0.287359
-0.072174
-0.221118
0.354663
0.311069
-0.177828
0.326835
-0.003378
-0.067271
-0.096851
-0.175270
-0.109167
-0.022050
0.160460
-0.060797
-0.221811
-0.177149
0.195684
-0.189494
-0.418095
-0.030542
-0.073042
-0.115819
-0.020365
-0.035926
-0.062352
0.040468
-0.003989
-0.162087
-0.116463
-0.030828
-0.151512
-0.005058
-0.050011
-0.164895
-0.032727
-0.025721
-0.011599
-0.036316
0.203261
-0.133310
-0.052787
-0.025509
-0.091661
-0.026072
-0.055106
-0.078232
-0.037325
0.368484
-0.152159
0.435045
0.142896
-0.232959
-0.034245
0.150203
0.038468
-0.082725
-0.189744
-0.156039
0.011460
-0.052138
0.254780
-0.044011
-0.253147
-0.028110
-0.081206
-0.046049
0.023281
0.130375
-0.004222
-0.037491
-0.107953
-0.058498
0.542651
-0.024538
-0.065076
0.038631
-0.087698
-0.040406
-0.259134
0.073444
-0.020246
-0.043313
-0.085312
0.511940
0.024632
-0.190964
-0.038265
0.002264
-0.007805
-0.245264
-0.050920
-0.684806
0.340732
-0.056403
-0.017464
0.013992
-0.347650
-0.047247
-0.032218
0.009936
-0.117169
-0.046053
-0.064197
0.018378
-0.227378
-0.039823
-0.008439
0.375824
-0.063123
-0.249648
-0.006253
-0.209280
-0.036864
0.061183
-0.034061
-0.061832
-0.156883
-0.020675
-0.035747
-0.025273
-0.023256
-0.104317
0.052876
-0.081682
-0.035876
-0.080023
-0.173497
-0.004856
0.005537
0.001938
-0.161191
-0.215746
0.247502
-0.091075
0.152812
-0.003060
-0.022222
-0.013025
0.055928
0.263591
-0.032548
-0.061842
-0.043547
-0.099917
-0.059022
