-0.012573,-0.004612,-0.334424,-0.165131,0.020271,-0.313166,-0.135922,-0.499004,0.334466,0.162143,-0.228359,-0.333070,-0.126576,0.150610,-0.226621,0.196419,0.060186,-0.469254,-0.097046,0.275469,-0.087709,0.200892,0.090154,-0.049619
-0.040960,0.216640,-0.091428,-0.071661,-0.040007,0.112799,0.076237,-0.057350,-0.065069,-0.021927,0.106284,0.142616,-0.179420,0.054573,-0.106105,0.015886,-0.149706,0.027072,0.086744,0.115354,0.084054,0.053400,-0.103790,-0.053673
0.018515,-0.112654,0.148362,0.053778,-0.011099,-0.071564,-0.009205,-0.122772,0.100075,-0.116389,0.140516,0.251940,-0.062136,0.128328,-0.141711,-0.018039,-0.018952,-0.054381,-0.216305,-0.119137,-0.045076,0.057583,0.081902,0.005742
0.262906,-0.141492,0.001088,-0.111002,-0.032829,-0.078952,0.112632,-0.030822,0.094106,0.136428,0.092941,-0.067676,-0.144191,-0.070756,0.048459,0.164899,0.051580,0.057215,0.108977,-0.035120,0.181686,-0.134708,-0.012175,0.123620
-0.025517,0.215600,0.097183,0.018668,0.029075,-0.006567,0.054095,0.078090,-0.066083,-0.157388,0.003412,-0.166455,-0.090666,-0.068475,-0.053561,0.093926,-0.048184,-0.098392,0.100194,-0.005388,-0.144289,-0.077710,-0.089683,0.191931
0.080142,-0.070520,-0.114739,-0.023262,-0.202625,0.075203,0.187241,-0.044266,0.186835,-0.016441,-0.114292,-0.126268,-0.039908,-0.063527,-0.032185,0.066256,0.013255,0.067155,-0.156733,-0.106993,0.101212,0.187800,-0.194997,0.074037
0.062939,-0.111213,-0.032875,0.075171,-0.070052,0.255270,-0.072895,0.078167,-0.011246,-0.103072,0.170648,0.368489,0.171112,-0.113300,0.120299,0.126603,0.093163,-0.163618,-0.015994,0.108831,-0.134675,0.018518,-0.015074,-0.022328
-0.102415,0.035384,-0.129888,-0.025032,0.050484,-0.025262,-0.025814,0.065036,0.241726,0.015288,-0.034988,-0.128311,0.187512,0.110719,0.009519,-0.019836,-0.168733,0.272222,0.043969,0.129820,0.005260,-0.092018,0.114917,-0.047978
0.041375,0.026595,0.073637,0.059913,0.044099,-0.081875,-0.056750,-0.067429,-0.052780,0.105409,0.115627,0.064514,0.052117,0.024810,0.085353,0.028817,0.082961,0.012190,0.302993,0.069044,0.057630,-0.130805,0.082615,0.043722
-0.082302,-0.013332,-0.039055,-0.095840,0.023818,-0.044772,0.006659,0.045733,-0.071881,-0.066642,-0.162837,0.356399,-0.007893,0.019709,0.173770,-0.041557,-0.049772,0.045790,-0.000586,-0.032529,0.068694,-0.035553,0.033298,0.121178
-0.226643,-0.129655,0.050120,0.003166,-0.016459,0.058484,-0.257151,0.171224,0.041092,-0.187361,0.020130,0.303766,0.130994,0.029001,0.267775,0.091227,0.115024,0.020819,0.181589,0.074547,0.048312,-0.064200,-0.481069,0.150744
-0.075661,-0.204985,-0.021715,-0.067742,-0.042459,0.168523,-0.125703,-0.058565,0.082085,-0.021211,-0.018202,0.368270,0.171507,0.022222,0.091787,-0.071410,-0.025615,0.016879,-0.009139,-0.027882,0.143581,-0.001494,-0.015417,-0.048329
0.040083,0.023722,-0.050365,-0.006788,0.061705,0.011651,0.134098,0.043366,-0.093570,0.095608,-0.087477,0.043380,-0.173453,0.082557,0.105384,0.098606,0.002675,-0.055386,0.086324,-0.076650,0.076012,-0.248811,-0.008438,-0.075440
0.113323,0.159677,-0.029992,-0.098176,-0.012393,-0.126799,0.053857,-0.128150,-0.072794,0.042641,-0.126640,-0.118251,-0.144627,-0.074378,-0.192435,0.093194,-0.017364,-0.011025,-0.005890,0.031875,-0.147400,0.126647,0.145532,0.061509
-0.012324,0.020116,-0.014876,-0.037498,-0.009720,-0.060989,0.060916,0.040349,-0.062587,0.059543,-0.143663,0.292088,-0.059502,0.043933,0.206605,0.044331,-0.150425,0.110805,-0.172875,-0.050977,0.005579,0.079701,0.118086,-0.017812
0.017985,0.002187,0.068619,0.164215,0.087806,-0.063239,0.271023,0.164215,0.016598,0.038459,0.151733,-0.149368,-0.008462,0.171155,-0.008605,-0.027251,-0.130385,-0.009401,0.058388,0.051260,-0.028967,0.231736,0.172228,0.293616
-0.037806,0.240052,-0.060941,-0.021683,0.107210,-0.008259,0.138808,-0.003307,-0.073049,-0.064472,0.069948,0.088622,-0.187575,0.147466,-0.127811,0.113374,-0.124397,0.118779,0.075288,0.116264,0.129581,0.003960,-0.087347,0.040130
0.183226,-0.140524,-0.089151,-0.017898,-0.129083,0.065589,0.143448,0.094482,0.056892,-0.051115,0.007035,-0.082267,0.029990,0.074859,-0.169283,0.055024,-0.071507,-0.018343,-0.080274,-0.152720,0.011548,0.276445,-0.138182,0.145167
-0.035947,0.059587,0.124181,0.020347,0.145045,0.001184,0.039209,0.040710,-0.016303,-0.107809,0.037218,-0.025980,0.058115,-0.170071,-0.050507,-0.032887,0.008227,-0.116153,0.299540,-0.095594,0.067633,-0.064739,-0.152638,0.180375
0.059337,-0.173870,0.015882,-0.050652,-0.172232,-0.136580,-0.153188,0.144877,-0.109817,-0.016575,0.185846,-0.017438,0.139057,0.201857,-0.140967,0.000798,-0.131857,-0.171133,0.137022,-0.114678,-0.102906,0.036810,-0.004959,0.027671
-0.117285,0.107385,0.046335,-0.020296,-0.036416,0.025317,-0.035148,0.085983,0.038936,-0.220893,-0.108775,-0.207178,-0.108343,-0.063022,-0.096676,0.042362,0.055185,0.030807,0.165672,0.030807,-0.093364,-0.093149,-0.134753,0.202682
-0.141718,0.028990,0.008656,-0.096763,0.015389,0.022168,0.082734,0.028040,-0.029061,0.079330,-0.048369,-0.147279,-0.213061,0.070733,0.023013,0.081999,-0.110655,0.090487,-0.123435,-0.026532,-0.053359,0.089761,0.255776,-0.078860
-0.000871,-0.113707,0.151755,0.131584,0.127624,-0.114076,0.103207,0.100423,-0.088213,0.062988,-0.210342,-0.199318,-0.102238,-0.005950,0.165223,0.032366,0.124242,-0.054106,-0.161288,-0.049345,-0.058342,-0.103611,0.103076,0.220254
-0.179459,-0.007175,0.144849,0.015103,0.113695,-0.263206,-0.255330,0.085193,-0.125694,0.072311,0.317402,0.200558,0.011677,0.004103,-0.110142,-0.011645,-0.002816,-0.155899,0.288186,-0.011856,-0.045515,-0.313178,0.306754,-0.063196
-0.012517,-0.100572,0.046547,-0.129490,-0.032301,0.086959,-0.099108,-0.011329,0.112687,0.160117,0.247253,0.096798,0.031213,-0.150244,0.016486,0.034019,-0.046596,0.001346,-0.023411,-0.033146,0.014361,0.159299,0.176535,-0.032738
0.060833,0.027939,0.034888,-0.092811,0.172893,0.143064,0.067279,0.008775,-0.108690,0.021452,0.086236,-0.105179,-0.181539,0.078713,0.012149,-0.004899,-0.094261,-0.071151,-0.144871,-0.030629,0.185002,0.151892,0.406864,-0.109834
-0.197489,0.086606,0.109350,0.135486,0.028436,-0.097294,-0.059622,-0.168366,-0.045319,-0.053348,0.223464,-0.108429,0.090154,0.193438,0.007246,-0.107768,-0.007159,0.128974,-0.153286,0.056586,-0.050250,0.091919,-0.004526,0.095707
-0.044856,-0.200989,-0.043575,-0.053745,0.013481,0.066875,-0.121689,0.108260,0.108714,-0.002421,-0.064163,0.309025,0.093738,-0.005702,0.093677,-0.038240,-0.012346,-0.028776,-0.016683,-0.021361,0.164928,0.108462,0.009456,-0.171704
-0.036019,-0.119458,0.022476,0.105781,0.084276,-0.059346,-0.071441,-0.016460,0.121012,-0.029881,0.236394,0.061421,0.132599,0.069613,-0.044876,-0.244506,-0.016161,-0.028818,-0.166413,-0.081476,0.086874,0.057347,0.001515,-0.064245
0.017244,0.000954,-0.097787,-0.026035,0.015742,0.034425,-0.010760,-0.213414,-0.029163,-0.077972,0.111263,0.026190,0.016471,0.092148,0.159618,-0.138043,-0.026495,-0.008758,0.048115,-0.219829,-0.044627,-0.069335,-0.065108,0.118986
0.018437,0.088082,-0.025408,0.030840,-0.029562,0.002026,0.070840,-0.186412,-0.051913,-0.063787,0.159989,-0.269076,-0.093597,0.007908,0.007125,0.067280,0.029976,-0.035904,0.038351,-0.103013,-0.094635,-0.082847,0.000905,0.181694
-0.055934,-0.200791,-0.165287,0.054463,0.023662,0.010150,0.091126,-0.084150,-0.231857,0.248331,-0.057635,-0.021385,0.026969,-0.019006,0.009088,0.063483,0.015778,0.082599,0.204663,0.091754,0.189938,-0.028257,0.200031,-0.005443
0.198613,-0.077028,0.181676,0.005245,-0.159926,-0.198277,0.151132,-0.194766,0.133279,0.089913,0.139759,-0.044048,-0.134738,0.045372,-0.096253,0.159736,-0.038013,0.043286,0.046713,-0.162696,0.028143,0.082299,-0.027761,0.020881
0.039559,-0.030691,-0.051989,-0.042929,-0.147893,-0.016667,0.026424,-0.196211,-0.019879,0.078888,0.096632,0.127113,0.205324,-0.143386,0.022179,-0.016559,0.020637,-0.105878,-0.132342,0.131970,0.048375,-0.055203,0.047689,-0.039693
0.008067,-0.193636,-0.019479,0.057068,-0.063385,-0.048707,0.016879,-0.044822,-0.226196,-0.034184,0.043775,0.000067,-0.312573,-0.044386,0.011731,-0.330364,0.142536,-0.062463,-0.004564,0.110828,0.047095,0.049791,-0.047892,0.024004
-0.077666,-0.018065,0.086853,0.026458,-0.042156,-0.255511,-0.082463,-0.016847,0.050897,0.083318,0.132750,0.057907,-0.086532,0.047126,-0.137729,-0.012658,0.062617,0.047012,0.221007,-0.019014,-0.019326,-0.095726,0.212113,-0.063179
-0.070672,-0.079759,-0.220692,0.063271,0.013256,-0.081172,-0.156403,0.086720,0.016875,0.167250,0.099086,-0.034111,0.177479,0.025495,-0.104074,-0.208520,0.040957,0.084557,-0.137057,-0.077548,0.145412,0.035976,-0.059359,-0.032371
-0.026145,0.075555,0.220577,0.246072,0.091930,-0.136398,-0.005254,-0.017205,-0.345419,0.025369,-0.046098,-0.000122,0.149564,0.353876,0.007975,-0.076691,-0.066137,-0.110119,0.158422,0.164394,-0.014074,-0.116047,-0.023958,-0.131689
0.213126,-0.058851,0.126679,-0.101170,0.086731,0.051854,-0.106693,0.197213,-0.062503,0.028264,0.032826,-0.140386,-0.009536,0.069917,-0.182292,0.118754,-0.049727,-0.067157,-0.165189,0.181459,-0.024488,0.107936,-0.050870,-0.084757
-0.077928,0.209951,0.090221,0.039483,0.169374,-0.148417,-0.193829,-0.060975,-0.021016,-0.002703,0.105756,-0.078133,-0.134079,-0.053229,-0.017511,0.041779,0.210203,0.058685,0.093137,0.215950,0.015961,-0.268058,0.189319,-0.075365
-0.185812,-0.088777,0.064650,-0.062437,0.049954,-0.132599,-0.029751,0.277616,-0.073264,0.044765,0.125137,-0.142817,-0.072701,0.062840,0.252427,0.064438,-0.045777,0.197864,-0.116815,0.089159,0.082560,-0.003533,-0.150988,-0.019782
-0.020965,0.028877,0.036283,-0.036567,0.069998,-0.158534,-0.050292,0.103902,0.065841,-0.076178,0.064370,-0.207949,-0.205470,0.124052,-0.076295,0.162316,0.102270,0.108827,-0.034119,0.063055,0.035805,-0.006993,0.041814,0.125996
0.052753,0.053375,-0.032237,-0.054725,0.072430,-0.056432,0.166333,-0.081492,-0.022955,0.004572,-0.049820,-0.161244,-0.119229,0.111726,-0.075388,-0.107098,-0.107892,0.034691,-0.045839,-0.112103,0.038580,0.015837,0.242620,-0.076052
0.012517,-0.266357,0.177097,0.205649,0.013243,-0.138780,-0.030250,0.060285,-0.019364,0.032192,-0.204069,-0.181233,0.031899,-0.136309,0.184100,-0.051156,0.061195,-0.030505,-0.206143,-0.035077,-0.225793,-0.121739,0.077897,0.160574
0.163404,-0.213215,-0.147714,0.018153,0.082316,-0.156250,-0.060559,0.045672,0.084007,-0.010167,0.061082,-0.060612,0.095431,0.042483,-0.129168,-0.174288,0.108024,0.162508,0.092360,-0.091369,0.138823,-0.110948,-0.063835,0.043520
0.010375,-0.040211,-0.092751,0.156035,-0.078858,-0.007100,-0.131499,-0.020542,0.011322,-0.105209,-0.004721,0.055596,-0.221249,0.005757,-0.017767,0.042082,-0.278195,0.098731,0.037578,0.168014,0.054886,-0.017915,-0.115057,-0.028453
-0.014751,-0.071917,-0.010777,0.030870,-0.010750,0.101620,-0.192770,-0.010567,0.073368,-0.071963,0.170387,0.226136,0.115971,-0.203497,0.142710,0.070100,0.163021,-0.089738,0.107606,-0.058228,0.078815,0.171251,-0.092946,0.061416
-0.134519,0.230559,-0.130458,-0.127638,-0.062970,0.083996,0.160294,-0.051332,-0.099013,0.007282,0.168449,0.234586,-0.076371,0.145026,-0.179676,0.079670,0.019306,0.114770,0.046765,0.126319,-0.021197,0.031060,-0.199910,-0.080233
-0.024583,-0.010344,-0.035171,-0.046126,-0.081066,0.105349,-0.065043,-0.291142,-0.032447,-0.024889,0.249208,-0.134529,-0.026383,0.175224,0.136188,-0.015519,0.004660,0.014812,-0.025840,-0.134751,-0.004373,-0.124511,0.079661,0.075987
-0.051066,-0.103244,-0.040868,0.087902,-0.149568,-0.060970,-0.046124,0.046000,0.005047,0.085403,0.042685,0.043132,-0.027865,-0.058724,0.040663,0.091566,0.079531,0.098112,-0.103715,0.134719,-0.287338,-0.027291,-0.133240,-0.023296
0.109746,-0.064645,-0.161082,0.037726,0.050460,0.053146,0.141901,0.076992,0.133787,-0.014349,-0.002703,-0.233152,-0.206016,0.045630,-0.026411,0.133065,0.094318,0.024712,-0.199285,-0.055314,0.100434,-0.090215,-0.121110,-0.012198
-0.015556,-0.004858,-0.068844,-0.209724,-0.054089,-0.131588,0.082572,0.148392,-0.149787,-0.038453,-0.061840,0.530913,-0.004068,-0.192963,0.158390,-0.048596,-0.159119,0.128368,-0.057958,-0.118503,0.015552,0.037024,0.179145,0.276926
0.109445,-0.025597,-0.061819,0.135145,0.259451,-0.110794,-0.157700,0.060454,0.068868,-0.103624,0.185886,0.089855,0.168328,-0.047382,-0.056622,-0.141910,0.117724,0.087880,-0.016061,-0.021445,0.060508,0.086712,-0.096952,0.030358
0.148481,0.106231,0.105851,0.025137,0.091845,-0.133433,-0.003364,0.168686,-0.016335,0.140056,-0.084340,-0.035878,-0.065595,-0.032093,-0.087966,0.096376,0.044964,-0.016184,-0.058666,0.127068,0.120698,0.204206,0.054954,-0.179485
-0.039520,-0.096520,-0.022376,0.203831,-0.069343,-0.038199,-0.060657,0.038826,-0.051595,0.008440,0.108735,0.090799,-0.092687,-0.091496,0.111536,0.154693,-0.017893,0.049389,-0.051723,0.151948,-0.127634,-0.033505,-0.240042,0.048931
0.077568,0.116511,-0.065251,0.018161,0.008341,0.023384,-0.129698,-0.253590,-0.054401,0.162764,0.264907,-0.165418,0.035807,0.160954,0.056243,-0.117320,0.024854,0.156436,-0.163875,-0.102073,0.053628,-0.061947,0.106725,0.132189
0.042194,-0.062234,-0.117173,0.141612,0.210880,0.049818,0.224318,-0.015842,-0.183278,0.062668,0.085442,-0.030660,-0.056232,-0.075904,0.065237,0.195808,0.088661,-0.055870,0.047949,-0.028627,0.198556,-0.161705,0.000083,0.040628
0.016183,-0.102310,0.199231,0.055288,0.041155,-0.001463,-0.090588,0.207330,0.041482,0.101316,-0.069549,-0.008723,0.012030,-0.028827,-0.231635,0.093716,0.083517,-0.038850,-0.081821,0.214829,0.189969,0.085578,0.018201,-0.215410
-0.110054,0.022001,-0.079896,0.057961,-0.021942,0.105776,0.000256,-0.147742,0.105078,0.001393,-0.029675,-0.027211,0.058265,-0.233784,0.116392,-0.040115,0.125293,0.041611,-0.046644,0.013945,0.127469,-0.039980,0.009365,-0.078886
-0.089258,-0.065119,0.039520,0.057215,0.058050,-0.060640,-0.010697,-0.070857,-0.014047,-0.151965,-0.017257,-0.199796,0.109540,-0.002808,-0.056328,-0.054027,0.126629,0.196557,0.225439,0.184490,0.107922,0.254374,0.102538,0.162246
-0.124082,-0.026332,0.048883,-0.038302,-0.024581,-0.154134,-0.181205,0.117358,-0.043614,0.024984,0.255643,-0.042310,-0.063797,0.055083,-0.180933,0.078191,0.005399,-0.137290,0.146964,-0.016459,-0.105803,-0.070994,0.234112,0.069175
-0.134297,0.005749,0.156705,0.091294,-0.034944,-0.176294,-0.038726,-0.164310,0.049540,-0.139110,0.284087,-0.027053,-0.019311,0.213878,-0.008789,-0.031742,-0.019421,0.085413,-0.104987,-0.043409,-0.045738,0.166949,0.113497,0.113602
0.263526,-0.083849,0.192909,-0.038180,0.030512,0.016032,0.102092,0.044066,0.072655,-0.072206,0.093468,0.123593,0.003644,0.060154,0.048331,0.017202,-0.105651,-0.205775,0.174827,-0.008316,-0.053321,-0.034466,0.012592,0.101831
-0.063452,0.039627,-0.008875,0.057227,-0.076042,0.042515,-0.039237,-0.097698,-0.017685,-0.187404,-0.031120,-0.088337,-0.099842,0.174383,0.075325,0.102639,0.039748,-0.014518,0.117607,-0.092534,-0.003456,-0.127156,-0.089578,0.169029
-0.286356,0.078314,-0.051888,0.035177,-0.038110,-0.028354,-0.042445,-0.033974,-0.061450,-0.057439,-0.040807,-0.051601,0.025403,-0.015500,-0.072835,-0.052095,-0.056490,-0.091725,-0.203039,-0.118155,-0.003034,-0.005742,0.015843,0.092765
0.248885,-0.109570,-0.031314,-0.043760,-0.008623,0.042029,-0.033029,-0.004194,0.036225,0.248019,0.077695,0.001827,0.050773,0.056702,0.077505,0.046205,0.041880,0.027225,0.109758,0.176465,0.119976,0.083201,0.095205,-0.092906
0.067942,-0.157053,0.156138,0.077753,0.031474,0.135190,0.074080,0.172045,0.030029,0.140410,-0.073882,-0.046557,0.020425,-0.077588,-0.444398,0.072004,0.019930,-0.087907,-0.221998,0.264021,0.181169,0.128876,0.135104,-0.064609
-0.023713,0.092958,-0.094399,-0.088698,-0.043410,-0.011700,-0.021440,-0.206399,-0.056396,-0.038948,0.203560,-0.189330,-0.085713,0.136985,0.202998,-0.027828,-0.030363,0.057865,-0.011084,-0.163186,-0.025353,-0.064195,0.151856,0.121613
-0.048131,-0.014766,-0.001572,-0.049730,0.021220,-0.044205,-0.021142,0.067527,0.205927,-0.044685,-0.048352,-0.001947,0.199714,0.083373,-0.001180,0.298005,-0.047271,0.124758,-0.041134,-0.122689,-0.102890,-0.102945,0.056273,-0.049509
0.041285,0.052684,-0.112557,0.052118,-0.047869,0.066298,-0.105959,-0.040437,0.057273,-0.125418,0.094926,0.061469,-0.266464,0.005115,-0.064188,-0.034649,-0.405318,0.043970,0.066462,0.176971,0.190053,0.037836,-0.035906,-0.067872
-0.064367,-0.065002,0.136513,-0.222625,-0.058665,0.022771,0.029805,0.040764,-0.016728,0.091456,-0.174090,-0.074123,0.050819,0.008315,0.012795,-0.144380,0.327916,-0.083743,-0.074857,-0.110743,-0.164245,0.024221,0.082111,0.018853
0.108079,-0.016133,0.091626,0.053956,-0.136472,-0.164292,-0.096122,0.149813,-0.143835,0.079170,0.223120,-0.149482,0.076737,0.196221,-0.218469,0.065518,-0.099822,-0.194196,0.147256,-0.138783,-0.119008,0.001880,-0.002770,0.078160
-0.008550,-0.115104,-0.054953,-0.035409,-0.080324,0.094091,-0.051737,-0.022646,0.049583,0.132249,-0.053286,0.213430,0.202091,-0.082728,0.109626,-0.181629,-0.142049,0.005125,-0.024296,-0.106464,-0.003455,0.122797,-0.000970,-0.114019
-0.030662,0.087784,-0.001130,0.014539,0.145227,-0.004070,0.021189,0.096668,0.164203,-0.015285,-0.035494,-0.016219,0.172314,0.053133,0.043504,0.316568,-0.145038,0.091870,-0.079328,-0.115994,-0.050612,-0.019344,0.135082,-0.034955
0.001165,0.099686,-0.021023,0.135937,0.117851,0.007707,-0.058412,0.047768,0.097254,-0.043127,0.131409,0.155284,-0.023815,-0.096810,-0.006092,-0.014570,0.097230,-0.115606,-0.102153,-0.162610,0.104822,0.022421,-0.101212,0.028501
0.015018,-0.016680,-0.087361,0.050535,0.101612,-0.008211,0.159797,0.157947,0.086712,0.103419,0.098199,-0.044982,-0.202952,0.229691,0.057476,-0.015288,-0.046567,-0.032680,-0.078975,-0.034160,0.060109,-0.063571,0.043293,-0.080713
-0.003029,-0.042967,-0.131805,-0.115079,-0.061995,0.046333,-0.009114,-0.037895,0.172463,-0.032617,0.184688,-0.023424,-0.070182,-0.147446,0.010058,0.008807,-0.007175,0.076318,-0.053394,-0.114432,-0.026404,0.099428,0.093593,0.153929
0.138275,-0.050028,-0.000345,0.036844,-0.090857,-0.032989,0.059139,-0.094319,-0.016033,0.245788,-0.042167,-0.053229,0.012531,0.083129,0.001434,0.060041,0.033835,0.043795,0.096444,0.200440,0.118639,-0.076607,0.045931,0.038708
0.079643,-0.030917,-0.044485,-0.015116,-0.096368,0.039904,-0.014319,0.015650,0.028126,0.029342,0.202139,0.066198,-0.251237,-0.122282,0.002953,0.146876,-0.062974,-0.152048,0.076855,-0.041671,0.099053,-0.028708,0.049470,0.051367
-0.039489,-0.148354,0.151577,-0.023954,-0.029394,-0.029860,-0.024642,0.050376,-0.027365,0.106589,-0.167557,-0.155760,0.055336,-0.082653,0.201066,-0.067167,0.221788,-0.108043,-0.089466,-0.055775,-0.179405,0.000775,0.160830,0.051170
0.124115,-0.061004,0.013698,-0.005905,-0.055212,0.058973,0.152247,0.065548,0.002933,0.104350,-0.005408,0.056364,-0.109896,-0.130548,-0.036804,0.118945,0.017665,-0.048683,0.144528,-0.088333,0.025162,-0.139477,0.030797,0.036356
0.069635,0.065793,-0.136740,-0.053292,-0.003562,0.169407,0.096530,0.026027,0.039839,0.141493,-0.112556,-0.191356,-0.147723,-0.127300,0.087065,0.120638,0.063054,0.000731,-0.127585,-0.052955,0.059995,0.001477,0.009676,-0.075974
0.099364,-0.136760,0.125865,0.086422,0.020912,-0.120193,0.103015,0.098791,-0.076744,0.117161,-0.004864,-0.095765,0.073724,0.103697,-0.128062,0.082322,0.017918,0.086261,0.068776,0.335140,0.118221,0.041226,0.044243,-0.000576
0.122194,0.031128,-0.066482,0.118329,0.188634,-0.032971,-0.071430,-0.053974,-0.027545,-0.138779,0.020475,0.069565,0.039613,0.013545,0.007925,0.053712,0.065543,0.000473,-0.098415,-0.124345,0.115016,-0.078364,-0.172094,-0.108941
-0.073545,0.013862,-0.018187,-0.051118,0.008399,-0.033436,0.099584,0.026766,-0.022669,0.073534,-0.061193,-0.169527,-0.191171,0.065891,0.016860,0.060146,-0.152555,0.103212,-0.137046,-0.035655,-0.128258,0.083114,0.242067,-0.122048
0.004379,0.071460,0.047394,-0.041799,0.159758,-0.036812,0.110604,0.056015,0.225296,-0.077977,-0.077517,0.037386,0.107033,0.289985,-0.016545,0.404029,-0.149156,0.121259,-0.033235,-0.220926,0.086692,-0.119262,0.082689,-0.075197
0.428684,-0.095781,0.298738,-0.122595,-0.073129,0.052768,0.007805,-0.389882,0.031548,0.146082,0.086891,0.249556,-0.007476,0.088582,-0.202694,0.152021,0.005293,0.019079,-0.220247,0.265347,0.103205,-0.072643,0.155495,0.142271
-0.002932,0.119307,0.075708,0.031799,-0.007257,0.023351,0.084651,-0.235114,-0.120079,-0.092499,-0.201466,-0.098967,0.062281,0.081853,0.010730,-0.075555,0.071486,0.140035,-0.001870,0.228459,-0.015329,-0.001890,-0.080936,-0.150760
0.055577,0.039483,-0.015879,0.154928,0.149281,0.020551,0.099346,-0.065428,-0.066977,-0.007186,-0.127725,0.130195,-0.039898,0.071514,0.093911,-0.017008,0.044637,0.053293,-0.109446,-0.030737,0.168504,-0.135674,-0.152902,-0.087917
0.002844,-0.086727,-0.163461,-0.110871,0.041374,0.101661,0.090563,0.012331,0.000154,0.157465,0.113827,0.023673,-0.144722,-0.007480,0.071991,0.193956,0.043751,-0.068941,0.024085,-0.043909,0.115928,-0.245420,0.097294,-0.016484
-0.110577,-0.019093,0.013216,-0.091689,-0.039930,0.094230,-0.061463,0.034358,0.118723,0.053447,0.155053,0.075014,0.060190,-0.238728,0.013494,-0.014370,-0.025212,-0.057796,0.106907,-0.039880,-0.045204,0.072867,0.133104,0.110035
-0.075692,-0.030214,0.067124,0.121384,0.030644,-0.044480,0.020597,-0.010461,0.011273,-0.079700,0.070044,-0.026009,0.131949,0.179607,0.009934,-0.120126,0.003717,0.094329,0.136494,0.138797,0.011890,0.160255,0.024583,0.003849
-0.083887,0.113143,0.065180,0.087267,0.013143,-0.023956,0.033407,0.108130,0.102318,0.045690,-0.003291,-0.076561,-0.115976,-0.133538,-0.150573,0.062537,0.012264,-0.036418,-0.458994,-0.124861,0.145452,0.027298,-0.124166,-0.030297
0.006668,-0.034876,-0.067164,0.018082,0.136884,-0.022176,0.125668,0.081341,-0.051295,0.175821,0.150689,-0.066624,-0.013036,-0.053928,0.240013,-0.002325,-0.155737,-0.045373,-0.107217,-0.021715,0.016044,0.197177,0.226976,-0.257201
0.158890,-0.072713,-0.218364,-0.050063,0.025875,0.062286,0.098505,-0.022964,-0.046856,0.214739,0.203989,-0.239352,-0.097491,0.017687,0.143154,0.091068,0.022987,0.139822,-0.032326,-0.086023,0.130491,-0.216430,-0.029839,0.146035
0.082421,-0.211476,-0.111480,-0.001141,-0.041084,-0.085870,-0.000099,-0.127821,0.071296,0.058669,0.064711,0.207067,0.076725,0.039932,0.053049,-0.039220,-0.037844,0.007969,-0.104104,0.011575,0.030309,0.117391,0.035497,-0.214196
-0.141189,0.000082,0.043533,-0.045308,0.011314,0.011984,-0.079909,0.128146,0.044837,-0.266575,-0.078583,-0.096993,-0.069290,0.027085,-0.046859,0.073084,0.118309,-0.000234,0.199645,-0.047485,0.017784,-0.083280,-0.171784,0.119960
-0.067173,-0.033826,0.116986,0.030040,-0.054654,-0.157613,-0.116004,0.027731,-0.047662,0.005692,0.175674,-0.067832,0.030990,0.009116,-0.139713,0.045060,0.021631,-0.095063,0.205333,0.024510,-0.083808,-0.140333,0.109669,0.011015
0.261804,-0.141183,-0.053165,-0.159636,0.204286,0.101906,-0.105799,0.129288,-0.035828,-0.148581,0.122444,-0.027680,0.030805,0.170705,-0.109818,0.037446,-0.042581,-0.146455,-0.158916,0.215317,-0.104269,0.017568,0.055775,-0.016753
0.046955,-0.217736,0.117584,0.279140,0.211476,-0.012496,0.066257,0.023834,-0.064524,-0.060398,-0.176403,-0.224303,-0.084552,-0.103910,0.173837,-0.062372,-0.152384,-0.069530,-0.130686,-0.112083,0.012004,-0.087930,0.315126,0.110043
-0.121934,-0.130775,0.102879,-0.124257,-0.103506,-0.031842,0.066143,0.065249,-0.154990,0.124309,-0.133169,-0.037873,-0.122275,0.049890,0.049604,-0.196459,0.414860,-0.045857,-0.091107,-0.002122,-0.216650,0.003192,-0.017477,0.051728
-0.096380,0.047394,-0.023799,-0.062366,0.067327,0.078127,0.061310,0.169073,0.003207,-0.251464,-0.127947,-0.025298,-0.173810,-0.015223,0.184800,0.029124,-0.027228,-0.027752,0.287259,-0.127746,-0.165677,0.099530,0.048362,-0.106720
-0.153798,0.030668,0.180085,-0.013804,-0.133001,-0.047326,-0.017422,-0.215996,-0.061661,-0.039407,0.013700,0.019341,0.002795,-0.055365,-0.024738,0.059763,-0.113279,-0.093381,-0.239179,-0.090741,0.044123,0.073753,0.094036,-0.011784
-0.032569,0.003077,0.111688,0.085204,0.049989,-0.031011,-0.025727,0.193842,0.004307,-0.120279,-0.209819,-0.021939,-0.027018,-0.018676,-0.113240,0.120473,0.073424,-0.023622,0.087806,0.059209,0.093007,-0.007317,-0.169582,-0.017023
0.086614,-0.069690,0.169820,-0.003239,0.048123,0.007062,-0.027602,0.136676,0.048724,0.108410,-0.036660,-0.129027,0.019218,-0.042310,-0.268742,0.071539,0.041278,-0.056874,-0.127721,0.193434,0.196390,0.114490,-0.002042,-0.062048
-0.123663,0.092195,0.233654,0.120315,-0.185782,-0.032182,-0.007266,-0.130916,-0.140949,0.042041,-0.113673,-0.010300,-0.053192,0.127957,0.016527,0.110230,-0.065914,-0.188620,-0.002788,-0.013706,-0.019137,-0.036289,0.104007,-0.103613
-0.139215,0.032596,0.090177,0.102509,0.018208,-0.116985,-0.080055,-0.041953,-0.002105,-0.157963,0.077793,0.008768,0.107803,0.109165,-0.071682,-0.146332,-0.003496,0.014873,-0.072674,-0.016811,-0.066999,0.163077,0.046670,0.027043
-0.154151,-0.108378,-0.028139,-0.097061,-0.044538,-0.005514,-0.131953,0.010037,0.033162,-0.092235,0.011843,0.131145,-0.080496,0.079479,0.205898,-0.004923,-0.093611,0.126479,0.084611,-0.129672,0.017770,0.053062,-0.035132,-0.014580
0.014940,0.018631,-0.113340,-0.122616,-0.112568,-0.067556,-0.005347,-0.259864,-0.020974,-0.017917,0.166893,-0.170857,-0.010462,0.109498,0.061595,0.001654,0.010161,0.055398,-0.070799,-0.068820,-0.044400,-0.081121,0.056179,0.112680
0.151248,0.005716,-0.125920,-0.059374,-0.154847,0.102677,0.149041,0.035591,0.165587,-0.018867,-0.038114,-0.319668,-0.135745,-0.043309,-0.083332,0.152644,0.062339,0.076271,-0.199435,-0.059732,0.070347,0.165160,-0.152720,0.222840
-0.027742,-0.036189,-0.004362,-0.123848,0.105293,-0.104410,-0.081681,-0.041038,0.053640,0.040142,-0.137572,-0.210237,-0.180663,0.126691,-0.114745,0.092783,-0.032932,0.238307,-0.157817,0.093590,-0.061594,0.031570,-0.025985,-0.034256
-0.075153,0.278934,-0.086289,-0.080354,0.130398,0.107292,0.298705,-0.041942,-0.174737,-0.014023,0.082312,0.142549,-0.189758,0.161065,-0.204879,0.087066,-0.021928,0.069675,0.044933,0.015881,0.126911,0.014656,-0.045376,0.013659
-0.043530,-0.110707,-0.155805,-0.100658,0.066667,0.044120,-0.028231,-0.042237,0.095194,-0.034804,0.158635,0.129738,0.079134,0.132220,0.234210,-0.110880,-0.032636,0.081614,-0.035923,-0.124504,0.086419,-0.007662,0.123439,-0.054775
0.005718,0.064383,-0.101930,0.178588,0.134672,-0.118918,-0.037971,-0.015220,-0.053349,0.021542,-0.021085,-0.020767,0.140008,-0.008396,0.028804,-0.217620,0.119635,0.099744,0.064432,0.057527,0.067476,-0.111548,-0.024259,-0.117992
0.091590,0.117765,0.169768,0.095643,0.084148,0.105563,0.095572,0.299606,-0.211421,-0.065478,0.108293,0.072779,-0.070235,0.014586,0.118781,-0.078703,-0.099896,0.255799,-0.017526,-0.188224,0.025480,-0.017401,0.127527,0.018302
0.062512,0.089244,0.182713,0.073395,0.009788,0.037658,0.034118,-0.107503,-0.070644,-0.112819,0.017447,0.103897,-0.062897,-0.040062,0.044924,0.121086,-0.082850,-0.062230,-0.104628,0.038251,-0.042104,0.069213,0.032649,-0.076602
-0.062464,-0.001037,-0.047953,0.098127,0.053108,0.085160,0.106809,-0.012650,0.089319,0.075622,0.128412,-0.060694,0.039173,-0.046292,0.037178,-0.043740,-0.036847,0.097479,0.155358,0.204289,0.032291,0.134083,0.053317,0.151284
0.087004,-0.220762,-0.017082,0.161394,-0.037157,-0.073061,-0.210530,-0.020305,0.181008,-0.132871,-0.114392,-0.109794,-0.062744,-0.081682,0.039346,-0.009238,-0.352641,0.074079,0.000714,-0.035922,0.066566,-0.055032,0.153100,-0.076651
-0.025206,-0.065196,0.038260,-0.026427,0.035192,-0.045782,0.153805,0.105170,-0.054004,0.201534,0.061786,-0.001505,0.069785,0.034172,0.117556,-0.048198,0.379613,-0.026537,-0.098916,-0.066413,-0.202252,0.115293,-0.012756,-0.068867
0.004489,-0.054029,0.158172,0.002335,-0.111681,-0.027839,0.024712,0.082758,-0.022184,0.232811,0.028862,-0.104075,0.030941,0.078807,0.001814,0.155766,0.010331,0.043538,0.271307,0.265647,0.078113,0.157501,0.178706,0.069320
0.009172,-0.120490,0.052707,-0.039505,-0.076075,-0.034720,0.010779,0.014581,0.022403,0.049979,0.032007,-0.057484,0.088254,0.156820,0.029713,-0.039005,-0.035241,0.046640,0.296019,0.186680,-0.049261,0.038126,0.148237,0.036135
-0.201953,0.126121,-0.154762,0.069195,-0.162817,0.190488,0.060602,0.024041,-0.129370,0.239330,-0.120207,-0.113994,0.089458,-0.027869,0.074006,0.053678,-0.060771,-0.074308,0.108334,0.015273,-0.003427,0.057398,0.078550,0.093934
0.074054,-0.024574,0.156559,-0.166559,0.036483,-0.045977,-0.070528,0.029444,0.246886,-0.136081,-0.001263,0.043121,-0.112430,0.078320,0.049673,-0.132993,0.028393,0.075856,-0.209854,0.075323,-0.137643,0.047443,-0.017953,-0.116334
0.005398,-0.164563,-0.048621,0.069059,-0.074099,-0.022624,-0.081394,0.012966,-0.139804,-0.058686,0.011662,0.041003,-0.490223,0.049416,0.014393,-0.276919,-0.104902,-0.015403,-0.026203,0.143343,0.022348,0.036155,-0.067318,-0.041484
-0.128115,-0.069363,-0.041429,-0.277293,-0.037383,-0.006560,0.186459,0.060824,-0.024247,0.105747,0.085635,0.112927,0.053860,0.191271,-0.073624,-0.104575,0.406782,0.050866,0.003704,-0.087641,-0.078712,0.070181,-0.037267,-0.170119
0.169221,-0.235900,-0.136886,0.041161,-0.290952,0.124101,0.312884,0.072178,0.009622,-0.015949,-0.061419,-0.195100,0.154533,0.148207,-0.203721,0.004794,-0.229529,-0.041468,-0.127031,-0.292832,-0.020393,0.377386,-0.288343,0.302337
-0.159855,0.297346,-0.191761,-0.177266,-0.032118,0.105875,0.199406,-0.106127,-0.061722,-0.069556,0.246718,0.284194,-0.021587,0.302538,-0.314991,-0.012372,0.059385,0.189116,0.133386,0.139339,0.123013,0.202545,-0.243217,-0.165276
-0.063847,-0.137948,0.042040,-0.074128,-0.054647,-0.034279,0.091829,0.031306,-0.116778,0.074525,-0.011334,0.009533,-0.081941,0.022176,0.010444,-0.152962,0.331723,-0.024723,-0.087125,0.007028,-0.155064,-0.033625,-0.043670,0.017301
-0.022338,0.047461,0.033104,-0.168580,-0.033221,-0.017541,0.006059,-0.009946,-0.016000,0.019330,-0.010238,-0.002083,0.003584,0.090743,-0.129731,-0.087802,0.076117,-0.038525,-0.143250,-0.061234,-0.125645,0.062479,-0.014111,-0.152174
0.083476,0.206054,-0.111075,0.017780,-0.244791,-0.177199,-0.019543,0.038893,0.097098,-0.095281,0.129533,-0.493189,-0.071060,0.057386,-0.103672,0.164530,0.217397,-0.109281,-0.141180,0.231583,0.143319,-0.000497,0.189008,0.014789
0.007744,-0.085596,0.038958,0.068278,0.027914,-0.018805,0.050040,0.015101,-0.226714,0.060362,0.058538,-0.056532,-0.386883,-0.036103,0.102175,-0.289319,0.123987,-0.149866,-0.019193,0.084095,0.092778,0.140229,0.030244,0.056923
-0.173785,-0.044892,-0.043536,-0.099252,0.041888,0.013882,0.100559,0.227789,-0.016753,-0.031473,-0.124077,0.021634,0.009319,-0.111699,0.108312,0.036542,-0.053847,0.055409,-0.009101,0.009315,0.098367,0.005691,-0.038143,0.023644
0.313270,-0.067382,0.237441,-0.094156,-0.019261,-0.077292,0.031050,-0.146133,0.098564,0.017125,0.174757,0.128634,-0.027294,-0.000917,0.157573,0.137561,-0.033604,-0.036342,-0.101873,0.130101,-0.020875,0.116083,0.112430,-0.215982
-0.283003,0.099221,-0.183767,0.077495,-0.098320,-0.082797,-0.080272,0.119029,-0.140149,0.125830,-0.046190,-0.099193,0.083698,0.005183,-0.056299,-0.070026,-0.077772,0.007431,-0.185320,-0.115979,-0.045354,0.114137,-0.096454,0.063239
0.369535,-0.140659,-0.005811,-0.069275,0.282271,0.032033,-0.061651,0.125544,-0.161293,-0.043943,0.100763,-0.050358,0.131720,0.243471,0.103041,-0.039605,-0.038135,-0.095268,0.142828,0.291627,-0.060096,-0.044990,0.051652,-0.030128
0.012246,-0.021282,-0.090853,0.186503,-0.015608,-0.020335,-0.016973,0.018727,-0.048997,-0.016764,0.124031,0.051014,-0.217624,-0.074281,0.084813,0.034169,-0.199225,0.031093,-0.051010,0.183511,-0.020377,0.015944,-0.092476,0.004607
-0.079896,0.050406,0.060195,-0.133986,0.020597,0.001017,0.039083,0.101510,0.152678,0.056809,-0.203969,-0.067823,0.292424,0.092848,0.015040,0.170391,0.027742,0.103922,-0.100970,-0.167648,-0.211002,-0.132296,0.106833,-0.096250
0.050808,-0.036846,0.165965,0.034375,0.091307,0.139454,-0.037129,-0.043878,0.205114,0.059962,-0.029637,0.120362,-0.113344,0.258555,-0.011108,-0.062081,0.006452,-0.308796,0.082208,-0.032345,0.040084,0.015805,0.029377,-0.060990
0.046353,0.061989,-0.058133,-0.008780,0.060116,-0.092750,0.087920,-0.028998,-0.016081,0.071953,-0.055873,-0.170523,-0.159254,0.059847,-0.090975,0.001973,-0.041265,0.026690,-0.124760,-0.002209,-0.079466,0.088927,0.193330,-0.145663
-0.042753,-0.283893,0.205538,0.216955,0.005091,-0.155680,-0.177144,-0.021125,0.097288,-0.122958,-0.162741,-0.210586,0.126865,-0.063251,0.136353,-0.146866,-0.032896,0.006513,-0.082938,-0.037075,-0.041578,0.037037,0.208631,0.140646
0.163448,0.127507,0.092169,0.185766,-0.032811,-0.120905,0.081414,-0.079058,-0.205097,-0.058900,-0.311397,-0.164467,-0.015003,0.250706,-0.035033,0.015786,0.002102,0.043134,-0.091056,0.074792,-0.016134,-0.105743,-0.237882,-0.098592
0.030311,0.064576,0.038540,0.137110,0.134979,-0.108383,0.012588,0.168661,0.198421,0.022369,0.135153,0.104516,-0.031764,0.003569,-0.012839,-0.090458,0.074363,-0.127705,-0.131925,-0.157734,0.155298,-0.167207,-0.121855,-0.084060
-0.130958,-0.035769,-0.005783,0.029910,-0.010536,-0.034851,0.012508,0.014100,0.121669,0.068696,0.149364,-0.009675,0.002436,-0.170101,0.005121,0.059986,-0.018887,0.122013,0.017408,0.047792,-0.104999,0.212711,0.220179,0.123820
0.108559,-0.033616,0.050902,-0.125442,-0.187528,0.041119,0.004705,0.221114,-0.121664,0.041028,0.007627,-0.050182,-0.034580,0.080204,-0.065082,0.117533,-0.136330,-0.245879,-0.063742,-0.209406,-0.016491,-0.088198,-0.151907,0.060256
