0.151673
-0.037983
-0.048845
0.199776
-0.025379
0.028209
-0.010998
-0.091331
0.089982
-0.054727
0.294418
-0.164994
-0.057754
0.003705
0.046129
-0.022517
-0.015644
0.018756
0.076798
-0.051996
-0.175378
-0.070766
-0.020046
-0.028677
0.247616
0.032140
0.013388
0.020272
0.280160
0.039336
-0.084356
0.051427
-0.023260
0.004216
0.045530
-0.072909
-0.082848
0.059077
-0.026949
-0.051036
-0.077109
0.047297
0.014223
0.293346
-0.062892
-0.057710
-0.117393
-0.037299
-0.008917
0.148698
0.005811
-0.073621
0.159390
-0.082060
-0.088633
-0.051321
-0.005916
-0.017415
-0.105940
0.073025
-0.020540
-0.002394
0.069715
-0.034414
-0.011864
-0.061372
0.135489
-0.067742
0.068253
-0.026845
-0.132609
-0.047435
0.010690
-0.063610
0.138214
-0.089693
-0.035890
0.000177
0.029059
-0.023337
-0.155637
0.014486
0.005234
-0.077214
-0.091585
0.065427
0.096336
-0.078784
0.038644
-0.110763
0.025468
0.041309
-0.027178
0.026913
0.065765
0.007026
0.038464
-0.256468
0.014050
-0.011459
0.034884
0.080758
-0.030816
0.042246
-0.175951
0.164770
0.016799
-0.038568
0.062760
-0.011456
-0.074505
0.003553
-0.002259
-0.004187
-0.315986
-0.033955
-0.029450
-0.185855
-0.028840
0.020495
0.041078
-0.113646
-0.060893
0.081278
0.155460
-0.128186
-0.080957
-0.008655
0.002195
0.010887
0.125989
-0.036883
0.034309
0.013262
0.056239
-0.079756
0.084289
-0.005884
-0.034319
-0.050166
-0.014371
-0.078006
0.005032
0.114983
-0.003860
0.101773
0.142006
0.003878
-0.013474
-0.018017
0.149750
-0.077613
-0.040218
-0.191032
0.140434
-0.087752
0.080714
-0.180866
-0.123463
0.134253
0.063561
0.138308
-0.099995
0.159826
-0.010741
-0.023190
-0.070719
0.019674
-0.047774
-0.077412
0.010883
-0.088806
0.290414
-0.008354
-0.025777
-0.038168
0.056437
0.011808
-0.054783
-0.030975
0.079806
0.048321
0.019763
0.067506
0.119595
-0.019658
-0.062898
-0.129750
-0.055329
-0.022499
-0.028372
0.256694
0.136270
-0.026255
0.023612
-0.021212
-0.031644
-0.064807
-0.022796
-0.070981
-0.054755
0.044211
-0.088412
0.081658
0.197159
-0.036203
0.061937
-0.058830
0.016797
-0.090396
0.045429
-0.030373
0.008398
-0.086087
-0.198546
0.015582
0.002852
0.014306
-0.158322
-0.001364
-0.082870
-0.035540
0.040268
-0.058913
0.280378
0.218196
-0.046515
0.041475
0.163540
-0.028008
-0.020611
-0.190392
0.025187
-0.022484
-0.262610
-0.164746
-0.039880
-0.157811
-0.043746
0.014639
0.006491
0.023058
-0.006739
-0.212768
0.030653
0.031997
0.021056
-0.027441
-0.113686
-0.052492
-0.019905
-0.019118
0.269994
-0.045728
-0.099563
-0.026305
0.115275
0.010640
-0.049866
0.183293
-0.089950
0.232662
0.131431
-0.001104
0.196809
-0.020097
-0.007348
-0.015974
-0.049686
-0.057657
0.051041
0.058000
-0.055888
-0.043992
-0.133800
0.087546
-0.024744
-0.059749
0.065235
0.018246
-0.036614
0.001320
0.030093
-0.048583
-0.024570
0.032953
-0.042791
-0.043785
-0.013522
-0.039821
-0.138387
0.049773
-0.010043
-0.015344
-0.180532
0.012776
-0.066373
-0.247938
-0.020538
-0.029677
-0.224362
-0.049745
0.075523
-0.069723
0.026382
-0.081286
0.052051
0.045998
0.186016
-0.019967
-0.043428
-0.048959
-0.024967
0.161419
-0.172799
-0.053061
-0.017406
0.250570
-0.002961
0.072330
-0.053717
0.001099
-0.017685
-0.087637
0.057429
-0.031379
0.267312
0.057349
-0.009435
-0.086393
0.252694
-0.030635
0.037926
-0.190294
-0.068300
-0.033067
-0.078646
0.125550
0.410893
0.004419
0.045733
-0.037440
-0.125662
-0.097450
-0.053707
-0.007537
-0.040826
0.007467
-0.066628
0.043351
-0.061815
-0.069567
-0.120671
-0.034930
-0.116947
-0.169651
-0.036189
-0.039691
-0.107698
0.046631
-0.017518
-0.073601
0.103838
-0.058874
0.033741
-0.056750
-0.037085
0.001266
-0.037199
-0.003902
-0.091823
0.034708
-0.093882
-0.006530
-0.124889
-0.009357
-0.004919
0.010464
0.281103
0.044425
-0.083265
-0.032016
0.002888
0.125523
