-0.001195,-0.051781,-0.073282,0.029645,0.071665,0.116186,0.114977,-0.059524,0.068779,-0.033394,0.039132,-0.023851,0.005491,0.016364,0.037427,0.024528,0.028528,-0.100828,-0.017596,0.004072,0.052757,0.015213,0.009381,-0.004294,0.030328,0.008007,-0.028280,-0.015663,0.032101,0.123915,0.177601,0.015931,-0.017662,0.005514,0.031327,-0.074676,0.039607,0.053665,-0.048385,-0.002218,-0.017177,0.110960,-0.064152,-0.037701,-0.017289,-0.017388,-0.016570,0.051145,-0.004359,-0.101079,-0.030785,-0.011039,-0.015796,0.005475,-0.025306,-0.047483,0.130989,0.028934,-0.056993,0.091525,-0.024294,-0.028513,0.018838,-0.056294
0.024173,-0.083286,0.001089,0.045044,-0.005143,0.024260,0.041958,0.121626,0.043328,-0.004469,-0.088623,-0.026403,0.044155,-0.085475,-0.065987,0.013574,0.001186,0.105584,-0.043647,0.013425,0.106164,-0.000626,0.050785,-0.001981,-0.039225,0.007158,-0.069367,0.071845,0.063246,-0.022244,-0.036266,0.055478,-0.054468,0.074036,0.010908,-0.042850,0.002259,-0.010682,-0.070841,-0.028572,-0.009332,0.064041,-0.022657,-0.029235,0.006800,0.097835,-0.012251,0.050146,0.008420,-0.044563,0.042642,0.013723,-0.103761,-0.140157,0.087411,-0.032389,0.007613,0.029629,0.072835,0.020183,-0.020988,-0.003842,0.047391,-0.061678
0.035210,-0.029675,0.076347,-0.020804,0.059029,0.032886,-0.037667,-0.019381,-0.025808,0.011436,0.004755,0.008246,-0.169141,-0.056694,0.083417,0.050081,0.024407,-0.059408,-0.043653,0.079815,-0.016630,0.020151,0.032390,-0.091160,0.060574,-0.063052,0.082609,-0.021141,-0.023269,0.014286,0.040747,0.029778,0.019300,0.008559,-0.014447,-0.009743,-0.049356,0.010756,0.037626,-0.054653,-0.046493,0.019915,0.027412,-0.033847,-0.047114,0.021176,-0.037224,-0.071629,-0.064072,-0.053100,0.032395,-0.004843,0.002974,0.089836,0.047417,-0.015575,-0.022436,-0.067058,0.004480,0.013785,0.029723,0.012401,0.089036,-0.008425
0.023841,-0.097971,-0.004080,-0.037635,0.007438,0.030443,0.122488,0.020353,0.040104,-0.001687,-0.042457,0.002026,-0.005406,0.057443,-0.031878,0.098923,0.067928,-0.071863,0.075066,-0.105799,-0.115555,-0.108586,0.107861,-0.007086,-0.064202,0.074116,-0.041541,0.036094,0.071148,0.077223,0.079568,0.108194,-0.002627,0.003344,-0.070563,-0.059101,-0.074038,0.093432,0.035287,-0.000358,0.036536,0.038900,0.077482,-0.051437,0.022835,-0.006981,0.038116,-0.001414,-0.075324,-0.096473,0.070188,-0.136207,0.019207,-0.069871,0.076293,0.026707,0.017221,0.054335,0.049381,0.017148,-0.098000,0.064606,-0.013428,0.027934
0.019142,0.052525,-0.007887,-0.005715,0.067962,-0.015783,-0.041634,-0.074268,-0.009253,-0.017801,-0.030019,-0.012232,-0.015726,-0.057424,-0.010902,0.023675,0.129854,-0.137604,0.095070,0.002154,0.021251,0.002810,0.016864,-0.003015,0.047161,-0.061539,0.059842,0.139854,-0.032854,-0.022694,0.047099,0.030212,0.062722,-0.039000,0.076470,0.042457,-0.047604,0.047245,-0.077686,-0.093638,-0.094246,-0.100644,-0.012984,0.033656,-0.000114,0.002385,-0.035967,-0.029407,0.054303,0.032943,-0.037770,-0.010696,0.014594,-0.003185,-0.053975,0.091728,0.025004,-0.007038,0.075288,0.009485,0.031563,0.113904,-0.030334,-0.025962
-0.015141,-0.005544,0.124990,-0.016391,-0.014036,-0.016098,0.032011,-0.013911,0.071302,0.054043,0.002876,-0.005391,-0.039854,0.036400,0.033189,0.131307,0.076705,0.119420,0.019212,0.037866,0.011100,-0.045451,-0.091177,-0.052017,0.083150,-0.029889,-0.009589,0.108063,-0.090809,0.047397,-0.034751,0.065802,0.050844,0.073941,0.007542,-0.025792,0.070509,0.037479,0.084926,-0.036729,-0.021786,-0.071948,0.001321,-0.041466,-0.025677,0.047942,0.028473,-0.041341,-0.039074,0.026543,-0.017674,0.055690,-0.026909,0.053048,0.037504,0.048307,0.045471,-0.014020,0.056518,0.058466,-0.064203,-0.042547,-0.046413,-0.024609
-0.068661,0.000460,-0.107972,0.190984,0.103993,-0.044805,0.016346,-0.133967,-0.079913,0.023748,-0.019730,0.010386,-0.030800,0.139495,-0.018084,0.073022,0.102222,0.021636,-0.141099,-0.020733,0.119632,0.078493,-0.022056,-0.016181,0.089529,0.133253,-0.052367,0.062194,0.031342,0.096609,0.021877,-0.024987,0.055098,-0.010880,-0.063279,-0.069452,-0.052383,0.112230,-0.034254,0.044370,0.011786,0.092923,-0.042096,-0.025513,-0.047976,-0.041459,0.034874,-0.028911,-0.081362,-0.019150,-0.036858,-0.079706,-0.085473,0.047857,-0.046768,-0.075168,0.137422,0.011974,-0.025253,0.038147,-0.079930,-0.021584,0.011356,-0.173035
0.025029,0.119646,0.033275,0.078946,0.002493,0.107776,-0.042072,-0.011534,0.011247,-0.016923,-0.014743,-0.159978,-0.039209,0.020779,0.041174,0.059505,-0.108118,-0.019940,-0.023522,-0.085193,-0.013691,0.005570,-0.003244,-0.030718,0.086065,-0.095865,-0.099541,0.051346,0.137586,-0.120098,0.019854,0.046342,0.016857,-0.058544,0.045461,-0.062257,-0.027868,0.006006,-0.040493,0.019122,0.100654,-0.052684,0.032641,0.021790,0.066947,0.098099,0.062597,-0.005717,-0.020034,-0.111677,0.052755,-0.038800,-0.012125,0.017372,-0.008644,0.035781,-0.051039,0.030594,0.056531,0.023635,0.049601,-0.016777,0.033674,0.004660
0.010574,-0.091970,0.050043,0.022564,-0.004294,-0.035360,0.032356,-0.023887,0.057737,0.017362,0.046185,-0.001402,-0.122795,0.077468,-0.090990,0.056623,0.041139,-0.064920,0.088127,-0.032152,-0.005549,-0.018496,0.061625,0.034836,0.008725,0.022874,-0.040008,-0.026756,0.051806,0.022299,0.071684,-0.122666,0.001815,0.036242,0.066553,-0.122036,0.071393,0.004250,-0.042818,-0.035419,0.043555,0.008546,-0.040691,-0.041044,-0.066208,-0.073511,-0.022807,0.022986,0.016318,-0.060938,0.005120,-0.102717,0.008842,-0.047749,0.031147,0.001537,0.011488,-0.048406,-0.041129,0.083307,-0.119908,0.008999,0.010807,0.047238
0.011123,0.035760,-0.113546,0.023629,-0.037534,-0.041990,-0.012280,-0.038416,0.018277,-0.018186,-0.044201,-0.120433,-0.031094,-0.013252,-0.074907,0.039763,-0.095807,-0.028005,0.114466,-0.035102,0.069874,-0.014604,0.011897,0.066441,-0.009582,-0.006587,0.013723,-0.034126,-0.009244,0.148181,0.019458,-0.098073,-0.049073,0.098754,-0.040375,-0.047797,0.011674,0.007173,-0.028096,0.031952,-0.046234,0.075627,-0.002008,-0.010766,0.076929,0.030546,-0.054352,0.088186,0.025044,-0.035210,-0.023346,-0.019374,0.115761,0.027569,-0.025310,-0.046358,0.074780,-0.006170,0.038281,0.034499,0.052076,0.055004,0.068498,-0.053915
-0.066035,0.040817,-0.111900,0.012387,0.015635,-0.118798,0.045076,0.101105,0.029234,-0.033705,0.071853,-0.144414,0.029550,-0.021544,0.032232,0.003846,0.014174,0.037622,-0.024689,-0.016058,-0.010224,0.035809,-0.072656,0.059318,-0.019301,0.064004,-0.005235,-0.081966,0.026562,-0.118136,-0.161019,0.014541,-0.077935,0.045431,-0.042477,-0.008774,-0.014493,-0.096423,-0.040756,0.021306,-0.158383,0.054485,-0.040811,-0.003945,-0.034416,0.052833,0.072157,-0.050290,0.102706,-0.020694,0.075201,-0.053077,-0.031204,-0.093270,-0.025697,0.069042,-0.069228,-0.047411,0.082986,-0.005268,0.073878,0.056579,0.066419,-0.059554
0.088841,0.073120,0.003560,0.063367,-0.063982,-0.042018,0.035042,0.014638,-0.041044,0.008328,0.054818,0.044576,-0.004125,-0.042845,-0.055298,0.041105,-0.090361,0.032490,0.022879,-0.044908,-0.001141,-0.061121,0.007533,-0.066369,-0.017235,0.033458,-0.063585,0.051405,0.060336,-0.095084,0.097004,0.040062,0.066407,0.032056,-0.016257,-0.065988,0.026384,0.055983,-0.005727,0.018925,0.010772,0.085960,0.015013,0.066170,0.056484,0.036689,0.124776,-0.038945,0.011342,-0.115820,-0.044686,0.027793,0.002015,-0.048519,-0.072993,0.020919,0.029618,0.036181,0.066259,0.021551,0.061450,0.014149,-0.061574,0.026458
-0.028038,0.111183,-0.063094,-0.086354,-0.005078,-0.015539,0.021828,0.049869,-0.090486,0.104117,0.090954,-0.024084,0.005428,-0.055073,-0.028489,-0.005088,-0.088478,-0.010545,-0.026372,-0.112680,0.023750,-0.080977,-0.012710,-0.062343,-0.027984,0.051980,0.008163,0.108226,-0.002300,-0.024959,0.002163,0.075803,0.059606,0.091956,0.004599,-0.101479,0.028444,-0.013440,-0.090739,0.034378,-0.041776,0.075252,-0.028074,0.118945,0.021456,-0.049629,0.074359,0.006682,0.065584,-0.083928,-0.045736,0.000298,-0.022087,-0.001052,-0.067959,-0.058508,-0.012058,-0.077483,0.034377,0.015445,0.005727,-0.032130,-0.012824,-0.034813
-0.053745,-0.060537,0.070455,-0.034497,-0.082547,-0.025389,0.094404,-0.010062,0.021116,-0.011795,0.016460,-0.029465,-0.060094,-0.067145,-0.033537,0.102788,0.020690,0.037749,-0.010609,0.016673,0.020659,-0.055402,-0.141783,0.023072,-0.035297,0.044266,0.027465,-0.066479,0.057065,-0.078545,-0.027208,-0.042404,-0.030203,0.118968,-0.026937,0.054509,-0.015952,0.035004,0.005029,0.011995,-0.036987,0.047700,-0.000505,0.021938,-0.058077,-0.022923,-0.011481,0.010754,0.009925,-0.028128,-0.038196,-0.074171,0.026593,0.031219,-0.008133,0.092877,-0.037237,-0.083503,-0.022104,0.078540,0.051895,0.063684,0.049994,-0.038285
-0.132260,-0.043951,0.048212,-0.046686,0.069033,0.046256,-0.067567,0.005116,0.180263,-0.019762,-0.070889,0.033328,-0.055974,0.019851,-0.031769,0.039158,-0.053956,0.136029,-0.060575,-0.051476,0.030674,0.025183,-0.055000,-0.011522,-0.012778,0.014040,-0.026636,0.052467,0.033445,-0.046242,-0.070571,-0.048130,0.052181,-0.011637,-0.049453,0.086538,0.074834,0.023757,0.110173,-0.085920,-0.018560,0.051841,-0.010874,-0.108656,-0.023980,-0.025473,-0.058258,0.028564,-0.029038,-0.072034,0.030993,0.052967,0.080213,0.059891,0.040436,-0.032613,-0.061185,-0.015293,-0.025283,-0.119315,0.045695,-0.009096,0.012000,-0.022892
-0.016804,0.029584,-0.023142,0.056047,0.014010,-0.008175,0.091622,0.084429,0.034789,0.014167,-0.006231,0.049582,0.076465,-0.004718,-0.041777,0.045067,0.052282,-0.068941,0.011656,-0.013312,-0.033151,-0.032068,-0.032669,0.026736,-0.013258,0.002044,0.017547,-0.001386,0.006404,-0.115803,0.053707,0.046813,-0.053002,0.023655,0.080585,0.149754,0.039552,0.014197,-0.026318,-0.038928,0.006617,-0.007972,0.021372,0.036320,-0.005190,-0.075115,-0.017133,0.018787,-0.094112,0.105274,-0.075694,-0.072721,-0.045158,-0.050302,-0.012590,-0.002590,0.042417,-0.004130,0.010674,-0.036983,0.047902,-0.048888,-0.043863,-0.021423
-0.026271,0.064857,-0.077685,0.018174,0.021969,-0.038604,-0.018700,0.047974,-0.081805,-0.060171,-0.096494,-0.004522,0.010599,-0.041989,-0.023183,-0.022694,0.032679,-0.009460,0.058009,-0.027508,-0.000037,-0.034945,-0.020923,0.089005,0.002304,0.073859,-0.007126,0.060592,0.012986,0.075357,-0.066861,-0.051246,-0.036382,-0.000099,0.007020,0.094405,0.078643,0.034962,-0.010385,0.009532,-0.021145,-0.021358,0.011954,0.097874,-0.003517,-0.014042,0.026408,0.009501,0.048738,0.109355,-0.102799,0.044763,-0.044684,-0.002537,-0.049726,0.002136,0.028394,0.013201,-0.018365,-0.076162,-0.106905,-0.010263,-0.069733,0.069009
0.091240,0.037803,0.065535,0.017499,0.039507,0.029096,0.004717,0.018149,-0.019733,-0.022702,-0.000561,-0.025583,0.055068,-0.047652,0.003745,0.067910,-0.091550,-0.014253,-0.018378,0.217132,0.104171,0.031688,-0.011649,0.038042,0.064999,-0.075404,0.170033,-0.041332,-0.094243,-0.083486,0.120195,-0.098170,0.022206,-0.011823,0.128061,0.039509,0.067702,0.023799,-0.108104,-0.013832,-0.086784,-0.031156,0.018457,0.055261,0.033116,-0.002763,0.024362,0.047752,-0.056714,-0.117754,0.018559,-0.007382,-0.037379,0.142490,-0.047893,-0.016570,0.001119,-0.042243,0.052249,0.073791,-0.070782,-0.016206,-0.041945,-0.038089
-0.050581,-0.146720,0.030686,0.009780,0.054283,-0.003106,0.068087,-0.007401,0.176036,-0.022043,-0.000279,-0.019469,-0.007782,0.050381,-0.028411,-0.077659,0.000727,0.007753,-0.061376,-0.014938,0.016942,0.032751,-0.083056,-0.032163,0.003145,0.042197,-0.011153,0.002553,0.005016,0.002990,-0.044950,0.123187,0.033255,-0.012654,-0.096488,0.021497,0.022097,0.042519,0.096013,-0.116895,0.016183,0.100116,-0.049350,-0.159432,-0.047471,0.009916,-0.048739,0.027670,-0.070265,-0.115822,0.116227,0.026877,0.060673,-0.038380,0.157821,-0.015982,-0.030391,0.012561,0.077185,0.015440,-0.037612,0.001974,-0.050220,-0.058518
0.125901,0.017615,0.000530,-0.084109,0.002236,-0.125068,0.073849,0.001412,-0.133913,-0.075835,0.056971,0.070809,0.055646,-0.014089,0.014350,-0.002347,0.096303,0.056773,0.131958,-0.069438,-0.019771,-0.016456,-0.065433,-0.026377,-0.048680,0.017042,-0.039125,-0.079059,-0.090132,0.050326,-0.052989,0.144496,0.072019,-0.047605,-0.048020,-0.014648,0.074446,0.072377,-0.119374,0.021875,-0.014147,-0.024426,0.115015,0.018718,0.031026,-0.060872,0.143436,0.002691,-0.082019,0.042134,-0.007262,0.004392,0.054182,0.056862,0.059607,-0.050818,0.093835,0.003295,0.101356,-0.009474,0.059250,0.081000,0.058844,0.011052
-0.045984,-0.068868,0.017021,-0.028242,-0.069189,-0.019330,-0.058480,-0.004901,0.092638,0.097947,0.032884,0.012181,-0.047642,-0.020378,-0.020453,-0.012861,-0.081914,0.073360,0.094674,0.029423,0.022143,0.129634,0.024621,-0.010068,0.032542,-0.053528,-0.027791,-0.055657,0.082755,-0.000073,-0.019814,0.077190,-0.030619,0.063175,-0.047398,0.095087,0.005202,-0.010216,0.084988,0.115304,-0.051814,0.041050,0.050447,0.041879,0.031733,0.042034,0.117979,-0.000827,0.012656,-0.008691,-0.013487,0.055826,0.060356,0.004304,0.108904,-0.082719,-0.011206,0.071564,-0.060899,0.042062,-0.009161,0.033031,0.087682,-0.007398
0.001202,-0.016306,0.047998,-0.047991,0.042977,0.019028,0.082278,0.029450,-0.012333,-0.018233,0.066608,-0.105927,0.150087,0.022762,-0.011561,-0.015483,-0.037956,0.054811,0.029282,-0.012141,-0.007951,0.115124,0.057882,0.061053,0.037779,0.040093,-0.017115,-0.042325,-0.090055,0.006438,0.021695,-0.007011,0.088651,-0.061851,0.020464,-0.031721,0.039009,0.029082,0.014771,0.086763,-0.005657,0.044106,0.028403,-0.031521,-0.022095,-0.018597,0.035741,0.029185,0.054365,0.087704,-0.026513,0.051124,-0.012800,-0.030848,-0.077019,-0.031634,-0.042286,0.007733,0.014357,0.072197,-0.054433,0.003808,-0.054925,-0.018793
-0.003417,-0.096183,0.017272,-0.039414,0.036866,0.078478,-0.106714,0.054243,-0.000544,0.020857,0.117005,-0.065675,0.066354,0.040815,0.055595,0.054467,0.048998,-0.055378,-0.023569,-0.008298,-0.010402,0.037654,0.049549,0.033925,-0.008240,-0.009285,0.066038,-0.012810,-0.010629,0.049811,-0.045276,-0.085666,-0.022133,0.083675,0.016608,-0.045848,-0.084305,-0.035650,-0.063001,0.083385,-0.020696,-0.116879,-0.090223,0.058425,0.007696,-0.020836,-0.036026,-0.028763,-0.030213,0.062169,-0.012536,0.012129,-0.008128,-0.026278,-0.036286,0.122773,0.019092,-0.036994,-0.058952,-0.076600,-0.017954,-0.111644,0.123327,-0.108465
0.042195,0.009727,-0.058275,-0.016323,0.034111,-0.065514,0.043539,-0.033230,-0.020176,0.000006,0.036091,-0.027630,-0.007680,0.019048,-0.041701,0.005360,0.032579,-0.063681,0.081474,-0.096254,-0.040947,-0.055618,-0.051394,-0.072123,0.005316,0.058189,0.029282,-0.088581,0.038355,0.066986,0.002321,-0.011490,0.010552,-0.024428,0.059955,0.024325,-0.134472,-0.021902,0.051370,-0.000771,-0.010108,-0.063688,-0.014209,0.027558,0.013072,-0.053551,0.010065,0.032269,-0.013086,0.037476,0.010140,0.141607,-0.010644,0.010029,-0.012203,-0.062092,-0.072554,-0.001617,0.010949,0.001430,0.022095,0.069498,-0.061768,0.087926
-0.097422,0.022007,-0.009430,-0.069942,-0.025286,-0.046609,0.090044,-0.063644,0.004782,-0.007633,0.021401,0.011441,-0.125238,-0.026879,0.024674,0.082139,0.067162,0.197390,0.007801,-0.016339,0.055395,0.096482,0.028669,0.025222,0.051620,0.000448,-0.062521,-0.038473,0.036868,0.037892,0.030626,0.037426,0.047535,0.226149,-0.013236,0.019917,0.051128,-0.076727,0.144693,0.029047,0.003848,0.008994,-0.006130,-0.005718,0.035339,0.002054,-0.049410,0.096323,-0.071751,0.031600,-0.068697,0.034076,0.021640,0.019630,-0.042144,0.141298,0.025324,0.010780,0.002256,0.086089,-0.015397,0.060082,0.055055,-0.040551
-0.036097,0.120431,-0.020420,-0.023560,0.030061,-0.071825,-0.021363,0.001768,0.010819,0.018728,0.038778,-0.062716,-0.018984,0.035282,-0.027544,0.095119,0.049979,0.063484,0.156275,0.005521,-0.042397,-0.064785,0.024676,0.021270,0.001540,-0.012355,0.000531,0.018362,-0.041057,0.002435,-0.000853,-0.021605,-0.049767,0.019574,0.050743,-0.010422,-0.072934,-0.070478,0.014821,0.103400,0.031269,-0.051805,-0.025050,-0.001284,-0.041043,-0.135180,-0.001436,-0.123102,0.016227,0.097095,-0.034774,-0.137630,-0.012730,-0.024869,0.003252,0.010993,0.010500,0.019778,0.063873,0.063693,-0.047072,0.020237,-0.080262,0.055784
0.033225,0.037599,0.013044,0.009724,0.001739,-0.046951,0.005516,-0.012784,0.106477,0.049465,-0.000805,0.039182,0.039116,-0.012761,0.012099,0.002101,0.015398,-0.005622,-0.010033,0.012666,0.049061,-0.012607,0.052649,-0.085599,0.040818,0.057812,0.037758,0.032901,-0.082092,0.005753,0.013346,0.048601,0.019666,0.002351,0.045429,0.014767,0.092333,0.004300,0.061029,-0.054517,-0.022096,-0.028587,-0.072912,-0.081819,-0.009403,-0.016759,0.011846,0.038740,-0.077939,-0.084117,-0.003936,-0.007088,-0.024388,-0.011619,0.031184,0.005654,-0.031624,0.047623,-0.033445,-0.108899,0.082853,-0.029478,0.034427,0.044747
-0.045050,0.018318,-0.066014,-0.051449,0.027103,-0.072156,-0.019839,0.026234,0.010747,0.073971,-0.055600,-0.019737,-0.005312,-0.008589,0.118042,-0.009941,0.088937,-0.023352,-0.003329,-0.034729,0.046992,-0.018209,0.022567,-0.045322,0.086553,-0.011064,0.007340,0.002773,0.052185,-0.030985,0.003449,0.031617,0.010901,-0.097581,-0.035069,-0.047981,0.031475,-0.074271,-0.146124,0.089034,0.056416,-0.017612,-0.038084,0.036571,0.002645,-0.012952,-0.068693,-0.032227,-0.033179,-0.065608,-0.026830,0.070445,-0.038781,0.089888,0.023625,-0.014233,-0.073221,0.031688,-0.013689,-0.015303,0.001727,-0.057816,-0.031001,-0.006668
0.039793,-0.063138,-0.021294,0.047123,-0.002675,-0.009760,0.003459,-0.028933,0.000699,0.097530,0.037304,-0.036699,-0.066526,0.038508,0.054425,0.051633,0.032139,0.008719,-0.000633,0.017145,0.094455,-0.070388,0.040764,0.021731,0.060870,0.074517,0.042012,0.057332,0.086123,0.192988,-0.067931,0.075692,0.075502,-0.013212,0.085030,-0.072999,-0.002986,0.075209,0.051588,-0.050022,-0.020358,-0.061373,0.111136,0.060454,0.045797,-0.094340,-0.066389,0.014087,-0.100067,-0.025169,0.084621,-0.044587,-0.021130,-0.053881,-0.078920,-0.027375,0.181935,0.135280,-0.046621,-0.041200,0.012964,-0.015961,-0.133187,0.022733
-0.017254,-0.006139,0.072156,-0.053188,-0.033243,0.079467,0.093858,0.022415,0.067126,0.012583,0.084055,-0.059110,0.015673,0.023336,0.067786,-0.047370,-0.004645,0.018927,-0.092074,-0.035099,0.064934,0.025972,-0.079203,0.008091,-0.042057,0.086805,-0.050143,-0.092149,0.071809,0.066615,0.007034,-0.038777,-0.010487,-0.055015,-0.009757,-0.013954,0.142909,0.040198,0.026322,0.002868,-0.135181,0.013760,-0.036549,-0.008160,0.038159,0.055536,-0.078534,-0.181426,0.007764,0.002580,0.017278,0.031328,0.036704,-0.011783,0.037222,0.014789,-0.014597,-0.023525,0.070166,0.019507,-0.015419,0.078261,0.057218,-0.003150
-0.045307,0.056142,-0.019585,0.099548,0.059564,-0.083170,-0.113388,-0.030980,0.059132,0.130229,0.003377,-0.036915,0.024325,0.070260,-0.027681,0.088968,-0.046911,0.019212,0.099566,0.006403,-0.100290,-0.070359,-0.064753,-0.046565,-0.034790,0.002807,-0.136951,0.001581,-0.039005,0.045386,0.033613,0.113324,-0.095004,0.011346,0.078653,0.072934,-0.043501,-0.101677,0.038157,-0.012843,-0.021549,0.037879,-0.125371,-0.038001,0.032959,-0.068938,0.101325,-0.002813,0.033249,0.028073,0.046429,0.117015,-0.025976,-0.015772,-0.010935,0.015992,0.027359,0.010030,0.024631,-0.070422,-0.060214,0.154370,0.070266,0.015198
-0.029416,0.004171,0.021107,0.027274,-0.034534,0.000529,0.001415,-0.025402,0.044879,0.067630,-0.087507,0.035406,-0.073840,-0.021982,-0.069754,-0.025473,0.068637,0.018443,0.061895,-0.031350,-0.088111,0.064201,-0.010595,-0.113061,-0.102073,-0.090714,0.030392,0.008844,-0.030376,-0.029537,0.003635,-0.030738,0.021460,-0.007611,-0.106756,-0.028505,-0.045333,0.000679,-0.037721,-0.016955,-0.106752,-0.014438,-0.016706,0.007907,0.052239,0.104822,-0.030722,0.047929,0.098323,0.010994,-0.046577,0.037989,0.126164,0.081047,0.191633,0.087209,-0.012879,-0.035423,0.114992,0.004247,0.011497,-0.027782,-0.065205,0.019772
-0.074892,-0.017842,0.063289,0.005749,-0.053163,0.026614,0.027886,0.061261,0.035317,-0.013369,-0.038623,0.057887,0.003166,0.080234,-0.045531,-0.110968,-0.077170,0.135252,-0.137759,0.070098,0.035049,-0.010910,-0.068285,0.102283,-0.042483,-0.018280,-0.087382,-0.037817,-0.054380,-0.022835,0.020322,0.051180,0.011337,0.056122,-0.065012,0.020540,-0.008271,-0.020615,-0.000940,-0.087512,0.113805,0.039400,-0.002977,-0.024030,-0.062116,-0.010258,-0.024094,0.049093,-0.072537,0.014395,0.038026,0.053976,0.015204,0.023895,0.023743,0.031714,-0.014942,0.025799,-0.036948,-0.088155,0.009917,-0.064801,-0.041179,-0.085948
-0.050798,0.022170,-0.049008,0.010566,0.095874,0.036010,-0.022397,-0.089471,-0.051209,-0.072038,-0.017049,0.020583,0.101026,0.004522,-0.085960,-0.009784,-0.033790,-0.006568,-0.062279,0.030407,0.023469,0.106062,-0.000152,0.034885,0.054905,0.081977,-0.030687,-0.003908,0.002738,0.013007,-0.007649,0.011576,-0.002215,0.018265,0.043578,-0.075539,0.005414,0.036056,-0.023722,0.054877,0.076954,0.022070,-0.041733,-0.048282,-0.066470,-0.014899,0.042504,-0.056077,-0.005736,0.058045,-0.117081,-0.028847,-0.080862,-0.017889,0.019877,-0.037615,0.006609,0.034968,0.004642,0.076573,-0.081045,-0.035590,0.012312,-0.116472
-0.017705,0.090198,0.088993,0.015998,-0.014129,-0.034623,0.024217,0.032862,-0.037039,0.032058,0.049718,-0.049971,-0.066729,0.026218,-0.011887,0.022509,-0.020366,-0.039537,0.007023,-0.039061,-0.073238,-0.000941,0.041769,-0.069684,0.072000,-0.074233,-0.106285,0.028476,0.086902,-0.119102,0.036942,0.027455,-0.038459,-0.046050,-0.025593,-0.130585,-0.047811,0.088014,-0.056351,0.061811,0.025729,-0.010285,-0.017507,0.052073,0.004107,0.093593,0.074531,-0.075307,-0.066763,-0.098355,-0.017390,-0.052939,0.005295,0.001330,-0.066011,0.058759,-0.041158,0.015318,0.000922,0.053523,0.101071,0.045983,-0.034129,0.066370
0.019004,-0.082066,-0.055715,-0.026833,0.002522,0.005933,-0.059700,0.095670,-0.021919,0.058682,-0.042331,-0.016472,0.010406,0.039217,0.039888,0.089319,0.037028,-0.007363,0.052782,0.003657,-0.013809,-0.018247,0.014946,0.019247,-0.057667,0.006973,-0.065315,-0.022420,0.068127,0.066160,-0.006094,-0.063615,-0.038205,-0.072305,-0.039996,0.060329,-0.055414,-0.064648,0.046491,0.120336,-0.021192,0.026143,0.000633,0.013066,0.006591,-0.011306,0.018709,-0.042675,0.069307,0.034402,-0.002864,-0.048356,-0.013518,-0.030216,-0.022282,-0.054503,-0.073280,-0.031901,0.039521,0.039523,-0.055862,0.044499,-0.118386,0.043982
0.057784,-0.074689,-0.103417,0.024936,-0.124285,-0.009548,-0.042854,-0.073313,0.088821,0.058606,0.025807,-0.026047,-0.004639,0.058120,0.126567,-0.048331,0.073982,-0.031037,0.036381,-0.018378,0.014321,0.048094,-0.043651,0.032773,-0.138938,0.063902,0.215327,0.154643,0.030585,0.091113,0.003799,-0.068868,0.044656,0.050037,0.100506,-0.004382,-0.118743,-0.053624,0.030379,0.031573,0.115951,0.078769,0.020448,0.016367,-0.048161,-0.149952,-0.053972,-0.026230,0.144059,0.059945,-0.022349,0.016025,-0.056122,-0.002227,-0.011832,0.064992,-0.067122,-0.098298,0.006463,0.055872,-0.023756,0.053652,0.060590,-0.059920
-0.061195,-0.122897,-0.018850,-0.020137,-0.005408,-0.029055,-0.073148,-0.029500,0.021290,-0.059417,0.055870,-0.049411,-0.029716,0.088988,-0.062540,0.014580,-0.035129,0.017869,-0.026887,0.014148,0.030922,-0.033772,-0.001497,-0.003902,0.051808,0.001018,0.022979,-0.032698,0.015315,-0.008722,0.055571,-0.083576,0.060046,-0.035319,0.004687,-0.019736,0.080143,-0.083653,0.095386,-0.043962,-0.045697,-0.013432,0.099542,-0.013742,0.051361,-0.075885,0.005834,0.022402,0.019448,-0.079347,0.001073,-0.049305,0.006456,0.040415,0.013760,-0.093442,0.011145,0.018510,0.036086,0.066697,0.062785,0.004705,0.000770,-0.019391
-0.037073,0.033974,-0.013183,0.022229,0.016002,0.029512,-0.063113,-0.004590,-0.044980,0.061009,-0.038177,0.043084,-0.051304,-0.038924,0.088443,-0.017045,0.029558,-0.000336,-0.048940,-0.008557,0.006546,0.054381,-0.003988,0.029093,-0.027511,-0.093263,-0.079570,-0.015677,0.133413,-0.025189,0.038566,0.081769,0.027893,-0.065423,0.033924,-0.097887,-0.054056,-0.012738,0.065400,-0.017829,0.092440,-0.059312,-0.028929,-0.074594,-0.177424,-0.041530,0.028088,-0.099764,-0.013390,-0.082464,0.036375,-0.060299,-0.018337,0.048962,-0.040899,0.013119,0.087231,0.113492,0.016700,-0.078113,0.078810,0.065479,0.033023,0.026541
-0.001404,0.076425,0.022346,-0.049508,0.060310,0.090319,-0.045102,-0.032583,-0.028961,0.040367,0.005683,0.026084,0.021678,0.053683,-0.005929,0.064252,-0.068903,0.061741,0.079523,0.079491,0.013287,0.006634,-0.095258,-0.002686,-0.008313,0.033964,0.072047,0.001205,0.014570,-0.042976,-0.121699,0.023713,0.061993,-0.051517,0.046780,0.025346,-0.022863,-0.054282,0.002998,-0.032244,-0.038101,-0.062699,0.059617,-0.033458,-0.132915,0.047820,0.059020,0.056918,0.088482,0.065457,0.057940,-0.106737,-0.001161,-0.058190,0.051197,-0.052200,0.006905,-0.047942,-0.003896,0.036222,0.039849,0.030690,0.019034,-0.004064
0.071667,0.056557,0.011876,0.003157,-0.038290,-0.050149,-0.037173,-0.035999,-0.046014,-0.020594,0.007242,-0.093042,0.017430,0.015586,0.086328,0.017546,-0.029513,0.065377,0.032436,-0.055943,-0.031184,-0.043618,0.016267,-0.049769,0.092651,-0.037973,-0.078526,-0.016777,0.086852,0.045115,0.009231,-0.047731,0.010340,-0.068330,0.061394,0.031083,-0.037068,-0.002636,-0.166532,-0.017990,-0.014313,-0.078856,0.035538,-0.011286,0.009692,0.099269,0.001407,0.071150,-0.035409,0.067433,-0.095095,-0.061844,0.153956,0.041353,-0.018899,0.015127,-0.018933,0.001185,-0.089618,-0.015278,-0.094993,-0.001408,0.062861,0.012689
-0.000650,-0.059641,-0.028767,0.011485,0.010841,-0.043681,-0.085222,0.072509,-0.003720,0.040496,0.095877,-0.076193,-0.008126,0.099168,0.065786,-0.021440,0.020483,0.111413,-0.040940,-0.009215,0.081345,-0.069213,0.051057,-0.137671,-0.046373,-0.065987,0.049377,0.063825,-0.095177,0.048575,0.056134,0.001193,0.085160,-0.002138,-0.007910,-0.005439,0.078391,0.034013,0.136866,-0.054208,0.033435,-0.020169,0.127590,0.065229,0.013605,0.009907,-0.060759,-0.010140,0.049390,-0.024880,0.134014,-0.083308,0.057993,-0.025107,-0.025187,-0.025851,0.011646,-0.028398,0.100958,0.056236,0.056036,-0.061695,-0.009959,0.083176
0.005016,-0.036528,-0.050266,-0.015791,-0.010875,0.056132,0.064055,-0.012466,0.019187,0.008606,0.010760,0.051374,-0.033637,-0.054961,0.042537,-0.020000,0.040814,-0.027920,-0.013521,-0.024583,-0.043420,0.012984,-0.059005,-0.032483,-0.044713,-0.025931,0.032454,-0.011145,-0.019048,0.013292,0.068330,0.036475,-0.048381,-0.055125,0.090034,-0.065606,-0.039683,-0.079286,0.117350,0.010508,-0.025726,0.076690,0.073781,-0.074490,-0.103900,-0.024622,0.003476,0.018469,-0.001548,-0.109592,-0.019088,-0.042333,-0.009157,-0.022560,-0.040060,0.030861,0.051207,0.060602,-0.036053,0.111773,-0.065333,0.032197,0.032089,-0.058900
0.044369,0.070005,-0.069018,0.059847,-0.058410,0.009348,0.000422,-0.119668,-0.017821,-0.029099,0.001142,-0.057957,0.040585,0.035053,-0.072266,-0.002377,0.073003,-0.044915,0.075819,-0.086493,0.111320,0.046813,0.119247,-0.064088,0.016738,-0.074133,-0.000536,-0.048150,-0.034605,0.035982,0.142265,-0.042105,0.001423,-0.040910,-0.069222,-0.043196,0.019639,0.130763,0.107273,0.008633,0.034082,0.061886,-0.138361,-0.013289,-0.026859,0.009807,0.074770,0.038938,-0.012437,0.007164,-0.026810,0.000101,-0.002638,-0.024418,0.005919,-0.050474,-0.029173,0.016128,-0.045439,-0.038470,-0.121609,0.002009,0.062978,-0.085410
0.004199,-0.046551,0.075823,0.005384,-0.024767,-0.044814,0.002226,-0.017483,0.038824,0.067248,0.028926,-0.010106,-0.039393,-0.023025,-0.146276,-0.046328,-0.059816,0.075213,-0.060666,0.013717,0.026659,-0.002637,-0.009389,-0.009763,-0.016268,-0.012665,0.005680,-0.064823,0.013370,-0.041409,0.031504,0.000885,0.014934,0.055891,-0.005912,-0.144281,0.041298,-0.034430,-0.038129,-0.010342,0.045527,0.084823,0.055773,-0.078276,-0.006747,0.035285,-0.006034,-0.082904,-0.039907,-0.056856,0.042032,-0.009084,-0.031098,-0.075211,0.013500,-0.080886,-0.034531,0.021402,0.009288,0.003391,0.008515,-0.025374,-0.009914,-0.034008
-0.005742,-0.007368,0.032397,-0.068090,-0.021331,-0.043101,0.029561,-0.002264,-0.042129,0.013229,0.102553,-0.000906,-0.122712,-0.025467,0.019018,0.052636,0.004070,0.085397,-0.036120,0.000458,0.096115,0.047533,-0.057097,-0.013244,-0.031724,-0.010047,0.020861,0.017539,-0.014797,0.015880,0.006564,-0.052485,-0.027107,0.036233,0.005542,0.009062,-0.007100,-0.012178,0.098007,0.115499,-0.016464,-0.023884,0.011254,-0.033437,-0.015048,0.023659,0.031230,0.030362,-0.051577,0.003879,-0.006316,0.011820,0.029236,0.040812,0.001301,-0.100424,-0.021374,-0.033311,-0.032160,0.020183,-0.024033,-0.007662,0.027486,-0.062659
0.038612,-0.020090,0.019529,0.001513,0.024362,-0.129125,-0.035294,0.009680,-0.001583,0.005573,-0.029760,-0.090028,0.011604,-0.097774,0.043953,-0.029466,0.069604,-0.053066,0.013839,-0.082511,-0.036834,-0.024380,-0.064577,-0.052910,-0.013206,0.042810,0.050670,-0.034711,-0.030838,0.026673,-0.023232,0.042039,-0.041580,0.007935,0.032192,0.021742,0.060264,0.071691,-0.093040,0.131259,0.022503,0.083217,0.050811,0.012187,0.112183,-0.029098,-0.079308,0.035068,0.017633,-0.107856,0.040547,0.072127,0.043757,0.024599,0.005028,0.077387,-0.122745,0.028648,0.073412,0.005405,-0.012776,-0.079939,-0.023427,-0.123738
0.097030,0.059947,-0.031347,0.029014,0.040321,0.021289,-0.042838,0.119295,0.022630,-0.041171,0.060825,0.003767,0.012888,0.108043,0.003758,-0.072358,0.081593,-0.012448,-0.012679,-0.014416,-0.044835,0.034371,-0.044720,0.059638,0.019849,-0.047954,-0.001500,-0.047662,-0.016394,-0.009061,-0.102553,-0.026412,0.048196,-0.050110,0.010062,-0.047293,-0.021836,0.007834,0.017657,-0.044332,-0.070628,0.073773,-0.018679,0.044371,0.048572,-0.042205,-0.035762,-0.002793,0.052547,-0.036977,0.017922,-0.023875,0.010950,-0.137134,-0.104945,-0.110013,-0.051332,0.084838,-0.006281,0.050601,-0.046433,-0.065679,-0.047105,0.040478
0.072022,0.047014,-0.044037,-0.034613,0.045195,-0.012612,-0.094467,0.006439,-0.046819,0.046260,0.055424,-0.058851,-0.048512,-0.051307,0.060905,-0.002686,-0.001411,-0.030958,0.058248,-0.093805,-0.050479,0.055350,0.015060,-0.032681,0.017817,0.017601,-0.013964,0.009832,-0.028549,-0.000853,0.066188,-0.092121,-0.091340,0.046342,0.044608,0.077986,-0.088509,-0.022705,-0.050653,0.059397,-0.058320,-0.032632,-0.028335,0.014344,0.076579,0.013900,0.065253,0.010465,0.001017,0.017354,0.017822,-0.023800,-0.011153,0.011228,-0.005206,-0.116840,0.009537,0.016638,0.049348,0.062610,0.066165,0.073300,0.036909,-0.003191
0.046886,-0.008044,0.053115,-0.033767,-0.012043,0.078233,0.016457,-0.041979,-0.001179,-0.029089,0.024334,0.048931,-0.066412,-0.043690,-0.054222,-0.074546,-0.000008,-0.017202,0.092615,-0.003268,-0.101759,0.132639,0.041189,0.068720,0.014165,0.001590,-0.035922,-0.058230,0.097500,-0.017161,-0.024853,0.016812,-0.014208,-0.112680,-0.068906,-0.008476,-0.080254,-0.014446,-0.022631,0.040398,-0.044350,-0.027737,-0.068595,0.107235,0.023259,-0.025035,0.047479,0.020687,0.051974,-0.011358,-0.067830,0.054356,0.032247,0.007647,0.161857,0.004052,-0.055612,0.019834,-0.009603,-0.035580,-0.053500,0.088717,-0.051325,-0.069134
-0.053329,-0.048180,0.090899,-0.040304,-0.006520,0.044303,0.055725,-0.024469,-0.019136,0.007366,0.022773,0.028829,-0.060599,-0.115185,0.034626,0.081082,-0.016199,0.076629,0.038489,0.015409,0.046424,0.025721,0.064958,-0.005782,-0.019329,-0.039235,0.007719,0.011387,0.059917,-0.104434,0.072032,-0.029190,-0.033134,0.033561,0.022076,0.086322,0.034542,-0.034592,0.016896,0.160613,0.000406,0.015499,0.023424,-0.057293,-0.021047,-0.028678,0.060470,-0.020304,-0.054424,0.036888,0.024734,-0.000254,0.073782,0.096280,0.067599,0.026885,0.005196,-0.006023,-0.050529,0.008378,-0.023440,0.014836,-0.012648,-0.083136
-0.049441,-0.039770,-0.012738,-0.115746,0.008579,-0.015379,-0.030235,0.081928,0.000495,-0.080872,0.004808,-0.036079,0.108262,-0.078944,0.006727,-0.057404,-0.017475,-0.005342,-0.046033,0.040982,-0.019052,0.007501,-0.002530,0.027310,0.044430,0.079759,0.002170,-0.031400,-0.025448,-0.075389,0.090335,0.015877,0.047391,0.010469,0.030426,-0.049566,0.037946,0.023369,0.028012,0.006902,0.051202,0.002765,0.028604,-0.102279,-0.091122,-0.005436,0.044796,-0.061663,0.031551,0.086723,-0.041075,0.024583,-0.078522,-0.052063,-0.099146,0.036165,-0.086213,0.054244,-0.021454,0.072125,0.017765,-0.007251,0.066023,0.076493
0.056326,0.024008,-0.076876,-0.049333,0.047631,0.013575,-0.053023,0.053809,-0.041601,-0.044840,0.049031,-0.081671,0.059143,0.026379,-0.017542,-0.080710,-0.006713,0.054194,-0.004448,0.075994,0.066128,0.070209,-0.050627,-0.033977,-0.075403,0.020805,0.080917,-0.038099,-0.114310,-0.016064,0.116124,-0.051845,0.046003,-0.076293,0.043771,-0.059547,0.093744,-0.040125,-0.038338,-0.052306,-0.045244,-0.004660,-0.016640,0.123471,0.016018,0.016263,-0.040982,0.059682,-0.018136,0.030451,-0.064890,0.027941,-0.021792,0.082660,-0.032035,-0.000536,-0.009560,-0.013819,-0.010296,0.001655,0.029806,0.008603,-0.096575,-0.004623
0.007053,-0.018691,-0.001449,0.050340,-0.057087,0.064063,-0.044242,0.042271,-0.016360,-0.027417,0.044449,0.028182,-0.082294,-0.008902,0.069594,-0.009853,0.011506,-0.019312,0.019100,0.007901,-0.071429,0.042772,0.060499,-0.058141,-0.088105,-0.094830,-0.092365,-0.040993,0.006796,0.058092,-0.004919,0.053407,0.086236,-0.075254,0.034285,-0.060688,-0.051414,-0.005701,0.033304,-0.008187,-0.056768,0.016506,0.003964,0.006863,0.083755,0.037486,-0.087539,-0.042557,0.052959,0.022272,0.012100,0.023977,0.024427,0.042014,-0.079861,-0.062207,0.052450,0.067635,0.010325,0.045887,-0.028075,0.037902,0.063353,-0.035800
0.076857,0.097635,-0.028413,0.063631,0.006664,0.015354,0.063264,0.048234,-0.029050,-0.009176,0.000808,0.135462,-0.081955,0.053263,0.017213,-0.059159,0.150758,-0.002530,-0.041317,0.008423,-0.035164,-0.138721,-0.027098,0.019917,-0.162555,-0.004633,-0.076540,0.004754,0.036436,-0.064727,-0.063599,-0.127464,-0.065980,-0.061644,-0.133218,0.007929,-0.096446,-0.079274,-0.056943,-0.018440,-0.141883,-0.062121,-0.003598,0.151281,-0.034736,0.077553,0.016586,-0.034408,0.029519,-0.116771,-0.029100,0.072939,0.030445,0.061412,0.093530,0.008606,0.028640,-0.126050,0.005501,0.021970,-0.116366,-0.033711,0.022454,0.001912
-0.066635,0.015796,0.037826,0.015453,-0.009450,0.020759,0.021146,0.047033,-0.122656,0.005463,-0.030505,0.077003,-0.012566,-0.057059,-0.028865,-0.025430,-0.087782,-0.044474,-0.068920,-0.065324,0.096616,0.003208,0.006296,0.007244,-0.021508,-0.017105,-0.000302,-0.168651,0.028527,0.001993,0.052687,-0.007033,0.000633,-0.024347,0.046020,-0.000430,-0.051552,-0.028436,-0.038621,0.029407,-0.027661,0.075573,-0.070729,0.029561,0.019985,-0.039906,-0.080032,-0.029767,0.088655,0.064689,-0.063036,-0.030506,0.097257,-0.022622,0.004306,0.132434,0.018033,-0.052651,-0.033905,-0.024938,0.029829,-0.119079,-0.069267,0.066917
-0.008541,0.055022,0.037391,0.056632,-0.022979,-0.026279,-0.101994,0.040361,0.019125,-0.046653,0.043505,0.048147,0.059551,-0.005588,-0.085083,0.030755,0.013965,-0.025164,0.013487,0.011921,0.017910,0.008919,-0.016843,0.103384,-0.008246,-0.055533,0.036153,0.068007,-0.009741,0.060156,0.025194,0.033565,0.029836,-0.098620,0.030398,-0.012566,-0.029216,0.033111,-0.005770,0.020321,0.017070,-0.009350,0.022248,-0.057103,0.049249,0.022492,0.004204,-0.032460,0.017994,-0.032612,-0.058859,0.003792,-0.025131,0.012316,0.041790,-0.075066,0.037177,-0.014722,-0.022344,0.021787,-0.039378,-0.028108,-0.057290,-0.036612
-0.042880,-0.002693,0.011990,0.026999,-0.017546,0.061788,0.040675,-0.015021,0.086839,-0.056218,0.040375,-0.066547,-0.015400,-0.029953,0.047809,0.002103,-0.001527,-0.025927,-0.014967,-0.032703,-0.016002,0.005074,0.025664,0.092971,-0.042586,0.016474,0.018377,-0.063129,0.000042,0.025100,0.073547,0.033050,-0.038320,-0.042949,0.060602,-0.027360,-0.029781,0.007055,-0.058459,-0.021370,-0.084412,0.040746,0.051307,0.054100,0.085936,0.041334,0.067437,0.083473,0.078132,0.022378,-0.013126,-0.037499,0.002146,0.033296,-0.104786,-0.001797,0.078983,-0.079433,-0.036259,0.138793,0.043458,0.051905,0.036929,-0.046550
-0.020155,-0.004467,0.007156,-0.051405,-0.063702,-0.072738,0.087229,0.008602,0.042553,0.051900,-0.016255,-0.003723,-0.074754,0.048427,-0.016092,-0.018060,0.011284,-0.030466,-0.050687,-0.092266,0.029935,0.073561,0.020103,0.032630,-0.023267,-0.046572,0.090591,0.025898,-0.039651,0.012491,-0.046433,0.009072,0.003790,-0.036379,0.026761,-0.059627,0.014171,0.006110,0.020925,-0.034151,-0.014372,-0.014916,-0.077456,0.030306,-0.032178,-0.085813,0.017352,-0.004933,0.096026,0.000327,0.034326,-0.017701,-0.126187,-0.016670,0.025271,-0.034719,0.091026,-0.069492,0.007878,0.071002,0.016052,0.008082,0.008455,0.083695
-0.019284,0.024472,-0.010762,-0.048058,-0.106372,0.120204,-0.016157,0.027476,-0.075283,0.018457,0.026676,0.023863,0.043323,-0.025369,-0.018726,-0.053971,-0.014944,0.032512,0.043834,-0.004142,-0.130816,-0.008837,0.031469,0.016071,-0.034017,-0.047323,-0.041807,0.041525,0.040237,0.092065,-0.025492,-0.028159,0.019146,-0.087163,0.028521,0.102029,-0.094576,-0.030881,-0.023211,0.063883,-0.032574,0.025730,0.069143,-0.029759,0.005393,0.043990,0.012769,-0.014546,0.113688,0.106876,-0.010519,-0.044214,0.016053,0.097703,-0.052150,-0.013822,0.020835,-0.016853,0.009284,-0.026826,-0.002401,0.136856,-0.007636,-0.077849
0.047691,-0.011487,0.017817,0.053148,0.070984,-0.012628,0.021487,-0.015396,-0.030143,-0.078362,0.015980,0.053533,-0.050611,-0.008646,-0.083741,-0.024999,0.005044,-0.041706,0.005761,0.013273,-0.055294,0.040717,-0.047902,0.057793,0.050393,-0.032267,-0.015290,0.079822,0.047798,0.049536,-0.041127,-0.071558,-0.020168,-0.109913,0.080329,0.084749,-0.080933,0.019844,0.072564,0.065350,0.023578,0.015592,0.057950,0.007274,-0.029438,0.073967,0.007690,-0.056247,0.050106,0.127857,0.050410,-0.041782,0.059102,0.126949,-0.066306,0.017782,0.040693,0.002892,-0.005264,0.069720,0.033406,0.049690,0.104835,0.058311
-0.051520,0.120301,-0.093972,-0.043856,0.028737,0.008324,-0.090148,0.064857,-0.011929,0.056224,0.020000,-0.062709,0.029693,-0.034863,0.093126,0.029200,-0.009156,-0.071491,-0.005425,-0.018241,-0.007379,-0.022966,-0.005757,0.009168,-0.016550,-0.057546,0.047767,-0.003465,0.040280,0.017919,0.015871,0.112889,0.046924,0.079841,0.050073,-0.017639,0.003186,-0.061719,-0.116963,0.117558,0.010403,-0.084679,-0.008558,0.082084,0.034637,-0.060032,0.038755,0.012300,0.062352,-0.017251,0.006907,0.003328,-0.000785,0.029690,-0.028016,0.028182,-0.043339,-0.047789,-0.066827,-0.001855,-0.031154,0.032319,0.021981,-0.118000
-0.024230,-0.056075,-0.085135,0.052318,-0.034044,0.035153,0.002049,-0.068403,-0.025871,-0.026962,0.056893,-0.031008,0.093868,-0.016687,0.006021,-0.037641,-0.088544,-0.000979,0.077909,-0.022505,-0.000274,0.022497,0.022935,0.032269,-0.061221,-0.007632,0.025685,-0.082174,-0.049239,0.015267,-0.011055,-0.031529,0.062628,0.048004,-0.050272,-0.056910,-0.020596,0.028982,0.016281,0.027750,0.059543,0.010234,-0.086302,0.046645,0.061763,0.092241,-0.007870,0.049994,-0.027651,-0.013590,-0.034525,-0.025956,0.008599,0.050677,0.056892,-0.062964,0.013496,0.011616,-0.125502,0.064967,0.083212,0.083797,0.029297,-0.023494
0.037162,0.008343,-0.061184,-0.089648,-0.000502,0.049228,-0.020819,0.040634,-0.038019,0.039240,-0.006594,-0.053152,-0.037794,0.033970,0.052040,0.119265,0.086554,-0.000451,0.049135,-0.009136,-0.125776,0.028866,0.032197,0.015550,0.078852,-0.013046,0.017621,0.124196,-0.066457,-0.038835,-0.004107,0.077095,-0.071680,0.030064,0.074130,0.009345,-0.037976,0.039309,0.029141,-0.014003,0.075783,-0.048925,-0.037848,0.007438,0.027977,-0.047174,0.098667,-0.019683,-0.020287,-0.110887,-0.051684,-0.002863,0.019225,-0.079128,-0.029802,-0.049079,0.011916,-0.001555,0.039158,0.016409,0.030273,0.007793,0.093014,-0.000437
0.095132,0.023272,-0.020622,-0.063211,-0.011612,-0.024269,0.025948,-0.054150,0.036397,0.072951,0.012291,-0.034496,0.008890,-0.037152,0.065541,0.125022,0.046208,-0.002925,0.048753,0.036303,-0.016814,0.068416,0.077099,-0.046163,0.121105,-0.009923,-0.030429,0.131049,-0.067710,-0.082764,-0.033603,0.057542,0.011073,-0.043801,-0.009079,0.025169,-0.028383,-0.011234,-0.022061,0.015746,-0.051636,0.025996,-0.049069,-0.013738,0.039885,-0.061732,0.027776,0.052157,0.035116,-0.061453,0.004754,0.036804,-0.070796,-0.050030,0.027621,0.010988,0.017115,0.049786,-0.035542,-0.030796,0.006683,-0.014319,0.085455,0.016545
-0.066447,0.114045,-0.059057,0.022410,0.090865,-0.083649,-0.019005,0.016076,-0.012243,0.027311,-0.082474,0.013511,-0.044350,-0.078012,0.067017,-0.030412,-0.011799,-0.058759,0.024296,0.107750,-0.063466,0.047235,-0.053689,-0.064764,0.044607,0.034255,-0.059220,-0.059358,-0.008735,-0.008565,-0.055218,-0.039515,-0.020767,0.032301,0.028670,0.118086,0.056612,0.024396,0.049208,0.033832,0.032817,0.056050,0.063976,-0.005829,0.013178,0.051764,-0.021212,-0.006920,0.045937,-0.019881,-0.003126,0.036906,0.008582,-0.010630,-0.037861,-0.060353,-0.004179,0.002267,0.052506,0.009170,-0.015175,-0.017399,-0.045794,-0.061242
-0.012482,0.005403,0.008253,0.028202,-0.027682,0.000724,0.018098,0.026996,0.000687,0.071092,0.043208,-0.071074,0.042772,0.006272,-0.133087,-0.065067,-0.083522,-0.005294,0.052099,0.046572,-0.010259,-0.021865,0.036298,-0.018977,-0.017681,0.013025,0.083509,-0.076511,-0.018138,-0.062299,0.008087,-0.038960,-0.015567,-0.085972,-0.062170,0.072272,-0.023756,0.005671,-0.123407,0.041921,-0.000779,0.018614,-0.017831,0.017785,-0.024619,-0.098583,0.014535,0.019350,0.025862,0.084848,0.075239,-0.001567,0.038987,0.019401,0.102831,-0.000355,0.029990,0.008828,-0.016914,0.012694,0.002872,0.018334,-0.100729,-0.034671
-0.002924,0.063410,-0.061228,-0.019227,-0.053839,0.062050,0.015127,0.029191,0.094587,0.041563,-0.005816,-0.020229,-0.046114,0.007876,-0.023031,0.051475,0.051344,-0.037365,-0.006867,-0.108032,-0.017918,0.020683,0.003808,-0.037539,-0.015693,0.024514,-0.062954,-0.093712,-0.080485,0.004165,-0.015975,0.061155,0.014277,-0.020446,-0.040698,-0.061791,-0.051548,0.000562,0.000081,0.039271,-0.007274,-0.028120,0.060238,-0.013712,-0.000875,-0.089489,0.065680,-0.056385,-0.025668,-0.082713,-0.026427,-0.004476,0.023358,0.000627,-0.060799,-0.019884,-0.009965,0.008464,-0.027536,-0.005343,0.023379,-0.047875,-0.059444,-0.030056
-0.072520,0.039242,-0.051249,0.014649,-0.086095,-0.008936,-0.000307,-0.012054,-0.005560,0.066406,0.026742,-0.046601,0.070040,-0.019141,0.030925,0.045542,0.064778,0.032595,0.027692,-0.051454,-0.034547,-0.055321,-0.009061,0.018344,-0.015626,0.011229,0.075474,-0.047292,-0.005900,0.006251,0.036870,0.057650,-0.010428,-0.019394,-0.023499,-0.043215,0.032834,-0.004781,-0.038500,0.156781,-0.002379,0.013227,0.029675,0.024256,0.050903,-0.048485,0.036163,0.060915,0.017219,-0.040615,0.077139,0.004380,0.027906,0.056968,0.047389,0.015587,-0.003967,0.088216,0.040032,-0.026874,-0.026706,-0.010456,-0.095197,-0.104229
-0.016533,0.034177,-0.051732,0.051197,-0.006161,0.008831,0.010150,0.024245,-0.013445,0.033992,-0.102026,-0.053262,0.011790,-0.033269,-0.103483,0.018803,-0.021544,0.011438,0.017879,0.018024,0.007361,0.038232,0.088524,0.046594,-0.025859,-0.112469,-0.077593,0.089255,-0.024159,-0.057791,-0.026953,0.026715,0.031214,0.126000,-0.138011,0.097168,-0.118744,-0.016272,-0.094090,-0.081309,0.047232,0.036746,0.128775,0.062107,-0.100454,-0.003750,0.034415,0.050078,0.079172,0.051729,-0.003100,0.074422,-0.062848,0.027729,0.048514,0.004490,0.051102,0.080366,-0.157036,0.006970,0.017921,-0.048118,0.038797,0.008995
0.079721,-0.015285,0.070335,0.010823,0.011624,0.011435,-0.011409,-0.004259,0.006940,-0.046498,0.018481,-0.087376,-0.021399,0.078008,0.048972,0.125458,-0.041779,0.012533,0.022333,-0.020327,-0.017815,0.011127,0.116170,0.007837,0.105987,-0.069622,-0.077614,-0.047575,0.043460,-0.072711,0.024969,-0.076554,-0.027042,0.004921,0.001254,-0.047893,0.047149,0.018352,-0.052254,-0.035847,-0.059538,-0.045517,-0.013055,-0.030045,-0.028920,-0.002961,-0.022688,-0.034824,-0.014179,-0.035348,-0.087328,-0.025037,-0.008992,-0.044507,-0.016072,0.011148,0.033212,0.014378,-0.027174,0.002085,0.021783,-0.060569,0.003459,-0.007191
-0.046086,0.001857,-0.085739,0.010362,-0.002821,0.005095,0.017830,0.039031,-0.038160,0.033940,0.054789,0.008601,0.030899,0.003363,-0.009536,0.086861,-0.044193,0.021305,0.055085,0.003564,-0.049085,-0.028174,-0.069348,0.099619,-0.011075,0.024227,-0.018011,-0.017141,0.037805,-0.011128,-0.011359,-0.119656,-0.021357,-0.085888,-0.039404,0.036884,0.026853,-0.071715,-0.100989,0.115499,0.050108,-0.024001,-0.051863,-0.043193,0.101980,0.070153,-0.034385,0.038911,0.011665,0.035926,0.028857,-0.083802,-0.021342,-0.009168,-0.019374,0.052190,0.049413,0.093076,0.088178,-0.045147,-0.050174,0.055312,-0.054996,0.012365
0.009102,-0.022542,-0.136612,-0.002292,-0.003306,-0.043948,-0.051710,0.123362,0.019837,0.025305,-0.026270,0.002033,0.141536,0.047419,-0.019238,0.017915,-0.033519,0.042758,-0.034140,-0.013162,-0.013428,-0.089168,-0.018663,-0.004554,-0.006618,0.018755,-0.005662,-0.003911,-0.011696,-0.040104,0.076060,-0.067668,-0.030040,0.006643,-0.000794,0.074019,-0.002288,0.090787,-0.063099,0.023001,-0.027017,-0.056199,0.096135,-0.004298,-0.057638,-0.001474,-0.011487,-0.015504,-0.015221,0.015969,-0.005183,-0.022278,-0.058795,-0.045275,-0.080075,-0.011367,-0.027678,-0.067606,0.026832,0.093001,0.004919,-0.031300,-0.019772,0.129104
0.046372,-0.103328,0.009750,0.101122,0.018927,0.128669,-0.055528,0.034666,0.035244,0.118405,0.081835,-0.017937,0.006756,0.050927,0.004939,-0.068414,-0.050971,-0.066571,-0.003953,0.053589,0.010837,-0.028101,-0.006305,-0.063387,-0.002681,0.027932,-0.025365,0.010146,0.075089,-0.006939,0.094796,0.040490,0.056493,0.138709,0.002806,-0.044662,-0.057670,-0.089946,-0.021355,0.026013,-0.008228,0.029546,0.014692,0.024869,0.004161,0.000427,0.053221,-0.042136,-0.086359,-0.010570,-0.047035,-0.015126,-0.070204,-0.122172,-0.044571,0.064668,-0.114939,-0.047915,0.026827,-0.056353,-0.010429,-0.080141,-0.006171,-0.051931
0.104090,0.008624,-0.137350,-0.030270,-0.031830,0.096538,0.048399,0.038851,-0.066797,-0.002792,0.018733,-0.115147,-0.005948,-0.002826,-0.136984,0.053977,0.020676,-0.007596,-0.035410,0.054164,0.054848,-0.008753,0.013126,-0.054529,-0.057892,0.000289,-0.099202,0.063602,-0.000066,-0.035819,-0.038624,-0.086014,0.023979,-0.019180,0.260316,0.059159,-0.009750,0.007679,0.027270,0.054295,0.017293,-0.046400,-0.048326,0.034149,-0.131327,-0.050702,-0.148197,-0.120764,-0.030671,-0.018570,0.059416,0.188011,-0.051576,-0.012000,0.097504,-0.130298,-0.067824,0.073937,-0.073749,-0.119905,-0.109797,0.081999,0.014901,0.059005
-0.068962,0.094653,0.000796,0.158094,-0.112737,0.008716,0.032350,-0.075453,0.037792,-0.093165,-0.045595,-0.027628,0.007995,0.077452,-0.042852,0.114478,0.151305,-0.094428,-0.032221,-0.031026,0.024077,0.026648,-0.063126,-0.052780,-0.017509,-0.057996,0.007714,-0.021868,-0.050878,0.011643,0.014656,0.019848,-0.003981,-0.018869,-0.107842,-0.022036,-0.015166,0.160033,-0.009748,-0.055946,0.014635,0.052029,-0.145937,-0.033407,-0.014881,0.062339,0.140910,-0.122807,0.058627,0.063139,-0.073305,-0.136108,-0.001406,-0.038774,-0.035488,-0.082192,-0.098380,-0.015602,-0.052072,0.059957,-0.136293,-0.027655,0.092758,-0.184853
-0.042672,0.008893,-0.053850,-0.054273,0.023392,-0.010288,0.040378,-0.016039,0.020960,-0.024707,-0.036722,-0.036333,0.044550,-0.005820,0.038096,0.023404,0.080223,0.035789,0.056504,0.049183,-0.010438,0.038315,0.075569,0.067624,-0.001395,0.032332,0.048804,0.027548,-0.010486,-0.124061,-0.001361,0.058230,-0.070441,0.087351,-0.021961,0.043274,0.020373,-0.022268,-0.010058,0.058785,-0.015514,-0.000029,0.027924,0.058518,0.033905,0.068797,0.064215,0.060524,0.018546,0.022057,0.056801,0.051042,-0.000270,-0.033209,-0.015408,0.019972,0.110697,-0.016727,-0.019376,0.063881,-0.091331,0.039195,-0.031202,-0.098733
0.069966,0.023624,0.061626,-0.018687,-0.020090,-0.068778,-0.052753,0.025862,-0.046611,-0.025811,-0.112920,-0.006255,0.090348,0.072049,-0.022344,0.096910,0.068325,0.003424,0.049770,0.038153,-0.075509,0.025749,0.010196,0.077303,0.006765,-0.027478,-0.013826,0.131740,0.004577,-0.098341,0.040986,0.095425,0.063021,-0.027945,0.037204,-0.014296,-0.010186,-0.063681,-0.028809,0.011909,-0.006853,-0.022513,0.018066,-0.000348,-0.009033,0.015946,0.068009,0.025693,0.040335,-0.000192,-0.017111,-0.043559,-0.000176,0.022508,-0.042350,0.015142,0.066158,0.007820,0.047395,0.076931,-0.050834,0.028360,-0.064458,0.031830
-0.027904,-0.047020,-0.016024,-0.045799,0.008328,-0.082492,-0.017388,0.011534,-0.084749,0.015482,0.025287,-0.121090,-0.016618,0.006528,-0.065960,-0.009300,-0.032459,0.053328,-0.054932,0.034392,0.029937,0.036056,-0.002898,0.033346,-0.048810,-0.058267,0.054551,-0.080969,0.018356,-0.119192,-0.115676,-0.023813,0.012928,-0.017368,-0.091420,0.068298,-0.135415,0.007745,-0.036537,0.121081,0.109025,0.080848,0.034317,-0.000974,0.072650,-0.010272,0.045140,0.016414,0.007719,0.019254,0.030330,-0.050818,-0.015878,-0.060584,0.088460,-0.084745,-0.015185,0.000648,-0.002354,-0.015233,0.046759,0.062198,-0.066866,0.005094
-0.033132,0.027758,-0.016197,-0.051144,0.023320,0.108502,-0.015347,0.010244,0.042391,-0.041792,0.000114,-0.012040,-0.000275,0.014965,0.076705,-0.030920,-0.035055,0.082446,-0.046362,0.029451,-0.014790,0.072820,0.031205,0.016710,-0.009616,-0.029776,-0.017604,-0.044409,0.049757,-0.023091,0.074978,-0.048581,0.110449,-0.070162,-0.072795,-0.014059,0.041375,-0.000953,0.014031,-0.131477,-0.025926,0.019409,-0.031285,-0.043729,-0.009706,-0.087719,-0.037883,-0.080111,-0.101778,-0.013062,0.090680,-0.000644,-0.001073,0.024325,0.081479,-0.061809,-0.014922,0.007720,-0.044082,-0.021517,-0.025210,-0.045754,-0.004652,0.056634
-0.038564,-0.031396,-0.070867,-0.007264,0.025787,-0.015432,0.008892,-0.020298,0.104052,-0.003148,-0.101218,0.029978,-0.042268,-0.078274,0.060073,-0.102081,0.033998,-0.045243,0.077582,0.024045,-0.016308,0.046201,0.015202,-0.084644,0.019174,0.023844,0.011863,-0.010615,-0.034643,0.083107,-0.003831,-0.035039,-0.004784,0.059302,-0.024164,0.092751,-0.088385,-0.004741,0.028271,-0.032037,-0.030419,-0.021544,-0.000991,0.097746,0.017909,0.044005,-0.065649,-0.067253,-0.059033,0.007016,0.004531,0.068435,-0.084655,-0.033041,-0.024652,-0.003266,-0.057549,-0.041636,0.014794,-0.000926,0.023031,-0.059966,0.015280,-0.115637
-0.039239,-0.015245,0.001597,0.017224,-0.029596,0.090862,-0.058879,-0.062298,-0.067887,-0.082132,-0.034574,0.054687,0.055945,0.047624,-0.031728,-0.002751,-0.026856,0.060653,-0.003697,0.075757,0.007012,-0.011196,0.049847,0.042860,-0.062614,-0.034277,0.152489,0.011063,0.006052,-0.065854,0.149827,0.025173,0.052300,-0.121379,0.044802,0.009739,0.048506,-0.027782,-0.001321,-0.013920,-0.036857,-0.055961,-0.007051,0.018007,-0.010621,0.043541,-0.107085,0.007577,0.009401,0.024403,0.053570,0.046910,0.050649,0.047141,-0.082860,-0.001203,-0.001556,0.083689,0.117513,0.087217,0.042212,0.019038,-0.060196,-0.017542
-0.074531,-0.002567,0.076929,0.052542,-0.027909,0.025421,0.025540,-0.047219,-0.008361,0.042959,0.059479,0.024186,0.043248,-0.005219,0.070787,-0.033435,-0.018761,0.019264,0.061656,-0.009727,0.000948,-0.017463,-0.042271,0.030186,-0.006233,-0.001764,-0.004623,0.046178,0.018283,0.009777,0.044988,-0.059384,-0.044988,-0.065243,0.005986,0.020818,0.097681,0.044823,-0.043358,0.043269,0.076422,-0.036108,-0.057153,0.097270,-0.006988,-0.081231,0.081226,0.032081,0.072498,0.117648,0.008605,-0.083157,0.030162,0.021505,0.032751,0.041049,0.063485,0.080197,-0.035712,-0.030611,-0.068908,-0.030013,-0.081795,-0.027112
-0.028119,0.001832,0.071574,0.023739,0.009574,0.066094,0.034831,0.022292,0.010549,0.014578,0.055397,0.016623,-0.072105,0.005413,-0.153657,0.169262,0.007814,-0.047301,0.027027,0.037614,-0.029444,0.075969,0.008808,0.042619,0.045092,0.038140,0.025475,0.008941,-0.010566,0.087234,-0.049940,-0.111759,-0.068571,-0.043855,0.058342,0.041684,-0.042185,0.011901,0.029032,-0.153554,-0.009861,0.055132,-0.012880,-0.066374,0.017379,0.035388,-0.016998,0.039445,0.064183,0.068851,0.014542,-0.030395,0.071476,-0.019238,-0.001569,0.065432,0.006936,-0.036686,0.074709,-0.046077,0.015037,0.049831,0.048405,0.028372
0.031077,0.005780,0.002113,-0.092800,0.011053,-0.025724,-0.021113,0.084603,-0.110674,0.019414,0.016839,-0.002237,0.028908,-0.008268,0.062409,0.071660,0.030647,0.019084,-0.034496,-0.031861,-0.077845,-0.040682,0.102575,0.008657,0.069350,0.001545,-0.117778,-0.058307,0.020297,0.021131,-0.035775,-0.137709,0.002678,0.056923,-0.032944,-0.056595,0.012652,0.016015,-0.057657,0.024831,0.029843,0.039391,-0.027007,0.068810,-0.011759,-0.000740,-0.002860,-0.046187,-0.038852,0.029223,-0.032594,-0.055804,0.055521,-0.046043,0.001900,-0.009008,0.010154,-0.064250,-0.121072,-0.109689,-0.017668,-0.124071,0.039501,0.010419
0.010583,-0.029795,-0.018378,-0.037625,0.070418,-0.007698,0.026435,-0.117281,-0.074032,0.012796,0.012750,0.053606,-0.005621,-0.082074,0.057197,0.003990,-0.019986,-0.073290,-0.141767,0.050191,-0.054401,0.028799,-0.069304,0.006296,-0.035088,0.006054,-0.064713,0.012914,-0.027278,0.048633,-0.020681,-0.001794,-0.022423,-0.037436,0.070517,0.021151,-0.042380,-0.052796,0.058704,0.012490,-0.049105,0.018311,-0.018851,0.015116,-0.005147,0.077527,-0.031946,-0.045114,-0.017741,0.028907,0.004711,-0.023833,-0.022333,0.004456,0.036324,-0.022518,0.010406,-0.008806,0.006413,0.083401,-0.031373,-0.065779,0.017034,0.037801
0.029356,-0.120671,-0.023995,0.045689,-0.049398,0.037949,0.027215,-0.003419,0.085772,-0.020055,-0.098197,0.040705,-0.028345,0.040004,-0.000055,-0.026262,-0.010794,-0.032752,0.056731,0.034130,-0.077374,0.052532,-0.027509,-0.033224,0.010538,-0.022119,0.019325,0.027743,-0.008790,-0.039512,-0.022924,0.056304,-0.058999,0.105101,-0.009296,0.069710,-0.019755,0.043826,-0.065764,0.097836,0.034665,0.030260,0.017557,-0.038952,-0.108782,0.078881,0.085201,0.079498,-0.050140,-0.061431,-0.054913,0.001781,0.028230,-0.026756,-0.047894,-0.044904,-0.009661,0.021391,-0.040353,-0.038990,0.011883,-0.008364,0.028945,0.115198
-0.006483,-0.063786,-0.016197,-0.056099,0.062474,-0.016054,0.076839,-0.059708,-0.099552,0.005202,0.060615,-0.032472,0.040331,-0.064775,0.012240,0.021106,0.059305,0.003526,-0.009309,0.050267,0.061647,0.022118,-0.042459,0.064700,-0.032336,-0.000382,0.011678,0.034000,-0.055219,0.085438,0.006205,0.018804,0.029945,-0.022256,0.000608,0.065417,-0.006323,0.008510,0.064769,0.003236,0.008167,0.035352,0.129157,-0.062503,-0.027294,0.058144,-0.020526,0.069984,0.001933,0.142110,0.082557,0.022281,0.059194,-0.005849,-0.013176,-0.041972,0.010146,0.000281,-0.072656,0.019850,-0.033196,0.038974,-0.056994,0.050454
0.003918,-0.057637,0.088178,-0.007407,0.077119,-0.037375,-0.033569,-0.002916,0.014545,0.033441,-0.001627,-0.147334,-0.035996,0.032536,0.041943,-0.036321,0.048095,-0.085166,-0.016205,-0.036608,-0.010147,-0.041889,0.020469,-0.077046,-0.012537,0.020177,-0.075511,0.002542,0.021608,0.008192,-0.004991,-0.073147,-0.068655,0.118448,0.011997,0.011585,-0.027982,0.036082,-0.038785,0.011251,-0.035292,-0.024251,0.039960,-0.034583,0.029629,0.038550,-0.077527,-0.034731,-0.041214,0.009276,-0.015183,0.027243,0.036470,-0.077292,-0.005242,0.038696,-0.047419,0.045034,-0.020206,-0.035121,-0.016325,0.017080,-0.058067,-0.050132
-0.002276,0.018014,-0.010349,0.002255,-0.031814,0.020668,-0.016788,0.038510,-0.012413,-0.102571,-0.054289,0.035052,0.036765,-0.049965,0.061320,0.025384,-0.081912,-0.002932,-0.120008,0.052429,-0.035720,0.025017,0.076512,0.066297,-0.048002,0.017423,0.092648,-0.031141,0.124344,-0.072063,0.017986,0.013603,0.009611,-0.020224,-0.036202,-0.067671,0.061687,-0.034168,0.027736,-0.018305,-0.005895,0.001865,0.072114,-0.025351,0.034709,-0.010263,-0.055512,0.056849,-0.047494,-0.084447,0.065419,-0.067070,-0.020387,-0.054639,-0.023918,-0.022470,-0.037894,-0.021752,0.044944,0.089018,-0.003230,-0.046246,0.070232,-0.081274
0.049569,-0.002961,-0.002365,0.015119,-0.053260,-0.052505,-0.009267,0.102423,0.003127,0.025298,0.018994,-0.062928,-0.103715,0.066548,0.025492,-0.027203,0.031578,0.070401,0.030474,-0.060207,-0.047147,0.032036,-0.029866,0.025187,-0.098910,-0.092417,0.016062,0.025628,0.004376,-0.008395,-0.006663,-0.029267,0.085442,-0.028755,-0.081753,0.012800,0.013948,-0.003410,0.079989,0.043450,-0.039787,-0.043875,0.091937,0.101650,-0.022797,0.104249,0.025958,0.050229,0.018258,0.141505,-0.027329,0.092697,0.086021,-0.075074,-0.035706,-0.031521,-0.001181,-0.080444,0.016521,0.054149,-0.055680,0.056279,-0.025601,0.040436
0.151555,0.010099,-0.012113,-0.079977,0.188961,-0.026861,0.062322,0.024919,0.062490,0.065414,-0.098984,0.099612,0.021829,-0.118115,-0.000180,0.207085,0.120273,-0.117612,0.087921,-0.033467,0.138427,0.144523,-0.020548,-0.070382,0.086604,0.056461,0.108996,0.193803,-0.128327,-0.097579,0.079140,-0.165085,-0.030347,-0.007930,0.152222,-0.134695,0.116821,0.135766,-0.036166,-0.068617,-0.163215,0.009717,0.044182,0.058929,-0.022148,0.072247,-0.028439,-0.045934,0.164783,-0.086676,-0.045748,-0.079952,0.134932,0.032700,0.035921,0.153577,-0.005163,0.134107,-0.016597,-0.006108,-0.032024,-0.075045,-0.011721,0.030423
-0.018157,-0.001597,-0.026546,-0.023214,0.016066,0.028494,-0.011967,0.006107,-0.037380,0.028755,-0.004135,0.007321,-0.001293,-0.001007,-0.001175,0.000686,-0.006033,0.000033,-0.022511,0.006220,-0.000847,-0.007847,0.005551,-0.007918,-0.031130,0.019864,0.004256,-0.014840,0.009385,0.002592,-0.033314,0.018695,-0.003129,0.020975,-0.031742,-0.012704,0.001334,0.005587,0.012561,-0.019616,0.022134,-0.017058,0.009350,-0.000378,-0.003006,-0.028179,-0.001547,-0.003826,-0.001201,-0.014224,-0.007994,0.001479,-0.024044,-0.022236,0.004089,-0.030818,0.005621,0.006152,0.011417,-0.036021,-0.003377,-0.006089,-0.000776,0.001030
-0.030614,0.044282,-0.050498,0.016207,0.024731,0.017580,0.027607,0.042180,-0.096522,-0.080058,-0.001207,0.032276,0.057294,0.006808,-0.035217,0.077020,0.043137,-0.007505,0.069468,-0.021319,-0.035403,-0.013641,0.047239,0.121030,-0.039298,0.000300,0.045890,-0.008146,0.058579,0.113267,-0.008976,0.049921,0.008977,0.043872,0.072868,-0.069846,-0.034572,-0.000940,0.030531,0.080905,-0.131879,0.018359,0.024803,0.034165,-0.013384,0.013619,-0.017096,-0.065409,0.031639,0.070369,-0.036014,0.032773,-0.046670,-0.051209,-0.033957,-0.058374,0.006473,-0.029712,0.144851,0.113144,-0.091884,0.039535,0.026090,0.041356
-0.175110,0.012486,-0.028638,0.148048,-0.052126,0.195550,-0.099636,-0.142880,-0.105463,-0.047992,-0.098235,0.005269,0.047709,0.031975,-0.005114,0.015426,0.052573,-0.001375,0.064910,-0.070122,0.044434,0.008466,-0.023772,0.141740,-0.045834,-0.105607,0.161794,-0.059911,0.149131,-0.023861,0.065297,0.054261,0.060328,-0.011461,0.008729,-0.073920,0.034733,-0.025965,0.026811,0.041439,-0.003374,-0.016098,0.080735,-0.015859,-0.040766,0.103412,-0.183368,0.000039,-0.030631,0.051027,0.015456,0.184151,0.041339,-0.018966,0.021837,0.104003,-0.097264,0.132875,0.138124,0.227739,0.066031,-0.003769,-0.032062,0.064858
0.018780,0.026029,0.070859,-0.009913,0.020745,-0.085788,0.033187,-0.065404,-0.030143,-0.045696,0.091974,-0.032473,-0.050488,0.026511,-0.063248,0.079965,-0.047345,-0.020231,0.031369,-0.043951,-0.037603,-0.092581,0.070429,-0.071054,0.047445,-0.004754,0.000564,0.013714,0.039989,-0.102506,0.058803,-0.007473,-0.011853,0.045425,0.009882,-0.063505,0.070323,0.067720,-0.017154,-0.017467,-0.003180,0.064240,0.030014,0.021389,-0.003615,0.042367,0.020677,-0.030985,-0.056149,-0.044926,-0.081999,-0.030966,0.077449,0.034696,-0.055786,-0.069358,0.014312,-0.020682,-0.043126,-0.011424,-0.053188,0.003330,-0.039186,0.040531
0.032612,-0.005091,-0.050365,0.065070,-0.042192,-0.082437,-0.077345,-0.012617,0.012059,-0.010917,0.033609,-0.083859,0.118664,0.020249,-0.095016,-0.072798,-0.018807,0.041019,-0.065909,0.062262,-0.096659,-0.069044,-0.060513,0.145275,-0.023293,0.002587,-0.051021,-0.064005,-0.011229,-0.010598,-0.015132,-0.058222,0.016565,0.005265,-0.006321,0.036332,0.028947,-0.046778,-0.075363,-0.041724,0.039147,-0.026641,-0.025293,0.082705,-0.081984,0.037518,-0.014780,-0.038802,0.098210,0.014569,0.002032,0.044412,0.001083,-0.014542,-0.029240,-0.077554,0.083538,0.000998,-0.037786,-0.052091,0.066298,0.035590,-0.041127,-0.010426
0.119285,-0.060661,-0.110117,-0.059679,-0.016125,0.073805,-0.053594,0.021836,-0.049479,-0.050262,-0.018694,0.008129,0.004905,-0.099148,-0.115239,-0.049412,0.098204,-0.009039,-0.040460,-0.020084,-0.005539,0.014521,0.156042,0.047850,0.022071,0.025884,0.011917,0.151911,-0.006938,-0.103615,0.046567,-0.071349,-0.070685,0.061335,0.010164,0.060517,0.007976,-0.064522,-0.091291,-0.017643,0.049984,-0.130979,0.119126,0.056462,-0.149400,0.055344,0.114187,-0.049535,-0.009177,-0.065990,-0.013861,-0.010257,-0.019699,0.086802,-0.040766,-0.077371,0.049646,0.018527,-0.050521,0.013641,-0.022360,0.043314,-0.070648,-0.054704
-0.040920,-0.015528,-0.001303,0.096999,-0.005842,-0.016612,0.011103,-0.057259,0.005919,0.060842,0.049870,-0.015253,-0.061564,0.099480,0.030772,0.027264,0.073229,-0.059759,-0.008944,-0.080855,-0.029195,-0.038054,0.081135,-0.022074,-0.107469,0.007478,0.024077,0.058964,0.091319,0.036725,-0.110576,-0.017349,-0.026922,-0.061007,-0.121518,0.014024,-0.032363,-0.024119,-0.005705,-0.026540,-0.030152,0.011957,-0.022186,0.048997,0.023811,0.054152,0.045844,0.011880,-0.016928,-0.060423,-0.041362,-0.136400,-0.002969,-0.000828,0.046179,-0.053021,0.117103,-0.085878,-0.023910,-0.007447,0.063841,0.006359,0.045222,-0.039249
-0.016591,-0.045812,0.047447,0.000761,-0.045428,-0.079607,0.015629,0.032232,0.031933,0.090545,0.034384,-0.082911,-0.081445,0.091056,-0.000403,0.024129,-0.059935,-0.083796,-0.057638,-0.144886,-0.003404,-0.038275,0.090731,0.050699,0.034719,-0.032914,0.099250,0.079607,0.053983,-0.004281,0.015244,0.038403,0.009183,0.079315,0.125489,-0.047467,-0.050244,0.013316,0.014344,0.034030,-0.049503,0.031541,-0.174245,0.099660,0.026519,0.010164,0.057107,-0.074205,0.079991,-0.000126,-0.003079,-0.048074,-0.054395,0.009240,-0.044981,0.020081,-0.029111,-0.076927,-0.001533,0.044634,0.040379,-0.037369,-0.032316,0.029953
-0.017759,-0.014782,-0.060148,0.143353,-0.008163,-0.061351,-0.062968,0.079643,0.000246,0.050060,-0.041527,-0.033316,-0.028597,0.067790,0.056913,0.106120,0.044258,0.038122,0.004386,-0.059985,0.074661,-0.035306,-0.107750,0.004152,-0.012827,-0.056670,0.069434,-0.032353,-0.047914,-0.052451,0.029547,0.046889,-0.036755,0.004769,-0.102724,0.033865,0.020335,0.032450,0.007709,-0.060179,-0.029338,-0.009942,0.053997,-0.003141,0.007472,0.081712,-0.009953,-0.012237,-0.004308,0.057233,0.078730,0.007148,0.047952,-0.020938,-0.146207,-0.021542,0.007681,-0.034852,-0.005604,0.093038,0.004664,0.028964,0.051314,-0.035959
-0.050659,-0.020885,0.056820,0.041608,-0.020786,-0.014185,-0.060768,0.033655,0.145075,-0.005922,-0.066387,0.055512,-0.073543,0.073204,-0.079402,-0.115868,-0.092572,0.084280,-0.134509,0.050721,0.114248,-0.019474,-0.037059,-0.065957,-0.046417,0.013938,-0.067717,-0.031295,0.085257,-0.039710,-0.030029,-0.008791,0.071808,0.062596,-0.119566,-0.037329,0.051288,0.059885,0.011664,-0.160607,0.142492,0.010279,-0.043121,-0.111964,-0.082443,-0.060576,-0.148303,-0.069703,-0.076472,-0.064241,0.103109,0.072423,0.016719,0.019814,0.108981,0.007838,-0.072463,0.073579,0.047707,-0.167107,0.087365,-0.020037,0.021861,-0.011082
-0.014635,0.009052,0.011218,-0.068573,0.079292,0.028924,0.011624,-0.138078,-0.028542,-0.018437,-0.010600,0.079959,0.044569,-0.077804,-0.032317,0.005284,-0.083694,-0.066086,-0.019985,0.030127,-0.065910,0.061976,0.047660,0.014946,-0.022823,0.054378,0.003623,-0.000148,0.138628,-0.018154,-0.045472,0.014952,-0.051349,-0.060236,0.051054,0.005064,-0.077409,-0.015710,-0.018184,0.052922,-0.000145,-0.012523,-0.074464,0.044611,0.048445,0.010473,0.046314,-0.039245,-0.005548,-0.093035,-0.084219,-0.027751,-0.037373,0.030465,0.240924,0.063880,0.052420,-0.024881,0.025718,-0.007302,0.010520,0.007068,0.011984,-0.092375
-0.026410,-0.075024,0.016846,-0.007129,0.031902,-0.007307,-0.056719,0.027319,-0.008689,0.044831,0.063411,0.031493,0.016264,-0.012496,0.003421,0.054424,-0.111905,0.120073,-0.053507,-0.065610,0.007226,0.014577,0.003631,0.047104,-0.078984,-0.018210,-0.020412,-0.033110,0.034576,-0.045782,0.034064,-0.029791,0.023783,0.013491,-0.071992,0.119445,-0.000937,0.039975,0.059466,0.069324,0.090047,-0.011321,0.069298,0.050458,0.004843,0.041673,0.014545,-0.020787,-0.054474,-0.024696,-0.021799,0.028050,-0.006531,0.046764,0.023734,-0.055855,0.039814,0.044786,-0.065913,0.024377,0.024538,-0.017374,-0.032417,-0.089661
0.087943,0.034596,-0.058584,-0.063947,0.024007,-0.006242,0.090504,-0.040009,0.052121,0.051638,-0.035218,-0.025999,-0.011549,-0.023358,0.024160,0.122642,0.080236,-0.106585,-0.001776,-0.094064,0.031438,0.037057,0.005470,0.054692,-0.053423,-0.020867,-0.105203,0.104180,-0.030194,-0.014096,0.069622,-0.106600,-0.108303,-0.016744,0.022894,-0.012537,0.006875,0.007525,-0.025486,0.058248,0.032788,0.019418,0.071021,0.027996,-0.005995,0.042519,-0.001528,-0.024318,0.097710,0.020996,-0.098793,-0.004144,0.132056,-0.066502,-0.012975,0.022385,0.133885,0.145867,0.008370,-0.021439,-0.007897,0.077204,0.045938,0.039861
0.057031,0.087304,-0.022075,0.076419,0.003108,0.076727,-0.051425,0.018771,-0.071685,-0.144957,-0.061481,-0.028327,0.039958,0.052850,-0.019171,0.002860,0.031284,0.004777,0.115547,-0.104464,0.027190,-0.022395,0.042531,0.043381,0.104652,-0.035327,0.061284,-0.028275,0.217013,-0.087563,-0.036663,-0.074469,0.022744,-0.046024,-0.030140,-0.000423,0.069920,0.000513,-0.013610,0.055807,0.010784,0.060606,-0.004313,-0.032489,-0.008116,0.022127,0.030963,-0.038553,0.002831,0.000130,-0.036037,0.042072,-0.010935,0.014499,-0.012936,0.063475,0.006965,-0.029020,0.030772,-0.110800,0.012669,0.058341,0.183619,-0.025563
-0.015954,0.017490,-0.050743,-0.031403,0.026775,-0.016172,-0.056723,-0.023240,0.045852,0.019496,0.123566,0.029102,-0.031843,0.004131,0.019813,-0.011795,-0.087054,0.106013,0.031799,0.103214,0.084640,0.046585,0.034825,0.011823,-0.020048,0.035739,0.056592,-0.035636,0.065938,-0.057799,0.016987,-0.041555,-0.034405,0.109692,-0.051577,0.028764,0.018038,0.020797,0.022025,0.156246,-0.048079,-0.028001,-0.012966,-0.024500,0.118149,-0.047836,0.084049,0.009519,-0.022576,-0.071007,0.063586,0.030447,0.079613,0.020338,0.048728,-0.098811,0.000741,0.131703,-0.079709,0.077285,-0.020471,0.025293,0.093560,-0.010996
-0.009434,0.052232,-0.010081,-0.023249,-0.064900,0.020988,0.022873,0.003322,-0.091906,0.032375,-0.105597,0.058719,0.017637,0.071552,0.009471,0.014658,0.035262,-0.109044,-0.056684,0.023190,0.019872,0.013187,0.063125,-0.051705,0.043277,-0.033618,-0.102554,-0.090872,-0.023582,-0.021377,0.080776,0.010696,0.017642,0.014466,-0.077642,-0.044036,-0.024397,-0.000438,0.087796,-0.093826,0.043070,-0.108925,0.036542,-0.048244,0.068682,-0.041826,-0.000087,-0.059901,-0.023831,0.059505,-0.025889,0.000415,-0.012204,0.020703,0.058072,-0.038241,0.132925,0.090971,0.040303,-0.057253,-0.090718,0.021584,-0.000860,0.012247
0.069709,-0.006335,0.001935,-0.040661,-0.006199,-0.131752,-0.140377,0.007495,-0.030612,0.021477,-0.076174,-0.049218,0.068146,0.042483,0.003869,0.079697,0.014087,0.119853,-0.030979,0.088284,-0.008292,0.100467,-0.048453,0.034928,0.009008,0.028843,-0.024816,0.032002,0.054978,-0.018903,-0.028174,0.058715,0.057173,0.056880,-0.029169,-0.022728,0.046610,-0.033022,-0.008777,0.010059,-0.070550,0.048044,0.051027,0.074988,0.007221,0.100092,-0.022153,0.051422,-0.037616,0.013643,0.065812,0.035420,-0.019468,0.028974,-0.066437,0.003694,0.110928,0.049028,0.040485,0.071465,-0.075503,-0.045625,-0.031997,-0.008526
-0.032867,0.045936,-0.172252,-0.017143,-0.079706,-0.011231,-0.020874,-0.004832,-0.002805,0.033252,0.040234,0.058245,0.036274,-0.006157,0.004602,0.035197,0.025620,-0.027853,0.025912,-0.086526,0.019949,-0.018716,0.044681,0.086086,-0.036808,-0.005283,-0.069552,0.018785,0.011465,-0.052862,0.085895,0.005941,0.066770,-0.002367,0.019482,-0.069893,0.016183,-0.053554,0.001058,0.010648,0.013689,0.004986,-0.072249,0.041819,0.078632,-0.064645,-0.041794,0.069986,-0.016447,0.055071,0.004374,-0.046139,0.106092,-0.095984,0.006051,0.041829,0.041513,0.016338,-0.025657,0.032894,-0.074947,-0.058880,-0.035888,-0.012526
-0.018059,0.090139,-0.000870,-0.036974,-0.036828,0.022625,0.015626,0.010156,-0.044867,0.042484,0.064697,-0.017783,-0.015149,0.026031,-0.072969,-0.023089,-0.010665,-0.058303,0.018621,-0.045502,0.003243,0.040831,0.010879,0.064379,-0.078406,0.054758,0.027990,-0.039480,0.016613,0.102981,0.091228,-0.044525,-0.120770,-0.047437,0.016581,0.001568,0.006213,-0.081663,-0.019366,-0.014933,0.016086,0.007766,0.019965,0.058263,0.074802,0.042079,-0.009543,0.068930,0.036217,0.012105,0.038020,-0.004935,0.067310,0.096946,-0.003235,-0.007549,0.012642,0.054078,-0.003041,0.033639,-0.012487,-0.005387,-0.023778,-0.026810
-0.081487,0.035914,-0.028307,-0.030865,0.048203,-0.057327,-0.009737,-0.038939,0.139307,-0.054645,-0.051722,0.040435,0.052151,0.031594,0.089568,-0.148017,-0.002531,0.106012,-0.057434,0.060035,0.064785,0.000049,-0.029392,-0.037600,0.055116,0.043134,-0.002693,-0.013045,-0.046229,-0.061652,-0.123759,0.101735,0.019383,0.000950,-0.080628,0.044805,0.022856,0.016970,0.062250,-0.078782,0.007405,0.057344,0.016073,-0.104890,-0.022877,-0.055063,-0.095017,-0.060996,-0.034226,0.060429,0.046353,0.029624,0.114564,0.059101,0.074615,-0.020163,0.017905,0.093279,0.061045,-0.062130,-0.029548,-0.043388,0.002170,0.023918
-0.031511,0.051897,0.026775,0.069146,-0.008528,0.105327,0.026208,0.047655,-0.020882,-0.045979,0.025271,-0.041704,0.030984,0.037670,-0.166375,0.069349,-0.054713,0.042625,0.011527,-0.079489,-0.063910,0.005334,0.062895,0.022232,0.093120,0.030976,-0.012130,0.028545,0.086450,-0.015410,-0.017229,0.030029,0.009577,-0.016059,0.012572,-0.021588,0.043053,-0.020664,0.043864,-0.042734,-0.064842,0.011126,-0.024658,-0.018570,-0.001902,0.071232,0.013577,0.104714,-0.035000,0.067185,-0.034399,-0.080865,0.096500,0.007417,-0.028235,-0.022233,0.026478,0.053647,0.053125,-0.001748,-0.088683,0.065947,-0.041884,0.035805
-0.060456,-0.010829,0.013958,0.047502,-0.009525,0.083587,-0.003853,0.050559,-0.020208,-0.034628,-0.118240,0.022563,0.037605,0.010331,-0.010889,0.055148,-0.098762,-0.044813,0.045131,-0.002653,-0.012094,-0.002479,-0.040483,0.071352,-0.095886,0.016924,-0.008148,-0.068928,0.063717,0.047575,0.012353,-0.063686,-0.004876,0.007983,-0.013340,-0.055116,0.004465,0.054200,-0.113794,0.025280,-0.013072,0.007160,0.076488,0.019312,0.045182,0.080630,-0.057479,-0.076828,0.002405,0.027004,-0.077158,-0.041889,0.055615,0.027832,-0.015564,-0.015908,0.026250,-0.012334,0.046027,-0.016532,-0.081790,0.092039,0.012592,-0.026946
-0.033324,-0.001529,0.012804,-0.073141,0.026733,0.004903,-0.012909,0.067982,-0.031199,0.008570,0.008384,-0.004883,-0.045668,0.019454,-0.051104,-0.036870,0.011119,0.012446,0.015115,0.037875,0.010890,0.020932,0.018433,-0.031532,-0.028570,0.027894,-0.090560,0.055417,0.043241,0.005638,-0.002238,-0.058983,0.007023,-0.033134,0.075925,-0.004002,-0.068708,0.005928,-0.005102,0.038820,-0.022740,0.023706,0.023492,0.029494,-0.040457,-0.088201,-0.017141,-0.054783,0.031657,-0.062182,0.010031,-0.068934,0.011461,0.007203,-0.014519,-0.046869,-0.025995,-0.017629,-0.011114,-0.048578,-0.110554,-0.017256,0.019471,0.020174
0.031988,-0.067588,-0.042773,-0.006550,-0.047359,0.026709,0.022270,-0.023656,0.017612,0.008113,0.006670,0.050409,-0.077401,0.050301,0.016257,-0.031978,0.032901,-0.103030,-0.037831,-0.008616,-0.046875,0.041732,-0.083143,0.029249,-0.004141,0.179775,0.001186,-0.087884,0.022341,0.066278,0.021830,0.045989,-0.002331,0.016835,0.001256,-0.129387,0.087708,-0.110260,0.009017,-0.016127,0.035229,-0.047682,-0.020609,-0.011197,-0.024006,0.148753,-0.047560,0.004961,-0.118964,0.005427,0.002356,-0.000068,-0.022809,0.047613,-0.041996,-0.125039,-0.038523,-0.100631,-0.025218,-0.071592,0.059593,-0.056935,0.063927,0.085446
-0.071753,-0.126941,0.006555,-0.044209,0.021288,0.001557,0.042913,-0.044066,-0.050925,0.028500,0.098509,0.048751,0.039260,-0.009735,-0.063344,0.041236,0.053340,-0.044375,-0.070776,0.034160,0.008342,-0.049281,-0.011050,0.026233,-0.071283,-0.011427,0.104155,0.030489,-0.085969,0.047052,0.142406,0.043859,-0.056717,0.103720,-0.043305,0.030947,-0.011478,0.021744,0.024277,-0.016710,-0.024106,0.061012,-0.018822,-0.020396,-0.031657,-0.079784,-0.022727,0.041895,0.054944,0.031918,-0.104229,0.009827,0.047226,-0.081345,-0.022339,-0.065514,-0.026706,-0.001256,0.026484,-0.008334,-0.062953,0.030555,-0.064601,0.000797
0.020051,-0.052968,-0.032617,0.061318,-0.101516,-0.064242,0.136281,0.078186,-0.030088,-0.037706,0.046897,-0.022238,0.057426,-0.088406,-0.078433,0.082639,-0.083275,0.001592,-0.082093,0.027876,-0.030216,-0.037251,-0.007577,0.079129,-0.129099,-0.016665,-0.146848,0.027979,-0.012486,-0.028301,0.078035,-0.001531,-0.020489,-0.042114,-0.104676,0.064806,-0.038485,-0.124384,0.027218,-0.028886,0.144816,-0.020758,0.028481,0.091693,0.036974,0.017846,-0.188942,0.062007,-0.027572,0.003268,-0.023554,-0.027900,-0.109103,-0.059107,0.071826,-0.095405,-0.005046,0.047759,-0.079707,-0.018305,0.168870,-0.017706,0.099047,-0.130204
0.059739,-0.094310,-0.046003,-0.015291,0.076853,-0.049804,-0.122508,0.011234,-0.019739,-0.006915,-0.095526,-0.068072,0.026716,0.020925,-0.061979,-0.075299,-0.026495,0.013359,-0.031686,-0.034886,0.060261,-0.031676,-0.059067,-0.032274,-0.018410,-0.066067,0.043999,-0.013969,0.010536,-0.059533,-0.069107,0.005592,0.027512,-0.012017,-0.043155,-0.017756,-0.025622,0.037238,0.062801,-0.044747,-0.028389,0.090354,-0.029400,-0.095890,-0.057391,0.049052,-0.055958,-0.077357,0.050776,-0.107731,0.036512,-0.010228,-0.022854,0.015815,-0.040517,-0.040820,0.025766,0.010446,0.026503,-0.055030,0.055391,-0.018385,0.059963,-0.004972
-0.017900,-0.072625,0.025404,0.005444,-0.057541,-0.016014,0.020798,0.099651,0.110564,-0.063589,0.002128,0.041310,0.065124,-0.002974,-0.076157,-0.039295,-0.177448,0.120795,-0.118472,0.078832,0.013585,-0.019865,-0.045941,0.026818,-0.097426,-0.039338,-0.140691,-0.055183,0.016688,0.030649,0.057148,0.081235,-0.020371,-0.002568,-0.198140,-0.049438,-0.009910,-0.103062,-0.003786,-0.087312,0.102830,0.024540,-0.060791,0.015139,-0.001351,0.001486,-0.176968,0.128611,-0.072429,-0.025971,0.076225,0.069195,-0.120431,-0.034322,0.056042,-0.090632,-0.075673,-0.003683,-0.090728,-0.116670,0.155497,-0.003266,0.008844,-0.131075
-0.033016,-0.143243,-0.050121,-0.015506,0.041956,-0.079610,-0.041405,0.059322,0.070189,0.067018,-0.127044,0.042524,0.042638,-0.009831,-0.006256,0.042661,0.103186,-0.132289,-0.008362,0.033496,-0.004840,0.058081,0.002435,0.009174,-0.051242,-0.061343,0.055115,-0.107624,-0.017329,0.034894,0.011056,-0.067239,0.139658,0.122203,-0.020134,0.008074,0.083933,-0.045957,-0.000013,0.019542,0.001847,0.013827,0.012369,0.087557,0.046044,-0.099965,0.016357,-0.047598,-0.020037,-0.016234,0.081173,0.014970,-0.102122,-0.033531,0.128999,0.004368,0.004087,-0.033828,-0.030077,0.001106,-0.019332,-0.038372,0.035065,-0.063899
0.038809,-0.019645,-0.038172,0.026989,-0.015419,0.012132,-0.019619,-0.060957,0.055878,-0.001506,-0.017242,0.038885,0.037304,0.025373,-0.006828,-0.031177,0.058434,0.013498,-0.020713,0.060128,0.011718,-0.044279,0.028850,-0.064413,0.062333,0.008929,-0.032579,-0.040336,0.007458,-0.023229,0.057088,0.012263,-0.002237,0.021974,0.006570,0.018368,-0.023028,-0.010355,0.018909,-0.071419,-0.057355,-0.035672,-0.057548,0.049755,0.048608,-0.066162,-0.103271,-0.116202,0.065930,-0.000427,-0.030998,-0.025217,0.063275,-0.038286,0.043622,0.034473,0.071537,0.019456,-0.020037,0.025705,0.028304,-0.015432,0.012546,0.063916
0.006449,0.047000,-0.021912,-0.003411,0.010475,-0.087913,0.031556,0.088645,-0.030489,0.012195,0.005404,-0.051062,0.103681,-0.007279,-0.008661,0.038937,0.087440,0.034816,0.041476,-0.012356,0.074098,-0.042417,-0.024575,0.075515,0.014773,-0.008163,0.005320,0.096733,0.078308,-0.010103,-0.016250,-0.010976,-0.028323,0.017732,0.045134,0.057552,0.048979,0.045933,0.020608,-0.041146,-0.023159,-0.040081,0.095692,0.103483,-0.054261,0.002561,0.006671,0.008408,0.018297,0.078041,0.041346,0.016979,-0.019912,-0.037206,-0.116182,0.055622,0.019592,0.059619,-0.081051,0.039073,0.002617,0.038664,-0.037269,0.016048
0.003958,-0.039522,0.080703,0.007917,0.107231,0.085852,-0.006135,-0.041519,-0.022363,-0.036539,-0.020647,0.064983,-0.079249,-0.008282,-0.013416,-0.004391,-0.025178,-0.081234,-0.042234,0.070615,-0.071157,0.021394,0.066901,0.055592,-0.004813,-0.021483,-0.028268,0.053748,0.110045,0.008000,-0.050170,0.054718,0.060214,0.020847,-0.051414,-0.014825,-0.096794,-0.048723,-0.022315,-0.072746,0.068833,-0.011900,0.002665,-0.055965,0.054081,0.013337,0.035612,-0.038361,-0.035672,-0.016245,0.024862,0.029356,0.021529,-0.028201,-0.077731,-0.055941,0.008428,-0.064970,0.048550,0.012032,0.014298,0.128909,0.071801,-0.026528
0.132300,-0.016912,-0.020541,-0.112123,-0.002660,-0.110904,0.000111,0.170436,0.089571,0.024097,0.071982,-0.023371,0.039886,0.052445,-0.017751,-0.049885,-0.064397,-0.030027,-0.043535,0.049845,-0.036985,0.000603,-0.028252,-0.079117,0.051643,0.022339,-0.198645,0.032675,-0.119876,-0.045269,-0.043428,-0.060236,-0.077250,0.006145,0.050795,0.030297,-0.016892,-0.088794,0.041550,0.030743,0.050810,0.045642,-0.059402,0.000533,0.044644,-0.045629,0.113680,0.016955,-0.034046,-0.069542,-0.004477,-0.231036,-0.013034,0.040383,0.015281,-0.104215,0.071655,-0.080693,-0.087553,-0.204382,-0.094348,0.156350,-0.021922,-0.086839
-0.070859,0.072371,0.032535,0.034358,0.030000,-0.070076,-0.085260,-0.042354,-0.010651,-0.033626,-0.122747,-0.070566,0.081611,0.012401,-0.029990,0.008300,-0.063896,0.031051,-0.080096,0.064076,0.088047,0.046790,0.007608,-0.011182,-0.013647,0.033186,0.041124,-0.045583,-0.015004,-0.075028,0.031824,0.020316,0.042180,-0.020430,-0.079499,0.054261,0.062865,0.024255,-0.061569,0.064196,-0.032827,-0.056706,0.108299,0.080724,0.039110,-0.073209,0.066277,-0.029711,-0.065890,-0.038310,0.071938,0.049085,-0.092568,-0.029250,0.063016,-0.066317,-0.027526,-0.032450,-0.003931,0.012401,0.004022,-0.019685,-0.006837,-0.002672
-0.037465,0.097812,-0.086202,-0.002703,0.010831,-0.026454,-0.009922,-0.046682,-0.031099,0.013361,-0.063915,-0.028500,0.014210,-0.067575,0.097263,-0.033815,0.035165,-0.105842,0.075800,-0.002228,0.007108,0.043985,-0.027014,0.027102,0.005818,0.020428,0.005096,0.041401,-0.029711,-0.046211,-0.050175,0.081707,-0.035755,-0.023527,-0.002370,0.079065,0.061870,0.007927,-0.028564,0.052392,-0.019668,0.040390,0.091847,0.018523,-0.003844,0.036265,0.021713,0.110412,0.071629,-0.004822,0.019882,0.038767,-0.024072,0.072220,-0.014484,-0.028326,-0.012797,-0.012604,0.020306,0.086940,0.062577,0.093523,-0.044213,-0.036374
-0.032305,-0.031669,-0.023714,0.017029,-0.010675,0.053463,0.003923,0.025572,-0.044029,0.034927,0.085034,0.010181,-0.043980,0.000674,0.034703,0.058054,-0.041648,0.024617,0.052127,-0.013499,-0.015900,-0.083106,-0.066854,-0.005023,0.014363,-0.064960,-0.007819,-0.043611,-0.089267,0.058597,-0.007525,0.009391,0.003379,-0.080762,-0.090856,-0.059196,0.041441,-0.026947,-0.027965,0.000542,0.085722,-0.022495,-0.087108,0.005263,0.041848,-0.022866,-0.076677,-0.028804,0.031669,0.023367,0.031992,-0.056119,-0.032578,0.002580,0.038394,0.012908,-0.004566,-0.012209,0.061250,-0.006951,0.014183,0.037094,-0.077523,0.080381
-0.027949,0.076895,-0.004535,-0.032874,-0.007066,0.117890,-0.018726,-0.051959,-0.009923,-0.063890,-0.087163,-0.011090,-0.035017,0.068517,0.076475,-0.006601,-0.057253,0.021554,0.138830,0.125913,-0.016184,0.004320,0.062417,-0.084353,0.072614,0.069213,-0.149484,-0.089559,0.002010,-0.034161,-0.079867,-0.147766,-0.014378,-0.038753,-0.023464,-0.005918,-0.050589,-0.003676,0.078951,-0.044415,0.036191,-0.065704,0.112173,0.010750,-0.021720,0.143856,0.051298,-0.030781,-0.033128,0.092796,0.021116,-0.088065,0.051264,-0.087126,-0.073917,0.037109,0.082216,0.017651,0.002996,-0.045565,0.033894,0.018193,0.001226,-0.066552
0.087852,-0.022145,0.036299,0.003229,0.058768,-0.058134,0.017813,-0.022044,-0.095447,-0.039112,-0.052441,-0.030955,0.101719,-0.020077,0.062378,-0.008127,0.005356,0.048126,0.042927,-0.083836,0.002542,-0.034701,-0.058240,0.004695,-0.015509,-0.001971,-0.008643,-0.034418,-0.077552,0.024850,-0.038661,0.043686,0.055596,0.035299,-0.025537,0.060288,-0.017668,0.012356,-0.076327,0.078235,-0.123419,-0.129527,0.088174,-0.062142,-0.027368,-0.070654,0.043990,0.056700,0.004113,0.024393,-0.060170,0.019318,0.019183,0.006542,0.048694,-0.080430,-0.016914,0.002454,-0.018555,-0.008898,-0.020257,-0.015910,0.093177,-0.028190
-0.062251,0.013117,-0.044541,-0.045796,-0.069740,-0.027892,0.025514,0.009299,0.041327,0.109462,0.056401,0.014837,-0.022516,-0.060584,0.020650,-0.020315,0.073702,-0.111272,-0.011282,-0.013109,0.019059,0.046013,-0.033464,0.013089,-0.035317,0.002367,0.063303,0.011071,-0.004250,-0.011645,0.015299,0.026483,0.009611,-0.041431,0.066618,-0.026760,-0.037489,-0.000689,0.074882,0.002487,0.064128,-0.029701,-0.062554,-0.027807,0.014670,0.030009,0.007292,0.010366,0.137404,0.042452,0.072159,0.022675,-0.078564,0.072197,0.067764,0.004770,0.051430,-0.097547,-0.083558,0.002257,-0.037260,0.020295,-0.021604,0.050426
0.018188,0.069490,0.067681,0.013771,-0.002338,-0.002323,0.085788,0.004417,0.007237,0.024439,0.083512,-0.000815,-0.078740,-0.000285,-0.111544,-0.036164,-0.051330,-0.000994,0.015246,0.020499,0.022599,-0.065246,0.006554,-0.083954,0.027911,0.016944,-0.110268,0.039572,0.012562,-0.016605,0.085990,0.065774,-0.027394,0.046180,-0.027740,-0.078910,0.039904,0.039444,-0.025270,-0.007621,0.031237,0.078554,-0.006421,0.032663,-0.021132,-0.014314,-0.043808,-0.035516,-0.107231,-0.082096,0.001408,0.033061,-0.019104,0.010688,0.032543,0.012861,-0.078536,0.013216,0.016516,0.024897,-0.014948,-0.064403,-0.074623,0.067365
-0.069112,-0.035912,0.100531,-0.037994,0.096241,0.052274,-0.099068,0.008901,0.028060,0.078153,0.020104,-0.076182,0.037633,0.021111,-0.090242,0.036633,0.031794,-0.127216,0.032164,-0.004385,-0.034919,-0.034118,-0.026109,0.010311,0.021716,-0.064838,0.013615,-0.031980,-0.057411,-0.015620,-0.041341,-0.092585,-0.027413,0.048995,0.036716,-0.109186,-0.099560,-0.073634,0.043706,0.096090,-0.081262,-0.092127,-0.033485,0.105005,-0.088097,0.001440,0.090200,-0.007264,-0.110220,0.022071,0.115131,-0.009973,-0.002521,-0.082727,-0.010384,0.050182,0.061532,0.013301,0.082872,0.028613,0.013213,-0.022529,0.007091,-0.006393
0.055064,-0.071907,0.042169,-0.010871,0.044677,-0.074768,-0.026079,-0.073480,-0.045580,-0.036727,0.049132,-0.031308,0.036109,-0.045650,0.097922,-0.026868,-0.017592,-0.081157,-0.030291,-0.074600,0.015591,-0.072348,0.032234,-0.090437,-0.075436,0.002854,0.029760,-0.067967,-0.018383,-0.002387,-0.003764,-0.002085,0.064905,-0.055985,-0.066947,0.004783,-0.020320,0.028700,-0.008338,0.091701,0.075605,0.001664,-0.013664,0.021470,0.000690,-0.010798,-0.028522,-0.001221,-0.014961,-0.080373,0.030352,0.080836,0.036449,0.032506,-0.135670,0.035803,-0.020079,-0.032921,0.010580,0.005232,0.021584,0.003542,0.011557,-0.047703
-0.089699,-0.036840,0.059138,0.034938,0.071193,-0.003092,-0.011662,0.010246,0.061552,-0.049239,-0.043001,-0.049506,0.033134,-0.026881,-0.022404,-0.012409,-0.018616,0.027523,0.033065,-0.026230,0.087617,0.022508,0.132386,-0.155891,-0.021860,0.022193,0.094517,0.028959,0.023582,0.051056,0.024901,-0.023162,0.030303,-0.055912,-0.029517,-0.102316,0.080998,0.108615,0.095712,0.023483,0.108731,0.024227,-0.010713,-0.092041,-0.015058,-0.000352,0.067373,-0.009602,0.052563,-0.030820,-0.040229,-0.033769,0.015460,-0.068776,0.052744,-0.012383,-0.004921,-0.002124,0.040027,-0.067110,0.036717,-0.095846,0.068966,0.001084
0.028824,0.008912,0.020761,0.036162,-0.036236,-0.077736,-0.024710,-0.068602,0.105513,0.004620,0.056142,-0.026759,0.051809,-0.018669,-0.048912,-0.083194,-0.035628,0.061656,0.003722,-0.087388,0.000537,0.013189,0.053236,-0.052963,0.062352,-0.002366,-0.052246,0.015066,-0.169789,-0.026448,-0.068134,0.000606,-0.044833,0.006280,0.016529,0.005124,0.023303,-0.036837,0.104304,0.034884,0.023988,0.020432,-0.072341,-0.036802,-0.024343,-0.022329,-0.004416,0.076589,0.037845,0.014730,0.036376,0.107337,0.065163,-0.059729,0.109084,-0.036580,-0.052351,0.004101,-0.037918,-0.135861,0.079507,0.003048,-0.022280,-0.063810
0.024688,0.091403,0.008630,-0.011975,-0.093912,-0.043352,0.022701,-0.030858,0.035007,-0.030626,-0.019684,-0.144171,-0.017355,0.077255,-0.084366,-0.062966,0.011869,0.052345,-0.055624,0.095974,-0.010763,0.072700,-0.069707,0.058086,0.023849,0.030882,0.030630,-0.063683,-0.072027,-0.082013,0.001567,0.033282,-0.068066,0.112112,-0.057149,0.042672,0.001144,-0.048611,0.065879,0.011361,0.004069,0.017633,-0.001839,-0.023663,-0.027564,-0.059546,-0.034666,0.035465,-0.061012,-0.063236,-0.028074,0.041915,-0.031277,0.056836,0.033215,0.008187,-0.037686,0.045212,-0.024266,-0.032801,-0.035462,-0.139755,0.020798,0.023359
0.017147,0.017040,0.027468,0.049742,0.028602,-0.010063,-0.029588,-0.055159,0.108317,0.048676,-0.019176,0.057749,0.083697,0.021898,-0.017867,0.037901,0.020771,0.025063,-0.027705,-0.001462,0.046999,-0.064047,-0.026267,-0.026215,0.022278,0.047586,-0.003602,0.047766,-0.132219,0.018765,0.035343,-0.007249,-0.020935,0.089661,0.062723,0.027574,0.140912,0.035330,-0.057276,-0.081257,0.091183,-0.105486,-0.094125,0.021416,-0.031113,0.012826,-0.060161,-0.048646,0.031045,0.013295,-0.002772,-0.043127,0.038241,0.018644,0.002261,0.009413,0.010826,0.098807,0.009153,-0.018477,0.006640,-0.007607,-0.084851,0.102840
0.044185,-0.034617,-0.098655,0.097452,0.004343,0.024976,0.007168,0.006586,-0.041150,0.003060,-0.036741,0.116668,0.021866,0.001803,0.021638,0.052449,-0.045142,-0.091161,-0.068441,-0.004982,-0.028874,0.037929,-0.022192,0.029364,0.039395,0.078258,-0.068514,-0.089662,0.060501,-0.080122,0.024849,-0.016991,-0.090429,0.035614,0.082906,-0.037155,0.040873,-0.081271,-0.108292,-0.012293,0.057781,0.030970,0.043803,0.069898,0.095359,-0.056187,-0.016890,-0.046791,0.024656,0.060963,0.077382,-0.083370,0.096219,-0.038014,-0.040065,0.020305,0.029966,-0.001675,0.004790,0.018623,-0.013410,0.065586,0.029752,0.043298
-0.022388,0.061045,-0.023566,-0.098379,-0.009937,-0.001560,0.032522,-0.084300,-0.005243,-0.087652,-0.073895,0.005335,0.031414,0.033629,0.016554,-0.057985,0.015940,0.043747,-0.009825,0.051376,-0.003235,0.046358,-0.052469,0.033574,0.031408,0.015482,0.065068,-0.112963,-0.003169,0.008484,-0.014961,0.010359,0.025499,-0.101899,-0.036747,0.024195,0.065778,-0.009143,0.061438,-0.062127,0.003256,-0.068146,0.079809,0.001683,-0.043689,0.029989,0.019283,0.072496,-0.031175,0.051741,0.009532,-0.050993,0.094276,0.074437,-0.055340,-0.039884,0.054089,-0.028626,0.030717,0.013130,-0.014196,0.074846,-0.031684,-0.011316
-0.032737,0.002120,-0.051731,-0.026725,0.026586,0.007298,-0.071352,-0.050042,0.070103,0.018314,-0.037394,0.066110,-0.009258,-0.009884,0.163574,-0.035983,0.000643,-0.003629,0.108051,0.085625,0.006912,0.066221,0.064495,-0.030530,0.014948,0.014619,0.013811,-0.035464,-0.018147,-0.092616,0.003387,-0.024237,-0.023818,0.004582,-0.136825,-0.008617,0.085201,0.018401,0.018762,0.010771,0.025566,0.008709,-0.030382,0.034841,0.008954,-0.047022,-0.035919,-0.020447,-0.023105,0.003778,0.078078,0.054796,-0.107791,-0.093269,0.045561,0.073330,0.012017,-0.030786,-0.013989,-0.005075,-0.008363,-0.034309,-0.104016,-0.040638
-0.073166,-0.004726,-0.023271,0.017796,0.067465,-0.040415,0.028519,0.035068,0.015756,0.059269,0.033427,0.054299,-0.049032,0.023988,-0.040550,-0.094050,-0.104445,-0.049701,0.008174,0.028691,0.014219,-0.034017,-0.042695,-0.038606,0.059864,-0.026050,0.008944,-0.035883,0.114774,-0.152361,0.024772,0.053098,0.043733,0.062431,-0.031934,0.014885,0.061264,0.028425,0.088085,-0.002890,-0.011366,0.091527,0.001904,0.023263,0.012378,0.132467,-0.017695,-0.022120,-0.046698,-0.041477,-0.074831,-0.034573,-0.035806,-0.086250,0.046830,-0.081603,-0.043136,-0.039131,-0.085113,-0.001435,0.012152,-0.040314,-0.093798,0.042806
-0.012117,0.074781,0.005182,0.008746,0.012060,0.009285,0.069279,-0.009129,0.095028,-0.056215,-0.174140,0.036733,0.010379,-0.028352,-0.113048,0.093015,-0.054521,-0.011659,0.107994,-0.036302,0.056296,-0.052164,0.014630,0.065331,0.129120,0.039110,0.055597,0.016569,0.061475,0.008156,-0.127422,-0.048815,0.065526,-0.022773,-0.010244,0.093610,-0.060100,0.046380,0.149215,0.075640,0.025392,0.061187,-0.009586,0.101362,-0.009941,0.102685,0.026640,0.003995,0.072277,0.108853,0.090242,-0.002920,-0.002304,0.085502,-0.038270,-0.055573,0.066175,-0.035549,0.107555,0.003551,-0.040652,-0.013626,0.015207,0.027060
0.014229,0.039388,0.075912,0.060130,-0.044932,-0.014756,-0.018278,0.008446,0.022784,-0.091991,0.077831,-0.006572,0.071064,0.049285,-0.076449,-0.082461,0.039383,0.056722,0.022026,0.077377,-0.056392,-0.052668,-0.020690,0.037348,-0.005897,-0.045507,0.023060,-0.009850,-0.013668,-0.085983,0.124164,-0.037849,0.027888,-0.050557,0.012289,0.023277,-0.002557,0.035309,-0.043350,-0.017561,-0.008329,-0.032467,-0.066114,0.104908,0.020246,-0.094096,-0.092209,0.082953,0.057916,0.106781,0.027955,-0.009716,-0.063334,0.085294,0.056036,0.002752,-0.038107,0.005711,-0.064882,0.074274,-0.029459,-0.089062,-0.140934,-0.050278
-0.063330,0.093909,0.051321,0.016941,-0.106026,-0.040962,0.011518,0.003081,0.004596,-0.047656,-0.119684,-0.015320,0.017020,0.048786,-0.062689,0.060800,0.023518,0.028516,-0.013364,0.160478,-0.149009,0.026238,-0.049867,0.073866,-0.028404,-0.006542,-0.030455,0.089355,-0.003898,-0.019894,0.048475,-0.003471,0.008745,0.034024,0.010678,-0.044900,0.021241,-0.043250,-0.051457,0.057662,-0.031548,0.039955,-0.040182,-0.002397,-0.017361,-0.048797,-0.081746,0.005928,0.048632,0.051644,0.006729,0.022357,0.033360,0.021056,-0.019679,0.007546,0.056116,0.029746,0.004156,-0.054713,-0.032652,-0.017196,-0.016227,0.026826
-0.036167,0.039715,-0.005769,-0.052219,-0.055554,-0.059475,-0.035084,-0.013764,-0.038414,0.019637,0.019510,-0.053929,0.012375,-0.031372,0.052740,-0.137416,0.048921,-0.065830,-0.028681,-0.019090,0.012324,-0.060821,-0.048369,-0.032972,0.013719,-0.015817,0.000978,-0.095696,-0.050429,0.051524,0.023920,0.079483,0.049712,0.019148,-0.059337,0.016141,0.020075,-0.042145,-0.098769,0.090056,0.028191,0.051260,0.006597,0.061687,0.131414,0.026307,-0.051843,0.056744,-0.025823,-0.034572,-0.019964,0.095788,0.002929,0.036929,0.022436,0.045332,-0.067622,0.051723,0.007728,0.007935,0.005043,0.009760,-0.033918,-0.071490
0.038281,0.084684,0.046267,-0.032723,0.054313,0.044256,0.059471,-0.001092,-0.015569,0.022007,-0.062208,0.060615,0.074319,-0.050002,0.079878,-0.012716,-0.019138,-0.003755,0.000419,0.074645,-0.015527,0.029585,0.039561,0.053645,-0.019280,-0.046755,0.040955,0.022341,0.007589,-0.009261,0.038824,0.054237,-0.044102,-0.009461,-0.043391,-0.020969,0.002639,-0.015889,-0.049050,-0.001456,-0.020011,0.005414,0.001597,-0.032438,0.117860,0.049313,0.030895,0.117832,0.017885,0.011596,-0.005485,-0.089425,-0.029073,0.002848,-0.099559,0.046318,0.045231,-0.073365,-0.053631,0.055523,0.075492,-0.031669,0.066868,-0.003283
0.018299,0.008533,-0.104952,-0.017778,-0.053032,0.084068,0.036855,0.029178,-0.019221,0.029026,0.046487,-0.019221,0.043595,-0.088416,0.045630,-0.034262,0.014393,-0.097978,-0.084511,-0.055963,-0.099927,0.044525,-0.000317,0.039458,-0.004466,0.098349,-0.009250,-0.015317,0.010871,0.013017,0.003001,0.021474,0.100763,-0.030470,-0.061262,0.087301,0.035451,0.076211,-0.006158,-0.033740,0.024575,-0.077965,-0.007611,0.009485,-0.041743,0.048419,-0.009331,-0.054159,-0.018834,-0.063872,0.072372,0.055947,-0.009167,0.106668,0.010230,-0.057743,0.034958,-0.168451,-0.027250,0.060354,0.065749,0.050907,-0.011935,-0.011659
-0.000189,0.065655,-0.004863,0.025966,0.014829,0.023404,-0.102678,-0.045772,0.024169,0.009173,-0.086502,-0.069646,0.044320,-0.085849,0.028856,-0.103780,-0.046693,0.043820,-0.034426,-0.065075,0.068649,0.017278,-0.105246,-0.018388,0.062941,0.002028,0.003754,0.006594,0.055573,0.001482,-0.079141,0.016066,0.102992,-0.037022,-0.062280,0.107317,0.098975,-0.027847,0.019493,-0.049678,0.064160,0.092647,0.048234,-0.105767,0.074804,0.042998,-0.026227,0.087765,-0.019538,-0.063639,0.074271,0.005400,0.040218,-0.041838,0.072504,-0.015087,-0.039576,0.035833,0.012691,-0.089906,0.040894,0.003641,-0.000425,-0.028834
-0.003695,0.059301,-0.056460,-0.009922,0.014942,0.065003,-0.014474,0.006451,-0.042145,-0.079282,0.019257,0.015206,0.058271,-0.020310,-0.001913,0.020443,-0.036211,0.074784,0.090245,-0.027857,-0.068367,0.002071,0.011202,-0.023653,0.057146,0.004205,-0.043662,-0.032099,0.025234,0.053564,-0.054994,-0.076005,0.079755,0.040951,-0.029105,0.080581,0.043159,0.002159,-0.074963,0.022729,-0.026866,0.040580,0.069385,0.043139,0.008119,0.088860,0.009074,-0.010864,-0.005079,0.044687,0.010255,-0.009182,0.110595,-0.034267,-0.004955,-0.020105,-0.004854,-0.063797,-0.033348,-0.070416,-0.037276,0.042893,0.010983,-0.104287
0.028318,0.047810,-0.052791,0.029529,0.002715,-0.073909,-0.008532,0.074710,0.040278,0.084573,-0.035573,-0.006958,-0.009236,-0.014204,0.048471,-0.050109,-0.020573,-0.026209,-0.030771,-0.145988,0.027816,0.006772,0.006382,-0.104271,-0.003251,0.039739,-0.063141,-0.054982,-0.042004,0.072138,0.002905,0.042430,0.088998,0.073352,-0.043710,-0.100874,0.007974,-0.104742,0.055727,0.003560,0.043370,0.031496,-0.008087,-0.042235,-0.052612,0.059061,-0.017459,-0.005000,-0.038797,0.095106,-0.008262,0.025620,-0.014710,-0.022781,0.079815,-0.015641,0.079107,0.028640,-0.027844,-0.045054,0.042606,-0.125997,-0.011236,0.032068
-0.015757,0.012600,-0.014836,0.040517,0.009432,0.013102,-0.043919,-0.009644,-0.034644,-0.001305,-0.014765,-0.068641,-0.001261,-0.063586,0.064380,-0.000222,0.047716,-0.019613,0.057410,-0.056833,-0.111068,-0.032660,-0.042886,0.024777,-0.042286,0.100822,-0.038490,0.042986,0.025539,0.060851,-0.022930,0.038033,-0.051874,-0.091666,0.017659,-0.000129,-0.048077,-0.068411,0.000849,0.043505,-0.024199,-0.008737,0.038637,0.090110,0.016278,0.028777,-0.067482,0.018313,-0.007078,0.059804,-0.032051,0.024376,0.033381,0.019260,-0.011698,-0.081355,0.008827,-0.019333,0.028625,0.032317,-0.075204,0.038934,0.099067,0.031144
-0.101565,-0.017959,0.006003,0.040598,-0.020216,-0.036901,-0.047675,0.047292,0.056233,0.115867,-0.026298,0.041631,0.001005,-0.011502,-0.061206,-0.074409,0.061560,-0.001338,0.050554,0.007587,0.014211,0.057902,-0.033871,0.039413,-0.030191,0.026640,-0.023162,-0.063821,-0.007814,-0.055688,-0.025682,0.059060,-0.029315,-0.117793,0.016459,-0.134417,-0.007363,-0.044842,-0.040442,0.046846,-0.068935,0.017993,0.065917,0.015155,-0.049698,0.024524,0.048304,-0.046374,0.077105,0.100642,-0.032227,0.022507,0.026864,0.046547,0.005964,0.080492,0.007114,0.035270,-0.003715,-0.067898,-0.053299,0.034590,-0.040940,0.029669
-0.005889,-0.045493,-0.089617,0.045034,0.061626,-0.079286,-0.012143,0.010591,0.033683,0.030135,0.055801,-0.124379,0.053000,0.070143,0.058653,0.019162,-0.010903,0.080155,-0.076226,-0.036541,0.068028,-0.064837,-0.001881,-0.112951,-0.021157,0.010521,-0.015918,0.005207,-0.072019,0.008363,0.025137,0.004141,0.044793,-0.014333,0.067967,0.035111,0.083044,0.073652,0.154260,-0.029582,-0.007065,0.027697,0.095058,0.008436,-0.036719,0.044816,-0.036421,-0.040293,0.028699,0.026515,0.042982,-0.075875,0.026684,-0.054813,0.009280,0.034893,0.047900,-0.044881,0.039288,0.021934,0.081309,-0.075478,0.080039,0.063348
0.070702,0.073867,-0.104909,0.020676,-0.017595,0.063087,-0.039608,-0.037352,-0.022040,0.021963,-0.063233,0.001342,0.029400,0.046127,0.033053,-0.039004,-0.038600,-0.000549,0.077272,0.057709,0.102094,0.111007,-0.060883,-0.046743,-0.020376,0.055219,-0.030644,0.065923,0.057584,-0.046772,-0.100580,0.000608,0.040250,-0.032115,0.022495,0.019867,-0.003424,0.032787,0.014426,0.003965,0.069674,-0.032161,-0.096150,-0.126121,0.026734,0.053503,0.017787,-0.028725,-0.005184,0.072406,0.125591,-0.037694,0.047093,0.117243,0.022437,0.055623,0.088161,-0.030879,-0.016747,-0.065298,-0.069408,-0.050743,-0.005594,0.096215
0.008019,-0.008430,0.036643,0.057067,-0.014754,0.004430,0.125289,0.006392,0.047836,0.016136,0.020594,0.023306,0.045618,0.045930,0.016009,0.017224,0.003172,-0.067742,-0.020553,-0.023720,0.045299,-0.045650,-0.005367,-0.024833,-0.016487,-0.009407,0.130998,-0.018489,-0.118023,0.034224,0.118191,0.087963,0.033705,0.001534,0.023098,0.095538,0.142197,0.030165,-0.000484,-0.052956,0.072741,-0.109714,-0.019583,0.054851,-0.041297,0.062138,-0.045441,0.071800,-0.086844,0.026260,-0.081312,-0.059407,-0.045878,-0.002624,-0.019371,0.076620,0.022615,-0.018101,-0.000630,-0.040521,0.077147,-0.048725,-0.091340,-0.008542
0.019983,0.042916,-0.101120,0.056800,0.049979,-0.033263,-0.038364,0.041354,0.085188,-0.012560,-0.003881,-0.001159,0.002420,0.032844,0.091009,0.083430,-0.012093,0.040842,-0.031591,0.000538,-0.058722,0.021645,-0.021949,-0.030491,0.058994,0.007244,0.072973,0.140358,-0.030205,-0.021583,-0.051865,0.042308,-0.128358,-0.015054,0.011457,0.061739,0.037826,-0.001937,-0.010142,0.008584,-0.026933,-0.011594,-0.056381,-0.003874,0.016901,0.003446,0.081399,0.094095,0.031592,-0.044922,-0.009209,0.005887,0.007932,-0.075067,-0.002730,0.028359,0.035525,0.070007,0.078920,0.056815,0.006785,-0.077496,-0.015488,-0.009587
0.029693,-0.032915,-0.010929,-0.136012,0.006635,-0.053685,0.069255,0.145212,0.116622,0.011601,0.071020,0.038737,-0.043729,0.005767,-0.009725,-0.049720,-0.024640,-0.051660,-0.052986,0.023417,-0.021423,0.056806,0.005574,-0.099453,0.043219,0.041874,-0.123440,0.087236,-0.105221,0.022848,0.038511,-0.021086,-0.087168,-0.013311,0.016597,-0.020952,0.003622,-0.026432,-0.026399,0.029385,0.015730,-0.017528,0.018673,-0.026060,-0.019072,-0.122245,0.096188,-0.016259,0.010967,-0.074285,-0.010155,-0.189545,-0.013484,0.002184,0.007562,-0.080532,-0.010022,-0.044563,-0.077111,-0.127613,0.020491,0.073783,-0.016922,-0.070528
0.012779,-0.003610,0.018892,0.057478,-0.009251,0.018327,-0.030408,0.050550,0.135610,0.064688,-0.009989,-0.104044,-0.030732,0.048492,0.063656,-0.009899,0.028818,0.014460,0.022067,-0.019044,-0.000204,0.052759,0.004071,0.001433,0.092363,-0.064701,-0.104889,-0.004884,0.077331,-0.063462,-0.031084,-0.085426,-0.000834,-0.017360,0.049942,-0.053237,-0.046465,-0.051558,-0.011000,0.034529,0.077507,-0.043735,-0.049769,-0.045246,-0.013915,-0.015608,0.057714,-0.063648,-0.005430,-0.104481,0.048580,-0.034116,-0.085504,0.070034,-0.007982,0.073234,-0.041551,-0.036860,0.020402,0.050669,0.006063,-0.096920,-0.020235,0.020476
-0.013226,-0.059220,-0.021560,-0.026694,-0.035932,-0.028403,0.007478,-0.036385,-0.011659,0.045312,0.043329,-0.043193,0.036553,-0.001781,0.089091,-0.023352,0.091397,-0.076282,0.048859,-0.000645,-0.036990,0.053364,0.125419,-0.060121,0.072031,-0.039354,0.033709,-0.055942,-0.062728,0.016079,-0.002594,-0.077930,-0.045758,0.001967,-0.026849,0.006162,-0.018904,-0.015954,-0.002833,0.030818,0.004639,0.053371,-0.075074,-0.059799,0.056305,0.013009,-0.017519,-0.021568,-0.046475,0.013891,-0.021747,-0.047366,-0.038422,-0.068528,-0.012150,0.057394,0.012828,-0.048046,-0.070834,0.000180,-0.060228,0.028557,-0.042499,0.039791
0.005235,0.031801,-0.008471,-0.026909,-0.035891,0.045015,-0.010132,-0.069897,0.034803,-0.025564,-0.060006,-0.049264,-0.034141,0.099705,0.010047,-0.043920,-0.003278,-0.023900,0.079174,0.093024,0.028130,-0.068904,0.106190,-0.063256,0.049224,0.070522,0.001447,-0.051841,0.016753,-0.016769,0.004106,-0.026240,0.018934,0.038981,-0.007658,0.070670,0.017335,0.011723,0.002971,-0.017472,-0.062995,-0.072053,0.021341,0.040214,0.000267,0.037835,-0.046453,0.036153,0.032368,0.091570,-0.084524,-0.003985,0.001609,0.017588,-0.036894,0.042721,0.052338,0.009122,-0.081069,-0.015572,0.024787,0.055247,-0.070093,-0.064816
0.002287,0.015306,0.022671,-0.077923,-0.031892,0.034998,0.128837,-0.028031,0.018752,0.031587,-0.032356,-0.042220,0.017755,-0.030604,0.030313,0.095638,0.081783,-0.088149,0.023231,-0.065593,-0.040752,-0.021724,0.026326,-0.066098,-0.006697,0.045241,0.007813,0.022192,-0.062541,0.036766,-0.000095,0.082603,0.046272,0.038771,0.138915,-0.055424,0.015984,-0.028692,0.014776,-0.053611,-0.073646,0.031338,0.061706,0.043882,0.048547,0.038851,0.044746,0.033429,-0.032572,-0.003103,-0.070721,-0.039710,-0.029494,-0.016306,-0.040844,-0.006958,0.037956,0.012342,-0.059571,0.054880,0.131493,0.054834,0.086803,-0.080588
0.099092,0.035076,-0.020272,0.051860,-0.036144,0.034544,0.025212,-0.014187,0.043337,-0.001787,0.074182,-0.049135,0.155981,-0.098519,0.009339,0.007026,0.032538,0.097075,-0.030690,-0.106589,0.109830,0.052768,-0.098347,-0.008543,-0.024006,-0.030781,0.072173,0.103444,0.096874,0.025550,0.072558,0.100864,0.121026,-0.018689,-0.007913,-0.028741,-0.008496,-0.077741,-0.132539,-0.055554,-0.086708,0.036624,0.007343,-0.009590,0.031230,-0.027576,0.010901,0.031340,-0.143741,0.013026,-0.050138,-0.001744,0.056692,0.024932,0.086416,-0.013509,0.004464,-0.012457,-0.079291,-0.039978,-0.037481,-0.036356,0.187832,0.091393
0.044642,0.096584,-0.068768,-0.114325,0.039618,-0.006429,-0.053588,0.049091,-0.019955,-0.020149,0.006204,-0.066033,-0.065259,0.044336,-0.028650,-0.068213,-0.003948,-0.088736,0.088087,-0.056791,0.063844,-0.132048,0.038784,0.107210,-0.057741,-0.063017,-0.115125,0.081837,0.013465,0.009970,0.027442,-0.075382,0.034870,0.113271,-0.041429,-0.037140,-0.019617,-0.002618,-0.038485,-0.022370,-0.031493,0.041914,-0.002448,-0.108507,-0.078083,0.036641,0.008555,0.037851,-0.040597,-0.074938,0.072278,0.070864,0.003362,-0.009039,0.020483,0.006870,0.062425,-0.010892,-0.041054,-0.043738,-0.143723,-0.036194,0.067723,0.026510
