0.010643,-0.050139,-0.032721,-0.003713,0.029357,0.019703,-0.028904,-0.073663,0.004803,-0.050667,-0.006405,0.107667,0.024129,-0.042368,0.035296,0.040334,0.012640,-0.028138,0.035072,0.016983,0.012791,-0.017819,0.077522,0.004780,0.064274,0.021596,-0.032250,0.068756,0.040423,-0.001220,0.150704,0.069425,-0.044012,0.059677,-0.036180,0.061242,0.030464,0.017056,-0.005238,0.018689,0.130893,0.054320,-0.029767,0.061190,-0.052229,0.029675,0.008111,0.087444,-0.030495,-0.042508,0.102374,0.018919,0.062316,-0.037805,-0.141055,-0.030171,0.063742,-0.053487,0.010032,0.044321,-0.007800,-0.057431,0.084317,-0.048915,-0.024684,-0.017285,-0.016293,0.057050,-0.106993,0.049478,0.031718,0.000631,-0.081001,-0.095150,0.007276,-0.037146,0.070821,-0.019412,-0.000517,-0.024246,0.054782,-0.002657,0.010654,-0.075886,-0.076620,-0.017730,-0.056695,-0.021953,-0.003769,-0.024508,0.021127,-0.025624,0.101095,0.027554,-0.065738,-0.039600,0.036917,0.003256,0.012486,0.019434,-0.061289,-0.061934,0.075480,0.022843,-0.073337,-0.010045,-0.034495,-0.051984,0.016864,-0.004149,-0.031474,0.023229,0.042102,-0.107699,-0.035025,0.040479,0.032434,0.001590,0.028804,0.145020,0.013906,-0.094497,-0.000920,-0.042133,0.012070,-0.011375,0.002488,0.043426,-0.060882,-0.048645,0.036176,-0.124819,0.041268,0.009335,0.033789,0.014064,0.090357,-0.081410,0.055622,0.053369,0.065616,0.009105,-0.060863,0.041626,-0.034061,0.125707,-0.041837,0.015807,-0.059240,-0.004234,-0.018034,-0.103767,-0.017994,-0.024294,0.034016,-0.007285,0.013304,-0.044074,0.053914,-0.016298,0.058421,-0.004020,0.067709,0.004673,-0.087677,0.032273,-0.052633,0.069783,-0.025372,0.028846,0.053862,-0.021131,0.019451,0.016183,0.049420,-0.003050,-0.000015,-0.018853,-0.053498,0.075370,-0.078362,-0.012810,-0.017435,0.021149,-0.006929,-0.059482,0.032621,-0.044832,-0.085478,0.040890,0.031949,-0.001501,0.104537,-0.043490,-0.002931,0.082350,0.008878,0.098542,-0.023475,-0.008545,0.041378,0.059889,-0.036451,-0.038579,-0.058992,0.075094,0.060937,-0.046920,-0.039689,0.042351,0.030579,-0.079234,0.076119,0.034280,-0.049598,0.019537,-0.092471,-0.061777,0.055599,0.004062,-0.033449,0.044348,-0.087656,0.005811,0.010432,-0.038627,-0.074736,-0.038069,0.030602,0.025637,-0.007885,0.005828,0.043436,-0.087300,0.040371,0.020159,0.010085,-0.133165,-0.087884,0.034585,-0.020581,0.045853,-0.060215,-0.031810,-0.107510,-0.031474,0.020735,0.052999,0.035833,0.036315,0.012187,0.041486,-0.089301,0.107809,0.022190,-0.013978,-0.043723,-0.001611,-0.046057,0.058715,0.020283,-0.076637,0.039925,-0.014746,-0.021058,0.003382,0.043064,-0.104227,0.040058,-0.055174,-0.009409,-0.018546,-0.087343,-0.042106,-0.040705,0.111219,0.008848,0.037268,0.088978,-0.010759,-0.001991,0.011847,0.092479,0.008675,0.074037,-0.007377,0.016865,-0.028392,0.037618,-0.000734,-0.023922,-0.107677,-0.060998,-0.031209,0.071231,-0.133669,0.034156,0.020829,-0.142690,0.019739,0.040829,0.048506,0.032533,-0.002888,0.074552,0.018005,-0.065071,0.019921,-0.064612,0.056439,-0.005266,-0.049683,0.100774,0.015667,-0.091650,0.037094,0.046191,0.020111,0.028376,0.010345,0.094609,-0.011259,0.046844,-0.057656,-0.000453,0.029172,-0.118451,0.100318,0.003334,0.015896,-0.048030,0.006369,-0.014248,0.053670,-0.005277,0.066292,0.018950,0.008005,0.065411,0.081050,-0.094550,0.032995,-0.019173,0.036256,-0.075934,-0.011657,0.003557,-0.039768,-0.107148,-0.055261,-0.049763,-0.012387,-0.075498,-0.089605,0.026925,0.062977,0.059586,-0.008045,-0.021717,0.015880,-0.087423,0.024991,0.074823,-0.017215,-0.000775,0.037872,-0.058118,0.017053,0.077749,0.012100,-0.100830,-0.032972,0.036231,-0.108594,-0.035077,0.038009,0.035383,-0.010992,-0.020874,-0.026939,-0.007579,-0.047994,-0.077766,0.068145
-0.008735,0.049304,0.050007,-0.073398,-0.089045,0.025088,0.000750,0.004445,0.018056,0.014254,-0.030956,-0.013810,0.003009,0.022540,0.052907,0.054573,0.041011,0.006022,-0.020711,0.068057,-0.094406,-0.039666,-0.035330,0.013534,-0.081766,-0.058335,-0.052145,0.017235,0.029006,-0.025316,0.015297,0.055069,0.031490,-0.006207,0.004601,0.068862,0.018533,-0.044905,-0.024984,0.002511,-0.041211,0.008293,-0.070536,-0.008827,-0.060925,-0.019755,0.052718,0.067256,0.023000,0.049063,-0.048069,-0.005110,-0.054417,-0.019126,0.055938,0.004908,-0.022244,0.002764,0.048846,-0.122905,0.014801,0.105549,0.014272,-0.028473,-0.043312,0.004225,0.028430,-0.077818,0.024509,0.025193,-0.038999,-0.026889,-0.000175,-0.044058,0.003410,-0.012236,-0.024710,0.039125,0.096218,0.068148,0.004481,-0.022582,-0.037865,-0.096905,0.022899,-0.031720,0.025714,0.019740,-0.015004,0.010527,0.018387,0.058948,-0.047868,0.051489,-0.077094,-0.026119,-0.056877,-0.047506,-0.020793,-0.034358,0.006306,-0.051556,0.044697,0.083802,0.060984,-0.092796,0.048314,0.011785,0.079573,-0.024678,0.073554,-0.008038,0.014754,0.055620,0.014956,-0.016552,-0.023918,-0.005501,0.043153,0.037731,0.021456,-0.032913,0.045788,-0.191715,0.008843,-0.051603,-0.027916,-0.091094,0.006030,-0.007205,-0.012040,-0.054828,0.020407,-0.038278,-0.027562,-0.073069,0.032615,0.050414,-0.000642,-0.025011,-0.104943,0.044031,0.022683,0.072507,0.039042,-0.034678,0.086311,0.063831,-0.008980,-0.002484,0.073879,0.038281,0.024602,-0.049940,0.001780,-0.024482,-0.002158,-0.048069,0.008328,0.031350,-0.032782,0.014655,-0.074211,0.068303,0.071375,-0.058353,0.010598,-0.029128,0.017836,-0.047787,-0.017679,-0.008293,0.130902,-0.078030,0.054469,0.047155,-0.008057,0.132414,0.010898,0.027785,-0.019223,0.053952,-0.001683,0.049591,0.046604,-0.035367,0.030417,-0.048562,-0.137696,0.077754,0.020976,-0.001644,0.073815,-0.034353,-0.064514,-0.089469,-0.064595,-0.064881,0.107749,-0.020055,0.056449,-0.023508,-0.027033,0.068193,-0.056597,0.018491,-0.039702,0.036151,0.053255,-0.009172,-0.007487,0.077608,-0.016411,0.033180,-0.042555,0.014050,0.105315,0.035076,0.003451,0.042499,0.002334,0.113072,-0.003769,0.032141,-0.124026,0.029643,0.062210,0.019859,0.020346,-0.082091,-0.049108,0.098840,-0.047288,-0.001084,0.038700,-0.073530,0.002819,-0.017310,0.003764,-0.058703,0.011818,-0.016051,-0.030565,-0.021822,-0.037523,0.020089,-0.001406,0.074585,-0.022589,0.044431,-0.012443,-0.003780,-0.025747,-0.036742,0.065887,0.019715,0.021457,-0.043659,0.000223,0.078227,-0.002498,0.051193,-0.100869,-0.066162,0.014371,0.036264,-0.028049,0.056929,-0.038452,0.009191,-0.021137,-0.015582,0.039781,0.095276,-0.019215,-0.012848,0.025486,0.025735,0.011287,0.110160,-0.039751,-0.017337,-0.004771,-0.052939,0.030670,-0.007877,-0.028961,-0.030310,-0.030496,-0.134928,-0.029609,-0.098613,0.042263,0.126857,-0.004623,-0.065548,0.043668,0.073677,-0.012936,0.025448,0.035397,0.061441,-0.044859,0.063654,-0.016005,0.047565,-0.034300,-0.028469,-0.051883,-0.112187,0.059151,0.031706,0.058931,0.004621,-0.054839,-0.034696,-0.021563,0.081549,-0.019154,0.008391,0.086647,-0.050062,0.036149,0.070294,0.021415,0.004369,-0.053180,0.020242,0.027565,0.089658,0.128740,-0.030143,0.046775,-0.015401,-0.014486,-0.026785,0.018709,0.086983,0.077198,-0.014298,0.041140,-0.017963,-0.052365,-0.059868,0.033133,0.036177,0.039332,-0.022938,0.060899,0.047286,-0.014862,-0.019167,0.031346,-0.014169,0.047111,-0.047720,0.050573,-0.015217,0.040383,0.058393,0.043545,0.100215,-0.020673,-0.013396,-0.045704,0.009962,-0.016108,-0.057301,0.022162,-0.126269,0.187654,0.127619,0.058874,0.026915,-0.026807,-0.057294,0.015828,0.013838,0.033809,-0.116901,0.058095,-0.014829,0.106402,0.011858
-0.002229,-0.057767,0.003642,0.014306,-0.005896,0.021145,0.025903,0.017612,-0.054587,-0.005332,-0.018602,-0.010720,0.016711,-0.011375,0.012628,-0.007080,0.009592,-0.071654,-0.051472,-0.013250,-0.004408,-0.034405,0.024938,0.130566,-0.013135,0.005949,-0.027698,-0.054446,0.049961,0.122278,-0.069412,0.006920,0.053626,-0.072640,-0.023352,0.016917,-0.024054,-0.048017,0.036393,-0.106996,-0.067507,-0.067644,0.009962,-0.013873,0.033015,0.050550,-0.110804,0.024727,0.006517,-0.061052,-0.009549,0.042613,-0.044603,0.021116,-0.060154,0.011168,0.024985,-0.019295,-0.014331,0.039317,0.087312,-0.004353,0.115328,-0.014776,0.085291,0.024771,-0.051518,0.024052,0.049315,-0.033006,0.034778,0.048674,0.078195,-0.064832,0.048736,0.050041,0.068600,-0.025258,0.071893,0.046835,0.070001,-0.052378,0.069296,-0.025644,-0.049648,-0.090567,-0.007603,0.106075,0.094521,-0.083864,-0.017426,0.048949,-0.007574,-0.149108,-0.000688,0.011244,0.057016,0.082277,-0.033091,-0.011218,0.053861,0.011018,-0.038058,0.042059,-0.007741,-0.018987,-0.071170,0.011620,-0.009649,-0.022590,0.076788,-0.084879,0.050100,-0.110043,0.042518,-0.065600,-0.040779,0.050874,0.016657,-0.070860,-0.083036,-0.024874,0.008672,-0.004248,-0.052596,0.053008,0.016960,0.018418,-0.003568,-0.068621,0.104808,0.029641,0.004873,0.028014,-0.033207,0.044237,-0.092120,-0.011275,0.027497,0.026637,0.103786,-0.061535,-0.053235,-0.073989,0.069497,-0.024539,0.009061,-0.064636,-0.041817,0.001675,0.069419,-0.002499,0.038016,0.011664,-0.081749,0.032602,-0.015452,0.025606,-0.061902,-0.041621,0.009123,0.009925,0.059432,-0.009081,0.001700,0.053929,-0.054764,0.019498,-0.019696,-0.004389,-0.062032,-0.070553,-0.012111,0.049241,-0.063759,0.030508,-0.007792,-0.008123,-0.050167,-0.075337,-0.085702,-0.025187,-0.002963,0.073290,0.024986,-0.052079,0.108991,0.037933,0.076070,0.061300,-0.080213,-0.032636,0.001717,-0.060890,0.019504,0.009194,0.058406,-0.016514,0.044300,-0.074396,0.016663,0.026306,0.112868,0.061483,0.003338,0.084248,-0.061704,0.034520,-0.074557,0.042133,0.018103,-0.058224,0.045725,-0.006559,-0.102205,-0.057452,-0.030096,0.042983,-0.008975,-0.000774,0.109184,-0.018793,-0.008815,0.051089,0.064928,-0.013627,0.040083,0.084624,0.013262,0.033955,0.014720,-0.018280,-0.032959,0.027674,-0.006443,-0.024481,0.030521,-0.080465,0.009415,-0.000049,-0.011443,-0.051149,-0.027725,0.005537,0.048832,-0.030486,0.075166,-0.022849,0.043346,-0.089388,-0.022037,0.013205,-0.046833,0.101619,-0.036739,-0.055990,-0.044212,0.089766,-0.015374,0.036449,-0.021535,0.044190,0.024250,0.032213,0.050499,0.006672,0.036855,-0.037192,0.006450,0.053097,-0.057534,-0.000382,-0.100929,0.035224,-0.092935,-0.018932,-0.026863,-0.007170,0.037124,0.003963,0.004684,-0.063460,0.041254,0.083420,0.074523,-0.073084,0.046093,0.014121,-0.063759,0.002738,-0.091476,0.016517,0.010995,0.014901,-0.070048,-0.001284,0.110135,-0.000334,-0.050020,-0.014893,-0.063458,-0.025260,-0.093674,-0.027317,-0.007473,0.043135,0.050131,0.007035,-0.053669,0.059196,0.042138,0.051943,0.081126,-0.085465,-0.014054,0.034477,-0.071381,0.014921,-0.031013,0.057381,-0.016799,0.052306,-0.004365,-0.021200,0.044898,0.076354,0.047386,0.057250,-0.021707,-0.042019,0.010675,0.010687,-0.044785,0.015995,-0.048225,0.020736,0.087066,-0.047043,0.021428,0.033663,0.056644,0.058378,-0.013326,0.028967,0.034963,-0.078177,0.003969,-0.015834,0.022763,0.026928,0.006354,0.095703,0.046567,0.030874,-0.113472,0.041525,-0.025182,0.021290,-0.041147,0.019274,-0.009054,0.022679,0.041961,-0.028603,-0.020968,0.046176,-0.063787,-0.040187,0.017352,0.047867,-0.019122,-0.373614,-0.030877,-0.009247,0.055410,0.039574,0.040777,-0.009302,-0.032582,-0.095363,-0.020952,0.085362,0.027193,-0.002133
-0.006643,0.043491,-0.040687,0.096607,-0.012578,-0.010166,0.051470,-0.021519,0.078587,-0.062841,-0.008850,-0.008436,0.127338,0.094659,0.047948,0.119852,0.122437,0.047651,-0.008548,0.006356,0.033214,-0.024671,0.027667,0.022139,0.049259,-0.005194,0.035827,-0.037359,0.028493,-0.018022,0.005410,0.096322,-0.016910,-0.065486,0.065649,0.001022,0.026022,-0.087654,0.039580,-0.013010,-0.056897,0.102734,0.043450,0.106117,0.005509,0.032331,0.148789,0.099069,0.014317,0.023073,0.051583,-0.050977,0.068673,-0.025212,-0.009406,0.056625,-0.096862,-0.040300,0.015142,0.040176,0.059356,0.097036,0.106021,-0.098576,0.009245,-0.005226,0.063612,0.066186,0.005654,-0.087659,0.002932,-0.018454,-0.023444,-0.037065,-0.009987,0.054899,-0.053419,0.042158,0.058741,-0.010102,0.066778,-0.040332,-0.029757,0.064758,0.018228,-0.045490,0.086883,-0.061048,-0.011799,0.039721,0.009799,0.094612,0.102212,-0.130323,0.052729,0.050871,0.050996,-0.094373,0.038448,-0.070691,-0.111842,-0.032478,-0.009823,-0.061676,0.021073,0.067014,-0.057634,0.011784,-0.037786,0.055087,0.000882,0.083730,-0.063186,0.061691,0.034068,-0.040234,0.027870,0.044874,0.053365,-0.070442,0.065793,-0.007347,0.041507,0.068302,-0.071752,-0.048749,0.026729,-0.064942,-0.108494,0.032375,0.007594,0.010039,-0.011089,-0.031802,-0.106981,-0.004063,0.053054,0.040953,-0.018424,-0.016282,0.104499,0.031503,0.008267,0.050634,0.039082,-0.036616,-0.002619,0.038538,-0.098648,0.000148,0.065300,0.041277,-0.013362,0.011710,-0.093628,-0.028104,-0.003173,-0.039475,-0.019663,0.051777,0.076556,0.028718,-0.037599,0.055082,0.014081,0.085916,-0.061372,-0.073694,0.023848,-0.103593,0.021805,-0.016842,0.002528,0.112731,0.043344,0.021112,0.014257,0.066572,-0.012603,0.091651,-0.024196,0.025534,0.030407,-0.006416,-0.001160,-0.010509,0.100404,0.059872,0.009013,-0.028578,-0.028167,0.015494,0.056481,0.010647,-0.073141,0.035334,-0.075283,-0.015998,-0.000733,0.038600,-0.035397,-0.024031,0.102560,0.000735,-0.009244,-0.079281,-0.060442,-0.025620,0.040509,-0.037635,0.012137,0.010906,0.027266,0.012250,0.016011,-0.032460,-0.033515,0.011274,0.012148,0.010110,0.097127,-0.073271,-0.053551,-0.030300,-0.016967,-0.019716,0.004832,-0.007118,0.004500,0.093002,-0.011988,0.022605,-0.010489,0.036017,-0.008084,0.034779,0.082119,0.063622,-0.037708,-0.030602,0.018941,0.020699,0.000967,0.060320,0.022816,-0.012909,-0.124468,-0.047824,-0.034801,0.005101,-0.037403,0.067898,0.023096,-0.044502,0.041622,0.164728,0.020380,-0.110731,-0.079068,-0.027140,0.004232,-0.012627,-0.036537,-0.023940,0.054061,0.027960,0.014727,0.082883,-0.040943,0.019177,-0.040461,0.006205,-0.132876,0.050089,-0.033753,-0.038869,-0.048557,0.034175,-0.053788,-0.092051,0.049409,-0.012049,-0.007243,0.043276,-0.030500,0.000631,-0.029028,-0.053340,0.019701,0.035804,-0.085006,0.089087,-0.043971,-0.051038,-0.070305,-0.016542,0.013488,-0.013296,0.052466,0.084509,-0.045253,0.049908,0.078581,0.038100,0.060877,-0.031419,0.074953,-0.000898,-0.043031,0.049058,-0.038477,-0.033718,0.007488,0.019529,-0.035631,0.005968,-0.037268,-0.017401,0.052675,0.011664,0.104527,0.047305,0.026921,-0.009409,-0.095557,0.037325,0.062335,-0.018339,-0.037851,0.044019,-0.018266,-0.009421,0.018321,0.026449,0.091852,0.011922,0.007008,0.009920,0.003408,0.025694,-0.089549,0.000710,0.015610,0.069979,-0.036191,0.013927,-0.048839,0.111944,0.129341,-0.037977,0.037727,0.011794,0.013749,0.069067,0.052482,0.034040,0.070592,-0.033236,0.038413,-0.043255,-0.014679,-0.031313,0.015932,0.010715,0.100596,0.121665,0.025027,0.038697,-0.000001,0.048275,0.000578,0.014324,0.005007,0.067107,0.085417,0.041041,0.049203,0.061311,0.005338,-0.027265,-0.059213,0.012092,-0.002241,0.032989
-0.006499,-0.028319,-0.020292,-0.028772,0.028053,0.017086,0.048237,0.048656,-0.108407,0.031030,-0.108785,-0.017767,0.024590,0.021657,0.014260,-0.045749,-0.019987,-0.118467,0.014674,-0.009784,-0.037050,-0.057107,-0.012531,0.021818,-0.003524,0.117245,-0.068275,-0.042627,-0.000141,-0.025761,-0.007835,0.038174,0.012048,0.004821,-0.030134,-0.059571,-0.025660,-0.048742,-0.071652,-0.036606,-0.022381,0.043507,-0.039753,0.046913,-0.011108,0.084936,0.067412,-0.005505,0.024819,-0.093816,-0.146713,0.056841,-0.061176,-0.075594,0.076418,0.014956,-0.056439,-0.018326,-0.028150,0.037093,-0.085797,-0.041628,0.026177,0.074149,-0.010965,0.007500,0.022892,-0.038945,-0.022839,0.016396,-0.029105,0.067509,0.020033,0.012803,-0.028066,0.051688,0.014407,-0.136846,-0.060905,-0.032986,-0.038189,0.089014,-0.010984,-0.010424,-0.016079,0.040265,-0.093754,0.082925,0.002222,0.017887,0.004171,-0.035919,-0.018160,-0.050894,0.016394,-0.050954,-0.017467,-0.119165,-0.057472,-0.056471,0.024188,0.012776,-0.019847,-0.038500,-0.001505,0.032623,-0.090906,-0.067644,0.033667,-0.019320,-0.001890,-0.000750,-0.054488,0.031277,-0.070131,0.007468,-0.011230,0.004604,-0.127607,-0.053622,0.001396,0.036724,-0.000916,0.051071,-0.000334,-0.034634,-0.036830,-0.046917,0.040442,0.016818,-0.039806,0.005472,0.055716,0.063079,0.050235,-0.046683,-0.023950,-0.047058,-0.000381,-0.030201,0.017893,0.013495,0.007003,0.032987,-0.003388,0.033350,-0.040997,-0.095829,0.046298,0.005528,-0.055395,0.009716,-0.006160,-0.016043,0.032648,0.024325,-0.019760,0.041867,0.072632,0.054817,-0.058596,0.020644,-0.027228,-0.014860,-0.058452,-0.016607,0.044420,-0.009588,0.080464,0.035838,0.042105,-0.030748,0.003446,0.025720,-0.066719,0.040473,-0.033156,0.044637,-0.047466,-0.005363,0.010095,-0.021829,0.009390,0.012114,0.005575,0.053101,0.023809,-0.017724,-0.006399,-0.041424,0.023213,-0.021176,-0.014802,-0.018543,0.044868,-0.001795,-0.004640,-0.032676,-0.021045,-0.031711,0.039049,0.068531,0.007762,0.095625,0.015689,-0.037593,-0.027885,-0.109543,0.062321,0.038033,-0.148318,-0.041775,-0.031060,-0.045244,-0.018288,-0.088019,0.005534,-0.013547,0.023514,0.055757,0.012225,0.018826,0.034760,0.026307,0.011971,-0.139654,-0.078436,0.038063,-0.039747,0.068893,-0.015639,0.100982,-0.007942,-0.076924,-0.071530,0.002905,-0.016144,-0.035364,-0.002631,0.006955,-0.047912,0.022845,-0.003686,-0.117467,-0.056684,-0.043182,-0.005365,-0.096536,-0.002918,-0.012779,-0.070589,0.049984,0.034278,-0.011356,-0.094899,-0.065355,-0.002743,-0.015982,0.020571,0.017549,0.009774,-0.011085,-0.057680,-0.042305,-0.027128,-0.084047,-0.053867,0.015297,0.089463,-0.017636,0.031339,-0.007602,-0.038711,-0.074564,-0.001725,0.105506,0.011570,-0.032618,-0.051320,0.010283,0.078946,0.028967,-0.016895,-0.107178,-0.008560,-0.037736,0.056900,0.011872,-0.023645,0.027880,0.108036,0.059386,0.098860,0.001672,0.044597,-0.010419,-0.085255,0.017728,-0.006942,-0.029386,0.028337,-0.042591,0.072135,-0.156656,-0.046582,0.012736,0.008706,-0.046373,0.028777,0.040150,-0.075877,0.082016,-0.010899,0.057606,0.111420,0.048243,0.018126,-0.011108,-0.064042,0.034302,-0.011237,-0.066811,0.029933,-0.060750,0.020271,0.024678,-0.010337,0.005293,0.030725,-0.015664,0.022223,-0.011841,0.036381,0.058567,-0.095515,-0.012699,-0.018545,0.018519,-0.044979,-0.065068,0.014961,-0.088056,0.026132,-0.070579,0.002551,-0.041557,0.053734,-0.026322,-0.091203,0.041235,0.055764,-0.054371,-0.009892,-0.018178,0.018407,-0.063172,-0.033048,-0.058981,-0.053982,0.000896,-0.148799,0.053892,-0.087233,-0.101455,-0.094425,-0.064134,-0.050545,-0.014763,0.027484,0.017807,0.079496,-0.168145,-0.089682,-0.002763,0.016270,-0.055203,0.062722,0.045835,0.015125,-0.018933,-0.005419,-0.025775,-0.021786,0.015513
-0.016120,0.061619,-0.014391,0.113153,-0.132702,-0.009276,0.064270,-0.061916,-0.045295,-0.006988,-0.028719,-0.017216,-0.136172,0.036920,0.026845,0.026045,0.013799,0.066633,-0.081896,-0.053468,-0.015174,0.090827,-0.010032,-0.011264,-0.024018,0.000916,0.005088,-0.015587,0.006595,0.023785,0.014381,-0.024623,0.005750,-0.027595,-0.056549,-0.068585,-0.024701,-0.033209,0.043692,-0.071526,0.029502,0.022710,0.006445,-0.016202,0.015432,0.006374,0.052188,0.024529,0.011991,-0.051422,-0.078295,0.059385,0.036281,0.031876,0.070677,0.014340,-0.032390,0.094848,-0.008512,-0.025075,0.074661,0.135547,0.001240,0.054879,-0.047446,0.048353,0.044483,0.080624,-0.074558,-0.058323,-0.037111,0.000505,-0.039807,-0.037969,0.027440,-0.048410,0.001943,-0.004148,0.007160,0.085175,0.124072,0.073864,0.023849,-0.064878,-0.005173,-0.011150,-0.017798,0.149829,0.002349,-0.000840,0.083985,0.114583,-0.046993,0.017844,-0.070689,0.004949,0.048679,0.028456,0.086792,0.002255,-0.005478,-0.131866,-0.082841,0.016932,0.012096,0.019827,0.048369,-0.019091,0.053272,0.110225,0.038203,-0.025480,-0.040798,-0.005157,-0.009175,0.047856,0.065365,-0.015167,-0.028540,-0.004575,0.019731,-0.070612,-0.018937,-0.062775,-0.065784,0.063252,-0.039714,-0.010530,-0.034590,-0.013585,0.084750,-0.007069,0.012058,-0.046222,-0.008526,0.010788,-0.000117,0.002417,0.006888,-0.116629,0.005852,-0.033919,-0.011283,-0.012390,-0.005074,0.023371,-0.059210,-0.062424,0.024023,-0.005721,-0.082106,-0.107037,-0.023628,0.091245,-0.027743,-0.044580,0.013417,-0.016937,-0.014676,0.002750,0.007720,0.037997,-0.018138,0.002931,0.025615,0.006390,-0.028281,-0.041286,-0.022926,0.064135,-0.034629,-0.003751,-0.026067,-0.029471,-0.020859,-0.082678,-0.036965,-0.080401,0.047036,-0.035029,0.007960,0.002710,0.020219,0.130292,0.018310,-0.018021,0.031182,0.045564,0.003505,0.011476,-0.005928,-0.005457,0.001659,0.015979,0.051510,-0.000048,-0.005255,0.021277,-0.035653,0.005214,-0.024077,0.064189,0.050821,0.031479,-0.041127,0.006597,-0.030068,-0.034325,-0.024418,-0.049582,-0.068599,-0.000454,-0.040369,0.004625,0.071163,-0.004865,0.099734,-0.138513,-0.000612,0.034547,0.072080,-0.140491,-0.041097,0.032530,-0.028551,-0.053589,-0.002299,0.038190,-0.028165,-0.034232,0.013449,-0.079724,0.045860,0.034715,0.016567,0.037854,-0.056107,-0.044687,0.055843,-0.074029,0.037477,-0.061187,0.001460,0.008962,0.014986,-0.033600,0.017257,-0.052313,0.058011,0.046472,-0.003872,-0.051284,-0.139214,0.014274,0.045369,-0.030335,-0.026236,0.078895,-0.005123,0.029473,0.001522,0.058051,-0.026124,-0.001323,-0.014826,0.089707,-0.062667,0.178020,-0.054426,0.051918,-0.057973,-0.015358,0.055759,-0.043231,0.044998,-0.029979,0.031361,0.064098,0.004008,-0.053908,-0.000829,-0.018017,0.021438,0.011511,0.019747,0.053915,-0.016998,0.041829,0.031774,-0.058472,0.041903,-0.009304,0.028136,-0.008544,0.007672,-0.049981,0.044650,0.098541,0.034779,-0.045066,0.024627,-0.015438,0.008529,-0.069121,0.019465,-0.060260,0.012317,0.013938,-0.082666,-0.015910,0.023548,0.059274,0.000087,-0.055384,0.080512,-0.002574,-0.044611,0.018192,-0.111890,-0.049747,-0.020645,-0.012996,0.026214,-0.061472,0.049722,-0.043273,-0.045655,0.128634,-0.035668,-0.067524,0.044134,-0.010769,0.048288,0.021954,-0.013663,-0.068965,-0.029712,-0.042104,0.018968,-0.099590,0.087647,0.054494,0.025543,-0.017561,0.104079,0.071745,0.000179,-0.095120,0.176201,0.004991,0.032687,-0.035872,0.141995,0.026755,0.031322,-0.005577,0.045403,0.010926,-0.008237,0.034137,0.005634,-0.054782,0.012082,-0.006580,-0.040798,-0.022695,-0.056224,0.078239,-0.001282,-0.071289,0.004846,-0.185916,-0.017875,0.009793,-0.028804,0.114902,0.106346,-0.017470,-0.014858,0.033542,0.143389,0.026070,0.000078,-0.040605
-0.023236,-0.006383,0.008722,0.049565,0.098509,0.012241,0.040417,0.036428,-0.047638,-0.011733,-0.059272,0.001163,-0.044137,0.061489,-0.082112,0.055332,0.061299,0.027693,-0.043642,-0.089107,0.041733,-0.040279,0.057377,-0.102941,-0.078792,0.055032,-0.049694,-0.114461,-0.008941,0.044732,-0.052212,-0.066551,-0.027153,0.008809,-0.079728,0.105582,-0.080700,0.000045,-0.005180,0.084035,0.011703,-0.012022,0.018456,-0.042222,0.075226,0.017700,0.018576,-0.007866,0.023946,-0.014313,0.073656,0.037756,0.074985,0.058532,0.148284,-0.038074,-0.023528,0.028915,-0.057420,-0.049930,0.108778,-0.092439,0.025739,0.060187,0.041958,0.067420,0.005247,0.076712,-0.047508,-0.033731,-0.066814,0.054920,0.128413,-0.037436,0.047411,0.023471,0.103745,-0.074580,0.001868,0.034668,-0.072783,0.090607,0.153182,-0.123404,-0.088997,-0.009365,-0.031394,0.012568,-0.065291,-0.032788,0.000773,-0.045807,-0.008592,0.003987,-0.024972,-0.011752,0.049566,-0.043718,-0.030599,-0.024059,0.052091,0.020526,0.119672,-0.117323,0.015645,-0.036162,0.014355,0.008798,0.047498,-0.021392,0.002587,-0.035406,0.035446,-0.003688,0.050081,0.002287,-0.006143,-0.074596,0.011284,-0.060476,-0.040332,0.026224,0.084933,-0.015029,0.037053,-0.029204,0.039457,0.067988,-0.083858,-0.049581,0.091453,-0.034199,0.022240,0.065805,0.141155,0.051679,0.011086,0.030794,-0.038903,0.035950,-0.041481,0.023348,0.055536,-0.068368,0.049862,0.041552,-0.006947,-0.013702,0.008649,-0.001163,-0.081356,0.012530,-0.027335,0.065167,-0.072698,0.009108,0.013175,0.098799,0.006067,-0.035809,0.088638,-0.064956,-0.082136,-0.026753,-0.000083,0.015041,-0.050526,0.035391,0.070125,0.011628,-0.108089,0.143001,0.054582,0.050117,-0.026972,0.052462,0.080915,-0.115893,0.052464,0.007126,0.075568,0.016354,-0.005598,-0.007397,0.072782,0.047394,0.013345,0.106886,-0.004676,0.009327,0.002769,-0.048095,0.026644,0.031481,0.071182,-0.155280,-0.006098,-0.041367,-0.073154,0.037357,0.006058,0.087065,-0.043812,0.033811,-0.019638,0.000118,0.071412,0.008143,-0.001220,-0.010923,-0.011171,0.030064,0.031418,0.034194,0.063437,0.061238,0.044425,0.116921,0.021872,-0.035406,-0.034713,-0.114731,0.020425,-0.075786,0.052386,0.017264,0.058902,-0.044270,-0.019310,0.041546,0.003495,0.071359,-0.049067,-0.021797,0.030987,0.093542,0.043679,0.035645,0.160626,0.030042,-0.012286,0.011327,-0.048955,0.016939,-0.006478,0.103479,0.069094,0.031889,0.033147,-0.122415,0.029851,0.011934,-0.039836,-0.041768,0.016017,0.060155,0.036561,0.077824,-0.011150,0.110341,-0.055642,-0.006900,0.104416,0.066416,-0.026445,-0.048271,0.126474,-0.027736,0.017223,-0.117388,0.002234,0.007430,0.027737,-0.035463,0.062480,0.067922,-0.031838,0.025335,-0.059758,0.152197,0.026293,0.016449,-0.030452,0.042772,0.003329,0.052589,0.063480,0.019760,0.023565,-0.006646,0.070350,-0.069504,0.012842,-0.042408,-0.011157,-0.047734,-0.029293,-0.015103,0.082480,-0.038927,0.027437,-0.066251,0.064625,0.001778,-0.048376,0.030924,0.027468,0.060730,-0.023238,-0.093567,0.046648,-0.028260,0.043713,-0.078655,-0.072762,-0.040916,-0.081190,-0.054670,0.004668,-0.049259,-0.075592,0.008094,-0.013124,0.005256,0.079451,-0.018836,0.050003,0.102288,0.022816,0.049259,0.066354,0.076771,0.045576,-0.081365,-0.015435,0.131561,-0.034450,-0.001260,-0.045356,-0.080702,-0.096141,0.011039,-0.016665,-0.096421,0.030371,0.027833,-0.031072,0.002711,-0.114092,-0.010078,-0.034114,0.011147,-0.012739,-0.068251,-0.015132,-0.023158,-0.033958,-0.086241,-0.022854,-0.099476,-0.004074,-0.054708,0.024447,0.009483,-0.073444,-0.058582,0.033741,0.025959,0.111614,-0.005803,0.027006,0.039393,0.005324,-0.062021,-0.072850,-0.019562,-0.011257,-0.084174,0.032905,-0.017026,-0.068705,-0.022587,0.051251,0.006488
-0.012634,-0.086729,-0.024604,-0.015341,0.038832,0.044675,-0.109658,0.041408,-0.019639,-0.025166,0.015603,0.030350,-0.022238,-0.000045,-0.053310,0.060257,-0.029914,-0.003415,0.005168,0.004594,0.036402,0.090536,-0.031348,-0.000025,-0.006645,0.013341,0.011364,0.026411,0.059757,-0.062044,0.088999,0.035198,0.040255,0.053881,0.053083,0.017939,0.070060,0.014109,-0.035529,-0.117094,0.082003,-0.022563,-0.083615,-0.000527,0.058317,-0.001960,-0.191758,0.016909,-0.090530,-0.018733,-0.035404,0.005617,0.007280,0.042555,-0.016695,-0.051702,0.004148,0.034669,-0.062503,-0.012573,0.004776,-0.019520,0.059545,-0.046499,-0.081863,0.049723,-0.024797,-0.007814,-0.015032,0.045578,0.020488,-0.090066,0.045981,0.042149,-0.077841,0.010480,-0.049989,-0.033405,-0.097590,-0.039574,-0.005184,-0.072311,0.026841,-0.012452,0.011979,-0.062685,0.011411,0.100172,0.033669,0.040777,-0.012027,-0.021063,0.053755,-0.113200,-0.099330,0.053096,0.033739,0.074708,0.047188,0.018231,-0.009550,0.013413,-0.011776,0.055532,-0.034244,0.030226,0.049838,0.066149,0.076503,0.040011,-0.029672,-0.026092,-0.057123,-0.035409,-0.069387,0.018087,0.010197,0.147949,-0.068545,0.012471,0.052007,0.021193,0.052636,0.004213,0.009999,0.016195,-0.043638,-0.019823,-0.017451,-0.072178,0.027111,-0.065597,-0.051553,-0.016931,-0.034613,0.067350,-0.063080,-0.042966,0.028495,0.003375,0.021992,0.003744,-0.053977,0.047943,0.051712,0.021827,-0.029247,-0.077312,0.004505,-0.000721,-0.038988,0.023625,0.036080,0.073627,-0.057295,-0.073921,-0.008327,0.029831,0.079182,-0.057178,0.022726,0.047538,0.038073,0.007469,0.089297,-0.067119,-0.095521,-0.041593,0.070428,-0.011659,-0.050341,0.051980,0.066869,-0.012424,-0.024272,-0.005759,-0.036617,-0.017664,-0.082416,0.056597,-0.029777,0.050770,-0.003236,-0.102281,0.050620,-0.045843,-0.010233,0.018273,0.016278,0.001443,0.076905,0.031230,0.085598,-0.000132,-0.012510,0.033825,-0.061766,0.010888,0.105830,0.005745,0.037179,-0.045892,0.043368,-0.023026,-0.014697,-0.064486,-0.020302,0.034104,-0.055181,0.039709,-0.008883,0.025537,0.057878,-0.027488,0.031185,0.027451,-0.035637,0.010942,-0.005551,-0.040522,-0.000935,0.118636,0.068503,0.004818,0.013649,-0.046686,-0.063070,-0.010261,0.046381,0.035929,-0.000002,-0.017171,-0.007607,-0.028860,-0.013017,0.055495,0.010063,-0.005046,-0.008841,-0.022841,-0.005867,-0.009446,0.021976,-0.061967,0.082680,0.000309,0.028836,0.104909,-0.000625,0.004343,0.013755,0.042524,-0.038052,0.091785,-0.095198,-0.059548,-0.044744,-0.023188,0.020744,0.093606,0.023673,-0.061369,-0.027226,-0.030158,0.053647,-0.049330,-0.045210,-0.095574,0.006234,0.044369,0.000663,-0.016243,-0.025489,-0.088697,-0.066521,0.021172,0.041955,-0.027880,0.126932,-0.043077,-0.033118,0.017425,-0.046519,0.086143,0.077210,0.148478,0.048701,0.037249,-0.011568,0.017902,0.051313,-0.060007,0.056852,-0.006735,0.073843,0.054179,0.011184,0.052273,-0.031338,0.018982,-0.021169,-0.062557,0.073037,-0.018746,0.056816,-0.018304,-0.033172,0.003249,0.082177,-0.086364,-0.021227,0.063291,0.005999,-0.054563,-0.057612,-0.060685,-0.039419,0.022908,0.025723,-0.004064,0.066969,0.076683,-0.088337,-0.001573,-0.020165,-0.095300,0.013386,0.047118,0.056662,0.082475,-0.002347,-0.001654,-0.014292,-0.041036,0.024265,-0.047926,-0.037834,0.134709,-0.033211,-0.018258,0.007733,-0.071109,0.047368,-0.031530,0.008491,-0.066249,-0.060306,0.119692,-0.089724,0.025233,-0.047584,-0.029145,0.063169,0.008178,-0.113339,-0.014200,0.025262,-0.042366,0.012130,0.040354,-0.099473,0.032744,-0.057349,-0.027923,0.008994,-0.077604,-0.022083,-0.037529,0.083575,-0.065333,0.071776,0.080050,-0.016243,0.080002,0.011721,-0.014814,-0.029203,-0.020564,-0.111323,0.053730,0.049061,-0.054810,0.012869,-0.015623
-0.004585,0.076760,0.047829,0.056012,-0.024747,-0.037027,-0.055736,-0.066644,0.047609,-0.044022,-0.024828,-0.003515,0.008372,0.116090,-0.055010,-0.000426,-0.065165,-0.071441,-0.051172,-0.064716,-0.002474,0.007700,0.019474,-0.086276,-0.093620,0.019492,0.100492,-0.036119,-0.023736,0.028289,0.070776,-0.031484,-0.039309,-0.038787,-0.046855,-0.000389,-0.084591,0.033803,0.023156,0.099826,0.013583,0.105276,0.064037,-0.018429,0.031944,0.008559,-0.006734,0.066181,-0.001411,-0.028263,-0.015809,-0.007335,0.060323,0.158020,-0.067846,0.013129,-0.119590,-0.004111,0.052930,-0.012879,0.027045,-0.022676,-0.040671,-0.007489,-0.000056,0.001851,0.089995,-0.036361,-0.011749,0.046598,-0.057255,0.027576,0.106347,-0.023553,-0.010056,0.055005,-0.084228,0.089161,0.095384,0.006502,-0.035500,-0.074775,-0.028610,0.061709,0.032149,-0.003125,0.018025,0.144609,0.067806,-0.072938,0.042139,-0.044991,-0.007385,-0.064734,0.014691,0.098709,-0.037737,0.028041,-0.023641,0.094489,0.016032,0.068203,0.021172,-0.068689,0.031367,0.022229,-0.042893,0.019580,0.011099,0.044282,-0.001317,0.055205,0.052652,0.059309,-0.007017,-0.044710,0.067672,-0.059942,0.059472,0.019075,-0.012403,0.147337,-0.048573,0.056093,-0.049374,0.109351,-0.013490,0.052734,-0.049653,0.018405,0.016376,0.068485,0.056065,0.050003,0.025613,0.136648,-0.043764,-0.001186,-0.051459,0.025408,-0.070865,-0.050680,-0.019175,-0.070462,0.017649,-0.047364,-0.003746,-0.077714,-0.011242,0.007091,0.012498,-0.022788,-0.057931,-0.052254,-0.010554,-0.001448,-0.005088,0.084234,-0.051470,0.044378,0.028051,-0.096276,0.125882,0.056520,0.012392,0.078222,0.015382,-0.000192,-0.052024,0.090571,0.028239,-0.010213,0.005424,0.078893,-0.031067,-0.051734,0.090888,0.044522,-0.071220,-0.101038,0.008780,-0.042106,0.006933,0.046057,-0.040779,0.046351,0.009948,0.178855,0.073107,-0.016346,-0.012419,0.042582,0.031424,0.037780,-0.100444,0.008628,-0.040498,-0.067577,-0.010475,-0.035376,-0.061502,0.001593,-0.020634,-0.011926,0.012045,-0.013359,0.096630,-0.017567,0.059792,-0.035898,0.002818,0.020089,0.046090,0.029985,0.030235,-0.022159,0.018940,0.037082,-0.035149,0.036134,0.118236,0.008794,0.039117,-0.014023,-0.041737,0.014302,-0.021258,0.139891,-0.031665,0.001115,0.165288,0.008805,-0.059845,-0.002218,-0.094937,0.153656,-0.061550,0.119141,-0.014375,0.085675,-0.033501,-0.038480,-0.018141,0.068750,0.093718,0.005918,0.011650,-0.041792,-0.013014,-0.006241,0.092510,-0.055826,0.018903,0.062081,-0.051680,-0.093944,0.030562,-0.061381,0.017430,0.017438,0.136319,-0.024924,-0.075038,0.082716,-0.046954,-0.063054,0.016520,-0.109144,-0.012417,-0.060893,0.032075,-0.010036,-0.026436,0.088185,0.069395,0.019805,-0.062393,0.014331,-0.056871,0.026084,0.078642,-0.007871,-0.015812,0.109599,-0.010267,-0.129959,0.058053,-0.004832,-0.026437,0.011594,-0.029335,0.011564,-0.022751,0.045069,-0.081646,0.013768,-0.037169,-0.072416,0.027337,0.029924,0.113347,-0.077734,-0.079794,-0.001222,-0.007434,0.018769,0.012984,0.097606,-0.109495,-0.162737,-0.008361,-0.003795,0.019450,-0.011951,-0.002074,-0.021153,-0.046571,0.006846,0.049538,0.007935,0.008328,-0.001821,0.045061,0.033922,-0.031484,0.013329,0.075025,0.052029,0.020482,0.004742,0.037511,0.012594,0.041265,0.014054,-0.016647,-0.051622,-0.011371,0.011067,0.025115,-0.055805,0.049389,0.042819,0.035206,-0.110217,0.051960,0.038640,0.011102,-0.004815,0.008763,0.013803,0.032038,0.077308,-0.042875,0.088608,0.022836,-0.056487,-0.044227,-0.059976,-0.024567,-0.028547,-0.032321,-0.066098,-0.025656,-0.028672,-0.072589,0.035697,-0.003419,0.047558,0.049803,0.033526,0.006971,-0.154714,-0.054255,-0.036642,0.055621,-0.074424,0.101716,0.046997,0.009989,-0.058202,-0.045282,0.095894,0.000698,-0.052192
-0.020351,0.097350,-0.031485,-0.019318,-0.016334,0.096327,0.081627,0.008677,-0.003749,-0.026015,-0.024743,0.043277,-0.005263,-0.107168,0.006831,-0.028885,0.000103,-0.001248,-0.027210,-0.040102,0.039638,0.014935,-0.033731,0.108564,-0.026378,-0.048103,-0.086145,-0.078059,0.027622,-0.063760,-0.017215,0.051147,0.038211,0.087788,-0.017627,0.057351,-0.025667,-0.050367,-0.115930,0.080594,-0.028041,-0.006145,-0.026913,0.011353,-0.010820,-0.019567,-0.012676,0.024436,0.016980,-0.037266,-0.035802,0.042954,-0.100283,-0.013544,-0.004431,-0.016176,0.007468,-0.031310,-0.002688,0.063599,-0.042891,-0.084092,0.048679,-0.038712,-0.016841,-0.013503,-0.022852,-0.014312,-0.072020,0.068991,0.009105,-0.003703,-0.010318,-0.012712,-0.031008,0.011754,0.018687,-0.033015,0.003862,-0.007194,-0.104632,0.009718,-0.052022,-0.076958,-0.076325,0.054486,0.025381,-0.044991,0.029157,-0.024659,-0.023789,-0.026294,-0.061388,0.002745,0.109965,0.007737,0.072735,-0.015754,-0.031345,-0.067913,0.044816,0.033828,-0.089883,-0.081843,-0.021230,-0.079890,0.017836,0.006956,-0.009514,0.090017,-0.068524,-0.035707,0.056043,-0.046826,0.021300,0.070777,0.013134,0.048733,0.091599,-0.069308,-0.091610,0.044049,0.020039,-0.089592,0.089822,-0.121882,-0.010482,-0.019917,-0.091197,-0.026690,-0.023078,0.014948,-0.035881,0.027859,0.004959,0.135013,0.009434,-0.019523,0.030850,-0.087053,0.064586,-0.001494,-0.036677,-0.027981,-0.082788,-0.038549,0.023858,0.020841,0.122485,-0.006247,0.059237,-0.023199,0.019590,0.015390,0.060721,-0.049439,0.018788,-0.006568,-0.002088,-0.058664,-0.013780,0.005880,0.020233,-0.062281,0.050910,-0.051532,-0.027223,-0.056516,-0.063239,-0.051958,-0.008089,-0.068625,0.058674,-0.105473,0.042626,-0.003852,0.057398,-0.007951,0.023196,0.033933,-0.113564,0.057649,0.039893,0.048457,0.062442,-0.026829,0.083846,-0.025381,-0.053080,-0.039546,-0.039830,-0.041273,-0.048710,-0.066919,-0.069163,0.006667,-0.109047,-0.026579,0.014910,-0.014721,0.000846,0.020562,-0.072523,0.023484,0.033480,-0.015827,0.053025,-0.024141,0.011061,0.031319,-0.033526,-0.044003,-0.035604,-0.087836,0.038158,-0.038285,-0.047356,0.031338,0.007914,0.010438,-0.089766,0.034296,0.010785,0.014945,-0.140285,-0.001669,0.048771,0.086887,-0.008001,-0.066287,-0.003126,-0.004261,0.014803,-0.022996,-0.004302,-0.032494,-0.052211,0.022842,0.029129,0.070234,0.061540,-0.031428,0.019168,-0.034389,-0.025129,-0.035883,0.006251,-0.077289,-0.095373,0.006802,0.006402,-0.001657,0.031480,-0.050725,0.034007,0.042278,0.055443,0.049879,0.041458,0.079611,-0.109328,-0.055910,-0.078724,0.038502,-0.052727,0.056582,-0.015584,-0.038607,0.059570,-0.060801,-0.004406,0.009245,-0.059837,-0.072134,-0.017013,0.001668,0.089867,-0.049301,0.047594,0.063313,-0.026155,0.027559,-0.023261,-0.002962,0.052482,0.036670,0.002307,-0.041786,-0.027445,-0.035370,-0.022452,0.016956,0.047051,0.046012,-0.026380,0.047819,0.028402,0.106275,0.000013,0.030590,0.002819,-0.014944,0.045430,0.064123,-0.023532,-0.024518,-0.002390,0.051098,-0.008870,-0.031915,0.008360,0.103685,-0.017712,0.069911,-0.047350,0.020855,0.005940,-0.058563,0.033262,0.003016,-0.004187,0.001662,0.060429,-0.007928,-0.059296,0.028054,-0.014604,-0.056262,-0.181769,0.108196,-0.052783,-0.016144,0.086585,-0.000424,0.038503,-0.007597,0.010254,-0.041905,0.005449,0.025116,-0.072360,0.071710,-0.032534,-0.033427,-0.068753,-0.033981,0.012153,-0.086756,-0.022397,-0.037568,-0.072468,-0.036222,0.065007,-0.026432,-0.102753,-0.135273,-0.013143,-0.058286,-0.026830,-0.022456,0.002444,-0.118083,-0.023386,-0.070632,-0.083678,-0.045803,0.038064,0.007053,0.085626,-0.014051,0.087472,-0.223701,0.045361,0.023650,-0.022908,-0.040007,0.003517,0.044137,-0.093460,0.056642,0.075472,-0.002373,0.024683,-0.016967
-0.000388,0.018422,0.079611,0.064624,0.092227,0.031770,0.043247,0.052187,0.008801,0.031399,0.016487,-0.012028,0.030241,0.003717,0.026827,0.021227,0.061150,0.030985,-0.040370,-0.015401,-0.054954,0.034775,-0.009258,0.056137,0.122720,0.055159,-0.024557,-0.001866,0.076124,0.009280,0.006400,-0.026923,0.042446,0.035617,-0.004504,0.107514,0.008991,0.000585,-0.053071,-0.096220,-0.074917,-0.054815,0.008365,0.057241,-0.056160,-0.050484,-0.003872,0.041976,0.008466,-0.104734,0.139612,-0.033291,0.026620,0.010499,0.082006,-0.020940,0.052100,0.019101,-0.039107,0.013011,0.093226,-0.001020,-0.041557,-0.012949,-0.022009,-0.009175,-0.066422,0.022582,-0.012729,0.054858,-0.072747,-0.038711,-0.100576,0.075562,-0.067100,0.007035,0.026093,-0.072214,-0.027459,0.057094,0.075625,0.066855,0.028226,-0.040420,0.045924,-0.050660,0.030995,0.084974,0.060971,0.098119,-0.040737,-0.026742,-0.011645,0.006404,0.002399,0.147596,-0.075163,0.008031,0.046077,-0.037691,0.000753,0.095822,-0.107942,0.060059,0.001101,-0.021956,0.059274,0.034498,-0.015042,0.010137,-0.015991,-0.045203,0.017212,0.010324,0.047494,-0.042279,-0.096465,-0.006929,0.018112,0.021721,0.048460,-0.093142,-0.055529,0.123058,0.004304,-0.093383,0.070718,-0.006513,0.101916,-0.085674,0.046214,0.021897,0.010343,-0.091801,0.014130,-0.079351,-0.004623,-0.057989,-0.018218,0.012642,0.044915,0.036084,-0.013580,-0.030017,-0.038914,-0.035746,-0.076334,0.036572,-0.059437,0.003465,-0.124254,0.079750,-0.029129,0.000371,-0.045054,-0.031427,0.005323,0.017270,0.013861,0.041525,-0.076968,-0.064110,0.004359,-0.064206,0.050770,-0.032790,0.100399,0.047463,-0.017507,-0.137104,0.005916,0.097228,0.078654,-0.008786,0.049325,0.041085,-0.016519,0.017986,-0.051952,0.010358,0.107508,0.041561,0.011014,-0.041766,0.005421,-0.018268,0.052462,-0.021955,0.003854,-0.025620,-0.022513,-0.078517,0.077671,-0.026163,0.025451,0.048422,-0.021084,0.024659,0.038737,-0.000930,-0.016001,0.076042,0.111999,0.017856,0.072620,-0.012377,-0.034448,0.107751,0.002955,-0.057834,0.007256,0.045173,-0.011466,0.033117,-0.031839,-0.010415,0.010362,0.084190,0.031076,-0.095071,0.004480,0.043487,-0.009332,0.038009,-0.021304,-0.057023,-0.017048,-0.136995,-0.034812,0.071101,-0.015733,-0.007042,0.006490,0.018525,0.030030,-0.045362,-0.055524,0.046060,0.097007,-0.135113,-0.022158,-0.018703,-0.050545,-0.020118,-0.048074,0.044742,0.024955,0.040049,-0.030492,-0.014891,-0.047037,-0.009240,0.041556,-0.025076,-0.093448,0.068000,-0.064395,0.009532,-0.036583,-0.116494,0.047896,-0.047337,0.117135,0.014353,-0.037690,0.022128,0.085208,-0.057826,0.017653,0.011442,0.041085,0.003573,-0.017337,-0.011173,0.010670,0.062541,-0.078221,0.045999,0.004521,0.001425,-0.021199,0.007209,-0.010511,-0.041241,-0.065822,0.022555,-0.024297,-0.004252,-0.015809,0.003264,-0.019789,0.146736,-0.102103,0.132395,-0.033362,0.088459,-0.046178,0.079821,-0.006190,0.033760,-0.007223,-0.012266,-0.005836,0.066595,-0.036408,0.046673,-0.049293,0.013605,0.025724,0.111749,-0.051268,-0.051119,-0.108602,-0.036030,-0.107018,-0.014252,0.046916,0.009926,-0.094761,-0.060212,0.020789,-0.043462,0.056169,-0.020789,-0.061658,-0.037442,-0.076704,-0.087110,-0.019985,-0.031596,-0.092622,-0.166545,-0.050205,0.017139,-0.037711,-0.008663,0.001376,-0.045301,0.002424,-0.041175,0.046563,0.025908,0.006014,0.097543,-0.049238,-0.011556,0.027927,0.029606,-0.012746,0.020416,-0.055732,-0.074294,-0.107646,0.007964,0.004659,-0.029166,-0.025718,0.043429,-0.023237,0.045750,0.004748,0.188246,0.079930,0.109622,0.080674,-0.019959,-0.022420,-0.023346,-0.046623,0.125912,-0.061985,0.162499,0.205591,0.031393,0.016999,-0.076810,0.005384,0.019675,-0.057979,0.004257,-0.003386,-0.002069,-0.117836,0.019299
-0.004011,-0.034273,0.048557,-0.040901,0.064452,-0.056895,0.017209,0.083184,-0.016613,0.052290,0.026077,0.035712,-0.009572,0.014976,0.003189,-0.135502,0.093835,-0.029179,-0.000413,0.048019,-0.135553,-0.029561,-0.009179,0.039595,-0.047953,-0.003262,0.002737,0.023528,0.004223,-0.006133,0.047463,-0.030198,0.039926,0.126014,0.003091,-0.059061,0.034861,-0.125644,-0.032812,-0.064354,0.039751,-0.049270,0.022427,0.038568,0.018612,-0.055919,-0.004832,0.063314,-0.046241,0.026392,0.021471,-0.030907,0.012468,-0.150876,0.009421,-0.003977,-0.013507,-0.013229,-0.007824,-0.081488,-0.057383,0.119426,0.019209,0.020223,0.077194,0.084334,-0.040242,0.078588,-0.094947,0.068760,-0.039395,0.026841,0.092770,-0.013219,0.104713,-0.078192,0.005585,-0.011196,0.023686,-0.013086,0.057190,0.038903,0.017410,-0.115842,-0.005270,-0.044244,-0.080490,-0.064089,0.012550,-0.008658,-0.002659,0.013826,-0.018990,0.053604,-0.023179,0.001730,0.150020,0.017338,0.004487,0.046278,0.051084,0.052552,-0.029912,0.089867,-0.007917,0.081617,0.048286,-0.012494,0.028897,-0.000125,0.116088,-0.093157,0.061568,-0.059034,-0.072570,0.048972,-0.002500,0.103972,-0.009173,-0.005010,-0.004014,0.006545,-0.111633,-0.022592,0.029878,-0.009488,0.048311,0.032375,0.009123,-0.010807,0.043191,-0.002868,-0.012493,-0.025468,0.008073,-0.024745,-0.066679,0.066572,0.011840,0.001569,-0.032823,-0.048346,0.061056,-0.001922,0.079872,0.019847,-0.060537,0.001619,-0.023541,0.002757,0.083560,-0.004887,0.054308,0.024950,-0.030746,-0.131663,-0.019706,-0.034191,-0.073222,0.032577,-0.004919,-0.020870,-0.055446,-0.023391,0.040915,0.045043,0.046031,0.060100,0.017473,-0.055694,0.013869,-0.010331,-0.054861,-0.011354,0.023180,-0.022177,0.008773,-0.028023,-0.040075,0.019544,0.002992,0.094754,0.000763,-0.044360,0.004203,-0.024702,-0.047191,-0.055438,-0.040078,0.039272,0.032886,-0.043581,0.107185,0.066991,-0.034718,0.010869,0.048624,0.009542,0.105827,0.006005,-0.016901,0.059662,0.012774,-0.069911,0.028682,0.017098,0.071048,0.055279,-0.012132,0.060579,0.049848,0.061532,0.025119,0.000351,0.001721,-0.070958,0.080443,-0.006629,0.088235,-0.026041,0.147773,0.101567,-0.002007,-0.043235,0.052140,-0.030810,0.055495,0.098545,0.056902,-0.002334,0.045215,0.085516,-0.011801,0.049702,-0.058537,-0.049826,0.082702,0.023664,-0.083069,0.007543,0.074828,0.005006,0.001609,0.101115,-0.005189,0.012392,0.025724,0.073094,0.054963,-0.098886,0.020873,0.057960,-0.091020,-0.006876,0.041890,-0.131577,0.085716,-0.003592,0.040373,-0.005559,0.000087,0.038191,0.015404,0.040362,0.029268,-0.004426,0.031319,-0.020877,-0.014792,0.038112,-0.004014,0.012631,0.033016,0.022365,0.013833,0.038735,-0.038933,0.040601,0.056076,0.067322,-0.028141,0.030767,-0.055732,0.016419,-0.017998,-0.086635,0.063022,-0.050569,-0.016552,0.021394,0.023928,0.040037,-0.020549,-0.015753,0.007652,-0.068622,0.022259,0.014670,0.049381,0.045654,0.002002,-0.012130,-0.036429,-0.007686,-0.028771,0.006470,-0.036255,0.053340,0.065867,-0.036657,0.085634,0.003231,-0.034783,-0.067885,-0.000288,-0.008773,0.017487,-0.063581,0.078620,0.007643,-0.026645,0.061481,0.025858,-0.055676,0.065244,-0.006225,-0.028959,0.017508,-0.009824,0.006286,0.046841,0.062570,0.022684,-0.033631,0.059298,0.052630,0.053471,0.061584,0.011097,-0.010337,0.038086,-0.051860,0.050796,-0.043805,0.071232,0.032498,0.056191,-0.025848,0.047399,-0.023832,0.041462,-0.080910,-0.032182,0.086993,0.031391,0.071768,0.116048,0.041896,-0.019615,0.105321,0.057077,-0.110102,-0.004894,-0.003910,-0.010661,-0.010854,-0.011880,0.029560,-0.054014,-0.006475,-0.088845,0.113654,-0.082486,0.001523,-0.004076,0.122365,-0.023945,0.053213,0.032019,-0.095705,-0.022520,0.026461,0.045430,-0.010366
0.016991,0.093359,0.001369,0.038470,0.005209,-0.087355,0.029380,-0.014005,-0.017695,-0.020233,-0.012361,0.016656,0.060742,0.070471,0.003083,-0.002150,-0.004839,-0.053571,-0.007168,-0.009029,-0.039978,-0.031273,-0.019661,0.054081,0.035652,-0.062347,-0.004825,0.109249,-0.016034,0.025993,-0.051873,0.034276,-0.044888,-0.066817,0.015754,0.044450,-0.025394,0.076117,-0.035491,0.029911,-0.076412,0.097981,0.015990,-0.102671,0.021587,0.005198,-0.002356,-0.052952,-0.023377,0.066998,-0.023771,-0.022358,0.018067,-0.036085,0.059011,0.042671,0.026754,-0.026646,0.028710,-0.059491,0.006470,0.021402,-0.032305,0.068180,0.091193,-0.053750,0.011902,-0.002501,0.023241,0.019282,-0.021316,0.027624,-0.016573,-0.026080,0.013431,-0.005712,-0.004300,0.010050,0.007612,0.079871,0.036780,0.032529,0.036051,0.013075,0.037730,-0.054213,-0.029627,-0.030445,0.044169,-0.024070,-0.029834,0.118437,0.072908,0.086067,-0.047602,0.115396,0.029788,-0.064734,0.023468,0.011134,-0.050158,0.044801,0.049710,-0.037965,0.002103,0.099808,-0.034176,0.009914,0.033518,0.021621,0.068030,0.127182,-0.009635,-0.010278,0.138301,0.025192,-0.099640,0.055866,0.020381,0.009085,-0.042922,0.073224,-0.126985,-0.042013,-0.014749,0.000177,0.003079,0.057905,-0.032016,0.034666,0.018700,0.018386,0.065374,0.014667,-0.017524,-0.020501,0.083962,0.173967,0.006084,0.086894,-0.042099,-0.052239,0.039415,0.031612,0.006030,0.035707,0.056024,0.050502,-0.069492,-0.007388,0.119737,0.076800,-0.020135,-0.046305,0.066653,0.092834,0.013981,-0.057767,0.022051,0.017257,0.049610,-0.031056,0.011077,0.019502,0.053939,0.026948,-0.021235,0.097255,0.076828,-0.064337,-0.017044,0.017089,-0.030295,0.031606,-0.020647,-0.020472,-0.070551,0.064809,0.062768,0.033864,0.056122,0.073993,0.010316,0.054605,-0.040316,0.007300,-0.018299,0.022338,0.059744,-0.018628,-0.007493,-0.017184,0.080321,-0.005237,-0.063146,-0.021981,0.082112,0.020056,0.032193,-0.018949,0.052988,-0.035622,-0.002904,-0.071495,-0.017833,0.079392,0.024454,0.023348,0.036509,0.017027,0.076962,-0.001670,0.043596,0.047857,-0.042321,0.091281,0.046494,0.001843,0.043655,0.110815,0.075593,0.029116,-0.057311,-0.042713,0.010762,0.042264,-0.035361,-0.109050,0.020197,0.015093,0.089269,0.078941,-0.047838,0.073375,0.104407,-0.080887,0.006187,0.002232,-0.035460,0.031919,-0.033158,0.027697,0.019227,0.021376,0.001853,0.058774,-0.079071,0.010864,-0.014589,-0.079314,-0.033428,0.004635,-0.023194,0.106727,-0.020057,-0.045331,-0.050580,0.083603,-0.003934,0.002665,-0.021976,0.027077,-0.035841,0.003195,-0.005158,-0.015994,0.064617,0.018081,0.050628,0.034769,0.093468,-0.008652,0.097799,0.035191,0.090984,-0.020089,0.032716,0.066975,0.055732,-0.053371,0.033537,0.018228,-0.024435,-0.053678,0.045294,-0.051641,0.042565,0.005334,-0.054420,-0.029336,-0.082612,-0.006654,-0.004819,0.028762,0.069030,0.005195,0.016145,-0.023363,0.105915,0.043178,0.041763,-0.039143,0.119836,0.033184,0.018831,0.038034,-0.016449,-0.012501,0.034331,0.025087,-0.038544,0.028367,0.062960,0.105657,-0.014110,0.031645,0.017632,-0.016480,-0.010305,0.036024,-0.053660,-0.026611,0.005054,-0.032400,-0.003379,0.119538,-0.015058,-0.064789,-0.011655,-0.042567,0.021812,0.031760,0.000102,-0.054097,0.076533,0.083342,0.020337,0.044472,-0.007764,0.125995,0.015236,0.003367,0.104788,-0.029006,-0.043166,0.007297,0.010029,0.008055,0.029938,0.234097,0.018016,0.008860,-0.040191,0.072080,-0.049995,-0.015290,0.043557,-0.008379,0.069995,0.057363,0.034181,0.073418,-0.012453,0.035419,-0.007900,-0.011848,0.097434,-0.025855,0.003912,0.130963,-0.048040,-0.034032,-0.051968,-0.030328,0.005688,0.099726,-0.014187,-0.042971,0.007340,0.029237,0.026692,-0.033654,-0.005411,0.030163
-0.009826,0.046667,-0.003713,0.099073,0.062350,0.019421,0.083106,0.047446,0.105074,-0.013573,-0.018380,-0.049777,-0.038148,-0.046117,-0.077741,0.013778,0.068657,-0.026095,0.008750,-0.046004,-0.064445,0.007534,0.015809,0.003308,0.025260,-0.003729,0.068809,0.029525,0.062037,0.053730,0.022955,0.028979,-0.002617,0.023258,-0.022454,-0.040768,-0.006290,-0.009571,0.078226,-0.009451,-0.071320,0.055822,0.020939,0.071090,0.038734,0.086708,0.008003,0.160598,-0.041651,0.042039,0.067244,-0.000772,-0.010801,-0.094372,-0.012372,0.018286,-0.022598,-0.002462,0.019874,-0.006034,0.011644,0.045527,-0.014127,0.039390,-0.055295,-0.008738,0.003069,-0.004104,-0.005504,-0.012227,-0.015571,0.034633,-0.011613,-0.016096,0.034488,0.072715,0.061461,0.005555,-0.006007,-0.039011,0.085384,-0.018267,-0.093171,-0.030607,0.050779,-0.052991,0.031236,-0.034352,0.000512,-0.048513,-0.041689,-0.043656,0.038826,0.091337,0.053929,0.025226,-0.041871,-0.024678,-0.044415,0.009766,0.002070,0.003677,0.072437,-0.035856,-0.035129,0.004257,-0.079232,0.008700,0.062300,-0.008008,-0.004010,0.043925,-0.035861,-0.087787,0.020184,-0.037970,0.044233,-0.008155,0.013414,0.014154,0.053203,0.010302,-0.074631,-0.037538,-0.009103,0.055691,0.060740,-0.023844,-0.024502,-0.000506,-0.002275,-0.005094,-0.097932,-0.004039,0.081214,0.049486,-0.037528,-0.027329,0.028247,-0.066735,0.065030,-0.068097,0.038799,-0.038720,-0.049102,-0.010290,-0.025901,-0.060588,-0.074531,0.007646,0.046549,0.050885,0.006305,0.004644,-0.002928,0.016632,-0.036689,-0.054454,0.034653,0.078730,0.027615,-0.013070,0.047448,-0.002660,-0.015252,0.047455,-0.020957,-0.015430,-0.122457,0.033297,-0.019267,-0.005343,0.001799,0.028727,-0.014802,-0.010334,0.059718,-0.022208,0.035009,0.024995,-0.029086,-0.020675,0.024659,0.106229,-0.039121,-0.073178,-0.090667,-0.118838,-0.005196,-0.056193,-0.023137,0.069368,0.030550,0.025644,-0.021943,0.015614,0.002422,0.068552,-0.032251,-0.037537,-0.060020,0.074216,-0.027281,0.074177,-0.056023,-0.025722,0.025774,-0.003568,-0.125770,-0.017588,-0.011790,-0.041145,0.086556,-0.093923,-0.016137,-0.004949,0.009910,-0.008402,-0.029406,-0.022131,0.005473,-0.015036,-0.055197,-0.049350,-0.086652,-0.021485,0.052463,-0.036187,0.011565,-0.068066,0.031998,0.007702,-0.045986,0.074106,-0.007744,0.180466,-0.039336,-0.009717,0.014714,-0.034505,0.000740,-0.007525,0.019046,-0.019836,0.111632,-0.004424,-0.031983,-0.122987,-0.007391,0.014544,0.074261,0.018229,-0.055056,0.020556,-0.080063,-0.050110,0.003782,0.054371,-0.021233,-0.019273,0.047200,0.046896,-0.068582,0.076075,0.030693,0.019822,-0.007938,0.064486,-0.002070,0.023442,0.007584,-0.000667,0.080830,-0.042582,-0.028479,0.026908,-0.006554,0.070132,0.049490,-0.016318,0.069248,-0.012625,0.016249,0.044585,-0.019292,0.041041,0.052494,0.003299,-0.044325,0.077777,-0.005782,-0.004423,0.008795,-0.078449,-0.036341,-0.073718,-0.044850,0.103715,0.001862,-0.065210,0.130162,0.062418,0.059746,-0.041967,-0.033294,-0.057700,0.057831,0.015325,-0.021237,0.092268,0.008024,0.053966,-0.050742,0.057005,0.035946,-0.016591,0.018083,-0.054946,0.019171,0.076876,0.052669,0.021258,-0.026917,-0.043533,0.044049,0.093411,0.036944,0.042294,0.037004,0.022477,0.082185,0.040078,0.083148,-0.015744,-0.010386,-0.031574,-0.042120,-0.064512,-0.046609,-0.015944,0.001419,0.018736,-0.045940,0.068962,-0.008345,-0.006542,0.028054,-0.025600,0.005300,0.075630,-0.017863,0.077228,0.054054,-0.039459,0.044191,-0.070859,-0.085178,0.044209,-0.000870,0.084405,0.067334,0.014559,0.018770,0.055904,0.003320,0.047569,-0.018760,0.055035,0.057868,0.016997,-0.021140,0.032306,-0.011320,-0.068600,0.016548,0.025535,-0.067670,-0.042549,0.071669,-0.050607,-0.004510,0.094254,0.045527,0.022882
-0.001167,0.045455,0.042797,-0.080377,-0.088986,0.056132,0.088381,-0.059502,0.124562,-0.005406,0.072192,0.001796,0.040269,-0.094097,0.141767,-0.013701,0.071615,0.068073,0.005091,0.012093,0.112109,-0.020547,-0.003628,0.077809,0.098412,0.089584,0.065288,-0.045821,0.047816,-0.095796,-0.091085,0.089119,-0.021476,-0.024018,0.048693,-0.003792,0.007681,-0.022137,0.040545,-0.140606,0.041167,-0.021726,0.137099,-0.017891,0.011322,-0.026064,-0.061628,0.018625,-0.006167,-0.026468,0.019250,-0.013475,-0.047213,0.056569,0.038035,0.073277,0.060500,0.019331,-0.052732,-0.023781,0.085658,-0.037647,-0.068134,-0.060316,0.043980,0.022929,-0.022019,0.028650,0.009252,-0.073332,0.011808,0.020231,-0.036859,0.047752,-0.018779,0.071160,-0.008493,0.116550,0.050632,0.061926,-0.010315,-0.123753,0.060950,0.018079,0.006490,0.008724,0.012681,-0.035286,-0.088281,-0.066188,-0.038858,-0.035219,-0.043797,0.058067,-0.010692,-0.029684,0.060130,0.013400,0.014044,0.057667,0.055092,-0.027051,-0.025035,-0.014033,-0.037354,-0.086275,-0.018902,0.039217,-0.006690,-0.006039,-0.019562,0.029445,0.093412,-0.039512,-0.016565,-0.027181,0.008088,0.033616,0.100504,0.048697,0.025302,-0.062706,0.008822,-0.012489,-0.013249,0.006820,-0.005533,-0.025677,-0.097647,0.054097,-0.004765,0.000026,0.053367,-0.077466,-0.010372,0.020219,-0.029197,0.065912,-0.030551,-0.027092,-0.083635,-0.118802,0.080450,-0.001434,0.054012,-0.048229,0.027773,0.070985,-0.034302,0.002464,0.068504,0.027261,-0.024395,-0.008455,0.065539,0.036577,0.025057,0.029856,-0.032372,-0.108950,0.011351,-0.007750,0.034841,0.093702,-0.004678,-0.005633,0.017807,-0.058182,-0.038821,-0.089583,-0.003730,0.044495,0.036714,0.022811,0.055976,-0.052625,-0.003535,-0.048463,-0.040665,-0.057328,0.017683,0.114030,-0.005050,-0.143158,0.056334,-0.015500,-0.028641,0.064121,0.084147,-0.116562,0.026952,-0.036794,0.084200,0.013961,0.054857,0.033394,0.000392,-0.018723,0.027625,0.035654,0.084389,0.054032,-0.071129,0.013322,0.126189,-0.020824,0.094544,0.051128,0.065947,-0.080975,0.034145,-0.009362,0.013756,0.045290,0.040998,-0.000859,0.087305,0.019019,0.006313,-0.024211,0.067282,0.016295,0.077484,-0.055924,-0.056568,-0.042498,0.030387,0.021252,0.091439,-0.090507,0.023918,0.042139,0.018995,0.050580,-0.007715,-0.061229,0.002728,0.124453,-0.049337,0.064590,-0.009482,0.011539,0.050340,0.091670,0.073810,-0.001817,0.056448,0.047269,0.004139,0.058041,-0.063752,-0.041353,0.027304,0.060911,0.010613,0.026221,0.102114,0.039294,0.019793,-0.046507,0.014425,0.018825,0.002484,-0.020968,-0.054219,-0.006961,-0.011076,-0.114980,-0.012250,-0.055529,-0.055186,0.001725,0.084293,0.103646,-0.000931,0.034896,0.077980,0.036285,0.036690,-0.017486,0.015879,-0.070294,0.105396,-0.075910,-0.010513,0.025448,-0.016079,-0.016696,0.022828,-0.031665,-0.107567,0.019669,-0.048806,-0.020618,-0.051934,0.069697,0.018681,0.002614,0.015710,0.011025,-0.062511,-0.022131,-0.080971,0.006197,0.022218,0.067888,-0.013423,0.033933,0.102272,0.078157,0.074159,-0.066858,0.047108,-0.036649,-0.006102,-0.090832,-0.033431,-0.061144,-0.057784,-0.059761,0.020151,-0.079541,-0.064114,0.020520,-0.016823,-0.036803,0.091326,-0.065027,0.007152,0.031706,0.023079,0.089898,0.087858,0.005157,0.012022,-0.104089,0.050014,-0.017906,0.051263,0.005618,0.011053,0.021252,-0.007552,0.066911,-0.043270,0.041439,-0.029453,-0.031017,-0.023383,0.001907,0.000981,0.030361,0.031414,0.024640,-0.030135,-0.089344,0.064054,0.087418,0.066804,0.050512,0.078566,0.047285,-0.003611,-0.036824,-0.042999,0.077427,-0.026348,0.060179,0.026200,0.055332,-0.014610,-0.002202,-0.017230,0.010019,0.069809,0.013546,0.048449,0.056931,-0.059020,0.023606,0.049737,0.006353,0.049500,0.067422
0.002751,0.055155,0.055639,-0.028450,0.057125,-0.019391,0.074654,0.087119,-0.109802,-0.029234,-0.028888,0.016759,-0.047455,0.026720,-0.040810,0.012265,0.047575,-0.000827,-0.056291,0.087057,0.042365,0.052335,0.002464,0.031546,0.044998,-0.015019,-0.055884,0.039848,-0.031705,0.019968,0.073058,-0.089611,0.052581,0.017626,0.039038,-0.004327,-0.048041,-0.066439,-0.022306,0.039770,-0.073493,-0.073724,-0.050285,0.025911,-0.015005,-0.099602,0.071448,-0.031281,-0.027957,0.059144,0.055604,-0.018903,0.043128,-0.027209,0.090341,-0.036577,0.043342,-0.032246,0.026062,0.003463,-0.033818,0.057904,-0.023181,0.133526,-0.010740,0.017399,0.061488,0.062873,-0.018701,-0.020911,-0.003746,-0.022440,-0.019250,0.130966,0.056948,-0.019942,0.077043,-0.031843,-0.033115,-0.101498,0.012765,0.003230,-0.004535,-0.015740,0.042439,-0.001505,-0.060024,0.021575,0.082561,-0.024940,0.023240,0.051237,-0.033681,0.096750,-0.034919,0.050851,0.101402,-0.023213,-0.003909,0.025862,0.099604,0.011505,0.013106,0.005494,0.036111,0.018205,0.010735,-0.085008,0.030803,0.040903,-0.044064,-0.025847,0.020606,0.022879,0.024338,-0.077500,0.016702,0.011824,0.062588,0.013776,-0.035061,0.032725,0.137783,-0.020894,-0.036609,-0.017895,0.018299,0.016621,0.027981,-0.029313,0.064362,-0.061393,-0.020467,0.045288,-0.001581,-0.029581,0.026267,0.028895,0.027571,-0.008095,-0.067806,-0.074811,-0.072038,0.019991,0.006327,0.124099,0.069371,0.055657,-0.003955,0.001299,0.031913,-0.003405,0.051979,0.008209,0.021045,0.004655,-0.017484,0.006167,-0.043188,-0.010771,-0.063955,-0.030349,-0.006568,0.030380,0.041758,-0.023259,-0.060612,0.109339,-0.052066,-0.042405,-0.032248,0.053591,0.083732,0.007321,-0.003071,0.064281,-0.037054,0.014465,-0.003841,-0.000738,0.037486,0.070564,-0.007073,0.028094,0.020955,-0.017520,-0.150094,-0.008485,0.039061,0.097145,-0.030493,-0.061142,0.062096,0.048377,-0.023260,-0.008328,0.032331,-0.064206,-0.029174,-0.019242,-0.027774,-0.009769,-0.104768,-0.091050,0.052398,-0.000614,0.083375,0.058853,-0.016219,0.000469,0.012362,0.082041,0.052990,0.010852,-0.076015,0.109873,0.093028,-0.014941,0.035649,-0.063630,0.018813,0.010123,-0.004498,-0.063349,-0.095559,-0.007940,0.015858,-0.033868,0.025933,0.017181,0.007639,0.002213,-0.034637,0.098145,0.020543,-0.058720,-0.087998,-0.049814,-0.011783,0.055374,-0.015999,-0.004463,0.054737,-0.012358,-0.021601,0.007385,0.041756,0.055740,0.035432,-0.106100,0.017801,0.011040,-0.034399,0.031679,0.033501,-0.024697,0.007244,0.071615,0.044791,0.063020,0.054198,-0.073760,-0.044951,-0.039839,0.067488,-0.133189,0.051382,0.017304,0.014686,0.044737,0.098772,-0.005787,0.052595,0.023388,0.121700,0.076226,0.042042,-0.020717,-0.079772,0.072157,0.007686,-0.018740,0.000115,0.063210,-0.154956,-0.082031,0.096401,0.060691,0.044020,0.029215,-0.011529,-0.109937,0.027429,0.021915,0.104283,-0.032239,-0.073556,-0.033186,0.019165,0.024421,-0.092757,0.037755,0.027150,-0.021129,0.035407,-0.060246,0.023997,-0.078302,-0.133194,0.074857,-0.031000,-0.005985,-0.029706,-0.074657,0.007213,-0.106047,0.031778,-0.048552,-0.066581,-0.011761,-0.010114,-0.047295,0.024467,0.112068,-0.027935,-0.025716,-0.003847,0.047823,0.034470,-0.020306,0.010615,0.015106,0.109712,0.035505,0.109270,0.017694,0.060535,0.170325,0.024177,0.015132,0.127093,-0.031352,0.002299,0.030874,0.016577,0.104051,-0.071583,0.028782,0.007816,-0.040147,-0.017258,-0.037214,-0.061964,-0.071162,0.023125,-0.076706,0.032603,0.021230,0.009755,-0.040624,0.032446,-0.059230,0.058590,0.039753,-0.032761,-0.070725,0.023241,-0.031926,0.028030,0.008754,0.041454,-0.015680,-0.065903,-0.125543,-0.026590,0.024371,-0.024053,-0.061572,0.052943,0.007328,0.059407,0.092813,-0.075468,0.110665
0.020002,0.045167,0.023345,-0.099620,0.044890,0.028135,0.055748,0.081764,-0.087072,0.070205,-0.102058,-0.060008,0.081677,0.044403,0.006654,0.026913,0.042024,0.015761,0.001517,0.011562,0.041407,0.047569,-0.064443,-0.062202,0.074471,-0.005158,0.033030,0.028531,-0.042645,-0.037100,0.024001,-0.046283,0.042508,0.038456,0.003907,0.047246,-0.057541,0.002875,-0.003196,-0.048955,-0.035307,-0.074783,0.019185,0.110841,-0.082725,-0.003128,-0.013917,0.107641,0.106634,-0.046134,0.025720,-0.049237,-0.103750,-0.073396,0.013478,0.015697,0.004016,-0.037771,-0.013092,0.007748,-0.036180,-0.070425,-0.020601,-0.047234,0.036489,-0.027291,-0.091157,0.023095,0.029729,0.001020,-0.105024,0.010226,-0.073561,-0.054836,0.041949,-0.008984,0.016784,0.000405,0.000851,0.055637,-0.076646,0.006687,-0.061850,-0.024650,0.000364,0.047773,-0.125422,0.004122,-0.052850,-0.041970,-0.038132,0.046907,0.010200,-0.008179,-0.048585,0.056307,0.016370,-0.045801,0.034729,0.018298,-0.041132,0.039155,-0.064844,0.010072,-0.030280,0.015005,0.063491,0.011342,-0.060822,-0.007734,-0.084065,-0.024131,-0.001029,0.006744,-0.016089,-0.057243,-0.040725,-0.038171,-0.011508,0.046567,-0.094840,-0.023441,-0.024803,0.134730,-0.006801,-0.066321,-0.012789,-0.005230,0.038278,-0.003760,0.092352,0.003152,-0.025219,0.029022,0.068572,0.006008,0.004819,-0.021820,-0.003636,0.080282,-0.032146,-0.072299,0.046943,0.075059,0.043318,-0.027750,0.089351,0.072062,0.018774,-0.002324,-0.127381,-0.021698,-0.012959,-0.015555,0.003727,-0.000012,0.041426,0.046867,0.010034,-0.010649,0.003405,-0.044777,0.107497,-0.046872,-0.097019,0.049623,0.021320,0.017912,0.110744,-0.136155,-0.072890,-0.022429,-0.069362,0.015490,0.065762,-0.027550,-0.014137,-0.044945,0.006132,-0.018561,0.048972,0.014088,-0.009920,-0.048569,0.024894,0.032087,0.002434,0.024666,0.062645,-0.131406,0.059150,-0.079247,0.062593,0.040260,0.040948,-0.003594,0.030462,0.045545,-0.099625,0.052740,0.009000,0.010314,0.016483,-0.008795,-0.049354,-0.001152,0.028403,0.102417,-0.043062,-0.033589,-0.029940,0.070440,-0.017513,0.080430,0.092641,0.043589,0.033427,0.000161,0.007198,-0.047923,-0.081202,-0.014919,0.035482,0.000232,0.077918,-0.023746,0.012662,0.019072,0.012092,-0.045309,0.040552,-0.003445,-0.011492,-0.019426,0.023673,-0.033228,0.082354,-0.000187,0.021124,0.069481,0.023631,0.079575,0.018511,-0.032552,-0.028066,0.024130,0.030560,-0.010470,-0.000298,-0.022664,-0.115793,-0.026782,-0.020710,0.039896,0.068223,-0.133719,0.040358,-0.015278,-0.013973,0.084606,-0.094228,-0.003629,0.124431,-0.023098,-0.037147,0.035844,0.014558,0.094039,0.078486,0.004720,0.013207,-0.010930,-0.041374,0.039060,0.136973,0.024233,0.005038,0.115579,-0.061770,-0.097690,-0.051255,0.003972,0.012486,-0.048781,0.024452,0.001990,0.014582,0.001309,0.005578,-0.061615,0.005624,0.184184,-0.015849,-0.020239,0.040489,-0.008476,-0.021371,-0.100285,0.039298,-0.089743,0.002219,-0.067397,0.006506,0.014902,0.020513,0.110487,-0.040723,-0.058727,0.051936,0.005034,0.040222,-0.014367,-0.000517,-0.064418,0.072100,-0.039941,0.026673,-0.058303,0.020653,-0.045885,0.044567,-0.086842,-0.045058,0.038959,-0.014202,0.056252,0.080889,-0.112176,0.026900,-0.026394,0.123199,-0.055041,-0.098908,0.005952,-0.061519,-0.018133,-0.074605,-0.006192,-0.054101,-0.013235,-0.048385,0.071033,-0.084105,0.005621,-0.050657,-0.065278,-0.050253,-0.028148,0.009743,-0.064514,0.027152,-0.033940,-0.003886,-0.052135,-0.044348,0.055338,0.030867,-0.042391,-0.012590,-0.079852,0.016072,0.067319,-0.035426,-0.080294,0.054297,0.005321,-0.026999,0.070237,-0.063973,0.056788,-0.076576,0.007377,0.023746,0.047303,0.078218,-0.085245,0.001694,-0.034780,0.033508,0.041142,-0.042306,-0.065631,0.017273,-0.036237
0.017115,-0.073099,0.022798,-0.045530,-0.081150,0.030440,-0.039372,-0.097214,0.094520,-0.006405,-0.043345,0.036104,-0.047316,0.018927,-0.013702,0.024668,-0.001572,-0.001316,0.037301,-0.005977,-0.047882,0.060991,-0.070843,0.011165,0.047771,-0.022362,-0.010699,-0.039392,-0.054701,0.082198,0.039330,0.021350,0.080589,0.041206,0.050462,-0.003223,-0.012491,0.001130,0.038242,-0.015923,0.055814,-0.110179,0.079523,0.091576,-0.090577,0.003810,-0.025512,0.079577,0.024345,-0.019500,0.136399,0.015048,0.020871,-0.013620,-0.030819,-0.039449,0.014441,0.003593,0.003202,-0.014480,-0.009101,0.041917,0.031359,-0.023798,-0.003396,0.008949,-0.021279,0.028638,0.005481,-0.149107,0.045870,-0.037495,-0.095881,-0.005702,-0.010190,-0.016540,-0.072657,0.000539,0.000911,0.027531,0.048862,0.065921,0.046099,0.126458,-0.048458,-0.044485,-0.010724,-0.039301,0.049155,-0.017351,0.002728,0.010793,-0.012156,-0.088693,0.044414,0.069051,-0.032879,-0.044078,0.058532,0.075899,0.032890,0.010822,0.090478,-0.066104,-0.051364,0.022803,-0.003042,-0.094288,-0.028167,-0.044204,-0.053888,-0.017401,0.108800,-0.036123,-0.023021,-0.031756,-0.051011,-0.005969,-0.012263,0.006638,0.017490,0.064761,-0.151456,-0.049114,0.039698,0.072944,-0.015561,0.024011,-0.022997,-0.036629,-0.059539,-0.024798,0.020873,-0.076517,-0.066182,-0.067704,-0.061326,-0.037441,0.002462,0.053353,0.043913,0.075426,-0.016269,-0.133878,-0.018099,0.097943,-0.021592,-0.033886,-0.055489,0.003280,0.000475,-0.046071,0.001263,0.055124,0.059401,-0.011810,-0.013257,-0.001168,0.024050,-0.030836,0.007862,-0.030352,-0.034319,0.037943,0.016289,-0.026005,0.052517,0.051878,0.020130,-0.060709,-0.003117,-0.020693,-0.031797,-0.045080,-0.020469,0.105208,-0.000518,0.043855,-0.015731,-0.084631,-0.144586,-0.087104,0.005888,-0.065691,0.091430,0.047808,-0.026564,0.015132,-0.070200,-0.004864,0.003718,0.080540,-0.035028,-0.042698,0.032687,0.073886,0.031756,0.002220,-0.065612,0.044842,-0.008959,0.012874,0.022137,-0.023565,0.017441,-0.019177,-0.014142,0.124615,-0.020319,0.018990,0.024308,0.049278,-0.023111,-0.019762,-0.103023,-0.033551,-0.069539,0.044646,-0.002428,0.039607,0.036297,0.043487,-0.025143,-0.014379,-0.085250,-0.061280,-0.097038,0.000338,-0.001727,0.054034,-0.023949,-0.049363,0.007443,-0.049802,-0.027650,-0.025054,-0.045648,0.021645,-0.047487,-0.042330,-0.044463,-0.015943,0.019036,0.032505,-0.024601,-0.011811,0.075025,0.052678,0.007372,0.079958,-0.022259,0.043835,0.040075,0.005297,0.042805,-0.049064,0.082123,-0.015477,-0.001123,0.020677,0.020724,-0.031836,-0.037884,-0.012295,-0.001728,0.047258,0.004083,0.060421,0.060279,-0.004684,-0.081753,-0.013447,-0.084942,-0.000395,-0.052747,-0.057828,0.047258,-0.030883,0.049975,0.033182,-0.081602,-0.003315,-0.000131,-0.056014,0.057392,-0.079501,-0.046063,-0.014547,-0.008940,-0.068468,-0.015374,-0.025509,0.019955,-0.063994,0.000521,0.041648,-0.051396,0.031500,-0.045814,0.060716,-0.018196,-0.012401,-0.041969,0.000659,0.031422,0.028856,0.011651,0.061724,0.036727,0.079832,0.048852,-0.049098,0.007757,0.019461,0.068103,-0.074525,0.041674,-0.030592,0.045433,-0.002941,0.084469,-0.009232,-0.036334,0.004555,0.022600,0.014082,-0.029073,0.048052,0.059176,0.042857,0.072301,0.026868,0.142925,-0.024324,0.000158,0.093664,0.002488,0.055804,0.131523,0.088240,0.070371,0.009494,0.038461,0.057480,0.024950,-0.051586,0.020515,0.059475,0.003409,0.083805,0.084149,-0.099517,0.029321,0.021220,0.027234,0.007103,0.041246,-0.014482,-0.016002,-0.053477,0.035705,-0.044524,-0.060868,0.073091,-0.003641,0.004131,-0.013790,-0.013219,0.142836,0.049664,0.017974,0.120930,-0.049009,-0.158965,-0.004349,0.015503,0.038490,0.098224,-0.042668,-0.026897,0.069301,0.005564,-0.097632,0.083739
-0.002859,-0.061757,-0.078872,0.013029,0.066579,0.072500,-0.065751,0.033861,-0.008647,-0.075182,-0.028127,-0.043491,-0.061248,0.047036,-0.025873,0.070615,-0.043421,0.065911,-0.016275,-0.105528,-0.059747,-0.065188,0.012207,0.023334,0.069995,-0.000355,-0.001598,0.018192,-0.013145,-0.044950,-0.079705,-0.074780,0.021456,-0.013246,-0.082123,0.039436,-0.023564,0.061959,-0.015985,0.032607,-0.087004,-0.056241,0.008456,-0.055011,-0.055260,0.050982,-0.103039,-0.043752,0.014763,-0.052620,0.026654,0.038579,-0.122958,0.082303,0.056220,0.049160,-0.078672,-0.009084,0.024695,0.017952,-0.010918,-0.078845,-0.051495,0.055438,-0.049922,-0.028248,-0.024596,-0.032784,-0.065113,-0.029043,-0.049693,-0.000783,-0.099351,0.031049,-0.019242,-0.004772,0.056990,-0.055999,0.025466,0.043625,0.180781,-0.020763,0.029880,-0.107211,0.017911,0.037005,-0.058618,-0.024491,-0.001661,0.016318,0.050888,-0.013222,-0.014252,-0.103894,0.036953,0.054261,-0.001836,0.026970,-0.036371,-0.045776,0.054620,-0.063210,0.069792,-0.059815,0.072116,-0.031655,0.011219,-0.091821,0.059231,-0.016665,0.036726,0.096917,-0.061733,0.015130,0.080335,-0.108794,0.148706,-0.016145,0.025890,-0.084455,-0.079818,-0.103718,0.078366,-0.005323,0.060910,0.003824,0.063493,-0.064222,-0.086314,-0.005163,0.043619,-0.014441,0.037241,0.057565,-0.052770,-0.035124,-0.073970,0.090727,-0.035650,-0.013093,-0.029010,0.057005,-0.031113,0.014219,-0.005938,0.096700,0.057920,0.066797,0.004061,0.000243,0.007914,0.012869,0.003384,-0.019137,0.059693,0.079254,0.011751,0.094157,-0.018349,-0.018183,-0.087687,-0.036397,-0.046238,0.085244,-0.078474,-0.026381,0.091773,-0.008369,0.047370,0.008010,-0.043680,-0.032461,-0.009069,0.073757,-0.076252,0.011812,0.053457,0.035681,0.069150,-0.051664,0.013381,0.012658,0.006753,0.015943,-0.031848,0.045408,0.009692,0.051992,0.021943,0.028615,-0.058367,0.003538,-0.022103,0.062604,0.010834,-0.032032,-0.048734,-0.027147,-0.045263,0.042439,-0.026906,-0.030787,0.038144,0.053531,-0.047287,-0.066572,0.080841,-0.050164,0.036766,-0.021892,-0.020458,0.055639,-0.123411,0.025631,0.038497,0.011140,-0.007126,-0.041528,0.047045,-0.047241,-0.113754,-0.042291,-0.014801,0.012325,-0.004700,0.053038,0.121965,0.082524,-0.064700,0.037751,0.013806,-0.037833,-0.005121,-0.051806,0.074261,0.127986,0.065502,0.031305,0.032770,0.005342,-0.035262,-0.029380,0.019763,0.012648,-0.091332,0.026530,0.020909,-0.134252,0.129323,-0.006534,-0.081317,-0.017306,-0.027755,-0.052201,0.126601,0.020126,0.081855,-0.048038,-0.001286,-0.042268,-0.081077,0.070017,-0.009241,0.006590,-0.020951,0.006901,0.033578,-0.000507,-0.026757,-0.176703,-0.026773,0.011255,0.026826,0.047142,0.058091,-0.022438,-0.064968,-0.043152,-0.087319,0.016165,0.038303,-0.039532,-0.019139,0.026636,0.029282,-0.056028,-0.007821,0.018894,-0.021551,-0.068270,0.001558,0.061788,-0.080718,0.022810,0.024365,-0.024672,-0.041852,0.063536,0.063266,-0.011816,0.087044,0.048069,0.007346,0.075825,-0.021481,0.024516,-0.091067,-0.024828,-0.011359,0.026991,-0.033917,0.001393,-0.014590,0.022704,-0.007220,-0.033550,-0.060182,0.010693,0.010990,-0.053142,-0.031294,-0.020691,0.010005,0.068890,0.000455,-0.014590,-0.042993,0.115581,0.086796,0.054020,0.045241,0.082943,-0.023903,0.094434,0.122026,0.004489,-0.079113,-0.007401,0.012747,-0.050876,-0.015773,0.142757,-0.043408,0.073673,0.095472,-0.040485,-0.009912,-0.075896,-0.027446,0.020288,0.028038,-0.021726,-0.110206,0.092590,-0.036701,0.156064,-0.090246,-0.123152,-0.029017,-0.044481,-0.042420,0.095425,-0.013095,-0.038338,-0.075142,0.010656,0.175090,-0.026551,-0.129037,0.068087,-0.032581,0.116244,0.046523,0.032399,-0.096596,-0.048707,0.031277,0.061227,0.013175,0.005158,-0.058192,0.019492,0.081759,-0.068664
0.008391,0.039385,0.002302,-0.080752,-0.018211,-0.027241,-0.009347,-0.045353,0.017289,-0.040700,0.110343,-0.088754,0.104758,0.006665,-0.080804,-0.037241,-0.050785,0.007599,-0.035924,-0.000964,-0.098219,-0.079367,0.040555,0.027741,0.058659,0.024556,0.090784,-0.001152,-0.093874,-0.163477,0.114604,0.040915,-0.073249,-0.031177,0.012188,0.013168,0.071040,-0.029512,0.051140,0.060495,0.067208,0.004112,0.039309,0.031367,-0.009398,-0.005404,0.030778,0.013191,-0.038961,-0.054144,-0.062433,-0.041934,0.039665,-0.086893,-0.009314,-0.032712,0.029909,-0.058374,0.007233,0.001614,0.030356,0.018533,0.024963,-0.037739,0.069982,0.018781,-0.103313,0.062934,-0.042751,-0.182577,0.056063,0.002693,-0.024100,-0.064060,-0.013519,0.009731,-0.057548,-0.036873,-0.076041,-0.069191,0.046109,-0.069052,0.079629,-0.098649,-0.041020,0.070859,-0.063822,-0.029117,0.049129,-0.010967,0.037484,-0.014094,-0.074597,0.107295,-0.034397,0.042991,0.038171,0.054325,-0.032602,0.017251,-0.025046,-0.053257,-0.039342,0.003194,-0.033771,-0.052555,0.046242,0.033509,-0.043626,0.043706,-0.003829,-0.046371,0.056394,-0.026614,-0.013881,0.067683,0.081345,0.024582,-0.020987,0.013404,0.062085,-0.052558,-0.007540,0.014717,0.038601,-0.025971,0.089226,0.005660,0.045197,-0.019764,0.010861,-0.036199,0.026624,-0.063574,-0.051510,-0.024229,0.120767,-0.068796,-0.017546,-0.116640,0.056246,-0.083194,-0.033328,0.041038,0.061219,-0.123204,-0.007674,0.041767,0.057810,0.008460,0.092140,-0.004862,0.033209,0.053353,0.007712,-0.029090,0.003834,0.001342,-0.021756,0.059601,-0.144051,0.072584,0.071240,-0.046078,0.043330,0.031457,0.017747,-0.036217,-0.001266,-0.053753,0.018778,0.096674,-0.013877,-0.029248,0.020736,-0.075330,-0.027368,-0.056383,0.010715,0.037955,-0.060205,0.069072,-0.003369,-0.062844,-0.003949,-0.018128,-0.027635,-0.021002,0.047433,-0.058940,0.089984,0.095525,0.050823,-0.043050,0.032915,-0.032043,-0.010733,-0.005223,0.004927,-0.054114,0.000228,0.039147,-0.003750,-0.027106,0.021906,-0.016445,-0.024928,0.030866,-0.067131,-0.030914,-0.074891,0.026230,0.050925,-0.080193,0.070194,-0.070543,0.005143,-0.016811,0.012643,-0.011485,0.012083,-0.018804,0.045817,0.013529,-0.040001,0.046632,0.025094,-0.042620,-0.014153,-0.022787,-0.098725,0.071250,-0.027876,0.005531,0.025661,-0.049714,0.069571,-0.027165,-0.123041,-0.000155,0.028256,-0.015373,0.079075,-0.086190,-0.024904,0.119561,-0.001746,0.044881,0.092097,0.015847,-0.036078,0.018480,-0.047546,-0.025891,-0.000893,0.014099,0.061088,0.003810,-0.010256,0.065445,-0.055229,0.032102,-0.053619,-0.100004,0.030925,-0.023891,-0.061673,0.023205,-0.068727,-0.036265,-0.001062,-0.005554,0.058171,0.019057,-0.008744,0.006310,-0.026471,-0.019981,-0.015685,0.000678,0.009400,0.059014,-0.152622,-0.036799,0.076536,-0.033693,0.037280,-0.069530,0.039188,-0.103517,0.013311,0.030083,-0.019429,0.031261,0.021078,0.018592,0.020248,0.096506,-0.019413,-0.114066,-0.042248,0.029793,-0.004538,-0.055512,0.046252,-0.016611,-0.078914,-0.022204,0.116900,0.046780,0.091526,0.044054,0.037998,-0.005738,-0.133130,-0.024601,0.027668,0.114825,0.013226,0.060281,0.012913,0.025703,0.009518,-0.014562,-0.028108,-0.011059,0.031357,-0.039460,0.066387,-0.022621,0.038570,0.019592,-0.023190,-0.095567,0.030544,-0.132661,-0.008442,0.037044,0.006612,0.049694,0.044936,-0.023616,-0.011335,0.128206,-0.038222,-0.005960,0.107337,0.015044,0.025598,0.022783,0.040820,-0.038597,-0.054183,-0.018489,0.030206,-0.054725,-0.017623,0.003792,-0.057314,-0.016241,-0.026335,0.118863,0.027093,-0.009838,-0.006949,0.041083,-0.093294,0.075684,-0.134103,-0.048208,0.047082,0.049420,0.012512,0.124605,0.002487,0.046736,-0.028064,-0.050776,-0.022941,-0.091979,0.030745,0.063668,0.073861,-0.029665
-0.004455,-0.099246,-0.054659,0.010259,0.036993,0.059035,0.196621,-0.051867,0.054707,0.025967,0.004379,0.000737,0.023268,-0.035503,-0.059616,0.079892,0.083686,0.000014,-0.005871,-0.034898,-0.015388,-0.043753,0.008996,0.021247,-0.003012,0.045207,-0.044179,-0.060988,0.054797,-0.028123,-0.024376,-0.032370,-0.054330,0.105429,0.023826,0.023101,0.064475,-0.094737,-0.041491,0.076716,0.071282,-0.078303,0.025545,-0.043082,0.053846,-0.087485,-0.022198,-0.062538,0.045385,-0.074162,0.017974,0.064232,0.060414,0.116607,-0.005800,-0.077667,0.040095,0.029482,-0.041221,0.032579,-0.110794,-0.072836,0.097716,-0.033274,-0.075241,-0.000964,-0.000325,0.012467,0.040818,0.058376,0.046083,-0.041806,-0.046008,-0.081875,-0.021215,-0.047299,-0.070170,-0.003035,-0.083342,0.027146,-0.023340,0.017089,-0.009832,0.094997,0.057878,-0.017217,-0.000068,0.010377,-0.033454,0.028076,-0.050452,0.008518,0.061322,-0.157266,-0.017220,-0.008474,0.005070,-0.095051,0.004137,0.039070,-0.050739,-0.005368,-0.000290,0.021254,0.004826,0.050876,-0.019812,0.031699,-0.068033,0.085782,-0.099155,0.039848,-0.033448,0.046359,-0.022721,-0.005821,0.019374,-0.025207,0.031346,0.051327,0.104283,0.024798,-0.029833,-0.040205,-0.046211,0.015114,0.004283,0.006731,-0.068065,-0.048794,-0.026062,-0.025372,0.001694,0.002905,-0.036924,-0.010321,-0.014294,-0.082201,0.010889,-0.000524,0.069727,0.013444,-0.103589,-0.084509,-0.019856,0.030254,0.050870,-0.034708,-0.008408,-0.003648,-0.034065,0.038816,-0.106045,0.034112,0.004953,0.009953,-0.010373,-0.016981,0.011127,-0.045240,0.021748,0.081681,0.077637,-0.008935,-0.001440,-0.088769,-0.074628,-0.006824,0.008324,0.051534,-0.062555,-0.054872,-0.010053,0.032508,-0.028465,-0.011583,-0.058219,0.042181,0.001879,0.016342,-0.052040,0.021563,0.019624,0.004993,-0.035985,-0.078636,0.055205,0.048749,-0.022560,0.077623,0.067315,-0.022201,-0.027279,-0.045541,0.061152,-0.027580,-0.002199,-0.034228,-0.057291,-0.009233,-0.071123,0.087475,-0.003836,0.061402,0.057586,0.000638,0.101445,0.008319,0.005768,0.021920,0.056453,0.111234,0.025365,0.001439,0.084331,0.098570,-0.058252,-0.038710,-0.039391,-0.026329,-0.087935,-0.042299,-0.050147,0.033983,0.053931,-0.093427,-0.010950,0.187721,-0.029007,0.000438,-0.057150,-0.044383,0.052878,-0.093154,0.095097,-0.011952,0.015321,-0.009073,0.050086,0.027447,0.031756,-0.033082,0.023863,-0.055210,-0.026876,-0.018562,0.071533,0.008549,0.043461,0.053457,0.073872,0.050305,0.063207,0.014797,-0.044721,0.092995,-0.055307,0.106634,0.001902,0.080630,0.049961,0.071580,0.079504,-0.052747,0.112227,-0.009471,0.002963,0.014771,-0.021833,-0.006198,-0.002047,-0.017849,-0.129455,0.041643,-0.003931,-0.025339,-0.106049,-0.039367,-0.064431,-0.042532,-0.066271,-0.036060,-0.028907,0.103804,0.098613,-0.078907,0.009560,0.006857,-0.020927,0.017723,0.046351,-0.056140,0.012064,0.059871,0.034795,-0.008054,0.046201,0.023423,0.067645,-0.046290,-0.019590,0.059330,0.109935,0.038050,0.005960,0.028491,-0.059426,-0.013306,0.061035,-0.088806,0.071197,0.035146,-0.058720,0.035223,-0.013710,0.111740,-0.053216,-0.011041,0.053266,-0.015498,-0.034129,0.033101,-0.017847,-0.023545,0.058922,-0.105117,-0.040121,-0.005927,0.030341,0.025670,-0.038738,0.024912,-0.108355,-0.003114,-0.019180,-0.019734,0.012202,-0.061259,-0.034159,-0.008415,0.006141,-0.092536,0.095164,0.084324,-0.099083,-0.034512,-0.033478,-0.019187,0.020969,0.065566,-0.000207,0.025646,0.027813,-0.024926,-0.040652,0.114043,-0.051500,0.044379,-0.003540,0.011990,-0.004361,0.019531,0.026627,0.017074,0.087958,0.046468,0.020093,-0.017281,0.002769,-0.000192,-0.059247,0.105958,-0.033073,0.020815,0.037133,-0.094999,0.006622,-0.024427,-0.039219,0.092604,-0.093949,0.027955,0.001513,0.074698
-0.018435,0.086554,0.043297,0.006712,0.084476,-0.019601,-0.038194,-0.110589,-0.003931,-0.022068,-0.091203,-0.068723,0.082344,-0.008166,-0.036023,-0.057030,-0.118536,-0.058486,0.096301,0.019178,0.008168,0.003935,0.022693,-0.028241,0.017063,-0.029337,-0.014369,-0.075493,-0.073484,0.030562,-0.093201,0.040115,-0.146904,0.101948,-0.044184,0.010897,0.064528,0.099192,-0.024344,-0.019994,0.042888,0.026078,-0.054001,0.044102,0.003026,0.066952,0.116552,0.077630,-0.040949,0.007931,0.029439,-0.025455,0.009192,0.025044,-0.003041,-0.035711,-0.061659,0.030001,0.061110,-0.072280,-0.048205,-0.052290,-0.082743,-0.081070,0.009262,0.019231,-0.001125,-0.039995,0.021032,0.087933,-0.005375,0.014918,-0.058710,-0.014114,-0.015377,-0.048532,-0.051059,0.129975,0.033429,0.040741,-0.032865,-0.041620,0.044669,0.053799,0.020339,-0.019785,-0.028903,-0.021869,0.018320,0.058191,-0.000617,-0.000984,-0.000071,0.010581,-0.005795,0.054406,-0.032986,-0.109788,0.072590,-0.077713,0.013154,-0.041401,-0.108000,0.003332,-0.025401,-0.025428,-0.015706,0.026317,-0.078360,0.003113,0.009865,-0.047984,-0.007524,0.047513,-0.025448,0.030380,-0.020923,-0.066117,-0.077615,0.011201,-0.027436,-0.037577,0.072262,-0.033076,-0.042426,-0.110463,-0.041614,-0.037380,0.049673,0.004443,-0.045357,0.067710,0.047726,0.038592,-0.076125,0.074527,0.026789,-0.009592,0.001927,0.013472,-0.069577,0.018221,-0.004966,-0.059389,0.037666,-0.103079,-0.077284,0.106598,-0.015448,-0.000508,0.109121,-0.062697,-0.089829,-0.014966,-0.020514,0.007432,0.001515,-0.003397,-0.021368,-0.072545,0.014124,0.053961,0.012864,-0.030325,-0.028853,-0.073399,0.070058,-0.067072,-0.014090,-0.071140,0.057784,0.001977,-0.004269,-0.029643,-0.048329,0.022062,0.002265,-0.025448,0.014679,0.062306,0.048086,0.057956,0.006815,-0.013354,-0.040207,-0.045086,-0.027768,0.030356,0.056612,-0.106205,-0.047554,-0.003927,-0.014819,-0.025267,0.016978,-0.007179,-0.099500,0.002975,0.061011,-0.000965,-0.005658,-0.040297,-0.029263,-0.004086,0.035981,-0.093448,-0.012374,0.015124,-0.037804,0.015244,0.035707,0.047720,-0.048796,0.029381,0.105816,0.015459,0.091587,-0.045496,-0.000499,-0.032606,-0.087662,0.005553,0.013334,-0.002354,-0.067495,0.084576,-0.010904,0.078700,-0.028884,-0.135397,0.029669,-0.054373,-0.027790,0.010831,-0.048304,-0.099126,0.029304,0.014229,-0.053398,0.024304,0.039235,-0.051304,-0.077087,-0.027170,-0.012603,0.080508,0.007624,0.027404,-0.121793,-0.010255,0.048442,0.071622,0.061974,-0.051273,0.023922,0.059376,0.001266,-0.049797,-0.058231,0.042239,-0.053245,-0.054165,0.013593,-0.106647,0.006569,-0.007235,-0.020984,-0.077127,0.064881,-0.052708,0.105223,-0.027541,0.071107,0.044527,0.055169,0.023629,0.038083,-0.111104,0.112281,-0.101137,0.071714,0.053746,-0.017527,0.000890,0.045346,0.024345,0.014645,-0.057204,-0.019034,0.017143,-0.091222,0.108907,-0.055988,-0.092741,-0.017702,0.003411,0.164555,-0.008823,-0.071983,-0.055933,-0.113830,0.020210,-0.031998,0.011975,0.022288,-0.056500,-0.004994,-0.088504,0.068861,-0.040246,0.086678,-0.022139,0.036951,0.011338,-0.065755,-0.027030,-0.001292,0.047485,-0.029603,0.025402,-0.020640,0.074981,-0.008377,-0.010231,-0.009418,-0.056923,-0.021538,-0.109137,-0.026823,-0.017880,0.085351,-0.078126,-0.040760,0.049007,0.078480,0.036697,0.045302,0.084502,-0.030354,0.061153,-0.058508,-0.046457,-0.021099,0.095545,-0.087513,0.057565,0.128349,-0.056793,0.084451,-0.077673,0.031192,-0.036900,-0.007024,-0.011103,-0.043061,0.050193,0.009879,0.020231,-0.027587,-0.049031,-0.001577,-0.017117,0.038405,-0.034200,0.032784,0.142430,0.036397,-0.010863,-0.048308,0.034373,-0.058737,-0.027570,-0.076398,0.104419,0.094493,0.119973,-0.063268,0.009616,0.090009,0.022845,-0.041893,-0.005148,-0.021074,-0.057591
0.013770,-0.004111,0.013941,-0.088131,-0.070338,-0.059325,0.041995,0.094289,-0.033129,-0.014776,0.000671,0.056396,-0.006441,-0.012907,-0.022458,0.044554,0.001817,-0.086633,-0.071111,0.034902,0.019951,-0.020622,0.018469,0.107289,-0.002267,-0.080017,0.092030,0.097330,-0.040757,-0.008878,0.110608,-0.026900,0.020342,-0.017934,0.048852,0.040381,-0.002749,-0.004938,0.063937,0.012911,-0.053604,-0.010547,0.008482,0.036631,0.029472,0.053643,-0.105626,-0.004595,0.063985,0.081651,-0.047326,0.051783,0.002152,-0.026611,-0.005846,-0.059569,0.026793,0.048277,-0.057020,-0.024317,-0.013873,0.034981,0.069540,0.052727,0.060344,0.020679,-0.127217,0.008627,0.030302,0.090324,0.061762,0.055040,0.039976,-0.033153,0.075952,-0.026594,0.038903,-0.018098,-0.023406,0.019102,-0.030544,0.032527,0.041525,0.032096,0.045183,0.025730,-0.001054,0.005618,-0.045475,0.067510,0.064963,0.000439,-0.105674,0.098440,0.016456,-0.050842,-0.021803,-0.004142,0.010881,-0.005221,-0.037707,-0.012543,0.102782,0.042166,0.025783,0.059085,0.036562,-0.044623,0.069694,-0.012435,0.033753,0.003343,-0.038629,0.028010,0.023673,-0.095214,0.027589,0.007348,0.081103,0.071468,0.006198,-0.043912,-0.017861,0.058071,-0.050642,0.095418,0.062581,0.083656,-0.004594,-0.002628,0.029125,-0.017328,-0.008327,-0.025144,-0.128413,-0.089002,0.059525,-0.071906,-0.015372,-0.026649,0.053221,-0.103961,0.024520,-0.004805,-0.012212,0.028627,-0.023529,0.019387,-0.003078,-0.002537,0.044399,-0.003036,-0.056208,-0.008947,0.050860,0.016931,0.027219,-0.082765,-0.010093,-0.003081,-0.076006,0.030526,0.071395,0.078530,-0.034289,-0.018274,0.026291,0.026283,-0.055657,0.118073,-0.054783,-0.013765,-0.021138,-0.019310,0.086114,-0.003245,0.036626,-0.005438,0.007990,-0.038707,0.016821,0.106407,-0.026204,-0.040869,-0.057751,-0.018875,0.040213,0.011697,0.089159,0.052365,-0.013754,-0.163827,0.057253,0.055717,-0.012377,-0.007636,0.071842,0.077780,-0.017213,0.064435,-0.048163,-0.023053,-0.083523,-0.078187,-0.005676,0.068952,0.022640,-0.039509,0.082756,0.089367,0.094312,0.054884,0.027189,0.030395,0.039543,-0.036156,-0.053941,-0.007019,-0.015075,-0.040172,0.010166,0.002314,0.034415,-0.007234,0.108848,-0.030583,0.131252,-0.009525,0.015254,0.069658,0.012079,0.011442,0.104585,0.057784,0.076704,-0.004225,-0.050867,0.004282,0.018637,0.031450,-0.060859,0.020731,0.061977,-0.007662,0.082429,0.117921,0.063785,0.072191,0.028067,0.047401,0.015096,-0.062927,-0.009907,0.034015,0.018454,0.014261,-0.028097,-0.028103,0.010102,0.020183,0.021861,-0.059257,0.021270,0.049507,0.025911,0.101302,-0.023960,-0.023626,-0.132136,0.144288,0.048526,0.042267,-0.030612,-0.080914,-0.002685,0.019255,-0.054058,0.029270,-0.048663,0.007917,-0.017242,-0.118951,0.005085,0.008157,0.061901,0.006071,0.034904,0.051426,0.038597,0.025330,0.061571,-0.096417,0.001679,-0.025391,0.025929,0.072071,0.051508,-0.135802,0.062641,0.003308,-0.069542,-0.002185,-0.019618,0.064342,0.097343,0.025467,-0.025657,0.005948,0.083715,0.065472,-0.052673,-0.026996,-0.039773,-0.051261,0.044191,-0.031174,0.100614,0.034070,-0.035034,-0.114860,0.062523,-0.074938,0.049486,-0.015581,0.035473,0.000046,0.135834,0.014051,0.120982,-0.034467,-0.054381,0.147739,-0.069034,0.030675,0.011084,-0.083480,-0.041038,0.065600,0.106666,0.107364,-0.008984,0.034773,0.005194,-0.029605,0.151308,0.014066,0.072076,0.117457,0.005035,0.038660,-0.118597,-0.066788,0.010072,0.011468,0.080272,-0.045026,0.009930,0.020386,0.103027,-0.013752,0.083217,0.078964,0.033593,0.008285,0.113613,-0.109147,-0.024887,0.069607,0.039369,-0.001739,-0.030888,0.161879,0.038394,-0.055845,-0.061252,0.052905,-0.068829,-0.082319,-0.009800,-0.037391,-0.016391,-0.010994,-0.035489,-0.053091
-0.011450,0.021203,-0.012434,-0.032781,-0.009872,-0.037281,-0.036021,-0.075123,-0.023834,-0.048393,-0.044254,-0.000519,-0.046932,0.003634,-0.014029,-0.029070,0.026738,0.093382,0.004126,0.018006,-0.015825,0.031106,0.046166,-0.007998,-0.064161,-0.006917,0.029393,0.019550,-0.020035,0.000072,-0.203952,-0.003686,-0.069954,-0.038057,0.034952,0.046205,-0.019059,0.037127,-0.063552,0.002193,-0.055305,-0.014627,0.025230,0.012641,-0.020493,0.003324,-0.026158,-0.000205,-0.110281,0.036574,-0.009765,-0.054305,0.092366,0.209378,0.014454,0.148408,0.023076,-0.016830,0.065520,0.048657,-0.020503,0.096318,-0.028272,0.070542,0.011203,-0.033558,-0.011451,-0.066596,0.001622,-0.078511,0.081857,-0.074754,0.056322,-0.015699,0.038293,-0.057868,-0.008396,-0.038529,-0.054694,-0.020054,-0.025211,-0.050649,-0.035884,-0.002436,-0.064662,-0.072380,-0.020901,0.028833,-0.024317,-0.078677,-0.072306,0.062400,0.056122,-0.091369,-0.078080,-0.002166,-0.051590,0.018852,-0.028020,-0.100447,-0.040433,0.106771,-0.003224,0.064346,0.070138,-0.034327,-0.015898,0.036017,-0.036420,-0.010764,0.086959,-0.019054,-0.007614,-0.012507,0.034464,0.043624,0.015047,0.013258,-0.101355,0.015228,-0.003017,-0.067474,0.014737,-0.019959,-0.049927,-0.057510,0.034803,-0.047881,0.021452,-0.010789,-0.035646,-0.036774,0.058765,0.028389,-0.025814,0.014744,-0.016587,0.116361,-0.028047,-0.007107,-0.025097,-0.069927,-0.058363,0.107419,0.015485,0.063059,0.025456,0.029970,0.017352,-0.000915,0.012608,-0.013524,-0.053934,-0.145988,-0.055934,0.018803,-0.025420,0.014454,0.048388,0.024687,0.043850,0.004266,-0.017757,-0.006027,0.018541,0.015573,-0.002060,0.074502,-0.005252,0.016584,0.101056,-0.066326,-0.053898,0.011898,-0.048465,-0.028424,-0.048240,-0.015047,-0.017214,0.035242,-0.090994,-0.053581,-0.005998,-0.084091,-0.040286,0.084511,0.032609,0.071628,0.019296,0.003303,-0.075221,0.028412,0.064426,-0.065494,-0.048474,0.118130,0.028333,0.020869,0.047374,0.032644,0.028213,0.004928,-0.073283,-0.121703,-0.008249,-0.064961,0.095922,0.025449,0.019999,0.030188,0.030068,0.013697,-0.082346,-0.058735,-0.012075,-0.060306,-0.016146,-0.045221,-0.045112,-0.008609,0.048482,-0.007549,-0.006291,0.045297,-0.040371,0.103524,-0.017059,-0.138992,-0.014498,-0.011502,0.063718,-0.049082,0.108581,-0.015027,-0.061079,-0.043999,-0.042354,0.018311,-0.128093,-0.087853,-0.068785,-0.058468,-0.026270,0.002806,-0.009927,-0.068450,-0.013715,0.047222,-0.015218,-0.023472,0.032572,0.005329,0.068186,0.110885,0.026488,0.025814,-0.033945,-0.023171,-0.004453,-0.052942,-0.049998,0.019225,-0.053447,0.055329,0.014516,0.006495,0.074464,0.054673,-0.004284,-0.006935,0.005496,0.019408,-0.068143,-0.086022,-0.141467,0.050496,-0.053048,0.062396,0.054082,-0.046821,0.000059,0.069039,-0.056488,0.026589,-0.017785,0.050815,-0.120606,-0.006064,-0.017917,0.025893,0.005120,0.044328,0.017883,-0.037698,0.079293,0.063671,-0.053514,-0.052900,-0.057443,0.059311,0.015867,0.044666,-0.038303,0.054022,0.031328,0.006111,0.062135,0.015398,0.002738,-0.082384,0.022404,-0.012412,-0.056784,-0.048226,-0.036457,0.015813,-0.062019,-0.011878,0.032610,0.089800,-0.008669,-0.025947,0.032297,-0.008835,0.002351,0.038910,0.006552,0.041452,0.044978,0.015559,-0.033375,0.024519,0.075199,0.034638,-0.093437,-0.020176,0.049763,0.038712,-0.021811,-0.092805,-0.044097,-0.006800,0.023424,-0.010973,0.028299,0.026375,0.081802,0.072069,0.041654,-0.030785,-0.036334,-0.036804,0.008698,-0.021269,0.043105,-0.062007,0.027771,0.012149,0.002748,0.028618,-0.020329,-0.041575,-0.006861,-0.032074,0.071297,-0.087060,0.284618,-0.054450,0.051439,-0.039621,-0.071598,0.142714,0.065940,-0.063970,-0.025307,0.032813,0.085135,-0.059858,-0.077305,0.024741,-0.018538,0.024285,-0.068115,-0.026982
-0.004845,0.016446,0.016077,-0.037537,-0.054560,0.042995,-0.004086,-0.038303,-0.032916,-0.008623,0.095118,0.061943,-0.007296,0.018571,-0.082650,0.008446,-0.054367,0.005312,-0.024178,-0.015249,-0.004124,-0.020778,0.023817,-0.019431,-0.057313,0.070195,0.002250,0.033819,0.029520,-0.125154,-0.006269,0.077871,-0.116306,0.101029,0.217285,0.096062,0.055948,0.064138,0.036292,-0.029884,0.103767,-0.025439,-0.086577,0.068860,-0.014029,0.042253,0.056226,-0.057820,-0.002440,-0.091343,-0.003682,0.013736,-0.032436,-0.076941,-0.045677,0.005475,-0.022191,-0.021484,0.032287,-0.041536,-0.001714,0.035421,0.010896,-0.011951,0.053597,-0.050752,-0.006156,0.071044,-0.059169,-0.076202,0.004172,0.006035,0.064740,-0.025163,0.047066,0.019011,0.043600,0.039911,0.026441,0.010419,-0.059565,0.039498,-0.119314,0.001964,0.027415,0.056378,0.060140,-0.063513,-0.042766,-0.000075,0.035515,-0.031440,-0.053637,-0.034024,-0.076025,-0.053714,-0.037555,0.015541,-0.021909,-0.016182,-0.043399,0.054270,0.074045,0.002585,-0.080324,-0.028799,0.044984,0.015347,0.041343,-0.037283,-0.053071,0.009724,0.053269,-0.044820,-0.058583,-0.039113,0.017261,0.042427,-0.035160,0.031609,0.007452,-0.018058,-0.053025,-0.039001,0.025836,0.011829,-0.009047,-0.055513,-0.034284,-0.009941,-0.053076,-0.044291,0.079787,-0.003395,-0.051616,-0.017619,0.044833,-0.082196,0.064072,0.010416,-0.025414,0.000763,-0.020020,0.034100,0.082879,0.012270,-0.051052,0.095953,0.018866,0.003656,0.031109,-0.036732,-0.004335,0.059370,0.012828,-0.015328,-0.017872,-0.072870,-0.053243,0.005429,0.057822,-0.017988,-0.016264,0.082836,0.055213,0.043107,0.076150,-0.039902,0.017670,-0.023148,0.011811,-0.023331,-0.006421,-0.040904,0.002760,0.042686,0.003013,0.026398,-0.001489,0.019388,0.024704,-0.009281,-0.014286,0.019299,-0.059178,-0.066045,-0.035583,-0.081458,-0.007237,0.016625,0.035196,0.019560,-0.023108,0.045836,0.010729,-0.018626,-0.003385,0.049966,-0.063237,-0.057685,-0.046640,0.000753,-0.024120,0.018181,-0.049187,-0.063003,-0.082655,0.046377,-0.005789,-0.002340,0.047914,0.114407,0.024159,0.024850,-0.057983,-0.047572,0.092413,0.000180,0.083718,-0.041399,-0.042494,-0.025804,0.023702,0.019522,-0.003010,0.111264,-0.042025,0.068893,0.014933,-0.017601,-0.000573,-0.013501,-0.048662,0.032516,0.075424,0.046806,0.022753,-0.087941,-0.001426,0.038295,0.138820,0.040027,0.021373,0.034609,0.069354,-0.021378,0.011775,-0.038956,-0.020500,-0.053848,0.024127,0.069295,0.031186,-0.011758,-0.023416,-0.043386,-0.043969,0.061650,0.021022,0.053786,0.081799,-0.018643,-0.095298,-0.028818,-0.013481,-0.008670,-0.061494,-0.030453,0.022891,0.018034,0.009795,-0.016888,0.049851,-0.062633,0.003544,0.012461,-0.025618,0.083042,0.043534,0.054726,-0.035990,0.013182,-0.026097,0.037872,0.021533,-0.022582,0.016526,0.062206,0.005201,-0.019495,0.040103,-0.060632,0.015106,0.018054,0.014955,-0.103871,0.059788,-0.034968,0.000937,0.096657,0.063456,-0.015559,-0.064336,0.009401,0.005216,0.006600,-0.041683,0.003336,-0.092827,-0.009580,0.043354,0.036584,0.000367,-0.058010,-0.034206,-0.062524,0.023698,-0.046159,-0.014163,0.043365,0.007103,-0.004817,-0.023769,-0.006739,-0.010716,0.021485,0.071725,0.027185,-0.027715,-0.026005,0.092644,-0.039369,0.109534,0.089145,0.071547,0.048065,-0.055921,-0.021138,0.069045,0.031701,-0.053294,0.026445,-0.087791,-0.097154,0.042630,0.069970,-0.001679,-0.031551,-0.026493,-0.060992,-0.034827,-0.065765,-0.032095,-0.032937,0.005139,-0.103342,-0.000690,-0.001226,-0.027823,-0.020577,-0.032289,-0.004541,0.095855,0.030551,0.006424,-0.035425,-0.061558,0.026352,0.108007,-0.075168,0.150952,0.123505,-0.021528,-0.042243,-0.059552,-0.030936,-0.001682,0.043733,-0.016181,0.017019,-0.054326,0.019353,-0.008712,-0.016848
0.012829,0.027215,0.034867,-0.003489,-0.001344,-0.028249,0.014343,-0.000972,0.056321,-0.001318,-0.062858,-0.022101,0.002871,-0.038118,0.050300,-0.001049,0.029674,-0.076388,-0.034735,-0.021172,-0.019407,-0.015770,0.082349,-0.049033,0.000672,-0.035231,-0.020110,0.038353,0.008780,-0.018393,0.029844,-0.033083,0.069438,-0.006745,0.077604,-0.010914,0.017132,0.003190,0.068504,0.010101,-0.035375,0.059765,-0.031783,-0.007894,0.003923,0.046330,-0.024053,-0.094773,0.006847,0.134032,0.044328,-0.017427,0.019929,-0.023125,0.021191,-0.034553,0.021207,0.007213,0.011013,-0.025218,0.005954,0.003409,-0.052183,0.055972,0.038213,0.044577,-0.018803,-0.059815,0.083051,0.077990,-0.081314,0.062215,-0.021321,0.020981,-0.030910,0.007702,0.049037,-0.017135,-0.030715,0.061253,0.028164,0.082473,0.001279,0.053288,-0.026410,-0.000881,0.032443,0.113622,-0.052784,-0.013826,0.016556,0.010548,-0.045569,-0.036758,0.004387,-0.023485,0.085564,0.038140,0.040087,0.016829,-0.007210,-0.013614,0.042720,-0.033940,0.025353,0.141660,-0.144167,-0.053997,-0.017291,0.016925,-0.002410,-0.009162,0.009932,0.015425,-0.007932,-0.049453,0.067622,0.062091,0.008531,-0.014330,-0.045222,0.077088,-0.013990,0.069290,-0.090054,0.049813,0.031453,0.021436,0.034114,0.011958,0.036256,-0.039304,-0.035781,-0.032511,-0.044952,-0.056104,0.010401,-0.074251,-0.015453,-0.034207,-0.086103,0.004089,0.111226,0.023045,-0.023130,0.140635,0.011611,-0.050231,0.044931,0.004479,-0.027170,0.116507,0.050881,-0.041583,-0.063761,0.004560,0.010445,-0.017058,-0.021199,0.055377,0.014449,0.029225,-0.018056,0.025295,-0.102847,0.092533,-0.035982,0.002624,-0.007906,0.009252,0.059258,-0.043170,0.000495,0.018060,0.004157,0.018282,0.021836,-0.077469,-0.085309,0.019033,0.059310,-0.016882,0.011398,0.063168,-0.013667,0.000740,-0.019685,0.000379,-0.016548,0.099338,-0.018287,0.011257,-0.000741,0.041726,-0.038146,-0.038413,0.058536,0.002297,0.037501,0.055689,-0.025354,0.078136,0.005802,-0.060074,0.014365,0.022569,0.057187,-0.068627,-0.060563,-0.065424,0.013999,-0.102209,0.015741,0.050830,-0.002461,-0.080373,-0.043379,0.023542,-0.045739,0.065539,-0.000897,0.084105,0.022959,-0.011068,0.038224,0.029973,0.104090,0.120447,0.043235,0.031866,0.039352,0.007657,-0.013072,0.058291,0.005970,0.066016,0.036222,0.041469,0.006919,0.006628,0.003828,0.019137,-0.024831,0.058156,-0.032321,0.063040,-0.028576,0.008145,0.159270,-0.000925,-0.110353,0.002824,0.095157,0.003573,-0.052087,0.093042,0.074110,0.004749,0.089554,-0.134846,0.036932,-0.000812,-0.053763,0.024908,0.006084,-0.108465,-0.026449,-0.040320,-0.064541,0.005525,-0.055914,-0.001349,0.010928,-0.049844,0.028751,0.041481,-0.052833,-0.042736,0.028379,-0.008062,0.061680,0.003980,0.038416,-0.007491,-0.024436,0.052517,-0.131095,0.024905,-0.099993,-0.042173,-0.136163,-0.070194,0.040685,0.041992,-0.005071,0.073788,0.063559,0.068026,0.051922,-0.019844,-0.142049,0.018455,0.000129,-0.028403,0.098669,0.024565,0.118534,-0.019722,-0.059565,-0.033955,-0.005795,0.016944,-0.004478,-0.032945,0.063054,0.097813,0.009585,-0.026338,-0.019461,-0.043311,-0.073406,0.094444,0.033251,-0.090202,0.004865,0.068313,0.016956,-0.010560,0.086400,-0.012887,-0.021366,0.058106,0.070986,0.036861,-0.007770,-0.044630,-0.024313,0.028476,-0.076774,0.091690,0.043253,0.037988,0.007452,0.004236,-0.069439,-0.035476,0.082184,0.205690,-0.080486,-0.001010,0.068396,-0.007110,0.062670,-0.008608,-0.031851,0.053095,-0.066301,-0.031797,-0.020004,-0.001504,0.076189,-0.020960,-0.049929,0.031462,0.013069,0.037324,-0.126108,0.005853,0.056282,-0.028720,-0.013971,-0.097092,-0.052790,-0.043904,0.057867,-0.008298,0.031469,-0.030082,-0.001995,0.002897,0.095749,-0.035518,-0.017748,-0.033368
-0.003603,0.112624,-0.028338,0.026525,0.057464,-0.000344,0.035087,0.036647,-0.045201,-0.052099,0.022548,-0.060422,-0.031907,-0.016614,-0.062471,-0.030247,0.022000,0.040006,-0.036750,-0.017827,-0.104299,-0.015006,-0.050731,0.000208,-0.095961,0.024110,0.057430,0.083139,-0.065350,0.123713,-0.035563,-0.050089,0.015842,-0.062517,0.018550,0.072853,0.108697,0.002407,-0.015594,-0.027268,0.013584,-0.030727,0.082922,0.013468,0.061351,0.025329,-0.155233,-0.053063,0.041074,0.046336,0.050754,-0.061188,-0.056974,0.006899,-0.037077,0.014539,0.030853,0.093300,0.012703,0.004100,-0.024157,0.075103,-0.008798,0.002484,-0.042632,-0.026302,-0.053006,0.003613,-0.004607,-0.016350,-0.023369,0.035336,0.050716,-0.042600,0.022015,0.002135,0.059628,-0.012728,-0.058812,-0.061824,-0.063467,0.014657,0.001619,0.025749,0.015791,-0.046759,-0.084038,-0.004566,-0.038479,-0.048663,0.031405,0.072983,0.025209,-0.016297,0.052490,0.056363,0.044334,0.000448,-0.123294,-0.014676,0.007151,0.070184,0.015057,0.052281,0.072392,0.062559,-0.008686,-0.067804,-0.045296,-0.027760,-0.043743,0.035322,-0.071190,0.081956,-0.029197,0.035883,-0.083628,0.035274,0.043564,0.020187,0.055906,-0.054606,-0.025970,0.061154,-0.003112,-0.049074,0.089205,0.075943,0.090950,0.029843,0.040751,0.090475,0.047842,0.073020,-0.071773,-0.026506,0.046288,0.065052,-0.021623,0.010016,-0.016485,-0.045116,0.027213,0.002680,0.026771,0.045707,0.076677,0.049352,-0.003717,0.000433,0.007744,0.129593,0.026334,0.148701,0.023247,0.055578,-0.009550,0.088798,0.030594,-0.000997,0.071558,0.020053,0.033403,0.003057,-0.057369,-0.012509,0.014381,0.040913,-0.005128,-0.022283,-0.057457,-0.007152,-0.072822,-0.005478,0.022925,0.055818,0.024804,0.029647,0.041438,-0.053497,0.007957,0.078660,-0.007519,-0.027034,-0.032515,0.043826,-0.052891,0.068275,0.021734,-0.015265,0.052601,0.047162,0.007247,0.044279,0.048446,-0.107649,0.009209,-0.059540,0.051327,0.074635,0.043280,0.005583,-0.108211,0.055227,0.079094,-0.046165,0.065732,-0.071007,-0.012348,-0.014742,-0.067378,0.065030,-0.018010,0.063359,-0.053378,-0.016104,-0.015781,0.051736,-0.017774,-0.069783,-0.023485,-0.084125,-0.029898,0.049477,-0.066522,0.002093,0.023247,0.094124,-0.001887,0.083273,0.101715,0.045583,-0.050822,-0.057985,-0.009131,-0.056280,-0.073734,0.028641,-0.009193,-0.065631,-0.039114,0.054878,-0.040183,-0.032821,-0.086357,0.017177,-0.067861,0.025376,-0.059901,-0.080506,-0.012841,-0.037457,0.046334,0.029407,0.058871,-0.026463,0.053985,0.012704,-0.089909,0.106202,0.017539,-0.040438,0.008367,-0.092112,0.011838,0.017155,0.044382,0.212132,0.066798,-0.014297,0.155337,0.031685,-0.008605,-0.019836,0.016220,-0.026363,-0.080765,-0.041943,-0.106848,0.015151,0.013480,-0.038548,-0.035603,0.015915,0.031777,-0.017261,-0.009286,-0.057068,0.091353,-0.027144,0.045509,0.089984,-0.068281,0.008467,0.003976,0.084811,0.036350,-0.013996,-0.002749,-0.058312,-0.023783,-0.018310,-0.010088,0.009864,-0.023361,0.083010,-0.076365,-0.076508,-0.019024,-0.056164,-0.000392,-0.005871,0.011024,0.023324,-0.024118,-0.084628,-0.036308,0.134216,0.045720,0.012410,-0.072010,0.027475,0.036264,0.026000,0.041419,-0.038211,0.026986,-0.076369,0.131369,-0.008435,0.001077,0.068027,0.132366,0.005818,0.032108,0.055551,0.023935,0.014649,-0.031191,0.034844,0.017108,0.086323,-0.018752,0.001206,0.085083,0.052546,0.010460,-0.039050,0.064903,-0.038261,0.058212,0.043273,-0.010813,0.036958,0.061287,-0.062316,0.032541,0.026445,0.030609,0.007941,-0.007682,0.072113,0.049993,0.081950,-0.053611,-0.062009,0.066839,-0.010190,0.117145,0.065201,-0.092881,-0.175751,-0.024924,-0.120947,-0.028257,-0.015497,0.051844,0.001593,-0.012118,-0.055303,-0.011600,0.039335,-0.110511,0.018843
