-0.031774,-0.072148,-0.006466,-0.016031,0.030194,-0.068049,-0.047903,0.021103,0.020357,0.052128,-0.027690,-0.103269,-0.018202,0.019960,-0.025086,-0.097014,0.073582,0.023975,-0.056594,0.047801,-0.035594,-0.020414,-0.025898,0.124530,0.054748,-0.048912,-0.021267,0.006663,0.026669,-0.020315,-0.072481,-0.027386,-0.013083,0.013735,-0.093240,0.070228,-0.085394,-0.075446,0.044481,0.001133,-0.015690,-0.042535,0.003547,-0.050821,0.042250,-0.002434,-0.006846,-0.025307,-0.013432,-0.075963,0.028941,-0.056616,0.092844,-0.040054,0.105982,-0.040328,-0.008032,-0.042622,0.042255,0.058958,-0.075703,0.114430,0.069158,-0.038405,-0.010679,-0.008685,-0.001281,-0.053674,0.124647,0.074754,-0.048311,-0.005124,0.010431,-0.039557,0.040306,0.001103,0.063834,0.035690,-0.028535,0.010275,-0.034475,-0.125329,-0.006320,0.003515,-0.105176,-0.002436,-0.050169,-0.003108,-0.032258,-0.041136,-0.035163,0.039907,-0.044498,-0.026726,-0.071379,-0.066593
-0.089999,0.014700,0.055664,0.055652,0.016422,0.037202,-0.029178,-0.004820,-0.138470,-0.017433,0.141742,-0.041664,0.045147,0.018308,0.041620,-0.034618,-0.102913,-0.034651,-0.004561,0.208942,-0.013107,-0.032097,0.048277,-0.013968,0.124146,0.083380,0.024031,0.016101,-0.174527,-0.153783,-0.055798,-0.102981,-0.049662,0.191590,0.037000,0.091757,0.132439,-0.018981,0.051655,0.087275,-0.002743,0.001562,-0.001291,0.062498,0.000573,0.049264,-0.210160,0.063864,0.064275,0.026608,-0.111693,-0.020358,-0.123627,0.034760,-0.015789,-0.036349,-0.064132,0.032486,0.149335,0.001091,-0.002461,0.043665,0.126500,0.007498,-0.021585,-0.026938,-0.096948,0.017129,0.008842,0.022332,0.024329,-0.073994,0.088392,-0.023682,0.016363,0.015392,-0.070144,0.101405,-0.022717,0.006821,0.095975,0.059546,-0.014457,-0.088288,-0.073940,-0.045021,-0.087262,0.007990,0.096176,0.053445,-0.098226,-0.067095,-0.040014,0.032970,-0.004028,-0.062522
-0.054910,-0.026714,-0.025497,-0.018058,0.103143,0.010543,-0.017017,-0.019082,0.053718,0.027403,-0.000588,0.066113,0.030007,0.005091,0.003489,-0.003429,-0.035363,-0.000934,0.014099,-0.050852,0.035758,0.072389,0.020629,-0.010558,0.033937,-0.004701,0.026968,-0.025487,-0.016580,0.020167,0.098238,-0.075879,0.089203,0.025484,0.036940,0.038237,0.040836,-0.060947,-0.006172,-0.022227,0.016689,-0.019306,0.053209,0.068552,0.069159,0.015242,-0.077731,0.158146,0.065144,0.001825,-0.005026,0.031535,-0.025783,0.005340,-0.054667,0.082237,0.013743,-0.014813,0.063370,0.026228,-0.016545,0.006481,0.045556,-0.000041,-0.032321,-0.042474,0.071386,0.051975,-0.101947,-0.000993,-0.027251,-0.012819,0.009953,-0.118978,-0.070617,0.013795,0.002120,0.037427,0.066003,-0.083765,0.009675,0.065861,-0.057067,-0.058756,0.047245,-0.035729,-0.005164,-0.028665,0.007947,0.015336,0.015492,0.006804,0.046479,0.029798,0.025929,-0.015435
-0.056408,-0.033062,0.053088,0.075428,0.082523,-0.044534,0.064812,-0.019242,-0.095017,0.026021,-0.027434,0.036526,0.068648,0.044823,-0.106616,-0.027993,0.011652,-0.035577,0.023929,0.043965,-0.010230,0.059679,-0.142779,-0.046284,0.013011,0.022037,0.026343,-0.077289,0.037815,-0.042043,0.057563,-0.016672,-0.021386,0.040994,0.029131,0.018699,-0.010477,-0.005997,-0.075678,-0.002224,-0.043558,-0.021444,0.068171,-0.074449,-0.042327,-0.018528,0.049590,0.027144,0.028450,0.013285,0.067252,0.081227,-0.003886,-0.041474,-0.030519,0.029272,0.025841,-0.051464,-0.015084,-0.001843,-0.047288,0.034941,-0.052943,0.008009,0.010801,-0.009341,-0.068398,-0.026525,0.013745,0.025060,0.026115,0.072644,-0.083411,0.011954,-0.004539,-0.035700,-0.001363,0.000503,0.030979,0.008029,0.014162,0.008270,-0.049347,0.017864,-0.008079,-0.040074,0.034187,-0.074488,0.057177,0.021394,0.035374,0.047344,-0.029949,-0.050186,-0.011122,-0.078180
0.001910,0.003199,-0.024966,0.008279,0.008407,0.033749,0.093943,-0.030216,0.144805,-0.070141,0.113022,-0.035071,-0.015228,0.031708,-0.023568,0.047677,0.090035,-0.003775,0.005224,0.076778,0.025800,0.094936,0.140771,-0.024385,-0.047562,0.086994,0.030465,0.004614,0.046223,-0.073220,-0.066302,-0.073803,-0.084064,0.044660,0.076137,-0.015148,0.103540,-0.013670,-0.034267,-0.055677,0.012450,-0.019682,0.018478,-0.033024,0.036225,-0.005741,-0.074662,0.044860,0.022393,-0.066608,-0.103093,0.063889,0.049934,-0.057965,0.016006,-0.013194,0.048393,-0.045523,0.027235,0.039525,-0.019053,0.033203,0.051438,-0.039242,-0.015463,-0.092521,0.035557,-0.032826,-0.025254,-0.006702,-0.010134,-0.015288,0.007486,0.005478,-0.010203,0.010619,-0.090907,0.043110,-0.028510,0.045176,-0.002252,0.005957,0.087030,-0.009977,0.019536,0.106975,0.019419,0.004479,-0.047205,0.008772,0.045795,-0.113498,0.038338,-0.012810,0.015262,0.015817
-0.015115,0.012059,-0.013215,0.040045,-0.004882,-0.061047,-0.003129,-0.024230,-0.028897,-0.034374,0.007297,0.039493,-0.101427,-0.049877,0.021776,-0.018178,0.010425,0.054140,0.055758,0.049778,-0.123377,0.021356,-0.016420,0.058325,-0.014149,0.057045,-0.041384,-0.002813,0.031732,0.036291,0.074419,0.092820,0.101230,-0.001458,-0.036291,-0.037570,-0.042008,0.071376,0.000176,0.008599,-0.015958,-0.109290,0.027604,-0.028532,-0.000861,-0.050675,-0.042763,0.049248,-0.079733,-0.004213,-0.038383,0.048356,0.019880,0.046413,0.005394,-0.015258,0.081994,-0.137564,-0.010206,0.042102,0.037279,-0.005146,-0.061540,0.034139,-0.032934,0.083269,-0.013622,0.006070,0.145478,0.016060,-0.008080,0.001647,-0.043929,-0.038598,-0.027598,0.022469,-0.033506,-0.059736,0.038052,-0.028121,0.002021,-0.063290,0.052901,-0.093459,0.061013,-0.002812,-0.000171,-0.040009,-0.017134,-0.027740,0.046657,-0.009683,0.000055,-0.005319,-0.087880,0.006481
0.028355,0.041380,0.044030,0.093318,-0.021970,-0.067176,0.021047,-0.032228,0.007204,0.022421,-0.010083,0.053184,-0.033823,-0.084279,0.013370,0.050847,-0.046179,0.054701,0.081921,0.015197,0.005200,0.055754,-0.072853,0.049337,0.070938,0.052353,0.056005,0.039019,-0.006321,0.060321,-0.002300,-0.038891,0.045120,-0.063983,0.009603,0.010551,0.048561,-0.029036,-0.102922,-0.063413,-0.005523,0.043072,-0.080091,0.087817,0.104227,0.023089,-0.076206,-0.010992,-0.108001,-0.031050,0.025216,-0.007861,0.009502,0.071424,0.048136,-0.017029,0.017225,-0.009273,-0.000285,-0.013000,-0.040984,0.000521,-0.019463,0.053311,-0.022946,-0.079828,0.024387,0.009066,0.066946,0.000081,-0.059553,-0.084611,-0.109952,-0.011312,0.054388,-0.041405,-0.027169,-0.013076,-0.054247,-0.006471,0.002654,-0.056626,-0.007154,0.107548,-0.025858,-0.081616,0.012237,0.047852,0.021453,-0.035165,-0.030758,-0.025739,0.054539,-0.008946,-0.008284,-0.078542
-0.034647,0.041403,0.012909,-0.058192,-0.116597,0.005652,0.009424,-0.076782,0.020079,-0.027461,-0.084067,0.006786,-0.038787,0.008684,-0.006541,0.019525,-0.092058,0.031795,-0.025861,0.064028,0.030165,-0.028796,-0.058775,-0.054792,0.098284,0.091164,0.080263,-0.110324,-0.012989,-0.007169,-0.032497,-0.053257,-0.020205,0.095579,0.048670,-0.106879,-0.025174,0.093244,-0.119773,0.034822,0.085099,-0.037519,-0.026904,-0.020034,0.011513,0.061476,-0.003765,0.015303,0.015236,-0.031792,-0.047537,-0.022631,0.009517,-0.033384,0.029761,-0.065812,0.013648,0.039406,-0.079217,-0.017172,0.003928,0.092423,0.042395,0.003304,0.000260,0.002743,-0.058315,0.007200,0.097933,-0.038331,-0.064262,-0.056120,-0.029053,0.118307,-0.055483,0.000533,0.055396,-0.024945,0.030603,0.052447,-0.041090,-0.050409,0.081632,0.033314,-0.063530,0.038044,-0.002824,0.090149,-0.085741,-0.007169,-0.046350,-0.002917,-0.036058,-0.074871,-0.016443,0.118439
0.002437,0.072199,0.071591,-0.028741,-0.094160,-0.028466,0.031352,0.066593,-0.048705,0.007554,-0.062430,-0.055602,-0.002477,-0.003798,-0.037345,0.010224,-0.182114,0.042002,-0.024673,-0.004850,0.003427,-0.047992,-0.108530,0.012188,0.008416,-0.010002,0.106892,0.001704,-0.028562,-0.105521,0.017072,0.011355,-0.095647,0.042102,0.082957,0.026856,0.025827,0.105252,-0.118279,0.026248,0.059389,-0.008542,-0.026138,-0.006144,0.008886,0.071868,0.096219,-0.012943,-0.021640,0.037956,-0.077780,-0.014528,0.008053,-0.004335,-0.083272,-0.048270,-0.020972,0.004795,-0.082592,-0.090341,0.044447,0.016003,0.066858,-0.018013,-0.038309,-0.025852,-0.091490,-0.007797,-0.000091,-0.025713,-0.034713,-0.007099,-0.003173,0.080154,-0.034865,0.000350,0.018027,0.068953,-0.002787,0.097089,-0.005997,-0.071197,0.039908,-0.024542,-0.102175,0.022657,0.015158,0.018679,-0.143580,-0.040987,0.001851,-0.005705,0.013582,-0.150052,0.014831,0.145622
-0.077503,-0.094840,0.045640,0.007772,0.076911,0.009715,-0.058459,-0.046710,0.003527,-0.091043,0.057436,0.020965,0.014538,0.038116,0.012742,-0.023316,-0.037286,0.015261,-0.025035,-0.014977,0.099766,-0.069811,-0.012277,0.034543,-0.031214,0.009004,-0.108499,-0.065714,-0.072310,0.074638,0.155139,-0.047923,-0.018165,0.089971,0.054190,-0.030684,-0.061748,-0.115986,-0.049524,-0.044620,-0.022877,-0.144006,-0.034427,0.043089,0.013819,0.046980,0.021878,0.003889,-0.045193,-0.015109,-0.020719,-0.050144,0.025666,-0.018708,0.036217,-0.065624,0.021549,-0.073632,0.079425,0.007906,0.000462,-0.060933,0.083300,-0.037047,-0.016460,-0.073037,-0.006023,0.028304,-0.026908,0.059916,0.107196,0.029442,0.053315,0.005665,-0.065129,0.011543,0.002370,0.018195,-0.011664,0.029151,0.058530,0.018573,-0.109140,-0.029040,0.035395,-0.087425,0.114690,0.040304,-0.013565,-0.037537,-0.007454,-0.026052,-0.052037,0.028778,0.001145,0.151325
-0.047484,0.007904,-0.007428,0.035347,-0.039853,-0.075470,0.001394,0.027088,-0.023001,-0.002797,-0.049944,-0.029914,-0.104031,-0.030840,0.041384,0.128146,-0.044781,-0.082582,0.108527,0.001638,-0.042530,0.056486,-0.001901,-0.062894,0.048774,-0.049041,0.005990,-0.005212,-0.002434,0.053681,0.045099,0.057878,0.025575,-0.021266,-0.095402,-0.004680,0.026359,0.006817,-0.085108,-0.029158,0.047417,0.041601,-0.077372,-0.045870,-0.051860,-0.032485,0.008402,-0.091234,0.065875,0.039529,-0.020141,-0.010942,-0.085724,-0.071062,0.016803,0.054428,-0.023066,-0.029986,0.105848,0.089978,0.038884,-0.019619,0.023237,-0.023110,0.018794,-0.032748,-0.092912,0.016116,-0.070502,0.096326,0.073319,-0.079503,0.008540,-0.027192,-0.060960,-0.044444,-0.056339,0.037640,0.012125,-0.067715,0.021746,0.057016,0.039975,-0.040979,0.052928,0.020913,0.117665,-0.047394,0.084153,-0.041604,0.022643,-0.023030,-0.043412,-0.070617,0.035955,0.011144
0.062205,0.054622,-0.008841,0.039803,0.020671,0.008386,0.027266,0.033716,0.034741,0.031884,0.019799,-0.017737,0.012360,0.016916,-0.020913,-0.043966,-0.036868,-0.020321,-0.048718,0.056388,0.106559,0.024362,-0.035782,-0.053922,-0.031850,-0.003285,0.015803,0.039110,-0.029386,0.047325,-0.044552,0.005233,-0.025912,-0.038674,0.048761,0.018090,0.021813,-0.055751,0.006320,0.040397,-0.016038,0.040273,0.030434,0.024142,-0.001961,0.033732,-0.025462,-0.028414,0.006933,0.069623,0.061479,0.022558,0.004483,-0.001581,-0.011809,-0.022388,0.027039,0.028890,0.009738,-0.032306,-0.023095,0.034075,-0.071799,-0.029996,-0.021140,-0.076670,0.077955,0.005729,0.069256,-0.014027,-0.029104,-0.011777,0.034798,-0.098959,0.041434,0.006473,0.014130,0.045415,0.066835,-0.011516,0.097077,-0.002331,0.096115,0.063121,-0.052965,0.031012,0.026961,-0.104007,0.008702,0.051988,-0.013356,-0.016477,0.045623,0.034843,-0.016465,0.000731
-0.065511,0.042974,-0.138790,0.116710,0.070242,-0.090668,-0.029788,0.153838,0.021894,0.017679,-0.017254,0.024526,-0.017410,-0.012306,-0.080534,0.059212,-0.016629,-0.160595,0.031789,-0.004053,-0.006494,0.005856,-0.023991,0.020965,-0.040289,0.081503,0.064873,-0.036857,0.194627,-0.153536,0.067598,0.006005,0.091153,-0.005244,0.011392,-0.104055,0.082200,0.041279,-0.008895,0.099123,-0.002004,-0.148002,-0.008920,0.043610,0.021559,-0.087951,-0.174102,0.081539,0.030292,0.142780,0.168502,0.012970,-0.012101,0.009319,-0.009368,-0.011594,0.002136,-0.074370,0.082645,0.032124,0.006357,-0.051947,0.068903,0.166050,0.177779,0.078799,0.059166,-0.082711,0.047103,0.020508,-0.043531,0.063374,-0.021760,0.149182,-0.010888,-0.071365,-0.017965,0.013598,-0.062408,-0.059460,-0.030824,-0.005164,0.053777,-0.026451,0.010034,0.135504,-0.001187,-0.122595,0.172591,0.004201,-0.020535,0.046651,-0.037050,0.008630,-0.004751,-0.016130
-0.035137,-0.023391,0.068560,-0.002981,0.106544,0.030178,-0.076569,0.042302,-0.032157,0.030281,-0.006826,0.079297,0.013055,0.010652,0.055994,0.001882,0.023861,-0.012504,0.004893,-0.005602,0.112106,-0.061104,-0.016908,0.011643,-0.141722,0.048760,-0.078638,0.006949,0.042739,-0.059548,0.117680,0.053697,0.043605,0.047386,0.000275,-0.086952,-0.000478,-0.018163,-0.003785,-0.101508,-0.061413,-0.140726,0.017492,0.125164,-0.066642,-0.062243,-0.019375,-0.051329,0.035648,0.053543,-0.021613,-0.123416,-0.036059,0.009539,0.069226,0.014119,0.017798,-0.085418,-0.069997,0.066104,0.016342,0.026349,0.004773,0.041512,0.039859,-0.005251,-0.144541,0.000339,-0.055347,-0.022685,0.040479,-0.102871,0.011638,0.068193,-0.060157,0.091150,0.096220,-0.091341,-0.105796,-0.018239,0.107918,-0.029022,-0.041273,0.090072,0.048343,0.120838,-0.005953,0.043827,0.045954,0.037990,-0.032875,0.029442,-0.024852,0.021544,0.170368,0.131497
-0.067205,0.013702,0.079335,0.106435,0.023984,-0.024531,-0.080477,-0.081976,0.017104,-0.057029,0.038871,0.040728,0.027671,0.116070,-0.002104,-0.058304,0.052496,0.017235,0.057096,0.058644,-0.016228,-0.015280,-0.011292,0.029696,-0.033086,-0.006196,0.031633,-0.078276,-0.036278,-0.056757,-0.023947,0.042668,0.000359,-0.046746,-0.006350,-0.066902,-0.005085,0.041990,-0.021212,-0.013910,-0.027305,-0.011434,-0.058053,-0.019227,0.063985,-0.032793,-0.002948,0.003310,-0.048307,0.049490,-0.015440,-0.041675,0.064334,0.032178,0.031592,-0.000063,-0.045343,-0.033941,-0.011681,0.035496,-0.025286,-0.149453,-0.068653,0.019063,-0.083407,-0.074503,-0.020551,-0.012970,-0.021089,0.003373,0.050390,0.060874,-0.013002,-0.006781,0.019822,0.002062,-0.013539,0.031143,0.070723,-0.028472,0.038756,-0.042792,0.115668,-0.040780,0.075425,-0.018539,-0.017903,0.012812,-0.044190,0.016215,-0.009777,-0.062054,0.034844,-0.030936,-0.080764,0.012971
-0.016488,-0.033828,-0.010504,-0.000643,0.040356,-0.005772,-0.047475,0.039901,0.003372,0.020494,-0.037274,0.053700,-0.028757,0.071052,0.030763,-0.051595,-0.040372,-0.024735,0.022513,-0.007598,-0.047569,0.017480,0.047316,-0.009913,-0.029729,-0.006539,-0.013314,0.042821,-0.030265,0.013138,-0.053856,-0.108292,0.095666,-0.006185,0.009109,0.027240,0.026205,-0.005376,0.042490,0.044699,-0.072606,0.002384,0.051726,0.047073,0.057544,-0.059964,0.001802,0.017305,-0.043889,-0.114118,0.092303,0.038389,0.001788,0.070304,0.020907,0.005028,0.017239,-0.001424,0.033218,0.067157,0.076156,-0.033780,0.006233,0.000680,0.040093,-0.011337,0.015554,0.014988,0.038687,0.084084,-0.006358,-0.001412,0.032130,-0.047016,0.008102,-0.058841,-0.026236,0.055046,0.023458,0.037607,-0.040784,0.031791,0.029362,-0.060472,0.040668,-0.062486,0.035032,-0.032428,-0.013419,-0.002981,0.002998,0.024540,0.040627,0.006395,-0.009873,-0.059177
0.009331,-0.009389,-0.004450,-0.081749,-0.026222,0.051306,-0.010150,-0.008649,0.040720,0.010747,0.075779,-0.030794,0.002485,0.036209,-0.005954,-0.005145,-0.036546,-0.006481,-0.038126,0.032707,-0.002034,0.065100,0.090455,0.006202,-0.000163,-0.022227,0.004565,0.073105,-0.100590,-0.000697,-0.025590,0.083081,-0.013788,0.010910,-0.084971,0.051599,0.038226,-0.046471,0.105622,0.029869,0.009590,-0.013470,0.036034,-0.027192,0.006197,0.120851,0.030783,-0.023101,0.084865,-0.058509,0.021120,-0.099872,-0.025166,-0.022746,-0.004719,-0.104680,0.056967,0.064961,-0.061726,0.026665,0.023922,-0.002013,-0.039870,-0.022504,-0.032320,0.042445,-0.064689,-0.028452,0.025971,0.021830,0.022914,-0.012194,0.017031,-0.051200,-0.075039,0.058776,0.010495,0.065350,0.019835,-0.005515,0.034059,0.029501,0.013964,-0.007082,0.014117,0.023391,0.012913,0.035126,-0.030102,-0.004032,-0.005293,-0.100659,-0.015508,0.026277,-0.009319,0.007616
-0.048222,0.078531,0.003431,0.072164,-0.049752,-0.013020,-0.051045,0.000566,0.049454,-0.002875,-0.059899,0.051759,-0.117742,-0.085390,0.025087,-0.018127,-0.095998,-0.075294,0.004423,-0.022248,-0.055608,-0.071538,0.014813,-0.023542,-0.005956,0.015713,0.102495,0.022021,0.014342,-0.092769,0.029395,0.017531,0.048648,-0.011248,-0.006039,-0.038284,0.103807,-0.060723,0.051088,-0.005353,0.055805,-0.003244,-0.083336,-0.035284,0.021910,-0.024117,-0.028046,0.007307,0.025972,-0.009885,0.064741,-0.018766,-0.057057,-0.008797,-0.009264,0.034334,-0.032255,0.001327,-0.030187,-0.021400,0.090793,-0.012350,0.021629,-0.010715,0.005531,0.076033,0.115831,-0.036952,-0.026349,-0.032756,-0.020044,0.125015,0.035660,0.019620,0.049511,-0.019380,-0.000184,0.002288,0.014996,-0.016249,-0.105224,0.030537,0.037658,-0.040135,0.104431,0.015400,-0.032005,-0.037368,0.051874,-0.037429,0.015467,-0.044518,0.052593,-0.052281,-0.026001,0.021250
-0.013363,0.001118,-0.066491,0.016903,0.030914,-0.014082,-0.042383,0.048720,-0.043603,-0.067594,-0.045219,-0.048794,0.037373,0.034896,-0.056294,-0.037926,0.040272,0.018621,0.005692,0.013111,-0.056247,0.029279,-0.029088,-0.021752,0.045493,-0.035815,0.048225,0.004356,-0.016678,0.014483,0.060577,0.016874,0.013511,-0.069979,-0.042760,-0.035894,0.039465,0.005338,-0.010449,-0.022019,-0.003330,0.080597,0.010518,-0.055370,0.001518,-0.021814,-0.058300,-0.063223,0.000297,-0.004483,-0.003658,0.057275,-0.008018,-0.069641,0.046723,-0.062411,-0.027592,-0.010697,0.038312,-0.156584,0.053849,-0.005925,-0.060617,-0.030155,-0.042983,-0.048834,-0.001382,-0.046432,0.031465,0.004993,0.075231,0.021625,-0.142966,-0.017326,-0.001873,0.011363,-0.013364,0.046909,-0.013140,0.026175,0.020676,-0.020815,0.009837,-0.049551,0.027138,-0.004253,-0.001435,0.062621,-0.025218,-0.032296,0.013096,0.034999,-0.035992,0.026198,0.019279,-0.039338
0.003882,0.093303,0.059056,0.016079,-0.048641,-0.060214,-0.028268,-0.042199,-0.086354,-0.036406,0.024500,-0.037359,0.057562,-0.009131,-0.037403,-0.074326,-0.042604,0.004880,-0.054487,0.101737,0.051324,-0.177123,-0.026296,-0.031424,0.020601,0.084376,0.045847,0.072350,0.040772,0.007641,0.000842,0.017233,-0.052194,-0.058796,0.044294,-0.014616,-0.079173,0.045322,-0.039024,0.126622,-0.008758,-0.039381,0.041501,-0.044634,0.014619,0.047092,0.000683,-0.046906,-0.097260,-0.038860,0.000600,0.065774,0.025757,0.032922,0.075158,0.066936,0.024715,0.083413,-0.055588,-0.059940,0.018645,0.027667,-0.011975,-0.009397,0.049777,-0.025161,0.013791,-0.023678,0.169769,0.016589,-0.008698,-0.023942,0.009617,0.045884,-0.022008,-0.004084,0.002320,0.000244,-0.049299,0.059352,-0.046163,-0.012102,0.102180,0.016515,-0.014618,-0.035106,-0.005742,0.000892,-0.051164,-0.020862,-0.013713,-0.057342,-0.078255,0.037869,0.000812,0.036462
0.036456,0.035304,-0.045171,0.013314,0.010776,0.006080,0.041394,0.051070,0.130173,0.002129,-0.012656,-0.078845,-0.062346,0.054550,0.009775,0.020389,-0.024806,0.005992,-0.008773,0.032238,-0.049966,-0.023189,-0.092091,0.047997,-0.000780,0.051035,0.032072,-0.037012,0.026573,0.003897,-0.059063,-0.075592,0.002093,0.043985,-0.060241,0.124847,0.031275,-0.006796,0.027290,-0.045290,0.008319,0.067129,0.036264,0.003445,0.063167,0.028385,0.060299,-0.046730,-0.004579,0.009445,0.014328,-0.090800,0.058279,0.021047,0.018325,-0.001694,0.084036,-0.004707,-0.033633,0.022176,-0.009431,-0.054900,0.069545,-0.077558,-0.142529,0.026589,0.009344,0.002601,-0.066725,-0.062343,0.023828,-0.009843,0.096347,0.039178,-0.012759,-0.032999,-0.022008,-0.023991,0.027289,0.002411,0.007552,-0.013243,0.052020,-0.056918,-0.120847,0.013229,0.029538,0.054473,-0.031264,-0.056542,0.032605,0.036612,-0.036606,0.095547,-0.000936,-0.007839
0.078666,0.022734,-0.069145,0.006336,-0.016217,-0.025059,0.043269,-0.030642,0.005309,-0.000386,0.021272,-0.068643,0.033610,-0.078600,0.015066,0.005224,0.037611,-0.046283,0.090938,0.103316,-0.015021,0.042314,-0.098243,0.070949,0.026566,0.014419,-0.066576,-0.042983,-0.016592,0.045415,0.009247,-0.001756,0.028187,-0.079124,0.026834,-0.083087,0.044460,-0.029203,0.071514,0.000053,0.040165,-0.154120,0.093041,0.050168,-0.107974,-0.075093,0.015773,-0.042124,-0.097715,-0.019191,-0.105152,0.023085,-0.028148,-0.049475,-0.009834,0.020348,0.014474,0.106708,0.029730,-0.024327,0.049053,0.052011,0.004993,-0.019512,0.204432,0.080551,-0.007834,0.056587,-0.115208,-0.079421,-0.016289,0.008127,0.020256,0.012699,0.002127,0.003800,-0.045704,0.086379,0.043770,0.089501,-0.015937,0.033458,-0.055008,-0.069106,0.021188,0.000829,-0.006171,-0.016956,-0.068350,-0.039482,-0.015645,0.025176,0.028242,-0.003423,0.032609,0.054437
-0.011657,0.017213,0.022144,-0.000978,0.048352,0.059963,-0.030741,0.070696,0.014192,0.042819,-0.013802,-0.112278,0.047218,-0.021158,0.008199,0.000994,0.039135,-0.107326,-0.015968,0.062376,0.112547,0.030602,-0.028342,0.007172,-0.021802,0.042332,-0.055873,0.040040,0.035821,-0.012953,0.031344,0.130538,-0.032956,-0.041841,0.031449,-0.090270,-0.015297,0.003684,-0.018726,0.061349,0.039093,-0.047296,-0.011648,0.023844,0.019595,-0.014413,0.025023,0.091385,0.041554,0.036598,0.072020,-0.053699,-0.030068,-0.038824,0.046621,-0.036938,-0.004248,0.037815,0.031486,0.045172,-0.020467,0.040785,0.005353,-0.067845,-0.036632,-0.019038,-0.072284,-0.017337,-0.083263,0.089111,-0.000402,-0.072917,0.027027,-0.105586,0.035656,0.022356,0.035751,-0.007636,-0.042592,-0.068102,0.130885,0.035358,-0.042782,-0.038600,0.028598,0.005496,-0.059876,-0.083470,0.023793,-0.070982,-0.034311,0.004617,0.028384,-0.003948,-0.075358,0.028499
-0.010873,0.073894,0.037202,-0.032264,-0.044554,-0.004593,0.095347,0.055247,-0.060547,-0.039011,0.018485,0.063767,-0.044860,0.059717,0.012139,-0.006587,-0.066012,-0.001346,0.003803,-0.029212,-0.059877,-0.021790,-0.026110,-0.015580,0.029157,-0.045752,0.032391,0.027578,0.014492,-0.003074,-0.007504,-0.059552,-0.018210,-0.005371,0.087909,-0.018487,0.025618,0.031761,-0.001619,0.067831,-0.021703,0.042196,0.026429,0.011944,0.058065,0.052303,0.056947,0.027100,-0.117873,-0.018339,-0.064808,0.008596,-0.008455,-0.096056,0.009533,-0.006453,0.016849,-0.013930,-0.088151,-0.049797,-0.010822,-0.034165,-0.030389,-0.065882,0.000563,-0.025644,0.016052,-0.014016,0.028615,-0.093986,-0.033132,0.060433,-0.018953,-0.011285,-0.024787,-0.030373,-0.013034,-0.001990,0.044770,0.066538,-0.051681,0.011991,0.027157,-0.058322,-0.004502,-0.012595,-0.103176,0.016230,-0.035968,0.015304,-0.076890,0.000190,0.019627,-0.085567,0.002198,0.013474
0.037693,0.011045,-0.118761,-0.116008,0.080356,0.035447,0.020151,-0.019473,0.047554,0.023207,0.052769,-0.011937,0.056860,-0.143913,-0.004744,0.017214,-0.037550,-0.031420,-0.019065,0.025891,-0.077695,-0.034456,0.069235,0.003583,-0.023286,0.034405,0.019110,0.021265,-0.068220,0.042596,0.032571,0.022343,0.072118,-0.087782,-0.056312,-0.010643,0.050349,-0.035843,-0.053765,0.069387,-0.010469,0.063342,0.025500,-0.017468,0.038258,0.053646,-0.092270,0.007804,-0.098370,0.032131,-0.094244,-0.009817,0.017324,0.050369,0.017510,-0.031740,0.041419,-0.054303,0.032382,-0.076603,-0.046833,0.047924,-0.030759,0.108272,0.025393,-0.012206,0.020997,0.106536,0.053219,-0.026951,-0.122927,-0.131459,0.131040,0.126441,-0.053667,-0.026850,-0.095845,-0.038472,0.104887,-0.042030,0.084492,0.075303,-0.017416,0.080260,0.052495,0.042235,0.022568,-0.029911,0.086073,0.048312,-0.024956,-0.033747,-0.040851,-0.097405,0.063448,-0.049495
-0.022325,-0.012972,0.022613,-0.054886,-0.000227,0.062235,-0.029740,-0.051412,-0.040101,0.020250,-0.032129,-0.105400,-0.025916,0.000607,-0.033185,0.048941,0.097191,0.065098,-0.029078,0.027060,0.007859,-0.004099,0.073143,0.031015,0.096481,0.023756,0.002852,0.033340,-0.038116,0.032053,-0.039131,-0.028297,-0.054997,-0.053541,0.086443,-0.017796,0.041340,-0.031048,0.060466,0.038525,-0.108457,0.025874,-0.062445,-0.032940,-0.060203,-0.032724,0.034143,0.103386,-0.014668,0.110846,0.102128,-0.064012,-0.020073,-0.050970,-0.023074,-0.015421,0.073145,-0.067333,0.046111,-0.004677,0.006046,-0.063176,-0.025431,-0.052760,-0.045314,0.008185,-0.035422,-0.074672,-0.029458,-0.053383,-0.055926,0.078820,0.105250,-0.052408,0.003861,0.121155,-0.060006,0.027692,0.053133,-0.032268,0.010776,0.010878,-0.089062,0.038457,0.046827,0.005212,-0.162146,0.014733,-0.028725,0.001388,0.011917,-0.068902,-0.125052,-0.128363,0.050263,0.004017
-0.037885,-0.044477,-0.017450,0.069496,0.027444,0.011314,0.032269,-0.044855,0.029238,-0.028753,-0.003093,-0.012578,-0.098647,-0.109342,-0.034299,0.022766,-0.046555,-0.005399,-0.021566,-0.049350,-0.033025,-0.001275,-0.097155,0.021655,0.046051,0.033861,0.081748,-0.044296,0.014250,-0.107791,-0.035739,-0.022247,0.049979,-0.019145,0.013213,0.083022,-0.043334,0.019116,-0.036947,0.006225,0.040130,0.015542,0.014060,-0.019700,-0.006725,0.014486,-0.004110,-0.041546,0.024686,0.065496,-0.087700,-0.102720,-0.112360,0.099873,0.092696,0.086174,0.064273,-0.066612,0.003428,0.023191,0.074751,-0.023561,0.045574,0.090674,0.056857,-0.015050,0.005985,0.035170,-0.000168,0.067036,-0.011447,-0.012237,-0.082824,0.026195,-0.004547,-0.140209,0.036366,0.015156,0.042722,-0.024129,-0.025734,-0.028311,-0.010172,0.025211,0.069107,-0.017814,-0.013391,-0.013485,0.021884,-0.076851,0.003141,-0.029241,0.099641,0.002833,-0.006244,-0.055338
0.060870,-0.002897,-0.052632,0.012135,0.006071,0.065123,-0.019736,-0.048349,-0.042574,-0.138645,0.088102,-0.090606,0.054083,0.024288,0.038419,0.060138,-0.012441,-0.021883,-0.022132,-0.045123,-0.019174,0.017598,-0.020047,0.016084,0.135439,0.000274,-0.051899,-0.004433,-0.045067,0.055979,0.101593,0.025300,-0.074776,-0.039486,0.095138,-0.007691,0.039295,-0.054535,-0.069316,0.082902,-0.081471,-0.025194,-0.028310,0.002539,-0.005507,-0.017685,0.126499,-0.024144,-0.116806,-0.011023,0.065797,0.107597,-0.015814,0.010235,-0.056503,0.121303,0.000818,0.013053,0.088593,-0.027663,-0.037738,-0.100797,-0.034097,0.029937,-0.067047,-0.010128,-0.010552,0.036395,-0.067075,-0.003097,-0.059335,0.020970,0.049988,0.137106,0.091156,0.075201,-0.037992,0.018186,-0.030423,0.086006,0.051303,0.060151,0.098254,-0.047137,0.005087,-0.078806,0.018273,0.089285,0.023968,-0.016633,-0.002780,0.030958,0.062054,0.009489,0.028688,-0.005975
-0.009980,-0.094344,0.060325,-0.092995,0.027777,-0.025207,0.001065,0.018875,0.013130,0.043173,0.013477,-0.015732,0.053947,-0.026592,-0.121740,0.017513,0.035152,-0.054509,0.034641,0.018243,-0.018897,0.018968,0.136780,-0.041656,0.042085,-0.026914,0.022559,0.043345,0.024340,0.017442,0.061379,0.001068,0.011541,0.065501,0.007665,-0.085104,0.002538,-0.002577,0.016253,0.005005,-0.068563,-0.055432,0.006918,-0.070296,0.029975,-0.051327,0.020078,-0.061683,-0.015465,0.016491,-0.057738,-0.088778,-0.024096,-0.031575,-0.014831,-0.067207,0.036194,-0.081044,0.040099,-0.004626,0.070564,-0.106881,-0.031321,-0.026174,0.016253,0.051714,0.011444,-0.007052,0.058220,0.042529,0.005706,0.072688,-0.031819,-0.011837,-0.002087,-0.019828,-0.022866,0.097705,0.014514,0.059382,0.093235,-0.050412,0.042351,0.032286,0.003193,0.004842,0.042895,0.000657,-0.071626,0.069024,0.156657,0.016942,0.083481,-0.110350,0.083538,-0.054104
-0.043911,0.014583,0.091956,-0.048315,0.060919,0.071162,0.069527,0.028282,0.005023,0.000031,0.140341,0.002962,0.051347,0.028278,0.025136,0.010277,0.100247,-0.011841,0.163227,-0.062223,0.006786,0.076589,-0.070364,-0.035273,0.052497,-0.020344,-0.067491,-0.038456,0.035988,-0.031192,0.051898,-0.070026,-0.088233,-0.013001,0.028140,0.047092,0.017149,0.011052,0.047389,-0.014138,-0.075332,-0.105757,-0.003844,-0.027463,0.083610,0.006699,0.023758,-0.027411,0.008403,0.078369,0.031690,-0.076352,-0.086433,0.012195,0.035475,-0.009064,0.012987,0.059682,-0.002754,-0.053387,0.032231,-0.001062,-0.021524,-0.033899,-0.039014,-0.034439,0.075548,-0.094933,-0.016359,0.067241,0.003907,0.073171,0.110686,0.026239,-0.037275,-0.032165,0.047581,0.067237,0.032055,-0.047716,-0.054408,0.034982,-0.019334,-0.051114,0.056547,0.056163,-0.066859,-0.104513,-0.031584,-0.054756,-0.010253,-0.055447,0.004874,-0.054119,-0.025940,0.008356
0.076178,0.004543,0.030880,-0.000208,0.001317,0.047377,-0.036091,0.034944,0.015099,-0.025868,-0.062554,-0.022440,-0.011376,-0.041703,-0.015659,-0.023168,0.031871,-0.071458,0.038108,0.023022,-0.020901,-0.069922,-0.014472,0.040078,0.012446,0.047971,0.006801,-0.062890,-0.058351,0.002033,0.003324,0.043392,0.034993,-0.008807,-0.062211,-0.014103,0.018649,-0.020562,0.078587,0.042115,-0.063321,0.045252,0.034889,-0.001491,-0.013061,0.023463,-0.039084,0.051772,-0.083459,-0.019691,0.031343,-0.095984,-0.019195,0.018123,0.116743,-0.018912,-0.015715,-0.000726,0.026961,0.019348,-0.065155,-0.038935,0.122808,-0.023215,0.043572,0.013326,0.031579,0.010383,-0.009819,-0.046841,-0.016643,-0.021136,-0.050855,-0.011959,0.019110,-0.083391,0.035939,-0.068863,0.002124,-0.032592,-0.057345,0.005127,0.003112,0.005478,0.000583,0.039034,-0.018713,0.023916,0.031670,-0.107772,0.000068,-0.032388,-0.095311,0.015115,-0.048852,-0.011247
-0.062565,-0.032598,-0.045851,0.075173,0.051498,0.098301,0.056549,0.051640,-0.018458,-0.033914,-0.057410,0.045506,0.079089,0.005120,-0.049167,0.007812,-0.075499,0.068097,-0.034040,0.011589,-0.100789,0.018486,-0.061089,-0.020088,-0.022051,0.049305,-0.042022,-0.017677,-0.117251,-0.026273,0.035524,0.093468,-0.051675,-0.102464,-0.048806,-0.043047,-0.067642,0.010029,0.017025,-0.031687,0.082482,-0.062022,-0.048196,0.020006,0.006410,-0.053348,-0.011325,0.031284,-0.033668,0.039589,0.080768,0.026563,0.061207,-0.032962,0.085473,-0.022659,-0.049681,0.002054,-0.012244,-0.005923,0.006862,0.041592,-0.047825,0.032544,-0.045266,-0.016489,0.035790,0.011171,0.021388,0.020113,0.045307,-0.055671,0.035720,0.036558,-0.019835,-0.054200,-0.042765,-0.067665,0.041319,0.035261,-0.079233,-0.024574,-0.010467,0.026479,0.069331,-0.040098,0.015732,0.048552,-0.002775,0.018146,0.010727,0.088935,-0.060844,-0.012985,-0.053942,-0.071259
0.020957,0.004098,0.070298,-0.058641,-0.027629,0.027054,-0.102146,0.088231,0.005533,-0.042455,0.023888,0.078219,-0.009683,-0.081370,0.027944,-0.110080,-0.023906,0.017559,-0.054102,-0.076123,-0.000688,-0.083826,0.056130,-0.076647,-0.089810,-0.048809,-0.130095,-0.018580,0.013852,-0.008774,0.002695,0.076717,0.040349,-0.020628,-0.018037,-0.085948,0.056862,0.021296,-0.031491,0.059404,-0.068719,-0.001046,0.004471,-0.007326,-0.003670,-0.069728,0.086644,-0.035080,0.008131,-0.028271,-0.012764,-0.034727,-0.047132,0.039439,0.056934,0.088584,0.057883,0.048374,-0.028053,-0.048270,-0.067305,-0.011917,0.041145,0.060790,-0.060360,-0.062174,-0.017035,-0.021734,0.040094,-0.009794,0.015393,0.014981,0.084105,-0.019126,0.000647,0.072570,-0.077665,0.031479,0.020184,0.020443,-0.001893,0.049616,-0.078164,-0.012923,0.013062,0.028354,-0.021528,-0.049729,-0.044619,0.015690,-0.100350,-0.038359,-0.072737,-0.103351,-0.035106,0.052491
0.073602,0.001489,-0.017841,-0.050303,-0.052278,-0.062924,0.016207,-0.145701,0.008538,-0.099632,0.101541,0.098361,-0.009549,0.116303,0.037569,0.053417,0.046704,0.115805,0.034187,-0.041480,0.043709,0.014804,-0.055060,-0.011781,0.045610,0.010960,-0.149254,-0.029473,-0.141082,-0.001031,-0.048169,-0.067952,-0.035030,0.091224,-0.135693,-0.016661,-0.114303,0.056297,0.060814,-0.006061,-0.099243,0.018609,0.039873,0.039968,-0.101941,0.005509,0.099980,0.024230,-0.046586,-0.068714,0.014255,-0.013409,0.032849,-0.040344,-0.017560,-0.033128,-0.035482,-0.028724,-0.014163,0.010509,0.074878,-0.067458,-0.063566,-0.066652,-0.171959,-0.077364,-0.040400,-0.090427,-0.007851,0.007835,-0.024466,-0.084860,-0.037812,0.067044,0.025906,0.043979,0.071403,-0.088136,0.030078,0.052613,0.072494,-0.080719,-0.022113,0.100412,-0.094156,0.003304,0.053673,-0.039997,-0.067020,0.068569,0.076603,-0.064879,-0.000494,0.050546,-0.026091,-0.063664
0.038691,-0.011277,0.021457,-0.028614,0.024477,0.034770,-0.149282,0.060208,-0.054911,0.047288,-0.086722,-0.021449,-0.007654,-0.054766,-0.094604,0.077654,-0.034304,0.016935,0.008118,0.072675,0.059667,0.067324,0.042420,0.078166,0.031522,-0.012324,-0.146016,0.011392,0.020498,-0.084805,-0.126403,0.012005,-0.068453,0.006966,-0.102035,0.036719,0.033917,-0.002129,0.018614,-0.016184,0.022339,0.003937,0.099490,-0.003656,-0.027933,-0.018215,0.063078,-0.018154,-0.023416,-0.076523,-0.041772,-0.053606,0.056146,0.017155,-0.008139,0.059742,-0.070459,-0.010911,0.042199,0.021502,-0.056172,-0.009108,-0.030804,-0.181390,-0.033225,-0.010288,-0.009898,-0.007114,-0.011713,0.036182,0.058731,-0.006299,-0.087686,-0.067996,0.090726,-0.048509,-0.060640,-0.157635,-0.064847,-0.024877,0.064172,-0.007047,0.107512,-0.007637,0.045509,-0.011187,-0.093345,-0.024023,0.071190,0.063895,0.047469,0.014182,-0.030335,0.077196,-0.081097,-0.134287
-0.005258,-0.037316,-0.018208,-0.018780,-0.061271,-0.003331,-0.054808,-0.046842,0.034121,0.011150,0.084235,0.004372,0.088264,0.069236,-0.053464,0.067494,0.068409,0.057384,-0.070722,0.072575,0.072865,-0.041059,0.050050,0.016918,0.095393,0.040317,-0.066914,0.072784,-0.045521,0.047265,0.000909,-0.016148,0.020066,-0.002171,-0.014645,0.004925,-0.083885,0.025495,0.081484,-0.013710,-0.076807,-0.061566,-0.039151,-0.035721,0.072098,0.019278,0.015728,0.027142,-0.092355,0.097922,-0.008351,0.018041,-0.008324,0.007817,0.080265,-0.041682,0.029748,-0.044187,-0.012770,0.049408,-0.068616,0.050901,0.030068,0.029881,-0.004539,0.015003,-0.029131,-0.025704,-0.015280,0.093555,-0.055381,-0.076446,-0.030361,-0.055087,-0.113495,-0.010939,-0.022869,-0.036837,0.000406,-0.012118,-0.135372,0.019646,-0.046633,0.040122,0.037866,-0.049689,-0.059222,-0.037218,-0.099631,0.021769,-0.003219,0.008118,-0.031728,-0.016368,0.114752,-0.075097
0.041314,0.034172,0.059745,0.024098,-0.013818,-0.037641,-0.116397,0.104717,-0.002713,-0.063580,-0.012293,0.017615,0.057846,0.034113,-0.040478,0.075195,0.010622,-0.050598,0.024185,-0.005035,0.018369,0.008379,0.005139,0.017796,-0.053660,-0.003090,0.036390,0.092976,0.021142,-0.004331,0.059650,-0.000855,0.020354,-0.065483,0.044213,-0.023778,0.012817,-0.038161,-0.022868,0.010213,0.049692,0.071317,-0.011908,0.053255,-0.044658,0.007373,-0.026408,0.111016,0.026962,-0.011558,-0.017663,0.038521,-0.076860,0.009650,0.079623,0.097595,0.008286,0.038830,-0.063066,0.056397,0.061630,-0.011988,0.021016,-0.141103,0.021117,0.055316,0.023865,-0.017505,0.079941,0.072599,0.025126,0.023299,0.010239,0.046207,-0.084489,-0.034752,-0.094464,0.005142,-0.014290,-0.044276,0.091293,0.042660,0.009384,0.012997,0.067964,-0.032526,-0.040832,-0.073628,-0.028304,-0.044176,0.025116,-0.047970,0.028575,-0.039418,0.008733,0.025543
0.063968,-0.006145,0.053598,0.015384,0.019250,-0.027313,-0.091985,0.052000,0.048931,-0.053194,-0.100881,0.061859,0.046540,-0.001992,0.012711,-0.037061,-0.007513,-0.004852,-0.066937,0.002760,0.032091,0.058616,-0.039876,0.011003,-0.045329,-0.047445,0.037547,-0.024938,-0.038121,-0.050984,0.084436,0.074144,0.061108,0.093673,0.081232,-0.083882,0.134940,-0.050767,-0.029230,0.009558,0.088747,-0.073438,-0.028804,-0.014615,0.000749,0.093703,-0.022121,0.076322,0.015514,-0.064808,0.055335,-0.051654,-0.095399,-0.070861,0.084341,0.016902,0.026487,0.030562,-0.006788,0.049725,0.021238,-0.053415,-0.008803,0.002955,-0.037128,0.025938,0.074463,-0.032219,-0.049344,-0.016696,0.040642,-0.015214,-0.072690,-0.051907,-0.002772,-0.025663,0.014713,-0.019803,0.008531,-0.027371,-0.013835,0.018417,-0.010540,-0.010631,0.029159,0.030108,-0.037907,0.029165,0.029836,-0.018879,-0.065806,0.030357,-0.036086,0.034714,0.048272,0.052491
0.029927,-0.091149,-0.050747,0.032589,0.024167,0.014717,0.085204,-0.001055,0.002227,0.025855,0.084299,-0.006915,-0.008060,0.014066,-0.074939,-0.065399,0.035435,-0.064682,0.035207,0.058740,0.120214,-0.030416,0.117783,-0.106431,-0.089335,0.058906,0.016428,0.008103,0.024511,-0.021203,-0.026141,-0.038205,0.008376,-0.075128,0.070110,0.020429,0.044710,-0.013846,0.065061,0.002493,0.004472,0.008262,-0.024866,-0.000572,0.007369,-0.082991,-0.021369,0.026734,0.035393,0.067568,0.009308,0.074394,-0.045363,0.099551,-0.052527,0.073198,0.077847,-0.014326,0.022315,-0.001950,0.092237,-0.132057,-0.076883,-0.021529,0.011236,0.000821,-0.026218,0.013826,-0.052666,-0.040056,0.026728,0.062526,0.147806,0.006167,0.112611,-0.016326,-0.042707,0.019201,-0.034285,-0.057078,0.033284,0.080627,-0.114718,-0.043031,0.133439,-0.032507,-0.081439,0.032559,0.108893,0.042777,0.050420,0.035881,-0.013329,0.079161,-0.117135,-0.000070
0.085073,-0.041856,-0.016018,0.031671,-0.114158,0.051780,-0.031819,-0.015473,-0.022471,-0.029798,0.123046,0.045242,-0.012216,0.103574,0.016350,-0.007564,-0.024537,0.018876,0.013826,0.021025,0.045175,-0.037924,-0.025098,-0.044034,0.060647,-0.055821,-0.122803,0.021945,-0.057649,0.000188,-0.048512,-0.080812,0.028244,-0.071944,-0.056149,0.071337,-0.053500,-0.018185,0.107415,-0.034178,-0.070161,0.096368,0.062902,0.001505,-0.002811,-0.022033,-0.010026,-0.030890,-0.045687,0.005563,-0.017168,-0.021657,-0.038556,0.040621,0.028992,-0.041356,0.081138,-0.053241,0.027804,-0.031595,-0.032678,-0.002924,-0.010496,-0.010500,-0.037921,-0.002153,-0.028229,-0.101197,0.011648,0.007263,0.020309,-0.029368,-0.056302,0.056124,0.025518,0.070426,0.117256,0.018721,0.020226,0.033887,0.001940,-0.049215,-0.015273,0.084499,-0.002023,0.104073,0.056823,-0.033972,-0.030898,0.000067,0.046244,-0.133238,0.000988,-0.060623,0.037788,0.017313
0.062262,0.081983,0.076315,-0.090202,0.041101,-0.014043,0.001031,0.073509,0.001515,-0.054695,-0.022047,0.009049,-0.101646,0.044136,0.082604,0.004523,-0.049259,0.091623,-0.010591,-0.030926,-0.066152,-0.157688,-0.045720,0.011484,-0.024515,0.050330,-0.011743,0.027189,-0.062972,-0.043042,0.055797,-0.018361,0.021627,-0.023153,0.017434,0.031766,0.008741,-0.054499,-0.068325,-0.057152,-0.039830,-0.087571,0.009802,0.085816,0.022042,0.053109,-0.000415,0.001726,0.009567,0.064075,0.006752,0.006204,0.016005,-0.160832,0.037113,-0.011053,0.057147,-0.026182,0.040027,-0.066749,0.052583,0.007910,0.049611,0.100279,-0.009327,-0.040416,-0.076410,0.010930,-0.044826,-0.056667,0.058950,0.078517,-0.077143,-0.007414,-0.139295,0.019343,0.090631,-0.016898,0.047404,0.012410,0.010589,0.029146,0.004958,-0.019881,-0.150589,0.036804,0.022715,-0.036212,0.015152,0.038595,-0.039832,0.001905,-0.038749,-0.152520,0.066223,0.070421
0.075052,0.005453,-0.044462,-0.069020,-0.009716,0.025668,0.031946,-0.074949,-0.076776,-0.054150,0.091489,-0.071672,-0.059941,0.002684,-0.073257,-0.074757,0.053385,-0.030496,0.041024,0.033062,-0.006003,0.090761,0.037440,-0.029940,0.008210,0.067139,0.019541,-0.086694,-0.057906,0.011666,0.012051,0.023616,0.028830,0.048977,-0.022601,0.028854,-0.043124,0.036047,0.015427,-0.059354,-0.038785,0.000562,0.098582,-0.047114,0.075016,0.005453,-0.124991,-0.020109,-0.019887,-0.042126,-0.004241,0.044948,0.037869,0.003234,0.097035,0.055610,-0.086678,0.082237,-0.007756,0.005958,0.082592,-0.004844,0.066543,0.056115,0.111969,-0.024835,0.088023,-0.006807,-0.059321,-0.051417,-0.044970,0.069184,-0.058454,0.022414,-0.072915,-0.029899,-0.084493,-0.002553,-0.073330,0.116221,-0.030198,-0.013811,0.053818,-0.086706,0.078742,0.008600,-0.083463,0.015281,0.006273,-0.109801,0.008540,0.013906,0.013843,-0.139188,0.000887,-0.097267
-0.049100,-0.088282,-0.003884,-0.067457,-0.027146,0.008816,0.091999,-0.092911,0.013878,-0.085859,0.181850,-0.027029,0.015190,-0.091992,0.089703,0.019460,0.037517,-0.004772,0.018514,-0.080665,0.241187,0.074985,0.091451,-0.090094,0.098123,-0.039899,-0.100915,-0.099546,-0.126236,-0.040091,-0.052260,-0.022285,-0.012465,0.004254,0.005859,0.097709,0.008864,0.121719,0.069389,0.013834,-0.080919,-0.045688,0.107145,0.058219,-0.051295,-0.026275,-0.004197,0.047435,0.050002,-0.043496,-0.116435,0.010417,-0.018018,0.144393,-0.062011,-0.040837,-0.049802,-0.012675,-0.040110,0.028550,0.108697,0.014530,0.121142,0.136203,-0.083746,0.042085,-0.034057,0.012712,0.054764,-0.073487,-0.046384,0.060847,-0.035613,0.036431,-0.109630,0.017947,-0.043389,-0.082189,-0.041258,0.021013,-0.034344,-0.050339,-0.002144,-0.013535,0.013328,0.037903,-0.113104,-0.084837,0.044350,-0.057752,-0.030566,0.030941,-0.063220,0.015309,0.065032,0.012784
-0.103320,-0.032783,0.043945,0.027139,-0.044665,0.076063,0.062037,-0.026101,0.001282,-0.007052,-0.043297,-0.034185,0.045632,0.001326,0.026330,-0.074853,0.012723,0.010567,0.049823,-0.014143,0.046923,0.021492,0.040681,0.027046,-0.050972,0.024739,0.042035,-0.040432,-0.015301,0.055597,-0.062727,0.059094,-0.014999,-0.052034,0.057986,-0.057260,0.013211,-0.083833,0.002548,-0.051562,-0.021628,0.017416,-0.084404,0.003385,-0.021533,-0.063672,-0.067656,0.055982,0.022512,0.040027,-0.087590,-0.050849,-0.049776,-0.001859,-0.072752,-0.059585,-0.068485,0.066023,0.036642,-0.063648,0.004443,0.006823,0.064382,0.020877,-0.014479,-0.025541,-0.064544,-0.030406,-0.051106,0.072866,-0.028792,-0.058315,0.108137,0.029982,0.036288,-0.064894,0.036472,-0.002889,0.019613,0.014479,0.074494,-0.087766,0.054345,-0.028425,0.046077,-0.086233,-0.026014,0.024162,-0.002542,-0.034985,-0.037301,0.095062,-0.036677,-0.008085,-0.039340,-0.069452
-0.009099,-0.075818,0.045706,-0.074442,0.027807,0.048917,0.037258,-0.017560,-0.082191,0.020443,0.007351,0.015575,-0.043490,0.128046,0.041189,-0.024570,-0.009648,-0.104088,0.014750,0.022560,0.007076,-0.031582,-0.007994,-0.006139,0.010167,0.029119,0.031644,0.084914,-0.033804,0.033450,-0.017189,0.012018,0.037901,-0.022437,-0.016126,-0.169944,0.021072,-0.043589,-0.008791,-0.034490,0.019387,-0.000328,-0.023003,0.025027,-0.035008,-0.052929,-0.093234,0.025804,-0.085297,0.048737,0.019849,-0.057559,0.071173,-0.059833,0.017933,-0.013359,-0.003400,0.047735,-0.003432,0.012119,-0.088302,0.008664,-0.077010,0.045427,-0.102171,0.000348,-0.014115,0.079509,-0.017621,-0.037350,0.011083,0.007414,-0.072750,-0.010227,-0.016661,-0.036682,0.024998,0.022143,-0.025968,0.021110,-0.019647,0.092016,-0.065887,-0.021938,-0.011990,-0.013971,0.061731,-0.095943,0.002176,0.024146,-0.003646,-0.003162,-0.023659,0.022023,-0.028421,0.013456
-0.020951,-0.047788,0.026951,0.035399,-0.010833,-0.027739,0.092876,-0.003241,-0.060795,-0.049503,-0.004484,-0.044448,0.063177,-0.016352,0.006401,0.064074,0.032887,-0.045020,-0.039875,-0.002122,0.005839,-0.064749,0.005222,0.015251,0.007906,0.043707,0.072953,0.009862,0.017965,0.088785,0.045581,0.032773,-0.077422,-0.043602,-0.050012,-0.053753,-0.107658,0.082222,-0.025049,0.027618,0.001963,0.025840,-0.046842,0.014410,-0.038754,0.051153,-0.042757,-0.027185,0.019379,-0.060986,-0.014574,-0.043500,-0.056150,0.033356,0.031635,0.155959,-0.019915,0.071831,-0.074601,-0.047878,0.018358,-0.054857,0.023594,0.077238,0.056579,-0.030873,-0.025658,-0.101973,0.074427,-0.020312,0.026282,-0.163390,0.027337,0.036321,0.101498,-0.007592,-0.005108,0.022366,-0.045985,0.011717,0.008164,0.051247,0.006556,-0.042176,0.048207,0.010220,0.026230,-0.032252,0.017374,-0.016426,-0.048090,-0.045299,0.003759,0.049353,0.010044,0.014443
-0.072459,0.041170,-0.056922,-0.007732,-0.052942,-0.035577,-0.067394,-0.115205,-0.055941,0.057759,-0.059744,0.039510,-0.024791,0.065152,0.055107,-0.073499,-0.008635,-0.029034,0.035118,0.010248,-0.030504,-0.068082,0.012884,-0.059757,-0.040788,-0.013606,-0.049082,-0.023608,-0.025708,0.076881,0.052256,0.007635,0.014652,-0.072352,0.043687,-0.033959,0.084376,0.020011,0.024103,-0.083382,-0.150694,-0.003717,0.128333,-0.069954,-0.041717,0.004722,-0.008794,-0.025335,-0.038921,0.011663,-0.033138,-0.039162,-0.050780,-0.059067,-0.014591,0.052388,0.010729,0.015130,0.020484,0.078949,0.066881,-0.001622,-0.011245,-0.041490,-0.019425,0.041055,0.058525,-0.031006,0.017091,-0.015254,0.064029,0.087203,0.013186,-0.022109,0.025103,0.006200,0.053003,-0.063492,-0.002993,0.000748,-0.049167,-0.039335,-0.024286,-0.027538,0.050566,0.023743,-0.014071,-0.034048,0.003871,-0.026527,-0.039803,-0.061119,0.018231,-0.132935,-0.019057,0.098041
-0.001446,-0.077254,-0.048231,-0.036274,0.008768,0.047322,-0.089345,0.019777,-0.161595,-0.020709,0.049062,0.032860,-0.089567,-0.031315,0.021271,-0.017254,0.020895,-0.012857,0.018317,0.034301,0.087262,-0.024290,0.055308,0.034905,0.058741,0.072639,0.038075,-0.020414,0.072423,0.062549,0.073004,0.089141,0.047749,-0.001024,0.053878,-0.024623,0.001497,-0.055779,-0.023616,-0.111476,0.051335,-0.010257,0.077994,0.044260,0.040085,0.014153,-0.061034,0.116287,0.148954,-0.039595,0.036126,0.027017,0.138020,-0.026057,0.039367,-0.111559,0.052380,0.048959,0.037451,0.027986,-0.110879,-0.037647,-0.156612,0.145035,-0.257790,-0.141325,-0.004228,-0.037755,0.101722,-0.042106,-0.002601,0.068812,0.101444,0.051922,-0.024000,-0.078517,-0.090880,-0.020249,-0.072886,-0.069999,-0.017847,-0.066608,0.035118,0.020123,0.056117,0.058869,-0.019786,-0.082367,0.060168,-0.082928,-0.033877,0.004753,-0.003078,-0.030852,0.030401,-0.049217
0.018400,-0.038916,0.043368,-0.007072,-0.107945,-0.067135,0.005741,0.100185,-0.024984,-0.011118,0.182752,0.017057,0.066406,0.073535,-0.097678,0.072793,-0.087457,0.056101,-0.046775,0.062184,0.047199,0.075652,-0.006254,-0.019556,0.040060,0.082336,0.020948,-0.114553,-0.054582,-0.004030,0.023255,0.023208,0.059631,-0.096636,0.094497,0.007280,-0.076955,0.003084,0.099366,0.122815,-0.145106,-0.013947,0.055579,-0.016231,0.091549,0.037884,0.045981,0.024970,0.027827,0.095177,-0.013145,-0.050717,0.052783,-0.013010,-0.110844,-0.048376,-0.058361,0.025507,0.023553,-0.051994,-0.070156,-0.051035,0.014825,0.006820,0.055330,0.060991,-0.015582,-0.023325,0.024703,-0.036040,-0.118234,-0.035329,-0.005527,-0.117365,-0.064488,-0.040339,0.020425,-0.024114,0.090211,0.055014,-0.017140,0.053667,-0.058247,0.095747,0.175482,0.036833,-0.023392,0.004429,0.102982,0.004414,0.038156,0.011652,0.027047,-0.018026,0.015801,0.102715
0.032503,-0.016073,-0.017870,-0.007714,0.019013,0.048298,0.011581,0.004029,-0.050965,0.062517,-0.044901,0.053082,0.030604,0.000888,0.023770,-0.089102,-0.094085,0.025161,-0.056342,0.020193,-0.004091,0.027487,0.031135,-0.029627,0.001147,-0.011980,0.039763,0.051103,-0.026400,0.005782,-0.019661,-0.050810,-0.019715,-0.025545,0.048825,-0.028056,0.026362,0.065377,-0.073443,-0.009099,-0.008271,-0.012995,-0.083976,-0.079217,-0.007455,-0.020086,0.050883,-0.074728,0.092538,-0.006499,-0.074335,-0.014008,0.000644,-0.134373,-0.013533,0.033229,0.023109,0.057437,-0.054689,0.040944,-0.042000,-0.033485,-0.019376,0.051370,0.032800,0.022604,-0.011194,0.007678,0.034866,-0.063569,-0.008419,0.017132,-0.031897,-0.048454,0.022756,-0.010275,-0.027776,-0.004330,-0.059132,0.012142,0.045392,-0.000013,-0.002166,0.082475,-0.082197,-0.039046,-0.010540,0.057179,0.036150,0.022560,-0.007691,-0.062391,0.033258,-0.036076,0.113379,-0.039674
0.074820,0.090952,0.033116,0.015728,-0.049044,-0.013818,-0.028327,-0.000104,0.047942,-0.056192,0.018144,-0.016888,0.087822,0.065519,-0.075902,-0.110246,-0.048441,0.045710,-0.064923,0.022610,-0.058148,-0.063877,-0.137715,0.070143,0.022054,0.047051,-0.058271,0.012553,-0.072488,-0.002456,-0.038159,0.005898,-0.020748,-0.111738,0.105774,-0.047303,-0.083729,-0.061123,0.079160,-0.006833,-0.031560,-0.032577,-0.077554,-0.034813,-0.012348,-0.003394,-0.096299,0.057630,-0.068957,0.013685,-0.018707,-0.132592,-0.005727,-0.033987,-0.020982,0.085495,-0.013699,-0.015233,0.096341,-0.040822,-0.044554,0.045584,-0.159723,-0.016264,-0.019231,-0.087203,0.031688,-0.085564,-0.030433,0.024075,0.041122,-0.061391,0.080562,-0.073342,0.101791,-0.015812,-0.080785,0.036904,-0.018726,0.026677,-0.029171,-0.066682,-0.065840,-0.022604,-0.017119,0.045135,-0.040047,-0.007661,0.007558,-0.083684,-0.071207,0.032630,-0.020969,-0.103849,-0.000832,-0.082011
-0.092024,0.000407,-0.068933,-0.069116,0.026069,-0.047396,-0.000210,-0.016181,-0.077724,-0.050624,0.009247,0.005450,0.049664,-0.016564,0.021634,0.012115,-0.051016,0.006258,-0.061469,0.035494,-0.002101,0.064208,-0.008858,0.077711,0.022430,-0.053995,0.035588,-0.031038,0.024762,-0.031551,0.005527,-0.026248,-0.010227,0.003517,-0.064361,-0.020274,-0.060742,0.025091,-0.055254,0.112152,-0.007504,0.036997,0.050797,0.018023,-0.035712,0.061928,-0.021743,-0.041570,-0.032837,-0.122869,-0.042329,0.000958,0.047867,-0.018884,0.034254,0.033122,-0.060269,0.010139,-0.065334,0.002429,0.073833,-0.029117,-0.007950,-0.064161,0.045498,-0.014817,0.067991,0.008479,0.028686,0.035380,-0.013559,-0.080055,-0.094109,-0.078859,0.084253,0.059724,-0.006101,0.018500,-0.100123,-0.011794,0.032497,-0.083916,0.089215,0.000688,-0.038648,-0.005599,-0.043639,0.006158,-0.007002,-0.011070,-0.003179,-0.014462,-0.004223,0.051226,-0.040593,-0.050873
-0.020702,-0.038418,0.054265,-0.067338,0.073018,0.027889,0.007539,-0.073217,0.120565,-0.001145,0.063956,-0.111404,0.048595,-0.049358,0.085572,-0.042243,0.057303,-0.063197,-0.053995,0.047015,0.042632,0.048891,0.014407,-0.008885,-0.105185,0.152669,-0.046641,0.022887,-0.118581,0.087108,-0.004034,0.029972,0.094110,0.017512,0.040384,0.061478,0.019865,-0.009681,-0.000954,-0.001165,-0.116242,0.007696,0.039550,0.009042,0.100351,-0.048984,-0.016927,0.030970,0.046818,-0.005790,-0.033758,-0.066427,0.002199,0.125959,0.054083,-0.040908,0.041220,0.143996,0.115084,0.019235,0.030923,0.081965,0.070812,-0.104844,-0.034758,-0.054921,-0.112916,0.030789,0.087754,-0.076950,-0.016830,-0.129736,-0.039204,0.019013,0.041782,0.045627,0.084384,-0.106793,0.001603,0.012221,0.025741,0.036491,0.091057,-0.019510,0.076079,-0.040112,-0.083809,-0.071948,-0.017687,-0.108115,0.007770,0.083774,-0.057923,-0.038528,0.057832,0.106292
-0.010807,-0.006382,0.025214,0.085421,-0.075356,-0.005170,0.045972,0.016644,-0.022194,-0.015994,-0.065356,0.078406,-0.007907,-0.028464,0.028530,-0.000897,0.069418,0.059204,0.106076,-0.073555,0.004150,-0.041151,-0.055813,-0.014495,-0.028191,0.073865,0.037241,0.048919,0.074992,-0.003204,-0.025288,0.038715,0.063347,-0.095432,-0.007004,-0.054132,0.008281,-0.001462,0.044841,-0.029096,-0.072013,0.001612,0.011291,-0.014194,0.063378,0.009168,0.090467,-0.035924,0.018438,0.007803,0.050965,-0.048110,-0.071857,-0.050154,0.030119,-0.021908,-0.017235,-0.081864,0.019793,-0.004872,0.012765,0.017277,-0.053868,-0.009671,-0.083981,0.025921,0.032100,-0.048142,0.025717,0.016748,0.040072,-0.071108,0.040879,-0.064621,-0.092751,0.027045,0.076048,0.014084,0.090458,-0.051088,0.081592,0.053140,0.041555,-0.034661,-0.024489,0.004832,-0.018138,0.028403,-0.078144,-0.026952,-0.001934,0.083526,-0.034561,0.044888,-0.042147,0.039923
-0.056878,0.014280,0.009747,0.113262,0.052362,-0.102363,0.014191,-0.035397,0.073196,0.072381,0.017713,-0.039425,-0.050136,0.029836,0.003297,-0.045499,0.006909,-0.042834,0.014369,-0.002885,0.015621,0.014557,-0.013673,-0.085258,0.006875,-0.003342,-0.054889,0.013859,-0.016794,-0.013536,-0.018126,-0.042473,-0.049992,0.033319,0.025420,0.000244,0.032807,-0.028437,0.022225,0.020909,0.061209,-0.052188,-0.022461,0.031507,0.067996,-0.015083,0.024032,0.038289,0.051217,-0.052375,0.006259,0.029090,0.046303,-0.006647,0.017095,0.062249,-0.048141,0.078668,0.034050,0.010313,-0.101242,-0.078672,-0.032000,0.095588,0.111787,0.030603,-0.026952,-0.013347,0.069757,0.006755,0.005116,0.040926,-0.092388,-0.039468,-0.016714,-0.050902,0.075582,0.003912,0.004496,0.049286,-0.061386,-0.011791,0.054066,-0.055042,-0.073153,-0.035806,0.021319,-0.032288,0.082524,-0.044001,0.052494,-0.048452,0.031966,-0.016783,0.017470,-0.019393
0.078101,0.068625,-0.025363,0.024920,0.123638,-0.045992,0.030634,0.056719,-0.182268,-0.089020,-0.031001,-0.107520,0.104029,0.026893,0.157666,0.089708,0.135718,-0.172279,-0.160380,0.029090,0.012767,0.155055,0.024812,-0.012092,-0.085916,0.021205,-0.144113,0.021888,0.012312,-0.016092,-0.034503,0.017881,-0.031188,-0.048312,0.072880,0.074786,0.037202,0.072311,-0.023867,0.095084,-0.008598,-0.050000,-0.092721,0.056081,0.047226,0.017828,-0.004783,-0.029447,-0.013409,0.245087,0.051119,-0.068781,0.003721,-0.019196,0.025047,-0.100420,0.045403,0.048579,0.077645,-0.036065,0.082830,-0.051261,-0.127534,-0.144174,0.122672,-0.059032,0.115006,-0.024888,0.020952,-0.052819,-0.053627,-0.021617,0.028598,-0.139573,-0.083652,-0.091182,0.061126,-0.072005,-0.069149,0.017484,-0.006011,-0.081225,0.083228,-0.078302,0.036120,0.021416,0.057783,-0.027759,0.028353,-0.021360,0.010652,-0.081533,0.049684,0.039858,0.041968,-0.030133
0.081481,0.033098,0.027523,-0.021701,-0.097892,0.051160,0.093605,-0.043509,0.026679,-0.025601,0.016814,0.023333,0.007565,0.002746,0.031227,0.049185,-0.029795,0.009413,-0.011151,-0.023636,-0.010611,-0.022351,0.051713,0.059930,-0.007165,-0.018019,-0.031625,0.061168,-0.036069,0.070801,-0.005296,0.065018,-0.085929,-0.034547,0.009039,0.029328,-0.018100,0.024470,0.057062,-0.039237,0.060077,0.083478,0.019467,0.033013,0.001096,0.044127,-0.038648,-0.040741,-0.063456,0.054984,-0.065752,0.060254,0.015888,-0.021417,0.040670,-0.047394,-0.037603,0.017820,-0.077108,-0.086416,-0.004838,-0.056566,-0.054344,0.027934,-0.076534,-0.017738,0.072752,0.045207,-0.059381,0.005383,0.043838,0.022669,-0.021353,0.022627,-0.061935,0.041792,-0.038676,0.139228,0.044026,0.018664,-0.035751,-0.048431,-0.035884,-0.001360,0.049007,-0.038247,-0.001992,0.102540,-0.059268,-0.000536,0.013532,-0.063296,0.025045,0.086673,-0.047260,-0.067357
-0.084043,-0.028615,0.012051,0.017226,0.131870,-0.059741,0.005415,0.054375,-0.025994,-0.037239,0.038449,0.043887,0.004549,-0.096399,0.048825,0.008026,-0.020874,-0.017622,-0.061510,0.057624,0.004923,-0.015615,0.084290,-0.046346,0.092356,0.009383,0.069217,0.023870,-0.073279,0.008900,0.017325,0.014224,0.035165,-0.025241,0.006695,0.000770,0.053132,-0.036719,0.032107,-0.034028,-0.024156,0.030755,-0.077842,0.028504,-0.021804,-0.039710,0.048345,0.078431,0.008447,-0.034759,0.129336,-0.041634,-0.045212,0.015806,0.053943,-0.022557,0.063921,0.084059,0.036671,-0.119898,-0.136764,-0.052848,0.096831,-0.042627,-0.119426,0.012461,-0.103789,-0.001135,0.042056,0.013453,-0.042901,0.035936,0.021944,0.121144,-0.038388,0.040929,-0.009278,0.064764,-0.021175,-0.065204,-0.017308,-0.035203,-0.003750,0.054883,0.047668,-0.037969,0.009667,0.032783,0.060408,0.047420,-0.040417,-0.036746,-0.007609,0.049452,-0.030780,0.002134
0.012702,0.082818,0.017272,-0.024004,-0.030655,0.008198,-0.013957,-0.098178,0.012014,-0.016056,-0.043106,0.099704,0.130517,-0.017065,-0.048814,-0.014289,-0.049677,0.044950,0.007648,-0.024218,-0.032823,-0.024810,-0.025541,-0.029114,-0.001333,0.105927,-0.005111,-0.011445,0.010890,-0.035903,-0.010400,-0.019501,-0.018484,-0.021886,-0.010571,-0.094134,-0.094722,-0.020418,0.064716,-0.035733,-0.019576,-0.046099,-0.086303,0.034093,-0.003144,0.020515,0.095582,-0.094250,-0.012344,-0.047823,0.026221,-0.066759,0.059528,-0.056130,-0.006700,-0.039626,-0.036232,0.043173,-0.003391,0.005080,0.024318,-0.066080,-0.023813,-0.059927,-0.002771,0.014380,-0.049630,0.003171,-0.006500,0.043903,0.067564,0.006043,0.002251,-0.034468,0.079178,-0.010725,-0.018355,-0.075452,-0.083274,0.058172,-0.015284,-0.108704,-0.101681,-0.002369,-0.025080,-0.031918,-0.024148,-0.013048,-0.065428,0.040891,0.029757,0.026991,0.040571,0.015415,0.007060,0.064589
-0.028377,0.007546,-0.028421,0.006592,-0.059598,-0.076348,-0.096307,0.022103,-0.008744,-0.033291,0.045637,-0.019969,0.000051,-0.055360,-0.039218,0.054750,0.064685,0.023753,0.024306,0.045438,-0.121824,-0.050194,0.040664,-0.111166,-0.118915,-0.011331,0.092420,-0.047173,0.067895,0.058359,-0.014323,-0.013154,0.044245,0.080713,0.021552,0.025840,0.015114,0.042754,-0.037163,0.074745,-0.044331,0.124117,0.025929,-0.005121,-0.023235,-0.047030,0.054411,-0.005033,-0.021435,0.015518,-0.028759,0.067701,0.026955,0.044018,0.071894,0.086120,-0.088879,-0.061076,-0.019891,-0.168412,-0.083137,-0.006696,-0.013266,0.022126,0.032792,0.002463,-0.086774,-0.058274,-0.044915,-0.068478,-0.036338,0.140491,0.058980,-0.041066,0.040964,-0.065002,0.023251,0.037128,-0.045035,0.015443,0.029691,0.022786,-0.031850,-0.128541,0.077376,0.008511,-0.055651,0.044979,-0.015308,0.002234,-0.037382,0.081728,-0.022644,-0.100087,-0.039829,0.014915
-0.116421,-0.004831,-0.005815,0.042135,0.037500,-0.073150,0.009283,0.093857,-0.052869,0.005857,-0.019234,-0.037074,0.027511,0.040521,-0.044703,-0.006224,-0.007953,-0.027519,-0.069451,0.009735,-0.019062,-0.068054,-0.023345,0.058212,0.059448,-0.001124,-0.030961,0.038595,0.103256,-0.028279,0.034795,-0.039194,0.002872,-0.005781,-0.064896,0.037533,-0.014355,0.043370,-0.086937,0.013496,-0.024804,0.038901,0.044943,-0.026024,-0.021233,-0.021357,-0.026638,0.002331,0.070174,-0.033389,0.026644,0.003327,-0.012581,-0.025374,-0.028971,0.029133,-0.004910,0.005274,-0.069505,-0.032784,0.014925,0.086002,-0.016945,-0.055384,-0.017462,0.084991,-0.025792,0.049997,-0.024351,-0.000643,0.001436,-0.015676,0.022818,-0.041038,0.062626,-0.018848,-0.048598,0.096448,-0.002193,-0.118216,-0.016264,0.026104,0.012408,-0.013391,0.017252,0.046720,-0.031980,-0.016343,0.050057,-0.009479,-0.019424,0.028747,0.085415,0.001587,0.003707,-0.000352
0.007403,0.002777,0.064263,0.047375,0.098718,-0.047902,-0.088217,-0.055655,0.028343,0.000544,0.026502,0.001857,0.049839,0.014368,0.018922,-0.043295,-0.004941,0.045564,-0.005717,0.088039,0.053938,-0.065223,-0.069628,-0.103167,-0.067665,0.107025,-0.005555,-0.003764,0.085404,0.103903,0.043245,0.016072,0.091052,0.050937,-0.006712,-0.083273,-0.057128,0.055185,0.027834,0.018965,0.024602,0.030112,-0.036542,0.016207,-0.009646,0.022722,-0.020916,-0.101019,0.000772,-0.065007,0.046646,-0.019568,-0.032444,0.026112,0.041375,0.104389,0.038894,0.060752,-0.031434,0.010144,-0.012295,-0.032772,-0.041808,-0.002056,0.064167,0.045855,0.047813,0.036245,-0.028151,0.070365,0.176465,-0.135401,0.127664,-0.047752,-0.003757,0.040233,0.048122,-0.006825,-0.023050,-0.029606,-0.010882,-0.008863,-0.077288,0.046341,0.080677,0.018422,0.099417,-0.039045,-0.091411,-0.035730,0.048699,-0.041747,-0.148719,0.156138,0.085823,0.049933
-0.079089,-0.088623,0.068274,0.012462,0.103981,0.085982,-0.108329,-0.009531,-0.021185,0.001734,-0.012455,-0.041829,0.031871,0.034805,0.003834,0.045452,0.065067,-0.066951,-0.037022,0.068934,-0.014440,-0.024410,-0.049902,0.011706,0.044793,-0.002953,0.019164,-0.016371,0.008369,0.133833,0.083342,-0.087972,0.004392,0.038447,0.093963,0.101948,0.007497,0.122423,0.012481,-0.047050,-0.086199,-0.024682,0.094944,-0.059028,-0.005728,0.030796,-0.008332,0.009746,-0.074166,0.172582,-0.024260,0.087941,-0.068831,0.020072,-0.001879,-0.017944,-0.017518,0.003144,0.046571,0.053171,-0.096115,0.127369,-0.016829,0.039638,0.074317,0.002732,0.012662,-0.006984,-0.043448,0.041308,-0.007834,-0.057599,-0.010351,0.096859,0.056098,-0.063230,-0.056895,-0.052388,0.049750,0.042054,0.102708,0.103428,-0.008931,-0.051400,0.169338,-0.086189,-0.003079,0.033351,-0.026755,0.019672,-0.032347,0.022545,0.116322,-0.071320,0.048500,0.040881
0.075720,0.030478,-0.098030,0.006552,0.007538,0.025468,-0.055003,0.049037,-0.018259,-0.035339,-0.025263,-0.014881,0.053992,0.073051,0.007331,-0.026177,0.048365,-0.006698,-0.027440,0.101233,-0.034468,0.043079,0.024421,-0.029165,-0.040784,0.085245,-0.026286,0.054534,-0.030967,-0.036222,0.082505,0.041806,0.008390,0.026206,0.076137,-0.068507,0.051764,-0.073658,-0.032293,0.008852,-0.007548,0.053688,-0.033479,-0.004278,-0.016846,0.008405,-0.036988,0.050971,0.053098,-0.041286,-0.016827,0.016892,0.066555,-0.021136,-0.017754,0.078738,0.066530,-0.036872,0.060273,-0.005381,-0.009465,0.001386,0.021053,0.083307,0.002706,-0.042811,0.013293,0.045572,-0.004958,0.010112,0.041924,-0.028070,0.036177,-0.016286,0.019596,0.039963,-0.004190,0.006080,-0.011461,0.024789,-0.062526,-0.099961,-0.011521,-0.042055,-0.012585,0.006904,0.032368,-0.012840,0.067937,0.007675,0.013229,0.076617,-0.019742,-0.008249,0.001442,0.077109
-0.000748,0.038315,-0.060902,-0.047107,0.052209,-0.007157,-0.027629,0.013560,-0.051261,0.050504,0.025653,0.031877,-0.045220,-0.027407,0.139409,-0.044077,0.022603,0.030606,0.039180,0.099231,-0.008049,-0.108118,0.023052,0.056192,-0.079418,-0.063166,-0.001965,-0.054053,0.009157,0.096221,0.012383,-0.108727,-0.023363,-0.015236,0.043195,0.109053,0.034427,0.005939,-0.003854,0.005229,0.084521,0.003530,-0.074671,-0.060418,-0.008538,-0.000267,0.020304,-0.011165,0.028476,-0.038068,-0.047117,-0.066262,0.046722,0.004639,0.034848,-0.098084,-0.046706,-0.014846,0.037432,-0.024555,0.047792,0.018043,0.017099,0.064648,0.025548,0.008790,0.041325,0.032352,-0.001477,0.060226,0.092345,-0.079214,0.039938,0.078098,-0.086878,-0.118511,-0.022505,-0.011201,-0.000411,0.091408,-0.039943,0.024487,0.071208,-0.042993,0.060008,-0.088433,-0.047564,0.003312,0.012122,-0.020850,-0.038710,0.021509,-0.049507,-0.027797,0.030292,-0.013857
0.027199,0.012708,-0.002316,0.016948,-0.010124,0.029082,-0.016310,0.080392,-0.072515,-0.033461,-0.076416,0.033042,-0.015521,0.028203,0.059026,0.049111,0.001803,-0.057962,0.011457,-0.055649,0.047961,0.073122,-0.005211,0.052500,0.106148,-0.002775,0.158851,0.029933,0.038338,0.063428,-0.012624,-0.054486,0.072467,0.132617,0.062455,0.067191,0.046148,-0.040625,-0.143060,0.060879,0.054608,0.035050,0.073246,-0.073152,0.035010,0.046014,-0.031411,0.040368,-0.014956,0.005018,0.031312,0.095213,-0.035151,-0.065463,0.077995,0.035346,-0.016491,-0.100516,0.010411,-0.021933,0.058035,0.064809,-0.032188,-0.041805,0.097529,-0.021933,0.036004,0.157109,-0.140267,-0.136775,0.008426,-0.013337,0.144779,0.060554,0.062143,-0.068393,0.030472,-0.007708,0.028024,-0.004099,-0.000677,0.017871,-0.017479,0.050439,0.080352,0.027809,-0.008218,-0.031586,0.035906,-0.049570,-0.049507,0.023946,0.015637,0.037090,0.043996,0.010565
-0.019490,0.014055,0.054654,0.041214,0.054169,-0.169922,0.053266,-0.054769,-0.072990,-0.030012,-0.033232,0.001969,-0.074795,-0.023343,0.149681,-0.064772,0.061184,-0.007378,-0.015782,-0.101010,0.015938,0.027788,0.023364,-0.057387,0.059008,-0.015603,-0.023166,0.012285,0.097488,0.019415,0.117473,0.019590,-0.024087,0.070202,0.102389,0.083497,0.102080,-0.060733,-0.022572,0.028946,0.008828,-0.044061,0.044138,-0.140897,0.071997,-0.020924,-0.052573,-0.093432,-0.071435,-0.018604,-0.086055,-0.077638,0.067528,0.147003,-0.022480,-0.012633,-0.060414,0.009436,-0.079680,-0.116647,0.062132,0.094691,0.129743,-0.043442,0.021826,0.060120,-0.023168,0.072790,-0.045419,-0.044910,-0.068331,0.055406,0.117412,0.071665,-0.183058,-0.047256,-0.077283,-0.136940,-0.043561,-0.008672,-0.106119,0.055093,-0.006750,-0.072496,0.033121,-0.085997,-0.088002,-0.002127,-0.022689,-0.024725,-0.055777,0.048473,0.041734,0.123883,-0.014014,-0.063333
0.072165,0.049641,-0.034794,0.004654,-0.043025,0.004679,-0.037060,-0.022591,0.096228,0.024517,0.018533,0.065596,0.017221,-0.060328,-0.011487,-0.006766,0.025858,0.003806,0.039117,0.016487,0.007907,-0.029685,0.009276,-0.015686,-0.002961,-0.072242,0.036334,-0.004698,-0.022995,0.028996,0.011772,-0.008799,0.001277,-0.010473,-0.039502,0.094590,-0.031386,0.012762,0.064865,0.037758,0.032072,-0.060385,0.001348,-0.037276,-0.009721,0.025445,0.049641,-0.087804,0.063882,0.086055,-0.047694,0.036104,0.011734,0.112862,0.010755,-0.024624,-0.014211,-0.029401,0.023191,-0.086868,-0.026352,-0.003584,0.048647,-0.000526,-0.012668,-0.016507,-0.040457,-0.087211,-0.027076,-0.017755,0.055758,0.055437,0.009305,0.047166,0.029414,-0.062074,-0.026505,-0.019716,-0.035665,0.058675,0.029839,-0.023641,0.033537,0.023252,-0.023756,0.011884,0.026043,0.051879,0.023036,-0.051989,-0.014981,-0.016780,0.063589,0.029951,0.033912,-0.029433
-0.056225,-0.066536,0.050860,0.010923,0.001451,-0.016750,0.089536,0.018669,0.028949,-0.089083,-0.022212,0.073244,0.005548,-0.102887,-0.017396,0.060377,-0.130797,0.002296,0.002035,-0.011707,-0.100318,0.066244,0.052693,0.065423,-0.088445,-0.007010,-0.073151,-0.032083,0.110380,-0.001548,0.034090,0.049608,0.094981,0.008459,0.102330,-0.032080,0.067616,0.102284,-0.066188,0.117065,0.088427,0.019910,0.050176,-0.008368,-0.043819,0.027350,0.037403,-0.043108,-0.000843,0.054279,-0.114889,0.063062,-0.120518,0.077974,0.052445,-0.007973,-0.063099,-0.031057,0.015226,-0.005269,0.036782,-0.017849,0.013477,0.158378,0.046768,0.055496,-0.040877,0.029069,0.038519,0.004758,-0.009703,-0.035832,0.004160,-0.000263,0.038454,-0.080883,0.048743,-0.099082,-0.087271,0.015164,0.052705,-0.009245,-0.004676,-0.021650,0.091857,-0.088653,-0.061711,0.045384,0.142390,-0.048667,-0.041935,0.003437,-0.028895,-0.101979,0.030254,-0.066537
0.048470,0.021375,0.028404,0.030274,-0.001879,0.036945,-0.059319,0.070966,0.020288,-0.047303,0.019890,0.000440,-0.023248,0.080796,0.075029,-0.044808,-0.018262,0.003402,-0.096193,0.127602,0.040770,0.002457,-0.020341,0.003297,-0.029115,0.088009,-0.086920,0.055565,0.055937,0.071317,-0.074129,0.035766,0.048893,0.036191,0.011526,0.032929,-0.097628,-0.011190,-0.012206,-0.006293,-0.018389,-0.058000,0.003935,-0.007305,-0.076692,-0.010732,-0.009766,-0.038077,-0.031470,-0.016804,-0.016331,-0.051969,0.042605,-0.072990,0.003591,0.029240,0.046731,-0.041952,0.056187,0.036208,-0.041026,0.068138,-0.005698,0.080901,0.067781,0.074279,0.014687,0.027587,0.064378,0.010120,0.062029,-0.065530,0.028923,-0.024720,-0.005717,0.035668,0.003321,0.003573,0.044539,0.005293,0.036219,0.056129,0.036942,0.126403,0.012331,0.054786,0.039298,-0.011390,-0.025333,-0.027728,-0.019803,0.100337,0.026137,-0.071944,0.096398,0.000849
-0.059876,0.019895,-0.000286,-0.038290,-0.060673,0.021062,0.027496,-0.010829,0.091265,0.004006,-0.000054,-0.029977,-0.114099,0.067430,-0.024172,-0.063595,-0.001312,0.033086,0.020705,-0.056193,-0.119423,0.012650,-0.083562,0.065860,0.047569,-0.095851,-0.033479,-0.028634,0.058252,-0.021011,0.004194,0.006258,-0.014764,-0.011814,-0.072562,-0.062101,0.021725,-0.061550,-0.003208,0.015521,-0.007918,-0.028828,-0.012953,-0.040749,-0.015025,0.016858,-0.010190,0.051798,-0.010471,0.012332,0.031704,0.002090,0.051211,0.100147,0.027205,0.076776,0.005966,-0.021944,0.043445,-0.070497,-0.014280,-0.016396,-0.113015,-0.054030,-0.067767,-0.056909,-0.009794,0.026751,-0.064423,0.026908,0.037974,-0.046963,0.097720,-0.041533,-0.028015,0.012978,0.025124,0.084486,0.021831,0.081162,0.012214,-0.061731,0.014870,-0.000492,0.006705,0.019607,-0.079626,-0.039551,-0.038747,0.019873,0.046902,0.042865,-0.110719,-0.026238,-0.004357,0.016694
-0.090974,0.103100,-0.066896,0.026977,0.066094,-0.029337,-0.069049,0.033319,-0.010454,-0.034459,-0.017077,-0.002125,0.035104,0.089805,-0.066611,0.084061,0.037094,-0.050043,-0.018170,0.082711,0.004399,-0.039219,-0.059305,-0.045334,0.060910,0.058000,0.029111,0.052872,0.063319,-0.064451,0.000806,-0.033636,0.055195,0.064335,-0.159192,-0.026012,0.045147,0.038133,-0.030809,-0.002409,-0.081640,-0.042100,0.013533,-0.031509,0.009401,0.076579,0.001846,0.000418,-0.000149,0.071767,0.064470,0.004091,-0.031482,-0.019666,0.008295,0.032942,0.004608,-0.010016,0.013023,-0.021560,-0.053342,0.034479,-0.064037,-0.101695,0.061457,-0.016582,0.053853,-0.093517,-0.054291,-0.004685,-0.052255,-0.034274,0.055289,-0.026705,0.031128,-0.057657,0.043174,0.037563,-0.018560,-0.024525,-0.015450,-0.046200,-0.000050,-0.027208,-0.069484,-0.001858,0.007217,-0.074182,0.020964,0.002590,0.025076,0.008284,0.084114,-0.024404,-0.051338,0.016232
0.078130,-0.023296,0.155777,-0.113800,0.034364,0.136360,-0.046706,-0.033604,-0.009073,0.005000,-0.147552,0.107310,0.074583,-0.047201,-0.042318,0.029337,-0.033205,0.000225,0.031488,-0.075843,0.017515,-0.038390,-0.041556,0.027115,-0.141720,0.120616,-0.095636,-0.035159,0.110566,-0.080307,-0.059624,-0.089257,-0.038389,-0.018354,0.082522,-0.034739,-0.111690,-0.143065,0.138801,-0.123482,0.010863,0.015654,0.074969,0.161318,0.075983,0.024782,0.180334,-0.056388,0.049086,0.030273,0.092700,-0.000183,0.146558,-0.083555,-0.029301,-0.062356,-0.076413,-0.016848,-0.046979,0.034247,-0.062387,0.037293,0.104680,-0.031418,0.063768,0.029257,-0.114348,0.094199,-0.025720,0.082175,0.010410,0.080492,-0.046078,-0.020556,-0.002879,0.022126,-0.007052,-0.017787,0.006954,-0.004036,0.023193,-0.045017,-0.013480,-0.028829,-0.093820,0.061057,-0.083545,-0.124747,-0.010624,0.095656,-0.019466,0.016919,0.180431,0.046918,0.001479,-0.030019
-0.076166,-0.003022,-0.019605,-0.020770,0.066329,0.006058,0.022602,0.050597,-0.007537,0.019852,-0.011103,-0.036575,0.005566,-0.003726,0.017146,-0.071010,0.082053,-0.097885,-0.020460,-0.025355,-0.034115,0.077056,-0.021251,0.065941,0.005724,-0.097739,0.031024,-0.035279,0.009826,-0.087570,-0.061050,-0.002096,0.108298,-0.009826,-0.112288,0.038754,-0.114937,0.005883,0.012416,0.047412,0.031502,0.051475,0.070912,0.085258,0.068108,0.038216,-0.112284,0.056171,-0.008896,-0.051601,-0.025638,0.015439,0.008658,-0.068019,-0.112839,0.031663,-0.062036,-0.123401,0.106903,-0.116653,-0.024133,0.007389,0.071390,0.077053,-0.098370,0.021621,-0.055254,-0.030651,-0.049705,0.063468,0.071454,-0.135850,-0.040233,0.049895,0.015704,0.003126,-0.029071,0.048477,0.002580,-0.010389,0.037342,-0.043326,-0.047121,0.014621,-0.034532,-0.045600,0.006808,-0.050081,-0.057473,-0.086072,-0.070201,-0.009802,0.024157,0.041339,0.068305,-0.003904
-0.010805,-0.001629,-0.019810,0.066646,-0.004661,-0.051818,-0.137817,-0.081071,0.030005,-0.025157,-0.063459,0.009281,0.003616,-0.105802,-0.039870,0.010939,-0.122480,0.020242,-0.099379,-0.025612,-0.015159,0.004623,-0.031290,0.044728,0.066406,-0.018629,0.072825,-0.043348,-0.034060,0.044874,0.075174,0.045300,0.007287,-0.055201,-0.013565,0.015241,-0.048484,0.055522,0.056716,-0.027727,0.040785,0.017773,0.023262,-0.063043,-0.017640,0.037805,0.035033,0.033622,-0.023749,0.001282,-0.059585,-0.067361,-0.043283,-0.055735,-0.127644,0.012908,-0.058215,0.021753,-0.014313,-0.062035,0.014617,-0.018756,-0.041415,-0.043859,-0.032279,-0.125198,0.034890,-0.026510,-0.067152,-0.017763,0.032386,0.024044,-0.077415,-0.024406,-0.001695,0.050888,-0.048373,0.076342,0.062394,0.016884,0.123648,0.040414,-0.056199,-0.018849,0.005877,-0.002558,-0.031700,0.000322,-0.053807,-0.023185,0.071982,0.093736,-0.003074,-0.039305,-0.033293,-0.058126
0.026060,-0.025085,-0.050496,-0.048197,-0.020007,0.028659,-0.020443,-0.063351,0.006197,0.038767,0.037588,0.001967,0.015999,0.006418,-0.029734,-0.033617,-0.036205,0.064102,-0.135011,0.020088,0.051249,-0.026537,-0.027207,-0.000999,0.037593,-0.040419,-0.042695,-0.010567,-0.061059,0.012744,-0.066538,-0.020735,0.020777,0.009945,-0.090376,-0.046076,-0.008191,0.044105,-0.010514,0.089882,-0.024426,-0.072313,-0.065089,-0.067015,0.052842,0.042266,0.081274,-0.095198,-0.005036,-0.039637,-0.077148,-0.047734,-0.027671,-0.003866,0.152687,-0.027497,0.040771,0.064742,0.076080,0.018232,-0.139896,0.023000,-0.016870,-0.021080,0.002404,0.008223,-0.042218,0.052677,0.007917,-0.023747,0.042206,-0.059889,-0.027679,0.017669,0.100190,0.036659,-0.033876,-0.083191,0.002055,-0.016565,-0.018499,-0.052489,0.098200,0.002426,-0.022783,-0.059205,0.054271,-0.040753,0.047569,0.087885,0.059596,0.024023,-0.044148,0.016916,0.043007,-0.078374
-0.002934,0.019392,-0.018224,-0.011865,-0.003373,-0.051015,0.023512,0.021291,-0.057230,-0.023821,0.023190,-0.003600,-0.071510,-0.114479,0.067073,0.022850,-0.001340,0.093268,0.018592,0.082395,0.008461,0.008997,-0.016105,0.008271,-0.013226,0.009126,-0.044378,0.050303,-0.052471,-0.018501,0.021145,-0.040938,0.025783,-0.003351,-0.038678,-0.037201,0.038484,0.012471,-0.064360,-0.047687,0.001252,-0.006743,0.062317,-0.023094,-0.062276,0.018860,-0.028689,0.027005,0.029448,0.003246,-0.026459,0.001234,-0.076970,0.005164,0.038447,0.014931,0.010380,-0.097167,0.069332,0.001184,-0.019686,-0.018856,0.015578,-0.048002,0.023497,-0.000844,0.012881,0.001455,0.124691,-0.032988,-0.014010,0.038734,-0.017232,0.015381,0.042766,0.022025,0.002472,-0.008797,0.084820,0.089583,-0.053031,0.024355,-0.009254,0.057458,-0.029528,0.061078,0.005725,0.031423,0.030513,-0.041489,-0.039977,0.089634,-0.033489,0.053229,-0.032653,-0.017130
-0.026779,0.068731,0.055835,0.026989,-0.017872,-0.027527,0.027607,-0.038253,-0.003721,-0.019886,0.094332,0.016808,-0.041753,-0.008133,-0.067909,0.040830,0.003308,0.071251,-0.109233,-0.021696,0.087843,0.065214,-0.043283,0.050544,-0.003651,-0.011697,-0.084617,0.029697,-0.024253,-0.057892,0.020710,-0.028078,0.075059,0.111531,-0.044620,-0.015201,-0.019657,-0.030178,-0.095871,0.036394,-0.013758,0.066776,0.041762,0.066078,0.007536,-0.043245,-0.048505,-0.030991,-0.045099,-0.135010,-0.052322,0.005134,0.018437,-0.009326,0.042454,0.012489,-0.019330,-0.020544,0.045522,0.018535,0.010359,0.109546,0.019782,0.114443,-0.020625,-0.022775,0.002343,-0.015843,0.041844,-0.036192,0.062357,-0.088994,-0.085662,-0.012760,-0.053000,0.120793,-0.013165,-0.096870,-0.100003,0.066596,-0.039218,0.013351,0.005737,0.102720,0.020488,0.086575,0.057013,0.072571,0.001007,0.033791,-0.056299,-0.060211,0.086329,0.072048,0.083908,-0.012718
0.106708,-0.069882,0.067772,0.020035,-0.045123,-0.037304,-0.041234,-0.035069,0.000380,0.023723,-0.067203,0.057357,0.070369,-0.017062,-0.045212,0.010869,0.000141,0.025784,-0.094721,-0.045681,-0.012491,0.014512,0.009121,-0.035820,-0.015054,-0.037491,-0.084821,-0.054441,-0.071647,-0.011861,-0.027023,0.042153,0.058419,0.024450,0.038456,-0.032382,-0.017598,0.028065,0.017595,0.006352,-0.011138,-0.059904,-0.044459,-0.017796,0.003263,0.000854,-0.082151,-0.011609,0.023598,-0.053364,0.050139,-0.036698,-0.064668,-0.001161,-0.019946,-0.094609,-0.024670,0.043399,-0.004776,-0.073750,0.000145,-0.006169,-0.059362,0.053648,-0.001672,0.037188,-0.031618,-0.029017,0.090191,-0.051040,0.088437,0.065518,-0.058524,-0.011328,0.046124,-0.034533,-0.054159,-0.033833,0.004829,0.076099,0.019024,-0.019659,-0.030828,-0.036848,0.027299,0.029172,-0.021057,-0.009101,-0.031273,0.045872,-0.028938,0.029912,-0.034679,0.064578,-0.020474,-0.004893
0.116532,0.032283,0.017014,-0.029027,-0.049351,0.056463,-0.033707,-0.018410,0.007256,0.022152,-0.011464,-0.038137,-0.031259,0.005581,0.058983,0.134981,-0.010396,0.040481,-0.023831,-0.014100,-0.095463,0.080473,-0.059152,-0.001392,0.031631,0.022085,-0.097388,-0.068684,-0.036030,0.087167,-0.005867,0.067219,0.053211,0.009660,-0.033290,0.040584,-0.031287,-0.032234,0.009495,-0.096003,-0.057544,-0.055857,0.007064,-0.044580,-0.047911,-0.050864,0.024508,-0.041749,0.005319,-0.010504,-0.050916,-0.042779,-0.019324,-0.039858,-0.007735,0.016820,-0.040099,-0.046909,0.134599,-0.003452,-0.070018,0.025324,-0.043782,-0.015470,0.011697,-0.012020,-0.004072,0.049373,-0.051745,-0.030697,0.055910,0.017380,-0.000085,0.005025,-0.006442,-0.014225,-0.010717,-0.003150,0.031890,-0.021341,0.025365,0.035072,0.009266,0.014611,-0.000993,-0.013217,-0.000592,-0.014720,0.014530,0.029879,0.039870,0.054083,-0.011533,-0.085705,-0.043276,-0.037144
0.050557,0.077314,-0.010961,-0.009561,-0.060531,0.107355,0.019640,0.017784,-0.027774,-0.003493,0.053483,-0.007588,-0.045034,0.063711,-0.013018,-0.044046,0.021083,-0.002533,0.052314,0.018777,0.034137,-0.056876,-0.042321,0.008423,-0.057807,0.053041,-0.100308,-0.029180,-0.008392,-0.009587,-0.039127,0.051752,-0.000042,0.022032,-0.009808,0.020471,0.046414,-0.005001,0.007363,-0.018248,-0.094862,-0.003372,0.013685,0.055041,-0.007350,-0.037256,0.029848,-0.046435,-0.024405,-0.005790,0.002549,-0.009726,-0.004275,-0.042630,0.046625,-0.068837,0.087848,0.033053,-0.050220,0.039905,-0.011027,-0.038999,0.018743,0.035144,0.032660,0.054480,0.036570,0.001140,0.006887,0.033658,-0.019025,-0.014577,-0.008979,0.026334,0.024224,0.056283,0.037325,-0.048383,-0.000032,-0.014294,0.035932,-0.057583,-0.019993,-0.017752,-0.018213,0.013557,0.057336,0.016498,-0.044312,0.031366,-0.031079,-0.081438,-0.056144,0.005434,0.031878,-0.102610
0.047001,-0.041220,-0.005609,0.049001,-0.016540,-0.063580,-0.038465,0.009972,0.037574,-0.040987,0.010845,0.052360,-0.029296,-0.001443,0.106964,-0.009880,0.003826,-0.065595,0.004268,0.029584,-0.002147,-0.032825,-0.000269,-0.028340,-0.016964,0.066299,-0.040751,0.076066,-0.014908,0.012192,0.070657,0.049674,0.157261,0.035989,-0.028374,0.004794,0.033603,-0.061628,0.009596,-0.056975,-0.070029,-0.087896,0.020934,-0.013917,-0.046107,0.023513,-0.051943,0.023621,0.077092,0.126603,0.042515,0.013159,-0.044680,-0.068574,0.103840,-0.002718,0.070044,-0.020371,-0.089720,0.064073,-0.046665,0.027558,0.014079,0.073108,0.100647,0.062000,-0.022127,-0.021519,0.038980,0.021678,0.002945,0.026333,-0.051589,0.039620,-0.112178,-0.063702,0.063446,0.068309,-0.080430,0.073887,0.021078,0.047381,-0.069889,0.040640,0.030355,0.045570,-0.003318,0.010063,-0.016183,0.028663,-0.083027,-0.020459,0.013440,0.070613,0.092803,0.096417
-0.076086,-0.001164,0.031519,0.121492,-0.009941,-0.063956,0.093694,-0.022660,0.057064,-0.069193,0.071140,-0.023547,-0.084741,-0.029913,0.056358,0.053230,0.051946,-0.035273,0.005030,0.076823,-0.017533,0.060947,0.089821,0.087619,-0.007755,0.099220,-0.025150,-0.002794,-0.077642,-0.067506,-0.012087,-0.016888,-0.001181,-0.073259,0.057320,0.071657,0.016522,-0.012905,0.035892,-0.017001,0.052952,0.097249,-0.022325,0.000751,-0.004621,-0.050699,-0.078780,0.019955,0.014242,-0.003731,0.030837,0.044238,0.030670,-0.038876,0.045757,0.022274,0.014558,-0.046326,-0.009118,-0.012703,-0.035337,0.119442,-0.019690,-0.010690,-0.105630,-0.072516,-0.059339,0.011475,0.083508,0.044627,-0.010304,0.003852,-0.037426,0.042783,-0.003096,0.024926,-0.028557,0.016082,-0.035798,0.046294,-0.063516,0.042790,0.015026,0.006558,0.017156,-0.042713,0.014002,0.006991,-0.013404,0.027609,0.006926,0.133262,0.014018,-0.013615,0.047237,-0.010352
0.005130,0.029091,-0.049696,0.117236,-0.047884,-0.001921,-0.023270,0.040737,-0.091628,-0.050811,0.021221,0.050112,0.019250,-0.005700,-0.017542,-0.030780,0.025410,-0.052999,0.065931,-0.064868,0.012728,-0.035618,0.076541,0.031191,0.075048,0.014424,-0.019928,-0.016472,-0.009052,-0.067114,0.029522,-0.011742,-0.005469,0.014070,-0.029871,-0.003285,-0.010509,-0.059805,0.002290,0.078041,-0.018538,0.034580,0.073534,0.062546,0.012574,-0.131982,0.029628,-0.057811,-0.025328,-0.004655,0.028211,0.027344,-0.003874,0.007872,-0.036189,-0.013010,-0.026546,0.011643,0.047596,0.080497,0.015776,0.006024,-0.106032,0.055579,-0.017793,0.018191,-0.072290,0.051089,0.083119,-0.032084,0.017108,-0.007584,0.057065,-0.045190,-0.142828,0.006396,0.023024,-0.035020,0.109523,-0.056577,0.116518,0.010084,-0.015636,0.000811,-0.025295,-0.020033,0.044269,0.020297,-0.050458,-0.011979,-0.039144,0.135112,0.041593,-0.007986,-0.011561,0.040611
-0.018543,-0.042447,0.075955,0.233793,0.005193,-0.019711,0.029287,0.028248,-0.092835,0.015401,0.104697,0.108746,-0.024570,-0.062109,0.079141,0.089312,-0.065534,0.098881,-0.013055,-0.004325,0.026273,-0.048766,0.037817,0.045621,0.010958,0.059192,0.082629,0.064253,0.089212,0.071463,-0.087869,0.048611,-0.040862,0.048963,-0.011215,-0.080670,0.034829,0.049435,0.011305,-0.013215,-0.131465,0.069653,-0.056591,0.011973,0.166857,0.153407,-0.116800,0.006008,0.023592,-0.003907,-0.023031,0.018867,0.101353,-0.043327,0.129989,-0.029536,-0.025839,-0.002102,0.048249,0.114437,0.012945,0.020994,-0.136502,0.104964,-0.192123,0.013953,0.042646,0.081573,-0.021219,0.039491,0.077205,-0.011088,-0.018314,-0.049452,0.045205,-0.044789,0.049417,0.003577,-0.038451,-0.025077,0.011953,0.020924,0.080560,-0.061705,-0.032873,0.045771,-0.023787,-0.078176,-0.052120,-0.008751,0.069365,-0.018917,-0.011390,-0.080945,-0.006063,0.009195
-0.015251,-0.037638,0.020660,0.095783,-0.016902,0.010020,-0.006990,-0.029163,0.005180,-0.008357,0.108029,-0.017072,0.055458,0.027976,-0.062793,-0.003675,0.019792,-0.088338,-0.054269,0.050124,-0.043268,-0.010755,0.028091,0.010374,0.071603,-0.007903,0.030943,-0.046161,0.118464,-0.076406,-0.012376,-0.071940,0.037333,0.014409,0.085657,0.035017,0.077382,-0.021898,-0.021597,0.020632,-0.045839,0.032431,0.017963,0.015112,0.037463,0.028826,-0.094578,-0.016580,-0.038062,0.035852,-0.050310,-0.053522,0.110932,-0.048562,0.076042,0.010846,-0.037018,0.107398,0.027532,0.012265,0.056428,0.032713,0.008298,0.095802,-0.215564,-0.058511,-0.010149,0.015513,-0.079919,-0.009934,-0.031214,-0.063476,0.003154,0.022874,-0.005909,0.052037,-0.106303,-0.026943,0.002291,0.125703,0.088208,0.030469,0.014931,0.026749,-0.019761,0.035842,0.034651,-0.054602,0.028885,0.030372,0.018618,-0.003053,0.000642,-0.012892,-0.066154,-0.009169
0.047485,-0.066487,0.067670,-0.042178,-0.037539,-0.032291,-0.058353,-0.045004,-0.020898,0.012293,-0.019741,0.036184,0.022823,0.011006,0.064561,0.002421,0.057276,0.036819,-0.052226,0.018525,-0.003767,-0.000810,0.030804,-0.061356,-0.013774,-0.034727,0.051385,0.039839,-0.030857,0.040537,0.017601,-0.002305,-0.032558,0.018059,0.041101,0.055752,-0.061799,0.038311,0.037108,0.032841,-0.005396,-0.030554,-0.039435,-0.026191,-0.019343,-0.000174,0.017967,-0.013420,0.001468,-0.004108,-0.039992,0.084947,0.063009,0.067502,0.067297,0.051397,-0.066371,-0.119890,-0.003416,-0.049053,-0.002335,-0.017128,0.003416,-0.033073,-0.015498,-0.057803,-0.138129,0.113996,-0.056299,0.033090,0.018980,-0.040658,0.081107,0.042536,-0.041632,0.007568,0.054303,-0.000132,0.056666,0.026800,-0.061644,0.011976,-0.056461,0.010060,0.026563,-0.080018,-0.048014,0.063445,0.071017,-0.084704,0.004659,0.084870,-0.030297,0.034396,0.017129,-0.020259
0.017237,0.033165,0.006099,0.041599,0.082973,-0.047489,0.058744,-0.034470,-0.035888,0.005028,0.079452,0.017928,-0.070888,0.031004,0.008582,-0.021860,-0.071472,0.002518,-0.038098,0.035025,-0.027848,-0.019685,0.026278,0.074246,-0.058470,0.073220,0.018780,0.033392,-0.056656,-0.057410,-0.019158,-0.072761,0.151047,0.043469,0.026692,-0.011726,-0.004881,-0.009309,-0.062288,-0.030617,-0.068045,0.068914,-0.088489,0.019175,0.006833,-0.032317,-0.026991,0.046373,-0.106721,0.054709,0.025347,-0.090887,0.027432,0.057901,-0.081616,-0.019294,-0.110722,0.027995,0.040774,-0.007520,-0.033506,-0.043018,0.071175,0.059493,0.003260,0.008447,0.003653,-0.050472,-0.036179,-0.084519,0.062260,-0.094596,0.054098,0.091183,0.014443,-0.041823,0.030070,0.076295,0.028119,0.070648,0.015480,0.038378,0.012168,0.047327,0.075092,0.112145,-0.052548,-0.125744,-0.020515,-0.011000,-0.085179,0.017177,-0.068049,-0.036367,0.005771,-0.013131
0.025824,0.038626,-0.094213,-0.029636,0.078694,-0.050009,0.050736,-0.024613,-0.050593,0.052781,0.102780,0.031151,-0.021695,0.026473,-0.004518,0.031558,0.106791,0.005566,-0.003482,0.004643,0.056530,0.016201,-0.014420,-0.095754,0.110583,0.018466,0.003284,-0.031006,-0.012492,-0.026524,-0.012490,-0.027309,-0.040154,0.066287,0.007574,0.056431,-0.043525,0.105196,-0.016604,0.019487,-0.104332,-0.052100,0.074750,0.062497,-0.029925,-0.061648,0.019603,-0.053145,-0.020047,-0.009808,0.022825,0.034134,0.034334,-0.010453,-0.031295,-0.001100,-0.032469,-0.082714,0.027869,0.065252,0.076389,0.013980,-0.053492,-0.018450,0.009117,0.026542,-0.055416,-0.051676,0.012874,0.048086,-0.015318,0.002702,-0.083614,0.088172,0.024783,-0.061829,-0.000394,-0.104248,-0.039113,0.048098,0.027933,-0.015609,-0.073442,-0.067551,-0.034809,0.011013,-0.027098,-0.094682,-0.027416,0.024757,-0.000355,-0.019033,0.022096,0.013572,0.063197,-0.012922
0.004663,0.001301,0.003988,0.006027,0.004742,-0.003626,-0.005434,0.005387,0.013802,-0.004260,-0.009431,0.012458,-0.003881,-0.000357,-0.008916,-0.011369,0.005830,0.009123,0.003518,-0.012213,0.003895,-0.000753,-0.010768,-0.007594,-0.001832,0.002742,-0.005574,0.001333,-0.008581,0.005055,-0.000859,0.010150,-0.007897,-0.005299,-0.001823,0.002374,0.001694,-0.006921,0.000345,-0.002231,0.000543,-0.005088,-0.001856,0.008564,-0.002162,0.008753,-0.002712,0.011310,-0.000736,0.006417,-0.006678,-0.006205,0.003902,0.003290,0.005077,0.000280,0.019685,-0.002297,0.004080,-0.000235,-0.007611,-0.003182,0.006546,-0.003678,0.011701,-0.008025,0.002456,-0.002935,-0.002744,0.006648,0.000376,-0.000797,0.005506,-0.008499,-0.008298,-0.001647,0.014851,-0.000375,-0.005754,-0.000491,0.002706,-0.004720,-0.003958,0.000431,0.000442,-0.001941,-0.002988,0.010640,0.008103,-0.006920,-0.013117,-0.001674,-0.000384,-0.006780,-0.001507,0.006397
-0.006180,-0.001832,0.001659,0.003821,0.004829,0.013647,0.012717,-0.007804,-0.004042,-0.012085,0.004349,0.003591,-0.007553,0.002125,-0.001465,-0.007067,-0.013504,-0.000747,-0.010827,0.013608,0.001627,0.007679,0.009191,-0.012442,-0.003207,-0.007432,-0.017987,-0.018974,-0.007358,0.003946,-0.001230,0.012474,-0.005539,0.005831,0.004092,-0.020013,-0.001247,0.011355,-0.023897,0.005013,-0.006282,-0.014462,-0.014229,0.004673,-0.016928,-0.009497,-0.007398,-0.010677,0.021060,-0.011965,0.004426,-0.000067,-0.007292,0.002567,-0.021215,-0.009391,-0.017334,-0.013599,0.016408,0.002264,0.000364,0.007070,-0.005987,0.025663,0.006679,0.001475,-0.008892,0.014401,0.001641,-0.017412,0.001335,0.011710,0.009114,-0.010706,0.013795,0.010636,0.022030,0.010506,-0.014357,-0.003484,0.000470,0.004908,-0.001052,0.002494,-0.003851,0.002936,0.014201,0.019784,0.012546,0.010790,-0.003996,-0.000076,-0.002163,-0.020302,0.015028,0.003278
-0.019952,0.017932,0.031904,0.118177,0.072181,-0.030936,0.075696,-0.100728,0.040159,0.034800,0.019394,0.030431,-0.084482,-0.093254,0.059179,-0.065669,-0.097376,-0.085900,0.028223,-0.085806,-0.092003,0.039812,-0.008697,0.067777,-0.019261,0.037358,0.075089,-0.042823,-0.097105,-0.013100,-0.037983,-0.042435,0.022109,0.018584,0.052729,0.078692,0.019519,0.016345,0.097811,-0.022398,0.031226,0.061126,-0.028711,-0.009525,-0.032627,0.001524,0.002559,0.073297,0.007945,0.026010,-0.059118,-0.002680,-0.057734,0.042725,-0.061284,0.037984,-0.124289,0.012119,0.060225,-0.023452,-0.047287,-0.006727,0.093982,0.026354,-0.055565,-0.021166,0.022676,-0.074071,0.033579,-0.037814,-0.033061,0.025917,0.023786,-0.016345,-0.006285,0.068130,-0.069865,-0.017011,0.075761,-0.006241,0.033214,-0.044935,0.011188,-0.015121,0.098329,0.049845,-0.090791,-0.048957,-0.042988,-0.004209,-0.143573,-0.059884,-0.135734,0.023017,-0.051716,0.101751
-0.019772,-0.023037,-0.001201,-0.056909,0.015257,0.054199,-0.024161,-0.064020,-0.048544,-0.008458,0.072363,0.020254,0.018544,-0.062667,-0.033191,0.011262,-0.013766,0.036051,0.026734,-0.065304,0.041871,0.012555,-0.014981,-0.046543,0.031760,-0.044449,-0.020093,0.042955,0.002124,-0.007137,0.051720,0.056040,0.034993,0.042101,-0.062391,-0.008645,0.094124,-0.002348,0.064147,-0.045812,0.049567,-0.013929,0.015848,-0.008199,-0.029768,-0.055099,-0.012869,-0.013001,-0.046623,0.006962,0.050466,0.031121,0.101603,-0.027458,0.042907,0.028844,0.064410,-0.005562,0.047639,-0.051793,0.049883,-0.050513,0.025721,0.012368,0.033288,-0.011079,-0.043838,-0.043459,0.036421,-0.045424,-0.030720,0.049823,0.039162,0.045868,-0.024357,-0.160498,0.041225,0.009428,0.034918,-0.172924,0.108762,-0.031101,0.013405,0.031540,-0.025345,-0.009686,-0.027052,0.119614,-0.040518,-0.083435,0.006799,-0.024577,0.070061,-0.017678,0.079559,0.039245
-0.036250,-0.002937,-0.121432,-0.032602,0.031313,0.060364,0.044869,-0.121992,0.066561,0.012132,-0.006529,0.080411,-0.044688,-0.055931,0.104903,0.035606,-0.019066,-0.065197,0.012118,-0.005806,-0.015793,0.071227,-0.001275,0.015121,0.038649,-0.054778,-0.078674,-0.091127,0.008516,-0.019254,0.045060,0.045321,0.093703,0.086143,-0.034016,0.023141,-0.011008,-0.000706,-0.026331,-0.058465,-0.064740,-0.005084,-0.090876,0.001219,0.042573,-0.034209,0.017684,0.005349,0.062956,0.039036,0.011940,-0.038139,0.017947,-0.076836,-0.053383,-0.095925,0.002145,-0.081948,0.113406,0.033419,-0.025660,0.036944,0.025302,0.105973,-0.036377,-0.046880,-0.053799,0.078261,-0.164023,0.007874,-0.082909,-0.005534,-0.003968,-0.100184,0.064141,0.056892,-0.004853,0.110300,0.020981,-0.078374,-0.055691,0.069197,-0.027130,-0.031063,0.038186,0.046738,0.006372,0.081505,0.011080,-0.003425,-0.010269,0.072434,-0.004271,-0.060562,-0.058968,-0.074156
0.053246,-0.042749,-0.047084,-0.031828,-0.011296,0.064370,0.121181,0.005463,0.013155,-0.047087,0.032460,0.053312,-0.039319,-0.064192,0.026717,-0.017287,-0.031707,0.032634,0.016756,-0.024821,-0.034660,0.002947,0.048228,0.124761,0.058024,-0.075144,0.040023,0.072125,-0.093053,0.082829,0.101889,-0.063203,0.120047,-0.096854,0.003226,0.061836,0.043373,0.114885,-0.009457,0.023199,0.008803,-0.006468,-0.018070,-0.023710,0.087365,0.024491,-0.002818,0.060583,-0.004214,0.076699,-0.031102,0.043204,-0.031901,0.061323,-0.135664,-0.070475,-0.052447,0.087834,0.043978,-0.187615,0.047426,-0.002339,0.010639,0.127390,-0.040459,-0.004364,0.008402,0.032100,-0.024992,-0.058689,0.106797,0.023255,0.012203,-0.084459,-0.002013,-0.035949,-0.045113,0.048831,0.033136,0.027102,-0.033324,-0.052443,-0.070688,0.076399,0.028467,0.007493,0.064900,-0.060992,-0.071462,-0.004169,-0.040317,-0.080265,-0.012765,0.015456,-0.027903,0.023225
0.007483,-0.064851,0.005989,0.072392,0.016562,0.039626,-0.001391,0.031774,-0.057211,0.045586,0.048774,0.062398,0.051557,0.040457,-0.000508,-0.075939,-0.012357,0.040033,-0.028067,0.062144,0.094158,0.069523,-0.003729,-0.018222,-0.088607,-0.049341,0.032524,0.045126,0.048463,-0.009940,-0.010011,-0.029651,0.059144,-0.048425,-0.069502,0.091582,0.088123,-0.019850,0.089301,0.008987,0.020904,0.052312,0.031071,-0.017170,0.034154,0.000003,-0.001272,-0.103516,-0.045841,-0.118707,-0.040788,0.004457,-0.006272,0.072653,-0.139485,0.166282,0.045412,0.016731,-0.007637,-0.008742,-0.014196,-0.099701,-0.046956,-0.037909,0.038021,0.006874,-0.002733,0.005994,-0.082508,0.034394,0.014261,-0.087502,0.031656,-0.051967,0.124882,0.035540,-0.110723,-0.004033,-0.112773,-0.060481,0.001699,0.041561,-0.004316,0.061501,0.074040,-0.090688,-0.049864,-0.022184,0.010491,0.037342,0.070133,0.047716,0.034441,0.107653,-0.049200,-0.084223
0.003618,-0.032208,0.013370,0.097848,0.064701,0.028949,-0.034140,-0.123528,-0.035465,-0.060213,0.011805,0.046504,-0.048715,0.066529,0.044768,0.023975,0.103352,-0.036501,0.088326,0.071429,-0.007261,-0.036970,-0.027049,0.008500,0.016265,0.069889,0.013035,-0.033636,-0.031914,-0.112129,-0.057666,-0.034424,-0.047778,-0.024092,-0.061493,0.052057,0.011153,-0.047894,-0.087686,0.053191,0.057508,-0.005007,0.031499,-0.012374,-0.027927,-0.021127,-0.080985,0.049042,0.039966,-0.009825,0.075655,0.042433,-0.011704,0.053655,0.022951,-0.032628,-0.054449,0.074918,0.044308,0.128348,-0.134974,-0.010617,0.044930,-0.038009,-0.040242,-0.063548,-0.036486,0.004132,0.047370,0.013132,-0.008344,0.069207,0.004704,0.003022,-0.084211,-0.038579,-0.013298,0.015195,0.046375,0.031163,0.009543,0.022072,-0.028620,0.015004,-0.029662,-0.008230,-0.053933,0.029520,0.027584,0.002393,-0.019911,0.101934,0.013886,0.018445,0.052653,-0.026484
0.101879,0.036243,0.006596,0.029095,-0.090855,0.074914,0.012560,-0.096735,0.026633,0.067999,-0.016459,0.033710,0.015703,0.043202,-0.019727,0.003042,-0.077180,0.021472,0.025361,0.030580,0.000540,-0.012767,-0.054581,-0.029469,-0.073308,-0.002177,0.009952,-0.079054,-0.005543,-0.018262,0.013532,0.026562,-0.003360,0.070365,0.037363,0.052681,0.030858,0.010530,0.040332,-0.011856,0.055406,0.070035,0.085655,-0.005373,0.025140,-0.024093,0.042307,-0.020632,-0.026320,-0.019777,-0.045587,-0.058421,-0.006867,-0.001670,-0.007201,-0.024551,0.025177,0.010525,-0.004539,-0.093348,0.001696,-0.084503,0.048483,0.043583,-0.063182,-0.019416,0.017007,-0.010766,-0.033866,-0.016721,0.012805,-0.038431,0.034083,0.057315,-0.056720,0.001063,0.025908,-0.059980,-0.028856,0.107761,0.041751,-0.047022,-0.033306,0.030400,-0.022531,-0.027691,0.033357,-0.040420,-0.123174,0.079923,-0.010334,-0.016119,0.016291,0.070433,-0.042664,-0.079870
-0.086223,-0.021723,-0.074371,-0.041135,0.018563,-0.024544,-0.031527,-0.000984,-0.010027,-0.045359,0.033393,0.006766,-0.003677,0.010481,0.117722,0.009268,-0.054362,0.019201,0.044273,0.041193,0.009974,0.036049,-0.052200,-0.022634,-0.008411,-0.017633,0.041328,-0.026724,-0.040713,0.069488,-0.053506,0.032268,-0.016026,0.062282,-0.009832,-0.024842,0.003105,0.009376,-0.004953,0.018648,0.120703,0.069921,0.026337,0.023653,0.112899,0.022183,-0.028498,-0.045127,-0.022917,0.064799,-0.032380,0.036896,0.071550,0.045211,-0.044044,0.091173,0.012464,-0.011920,-0.020417,0.032411,0.065138,-0.021368,0.021491,0.031863,0.064511,-0.024662,0.023653,0.023908,-0.036607,0.038388,-0.004711,0.003550,0.024877,0.045388,-0.044193,0.061321,0.040696,0.085314,-0.022024,0.092569,0.026342,-0.009714,-0.059517,-0.066863,0.150244,0.004724,0.004971,-0.007215,-0.028067,0.018518,-0.008287,-0.038027,0.120653,-0.075542,-0.025945,0.034218
-0.071934,0.003910,-0.007562,0.027372,-0.082049,0.070266,-0.073800,0.000235,-0.108195,-0.025934,-0.061723,0.027612,0.073614,-0.072412,0.038571,-0.025394,-0.066998,-0.111636,-0.064558,0.024505,0.073808,0.010202,0.063415,-0.046235,0.042698,0.033724,-0.058453,-0.055215,-0.082832,-0.024393,0.032288,-0.020315,0.079229,-0.052906,-0.010410,-0.046035,0.027567,0.036257,-0.010219,0.061881,-0.063271,-0.051034,0.042016,-0.097822,-0.042541,-0.050691,-0.068745,0.051151,-0.020925,-0.075586,0.011387,-0.038395,-0.022382,0.018231,-0.007806,-0.002513,-0.049906,0.073457,-0.030382,0.064142,0.030322,-0.026605,-0.003816,0.094927,0.000453,-0.049247,0.139006,-0.008172,0.031516,-0.066736,0.141083,0.018373,-0.037074,-0.029471,-0.037268,0.092332,0.049267,-0.078749,-0.008841,-0.034286,-0.039629,-0.016470,-0.006743,-0.103329,0.051290,-0.013159,-0.009921,-0.026823,0.055891,0.049762,-0.010759,-0.061126,0.053367,-0.089130,0.032311,-0.007764
-0.022109,0.001396,-0.012103,0.010352,-0.030610,-0.078194,-0.023854,0.030766,0.063643,-0.011100,-0.004452,0.090444,-0.000447,-0.048577,-0.080062,-0.005860,0.062158,0.042108,-0.003170,-0.000215,0.000418,-0.074834,0.046784,-0.071460,-0.022953,0.047199,-0.030372,0.056433,0.102322,-0.012314,0.114895,0.032773,0.105222,-0.062874,0.002629,-0.011324,0.027969,0.032576,0.014659,0.020073,-0.066452,-0.007857,0.033813,-0.003987,-0.085338,-0.095186,0.045094,-0.040295,-0.010245,-0.006590,-0.101090,0.041824,0.010251,-0.039296,-0.073197,-0.087668,0.131095,-0.004073,0.012178,-0.032418,-0.060907,-0.057995,0.057815,-0.055794,-0.046256,0.016390,-0.051222,0.003219,0.022796,0.013111,-0.062610,0.076486,0.045832,-0.047246,-0.064960,-0.045852,0.046687,-0.019069,0.006821,-0.002243,0.074936,0.044233,-0.025195,-0.011100,-0.015455,0.034687,0.033480,-0.049040,0.020111,0.015556,0.033056,0.026228,-0.015206,-0.046152,-0.049403,0.009106
0.033778,-0.054479,0.043405,-0.003314,0.083133,-0.027847,-0.003817,-0.004227,0.089222,0.043903,0.009440,-0.070678,-0.024904,-0.048790,-0.058845,0.045990,0.021275,0.020196,-0.010354,0.107096,0.024799,-0.006456,0.014782,-0.021453,0.101315,0.026769,0.028320,0.004707,-0.018992,0.010439,0.038200,0.006002,0.014509,-0.027756,0.047684,-0.001824,0.039859,0.012417,-0.026514,-0.017264,-0.015896,0.023550,-0.043954,-0.058607,0.021666,-0.024489,0.030811,-0.098856,-0.116996,0.040270,-0.088172,-0.123268,-0.080180,-0.015764,0.011183,0.018966,0.067191,0.009361,-0.007110,0.003576,0.037408,-0.072136,-0.032732,-0.023175,-0.008279,-0.098366,-0.063988,0.009833,-0.001508,0.078768,-0.071650,0.031682,-0.071336,0.046163,-0.026322,-0.072458,-0.002205,0.095710,-0.031494,0.002333,0.042402,-0.096911,-0.090153,-0.034893,0.006087,0.028301,-0.040121,-0.070872,0.014715,-0.023326,-0.038174,-0.040120,0.077498,-0.001781,-0.031762,-0.051833
0.034734,-0.036573,-0.056809,-0.051141,-0.041685,-0.044139,-0.017097,-0.020023,-0.039978,0.029772,-0.046485,-0.023431,-0.022996,-0.058958,-0.068103,-0.100142,0.000009,-0.026857,-0.062828,-0.031391,-0.030040,-0.006548,-0.047323,-0.056743,0.036211,-0.076900,0.020983,0.047188,-0.029725,-0.050619,-0.044979,-0.001872,0.033293,-0.044634,-0.001957,-0.072926,-0.070294,-0.022063,0.008437,-0.046859,-0.114226,-0.011911,-0.002867,-0.098130,0.016846,0.028030,-0.032027,-0.050816,0.007734,-0.003004,-0.048623,0.007218,0.004357,-0.043774,-0.007142,-0.028570,0.016102,-0.027034,0.029543,-0.055202,0.024307,-0.028094,-0.052050,-0.007621,-0.004414,0.011278,0.043561,-0.003510,-0.039288,-0.093134,0.107733,0.004286,-0.032908,-0.044861,-0.037742,0.054683,-0.092531,-0.061970,0.056817,0.001657,-0.082175,-0.099341,-0.003991,0.038964,0.007095,0.081719,0.026540,-0.064033,-0.007196,-0.000778,0.077800,-0.055017,-0.026679,0.009236,-0.068193,0.034871
0.017365,0.172716,0.009061,0.023819,-0.029340,-0.026876,0.082918,-0.044338,-0.021729,0.026536,0.162412,0.025288,0.058235,-0.045868,0.029638,-0.062459,0.111642,-0.105151,-0.045717,0.035376,-0.040020,0.020942,0.054041,-0.090878,0.050766,-0.016761,0.052473,0.056991,-0.003393,-0.072453,-0.141553,-0.132114,-0.022272,0.139436,0.074843,0.049120,0.048307,-0.024988,0.002778,0.003844,0.024528,0.016599,0.016273,0.103588,-0.004833,0.031650,-0.061822,0.119585,-0.030645,-0.035131,-0.081622,-0.117118,-0.058857,0.028719,-0.001504,0.051142,-0.048759,0.095649,-0.046395,0.011700,-0.097324,0.060637,0.145499,0.000156,0.048649,-0.008756,0.002951,0.045011,-0.022361,-0.034332,-0.071914,0.063134,-0.005682,0.015640,0.038139,-0.046697,0.131487,-0.038644,-0.115957,0.079729,0.030154,0.104346,-0.037076,-0.062149,0.054280,0.011841,0.046596,-0.006695,0.034824,-0.021136,0.104782,-0.053854,0.039792,0.014881,-0.061605,-0.001896
-0.017646,0.112006,0.027043,-0.015420,-0.060829,0.046630,-0.029761,-0.068207,0.023718,-0.040720,-0.016966,0.077682,0.026161,-0.007582,-0.040277,0.102360,-0.030088,-0.030646,0.015792,-0.084467,-0.081003,0.052976,0.016875,-0.004743,-0.015828,0.074886,0.028374,-0.074519,0.011404,-0.072759,0.045492,0.037856,0.048539,-0.046973,-0.029127,-0.082158,-0.059776,-0.000597,0.027178,-0.008096,0.046860,-0.058132,-0.023710,0.092093,0.037267,0.049227,0.084572,0.017651,-0.042705,-0.024116,0.001655,0.034252,0.014752,-0.062624,0.050030,-0.046839,-0.104621,0.018930,0.024436,0.015731,-0.035434,0.001132,0.056930,-0.012666,-0.019332,-0.013192,0.013834,0.001198,-0.018145,0.010683,0.055636,-0.039424,0.007939,-0.067108,-0.006944,-0.008437,-0.029118,-0.051689,-0.036783,-0.011835,-0.053131,-0.054954,0.002516,-0.030192,-0.016034,-0.048871,0.052114,0.041923,-0.000461,0.017260,0.069633,0.031522,-0.009994,-0.032402,-0.083205,-0.020503
-0.060401,0.009593,-0.041733,-0.042159,0.053199,0.025671,-0.044401,0.019403,-0.004011,0.042306,0.094855,0.119262,-0.024700,0.055080,-0.033353,0.076444,-0.023495,-0.034788,-0.076645,0.050976,0.103174,0.006072,-0.013867,0.066161,-0.075269,0.031969,0.003599,-0.098025,0.031108,-0.048411,0.033882,-0.050320,0.040555,0.149096,-0.003783,-0.008139,-0.010316,0.048460,0.008623,0.113599,-0.070170,-0.134600,-0.008532,0.051539,-0.077529,0.079229,0.049158,0.096094,-0.045298,0.054519,0.002474,0.052256,-0.102227,-0.036464,0.057670,-0.114086,0.081603,-0.055396,0.005565,0.074055,-0.094667,0.057143,0.052473,0.012621,0.053675,-0.058236,0.028567,-0.020901,-0.004307,-0.050900,0.082103,-0.000435,-0.108431,-0.030501,0.014766,-0.096379,-0.084056,-0.092380,-0.007544,-0.018170,-0.033970,0.102543,0.063970,-0.105732,0.094916,-0.073532,0.022244,-0.004152,0.019045,-0.009976,-0.003014,-0.077849,-0.094749,0.043459,0.000509,0.052460
-0.006334,-0.023426,0.035192,0.108160,0.046917,-0.018270,-0.124464,0.048275,0.051670,0.020296,0.018266,0.077417,0.052419,0.012341,-0.062530,0.043680,-0.045789,0.041269,-0.070666,-0.042652,0.031860,-0.041118,-0.027260,-0.066557,-0.028122,0.044150,-0.082984,0.015406,-0.000520,0.009689,0.089510,0.021410,0.047742,-0.013227,0.009822,-0.011007,0.035881,0.002622,-0.050823,0.010634,0.045176,-0.062417,0.016124,0.069197,-0.040416,-0.026873,0.065168,-0.069593,-0.051174,-0.021912,-0.020762,-0.150986,-0.018107,-0.065998,0.077406,0.015887,0.020491,-0.090987,-0.065832,0.035695,-0.032184,-0.041465,0.082239,-0.024321,-0.077782,-0.021726,-0.017339,0.005611,0.003956,0.028902,0.056460,-0.056840,-0.034529,-0.057962,-0.014498,-0.038356,0.078280,-0.071420,-0.038089,-0.039954,0.028341,-0.011257,0.041761,0.050000,-0.027663,0.117601,0.061258,0.077854,-0.070049,0.022295,0.023379,-0.015737,0.020150,-0.034359,0.004623,0.001063
0.094038,0.035658,0.045890,-0.013751,0.008841,-0.042887,-0.013310,-0.048748,-0.026876,-0.018917,0.045830,0.029915,-0.012933,-0.003536,-0.056198,0.068666,-0.005417,0.030037,0.032199,-0.018827,0.009852,-0.005363,-0.000785,-0.004102,0.106429,-0.051529,0.002240,0.019471,-0.069399,-0.019840,-0.085211,-0.076850,0.048904,-0.020961,-0.057866,-0.014239,-0.084349,0.031811,-0.042675,0.027224,-0.042400,0.087514,-0.046297,-0.086954,-0.018008,0.015169,-0.005545,-0.017755,-0.019023,-0.095643,-0.009403,-0.048162,-0.028901,0.021454,0.023587,0.067104,-0.068193,0.080710,0.067850,0.025414,0.086425,-0.002882,-0.055241,-0.128669,-0.059891,-0.040119,0.113772,-0.049603,0.011971,0.141733,0.030734,-0.113831,-0.015968,0.017690,-0.039377,-0.001783,0.048561,-0.054797,-0.047011,0.034442,0.004378,-0.037036,0.023488,0.133861,0.033395,-0.027374,0.049506,0.020961,-0.051365,-0.048613,0.083029,-0.066135,-0.118185,0.025509,0.037945,-0.043883
0.041784,0.041147,-0.020420,-0.008940,-0.010073,-0.030572,-0.093844,0.046731,0.024774,-0.017830,-0.059902,0.026786,0.096252,-0.019662,-0.044304,0.018750,0.080985,0.057966,0.000608,0.024109,0.028941,0.065213,-0.028232,0.020144,0.068669,0.000482,-0.029556,0.010322,-0.031800,0.009271,0.011611,0.025061,-0.020184,-0.022026,0.018888,-0.032329,-0.081693,0.014323,0.066637,-0.062633,-0.077212,-0.054927,0.003750,-0.049914,-0.011732,-0.019188,-0.075197,-0.005328,0.003035,-0.052684,0.007634,-0.007017,0.021955,-0.002809,0.015648,-0.010357,0.052047,-0.004372,-0.038635,-0.019454,0.068644,0.008677,-0.014593,-0.069160,0.016184,-0.001174,0.037318,0.013718,-0.030197,0.023305,0.047471,0.070490,-0.026432,-0.039244,0.072125,-0.070416,-0.017504,0.033467,0.014598,0.053125,0.039710,-0.059343,-0.040654,-0.024506,-0.031194,-0.014787,0.055607,0.041266,-0.003113,0.022621,0.039684,0.014642,0.017713,-0.070810,0.053417,0.032488
