-0.024239,-0.053624,-0.045688,-0.050652,-0.073210,-0.078381,-0.044709,-0.069413,-0.070786
-0.023212,-0.065111,-0.048622,-0.066521,-0.117394,-0.093316,-0.047405,-0.084461,-0.068793
0.040535,0.098718,0.066316,0.089253,0.184933,0.134200,0.058469,0.126213,0.101125
0.037057,0.076967,0.055490,0.062085,0.140968,0.104134,0.038624,0.096390,0.072328
0.035969,0.075578,0.052800,0.062526,0.138474,0.098001,0.035237,0.086478,0.065742
-0.018975,-0.051528,-0.044436,-0.048910,-0.091260,-0.074778,-0.040046,-0.078732,-0.059212
0.022618,0.049701,0.043572,0.059634,0.111859,0.079765,0.044799,0.086730,0.060486
0.051555,0.108957,0.084533,0.097659,0.178386,0.129240,0.066509,0.113284,0.080021
0.021974,0.073613,0.056383,0.066114,0.137173,0.103504,0.052802,0.089177,0.065751
0.040002,0.073153,0.053322,0.074144,0.144545,0.098796,0.046736,0.098574,0.069430
0.034123,0.091892,0.072576,0.072345,0.149103,0.116589,0.057788,0.118557,0.084221
-0.025517,-0.077529,-0.049653,-0.052515,-0.095986,-0.075122,-0.034738,-0.064733,-0.048367
0.039393,0.082632,0.060836,0.081769,0.144283,0.098343,0.054828,0.098197,0.076217
-0.022199,-0.048512,-0.036998,-0.053304,-0.101927,-0.075779,-0.036817,-0.084758,-0.057271
0.023809,0.058104,0.037066,0.050711,0.119531,0.084501,0.039897,0.098246,0.073985
0.042919,0.084956,0.054251,0.070181,0.135023,0.094895,0.044906,0.092467,0.068230
-0.030050,-0.051095,-0.049831,-0.048363,-0.076082,-0.075328,-0.036551,-0.067266,-0.058357
-0.022710,-0.059736,-0.048065,-0.050196,-0.114496,-0.086348,-0.038665,-0.088220,-0.064306
0.030956,0.081998,0.064082,0.067037,0.145687,0.108261,0.047426,0.094152,0.068959
0.030387,0.059251,0.044984,0.060148,0.155328,0.120252,0.046124,0.124630,0.090358
-0.034335,-0.057524,-0.037351,-0.069104,-0.122098,-0.082007,-0.043095,-0.090094,-0.060398
0.029839,0.073255,0.049606,0.076890,0.145879,0.098844,0.053985,0.091044,0.065755
-0.022330,-0.061633,-0.046262,-0.057766,-0.119581,-0.086424,-0.052201,-0.094750,-0.063921
0.037879,0.069574,0.053506,0.073507,0.136294,0.097883,0.057166,0.108238,0.081017
-0.034566,-0.054950,-0.047735,-0.058275,-0.102277,-0.084620,-0.033280,-0.072809,-0.058630
-0.011356,-0.051300,-0.035316,-0.047647,-0.114180,-0.082983,-0.028866,-0.092740,-0.075651
0.030428,0.075340,0.051052,0.068599,0.123741,0.089376,0.043315,0.080492,0.058767
-0.026663,-0.057988,-0.043766,-0.056066,-0.107037,-0.073127,-0.041519,-0.075976,-0.047558
0.024916,0.076989,0.053135,0.070469,0.155254,0.107904,0.053078,0.101830,0.068750
0.036123,0.080645,0.059792,0.070440,0.149407,0.105908,0.040133,0.096067,0.070403
-0.043482,-0.069354,-0.050815,-0.060630,-0.115881,-0.082379,-0.034343,-0.078424,-0.057388
-0.035434,-0.042335,-0.045866,-0.047975,-0.073209,-0.081453,-0.047998,-0.071219,-0.077989
0.031980,0.067629,0.046892,0.059750,0.135062,0.102478,0.046181,0.095396,0.069379
0.041202,0.085014,0.057776,0.074438,0.148065,0.107640,0.048644,0.106089,0.083780
0.028000,0.067045,0.049769,0.062042,0.148113,0.109832,0.046131,0.103704,0.074113
-0.024166,-0.047238,-0.038741,-0.050252,-0.097494,-0.080380,-0.032649,-0.077081,-0.058093
-0.023726,-0.057505,-0.050737,-0.061085,-0.110111,-0.085505,-0.042675,-0.074523,-0.057235
0.037782,0.074418,0.049451,0.074485,0.153091,0.098899,0.046034,0.093142,0.064744
-0.028937,-0.055688,-0.042622,-0.054982,-0.114058,-0.094023,-0.049495,-0.094627,-0.067398
-0.028375,-0.056860,-0.043236,-0.055733,-0.110520,-0.077233,-0.047003,-0.083882,-0.050432
-0.009805,-0.037179,-0.030517,-0.047700,-0.106079,-0.085512,-0.043599,-0.089903,-0.076837
0.043195,0.084326,0.063500,0.083976,0.152182,0.112820,0.057798,0.103257,0.076164
0.039047,0.078311,0.049960,0.071175,0.135232,0.091018,0.048974,0.101630,0.067488
0.032199,0.060437,0.045903,0.064018,0.138654,0.099431,0.038082,0.099240,0.074664
-0.034091,-0.058808,-0.052738,-0.051902,-0.076809,-0.075624,-0.044632,-0.074707,-0.062098
0.027754,0.072932,0.047477,0.070739,0.148560,0.105581,0.050881,0.097396,0.071916
0.046211,0.099862,0.066658,0.072577,0.158374,0.110039,0.042889,0.096086,0.070223
-0.021811,-0.050498,-0.030905,-0.056666,-0.105872,-0.072576,-0.041166,-0.074564,-0.055836
0.030113,0.075047,0.057149,0.069972,0.132852,0.099109,0.048445,0.092193,0.068984
0.032073,0.074360,0.054166,0.059194,0.149873,0.115946,0.050293,0.116165,0.081572
0.040793,0.076074,0.060824,0.067625,0.133664,0.101823,0.046084,0.082534,0.065588
0.038339,0.094010,0.067057,0.078585,0.164778,0.129151,0.054784,0.094881,0.081798
-0.027796,-0.063472,-0.047286,-0.061050,-0.119069,-0.091283,-0.032412,-0.083065,-0.058594
-0.030629,-0.068255,-0.050610,-0.053939,-0.101198,-0.079892,-0.039236,-0.069761,-0.046794
0.032764,0.071336,0.049504,0.058648,0.125161,0.093013,0.048834,0.093048,0.070045
0.026562,0.081525,0.059722,0.057764,0.146880,0.114840,0.044672,0.109147,0.080821
0.033917,0.069709,0.045179,0.061249,0.125600,0.084525,0.033553,0.079424,0.059835
-0.037896,-0.069619,-0.055204,-0.068389,-0.124613,-0.093936,-0.044530,-0.092031,-0.064304
0.031573,0.059752,0.045322,0.058164,0.138767,0.099007,0.038153,0.100398,0.078496
0.035695,0.075417,0.047862,0.063560,0.141353,0.097710,0.044095,0.098016,0.068312
0.035836,0.076022,0.051931,0.072505,0.140154,0.105135,0.052991,0.099160,0.077059
0.030289,0.058451,0.042466,0.063153,0.130977,0.093278,0.045297,0.093848,0.067554
0.024670,0.073180,0.055195,0.061125,0.129823,0.094701,0.042292,0.074837,0.055693
-0.030410,-0.067383,-0.044491,-0.056177,-0.120676,-0.084648,-0.036748,-0.072469,-0.058323
-0.020936,-0.043686,-0.040661,-0.043299,-0.077111,-0.072233,-0.037616,-0.071392,-0.051505
-0.026304,-0.072156,-0.053160,-0.051280,-0.121622,-0.087234,-0.033316,-0.074848,-0.055866
0.017803,0.054832,0.038123,0.051378,0.141464,0.103884,0.041305,0.105915,0.082832
-0.034757,-0.056794,-0.049476,-0.059616,-0.092285,-0.086233,-0.047862,-0.078341,-0.059733
0.031675,0.055089,0.035141,0.047493,0.118968,0.083885,0.028210,0.072924,0.065544
-0.030949,-0.057010,-0.041678,-0.058365,-0.122588,-0.085442,-0.035263,-0.084201,-0.059902
-0.019503,-0.062578,-0.047726,-0.050522,-0.108807,-0.080264,-0.036149,-0.071112,-0.052392
0.042968,0.079870,0.055918,0.078442,0.147625,0.110801,0.053832,0.112812,0.083301
0.037051,0.077088,0.051013,0.065595,0.131355,0.097008,0.033590,0.087152,0.065680
-0.034660,-0.062936,-0.048132,-0.056078,-0.103820,-0.078453,-0.036006,-0.075726,-0.051676
0.029463,0.065106,0.052954,0.062132,0.128380,0.101398,0.047621,0.102880,0.083155
0.037152,0.072593,0.053712,0.051554,0.134600,0.100450,0.031521,0.093842,0.074575
0.023499,0.054378,0.038756,0.053523,0.121177,0.084503,0.045156,0.092711,0.066157
-0.044833,-0.080317,-0.061838,-0.057618,-0.111448,-0.085677,-0.046530,-0.077484,-0.063675
0.003801,-0.034047,0.080932,-0.023630,-0.038222,0.150633,-0.036509,-0.040963,0.105548
-0.028988,-0.054531,-0.036728,-0.050292,-0.085502,-0.069157,-0.033377,-0.066795,-0.063625
0.037210,0.076248,0.049909,0.071051,0.121583,0.083765,0.044133,0.077116,0.058042
-0.028727,-0.061026,-0.046126,-0.046368,-0.077347,-0.071583,-0.035187,-0.061336,-0.052177
0.040778,0.086032,0.061033,0.062703,0.135439,0.097222,0.036220,0.076777,0.062825
0.035894,0.062619,0.059058,0.051452,0.141267,0.120275,0.052327,0.117373,0.092193
0.011598,0.011600,0.015225,0.041655,0.107013,0.075121,0.049294,0.115671,0.088508
-0.057025,-0.076494,-0.063343,-0.067307,-0.087699,-0.080192,-0.044796,-0.066504,-0.065798
-0.029991,-0.059883,-0.043817,-0.055235,-0.114796,-0.085613,-0.040663,-0.080457,-0.058884
0.041927,0.077177,0.057050,0.068707,0.148750,0.105845,0.045351,0.102156,0.070446
0.035966,0.070611,0.054262,0.061693,0.129174,0.097164,0.045490,0.091963,0.060669
-0.026866,-0.053011,-0.039115,-0.056990,-0.124244,-0.093960,-0.040278,-0.091332,-0.063026
0.016277,0.061227,0.048298,0.060003,0.124010,0.092030,0.049321,0.091778,0.069969
0.035898,0.071331,0.052639,0.065068,0.142781,0.106258,0.048420,0.108041,0.081869
0.035650,0.081522,0.055686,0.079172,0.161598,0.114993,0.046909,0.120495,0.089683
0.035215,0.072270,0.059409,0.060461,0.145835,0.115216,0.051357,0.097979,0.071627
-0.028972,-0.067427,-0.049191,-0.058058,-0.096539,-0.085219,-0.047385,-0.076688,-0.058681
0.023835,0.068034,0.054585,0.066907,0.152930,0.110206,0.053559,0.116140,0.074712
-0.019437,-0.054547,-0.040707,-0.046498,-0.098172,-0.074984,-0.032647,-0.068708,-0.054467
-0.028753,-0.057904,-0.051744,-0.055520,-0.083954,-0.076434,-0.037065,-0.084204,-0.078418
0.033396,0.079197,0.053493,0.076845,0.154715,0.103349,0.053074,0.105521,0.072162
-0.044202,-0.041147,-0.052963,-0.069054,-0.053675,-0.093092,-0.054386,-0.046852,-0.055925
0.053783,0.081069,0.056355,0.060416,0.147642,0.117062,0.048716,0.104553,0.080663
0.035705,0.088980,0.065225,0.085696,0.183901,0.134830,0.067082,0.132852,0.092158
0.043166,0.087023,0.070777,0.070854,0.159831,0.117678,0.041334,0.105330,0.081114
0.077346,0.114997,0.097074,0.107482,0.185823,0.143484,0.076420,0.133231,0.099325
0.033208,0.073025,0.053642,0.067950,0.144973,0.107847,0.048880,0.108545,0.077752
0.041080,0.084959,0.063789,0.071416,0.156117,0.107376,0.044966,0.106265,0.076309
0.038261,0.072148,0.052595,0.071528,0.148428,0.108955,0.050556,0.111564,0.082156
0.044324,0.079572,0.061618,0.078540,0.152997,0.108734,0.049813,0.100474,0.069761
0.035771,0.071425,0.050779,0.069230,0.146048,0.101963,0.051068,0.099795,0.066426
0.056342,0.075699,0.060462,0.052825,0.131998,0.105018,0.043181,0.089114,0.073089
0.042802,0.093068,0.063504,0.077561,0.151454,0.112168,0.053598,0.103472,0.069447
0.031749,0.072698,0.063240,0.063641,0.117172,0.097611,0.057079,0.110006,0.095417
0.025974,0.074205,0.048391,0.072435,0.147730,0.104114,0.049989,0.105273,0.074977
-0.044357,-0.063763,-0.056876,-0.055011,-0.081366,-0.069841,-0.032017,-0.051247,-0.044338
-0.034821,-0.062759,-0.046771,-0.061321,-0.116067,-0.083678,-0.042123,-0.087455,-0.060883
0.028023,0.054257,0.041465,0.048961,0.137002,0.100089,0.047121,0.114197,0.074019
0.026671,0.077976,0.059345,0.054912,0.145692,0.107417,0.036282,0.087350,0.063950
0.034977,0.081822,0.050714,0.066017,0.151448,0.102169,0.041997,0.099046,0.066908
0.035670,0.080636,0.057335,0.071415,0.156052,0.112698,0.050938,0.103049,0.077179
0.032841,0.085023,0.063884,0.073779,0.166839,0.118408,0.048498,0.109847,0.078450
0.026274,0.072658,0.046715,0.061402,0.137403,0.093397,0.041813,0.087076,0.065594
0.066582,0.152781,0.131703,-0.024051,0.009341,0.028938,-0.163377,-0.240057,-0.148457
0.050897,0.079392,0.073883,0.101976,0.120683,0.099220,0.065513,0.108817,0.098518
0.018729,0.025281,0.027207,0.046498,0.097044,0.079883,0.035000,0.085228,0.077694
-0.000040,0.013170,0.019394,0.028009,0.113136,0.098422,0.036050,0.116189,0.095343
-0.026647,-0.053698,-0.036760,-0.052585,-0.100323,-0.080422,-0.048816,-0.095118,-0.065935
0.022407,0.070707,0.053371,0.071074,0.147655,0.112839,0.054687,0.110429,0.084156
-0.024747,-0.059050,-0.041561,-0.048623,-0.118032,-0.084501,-0.041766,-0.079994,-0.067207
0.033881,0.068392,0.052943,0.065077,0.140192,0.101780,0.038711,0.092520,0.062309
-0.017521,-0.038565,-0.043120,-0.034041,-0.073805,-0.070818,-0.031429,-0.062599,-0.047211
0.032536,0.045606,0.038249,0.056762,0.117527,0.086431,0.040913,0.087267,0.055379
0.029056,0.070964,0.054707,0.060721,0.120242,0.086238,0.043596,0.087195,0.061473
0.045244,0.085575,0.060961,0.078179,0.155965,0.112636,0.057351,0.104236,0.076220
0.029799,0.068834,0.056123,0.066359,0.133531,0.102053,0.044181,0.087644,0.065254
-0.029953,-0.059336,-0.045865,-0.045509,-0.090359,-0.079780,-0.045533,-0.064710,-0.052097
-0.013756,-0.037994,-0.033259,-0.047981,-0.080753,-0.074757,-0.044727,-0.083561,-0.077912
0.047372,0.057851,0.040828,0.052029,0.139482,0.110588,0.043829,0.113184,0.072135
0.028272,0.064897,0.050979,0.062175,0.122932,0.090587,0.049331,0.087402,0.062709
0.047763,0.088420,0.064589,0.072550,0.175345,0.132795,0.045596,0.115388,0.087101
0.038907,0.071292,0.055138,0.059009,0.127852,0.096805,0.027494,0.082525,0.061774
0.027927,0.054975,0.040756,0.066580,0.141260,0.094763,0.046575,0.107973,0.072835
0.032598,0.067445,0.048838,0.061980,0.144235,0.106322,0.042608,0.105460,0.076643
-0.083397,-0.014794,0.043557,-0.106364,-0.011491,0.084091,-0.081335,-0.012799,0.074415
0.031756,0.073895,0.050658,0.071694,0.157334,0.112739,0.045253,0.107475,0.073570
-0.034943,-0.061652,-0.039547,-0.054977,-0.104145,-0.078534,-0.036455,-0.064432,-0.049496
0.031801,0.076688,0.051524,0.060776,0.133327,0.098061,0.039042,0.080793,0.059913
0.044707,0.080763,0.059727,0.075359,0.147384,0.107788,0.049280,0.106542,0.073858
-0.002229,0.020112,0.009357,-0.036934,-0.045446,-0.053787,-0.083576,-0.150719,-0.140594
0.033715,0.080312,0.048417,0.076533,0.130144,0.092258,0.053808,0.087352,0.069674
-0.034765,-0.070560,-0.056098,-0.059116,-0.093636,-0.074898,-0.048506,-0.061300,-0.045217
0.047273,0.089592,0.065869,0.063925,0.130086,0.102323,0.037910,0.090597,0.070757
-0.044129,-0.069853,-0.050357,-0.056634,-0.095475,-0.071286,-0.037990,-0.074337,-0.055928
0.041538,0.088129,0.065664,0.075547,0.165858,0.121255,0.050594,0.109129,0.073336
0.034460,0.063879,0.048299,0.066903,0.135049,0.098871,0.052454,0.103391,0.075140
0.038308,0.084740,0.054753,0.073215,0.159592,0.113407,0.048459,0.105960,0.075628
0.038445,0.073831,0.047223,0.072511,0.138450,0.091399,0.049304,0.090402,0.060488
0.034664,0.070971,0.051512,0.074609,0.142872,0.097895,0.053695,0.087384,0.061033
-0.028964,-0.069655,-0.055167,-0.062617,-0.119239,-0.096528,-0.051185,-0.102317,-0.080574
-0.040235,-0.064828,-0.044580,-0.065015,-0.102780,-0.068851,-0.038085,-0.069653,-0.046283
0.031022,0.082294,0.057450,0.061501,0.138869,0.099965,0.043217,0.088298,0.064434
0.037605,0.074846,0.055419,0.070526,0.149672,0.105167,0.048172,0.107424,0.064536
0.022228,0.059435,0.048015,0.049345,0.138489,0.104555,0.035220,0.097594,0.069520
0.032043,0.064844,0.046266,0.064252,0.145504,0.100278,0.044608,0.100551,0.065200
-0.027557,-0.042839,-0.035982,-0.053623,-0.079053,-0.073135,-0.047028,-0.070027,-0.055650
0.043029,0.075812,0.054299,0.067233,0.147509,0.112862,0.042516,0.100933,0.074428
0.032968,0.064115,0.047886,0.062333,0.149173,0.114355,0.046871,0.108266,0.080405
0.060350,0.141483,0.114095,0.052849,0.100684,0.072161,0.024708,0.012061,0.012728
-0.027141,-0.052275,-0.043301,-0.042479,-0.097918,-0.081364,-0.044098,-0.100467,-0.078301
-0.028355,-0.055584,-0.041990,-0.056762,-0.125776,-0.091178,-0.047114,-0.089151,-0.058934
0.035880,0.088878,0.058154,0.080162,0.161208,0.112584,0.054885,0.105845,0.070284
-0.037443,-0.070584,-0.054008,-0.065087,-0.109982,-0.085775,-0.047918,-0.083452,-0.058341
0.033975,0.060706,0.056348,0.063558,0.152299,0.116075,0.069134,0.129548,0.099813
-0.033614,-0.059965,-0.047960,-0.052473,-0.097987,-0.076127,-0.034879,-0.072214,-0.053849
0.050427,0.085943,0.057261,0.075537,0.134405,0.091085,0.050760,0.087803,0.059617
-0.031393,-0.063629,-0.049266,-0.055585,-0.108955,-0.082394,-0.036464,-0.079722,-0.048789
0.025873,0.051844,0.034512,0.065928,0.129556,0.090937,0.051912,0.105289,0.072985
0.031515,0.072123,0.056427,0.067443,0.140060,0.105011,0.046810,0.090290,0.073711
-0.026977,-0.060421,-0.043947,-0.049333,-0.115777,-0.083970,-0.030211,-0.077077,-0.064750
-0.038032,-0.086829,-0.058768,-0.058222,-0.134720,-0.088317,-0.024870,-0.067376,-0.044911
-0.039742,-0.074822,-0.059768,-0.069793,-0.098961,-0.090016,-0.046070,-0.089379,-0.077756
-0.045409,-0.098379,-0.072727,0.043751,0.116760,0.080710,-0.000029,0.023234,-0.004006
-0.035497,-0.058575,-0.043262,-0.050085,-0.100388,-0.071263,-0.023035,-0.065469,-0.040977
0.028995,0.079790,0.056878,0.076659,0.139865,0.101107,0.064014,0.106378,0.069705
0.017144,0.053207,0.041069,0.061266,0.138578,0.095278,0.048318,0.098640,0.073345
-0.033244,-0.060348,-0.047347,-0.057002,-0.086566,-0.078416,-0.042183,-0.073366,-0.066898
0.038372,0.078130,0.058512,0.065280,0.147361,0.104565,0.047619,0.100214,0.069469
0.056741,0.085966,0.068913,0.076987,0.131025,0.129785,0.060382,0.093244,0.101066
0.020476,0.047867,0.038356,0.049831,0.128915,0.089724,0.042002,0.104213,0.081763
0.024881,0.069475,0.048862,0.064739,0.132778,0.093181,0.047891,0.103101,0.071371
-0.021208,-0.054029,-0.038666,-0.052391,-0.120526,-0.087674,-0.039557,-0.090998,-0.065728
-0.026134,-0.043982,-0.034631,-0.054409,-0.085152,-0.064979,-0.048344,-0.083048,-0.063915
-0.028944,-0.061480,-0.042827,-0.052448,-0.070818,-0.060098,-0.039239,-0.056343,-0.052367
0.022843,0.024323,0.014274,0.041997,0.095099,0.067478,0.040195,0.091612,0.065595
-0.047994,-0.059204,-0.045297,-0.052675,-0.076890,-0.058231,-0.041153,-0.061700,-0.042805
-0.038290,-0.073297,-0.064103,-0.062926,-0.110713,-0.088290,-0.052026,-0.084386,-0.063132
0.024308,0.050528,0.035215,0.053984,0.114276,0.078007,0.033129,0.082473,0.064093
-0.030202,-0.060200,-0.042674,-0.055634,-0.108007,-0.087275,-0.039479,-0.080028,-0.058121
-0.031706,-0.065341,-0.045066,-0.063305,-0.089272,-0.072813,-0.038132,-0.060872,-0.055011
-0.061841,-0.099818,-0.082062,-0.045676,-0.102897,-0.084410,-0.010475,-0.021583,-0.025652
-0.027157,-0.056909,-0.036665,-0.049591,-0.088335,-0.065324,-0.031065,-0.063032,-0.050708
0.043348,0.082958,0.057587,0.068892,0.140459,0.101319,0.038531,0.087513,0.065817
0.025107,0.072949,0.054363,0.064069,0.144250,0.111408,0.050595,0.109952,0.087052
0.036903,0.068979,0.044005,0.054202,0.123144,0.090594,0.036731,0.083265,0.062366
0.032027,0.065910,0.041694,0.070461,0.144133,0.098625,0.047760,0.106068,0.073975
0.056886,0.094366,0.080187,0.078286,0.147936,0.124437,0.061470,0.117390,0.100712
-0.035821,-0.060571,-0.044033,-0.063204,-0.106764,-0.073328,-0.038292,-0.080182,-0.059901
-0.040161,-0.069098,-0.057847,-0.078021,-0.113309,-0.091295,-0.056562,-0.094710,-0.077046
0.028033,0.066667,0.055967,0.049193,0.122291,0.094847,0.026436,0.078018,0.061450
-0.028979,-0.074171,-0.057785,-0.067781,-0.112955,-0.086620,-0.043509,-0.083098,-0.060387
0.011269,0.029837,0.022434,0.051862,0.121417,0.100970,0.057817,0.126098,0.097856
0.046404,0.071049,0.053120,0.059912,0.142524,0.117464,0.045879,0.103087,0.079733
0.037070,0.076810,0.060859,0.063279,0.156065,0.119611,0.047051,0.107646,0.075357
-0.028933,-0.058794,-0.049100,-0.050024,-0.064796,-0.060959,-0.045017,-0.058971,-0.051624
0.045302,0.082078,0.054633,-0.026819,-0.032670,-0.044588,-0.095212,-0.189742,-0.157233
0.037617,0.074946,0.057141,0.067557,0.148999,0.110256,0.045254,0.108121,0.069455
0.094676,0.193944,0.150127,0.018915,0.046395,0.050423,-0.032826,-0.082916,-0.048147
0.022079,0.049248,0.032423,0.066985,0.129251,0.084819,0.062162,0.113190,0.075226
0.043416,0.088451,0.057211,0.067864,0.158171,0.118001,0.055739,0.117546,0.087476
-0.034429,-0.068572,-0.049783,-0.059709,-0.117895,-0.086144,-0.035637,-0.080785,-0.059195
0.052368,0.078364,0.062940,0.065070,0.129668,0.109890,0.068478,0.110612,0.092246
-0.038153,-0.054985,-0.043856,-0.055115,-0.078896,-0.076409,-0.037176,-0.067430,-0.062128
-0.034812,-0.075059,-0.056113,-0.058894,-0.121092,-0.081169,-0.038010,-0.070857,-0.042597
0.036158,0.062760,0.051263,0.054972,0.132791,0.104088,0.041499,0.101034,0.075999
0.038132,0.088719,0.065131,0.073939,0.162029,0.113862,0.051164,0.112041,0.079096
0.033163,0.080637,0.057524,0.058610,0.138861,0.107419,0.037417,0.093344,0.070097
-0.025047,-0.040230,-0.040662,-0.047741,-0.080633,-0.063181,-0.040465,-0.083725,-0.059680
0.029424,0.067217,0.047078,0.065286,0.140342,0.097814,0.042762,0.099882,0.071442
0.030580,0.077786,0.057600,0.065732,0.148511,0.108050,0.048596,0.104645,0.072784
0.038392,0.079556,0.054211,0.084519,0.167772,0.110046,0.058189,0.113515,0.072518
-0.045621,-0.064128,-0.050743,-0.056637,-0.076374,-0.066851,-0.037342,-0.063678,-0.050620
0.042982,0.075158,0.055773,0.067024,0.148729,0.111691,0.046965,0.104266,0.077664
0.037442,0.085749,0.063957,0.062835,0.126730,0.094275,0.030332,0.077532,0.061118
-0.031787,-0.062346,-0.045986,-0.061717,-0.116494,-0.090483,-0.044997,-0.085710,-0.058358
0.038168,0.078536,0.059289,0.064493,0.156830,0.129368,0.052051,0.122503,0.090379
-0.026905,-0.069034,-0.051029,-0.059440,-0.104025,-0.084882,-0.042443,-0.071126,-0.061926
-0.030410,-0.078761,-0.053146,-0.060353,-0.113547,-0.083604,-0.037652,-0.062915,-0.048007
0.058961,0.078317,0.054886,0.070642,0.149693,0.113815,0.054665,0.111917,0.082514
0.040056,0.087697,0.065693,0.062874,0.138858,0.102190,0.041440,0.084973,0.063938
-0.011922,-0.040988,-0.031715,-0.046530,-0.077909,-0.068099,-0.053489,-0.085800,-0.074172
-0.034014,-0.059837,-0.043874,-0.054192,-0.108418,-0.080514,-0.030909,-0.069971,-0.050261
0.023903,0.062168,0.036478,0.060140,0.110823,0.079919,0.044516,0.074284,0.059093
0.032577,0.073111,0.051033,0.067116,0.138507,0.098552,0.041931,0.089700,0.063069
0.034150,0.085982,0.058886,0.068999,0.144048,0.109975,0.042167,0.092012,0.069998
0.044999,0.068458,0.047803,0.055608,0.130375,0.100063,0.044343,0.094418,0.065819
0.031710,0.053947,0.040866,0.052773,0.135168,0.095951,0.045065,0.094915,0.059674
-0.036468,-0.075004,-0.048124,-0.067712,-0.116832,-0.087776,-0.049905,-0.089145,-0.066219
-0.040788,-0.076009,-0.063760,-0.044775,-0.084767,-0.061329,-0.021676,-0.047906,-0.027887
0.040063,0.090185,0.064512,0.067330,0.146177,0.105874,0.036655,0.090093,0.067276
-0.033665,-0.064681,-0.041137,-0.058052,-0.110636,-0.075053,-0.042833,-0.081749,-0.061384
-0.029401,-0.069937,-0.049100,-0.063297,-0.109505,-0.080443,-0.044801,-0.084427,-0.056752
-0.026823,-0.043500,-0.034631,-0.047139,-0.087810,-0.072947,-0.031912,-0.068270,-0.060462
-0.048239,-0.061674,-0.052036,-0.056172,-0.096061,-0.079389,-0.028835,-0.078345,-0.060604
0.037895,0.093875,0.066438,0.079974,0.177879,0.129031,0.052040,0.110239,0.076686
0.035160,0.088345,0.058081,0.062219,0.130531,0.093592,0.045393,0.090803,0.066788
0.034238,0.091718,0.070358,0.076767,0.150904,0.114286,0.054899,0.106791,0.080597
-0.023886,-0.037438,-0.029294,-0.049570,-0.097426,-0.077013,-0.036422,-0.086195,-0.067982
0.048090,0.081789,0.061305,0.062514,0.154463,0.116780,0.045564,0.104044,0.073851
-0.027871,-0.059747,-0.040781,-0.045312,-0.095836,-0.067487,-0.038657,-0.064950,-0.045361
0.031216,0.077382,0.054110,0.065868,0.131868,0.092565,0.039237,0.087761,0.064584
-0.063207,-0.023959,0.086218,-0.054444,-0.037717,0.101901,-0.066217,-0.028583,0.110759
0.026851,0.071828,0.044716,0.071126,0.127202,0.095166,0.055036,0.090962,0.067557
-0.041965,-0.040600,-0.044976,-0.052316,-0.069728,-0.065347,-0.042098,-0.081229,-0.064122
-0.035390,-0.060026,-0.044102,-0.061139,-0.124731,-0.084029,-0.043350,-0.095227,-0.064760
0.042330,0.087424,0.066463,0.070222,0.140966,0.102480,0.044903,0.077647,0.059954
0.031837,-0.013344,-0.122554,0.110952,-0.001634,-0.251663,0.118109,0.013470,-0.173186
0.031566,0.075673,0.052378,0.066317,0.141847,0.111862,0.048106,0.106166,0.082332
0.038796,0.082509,0.059970,0.070845,0.146891,0.113181,0.052230,0.105453,0.085714
0.032013,0.048512,0.040449,-0.027225,-0.063505,-0.054991,-0.085598,-0.177696,-0.149767
0.023039,0.064825,0.048442,0.058701,0.123816,0.086626,0.053232,0.116395,0.083693
0.039015,0.055461,0.047937,0.057228,0.141218,0.104533,0.055514,0.117383,0.089438
-0.020900,-0.049943,-0.033965,-0.051175,-0.102612,-0.078654,-0.046618,-0.086385,-0.065572
0.034798,0.070464,0.049339,0.066118,0.131369,0.096304,0.039801,0.095713,0.067834
0.025304,0.059952,0.053452,0.067253,0.158610,0.120835,0.055331,0.130774,0.096617
0.029747,0.064987,0.044299,0.071699,0.135136,0.095217,0.054440,0.093705,0.061404
-0.041024,-0.063842,-0.051571,-0.067075,-0.122351,-0.094358,-0.046872,-0.082645,-0.057447
0.041055,0.070200,0.058041,0.071300,0.132026,0.101408,0.051978,0.102213,0.080645
-0.053009,-0.082958,-0.056811,-0.070483,-0.122375,-0.093073,-0.032101,-0.085491,-0.059841
0.037258,0.069373,0.047523,0.051817,0.118952,0.086107,0.036605,0.077288,0.053863
0.035842,0.066850,0.049506,0.062888,0.137322,0.097571,0.039483,0.095451,0.068450
-0.031760,-0.061778,-0.045872,-0.059065,-0.120342,-0.095677,-0.043695,-0.085261,-0.066643
-0.045053,-0.079359,-0.062119,-0.066362,-0.092293,-0.076812,-0.034316,-0.048044,-0.042139
0.031095,0.077205,0.046443,0.075524,0.169669,0.120520,0.055283,0.117941,0.088723
0.027919,0.070941,0.046168,0.059649,0.147979,0.107478,0.041559,0.103896,0.084905
0.044668,0.082044,0.055636,0.076454,0.143812,0.107123,0.047572,0.097166,0.073821
-0.032271,-0.065942,-0.049876,-0.051088,-0.100682,-0.077084,-0.030460,-0.064982,-0.052113
0.028641,0.073210,0.048167,0.074020,0.149164,0.097711,0.051884,0.096014,0.062402
-0.027567,-0.065548,-0.041467,-0.064505,-0.114550,-0.079653,-0.043320,-0.082929,-0.055761
-0.006443,0.016759,0.011155,0.032978,0.086607,0.070414,0.051348,0.109857,0.088451
-0.034248,-0.073585,-0.052684,-0.061322,-0.107464,-0.085419,-0.037213,-0.072951,-0.052620
0.026773,0.067947,0.049936,0.069969,0.153773,0.109480,0.045872,0.111292,0.081399
0.035700,0.074655,0.054733,0.060929,0.140746,0.101580,0.038671,0.091667,0.070981
-0.030103,-0.069905,-0.047217,-0.057151,-0.111209,-0.076688,-0.047858,-0.087045,-0.053408
0.030519,0.073828,0.055151,0.060193,0.149199,0.117916,0.041727,0.110001,0.078355
-0.039421,-0.074260,-0.047696,-0.067607,-0.130456,-0.091777,-0.042275,-0.086763,-0.063181
0.028698,0.060541,0.045280,0.051999,0.117958,0.080239,0.035991,0.088941,0.063960
-0.059088,-0.053236,-0.030666,-0.074507,-0.043839,-0.019206,-0.078561,-0.046983,-0.017106
0.041833,0.082878,0.065066,0.071526,0.144930,0.116123,0.052370,0.105405,0.079178
-0.031550,-0.062613,-0.063774,-0.049341,-0.081099,-0.068829,-0.031490,-0.057761,-0.058217
-0.038044,-0.060178,-0.047599,-0.049266,-0.098818,-0.066505,-0.032161,-0.067702,-0.047856
-0.031198,-0.057912,-0.050383,-0.051643,-0.081693,-0.079593,-0.044809,-0.079175,-0.058763
0.030829,0.061595,0.045210,0.063869,0.144716,0.104538,0.055157,0.108141,0.079484
-0.021561,-0.055389,-0.046882,-0.043778,-0.079535,-0.066633,-0.036673,-0.063627,-0.056359
-0.039204,-0.059024,-0.052411,-0.061883,-0.091394,-0.081575,-0.049074,-0.091859,-0.067484
-0.020951,-0.053462,-0.036240,-0.052128,-0.103857,-0.073767,-0.040341,-0.078202,-0.056193
-0.003157,0.003939,0.006585,0.002232,0.014693,0.016527,0.007299,0.016562,0.016572
0.027276,0.064919,0.046576,0.070205,0.128515,0.094005,0.057425,0.103300,0.075509
0.039262,0.073688,0.053577,0.072500,0.171528,0.121655,0.051718,0.122414,0.087078
0.031512,0.067768,0.042103,0.062038,0.149279,0.103842,0.047813,0.099881,0.071936
-0.025353,-0.054911,-0.035924,-0.055031,-0.109896,-0.080995,-0.034585,-0.083082,-0.062433
0.051577,0.077723,0.057849,0.079891,0.137611,0.102523,0.058383,0.106230,0.081514
0.044109,0.082508,0.065526,0.072838,0.148637,0.106131,0.046981,0.100181,0.070956
-0.028106,-0.064481,-0.047461,-0.064552,-0.115034,-0.084181,-0.046132,-0.076110,-0.052855
0.037373,0.082498,0.056844,0.075769,0.157663,0.111896,0.052279,0.103732,0.066937
-0.030331,-0.058093,-0.046764,-0.060290,-0.108567,-0.082263,-0.044827,-0.079650,-0.046759
-0.032914,-0.067959,-0.047905,-0.059705,-0.106915,-0.077991,-0.035174,-0.076256,-0.056938
-0.026671,-0.063333,-0.050694,-0.056319,-0.116059,-0.087756,-0.042505,-0.090913,-0.065052
0.063006,0.145005,0.115959,0.114187,0.179416,0.138841,0.093190,0.131481,0.115517
0.015624,0.057303,0.045604,0.054444,0.123143,0.085621,0.039122,0.076622,0.059525
0.021302,0.055608,0.040523,0.055652,0.140465,0.108046,0.053776,0.106936,0.079573
-0.037400,-0.068450,-0.039462,-0.069079,-0.124424,-0.080921,-0.044717,-0.077265,-0.050099
0.043478,0.089846,0.056787,0.066156,0.146666,0.110595,0.038572,0.097269,0.075066
0.030269,0.060880,0.041010,0.056794,0.124442,0.087007,0.043026,0.094557,0.068804
-0.064560,-0.084387,-0.067799,-0.087161,-0.065284,-0.085044,-0.057503,-0.073749,-0.062704
-0.030956,-0.071086,-0.042616,-0.065479,-0.122351,-0.086234,-0.046142,-0.076328,-0.055188
0.025579,0.075732,0.056902,0.064215,0.135174,0.096944,0.046637,0.083263,0.064664
0.039493,0.083628,0.060194,0.074691,0.131016,0.096653,0.051611,0.091408,0.069584
0.036279,0.080951,0.053988,0.077200,0.165789,0.109051,0.052809,0.109618,0.072613
0.043679,0.090868,0.060013,0.075931,0.157608,0.113445,0.045962,0.104165,0.078496
0.034448,0.084398,0.061238,0.070383,0.161134,0.111901,0.043598,0.099425,0.066191
0.034133,0.086295,0.059028,0.059419,0.158798,0.117132,0.046030,0.095059,0.071648
-0.031307,-0.070171,-0.041748,-0.058042,-0.099301,-0.075434,-0.034810,-0.073123,-0.056295
0.044005,0.083993,0.054314,0.067836,0.141786,0.098866,0.050000,0.086229,0.061674
0.026605,0.056719,0.041209,0.064411,0.129869,0.090825,0.044172,0.104394,0.074703
0.028035,-0.002017,-0.022013,-0.010226,-0.067004,-0.061918,0.057209,0.183140,0.141200
0.117064,0.179956,0.139711,-0.000839,0.013248,0.007493,-0.101975,-0.174552,-0.142834
0.031071,0.075224,0.053128,0.066664,0.124512,0.090154,0.045909,0.089252,0.068762
0.035333,0.083076,0.063551,0.080390,0.152401,0.106211,0.051945,0.097546,0.062500
0.032666,0.054838,0.028946,0.058496,0.114595,0.069434,0.030199,0.084528,0.051052
0.032131,0.066197,0.043372,0.068516,0.132964,0.090721,0.049757,0.091181,0.067061
-0.045281,-0.068838,-0.058973,-0.063206,-0.108042,-0.078774,-0.035176,-0.069278,-0.051463
0.080498,0.049386,0.007547,0.104396,0.088285,0.035393,0.087144,0.051138,0.014471
0.037256,0.064439,0.045252,0.058228,0.138260,0.098308,0.037507,0.102458,0.070779
-0.023023,-0.051315,-0.049828,-0.049549,-0.087739,-0.072390,-0.050669,-0.091179,-0.073659
0.029345,0.065528,0.043806,0.059389,0.134951,0.094585,0.038050,0.094938,0.072570
0.040543,0.078162,0.053277,0.062229,0.138042,0.094483,0.031291,0.090090,0.062567
0.029251,0.069632,0.046951,0.067404,0.140807,0.098612,0.047025,0.091775,0.069225
-0.038973,-0.094887,-0.075233,-0.057965,-0.115245,-0.092859,-0.035912,-0.059154,-0.051438
-0.029461,-0.064875,-0.046143,-0.054213,-0.112796,-0.087713,-0.044242,-0.076662,-0.058005
0.028480,0.073931,0.056093,0.060129,0.150469,0.108720,0.041524,0.096986,0.069579
-0.025521,-0.055890,-0.035363,-0.049740,-0.115874,-0.081363,-0.031832,-0.083885,-0.056321
-0.036935,-0.058520,-0.044640,-0.056929,-0.104626,-0.079352,-0.040566,-0.079081,-0.054244
-0.037287,-0.069109,-0.050266,-0.048657,-0.072504,-0.067421,-0.041204,-0.062903,-0.051228
-0.026964,-0.052533,-0.047980,-0.054154,-0.079133,-0.079095,-0.036160,-0.067229,-0.054142
0.026756,0.060202,0.041790,0.057179,0.139566,0.104978,0.045417,0.100724,0.078436
0.027230,0.060857,0.042314,0.057276,0.133115,0.096618,0.043597,0.099296,0.072882
0.021954,0.048612,0.036674,0.050483,0.122283,0.090918,0.042399,0.087428,0.068975
0.045154,0.086686,0.059106,0.072689,0.141367,0.100337,0.037870,0.096754,0.062199
-0.018207,-0.048341,-0.030995,-0.053501,-0.106153,-0.071362,-0.049424,-0.084195,-0.057194
-0.026701,-0.058202,-0.043927,-0.052478,-0.096722,-0.074512,-0.038015,-0.080257,-0.056630
-0.044941,-0.068141,-0.055670,-0.065829,-0.110467,-0.081869,-0.033713,-0.071376,-0.052211
-0.036489,-0.075080,-0.069819,-0.049903,-0.078466,-0.070509,-0.038110,-0.053873,-0.048491
-0.033532,-0.052743,-0.036428,-0.051240,-0.084062,-0.076479,-0.039756,-0.063600,-0.061061
-0.028417,-0.049132,-0.029632,-0.050662,-0.093771,-0.070738,-0.037743,-0.078619,-0.055040
0.030852,0.064685,0.047260,0.071729,0.141081,0.099414,0.053792,0.103821,0.069383
-0.034409,-0.058717,-0.051444,-0.060182,-0.098012,-0.078246,-0.028559,-0.077412,-0.054858
0.021196,0.069400,0.049850,0.064198,0.136682,0.093365,0.038133,0.086762,0.063610
0.033170,0.071073,0.049458,0.064628,0.143283,0.103089,0.043842,0.104435,0.073736
-0.036013,-0.062020,-0.050624,-0.057353,-0.109955,-0.082705,-0.031092,-0.071652,-0.048063
0.033595,0.067394,0.044466,0.058828,0.135767,0.098954,0.039479,0.096556,0.074962
0.041100,0.075432,0.042787,0.061619,0.137649,0.097870,0.043696,0.090251,0.068702
-0.014424,-0.048548,-0.040781,-0.055209,-0.104713,-0.083384,-0.039802,-0.091886,-0.077133
0.041288,-0.008578,0.023003,0.008728,0.136328,0.107698,0.048271,0.098728,0.062924
0.029956,0.069319,0.048212,0.065225,0.126525,0.093574,0.043152,0.088964,0.071132
0.031076,0.068355,0.050844,0.053439,0.155915,0.114663,0.036640,0.109691,0.079350
0.022646,0.057633,0.041122,0.055507,0.133766,0.095392,0.046906,0.102800,0.071083
-0.024380,-0.052978,-0.036946,-0.043664,-0.089301,-0.072981,-0.042177,-0.076089,-0.056329
-0.028905,-0.060660,-0.042502,-0.063397,-0.111335,-0.083780,-0.046333,-0.078985,-0.056315
0.039069,0.081844,0.059695,0.065299,0.142743,0.100124,0.041413,0.090095,0.067060
0.046489,0.060616,0.060637,0.072058,0.137725,0.102024,0.054662,0.107879,0.080859
0.035188,0.069801,0.049256,0.059805,0.134638,0.099655,0.042223,0.092991,0.065247
0.023774,0.049611,0.036876,0.061550,0.144154,0.096515,0.042260,0.111853,0.083031
0.048057,0.091053,0.070523,0.066711,0.169985,0.125154,0.051975,0.116899,0.084338
0.039714,0.082784,0.067000,0.055900,0.118564,0.089225,0.033379,0.072379,0.054812
0.047761,0.083045,0.052397,0.064779,0.139054,0.096924,0.040713,0.092621,0.062766
0.015357,0.033821,0.022651,0.051852,0.106561,0.081683,0.059260,0.104426,0.070382
0.038695,0.093534,0.065900,0.078380,0.159613,0.114417,0.054998,0.104794,0.074295
0.025120,0.051432,0.027677,0.049180,0.131878,0.097092,0.044156,0.104332,0.077040
0.043971,0.095512,0.069197,0.084488,0.186464,0.133522,0.053482,0.121890,0.087474
0.028481,0.063186,0.043487,0.062019,0.133993,0.097964,0.049165,0.099010,0.072715
0.043052,0.087548,0.060080,0.069484,0.144133,0.103392,0.040969,0.092130,0.070862
0.051293,0.097630,0.063408,0.071204,0.134442,0.098217,0.043104,0.070713,0.056845
0.031515,0.075987,0.050910,0.062185,0.130113,0.099220,0.044308,0.087027,0.065318
-0.027350,-0.051776,-0.037311,-0.042818,-0.084943,-0.064050,-0.040898,-0.069739,-0.050314
0.033937,0.077012,0.054704,0.063174,0.136714,0.099196,0.037857,0.087035,0.066781
0.034797,0.080624,0.053082,0.064190,0.133272,0.096427,0.039329,0.081959,0.063183
0.051745,0.100535,0.069851,0.072975,0.139330,0.096892,0.038868,0.081299,0.055260
0.018845,0.039042,0.023029,0.063535,0.146019,0.104213,0.054530,0.124111,0.087497
-0.032367,-0.064747,-0.047174,-0.058617,-0.118820,-0.082819,-0.041715,-0.084516,-0.056302
0.027440,0.075241,0.053807,0.073352,0.171500,0.121572,0.052668,0.120639,0.087156
0.021340,0.055575,0.043100,0.053905,0.126477,0.091523,0.042143,0.092519,0.068465
0.030723,0.062550,0.048339,0.066338,0.130698,0.089143,0.041095,0.089487,0.068872
0.032125,0.069878,0.049575,0.061038,0.130412,0.090801,0.041174,0.083871,0.058959
-0.071281,-0.109138,-0.102915,0.046901,0.111975,0.085207,-0.004609,0.009726,0.007314
0.043388,0.084978,0.065026,0.061319,0.140502,0.101138,0.038480,0.084032,0.052061
0.031432,0.045166,0.036002,0.047312,0.151061,0.116298,0.049020,0.122070,0.086388
-0.035041,-0.060665,-0.042068,-0.053518,-0.084970,-0.064682,-0.038228,-0.067736,-0.048235
-0.034173,-0.060280,-0.037711,-0.061040,-0.118635,-0.083649,-0.039645,-0.078478,-0.063087
0.040255,0.058336,0.042818,0.051672,0.110947,0.096071,0.046395,0.094683,0.082372
0.026336,0.065406,0.046776,0.065145,0.142582,0.105249,0.051280,0.106902,0.070280
0.050605,0.092726,0.067135,0.076187,0.155310,0.111365,0.038887,0.097208,0.068142
0.078239,0.157133,0.122410,0.035453,0.055932,0.059365,0.006324,-0.020942,0.002392
-0.033302,-0.100831,-0.091412,0.035384,0.029014,0.006545,0.081630,0.127475,0.103028
0.027154,0.068223,0.075970,0.056651,0.100460,0.079552,0.026074,0.065520,0.030925
0.042812,0.079904,0.062656,0.072237,0.148479,0.112775,0.054602,0.107115,0.083306
-0.031058,-0.081359,-0.051591,-0.058613,-0.092611,-0.069476,-0.042120,-0.077567,-0.055261
0.047579,0.062396,0.043599,0.057297,0.113060,0.085101,0.039374,0.085715,0.054558
-0.020336,-0.042421,-0.025216,-0.047909,-0.099101,-0.079123,-0.040464,-0.084120,-0.056873
0.021003,0.047060,0.036055,0.059094,0.127961,0.100692,0.052770,0.117899,0.092184
0.029761,0.067063,0.053924,0.059959,0.129871,0.096782,0.039252,0.081733,0.061311
0.034324,0.064099,0.048576,0.063183,0.125677,0.086533,0.039422,0.086557,0.058725
0.019251,0.064753,0.042972,0.051290,0.128774,0.101356,0.041232,0.098321,0.077895
-0.029794,-0.062171,-0.042817,-0.058957,-0.117602,-0.083337,-0.041405,-0.076594,-0.059543
0.039192,0.081553,0.066997,0.058961,0.135030,0.105833,0.044903,0.094519,0.072124
-0.025571,0.027543,-0.015749,-0.103172,0.093230,-0.003558,-0.086957,0.089789,-0.016778
0.033448,0.071475,0.054361,0.060389,0.135611,0.101161,0.040351,0.099540,0.070692
0.044399,0.093614,0.067304,0.074689,0.132013,0.092049,0.057416,0.106960,0.081301
0.033075,0.070319,0.048212,0.063731,0.152128,0.115219,0.044669,0.109601,0.084971
0.033956,0.070867,0.049967,0.060559,0.138163,0.102432,0.048289,0.107887,0.080173
0.043388,0.092220,0.067939,0.072774,0.137427,0.102504,0.042371,0.082634,0.059925
-0.029820,-0.054503,-0.034774,-0.053908,-0.088894,-0.064917,-0.037240,-0.065319,-0.050837
0.033306,0.063401,0.043182,0.060258,0.130900,0.092305,0.047538,0.099494,0.071534
-0.043472,-0.063091,-0.043536,-0.057275,-0.086382,-0.062968,-0.025352,-0.061080,-0.048611
-0.033041,-0.058930,0.053163,-0.062825,-0.080731,0.092782,-0.052341,-0.049021,0.108018
0.028800,0.068809,0.046577,0.063058,0.141958,0.099303,0.041707,0.098193,0.070304
-0.031130,-0.058824,-0.043900,-0.059795,-0.096713,-0.074055,-0.040886,-0.067762,-0.049658
-0.048172,-0.068985,-0.068183,-0.068090,-0.078236,-0.076645,-0.045162,-0.069705,-0.058463
0.023236,0.062008,0.045998,0.067382,0.129568,0.095938,0.049718,0.102662,0.070110
0.042314,0.070565,0.056449,0.061810,0.142672,0.108967,0.053242,0.109578,0.075753
-0.033882,-0.060903,-0.050894,-0.052579,-0.097240,-0.071150,-0.030959,-0.060297,-0.052309
-0.016668,-0.040412,-0.035334,-0.043455,-0.091322,-0.071635,-0.057614,-0.093308,-0.080763
-0.041332,-0.062808,-0.052138,-0.064101,-0.103359,-0.089491,-0.037875,-0.075445,-0.068183
-0.025970,-0.020124,-0.028435,-0.074240,-0.056276,-0.091925,-0.056651,-0.044515,-0.096599
-0.031396,-0.058982,-0.038838,-0.053792,-0.096368,-0.082654,-0.041759,-0.072326,-0.061189
0.046718,0.077500,0.058323,0.075272,0.155852,0.114115,0.050110,0.109372,0.074692
-0.023720,-0.059273,-0.047718,-0.061553,-0.133679,-0.087157,-0.037996,-0.089712,-0.061388
-0.017835,-0.040685,-0.028829,-0.042711,-0.074593,-0.065290,-0.040291,-0.086499,-0.064708
0.040361,0.081590,0.056769,0.067826,0.145078,0.106006,0.040710,0.096993,0.075443
-0.024976,-0.063136,-0.047472,-0.058996,-0.121934,-0.088458,-0.042821,-0.089780,-0.060852
0.038369,0.080892,0.055788,0.070502,0.147272,0.100323,0.045400,0.089637,0.065452
0.031081,0.087364,0.070888,0.066183,0.132804,0.102643,0.036977,0.083609,0.066761
0.030697,0.075195,0.053729,0.068632,0.134836,0.097259,0.046997,0.098358,0.070789
-0.044065,-0.069332,-0.057840,-0.064875,-0.104194,-0.081981,-0.052517,-0.076345,-0.058188
-0.029852,-0.059593,-0.044243,-0.059836,-0.111561,-0.081041,-0.044132,-0.080211,-0.062557
0.040668,0.084330,0.058406,0.072265,0.140141,0.096175,0.042179,0.092158,0.063076
0.040612,0.069094,0.045675,0.061690,0.124880,0.097010,0.038158,0.083361,0.056805
0.015877,-0.006427,-0.009167,-0.028345,-0.079387,-0.079201,-0.042737,-0.159336,-0.133765
-0.017014,-0.060118,-0.048363,-0.042912,-0.108204,-0.080322,-0.035662,-0.077974,-0.062497
-0.033129,-0.064939,-0.048136,-0.070950,-0.118166,-0.080038,-0.044179,-0.081925,-0.056660
0.041116,0.090769,0.067032,0.068887,0.138921,0.103052,0.035824,0.087515,0.058096
-0.032828,-0.057528,-0.039711,-0.066983,-0.117584,-0.086376,-0.047949,-0.087149,-0.064605
-0.040057,-0.067463,-0.045756,-0.063369,-0.095687,-0.069920,-0.043725,-0.066810,-0.045468
-0.035621,-0.059035,-0.051019,-0.061210,-0.090944,-0.072320,-0.048454,-0.071407,-0.070297
-0.015786,-0.052753,-0.040741,-0.060269,-0.108780,-0.083194,-0.039312,-0.074714,-0.053508
0.029780,0.073905,0.053397,0.058648,0.159426,0.120595,0.043740,0.108641,0.082601
-0.023245,-0.044757,-0.037302,-0.061972,-0.118091,-0.092112,-0.041330,-0.103348,-0.074253
-0.042415,-0.091378,-0.074898,-0.065968,-0.091274,-0.077050,-0.040472,-0.060754,-0.052136
-0.029664,-0.064197,-0.049931,-0.054374,-0.111580,-0.091239,-0.041445,-0.080996,-0.064495
0.026779,0.061056,0.043359,0.052861,0.114992,0.081297,0.031379,0.077843,0.057884
-0.039915,-0.061398,-0.058496,-0.056550,-0.090919,-0.076509,-0.034151,-0.063228,-0.050837
-0.035450,-0.060770,-0.042667,-0.058088,-0.110459,-0.086746,-0.036610,-0.074327,-0.057425
0.043714,0.070830,0.054558,0.061486,0.142401,0.108312,0.042474,0.105657,0.068305
-0.032313,-0.067563,-0.038753,-0.055163,-0.128328,-0.089419,-0.041038,-0.093962,-0.068575
0.031018,0.072155,0.053634,0.075916,0.147252,0.104927,0.052985,0.105689,0.073978
-0.032276,-0.059861,-0.043891,-0.053341,-0.090479,-0.072669,-0.036139,-0.059316,-0.046634
0.022431,0.058192,0.044529,0.057596,0.119134,0.101541,0.053045,0.116331,0.097532
-0.027858,-0.048452,-0.031778,-0.054065,-0.116562,-0.073845,-0.039890,-0.085894,-0.056003
0.051061,0.088127,0.059625,0.086387,0.162612,0.115013,0.062917,0.113206,0.083148
-0.038656,-0.070608,-0.057317,-0.062031,-0.110853,-0.083544,-0.038163,-0.068506,-0.042606
-0.023660,-0.057965,-0.039763,-0.048921,-0.122999,-0.091770,-0.045212,-0.090314,-0.066205
0.037765,0.076875,0.057987,0.065187,0.134942,0.089820,0.037512,0.089377,0.059810
-0.022137,-0.057864,-0.041429,-0.045055,-0.099612,-0.075868,-0.034400,-0.083294,-0.065285
0.036726,0.091969,0.060611,0.060468,0.141789,0.099293,0.040600,0.079146,0.060524
-0.031617,-0.064967,-0.043472,-0.054097,-0.126606,-0.092898,-0.038373,-0.085155,-0.057066
-0.038004,-0.068866,-0.052874,-0.063089,-0.118366,-0.086746,-0.042016,-0.075309,-0.049824
0.131822,0.020506,-0.059510,0.200915,-0.008663,-0.118012,0.162384,0.022105,-0.076113
0.042496,0.083023,0.062875,0.065356,0.147629,0.101760,0.041225,0.100196,0.070325
-0.029834,-0.048032,-0.040806,-0.048759,-0.115755,-0.094325,-0.040996,-0.088121,-0.068313
0.032631,0.075632,0.053893,0.063830,0.139628,0.100245,0.043471,0.099672,0.074403
-0.031227,-0.062490,-0.040705,-0.052911,-0.116924,-0.082558,-0.036470,-0.083518,-0.064387
0.036352,0.064074,0.050506,0.063622,0.138296,0.105302,0.048684,0.111921,0.085526
0.038055,0.092195,0.068335,0.072858,0.139145,0.101853,0.037179,0.074463,0.056446
0.059367,0.104379,0.064980,0.098494,0.158161,0.096751,0.063228,0.109055,0.066877
0.032082,0.055615,0.033050,0.062529,0.134986,0.093022,0.047653,0.102346,0.076937
0.037623,0.077717,0.060593,0.077157,0.133518,0.098958,0.052793,0.093829,0.060484
-0.026120,-0.057881,-0.045748,-0.054884,-0.114478,-0.081928,-0.038448,-0.076548,-0.056032
-0.027303,-0.056084,-0.040598,-0.058371,-0.126383,-0.091735,-0.044279,-0.099559,-0.071297
-0.028641,-0.062730,-0.042273,-0.057798,-0.108913,-0.083766,-0.034835,-0.080950,-0.061398
0.048933,0.082479,0.056940,0.066268,0.144072,0.106894,0.038625,0.097383,0.078171
-0.041770,0.110737,0.077926,0.041464,0.159254,0.129689,0.055237,0.130917,0.098514
-0.027826,-0.070935,-0.047638,-0.065721,-0.137114,-0.100609,-0.059902,-0.106664,-0.079275
-0.039699,-0.059580,-0.045854,-0.048369,-0.094993,-0.076030,-0.034120,-0.067563,-0.055672
-0.021471,-0.052711,-0.041923,-0.061764,-0.109428,-0.076919,-0.051101,-0.094376,-0.064457
0.052095,0.098929,0.064868,0.078831,0.168493,0.125767,0.048876,0.110412,0.074189
0.031895,0.068355,0.056785,0.062366,0.131866,0.100866,0.046658,0.090901,0.067770
0.032777,0.074976,0.051417,0.068520,0.156022,0.105395,0.047729,0.104476,0.076236
0.018047,0.054819,0.041032,0.054756,0.116398,0.086913,0.043975,0.094358,0.073926
0.060513,0.083107,0.058455,0.087873,0.146290,0.100424,0.064973,0.098849,0.066164
-0.021729,-0.063590,-0.046215,-0.058217,-0.129587,-0.095038,-0.042794,-0.092215,-0.069299
-0.007846,-0.123649,-0.103257,0.014692,0.150271,0.118491,-0.012247,0.017667,0.013630
0.037898,0.076496,0.054186,0.068300,0.152181,0.111167,0.044333,0.097334,0.069825
-0.039039,-0.066218,-0.051013,-0.058901,-0.106529,-0.080784,-0.039735,-0.085495,-0.060632
0.035683,0.077813,0.057968,0.065315,0.147302,0.108899,0.047861,0.105648,0.070521
-0.034932,-0.064639,-0.050408,-0.052543,-0.100899,-0.088065,-0.047767,-0.087411,-0.075535
0.031855,0.071285,0.042514,0.064706,0.143866,0.105330,0.046950,0.104126,0.076847
-0.023068,-0.065663,-0.042432,-0.052543,-0.104925,-0.083025,-0.033760,-0.070996,-0.055303
-0.049341,-0.069133,-0.056618,-0.071343,-0.101020,-0.084707,-0.050937,-0.082826,-0.062223
0.040976,0.091515,0.074897,0.079252,0.142837,0.103628,0.043686,0.102445,0.079201
-0.029234,-0.063866,-0.043842,-0.057688,-0.108953,-0.085094,-0.046823,-0.082562,-0.060198
0.036520,0.082403,0.058774,0.068620,0.152760,0.112619,0.046873,0.102554,0.075966
-0.032762,-0.071569,-0.050075,-0.064523,-0.121533,-0.085025,-0.046029,-0.092678,-0.063054
0.031649,0.077073,0.051888,0.071179,0.147753,0.105606,0.052884,0.109057,0.078002
0.039202,0.078674,0.058694,0.076483,0.135113,0.097528,0.045645,0.096777,0.064907
-0.025275,-0.066090,-0.044012,-0.051786,-0.108311,-0.084030,-0.047921,-0.075395,-0.055449
0.034113,0.072366,0.059577,0.072456,0.154802,0.118596,0.053747,0.114552,0.080669
0.035294,0.078880,0.055683,0.071751,0.156489,0.113192,0.046660,0.108071,0.085167
0.024787,0.062698,0.044405,0.057091,0.141408,0.104347,0.044071,0.108191,0.074324
0.024696,0.067164,0.051421,0.045611,0.119820,0.093225,0.031040,0.087728,0.071134
-0.041570,-0.080063,-0.059943,-0.072496,-0.125030,-0.095586,-0.051561,-0.091561,-0.070330
-0.037208,-0.074294,-0.052405,-0.066201,-0.124943,-0.089019,-0.042594,-0.081508,-0.059700
-0.021152,-0.057768,-0.037068,-0.047117,-0.105466,-0.076097,-0.037350,-0.082976,-0.061015
0.036554,0.070286,0.052006,0.076905,0.145342,0.098685,0.056460,0.110051,0.074287
-0.043020,-0.075949,-0.067589,-0.060570,-0.091004,-0.088423,-0.031378,-0.066422,-0.058896
0.015769,0.045705,0.036795,0.049834,0.125419,0.099309,0.042468,0.097085,0.070537
-0.046549,-0.079631,-0.055779,-0.058744,-0.110328,-0.083487,-0.045406,-0.081956,-0.058783
0.036842,0.081655,0.057432,0.071872,0.158211,0.116660,0.053842,0.109901,0.074455
0.052130,0.086010,0.058197,0.049405,0.135019,0.102838,0.047816,0.090128,0.057248
0.041509,0.083780,0.058895,0.054192,0.155635,0.123013,0.049796,0.109668,0.077195
0.030521,0.074393,0.052745,0.057621,0.129476,0.095209,0.031781,0.083903,0.061609
-0.017590,0.225721,0.143672,0.168963,0.203712,0.109145,0.025628,-0.000058,0.052432
-0.030325,-0.061801,-0.044187,-0.058006,-0.093386,-0.069867,-0.031463,-0.059053,-0.038535
0.036248,0.079389,0.059458,0.064841,0.143537,0.099924,0.041672,0.098038,0.064811
-0.038838,-0.071336,-0.053745,-0.058019,-0.099028,-0.076954,-0.036368,-0.068906,-0.053316
0.031419,0.062541,0.046968,0.065767,0.129003,0.092969,0.041817,0.091173,0.071155
-0.004862,0.023412,0.023464,-0.017844,0.005248,0.023696,-0.014779,-0.017638,0.021325
-0.029541,-0.063974,-0.043959,-0.061493,-0.117821,-0.086617,-0.044784,-0.087682,-0.063048
-0.029505,-0.047527,-0.039207,-0.055867,-0.075239,-0.064636,-0.038733,-0.068041,-0.060301
0.025298,0.076423,0.050324,0.055817,0.146069,0.104893,0.042988,0.095609,0.072917
-0.029671,-0.054439,-0.036975,-0.053201,-0.108781,-0.084155,-0.040242,-0.085859,-0.069180
0.029810,0.069027,0.053689,0.054120,0.127772,0.088299,0.038054,0.086833,0.064402
0.034162,0.076409,0.055588,0.075269,0.145558,0.104150,0.047109,0.101703,0.075963
0.079503,0.140852,0.104182,0.075146,0.117612,0.078565,0.003060,-0.016027,-0.016140
0.037496,0.078412,0.054543,0.064394,0.122117,0.094699,0.042226,0.073668,0.056028
-0.026310,-0.070540,-0.055243,-0.057393,-0.119061,-0.093290,-0.034375,-0.094200,-0.071102
-0.025249,-0.054717,-0.041060,-0.051841,-0.103762,-0.079365,-0.035328,-0.077241,-0.060129
0.031452,0.082405,0.050924,0.071298,0.140542,0.098114,0.040038,0.093863,0.068258
-0.036530,-0.066473,-0.046188,-0.057038,-0.101085,-0.070092,-0.038424,-0.066157,-0.038975
-0.026214,-0.074055,-0.052667,-0.053626,-0.130298,-0.091040,-0.038344,-0.075245,-0.050577
0.030476,0.062278,0.047154,0.052454,0.139178,0.102652,0.039040,0.099147,0.070592
-0.032912,-0.066128,-0.050066,-0.058672,-0.121938,-0.089905,-0.036285,-0.085553,-0.062834
-0.050836,-0.079594,-0.056682,-0.061638,-0.118207,-0.085148,-0.029327,-0.067318,-0.053317
0.038977,0.079242,0.055284,0.075201,0.132314,0.099963,0.047259,0.094747,0.071119
0.040402,0.050419,0.037480,0.076639,0.150153,0.115180,0.064402,0.137409,0.102678
0.025223,0.060169,0.038707,0.063843,0.134035,0.091041,0.044461,0.097697,0.071709
-0.023546,-0.063406,-0.045145,-0.050093,-0.088657,-0.074163,-0.037171,-0.078341,-0.062469
-0.032536,-0.066721,-0.040482,-0.059482,-0.101876,-0.079892,-0.042805,-0.070303,-0.059344
0.033105,0.072260,0.052086,0.070238,0.149395,0.109515,0.054065,0.115615,0.082683
-0.034802,-0.058030,-0.053731,-0.045141,-0.069226,-0.072254,-0.044581,-0.069670,-0.065326
-0.022984,-0.055246,-0.044104,-0.047287,-0.095256,-0.077210,-0.037456,-0.077138,-0.064583
0.031733,0.089121,0.059191,0.069883,0.142825,0.099944,0.044640,0.079764,0.059691
-0.026074,-0.060189,-0.050642,-0.049331,-0.104790,-0.077269,-0.036045,-0.076554,-0.055039
-0.035574,-0.072660,-0.048159,-0.060344,-0.133090,-0.098648,-0.040328,-0.093118,-0.054737
0.034327,0.064262,0.042313,0.065723,0.124388,0.092515,0.042920,0.093884,0.066662
0.020763,0.049285,0.031701,0.062388,0.118212,0.087448,0.050914,0.098988,0.074497
-0.027197,-0.062207,-0.051011,-0.048362,-0.088523,-0.076921,-0.039255,-0.082687,-0.060630
0.030658,0.071956,0.053287,0.067226,0.148595,0.104066,0.047153,0.100098,0.074613
-0.037817,-0.061141,-0.045870,-0.045611,-0.083078,-0.072119,-0.041029,-0.069130,-0.060700
