0.013632,-0.036402,0.091702,0.056394,0.056910,-0.004636,0.228814,-0.089283,0.090318,0.012397,0.124832,0.036642,0.022445,0.003114,0.018205,0.011148,0.041420,-0.090829,-0.043980,-0.086026,0.020991,0.018577,0.039705,0.061050,-0.036581,-0.131026,0.072446,-0.028062,0.016525,0.094258,-0.000448,0.150250
0.010450,-0.056749,-0.001587,0.121870,-0.056438,-0.079597,0.096054,-0.086272,-0.051177,0.162276,0.031597,-0.138927,0.020524,0.026321,-0.145584,-0.095307,0.030422,0.021730,-0.078731,0.123539,0.031516,-0.098703,-0.058742,0.022007,0.060605,0.085441,-0.000534,-0.021680,0.213640,-0.060070,0.163336,0.022706
0.006910,0.019421,0.013723,0.153399,-0.039403,0.058904,0.027792,-0.079941,-0.034900,-0.050014,0.074750,-0.039536,-0.159665,-0.041131,0.014732,0.019938,-0.029083,-0.103736,-0.022615,-0.040744,0.021926,-0.004599,-0.053654,-0.082009,-0.220622,-0.062417,-0.068635,-0.004693,0.122938,0.047012,0.082295,0.081268
-0.221269,-0.026607,0.169885,0.042657,-0.024355,0.034657,-0.198395,0.065519,-0.130222,-0.078602,0.149021,0.032620,0.025283,0.080765,0.008379,-0.086810,-0.238304,-0.057226,-0.011770,0.252077,0.204969,0.102760,-0.039281,0.237002,-0.072147,0.012526,0.071191,-0.001202,0.017499,-0.283068,0.038217,0.072327
-0.006509,0.007726,0.110940,-0.086539,-0.143988,-0.107124,0.085065,-0.036237,0.001453,-0.051767,-0.023809,0.088611,0.028152,-0.019217,-0.033974,0.007981,-0.095138,-0.272552,-0.016395,-0.060841,0.023382,-0.125406,-0.170549,-0.008127,-0.009633,0.090511,0.014224,0.068496,-0.039585,0.025750,-0.115864,0.011719
-0.018923,0.118748,-0.154298,0.043390,0.106100,0.048535,-0.040776,0.027395,-0.058603,-0.024888,-0.089615,0.030226,-0.005459,0.029467,0.144540,0.033527,0.043969,0.125394,-0.092209,0.015080,0.106987,0.068649,0.000479,0.140170,-0.006240,-0.168207,-0.070571,-0.018216,-0.037836,-0.037346,-0.047928,-0.145897
0.066650,-0.047716,0.055541,0.059112,-0.077574,0.188627,0.014780,-0.075999,-0.055302,0.113801,0.034534,-0.026670,0.165744,-0.089136,-0.021317,-0.046342,0.080741,-0.081283,-0.140251,-0.119435,0.107757,0.002462,-0.017414,-0.000615,-0.057840,0.104785,-0.014829,0.048380,0.042054,-0.039325,-0.027605,0.101912
-0.084771,-0.153208,-0.086559,0.016105,0.123103,-0.088507,0.096011,-0.032366,-0.011591,0.003527,-0.008916,0.110436,0.012974,0.151524,-0.162510,-0.104767,0.018238,-0.029518,-0.048861,0.045475,0.091392,-0.048651,0.136875,-0.050696,-0.067608,-0.008039,-0.032905,0.069295,0.013561,-0.004766,-0.065029,0.127815
-0.174568,0.010324,0.179731,-0.025728,-0.104465,0.002114,-0.079779,0.046509,-0.077147,-0.079285,0.083055,0.203352,-0.050345,0.054279,0.056138,0.075444,-0.157335,-0.170294,-0.027504,0.071600,0.100886,0.047360,0.013737,0.107161,-0.097067,-0.005396,0.057065,0.056592,-0.038549,-0.139731,-0.060253,0.082960
-0.093446,0.025416,-0.037711,0.124601,0.146566,0.084726,-0.246637,-0.090663,0.003901,0.199246,0.056982,0.174823,-0.067179,0.269880,0.083067,-0.164891,0.046502,0.047485,-0.080619,-0.126389,-0.076162,-0.093041,-0.101109,0.016560,-0.014299,-0.036960,-0.006155,0.058116,-0.036729,0.053109,0.030409,-0.064585
-0.039852,0.046479,0.025443,0.014091,0.173833,0.065918,-0.020435,-0.010004,-0.022459,-0.057123,0.077326,0.045137,0.014138,0.110317,0.073234,0.032399,0.155075,0.048424,-0.060099,0.091277,-0.158402,0.055201,0.054468,0.157302,-0.033282,-0.064192,0.020552,-0.052805,-0.105268,-0.048213,-0.058174,-0.168801
0.216721,-0.058771,-0.005168,-0.097083,0.004442,0.302346,-0.040856,0.002155,0.087881,-0.017104,-0.076380,0.034556,0.062735,0.085863,-0.043635,-0.083437,0.081947,-0.038957,0.032084,0.025902,-0.041642,-0.121674,0.059308,0.098108,-0.065796,-0.016318,0.099496,0.142658,0.098112,-0.147982,-0.042996,-0.001112
0.109943,0.131990,0.007814,0.049522,-0.036592,0.063092,-0.074522,0.059016,0.011691,-0.109393,-0.053979,-0.059927,-0.051024,-0.123582,0.086732,0.025645,-0.038723,0.100213,0.075783,-0.078111,-0.048512,-0.030276,-0.087648,0.040811,0.059762,-0.038905,-0.024820,-0.074693,0.062357,0.022910,0.087682,-0.008822
0.078813,0.010628,0.085641,0.084326,0.136495,0.028616,0.089267,-0.078858,0.105153,-0.072891,0.105067,-0.001312,0.061409,0.057692,0.134764,0.052038,0.070680,-0.043095,0.011331,-0.001844,-0.067427,0.059900,0.117108,-0.033776,0.043007,-0.068316,-0.065008,-0.065631,0.029462,-0.036333,0.003033,0.078052
0.033045,-0.120008,0.046919,-0.117775,-0.121475,0.090674,0.026986,-0.137291,0.016490,-0.004059,0.046517,0.119646,0.042527,-0.041467,0.138902,0.046753,-0.143599,-0.014166,-0.022951,0.121538,0.010644,0.052668,-0.046530,-0.100812,-0.078686,0.014397,0.011733,-0.078670,0.165512,0.219615,0.131778,0.118589
-0.026249,0.047833,-0.143820,-0.070057,0.038772,0.014926,-0.134398,0.066348,-0.036163,-0.046782,-0.121706,0.056872,-0.053585,0.097708,0.046355,0.027876,-0.093972,0.023367,-0.072756,0.004852,0.223237,-0.113213,-0.030800,-0.045561,-0.060128,0.043628,-0.046516,0.006571,0.229081,0.142385,0.149201,0.052920
-0.104315,0.094447,-0.058552,0.128735,0.071122,0.114378,0.006140,-0.081465,0.111079,-0.110271,-0.058963,0.010608,0.032270,-0.127116,-0.041348,0.137624,0.043426,0.086820,0.015609,0.092557,-0.031695,-0.054779,-0.146328,-0.061876,0.077277,0.012023,0.186299,0.096314,-0.000096,-0.040292,0.034268,0.087454
0.018769,0.230342,0.093162,0.043161,-0.054463,0.124851,-0.024986,0.009099,0.028381,0.099304,-0.001286,-0.006590,0.069234,0.029106,-0.115640,-0.069506,-0.060656,0.089775,0.137858,-0.111483,-0.014186,0.084408,0.065545,0.056043,-0.159807,0.084315,-0.094433,-0.067932,-0.078226,0.124255,-0.039508,0.048346
0.142718,-0.104510,-0.062824,-0.034505,-0.023268,-0.043240,0.042198,-0.036251,-0.091074,-0.010859,0.002448,0.028304,0.060065,0.023491,0.062121,-0.116718,0.022122,-0.000891,-0.076296,0.010654,-0.085418,-0.091347,0.015760,-0.003567,0.076634,-0.103393,0.008220,-0.058774,0.064707,0.008890,0.051580,-0.094129
-0.109321,0.028644,0.058550,-0.041195,0.020377,-0.114698,-0.021929,-0.064463,0.040683,0.018067,0.009199,-0.052638,-0.182411,0.116416,0.072402,-0.040435,0.000937,0.072753,0.198900,0.130677,-0.091360,0.065943,-0.081263,-0.015000,0.010524,-0.042643,0.032674,0.047443,0.083921,-0.053600,-0.036880,0.026692
0.128680,-0.047005,-0.060546,0.103517,0.037595,-0.063534,-0.003971,-0.063760,-0.013805,0.023896,0.086880,0.197575,-0.004472,-0.126317,-0.068811,-0.023205,-0.059348,-0.006825,0.042259,0.037119,0.030882,0.084828,-0.030213,0.115316,-0.024544,0.092706,-0.004559,0.012154,0.235092,0.100005,-0.066679,-0.095873
0.183835,0.224223,0.098801,-0.003586,0.110564,-0.063079,-0.015733,-0.061520,0.193574,-0.180325,-0.002240,-0.016748,0.043559,0.010670,-0.201816,-0.191103,-0.107203,0.067008,-0.102060,0.086790,0.101126,-0.153230,0.048213,-0.080206,-0.104499,-0.104441,0.013998,0.065592,-0.066608,0.015716,-0.026280,-0.032506
0.189683,0.000459,0.076750,-0.088665,-0.052145,0.066103,-0.028542,-0.102809,0.047078,0.032920,-0.079957,0.099723,0.054029,0.090575,0.027532,-0.151522,0.038645,-0.049134,-0.103846,0.141305,0.077963,0.042327,0.131477,-0.004200,-0.191650,-0.023480,0.150804,0.156896,0.168137,-0.154815,-0.090411,-0.051403
0.026087,-0.055286,0.104836,0.179312,0.119339,0.029424,-0.051564,-0.081010,-0.039013,0.009002,0.017643,-0.129329,-0.091223,-0.059091,-0.035512,0.113425,0.027953,-0.087636,0.030731,-0.012639,-0.253422,-0.064790,-0.067373,0.018861,-0.158910,-0.010481,-0.040608,-0.048060,-0.097912,-0.041310,-0.032185,-0.068737
0.129448,0.003402,-0.090072,0.004132,0.024268,-0.047444,0.179294,-0.102735,0.091860,0.103449,-0.097783,-0.040394,-0.020450,-0.051785,0.022209,0.016275,0.218144,0.078458,-0.007852,-0.180290,-0.034519,-0.100453,0.008254,-0.154219,0.049575,-0.047647,-0.044115,-0.007988,-0.000752,0.199504,-0.037874,-0.049679
0.050568,-0.003870,-0.107259,-0.017225,-0.093496,-0.022682,-0.192461,-0.018467,-0.016590,-0.016303,-0.045622,0.088350,-0.002498,0.025036,-0.191153,0.109973,0.021335,0.016778,0.012353,0.020244,-0.078820,-0.083642,-0.069485,0.018926,-0.074405,-0.004444,0.053118,-0.100973,0.165013,0.022298,-0.057892,-0.015545
0.053097,-0.033883,0.028141,-0.040017,-0.105261,-0.047977,0.004488,-0.032374,0.243891,0.141291,0.077927,0.168730,0.182070,0.005822,0.041132,-0.043348,0.033209,-0.058452,0.053372,0.056848,-0.041526,0.097261,0.009107,0.128245,0.209329,-0.044872,0.212831,-0.227865,-0.136230,0.013088,-0.142243,0.046713
0.093117,0.136828,0.025200,0.020225,-0.016922,0.187304,0.009326,-0.002941,0.123559,-0.040107,-0.026433,0.083745,0.075942,0.070081,-0.179335,-0.004667,-0.120918,0.096032,0.004719,0.065561,-0.018699,-0.170643,0.047120,-0.012023,-0.062849,-0.052099,0.034050,0.001028,-0.116780,-0.014623,0.022408,-0.047426
-0.070420,-0.078339,0.138559,-0.064871,-0.027103,0.013068,-0.072494,0.081447,-0.027177,-0.060813,0.166635,0.093188,-0.030318,0.014284,0.081912,0.001405,-0.229909,-0.192277,-0.007419,0.051633,0.038466,-0.014989,-0.011778,0.085981,-0.086301,-0.018381,0.064239,0.078376,-0.081748,-0.034367,-0.029986,0.099264
-0.120025,-0.049501,0.109510,-0.005933,0.129827,0.083076,0.090201,0.085787,0.019494,0.005399,-0.010815,0.033406,-0.013600,0.064453,0.218313,-0.074246,0.133008,0.011101,-0.048298,0.022350,0.040710,0.029009,0.069094,-0.026220,0.005377,-0.024311,-0.042292,0.087289,-0.149653,0.032679,0.111243,-0.085545
-0.021717,0.113078,-0.078322,-0.025203,0.107618,-0.039630,0.010396,0.158584,-0.093331,0.027049,0.089817,0.008146,0.063927,0.028480,-0.062887,-0.032896,0.017292,-0.034043,0.153315,-0.097620,-0.040711,0.066925,0.107273,-0.036700,-0.013398,-0.090092,-0.018775,-0.037616,-0.043855,0.136932,-0.054981,0.028499
-0.087926,-0.016045,0.014305,0.011609,0.021940,-0.087412,0.047272,-0.044262,-0.109044,0.072439,0.019751,-0.087985,0.027234,-0.174707,0.033078,0.024344,0.149588,-0.068270,-0.085793,-0.025994,0.123549,0.177815,0.052285,-0.031188,-0.016670,0.046600,0.009552,-0.059848,0.073440,-0.022974,-0.021176,0.052976
-0.033489,-0.053431,0.047133,-0.028047,-0.052942,0.024782,0.215382,-0.082288,-0.023326,-0.051520,0.122806,-0.058325,-0.039154,-0.024463,-0.146771,-0.121790,-0.066204,-0.143557,-0.052568,0.007788,0.148872,0.027758,-0.105880,-0.020935,0.007181,0.054183,-0.060844,0.163035,0.121755,0.026075,-0.061221,0.131576
-0.026245,-0.077632,0.104263,-0.019921,0.107237,0.118405,0.163019,-0.088669,0.007635,0.014187,0.052269,0.034520,-0.052307,-0.012116,0.160358,-0.021012,0.005984,0.041176,-0.142689,0.036458,0.182803,0.176415,0.063132,0.034355,-0.041696,-0.077044,0.014151,0.076225,-0.003323,0.134064,0.084064,-0.077325
0.023724,-0.102030,0.145510,-0.097183,0.150156,-0.078239,-0.105533,0.086115,0.006661,0.131460,-0.013707,0.110441,0.036395,0.070913,-0.080751,0.036123,0.074101,-0.036316,0.030608,0.103881,0.049428,-0.094694,-0.053642,-0.079778,0.048887,0.217674,-0.038009,0.007048,0.009847,0.078192,0.073055,-0.041521
0.074483,-0.106983,0.059759,0.024465,-0.022014,-0.111528,-0.059779,0.035151,-0.057611,0.046479,-0.119932,-0.028195,0.091826,0.009984,-0.199619,0.068881,-0.154980,0.035619,0.067254,0.002824,-0.060019,-0.022637,0.023250,-0.023632,0.081669,0.082266,-0.101661,0.044066,0.087673,-0.060496,-0.099182,0.010265
0.077754,-0.019669,0.056280,0.093290,0.081584,0.005134,0.137702,-0.003503,-0.069891,-0.067325,0.173130,0.061534,-0.041352,-0.152603,0.031077,-0.028094,-0.117109,-0.046215,-0.014093,0.015716,-0.039966,0.073118,0.036453,-0.034323,-0.011588,0.062300,-0.036644,-0.050465,0.088115,0.075449,0.037040,0.079777
-0.130211,-0.048883,-0.021826,-0.012699,0.001340,-0.032280,-0.165051,-0.095423,-0.042308,0.120373,0.085591,-0.011989,0.027601,-0.090224,0.048170,0.068973,-0.045703,0.144760,-0.036646,-0.083764,-0.043333,-0.097997,0.013679,0.011842,0.116637,0.012788,-0.103987,-0.003231,-0.165434,-0.003697,0.051042,-0.014914
-0.092309,-0.028175,0.124897,0.089916,0.102373,0.064001,-0.012496,0.003792,-0.074441,-0.057020,-0.035343,-0.064402,0.025703,-0.025849,0.014110,-0.052615,-0.048523,0.020652,-0.010505,-0.034953,-0.060133,0.011357,-0.047114,0.006913,-0.041310,-0.137702,-0.140533,0.144979,0.049046,-0.109218,0.079794,0.022213
-0.010419,0.105145,-0.139189,0.022515,-0.032779,0.031861,0.000058,0.019890,0.024485,-0.056862,-0.125229,0.044336,-0.018725,0.020508,0.150801,-0.111272,-0.064740,0.013724,-0.050442,-0.043680,0.146324,0.128992,0.016616,0.000453,0.065580,-0.049968,-0.015340,0.100438,-0.103893,-0.048277,0.149390,0.066541
0.056039,0.072422,-0.182663,0.047103,-0.089091,0.013046,-0.162369,-0.092361,0.092483,0.015418,0.097953,-0.057429,0.007872,0.058914,-0.012254,0.179460,-0.152201,-0.018258,-0.037939,-0.049592,-0.012520,-0.044441,-0.107833,0.106238,-0.147704,-0.093263,0.034787,-0.172804,0.246828,0.048310,-0.095375,-0.000024
-0.017940,0.057921,-0.056374,-0.173665,0.063093,0.111897,-0.168190,0.043562,0.149303,0.010950,0.060974,-0.242579,0.010118,-0.056972,-0.045831,0.027702,-0.035239,0.042209,0.106235,-0.162625,-0.013778,-0.181491,0.009461,-0.002652,-0.063311,-0.074197,0.092949,-0.049290,-0.065898,0.060317,0.059582,0.116605
-0.118581,-0.089002,-0.080060,-0.113145,-0.006752,-0.048417,-0.166918,-0.032998,0.075565,0.154434,-0.050244,-0.067602,0.056256,0.125716,-0.098297,-0.019030,0.019852,0.058605,-0.016622,-0.034687,-0.078607,-0.131717,0.065293,-0.058562,-0.097659,-0.003611,0.106084,0.056742,-0.117641,-0.067515,0.005560,0.017733
0.075535,0.028171,-0.030748,-0.002183,0.016742,-0.014184,-0.068690,0.035973,0.006274,0.118828,-0.037505,-0.069821,0.013010,0.022141,-0.049764,0.015550,-0.008631,0.143353,-0.048333,-0.025760,-0.048229,0.091056,0.019841,0.037997,-0.018416,-0.119870,-0.038473,0.043562,-0.086638,-0.087332,0.109514,-0.057999
-0.002073,0.104618,-0.154447,0.016620,0.029784,0.095228,-0.025283,0.040834,-0.052562,0.028207,-0.058762,0.000636,-0.146465,-0.057583,0.136669,-0.135741,0.088514,0.081183,-0.091648,0.054385,0.061600,0.077853,-0.030758,-0.024419,-0.086129,0.031459,0.037103,-0.001416,-0.173814,-0.020558,0.054114,-0.145190
0.010236,-0.227678,-0.085187,-0.116010,0.019917,-0.164140,-0.020617,-0.026586,0.023192,-0.047102,0.025215,-0.063875,-0.075916,0.079113,0.060140,-0.001840,0.040564,-0.076998,-0.034715,0.058142,-0.048733,-0.078214,-0.084952,0.084565,0.102998,-0.131640,0.017416,0.071089,0.034304,-0.083919,-0.003918,-0.048759
0.104998,0.082228,0.068817,0.052115,0.056630,0.041371,-0.105677,0.076262,0.056186,-0.083472,-0.018444,0.025358,-0.072100,-0.063184,0.023903,0.003196,0.026537,-0.009848,0.031937,-0.078378,-0.071186,0.060296,-0.129030,-0.067496,0.014740,-0.068692,0.001462,-0.109570,0.041350,-0.026148,-0.013825,0.075272
-0.058115,-0.070391,0.010384,-0.041757,-0.028940,-0.105467,0.028254,0.050041,-0.128769,0.046117,0.003199,-0.119227,0.114778,-0.138679,0.026671,0.021165,0.102662,-0.052751,-0.116832,-0.093754,0.105365,0.145863,-0.023756,-0.025765,-0.001542,0.053228,-0.039728,0.092179,0.037948,0.017529,0.027268,0.120236
-0.068339,0.080225,-0.094167,-0.092446,0.062725,-0.026462,-0.105114,0.055914,0.044344,0.094958,-0.018236,-0.096998,0.053212,0.103456,-0.109458,0.051624,0.079561,0.002434,0.044084,0.075579,0.010197,0.027015,0.150416,0.017676,-0.132481,-0.047789,0.043115,0.000198,-0.091661,-0.039754,-0.034300,-0.067938
0.104905,0.164187,0.043263,0.051947,-0.005780,0.097338,0.072749,0.019395,0.131289,-0.091231,-0.021598,0.078121,0.007331,0.055528,-0.208378,-0.044316,-0.142156,0.089561,-0.014449,0.042809,0.048645,-0.197624,0.059928,-0.066160,-0.085878,-0.041593,-0.012096,-0.025736,-0.147130,0.020051,-0.002412,-0.056499
-0.053582,-0.029047,0.027578,-0.004085,-0.077460,0.029656,-0.102144,0.094327,-0.055732,-0.014579,0.122103,0.067459,0.057027,0.004420,0.002557,-0.088162,-0.126620,0.001803,-0.074777,0.153107,0.089842,0.048080,-0.016299,0.115800,0.037419,0.003484,0.020912,0.038390,0.019775,-0.094247,0.112580,0.141119
0.053504,-0.111925,0.138517,0.052244,-0.048894,-0.013430,0.009706,0.000031,0.003656,-0.004161,0.123614,0.073887,-0.020740,-0.037928,-0.127557,0.068248,-0.007343,0.054840,0.019604,-0.048478,-0.085843,0.001412,-0.024475,0.021172,-0.078165,-0.073221,0.056237,0.035366,0.141769,0.059411,-0.004490,0.016782
-0.115938,-0.065918,0.029677,-0.071828,0.040136,-0.026750,0.112987,0.076732,-0.022647,-0.044158,-0.138771,-0.260407,0.018306,0.000315,-0.112111,0.091275,-0.019535,0.028886,-0.061010,0.019146,0.074151,0.001724,0.113799,0.052475,0.014726,-0.052975,0.073315,-0.051421,-0.173130,-0.023715,-0.036548,0.003151
0.198825,0.087609,-0.152931,-0.057797,-0.150842,-0.064705,0.100376,0.016956,-0.149251,-0.046289,0.087362,-0.217571,0.116863,0.011501,0.202372,0.165706,-0.093409,0.024296,0.077661,0.132710,-0.054217,-0.076147,0.168526,-0.019159,0.033090,0.223179,0.066087,0.048583,-0.066937,-0.062639,-0.080499,-0.100132
0.112809,-0.080235,-0.135073,0.034694,-0.029025,-0.084310,-0.165222,-0.047928,0.046837,0.062574,-0.208379,0.016249,0.084600,0.011740,-0.149207,0.098356,-0.250772,0.030578,0.086184,-0.029271,-0.011532,0.070857,-0.101454,0.044127,-0.016591,-0.098591,-0.028652,0.001318,0.130967,-0.076503,-0.049676,0.069512
0.028711,-0.044778,-0.018998,0.007055,-0.039724,-0.051824,0.166185,-0.009059,-0.107989,-0.037483,0.011606,0.164476,-0.048190,-0.142633,-0.037724,-0.089379,-0.094269,-0.009811,0.009442,0.065510,0.044913,0.123850,0.014874,-0.047451,-0.002385,0.153720,-0.099723,-0.015119,0.109202,0.095716,0.055703,0.066414
-0.023524,-0.088465,-0.109950,0.111555,-0.055310,0.003234,0.051386,0.128605,0.011296,0.030636,0.136366,0.118055,-0.060455,0.083266,0.201239,0.140297,-0.026300,-0.012531,-0.183954,0.062241,0.143122,-0.099585,0.038219,-0.087183,-0.009769,0.019541,-0.037724,-0.071319,0.013404,0.032887,-0.163887,0.140355
-0.008970,0.067250,-0.213568,-0.068824,-0.051166,-0.001229,-0.207885,0.023740,0.020640,-0.022263,-0.162154,0.006027,0.051844,0.045344,0.001590,0.060074,-0.056721,0.083702,0.014324,-0.014574,0.139770,0.013869,-0.022782,-0.048173,0.002630,-0.016860,-0.036354,-0.035062,0.050164,-0.050256,0.042675,-0.037892
-0.052928,0.003397,-0.014768,-0.076654,0.066948,-0.074788,0.123460,-0.067960,-0.075327,-0.005484,0.057456,-0.155321,-0.019111,0.116232,0.083610,0.077882,-0.069576,-0.013347,0.010544,-0.017715,0.046076,0.010653,0.094250,0.127436,0.047822,0.151366,-0.026870,0.026418,-0.144541,0.041152,0.074865,0.025899
-0.067551,0.135089,0.040138,0.092495,-0.071237,0.189572,0.032636,0.014404,-0.029498,-0.000545,-0.024970,0.003425,0.072067,-0.085406,-0.154863,0.004338,-0.047826,-0.073453,-0.025553,-0.057952,0.018016,-0.066905,-0.000629,-0.063839,-0.027049,0.140543,-0.012359,-0.051398,0.005223,-0.009244,0.022747,0.083396
-0.067402,-0.038346,-0.096495,-0.075313,0.063082,-0.106416,-0.093500,0.108443,0.000397,0.073245,-0.078694,0.026034,-0.007764,0.168147,-0.228474,0.106273,0.161745,-0.071200,0.040968,0.079407,-0.033240,-0.079857,0.105817,0.002683,-0.076628,0.004417,0.006279,-0.036693,-0.032292,-0.057773,-0.036893,0.009129
-0.005980,0.059748,-0.157129,-0.118860,-0.155472,-0.040875,-0.089302,0.069211,0.124856,0.041966,-0.036461,0.146012,0.058763,0.084534,-0.019000,-0.077031,-0.045303,0.129905,-0.074725,-0.043469,0.259487,0.114280,-0.009862,0.048937,0.244178,-0.013359,0.126017,-0.004505,0.017861,-0.041881,-0.021474,0.098978
0.021150,0.054443,0.029739,0.000364,-0.019533,0.110310,-0.113228,0.055817,-0.071341,0.147449,-0.016082,-0.075123,0.197211,-0.077798,0.033311,-0.011751,0.131495,-0.059754,-0.039251,-0.104208,0.024566,0.148043,0.046041,0.043793,-0.125567,0.136419,0.010853,0.054904,0.056584,0.043571,-0.049060,0.135083
0.101034,-0.162950,-0.052191,-0.126988,0.031561,-0.061124,-0.051409,-0.068804,0.059219,-0.157038,-0.031183,0.012112,-0.158034,0.067071,-0.008911,-0.079140,0.055479,-0.062451,0.027702,0.049144,-0.024714,-0.132040,0.010928,-0.014661,0.062965,-0.119643,0.086244,0.016978,0.060015,-0.136249,0.035288,-0.088884
0.107510,-0.014935,0.061683,-0.000640,-0.052508,-0.005174,-0.029174,-0.204508,0.160455,-0.107760,-0.062185,0.097824,0.003393,0.040300,-0.067542,-0.139930,-0.034774,0.073304,-0.058350,0.054205,0.048412,-0.044177,0.095124,-0.021909,-0.085771,0.064822,-0.012095,0.091960,-0.035364,-0.033104,-0.008729,-0.016285
-0.093627,-0.100141,-0.072472,-0.037269,-0.196833,-0.021383,-0.009317,-0.003999,-0.037977,0.010354,-0.129773,0.242095,0.048507,0.188335,0.025900,0.081221,0.105963,0.047198,-0.053686,0.097282,-0.158938,0.101669,0.220228,-0.229560,-0.111413,0.093681,0.006109,-0.050837,-0.089298,-0.060075,0.019743,0.037917
-0.013628,0.137610,0.090032,0.049233,-0.065600,0.203661,-0.013931,0.049088,-0.040000,0.147046,-0.002611,-0.027176,0.095932,-0.052565,-0.058174,0.014587,0.039621,0.004595,0.033150,-0.065577,0.043635,0.092992,0.095095,-0.036001,-0.082747,0.130916,0.002632,-0.020396,0.042809,0.049457,-0.024492,0.133907
0.007529,-0.143117,0.191883,-0.003919,0.016374,-0.100540,0.053227,0.018976,-0.041353,0.013953,0.050432,0.066843,0.093015,0.051405,-0.054495,0.122141,0.004453,-0.046422,-0.021732,0.051962,-0.106057,-0.046046,0.015243,-0.030128,0.016086,0.040284,-0.059292,-0.063079,-0.004563,0.016693,0.019506,0.155057
0.026897,-0.106484,0.091084,-0.132728,-0.070721,-0.063611,0.107627,0.052084,0.037156,-0.020513,0.056395,-0.080757,0.053633,0.075018,0.010243,0.054430,-0.156676,-0.028170,0.019679,-0.053089,-0.075606,-0.047080,0.003257,-0.083890,-0.017250,0.217894,0.051552,0.160018,0.017502,0.045797,0.090669,0.094764
-0.285076,-0.240733,-0.056258,0.046460,-0.068204,-0.123787,0.104215,0.035715,0.002258,0.116585,-0.071777,0.180065,-0.006509,0.059081,-0.188543,-0.010233,0.060760,0.033187,0.005825,0.052205,0.078081,0.155573,0.122290,-0.047654,-0.157143,0.021802,0.026860,-0.050536,-0.016461,0.052198,0.017259,-0.055982
0.020024,0.138803,0.037857,0.108109,-0.037353,0.228932,-0.039681,-0.039059,-0.011257,0.035302,-0.083169,0.066721,0.208105,-0.112434,-0.103083,0.035738,0.053394,0.003166,-0.075955,-0.030470,0.052758,-0.079942,-0.000672,-0.046887,-0.037144,0.115305,0.115162,0.011082,-0.018712,0.005022,-0.001428,0.011269
-0.136265,-0.063547,-0.079540,0.114787,0.046942,-0.263937,0.101435,-0.091995,0.009703,-0.243705,-0.055557,0.094765,-0.067644,-0.116571,0.082431,0.136012,0.004960,-0.010305,-0.168342,0.142255,-0.014524,-0.089631,-0.210810,-0.146468,0.190256,-0.033350,0.135061,-0.014766,-0.009194,-0.086976,0.055371,-0.057141
-0.065565,-0.086501,-0.017120,0.041438,-0.101800,0.183195,0.029931,0.028666,0.003141,0.079868,0.113152,-0.018053,-0.259893,-0.021418,0.005098,0.016674,0.059841,0.018306,0.085892,-0.205272,-0.002698,-0.099271,0.099402,0.108887,0.115181,0.019481,0.017229,0.035542,0.071760,-0.069662,-0.019704,0.046846
0.029159,-0.036695,-0.091143,0.067188,0.031680,0.037790,-0.166931,-0.018781,-0.010635,-0.036518,0.018536,-0.053757,-0.014647,0.155034,-0.090566,0.023730,-0.026405,-0.055300,-0.036001,0.002355,-0.144941,0.205459,0.013264,-0.015971,0.208282,0.033574,-0.152589,-0.001218,-0.130799,0.040460,-0.021882,-0.030064
-0.014292,0.105353,0.059856,0.004490,-0.126449,-0.186227,-0.033459,0.050805,0.061873,0.113688,-0.080234,0.082352,0.074327,0.114178,0.096769,0.170186,0.119267,0.086393,0.038445,0.038440,-0.027187,-0.112783,-0.094196,0.126573,-0.142387,-0.005346,-0.065733,0.016850,-0.113965,-0.106374,0.042786,-0.029730
-0.056165,0.023089,-0.011683,0.028921,0.045237,0.007967,0.262170,-0.024707,-0.010763,-0.043005,0.117965,0.108445,-0.008152,-0.093399,0.097431,-0.121615,-0.020694,-0.072538,-0.014361,-0.024015,0.051338,0.098033,0.098163,0.013344,0.014682,0.039861,-0.058699,0.008193,0.032885,0.061766,0.040777,0.045749
0.040262,0.016603,-0.154298,0.013385,0.034837,0.126684,-0.066424,-0.015582,-0.021501,0.012292,-0.029795,-0.104148,0.034900,0.044058,0.076247,0.070290,-0.036415,0.109271,-0.054711,0.022432,-0.028782,0.108767,0.042280,0.118657,-0.007448,-0.097077,0.028123,0.049122,-0.202859,-0.143093,-0.051993,-0.038899
-0.169640,-0.154666,-0.115839,0.016275,-0.006951,-0.130780,0.118122,0.069665,0.014374,0.029352,-0.003802,-0.028516,-0.012942,-0.013915,-0.219227,0.058920,-0.021678,-0.024148,-0.077113,0.050465,0.098239,0.053434,0.095753,-0.029546,-0.123782,0.013070,-0.008125,-0.107069,0.021685,0.089610,-0.041949,0.006831
0.011071,-0.046198,0.023595,-0.062880,-0.006409,-0.054149,-0.138051,0.055239,0.074465,0.043020,-0.115348,-0.006598,0.002767,-0.014585,-0.166040,-0.014851,0.048678,-0.087613,0.107280,0.025454,-0.108423,-0.069400,-0.037701,-0.125573,-0.116133,0.037032,0.029483,-0.100025,-0.082743,-0.061986,0.018147,-0.027606
0.016443,-0.106874,-0.087505,-0.013789,-0.034388,-0.061683,-0.053316,0.046620,-0.027227,-0.025072,0.074406,-0.014165,-0.052165,-0.044337,0.049258,-0.021602,0.057076,-0.084202,-0.000751,0.017922,-0.043032,0.056035,0.014293,-0.032155,0.068430,-0.079880,0.056741,0.088087,0.148602,-0.003157,-0.001326,0.068983
0.061779,0.067419,-0.017005,0.066741,0.032172,0.275600,0.068739,0.051807,0.081988,-0.083170,-0.070061,0.059321,0.086526,0.004207,-0.149976,0.068643,-0.043625,-0.018560,0.027423,0.012751,-0.008361,-0.137774,-0.015501,0.052691,-0.000195,0.057430,0.034465,-0.031171,-0.087788,0.019823,0.031001,0.009742
-0.044381,0.104148,-0.099682,-0.043067,0.011114,0.088676,0.003662,0.074330,0.053977,-0.101909,-0.063623,-0.270428,-0.023322,-0.121204,-0.051184,0.012197,0.019736,0.001617,0.062483,-0.053536,-0.021616,0.060733,-0.013000,0.002503,-0.034405,-0.117654,-0.006702,-0.042898,-0.125935,-0.146045,-0.061757,-0.054918
-0.132544,0.024228,0.122367,-0.002555,0.102207,0.073743,-0.072609,0.095394,0.029484,0.011565,0.078188,-0.018011,0.005599,0.061592,0.033285,-0.102494,-0.149706,-0.166940,-0.087566,0.180475,0.082474,0.026846,-0.087834,0.150695,-0.078108,-0.031113,-0.050992,0.111122,0.019415,-0.044949,0.046260,0.074561
0.093530,0.115424,0.052284,-0.019650,0.126213,-0.241982,-0.145895,-0.030687,0.074347,-0.115130,-0.024687,-0.125938,0.130837,-0.099032,0.002504,-0.104392,0.057222,-0.024097,-0.155928,0.030929,0.090056,0.059740,-0.020420,-0.034952,-0.088655,-0.065799,0.024968,0.084884,0.036093,0.034348,-0.022802,0.041209
0.043443,-0.045914,0.250292,-0.058103,0.153233,-0.071612,0.280055,-0.136041,0.154035,0.000855,0.376817,-0.089122,0.037715,-0.127673,-0.072834,0.005969,-0.012279,-0.026120,-0.012155,-0.106782,-0.145824,-0.024555,0.026150,0.276407,-0.002972,-0.066647,0.199687,-0.095151,-0.010087,0.176967,-0.110436,0.129055
0.008173,-0.119885,-0.031357,0.101427,-0.094625,-0.034737,0.125854,-0.062860,-0.117908,-0.085361,-0.044124,0.094635,0.076449,-0.006762,-0.030020,0.028564,0.013719,0.014413,-0.127836,-0.036241,0.085856,-0.119243,-0.033037,-0.120990,0.017195,-0.100929,0.151464,0.010942,-0.009451,-0.089482,0.029398,0.024126
-0.032036,0.164415,-0.257274,-0.056014,-0.065648,0.018891,-0.129640,0.101000,-0.111884,-0.044261,-0.220839,0.066775,-0.097325,-0.029186,0.084860,-0.158007,-0.010969,0.011465,-0.094695,0.130692,0.185708,-0.025894,-0.072671,-0.047195,0.004320,0.120382,-0.108603,0.005170,0.034668,-0.016336,0.048932,-0.078526
0.088919,0.114556,0.019996,0.017272,-0.029594,0.021236,-0.036407,-0.073698,-0.057926,0.000483,0.064218,0.077571,-0.005661,0.005964,0.246426,-0.029886,-0.033734,-0.032214,-0.053700,0.022069,-0.041358,-0.129550,0.016055,-0.018388,0.061300,0.079019,-0.038133,0.034598,0.069401,-0.021466,0.033093,0.052515
-0.131788,0.037317,0.062673,0.048428,0.065707,0.037908,0.070271,-0.058798,0.032445,-0.163137,0.165456,-0.052966,-0.002414,0.040358,0.035900,-0.005886,0.222423,-0.151908,0.017463,0.007248,-0.068274,-0.062728,0.100898,0.000298,-0.083214,0.023722,0.035989,-0.118881,-0.008724,0.072581,-0.048656,-0.053859
0.076499,-0.095333,-0.051950,0.097247,-0.092744,0.042198,0.059552,-0.002615,-0.086781,-0.025235,0.040693,0.170748,0.112115,-0.069386,-0.011684,0.007974,-0.020751,-0.111147,-0.210051,-0.129252,0.070927,-0.140151,0.009962,-0.035196,0.069167,-0.027808,-0.007203,-0.029382,-0.088844,-0.050181,0.041927,-0.095899
0.008083,0.109155,-0.016468,-0.099477,-0.047898,-0.010568,0.141616,-0.028991,0.060998,0.037808,-0.125127,0.099044,-0.105348,-0.068931,0.061756,0.047609,0.104009,-0.086902,0.015182,-0.137185,0.140008,-0.115384,-0.112104,-0.157301,-0.020938,0.062482,-0.076585,0.105829,-0.000254,0.133950,-0.226349,-0.030288
-0.024549,-0.077686,0.144898,-0.075116,0.127787,-0.004512,0.065361,-0.067777,-0.086050,0.097229,0.002884,0.064092,-0.012241,-0.064641,0.082086,-0.089969,-0.095130,0.021521,0.050366,0.020454,0.007387,-0.059579,0.081358,0.077026,0.082788,0.054122,0.024631,0.113561,0.025684,0.127448,0.114738,0.029160
0.010006,-0.035635,-0.002944,-0.059171,0.095798,-0.132015,-0.124924,0.023903,-0.027574,-0.025319,-0.066591,-0.107055,0.154929,-0.083738,0.067445,0.007637,0.173909,-0.079086,-0.112606,-0.028000,0.040289,0.153696,-0.005615,-0.017385,-0.063399,-0.021355,0.068048,0.099234,0.088351,-0.003673,0.019270,0.103197
0.108024,-0.053540,-0.048468,-0.074604,0.092227,0.068290,-0.014031,-0.040203,0.120600,-0.146597,-0.038270,-0.035529,-0.076497,0.047744,0.036918,-0.041940,0.054948,-0.031392,0.074928,0.128494,-0.070486,-0.045122,-0.090613,0.044632,0.038577,-0.077335,0.105030,0.149415,0.130063,-0.135062,-0.010828,0.022523
-0.073729,0.083122,-0.155382,-0.106300,-0.020189,0.007344,-0.076031,0.118209,-0.085483,-0.111564,-0.143957,0.030591,-0.000742,0.082664,0.030033,0.024807,-0.128995,0.162696,0.022106,-0.099847,0.260545,-0.026482,-0.033169,-0.015393,0.042299,0.047044,-0.140182,0.194307,0.196860,-0.003126,0.175204,-0.045640
-0.051334,-0.032910,0.043008,0.017014,-0.152765,-0.029931,0.018350,0.014981,0.052861,-0.032703,0.013566,-0.000457,-0.065380,0.009481,-0.164453,-0.039726,-0.044008,-0.091792,0.023132,-0.062681,0.082347,-0.141943,-0.076327,0.043665,-0.075197,-0.021782,0.063449,0.031114,0.119260,0.180035,0.060374,0.150413
-0.055264,0.052942,0.058838,0.024867,-0.121065,0.042594,-0.049085,0.025389,-0.095751,-0.064937,-0.032153,0.005078,-0.100309,-0.130612,-0.040248,0.081709,-0.032336,-0.001492,-0.007879,-0.011410,-0.013116,-0.122995,0.003886,-0.022185,0.063062,-0.059059,-0.006905,-0.214968,0.136169,0.126012,-0.043436,0.074549
0.032004,0.003924,-0.226707,0.056859,-0.039401,-0.026991,0.183497,0.033089,-0.032037,-0.064076,0.025404,0.078173,-0.001338,-0.016177,-0.062461,-0.004742,-0.089406,-0.036862,-0.064849,-0.010929,0.160413,0.050206,0.009380,0.007737,-0.089086,0.026193,-0.135713,0.023452,0.112794,-0.019698,0.050245,0.022153
0.094160,-0.019826,-0.016586,-0.024080,0.090507,-0.073651,-0.185767,0.037222,0.010170,0.006374,-0.071887,-0.103776,0.163146,-0.071604,0.128947,-0.013713,0.201568,-0.100527,-0.085592,-0.061567,0.000442,0.176786,-0.036600,0.023749,-0.078751,0.023498,0.082540,0.143176,0.136816,-0.004504,-0.014133,0.148356
0.163616,0.128239,0.120291,0.081627,0.039030,0.095979,-0.153917,0.002057,-0.029540,-0.070997,0.033413,0.101302,-0.055285,0.017199,0.156297,-0.069821,0.017992,-0.000745,0.086359,-0.061540,-0.065639,-0.145321,-0.122536,-0.062311,0.191358,-0.005363,-0.029717,0.045945,0.045141,0.001160,0.027591,0.037925
-0.005067,0.057401,-0.097805,-0.108535,-0.053348,0.042971,0.038010,0.070899,0.020287,-0.109597,0.186515,0.030570,0.036309,0.082690,0.030446,0.119575,0.206247,0.111532,-0.133021,0.033086,-0.057179,-0.016159,0.009974,-0.010166,-0.017061,-0.040571,-0.033011,-0.085759,0.030021,0.072562,-0.070228,-0.028191
0.002880,0.004834,0.029748,-0.073423,-0.015265,-0.013817,0.025920,0.039889,-0.033723,-0.071308,0.078005,0.098919,0.003688,-0.060262,0.002329,-0.012734,0.211454,-0.027347,-0.018537,0.114620,-0.166137,-0.106374,0.012899,-0.041601,-0.033338,0.098718,0.007892,-0.127012,-0.058826,0.097930,-0.046495,-0.003279
-0.026288,-0.019675,0.071876,-0.140403,-0.119027,-0.055057,0.156466,-0.079520,-0.019872,-0.028411,0.032151,-0.038908,0.001817,-0.133786,-0.033882,0.059954,-0.117747,-0.030563,0.024936,0.083989,0.048819,-0.061111,0.086269,0.026064,-0.034587,0.118340,0.042819,0.026259,0.142386,0.126584,0.048283,0.153144
0.088938,-0.144493,-0.088816,-0.115087,0.091910,-0.046726,0.011351,0.022973,0.121334,-0.182630,-0.007428,-0.022170,-0.234931,0.096984,0.049044,-0.037530,0.014847,-0.044285,0.075174,0.101975,-0.070733,-0.072341,-0.073188,-0.007703,0.092819,-0.134376,0.058772,0.039903,0.076500,-0.115967,0.038821,-0.022683
0.075620,0.128608,-0.055343,0.008612,-0.013502,0.022490,-0.083751,0.011855,0.181098,0.147546,0.013943,0.031466,-0.027369,-0.045677,-0.060712,0.116986,0.016069,-0.107381,-0.071754,0.120699,-0.073353,0.090531,0.096083,0.080842,0.040188,0.048177,-0.179277,0.054764,0.036035,-0.066347,0.096917,-0.030811
0.121263,-0.045633,0.082081,0.090994,0.052156,0.005019,-0.011068,-0.077124,0.084297,0.055533,0.074793,-0.032730,-0.041881,0.073185,0.032081,0.037156,0.175855,-0.231302,-0.014845,0.079724,0.016794,-0.013907,-0.042017,-0.071355,-0.037489,0.068590,0.105177,-0.208700,-0.202276,0.078374,-0.045554,0.072631
0.040176,0.055249,0.140737,0.136086,-0.128084,-0.008142,0.006593,0.001885,-0.096793,0.109680,0.089201,0.227516,-0.009082,0.037029,0.206423,-0.092830,-0.012865,-0.018585,-0.004045,-0.067803,-0.017792,-0.136589,-0.069292,-0.093809,0.091014,-0.001174,-0.043959,0.169125,0.030811,-0.061098,0.025574,0.041416
0.128807,0.091777,0.047924,0.028636,-0.062371,0.273189,0.072391,-0.121521,0.070044,0.046429,0.019772,0.072517,0.113922,0.042290,-0.160816,-0.080141,-0.015280,0.020209,-0.041406,0.104934,0.082633,-0.119796,0.029630,-0.021628,-0.081621,0.036874,0.061214,0.147591,0.035876,-0.088786,-0.086042,-0.067730
0.048560,0.036033,-0.096932,-0.012297,0.129590,0.043257,-0.087135,0.048578,0.024225,0.011278,-0.052956,0.003428,0.067971,0.061666,0.147138,0.067045,0.076915,0.050064,0.060480,-0.010342,0.000445,-0.012312,0.055528,0.007666,-0.042748,-0.140310,-0.005881,-0.063816,-0.144702,-0.092558,0.080405,-0.046065
-0.094816,-0.014998,-0.140883,0.094461,0.004688,-0.121817,0.015832,0.015126,-0.027667,0.004455,-0.055849,0.038593,-0.061619,0.066411,-0.164560,0.054768,0.039968,0.083297,-0.094063,-0.088463,-0.013978,0.045319,0.162553,0.015449,-0.067045,0.033286,0.058137,0.025547,-0.048367,-0.122540,-0.114632,0.032497
0.178437,-0.082931,0.066174,0.053030,0.072017,-0.040471,-0.070088,-0.058919,-0.014779,0.088996,0.102917,0.024548,-0.102885,-0.088152,-0.088992,0.029600,0.095228,-0.110487,0.023074,0.113147,-0.085597,-0.095798,-0.047531,0.000155,-0.108352,0.033093,0.080639,-0.109729,0.001098,0.070510,-0.050815,0.038710
0.049121,-0.061320,0.153857,0.065556,0.033671,-0.003792,-0.065676,0.150593,0.017834,0.009756,0.052188,0.077273,-0.009232,0.023175,0.012453,-0.106079,0.017303,0.081540,0.035101,-0.144867,-0.062655,0.135526,-0.085559,-0.082659,0.092683,-0.003692,-0.008813,0.079407,-0.086018,0.029038,0.150091,-0.016252
0.086171,0.061813,-0.095581,0.005087,0.057509,-0.033053,0.226853,-0.245888,0.015826,0.179317,-0.092645,0.005986,-0.083225,-0.014850,0.021127,0.008886,0.318440,0.047238,-0.003590,-0.187911,0.109442,-0.108056,-0.014590,-0.172767,0.068610,-0.049155,-0.040655,-0.000312,0.013412,0.121267,-0.132724,-0.163482
0.213368,-0.089909,0.018892,-0.010789,-0.016967,0.115845,-0.293761,0.044803,-0.127669,0.045761,0.104128,0.048934,0.032464,0.273262,0.083617,0.167244,-0.011055,0.055731,-0.024348,0.106881,-0.031483,-0.103903,-0.024509,-0.226468,0.114263,0.063835,-0.084594,-0.020959,0.007165,0.124611,0.010906,0.068637
-0.074741,-0.013683,-0.140032,0.085559,0.014222,0.150750,0.035476,0.049098,0.111910,-0.029480,0.030370,-0.092617,0.011390,0.033155,0.126324,-0.053014,-0.159431,0.034504,-0.076223,0.056281,-0.086791,0.130435,-0.086468,0.086343,-0.067521,-0.060990,-0.086434,0.019204,0.018687,0.029091,-0.048826,-0.154780
-0.039098,-0.040216,0.040491,-0.116823,-0.047791,-0.053137,-0.072850,-0.136121,0.020367,0.165522,0.059222,-0.105126,-0.050099,0.072007,0.103288,-0.009307,0.125849,0.056653,0.068077,-0.014107,-0.029504,-0.047398,-0.049484,-0.066531,0.000379,-0.121691,0.034993,0.024148,-0.006527,-0.094201,0.019062,-0.072282
0.127250,0.225437,0.111865,-0.010053,0.035630,0.037972,-0.056110,-0.006511,0.053045,-0.039887,-0.026678,-0.127219,-0.071364,-0.212504,0.098940,0.052608,-0.071376,0.019964,0.016525,-0.092973,-0.060669,-0.065167,-0.225855,0.148695,0.102945,-0.072516,0.024346,-0.097983,0.060400,-0.006301,0.055588,-0.045631
-0.006490,0.044078,0.077485,-0.022100,0.056018,-0.006635,0.021871,0.106219,0.038501,-0.050912,0.050918,0.152495,-0.101443,0.113043,0.065819,-0.018168,-0.020845,0.069096,0.001347,-0.056973,0.050811,0.054141,0.034021,-0.111390,0.071439,-0.036814,-0.156230,0.033163,0.104023,0.006415,0.110384,0.043876
-0.023663,0.063054,-0.033721,0.066901,-0.025825,0.046565,-0.090388,-0.013260,0.001552,-0.031742,-0.039860,-0.088148,-0.004284,-0.063245,0.173051,0.097346,0.010011,0.070254,-0.035162,-0.053710,-0.068689,-0.022135,-0.034811,0.021309,-0.014609,-0.169180,0.036253,-0.207030,-0.090980,-0.005807,0.025787,0.023148
0.025640,-0.123647,-0.085509,-0.079298,0.059841,-0.145457,0.054185,0.021304,0.053681,-0.151627,0.018891,-0.035762,-0.255425,0.065798,0.049050,-0.020155,-0.022161,-0.013823,0.083714,0.096129,-0.039386,-0.060636,-0.058460,-0.047199,0.097144,-0.078703,0.002919,0.006475,0.036339,-0.091226,0.036723,-0.062324
-0.043821,0.163944,0.035890,0.102475,-0.025720,0.172887,0.000698,-0.089010,-0.004429,-0.061084,-0.057298,-0.027833,-0.058743,-0.067912,-0.122272,0.064013,0.057300,0.051174,-0.049983,-0.063259,0.071818,-0.015612,-0.055566,-0.022884,-0.023029,0.075439,0.086213,0.064104,0.041471,-0.058161,0.019935,-0.039453
0.025110,-0.017491,-0.069408,0.046860,-0.029949,0.034783,0.036180,-0.024892,-0.121406,0.003484,0.004998,0.181561,0.056380,-0.071421,0.066648,-0.068863,-0.062250,0.069737,-0.070072,0.080365,-0.036001,0.084867,0.055192,0.035549,-0.031750,0.105157,-0.083600,0.097707,0.103111,-0.064327,-0.083104,-0.091287
-0.057282,0.052208,0.174957,-0.176105,-0.015558,-0.017158,-0.050242,-0.006921,-0.037031,-0.060850,0.075097,0.146217,-0.094541,-0.004042,-0.001216,0.102923,-0.078929,-0.225267,0.028898,-0.017999,0.070431,-0.098753,-0.089271,0.044502,-0.087588,0.118726,0.020981,0.170556,-0.057785,0.039414,-0.227818,0.064657
0.002510,0.069857,-0.067439,-0.005108,0.024530,0.037334,-0.000207,0.078579,-0.006314,-0.082271,0.027617,-0.056484,-0.031947,-0.002417,0.160945,-0.071480,0.178175,-0.009622,-0.014949,0.035753,0.006070,-0.032606,-0.027070,-0.004448,-0.022037,0.084480,0.007454,-0.019499,-0.170735,0.029484,0.073740,-0.093779
-0.046441,-0.051489,-0.015884,0.109961,-0.053219,0.068533,-0.003475,-0.065845,-0.216568,-0.090219,0.037172,-0.105117,-0.095151,-0.137306,0.044641,0.073710,-0.040757,0.061241,0.031908,0.048681,-0.096645,-0.096483,0.042533,-0.120021,-0.243760,0.031539,-0.178624,0.198124,0.175062,0.020344,0.098460,-0.118738
-0.080314,0.048136,0.050186,-0.131472,-0.009696,0.009480,-0.096000,-0.024832,-0.076334,-0.142399,0.002182,0.146154,-0.034223,-0.000251,0.010926,0.122485,-0.105615,-0.156669,0.110168,-0.081642,0.056602,0.038330,0.004206,0.047856,-0.071802,-0.013452,0.052833,0.126428,-0.127520,0.012168,-0.193173,-0.075760
-0.028100,-0.032501,0.028614,0.069423,0.044915,0.051532,0.044684,0.030728,-0.162234,-0.087074,-0.036087,-0.087257,-0.105186,-0.015674,-0.030460,0.056171,0.028061,-0.077001,-0.059691,0.061777,-0.141414,-0.037255,0.008637,-0.134895,-0.215264,0.020569,-0.168530,0.065381,0.071676,0.025127,0.080020,-0.050085
-0.046455,0.025544,0.067780,0.069013,-0.023645,0.044401,0.024528,-0.092517,0.076292,0.022491,0.073529,-0.090992,-0.143764,-0.049598,-0.124078,0.013400,0.084077,-0.006541,-0.052746,-0.103304,0.091853,0.033980,0.063602,-0.043025,0.050027,0.007662,0.106621,-0.036055,-0.078375,-0.050055,-0.018153,0.023887
-0.030503,-0.033639,-0.031688,0.003490,-0.065424,0.174266,0.193988,-0.056697,-0.025703,0.033485,0.024055,0.069959,0.052617,0.040129,-0.196206,-0.040517,-0.085836,0.068819,0.071592,0.084910,0.076196,-0.121721,0.035636,0.013686,-0.031156,0.084138,-0.039127,0.118278,-0.071230,-0.010425,-0.025649,-0.061824
-0.006955,-0.013523,-0.037857,-0.006727,0.045422,0.024100,0.158142,0.131256,0.061434,-0.044832,0.011796,0.031867,0.078383,0.113733,0.181335,-0.056876,-0.094279,0.025029,-0.034644,-0.026022,-0.055530,-0.042741,-0.029485,0.093287,-0.119773,-0.126386,0.005027,0.077487,0.059184,0.117788,0.022594,0.136796
-0.177659,-0.071184,-0.007037,-0.012722,-0.039435,0.010863,-0.217952,-0.091614,-0.005203,0.084517,0.072013,-0.092345,0.052805,-0.097474,0.059291,0.003315,-0.032064,0.164055,-0.094370,-0.060681,-0.013406,-0.211938,-0.027302,0.030412,0.031251,0.022908,0.051762,0.022142,-0.131095,0.028187,-0.041013,-0.087199
0.069056,0.109295,-0.178744,-0.021270,-0.036807,0.059000,0.090280,0.017552,0.009471,-0.090286,0.034847,0.083660,-0.067715,-0.041190,0.079421,0.018046,0.080482,0.039767,-0.045688,-0.032976,0.191552,0.082458,0.015617,-0.030523,-0.058924,-0.054870,-0.006173,0.051692,0.103296,0.063859,0.065315,0.039570
0.088676,0.103935,0.006081,0.035118,-0.039085,-0.019741,0.092027,0.084653,0.021259,-0.027828,0.079618,0.059372,-0.084259,-0.018662,-0.104929,0.002141,0.051944,-0.017852,-0.037853,0.102280,-0.006274,0.023195,0.076649,0.055975,0.056251,0.016509,-0.018824,-0.037142,0.232392,0.071066,0.093769,0.109755
0.070271,0.069615,0.007816,-0.072200,-0.066957,-0.093377,-0.007941,0.011671,-0.096726,-0.035876,0.064516,-0.023016,0.002070,-0.027167,-0.055287,0.078528,0.175957,0.074728,-0.043852,0.003393,0.025814,-0.099986,-0.075399,-0.078653,0.035773,0.140034,-0.017731,-0.144086,0.125089,-0.029907,-0.062094,-0.171360
-0.084682,-0.047193,0.108007,0.102482,-0.004060,0.054895,0.254189,0.042754,0.158245,0.030600,0.039504,0.041119,-0.051917,-0.068868,0.165130,-0.050765,0.109922,-0.044479,-0.084866,-0.081093,0.096503,0.072389,0.027223,-0.104082,-0.055009,-0.077589,0.059330,-0.052726,-0.097773,0.011417,0.033412,-0.046079
0.088461,-0.051568,0.053153,-0.070411,-0.068691,-0.120005,0.003158,-0.001144,-0.021252,0.037381,-0.002343,-0.009862,0.056893,0.058525,-0.027417,-0.009826,-0.092345,-0.019744,-0.045441,0.069430,-0.017380,-0.088290,-0.031281,0.016646,-0.043968,0.191174,0.011202,0.084500,0.148083,0.160917,0.077023,0.057834
-0.184916,0.125762,-0.069815,0.144744,0.124915,0.114577,-0.019679,-0.108991,0.128090,-0.091940,-0.037099,0.023709,0.081146,-0.150601,-0.041075,0.212267,0.044230,0.125244,0.052759,0.195053,-0.038912,-0.034521,-0.245206,-0.076024,0.099596,0.075926,0.106622,0.097140,-0.052263,-0.017961,-0.034211,0.117796
0.100241,-0.122734,0.011780,0.095031,-0.068045,-0.045757,0.002123,-0.068815,0.129346,0.115479,-0.097161,-0.048358,0.024848,-0.036496,0.017361,0.039053,-0.189688,-0.125448,0.094699,-0.069430,-0.097099,0.026806,-0.016089,-0.074513,-0.066718,-0.035319,0.085741,0.001987,-0.068391,-0.103801,0.029095,0.106978
0.032326,-0.002742,0.003818,-0.108516,-0.043426,-0.014471,0.051043,0.001215,-0.030244,-0.037380,0.014758,0.170004,-0.025436,-0.024870,-0.004092,0.113854,-0.013971,-0.004703,0.094926,-0.102953,0.057491,-0.096710,-0.038277,-0.013803,-0.030663,-0.066562,0.001225,0.080091,0.052579,0.094223,-0.230424,0.034451
-0.103435,-0.096158,-0.033149,-0.013288,-0.061899,0.010776,-0.113925,-0.067937,-0.005036,0.039935,0.079641,-0.093649,-0.016596,-0.062885,0.015120,0.005853,-0.006831,0.058914,-0.087590,-0.132384,-0.008862,-0.203635,-0.028354,-0.004135,0.067112,-0.052380,0.006706,0.053971,-0.059105,0.015082,0.018826,-0.022515
-0.077229,0.084280,-0.042550,-0.059264,-0.182089,0.000234,0.078949,0.045177,0.027568,-0.172685,0.006345,-0.007487,0.006102,0.095328,-0.067989,-0.031726,-0.071043,0.025602,-0.073124,-0.098264,0.006827,0.002917,-0.025383,0.023400,0.059801,-0.027825,0.010270,0.055824,0.211501,0.067064,-0.021737,0.078127
-0.084052,0.044597,0.127378,-0.050628,-0.049870,0.006732,-0.128968,-0.072487,-0.109314,-0.021768,0.120238,0.121128,-0.011329,-0.039542,-0.000464,-0.007111,-0.163080,-0.194040,0.016061,0.058813,0.114071,0.046577,0.056046,0.045404,-0.021844,0.011628,0.056329,0.038871,-0.005731,-0.092533,-0.140002,-0.114889
0.038874,0.169463,0.066396,-0.061808,-0.212365,0.004817,-0.136274,-0.031161,-0.000933,0.062132,0.044895,-0.185137,-0.081567,-0.097908,0.006862,-0.049271,0.019663,-0.096541,0.043896,0.012415,-0.052350,0.025087,-0.075558,-0.035932,0.057206,-0.033554,-0.054777,-0.042038,-0.079786,0.081243,0.042197,-0.095629
-0.064912,0.105493,-0.163814,0.058312,-0.039721,0.105611,-0.088356,-0.083617,0.060196,-0.063207,-0.003444,-0.008993,-0.034018,-0.027003,0.150726,0.056633,-0.037486,0.043411,-0.079898,0.018969,-0.013575,-0.016823,0.029331,0.075163,-0.116147,-0.249498,-0.018420,-0.146603,0.004138,0.057849,-0.019280,0.083585
-0.060084,-0.179263,-0.112932,0.054633,0.079837,-0.165988,0.071643,0.046560,-0.006443,-0.150493,0.030834,0.074264,-0.039359,-0.045911,0.079767,0.083816,-0.021459,-0.087664,-0.162204,0.027517,-0.018647,-0.063912,-0.082053,-0.022264,0.152085,-0.034174,-0.039094,-0.012788,-0.020761,0.012225,0.069978,0.051449
-0.135400,0.096393,-0.168988,-0.073857,-0.126582,-0.026433,0.108914,0.082919,-0.095516,-0.218592,-0.124751,-0.068036,-0.110736,-0.053001,-0.129614,-0.089220,-0.239799,0.087652,-0.044693,-0.189016,0.169375,-0.039660,-0.094628,0.105654,-0.111787,0.006391,-0.078837,0.282056,0.250645,0.117985,0.200521,0.065835
0.030777,0.020473,-0.028883,0.076713,0.059284,0.000875,0.257778,-0.147455,0.132249,0.240625,-0.149815,-0.056983,-0.095307,-0.049989,0.091928,-0.058832,0.229074,-0.041007,-0.086496,-0.131752,0.201248,-0.087312,-0.048493,-0.160703,0.070183,-0.059301,-0.054479,0.077682,0.043442,0.143416,-0.004192,-0.042996
-0.118674,-0.097445,-0.065692,-0.041234,0.013667,-0.089612,-0.173052,-0.099602,0.019160,0.034158,-0.025352,-0.050354,-0.035806,0.032822,-0.026041,0.013860,0.038960,0.078697,-0.047614,-0.115230,0.006705,-0.203670,0.023333,0.067621,-0.036146,-0.030912,0.030945,-0.017917,-0.158897,-0.028707,-0.003573,-0.021769
-0.012456,0.085856,-0.046390,-0.146517,-0.027099,-0.068224,0.112069,0.036145,0.025957,0.030853,-0.006635,-0.052984,0.108954,0.050471,0.095886,-0.070424,0.014863,-0.053430,-0.059580,0.136012,0.073979,-0.008175,0.082914,0.046527,0.185861,0.110842,0.031469,-0.045214,-0.114797,-0.042403,-0.012697,0.122128
-0.099940,-0.118562,-0.099732,0.044419,-0.078994,0.030122,-0.106170,-0.038826,0.073884,0.048272,0.023658,-0.002590,-0.022931,-0.016964,-0.137596,0.014175,-0.029043,0.012482,0.014657,0.020610,0.016247,0.088609,-0.092809,-0.030427,-0.122869,-0.027737,0.068669,-0.111066,0.095977,0.087537,-0.086616,-0.158058
0.045401,-0.029200,-0.068236,0.069925,-0.019773,0.021812,-0.092434,0.011694,0.096921,0.009352,0.080251,0.180044,0.036466,-0.027185,-0.120394,-0.036777,0.027590,-0.011439,-0.040813,0.009076,-0.029144,0.102848,-0.081337,0.111963,0.031044,-0.054054,0.078162,-0.094104,0.169311,0.040191,-0.182374,-0.176179
-0.118784,-0.067577,-0.032289,-0.102342,0.044590,-0.183550,0.228118,0.131971,-0.015349,-0.017796,-0.082855,-0.144872,0.070287,-0.187322,-0.138249,0.026761,-0.127020,-0.084965,-0.027565,0.081987,0.040835,0.198818,-0.035293,0.127716,-0.096428,0.020024,-0.072928,-0.178830,0.034679,0.041115,0.011453,-0.043669
-0.104475,-0.084038,-0.039128,-0.054585,-0.011479,-0.205756,0.076720,0.059366,-0.033151,-0.054243,0.033066,-0.089060,-0.220633,-0.005627,0.012934,0.076661,-0.054925,-0.000536,0.086537,0.015436,-0.007449,0.045237,0.001622,-0.059452,0.094768,0.017237,-0.046644,-0.135018,-0.045136,0.045874,0.017518,-0.000427
0.005450,0.002605,-0.034927,0.028046,-0.039343,-0.015419,0.084338,-0.193655,-0.086543,0.002003,-0.075514,-0.016329,-0.021254,-0.002056,-0.154309,0.077971,-0.034258,-0.190757,-0.042678,-0.059204,0.122048,0.030947,-0.067708,-0.033750,0.066103,0.032860,0.075770,0.036573,-0.021594,-0.034350,0.134713,-0.039799
-0.023064,0.088045,-0.088131,-0.021914,-0.136959,-0.013655,-0.087107,0.071000,0.009532,-0.040692,-0.094547,0.046167,0.007323,0.054795,-0.056327,-0.033134,-0.005147,0.001946,-0.026622,-0.088055,0.043239,-0.000776,-0.065925,-0.055945,0.015153,0.031791,-0.012205,0.057190,-0.031131,-0.064190,0.089811,0.048838
-0.097409,-0.113779,-0.042079,-0.086163,0.042458,-0.110045,-0.070432,0.064802,-0.102963,0.072981,-0.014525,-0.087561,0.041558,-0.059448,0.181133,0.070951,0.139681,-0.104186,-0.037892,-0.074989,-0.074373,0.155252,-0.078654,0.084904,0.028910,0.013466,0.047532,-0.003664,0.114028,0.026810,0.024998,0.070725
-0.126446,-0.161493,0.029351,-0.021190,-0.002859,-0.032553,0.220600,-0.021369,-0.019835,0.010934,0.026084,0.088477,0.013931,0.017696,-0.129237,0.028401,-0.012821,0.017838,-0.027368,-0.019558,0.115448,0.127579,0.112562,0.031180,-0.038510,-0.011628,-0.005072,0.103608,-0.003318,0.019527,0.041042,0.064075
-0.054277,-0.008862,-0.048449,0.103646,-0.085610,-0.062571,0.048572,0.201018,-0.019777,-0.030368,-0.081538,-0.122705,-0.047304,-0.069420,-0.181160,-0.031449,0.087932,-0.059335,0.113523,-0.083461,0.043723,-0.019260,0.087170,-0.065217,-0.002428,-0.086067,0.078644,-0.015499,-0.052831,-0.163644,-0.101360,0.005677
-0.030757,-0.020709,-0.016447,-0.018497,0.032631,-0.111790,0.073169,-0.062501,0.115659,-0.083027,0.037852,0.042288,-0.316787,0.148379,0.028554,-0.019112,-0.082821,0.087257,0.179797,0.157478,-0.106299,-0.054194,-0.081878,-0.054480,0.116375,-0.103034,0.035120,-0.012174,0.026656,-0.048649,-0.004096,-0.094134
0.056604,0.142853,0.074938,0.086584,-0.034789,0.066830,-0.140833,0.078150,0.006863,-0.132486,-0.171849,-0.055045,-0.072372,-0.156438,0.123601,0.056617,0.043624,0.107673,0.040824,0.003204,-0.083811,-0.031963,0.000552,0.050703,0.106626,-0.056176,0.071668,-0.185474,0.025194,0.078983,0.034609,-0.117299
0.080884,0.089063,-0.011254,0.005533,-0.033612,-0.102727,-0.162553,0.024084,0.058633,0.014725,-0.089576,-0.069131,0.038228,0.006870,0.019145,0.108477,0.040968,-0.019671,0.079687,0.051989,-0.162231,-0.108437,0.029026,0.069170,-0.026130,0.029845,0.111766,-0.172485,-0.067796,-0.002320,-0.003014,-0.067076
0.050128,-0.019391,-0.038056,0.014793,-0.033839,0.025788,-0.095270,0.126033,0.071396,0.036962,-0.116055,-0.040046,-0.004776,0.032341,-0.078718,-0.041383,-0.076967,-0.074678,-0.008746,-0.016381,-0.263986,-0.044017,-0.065217,-0.082073,-0.020798,0.144923,0.058484,-0.000942,0.012444,0.043840,-0.081285,-0.131981
0.114802,0.007781,0.017666,-0.050356,0.033606,0.177594,-0.117232,0.043953,-0.005663,0.001581,-0.077757,-0.061604,0.145406,-0.046869,0.033006,-0.054916,0.173007,-0.120952,-0.012556,-0.067511,0.021194,0.083542,0.004459,0.046418,-0.090441,0.025179,0.068227,0.132237,0.155904,-0.039797,-0.034569,0.133904
0.030550,-0.135877,0.230373,0.215438,0.049184,0.001232,0.048604,-0.155816,0.011070,0.042367,0.116074,-0.035045,-0.079741,-0.008140,0.017180,0.063230,0.081424,-0.140273,-0.002111,0.024294,-0.243618,-0.036298,0.055813,-0.041171,-0.180568,-0.084558,0.058663,-0.009158,-0.072571,0.070360,0.009560,0.091124
0.089395,-0.083609,0.088490,0.002305,-0.014414,0.009194,-0.148711,0.058174,0.061102,0.017459,0.045564,0.162493,-0.008260,0.079228,-0.176107,-0.004781,0.017375,0.062771,0.043588,-0.137306,-0.079913,0.115009,-0.162029,-0.073110,0.042825,-0.036580,0.035159,0.080097,0.039244,0.042505,0.078869,-0.011825
-0.069335,-0.122551,-0.044478,-0.166776,0.067419,0.035668,-0.071883,-0.186115,-0.047170,0.043640,-0.107620,0.178963,0.107160,0.068410,0.044717,0.096133,-0.053253,0.077416,-0.017796,0.176170,-0.088456,0.075104,0.185389,0.093205,-0.075427,-0.062868,0.040379,-0.022910,0.064207,0.283845,0.213278,-0.066767
-0.090440,-0.025701,0.038806,0.079917,0.018477,0.034338,-0.153452,0.085120,-0.072945,-0.037784,0.137998,0.065326,0.021258,0.054076,0.000945,-0.038673,-0.126533,-0.043769,-0.075987,0.209016,0.084411,0.058462,0.002834,0.136551,-0.019161,0.035931,0.004007,0.007943,0.046571,-0.174393,0.107683,0.024204
0.299136,0.016249,-0.220845,0.002686,0.068603,-0.104013,0.472331,-0.212887,0.186813,0.245123,-0.248195,-0.152292,-0.058765,-0.037587,0.047600,0.055826,0.565260,0.204629,0.067859,-0.415802,-0.029569,-0.256103,-0.009755,-0.334136,0.084670,-0.107306,-0.161312,-0.001281,0.023514,0.454386,-0.106605,-0.096232
-0.000289,0.031322,-0.022220,0.078937,0.028538,0.019242,0.127289,-0.213368,-0.016095,0.051095,-0.054399,0.010986,-0.091045,-0.055911,0.031692,0.060295,0.124379,0.031444,-0.021022,-0.110116,0.127110,0.049743,0.032822,-0.083377,0.026006,-0.040071,0.025747,-0.036234,0.050284,-0.011956,-0.005143,-0.105486
0.016459,-0.030924,0.129420,-0.086511,0.079319,-0.105193,-0.196007,0.047691,-0.011953,0.090189,-0.041553,0.008331,0.022840,0.056450,-0.106517,0.027180,0.065219,0.023130,0.076248,0.027492,-0.019711,-0.119816,-0.121669,-0.050148,0.058050,0.055029,-0.013383,-0.031857,-0.004713,0.027866,0.053676,-0.065862
0.053892,-0.083590,0.100762,0.015960,0.131195,0.003270,-0.029415,-0.089118,0.079929,0.071657,0.091238,0.050950,-0.015531,0.057647,0.109756,0.072168,0.037443,-0.062973,-0.072093,0.100515,-0.086149,-0.073065,0.041655,0.049239,-0.080362,-0.033383,0.073331,-0.114988,-0.090810,0.188768,-0.002980,0.128181
-0.125839,0.013877,-0.017431,-0.076264,-0.085748,0.012378,-0.088980,-0.047768,0.089874,0.059224,-0.004782,-0.040507,-0.057083,0.030669,-0.095424,-0.010769,0.054985,-0.041986,-0.079359,-0.096818,-0.076330,-0.172784,0.003909,0.011443,0.006751,-0.018987,0.089420,0.078849,-0.055390,-0.104924,0.038301,-0.079585
0.022705,-0.015087,-0.191125,0.136642,-0.083676,0.013546,-0.105978,-0.131777,0.011046,0.084167,0.072127,0.118600,0.035153,0.144429,0.042473,0.167775,0.116846,-0.066499,-0.002142,0.032839,0.098767,-0.040803,0.022276,-0.069558,-0.075608,-0.062411,-0.051397,0.010619,-0.005771,-0.065983,0.048730,-0.025189
0.011497,-0.122584,-0.061267,-0.052729,-0.086210,-0.130151,-0.124076,-0.061192,-0.049617,-0.044079,0.042299,-0.068451,-0.080156,-0.011032,0.030380,-0.011463,0.013993,-0.053304,-0.090368,-0.156939,0.013930,-0.057555,0.009257,0.035613,0.011174,-0.087655,-0.047720,-0.050249,-0.036351,-0.031337,-0.000465,-0.105345
0.020577,-0.005256,-0.001291,-0.026401,-0.061795,0.095714,0.047531,-0.020322,0.002653,-0.031254,0.060455,0.045231,-0.121717,0.088194,-0.085806,-0.044646,-0.147961,0.044396,0.122847,0.105526,-0.030614,-0.163460,-0.011888,0.075044,0.073895,-0.059816,-0.085291,-0.055171,-0.076138,-0.027035,-0.027858,-0.199911
0.048535,0.049852,-0.042692,-0.112122,0.005591,0.025150,0.115013,-0.112926,-0.005001,0.058532,-0.014373,0.116586,-0.054595,-0.035302,0.057466,0.071955,0.103758,-0.091747,0.094060,-0.165140,0.038687,-0.070239,0.009981,-0.117815,0.045084,-0.028801,-0.027176,0.058811,-0.035067,0.197633,-0.173210,-0.125549
-0.010866,0.116898,0.165262,0.158595,-0.065047,0.072882,-0.067903,0.106565,-0.096210,-0.001816,0.005033,0.012106,-0.130811,-0.082520,0.201717,-0.018407,-0.089217,-0.030631,0.055608,-0.173275,-0.024537,0.039424,-0.126473,-0.022591,0.196176,0.024430,-0.094202,-0.176144,-0.061236,0.102209,0.086628,-0.067918
0.192110,-0.167373,0.079455,-0.004330,-0.105117,-0.013927,0.030152,-0.098465,-0.100067,-0.034982,-0.048887,0.047819,-0.069300,-0.053841,0.027143,-0.179388,0.016055,-0.044435,-0.086804,-0.121712,0.220179,0.018552,0.211829,0.019699,-0.069540,0.006702,0.003585,-0.039081,0.117487,-0.135779,-0.035377,-0.156871
-0.107947,0.001174,0.087897,0.120726,-0.056049,0.018051,-0.092184,0.063086,-0.057137,0.050897,0.132944,-0.106845,0.001831,0.068823,-0.041588,-0.098967,-0.158353,-0.010283,-0.129583,0.260964,0.100772,0.024076,-0.058526,0.148741,-0.030234,0.021308,0.008156,0.018702,0.152546,-0.152518,0.170139,0.096094
-0.098780,0.054993,0.020565,-0.038192,0.002913,-0.004664,-0.167777,0.011064,-0.037813,0.008555,0.040089,-0.108521,-0.093244,0.034714,-0.057851,0.067912,-0.032605,0.080987,0.023603,-0.055100,-0.055435,-0.041771,0.011483,-0.029263,0.008875,-0.103586,0.052492,-0.001558,-0.047843,0.096853,0.000792,0.035999
-0.042273,0.013232,0.041216,0.030131,-0.060598,-0.003804,0.091005,-0.086921,0.004490,0.092238,-0.056020,0.134017,-0.063101,0.056919,0.092665,0.075609,0.020967,0.071556,0.033371,0.038153,-0.034218,0.017877,-0.055834,0.033718,-0.056740,0.142763,-0.027138,0.035565,0.034695,-0.105231,0.047595,0.091910
0.173309,-0.084486,0.027401,-0.050180,-0.103654,0.136920,-0.015692,0.153088,0.011278,-0.006367,-0.015618,0.029591,0.069685,0.068149,-0.065108,-0.084544,-0.033750,-0.030219,0.008629,-0.099842,0.022442,-0.040591,0.191043,0.004632,-0.117156,-0.031555,-0.092779,-0.085159,-0.045867,-0.012547,0.033670,0.029486
-0.039829,0.015778,0.088460,-0.002565,-0.093733,-0.037262,-0.141772,-0.023290,-0.030363,-0.001561,0.058306,-0.154256,0.012482,-0.088221,-0.025288,-0.009350,-0.002167,0.109982,-0.025167,-0.066382,-0.005720,-0.052924,-0.104712,-0.030303,0.053046,0.043356,0.170489,0.021969,-0.047682,-0.010196,-0.028118,-0.147512
-0.130380,-0.009148,0.087268,-0.023423,-0.050720,0.046448,-0.173896,0.060350,-0.130948,-0.102065,0.106660,0.084016,-0.016554,0.028786,0.020423,-0.022517,-0.183976,-0.101397,-0.041447,0.153060,0.101343,0.065745,0.018088,0.089720,-0.080576,0.029156,0.044774,0.046433,0.019646,-0.176701,0.007497,-0.002366
-0.110221,0.047950,0.044900,-0.068689,-0.039219,0.049115,-0.154719,0.096637,-0.109280,-0.156225,0.062708,0.116586,-0.004283,-0.040127,-0.001386,-0.003479,-0.174042,-0.080611,-0.007026,0.085286,-0.013983,0.055440,-0.018195,0.110730,-0.056767,-0.030597,-0.016260,0.055627,-0.024227,-0.041741,-0.026765,0.003111
-0.093468,0.180020,0.033340,0.005231,-0.000914,-0.061135,-0.036287,-0.041695,-0.030684,0.075970,0.004207,-0.012594,-0.063250,0.056853,0.033361,0.073295,-0.008063,0.036734,0.150781,0.094584,-0.139097,0.079542,-0.113341,-0.058905,0.058950,-0.041114,0.108108,-0.024964,0.003143,0.041734,0.036466,-0.033565
0.028383,0.077858,-0.269255,-0.106286,-0.146582,0.033186,-0.076040,0.015870,0.074184,-0.013644,-0.090567,0.021695,-0.058503,0.145622,0.029211,0.016775,-0.036910,0.004998,-0.053186,0.032420,0.351096,0.070469,-0.053693,-0.066747,0.105433,0.033202,0.036207,-0.145937,-0.015956,0.148900,0.023389,0.151458
-0.036691,0.176835,-0.056694,-0.040547,0.001765,0.036962,0.102030,-0.011213,-0.052263,-0.134289,-0.025473,-0.165709,-0.019343,0.093696,0.183936,0.044581,0.074945,-0.074961,-0.024238,0.034685,-0.038338,-0.118303,0.133130,-0.009247,-0.008775,0.154770,-0.031851,-0.054990,-0.099377,-0.070973,-0.055683,-0.049468
0.193426,-0.060418,-0.026206,-0.082609,0.050672,-0.043217,-0.005047,-0.017352,-0.037569,0.033610,0.144563,0.053137,-0.078186,0.044399,-0.030616,0.052569,-0.077272,-0.033247,0.142807,0.094778,-0.007435,0.096469,0.069213,-0.015506,-0.031390,0.061097,-0.016609,0.098453,0.072561,0.083986,-0.021079,0.105240
-0.077286,-0.088742,-0.194690,-0.125832,0.093081,0.003328,0.037184,0.031872,0.131651,-0.077241,-0.040062,-0.210853,-0.003868,0.003256,-0.233471,0.129826,-0.041821,-0.015182,0.000032,0.004972,0.036784,0.055071,0.059849,0.083485,-0.159879,-0.050722,0.048002,-0.135874,-0.019200,0.074961,0.022182,0.105824
0.014628,0.023121,0.146513,0.009657,-0.015414,-0.031766,0.112712,-0.087715,0.031745,0.147177,0.120919,0.006338,-0.086433,0.022416,0.101994,-0.026860,0.093975,0.101241,-0.078643,-0.032169,0.234113,-0.047223,0.044992,-0.042615,-0.015614,-0.091049,-0.025368,0.091041,0.144781,0.129080,0.124300,0.129688
0.127307,-0.032361,-0.113113,-0.061082,0.082147,-0.029129,0.182646,-0.065636,0.042521,0.089681,-0.064055,0.016782,0.001585,-0.033093,0.078303,0.091083,0.204844,0.043804,0.005765,-0.170269,-0.033996,-0.109974,0.016716,-0.126189,0.039457,-0.091886,-0.090870,0.066831,-0.025917,0.220414,-0.134170,-0.130646
