-0.034375
-0.012402
0.037047
0.013002
-0.072275
0.003662
0.019603
-0.022504
0.203803
-0.019746
-0.033490
0.071303
0.034287
0.001953
0.079085
0.031298
0.191471
0.051424
0.040869
0.064203
0.065358
0.091413
0.000448
0.004909
0.069391
0.029259
0.151853
0.153902
-0.012748
0.173207
-0.022581
-0.033508
0.105600
-0.051348
0.121438
-0.055554
0.023825
-0.028841
0.082547
-0.085364
-0.042058
0.090768
-0.030078
-0.062383
-0.038280
-0.059107
0.047340
0.072078
0.018555
-0.027107
0.068357
-0.007151
-0.034244
-0.070101
-0.066536
0.107706
0.090239
0.032008
0.195399
-0.051910
-0.057881
-0.001415
0.030084
-0.029498
-0.057408
0.081853
-0.037405
-0.093698
0.106712
0.030838
0.064394
0.130925
0.042656
-0.107974
-0.031267
-0.009811
-0.048520
-0.049919
-0.104537
-0.081006
-0.014321
-0.048374
0.008860
-0.052042
0.083750
-0.011357
-0.070487
-0.038907
0.073293
0.096010
0.109634
0.103980
-0.000473
0.054688
0.102371
-0.038137
-0.033866
-0.075237
-0.049184
-0.037445
0.076857
-0.053641
0.027306
-0.027748
0.044919
0.045509
0.126019
0.014883
0.051205
0.006872
-0.040234
0.076008
-0.038648
-0.010647
0.193040
0.004782
0.077170
0.044879
0.003030
-0.053686
0.049438
0.005983
-0.066182
-0.085302
0.009032
-0.035733
0.063158
0.144265
-0.066243
0.179559
0.116688
0.015072
0.178028
0.022667
0.037432
0.004665
-0.021285
-0.004654
0.081268
-0.034961
-0.043415
-0.018225
0.066814
0.091814
0.037419
0.004877
0.201176
0.146780
0.159810
0.146412
-0.019164
-0.051887
-0.045516
-0.020267
-0.023505
0.008266
0.017698
0.045178
-0.065355
0.025183
0.061481
-0.003087
0.114947
0.055698
-0.067039
0.056208
-0.058298
-0.028987
-0.008723
-0.042252
0.017334
0.052716
-0.023473
-0.001455
-0.040468
-0.040827
0.027610
0.098379
0.015740
-0.003577
-0.007380
-0.032297
0.030971
0.104424
0.037049
0.067711
-0.004943
0.251070
-0.028950
-0.012136
-0.081390
0.014284
0.085303
0.019731
0.091568
0.044156
0.095624
0.054229
0.043503
0.088802
-0.061881
-0.032797
-0.057417
0.008226
0.102964
-0.000267
-0.053133
-0.064955
-0.021654
0.004582
0.017835
-0.011232
0.059342
0.140215
-0.077248
0.088645
0.045467
-0.061462
-0.128298
-0.069017
-0.056771
0.146068
0.157896
0.055930
-0.003000
0.064181
-0.041782
-0.028695
0.152012
-0.029705
-0.028313
-0.023328
0.048606
0.030512
0.102718
0.091612
-0.003612
-0.058865
0.035520
-0.015218
-0.028556
0.007926
0.130041
0.166332
0.179366
-0.038573
-0.063066
0.064650
0.059296
0.024364
0.084821
0.075136
-0.012601
0.039025
0.094573
0.112025
-0.046117
-0.002676
0.201926
0.166895
-0.008967
-0.055646
-0.055075
0.107156
0.139435
0.028514
0.046318
0.066857
0.014433
0.021106
0.025836
0.003475
0.042267
-0.026299
-0.060350
0.101939
-0.002444
-0.030733
-0.058259
-0.070903
0.021074
0.000311
-0.036412
0.000377
0.077816
0.094370
0.070570
0.033834
-0.006105
0.135421
-0.038021
0.183073
-0.072876
-0.046434
-0.006286
0.137003
0.078855
0.092610
0.080630
0.223381
-0.077906
0.012661
0.104116
0.101410
0.049662
-0.112355
0.045069
0.127734
0.098907
-0.034413
-0.051019
0.189009
-0.050829
-0.086564
0.065911
-0.101292
-0.002262
0.065134
0.022126
-0.053296
0.122361
0.127672
0.070594
0.001020
0.123636
-0.082939
0.050474
-0.135541
0.017059
-0.085768
-0.031388
-0.118616
-0.034909
0.087949
-0.027523
-0.005547
0.037950
0.002331
0.039688
-0.077350
-0.012486
-0.071271
-0.036597
-0.013346
-0.017930
0.064490
0.085260
-0.044507
-0.021131
0.069997
-0.023019
-0.020994
-0.034484
0.060969
0.003347
0.004420
0.182105
-0.026776
0.045804
-0.022339
0.016917
-0.051649
0.068300
-0.018713
0.194077
0.006605
0.117599
-0.030101
0.025144
-0.074581
0.055616
-0.120098
0.055337
-0.048202
0.011181
-0.005536
0.131755
-0.085362
-0.011676
-0.013428
-0.000299
0.010064
-0.067154
0.039934
0.046679
0.124734
0.087921
0.023277
0.077959
-0.033365
-0.041871
-0.051902
-0.014115
-0.014129
-0.054580
-0.030221
-0.008518
0.102634
0.110051
0.066109
0.028552
0.002523
0.179935
-0.027633
-0.020701
0.017439
0.216003
-0.012579
-0.045048
-0.074532
0.063910
-0.062595
0.179379
0.145628
-0.069770
-0.004470
0.067468
0.088197
-0.043655
0.069904
-0.076687
0.088459
-0.001595
-0.020486
-0.015566
0.065910
-0.068173
-0.075181
0.101836
-0.048757
0.049170
0.186656
-0.002055
0.098009
-0.039646
0.003813
0.127514
0.061429
-0.021422
0.157439
0.104464
-0.017021
-0.022043
0.091910
0.016987
-0.034008
0.019438
-0.048532
-0.031986
-0.061935
0.064724
0.079798
-0.033018
0.004566
0.032096
0.061256
-0.011579
-0.015864
-0.054631
-0.031997
0.057170
-0.045599
0.189633
-0.044026
-0.050724
0.022988
-0.018271
0.065283
0.006840
0.150031
0.031517
0.039444
0.143580
-0.027071
0.032196
0.019143
0.038710
0.033703
0.048643
0.053629
-0.020113
0.073366
-0.008197
0.000357
0.090853
0.124976
0.003925
0.024980
0.123526
-0.025328
-0.026331
0.061638
-0.038075
-0.049332
-0.014810
-0.024366
0.055831
0.018398
0.015167
0.030285
-0.006702
0.086040
0.089688
-0.010074
-0.027098
-0.013782
0.010908
0.013646
-0.076642
0.097641
0.080606
0.032069
0.183787
0.035969
0.089364
-0.036122
0.014918
0.129368
0.007414
-0.040577
0.048452
0.007133
0.011557
0.098524
-0.010963
0.022363
0.012360
-0.038736
-0.061604
0.055335
0.064517
-0.100511
0.118997
0.017622
0.040241
-0.125437
0.018207
0.003977
0.023469
-0.033524
0.127333
-0.051653
0.042710
0.004454
0.015269
0.120977
0.059824
-0.043860
0.124181
0.049585
-0.041625
0.023471
0.058760
-0.053611
-0.104562
-0.068480
-0.098787
0.049069
-0.057046
0.051805
-0.078846
-0.040450
0.023319
-0.035852
0.081154
0.020393
-0.070406
0.056204
-0.067785
0.110402
0.125410
-0.031366
-0.015574
0.085246
-0.015002
-0.005328
-0.017997
-0.040426
0.099560
0.019986
0.017920
-0.001230
0.123370
-0.036070
-0.069428
-0.015444
0.003578
0.127580
0.018261
0.117617
0.036459
-0.071604
0.011904
-0.030219
0.094822
-0.042161
0.106825
0.117537
-0.047114
0.196471
-0.007169
0.005566
0.071545
-0.063784
0.077887
-0.145437
-0.102456
0.077465
-0.016846
0.155930
0.072951
0.047176
0.095857
-0.010479
-0.106138
-0.059213
0.065742
-0.011067
0.030246
0.022102
0.073091
-0.062591
-0.024386
-0.040404
0.059143
-0.025033
0.044787
0.079249
0.076701
0.001891
-0.069762
-0.090272
-0.069743
-0.022995
0.067152
-0.064134
-0.052053
0.035266
-0.018594
-0.002897
0.158577
-0.052737
-0.025198
0.103187
0.107561
-0.083400
0.049812
0.003998
-0.078213
0.004895
0.069572
-0.090073
0.039119
-0.051169
0.041283
-0.021247
0.099887
0.181668
-0.041027
-0.011646
0.023876
0.152905
0.015262
-0.041667
0.079564
-0.016041
-0.017771
-0.005852
-0.014948
0.039510
0.128273
0.030102
0.031394
0.072862
-0.027146
0.152668
-0.062152
0.055486
-0.001874
0.005317
-0.026180
0.097001
0.037401
0.045879
0.039469
0.107889
-0.012875
0.115399
-0.024963
-0.045733
-0.052166
0.134897
0.193435
0.110273
-0.051426
0.045756
-0.087031
0.149340
-0.046200
-0.027427
0.043626
-0.057775
0.063253
0.028755
-0.031532
-0.060023
-0.082701
-0.027086
0.033989
0.030342
0.048395
0.020555
0.122215
0.150942
-0.022385
0.152659
0.109873
0.038444
0.003677
-0.050622
0.064975
-0.106142
0.003490
0.096289
0.017543
0.117176
0.040054
-0.102430
0.025644
-0.022154
-0.003551
-0.026049
0.002869
-0.033488
-0.040342
0.024062
-0.034777
-0.047008
-0.007753
0.064595
0.010160
0.038418
-0.110256
-0.053493
0.124985
0.084349
0.037247
-0.020499
0.043388
-0.069804
0.025081
0.031594
0.031271
0.084552
-0.029749
-0.058579
0.145199
0.094637
-0.022171
-0.085358
0.042630
-0.037563
0.024745
0.169223
0.060850
0.062679
0.001242
0.173627
0.186169
0.039587
-0.076240
0.090692
-0.131277
-0.019781
-0.068915
0.006917
-0.036342
-0.106519
0.100527
-0.021437
0.167873
0.035110
0.029552
0.129137
0.048182
-0.032432
-0.057444
0.113370
0.089565
0.047120
-0.007104
0.066243
0.038964
-0.018160
0.060918
0.042301
-0.057465
-0.045060
0.002839
0.063096
-0.004369
0.079049
-0.021024
0.012486
-0.016787
0.199338
-0.053301
0.027090
0.005591
0.138945
-0.012279
-0.013745
-0.016350
0.050071
-0.017773
-0.052071
-0.008582
-0.092784
0.075781
0.028999
0.098794
0.081081
0.120916
-0.040005
-0.047528
0.023582
0.120073
0.054110
-0.033907
-0.059446
-0.074515
0.060088
0.007862
-0.075769
0.023045
0.176194
0.112322
0.032360
0.066003
-0.047644
-0.020274
0.042462
0.043133
0.128317
0.023419
-0.035963
-0.016292
-0.079794
0.046476
0.029975
0.085039
0.170807
0.020552
0.175002
-0.062947
0.062457
-0.017648
-0.048912
-0.033480
-0.041374
-0.041594
0.059101
0.029534
0.014698
0.090502
0.037981
-0.000404
0.010933
0.006322
0.004274
0.020595
-0.113594
-0.040987
-0.059020
-0.033729
-0.015698
0.000007
0.131370
0.077175
0.112226
-0.032842
0.020681
0.013981
-0.036197
0.065325
0.002573
0.049352
0.087724
0.133107
0.042306
0.018281
-0.030951
-0.034159
-0.050705
0.075576
-0.059338
-0.007686
-0.001142
-0.110093
0.046172
0.154974
0.101158
-0.014367
-0.011478
0.085858
0.027557
-0.059766
0.011074
-0.132309
0.166900
0.064340
-0.062150
0.044695
-0.007053
0.117500
-0.071665
-0.052282
-0.063991
-0.015589
-0.053790
-0.040506
0.007780
-0.022609
-0.044511
0.103049
0.093358
-0.022751
-0.029334
0.037329
0.003980
0.025986
0.003626
0.081689
-0.049971
-0.005669
0.059022
0.072489
0.105151
0.008032
-0.007135
0.038391
0.086277
0.102733
-0.032181
-0.096173
0.057756
-0.047018
0.068096
-0.025845
0.041460
-0.010366
-0.061754
0.082572
-0.000736
-0.051878
-0.022432
-0.046522
0.007685
0.041172
-0.023191
