0.112681
0.210171
0.036012
0.250257
-0.031908
-0.060992
0.099920
0.036049
0.231406
0.057775
-0.167192
-0.087582
0.087860
-0.148246
-0.021738
-0.097998
0.108931
0.148400
-0.022687
-0.168774
-0.007950
-0.014723
-0.060123
-0.041357
0.077558
-0.024189
0.240157
0.080494
-0.174199
-0.200623
0.096496
0.000548
0.260742
-0.081706
-0.030290
-0.146383
0.186784
0.194643
0.055602
-0.064369
-0.040519
-0.007785
-0.280657
0.133123
0.038455
-0.046373
0.331937
0.169049
0.094034
0.214226
0.088895
0.058106
-0.009239
-0.331140
0.239596
0.025420
0.027736
0.169040
0.212211
0.132651
-0.006109
0.063751
0.197678
0.248282
0.035032
-0.185596
-0.076256
-0.011579
-0.056365
-0.076975
0.150193
0.156721
-0.035146
-0.060629
-0.288732
0.014762
0.271418
-0.002980
-0.198306
0.204942
-0.054133
0.168013
0.167545
-0.201854
0.056474
-0.094593
0.227995
-0.126274
0.031319
-0.329040
-0.166455
0.024477
0.290813
-0.062162
-0.258596
0.138576
-0.009094
-0.171600
0.168480
0.038396
0.049732
0.272668
-0.093862
-0.029015
-0.238948
-0.006310
0.166278
0.135356
0.071210
0.180680
0.216640
0.013438
-0.084600
0.021018
0.068914
0.202989
0.240363
0.081935
0.161376
0.211146
0.141355
-0.004004
0.155649
0.168783
0.219671
-0.023673
-0.046597
0.036743
0.055294
0.008610
0.136123
0.208179
0.158725
0.010870
0.188195
0.248642
0.129840
-0.054244
0.146431
-0.165371
0.045921
-0.014846
0.116120
-0.030912
